1.512321084737777710e-01 3.218348324298858643e-02 5.601248703896999359e-03 1.423020660877227783e-02 1.698587834835052490e-02 -2.047101408243179321e-02 -2.356123365461826324e-02 -1.125821471214294434e-01 -6.209996342658996582e-02 -3.443143516778945923e-02 3.190374076366424561e-01 6.816005706787109375e-02 -4.423739016056060791e-02 -3.354700207710266113e-01 -9.649129211902618408e-02 6.502606440335512161e-03 3.484007343649864197e-02 4.789194092154502869e-02 -2.682681009173393250e-02 -1.205025762319564819e-01 -6.992895901203155518e-02 4.670764133334159851e-02 -4.731067270040512085e-02 -2.188851125538349152e-02 -4.554766789078712463e-02 2.142908237874507904e-02 5.766611546277999878e-02 4.382631182670593262e-02 -1.848773509263992310e-01 3.646061941981315613e-02 1.948295719921588898e-02 -3.381533548235893250e-02 3.047125786542892456e-02 4.417352750897407532e-02 -3.985983133316040039e-01 -3.121025674045085907e-02 2.486598677933216095e-02 -3.524479642510414124e-02 -7.941816002130508423e-02 1.333602610975503922e-02 1.991306245326995850e-02 2.858589962124824524e-02 2.628963254392147064e-02 -2.435252629220485687e-02 3.503694757819175720e-02 3.892522677779197693e-02 -2.578555978834629059e-02 1.578584164381027222e-01 7.453134655952453613e-02 1.876554824411869049e-02 -2.358839474618434906e-02 3.592163324356079102e-02 -2.487506344914436340e-02 3.114619106054306030e-02 4.795829206705093384e-02 3.564585745334625244e-02 3.589139878749847412e-02 2.250562794506549835e-02 1.797007955610752106e-02 -1.821869015693664551e-01 -1.669239401817321777e-01 -8.728021383285522461e-02 -1.746325567364692688e-02 -2.699224464595317841e-02 -4.105613529682159424e-01 1.813014969229698181e-02 3.410406783223152161e-02 -4.583825170993804932e-02 -1.009582877159118652e-01 -3.363835066556930542e-02 8.002948947250843048e-03 2.278872765600681305e-02 -1.791928149759769440e-02 -3.246077895164489746e-02 2.632562443614006042e-02 -1.526973862200975418e-02 -8.766495436429977417e-02 3.187210485339164734e-02 -7.724562287330627441e-02 1.892515085637569427e-02 2.000545263290405273e-01 5.208600685000419617e-02 7.942803949117660522e-02 9.388754516839981079e-02 1.093325614929199219e-01 3.000527061522006989e-02 -5.129786208271980286e-02 9.459972381591796875e-02 -9.027264267206192017e-02 1.494994163513183594e-01 -4.270656034350395203e-02 2.126857265830039978e-02 3.333486616611480713e-02 4.873166978359222412e-02 3.341564163565635681e-02 -1.209085434675216675e-02 -4.427389055490493774e-02 -1.057173684239387512e-01 -1.638428717851638794e-01 -3.327827900648117065e-02 3.114071674644947052e-02 3.137409314513206482e-02 4.955944046378135681e-02 6.427063047885894775e-02 1.482661999762058258e-02 5.468083545565605164e-02 -1.574867218732833862e-02 -3.613771125674247742e-02 2.772065252065658569e-02 -2.004785835742950439e-02 3.077697753906250000e-02 1.739229634404182434e-02 1.624795794486999512e-02 2.417333424091339111e-02 -1.932393014430999756e-02 -3.882865235209465027e-02 6.499071419239044189e-02 5.548468977212905884e-02 5.430977791547775269e-02 -1.226641424000263214e-02 -2.194420248270034790e-02 3.202029690146446228e-02 -6.452503055334091187e-02 1.717615500092506409e-02 3.114291280508041382e-02 4.433079808950424194e-02 -1.872227527201175690e-02 -2.444392144680023193e-01 2.430924400687217712e-02 1.539646834135055542e-01 4.174629226326942444e-02 -3.628068864345550537e-01 -2.581532113254070282e-02 2.150856144726276398e-02 1.392445340752601624e-02 1.373789925128221512e-02 3.728924319148063660e-02 1.999500766396522522e-02 1.318739820271730423e-02 -2.788706496357917786e-02 4.826760292053222656e-02 4.767424240708351135e-02 3.934846445918083191e-02 -2.382645383477210999e-02 -1.603110320866107941e-02 1.743961125612258911e-02 -1.697785705327987671e-01 2.188229747116565704e-02 1.448526885360479355e-02 3.120472282171249390e-02 1.957375556230545044e-02 2.591888979077339172e-02 -2.066135555505752563e-01 3.682699427008628845e-02 -3.832421004772186279e-01 -6.206631660461425781e-02 2.160375937819480896e-02 -2.831021882593631744e-02 -1.874051801860332489e-02 -4.294881224632263184e-02 2.169684134423732758e-02 -6.901298463344573975e-02 -4.002497717738151550e-02 -4.728636518120765686e-02 -6.364259123802185059e-02 -2.629477381706237793e-01 -1.000288724899291992e-01 1.659031026065349579e-02 -2.807429246604442596e-02 1.410514675080776215e-02 -3.213751688599586487e-02 5.040845274925231934e-02 -7.369375973939895630e-02 -2.507331781089305878e-02 2.407669462263584137e-02 -4.031281173229217529e-02 1.563140936195850372e-02 -2.847545035183429718e-02 -4.948727414011955261e-02 -1.383222043514251709e-01 -1.627210341393947601e-02 -8.955596946179866791e-03 2.397393435239791870e-02 4.656863212585449219e-02 4.437536746263504028e-02 3.114327229559421539e-02 8.015793748199939728e-03 4.012570530176162720e-02 3.403775095939636230e-01 -4.893738776445388794e-02 1.703045144677162170e-02 -2.762532606720924377e-02 2.937519922852516174e-02 -5.954051762819290161e-02 3.170285001397132874e-02 -8.744838833808898926e-02 -3.600288182497024536e-02 -2.055516242980957031e-01 4.114806279540061951e-02 -1.266423426568508148e-02 -3.341629728674888611e-02 2.200375124812126160e-02 -3.246884793043136597e-02 -1.426274925470352173e-01 -1.610026061534881592e-01 2.257320098578929901e-02 -1.972687989473342896e-01 -4.174252599477767944e-02 4.680688679218292236e-02 5.388359352946281433e-02 -5.891567468643188477e-02 3.716886788606643677e-02 -2.611932344734668732e-02 4.679716378450393677e-02 3.250607848167419434e-02 -3.664977476000785828e-02 5.237739533185958862e-02 1.315719187259674072e-01 -4.671724513173103333e-02 4.000641405582427979e-02 -2.679705619812011719e-02 -6.473974883556365967e-02 -2.668154425919055939e-02 1.688725687563419342e-02 5.763525888323783875e-02 1.691914498805999756e-01 -8.370655030012130737e-02 -3.005440719425678253e-02 -6.378232687711715698e-02 3.147875890135765076e-02 -2.378396131098270416e-02 2.421845309436321259e-02 4.319782182574272156e-02 2.354103140532970428e-02 -3.470558300614356995e-02 2.243616618216037750e-02 -4.691961035132408142e-02 3.655594587326049805e-02 -3.224595636129379272e-02 -1.673885732889175415e-01 1.060716360807418823e-01 2.300685271620750427e-02 -4.102576896548271179e-02 -1.345204710960388184e-01 -6.153210252523422241e-02 -2.425857074558734894e-02 -8.226828277111053467e-02 -2.501224912703037262e-02 5.280115082859992981e-02 5.329458415508270264e-02 3.783475607633590698e-03 -1.925103925168514252e-02 -1.324825435876846313e-01 -1.959628611803054810e-01 3.890150412917137146e-02 2.319894172251224518e-02 3.229519724845886230e-02 2.452015876770019531e-02 -1.815710961818695068e-01 -4.690111801028251648e-02 2.073707804083824158e-02 -1.390615105628967285e-01 -1.803055033087730408e-02 3.266474604606628418e-02 -3.979183733463287354e-02 -4.027046263217926025e-02 2.112834528088569641e-02 2.136106416583061218e-02 -3.416291996836662292e-02 9.905407205224037170e-03 -4.660214483737945557e-02 3.229287266731262207e-02 7.466995622962713242e-03 -2.812260016798973083e-02 3.510509431362152100e-02 2.354896366596221924e-01 1.938743889331817627e-02 6.111914664506912231e-02 -3.537265583872795105e-02 2.030224725604057312e-02 3.063467331230640411e-02 1.288053989410400391e-01 -4.442128911614418030e-02 4.961077496409416199e-02 2.558269910514354706e-02 1.464608591049909592e-02 -3.435043618083000183e-02 -3.142428025603294373e-02 2.380752414464950562e-01 2.099873572587966919e-01 -4.034160077571868896e-02 -3.270701691508293152e-02 -1.710541099309921265e-01 -1.363788843154907227e-01 2.332397969439625740e-03 2.433495596051216125e-02 -1.746835261583328247e-01 -3.269446268677711487e-02 -3.791849687695503235e-02 -3.136799111962318420e-02 -1.365756094455718994e-01 1.759542971849441528e-01 -1.199897751212120056e-01 2.986898645758628845e-02 -3.419611603021621704e-02 1.239058747887611389e-02 -2.211061269044876099e-01 3.924681991338729858e-02 4.582258686423301697e-02 6.101857405155897141e-03 -3.324367105960845947e-02 -7.638924568891525269e-02 4.179223999381065369e-02 1.030748151242733002e-02 1.158053353428840637e-01 -3.006294183433055878e-02 3.861227631568908691e-02 -4.325774312019348145e-02 3.206043317914009094e-02 -4.647470638155937195e-02 -6.966465711593627930e-02 1.249144691973924637e-02 -1.578877568244934082e-01 4.162118211388587952e-02 2.823860943317413330e-02 3.133967891335487366e-02 -2.170420438051223755e-01 -1.425540000200271606e-01 -4.003860801458358765e-02 1.058458089828491211e-01 2.431087568402290344e-02 1.108964718878269196e-02 -1.616248190402984619e-01 1.930866576731204987e-02 -2.169231325387954712e-02 -3.611287847161293030e-02 2.031791023910045624e-02 3.328328207135200500e-02 3.514339029788970947e-02 3.031645156443119049e-02 -6.092759966850280762e-02 2.482018806040287018e-02 -6.863851845264434814e-02 5.756154283881187439e-02 3.683659061789512634e-02 2.642326243221759796e-02 -9.601406753063201904e-02 3.171999379992485046e-02 1.009738910943269730e-02 -4.522773623466491699e-02 2.873820066452026367e-02 2.874075435101985931e-02 -4.418821260333061218e-02 -2.409281581640243530e-02 4.480163007974624634e-02 -2.470214106142520905e-02 2.805776335299015045e-02 1.738768219947814941e-01 1.429882366210222244e-02 1.160200592130422592e-02 -4.257223382592201233e-02 -2.336136624217033386e-02 1.638654172420501709e-01 3.788500279188156128e-02 3.569062799215316772e-02 -2.313862927258014679e-02 -3.879419714212417603e-02 5.008141696453094482e-02 -3.531579300761222839e-02 4.508044570684432983e-02 2.972661890089511871e-02 -1.632414571940898895e-02 2.312723547220230103e-02 -3.210396692156791687e-02 -1.888186633586883545e-01 -2.976618893444538116e-02 -1.513374224305152893e-02 -2.341217547655105591e-01 -1.335271149873733521e-01 3.227464482188224792e-02 2.683692425489425659e-02 -2.916298508644104004e-01 3.461007028818130493e-02 -3.681160137057304382e-02 -3.367244824767112732e-02 -2.098481915891170502e-02 -8.010987192392349243e-02 2.495555393397808075e-02 -1.644348725676536560e-02 4.176355153322219849e-02 -1.370846629142761230e-01 3.155372291803359985e-02 -2.064549177885055542e-01 -2.115765511989593506e-01 -2.729100920259952545e-02 -2.955456264317035675e-02 3.546956554055213928e-02 2.380296587944030762e-02 2.773281559348106384e-02 1.694730818271636963e-01 4.871484637260437012e-02 2.762309461832046509e-02 -2.986325696110725403e-02 6.654769927263259888e-02 -4.287154972553253174e-02 -1.359447687864303589e-01 -1.683800667524337769e-02 -1.448181718587875366e-01 1.372614502906799316e-02 -1.752302050590515137e-01 -2.507568337023258209e-02 -6.646829843521118164e-02 -1.411598473787307739e-01 2.641145698726177216e-02 1.477742660790681839e-02 -2.159840799868106842e-02 4.244479537010192871e-02 -1.814023405313491821e-01 3.953245654702186584e-02 1.868235692381858826e-02 3.042516857385635376e-02 -2.225637622177600861e-02 1.498793158680200577e-02 1.484437938779592514e-02 1.624185219407081604e-02 3.699604570865631104e-01 2.882169000804424286e-02 2.183885313570499420e-02 1.034098211675882339e-02 -4.140826687216758728e-02 1.113268919289112091e-02 -7.493558526039123535e-02 -3.347719311714172363e-01 -2.904446609318256378e-02 -3.702840954065322876e-02 5.182071030139923096e-02 -3.144551068544387817e-02 -4.160452261567115784e-02 -9.474171698093414307e-02 1.927528157830238342e-02 2.802717871963977814e-02 2.917116321623325348e-02 3.642131760716438293e-02 -3.157811239361763000e-02 3.739024698734283447e-02 -3.330931439995765686e-02 3.156737983226776123e-02 -1.413512527942657471e-01 -1.629606261849403381e-02 1.697804406285285950e-02 -3.090638853609561920e-02 -1.720860898494720459e-01 -1.942768990993499756e-01 4.872247576713562012e-02 -2.216395363211631775e-02 3.464840352535247803e-02 -2.219461463391780853e-02 -1.201972588896751404e-01 -1.227005347609519958e-01 -3.435051813721656799e-02 3.712327405810356140e-02 1.893687434494495392e-02 2.422466687858104706e-02 -1.500131189823150635e-01 -1.424335092306137085e-01 4.030597954988479614e-02 -1.089636608958244324e-01 2.174896933138370514e-02 -5.103056505322456360e-02 -3.395511582493782043e-02 -7.030905783176422119e-02 3.279531002044677734e-02 1.454153098165988922e-02 5.464128032326698303e-02 4.216264188289642334e-02 -2.397413738071918488e-02 1.259631514549255371e-01 3.475037962198257446e-02 3.535110875964164734e-02 1.766012907028198242e-01 -2.699329517781734467e-02 6.633936613798141479e-02 3.623127192258834839e-02 2.810269407927989960e-02 8.302691578865051270e-02 -3.831095248460769653e-02 6.713775545358657837e-02 -5.668313056230545044e-02 -1.401007324457168579e-01 -1.822748333215713501e-01 2.218264341354370117e-01 -1.703473925590515137e-01 -1.555146872997283936e-01 2.209941893815994263e-01 -2.053907327353954315e-02 3.073121421039104462e-02 4.402424022555351257e-02 2.300610952079296112e-02 3.314428403973579407e-02 -4.572042822837829590e-02 5.735281109809875488e-02 2.824976108968257904e-02 5.184690654277801514e-02 1.392171904444694519e-02 1.652883552014827728e-02 8.959732018411159515e-03 2.958295494318008423e-02 -5.063474178314208984e-02 -2.795826271176338196e-02 -3.726037964224815369e-02 2.577328495681285858e-02 1.951468922197818756e-02
