-7.878884673118591309e-02
-4.001352563500404358e-02
-1.007489976473152637e-03
1.336596906185150146e-02
3.836819902062416077e-02
-1.542863901704549789e-02
4.244513437151908875e-02
3.965839743614196777e-03
2.170438691973686218e-02
1.739016850478947163e-03
8.154405280947685242e-03
-6.802612915635108948e-04
-3.635692596435546875e-02
1.135879196226596832e-02
-2.646584250032901764e-02
3.516028076410293579e-02
1.023528818041086197e-02
-3.715122118592262268e-02
-1.142158824950456619e-02
-2.564402669668197632e-02
2.745514735579490662e-02
3.839094936847686768e-02
-5.091521516442298889e-02
2.088787406682968140e-02
3.127270564436912537e-02
1.285752560943365097e-02
1.308396086096763611e-02
-1.532052177935838699e-02
-1.367512391880154610e-03
1.121272332966327667e-02
-2.030833438038825989e-02
4.175855591893196106e-02
6.319624930620193481e-02
6.184580549597740173e-02
1.074946485459804535e-03
2.305122325196862221e-03
8.584933727979660034e-02
3.734396304935216904e-03
-4.231417179107666016e-02
4.110767319798469543e-02
1.560563920065760612e-03
-1.692061545327305794e-03
3.943619877099990845e-02
-5.397997051477432251e-02
-3.132807463407516479e-02
2.116548828780651093e-02
9.177165478467941284e-02
4.636056721210479736e-02
-5.856417119503021240e-02
-5.423318594694137573e-02
-1.783756073564291000e-03
9.665998630225658417e-03
1.400857605040073395e-02
-1.013736473396420479e-03
-1.310408767312765121e-02
-5.704010277986526489e-02
3.539686277508735657e-02
8.733741007745265961e-03
2.578294090926647186e-02
1.338812708854675293e-02
4.714431241154670715e-02
8.829718455672264099e-03
1.780544407665729523e-02
2.295490168035030365e-02
1.296094506978988647e-01
4.737799987196922302e-02
3.956196829676628113e-03
2.093201503157615662e-02
4.835718497633934021e-02
1.138676144182682037e-02
4.080193489789962769e-02
-2.360121905803680420e-02
-1.778624020516872406e-02
4.138584062457084656e-02
2.411913126707077026e-02
2.041497454047203064e-02
-1.464685192331671715e-03
-1.922526396811008453e-02
-2.603468298912048340e-02
-3.540207818150520325e-02
5.157870799303054810e-02
-3.213129192590713501e-02
-1.200753170996904373e-02
-1.282802410423755646e-02
-3.153219819068908691e-03
-6.153454259037971497e-02
1.866880990564823151e-02
-2.762041985988616943e-02
-5.189067497849464417e-02
1.387745514512062073e-02
4.081579670310020447e-02
8.579540997743606567e-03
-6.611603312194347382e-03
-6.930782925337553024e-03
2.310371212661266327e-02
1.051259040832519531e-02
8.803610689938068390e-04
-3.321181610226631165e-02
9.882232174277305603e-03
8.229257166385650635e-02
4.879162460565567017e-02
2.046258188784122467e-02
-1.745507121086120605e-02
2.534470893442630768e-02
-7.281882222741842270e-03
1.479518041014671326e-02
4.709943383932113647e-02
3.465488180518150330e-02
4.301409050822257996e-02
3.832046315073966980e-02
1.693039759993553162e-02
1.708737947046756744e-02
4.533933848142623901e-02
1.079822257161140442e-01
-2.838937193155288696e-02
1.493642758578062057e-02
-5.779292806982994080e-02
1.376125961542129517e-01
-2.855844609439373016e-02
-9.169349446892738342e-03
-1.444461056962609291e-03
8.194535970687866211e-02
3.131151571869850159e-02
3.625456243753433228e-02
3.328458964824676514e-02
1.920562237501144409e-01
-1.687137037515640259e-02
-3.048942983150482178e-02
1.244636066257953644e-02
-6.167226005345582962e-03
3.478239057585597038e-03
-9.142540395259857178e-03
3.303610160946846008e-02
1.140580419450998306e-02
2.769200503826141357e-02
1.343102753162384033e-02
5.553337745368480682e-03
-1.533764507621526718e-02
-6.110108457505702972e-03
-5.806883051991462708e-02
5.276577547192573547e-03
7.252514478750526905e-05
-2.170328795909881592e-02
8.887016773223876953e-02
-4.210484772920608521e-02
-2.277604071423411369e-03
-4.944388289004564285e-03
-1.480397116392850876e-02
3.400582075119018555e-02
4.003767296671867371e-02
1.664777472615242004e-02
1.841481029987335205e-01
-4.832870326936244965e-03
5.654601007699966431e-02
-5.639160517603158951e-03
1.805229485034942627e-02
3.387001529335975647e-02
-1.008049491792917252e-02
-2.224828116595745087e-02
-2.895445935428142548e-02
4.463638365268707275e-02
2.076451666653156281e-02
9.536284022033214569e-03
-4.733081161975860596e-02
2.412008121609687805e-02
3.817843273282051086e-02
-1.976283825933933258e-02
5.573022738099098206e-02
8.608397841453552246e-02
-5.543972365558147430e-03
7.230816408991813660e-03
-3.097654692828655243e-02
-3.427940234541893005e-02
-1.555305346846580505e-02
2.177566848695278168e-02
-2.434998564422130585e-02
1.959993317723274231e-02
8.128410577774047852e-02
-1.673188246786594391e-02
2.359135821461677551e-02
8.168632537126541138e-02
6.174642592668533325e-03
1.245660707354545593e-01
-1.715360768139362335e-02
2.355659566819667816e-02
5.661454796791076660e-02
-3.750458592548966408e-03
-2.476440928876399994e-02
4.510559141635894775e-02
-2.016624622046947479e-02
1.503675617277622223e-02
8.879322558641433716e-03
8.967170724645256996e-04
9.843071550130844116e-02
8.741478435695171356e-03
-1.113261841237545013e-02
9.480243176221847534e-02
-1.657314971089363098e-02
8.713468909263610840e-03
1.583076082170009613e-02
-1.602939702570438385e-02
1.115050073713064194e-02
-1.465672720223665237e-02
9.832330793142318726e-02
2.533540874719619751e-02
1.999819942284375429e-04
3.024857677519321442e-02
2.105940133333206177e-02
4.334690049290657043e-02
-3.841793164610862732e-02
-1.293150801211595535e-02
1.578650251030921936e-02
-1.109177526086568832e-02
5.357255041599273682e-02
-4.092178121209144592e-02
1.806082017719745636e-02
-1.681957021355628967e-02
3.415885195136070251e-02
2.875646110624074936e-03
7.683633267879486084e-02
2.823961153626441956e-02
3.309507668018341064e-02
-2.600729651749134064e-02
9.826761670410633087e-04
2.903705276548862457e-02
-1.483130082488059998e-02
8.026142604649066925e-03
3.159952908754348755e-02
5.419394746422767639e-02
3.811818733811378479e-02
1.479022763669490814e-02
-1.003660820424556732e-02
3.706075251102447510e-02
3.854664787650108337e-02
9.348488412797451019e-03
2.079473435878753662e-02
4.535579308867454529e-02
-2.287867479026317596e-02
1.946352981030941010e-02
9.115415625274181366e-03
-3.269014507532119751e-02
1.974138431251049042e-02
-3.061381913721561432e-02
-1.504513621330261230e-02
-1.626021601259708405e-02
3.045946545898914337e-02
-6.246521137654781342e-03
-9.446768090128898621e-03
5.609007179737091064e-02
-3.556961566209793091e-02
-4.348949715495109558e-02
1.620288938283920288e-01
4.413598682731389999e-03
7.041879743337631226e-02
-3.735811682417988777e-03
4.978049919009208679e-02
4.181148856878280640e-02
3.104898333549499512e-02
-4.252095147967338562e-02
-2.106572501361370087e-02
1.716543734073638916e-02
-5.712482705712318420e-02
2.945694886147975922e-02
1.964503340423107147e-02
-5.938634648919105530e-02
1.566442102193832397e-02
-3.464021533727645874e-02
1.496670022606849670e-02
-2.611215785145759583e-02
-5.113514512777328491e-02
-5.830386653542518616e-02
-1.425774185918271542e-03
2.262069378048181534e-03
1.127444580197334290e-02
-2.815402671694755554e-02
-3.269571065902709961e-02
7.254812121391296387e-02
1.865066587924957275e-02
-5.765578243881464005e-03
9.309457615017890930e-03
-1.149883680045604706e-02
-1.530012302100658417e-02
-1.336128264665603638e-02
-6.189043633639812469e-03
1.540951058268547058e-02
-1.317362207919359207e-02
3.327124193310737610e-02
1.205292623490095139e-02
1.385642308741807938e-02
2.108902111649513245e-02
-3.041404997929930687e-03
2.244158461689949036e-02
-3.785424679517745972e-02
2.372688986361026764e-02
3.038372285664081573e-02
3.947677463293075562e-02
5.533444881439208984e-02
3.448744863271713257e-02
-1.067442074418067932e-01
-1.158946845680475235e-02
-1.561054401099681854e-02
1.169570684432983398e-01
9.137301892042160034e-02
-1.455892808735370636e-02
5.661544390022754669e-03
-1.024061348289251328e-02
3.437238931655883789e-02
6.789679825305938721e-02
1.717635663226246834e-03
9.220852516591548920e-03
-1.848409883677959442e-02
8.980724960565567017e-02
4.822016134858131409e-02
2.449164865538477898e-03
-2.504880353808403015e-02
-7.942618802189826965e-03
2.465884946286678314e-02
4.664365947246551514e-02
8.180942386388778687e-02
7.990553975105285645e-02
-1.213079690933227539e-02
-2.925442531704902649e-02
3.323139995336532593e-02
-9.607221581973135471e-04
1.875395514070987701e-02
1.778396777808666229e-02
-2.070680260658264160e-02
2.454645559191703796e-02
3.706325590610504150e-02
1.654934696853160858e-02
4.277047235518693924e-03
4.056321457028388977e-02
-5.270258523523807526e-03
3.688099980354309082e-02
3.786008805036544800e-02
-1.038346905261278152e-02
9.018838405609130859e-03
-4.888313822448253632e-03
-1.054027676582336426e-02
-2.928246557712554932e-02
3.776124492287635803e-02
-1.282394211739301682e-02
-6.592963472940027714e-04
-3.637105599045753479e-02
-4.623799398541450500e-02
2.453482523560523987e-02
-6.296183913946151733e-02
-3.815206582657992840e-05
-2.198022976517677307e-02
5.065524019300937653e-03
1.362067088484764099e-02
4.631992056965827942e-02
-8.926790207624435425e-03
8.566949516534805298e-03
-4.435413330793380737e-02
1.535364706069231033e-02
1.821698062121868134e-02
1.640789583325386047e-02
1.574343629181385040e-02
3.250930458307266235e-02
7.102745026350021362e-02
9.314247220754623413e-02
-6.127951666712760925e-02
-4.592879116535186768e-02
-2.226715208962559700e-03
3.902488946914672852e-02
2.443557605147361755e-03
-5.570195149630308151e-03
1.224141102284193039e-03
-1.223479490727186203e-02
-1.621714234352111816e-02
3.128548711538314819e-02
3.216177225112915039e-02
-4.951923037879168987e-04
5.671127885580062866e-02
-6.025951006449759007e-04
5.130808427929878235e-02
1.240727026015520096e-02
3.363918513059616089e-02
-3.358986973762512207e-02
2.192046120762825012e-02
-2.845627442002296448e-02
1.347619574517011642e-02
-1.766244508326053619e-02
5.475251749157905579e-02
3.366505354642868042e-02
5.879854038357734680e-02
3.474920615553855896e-02
5.736775696277618408e-02
4.111392050981521606e-02
-4.415539652109146118e-02
4.040064290165901184e-02
-2.413387410342693329e-02
3.470528125762939453e-02
-2.443584427237510681e-02
2.429025806486606598e-02
-5.092810094356536865e-02
2.167586795985698700e-02
-1.875241845846176147e-02
2.206065952777862549e-01
-1.191503182053565979e-02
-1.107237860560417175e-02
1.393268816173076630e-02
-4.010266438126564026e-02
4.535520449280738831e-02
-4.087112098932266235e-02
1.722774282097816467e-02
2.559869363903999329e-02
4.873192403465509415e-03
3.991364501416683197e-03
-2.476287446916103363e-02
-1.763872615993022919e-02
-2.346090599894523621e-02
7.575106807053089142e-03
1.183323748409748077e-02
7.799378037452697754e-02
4.395513236522674561e-02
-7.897263392806053162e-03
2.446434833109378815e-02
2.043735235929489136e-02
-2.745253220200538635e-02
9.426766633987426758e-02
2.869988605380058289e-02
1.680155843496322632e-02
1.626452803611755371e-02
2.651923708617687225e-02
6.549818441271781921e-03
1.044385135173797607e-02
3.301299735903739929e-02
-1.970235630869865417e-02
1.781432703137397766e-02
5.168863758444786072e-02
7.142674177885055542e-03
-5.395498871803283691e-02
3.056555986404418945e-02
1.141797471791505814e-02
4.948123916983604431e-02
-1.792108081281185150e-02
-2.549306489527225494e-02
-5.599725525826215744e-03
-3.433290123939514160e-02
-5.830515176057815552e-03
4.583124816417694092e-02
3.458417207002639771e-02
3.193308785557746887e-02
7.080700714141130447e-03
-1.535028591752052307e-02
-3.140995511785149574e-03
-4.563488438725471497e-02
-4.417154472321271896e-03
4.553269594907760620e-02
2.520130760967731476e-02
3.264925628900527954e-02
3.020888939499855042e-02
3.529226407408714294e-02
-4.656270518898963928e-02
-3.408738970756530762e-02
6.553269177675247192e-02
9.056718554347753525e-04
-4.018699377775192261e-02
5.694913864135742188e-02
-2.530197612941265106e-03
3.451424418017268181e-03
3.806522116065025330e-02
-1.183641259558498859e-03
-6.157477572560310364e-02
3.075997345149517059e-03
1.008200924843549728e-02
4.615573585033416748e-02
1.782661117613315582e-02
5.288453027606010437e-02
6.276606768369674683e-02
-4.088633693754673004e-03
-6.317965686321258545e-03
-1.509880926460027695e-02
3.910918161273002625e-02
7.319583091884851456e-03
3.603105619549751282e-02
2.562114968895912170e-02
3.031709790229797363e-02
5.465823784470558167e-02
3.457720205187797546e-02
4.258719086647033691e-02
2.819090522825717926e-02
1.235149800777435303e-03
6.353539973497390747e-02
-4.913892596960067749e-02
3.055938705801963806e-02
-5.672748666256666183e-03
-5.569574609398841858e-02
5.355488881468772888e-02
1.454584579914808273e-02
1.179036963731050491e-02
-1.752044633030891418e-02
2.077983319759368896e-02
3.677465394139289856e-02
2.602485008537769318e-03
7.008090615272521973e-02
-3.927711397409439087e-02
-4.752830043435096741e-02
2.132953889667987823e-02
-3.081356175243854523e-02
1.869654469192028046e-02
9.040041826665401459e-03
-2.350877411663532257e-02
1.184137351810932159e-02
2.633671276271343231e-02
5.552694573998451233e-02
6.364865601062774658e-02
5.626953020691871643e-02
-5.003203079104423523e-02
5.784023925662040710e-02
