2.679961323738098145e-01 2.621783129870891571e-02 3.295328095555305481e-02 4.909380152821540833e-02 1.567538827657699585e-02 -3.244082629680633545e-02 -2.645630203187465668e-02 -3.514702990651130676e-02 -1.993782371282577515e-01 -1.501296367496252060e-02 6.453641504049301147e-02 5.989381298422813416e-02 -4.208614304661750793e-02 -3.426751866936683655e-02 -3.722967207431793213e-02 5.274635925889015198e-02 1.773100048303604126e-01 3.435047715902328491e-02 -3.871807456016540527e-02 -1.670269817113876343e-01 -4.991961643099784851e-02 5.100644752383232117e-02 -4.935874789953231812e-02 -6.388238817453384399e-02 -5.281307175755500793e-02 4.039237275719642639e-02 5.745002999901771545e-02 3.700510412454605103e-02 -1.089397817850112915e-01 2.171152532100677490e-01 9.257403761148452759e-02 -2.949480153620243073e-02 2.843452990055084229e-02 3.679839894175529480e-02 -4.244754090905189514e-02 -2.495459467172622681e-02 4.272764176130294800e-02 -4.406538605690002441e-02 -1.947901993989944458e-01 4.612094722688198090e-03 3.324624896049499512e-02 2.509406022727489471e-02 1.631162874400615692e-02 -3.252709656953811646e-02 2.478806860744953156e-02 2.429401688277721405e-02 -2.737624198198318481e-02 1.719010919332504272e-01 7.025636732578277588e-02 2.466544881463050842e-02 -3.266640380024909973e-02 3.220515325665473938e-02 -2.883969247341156006e-01 2.443109266459941864e-02 4.698352888226509094e-02 3.783040866255760193e-02 3.091876208782196045e-02 3.229842707514762878e-02 2.382533252239227295e-02 -2.377281337976455688e-01 -3.951535224914550781e-01 -3.063050657510757446e-02 -1.590787246823310852e-02 -2.054557502269744873e-01 -2.067670822143554688e-01 8.765468746423721313e-02 4.633554443717002869e-02 -3.989532962441444397e-02 -5.179478228092193604e-02 -4.254981130361557007e-02 2.457383833825588226e-02 2.535833120346069336e-01 -2.471174113452434540e-02 -2.168237417936325073e-02 5.898744240403175354e-02 -2.868798002600669861e-02 -1.553213745355606079e-01 1.962820291519165039e-01 -2.601317130029201508e-02 3.882930055260658264e-02 1.267587393522262573e-01 5.013798549771308899e-02 1.570487022399902344e-01 8.524573594331741333e-02 2.424092090222984552e-04 2.166254445910453796e-02 -3.298845514655113220e-02 2.560545131564140320e-02 -2.814545296132564545e-02 1.248381957411766052e-01 -4.076172411441802979e-02 1.445453520864248276e-02 1.515743415802717209e-02 2.472027577459812164e-02 2.995906211435794830e-02 -4.157355427742004395e-02 -4.215754941105842590e-02 -4.217641428112983704e-02 -2.495419383049011230e-01 -2.760067954659461975e-02 7.868035137653350830e-02 3.821493685245513916e-02 3.314253687858581543e-02 5.275664478540420532e-02 1.113703846931457520e-02 4.606115445494651794e-02 -2.539739385247230530e-02 -3.333523124456405640e-02 2.094684168696403503e-02 -8.569643832743167877e-03 2.766733616590499878e-02 1.779486611485481262e-02 7.439405471086502075e-02 1.570668816566467285e-01 7.997417822480201721e-03 -2.522284686565399170e-01 6.338679045438766479e-02 1.465524584054946899e-01 6.920308619737625122e-02 -8.121626079082489014e-02 -1.516070961952209473e-02 1.578085422515869141e-01 -3.634855896234512329e-02 4.299559630453586578e-03 4.004200175404548645e-02 1.104733571410179138e-01 -3.270200267434120178e-02 -5.192758515477180481e-02 1.710517145693302155e-02 1.399372220039367676e-01 8.210338652133941650e-02 -7.098459452390670776e-02 -1.950834989547729492e-01 3.751219715923070908e-03 3.705411776900291443e-02 2.794628217816352844e-02 4.750032350420951843e-02 1.821054331958293915e-02 4.901005327701568604e-02 -2.812589146196842194e-02 4.647800698876380920e-02 5.502233654260635376e-02 3.191871568560600281e-02 -2.882872894406318665e-02 -2.275573089718818665e-02 4.667401686310768127e-02 -3.042249083518981934e-01 4.792803525924682617e-02 1.122087612748146057e-02 2.828026749193668365e-02 8.902772516012191772e-02 5.287216603755950928e-02 -5.532215163111686707e-02 1.122510209679603577e-01 -2.850581705570220947e-01 -9.480281919240951538e-02 2.343866787850856781e-02 -1.278024353086948395e-02 -3.502465412020683289e-02 -4.540303722023963928e-02 1.811278164386749268e-01 -2.450040578842163086e-01 -7.127720862627029419e-02 -2.907288819551467896e-02 -1.647545769810676575e-02 4.182766750454902649e-02 -1.581722348928451538e-01 1.325753331184387207e-02 -2.594107203185558319e-02 6.416949629783630371e-02 -1.601453572511672974e-01 4.169077053666114807e-02 -1.973880641162395477e-02 -1.110313534736633301e-01 1.532397717237472534e-01 -4.444443061947822571e-02 2.087545581161975861e-02 -2.679052017629146576e-02 -5.498922988772392273e-02 -3.907712101936340332e-01 -2.391430921852588654e-02 -1.385795511305332184e-02 5.890739709138870239e-02 5.307477712631225586e-02 6.649620831012725830e-02 6.840061396360397339e-02 1.349543686956167221e-02 1.279020458459854126e-01 1.118130013346672058e-01 -2.014082074165344238e-01 7.491938024759292603e-02 -1.487086564302444458e-01 2.723761461675167084e-02 -4.414155334234237671e-02 3.090109489858150482e-02 -1.181605979800224304e-01 -3.860750421881675720e-02 -5.753617361187934875e-02 1.410478949546813965e-01 -2.554490789771080017e-02 -3.064332529902458191e-02 1.187855377793312073e-02 -3.111810088157653809e-01 -7.385427504777908325e-02 -4.140805453062057495e-02 1.586527749896049500e-02 -1.226289048790931702e-01 -3.902659937739372253e-02 2.735315263271331787e-02 5.704197287559509277e-02 -1.973724178969860077e-02 5.636645480990409851e-02 -2.728635258972644806e-02 1.837760955095291138e-01 5.758399888873100281e-02 -3.227781876921653748e-02 4.256483167409896851e-02 1.534924209117889404e-01 -6.189085915684700012e-02 5.171255394816398621e-02 -1.117282733321189880e-02 -2.233279794454574585e-01 -2.482618018984794617e-02 9.647003374993801117e-03 4.840608686208724976e-02 1.610380858182907104e-01 -1.929714828729629517e-01 -2.799926511943340302e-02 -1.297091841697692871e-01 1.299303025007247925e-01 -2.044233493506908417e-02 1.860258728265762329e-02 -2.679828554391860962e-02 5.297156050801277161e-02 -3.175750374794006348e-02 3.412428498268127441e-02 -2.760263681411743164e-01 3.290867805480957031e-02 -3.858178853988647461e-02 -2.857822179794311523e-02 1.946724019944667816e-02 5.043242126703262329e-02 -3.786925598978996277e-02 -1.959093362092971802e-01 -2.869665026664733887e-01 -2.129702828824520111e-02 -6.345309317111968994e-02 -6.007739529013633728e-02 4.284898191690444946e-02 2.944637537002563477e-01 4.239475820213556290e-03 -2.441582828760147095e-01 -2.829925157129764557e-02 -2.036826610565185547e-01 4.548892751336097717e-02 6.985719501972198486e-02 2.890711463987827301e-02 7.108031958341598511e-02 -3.993165493011474609e-02 -2.965812385082244873e-02 9.568523615598678589e-02 -1.634956896305084229e-01 -2.383427694439888000e-02 1.605750024318695068e-01 -3.890823945403099060e-02 -3.300864696502685547e-01 1.680475287139415741e-02 3.923730179667472839e-02 -2.149569690227508545e-01 7.789630442857742310e-02 -8.643759787082672119e-02 2.732106447219848633e-01 4.496853798627853394e-02 -4.943833053112030029e-01 1.192997246980667114e-01 1.338504403829574585e-01 1.832369156181812286e-02 6.984109431505203247e-02 -2.109345197677612305e-01 2.144563198089599609e-02 9.715308994054794312e-02 1.844721138477325439e-01 -5.167272686958312988e-01 4.307712987065315247e-02 2.144015207886695862e-02 2.814455889165401459e-02 -3.132876381278038025e-02 -3.327759727835655212e-02 2.997751832008361816e-01 1.477614045143127441e-01 -3.573056161403656006e-01 -4.047983139753341675e-02 -2.082452327013015747e-01 -4.208474978804588318e-02 3.706580726429820061e-03 1.740182004868984222e-02 -4.299754649400711060e-02 -3.251691907644271851e-02 -2.207527160644531250e-01 -2.423992007970809937e-02 -3.960482776165008545e-02 2.222792357206344604e-01 -9.425968676805496216e-02 2.345906011760234833e-02 -1.230489388108253479e-01 2.154577337205410004e-02 -1.337104886770248413e-01 6.027644500136375427e-02 3.791783377528190613e-02 5.778189282864332199e-03 -9.810432791709899902e-02 -1.487163752317428589e-01 2.892273478209972382e-02 1.436738856136798859e-02 6.316823512315750122e-02 -8.893839269876480103e-02 4.014142975211143494e-02 -4.023586958646774292e-02 5.695297941565513611e-02 -6.443011760711669922e-02 -3.016729652881622314e-02 9.429279714822769165e-03 -3.275112435221672058e-02 1.375084668397903442e-01 5.185263231396675110e-02 3.263651579618453979e-02 -1.828627437353134155e-01 9.694564156234264374e-03 -3.777807950973510742e-02 4.491401463747024536e-02 3.741245344281196594e-02 1.277313977479934692e-01 -7.217567414045333862e-02 3.227056562900543213e-02 -7.130856812000274658e-02 -3.957604616880416870e-02 2.625007554888725281e-02 5.439953505992889404e-02 7.117260992527008057e-02 3.053694777190685272e-02 -3.004732541739940643e-02 2.970319092273712158e-01 -4.859803244471549988e-02 5.356097593903541565e-02 3.224853798747062683e-02 2.910877019166946411e-02 -2.063667178153991699e-01 6.803794950246810913e-02 3.728596866130828857e-02 -4.310237616300582886e-02 1.621802337467670441e-02 2.813971973955631256e-02 -3.426930308341979980e-02 -2.405223995447158813e-02 5.350407585501670837e-02 -3.195073455572128296e-02 1.317840367555618286e-01 4.990702122449874878e-02 1.725460588932037354e-02 2.039497159421443939e-02 -2.559000626206398010e-02 -6.662204116582870483e-02 4.584404081106185913e-02 -2.892700582742691040e-02 2.530642412602901459e-02 -2.080953307449817657e-02 -3.587899357080459595e-02 5.643153190612792969e-02 -1.813066899776458740e-01 3.096725344657897949e-01 1.982473209500312805e-02 -3.005808405578136444e-02 5.020575970411300659e-02 -3.691092878580093384e-02 -1.946891099214553833e-01 -2.279563248157501221e-02 -1.683963388204574585e-01 -2.258087396621704102e-01 -9.902910143136978149e-02 2.043567597866058350e-01 8.817645162343978882e-02 -2.593550086021423340e-01 4.060399904847145081e-02 -3.757428377866744995e-02 -7.252782583236694336e-02 -3.012765944004058838e-02 -2.624617516994476318e-01 2.056265436112880707e-02 -1.599196940660476685e-01 7.412490248680114746e-02 -3.452980145812034607e-02 4.349317401647567749e-02 -1.243899315595626831e-01 -1.613724678754806519e-01 -1.873987354338169098e-02 -3.376857563853263855e-02 1.609685570001602173e-01 6.206804513931274414e-02 3.943680599331855774e-02 1.759012341499328613e-01 3.451601415872573853e-02 4.277005791664123535e-02 -2.956538200378417969e-01 6.483380682766437531e-03 -1.528998184949159622e-02 -2.589956670999526978e-02 -1.873132735490798950e-01 -1.662557758390903473e-02 7.582724839448928833e-02 -2.073646485805511475e-01 -1.605655439198017120e-02 -9.171535074710845947e-02 -3.633936122059822083e-02 4.462983459234237671e-02 1.915507949888706207e-02 -2.663785405457019806e-02 1.940059512853622437e-01 -1.724499166011810303e-01 3.171885013580322266e-02 4.043711349368095398e-02 1.846214383840560913e-01 -1.911377906799316406e-02 1.513442955911159515e-02 6.568903475999832153e-02 1.864881440997123718e-02 1.209053918719291687e-01 3.344007581472396851e-02 2.405406162142753601e-02 6.885963678359985352e-02 -1.592382937669754028e-01 2.782393991947174072e-02 -2.217528671026229858e-01 -3.136179447174072266e-01 -2.368666417896747589e-02 -2.979233860969543457e-02 1.538670957088470459e-01 -3.800446540117263794e-02 -1.940232068300247192e-01 -1.055952683091163635e-01 8.038704842329025269e-02 1.690098270773887634e-02 2.564205974340438843e-02 2.121505588293075562e-01 -3.122349828481674194e-02 3.200048953294754028e-02 -6.817255169153213501e-02 4.875463619828224182e-02 -2.401905134320259094e-02 -5.040208622813224792e-02 1.760922372341156006e-01 -2.293755672872066498e-02 -1.939383149147033691e-01 -5.688430368900299072e-02 4.961172491312026978e-02 -2.462935261428356171e-02 3.926596045494079590e-02 -1.690253801643848419e-02 -2.194282114505767822e-01 -1.062211841344833374e-01 -2.364967912435531616e-01 3.608753904700279236e-02 2.086160704493522644e-02 2.311126515269279480e-02 -4.459112286567687988e-01 -2.005072385072708130e-01 7.882057875394821167e-02 -2.872787974774837494e-02 2.091439999639987946e-02 -4.869922995567321777e-02 -3.756820783019065857e-02 -2.839928865432739258e-01 2.287287116050720215e-01 1.432094629853963852e-02 1.222719922661781311e-01 4.128923639655113220e-02 -2.589324116706848145e-01 1.349725127220153809e-01 3.511874079704284668e-01 2.950039878487586975e-02 1.495864689350128174e-01 -2.428466454148292542e-02 3.496105223894119263e-02 4.183432832360267639e-02 2.662168443202972412e-02 1.927301287651062012e-01 -1.344811767339706421e-01 2.723531238734722137e-02 -1.300731003284454346e-01 -2.486617490649223328e-02 -2.580995671451091766e-02 2.977562136948108673e-02 -2.974075637757778168e-02 -1.803906559944152832e-01 5.600992217659950256e-02 -1.174414679408073425e-01 2.848599292337894440e-02 2.498002164065837860e-02 1.705401577055454254e-02 2.660390175879001617e-02 -4.782386496663093567e-02 5.231924727559089661e-02 1.443808712065219879e-02 7.530497014522552490e-02 1.171045005321502686e-02 2.148697711527347565e-02 4.810185730457305908e-02 2.674990706145763397e-02 -1.968634575605392456e-01 -4.849492758512496948e-02 -5.770043469965457916e-03 5.610154941678047180e-02 1.051698476076126099e-01
