-1.138035114854574203e-02
1.238725055009126663e-02
6.869690492749214172e-03
1.470354106277227402e-02
-7.209871895611286163e-03
2.374498546123504639e-02
-4.114345647394657135e-03
5.154399201273918152e-02
8.127381079248152673e-06
-9.822960011661052704e-03
1.466507278382778168e-02
-1.141977217048406601e-02
2.422153204679489136e-02
4.293958842754364014e-02
6.378784775733947754e-03
-1.838496886193752289e-02
2.210619859397411346e-02
2.054943889379501343e-02
-5.488698952831327915e-04
-4.189952462911605835e-02
7.968146237544715405e-04
5.680959206074476242e-03
3.470372781157493591e-02
4.415710642933845520e-02
-8.868714794516563416e-03
8.368946611881256104e-03
-4.723999649286270142e-03
1.346942782402038574e-02
2.009252831339836121e-02
3.341855108737945557e-02
1.749156042933464050e-02
-3.516162186861038208e-02
1.881320215761661530e-02
-9.310137480497360229e-03
-3.888889774680137634e-02
3.609552979469299316e-02
5.013016238808631897e-02
1.655096933245658875e-02
-6.971502210944890976e-03
-8.461249060928821564e-03
4.038236569613218307e-03
-6.565109826624393463e-03
-4.191221296787261963e-02
-3.582074074074625969e-03
2.919848076999187469e-03
5.193214118480682373e-02
8.804772049188613892e-03
-1.914397627115249634e-02
5.889531224966049194e-03
1.386796124279499054e-02
1.738538779318332672e-02
-2.052390016615390778e-02
-1.916661858558654785e-02
1.735857501626014709e-02
4.395011055748909712e-04
-1.991074346005916595e-02
4.341184161603450775e-03
1.830053050071001053e-03
9.760759770870208740e-03
-1.351276878267526627e-02
8.379359729588031769e-03
2.789416350424289703e-02
-3.282253071665763855e-02
2.933070529252290726e-03
-1.562686084071174264e-04
-9.125616401433944702e-03
2.730462886393070221e-02
-3.809413686394691467e-02
1.535268407315015793e-02
1.514410041272640228e-02
5.689049512147903442e-02
-1.308420859277248383e-02
5.294969771057367325e-03
3.729398921132087708e-02
-5.501535255461931229e-03
-5.501913838088512421e-03
-2.916637435555458069e-02
-2.362874336540699005e-03
-2.456971257925033569e-02
-3.716699779033660889e-02
1.213022135198116302e-02
6.054454017430543900e-03
5.156466271728277206e-03
-5.975390598177909851e-02
-2.433110726997256279e-03
2.855576947331428528e-02
-2.632593549787998199e-02
3.094554319977760315e-02
9.586156345903873444e-03
2.637892961502075195e-02
-2.179504372179508209e-02
1.189478766173124313e-02
-1.184254325926303864e-02
-6.649466231465339661e-03
-1.780683919787406921e-02
1.732580736279487610e-02
3.284785896539688110e-02
2.875207364559173584e-02
5.093181133270263672e-02
1.639580912888050079e-02
-3.650566563010215759e-02
-2.456221543252468109e-02
-1.972375810146331787e-02
1.044473145157098770e-02
-6.646749563515186310e-03
-7.226583361625671387e-02
-1.397899631410837173e-02
6.978715304285287857e-03
-1.253197994083166122e-02
-5.174306407570838928e-02
-1.418848801404237747e-02
1.110904477536678314e-02
-4.038892313838005066e-02
4.597441875375807285e-05
-1.707190764136612415e-03
5.114344879984855652e-02
5.827642162330448627e-04
4.164044931530952454e-02
1.453116070479154587e-03
-6.001907866448163986e-03
-1.821100711822509766e-02
-2.391378767788410187e-02
7.766581140458583832e-03
9.476245380938053131e-03
-4.629122093319892883e-02
-3.219665586948394775e-02
3.456482291221618652e-02
1.110811159014701843e-02
2.382340654730796814e-02
8.204165846109390259e-03
1.498208194971084595e-02
9.728000499308109283e-03
-4.609838593751192093e-03
5.138027295470237732e-02
-2.928224392235279083e-02
2.577098552137613297e-03
4.551562666893005371e-02
-4.715648293495178223e-02
1.121384324505925179e-03
3.653724864125251770e-02
-4.500674456357955933e-02
1.345394272357225418e-02
-3.756488114595413208e-02
-1.158205419778823853e-02
-6.857222411781549454e-03
1.083457469940185547e-02
-8.493238128721714020e-03
-1.678304746747016907e-02
1.409421907737851143e-03
-7.558753341436386108e-02
-1.994224637746810913e-02
-3.551341069396585226e-04
-7.148060481995344162e-03
2.593342587351799011e-02
-2.733637765049934387e-02
-1.841210946440696716e-02
1.890550740063190460e-02
3.476634249091148376e-02
-8.345233276486396790e-03
1.441763900220394135e-02
2.517700381577014923e-02
4.187760874629020691e-03
-3.269193321466445923e-02
-5.489037558436393738e-02
-2.838898450136184692e-03
2.547501958906650543e-02
-9.651542641222476959e-03
4.469644278287887573e-02
2.308764308691024780e-02
-1.907544210553169250e-02
4.704790562391281128e-02
3.216493874788284302e-02
3.095700591802597046e-02
1.267062779515981674e-02
-6.299391854554414749e-03
4.372435621917247772e-03
5.083772353827953339e-03
1.702657341957092285e-02
-1.297906273975968361e-03
-5.445433780550956726e-03
-1.570978946983814240e-02
8.195667527616024017e-03
-1.785124465823173523e-02
2.256999164819717407e-02
-2.679556794464588165e-02
-1.514416467398405075e-02
1.944050425663590431e-03
4.207599442452192307e-03
3.493856638669967651e-02
-3.190430626273155212e-02
1.384573802351951599e-02
4.372093081474304199e-02
-2.651802450418472290e-02
-2.365179359912872314e-02
3.854802250862121582e-02
1.162058115005493164e-02
3.205118328332901001e-02
1.532485987991094589e-02
-3.272001445293426514e-02
2.324525080621242523e-02
1.441529486328363419e-02
1.150374580174684525e-02
-2.257876470685005188e-02
1.120241917669773102e-02
-7.286610081791877747e-03
-5.000145733356475830e-02
2.386761363595724106e-03
-2.195120230317115784e-02
-1.761617138981819153e-02
-1.448156125843524933e-02
2.804125193506479263e-03
7.535270880907773972e-03
5.816711112856864929e-02
-1.571441441774368286e-02
1.738066598773002625e-02
-9.759316220879554749e-03
2.209851285442709923e-03
-1.021530851721763611e-02
1.097242347896099091e-02
-7.553679868578910828e-03
1.484546065330505371e-02
1.698023080825805664e-02
2.568488568067550659e-02
-4.253311455249786377e-02
-4.637790843844413757e-02
5.898296087980270386e-02
-1.889031380414962769e-02
5.237841978669166565e-03
-1.060476060956716537e-02
-1.129614841192960739e-02
2.320242114365100861e-02
-2.549269469454884529e-03
1.150212530046701431e-02
-2.848233096301555634e-02
6.145689170807600021e-03
3.363534808158874512e-02
1.203526649624109268e-02
-8.314753882586956024e-03
-8.272810839116573334e-03
-2.378439344465732574e-02
-8.395750075578689575e-02
5.539009347558021545e-03
-5.107285082340240479e-02
6.203222274780273438e-02
-1.582257822155952454e-02
1.262657227925956249e-03
2.080200053751468658e-02
2.044423297047615051e-02
4.877686034888029099e-03
-1.538833510130643845e-02
1.553405821323394775e-02
3.786994144320487976e-02
1.955286040902137756e-02
3.899083659052848816e-02
1.264886930584907532e-02
-3.699227049946784973e-02
-4.216342419385910034e-02
-4.614712297916412354e-02
1.593740843236446381e-02
-2.189682330936193466e-03
-4.697440017480403185e-04
1.700103841722011566e-02
2.083786018192768097e-02
-3.780352696776390076e-02
3.420841181650757790e-03
6.902750581502914429e-03
5.963205359876155853e-03
4.707681946456432343e-03
-1.216219039633870125e-03
1.566557586193084717e-02
3.567968029528856277e-03
-6.158841424621641636e-04
1.352016720920801163e-02
-1.727366819977760315e-02
6.738431286066770554e-03
-1.628137007355690002e-02
-2.555911429226398468e-03
-2.666718140244483948e-02
-1.341811101883649826e-02
-4.337870329618453979e-02
-4.543322324752807617e-02
3.560977801680564880e-02
1.688006520271301270e-02
1.878450065851211548e-02
9.059261530637741089e-03
-2.618977800011634827e-02
-2.652575494721531868e-03
-7.841396145522594452e-03
9.044457226991653442e-03
-3.892494738101959229e-02
-7.635109871625900269e-02
4.702393896877765656e-03
-1.358688157051801682e-02
-7.874550297856330872e-03
-2.764436043798923492e-02
-3.971211984753608704e-02
3.243517130613327026e-02
2.882601693272590637e-02
-1.611679606139659882e-02
-2.383349835872650146e-02
1.460025738924741745e-02
-4.351803101599216461e-03
-2.333071269094944000e-02
1.228133961558341980e-02
4.162779450416564941e-02
-3.300365060567855835e-02
-2.149354480206966400e-02
1.896456442773342133e-02
-3.686905279755592346e-02
9.684758260846138000e-03
-1.980956457555294037e-02
-2.666905708611011505e-02
-1.514911279082298279e-02
1.305988710373640060e-02
-1.502795424312353134e-02
2.877897769212722778e-02
-9.061989374458789825e-03
-3.014380112290382385e-02
4.482194781303405762e-02
-3.526263311505317688e-02
-9.163390845060348511e-03
-2.806205488741397858e-02
-1.129344571381807327e-03
1.554074324667453766e-02
2.800113894045352936e-02
2.865735813975334167e-02
-3.089345619082450867e-02
2.386824041604995728e-02
-1.025817077606916428e-02
-1.077774167060852051e-02
3.102761693298816681e-02
9.999465197324752808e-03
2.405641414225101471e-02
-2.455599133099894971e-05
-3.419267246499657631e-03
6.237051449716091156e-03
1.675224676728248596e-02
1.090891752392053604e-02
-1.817928813397884369e-02
-6.291646510362625122e-02
1.635968126356601715e-02
-9.616998955607414246e-03
-2.041210420429706573e-02
-7.098317146301269531e-03
-1.360987592488527298e-02
-4.893470555543899536e-02
1.553678978234529495e-02
6.633988581597805023e-03
4.930976778268814087e-02
-1.286192331463098526e-02
-1.806142926216125488e-02
3.221019578631967306e-04
-6.553522776812314987e-03
4.840960726141929626e-03
-2.749076858162879944e-02
-7.112993299961090088e-02
2.143670432269573212e-02
1.350147998891770840e-03
-2.607982605695724487e-02
-8.240515366196632385e-03
2.673771977424621582e-02
2.763034589588642120e-02
4.624679312109947205e-02
8.075855672359466553e-03
-7.741403765976428986e-03
-1.880522072315216064e-02
3.096213331446051598e-04
-7.217140495777130127e-02
-1.288635656237602234e-03
4.828313365578651428e-02
5.566516891121864319e-02
-3.845594823360443115e-02
1.424943190068006516e-02
1.659964397549629211e-02
-1.125916605815291405e-03
2.057749032974243164e-02
1.639535836875438690e-02
-1.717881485819816589e-02
-4.283710382878780365e-03
1.466018520295619965e-02
-1.931488886475563049e-02
1.498624309897422791e-02
4.771539568901062012e-02
-2.204922400414943695e-02
-2.926574461162090302e-02
1.587678492069244385e-02
-4.306988790631294250e-02
-1.121853478252887726e-02
-7.501922082155942917e-03
6.487683951854705811e-02
-1.348584797233343124e-02
-8.596234023571014404e-02
-8.856637403368949890e-03
4.394258186221122742e-02
2.045353641733527184e-03
-2.689011860638856888e-03
1.292507071048021317e-02
-1.144979149103164673e-02
-3.118283674120903015e-02
-8.121043443679809570e-02
-3.408113867044448853e-02
-4.808932542800903320e-03
-4.298615083098411560e-02
1.579311490058898926e-02
2.236380800604820251e-02
-5.056167021393775940e-02
9.866610169410705566e-03
1.142391748726367950e-02
9.723482653498649597e-04
-7.765164598822593689e-03
-2.907135337591171265e-02
-3.910620883107185364e-02
-7.807641290128231049e-03
-1.153272669762372971e-02
-1.096716523170471191e-02
1.560843177139759064e-02
3.580401465296745300e-02
1.274580415338277817e-02
4.110281355679035187e-03
-2.158615365624427795e-02
2.438329532742500305e-02
-1.131632458418607712e-02
2.686846256256103516e-02
-3.442217037081718445e-02
6.670601200312376022e-03
3.617571666836738586e-02
-2.300631813704967499e-02
-8.409203030169010162e-03
-1.672602840699255466e-03
-1.921255886554718018e-02
3.979202359914779663e-02
1.045541185885667801e-02
9.537691250443458557e-03
4.625256697181612253e-04
-2.120911702513694763e-02
-3.497046185657382011e-03
-2.381487563252449036e-02
-3.270624438300728798e-03
4.632713738828897476e-03
-7.703443523496389389e-03
3.036065213382244110e-02
-2.660583332180976868e-02
1.132808905094861984e-02
6.772021297365427017e-03
-1.434312388300895691e-02
-3.379979357123374939e-02
1.298235449939966202e-02
1.200794242322444916e-02
-4.569508135318756104e-02
-1.522835250943899155e-02
-1.439784839749336243e-02
3.777381405234336853e-02
-6.065387278795242310e-03
-1.211356255225837231e-03
3.203798085451126099e-02
-2.636464312672615051e-02
5.260572768747806549e-03
5.104830022901296616e-03
3.525109589099884033e-02
2.097501046955585480e-02
1.399956550449132919e-02
1.007364038378000259e-02
4.088615253567695618e-02
-3.304119221866130829e-03
-6.140309199690818787e-02
-3.358528716489672661e-03
-3.390510566532611847e-03
1.333775464445352554e-02
1.949813216924667358e-02
3.347652405500411987e-02
3.122621588408946991e-02
7.885321043431758881e-03
2.776368707418441772e-02
-4.048954695463180542e-02
1.006029173731803894e-02
-3.301385417580604553e-02
-8.936986327171325684e-03
5.779140628874301910e-03
-2.932909876108169556e-02
-1.335153449326753616e-02
3.845771402120590210e-02
-2.248439006507396698e-02
-8.140472695231437683e-03
4.598983749747276306e-02
-6.255755573511123657e-02
-1.765999384224414825e-02
2.169777825474739075e-02
-8.296002633869647980e-03
2.633441798388957977e-02
-1.964071020483970642e-02
6.010142154991626740e-03
-9.219639003276824951e-03
-6.486637517809867859e-03
-1.643765904009342194e-02
1.742470823228359222e-02
-8.095837198197841644e-03
4.207457415759563446e-03
2.552667865529656410e-03
7.012793421745300293e-02
1.413752790540456772e-02
-2.195871900767087936e-03
1.067556999623775482e-02
1.575655862689018250e-02
1.749250851571559906e-02
2.905121073126792908e-03
6.515800021588802338e-03
3.050249628722667694e-02
-3.407031670212745667e-02
-3.811280429363250732e-02
-1.948366686701774597e-02
-4.803041927516460419e-03
3.641613060608506203e-03
