3.111936151981353760e-03
-1.015042047947645187e-02
5.216344594955444336e-01
1.582344435155391693e-02
8.558749104849994183e-04
3.724940121173858643e-01
3.011196553707122803e-01
6.026456356048583984e-01
3.725110590457916260e-01
5.700137019157409668e-01
7.419758010655641556e-03
-3.123792121186852455e-03
-5.752054452896118164e-01
4.224986135959625244e-01
-7.255619764328002930e-02
3.724974989891052246e-01
3.658710746094584465e-03
1.814485061913728714e-03
3.724944889545440674e-01
3.728982508182525635e-01
-2.470211498439311981e-02
-5.830429494380950928e-03
6.182940602302551270e-01
-4.334433469921350479e-03
-1.465427249058848247e-05
3.724653422832489014e-01
3.716380102559924126e-03
3.717305064201354980e-01
3.989148736000061035e-01
-2.048018155619502068e-03
3.727417886257171631e-01
1.231748051941394806e-02
2.625198662281036377e-01
6.690556649118661880e-03
5.929332971572875977e-01
5.892882347106933594e-01
1.045313570648431778e-02
-6.039257645606994629e-01
3.394988132640719414e-03
4.454728066921234131e-01
1.739183068275451660e-02
3.653134405612945557e-01
5.391115546226501465e-01
-9.078106880187988281e-01
3.724023401737213135e-01
-1.074967756867408752e-01
3.733201920986175537e-01
-1.489317510277032852e-03
3.726795315742492676e-01
3.723333477973937988e-01
6.745012477040290833e-03
7.177933454513549805e-01
3.724375963211059570e-01
-8.429031819105148315e-03
3.732382357120513916e-01
1.264371164143085480e-02
3.724336028099060059e-01
3.726264834403991699e-01
2.530595958232879639e-01
3.748377561569213867e-01
5.474465433508157730e-03
-5.570627283304929733e-03
3.724122345447540283e-01
-7.404846139252185822e-03
6.329188589006662369e-03
-4.185811558272689581e-04
8.596407249569892883e-03
4.598390311002731323e-03
3.333836561068892479e-03
1.502240449190139771e-02
1.005787681788206100e-02
-7.527207136154174805e-01
2.577457949519157410e-02
5.555638577789068222e-03
3.730337321758270264e-01
3.732855319976806641e-01
3.722388148307800293e-01
9.104358614422380924e-04
-6.320154760032892227e-03
-3.361585736274719238e-02
-6.275011897087097168e-01
1.218715123832225800e-02
3.725920915603637695e-01
3.727408945560455322e-01
2.503316663205623627e-02
3.724611401557922363e-01
-4.140180349349975586e-02
3.724535703659057617e-01
6.832557171583175659e-02
3.692741971462965012e-03
4.022303037345409393e-04
-8.077506907284259796e-03
3.726503551006317139e-01
5.663106217980384827e-03
1.763227395713329315e-02
-2.492708154022693634e-03
5.796718001365661621e-01
-5.704909563064575195e-03
-1.734139211475849152e-02
3.729193210601806641e-01
9.543294087052345276e-03
-3.748679766431450844e-03
4.584748744964599609e-01
3.728611469268798828e-01
3.724298179149627686e-01
4.053836464881896973e-01
-4.451641067862510681e-02
-1.114329439587891102e-03
3.302189111709594727e-01
4.294735379517078400e-03
5.566825866699218750e-01
2.971790498122572899e-03
-6.535062193870544434e-01
5.156667232513427734e-01
7.791992276906967163e-03
3.701883256435394287e-01
-1.167436246760189533e-03
4.099180698394775391e-01
-1.456785202026367188e-02
6.228803396224975586e-01
4.928338229656219482e-01
1.985279098153114319e-02
3.726124167442321777e-01
3.981881439685821533e-01
1.757171191275119781e-02
3.004106581211090088e-01
-2.221570722758769989e-02
3.726628124713897705e-01
3.733848631381988525e-01
1.751713827252388000e-02
-3.250190615653991699e-02
5.205940008163452148e-01
3.723000884056091309e-01
3.735860288143157959e-01
3.731207847595214844e-01
1.819688268005847931e-02
3.727812469005584717e-01
3.749457001686096191e-01
-9.897913336753845215e-01
3.630908727645874023e-01
1.383109949529170990e-02
-3.329788893461227417e-02
1.682508364319801331e-02
7.132177706807851791e-03
3.735656738281250000e-01
3.674613311886787415e-02
4.091495871543884277e-01
1.661998219788074493e-02
9.706533513963222504e-03
2.793475985527038574e-01
-3.492816537618637085e-02
-2.965551614761352539e-01
3.730430006980895996e-01
4.887024164199829102e-01
-3.386867642402648926e-01
2.314428538084030151e-01
3.725855052471160889e-01
5.444749724119901657e-03
3.712102770805358887e-01
-6.857922673225402832e-02
-3.564520739018917084e-03
3.771963119506835938e-01
3.736237287521362305e-01
-1.128629326820373535e+00
5.815138574689626694e-03
1.789038628339767456e-02
1.160179264843463898e-02
4.638314712792634964e-03
8.395432494580745697e-03
-5.904508829116821289e-01
-5.140560865402221680e-02
-7.925545573234558105e-01
2.357801347970962524e-01
3.017505109310150146e-01
3.741855025291442871e-01
2.681176662445068359e-01
4.032951314002275467e-03
3.746151030063629150e-01
9.782966226339340210e-03
8.827044628560543060e-03
3.736653625965118408e-01
5.114290714263916016e-01
3.734417855739593506e-01
4.563437309116125107e-03
5.533789992332458496e-01
4.028230905532836914e-01
1.775116100907325745e-02
-6.500738263130187988e-01
1.123316935263574123e-03
4.343351814895868301e-03
3.727777004241943359e-01
-9.943471290171146393e-03
-2.803436655085533857e-04
3.721450567245483398e-01
3.725359737873077393e-01
-4.794370383024215698e-03
5.640301108360290527e-01
3.736828267574310303e-01
3.729446232318878174e-01
2.953297272324562073e-02
2.997545301914215088e-01
1.145571842789649963e-02
-1.017598584294319153e-01
3.723135888576507568e-01
3.726323843002319336e-01
3.736914992332458496e-01
5.412882566452026367e-01
3.051688969135284424e-01
3.731491863727569580e-01
1.614740001969039440e-03
3.617572486400604248e-01
1.009574253112077713e-02
1.020214706659317017e-02
3.242178261280059814e-01
1.318155135959386826e-02
6.681601051241159439e-03
1.732008904218673706e-02
3.725821077823638916e-01
-5.436879117041826248e-03
5.275322794914245605e-01
3.722786605358123779e-01
-5.514788907021284103e-03
3.724444210529327393e-01
1.527437567710876465e-02
4.959938228130340576e-01
3.726000487804412842e-01
7.494179531931877136e-03
3.259522840380668640e-03
2.308056689798831940e-03
3.754617869853973389e-01
5.651277303695678711e-01
5.064491629600524902e-01
3.724349439144134521e-01
-5.659854039549827576e-02
-1.550824642181396484e-01
2.163156867027282715e-03
2.210131380707025528e-03
2.187936566770076752e-03
7.168809417635202408e-03
8.100066334009170532e-03
3.731555640697479248e-01
3.724242150783538818e-01
-3.914379049092531204e-03
5.674773454666137695e-01
3.725644946098327637e-01
3.732107877731323242e-01
3.624867200851440430e-01
3.655661046504974365e-01
7.808492518961429596e-04
1.312948949635028839e-02
9.431405924260616302e-03
-1.903738942928612232e-03
3.725305795669555664e-01
-1.834672689437866211e-01
1.015129592269659042e-02
1.007460150867700577e-02
