-9.809089250273719496e-45 9.809089250273719496e-45 -1.003042701631784439e-02 -2.990669570863246918e-02 -2.829556912183761597e-02 -1.004226133227348328e-02 9.809089250273719496e-45 -3.224631771445274353e-02 -1.006123237311840057e-02 1.426666695624589920e-02 -1.009088382124900818e-02 -1.004444342106580734e-02 9.809089250273719496e-45 9.809089250273719496e-45 1.354862283915281296e-02 -1.005126349627971649e-02 -1.004289742559194565e-02 1.354701630771160126e-02 1.354863774031400681e-02 -1.002364326268434525e-02 -3.410264104604721069e-02 -1.007529906928539276e-02 -9.809089250273719496e-45 1.350863464176654816e-02 1.354346703737974167e-02 1.354319974780082703e-02 -1.003208942711353302e-02 9.809089250273719496e-45 1.330920401960611343e-02 9.809089250273719496e-45 -1.006683148443698883e-02 9.809089250273719496e-45 -1.004993822425603867e-02 -1.665103994309902191e-02 -1.002728473395109177e-02 -5.536501854658126831e-02 -1.005045045167207718e-02 -1.121038771459853657e-44 1.354714483022689819e-02 9.809089250273719496e-45 1.328500173985958099e-02 -3.514633327722549438e-02 -1.005920581519603729e-02 -1.001564599573612213e-02 1.098539214581251144e-02 1.355323847383260727e-02 -1.005071401596069336e-02 1.356277987360954285e-02 -1.005122065544128418e-02 9.809089250273719496e-45 -1.005715783685445786e-02 -1.003552414476871490e-02 -1.004861667752265930e-02 9.809089250273719496e-45 5.402567982673645020e-02 9.809089250273719496e-45 1.383851189166307449e-02 -9.809089250273719496e-45 1.355086173862218857e-02 -1.006371621042490005e-02 -1.005905866622924805e-02 -9.809089250273719496e-45 1.356223039329051971e-02 1.354590710252523422e-02 -1.003723125904798508e-02 9.809089250273719496e-45 -1.004409138113260269e-02 -1.003105938434600830e-02 -1.004998944699764252e-02 -1.010292675346136093e-02 -1.005506608635187149e-02 -1.006484217941761017e-02 9.809089250273719496e-45 1.331279985606670380e-02 -9.809089250273719496e-45 3.540080785751342773e-02 -1.004414167255163193e-02 1.355273835361003876e-02 -1.006023678928613663e-02 1.331943739205598831e-02 9.809089250273719496e-45 -1.004404295235872269e-02 -1.121038771459853657e-44 -9.809089250273719496e-45 -1.261168617892335364e-44 -1.005852036178112030e-02 -1.004916336387395859e-02 -1.005224231630563736e-02 -1.003485638648271561e-02 -9.809089250273719496e-45 9.809089250273719496e-45 -9.809089250273719496e-45 1.354958582669496536e-02 -3.018038533627986908e-02 -3.512242436408996582e-02 -1.003602705895900726e-02 1.109543163329362869e-02 -1.004436518996953964e-02 -9.809089250273719496e-45 1.354646030813455582e-02 -3.825051710009574890e-02 -1.003306079655885696e-02 -1.003666408360004425e-02 1.355831231921911240e-02 -1.007374841719865799e-02 1.341045182198286057e-02 -1.003483310341835022e-02 -1.005119457840919495e-02 -1.001492608338594437e-02 9.809089250273719496e-45 5.403235182166099548e-02 1.355190202593803406e-02 -1.003185380250215530e-02 1.094736624509096146e-02 -1.005693152546882629e-02 5.297718569636344910e-02 1.355033554136753082e-02 -1.121038771459853657e-44 -1.005982048809528351e-02 -9.809089250273719496e-45 -1.004663482308387756e-02 1.327559817582368851e-02 -1.005272753536701202e-02 -1.003975234925746918e-02 -1.004747115075588226e-02 -4.433829337358474731e-02 9.809089250273719496e-45 -1.005106884986162186e-02 -1.003735512495040894e-02 -1.297297049313783646e-02 1.328939478844404221e-02 9.809089250273719496e-45 9.809089250273719496e-45 -1.002855505794286728e-02 -1.002576295286417007e-02 1.354966219514608383e-02 -1.005126629024744034e-02 1.355691626667976379e-02 -9.809089250273719496e-45 9.809089250273719496e-45 -1.005127746611833572e-02 -1.004453469067811966e-02 -1.003921497613191605e-02 9.809089250273719496e-45 -1.005610637366771698e-02 -1.003763452172279358e-02 -1.005481369793415070e-02 -1.005053427070379257e-02 1.331329438835382462e-02 -1.004438288509845734e-02 -1.002821233123540878e-02 -9.987244382500648499e-03 -1.006400305777788162e-02 -9.809089250273719496e-45 -1.005057990550994873e-02 1.355676632374525070e-02 -1.003761962056159973e-02 -1.003602426499128342e-02 1.354345027357339859e-02 -1.006301119923591614e-02 1.354554668068885803e-02 1.261168617892335364e-44 1.372119504958391190e-02 -9.809089250273719496e-45 -1.005028653889894485e-02 9.809089250273719496e-45 -1.004706602543592453e-02 1.355373766273260117e-02 -1.004533562809228897e-02 3.362174704670906067e-02 9.809089250273719496e-45 9.809089250273719496e-45 -1.006291434168815613e-02 -2.849842794239521027e-02 -1.004204619675874710e-02 -1.006297115236520767e-02 1.354710850864648819e-02 -1.003861706703901291e-02 1.331891398876905441e-02 -9.809089250273719496e-45 -9.809089250273719496e-45 1.332800090312957764e-02 -1.004439219832420349e-02 -1.004862692207098007e-02 1.430463790893554688e-02 -4.519513994455337524e-02 -1.005068514496088028e-02 1.448287907987833023e-02 -1.004567742347717285e-02 1.354953274130821228e-02 -1.002362836152315140e-02 -9.809089250273719496e-45 -9.809089250273719496e-45 -1.002813596278429031e-02 -1.005415897816419601e-02 9.809089250273719496e-45 9.809089250273719496e-45 -9.809089250273719496e-45 1.329175662249326706e-02 -1.253684889525175095e-02 9.809089250273719496e-45 -1.004024129360914230e-02 -9.988997131586074829e-03 -1.004373002797365189e-02 -1.002957671880722046e-02 -1.003360282629728317e-02 -1.001766510307788849e-02 -9.988714009523391724e-03 -1.002531871199607849e-02 -1.004991400986909866e-02 -1.003547199070453644e-02 1.471839565783739090e-02 -1.005085371434688568e-02 1.095388736575841904e-02 -1.003458723425865173e-02 1.355900336056947708e-02 -1.004346180707216263e-02 -1.005010958760976791e-02 9.809089250273719496e-45 -1.004886440932750702e-02 9.809089250273719496e-45 1.523616723716259003e-02 -1.002916414290666580e-02 9.809089250273719496e-45 1.319643575698137283e-02 -1.005866378545761108e-02 1.354680396616458893e-02 -1.002711523324251175e-02 -9.809089250273719496e-45 1.331544667482376099e-02 -5.729582160711288452e-02 3.294975310564041138e-02 1.261168617892335364e-44 -2.674420364201068878e-02 9.809089250273719496e-45 -1.006505824625492096e-02 -1.500244345515966415e-02 -1.006186846643686295e-02 3.210951760411262512e-02 -1.004961319267749786e-02 -1.002670451998710632e-02 -1.003810856491327286e-02 1.330998167395591736e-02 1.105060707777738571e-02 9.809089250273719496e-45 -1.003753580152988434e-02 9.809089250273719496e-45 -1.002620253711938858e-02 -1.013722084462642670e-02 -9.809089250273719496e-45 1.379116717725992203e-02 1.332700066268444061e-02 -1.004372630268335342e-02 -1.002481114119291306e-02 -1.004455797374248505e-02 3.464598953723907471e-02
