9.821084141731262207e-02
2.636667788028717041e-01
2.143308222293853760e-01
2.479781210422515869e-01
-3.492951095104217529e-01
-3.407973945140838623e-01
5.380534529685974121e-01
-1.887422055006027222e-01
-2.833769321441650391e-01
-3.095947504043579102e-01
-1.046265363693237305e-01
4.752246662974357605e-02
4.704710841178894043e-01
7.167072966694831848e-03
1.220472082495689392e-01
-1.496959030628204346e-01
1.457242965698242188e-01
-7.243242114782333374e-02
1.911837756633758545e-01
3.014674186706542969e-01
-3.473221957683563232e-01
-3.100833296775817871e-01
-2.847848236560821533e-01
-3.044649660587310791e-01
5.776168778538703918e-02
-4.340259730815887451e-01
1.029317826032638550e-01
1.286436468362808228e-01
-7.414109259843826294e-02
6.117387861013412476e-02
-3.569695651531219482e-01
-5.183331295847892761e-02
-6.915660202503204346e-02
-8.861155062913894653e-02
-2.582183480262756348e-01
5.394370555877685547e-01
6.048144027590751648e-02
-8.951514214277267456e-02
4.568854570388793945e-01
-2.131396681070327759e-01
2.070325426757335663e-02
-1.323387622833251953e-01
1.509059518575668335e-01
-4.295637011528015137e-01
1.461969017982482910e-01
-2.549985349178314209e-01
2.322871536016464233e-01
-5.135632753372192383e-01
3.572113215923309326e-01
-7.257050275802612305e-02
2.576692700386047363e-01
8.022040128707885742e-02
5.249665975570678711e-01
-2.868240885436534882e-02
1.380237638950347900e-01
5.426846817135810852e-02
1.837356537580490112e-01
3.653497397899627686e-01
1.541360020637512207e-01
-3.627550303936004639e-01
-3.853819370269775391e-01
3.446264266967773438e-01
-2.434266209602355957e-01
7.157555967569351196e-02
2.452453225851058960e-01
-9.885306656360626221e-02
-7.475139200687408447e-02
2.475720942020416260e-01
2.107774764299392700e-01
1.925895065069198608e-01
6.202967464923858643e-02
-2.727511227130889893e-01
-1.298870444297790527e-01
1.901314556598663330e-01
3.320269882678985596e-01
-2.496957778930664062e-01
2.317368984222412109e-01
-1.001574620604515076e-01
-2.208458930253982544e-01
3.589024767279624939e-02
-4.936240613460540771e-01
-3.620769679546356201e-01
-4.944553226232528687e-02
-4.083922207355499268e-01
-2.898111194372177124e-02
7.177196443080902100e-02
3.427514806389808655e-02
-2.638619542121887207e-01
3.300356566905975342e-01
2.074103504419326782e-01
7.263958454132080078e-02
-1.531558036804199219e-01
1.966634541749954224e-01
4.008235335350036621e-01
3.603738844394683838e-01
-3.751655817031860352e-01
4.521936178207397461e-01
-1.022893488407135010e-01
4.355806410312652588e-01
-3.507375121116638184e-01
-2.477382123470306396e-01
-9.390946477651596069e-03
2.034160941839218140e-01
3.415121436119079590e-01
-1.452521085739135742e-01
-1.286940127611160278e-01
-1.762539893388748169e-01
5.332475900650024414e-01
4.384044706821441650e-01
3.437501490116119385e-01
-5.119493603706359863e-01
3.811826407909393311e-01
-2.505507767200469971e-01
2.067583352327346802e-01
2.907343804836273193e-01
1.533854007720947266e-01
-3.188447952270507812e-01
3.252920806407928467e-01
-2.418763041496276855e-01
-4.271221458911895752e-01
-1.584214717149734497e-01
1.492536664009094238e-01
-4.501084610819816589e-02
-3.668856248259544373e-02
4.913520812988281250e-01
-2.572676837444305420e-01
5.912630876991897821e-05
-3.670483455061912537e-02
-2.374970018863677979e-01
7.590772956609725952e-02
-3.872596621513366699e-01
3.326194584369659424e-01
-3.051008284091949463e-01
6.513032317161560059e-01
3.304363787174224854e-01
1.368534564971923828e-01
4.704171121120452881e-01
5.668606236577033997e-02
1.332275718450546265e-01
-2.085537761449813843e-01
3.937783837318420410e-01
4.768351018428802490e-01
2.686843276023864746e-01
1.231743618845939636e-01
4.966828227043151855e-01
-2.130643576383590698e-01
-2.149259112775325775e-02
6.352770328521728516e-02
-4.343331754207611084e-01
-3.287054598331451416e-01
9.333681315183639526e-02
9.644486010074615479e-02
3.479976579546928406e-02
-1.941644549369812012e-01
-2.531471848487854004e-01
-1.347788423299789429e-01
7.906361222267150879e-01
-1.357665006071329117e-02
1.593469381332397461e-01
-2.793040275573730469e-01
-1.404306143522262573e-01
2.654139697551727295e-01
1.570927053689956665e-01
-2.962105870246887207e-01
1.578022241592407227e-01
5.291535854339599609e-01
-3.036155998706817627e-01
-6.238446012139320374e-02
3.256736695766448975e-01
-1.141738742589950562e-01
3.891735970973968506e-01
2.371548712253570557e-01
2.779909670352935791e-01
-3.305738866329193115e-01
-2.746051549911499023e-01
-2.657443284988403320e-01
1.677272617816925049e-01
8.844810724258422852e-02
2.210737168788909912e-01
1.130457445979118347e-01
4.318095445632934570e-01
2.157726138830184937e-01
-1.462754309177398682e-01
3.927648961544036865e-01
8.123123645782470703e-02
2.070928215980529785e-01
-4.388355910778045654e-01
7.097321003675460815e-02
4.198847413063049316e-01
-4.448222815990447998e-01
2.558927536010742188e-01
-1.052544489502906799e-01
1.523013114929199219e-01
-3.195635080337524414e-01
4.200947880744934082e-01
2.765479981899261475e-01
-1.836065202951431274e-01
7.448460441082715988e-03
-2.333467304706573486e-01
-4.807750508189201355e-02
-1.858199387788772583e-01
5.008725523948669434e-01
-1.255953162908554077e-01
2.097314745187759399e-01
-3.711499571800231934e-01
-2.361075952649116516e-02
-2.437937706708908081e-01
3.244469761848449707e-01
1.211817488074302673e-01
-4.536764025688171387e-01
-1.021332442760467529e-01
-3.627443611621856689e-01
-2.083382382988929749e-02
1.267751455307006836e-01
-9.246427565813064575e-02
-3.537096083164215088e-01
-3.284541517496109009e-02
-2.292813733220100403e-02
5.000884085893630981e-02
3.075704276561737061e-01
-9.313629008829593658e-03
3.671367764472961426e-01
4.154585599899291992e-01
3.657208681106567383e-01
-4.612594842910766602e-02
2.906206548213958740e-01
2.225852459669113159e-01
-1.048834174871444702e-01
-8.337081968784332275e-02
1.984284222126007080e-01
-2.146257907152175903e-01
3.569610789418220520e-02
2.963389270007610321e-02
-2.282167077064514160e-01
-1.673544198274612427e-01
2.523401677608489990e-01
-3.569908738136291504e-01
1.485981792211532593e-01
-8.216173946857452393e-02
1.672138571739196777e-01
3.698711097240447998e-01
-1.656742244958877563e-01
8.268982917070388794e-02
-1.440920829772949219e-01
1.278237849473953247e-01
-5.630801320075988770e-01
5.711887478828430176e-01
-4.570937901735305786e-02
1.336796581745147705e-01
-3.278512042015790939e-03
-1.534652113914489746e-01
5.776043534278869629e-01
1.282911598682403564e-01
3.453895747661590576e-01
4.185894727706909180e-01
-2.148944139480590820e-01
5.624294281005859375e-01
2.173878550529479980e-01
4.830193817615509033e-01
-2.985824085772037506e-02
5.672540068626403809e-01
3.668741881847381592e-01
1.810100525617599487e-01
3.619182109832763672e-01
1.350676119327545166e-01
-2.056874185800552368e-01
-3.786613643169403076e-01
-3.436718583106994629e-01
1.805338114500045776e-01
6.603873521089553833e-02
-2.777448594570159912e-01
1.495460122823715210e-01
-4.810980707406997681e-02
2.603992521762847900e-01
-5.383682996034622192e-02
4.516147077083587646e-02
1.350853890180587769e-01
1.183890625834465027e-01
2.386690229177474976e-01
2.168897986412048340e-01
2.713875174522399902e-01
-4.641089737415313721e-01
1.673315912485122681e-01
-2.078795433044433594e-01
2.122321426868438721e-01
-1.743509620428085327e-01
-4.879885166883468628e-02
6.362472474575042725e-02
-5.634582787752151489e-02
-1.707984060049057007e-01
3.032782673835754395e-01
3.310104459524154663e-02
1.826792210340499878e-01
-4.594165086746215820e-01
3.359137475490570068e-01
4.006562530994415283e-01
1.761471629142761230e-01
-3.406717777252197266e-01
6.107467412948608398e-01
5.007402300834655762e-01
3.032582104206085205e-01
-3.285974860191345215e-01
-4.740904085338115692e-03
-6.182942073792219162e-03
4.022841751575469971e-01
6.122167110443115234e-01
4.364503324031829834e-01
-3.940913081169128418e-01
-8.495486527681350708e-02
-3.764423131942749023e-01
3.984047845005989075e-02
-2.885734736919403076e-01
-2.020980715751647949e-01
4.914701282978057861e-01
3.638989329338073730e-01
2.624569237232208252e-01
2.327755652368068695e-02
2.462031506001949310e-02
-2.078245431184768677e-01
3.762744069099426270e-01
3.427204489707946777e-01
3.047570884227752686e-01
-2.421684376895427704e-02
1.544629633426666260e-01
-3.231076300144195557e-01
-2.120527811348438263e-02
-4.643100500106811523e-02
-9.295696392655372620e-03
7.601289451122283936e-02
-7.160581648349761963e-02
-3.885541558265686035e-01
2.287507057189941406e-02
2.271144539117813110e-01
-5.965710803866386414e-02
-1.686701476573944092e-01
6.363528966903686523e-02
6.565207988023757935e-02
4.793918728828430176e-01
-1.607364416122436523e-01
2.390329837799072266e-01
1.713045090436935425e-01
-5.999313294887542725e-02
1.501898020505905151e-01
-2.163877189159393311e-01
2.493386566638946533e-01
-1.755340397357940674e-02
2.982094883918762207e-01
4.015152454376220703e-01
1.458694338798522949e-01
4.682410135865211487e-02
-1.170613840222358704e-01
-2.166355848312377930e-01
-5.611378327012062073e-02
1.416174620389938354e-01
-3.368530049920082092e-02
3.054876029491424561e-01
4.530619680881500244e-01
1.291783452033996582e-01
6.525838375091552734e-02
-2.599425911903381348e-01
3.798090815544128418e-01
2.127040773630142212e-01
3.861111104488372803e-01
3.552342578768730164e-02
-2.568440139293670654e-01
2.555447220802307129e-01
3.001893460750579834e-01
2.043088078498840332e-01
-2.495139092206954956e-01
-4.150070548057556152e-01
-9.573820978403091431e-02
1.096673756837844849e-01
-3.276332318782806396e-01
-2.135580033063888550e-01
8.585967123508453369e-02
-3.467707335948944092e-01
2.551954984664916992e-01
-3.079238831996917725e-01
3.342672884464263916e-01
3.564477339386940002e-02
3.532347083091735840e-01
5.163153260946273804e-02
6.007783412933349609e-01
2.932094037532806396e-01
-3.323879539966583252e-01
-3.605737686157226562e-01
3.238479793071746826e-01
2.323015360161662102e-03
3.644596636295318604e-01
1.089301705360412598e-02
-1.868688315153121948e-01
1.710508465766906738e-01
1.040309891104698181e-01
3.865548074245452881e-01
1.640619933605194092e-01
4.068338572978973389e-01
3.383540511131286621e-01
3.758805394172668457e-01
-9.386844187974929810e-02
1.935466676950454712e-01
1.888978481292724609e-01
2.489175349473953247e-01
8.110272884368896484e-02
1.611130833625793457e-01
2.901701927185058594e-01
2.966152131557464600e-01
-3.939039260149002075e-02
5.399298667907714844e-01
5.861308574676513672e-01
-6.246216222643852234e-02
-1.656684726476669312e-01
-9.576244279742240906e-03
-6.361214816570281982e-02
-1.595292538404464722e-01
-3.986138701438903809e-01
-9.308703988790512085e-02
-3.082356452941894531e-01
-3.303560912609100342e-01
5.963340029120445251e-02
-2.896586358547210693e-01
-1.214485168457031250e-01
-2.303439825773239136e-01
-3.846065700054168701e-02
4.280704855918884277e-01
2.673040628433227539e-01
-2.487343102693557739e-01
2.845117747783660889e-01
3.379591703414916992e-01
1.491380035877227783e-01
-4.228806123137474060e-02
5.661579370498657227e-01
-3.735393285751342773e-02
2.940571308135986328e-01
-2.483452111482620239e-01
-2.487542629241943359e-01
-2.710255794227123260e-02
9.731429629027843475e-03
-4.018822610378265381e-01
1.615014672279357910e-01
-3.265923261642456055e-01
5.733630657196044922e-01
-2.502775192260742188e-01
-4.433093667030334473e-01
3.409214019775390625e-01
-2.495006173849105835e-01
-3.777837613597512245e-03
4.525116682052612305e-01
-3.283103108406066895e-01
-2.843061089515686035e-01
-2.494673728942871094e-01
3.562794923782348633e-01
-1.074203029274940491e-01
-1.588741987943649292e-01
1.113267615437507629e-01
-3.447620868682861328e-01
-1.672636531293392181e-02
9.891037642955780029e-02
8.710603415966033936e-02
-8.839021623134613037e-02
3.305129408836364746e-01
2.111101746559143066e-01
-4.444352388381958008e-01
5.539199113845825195e-01
-2.572787553071975708e-02
2.258671373128890991e-01
-2.407219260931015015e-01
-4.036308825016021729e-01
6.536623835563659668e-01
6.853204965591430664e-02
2.288512140512466431e-01
-6.004732102155685425e-02
-2.635640203952789307e-01
-7.013219594955444336e-02
3.643274307250976562e-02
2.801135554909706116e-02
2.461568713188171387e-01
-8.811894804239273071e-02
2.110907286405563354e-01
-4.826370626688003540e-03
1.296796649694442749e-01
-6.667554378509521484e-02
4.483351409435272217e-01
-1.512864530086517334e-01
1.499138772487640381e-01
-2.014217525720596313e-01
-1.598039120435714722e-01
9.413538873195648193e-02
-1.136507838964462280e-02
5.553647279739379883e-01
2.980642579495906830e-02
2.525734305381774902e-01
4.728857427835464478e-02
1.214746534824371338e-01
-4.878246039152145386e-02
-2.069882899522781372e-01
-4.869267642498016357e-01
1.707615703344345093e-01
3.844168782234191895e-01
-2.505433857440948486e-01
-3.779187500476837158e-01
-3.242156803607940674e-01
5.014982074499130249e-02
9.383018314838409424e-02
2.622746527194976807e-01
-2.171908318996429443e-01
6.498290896415710449e-01
-1.855221576988697052e-02
3.730472028255462646e-01
2.541569173336029053e-01
-2.108026444911956787e-01
-1.302542388439178467e-01
2.292020618915557861e-01
