9.689590893685817719e-03
-8.722162805497646332e-03
-6.422753911465406418e-03
-2.555765910074114799e-03
-4.460772033780813217e-03
2.373554743826389313e-03
4.065677989274263382e-03
9.265769622288644314e-04
-1.702971570193767548e-02
2.519528614357113838e-03
4.130617249757051468e-03
3.673413069918751717e-03
5.716531537473201752e-03
5.401586182415485382e-03
-2.010901458561420441e-02
-3.317084535956382751e-02
7.101968512870371342e-04
2.930377796292304993e-02
5.637040361762046814e-03
1.467367750592529774e-03
4.737548995763063431e-03
-1.348576415330171585e-02
-7.877317070960998535e-02
3.236678242683410645e-02
5.331476568244397640e-04
-1.190999150276184082e-02
4.827713593840599060e-03
4.955791309475898743e-02
2.554737264290452003e-03
4.745128564536571503e-03
-1.245787963271141052e-01
7.024749647825956345e-03
-4.228230100125074387e-03
-3.236645599827170372e-03
-5.733648431487381458e-04
4.309384897351264954e-02
3.804755955934524536e-02
-1.313096191734075546e-02
-7.611887063831090927e-03
-2.319260820513591170e-04
-5.017544608563184738e-03
-2.097996417433023453e-03
9.365960024297237396e-03
4.752485081553459167e-03
-3.445019479840993881e-03
5.814948119223117828e-03
9.138201363384723663e-03
1.324723009020090103e-02
-1.492426730692386627e-03
-1.124536991119384766e-02
3.624487202614545822e-03
5.865407176315784454e-03
2.955231815576553345e-03
7.809104397892951965e-03
2.698169788345694542e-03
1.641401648521423340e-02
-2.928012283518910408e-03
-5.486133042722940445e-03
2.672622445970773697e-03
-5.440535955131053925e-03
7.551932707428932190e-03
1.674378477036952972e-02
2.219829894602298737e-02
1.994924386963248253e-03
9.545061038807034492e-04
-5.057411617599427700e-04
1.864752033725380898e-03
-1.842576451599597931e-02
-3.320645308122038841e-03
-1.570176216773688793e-03
-3.415943938307464123e-04
-2.723125740885734558e-03
-3.557155281305313110e-02
8.530219085514545441e-03
4.037560895085334778e-02
1.196743622422218323e-01
1.799651770852506161e-03
4.887877963483333588e-03
5.260009318590164185e-03
3.224194049835205078e-02
1.240730378776788712e-02
6.954327970743179321e-02
-3.670441452413797379e-03
6.706368876621127129e-04
1.039911340922117233e-02
2.175587927922606468e-03
-1.532275136560201645e-02
-2.283800859004259109e-03
-6.339990650303661823e-04
-3.725436283275485039e-03
-3.306656377390027046e-03
3.029308281838893890e-03
1.935919281095266342e-03
-2.008135616779327393e-02
4.890604875981807709e-03
-7.844799198210239410e-03
-2.577298553660511971e-03
9.627332910895347595e-03
4.335036966949701309e-03
1.547514111734926701e-03
2.166708186268806458e-02
-7.956476765684783459e-04
-1.413292158395051956e-02
7.084782235324382782e-03
9.098136797547340393e-04
-3.854207694530487061e-02
-5.075555294752120972e-03
2.924662828445434570e+00
4.996433854103088379e-03
2.931179478764533997e-02
-2.371972240507602692e-02
2.669339301064610481e-03
7.352547720074653625e-03
6.059265579096972942e-04
-2.472420921549201012e-03
7.519184146076440811e-03
7.153577171266078949e-03
1.699850778095424175e-03
1.160096842795610428e-03
-7.273584487847983837e-04
1.426782819180516526e-05
1.301102805882692337e-03
2.801577094942331314e-03
8.280182257294654846e-03
-9.338052943348884583e-03
-1.020056009292602539e-01
-9.218459017574787140e-03
-9.573389776051044464e-03
7.128263823688030243e-03
4.552616155706346035e-04
2.342578489333391190e-03
-5.330093670636415482e-03
5.088950856588780880e-04
-2.619376638904213905e-03
1.596425543539226055e-03
3.681004978716373444e-03
1.087142736651003361e-03
-1.545059680938720703e-02
-7.823698688298463821e-04
-3.046180354431271553e-04
-1.620580628514289856e-02
-1.857678405940532684e-02
-1.030525472015142441e-02
1.734511926770210266e-02
-1.433087699115276337e-02
9.194649755954742432e-04
2.498078683856874704e-04
-2.010481432080268860e-03
-1.331508392468094826e-03
-7.609786465764045715e-03
1.684230053797364235e-03
1.774980500340461731e-02
-2.241980051621794701e-03
-1.746535301208496094e-02
2.595088444650173187e-03
3.539524506777524948e-03
5.690869409590959549e-03
1.720248535275459290e-02
2.367142029106616974e-02
-4.441082011908292770e-03
8.530195918865501881e-05
-3.782710293307900429e-03
-5.983158014714717865e-03
-1.329467259347438812e-02
-1.874527893960475922e-02
6.045202724635601044e-03
4.787771031260490417e-04
2.134248428046703339e-02
-1.395547483116388321e-02
5.241313017904758453e-03
1.726759038865566254e-02
8.702984079718589783e-03
4.665681626647710800e-03
9.453572420170530677e-05
2.403469756245613098e-02
3.068478778004646301e-03
-4.738723859190940857e-03
4.582281690090894699e-03
-3.502081613987684250e-03
2.043874934315681458e-02
-4.236078821122646332e-03
-4.861868801526725292e-04
-8.871010504662990570e-03
9.131640195846557617e-03
2.617489919066429138e-02
4.638372920453548431e-03
1.397295156493782997e-03
2.224452793598175049e-03
3.352053463459014893e-02
2.320336550474166870e-02
1.311200298368930817e-02
1.400516927242279053e-02
2.025251276791095734e-02
-1.001405064016580582e-03
-4.617444239556789398e-03
1.309023424983024597e-02
-1.158182229846715927e-02
-1.768786087632179260e-02
-3.745135385543107986e-03
1.935597625561058521e-03
-1.315176486968994141e-02
-7.658847025595605373e-04
8.287319215014576912e-04
7.592770853079855442e-04
-1.039919676259160042e-03
1.452688477002084255e-03
1.620309078134596348e-03
5.085144191980361938e-03
6.871291901916265488e-03
-1.272927317768335342e-02
2.964645437896251678e-02
8.843790739774703979e-03
4.835800267755985260e-03
2.933661919087171555e-03
3.121394477784633636e-02
2.677768701687455177e-03
-1.277792733162641525e-03
-1.492351759225130081e-02
8.040745742619037628e-04
1.717140078544616699e+00
6.861452129669487476e-04
3.975897654891014099e-02
5.155397579073905945e-03
2.328413305804133415e-03
6.804497539997100830e-02
4.495907574892044067e-02
-1.476029958575963974e-02
2.196374814957380295e-03
1.465503498911857605e-02
-1.552440691739320755e-02
-1.389268785715103149e-03
1.473580370657145977e-03
3.422970883548259735e-03
-8.927076123654842377e-03
4.793851636350154877e-03
2.697739109862595797e-04
5.366457626223564148e-03
-8.773327805101871490e-03
-2.015987597405910492e-02
8.404931984841823578e-03
-2.317816019058227539e-03
1.104801706969738007e-02
-1.573620946146547794e-03
-4.193189961370080709e-04
3.038092050701379776e-03
9.912588633596897125e-03
2.475219964981079102e-02
2.538998844102025032e-03
-8.901336695998907089e-05
1.301348861306905746e-02
-8.471441455185413361e-03
2.757447026669979095e-02
-1.378025021404027939e-02
2.602557884529232979e-03
-1.467070262879133224e-02
-2.697648946195840836e-03
