-1.757214032113552094e-02
3.557852655649185181e-02
-5.995918996632099152e-03
2.966216206550598145e-01
9.105153148993849754e-04
-2.414114074781537056e-03
2.906821072101593018e-01
5.569699406623840332e-02
2.931158840656280518e-01
-5.562604069709777832e-01
1.517920047044754028e-01
2.403884427621960640e-03
3.753550946712493896e-01
-1.893374472856521606e-01
-1.169658615253865719e-03
-7.595195434987545013e-03
-8.012782335281372070e-01
-3.061549663543701172e-01
7.828625440597534180e-01
-2.975103631615638733e-02
-3.977366257458925247e-03
-6.049564480781555176e-01
-5.273416638374328613e-01
4.031140997540205717e-04
1.802401691675186157e-01
-6.434054374694824219e-01
8.380468189716339111e-02
1.618897775188088417e-03
-3.178837299346923828e-01
-5.997226238250732422e-01
1.032074142131023109e-04
-1.006984189152717590e-01
-1.010927185416221619e-02
-1.926938444375991821e-01
-4.927946925163269043e-01
3.184007480740547180e-03
3.217661380767822266e-01
8.331067115068435669e-02
1.448586955666542053e-02
-1.192401815205812454e-02
-7.351976037025451660e-01
-2.345220297574996948e-01
8.290262818336486816e-01
1.428875024430453777e-03
7.449673414230346680e-01
-3.966538012027740479e-01
-1.088969334959983826e-01
-4.388904571533203125e-01
-4.284233320504426956e-03
1.382849179208278656e-03
-3.693263828754425049e-01
-3.508467972278594971e-01
7.738563418388366699e-01
-6.450757849961519241e-03
-2.977740466594696045e-01
6.485152244567871094e-01
1.555985361337661743e-01
7.031627744436264038e-02
5.474277138710021973e-01
-4.743548333644866943e-01
-7.331798076629638672e-01
2.334343828260898590e-02
-2.114097028970718384e-02
1.607044935226440430e-01
6.385519504547119141e-01
-1.727310568094253540e-01
-1.552379876375198364e-01
4.796198308467864990e-01
3.537690639495849609e-01
1.246617883443832397e-01
5.134793370962142944e-02
-4.691602289676666260e-01
-5.964445471763610840e-01
2.353067845106124878e-01
-9.618639945983886719e-01
3.800624050199985504e-03
3.773417770862579346e-01
-1.085010915994644165e-01
-7.379706483334302902e-03
4.488725960254669189e-01
-5.228382945060729980e-01
-5.851305127143859863e-01
-4.749536514282226562e-02
-5.474120844155550003e-04
2.994776368141174316e-01
5.886001586914062500e-01
-4.532333463430404663e-03
-3.833273649215698242e-01
4.723069369792938232e-01
5.997717976570129395e-01
5.457798391580581665e-02
-3.864068388938903809e-01
3.026080429553985596e-01
-6.787722557783126831e-02
5.910074710845947266e-01
-8.094027042388916016e-01
3.834764659404754639e-01
-2.133771404623985291e-02
2.574837803840637207e-01
-2.001768201589584351e-01
-1.774489134550094604e-02
-3.193194866180419922e-01
-9.178849309682846069e-02
2.813792228698730469e-01
-7.944279909133911133e-02
-5.534101277589797974e-02
-3.975245356559753418e-01
5.905094146728515625e-01
1.440257132053375244e-01
4.018679559230804443e-01
-6.843550205230712891e-01
-7.163077592849731445e-02
-3.725754916667938232e-01
4.388369321823120117e-01
-1.590809524059295654e-01
1.394435614347457886e-01
4.188719671219587326e-03
-3.544467985630035400e-01
-4.287919029593467712e-02
-4.117304384708404541e-01
-3.196603953838348389e-01
3.653248399496078491e-02
-2.408007830381393433e-01
3.029845468699932098e-02
-6.126737222075462341e-03
-4.147501587867736816e-01
-5.174201726913452148e-01
-1.010118946433067322e-01
-5.891845226287841797e-01
-3.691902384161949158e-03
-3.028469681739807129e-01
3.060966730117797852e-01
-4.127078354358673096e-01
7.475442886352539062e-01
-3.520165681838989258e-01
-8.053911849856376648e-03
1.188139989972114563e-01
-4.010959565639495850e-01
6.227128505706787109e-01
-3.591130720451474190e-03
6.999844312667846680e-02
5.360524654388427734e-01
6.514818072319030762e-01
7.152254134416580200e-02
7.948334813117980957e-01
2.245455980300903320e-01
-4.741125404834747314e-01
-4.686750471591949463e-01
-2.948831319808959961e-01
-3.134323060512542725e-01
-3.820919618010520935e-02
5.813238620758056641e-01
5.744503438472747803e-02
-3.818855807185173035e-02
-4.638969004154205322e-01
-1.711618006229400635e-01
6.923464536666870117e-01
-3.415244398638606071e-03
1.390321552753448486e-01
-2.609186768531799316e-01
-3.460178673267364502e-01
3.583265244960784912e-01
-1.658998876810073853e-01
-2.685779333114624023e-01
-3.104727566242218018e-01
8.829036951065063477e-01
-4.281138256192207336e-02
-1.869505271315574646e-02
6.785379052162170410e-01
-4.824936762452125549e-02
-3.374224305152893066e-01
4.745571017265319824e-01
8.046202659606933594e-01
-5.413911342620849609e-01
1.599560230970382690e-01
-1.309112412855029106e-03
3.281075954437255859e-01
-2.319482117891311646e-01
5.980709195137023926e-01
2.141818404197692871e-01
3.552904129028320312e-01
-1.295492649078369141e-01
-5.112212300300598145e-01
1.441697776317596436e-01
1.872111409902572632e-01
-9.163025766611099243e-02
-2.189340442419052124e-02
3.599697956815361977e-04
-2.633830904960632324e-01
-1.829293072223663330e-01
2.093133330345153809e-01
-6.606305949389934540e-03
3.790008425712585449e-01
-5.897049326449632645e-03
1.753273904323577881e-01
2.434001713991165161e-01
-4.169586300849914551e-01
5.891235172748565674e-02
-1.635523326694965363e-02
-2.685885690152645111e-02
2.306891977787017822e-01
4.456504881381988525e-01
1.301914006471633911e-01
7.339521311223506927e-03
-2.846212089061737061e-01
1.703888177871704102e-01
-3.719337284564971924e-01
-1.731137931346893311e-02
-4.472011327743530273e-01
-5.603280067443847656e-01
-3.291296362876892090e-01
1.265860944986343384e-01
-2.494425922632217407e-01
-8.713164366781711578e-03
-3.873175978660583496e-01
-3.496457934379577637e-01
-1.221250072121620178e-01
3.014950780197978020e-03
5.215402226895093918e-03
2.210946530103683472e-01
-3.806741535663604736e-02
9.252231568098068237e-02
9.907691273838281631e-04
-2.932209521532058716e-02
1.828325837850570679e-01
5.540659651160240173e-02
3.219489157199859619e-01
-5.878693982958793640e-02
-5.963494069874286652e-03
-2.665554583072662354e-01
1.389607205055654049e-03
7.905000448226928711e-02
1.751388758420944214e-01
-6.318692564964294434e-01
-9.681671857833862305e-01
-5.817146040499210358e-03
-6.056995987892150879e-01
-2.245519161224365234e-01
3.391751961316913366e-04
-2.975279986858367920e-01
2.502851188182830811e-01
1.139335799962282181e-03
8.709909766912460327e-02
-3.163198232650756836e-01
-7.412713486701250076e-03
-5.963177420198917389e-03
1.361321806907653809e-01
-1.888615195639431477e-03
2.674244940280914307e-01
2.526917159557342529e-01
-2.594411186873912811e-02
5.361008644104003906e-01
1.248980173841118813e-03
-2.229873836040496826e-02
2.262866050004959106e-01
-1.485175341367721558e-01
3.182039856910705566e-01
7.958586812019348145e-01
-5.476616695523262024e-02
1.599168637767434120e-03
2.331150919198989868e-01
-1.518373489379882812e-01
2.544358372688293457e-01
4.856357574462890625e-01
3.415397405624389648e-01
-4.426717460155487061e-01
-4.462372660636901855e-01
-7.685583829879760742e-02
4.355545639991760254e-01
-4.948874935507774353e-03
2.521917223930358887e-01
1.490256488323211670e-01
-4.006007015705108643e-01
1.670938543975353241e-02
3.871481120586395264e-01
8.940659463405609131e-02
5.094473361968994141e-01
-2.355305850505828857e-01
4.269282817840576172e-01
9.508170932531356812e-02
1.019769348204135895e-02
-3.596056699752807617e-01
-8.601804822683334351e-02
2.203963845968246460e-01
-7.388888392597436905e-03
-3.498173505067825317e-02
9.947210550308227539e-02
1.942668668925762177e-02
-3.943554461002349854e-01
-2.251120507717132568e-01
3.699105381965637207e-01
2.883763909339904785e-01
-1.086447387933731079e-01
-1.908245533704757690e-01
8.675335049629211426e-01
4.424174427986145020e-01
6.004954576492309570e-01
-6.078478097915649414e-01
-1.186535577289760113e-03
4.214484691619873047e-01
-1.302877068519592285e-01
-3.042747974395751953e-01
6.064863875508308411e-03
-3.592334091663360596e-01
8.804600685834884644e-02
8.715544939041137695e-01
7.724702008999884129e-04
-6.016068533062934875e-02
-1.838102936744689941e-01
-7.465816736221313477e-01
3.838477730751037598e-01
-1.822604681365191936e-03
-2.377873510122299194e-01
4.908479452133178711e-01
6.983609497547149658e-02
-3.108800053596496582e-01
-1.296923160552978516e-01
-6.734217517077922821e-03
-2.546659111976623535e-01
2.568078935146331787e-01
8.192669749259948730e-01
-1.880799100035801530e-04
2.306030392646789551e-01
-3.329624533653259277e-01
-4.404352605342864990e-01
-3.478947281837463379e-01
1.098583638668060303e-01
9.873605519533157349e-02
4.715615212917327881e-01
-1.524929702281951904e-02
3.546398282051086426e-01
8.163578063249588013e-02
1.628143936395645142e-01
8.760667592287063599e-02
5.495705455541610718e-02
2.761915326118469238e-01
1.726688146591186523e-01
-5.963842272758483887e-01
-3.900379538536071777e-01
-4.029317200183868408e-01
-4.593988955020904541e-01
3.237991929054260254e-01
-4.714096896350383759e-03
-8.649728894233703613e-01
7.101349830627441406e-01
-1.142505742609500885e-02
2.908901870250701904e-01
7.796542048454284668e-01
2.695559859275817871e-01
3.101844489574432373e-01
-8.002074062824249268e-02
-2.542821224778890610e-03
-2.071086913347244263e-01
1.416349667124450207e-03
-2.282312065362930298e-01
2.308192998170852661e-01
7.347471714019775391e-01
7.514658849686384201e-03
1.049385145306587219e-01
-6.914579868316650391e-02
1.176142785698175430e-02
3.322100937366485596e-01
4.895396530628204346e-01
-5.090106725692749023e-01
-1.330664474517107010e-02
-3.645225763320922852e-01
3.016757667064666748e-01
4.519757926464080811e-01
-3.107259571552276611e-01
-6.545152068138122559e-01
-2.993570268154144287e-01
1.629091650247573853e-01
-1.849804772064089775e-03
2.128231339156627655e-03
4.039587453007698059e-02
-2.062152475118637085e-01
-9.986095130443572998e-02
-3.116063475608825684e-01
1.359453499317169189e-01
-1.565086692571640015e-01
3.202041089534759521e-01
2.423129044473171234e-02
5.703158974647521973e-01
3.832152485847473145e-01
-4.640463292598724365e-01
-2.303090393543243408e-01
5.184745788574218750e-01
6.979939341545104980e-02
5.785406231880187988e-01
-8.021544218063354492e-01
-2.544947862625122070e-01
1.399642229080200195e-01
1.177890077233314514e-01
6.118676392361521721e-04
7.667261362075805664e-01
-7.617606315761804581e-03
1.136040911078453064e-01
3.565801382064819336e-01
-4.211774095892906189e-03
6.809516251087188721e-02
-1.841490268707275391e-01
-1.014202386140823364e-01
-1.213346701115369797e-02
1.645834296941757202e-01
-2.334059178829193115e-01
3.202007412910461426e-01
6.355556845664978027e-01
2.122373431921005249e-01
4.856082201004028320e-01
-2.323146462440490723e-01
-4.282761514186859131e-01
-1.702330191619694233e-03
-2.956688404083251953e-01
-5.347248315811157227e-01
-5.403119325637817383e-01
2.271284908056259155e-01
-6.102887392044067383e-01
-3.631829842925071716e-02
1.134983897209167480e-01
1.032193601131439209e-01
5.339176277630031109e-04
-4.657151997089385986e-01
6.021137814968824387e-03
2.946534426882863045e-03
8.287598378956317902e-03
-5.230277776718139648e-01
-1.563285663723945618e-02
6.566333174705505371e-01
-4.056166708469390869e-01
-1.196603663265705109e-02
-9.821323328651487827e-05
5.115191340446472168e-01
8.406791836023330688e-02
-2.137144654989242554e-01
2.447661161422729492e-01
-1.365289986133575439e-01
1.884208470582962036e-01
6.238827016204595566e-03
-4.566183313727378845e-02
2.750190906226634979e-03
1.471322178840637207e-01
-4.331686941441148520e-04
-4.621181488037109375e-01
5.565906167030334473e-01
-3.077925369143486023e-02
-2.872834503650665283e-01
4.931674599647521973e-01
-4.616535007953643799e-01
-2.686144143808633089e-04
-4.231132101267576218e-03
4.416943192481994629e-01
-4.622510969638824463e-01
-1.593753322958946228e-02
3.317197561264038086e-01
9.304681792855262756e-03
1.908509731292724609e-01
-4.901824053376913071e-03
1.188595816493034363e-01
-4.408510867506265640e-03
4.364595189690589905e-02
4.710398018360137939e-01
-3.429043591022491455e-01
4.650540351867675781e-01
-5.050782859325408936e-02
5.970670580863952637e-01
-3.181884884834289551e-01
-5.022216439247131348e-01
1.507893502712249756e-01
-1.931717991828918457e-01
-9.741357713937759399e-02
-5.968575133010745049e-04
-5.355944633483886719e-01
-5.898861289024353027e-01
2.233961820602416992e-01
7.472040504217147827e-02
-7.599949091672897339e-02
-1.213655248284339905e-02
-1.779055744409561157e-01
1.032082480378448963e-03
8.552227169275283813e-03
-2.986871404573321342e-03
1.907828822731971741e-02
3.547058999538421631e-01
1.154550234787166119e-03
4.173245746642351151e-03
-6.843425631523132324e-01
3.883935809135437012e-01
-2.674309313297271729e-01
-2.657669186592102051e-01
-2.232708595693111420e-02
1.126589700579643250e-01
-2.713882131502032280e-03
6.196167469024658203e-01
1.555359065532684326e-01
4.425298888236284256e-03
-1.079817190766334534e-01
-6.864103078842163086e-01
5.233936309814453125e-01
-5.040078163146972656e-01
-4.059350490570068359e-01
-3.968959152698516846e-01
2.589641511440277100e-01
-2.894482314586639404e-01
3.764106077142059803e-04
-2.273033373057842255e-02
1.664007902145385742e-01
1.958687752485275269e-01
-2.926845550537109375e-01
-7.014615088701248169e-02
-7.010420560836791992e-01
3.059957921504974365e-01
-3.317201137542724609e-02
