-2.963293902575969696e-02
-2.636528573930263519e-02
2.324144123122096062e-03
-2.578483894467353821e-02
1.053936034440994263e-02
-5.670397149515338242e-05
-1.838701404631137848e-02
1.093009486794471741e-02
2.211363613605499268e-02
-3.455910086631774902e-02
2.631436567753553391e-03
-9.597048163414001465e-03
-1.921463385224342346e-02
1.615077140741050243e-03
-1.332029886543750763e-02
-4.990734159946441650e-02
4.116728529334068298e-02
2.563163079321384430e-02
-3.953009471297264099e-02
1.046582590788602829e-03
3.062761761248111725e-02
5.854733171872794628e-04
-1.284021697938442230e-02
-1.340320892632007599e-02
2.463337965309619904e-02
2.276874519884586334e-02
1.422487944364547729e-02
4.736251663416624069e-03
-1.267209462821483612e-02
1.799521222710609436e-02
6.644763052463531494e-03
2.245353162288665771e-02
-1.943516544997692108e-02
-3.903629258275032043e-03
-6.224037613719701767e-03
2.553724125027656555e-02
2.937419712543487549e-02
3.650412254501134157e-04
-9.637512266635894775e-03
1.868323236703872681e-02
-4.413748160004615784e-03
-2.888973802328109741e-03
1.953697390854358673e-02
-2.335919812321662903e-02
1.961610978469252586e-03
-3.429961390793323517e-03
2.263041958212852478e-02
5.213597044348716736e-02
-4.128001630306243896e-02
-1.167460251599550247e-02
3.431242331862449646e-02
3.011723235249519348e-02
-1.428762730211019516e-02
3.829952329397201538e-03
5.957104265689849854e-03
-4.069587588310241699e-02
3.026605211198329926e-02
1.953580044209957123e-02
-9.196806699037551880e-03
-2.029661275446414948e-02
4.087397456169128418e-02
-2.380129136145114899e-02
-2.037608437240123749e-02
-3.159913176205009222e-04
1.006744615733623505e-02
-2.993453759700059891e-03
8.129962719976902008e-03
-1.924882084131240845e-02
-3.896318376064300537e-02
1.657006330788135529e-02
3.460675477981567383e-02
-2.012474834918975830e-02
1.955852145329117775e-03
4.729506559669971466e-03
-3.840336203575134277e-02
2.204602770507335663e-02
2.100084535777568817e-02
3.051311336457729340e-02
-3.185381740331649780e-02
-1.039868779480457306e-02
5.542706698179244995e-02
6.843033712357282639e-03
7.062579970806837082e-03
-2.690707333385944366e-02
2.712015062570571899e-02
-2.778565697371959686e-02
8.698543533682823181e-04
-2.190917916595935822e-02
-9.425284224562346935e-04
1.947946287691593170e-02
-1.647395454347133636e-02
-4.220367991365492344e-04
3.685803385451436043e-03
4.480718926060944796e-04
-1.289299922063946724e-03
-3.145668283104896545e-02
-1.787037402391433716e-02
-1.724966429173946381e-02
-1.356871053576469421e-02
1.935358345508575439e-02
-2.344105765223503113e-02
1.550174877047538757e-02
2.643590234220027924e-02
5.003285035490989685e-02
6.976990960538387299e-03
4.485693573951721191e-02
2.063558250665664673e-02
-2.029462344944477081e-02
3.194760903716087341e-02
4.755229689180850983e-03
-1.988500542938709259e-02
3.724063560366630554e-02
-1.090694870799779892e-02
6.688932329416275024e-02
2.003181353211402893e-02
-8.479577954858541489e-04
1.557363569736480713e-02
4.175293073058128357e-02
-2.398960664868354797e-02
-1.111132185906171799e-02
3.647141903638839722e-02
3.859841078519821167e-02
4.687575623393058777e-02
-6.864721421152353287e-03
3.875913470983505249e-02
1.693831011652946472e-02
-1.024803332984447479e-02
-6.488098949193954468e-02
-1.064100209623575211e-02
8.305916562676429749e-03
6.933012977242469788e-03
-7.157679181545972824e-03
-1.615474559366703033e-02
1.989866374060511589e-03
1.147826295346021652e-02
2.710307016968727112e-02
5.783924832940101624e-02
-2.455196529626846313e-02
3.920879960060119629e-02
-3.686209395527839661e-02
3.587115556001663208e-02
4.157081246376037598e-03
-1.973911374807357788e-02
-2.595063066110014915e-03
-6.842043716460466385e-03
-2.771216444671154022e-02
2.526082098484039307e-03
-5.184677429497241974e-03
1.785785891115665436e-02
-4.853754863142967224e-02
3.823033347725868225e-02
1.292547117918729782e-02
-1.640904881060123444e-02
4.988661035895347595e-03
-3.154994547367095947e-02
-1.261279173195362091e-02
6.950415205210447311e-03
-2.604755014181137085e-02
-1.102373003959655762e-02
-2.666281536221504211e-02
3.509509563446044922e-02
5.145238712430000305e-03
5.505558103322982788e-02
-6.235576421022415161e-02
1.646216399967670441e-02
4.129108414053916931e-02
-3.395657753571867943e-03
4.820705205202102661e-02
3.441135212779045105e-02
-8.444157429039478302e-03
1.075602776836603880e-04
4.991656914353370667e-02
-2.303153835237026215e-02
8.148186840116977692e-03
-2.320388332009315491e-02
-3.453942015767097473e-02
-5.441645160317420959e-03
2.188492380082607269e-02
1.852949708700180054e-02
3.048233874142169952e-02
9.096316061913967133e-03
-2.191816456615924835e-02
1.576658897101879120e-02
-2.076733857393264771e-02
3.034999826923012733e-03
-5.525264889001846313e-03
-1.321709528565406799e-02
2.606764202937483788e-03
1.100745517760515213e-02
-2.057959139347076416e-02
1.246451307088136673e-02
-4.624575842171907425e-03
-1.213230844587087631e-02
1.350733218714594841e-03
-3.201660141348838806e-02
1.573728397488594055e-02
9.276953525841236115e-03
4.239760339260101318e-02
2.774939313530921936e-02
1.923842728137969971e-02
4.898859560489654541e-02
3.522313758730888367e-02
-4.655571654438972473e-03
2.586488053202629089e-02
3.847436606884002686e-02
-5.981578957289457321e-03
1.238055247813463211e-02
1.677583344280719757e-02
3.779571270570158958e-03
9.585025720298290253e-03
6.223849486559629440e-03
-1.958112977445125580e-02
9.331218898296356201e-03
4.656648635864257812e-02
-5.025342479348182678e-02
-5.294088646769523621e-02
3.391920123249292374e-03
6.758271902799606323e-02
-7.844573818147182465e-03
1.710727997124195099e-02
6.394614279270172119e-02
-4.746615886688232422e-02
1.115914527326822281e-02
1.972681784536689520e-04
2.525984309613704681e-02
-1.528290286660194397e-02
-3.116261027753353119e-02
6.365738809108734131e-03
-1.398564345436170697e-04
-3.893401846289634705e-02
-7.509743422269821167e-02
2.669947221875190735e-02
1.217437069863080978e-02
1.849536597728729248e-02
-3.878156840801239014e-02
1.995955221354961395e-02
3.970213979482650757e-02
9.387752972543239594e-03
-2.148258499801158905e-02
3.215413913130760193e-02
3.840040042996406555e-02
1.304483506828546524e-02
2.230005338788032532e-02
-7.811166346073150635e-03
2.396631520241498947e-03
2.998741401825100183e-04
2.561006322503089905e-02
9.880578145384788513e-03
2.761111594736576080e-02
2.617051452398300171e-02
-3.457493335008621216e-02
2.630347758531570435e-02
1.939946040511131287e-02
4.232301935553550720e-02
-3.728913376107811928e-03
2.877146378159523010e-02
-3.237736877053976059e-03
-8.769647218286991119e-03
-1.707799732685089111e-02
-6.023961678147315979e-02
4.611825104802846909e-03
1.192815694957971573e-02
6.637486815452575684e-02
2.191719971597194672e-02
1.062358543276786804e-02
-1.360481325536966324e-02
-2.370899729430675507e-02
2.494041249155998230e-02
-4.234113730490207672e-03
1.165498234331607819e-02
1.599514484405517578e-02
-2.734243497252464294e-02
4.030070826411247253e-02
-1.920841448009014130e-02
-5.750118941068649292e-02
6.594689935445785522e-02
5.071509256958961487e-02
1.242852117866277695e-02
2.664377540349960327e-02
-4.547744523733854294e-03
-2.587703429162502289e-02
-8.654286153614521027e-03
-2.802161313593387604e-02
-9.126754011958837509e-04
1.907074125483632088e-03
-5.295125301927328110e-03
-8.275262080132961273e-03
-4.574160557240247726e-03
-9.239818900823593140e-03
1.374385226517915726e-02
-3.833949565887451172e-03
-3.039009869098663330e-02
-2.203984186053276062e-02
-1.745375338941812515e-03
-1.291905995458364487e-02
1.942026801407337189e-02
1.432462502270936966e-02
-6.431214511394500732e-03
3.381418762728571892e-03
4.927315190434455872e-02
1.379756955429911613e-03
-1.407621148973703384e-02
3.136225417256355286e-02
4.719559103250503540e-02
-1.866977475583553314e-02
-2.752522937953472137e-02
-1.114726159721612930e-02
4.546689987182617188e-02
9.172130376100540161e-03
-2.620015479624271393e-02
-4.137143865227699280e-02
8.279785513877868652e-02
3.351520374417304993e-02
-1.306728646159172058e-02
-5.437103682197630405e-04
-1.399267744272947311e-02
9.188070893287658691e-03
7.616721093654632568e-03
1.333701703697443008e-02
4.438248649239540100e-02
3.486384078860282898e-02
-4.236222058534622192e-02
2.494360506534576416e-02
2.447876520454883575e-02
2.599274367094039917e-02
4.299797117710113525e-02
-7.654355373233556747e-03
1.039121299982070923e-03
-1.308984309434890747e-02
-3.682734444737434387e-02
2.815842395648360252e-03
7.491154596209526062e-03
6.815148517489433289e-03
2.585820853710174561e-02
-1.963830925524234772e-02
-5.218359082937240601e-02
-3.964173793792724609e-02
4.713161033578217030e-04
-3.615555912256240845e-02
3.500903397798538208e-02
-5.445714574307203293e-03
-1.862931810319423676e-02
3.842373844236135483e-03
-2.635487169027328491e-02
4.828915372490882874e-02
2.879143226891756058e-03
-6.101261824369430542e-03
-2.615789882838726044e-03
-9.199611842632293701e-03
-4.362257942557334900e-02
-4.717456549406051636e-02
1.082502026110887527e-02
-2.277860231697559357e-02
-1.492759492248296738e-02
1.409409381449222565e-02
6.271085888147354126e-02
-7.997820153832435608e-03
3.645832836627960205e-02
-7.442287355661392212e-02
1.554719172418117523e-02
2.474507689476013184e-02
1.026849169284105301e-02
-4.763270914554595947e-02
-3.191017359495162964e-02
-8.397877682000398636e-04
2.085633017122745514e-02
3.162501379847526550e-03
-7.645912468433380127e-03
2.607843140140175819e-03
-4.711226001381874084e-02
1.265447586774826050e-02
3.574714437127113342e-02
1.775535941123962402e-02
-1.222534384578466415e-02
2.339187264442443848e-02
-1.815391890704631805e-02
8.181478828191757202e-02
-3.117588581517338753e-03
-9.993478655815124512e-03
2.111186971887946129e-03
2.952066808938980103e-02
5.454479251056909561e-04
-5.137526430189609528e-03
-1.788540184497833252e-02
3.008933365345001221e-02
9.124539047479629517e-02
2.038805047050118446e-03
-1.133801788091659546e-02
1.560061052441596985e-02
-2.387037687003612518e-02
-2.501480281352996826e-02
-2.039706148207187653e-02
-4.921774566173553467e-02
4.741549119353294373e-02
-3.802350535988807678e-02
-2.738081105053424835e-02
-3.335743770003318787e-02
2.580484747886657715e-02
5.149714648723602295e-02
5.472045764327049255e-02
4.404869675636291504e-02
-4.782586544752120972e-02
2.103304490447044373e-02
2.251717669423669577e-04
-2.477409318089485168e-03
1.505041681230068207e-02
2.261994406580924988e-02
3.975255414843559265e-02
-3.009027801454067230e-02
-3.110057488083839417e-02
-4.028655216097831726e-02
7.245374843478202820e-03
2.116974443197250366e-02
-8.025336265563964844e-02
1.968361809849739075e-02
1.232933066785335541e-02
2.894776116590946913e-04
-5.982961878180503845e-02
3.630512580275535583e-02
4.742726311087608337e-02
1.433272846043109894e-02
-1.607895269989967346e-02
7.423108909279108047e-03
-5.024783313274383545e-03
8.333940058946609497e-03
2.858295105397701263e-02
1.815433241426944733e-02
-1.221204549074172974e-02
-1.913616247475147247e-02
-1.317024603486061096e-02
1.071100402623414993e-02
2.057007700204849243e-02
1.773552782833576202e-02
-6.161982193589210510e-02
-1.368713844567537308e-02
-2.240982279181480408e-02
-3.603774309158325195e-02
3.716878220438957214e-02
-6.166109815239906311e-02
7.566849235445261002e-03
2.825366565957665443e-03
6.580658257007598877e-02
3.461594460532069206e-03
-1.693531498312950134e-02
1.023402623832225800e-02
4.570542369037866592e-03
-4.891878925263881683e-03
4.003820940852165222e-03
-4.303073883056640625e-02
-2.827258221805095673e-02
1.150366384536027908e-02
-4.552356153726577759e-02
-5.518320947885513306e-03
9.397205431014299393e-04
-5.915389629080891609e-04
-7.134849578142166138e-02
-2.548119612038135529e-02
7.029680907726287842e-02
-1.478660851716995239e-02
-6.468589883297681808e-03
2.655036188662052155e-02
-3.948532044887542725e-02
2.581833302974700928e-02
-4.984619468450546265e-02
-5.590730533003807068e-02
-8.742041536606848240e-04
-1.106538809835910797e-02
1.883372478187084198e-02
3.183595091104507446e-02
-1.844520308077335358e-02
6.557993590831756592e-02
6.084083393216133118e-02
8.196754381060600281e-03
2.886516042053699493e-03
1.639124006032943726e-02
5.008606985211372375e-02
-3.678430989384651184e-02
-2.900609746575355530e-02
-1.644501648843288422e-02
1.221230486407876015e-03
7.748232781887054443e-02
1.595645397901535034e-02
5.731546506285667419e-02
4.261582344770431519e-02
1.489295158535242081e-02
2.009372785687446594e-02
-3.505192697048187256e-02
2.967625670135021210e-02
2.201207540929317474e-02
1.839158684015274048e-02
4.327906295657157898e-02
2.797926217317581177e-02
-5.475883558392524719e-02
1.928070187568664551e-02
1.249018870294094086e-02
7.112881168723106384e-03
-1.317793410271406174e-02
8.358298242092132568e-02
-3.048818744719028473e-02
-1.173824444413185120e-02
-2.706876769661903381e-02
-2.297292463481426239e-03
2.297324500977993011e-02
8.729250170290470123e-03
-3.342892602086067200e-02
-2.599907293915748596e-02
1.660522073507308960e-02
-6.055276468396186829e-02
4.470610618591308594e-02
9.996760636568069458e-03
3.442415501922369003e-03
1.004685997031629086e-03
