8.780146599747240543e-04
-1.490729395300149918e-02
6.113748531788587570e-03
1.058955676853656769e-02
1.929394638864323497e-04
3.144244663417339325e-03
-6.728379521518945694e-04
3.827966051176190376e-03
-1.927381730638444424e-03
3.236603364348411560e-02
-5.825925152748823166e-03
-5.151813849806785583e-03
6.623201537877321243e-03
-2.054357435554265976e-03
-9.560916223563253880e-04
7.378974463790655136e-03
1.080261077731847763e-03
-4.864140064455568790e-04
1.682652975432574749e-03
1.448731985874474049e-03
5.388085846789181232e-04
4.105539061129093170e-03
6.701631471514701843e-03
-7.549445144832134247e-03
-3.694150596857070923e-02
8.491341141052544117e-04
-2.105905441567301750e-03
-6.375551223754882812e-03
-8.464762941002845764e-04
-2.323441294720396399e-04
-2.605367451906204224e-03
7.364774122834205627e-03
7.493800483644008636e-03
-1.500034006312489510e-03
-1.249969238415360451e-03
-2.618947997689247131e-03
6.584019865840673447e-04
-4.294315353035926819e-02
-2.454778179526329041e-03
2.239525318145751953e-03
-7.013506721705198288e-03
2.076531387865543365e-02
2.416190225630998611e-03
-7.107740966603159904e-04
-4.824687493965029716e-04
-2.841105917468667030e-03
-2.993721864186227322e-04
4.980954341590404510e-03
5.228001391515135765e-04
-1.256836694665253162e-03
1.030587591230869293e-02
-5.557609256356954575e-05
3.189563378691673279e-02
6.626344285905361176e-03
-7.083538919687271118e-03
-2.054694341495633125e-03
-6.942473701201379299e-04
-3.526671789586544037e-03
-1.539870165288448334e-02
6.125704944133758545e-02
4.935904592275619507e-02
-7.895666058175265789e-04
-2.303955378010869026e-03
-5.343364318832755089e-04
3.440871136263012886e-03
3.129675388336181641e+00
-9.859026409685611725e-03
-2.193676866590976715e-02
1.726444228552281857e-03
1.282167504541575909e-03
3.559686988592147827e-02
7.632907945662736893e-03
-4.471836239099502563e-02
-1.156256441026926041e-02
3.082157298922538757e-02
4.166061431169509888e-02
-2.222596522187814116e-04
2.774825785309076309e-03
-1.850135624408721924e-02
3.050242783501744270e-03
-8.118716068565845490e-03
4.225784505251795053e-04
-2.014087978750467300e-03
3.498740028589963913e-03
4.564156290143728256e-03
-3.060277667827904224e-04
1.307838317006826401e-02
-3.261237870901823044e-03
-2.928571961820125580e-02
8.482050034217536449e-04
-5.277837160974740982e-03
1.974939601495862007e-03
-1.441523432731628418e-03
3.095852397382259369e-02
-3.792608389630913734e-03
-5.569722969084978104e-03
1.292729657143354416e-02
-3.127370774745941162e-02
3.491252427920699120e-03
-1.097539352485910058e-04
4.827933385968208313e-02
5.167847499251365662e-03
-3.216721862554550171e-02
-9.178285836242139339e-04
5.850866436958312988e-03
-2.774386899545788765e-03
-8.604223839938640594e-03
-8.588043972849845886e-03
-1.531134243123233318e-03
9.135592728853225708e-03
-1.811314746737480164e-02
-6.725881248712539673e-03
-1.497771940194070339e-03
1.874077506363391876e-02
9.846382308751344681e-04
1.543928010505624115e-05
5.668159574270248413e-04
-3.545441478490829468e-02
4.681720864027738571e-03
6.788639817386865616e-03
3.034971654415130615e-03
-3.244305495172739029e-03
9.121423936448991299e-04
8.972404524683952332e-03
-4.380350466817617416e-03
-1.233202521689236164e-03
5.375339969759806991e-05
-1.596417836844921112e-02
1.098542357794940472e-03
-1.205403544008731842e-02
3.035466943401843309e-04
-9.125838056206703186e-03
-7.039363496005535126e-03
-2.203416079282760620e-02
-4.453387809917330742e-04
2.599400933831930161e-03
1.633486244827508926e-03
-9.914163965731859207e-04
-4.799333401024341583e-04
1.675439067184925079e-02
1.069673057645559311e-02
-2.954552182927727699e-03
-2.717711497098207474e-03
-1.356876338832080364e-03
-1.708993501961231232e-02
-4.179524723440408707e-03
4.056456685066223145e-02
-7.614247966557741165e-03
-1.745525049045681953e-03
6.580158136785030365e-03
-2.426884882152080536e-02
-3.995584789663553238e-03
-1.499099656939506531e-03
-3.435118356719613075e-03
-4.625283647328615189e-03
2.600535983219742775e-03
3.763770451769232750e-03
-2.502676099538803101e-02
4.108491411898285151e-04
4.840599745512008667e-02
-2.390017919242382050e-02
3.436058992519974709e-03
-2.073128940537571907e-03
4.871896817348897457e-04
3.722399473190307617e-02
2.159599959850311279e-02
-1.676231250166893005e-02
-1.719068735837936401e-02
-1.937432400882244110e-02
-2.752884849905967712e-02
9.412053623236715794e-04
-1.015505008399486542e-02
1.727708615362644196e-02
-2.212536521255970001e-02
-6.805425044149160385e-03
1.856542308814823627e-03
1.575522311031818390e-02
-6.357825477607548237e-04
1.909631118178367615e-02
4.995597992092370987e-03
-2.332438249140977859e-03
8.095083758234977722e-03
-2.554849721491336823e-03
-2.178588062524795532e-01
-6.648445874452590942e-02
4.958864767104387283e-03
-5.326349637471139431e-04
-1.976342871785163879e-03
-1.561896130442619324e-02
5.721255205571651459e-03
1.088622771203517914e-02
-1.510042231529951096e-03
4.811972030438482761e-04
-7.077085785567760468e-03
-8.906033821403980255e-03
-8.743919432163238525e-03
-1.200396418571472168e-01
1.408669981174170971e-03
-2.748836064711213112e-03
5.339505895972251892e-02
1.645451993681490421e-04
8.467052131891250610e-02
3.178965672850608826e-02
2.530159195885062218e-03
2.381962724030017853e-02
2.326502464711666107e-03
-2.324376720935106277e-03
-3.790575638413429260e-02
-8.725417428649961948e-04
3.782745683565735817e-03
-1.235967967659235001e-03
7.921644486486911774e-03
-8.148354478180408478e-03
6.006333860568702221e-04
8.418749086558818817e-03
4.728836356662213802e-04
-1.120289880782365799e-02
-1.362277008593082428e-02
1.286398619413375854e-03
-3.760017687454819679e-03
-6.609207019209861755e-03
4.841554036829620600e-04
-1.472877897322177887e-02
-1.151257008314132690e-02
3.463808074593544006e-02
1.003707498311996460e-01
-2.270086668431758881e-02
-1.149732340127229691e-02
-1.467680325731635094e-03
-1.816601864993572235e-02
-1.574570871889591217e-02
-8.730611763894557953e-03
3.690858604386448860e-03
4.577672807499766350e-04
5.837609060108661652e-03
4.848420619964599609e-03
-2.283969952259212732e-04
5.350675433874130249e-03
4.644234664738178253e-03
-2.443911973387002945e-03
2.325459755957126617e-02
5.324873328208923340e-02
-4.046137910336256027e-03
-1.177359838038682938e-03
4.605410154908895493e-03
-3.006995189934968948e-03
9.638433344662189484e-03
4.705118015408515930e-03
-1.825345866382122040e-02
3.900558501482009888e-02
-2.194036915898323059e-02
4.789983388036489487e-03
-3.477622754871845245e-03
2.675909921526908875e-02
1.339182537049055099e-02
-7.101283874362707138e-03
