2.173064276576042175e-02 1.858437247574329376e-02 4.801232367753982544e-03 1.501571480184793472e-02 3.393561393022537231e-02 -3.953270614147186279e-02 -1.982115581631660461e-02 -1.688992083072662354e-01 -2.159915864467620850e-01 -2.658360265195369720e-02 1.966751739382743835e-02 5.747800320386886597e-02 -4.514532163739204407e-02 -9.361753612756729126e-02 -1.839094050228595734e-02 7.259435486048460007e-03 2.180497162044048309e-02 3.853053972125053406e-02 -3.379107266664505005e-02 -9.510271251201629639e-02 -6.849909573793411255e-02 6.837327033281326294e-02 -4.803914204239845276e-02 -3.023346327245235443e-02 -1.144262999296188354e-01 3.034530207514762878e-02 4.095080494880676270e-02 4.859361797571182251e-02 -1.549488604068756104e-01 3.303005173802375793e-02 1.290222816169261932e-02 -1.004027351737022400e-01 2.457259409129619598e-02 3.822867199778556824e-02 -3.709292411804199219e-02 -3.519141674041748047e-02 2.598828636109828949e-02 -1.444929540157318115e-01 -3.163143992424011230e-02 1.185250189155340195e-02 1.836732961237430573e-02 2.313023060560226440e-02 1.664073392748832703e-02 -2.747910656034946442e-02 4.485492408275604248e-02 1.783186756074428558e-02 -4.979443550109863281e-02 1.705678850412368774e-01 6.929446011781692505e-02 1.625611633062362671e-02 -1.489733625203371048e-02 1.876044087111949921e-02 2.090941928327083588e-02 2.652844227850437164e-02 4.917969554662704468e-02 3.553388640284538269e-02 3.861616924405097961e-02 4.108690842986106873e-02 1.036990620195865631e-02 -9.818122535943984985e-02 -7.443121075630187988e-02 -3.452392667531967163e-02 -5.301475524902343750e-02 -2.215687371790409088e-02 -1.201626881957054138e-01 2.315583080053329468e-02 3.812798485159873962e-02 -7.188855111598968506e-02 -4.870671033859252930e-02 -5.968714877963066101e-02 1.440600752830505371e-01 3.262536227703094482e-02 -1.022550240159034729e-01 -2.527096122503280640e-02 3.137997165322303772e-02 -2.994486130774021149e-02 -6.619518250226974487e-02 2.992370724678039551e-02 -5.111331865191459656e-02 4.584674909710884094e-02 3.724218532443046570e-02 6.129395589232444763e-02 5.416158959269523621e-02 3.396729938685894012e-03 9.876254014670848846e-03 2.444638498127460480e-02 -9.275362640619277954e-02 1.665731333196163177e-02 -1.058759540319442749e-01 1.776478625833988190e-02 -1.284720003604888916e-01 2.756772562861442566e-02 1.083831302821636200e-02 2.416571974754333496e-02 2.984192781150341034e-02 -1.785686239600181580e-02 -4.786758869886398315e-02 -2.295960858464241028e-02 -3.687795624136924744e-02 -5.869555473327636719e-02 1.233403384685516357e-02 3.066239878535270691e-02 6.307736784219741821e-02 5.981005355715751648e-02 1.602859795093536377e-02 1.910802163183689117e-02 -1.369689498096704483e-02 -3.923234343528747559e-02 2.340877056121826172e-02 -1.751976273953914642e-02 1.762568950653076172e-02 1.326673757284879684e-02 2.613433264195919037e-02 1.671949960291385651e-02 -2.418052032589912415e-02 -3.971658647060394287e-02 2.159760594367980957e-01 5.139698088169097900e-02 4.629537463188171387e-02 -2.355820313096046448e-02 -2.606252022087574005e-02 2.303135395050048828e-02 -7.508625835180282593e-02 1.878508739173412323e-02 2.754764072597026825e-02 1.359966248273849487e-01 -2.609760314226150513e-02 -1.238747760653495789e-01 7.374718040227890015e-02 1.046328991651535034e-02 1.088399440050125122e-02 -3.710079193115234375e-02 -9.373114258050918579e-02 3.616518899798393250e-02 8.898659609258174896e-03 1.367916166782379150e-02 2.949310839176177979e-02 1.589658297598361969e-02 6.361609697341918945e-02 -2.979390509426593781e-02 4.605202749371528625e-02 7.784923911094665527e-02 3.426197543740272522e-02 -1.046247333288192749e-01 -7.665175199508666992e-02 5.065204203128814697e-02 -9.429047256708145142e-02 2.047680132091045380e-02 1.693831570446491241e-02 3.000644594430923462e-02 1.823185756802558899e-02 2.511005848646163940e-02 -5.213831737637519836e-02 3.314213082194328308e-02 -3.612583875656127930e-02 -4.460286498069763184e-01 2.236534282565116882e-02 -4.611407220363616943e-02 -2.166548743844032288e-02 -3.692921251058578491e-02 1.385344378650188446e-02 -1.419645696878433228e-01 -7.032523304224014282e-02 -4.691095650196075439e-02 -1.700069010257720947e-02 -1.042991951107978821e-01 -1.345714777708053589e-01 1.011609565466642380e-02 -3.038872778415679932e-02 3.744030836969614029e-03 -3.232591599225997925e-02 3.634091466665267944e-02 -3.038362972438335419e-02 -3.029106371104717255e-02 4.741488024592399597e-02 -4.762870073318481445e-02 1.447902992367744446e-02 -9.682210534811019897e-02 -4.838844761252403259e-02 -3.394367545843124390e-02 -3.543935343623161316e-02 -5.246529355645179749e-03 1.835794933140277863e-02 4.258202388882637024e-02 2.068556472659111023e-02 3.062797524034976959e-02 1.224974635988473892e-02 2.280898578464984894e-02 2.922989055514335632e-02 -5.927588790655136108e-02 1.900385878980159760e-02 -6.498457491397857666e-02 3.231394290924072266e-02 -1.271696537733078003e-01 4.004345089197158813e-02 -1.676582358777523041e-02 -4.349923133850097656e-02 -5.678240582346916199e-02 4.727809131145477295e-02 -1.378597039729356766e-02 -3.553627431392669678e-02 2.539803087711334229e-02 -7.948773354291915894e-02 -1.022761017084121704e-01 -2.143820188939571381e-02 3.756443038582801819e-02 -1.588774770498275757e-01 -4.058538377285003662e-02 2.258340269327163696e-02 4.998967796564102173e-02 -9.685731679201126099e-02 3.603626415133476257e-02 -2.318528667092323303e-02 4.309158772230148315e-02 1.329197175800800323e-02 -3.979898244142532349e-02 6.062382087111473083e-02 3.413159400224685669e-02 -5.287126824259757996e-02 4.034273326396942139e-02 -2.003561705350875854e-02 -5.552934482693672180e-02 -2.301814407110214233e-02 1.532642729580402374e-02 5.721065029501914978e-02 7.417744398117065430e-02 -1.968740522861480713e-01 -5.111421272158622742e-02 -2.664430066943168640e-02 1.636215858161449432e-02 -7.273800671100616455e-02 2.187945134937763214e-02 1.316259521991014481e-02 2.199858427047729492e-02 -3.804863616824150085e-02 1.617761701345443726e-02 -4.531185328960418701e-02 3.337537869811058044e-02 -3.396587073802947998e-02 -3.284990042448043823e-02 2.339541539549827576e-02 1.896228641271591187e-02 -4.342167824506759644e-02 -3.126051649451255798e-02 -5.703132972121238708e-02 -2.432738617062568665e-02 -8.226870745420455933e-02 -8.635542355477809906e-03 3.552928566932678223e-02 3.484667837619781494e-02 2.415074221789836884e-02 -1.536729745566844940e-02 -3.151109442114830017e-02 -8.600853383541107178e-02 4.677344113588333130e-02 8.225972205400466919e-02 3.706018999218940735e-02 2.848311886191368103e-02 -4.571255445480346680e-01 -7.290606945753097534e-02 5.985842086374759674e-03 -8.775356411933898926e-02 -3.195190057158470154e-02 2.529477886855602264e-02 -8.796893805265426636e-02 -1.337887644767761230e-01 1.479458995163440704e-02 2.813567779958248138e-02 -2.523525804281234741e-02 7.082650437951087952e-03 -1.363119035959243774e-01 1.311153173446655273e-02 1.389264129102230072e-02 -2.857276797294616699e-02 3.263486549258232117e-02 2.738271281123161316e-02 2.077533490955829620e-02 8.266574144363403320e-02 -1.330288648605346680e-01 6.727175787091255188e-03 4.675419256091117859e-02 2.732749469578266144e-02 -5.922270938754081726e-02 3.899831697344779968e-02 1.912983320653438568e-02 1.209648102521896362e-01 -3.365106880664825439e-02 -2.036240510642528534e-02 7.477685809135437012e-02 1.719840802252292633e-02 -1.315435618162155151e-01 -1.267916988581418991e-02 -1.311624795198440552e-01 -3.870322555303573608e-02 1.141688600182533264e-02 2.411115542054176331e-02 -3.194912150502204895e-02 -2.795591577887535095e-02 -5.900824069976806641e-02 -3.658256307244300842e-02 -3.240239247679710388e-02 2.156747691333293915e-02 -1.553734391927719116e-01 2.940384298563003540e-02 -2.350693941116333008e-02 9.133492596447467804e-03 -4.498679935932159424e-02 2.815786190330982208e-02 5.049211904406547546e-02 1.546316873282194138e-02 -6.611172109842300415e-02 -1.123640164732933044e-01 4.460466653108596802e-02 1.379484217613935471e-02 2.505478635430335999e-02 -2.612160146236419678e-01 -1.015460118651390076e-01 -4.898532852530479431e-02 2.271701395511627197e-02 -5.555691197514533997e-02 -1.923968456685543060e-02 1.588917151093482971e-02 -2.777741849422454834e-01 4.468424618244171143e-02 1.372210588306188583e-02 2.921395003795623779e-02 -1.486534029245376587e-01 1.583675108850002289e-02 -3.992830216884613037e-02 3.159014880657196045e-02 2.101915702223777771e-02 2.374636381864547729e-02 -1.112259030342102051e-01 4.278432577848434448e-02 -1.163310855627059937e-01 -9.440436959266662598e-02 3.896251693367958069e-02 2.505793049931526184e-02 1.962546259164810181e-02 2.800000458955764771e-02 -3.369020670652389526e-02 8.431358262896537781e-03 -1.744968295097351074e-01 3.519442677497863770e-02 3.234802559018135071e-02 2.512901648879051208e-02 -4.475936666131019592e-02 2.358142100274562836e-02 1.566883549094200134e-02 -3.942428529262542725e-02 1.133098825812339783e-02 2.010908164083957672e-02 -1.852954477071762085e-01 -2.513303421437740326e-02 5.172244086861610413e-02 -2.187369763851165771e-02 2.141432464122772217e-02 1.023671403527259827e-01 1.211682241410017014e-02 1.234767399728298187e-02 -6.175594404339790344e-02 -1.164917573332786560e-01 4.305599257349967957e-02 -3.516181930899620056e-02 5.002295970916748047e-02 -3.035570308566093445e-02 -4.068428277969360352e-02 5.905124172568321228e-02 -2.698916941881179810e-02 2.193350791931152344e-01 3.061641752719879150e-02 -4.218475520610809326e-02 1.784470863640308380e-02 -2.155053988099098206e-02 -2.662928029894828796e-02 -3.311135992407798767e-02 -1.866741627454757690e-01 -2.291377335786819458e-01 -1.019252613186836243e-01 3.417211398482322693e-02 2.489995770156383514e-02 -5.850233882665634155e-02 3.997240960597991943e-02 -4.354652017354965210e-02 -5.690576881170272827e-02 -2.626872248947620392e-02 -9.908243268728256226e-02 8.123844861984252930e-03 -8.829292654991149902e-02 4.048475529998540878e-03 -3.468148782849311829e-02 2.420156821608543396e-02 -2.285132557153701782e-01 -4.379845038056373596e-02 -2.722816914319992065e-02 -4.162407293915748596e-02 4.164477810263633728e-02 3.513976186513900757e-02 2.494180575013160706e-02 3.352474421262741089e-02 5.110143125057220459e-02 1.405224390327930450e-02 -1.355777978897094727e-01 2.980766296386718750e-01 -2.407743036746978760e-02 -3.439242020249366760e-02 -7.178941369056701660e-02 -3.399395197629928589e-02 1.065709814429283142e-02 -1.112934723496437073e-01 -4.824355244636535645e-02 -1.311995983123779297e-01 -4.186601936817169189e-02 4.723442345857620239e-02 5.480750277638435364e-02 -1.800276339054107666e-02 1.708913445472717285e-01 -6.458058953285217285e-02 4.167186841368675232e-02 2.442079968750476837e-02 4.107440263032913208e-02 -2.332907542586326599e-02 1.905526220798492432e-02 3.576919808983802795e-02 2.123767882585525513e-02 2.668491750955581665e-02 3.039306774735450745e-02 5.995497480034828186e-02 -2.409797459840774536e-01 -4.217886552214622498e-02 2.124042622745037079e-02 -7.809454202651977539e-02 -6.583346426486968994e-02 -3.315204009413719177e-02 -1.622776538133621216e-01 5.133193358778953552e-02 -8.661196380853652954e-02 -5.320639535784721375e-02 -1.955210231244564056e-02 2.084300108253955841e-02 2.911432459950447083e-02 2.420200780034065247e-02 3.559141978621482849e-02 -3.108107671141624451e-02 4.164767637848854065e-02 -1.823508925735950470e-02 1.859737560153007507e-02 -4.999045655131340027e-02 -1.960133574903011322e-02 1.566514745354652405e-02 -9.396025538444519043e-02 -2.268826216459274292e-01 -2.235602140426635742e-01 3.804254904389381409e-02 -2.896158397197723389e-02 2.030498906970024109e-02 -3.744829446077346802e-02 -3.350754678249359131e-01 -1.050282567739486694e-01 -2.889758907258510590e-02 3.810176998376846313e-02 2.486644871532917023e-02 2.803556807339191437e-02 -1.190979555249214172e-01 -7.791554182767868042e-02 8.830796927213668823e-02 1.756658107042312622e-01 2.254232205450534821e-02 -7.210441678762435913e-02 -5.388893559575080872e-02 -8.278592675924301147e-02 2.001153305172920227e-02 1.724596135318279266e-02 1.199904680252075195e-01 1.131773069500923157e-01 -3.600370511412620544e-02 2.621537819504737854e-02 1.541534252464771271e-02 5.457653477787971497e-02 1.617704890668392181e-02 -1.153731346130371094e-01 9.542251937091350555e-03 4.102161154150962830e-02 3.420240432024002075e-02 3.505564108490943909e-02 -3.111179172992706299e-02 3.483960032463073730e-02 -5.363205075263977051e-02 -2.484533376991748810e-02 -1.136904209852218628e-01 4.201378300786018372e-02 -1.803214401006698608e-01 -1.619535535573959351e-01 3.257784619927406311e-02 -2.630524151027202606e-02 2.589094266295433044e-02 1.371202338486909866e-02 2.142735384404659271e-02 3.224378824234008789e-02 -4.979104548692703247e-02 5.157087370753288269e-02 3.006928227841854095e-02 5.471404641866683960e-02 4.423213750123977661e-02 -5.406709760427474976e-02 2.208140119910240173e-02 3.788831457495689392e-02 -4.660904407501220703e-02 -1.459618061780929565e-01 -3.968430683016777039e-02 2.194575220346450806e-02 2.642530016601085663e-02
