-6.000174209475517273e-03 -5.614163354039192200e-03 -1.778697222471237183e-02 -9.002151899039745331e-03 -1.108348369598388672e-02 -5.822380073368549347e-03 -4.098874051123857498e-03 -3.942416049540042877e-03 -1.276964205317199230e-03 -7.997616194188594818e-03 -3.610878484323620796e-03 -9.731249883770942688e-03 -5.498637631535530090e-02 -3.181963926181197166e-03 -9.020551107823848724e-03 -1.033838372677564621e-02 -7.759895175695419312e-03 -4.560654517263174057e-03 -6.631760299205780029e-02 -6.710486486554145813e-03 -7.773205172270536423e-03 -8.869643323123455048e-03 -1.141106244176626205e-02 3.348399698734283447e-02 -2.293758559972047806e-03 -5.855124909430742264e-03 -7.574599701911211014e-03 -6.899916566908359528e-03 -7.321369834244251251e-03 -5.499725695699453354e-03 -5.516783893108367920e-02 -8.570685051381587982e-03 -8.592697791755199432e-03 -1.214270815253257751e-01 -4.898989107459783554e-03 -4.345702938735485077e-03 -7.226148154586553574e-03 -4.591712262481451035e-03 -5.315107293426990509e-03 -6.261465605348348618e-03 2.155352616682648659e-03 -1.343068107962608337e-02 -6.396330427378416061e-03 -6.712291855365037918e-03 -1.223585847765207291e-02 -3.358167130500078201e-03 -6.513242609798908234e-03 -5.618654657155275345e-03 -5.284134298563003540e-03 -3.600880969315767288e-03 -1.857504248619079590e-02 -4.065817221999168396e-03 -6.235411856323480606e-03 -1.024625077843666077e-02 -3.818182507529854774e-03 -1.648700446821749210e-03 -4.774459172040224075e-03 -7.964342832565307617e-03 -1.151658128947019577e-02 -2.953552082180976868e-02 -6.754078902304172516e-03 -1.567457430064678192e-02 -3.285035258159041405e-03 -1.477257534861564636e-02 1.466122339479625225e-03 5.767002329230308533e-02 -6.278226152062416077e-03 -6.651035975664854050e-03 -4.000042565166950226e-03 -1.384607702493667603e-02 -6.009465083479881287e-02 -1.167503651231527328e-02 -6.089351605623960495e-03 -6.570968776941299438e-02 -7.809796836227178574e-03 -2.796636335551738739e-02 -1.928334869444370270e-02 -3.096316382288932800e-02 -6.407801061868667603e-03 -6.464159581810235977e-03 -4.398817941546440125e-02 -8.718354254961013794e-02 -6.723960861563682556e-03 -3.645451040938496590e-03 -2.049263194203376770e-02 -3.611528780311346054e-03 -1.284752134233713150e-02 -7.540073245763778687e-03 -6.057769525796175003e-03 -1.160998176783323288e-02 -2.364129573106765747e-02 -1.684658415615558624e-02 -3.089934587478637695e-03 -5.260392557829618454e-03 4.928524140268564224e-03 -8.755655959248542786e-03 -3.079599468037486076e-03 -3.877180162817239761e-03 -1.656848937273025513e-02 -4.556373693048954010e-03 -6.865223404020071030e-04 -4.157393705099821091e-03 4.280094429850578308e-02 -4.991600755602121353e-03 -1.493918057531118393e-02 -3.963970113545656204e-03 -4.604208096861839294e-02 7.657958194613456726e-04 -8.385546505451202393e-03 -3.997967764735221863e-02 -3.193886205554008484e-02 -1.523434277623891830e-02 -5.997257307171821594e-03 -2.982756122946739197e-02 -6.070510484278202057e-03 -1.049755513668060303e-02 -3.607060061767697334e-03 -8.268278092145919800e-03 -6.209716200828552246e-02 -6.797582842409610748e-03 -8.004483766853809357e-03 -6.410053931176662445e-03 -4.603161010891199112e-03 -1.010091626085340977e-03 -3.049587598070502281e-03 -5.300218239426612854e-03 -7.049026433378458023e-03 -9.821753948926925659e-03 -9.462729096412658691e-03 -8.873910643160343170e-03 -5.827315151691436768e-03 -9.884772822260856628e-03 -1.192606147378683090e-02 -5.128874909132719040e-03 -1.528200693428516388e-02 -1.420214865356683731e-02 -1.066067907959222794e-02 -4.051927477121353149e-03 -1.618338003754615784e-02 -1.441385224461555481e-02 -2.763518318533897400e-02 -6.564632523804903030e-03 -4.996719304472208023e-03 -3.472142620012164116e-03 -8.632777258753776550e-03 -4.419755656272172928e-03 -9.604076854884624481e-03 -5.510793533176183701e-03 -8.174420334398746490e-03 -2.334840828552842140e-03 -8.028472959995269775e-02 -1.247629616409540176e-02 -6.557199638336896896e-03 -3.963682334870100021e-03 -5.073291715234518051e-03 -8.471949957311153412e-03 -6.907440721988677979e-02 -4.864425957202911377e-02 -5.700027570128440857e-02 -1.108460687100887299e-02 -6.785005796700716019e-03 -1.318749599158763885e-02 -5.676752422004938126e-03 -1.130727585405111313e-02 -1.125798746943473816e-02 -7.138653099536895752e-02 -1.759350486099720001e-02 -3.736990690231323242e-02 -8.781607262790203094e-03 -4.988499451428651810e-03 -3.363201860338449478e-03 -7.668151520192623138e-03 -1.508003287017345428e-02 -4.489302635192871094e-03 -9.298148564994335175e-03 -4.799850750714540482e-03 -1.523866783827543259e-02 -1.996367052197456360e-02 -9.122681804001331329e-03 -4.835821315646171570e-02 -8.409647271037101746e-03 -1.088662259280681610e-02 -8.268581703305244446e-03 3.446523472666740417e-02 2.992757968604564667e-02 -7.805533241480588913e-03 -7.317300420254468918e-03 -6.903924513608217239e-03 -3.901266679167747498e-02 -6.660627666860818863e-03 -2.738975919783115387e-03 -3.328823251649737358e-03 -4.303066059947013855e-03 -2.517282962799072266e-02 -6.416498683393001556e-03 -6.171539425849914551e-03 -9.095444530248641968e-02 -3.322104737162590027e-02 -4.353045485913753510e-03 -1.193714700639247894e-02 -7.906451821327209473e-03 -1.592070423066616058e-02 -7.914239540696144104e-03 -1.072954200208187103e-02 -9.904453903436660767e-02 -1.386695448309183121e-02 -2.708903513848781586e-03 -3.182355780154466629e-03 -4.408186767250299454e-03 -1.271799858659505844e-02 1.182544045150279999e-03 -4.192277323454618454e-03 -9.791609831154346466e-03 -6.545664276927709579e-03 -2.127428352832794189e-02 -1.266992371529340744e-02 -3.374695032835006714e-02 -4.635282326489686966e-03 -7.396658882498741150e-03 -4.522551782429218292e-03 -7.271494250744581223e-03 -3.767941892147064209e-02 -4.820873495191335678e-03 -2.522155269980430603e-02 -6.822734605520963669e-03 -3.415466845035552979e-02 -1.650248467922210693e-02 -2.846518997102975845e-03 -1.465218793600797653e-02 -4.989121574908494949e-03 -1.063855551183223724e-02 -1.561477035284042358e-02 -3.440619679167866707e-03 -3.448121482506394386e-03 -1.103459205478429794e-02 -1.070753671228885651e-02 -8.950524032115936279e-03 -1.548880897462368011e-02 -7.465667556971311569e-03 -6.379568949341773987e-03 -8.035228587687015533e-03 -2.028125571087002754e-03 -6.955050397664308548e-03 -2.544692950323224068e-03 -8.436582051217556000e-03 -1.241769408807158470e-03 -9.217716753482818604e-03 -6.032181903719902039e-03 -6.220593117177486420e-03 -6.003235001116991043e-03 -6.632545962929725647e-03 -5.555982701480388641e-03 -1.274150982499122620e-02 -1.900185132399201393e-03 -1.912267133593559265e-02 -6.073967553675174713e-03
-5.623839329928159714e-03 -5.229381378740072250e-03 -1.722797378897666931e-02 -8.496085181832313538e-03 -1.085060555487871170e-02 -5.450199358165264130e-03 -3.677596803754568100e-03 -3.687679069116711617e-03 -8.689219830557703972e-04 -7.534734904766082764e-03 -3.340866882354021072e-03 -9.304487146437168121e-03 -5.441866442561149597e-02 -2.813188359141349792e-03 -8.501651696860790253e-03 -9.755675680935382843e-03 -7.369168102741241455e-03 -4.182105418294668198e-03 -6.565281748771667480e-02 -6.347096059471368790e-03 -7.260271348059177399e-03 -8.201488293707370758e-03 -1.098946668207645416e-02 3.347685188055038452e-02 -1.846854691393673420e-03 -5.472518503665924072e-03 -7.169255055487155914e-03 -6.437740754336118698e-03 -6.888446398079395294e-03 -5.128038581460714340e-03 -5.419943109154701233e-02 -8.196692913770675659e-03 -8.011360652744770050e-03 -1.208071708679199219e-01 -4.514680244028568268e-03 -3.974521066993474960e-03 -6.859008222818374634e-03 -4.250078462064266205e-03 -4.771017003804445267e-03 -5.846929736435413361e-03 2.383622806519269943e-03 -1.314453501254320145e-02 -5.946660879999399185e-03 -6.281158421188592911e-03 -1.167397201061248779e-02 -3.084684489294886589e-03 -6.451381370425224304e-03 -5.351972300559282303e-03 -4.868682473897933960e-03 -3.288235981017351151e-03 -1.823839358985424042e-02 -3.727519419044256210e-03 -5.918566603213548660e-03 -9.741359390318393707e-03 -3.468833165243268013e-03 -1.283783931285142899e-03 -4.447532352060079575e-03 -7.518275640904903412e-03 -1.098756026476621628e-02 -2.896832674741744995e-02 -6.274470128118991852e-03 -1.537365000694990158e-02 -3.026033984497189522e-03 -1.457478664815425873e-02 1.905246870592236519e-03 5.826093256473541260e-02 -5.786339752376079559e-03 -6.184100639075040817e-03 -3.692761063575744629e-03 -1.347599737346172333e-02 -5.973720923066139221e-02 -1.128378603607416153e-02 -5.586778745055198669e-03 -6.481406837701797485e-02 -7.387256715446710587e-03 -2.755116298794746399e-02 -1.896931789815425873e-02 -3.017761558294296265e-02 -5.999831017106771469e-03 -6.094511132687330246e-03 -4.347619414329528809e-02 -8.614572882652282715e-02 -6.265199743211269379e-03 -3.439601510763168335e-03 -2.017910592257976532e-02 -3.196387551724910736e-03 -1.259706914424896240e-02 -6.984759587794542313e-03 -5.721756257116794586e-03 -1.113599259406328201e-02 -2.335050143301486969e-02 -1.578177139163017273e-02 -2.755823777988553047e-03 -4.846444353461265564e-03 5.178333260118961334e-03 -8.391239680349826813e-03 -2.842615591362118721e-03 -3.528595669195055962e-03 -1.593694835901260376e-02 -4.151669796556234360e-03 -4.469615814741700888e-04 -3.688581055030226707e-03 4.266379773616790771e-02 -4.598623141646385193e-03 -1.457482948899269104e-02 -3.553966991603374481e-03 -4.541969671845436096e-02 9.879573481157422066e-04 -7.863501086831092834e-03 -3.938087821006774902e-02 -3.152922540903091431e-02 -1.459885481745004654e-02 -5.650151055306196213e-03 -2.939770370721817017e-02 -5.715937819331884384e-03 -1.005809940397739410e-02 -3.097979351878166199e-03 -7.671174593269824982e-03 -6.135774776339530945e-02 -6.576853338629007339e-03 -7.545276544988155365e-03 -5.886644124984741211e-03 -4.333754535764455795e-03 -6.692113238386809826e-04 -2.752171130850911140e-03 -4.807084333151578903e-03 -6.691366434097290039e-03 -9.293563663959503174e-03 -8.730822242796421051e-03 -7.908105850219726562e-03 -5.430240184068679810e-03 -9.306116960942745209e-03 -1.142205484211444855e-02 -4.589222837239503860e-03 -1.440926920622587204e-02 -1.340879313647747040e-02 -9.905480779707431793e-03 -3.642349038273096085e-03 -1.587937399744987488e-02 -1.382217369973659515e-02 -2.724384143948554993e-02 -6.104327272623777390e-03 -4.674874711781740189e-03 -3.131951205432415009e-03 -8.192346431314945221e-03 -3.937538247555494308e-03 -9.223681874573230743e-03 -4.902920685708522797e-03 -7.943758741021156311e-03 -2.114137168973684311e-03 -7.901224493980407715e-02 -1.201362535357475281e-02 -6.164480466395616531e-03 -3.672895487397909164e-03 -4.899394698441028595e-03 -8.216970600187778473e-03 -6.832439452409744263e-02 -4.772397130727767944e-02 -5.635532736778259277e-02 -1.077303849160671234e-02 -6.352393422275781631e-03 -1.268018037080764771e-02 -5.396343767642974854e-03 -1.093406323343515396e-02 -1.062543597072362900e-02 -7.055532932281494141e-02 -1.690411381423473358e-02 -3.677492961287498474e-02 -8.331736549735069275e-03 -4.652560222893953323e-03 -3.064074553549289703e-03 -7.267890963703393936e-03 -1.440512668341398239e-02 -4.093562252819538116e-03 -8.774323388934135437e-03 -4.417102783918380737e-03 -1.494508609175682068e-02 -1.970374397933483124e-02 -8.837032131850719452e-03 -4.726782068610191345e-02 -7.935571484267711639e-03 -1.042274199426174164e-02 -7.904872298240661621e-03 3.408940881490707397e-02 2.996651269495487213e-02 -7.219873368740081787e-03 -6.861874368041753769e-03 -6.528553552925586700e-03 -3.840044513344764709e-02 -6.130433641374111176e-03 -2.554927486926317215e-03 -2.994981594383716583e-03 -3.804648062214255333e-03 -2.454883977770805359e-02 -5.744053516536951065e-03 -5.799572449177503586e-03 -8.979727327823638916e-02 -3.260532394051551819e-02 -4.069077782332897186e-03 -1.170474197715520859e-02 -7.521650288254022598e-03 -1.549091562628746033e-02 -7.588114123791456223e-03 -1.027514692395925522e-02 -9.790239483118057251e-02 -1.361832395195960999e-02 -2.389148576185107231e-03 -2.710241125896573067e-03 -4.007739946246147156e-03 -1.229696720838546753e-02 1.380246365442872047e-03 -3.954276908189058304e-03 -9.466813877224922180e-03 -6.140611600130796432e-03 -2.077978104352951050e-02 -1.219522859901189804e-02 -3.344056382775306702e-02 -4.311617929488420486e-03 -6.944991648197174072e-03 -4.178328439593315125e-03 -6.805739831179380417e-03 -3.727601468563079834e-02 -4.373541567474603653e-03 -2.472122758626937866e-02 -6.477513350546360016e-03 -3.358006849884986877e-02 -1.609813235700130463e-02 -2.590060234069824219e-03 -1.438464317470788956e-02 -4.657024051994085312e-03 -1.017201784998178482e-02 -1.506536453962326050e-02 -3.270919434726238251e-03 -3.142534522339701653e-03 -1.060518901795148849e-02 -1.033114269375801086e-02 -8.771574124693870544e-03 -1.473028492182493210e-02 -7.100806571543216705e-03 -5.953192245215177536e-03 -7.230723742395639420e-03 -1.785056665539741516e-03 -6.510115694254636765e-03 -2.244947478175163269e-03 -7.855826988816261292e-03 -1.012151129543781281e-03 -9.005244821310043335e-03 -5.536081735044717789e-03 -5.802706349641084671e-03 -5.523606669157743454e-03 -6.201354321092367172e-03 -5.187200848013162613e-03 -1.227691397070884705e-02 -1.498791272751986980e-03 -1.874218322336673737e-02 -5.728252232074737549e-03
6.570653617382049561e-02 -1.031143404543399811e-02 -2.906382642686367035e-02 -4.834828432649374008e-03 4.168948903679847717e-02 4.727591574192047119e-02 -1.100674178451299667e-02 4.751433804631233215e-02 5.490052327513694763e-02 -3.317654877901077271e-02 -9.955494664609432220e-03 2.001076750457286835e-02 1.864863745868206024e-02 1.955387555062770844e-02 -2.429155819118022919e-02 -3.738192468881607056e-02 -1.677395962178707123e-02 -5.772815085947513580e-03 1.874249242246150970e-02 2.646746672689914703e-02 -5.231839790940284729e-02 5.121692083775997162e-03 -5.878179520368576050e-02 -1.234327629208564758e-02 -2.210753224790096283e-02 3.517596051096916199e-02 8.838704787194728851e-03 1.176410168409347534e-02 6.680445373058319092e-02 1.578265614807605743e-02 1.402854453772306442e-02 -2.050175331532955170e-03 -2.583763189613819122e-02 5.473523214459419250e-02 -1.684590987861156464e-02 -2.104377187788486481e-02 1.712606172077357769e-05 -6.822066754102706909e-02 -4.553621262311935425e-02 -6.535746157169342041e-02 5.907209217548370361e-02 -9.127293713390827179e-03 1.754625700414180756e-02 -3.183600306510925293e-02 -1.951247453689575195e-02 -2.240947447717189789e-02 -1.369095174595713615e-03 4.890371486544609070e-02 -2.838682755827903748e-02 4.588474519550800323e-03 8.453004993498325348e-03 -3.671905491501092911e-03 5.352918431162834167e-02 -4.406539350748062134e-02 1.756331697106361389e-02 -1.485951896756887436e-02 -1.995965279638767242e-02 -5.412222072482109070e-02 5.755423381924629211e-02 2.780886553227901459e-02 -1.475488208234310150e-02 2.180269546806812286e-02 2.005560882389545441e-02 -6.244001165032386780e-02 5.662814714014530182e-03 -1.687534898519515991e-02 2.665348351001739502e-02 5.287184193730354309e-02 -1.248457282781600952e-02 -3.351841494441032410e-02 2.626849897205829620e-02 -1.219410821795463562e-02 -7.152594625949859619e-02 -6.804693955928087234e-03 1.187489368021488190e-02 -1.256174445152282715e-01 3.494997322559356689e-02 -6.895723938941955566e-02 2.407167106866836548e-02 -9.823899716138839722e-03 3.468178585171699524e-02 9.052198380231857300e-02 -2.200260944664478302e-02 6.157769635319709778e-02 4.074345156550407410e-02 9.760945104062557220e-03 -4.390626028180122375e-02 -6.493663787841796875e-02 -6.292934715747833252e-02 -1.765336655080318451e-02 -3.591822832822799683e-02 7.152719050645828247e-02 5.047575570642948151e-03 3.228680044412612915e-02 1.459131296724081039e-02 1.284735091030597687e-02 6.286901235580444336e-02 -7.171425223350524902e-02 1.653394475579261780e-02 2.206151932477951050e-02 -5.426815897226333618e-02 -1.442686095833778381e-02 -1.911807246506214142e-02 -2.502940781414508820e-02 -2.104684337973594666e-02 -2.636728994548320770e-02 -4.491694271564483643e-02 -3.094499465078115463e-03 -1.019380521029233932e-02 -3.866986557841300964e-02 -5.029750987887382507e-02 -8.094723522663116455e-02 -2.531205303966999054e-02 5.842899531126022339e-02 1.085897628217935562e-02 1.520583312958478928e-02 4.183439537882804871e-02 -5.606703087687492371e-02 -1.027941610664129257e-02 3.721142560243606567e-02 2.049642056226730347e-02 -6.298431660979986191e-03 -2.204066328704357147e-02 -2.041418291628360748e-02 3.605007380247116089e-02 -1.752064190804958344e-02 -5.802144110202789307e-02 -2.568229287862777710e-02 -3.776235133409500122e-02 -1.280426746234297752e-03 4.825556278228759766e-02 -2.206788957118988037e-02 6.177156418561935425e-02 -2.292024902999401093e-02 7.561707403510808945e-03 6.497403979301452637e-02 -1.437853835523128510e-02 -2.825438044965267181e-02 3.199898079037666321e-02 7.180596143007278442e-02 4.841579124331474304e-02 3.346148878335952759e-02 -2.776757255196571350e-02 6.134958239272236824e-04 8.450317382812500000e-02 -2.683557569980621338e-02 1.962303183972835541e-02 -2.947971923276782036e-03 -4.719790816307067871e-02 2.512717060744762421e-02 2.776679955422878265e-02 3.904453665018081665e-02 -3.090344741940498352e-02 6.883002072572708130e-02 -2.563408948481082916e-02 4.560146480798721313e-02 2.516527101397514343e-02 -6.022286787629127502e-02 -6.079485174268484116e-04 -8.216071128845214844e-02 -1.553799584507942200e-02 5.565328057855367661e-03 3.389022499322891235e-02 1.797591894865036011e-02 7.565202564001083374e-02 4.843500908464193344e-03 4.471452534198760986e-02 1.950065046548843384e-02 2.251934818923473358e-02 -2.418085560202598572e-02 1.386156957596540451e-02 -1.669164001941680908e-02 7.789436727762222290e-02 7.365672290325164795e-02 6.179804913699626923e-04 2.650782465934753418e-02 -7.641816139221191406e-02 -1.019417890347540379e-03 -7.297919690608978271e-02 1.565526798367500305e-02 3.601822629570960999e-02 -1.008952967822551727e-02 3.860224410891532898e-02 1.238495460711419582e-03 -2.397166192531585693e-02 -8.670923300087451935e-03 1.097541116178035736e-02 -4.057541862130165100e-02 -9.639997966587543488e-03 -2.556416578590869904e-02 3.896142914891242981e-02 1.815545139834284782e-03 1.193012762814760208e-02 7.375231385231018066e-02 3.932332992553710938e-02 -4.801442846655845642e-02 -2.910106815397739410e-02 2.533798664808273315e-02 -7.509190589189529419e-03 2.322233514860272408e-03 5.034044384956359863e-02 -3.932297974824905396e-02 5.094803124666213989e-02 9.694702923297882080e-02 1.195344049483537674e-02 -2.584764175117015839e-02 2.074084803462028503e-02 -5.547596886754035950e-02 1.193826319649815559e-03 5.486322939395904541e-02 1.166061684489250183e-02 -3.091182745993137360e-02 1.867855526506900787e-02 7.265662774443626404e-03 7.012583315372467041e-02 -2.844667062163352966e-02 3.761351108551025391e-02 -1.709143444895744324e-02 1.651720888912677765e-02 1.829792512580752373e-03 2.502605877816677094e-02 -1.524991728365421295e-02 -3.538483381271362305e-02 -2.593293786048889160e-02 4.342386033385992050e-03 2.362068928778171539e-02 5.190170183777809143e-02 3.290433809161186218e-02 -2.568066120147705078e-03 7.772905286401510239e-03 2.617851458489894867e-02 -2.143130637705326080e-02 -1.386996917426586151e-02 7.517642807215452194e-03 1.164906099438667297e-01 4.164158925414085388e-02 -3.847872838377952576e-02 -4.122839495539665222e-02 1.758502621669322252e-04 -5.427937582135200500e-02 -2.768234349787235260e-02 -3.455233573913574219e-02 6.640455126762390137e-02 -1.129291020333766937e-03 -2.687862375751137733e-03 5.578958080150187016e-04 3.706291317939758301e-02 -2.032233867794275284e-03 -1.900268346071243286e-02 1.981592364609241486e-02 -5.695365369319915771e-02 6.367310881614685059e-03 3.938604891300201416e-02 5.761536955833435059e-02 1.222184859216213226e-03 6.034916266798973083e-02
-4.945182280602279443e-42 -4.978813443746075053e-42 -4.959195265245527614e-42 5.205823794966695418e-42 5.551944515654925235e-42 -5.165186139501275723e-42 -5.574365291084122308e-42 -4.976010846817425419e-42 4.952188772923903529e-42 -4.910149818994159017e-42 4.922761505173082370e-42 -5.061490053141239260e-42 5.326335462898629687e-42 -5.410413370758118711e-42 4.914353714387133468e-42 -4.963399160638502065e-42 -4.908748520529834199e-42 4.938175788280655358e-42 -5.078305634713137065e-42 4.987221234532023955e-42 -4.970405652960126151e-42 -5.211428988823994687e-42 -4.950787474459578712e-42 5.355762730649450845e-42 -5.340348447541877857e-42 -4.932570594423356090e-42 4.997030323782297675e-42 5.512708158653830357e-42 4.976010846817425419e-42 -5.451051026223538406e-42 -5.205823794966695418e-42 -5.337545850613228223e-42 -5.123147185571531211e-42 -4.936774489816330541e-42 -4.946583579066604260e-42 -5.963926264166421454e-42 5.029260188461768468e-42 5.980741845738319259e-42 -5.599588663441969015e-42 4.922761505173082370e-42 4.912952415922808651e-42 -4.963399160638502065e-42 5.434235444651640601e-42 -4.938175788280655358e-42 -5.224040675002918040e-42 -4.945182280602279443e-42 5.044674471569341455e-42 -4.953590071388228346e-42 -4.997030323782297675e-42 -4.954991369852553163e-42 -4.978813443746075053e-42 -5.158179647179651638e-42 -5.402005579972169808e-42 -4.961997862174177248e-42 -4.935373191352005724e-42 5.369775715292699016e-42 -5.062891351605564077e-42 -4.991425129924998407e-42 4.995629025317972858e-42 4.963399160638502065e-42 4.997030323782297675e-42 5.058687456212589626e-42 5.326335462898629687e-42 -5.372578312221348650e-42 -4.938175788280655358e-42 -4.954991369852553163e-42 4.942379683673629809e-42 -5.250665345825089565e-42 -5.149771856393702736e-42 -4.970405652960126151e-42 -4.949386175995253895e-42 -4.953590071388228346e-42 -4.911551117458483834e-42 -4.922761505173082370e-42 -5.055884859283939992e-42 -4.933971892887680907e-42 4.929767997494706456e-42 4.970405652960126151e-42 -5.336144552148903406e-42 4.946583579066604260e-42 4.960596563709852431e-42 4.978813443746075053e-42 -4.954991369852553163e-42 4.998431622246622492e-42 4.939577086744980175e-42 -5.571562694155472674e-42 5.068496545462863346e-42 5.466465309331111394e-42 5.491688681688958101e-42 5.027858889997443650e-42 -4.954991369852553163e-42 -5.624812035799815723e-42 5.174995228751549443e-42 -5.015247203818520297e-42 4.932570594423356090e-42 4.914353714387133468e-42 5.044674471569341455e-42 -5.212830287288319504e-42 -5.041871874640691821e-42 5.030661486926093285e-42 5.169390034894250175e-42 -4.999832920710947309e-42 4.999832920710947309e-42 4.990023831460673590e-42 6.010169113489140417e-42 -4.907347222065509382e-42 4.998431622246622492e-42 4.943780982137954626e-42 4.942379683673629809e-42 -4.946583579066604260e-42 5.965327562630746271e-42 5.196014705716421699e-42 5.005438114568246577e-42 -4.963399160638502065e-42 -5.727106823695527369e-42 -4.933971892887680907e-42 -4.976010846817425419e-42 -5.704686048266330296e-42 -5.019451099211494748e-42 5.366973118364049382e-42 -4.938175788280655358e-42 5.008240711496896211e-42 -5.123147185571531211e-42 4.967603056031476516e-42 4.950787474459578712e-42 5.813987328483666027e-42 5.001234219175272126e-42 -4.922761505173082370e-42 4.940978385209304992e-42 -5.333341955220253772e-42 -5.025056293068794016e-42 4.918557609780107919e-42 -4.967603056031476516e-42 -4.980214742210399870e-42 -6.080234036705381271e-42 4.939577086744980175e-42 6.056411962811859381e-42 -4.994227726853648041e-42 4.912952415922808651e-42 -4.929767997494706456e-42 5.313723776719706333e-42 5.302513389005107796e-42 5.057286157748264809e-42 5.071299142391512980e-42 -5.016648502282845114e-42 -5.019451099211494748e-42 -4.991425129924998407e-42 -5.207225093431020236e-42 4.961997862174177248e-42 4.974609548353100602e-42 -5.008240711496896211e-42 -4.928366699030381638e-42 -4.995629025317972858e-42 -5.128752379428830480e-42 4.999832920710947309e-42 -4.973208249888775785e-42 6.162910646100545478e-42 -5.009642009961221029e-42 -4.907347222065509382e-42 5.380986103007297552e-42 -4.960596563709852431e-42 4.929767997494706456e-42 4.912952415922808651e-42 4.921360206708757553e-42 4.925564102101732004e-42 -5.330539358291604138e-42 5.114739394785582309e-42 -5.167988736429925358e-42 4.950787474459578712e-42 5.427228952330016516e-42 5.407610773829469077e-42 5.121745887107206394e-42 5.030661486926093285e-42 4.964800459102826882e-42 4.933971892887680907e-42 5.893861340950180600e-42 -5.114739394785582309e-42 -5.018049800747169931e-42 -4.963399160638502065e-42 6.261001538603282673e-42 -5.145567961000728284e-42 5.008240711496896211e-42 -6.026984695061038222e-42 -5.099325111678009321e-42 -5.097923813213684504e-42 -5.050279665426640724e-42 -4.938175788280655358e-42 -5.037667979247717370e-42 4.915755012851458285e-42 -5.027858889997443650e-42 -5.176396527215874260e-42 4.935373191352005724e-42 -4.946583579066604260e-42 5.148370557929377919e-42 -6.111062602920527246e-42 -4.984418637603374321e-42 5.020852397675819565e-42 5.676660078979833954e-42 4.983017339139049504e-42 -6.195140510780016271e-42 5.074101739320162614e-42 -4.933971892887680907e-42 -4.985819936067699138e-42 -5.082509530106111516e-42 5.137160170214779382e-42 4.977412145281750236e-42 4.925564102101732004e-42 -4.933971892887680907e-42 -4.980214742210399870e-42 4.956392668316877980e-42 4.950787474459578712e-42 -4.988622532996348772e-42 -5.362769222971074930e-42 -4.922761505173082370e-42 -4.907347222065509382e-42 4.964800459102826882e-42 -4.950787474459578712e-42 4.933971892887680907e-42 5.090917320892060419e-42 5.427228952330016516e-42 -4.931169295959031273e-42 4.940978385209304992e-42 4.925564102101732004e-42 5.211428988823994687e-42 -4.956392668316877980e-42 -5.714495137516604015e-42 -4.929767997494706456e-42 4.921360206708757553e-42 4.985819936067699138e-42 -5.037667979247717370e-42 4.966201757567151699e-42 -5.378183506078647918e-42 4.978813443746075053e-42 4.960596563709852431e-42 4.946583579066604260e-42 5.233849764253191760e-42 4.932570594423356090e-42 -5.324934164434304870e-42 -5.273086121254286638e-42 -5.025056293068794016e-42 5.036266680783392553e-42 -4.924162803637407187e-42 4.963399160638502065e-42 -5.218435481145618772e-42 5.039069277712042187e-42 -4.981616040674724687e-42 5.013845905354195480e-42 5.373979610685673467e-42 -4.961997862174177248e-42 -4.973208249888775785e-42 4.991425129924998407e-42 5.313723776719706333e-42 -4.926965400566056821e-42 4.987221234532023955e-42 4.940978385209304992e-42 5.170791333358574992e-42
-1.475680992007255554e-02 -4.934984073042869568e-02 -1.384982466697692871e-02 -5.417210981249809265e-03 -1.445277594029903412e-02 2.708175778388977051e-02 2.104177698493003845e-02 3.844982758164405823e-02 7.476213574409484863e-02 -7.241705805063247681e-02 3.921765834093093872e-02 2.972430316731333733e-03 -5.427577532827854156e-03 2.591162174940109253e-02 -1.338472939096391201e-04 6.002211943268775940e-02 -1.773911528289318085e-02 1.720112562179565430e-02 1.117658615112304688e-02 -2.944351546466350555e-02 -5.217087920755147934e-03 -1.039526704698801041e-02 -3.488214313983917236e-02 1.916521112434566021e-03 -2.773868665099143982e-02 -3.688615281134843826e-03 3.972867503762245178e-03 -1.880227960646152496e-02 3.468251321464776993e-03 2.903591655194759369e-02 1.226114761084318161e-02 1.036426145583391190e-02 -1.852094568312168121e-02 -1.082376670092344284e-02 2.247994532808661461e-03 1.288327574729919434e-02 -1.064411085098981857e-02 6.962507218122482300e-02 -1.085455436259508133e-02 1.562633668072521687e-03 1.030301768332719803e-02 1.655595004558563232e-02 1.504896115511655807e-02 -1.989644952118396759e-02 -4.586826544255018234e-03 3.581497073173522949e-02 -2.996592782437801361e-03 2.560585923492908478e-02 -3.062325529754161835e-03 4.598677903413772583e-02 -1.069537457078695297e-02 2.513532713055610657e-02 -3.446604311466217041e-02 1.789337955415248871e-02 7.438601553440093994e-02 1.144701894372701645e-02 -1.148226670920848846e-02 1.020109001547098160e-02 -5.399030074477195740e-02 -1.458838302642107010e-02 -1.019603107124567032e-03 2.875947766005992889e-02 4.967557266354560852e-02 -7.926867902278900146e-02 8.795709349215030670e-03 -3.653952153399586678e-03 -5.931996926665306091e-02 -3.242113161832094193e-03 2.953983843326568604e-03 -1.091419951990246773e-03 1.764009520411491394e-02 -2.789951674640178680e-02 7.477231323719024658e-02 6.575053185224533081e-02 -4.232791811227798462e-02 3.288824856281280518e-02 -9.911583736538887024e-03 -2.959916368126869202e-02 3.730602189898490906e-02 7.661648560315370560e-04 -1.386511418968439102e-02 -4.626839235424995422e-02 1.567264832556247711e-02 3.017857857048511505e-02 -4.782085493206977844e-02 6.711198366247117519e-04 2.832253091037273407e-02 4.535797517746686935e-03 7.703249808400869370e-03 4.488351568579673767e-02 -1.780527830123901367e-02 -6.326282024383544922e-02 -1.018354017287492752e-02 -2.206223830580711365e-02 -6.135659292340278625e-02 8.804338052868843079e-03 -4.787762090563774109e-02 5.907371640205383301e-02 -5.068686604499816895e-02 1.986896246671676636e-02 4.875972494482994080e-02 -6.129552144557237625e-03 -3.398306900635361671e-03 1.444569788873195648e-03 -1.230891719460487366e-01 -3.427226794883608818e-03 8.084264583885669708e-03 -3.382931649684906006e-02 2.211354300379753113e-02 7.237483561038970947e-02 2.413724549114704132e-02 2.010163292288780212e-02 2.208430552855134010e-03 -5.318235233426094055e-02 -1.441418658941984177e-02 -2.030279673635959625e-02 1.301528885960578918e-02 4.145878925919532776e-02 -1.752401515841484070e-02 2.976632863283157349e-02 -2.199175581336021423e-02 -2.939731115475296974e-03 1.679451763629913330e-02 7.065062876790761948e-03 2.473524585366249084e-02 -9.974563727155327797e-04 1.667920500040054321e-02 3.879117965698242188e-02 -8.589551784098148346e-03 -2.034510299563407898e-02 3.066850453615188599e-02 1.676367782056331635e-02 -4.932928457856178284e-02 -1.866704435087740421e-03 5.014450103044509888e-02 -4.115835949778556824e-02 -3.159104287624359131e-02 -7.307484280318021774e-03 -3.927164524793624878e-02 1.435213536024093628e-02 -4.362041875720024109e-02 -4.576455336064100266e-03 4.732071608304977417e-02 2.213358692824840546e-02 2.604578621685504913e-03 -4.494819045066833496e-02 -6.125030294060707092e-02 -6.576346606016159058e-02 5.522514879703521729e-02 -1.547450106590986252e-02 1.862432435154914856e-02 -1.979110762476921082e-02 1.663544587790966034e-02 4.423993173986673355e-03 3.613453730940818787e-02 9.159184060990810394e-03 9.638713672757148743e-03 3.085664100944995880e-02 -1.820771582424640656e-02 3.691809251904487610e-02 -6.777624785900115967e-02 -2.324439026415348053e-02 1.170955598354339600e-02 -1.299684029072523117e-02 -2.576505765318870544e-02 2.298957481980323792e-02 -1.823073811829090118e-02 2.994140051305294037e-02 4.662900790572166443e-02 -3.133334685117006302e-03 3.447798639535903931e-02 1.634901203215122223e-02 -1.540140993893146515e-02 1.113123167306184769e-02 -5.597367137670516968e-02 -1.642224192619323730e-02 1.531744562089443207e-02 -9.287497377954423428e-04 -3.462567925453186035e-02 1.195153314620256424e-02 4.226140677928924561e-02 -7.968805730342864990e-02 -3.054308332502841949e-02 1.504648244008421898e-03 -6.210033316165208817e-04 3.585958853363990784e-02 9.494580328464508057e-03 7.980984635651111603e-03 -2.883152104914188385e-02 3.547364380210638046e-03 -2.713085897266864777e-02 3.110526874661445618e-02 -1.207801327109336853e-02 4.256624728441238403e-03 1.548170344904065132e-03 1.871114782989025116e-02 2.615050226449966431e-02 8.805982768535614014e-03 1.207031775265932083e-02 5.462049320340156555e-02 -1.611948758363723755e-02 6.104019936174154282e-03 -5.585957691073417664e-02 -4.310568422079086304e-02 1.860162615776062012e-02 -1.220491062849760056e-02 3.467968199402093887e-03 6.590159982442855835e-02 1.551350019872188568e-02 5.658426787704229355e-03 1.558966562151908875e-02 -3.402320295572280884e-02 -4.747177287936210632e-02 3.326422348618507385e-02 5.220876075327396393e-03 6.847348529845476151e-03 1.097164489328861237e-02 4.527572542428970337e-02 -5.520612932741641998e-03 1.265871524810791016e-02 -8.976253867149353027e-02 -4.713318869471549988e-02 -5.818821862339973450e-02 1.641053147614002228e-02 -1.541631203144788742e-02 -9.704581461846828461e-03 -2.202436141669750214e-02 9.831602871417999268e-02 1.813181117177009583e-02 -4.197274520993232727e-02 -1.919510401785373688e-02 -5.583905801177024841e-02 -2.392060123383998871e-02 2.428263984620571136e-02 -2.122772857546806335e-02 -2.171470969915390015e-02 -1.709784753620624542e-02 -1.510861609131097794e-02 -7.232028245925903320e-02 -4.590417444705963135e-02 -4.809890314936637878e-02 3.380813449621200562e-02 1.337964460253715515e-02 1.495851855725049973e-02 -1.618145592510700226e-02 3.810559958219528198e-02 -5.151570774614810944e-03 -3.437202796339988708e-02 -4.586360231041908264e-02 4.912136122584342957e-03 3.874399513006210327e-02 6.482066586613655090e-03 7.606407627463340759e-03 -4.622246325016021729e-02 -3.108897805213928223e-02 9.169415570795536041e-03
-3.021199814975261688e-02 -3.725526854395866394e-02 -2.958989143371582031e-02 1.389150694012641907e-02 -2.268221415579319000e-02 -2.323901094496250153e-02 2.324022352695465088e-02 -4.814241081476211548e-03 4.154405090957880020e-03 1.101909764111042023e-02 4.246523976325988770e-02 1.001763250678777695e-02 -6.735523045063018799e-02 4.643436986953020096e-03 2.699815295636653900e-02 2.101161982864141464e-03 5.636984482407569885e-03 2.599862776696681976e-02 2.190523967146873474e-02 1.421612408012151718e-02 1.336322166025638580e-03 1.712061651051044464e-02 -1.928269676864147186e-02 8.932714117690920830e-04 3.105893917381763458e-02 -8.885281160473823547e-03 4.979933612048625946e-03 -2.184308879077434540e-02 -1.915987767279148102e-02 1.234433613717556000e-02 -1.670007407665252686e-02 2.014750242233276367e-02 1.011534407734870911e-02 7.886629551649093628e-03 1.039817929267883301e-02 1.024306844919919968e-02 -2.144796773791313171e-02 3.041458316147327423e-02 1.398412697017192841e-02 2.327703125774860382e-02 4.347212146967649460e-03 1.627884805202484131e-02 -4.970558732748031616e-02 2.399305626749992371e-02 -1.769554801285266876e-02 2.769049443304538727e-02 -3.795025125145912170e-02 7.618932053446769714e-03 1.485893316566944122e-02 -5.192250944674015045e-03 6.394390016794204712e-02 5.454250052571296692e-02 -1.748833060264587402e-02 1.526804175227880478e-02 3.964547533541917801e-03 -1.347266603261232376e-02 2.051307447254657745e-02 1.914744079113006592e-02 -2.518426999449729919e-02 -5.745140463113784790e-02 -6.279110908508300781e-02 -4.163608327507972717e-02 3.696522861719131470e-02 -5.316117405891418457e-02 -5.068166553974151611e-02 -1.774882082827389240e-03 -3.052898123860359192e-02 -1.465710904449224472e-02 -4.322140943259000778e-03 -5.963204801082611084e-02 4.057144746184349060e-02 -1.007235050201416016e-02 4.184081405401229858e-02 2.378727309405803680e-02 -3.203257545828819275e-02 -4.332550335675477982e-03 5.130966380238533020e-02 1.653188280761241913e-02 2.183161303400993347e-02 -3.387350297998636961e-04 4.566757380962371826e-02 5.893779173493385315e-02 2.663023304194211960e-03 -2.710303105413913727e-02 -1.868941634893417358e-02 3.351854160428047180e-03 -2.439717948436737061e-02 2.311038412153720856e-02 2.175482176244258881e-02 -1.086878404021263123e-02 6.102275103330612183e-03 1.141717657446861267e-02 3.063962794840335846e-03 -6.375262886285781860e-02 -5.254332721233367920e-02 -8.300320245325565338e-03 -3.220207244157791138e-02 -1.321896212175488472e-03 1.532795839011669159e-02 1.433782628737390041e-03 5.401556193828582764e-02 3.617244213819503784e-02 -2.994307549670338631e-03 3.891455754637718201e-02 -2.463698387145996094e-02 1.649980247020721436e-02 2.896237932145595551e-02 -1.512681134045124054e-02 9.166853851638734341e-04 4.330648109316825867e-02 8.703886414878070354e-04 -4.259479418396949768e-02 2.105206251144409180e-02 -2.051756717264652252e-02 -1.664119736233260483e-05 1.633609272539615631e-02 1.295591611415147781e-02 7.081163348630070686e-04 3.067251667380332947e-02 -1.470370311290025711e-02 -3.559623286128044128e-02 1.080390997231006622e-02 6.088241003453731537e-03 -5.743903107941150665e-03 2.505936846137046814e-02 -3.195425495505332947e-02 -3.191905096173286438e-02 2.566278353333473206e-02 -2.852394990622997284e-02 6.780384574085474014e-04 -1.941993460059165955e-02 1.080456562340259552e-02 3.409215807914733887e-02 1.385533623397350311e-02 -5.178695078939199448e-03 -6.315158307552337646e-02 -4.597216378897428513e-03 1.085017342120409012e-02 4.198684170842170715e-02 1.473344024270772934e-02 9.984358213841915131e-03 -3.417083248496055603e-02 2.187658101320266724e-02 2.021980658173561096e-02 3.039505705237388611e-02 3.579133376479148865e-02 -3.695862740278244019e-02 -1.188861671835184097e-02 5.118729546666145325e-02 -8.320755441673099995e-04 1.449436601251363754e-02 -1.879169046878814697e-02 2.055264078080654144e-02 -1.228758320212364197e-02 4.195963963866233826e-02 4.417936142999678850e-04 3.205343335866928101e-02 3.585392981767654419e-02 4.900147207081317902e-03 4.128788039088249207e-02 -2.516861259937286377e-02 -6.194004788994789124e-03 6.225191522389650345e-03 -1.013160124421119690e-02 4.257133603096008301e-02 -2.643781714141368866e-02 3.059934824705123901e-02 4.522463306784629822e-02 1.552997995167970657e-02 -1.899389363825321198e-02 -1.777275651693344116e-02 3.682093322277069092e-02 2.778738271445035934e-03 -4.417860507965087891e-02 -3.193224221467971802e-02 6.266146083362400532e-04 -4.390679672360420227e-02 3.207930549979209900e-02 -2.319458127021789551e-02 -1.023243647068738937e-02 -2.919354848563671112e-02 -2.922878600656986237e-03 -2.696076966822147369e-02 2.333323238417506218e-03 1.922435825690627098e-03 1.696804072707891464e-03 -9.709180332720279694e-03 1.886812597513198853e-02 -5.186393484473228455e-02 3.344015404582023621e-02 -3.346483036875724792e-02 3.086879383772611618e-03 -5.153473466634750366e-03 1.672266237437725067e-02 1.505474094301462173e-02 3.424301743507385254e-02 3.326769918203353882e-02 -2.293710969388484955e-02 8.758673444390296936e-03 1.288710348308086395e-02 -2.188808470964431763e-02 -3.666389361023902893e-02 -1.920210942625999451e-02 -4.258596524596214294e-02 4.006208106875419617e-02 -1.414962206035852432e-02 9.404579177498817444e-03 2.261920273303985596e-02 2.352913096547126770e-02 -4.285229369997978210e-02 -1.005876995623111725e-02 1.492553297430276871e-02 -2.132386341691017151e-02 -6.114872172474861145e-03 2.034523896872997284e-02 -4.069627262651920319e-03 8.299619890749454498e-03 3.916314989328384399e-02 -2.219579741358757019e-02 2.606185153126716614e-02 -2.678620070219039917e-02 2.176028676331043243e-02 -1.092988345772027969e-02 2.890104427933692932e-02 8.169602602720260620e-03 2.488086745142936707e-02 -1.467302814126014709e-02 -2.430685423314571381e-02 -5.166451632976531982e-02 -5.020851269364356995e-02 -3.225311264395713806e-02 1.316162198781967163e-02 -3.478781785815954208e-03 8.431938476860523224e-03 -1.113173831254243851e-02 -8.222883567214012146e-03 1.683533005416393280e-02 5.466180294752120972e-02 -3.143916651606559753e-02 3.616924956440925598e-02 -2.421795856207609177e-03 -8.545606397092342377e-03 -3.293402865529060364e-02 2.181045897305011749e-02 -1.002788194455206394e-03 8.313972502946853638e-03 -1.664407178759574890e-02 -1.917626336216926575e-02 -4.103888198733329773e-02 -3.606144711375236511e-02 2.296592341735959053e-03 2.192371338605880737e-02 4.832015186548233032e-02 -4.088361188769340515e-02 -2.022023685276508331e-02 -4.710281267762184143e-02
5.971987266093492508e-03 6.892813835293054581e-03 -5.745893809944391251e-03 7.006368134170770645e-03 -1.832519308663904667e-03 8.251937106251716614e-03 1.347384136170148849e-02 6.044445093721151352e-03 1.872945576906204224e-02 6.603713147342205048e-03 8.630719967186450958e-03 1.335034519433975220e-02 -3.641786798834800720e-02 1.052706781774759293e-02 8.161205798387527466e-03 2.126788720488548279e-03 6.166195496916770935e-03 7.679617963731288910e-03 -4.891055449843406677e-02 4.787929821759462357e-03 2.136078197509050369e-03 1.067800261080265045e-02 1.622632960788905621e-03 2.544173039495944977e-02 1.247011031955480576e-02 6.913893390446901321e-03 7.295471150428056717e-03 4.264141898602247238e-03 1.073632389307022095e-02 8.011130616068840027e-03 -3.360965475440025330e-02 1.335012784693390131e-04 1.179779134690761566e-02 -1.008025333285331726e-01 8.144337683916091919e-03 7.709280122071504593e-03 2.797566354274749756e-03 5.868669599294662476e-03 1.013794448226690292e-02 7.875561714172363281e-03 9.111630730330944061e-03 3.410763340070843697e-03 5.637353286147117615e-03 5.818035919219255447e-03 7.096100598573684692e-03 1.041105389595031738e-02 3.962073475122451782e-03 4.943646956235170364e-03 7.696361746639013290e-03 9.652554057538509369e-03 -1.016539521515369415e-02 1.411002129316329956e-02 4.757516086101531982e-03 9.117278270423412323e-03 1.499719265848398209e-02 7.862351834774017334e-03 5.421146750450134277e-03 1.138961035758256912e-02 5.492464173585176468e-03 -8.608514443039894104e-03 1.301304530352354050e-02 5.355185712687671185e-04 1.296041905879974365e-02 -3.253914415836334229e-03 1.133243367075920105e-02 3.190524131059646606e-02 8.732520043849945068e-03 1.082218158990144730e-02 6.449705455452203751e-03 5.307740531861782074e-03 -5.345991998910903931e-02 3.212219569832086563e-03 4.291384480893611908e-03 -4.699228331446647644e-02 4.907755181193351746e-03 -2.156335860490798950e-02 -4.695856943726539612e-03 -1.662798039615154266e-02 1.438091043382883072e-02 1.496351207606494427e-03 -2.767486125230789185e-02 -5.654558911919593811e-02 6.729597225785255432e-03 3.879795782268047333e-03 -1.199742313474416733e-02 1.261748746037483215e-02 6.323243142105638981e-04 1.011270377784967422e-02 6.849096622318029404e-03 -1.578165334649384022e-03 -1.613422669470310211e-02 8.958061225712299347e-03 8.984066545963287354e-03 1.128943543881177902e-02 1.562223862856626511e-02 8.473618887364864349e-03 5.798083730041980743e-03 7.261028978973627090e-03 -4.207675810903310776e-03 1.037205383181571960e-02 1.092452555894851685e-02 4.442864097654819489e-03 2.234402112662792206e-02 6.934593431651592255e-03 1.867033890448510647e-03 1.020959019660949707e-02 -3.502736985683441162e-02 5.313015542924404144e-03 9.299729950726032257e-03 -3.006786480545997620e-02 -2.320624515414237976e-02 -4.249949473887681961e-03 5.091269500553607941e-03 -1.946365088224411011e-02 6.332342512905597687e-03 -3.723115369211882353e-04 6.712384987622499466e-03 6.136767915450036526e-04 -4.102872312068939209e-02 7.577858865261077881e-03 7.216424681246280670e-03 1.066379435360431671e-02 7.591359317302703857e-03 6.773544941097497940e-03 1.194239128381013870e-02 1.335960160940885544e-02 1.118957530707120895e-02 1.420304551720619202e-02 1.538936793804168701e-02 1.309894584119319916e-02 1.177942566573619843e-02 1.336209755390882492e-02 -3.983222413808107376e-03 4.801078233867883682e-03 1.036001835018396378e-02 1.851627789437770844e-02 1.103054173290729523e-02 8.702171035110950470e-03 -9.881651028990745544e-03 6.437546107918024063e-03 -1.973694749176502228e-02 7.912947796285152435e-03 1.184560824185609818e-02 7.802833802998065948e-03 6.764724384993314743e-04 1.030679233372211456e-02 -2.530734491301700473e-05 7.898066192865371704e-03 3.039846196770668030e-04 6.694634445011615753e-03 -4.530828073620796204e-02 4.222583491355180740e-03 5.814250558614730835e-03 8.474111557006835938e-03 8.584345690906047821e-03 4.960962105542421341e-03 -5.441221594810485840e-02 -3.142429888248443604e-02 -3.666330873966217041e-02 -4.332978278398513794e-04 7.792831864207983017e-03 5.678233224898576736e-03 8.955280296504497528e-03 6.487302016466856003e-04 3.394053317606449127e-03 -5.079616233706474304e-02 -3.612269647419452667e-03 -2.036842331290245056e-02 9.008529596030712128e-03 7.555516902357339859e-03 9.485032409429550171e-03 9.273619391024112701e-03 5.457763560116291046e-03 1.060730591416358948e-02 6.927520968019962311e-03 9.859049692749977112e-03 -1.174330827780067921e-03 -7.614086847752332687e-03 -1.152884098701179028e-03 -2.684212848544120789e-02 8.625402115285396576e-03 -7.644259370863437653e-03 3.238879609853029251e-03 2.543732151389122009e-02 2.077651396393775940e-02 6.824835203588008881e-03 7.499727886170148849e-03 4.952311050146818161e-03 -2.259711548686027527e-02 1.286536548286676407e-02 3.793277544900774956e-03 7.104895543307065964e-03 1.299830246716737747e-02 -1.427786052227020264e-02 1.142580341547727585e-02 9.061428718268871307e-03 -5.717600136995315552e-02 -1.986260153353214264e-02 8.021987974643707275e-03 -4.354548291303217411e-04 7.374123204499483109e-03 -5.933700129389762878e-03 2.409184817224740982e-03 4.706758540123701096e-03 -7.559350878000259399e-02 -2.183064498240128160e-04 7.727250922471284866e-03 7.746722549200057983e-03 8.482206612825393677e-03 2.749945502728223801e-03 7.947368547320365906e-03 5.195860285311937332e-03 1.583861187100410461e-03 5.797153804451227188e-03 -8.014575578272342682e-03 -2.477462403476238251e-03 -2.384781278669834137e-02 9.547491557896137238e-03 9.541276842355728149e-03 1.268891990184783936e-02 4.878844134509563446e-03 -2.748814783990383148e-02 4.887095186859369278e-03 -1.740039326250553131e-02 3.718333318829536438e-03 -2.864900976419448853e-02 -3.010079264640808105e-03 3.668531775474548340e-03 -2.220676047727465630e-03 6.565365474671125412e-03 5.565570667386054993e-03 -6.356653757393360138e-04 6.449234206229448318e-03 1.151179894804954529e-02 5.902261938899755478e-03 -4.099194426089525223e-03 5.490512121468782425e-03 1.150930766016244888e-02 6.950175389647483826e-03 1.247238926589488983e-02 1.223588176071643829e-02 9.732108563184738159e-03 1.037538982927799225e-02 7.325865328311920166e-03 9.017841890454292297e-03 1.307439431548118591e-02 -3.884954843670129776e-03 8.053741417825222015e-03 6.935648154467344284e-03 7.790101226419210434e-03 2.578959567472338676e-03 2.669659676030278206e-03 5.526512395590543747e-03 1.261369138956069946e-02 -8.562579751014709473e-03 6.825347896665334702e-03
-8.412471972405910492e-03 -8.236689493060112000e-03 -2.126943878829479218e-02 -1.226396486163139343e-02 -1.260124053806066513e-02 -8.333280682563781738e-03 -7.024716120213270187e-03 -5.657188594341278076e-03 -3.907551523298025131e-03 -1.061865407973527908e-02 -5.521033424884080887e-03 -1.249027717858552933e-02 -5.831634625792503357e-02 -5.664095282554626465e-03 -1.242226734757423401e-02 -1.393861416727304459e-02 -1.050142478197813034e-02 -7.136954460293054581e-03 -7.037834078073501587e-02 -9.197100996971130371e-03 -1.105718035250902176e-02 -1.307514309883117676e-02 -1.399486046284437180e-02 3.334739804267883301e-02 -4.942770581692457199e-03 -8.472687564790248871e-03 -1.025962363928556442e-02 -9.937116876244544983e-03 -1.034237537533044815e-02 -8.035605773329734802e-03 -6.104273721575737000e-02 -1.104933954775333405e-02 -1.248663663864135742e-02 -1.250863820314407349e-01 -7.501170504838228226e-03 -6.873508915305137634e-03 -9.689999744296073914e-03 -6.736434530466794968e-03 -8.978338912129402161e-03 -9.073946624994277954e-03 5.329673876985907555e-04 -1.506384089589118958e-02 -9.563704952597618103e-03 -9.634596295654773712e-03 -1.602342724800109863e-02 -5.182640627026557922e-03 -6.780037656426429749e-03 -7.344879675656557083e-03 -8.114523254334926605e-03 -5.803176201879978180e-03 -2.077461965382099152e-02 -6.465497892349958420e-03 -8.306522853672504425e-03 -1.359064225107431412e-02 -6.179400719702243805e-03 -4.190985113382339478e-03 -7.026092614978551865e-03 -1.113439165055751801e-02 -1.508947554975748062e-02 -3.313223272562026978e-02 -1.008505094796419144e-02 -1.739273965358734131e-02 -4.962021019309759140e-03 -1.580894552171230316e-02 -1.351228682324290276e-03 5.203394964337348938e-02 -9.587835520505905151e-03 -9.767402894794940948e-03 -6.161909084767103195e-03 -1.605789363384246826e-02 -6.242988631129264832e-02 -1.436963863670825958e-02 -9.114657528698444366e-03 -7.104726135730743408e-02 -1.059696264564990997e-02 -3.040622361004352570e-02 -2.138524316251277924e-02 -3.549635782837867737e-02 -9.381584823131561279e-03 -9.081025607883930206e-03 -4.696425423026084900e-02 -9.335439652204513550e-02 -9.854141622781753540e-03 -5.194318946450948715e-03 -2.239250577986240387e-02 -6.463777739554643631e-03 -1.419853139668703079e-02 -1.105102803558111191e-02 -8.128945715725421906e-03 -1.477403659373521805e-02 -2.554688602685928345e-02 -2.344893291592597961e-02 -5.370797123759984970e-03 -8.045570924878120422e-03 3.438057610765099525e-03 -1.126554608345031738e-02 -4.754877183586359024e-03 -6.055954843759536743e-03 -2.032322436571121216e-02 -7.272265851497650146e-03 -1.886199228465557098e-03 -7.064067292958498001e-03 4.338899254798889160e-02 -7.701732218265533447e-03 -1.695461012423038483e-02 -6.718086544424295425e-03 -4.991520568728446960e-02 -9.487247443757951260e-04 -1.178529579192399979e-02 -4.356369376182556152e-02 -3.444219753146171570e-02 -1.880612038075923920e-02 -8.364203386008739471e-03 -3.238300234079360962e-02 -8.467130362987518311e-03 -1.323468890041112900e-02 -6.891323719173669815e-03 -1.203912682831287384e-02 -6.633006781339645386e-02 -8.144826628267765045e-03 -1.116724591702222824e-02 -9.854204952716827393e-03 -6.498486734926700592e-03 -3.069909289479255676e-03 -5.104594398289918900e-03 -8.520090021193027496e-03 -9.193617850542068481e-03 -1.324728690087795258e-02 -1.401958893984556198e-02 -1.464327890425920486e-02 -8.304646238684654236e-03 -1.359722390770912170e-02 -1.498752366751432419e-02 -8.550580590963363647e-03 -2.036019228398799896e-02 -1.888422667980194092e-02 -1.534556690603494644e-02 -6.880765780806541443e-03 -1.802325248718261719e-02 -1.835057139396667480e-02 -3.003022819757461548e-02 -9.679548442363739014e-03 -6.982239894568920135e-03 -5.826401058584451675e-03 -1.126051694154739380e-02 -7.692600134760141373e-03 -1.213243696838617325e-02 -9.439387358725070953e-03 -9.434424340724945068e-03 -3.742249682545661926e-03 -8.808230608701705933e-02 -1.567949168384075165e-02 -9.225442074239253998e-03 -5.934181623160839081e-03 -6.179552059620618820e-03 -1.005056686699390411e-02 -7.369806617498397827e-02 -5.413194745779037476e-02 -6.059860065579414368e-02 -1.279537100344896317e-02 -9.723350405693054199e-03 -1.660003885626792908e-02 -7.528900168836116791e-03 -1.386318355798721313e-02 -1.504047028720378876e-02 -7.633642852306365967e-02 -2.181159146130084991e-02 -4.092344641685485840e-02 -1.160218939185142517e-02 -7.513279095292091370e-03 -5.465146619826555252e-03 -1.037265546619892120e-02 -1.927183009684085846e-02 -7.160262204706668854e-03 -1.279126480221748352e-02 -7.444303482770919800e-03 -1.685729064047336578e-02 -2.149188891053199768e-02 -1.088970620185136795e-02 -5.457634851336479187e-02 -1.159188523888587952e-02 -1.351403165608644485e-02 -1.075000222772359848e-02 3.667947277426719666e-02 2.975139766931533813e-02 -1.138640381395816803e-02 -1.031584292650222778e-02 -9.469187818467617035e-03 -4.297858476638793945e-02 -1.017203088849782944e-02 -3.964596893638372421e-03 -5.602254066616296768e-03 -7.462296169251203537e-03 -2.910529449582099915e-02 -1.050560735166072845e-02 -8.795003406703472137e-03 -9.772770106792449951e-02 -3.705595433712005615e-02 -6.276421714574098587e-03 -1.331935543566942215e-02 -1.059242431074380875e-02 -1.882714964449405670e-02 -1.010328345000743866e-02 -1.366004627197980881e-02 -1.056820005178451538e-01 -1.519157830625772476e-02 -4.949100315570831299e-03 -5.972485058009624481e-03 -7.081010378897190094e-03 -1.538690458983182907e-02 -1.251630892511457205e-04 -5.621402058750391006e-03 -1.201347075402736664e-02 -9.244971908628940582e-03 -2.442067675292491913e-02 -1.572222821414470673e-02 -3.570247441530227661e-02 -6.865913048386573792e-03 -1.044388022273778915e-02 -7.058440707623958588e-03 -1.028014440089464188e-02 -4.023701697587966919e-02 -7.894818671047687531e-03 -2.849959582090377808e-02 -8.699776604771614075e-03 -3.752294182777404785e-02 -1.924712955951690674e-02 -4.751399159431457520e-03 -1.621809601783752441e-02 -7.288122083991765976e-03 -1.380683667957782745e-02 -1.891717500984668732e-02 -4.474634304642677307e-03 -5.673397332429885864e-03 -1.388511061668395996e-02 -1.305720023810863495e-02 -9.855970740318298340e-03 -2.000785246491432190e-02 -9.585639461874961853e-03 -9.335387498140335083e-03 -1.288585271686315536e-02 -3.285909304395318031e-03 -9.876710362732410431e-03 -4.642211832106113434e-03 -1.229505892843008041e-02 -2.858723048120737076e-03 -1.060485932976007462e-02 -9.372411295771598816e-03 -9.040292352437973022e-03 -9.225816465914249420e-03 -9.429736994206905365e-03 -7.651716936379671097e-03 -1.564814522862434387e-02 -4.638134967535734177e-03 -2.164072915911674500e-02 -8.421658538281917572e-03
4.726241528987884521e-02 -2.966468408703804016e-02 -1.881507784128189087e-02 -7.120822090655565262e-03 4.726868867874145508e-02 3.283705329522490501e-03 1.951297186315059662e-02 4.539012163877487183e-02 4.118777066469192505e-02 -9.292788058519363403e-02 5.717731639742851257e-02 9.755375981330871582e-02 -1.960341446101665497e-02 -4.548420198261737823e-03 2.457009255886077881e-02 -2.759268321096897125e-02 1.664129085838794708e-02 3.434272855520248413e-02 -2.522417902946472168e-02 -2.965161949396133423e-02 -1.860805600881576538e-02 3.923372924327850342e-02 -5.779015272855758667e-02 -9.766245260834693909e-03 -1.058225519955158234e-02 4.064575955271720886e-02 5.649825930595397949e-02 -2.466332353651523590e-02 3.672398626804351807e-02 2.678681910037994385e-02 8.855192922055721283e-03 -5.442178808152675629e-03 3.701960295438766479e-02 3.739630430936813354e-02 9.167788550257682800e-03 1.602588780224323273e-02 1.648197509348392487e-02 -1.900692470371723175e-02 5.882085300981998444e-03 -6.830499507486820221e-03 3.320683911442756653e-02 -4.908281844109296799e-03 4.609835892915725708e-02 3.129641339182853699e-02 -2.414640504866838455e-03 -2.116787433624267578e-02 -5.786268413066864014e-02 1.151472423225641251e-02 2.051077038049697876e-02 4.547540470957756042e-02 1.673859357833862305e-02 2.515590377151966095e-02 -9.146216325461864471e-03 -2.874887315556406975e-03 4.925525933504104614e-02 -9.880833327770233154e-03 1.833627000451087952e-02 -2.068758569657802582e-02 -6.906052585691213608e-03 2.259604260325431824e-02 -7.056871056556701660e-02 3.554762806743383408e-03 4.169725626707077026e-02 -9.130511432886123657e-02 2.314043603837490082e-02 -1.471798587590456009e-02 3.178334608674049377e-02 1.694949343800544739e-02 2.153380773961544037e-02 1.696399785578250885e-02 9.917035698890686035e-03 2.868860960006713867e-03 1.403244328685104847e-03 2.182825468480587006e-02 -2.362604625523090363e-02 -1.183335296809673309e-02 2.194664627313613892e-02 -5.119052901864051819e-02 1.477190759032964706e-02 1.382186915725469589e-02 1.263133343309164047e-02 8.413334935903549194e-02 1.036762911826372147e-02 5.298003181815147400e-02 4.692372679710388184e-02 2.613693848252296448e-02 -2.591194771230220795e-02 4.999131709337234497e-02 -1.236115675419569016e-02 1.957345940172672272e-02 -5.657024309039115906e-02 -2.059517800807952881e-02 3.109891526401042938e-02 1.211002282798290253e-02 1.557885203510522842e-02 3.789509460330009460e-02 2.999621815979480743e-02 -3.293818607926368713e-02 2.309810603037476540e-03 2.477974630892276764e-03 -2.131056040525436401e-02 -6.692700088024139404e-02 -2.015435881912708282e-02 1.997116394340991974e-02 -6.475391983985900879e-02 7.764709647744894028e-03 7.478941977024078369e-02 1.932920073159039021e-03 5.359770730137825012e-03 3.236636519432067871e-02 1.601858995854854584e-02 -1.682816818356513977e-02 3.902620077133178711e-02 6.935914512723684311e-03 2.841468714177608490e-02 8.738850010558962822e-04 6.902362685650587082e-03 -5.492018908262252808e-02 6.272991653531789780e-03 3.884363174438476562e-02 1.434771623462438583e-02 3.446586802601814270e-02 2.288819756358861923e-03 -5.682227015495300293e-02 3.450074046850204468e-02 2.154698967933654785e-02 3.140028938651084900e-02 -5.630908068269491196e-03 8.955672383308410645e-03 3.547659143805503845e-02 3.783938661217689514e-02 -4.792602267116308212e-03 3.777957707643508911e-02 -6.148575618863105774e-02 2.439710684120655060e-02 5.958626046776771545e-02 4.889589175581932068e-02 1.729543320834636688e-02 1.703276298940181732e-02 -1.562697812914848328e-02 5.069388076663017273e-02 -1.912348531186580658e-02 -5.679030902683734894e-03 2.490044571459293365e-02 7.143131643533706665e-02 -5.474954377859830856e-03 -4.472171515226364136e-02 1.117572886869311333e-03 -5.955051630735397339e-02 4.356147348880767822e-02 5.644359812140464783e-02 1.860681734979152679e-02 2.817326039075851440e-02 4.528173804283142090e-02 -1.627829112112522125e-02 -2.154318848624825478e-03 -1.498690224252641201e-03 -3.705286979675292969e-02 -3.181541105732321739e-03 -4.216003045439720154e-02 3.657869296148419380e-03 1.633940450847148895e-02 3.427436575293540955e-02 2.387768961489200592e-02 1.577939838171005249e-02 3.480407223105430603e-02 2.169457497075200081e-03 5.068890377879142761e-02 1.573748886585235596e-02 -9.885678067803382874e-03 2.657304331660270691e-02 1.460939180105924606e-02 2.878953469917178154e-03 4.201399534940719604e-02 -1.159411389380693436e-02 1.808027178049087524e-02 -4.543429985642433167e-02 -3.068480640649795532e-02 -1.036511510610580444e-01 4.724085330963134766e-02 4.767610505223274231e-02 3.054914809763431549e-02 -1.395464316010475159e-02 4.497966729104518890e-03 -1.736054196953773499e-02 9.839935228228569031e-04 1.911364309489727020e-02 8.723269216716289520e-03 2.703722007572650909e-02 4.334569349884986877e-02 4.854284599423408508e-02 1.966457068920135498e-02 -1.175527367740869522e-02 2.184137515723705292e-02 6.976171582937240601e-02 3.738502273336052895e-03 -1.257012411952018738e-02 -1.895800977945327759e-02 1.076795253902673721e-02 -8.484927937388420105e-03 1.092749461531639099e-02 -5.828001350164413452e-02 -1.876667514443397522e-02 2.080341801047325134e-02 3.113302215933799744e-02 -4.143316671252250671e-02 1.157161500304937363e-02 -1.673262380063533783e-02 5.430669523775577545e-03 2.257858403027057648e-02 4.266333207488059998e-02 -3.122352994978427887e-02 2.695828303694725037e-02 2.840960770845413208e-02 1.716205850243568420e-02 -2.552614361047744751e-02 1.233792398124933243e-02 2.403015969321131706e-03 5.276913940906524658e-02 4.714670125395059586e-03 1.890525594353675842e-02 1.356927491724491119e-02 -5.197888240218162537e-02 -5.168190971016883850e-02 -4.743144288659095764e-02 -4.318653140217065811e-03 2.167659252882003784e-02 3.647130355238914490e-02 4.782526753842830658e-03 1.273640990257263184e-02 1.809554733335971832e-02 -1.289405487477779388e-02 -1.382164377719163895e-02 3.196838498115539551e-02 5.605015531182289124e-02 7.944991812109947205e-03 -6.467188149690628052e-02 -7.095549954101443291e-04 -7.393388543277978897e-03 3.573317825794219971e-02 -5.089954659342765808e-02 -2.235882217064499855e-03 4.122018069028854370e-02 1.697685196995735168e-02 2.612537518143653870e-02 2.239089272916316986e-02 3.781517222523689270e-02 1.958457939326763153e-02 -1.664884388446807861e-02 1.647133938968181610e-02 -5.950506031513214111e-02 -7.930570095777511597e-02 2.949601039290428162e-02 5.103207379579544067e-02 -1.811596937477588654e-02 3.515839204192161560e-02
-8.110549300909042358e-03 -7.901070639491081238e-03 -2.084675244987010956e-02 -1.186356786638498306e-02 -1.240563299506902695e-02 -8.016288280487060547e-03 -6.647331640124320984e-03 -5.438403226435184479e-03 -3.578447503969073296e-03 -1.031646598130464554e-02 -5.272827576845884323e-03 -1.214784663170576096e-02 -5.792604759335517883e-02 -5.349860992282629013e-03 -1.199693325906991959e-02 -1.350522972643375397e-02 -1.014745701104402542e-02 -6.810027640312910080e-03 -6.988907605409622192e-02 -8.877431042492389679e-03 -1.065323781222105026e-02 -1.256260555237531662e-02 -1.367992255836725235e-02 3.337604925036430359e-02 -4.627838730812072754e-03 -8.139124140143394470e-03 -9.921672753989696503e-03 -9.559073485434055328e-03 -9.952305816113948822e-03 -7.712763268500566483e-03 -6.033379212021827698e-02 -1.073784101754426956e-02 -1.199699006974697113e-02 -1.246543154120445251e-01 -7.171744480729103088e-03 -6.552102509886026382e-03 -9.379553608596324921e-03 -6.473937537521123886e-03 -8.514806628227233887e-03 -8.717735297977924347e-03 7.479911437258124352e-04 -1.487338822335004807e-02 -9.154033847153186798e-03 -9.263442829251289368e-03 -1.554531697183847427e-02 -4.952384158968925476e-03 -6.753828842192888260e-03 -7.128076162189245224e-03 -7.754048332571983337e-03 -5.517337471246719360e-03 -2.050087228417396545e-02 -6.150125525891780853e-03 -8.044763468205928802e-03 -1.317017618566751480e-02 -5.877891089767217636e-03 -3.859938355162739754e-03 -6.738387979567050934e-03 -1.072230469435453415e-02 -1.463641040027141571e-02 -3.269025310873985291e-02 -9.656455367803573608e-03 -1.719101518392562866e-02 -4.750859457999467850e-03 -1.569360494613647461e-02 -9.979245951399207115e-04 5.289095640182495117e-02 -9.163798764348030090e-03 -9.375149384140968323e-03 -5.882417783141136169e-03 -1.579265296459197998e-02 -6.213717535138130188e-02 -1.402495615184307098e-02 -8.756971918046474457e-03 -7.041489332914352417e-02 -1.024840399622917175e-02 -3.012014925479888916e-02 -2.111717313528060913e-02 -3.497148677706718445e-02 -8.990620262920856476e-03 -8.740694262087345123e-03 -4.661537706851959229e-02 -9.262783080339431763e-02 -9.456300176680088043e-03 -4.986613988876342773e-03 -2.216079458594322205e-02 -6.099210120737552643e-03 -1.404449343681335449e-02 -1.062222849577665329e-02 -7.878935895860195160e-03 -1.437639165669679642e-02 -2.530554682016372681e-02 -2.265230566263198853e-02 -5.079605616629123688e-03 -7.693598978221416473e-03 3.620955627411603928e-03 -1.094411127269268036e-02 -4.537653643637895584e-03 -5.789312068372964859e-03 -1.988224871456623077e-02 -6.930144969373941422e-03 -1.757765770889818668e-03 -6.708434782922267914e-03 4.333705082535743713e-02 -7.354936096817255020e-03 -1.672300882637500763e-02 -6.371063645929098129e-03 -4.944418370723724365e-02 -7.164273411035537720e-04 -1.136325486004352570e-02 -4.313964396715164185e-02 -3.414139524102210999e-02 -1.839776150882244110e-02 -8.062828332185745239e-03 -3.207535669207572937e-02 -8.163965307176113129e-03 -1.290144491940736771e-02 -6.485069636255502701e-03 -1.157718617469072342e-02 -6.584376841783523560e-02 -7.977264933288097382e-03 -1.076302770525217056e-02 -9.423822164535522461e-03 -6.253295112401247025e-03 -2.823299961164593697e-03 -4.839387722313404083e-03 -8.120366372168064117e-03 -8.939095772802829742e-03 -1.282157190144062042e-02 -1.347036939114332199e-02 -1.396731846034526825e-02 -8.002397604286670685e-03 -1.313935499638319016e-02 -1.462110225111246109e-02 -8.131483569741249084e-03 -1.977005787193775177e-02 -1.833800598978996277e-02 -1.478071697056293488e-02 -6.518758833408355713e-03 -1.780169270932674408e-02 -1.785708218812942505e-02 -2.973862737417221069e-02 -9.284993633627891541e-03 -6.739051081240177155e-03 -5.525387357920408249e-03 -1.094797160476446152e-02 -7.275912910699844360e-03 -1.181590277701616287e-02 -8.952523581683635712e-03 -9.290883317589759827e-03 -3.567093051970005035e-03 -8.715029805898666382e-02 -1.526840031147003174e-02 -8.886042051017284393e-03 -5.681153852492570877e-03 -6.042074412107467651e-03 -9.858249686658382416e-03 -7.314154505729675293e-02 -5.348206311464309692e-02 -6.019167602062225342e-02 -1.260005682706832886e-02 -9.348902851343154907e-03 -1.616989448666572571e-02 -7.293012924492359161e-03 -1.353742275387048721e-02 -1.459548994898796082e-02 -7.575100660324096680e-02 -2.130549959838390350e-02 -4.050553962588310242e-02 -1.125811692327260971e-02 -7.177275139838457108e-03 -5.193927790969610214e-03 -1.002809312194585800e-02 -1.876668632030487061e-02 -6.821140646934509277e-03 -1.235336810350418091e-02 -7.105337455868721008e-03 -1.667338982224464417e-02 -2.131049148738384247e-02 -1.067391782999038696e-02 -5.386275053024291992e-02 -1.119048614054918289e-02 -1.321375276893377304e-02 -1.043459586799144745e-02 3.642136231064796448e-02 2.976901829242706299e-02 -1.095525827258825302e-02 -9.941791184246540070e-03 -9.142537601292133331e-03 -4.248856380581855774e-02 -9.731604717671871185e-03 -3.807533066719770432e-03 -5.313191097229719162e-03 -7.074344903230667114e-03 -2.862568944692611694e-02 -1.001718640327453613e-02 -8.453135378658771515e-03 -9.693534672260284424e-02 -3.659322485327720642e-02 -6.032837554812431335e-03 -1.314972434192895889e-02 -1.024435460567474365e-02 -1.845693029463291168e-02 -9.827359579503536224e-03 -1.329862326383590698e-02 -1.049093455076217651e-01 -1.504195667803287506e-02 -4.659806378185749054e-03 -5.643415730446577072e-03 -6.745265331119298935e-03 -1.505620032548904419e-02 3.947887671529315412e-05 -5.447352305054664612e-03 -1.172913052141666412e-02 -8.905014023184776306e-03 -2.402966655790805817e-02 -1.534393429756164551e-02 -3.545972332358360291e-02 -6.577652413398027420e-03 -1.005719695240259171e-02 -6.722298916429281235e-03 -9.908055886626243591e-03 -3.992214426398277283e-02 -7.499893195927143097e-03 -2.809230424463748932e-02 -8.488707244396209717e-03 -3.712948784232139587e-02 -1.889897324144840240e-02 -4.496507812291383743e-03 -1.602932810783386230e-02 -6.992728449404239655e-03 -1.340532395988702774e-02 -1.852588355541229248e-02 -4.347834270447492599e-03 -5.379323847591876984e-03 -1.352502778172492981e-02 -1.276606414467096329e-02 -9.758519940078258514e-03 -1.947510056197643280e-02 -9.333356283605098724e-03 -8.954505436122417450e-03 -1.231008302420377731e-02 -3.149682423099875450e-03 -9.513129480183124542e-03 -4.372213967144489288e-03 -1.181022357195615768e-02 -2.647058572620153427e-03 -1.042805146425962448e-02 -8.949464187026023865e-03 -8.682208135724067688e-03 -8.819562382996082306e-03 -9.082010015845298767e-03 -7.410699967294931412e-03 -1.529121678322553635e-02 -4.289041738957166672e-03 -2.132648974657058716e-02 -8.121744729578495026e-03
6.068864371627569199e-03 6.754203699529170990e-03 -5.939086433500051498e-03 6.916894577443599701e-03 -1.810421585105359554e-03 8.089669980108737946e-03 1.343710161745548248e-02 5.886092782020568848e-03 1.862984709441661835e-02 6.672941148281097412e-03 8.612901903688907623e-03 1.321144867688417435e-02 -3.661608323454856873e-02 1.045615039765834808e-02 8.071656338870525360e-03 1.918802736327052116e-03 6.113481707870960236e-03 7.600536104291677475e-03 -4.862380027770996094e-02 4.823726601898670197e-03 1.850801520049571991e-03 1.036274153739213943e-02 1.674535567872226238e-03 2.495932579040527344e-02 1.214043237268924713e-02 6.832337938249111176e-03 7.188238203525543213e-03 4.064170643687248230e-03 1.057574898004531860e-02 7.906536571681499481e-03 -3.352583572268486023e-02 -8.009273733478039503e-05 1.167636085301637650e-02 -1.006572246551513672e-01 8.053207769989967346e-03 7.635784335434436798e-03 2.829629462212324142e-03 5.821151193231344223e-03 1.005278341472148895e-02 7.805250585079193115e-03 9.030916728079319000e-03 3.431472461670637131e-03 5.623744335025548935e-03 5.723840091377496719e-03 6.965289823710918427e-03 1.037760637700557709e-02 3.854334354400634766e-03 4.762240219861268997e-03 7.604921702295541763e-03 9.571250528097152710e-03 -1.004947721958160400e-02 1.403403375297784805e-02 4.612400662153959274e-03 8.950872346758842468e-03 1.486983709037303925e-02 7.773266173899173737e-03 5.352456588298082352e-03 1.126840338110923767e-02 5.330404732376337051e-03 -8.736573159694671631e-03 1.289450563490390778e-02 5.868524312973022461e-04 1.284097880125045776e-02 -3.265886334702372551e-03 1.127398479729890823e-02 2.759988233447074890e-02 8.554398082196712494e-03 1.064687501639127731e-02 6.364785600453615189e-03 5.137268453836441040e-03 -5.344007536768913269e-02 3.161513479426503181e-03 4.055448342114686966e-03 -4.708211869001388550e-02 4.798538517206907272e-03 -2.210068330168724060e-02 -4.729218780994415283e-03 -1.648380607366561890e-02 1.423335634171962738e-02 1.349090714938938618e-03 -2.789476327598094940e-02 -5.640663206577301025e-02 6.656462326645851135e-03 3.787776920944452286e-03 -1.230112370103597641e-02 1.250812318176031113e-02 5.089842015877366066e-04 1.001162081956863403e-02 6.658331025391817093e-03 -1.580890500918030739e-03 -1.642537489533424377e-02 9.005815722048282623e-03 8.895494043827056885e-03 1.114122755825519562e-02 1.532081514596939087e-02 8.367517031729221344e-03 5.635764449834823608e-03 7.102220784872770309e-03 -4.256373737007379532e-03 1.025014743208885193e-02 1.077857334166765213e-02 4.408053588122129440e-03 2.161139622330665588e-02 6.875799037516117096e-03 1.885628327727317810e-03 1.014319434762001038e-02 -3.500723838806152344e-02 5.101724527776241302e-03 9.217413142323493958e-03 -3.018597327172756195e-02 -2.366897277534008026e-02 -4.920987877994775772e-03 5.028458777815103531e-03 -1.969653740525245667e-02 6.248480640351772308e-03 -2.965789462905377150e-04 6.368185393512248993e-03 3.773320640902966261e-04 -4.089808464050292969e-02 7.225781213492155075e-03 7.084283046424388885e-03 1.053559966385364532e-02 7.532700430601835251e-03 6.662818137556314468e-03 1.183011382818222046e-02 1.316939014941453934e-02 1.092767156660556793e-02 1.405564788728952408e-02 1.538192667067050934e-02 1.230159588158130646e-02 1.165505032986402512e-02 1.317164767533540726e-02 -4.228206817060709000e-03 4.549742210656404495e-03 1.023244671523571014e-02 1.842915080487728119e-02 1.111406274139881134e-02 8.620371110737323761e-03 -9.968056343495845795e-03 6.297964137047529221e-03 -2.000738680362701416e-02 7.797840051352977753e-03 1.197215262800455093e-02 7.715597283095121384e-03 4.154329944867640734e-04 1.020761393010616302e-02 -7.016397285042330623e-05 7.692901417613029480e-03 -3.047472273465245962e-05 6.473307963460683823e-03 -4.524660110473632812e-02 4.153896588832139969e-03 5.742737092077732086e-03 8.330544456839561462e-03 8.545096963644027710e-03 4.768308717757463455e-03 -5.424206703901290894e-02 -3.239873796701431274e-02 -3.668771311640739441e-02 -9.417142136953771114e-04 7.616347633302211761e-03 5.569006316363811493e-03 8.911401033401489258e-03 5.643896874971687794e-04 3.059334121644496918e-03 -5.081493034958839417e-02 -3.831649897620081902e-03 -2.047059312462806702e-02 8.767583407461643219e-03 7.616727147251367569e-03 9.424865245819091797e-03 9.124079719185829163e-03 5.355485249310731888e-03 1.050172839313745499e-02 6.800458300858736038e-03 9.745745919644832611e-03 -1.393566955812275410e-03 -7.675966713577508926e-03 -1.211351132951676846e-03 -2.935605309903621674e-02 8.500302210450172424e-03 -8.637194521725177765e-03 3.121067769825458527e-03 2.506649494171142578e-02 2.022117748856544495e-02 6.729211658239364624e-03 7.415243890136480331e-03 4.880185704678297043e-03 -2.262217365205287933e-02 1.279978640377521515e-02 3.740143962204456329e-03 7.027476094663143158e-03 1.288082078099250793e-02 -1.457937527447938919e-02 1.099267695099115372e-02 8.946547284722328186e-03 -5.873192846775054932e-02 -1.984707079827785492e-02 7.956515997648239136e-03 -7.395896245725452900e-04 7.200472988188266754e-03 -6.181289441883563995e-03 2.328948583453893661e-03 4.617286846041679382e-03 -7.577625662088394165e-02 -4.144926788285374641e-04 7.651791907846927643e-03 7.668585516512393951e-03 8.368685841560363770e-03 2.483770716935396194e-03 7.858962751924991608e-03 5.238498561084270477e-03 1.514846459031105042e-03 5.680097267031669617e-03 -7.951856590807437897e-03 -2.534089144319295883e-03 -2.399039827287197113e-02 9.441641159355640411e-03 9.420484304428100586e-03 1.254596840590238571e-02 4.680904094129800797e-03 -2.749856375157833099e-02 4.804053343832492828e-03 -1.762923970818519592e-02 3.694747341796755791e-03 -2.875502966344356537e-02 -3.175611840561032295e-03 3.512213937938213348e-03 -2.428517211228609085e-03 6.466257385909557343e-03 5.476631224155426025e-03 -6.461127777583897114e-04 6.325962487608194351e-03 1.138641219586133957e-02 5.783412139862775803e-03 -4.359055310487747192e-03 5.405753850936889648e-03 1.122911181300878525e-02 6.317713763564825058e-03 1.234414242208003998e-02 1.221797708421945572e-02 9.568750858306884766e-03 1.021842192858457565e-02 7.261515129357576370e-03 8.956138044595718384e-03 1.296476554125547409e-02 -4.044967703521251678e-03 7.928143255412578583e-03 6.800436880439519882e-03 7.681023795157670975e-03 2.471182029694318771e-03 2.594958990812301636e-03 5.400798749178647995e-03 1.250279974192380905e-02 -8.724997751414775848e-03 6.754103582352399826e-03
-1.211482100188732147e-03 -9.721211426949594170e-06 6.454466283321380615e-02 -2.803187258541584015e-02 5.003116652369499207e-02 -4.772982501890510321e-04 1.313444320112466812e-02 -3.251295909285545349e-02 2.234352566301822662e-02 -1.959147304296493530e-02 5.126786231994628906e-02 5.338715761899948120e-02 5.657947063446044922e-02 1.378460554406046867e-03 4.094715695828199387e-03 -7.867638953030109406e-03 -3.796492144465446472e-02 -5.810277536511421204e-03 -2.502971701323986053e-02 2.678880654275417328e-02 2.864881232380867004e-02 9.006268531084060669e-02 -1.873792149126529694e-02 -1.849302276968955994e-02 1.008544862270355225e-01 1.128157600760459900e-03 -7.273009978234767914e-03 1.045153941959142685e-02 -1.035650819540023804e-02 2.211339026689529419e-02 3.856037510558962822e-03 5.215536803007125854e-02 7.643662975169718266e-04 5.216010659933090210e-02 4.239038680680096149e-04 -1.067610085010528564e-02 3.045151941478252411e-02 4.890737310051918030e-02 -2.526350319385528564e-02 -2.299124002456665039e-02 1.278970669955015182e-02 3.288565203547477722e-02 -3.531012684106826782e-03 -6.750051863491535187e-03 -3.780993446707725525e-02 2.705452777445316315e-02 1.966270618140697479e-02 -3.373760264366865158e-03 -5.739428102970123291e-03 3.727630153298377991e-02 9.368524886667728424e-03 4.195109754800796509e-02 9.766914881765842438e-03 -3.869195235893130302e-03 4.078905284404754639e-02 2.345129288733005524e-02 8.039243519306182861e-03 4.527164273895323277e-04 -3.525895997881889343e-02 -4.263073578476905823e-02 -3.886504843831062317e-02 -4.994352534413337708e-02 4.824454709887504578e-02 -1.010842528194189072e-02 -6.149443215690553188e-04 -2.393350936472415924e-02 1.467103487811982632e-03 -2.396848797798156738e-02 -3.387107281014323235e-03 8.388976752758026123e-02 5.549703165888786316e-02 -3.615880385041236877e-02 3.121408808510750532e-04 5.014866590499877930e-02 4.264681600034236908e-03 -8.038850128650665283e-02 4.287581145763397217e-02 6.019205972552299500e-02 1.631404086947441101e-02 2.008331008255481720e-02 3.720699250698089600e-02 1.216723099350929260e-01 -1.210961211472749710e-02 1.819954137317836285e-03 4.747884348034858704e-03 -6.062259897589683533e-03 5.616460368037223816e-02 -2.703949995338916779e-02 3.443498909473419189e-02 -2.347431844100356102e-03 -3.793323412537574768e-02 -3.543064370751380920e-02 -4.204322118312120438e-03 -4.403677210211753845e-02 6.526667624711990356e-02 -7.381683215498924255e-03 6.250995676964521408e-03 1.111960224807262421e-02 2.509152702987194061e-02 1.042242720723152161e-02 -1.952297613024711609e-02 2.927865646779537201e-02 -2.813071757555007935e-02 8.276725187897682190e-03 4.017318133264780045e-03 1.438386854715645313e-03 2.676133625209331512e-02 1.847965642809867859e-02 -2.902781590819358826e-02 1.226956397294998169e-01 8.834923617541790009e-03 1.805186085402965546e-02 1.200088951736688614e-02 -3.707513213157653809e-02 8.765640668570995331e-03 -3.604529798030853271e-02 4.743082821369171143e-02 1.780474372208118439e-02 2.039173059165477753e-02 1.530882064253091812e-02 -6.679281068500131369e-05 1.470216829329729080e-02 -1.651067472994327545e-02 2.430173195898532867e-02 8.236031979322433472e-03 -8.247307501733303070e-03 1.561392750591039658e-02 2.786321006715297699e-02 4.263758286833763123e-02 1.730154268443584442e-02 7.283563166856765747e-02 1.176223717629909515e-02 1.390459686517715454e-01 -4.808779805898666382e-03 6.889851391315460205e-02 -5.110925808548927307e-02 -3.060634480789303780e-03 3.595172660425305367e-03 8.633391559123992920e-02 2.826662734150886536e-02 1.461093127727508545e-02 -3.580951690673828125e-02 3.740853071212768555e-02 2.029196918010711670e-02 5.450155213475227356e-02 1.196792162954807281e-02 -9.552669711410999298e-03 1.595720462501049042e-02 4.880264773964881897e-02 -2.255157334730029106e-03 6.131069734692573547e-03 -5.756701156497001648e-02 -4.827606026083230972e-03 -1.977190375328063965e-02 4.324945434927940369e-02 6.096635758876800537e-02 6.141374632716178894e-02 2.159408666193485260e-02 8.642682433128356934e-02 3.441747277975082397e-02 -3.468805924057960510e-03 -3.778234496712684631e-02 1.548060961067676544e-02 6.878248415887355804e-03 2.235774509608745575e-02 -3.951756516471505165e-04 2.913952246308326721e-02 9.421617724001407623e-03 2.741722762584686279e-02 -3.325527533888816833e-03 1.161730010062456131e-02 3.329615667462348938e-02 5.593554582446813583e-03 -3.325624763965606689e-02 -2.143012173473834991e-02 1.534402277320623398e-02 7.283635437488555908e-02 3.724442794919013977e-02 4.932811111211776733e-02 8.087535202503204346e-02 6.884249392896890640e-03 5.231846496462821960e-02 -3.206904605031013489e-02 9.114476852118968964e-03 -2.047388441860675812e-02 2.913758717477321625e-02 -2.094390365527942777e-04 3.611869644373655319e-03 -3.977627307176589966e-02 -6.551236379891633987e-03 -2.189346589148044586e-03 8.400714956223964691e-03 -7.611123472452163696e-02 4.383568465709686279e-02 7.825323194265365601e-02 3.880395367741584778e-02 9.930543601512908936e-02 3.742132335901260376e-02 -3.824945539236068726e-03 4.357795044779777527e-02 -8.363126963376998901e-02 -1.009555160999298096e-01 -5.345096811652183533e-02 5.460572894662618637e-03 -2.554411999881267548e-02 6.614913232624530792e-03 1.530954893678426743e-02 4.492091760039329529e-02 4.029371775686740875e-03 5.422479286789894104e-02 -1.531472895294427872e-03 7.567339111119508743e-03 -1.742238551378250122e-02 -4.829267971217632294e-03 1.104940939694643021e-02 3.433842211961746216e-02 1.177489105612039566e-02 1.916156895458698273e-02 -7.803104817867279053e-03 -2.431112108752131462e-03 -2.784236706793308258e-02 1.752257719635963440e-02 -1.386997103691101074e-02 2.762817777693271637e-02 7.809597067534923553e-03 8.535816520452499390e-02 -1.613072119653224945e-02 2.387816552072763443e-03 -3.087933175265789032e-02 -1.306479517370462418e-02 -3.088310174643993378e-02 4.680369980633258820e-03 3.941093012690544128e-02 2.299830690026283264e-02 5.295623838901519775e-02 2.080618962645530701e-02 -1.547956466674804688e-02 -1.742471754550933838e-02 -1.460397802293300629e-02 3.765139728784561157e-02 1.957934163510799408e-02 -2.270837686955928802e-02 1.980550587177276611e-02 1.743403635919094086e-02 6.002844776958227158e-03 -9.507388807833194733e-03 1.185194589197635651e-02 5.867752712219953537e-03 -1.480637025088071823e-02 -3.594949841499328613e-02 3.324459865689277649e-02 1.479086093604564667e-02 -1.949194818735122681e-02 -1.873514056205749512e-02 1.801760680973529816e-02 3.773088380694389343e-02
-4.967603056031476516e-42 -6.028385993525363039e-42 -4.956392668316877980e-42 4.950787474459578712e-42 4.977412145281750236e-42 4.981616040674724687e-42 4.910149818994159017e-42 -4.935373191352005724e-42 4.956392668316877980e-42 -4.991425129924998407e-42 -4.953590071388228346e-42 -4.991425129924998407e-42 4.959195265245527614e-42 4.905945923601184565e-42 -4.966201757567151699e-42 -4.936774489816330541e-42 -4.915755012851458285e-42 4.938175788280655358e-42 -4.974609548353100602e-42 -4.997030323782297675e-42 -4.974609548353100602e-42 -4.925564102101732004e-42 4.967603056031476516e-42 -4.943780982137954626e-42 4.967603056031476516e-42 -4.908748520529834199e-42 -4.950787474459578712e-42 -4.922761505173082370e-42 -4.943780982137954626e-42 -4.946583579066604260e-42 4.984418637603374321e-42 4.973208249888775785e-42 4.980214742210399870e-42 -4.946583579066604260e-42 -6.111062602920527246e-42 4.969004354495801333e-42 4.915755012851458285e-42 4.925564102101732004e-42 4.938175788280655358e-42 -4.942379683673629809e-42 4.935373191352005724e-42 5.009642009961221029e-42 -4.940978385209304992e-42 -5.229645868860217309e-42 4.946583579066604260e-42 4.956392668316877980e-42 -4.943780982137954626e-42 4.969004354495801333e-42 -4.922761505173082370e-42 4.939577086744980175e-42 -4.961997862174177248e-42 -4.905945923601184565e-42 5.173593930287224626e-42 -4.943780982137954626e-42 4.952188772923903529e-42 4.935373191352005724e-42 4.964800459102826882e-42 5.267480927396987370e-42 -4.978813443746075053e-42 4.981616040674724687e-42 -4.957793966781202797e-42 4.914353714387133468e-42 -4.977412145281750236e-42 4.942379683673629809e-42 4.954991369852553163e-42 4.919958908244432736e-42 4.940978385209304992e-42 4.933971892887680907e-42 4.959195265245527614e-42 -5.113338096321257492e-42 4.926965400566056821e-42 4.915755012851458285e-42 -4.954991369852553163e-42 4.910149818994159017e-42 4.926965400566056821e-42 4.967603056031476516e-42 -4.939577086744980175e-42 -5.323532865969980052e-42 4.973208249888775785e-42 -4.945182280602279443e-42 4.933971892887680907e-42 -4.932570594423356090e-42 4.961997862174177248e-42 4.963399160638502065e-42 -4.942379683673629809e-42 4.974609548353100602e-42 -4.939577086744980175e-42 -6.175522332279468832e-42 -4.926965400566056821e-42 -4.932570594423356090e-42 4.971806951424450968e-42 -4.945182280602279443e-42 -4.905945923601184565e-42 -4.925564102101732004e-42 -4.924162803637407187e-42 -4.981616040674724687e-42 -4.952188772923903529e-42 -4.938175788280655358e-42 -4.939577086744980175e-42 4.949386175995253895e-42 4.947984877530929077e-42 4.919958908244432736e-42 -4.936774489816330541e-42 -4.959195265245527614e-42 -4.940978385209304992e-42 4.940978385209304992e-42 -4.912952415922808651e-42 5.777553568411220783e-42 4.907347222065509382e-42 -4.940978385209304992e-42 4.925564102101732004e-42 4.964800459102826882e-42 4.925564102101732004e-42 -4.969004354495801333e-42 -5.229645868860217309e-42 -4.911551117458483834e-42 4.945182280602279443e-42 -4.928366699030381638e-42 4.939577086744980175e-42 -4.983017339139049504e-42 4.946583579066604260e-42 4.954991369852553163e-42 4.954991369852553163e-42 -4.943780982137954626e-42 -4.912952415922808651e-42 4.957793966781202797e-42 4.932570594423356090e-42 -4.931169295959031273e-42 4.932570594423356090e-42 -4.970405652960126151e-42 4.945182280602279443e-42 4.914353714387133468e-42 4.915755012851458285e-42 -4.907347222065509382e-42 4.945182280602279443e-42 4.924162803637407187e-42 4.954991369852553163e-42 4.957793966781202797e-42 -4.922761505173082370e-42 -4.912952415922808651e-42 4.971806951424450968e-42 -4.964800459102826882e-42 4.932570594423356090e-42 -5.268882225861312187e-42 4.953590071388228346e-42 4.917156311315783102e-42 -4.939577086744980175e-42 -4.943780982137954626e-42 -4.942379683673629809e-42 4.925564102101732004e-42 -4.950787474459578712e-42 -4.929767997494706456e-42 4.943780982137954626e-42 -4.954991369852553163e-42 -4.938175788280655358e-42 5.815388626947990844e-42 4.966201757567151699e-42 4.924162803637407187e-42 -4.961997862174177248e-42 -4.936774489816330541e-42 4.918557609780107919e-42 -4.942379683673629809e-42 -4.932570594423356090e-42 4.922761505173082370e-42 4.969004354495801333e-42 4.963399160638502065e-42 4.910149818994159017e-42 4.947984877530929077e-42 4.949386175995253895e-42 -4.933971892887680907e-42 -4.917156311315783102e-42 -4.917156311315783102e-42 -5.519714650975454442e-42 4.961997862174177248e-42 -4.945182280602279443e-42 4.921360206708757553e-42 -4.966201757567151699e-42 4.961997862174177248e-42 -4.954991369852553163e-42 -4.977412145281750236e-42 5.015247203818520297e-42 -4.939577086744980175e-42 4.928366699030381638e-42 -4.912952415922808651e-42 -4.924162803637407187e-42 4.954991369852553163e-42 -5.364170521435399747e-42 4.953590071388228346e-42 4.960596563709852431e-42 -4.991425129924998407e-42 4.959195265245527614e-42 4.907347222065509382e-42 -4.991425129924998407e-42 -4.949386175995253895e-42 4.910149818994159017e-42 4.936774489816330541e-42 -4.908748520529834199e-42 -4.938175788280655358e-42 4.969004354495801333e-42 -4.938175788280655358e-42 -4.926965400566056821e-42 -4.971806951424450968e-42 -4.959195265245527614e-42 -4.957793966781202797e-42 4.956392668316877980e-42 -4.943780982137954626e-42 -4.956392668316877980e-42 4.949386175995253895e-42 6.300237895604377551e-42 -4.914353714387133468e-42 4.976010846817425419e-42 4.919958908244432736e-42 -4.980214742210399870e-42 4.915755012851458285e-42 4.992826428389323224e-42 -4.908748520529834199e-42 -4.946583579066604260e-42 4.963399160638502065e-42 4.967603056031476516e-42 -4.970405652960126151e-42 -4.929767997494706456e-42 4.988622532996348772e-42 4.918557609780107919e-42 4.950787474459578712e-42 4.945182280602279443e-42 -4.924162803637407187e-42 4.918557609780107919e-42 4.976010846817425419e-42 -4.935373191352005724e-42 4.960596563709852431e-42 4.939577086744980175e-42 4.954991369852553163e-42 4.964800459102826882e-42 -4.940978385209304992e-42 4.963399160638502065e-42 4.981616040674724687e-42 -4.945182280602279443e-42 -4.950787474459578712e-42 4.933971892887680907e-42 -4.959195265245527614e-42 4.963399160638502065e-42 4.914353714387133468e-42 4.935373191352005724e-42 -4.917156311315783102e-42 -4.940978385209304992e-42 -4.966201757567151699e-42 4.988622532996348772e-42 -5.193212108787772065e-42 -4.945182280602279443e-42 -4.956392668316877980e-42 4.939577086744980175e-42 -5.005438114568246577e-42 4.945182280602279443e-42 5.329138059827279321e-42 4.961997862174177248e-42 -4.978813443746075053e-42
-5.647232811229012796e-42 4.939577086744980175e-42 4.935373191352005724e-42 -4.926965400566056821e-42 -5.878447057842607613e-42 5.001234219175272126e-42 4.914353714387133468e-42 4.969004354495801333e-42 -5.906473027129103954e-42 4.911551117458483834e-42 4.931169295959031273e-42 4.994227726853648041e-42 4.949386175995253895e-42 4.976010846817425419e-42 4.935373191352005724e-42 4.957793966781202797e-42 -4.935373191352005724e-42 -4.910149818994159017e-42 4.925564102101732004e-42 -4.924162803637407187e-42 -4.985819936067699138e-42 4.924162803637407187e-42 -4.925564102101732004e-42 5.201619899573720967e-42 -4.910149818994159017e-42 -4.971806951424450968e-42 4.940978385209304992e-42 5.600989961906293832e-42 -4.907347222065509382e-42 4.952188772923903529e-42 -5.004036816103921760e-42 -4.931169295959031273e-42 -4.966201757567151699e-42 -5.004036816103921760e-42 -4.921360206708757553e-42 4.908748520529834199e-42 4.905945923601184565e-42 -4.971806951424450968e-42 5.844815894698812003e-42 -4.964800459102826882e-42 -4.942379683673629809e-42 -4.988622532996348772e-42 4.922761505173082370e-42 -4.918557609780107919e-42 -4.959195265245527614e-42 4.954991369852553163e-42 4.939577086744980175e-42 4.931169295959031273e-42 5.711692540587954381e-42 4.905945923601184565e-42 -4.966201757567151699e-42 4.966201757567151699e-42 -4.907347222065509382e-42 4.945182280602279443e-42 4.931169295959031273e-42 -4.953590071388228346e-42 -4.971806951424450968e-42 -4.943780982137954626e-42 -4.973208249888775785e-42 4.991425129924998407e-42 -4.939577086744980175e-42 -4.931169295959031273e-42 -4.939577086744980175e-42 4.956392668316877980e-42 4.961997862174177248e-42 4.928366699030381638e-42 4.973208249888775785e-42 4.963399160638502065e-42 -4.928366699030381638e-42 4.959195265245527614e-42 -4.925564102101732004e-42 4.969004354495801333e-42 4.938175788280655358e-42 4.964800459102826882e-42 -4.928366699030381638e-42 4.953590071388228346e-42 -4.942379683673629809e-42 -4.959195265245527614e-42 4.970405652960126151e-42 -4.959195265245527614e-42 -4.924162803637407187e-42 4.924162803637407187e-42 4.957793966781202797e-42 4.956392668316877980e-42 -4.964800459102826882e-42 -4.949386175995253895e-42 4.976010846817425419e-42 4.928366699030381638e-42 -4.959195265245527614e-42 4.911551117458483834e-42 -4.910149818994159017e-42 4.915755012851458285e-42 4.997030323782297675e-42 4.966201757567151699e-42 4.952188772923903529e-42 -4.991425129924998407e-42 -4.908748520529834199e-42 4.952188772923903529e-42 -4.959195265245527614e-42 -4.950787474459578712e-42 4.922761505173082370e-42 4.983017339139049504e-42 4.964800459102826882e-42 -4.925564102101732004e-42 4.943780982137954626e-42 -4.967603056031476516e-42 -4.943780982137954626e-42 -4.935373191352005724e-42 -4.908748520529834199e-42 -4.952188772923903529e-42 4.925564102101732004e-42 -4.933971892887680907e-42 -4.953590071388228346e-42 4.987221234532023955e-42 4.914353714387133468e-42 -4.928366699030381638e-42 -4.995629025317972858e-42 4.988622532996348772e-42 -4.995629025317972858e-42 5.033464083854742919e-42 -4.914353714387133468e-42 -4.943780982137954626e-42 4.940978385209304992e-42 4.983017339139049504e-42 4.960596563709852431e-42 -4.926965400566056821e-42 4.911551117458483834e-42 4.914353714387133468e-42 -6.039596381239961576e-42 -4.961997862174177248e-42 -4.961997862174177248e-42 -4.960596563709852431e-42 4.921360206708757553e-42 5.640226318907388710e-42 -4.939577086744980175e-42 4.942379683673629809e-42 -4.940978385209304992e-42 4.945182280602279443e-42 4.924162803637407187e-42 4.938175788280655358e-42 -4.997030323782297675e-42 4.932570594423356090e-42 -4.943780982137954626e-42 4.977412145281750236e-42 -4.954991369852553163e-42 4.946583579066604260e-42 4.959195265245527614e-42 -4.933971892887680907e-42 -4.949386175995253895e-42 -4.959195265245527614e-42 4.935373191352005724e-42 4.954991369852553163e-42 -4.950787474459578712e-42 4.946583579066604260e-42 -4.956392668316877980e-42 -4.992826428389323224e-42 -4.932570594423356090e-42 4.947984877530929077e-42 -4.969004354495801333e-42 6.265205433996257124e-42 4.945182280602279443e-42 4.932570594423356090e-42 -4.911551117458483834e-42 4.963399160638502065e-42 4.936774489816330541e-42 4.918557609780107919e-42 4.988622532996348772e-42 -4.910149818994159017e-42 -4.942379683673629809e-42 -4.991425129924998407e-42 4.933971892887680907e-42 -5.001234219175272126e-42 5.596786066513319381e-42 4.928366699030381638e-42 4.946583579066604260e-42 -4.971806951424450968e-42 4.947984877530929077e-42 -5.287099105897534809e-42 -4.918557609780107919e-42 -4.960596563709852431e-42 -4.932570594423356090e-42 4.943780982137954626e-42 -4.939577086744980175e-42 -4.940978385209304992e-42 4.918557609780107919e-42 -4.925564102101732004e-42 -4.960596563709852431e-42 4.946583579066604260e-42 -5.025056293068794016e-42 -5.008240711496896211e-42 -4.964800459102826882e-42 4.935373191352005724e-42 4.939577086744980175e-42 -4.912952415922808651e-42 -4.980214742210399870e-42 -4.994227726853648041e-42 -4.938175788280655358e-42 4.935373191352005724e-42 4.924162803637407187e-42 4.931169295959031273e-42 -4.950787474459578712e-42 4.970405652960126151e-42 -4.928366699030381638e-42 5.610799051156567552e-42 4.956392668316877980e-42 4.938175788280655358e-42 4.921360206708757553e-42 -4.911551117458483834e-42 -4.990023831460673590e-42 5.128752379428830480e-42 4.911551117458483834e-42 4.914353714387133468e-42 4.907347222065509382e-42 -4.905945923601184565e-42 4.925564102101732004e-42 -4.990023831460673590e-42 -4.956392668316877980e-42 4.931169295959031273e-42 -6.118069095242151332e-42 4.911551117458483834e-42 4.966201757567151699e-42 -4.917156311315783102e-42 -4.956392668316877980e-42 -5.026457591533118833e-42 -4.933971892887680907e-42 4.945182280602279443e-42 4.939577086744980175e-42 4.964800459102826882e-42 4.967603056031476516e-42 4.973208249888775785e-42 -4.931169295959031273e-42 4.967603056031476516e-42 4.964800459102826882e-42 -4.992826428389323224e-42 4.911551117458483834e-42 4.940978385209304992e-42 -4.938175788280655358e-42 4.924162803637407187e-42 5.595384768048994564e-42 4.912952415922808651e-42 -4.959195265245527614e-42 -5.004036816103921760e-42 -4.926965400566056821e-42 -4.960596563709852431e-42 4.915755012851458285e-42 4.939577086744980175e-42 4.947984877530929077e-42 -4.935373191352005724e-42 -4.928366699030381638e-42 4.963399160638502065e-42 4.907347222065509382e-42 -4.929767997494706456e-42 4.947984877530929077e-42 -4.987221234532023955e-42 -4.912952415922808651e-42 -4.957793966781202797e-42
-4.950787474459578712e-42 4.914353714387133468e-42 4.942379683673629809e-42 4.918557609780107919e-42 6.282021015568154929e-42 -4.939577086744980175e-42 4.905945923601184565e-42 4.924162803637407187e-42 -4.910149818994159017e-42 4.939577086744980175e-42 4.907347222065509382e-42 -4.917156311315783102e-42 -4.914353714387133468e-42 4.924162803637407187e-42 -4.935373191352005724e-42 4.929767997494706456e-42 4.938175788280655358e-42 -4.938175788280655358e-42 4.925564102101732004e-42 -4.946583579066604260e-42 4.942379683673629809e-42 4.922761505173082370e-42 4.950787474459578712e-42 4.945182280602279443e-42 -4.918557609780107919e-42 4.947984877530929077e-42 4.925564102101732004e-42 -4.932570594423356090e-42 -4.908748520529834199e-42 4.947984877530929077e-42 4.931169295959031273e-42 4.924162803637407187e-42 4.932570594423356090e-42 -4.915755012851458285e-42 -4.938175788280655358e-42 4.952188772923903529e-42 4.949386175995253895e-42 -4.926965400566056821e-42 -4.912952415922808651e-42 -4.915755012851458285e-42 -4.940978385209304992e-42 4.921360206708757553e-42 -4.905945923601184565e-42 -4.945182280602279443e-42 5.969531458023720722e-42 -4.908748520529834199e-42 -4.912952415922808651e-42 4.914353714387133468e-42 -4.950787474459578712e-42 4.933971892887680907e-42 -4.917156311315783102e-42 4.947984877530929077e-42 -4.928366699030381638e-42 -4.947984877530929077e-42 -5.231047167324542126e-42 4.919958908244432736e-42 -4.925564102101732004e-42 4.931169295959031273e-42 4.918557609780107919e-42 -4.936774489816330541e-42 4.922761505173082370e-42 4.919958908244432736e-42 4.939577086744980175e-42 4.949386175995253895e-42 4.938175788280655358e-42 -4.952188772923903529e-42 -4.931169295959031273e-42 4.921360206708757553e-42 4.932570594423356090e-42 -4.912952415922808651e-42 4.946583579066604260e-42 4.907347222065509382e-42 4.910149818994159017e-42 -4.914353714387133468e-42 4.914353714387133468e-42 4.928366699030381638e-42 4.938175788280655358e-42 4.935373191352005724e-42 4.931169295959031273e-42 -4.946583579066604260e-42 -4.928366699030381638e-42 -4.933971892887680907e-42 -4.918557609780107919e-42 -4.945182280602279443e-42 4.919958908244432736e-42 5.498695174010582186e-42 -4.910149818994159017e-42 4.924162803637407187e-42 -4.911551117458483834e-42 -4.935373191352005724e-42 -4.942379683673629809e-42 -4.938175788280655358e-42 4.936774489816330541e-42 4.931169295959031273e-42 -4.924162803637407187e-42 -4.925564102101732004e-42 4.925564102101732004e-42 -4.922761505173082370e-42 -4.910149818994159017e-42 -4.907347222065509382e-42 -5.558951007976549320e-42 4.942379683673629809e-42 4.912952415922808651e-42 4.949386175995253895e-42 4.947984877530929077e-42 4.907347222065509382e-42 -4.933971892887680907e-42 4.926965400566056821e-42 5.418821161544067613e-42 4.943780982137954626e-42 4.908748520529834199e-42 4.946583579066604260e-42 6.038195082775636759e-42 4.935373191352005724e-42 4.932570594423356090e-42 5.369775715292699016e-42 -4.935373191352005724e-42 4.935373191352005724e-42 4.926965400566056821e-42 -4.929767997494706456e-42 4.936774489816330541e-42 4.945182280602279443e-42 -4.908748520529834199e-42 4.932570594423356090e-42 -4.926965400566056821e-42 -4.915755012851458285e-42 4.952188772923903529e-42 -4.926965400566056821e-42 -4.926965400566056821e-42 -4.922761505173082370e-42 -4.910149818994159017e-42 4.919958908244432736e-42 4.940978385209304992e-42 4.908748520529834199e-42 -4.910149818994159017e-42 4.932570594423356090e-42 -4.915755012851458285e-42 4.924162803637407187e-42 4.952188772923903529e-42 -4.917156311315783102e-42 -4.925564102101732004e-42 -4.911551117458483834e-42 -4.946583579066604260e-42 -4.946583579066604260e-42 4.928366699030381638e-42 4.938175788280655358e-42 4.942379683673629809e-42 4.932570594423356090e-42 4.907347222065509382e-42 4.942379683673629809e-42 -4.915755012851458285e-42 4.952188772923903529e-42 4.931169295959031273e-42 4.929767997494706456e-42 -4.915755012851458285e-42 4.905945923601184565e-42 -4.940978385209304992e-42 4.952188772923903529e-42 -4.928366699030381638e-42 -4.946583579066604260e-42 4.933971892887680907e-42 4.928366699030381638e-42 -4.940978385209304992e-42 4.911551117458483834e-42 -4.950787474459578712e-42 -4.929767997494706456e-42 -4.939577086744980175e-42 -4.949386175995253895e-42 -4.926965400566056821e-42 4.947984877530929077e-42 4.921360206708757553e-42 -4.940978385209304992e-42 4.946583579066604260e-42 4.921360206708757553e-42 4.922761505173082370e-42 4.932570594423356090e-42 6.217561286209213344e-42 4.912952415922808651e-42 -4.929767997494706456e-42 -4.905945923601184565e-42 4.919958908244432736e-42 -4.929767997494706456e-42 4.915755012851458285e-42 -4.911551117458483834e-42 4.936774489816330541e-42 -4.942379683673629809e-42 -4.926965400566056821e-42 -4.947984877530929077e-42 -4.911551117458483834e-42 -4.908748520529834199e-42 4.905945923601184565e-42 4.907347222065509382e-42 4.925564102101732004e-42 -5.560352306440874137e-42 -4.926965400566056821e-42 4.945182280602279443e-42 4.943780982137954626e-42 4.918557609780107919e-42 -4.946583579066604260e-42 4.949386175995253895e-42 4.940978385209304992e-42 4.908748520529834199e-42 4.928366699030381638e-42 4.924162803637407187e-42 -4.917156311315783102e-42 -4.949386175995253895e-42 -4.919958908244432736e-42 -4.946583579066604260e-42 5.507102964796531089e-42 -4.942379683673629809e-42 4.940978385209304992e-42 4.935373191352005724e-42 4.912952415922808651e-42 4.928366699030381638e-42 -4.932570594423356090e-42 -4.907347222065509382e-42 -4.933971892887680907e-42 -4.907347222065509382e-42 -4.925564102101732004e-42 4.912952415922808651e-42 -4.942379683673629809e-42 -4.943780982137954626e-42 4.949386175995253895e-42 4.908748520529834199e-42 -4.921360206708757553e-42 5.315125075184031150e-42 -4.919958908244432736e-42 -4.950787474459578712e-42 -5.863032774735034625e-42 -4.940978385209304992e-42 4.938175788280655358e-42 -4.905945923601184565e-42 4.949386175995253895e-42 -4.933971892887680907e-42 -4.932570594423356090e-42 4.949386175995253895e-42 4.936774489816330541e-42 4.915755012851458285e-42 4.932570594423356090e-42 4.921360206708757553e-42 -4.915755012851458285e-42 -4.910149818994159017e-42 -4.945182280602279443e-42 4.914353714387133468e-42 4.924162803637407187e-42 -4.933971892887680907e-42 -4.946583579066604260e-42 -5.320730269041330418e-42 -4.907347222065509382e-42 5.232448465788866943e-42 -4.933971892887680907e-42 4.917156311315783102e-42 -4.952188772923903529e-42 4.922761505173082370e-42 -4.942379683673629809e-42 4.952188772923903529e-42
