1.809349469840526581e-02 1.781736686825752258e-02 -3.188800066709518433e-02 9.809089250273719496e-45 -4.086313769221305847e-02 -2.454873174428939819e-02 1.067963335663080215e-02 1.973188854753971100e-02 -2.418678998947143555e-02 1.954047568142414093e-02 1.073457859456539154e-02 -1.722864620387554169e-02 9.809089250273719496e-45 -9.809089250273719496e-45 9.809089250273719496e-45 -3.173283115029335022e-02 1.071452908217906952e-02 1.782550103962421417e-02 1.777871698141098022e-02 9.413751773536205292e-03 1.782662235200405121e-02 -2.925876341760158539e-02 1.902448944747447968e-02 1.782679185271263123e-02 1.780426688492298126e-02 -2.976836264133453369e-02 -9.809089250273719496e-45 1.781376637518405914e-02 9.809089250273719496e-45 -3.216445446014404297e-02 -1.044261548668146133e-02 -2.094514854252338409e-02 -9.809089250273719496e-45 1.069653127342462540e-02 1.984427496790885925e-02 1.000916492193937302e-02 1.782221533358097076e-02 -3.683846443891525269e-02 9.809089250273719496e-45 -9.809089250273719496e-45 1.074737031012773514e-02 1.048773713409900665e-02 1.781931892037391663e-02 -9.809089250273719496e-45 1.021745149046182632e-02 1.076832693070173264e-02 -8.392524905502796173e-03 9.809089250273719496e-45 -2.250885963439941406e-02 -1.277709472924470901e-02 1.071024127304553986e-02 1.782412827014923096e-02 -2.504559792578220367e-02 -2.942472510039806366e-02 -9.809089250273719496e-45 -3.722839802503585815e-02 -2.093438059091567993e-02 -9.809089250273719496e-45 1.070194132626056671e-02 1.069034449756145477e-02 -3.288684412837028503e-02 1.782008260488510132e-02 1.782369986176490784e-02 -9.809089250273719496e-45 1.782927848398685455e-02 8.536227978765964508e-03 1.780558936297893524e-02 -1.195077784359455109e-02 -3.657533228397369385e-02 1.781203225255012512e-02 1.064863521605730057e-02 9.909354150295257568e-03 1.918946392834186554e-02 -9.809089250273719496e-45 1.780691929161548615e-02 1.784064993262290955e-02 -2.678354270756244659e-02 1.062475517392158508e-02 1.782276667654514313e-02 -3.473904728889465332e-02 9.809089250273719496e-45 1.052663940936326981e-02 -2.362873591482639313e-02 1.060652174055576324e-02 1.055088452994823456e-02 1.782562211155891418e-02 1.780911721289157867e-02 -3.146093338727951050e-02 9.809089250273719496e-45 -1.674865372478961945e-02 1.781599968671798706e-02 1.074494887143373489e-02 -3.141567111015319824e-02 -2.968394570052623749e-02 -9.809089250273719496e-45 1.074420195072889328e-02 1.980833895504474640e-02 -6.427165120840072632e-03 1.010483875870704651e-02 -1.215711422264575958e-02 1.066367980092763901e-02 1.067450828850269318e-02 1.934367977082729340e-02 -2.401405759155750275e-02 -3.690088540315628052e-02 -3.324676305055618286e-02 1.064403448253870010e-02 1.780578494071960449e-02 1.956332288682460785e-02 1.067097857594490051e-02 1.034714002162218094e-02 1.070626359432935715e-02 -9.809089250273719496e-45 -5.477327853441238403e-02 -1.078076940029859543e-02 -2.233572490513324738e-02 1.025462150573730469e-02 9.809089250273719496e-45 -2.751500718295574188e-02 -9.809089250273719496e-45 1.817983761429786682e-02 1.036176923662424088e-02 -2.720352634787559509e-02 -1.533571071922779083e-02 1.068613026291131973e-02 8.821479976177215576e-03 1.951845921576023102e-02 1.782391779124736786e-02 1.825682073831558228e-02 9.809089250273719496e-45 1.121038771459853657e-44 1.071130484342575073e-02 -6.607268471270799637e-03 -2.261859178543090820e-02 1.782428659498691559e-02 1.782513596117496490e-02 -1.522462908178567886e-02 -3.022032231092453003e-02 9.809089250273719496e-45 1.781528256833553314e-02 -3.957101702690124512e-02 1.779528521001338959e-02 1.062780711799860001e-02 8.513075299561023712e-03 1.780314929783344269e-02 1.780952140688896179e-02 1.945495977997779846e-02 1.063279248774051666e-02 -1.228452473878860474e-02 1.780263334512710571e-02 -1.919807255035266280e-04 9.125986136496067047e-03 -1.229333691298961639e-02 1.996467635035514832e-02 1.071685925126075745e-02 1.780919730663299561e-02 1.045221183449029922e-02 -2.565611526370048523e-02 1.063000317662954330e-02 -9.809089250273719496e-45 -1.615159213542938232e-02 1.064839493483304977e-02 9.809089250273719496e-45 -9.809089250273719496e-45 9.809089250273719496e-45 9.809089250273719496e-45 1.783211156725883484e-02 1.779730059206485748e-02 -9.809089250273719496e-45 9.809089250273719496e-45 1.780796796083450317e-02 1.807313226163387299e-02 -2.490155212581157684e-02 1.780561171472072601e-02 -3.070353344082832336e-02 -3.038505278527736664e-02 -9.809089250273719496e-45 1.780206151306629181e-02 -2.592326700687408447e-02 1.779672876000404358e-02 9.809089250273719496e-45 1.955358311533927917e-02 -1.563168875873088837e-02 1.924400962889194489e-02 1.873577199876308441e-02 -3.743125870823860168e-02 1.782067492604255676e-02 1.877153292298316956e-02 -4.659346118569374084e-02 -9.809089250273719496e-45 -1.208047382533550262e-02 -1.772114261984825134e-02 9.828079491853713989e-03 -2.580744773149490356e-02 -3.407866507768630981e-02 -1.890273578464984894e-02 -1.504022255539894104e-02 -1.540795061737298965e-02 1.067423820495605469e-02 -9.809089250273719496e-45 -3.659587725996971130e-02 1.078624743968248367e-02 1.121038771459853657e-44 -2.963782846927642822e-02 1.782109215855598450e-02 1.167472917586565018e-02 1.781871169805526733e-02 1.074565388262271881e-02 9.809089250273719496e-45 -3.531626611948013306e-02 1.070011314004659653e-02 9.809089250273719496e-45 -3.017829358577728271e-02 -9.809089250273719496e-45 -1.261168617892335364e-44 -8.640876971185207367e-03 -2.579005248844623566e-02 -9.809089250273719496e-45 1.781989447772502899e-02 1.040607038885354996e-02 1.068202871829271317e-02 -6.310263648629188538e-03 9.809089250273719496e-45 -9.822824038565158844e-03 1.027716416865587234e-02 9.809089250273719496e-45 1.782213710248470306e-02 1.063232682645320892e-02 1.825895346701145172e-02 -1.027236972004175186e-02 8.808648213744163513e-03 9.809089250273719496e-45 -1.259051822125911713e-02 1.782548427581787109e-02 9.803555905818939209e-03 1.782051287591457367e-02 -2.535229548811912537e-02 -3.319648653268814087e-02 1.779986917972564697e-02 1.780442148447036743e-02 1.780271902680397034e-02 -9.809089250273719496e-45 1.780039630830287933e-02 -9.809089250273719496e-45 1.780093461275100708e-02 1.939950697124004364e-02 -2.131137996912002563e-02 9.809089250273719496e-45 -7.727078162133693695e-03 9.333753027021884918e-03 1.070434506982564926e-02 8.881347253918647766e-03 -3.305851668119430542e-02 1.781349629163742065e-02 -9.809089250273719496e-45 1.891165599226951599e-02
