6.303895264863967896e-02
-1.568869873881340027e-02
-6.891608238220214844e-02
-2.007593214511871338e-02
3.289678599685430527e-03
-1.286861952394247055e-02
2.968573198813828640e-06
3.822197671979665756e-03
1.209013313055038452e-01
2.292335964739322662e-03
7.970434613525867462e-03
5.131242796778678894e-03
-2.010983647778630257e-03
-2.256080694496631622e-02
-8.080017752945423126e-03
1.338363438844680786e-01
-1.878776960074901581e-02
-1.299104094505310059e-02
-3.363171592354774475e-03
-2.007885277271270752e-02
2.722433581948280334e-02
5.705942865461111069e-03
2.785670943558216095e-02
-1.143249776214361191e-02
-9.724743664264678955e-03
-8.501163870096206665e-02
-2.734023705124855042e-02
1.521030068397521973e-02
9.438374079763889313e-03
3.859231481328606606e-03
-3.555929753929376602e-03
5.742187146097421646e-03
-4.797528381459414959e-04
1.650670729577541351e-02
-1.725569553673267365e-02
-1.114206109195947647e-02
1.994423335418105125e-03
1.414015609771013260e-02
-6.698453798890113831e-03
-8.517489768564701080e-03
-7.348165847361087799e-03
-2.564482018351554871e-02
-2.369126304984092712e-02
-1.553161814808845520e-02
4.472032934427261353e-02
-7.352990098297595978e-03
-1.454304158687591553e-02
1.841016579419374466e-03
5.152288358658552170e-03
-3.464841842651367188e-02
1.213743444532155991e-02
-1.969570852816104889e-02
2.304741210537031293e-04
-6.368937436491250992e-03
-4.569495096802711487e-03
-2.388407662510871887e-02
2.324112923815846443e-03
4.503395408391952515e-03
-1.504259533248841763e-03
1.324282493442296982e-02
-2.349517680704593658e-02
2.420332515612244606e-03
-6.600154936313629150e-02
7.442121393978595734e-03
5.097993463277816772e-02
6.146841123700141907e-02
-2.057503908872604370e-02
-1.259397529065608978e-02
-5.004629958420991898e-03
4.130823363084346056e-04
-1.002827100455760956e-02
6.067965552210807800e-02
1.889283955097198486e-02
-1.375823374837636948e-02
-1.041730050928890705e-03
-1.225503068417310715e-02
1.756335794925689697e-02
8.073394000530242920e-02
-1.885024644434452057e-02
2.452775090932846069e-02
-2.577557601034641266e-02
-8.968468755483627319e-03
2.567323856055736542e-02
-7.502138614654541016e-03
-4.348142445087432861e-02
5.483568832278251648e-02
-3.973964974284172058e-02
-2.314394339919090271e-03
1.260571368038654327e-02
-7.723761256784200668e-03
8.094565011560916901e-03
2.284422516822814941e-02
-7.423084974288940430e-02
3.612577915191650391e-02
3.926986455917358398e-02
-6.859376560896635056e-03
-1.103211077861487865e-03
7.025007158517837524e-02
6.123534590005874634e-02
1.706624403595924377e-02
2.448332728818058968e-03
1.909264363348484039e-02
9.705667942762374878e-02
-2.976686507463455200e-02
-6.605742033571004868e-03
4.156982060521841049e-03
3.497756272554397583e-02
-2.146817371249198914e-02
-2.924160286784172058e-02
2.619958715513348579e-03
-1.914147287607192993e-02
1.689980179071426392e-02
2.611996978521347046e-02
1.082501653581857681e-02
-7.342671975493431091e-03
-2.899006567895412445e-02
7.062410935759544373e-03
9.226647671312093735e-04
5.799212306737899780e-02
3.856420889496803284e-02
-4.617291036993265152e-03
2.091268077492713928e-02
1.132949218153953552e-01
-7.146125659346580505e-03
-3.734065219759941101e-02
-6.296410411596298218e-02
-2.025629580020904541e-02
1.018551737070083618e-02
2.318739145994186401e-02
2.886659232899546623e-03
4.264311194419860840e-01
2.399971336126327515e-02
8.387500420212745667e-03
-1.340080890804529190e-02
1.067012697458267212e-01
4.104986321181058884e-03
-2.884851396083831787e-02
-2.372509054839611053e-02
1.327714882791042328e-02
2.312246710062026978e-03
-1.375950407236814499e-02
-7.083802483975887299e-04
-2.975971205160021782e-03
1.376521140336990356e-01
-5.055538844317197800e-03
2.378774434328079224e-02
5.824517458677291870e-03
4.199767112731933594e-02
4.122245125472545624e-03
-6.065120920538902283e-03
-3.545797988772392273e-02
2.823164220899343491e-03
3.694025427103042603e-02
-2.558843046426773071e-02
1.411735574947670102e-04
6.110925693064928055e-03
-1.089143101125955582e-02
4.269939847290515900e-03
8.041957765817642212e-02
3.108714707195758820e-03
6.029735505580902100e-02
-1.152781769633293152e-03
6.577517837285995483e-03
9.701152332127094269e-03
-6.547845434397459030e-03
1.808433677069842815e-03
-6.684569176286458969e-03
1.495626661926507950e-02
-4.911159165203571320e-03
3.346537798643112183e-02
-2.518055774271488190e-02
-1.259033288806676865e-02
-6.688592955470085144e-03
1.990012126043438911e-03
8.330266922712326050e-02
1.517803817987442017e-01
5.815703049302101135e-02
-3.167957300320267677e-03
2.447355538606643677e-03
3.945235535502433777e-02
3.022093558683991432e-03
2.253503073006868362e-03
4.173926543444395065e-03
7.144470699131488800e-03
-1.681403070688247681e-02
3.595860674977302551e-02
2.882484346628189087e-02
-1.731764897704124451e-02
5.915964022278785706e-02
8.243912830948829651e-03
1.079103094525635242e-03
-4.366402048617601395e-03
-7.056677341461181641e-02
3.726351540535688400e-03
-6.723296246491372585e-04
-7.302186568267643452e-04
-1.788035966455936432e-02
5.024155229330062866e-02
1.186462584882974625e-02
1.321591734886169434e+00
5.581203103065490723e-02
5.502390488982200623e-02
1.711293298285454512e-04
-1.748548820614814758e-02
2.408788353204727173e-02
-1.428026426583528519e-02
-6.954921409487724304e-03
1.420633867383003235e-02
4.086774773895740509e-03
-7.822248153388500214e-03
4.783512558788061142e-03
-3.324872255325317383e-02
8.676081895828247070e-02
6.935887038707733154e-02
1.180988736450672150e-02
-1.660609431564807892e-02
5.052805412560701370e-03
2.999194152653217316e-02
2.999637275934219360e-03
3.018673975020647049e-03
-6.487237289547920227e-03
1.586843281984329224e-02
-1.178213953971862793e-02
-6.291602272540330887e-03
1.494979765266180038e-02
-4.417536256369203329e-04
-9.232719312421977520e-04
-2.017034421442076564e-04
4.238076880574226379e-02
-2.302434667944908142e-02
9.045938402414321899e-02
2.028056653216481209e-03
5.626073852181434631e-02
7.227165624499320984e-04
1.002131588757038116e-02
-7.701637223362922668e-03
-9.736319072544574738e-03
-2.559110336005687714e-02
5.751281976699829102e-03
-2.568626403808593750e-02
-2.127196639776229858e-02
-2.956671407446265221e-03
9.744550916366279125e-04
-1.019444037228822708e-02
9.951395913958549500e-04
1.736194826662540436e-02
1.698442734777927399e-03
2.586215175688266754e-02
-6.829062849283218384e-02
-1.304492936469614506e-03
8.371646516025066376e-03
-5.360997747629880905e-03
3.468016684055328369e-01
2.276124432682991028e-02
-1.215369906276464462e-03
6.533046718686819077e-03
