7.064570486545562744e-02
-7.677696645259857178e-02
2.375099956989288330e-01
1.086505595594644547e-02
-1.931149363517761230e-01
-5.602448582649230957e-01
3.330960869789123535e-01
-6.196467950940132141e-02
-1.756583712995052338e-02
-5.143144726753234863e-01
-4.299148619174957275e-01
-4.667355120182037354e-02
5.921736955642700195e-01
2.650727927684783936e-01
-1.239551231265068054e-01
1.472738087177276611e-01
-8.958446979522705078e-02
-8.813686668872833252e-03
5.664454698562622070e-01
2.030090838670730591e-01
-5.086174607276916504e-01
-4.722158610820770264e-01
-4.726113080978393555e-01
-2.886295691132545471e-02
-7.327222824096679688e-02
-3.100446462631225586e-01
-8.132515102624893188e-02
-3.164199292659759521e-01
-2.568310126662254333e-02
4.183186590671539307e-01
-4.791244864463806152e-02
1.873715519905090332e-01
-5.352178215980529785e-01
-4.202015325427055359e-02
-4.976568818092346191e-01
4.133802056312561035e-01
1.794933713972568512e-02
-7.432270795106887817e-02
4.438092708587646484e-01
-2.180000394582748413e-01
-4.938650429248809814e-01
-1.045649871230125427e-01
3.889610171318054199e-01
-4.272117018699645996e-01
3.616459667682647705e-01
-2.159222364425659180e-01
-6.039244309067726135e-02
-5.105457901954650879e-01
3.491409122943878174e-01
4.519746173173189163e-03
-1.548154093325138092e-02
4.264865815639495850e-01
5.622916817665100098e-01
-4.924060702323913574e-01
2.999543845653533936e-01
2.695299685001373291e-03
-3.088601492345333099e-02
7.872530072927474976e-02
1.208172738552093506e-01
-1.136985719203948975e-01
2.807856164872646332e-02
5.299223065376281738e-01
-1.081561297178268433e-01
-3.970650732517242432e-01
3.065135516226291656e-02
-2.991549372673034668e-01
-3.637428879737854004e-01
2.154436409473419189e-01
3.370776176452636719e-01
4.680824279785156250e-02
8.414040319621562958e-03
-1.530836075544357300e-01
-3.371512591838836670e-01
3.283397257328033447e-01
-3.590465486049652100e-01
-8.974160254001617432e-02
6.221804022789001465e-01
-3.110980391502380371e-01
-1.710493564605712891e-01
3.690679669380187988e-01
-5.995081067085266113e-01
-3.368104696273803711e-01
-5.151908993721008301e-01
-2.300850152969360352e-01
-5.638750270009040833e-03
-2.239162847399711609e-02
-8.232917785644531250e-01
-6.296290159225463867e-01
2.182170599699020386e-01
6.286228895187377930e-01
-1.302661299705505371e-01
-1.284567713737487793e-01
3.089430034160614014e-01
9.582445025444030762e-02
5.536841750144958496e-01
-7.439918816089630127e-02
4.959348738193511963e-01
4.265648871660232544e-02
-1.829291135072708130e-01
-4.060927629470825195e-01
-1.053205877542495728e-01
-4.037512540817260742e-01
7.207695245742797852e-01
3.793297410011291504e-01
-6.111710667610168457e-01
-2.846066281199455261e-02
1.657510921359062195e-02
7.377258539199829102e-01
4.370491504669189453e-01
3.007091581821441650e-02
-3.867071866989135742e-01
2.508355379104614258e-01
-2.763197720050811768e-01
2.374783456325531006e-01
1.847987025976181030e-01
3.069263100624084473e-01
-8.463479876518249512e-01
-1.389956623315811157e-01
5.378485321998596191e-01
3.345068171620368958e-02
4.220345318317413330e-01
-1.177018694579601288e-02
2.813919186592102051e-01
1.659295260906219482e-01
4.897415339946746826e-01
-4.486412741243839264e-03
-4.798980429768562317e-02
-5.995305627584457397e-02
-5.414789915084838867e-01
-1.126013919711112976e-01
-1.474131792783737183e-01
1.257001161575317383e-01
-4.204847812652587891e-01
2.624839544296264648e-01
-1.472737640142440796e-01
-4.630774557590484619e-01
2.276473790407180786e-01
1.544045507907867432e-01
3.713511526584625244e-01
-1.437832601368427277e-02
7.250257730484008789e-01
4.490135237574577332e-03
5.668636560440063477e-01
1.605609357357025146e-01
1.330416798591613770e-01
-3.011081553995609283e-02
-4.030416011810302734e-01
-2.811400890350341797e-01
-5.130391120910644531e-01
-8.248204588890075684e-01
1.981550268828868866e-02
-3.114588931202888489e-02
2.796909771859645844e-02
-2.179774688556790352e-03
-6.010782122611999512e-01
6.560350954532623291e-02
-4.368670284748077393e-01
-5.643486976623535156e-02
-9.908331185579299927e-02
9.370357729494571686e-03
1.436486095190048218e-02
3.755543828010559082e-01
-2.743516564369201660e-01
-6.623939871788024902e-01
-2.135380059480667114e-01
3.449905514717102051e-01
-2.401071600615978241e-02
-2.960749566555023193e-01
2.381873428821563721e-01
-5.165076255798339844e-02
4.598014056682586670e-01
1.422006040811538696e-01
7.335593104362487793e-01
-3.490668535232543945e-01
-2.712150216102600098e-01
-4.732548072934150696e-02
3.645685315132141113e-01
-5.095510557293891907e-02
3.599548339843750000e-01
4.484547302126884460e-02
1.206429954618215561e-02
8.685274980962276459e-03
-2.374658733606338501e-01
2.921973168849945068e-01
-1.357305049896240234e-01
2.439590916037559509e-02
-5.964000821113586426e-01
-1.004515290260314941e-01
-9.919200092554092407e-02
-1.303420901298522949e+00
-1.225121319293975830e-01
-2.424827814102172852e-01
5.513577461242675781e-01
4.944076389074325562e-02
2.039870172739028931e-01
6.352149248123168945e-01
-5.159674882888793945e-01
1.209137514233589172e-01
-7.686752825975418091e-02
8.296759426593780518e-02
3.191240131855010986e-02
2.225010469555854797e-02
2.547116018831729889e-02
-1.265382766723632812e-01
-3.767425417900085449e-01
5.442708134651184082e-01
-2.794836163520812988e-01
6.218745931982994080e-02
-6.555342674255371094e-01
-1.461355239152908325e-01
1.227342635393142700e-01
-3.848473727703094482e-02
2.614508755505084991e-02
1.367579214274883270e-02
-3.012461066246032715e-01
-5.104124546051025391e-01
-7.838995754718780518e-02
-2.257944941520690918e-01
-1.084458604454994202e-01
2.908790707588195801e-01
2.957850396633148193e-01
7.993518561124801636e-02
2.545023858547210693e-01
-9.346029907464981079e-02
-3.089466132223606110e-02
1.353808045387268066e-01
2.700194120407104492e-01
-1.122982427477836609e-01
-1.084475740790367126e-01
2.854821681976318359e-01
1.465087756514549255e-03
8.636395335197448730e-01
4.996631145477294922e-01
-5.071448683738708496e-01
-3.647003769874572754e-01
3.606010675430297852e-01
-2.836242020130157471e-01
3.325669467449188232e-01
3.272701203823089600e-01
1.604768931865692139e-01
-5.847986042499542236e-02
-2.646849304437637329e-02
-9.447361528873443604e-02
-6.298048794269561768e-02
3.934237957000732422e-01
3.345399796962738037e-01
5.852039456367492676e-01
-9.688509255647659302e-02
-1.548356842249631882e-02
-2.369888499379158020e-02
-4.115961790084838867e-01
2.304737828671932220e-02
-1.253751516342163086e-01
3.206658959388732910e-01
2.152211666107177734e-01
1.753378063440322876e-01
4.235670864582061768e-01
5.761173367500305176e-01
2.400669902563095093e-01
-6.391606479883193970e-02
1.212476864457130432e-01
-2.739573419094085693e-01
-9.919086843729019165e-02
4.489425718784332275e-01
3.724828362464904785e-01
-2.786109149456024170e-01
-1.560806185007095337e-01
-3.494590818881988525e-01
-8.289092779159545898e-02
-4.495439585298299789e-03
2.195122838020324707e-01
1.727494001388549805e-01
-2.590519785881042480e-01
2.266115397214889526e-01
-1.366816461086273193e-02
-9.892566129565238953e-03
2.667986229062080383e-02
2.201977968215942383e-01
1.691545844078063965e-01
2.764431238174438477e-01
-2.107519805431365967e-01
-5.935766696929931641e-01
-5.941411480307579041e-02
1.069103777408599854e-01
2.345564514398574829e-01
1.347155570983886719e-01
3.761689066886901855e-01
3.472686111927032471e-01
-4.167906045913696289e-01
-4.106873646378517151e-02
8.667076379060745239e-02
2.030214369297027588e-01
1.606604270637035370e-02
-6.829718500375747681e-02
3.078839480876922607e-01
4.825193434953689575e-02
5.105804204940795898e-01
-6.803408265113830566e-01
9.805115871131420135e-03
-4.805344715714454651e-02
5.839357897639274597e-02
-7.706893682479858398e-01
4.188205674290657043e-02
-4.777559638023376465e-02
5.413912981748580933e-02
3.942458927631378174e-01
2.185736149549484253e-01
-1.782711297273635864e-01
6.728013604879379272e-02
-5.734149217605590820e-01
-3.482214212417602539e-01
-4.721394553780555725e-02
-5.572298169136047363e-01
8.033437132835388184e-01
4.704991281032562256e-01
-5.383489131927490234e-01
2.040964737534523010e-02
-3.367492556571960449e-01
-9.083471447229385376e-02
-2.521653771400451660e-01
2.284997552633285522e-01
2.118785120546817780e-02
-7.631571590900421143e-02
-7.895491719245910645e-01
-3.834248781204223633e-01
-3.443239256739616394e-02
1.576296868734061718e-03
2.735309600830078125e-01
-1.314463764429092407e-01
-1.555203795433044434e-01
4.387801587581634521e-01
-1.494230479001998901e-01
4.020374417304992676e-01
1.797970831394195557e-01
-4.987632036209106445e-01
4.114474654197692871e-01
2.607905864715576172e-01
-3.026052005589008331e-02
-5.205534100532531738e-01
2.502084672451019287e-01
-4.305998608469963074e-02
5.682045593857765198e-02
-2.651161327958106995e-02
-3.479806780815124512e-01
4.744758307933807373e-01
-3.581203520298004150e-01
4.738850146532058716e-02
4.011544883251190186e-01
2.599047422409057617e-01
-1.731043010950088501e-01
2.359707057476043701e-01
-3.776781260967254639e-01
-3.375330269336700439e-01
2.527182102203369141e-01
3.324113190174102783e-01
2.885810732841491699e-01
2.283594310283660889e-01
1.463555246591567993e-01
4.932938814163208008e-01
-5.711450576782226562e-01
6.013487577438354492e-01
2.553967237472534180e-01
4.832046627998352051e-01
1.307776868343353271e-01
-6.175505518913269043e-01
-1.657456308603286743e-01
-3.573887050151824951e-01
4.457733929157257080e-01
-5.744598060846328735e-02
-6.025248765945434570e-02
-1.088302135467529297e-01
2.405925095081329346e-01
-4.189874529838562012e-01
-5.499632954597473145e-01
9.758751839399337769e-02
8.714743889868259430e-04
-5.037270113825798035e-02
-4.057624042034149170e-01
4.029175639152526855e-01
-2.024899274110794067e-01
8.587501198053359985e-02
2.341509163379669189e-01
2.626845538616180420e-01
3.687963485717773438e-01
-4.248994588851928711e-01
5.718336701393127441e-01
1.541441679000854492e-01
2.952108681201934814e-01
2.596337497234344482e-01
-1.590814292430877686e-01
1.676099188625812531e-02
1.718447194434702396e-03
4.500583931803703308e-02
-2.266881987452507019e-03
8.315951563417911530e-03
6.752824038267135620e-02
7.795461416244506836e-01
2.975602820515632629e-02
-3.619025647640228271e-01
6.383189558982849121e-01
-3.901058733463287354e-01
2.024421542882919312e-01
3.336369097232818604e-01
9.456010907888412476e-02
9.345110505819320679e-02
6.939019542187452316e-03
2.460830807685852051e-01
4.324313402175903320e-01
1.039341613650321960e-01
1.054564192891120911e-01
-5.717461109161376953e-01
-2.356762290000915527e-01
-6.381252408027648926e-02
-4.296181201934814453e-01
-2.195904105901718140e-01
2.066127806901931763e-01
-1.854695379734039307e-01
-4.765335619449615479e-01
4.770635366439819336e-01
3.662283122539520264e-01
3.977890610694885254e-01
-7.356485724449157715e-02
-6.934956461191177368e-02
3.404033482074737549e-01
8.035628497600555420e-02
-4.006977081298828125e-01
-8.417738229036331177e-02
6.889718174934387207e-01
-1.345539558678865433e-02
-1.020019426941871643e-01
-6.454172134399414062e-01
2.925364673137664795e-01
1.823084950447082520e-01
-2.159570008516311646e-01
1.605442613363265991e-01
-6.628796458244323730e-02
1.724970191717147827e-01
-1.524875760078430176e-01
1.904075890779495239e-01
-4.000011384487152100e-01
1.850240379571914673e-01
-2.354203313589096069e-01
-4.411131739616394043e-01
5.303213596343994141e-01
9.334129095077514648e-02
-4.945235252380371094e-01
1.894414722919464111e-01
-1.873982325196266174e-02
-5.415438413619995117e-01
-8.450110554695129395e-01
4.079146087169647217e-01
-6.058800965547561646e-02
-3.734665364027023315e-02
2.970213592052459717e-01
-1.929325312376022339e-01
6.566227972507476807e-02
-2.401683777570724487e-01
-1.038242410868406296e-02
6.065757572650909424e-02
3.990226387977600098e-01
7.453017402440309525e-03
-2.703921794891357422e-01
-1.809816807508468628e-02
-1.416343301534652710e-01
5.968667864799499512e-01
1.973718032240867615e-02
-3.125089406967163086e-01
6.764887571334838867e-01
-8.306686580181121826e-02
-4.404233694076538086e-01
-5.207927152514457703e-02
-4.745649993419647217e-01
-3.465874493122100830e-01
1.956456005573272705e-01
-5.343022942543029785e-02
1.120178960263729095e-02
-3.482351452112197876e-02
4.540933370590209961e-01
3.476225584745407104e-02
2.755784094333648682e-01
-1.577654778957366943e-01
4.043967127799987793e-01
-6.199154257774353027e-01
-4.219884425401687622e-02
-7.152943313121795654e-02
-3.692928850650787354e-01
6.136721372604370117e-01
-2.463325411081314087e-01
4.080305993556976318e-01
6.360800862312316895e-01
2.763232775032520294e-02
-1.723868995904922485e-01
5.649498701095581055e-01
2.798099070787429810e-02
-3.717313408851623535e-01
-6.080641746520996094e-01
-2.932078838348388672e-01
6.502902507781982422e-01
-8.596754632890224457e-03
3.789284825325012207e-02
-6.864549517631530762e-01
-2.975145168602466583e-02
5.951292440295219421e-02
-4.032275080680847168e-01
-1.807941496372222900e-01
2.239863127470016479e-01
1.640308797359466553e-01
5.159193873405456543e-01
2.014796137809753418e-01
-3.228782117366790771e-01
-7.502949982881546021e-02
-2.853755652904510498e-01
