5.149424821138381958e-02
6.711915880441665649e-02
1.243966817855834961e-01
3.126510679721832275e-01
-9.357207268476486206e-02
-7.268657907843589783e-03
4.280800819396972656e-01
-1.239743363112211227e-02
-1.289342790842056274e-01
-3.482351005077362061e-01
1.368971019983291626e-01
2.285719150677323341e-03
2.243753969669342041e-01
-1.223555579781532288e-02
-2.950741052627563477e-01
-3.220109641551971436e-02
-2.272295653820037842e-01
-8.986822213046252728e-04
5.052348971366882324e-01
6.390235852450132370e-03
-5.596064403653144836e-02
-1.221386939287185669e-01
-3.359264135360717773e-02
1.051423400640487671e-01
-5.193962901830673218e-02
-3.398492336273193359e-01
-1.302926540374755859e-01
-1.938538812100887299e-02
-3.211392834782600403e-02
2.214657366275787354e-01
-8.200831711292266846e-03
-1.142811626195907593e-01
-3.702853024005889893e-01
-1.623639650642871857e-02
-2.901979088783264160e-01
5.748853683471679688e-01
4.330971743911504745e-03
-4.406503587961196899e-02
3.892777562141418457e-01
-1.218357030302286148e-02
-2.458634078502655029e-01
4.650117456912994385e-01
3.666858971118927002e-01
-3.497721552848815918e-01
1.472728252410888672e-01
6.386343389749526978e-02
1.012316197156906128e-01
-2.476237416267395020e-01
3.395398557186126709e-01
-2.023129314184188843e-01
-3.596498444676399231e-02
3.216180205345153809e-01
3.484713137149810791e-01
-5.209422111511230469e-02
2.020092159509658813e-01
-1.851290464401245117e-02
1.320524960756301880e-01
2.728445231914520264e-01
-2.879757247865200043e-02
-3.725679218769073486e-02
-4.133670628070831299e-01
3.313013017177581787e-01
-1.119432970881462097e-01
1.826435029506683350e-01
5.308309793472290039e-01
5.146749615669250488e-01
-4.859520792961120605e-01
2.969704866409301758e-01
2.934074997901916504e-01
1.391465514898300171e-01
1.716976910829544067e-01
-1.285819262266159058e-01
-2.667444646358489990e-01
4.801847934722900391e-01
-2.510453164577484131e-01
-2.237553000450134277e-01
2.733847498893737793e-01
-4.980038851499557495e-02
-1.937943696975708008e-01
5.318837612867355347e-02
-2.324573397636413574e-01
-7.413589209318161011e-02
2.429039217531681061e-03
-2.233358770608901978e-01
6.012036651372909546e-02
2.682712115347385406e-02
-2.660986483097076416e-01
-3.712797462940216064e-01
1.972905695438385010e-01
5.328629612922668457e-01
-1.581687666475772858e-02
-1.512510143220424652e-02
3.449221551418304443e-01
2.467901259660720825e-01
4.544472396373748779e-01
-3.290697634220123291e-01
2.364679872989654541e-01
2.274903655052185059e-02
9.860803931951522827e-02
-2.793272137641906738e-01
-2.233243435621261597e-01
7.748125493526458740e-02
5.236257910728454590e-01
3.611470460891723633e-01
-3.592545986175537109e-01
-1.379135102033615112e-01
-1.658109365962445736e-03
5.312095880508422852e-01
6.520702838897705078e-01
2.996281981468200684e-01
-3.477296531200408936e-01
3.745779395103454590e-01
-2.603736221790313721e-01
4.963497817516326904e-01
1.640824228525161743e-02
5.624402165412902832e-01
-4.534437954425811768e-01
-4.290385544300079346e-02
1.530316621065139771e-01
7.103520631790161133e-02
-1.513266861438751221e-01
1.439723372459411621e-01
1.523258090019226074e-01
-1.382191479206085205e-01
2.341421991586685181e-01
-2.890554368495941162e-01
-4.970216006040573120e-02
-1.623602062463760376e-01
-3.987557291984558105e-01
-8.893910050392150879e-02
-2.922587096691131592e-01
2.081267982721328735e-01
-2.176591753959655762e-01
6.011142730712890625e-01
5.356951057910919189e-02
-3.840869665145874023e-01
3.319654762744903564e-01
2.658338844776153564e-01
-5.371499061584472656e-02
-2.577078342437744141e-01
4.529980123043060303e-01
-2.305887788534164429e-01
3.660780489444732666e-01
3.003155589103698730e-01
3.427270054817199707e-01
5.159929990768432617e-01
1.334610767662525177e-02
7.972204685211181641e-02
-3.546521663665771484e-01
-2.741833031177520752e-01
1.013127565383911133e-01
4.795517921447753906e-01
2.704066336154937744e-01
2.215827070176601410e-02
-5.208469033241271973e-01
1.883823275566101074e-01
-1.869012415409088135e-01
-2.835274040699005127e-01
4.168400540947914124e-02
9.101901203393936157e-02
-7.909992337226867676e-02
2.618940174579620361e-01
-1.587138622999191284e-01
-2.790988087654113770e-01
-1.110228523612022400e-02
4.963111579418182373e-01
-4.506981372833251953e-01
3.180727828294038773e-03
1.263850480318069458e-01
-1.068604514002799988e-01
2.148190140724182129e-01
1.209957376122474670e-01
2.352197915315628052e-01
-2.950893044471740723e-01
-2.593403756618499756e-01
-2.388682067394256592e-01
3.472182154655456543e-01
1.031605824828147888e-01
3.830796778202056885e-01
1.769064217805862427e-01
1.811674684286117554e-01
4.512046277523040771e-02
-1.167164221405982971e-01
2.185244709253311157e-01
6.449247896671295166e-02
1.473622322082519531e-01
-3.607335686683654785e-01
-5.983771383762359619e-02
-8.260054886341094971e-02
-6.229729056358337402e-01
1.255938410758972168e-01
-2.395292073488235474e-01
2.336579412221908569e-01
-4.103896208107471466e-03
4.220012202858924866e-02
3.498696982860565186e-01
-2.350736707448959351e-01
5.218838155269622803e-02
-4.672561213374137878e-02
1.945854425430297852e-01
1.001932322978973389e-01
1.442891806364059448e-01
3.325706422328948975e-01
-2.679209411144256592e-01
-2.268603742122650146e-01
1.688604056835174561e-01
1.902105212211608887e-01
3.720648288726806641e-01
-1.580650508403778076e-01
-1.700325608253479004e-01
-1.149305030703544617e-01
-4.996936395764350891e-02
-7.500575482845306396e-02
1.787780225276947021e-01
-1.256446912884712219e-02
-2.105202674865722656e-01
-1.473864167928695679e-02
-1.445327252149581909e-01
-1.313485056161880493e-01
8.375812321901321411e-02
1.799931228160858154e-01
1.788043230772018433e-01
1.389895081520080566e-01
2.568545639514923096e-01
6.138299778103828430e-02
1.856768578290939331e-01
5.976949334144592285e-01
4.722933471202850342e-02
-4.008831083774566650e-02
4.955964982509613037e-01
-2.621105313301086426e-01
3.432956337928771973e-01
3.012466430664062500e-01
-5.461874231696128845e-02
-2.897713184356689453e-01
4.929549396038055420e-01
-3.289420306682586670e-01
-3.564011454582214355e-01
-1.146619208157062531e-02
4.145817458629608154e-01
3.790787979960441589e-02
-5.381377413868904114e-03
4.366076886653900146e-01
-2.158688902854919434e-01
3.202096223831176758e-01
-1.860324293375015259e-02
3.341836333274841309e-01
-3.430474549531936646e-02
1.522367447614669800e-01
-5.974262952804565430e-02
-1.840631514787673950e-01
2.868157923221588135e-01
-3.163944557309150696e-02
3.713359534740447998e-01
2.460339814424514771e-01
9.880436956882476807e-02
4.060447812080383301e-01
4.824720025062561035e-01
2.073881775140762329e-01
-1.526355836540460587e-02
3.626474738121032715e-01
-2.732663750648498535e-01
3.393107652664184570e-01
4.412075281143188477e-01
7.740634679794311523e-02
-1.319714486598968506e-01
-2.959026694297790527e-01
-2.177398651838302612e-01
1.807730197906494141e-01
1.018544211983680725e-01
2.340625822544097900e-01
1.944814771413803101e-01
-1.755733788013458252e-01
2.752443552017211914e-01
3.168913722038269043e-01
2.278642505407333374e-01
1.640998274087905884e-01
1.528493314981460571e-01
3.734624683856964111e-01
4.100919663906097412e-01
3.958260118961334229e-01
-2.479566335678100586e-01
2.278137505054473877e-01
7.617650181055068970e-02
1.699198335409164429e-01
1.991661041975021362e-01
2.790949046611785889e-01
1.047708690166473389e-01
-3.941999748349189758e-02
7.554041687399148941e-03
4.345444962382316589e-03
6.788638234138488770e-02
1.206134483218193054e-01
-6.094152573496103287e-03
3.710407316684722900e-01
3.446931242942810059e-01
2.967830598354339600e-01
-4.462217688560485840e-01
-2.054943740367889404e-01
3.500252664089202881e-01
2.868167757987976074e-01
-4.053957164287567139e-01
3.245896100997924805e-01
2.458449639379978180e-02
1.590231060981750488e-01
5.398243665695190430e-01
5.538945794105529785e-01
-2.010895125567913055e-02
6.529693603515625000e-01
-4.890788197517395020e-01
-3.256852030754089355e-01
-7.589816302061080933e-02
-2.173066437244415283e-01
3.574307858943939209e-01
2.140167057514190674e-01
-2.817768156528472900e-01
1.311690062284469604e-01
-2.154487222433090210e-01
-1.194740906357765198e-01
-1.357748918235301971e-02
3.267706334590911865e-01
1.223882958292961121e-01
-1.523426771163940430e-01
-2.236814983189105988e-02
-1.897617876529693604e-01
-1.010200474411249161e-02
1.903357505798339844e-01
3.299278318881988525e-01
1.206763908267021179e-01
-1.817760169506072998e-01
2.041572630405426025e-01
-6.039736047387123108e-02
3.350571691989898682e-01
1.593830138444900513e-01
-3.001557290554046631e-01
2.313891947269439697e-01
3.135199844837188721e-01
-2.664913237094879150e-01
-4.178309142589569092e-01
3.365597724914550781e-01
-8.933727629482746124e-03
6.726141273975372314e-02
-2.980843186378479004e-01
-2.118620425462722778e-01
5.326600670814514160e-01
1.526530236005783081e-01
1.576555073261260986e-01
4.161770343780517578e-01
1.207659691572189331e-01
2.555712759494781494e-01
8.560185134410858154e-02
-1.243942752480506897e-01
-1.262288689613342285e-01
1.162743866443634033e-01
2.584947943687438965e-01
1.986540704965591431e-01
4.806034266948699951e-01
1.109738126397132874e-01
1.124280467629432678e-01
-3.229788541793823242e-01
4.112204015254974365e-01
4.046155810356140137e-01
4.460076391696929932e-01
-1.991563662886619568e-02
-2.522989213466644287e-01
8.616411685943603516e-02
5.791648849844932556e-02
-5.620365962386131287e-02
2.910485258325934410e-03
-2.669253945350646973e-01
-3.945387527346611023e-02
1.063640639185905457e-01
-1.409464031457901001e-01
-1.670847088098526001e-01
-4.986512660980224609e-02
-1.462424844503402710e-01
-8.062294125556945801e-02
-2.643071413040161133e-01
2.862818241119384766e-01
-1.313295662403106689e-01
1.405691206455230713e-01
3.274709880352020264e-01
4.335926473140716553e-01
3.929030001163482666e-01
-3.864636123180389404e-01
1.904567480087280273e-01
2.872381806373596191e-01
3.605625331401824951e-01
3.381598293781280518e-01
-1.264122426509857178e-01
-1.305374354124069214e-01
7.925414294004440308e-02
3.865743800997734070e-02
-1.163821071386337280e-01
3.549384772777557373e-01
-3.994960337877273560e-02
1.871210187673568726e-01
6.693090796470642090e-01
2.641181647777557373e-01
2.140840515494346619e-02
4.420804679393768311e-01
1.548849493265151978e-01
8.435197919607162476e-02
1.995748877525329590e-01
3.000553250312805176e-01
2.987841665744781494e-01
3.385531902313232422e-01
1.546761095523834229e-01
1.067478656768798828e-01
-9.222980588674545288e-02
-4.020242393016815186e-01
-6.062692776322364807e-02
-2.358354181051254272e-01
-3.593221902847290039e-01
-4.711614847183227539e-01
1.403370201587677002e-01
-9.741840511560440063e-02
-3.496876657009124756e-01
2.405389398336410522e-01
-2.185461074113845825e-01
2.104880958795547485e-01
-9.092848747968673706e-02
-3.546840697526931763e-02
3.047141134738922119e-01
1.652780026197433472e-01
-2.823703587055206299e-01
2.450572252273559570e-01
3.769814074039459229e-01
-1.406089682132005692e-02
-3.297887369990348816e-02
-2.432053685188293457e-01
3.596763908863067627e-01
2.938191890716552734e-01
-1.400135308504104614e-01
4.961369931697845459e-02
3.160446882247924805e-02
1.676180064678192139e-01
-3.426920622587203979e-02
3.178891241550445557e-01
-1.276981234550476074e-01
2.645327150821685791e-01
-2.623659074306488037e-01
-3.449116051197052002e-01
4.444728791713714600e-01
-2.497844249010086060e-01
-2.676838338375091553e-01
1.803439706563949585e-01
-8.660992980003356934e-02
-2.233453541994094849e-01
-3.541830182075500488e-01
-1.801323592662811279e-01
-2.892331779003143311e-01
-1.222598850727081299e-01
1.679210513830184937e-01
1.331058889627456665e-01
2.168329358100891113e-01
-2.774184048175811768e-01
1.026889756321907043e-01
2.733007073402404785e-01
4.640412032604217529e-01
2.781477384269237518e-02
-2.358076423406600952e-01
3.325572609901428223e-01
1.541230976581573486e-01
3.552180230617523193e-01
-2.063789032399654388e-02
-3.107471168041229248e-01
3.647255897521972656e-01
-3.688764572143554688e-02
-1.125214472413063049e-01
-3.514635562896728516e-02
-4.346729516983032227e-01
-1.933891326189041138e-01
1.863360553979873657e-01
3.130239546298980713e-01
2.381768822669982910e-02
1.431323885917663574e-01
3.473858535289764404e-01
-9.154611825942993164e-02
-4.412065818905830383e-02
-1.362697333097457886e-01
3.954792618751525879e-01
-2.630864679813385010e-01
9.232368320226669312e-02
5.695501808077096939e-03
-1.793778240680694580e-01
4.996087551116943359e-01
-7.204002887010574341e-02
5.023996829986572266e-01
5.388447046279907227e-01
2.342441380023956299e-01
-5.265409871935844421e-02
2.224194407463073730e-01
1.612149775028228760e-01
-4.589661359786987305e-01
-2.175644487142562866e-01
-1.023780256509780884e-01
3.898775279521942139e-01
3.050916828215122223e-02
-5.668115243315696716e-02
-3.860511779785156250e-01
-1.680544614791870117e-01
-1.128205880522727966e-01
-7.698105648159980774e-03
-4.523266106843948364e-02
5.057513117790222168e-01
2.387603968381881714e-01
2.107221931219100952e-01
2.432121038436889648e-01
-3.006460666656494141e-01
-2.809824347496032715e-01
-3.057066351175308228e-02
