1.571652479469776154e-02
8.224856108427047729e-03
1.266388408839702606e-02
1.111168763600289822e-03
-7.698641638853587210e-06
1.596694998443126678e-02
1.149301324039697647e-02
5.206809565424919128e-02
1.984523236751556396e-02
1.890644989907741547e-02
7.051210850477218628e-02
2.422729507088661194e-02
-4.351280629634857178e-03
1.638765819370746613e-02
1.257642544806003571e-02
2.632799185812473297e-02
2.393429912626743317e-02
9.595636278390884399e-03
3.706951811909675598e-02
2.007529139518737793e-02
-1.172582246363162994e-02
1.737338304519653320e-02
4.968675319105386734e-03
5.210338160395622253e-02
-1.939248479902744293e-02
3.526078909635543823e-02
1.254297886043787003e-02
3.900281339883804321e-02
2.938799932599067688e-02
3.432277962565422058e-02
2.442939765751361847e-02
4.877948202192783356e-03
-2.704669907689094543e-02
2.839286811649799347e-02
-2.133917622268199921e-02
2.761254459619522095e-02
7.336487621068954468e-02
2.580984868109226227e-02
-1.001528650522232056e-02
5.495599657297134399e-02
2.714990638196468353e-02
-1.083860546350479126e-02
-1.024050265550613403e-02
-4.533827770501375198e-03
8.488550665788352489e-04
2.938950806856155396e-02
2.045820653438568115e-02
4.196557682007551193e-03
6.791860330849885941e-03
2.841071039438247681e-02
1.657838746905326843e-02
-2.298680134117603302e-02
2.133352309465408325e-02
3.530357405543327332e-02
2.104424126446247101e-02
-5.839140340685844421e-02
1.877279393374919891e-02
1.767628639936447144e-02
5.692383740097284317e-03
2.471800334751605988e-02
-6.755798589438199997e-03
3.485870733857154846e-02
-1.030455529689788818e-02
4.185003414750099182e-02
2.227477543056011200e-02
7.025510817766189575e-02
2.450844831764698029e-02
1.098217070102691650e-02
3.768190369009971619e-02
3.675413504242897034e-02
3.206662088632583618e-02
5.353832151740789413e-03
2.882705256342887878e-02
5.115423724055290222e-02
4.211521893739700317e-02
2.454799227416515350e-02
8.900441229343414307e-03
1.453113742172718048e-02
1.694476231932640076e-02
-6.697667296975851059e-03
-1.806436292827129364e-02
-2.788326330482959747e-02
2.342360792681574821e-03
-3.230723366141319275e-02
2.624342776834964752e-02
3.655445948243141174e-02
-1.496694330126047134e-02
4.923171550035476685e-02
1.977094449102878571e-02
-7.092487532645463943e-03
-1.575049711391329765e-03
3.733446076512336731e-02
5.360088311135768890e-03
1.183594297617673874e-02
4.501812160015106201e-03
-1.839529350399971008e-02
3.181694075465202332e-02
3.352794423699378967e-02
2.221676148474216461e-02
1.600170508027076721e-02
2.231593616306781769e-02
-3.229416161775588989e-02
1.078495569527149200e-02
1.821411657147109509e-03
2.305910736322402954e-02
5.031854845583438873e-03
-4.950314760208129883e-03
-1.092384755611419678e-02
4.430035129189491272e-03
-1.873524300754070282e-02
2.223279513418674469e-02
3.501218184828758240e-02
1.196145918220281601e-02
1.188631821423768997e-02
2.355214953422546387e-02
4.066642746329307556e-02
3.017519228160381317e-02
9.106736630201339722e-03
1.690012216567993164e-02
-3.913211822509765625e-02
4.313630610704421997e-02
1.396522670984268188e-02
-1.656158082187175751e-02
-2.073943987488746643e-02
2.456327155232429504e-02
-3.085297159850597382e-02
2.948815375566482544e-02
5.910523980855941772e-02
3.041201829910278320e-02
2.802318148314952850e-02
-1.913785003125667572e-02
2.101996354758739471e-02
3.125707805156707764e-02
2.722898125648498535e-02
-2.773185260593891144e-03
7.803521119058132172e-03
2.954101376235485077e-02
-5.456744693219661713e-03
1.494260784238576889e-02
4.440736025571823120e-02
3.091325983405113220e-02
1.793253235518932343e-02
-5.735521670430898666e-03
1.317152287811040878e-02
5.087661556899547577e-03
2.560631558299064636e-02
4.414606466889381409e-02
1.764538325369358063e-02
6.400112062692642212e-02
-2.362526021897792816e-02
5.574676673859357834e-03
-3.313298150897026062e-02
3.125866875052452087e-02
3.289129585027694702e-02
-4.465299658477306366e-03
-1.948211225681006908e-03
1.541542913764715195e-02
2.382448688149452209e-02
3.483301401138305664e-02
3.655287250876426697e-02
1.153628434985876083e-02
3.813799005001783371e-03
1.510062068700790405e-02
2.301356010138988495e-02
2.169356495141983032e-02
2.109188400208950043e-02
-4.429958388209342957e-02
3.085887059569358826e-02
2.606616914272308350e-02
-9.030826389789581299e-03
4.012425988912582397e-02
3.359793499112129211e-02
5.437929183244705200e-03
2.362554892897605896e-02
4.753148183226585388e-02
2.656574733555316925e-02
3.562741726636886597e-02
4.726183786988258362e-02
5.314921960234642029e-02
4.237234964966773987e-02
-6.770999636501073837e-03
3.270291723310947418e-03
-1.338570937514305115e-02
5.187712609767913818e-02
7.447659503668546677e-03
7.100966293364763260e-03
3.714270517230033875e-02
1.433669310063123703e-02
1.053749304264783859e-02
4.946366697549819946e-02
2.441605553030967712e-02
5.176078528165817261e-02
3.206491470336914062e-02
9.618824347853660583e-03
2.797435224056243896e-02
4.181153699755668640e-02
1.254659611731767654e-02
-1.410247851163148880e-02
2.010721154510974884e-02
1.647758856415748596e-02
5.485283955931663513e-02
5.208692327141761780e-02
1.537837274372577667e-02
2.306622080504894257e-02
4.028318077325820923e-02
-3.905132785439491272e-02
1.664025150239467621e-02
6.130076572299003601e-02
-8.134850300848484039e-03
-1.440009847283363342e-02
1.410398539155721664e-02
1.045116502791643143e-02
4.439435526728630066e-02
-7.088189013302326202e-03
7.982531562447547913e-03
3.709664940834045410e-02
3.632075339555740356e-02
1.216053683310747147e-02
3.454365953803062439e-02
-1.008050609380006790e-02
-1.655830070376396179e-02
4.629173781722784042e-03
8.661153726279735565e-03
5.813867785036563873e-03
-2.669079974293708801e-02
4.817780852317810059e-02
-2.994744339957833290e-03
3.997051343321800232e-02
8.481251075863838196e-03
-7.181864697486162186e-03
3.737400472164154053e-02
1.351278088986873627e-02
1.549530401825904846e-02
-9.942620992660522461e-03
1.408820692449808121e-02
2.293499745428562164e-02
2.140930853784084320e-02
1.030058227479457855e-02
-2.971518598496913910e-02
1.027515530586242676e-02
-2.605864964425563812e-02
7.478014100342988968e-03
2.180411107838153839e-02
1.942071877419948578e-02
1.164238620549440384e-02
-1.515221223235130310e-02
3.808652609586715698e-02
2.617955021560192108e-02
3.923141211271286011e-02
3.981584683060646057e-03
-1.320535968989133835e-02
5.205661430954933167e-02
3.870848938822746277e-02
3.837363049387931824e-02
5.485012196004390717e-03
2.034665457904338837e-02
3.737893421202898026e-03
-3.500658087432384491e-03
-9.116944856941699982e-03
1.316847628913819790e-03
1.796619268134236336e-03
1.009849645197391510e-02
3.481085598468780518e-02
-2.728644991293549538e-03
-3.085912950336933136e-02
1.732026413083076477e-02
-1.537766028195619583e-02
-2.816473320126533508e-02
-9.677329100668430328e-03
1.986513100564479828e-02
1.356970705091953278e-02
-1.244177483022212982e-02
-9.852209128439426422e-03
3.547251597046852112e-02
9.135946631431579590e-03
-5.300567485392093658e-03
-1.190460566431283951e-02
-3.651570156216621399e-02
-9.463828988373279572e-03
-2.792991138994693756e-02
9.609055705368518829e-03
6.695542018860578537e-03
3.687462955713272095e-02
2.001315727829933167e-02
1.433361973613500595e-02
-1.150762662291526794e-02
-1.966305263340473175e-02
2.480859495699405670e-02
1.570935361087322235e-02
2.011547051370143890e-02
1.046557631343603134e-02
3.974272310733795166e-02
-1.132897939532995224e-02
-2.630848810076713562e-02
7.842661812901496887e-03
8.177814888767898083e-04
5.222047120332717896e-02
2.367037162184715271e-02
9.117971174418926239e-03
2.720397710800170898e-02
2.728336118161678314e-02
3.693002276122570038e-03
1.431361772119998932e-02
1.809481531381607056e-02
4.983162134885787964e-02
-2.869713678956031799e-02
2.671469002962112427e-03
2.246604859828948975e-02
-3.127747401595115662e-02
3.588366881012916565e-02
3.325231140479445457e-03
9.960878640413284302e-03
-1.872826367616653442e-02
1.634055562317371368e-02
2.504431456327438354e-02
1.971764862537384033e-02
6.415700539946556091e-03
1.760859228670597076e-02
2.335120178759098053e-02
2.590656280517578125e-02
3.926306962966918945e-03
-2.934451214969158173e-03
2.087578363716602325e-02
1.460637338459491730e-02
4.997010342776775360e-03
7.994933053851127625e-03
6.151379272341728210e-02
3.520826995372772217e-02
4.939442500472068787e-03
1.110943965613842010e-02
2.961099892854690552e-02
2.235505543649196625e-02
1.915436051785945892e-02
1.389089971780776978e-02
-7.094200700521469116e-03
1.830963976681232452e-02
9.090408682823181152e-03
7.972371578216552734e-02
3.978792950510978699e-02
-2.855333685874938965e-02
4.156420007348060608e-02
-2.399191446602344513e-02
2.806102856993675232e-03
1.880199648439884186e-02
2.524806931614875793e-02
6.945840548723936081e-03
3.604898229241371155e-02
-8.076499216258525848e-03
3.124249912798404694e-02
9.816586039960384369e-03
1.226551085710525513e-02
2.540370449423789978e-02
2.266213268740102649e-04
3.224457800388336182e-02
2.047284133732318878e-02
5.930236657150089741e-04
3.314455226063728333e-02
3.882148861885070801e-02
1.345130614936351776e-02
9.714437648653984070e-03
-1.851683109998703003e-02
3.140294924378395081e-02
3.500039502978324890e-02
3.055001422762870789e-02
1.919873058795928955e-02
-3.479060251265764236e-03
3.114016726613044739e-03
9.305804036557674408e-03
4.883575253188610077e-03
3.313552960753440857e-02
6.567903608083724976e-02
-4.247584566473960876e-02
1.496278215199708939e-02
4.231431335210800171e-02
2.097213268280029297e-02
1.586489938199520111e-02
4.305344820022583008e-02
1.279918663203716278e-02
6.465944927185773849e-03
3.982435539364814758e-02
1.473677693866193295e-03
4.224459081888198853e-02
4.288925603032112122e-02
9.679343551397323608e-03
-2.164487168192863464e-02
2.514421381056308746e-02
-1.693846285343170166e-02
1.467531733214855194e-02
-4.797653295099735260e-03
1.547240093350410461e-02
1.681448705494403839e-02
1.709493063390254974e-02
5.649168975651264191e-03
4.348647966980934143e-02
1.227071974426507950e-02
2.026806032517924905e-04
-5.483211949467658997e-03
6.997682154178619385e-03
3.720551356673240662e-02
-2.020916901528835297e-02
1.182445604354143143e-02
3.500240389257669449e-03
6.591305136680603027e-03
3.231241926550865173e-02
3.360353782773017883e-02
4.749568179249763489e-03
2.732237800955772400e-03
3.376760333776473999e-02
2.965780906379222870e-03
-4.415003582835197449e-03
-4.005423933267593384e-02
2.055004984140396118e-02
1.399646978825330734e-02
3.916531859431415796e-04
-8.017341606318950653e-03
2.616163901984691620e-02
3.086319938302040100e-02
1.537737995386123657e-02
2.836273238062858582e-02
-3.107693977653980255e-03
1.025513093918561935e-02
9.600301273167133331e-03
1.091404166072607040e-02
-8.324752561748027802e-03
7.429984956979751587e-02
2.224491722881793976e-02
-9.215305559337139130e-03
3.774137422442436218e-02
3.902143985033035278e-02
6.181005388498306274e-02
3.981128707528114319e-02
4.613611474633216858e-02
2.973423898220062256e-02
1.813266612589359283e-02
-6.129773333668708801e-03
9.788376279175281525e-03
5.462268367409706116e-02
-3.592435270547866821e-02
5.816681683063507080e-02
4.241454228758811951e-02
5.320328474044799805e-02
4.774973727762699127e-03
2.036261931061744690e-02
2.370072156190872192e-02
-1.840457320213317871e-02
5.186690483242273331e-03
3.887633979320526123e-02
1.766471564769744873e-02
-1.042598020285367966e-02
-3.435524413362145424e-03
8.865632116794586182e-03
2.321377024054527283e-02
5.454370329971425235e-05
9.139471687376499176e-03
3.705514594912528992e-02
6.708163022994995117e-02
-1.020726747810840607e-02
3.671377897262573242e-02
3.863818570971488953e-02
2.297968417406082153e-02
4.273409396409988403e-02
-5.555606447160243988e-03
2.369664609432220459e-02
-1.034279726445674896e-02
-4.364437609910964966e-02
1.810909807682037354e-02
3.533422201871871948e-02
3.264777734875679016e-02
8.138467371463775635e-02
2.412752807140350342e-02
1.320389658212661743e-02
2.085327543318271637e-02
4.560844227671623230e-02
-4.585148394107818604e-02
5.234081298112869263e-03
-5.857392027974128723e-02
1.131960190832614899e-02
3.912484273314476013e-02
2.335176058113574982e-02
4.412993043661117554e-02
3.012699447572231293e-02
4.212988074868917465e-03
4.626053944230079651e-02
2.108440920710563660e-02
-7.266756612807512283e-03
4.858907777816057205e-03
-2.694163704290986061e-03
1.226595137268304825e-02
3.427369892597198486e-02
1.588425412774085999e-02
1.951093599200248718e-02
8.429356850683689117e-03
2.885592728853225708e-02
5.334736779332160950e-02
3.670393675565719604e-02
3.134720958769321442e-03
4.943800717592239380e-02
-1.846952247433364391e-03
4.974826425313949585e-02
9.685942903161048889e-03
2.904962003231048584e-02
5.231621209532022476e-03
1.269405148923397064e-02
-2.162402495741844177e-02
8.155027404427528381e-03
6.387390196323394775e-03
1.900287158787250519e-02
-2.006293646991252899e-02
-6.230312865227460861e-03
2.263099513947963715e-02
-9.755353094078600407e-04
3.222626820206642151e-02
