2.415318042039871216e-02
2.851346135139465332e-02
2.914171665906906128e-03
-4.076064098626375198e-03
1.700863055884838104e-02
-2.145049907267093658e-02
1.512931752949953079e-02
1.146890148520469666e-01
7.333680242300033569e-02
-7.099900394678115845e-02
7.225937396287918091e-02
-3.606344759464263916e-02
1.402199640870094299e-02
5.157803371548652649e-02
4.274434968829154968e-02
-2.110819704830646515e-02
-5.655712913721799850e-03
1.226536463946104050e-02
2.705338038504123688e-02
-3.700030734762549400e-03
3.490304807201027870e-03
-2.658179029822349548e-02
1.305008530616760254e-01
-2.981049381196498871e-02
-9.107334166765213013e-02
1.469145808368921280e-02
3.349377214908599854e-02
4.628524184226989746e-02
6.637033820152282715e-02
1.624396070837974548e-02
4.631499946117401123e-02
-7.885072380304336548e-03
6.614880263805389404e-02
-3.524941578507423401e-02
1.051266193389892578e-01
2.828690223395824432e-02
8.064132928848266602e-02
4.105492681264877319e-02
2.376121655106544495e-02
7.129143178462982178e-02
-5.631799809634685516e-03
-2.238641493022441864e-02
-4.686240106821060181e-02
4.677124321460723877e-02
3.207303583621978760e-02
5.761687457561492920e-02
6.152317300438880920e-02
1.908358186483383179e-03
4.707257263362407684e-03
5.332425609230995178e-02
6.827234476804733276e-02
-4.399495199322700500e-02
3.398166969418525696e-02
7.525048404932022095e-02
1.086978707462549210e-02
8.074505254626274109e-03
3.182532638311386108e-02
1.677191816270351410e-02
-1.790339499711990356e-02
5.199581757187843323e-02
2.914077788591384888e-02
9.005904942750930786e-02
-7.660074625164270401e-03
-6.650307681411504745e-03
-2.235456369817256927e-02
1.279012709856033325e-01
3.204714134335517883e-02
-1.268588565289974213e-02
3.139845654368400574e-02
8.264614641666412354e-02
1.848101615905761719e-03
1.335961185395717621e-02
7.567016035318374634e-02
1.141022592782974243e-01
1.014807610772550106e-03
6.205692887306213379e-02
-4.385463520884513855e-02
5.128135159611701965e-02
8.018268644809722900e-02
9.599614713806658983e-05
-3.472534473985433578e-03
5.485377833247184753e-02
4.614763706922531128e-02
8.909561438485980034e-04
1.733016036450862885e-02
1.989969750866293907e-03
-2.665239572525024414e-02
4.040239006280899048e-02
1.280030701309442520e-02
4.133468493819236755e-02
-8.388670533895492554e-02
2.234310097992420197e-02
4.020467400550842285e-02
2.764022722840309143e-02
-4.453882202506065369e-02
3.311256691813468933e-02
6.530006229877471924e-02
8.018396049737930298e-02
3.695558384060859680e-02
4.072131589055061340e-02
-1.093808189034461975e-02
-3.971358016133308411e-02
2.278673090040683746e-02
-2.441594563424587250e-02
3.937014937400817871e-02
-1.138145104050636292e-03
-1.131454482674598694e-02
-1.711475430056452751e-03
1.214028708636760712e-02
-3.135863319039344788e-02
5.248006433248519897e-02
5.364550277590751648e-02
-4.260795190930366516e-02
1.704904809594154358e-02
4.749448969960212708e-02
3.467971831560134888e-02
5.699077621102333069e-02
-2.093085786327719688e-03
-2.185275033116340637e-02
2.312145940959453583e-02
1.104362495243549347e-02
-2.401714771986007690e-02
1.187038607895374298e-02
3.050914593040943146e-02
3.214476630091667175e-02
-9.051182121038436890e-02
4.162829369306564331e-02
3.231642022728919983e-02
-1.049717888236045837e-02
4.941179603338241577e-02
4.821114987134933472e-02
-1.035135164856910706e-01
7.511071115732192993e-02
6.338954716920852661e-02
-4.300699010491371155e-02
1.706453971564769745e-02
1.042395904660224915e-01
-1.686794683337211609e-02
5.310364067554473877e-03
1.053907647728919983e-01
-1.706680841743946075e-02
7.578531652688980103e-02
9.074473753571510315e-03
-2.468159049749374390e-02
2.448088955134153366e-03
3.041226975619792938e-02
7.906933128833770752e-02
-2.677282691001892090e-02
-1.097030378878116608e-02
-2.843291684985160828e-02
8.270096965134143829e-03
-6.334274541586637497e-03
1.119942367076873779e-01
5.023112148046493530e-02
1.330215297639369965e-02
8.660596795380115509e-03
8.001169562339782715e-02
5.462352558970451355e-02
3.617218136787414551e-02
5.791207030415534973e-02
2.792112901806831360e-02
-1.010444830171763897e-03
3.323999792337417603e-02
5.242566391825675964e-02
6.822066009044647217e-02
4.253042489290237427e-02
-4.426273331046104431e-02
-1.014479063451290131e-02
5.437456816434860229e-02
4.686337709426879883e-02
2.423784323036670685e-02
2.074391581118106842e-02
1.292828172445297241e-01
1.765497587621212006e-02
4.384418949484825134e-02
1.113991718739271164e-02
1.195696089416742325e-02
-2.489955350756645203e-02
7.633392512798309326e-02
5.023014172911643982e-02
-7.636712980456650257e-04
4.552080109715461731e-02
-4.895807057619094849e-02
9.331553429365158081e-02
1.877513277577236295e-04
1.321570761501789093e-02
5.870077013969421387e-02
8.531102538108825684e-02
5.939539056271314621e-03
4.714681580662727356e-02
9.917325340211391449e-03
9.629090130329132080e-02
6.505738943815231323e-02
-8.819887042045593262e-02
6.518648564815521240e-02
6.123973801732063293e-02
6.510517746210098267e-02
6.581334769725799561e-02
-7.312669418752193451e-03
6.063366774469614029e-03
-3.199680522084236145e-02
1.049450337886810303e-01
6.139955017715692520e-03
6.758447736501693726e-02
2.216830104589462280e-02
-1.878681778907775879e-02
3.628810402005910873e-03
2.844851650297641754e-02
4.330529482103884220e-04
-8.029257878661155701e-03
4.153425246477127075e-02
1.300169527530670166e-02
6.386603415012359619e-02
5.755752697587013245e-02
6.349159032106399536e-02
8.353820443153381348e-02
4.312945157289505005e-02
-5.880348011851310730e-02
5.282759666442871094e-02
6.154039874672889709e-02
-1.059782505035400391e-02
1.065503954887390137e-01
4.026557132601737976e-02
7.867414504289627075e-03
-1.300288271158933640e-02
9.063981473445892334e-02
-3.355329111218452454e-02
-1.260514557361602783e-02
1.460428815335035324e-02
2.266412600874900818e-02
-6.160255055874586105e-03
6.428200751543045044e-02
4.249002411961555481e-02
2.707143127918243408e-02
2.258318476378917694e-02
2.664413303136825562e-02
-3.824514150619506836e-02
4.697953164577484131e-02
-1.298742927610874176e-02
-3.665007650852203369e-03
-1.529070362448692322e-02
3.589394316077232361e-02
-3.618375165387988091e-03
8.078937232494354248e-02
2.182656712830066681e-02
1.601117663085460663e-02
-5.917043425142765045e-03
1.463322318159043789e-03
3.940811753273010254e-02
-2.596751088276505470e-03
-7.006481289863586426e-03
9.205779433250427246e-02
3.724988549947738647e-02
2.955925278365612030e-02
1.140005290508270264e-01
-3.846985101699829102e-02
-2.038740087300539017e-03
3.231856971979141235e-02
6.169195473194122314e-02
-4.764799494296312332e-03
5.853759124875068665e-03
4.351838305592536926e-02
4.752038046717643738e-02
2.213493548333644867e-02
-2.186592109501361847e-02
3.717988356947898865e-02
-8.145975880324840546e-03
3.792025521397590637e-02
-7.593661546707153320e-03
1.249133050441741943e-01
7.857277989387512207e-02
6.889050360769033432e-03
1.976615982130169868e-03
3.380287811160087585e-02
6.037781015038490295e-02
-4.646992683410644531e-02
-3.987625613808631897e-02
-1.273253839462995529e-02
-2.567721530795097351e-02
7.919417694211006165e-03
2.189094386994838715e-02
1.481387484818696976e-02
-2.608343400061130524e-02
2.892895229160785675e-02
2.867946028709411621e-02
-3.086239844560623169e-02
1.547481119632720947e-02
2.300261147320270538e-02
7.666172832250595093e-02
5.939523503184318542e-02
3.048800677061080933e-02
5.180161073803901672e-02
3.208420053124427795e-02
1.591737382113933563e-02
-1.364297140389680862e-02
-7.102266419678926468e-03
4.931909963488578796e-02
6.574519723653793335e-02
1.671632379293441772e-02
6.117124855518341064e-02
3.553893044590950012e-02
1.624100841581821442e-02
4.426769446581602097e-03
4.835062101483345032e-02
6.790629774332046509e-02
4.032770637422800064e-03
2.264022454619407654e-02
2.674684301018714905e-02
-2.993841841816902161e-02
8.747098036110401154e-03
-2.375685423612594604e-02
1.670044660568237305e-02
-2.083500148728489876e-03
1.627556979656219482e-02
3.091919235885143280e-02
3.592734411358833313e-02
1.079647708684206009e-02
-2.965735737234354019e-03
6.933345645666122437e-02
2.087583392858505249e-02
4.378078971058130264e-03
8.006386458873748779e-02
7.218017429113388062e-02
-1.814131997525691986e-02
2.373590692877769470e-02
3.183405846357345581e-02
-4.684772342443466187e-02
5.682783946394920349e-02
3.600699454545974731e-02
7.227897644042968750e-02
4.130475595593452454e-02
-5.922933574765920639e-03
7.135518640279769897e-02
2.747265435755252838e-02
4.585106391459703445e-03
-2.162300370400771499e-05
3.612415120005607605e-02
1.168027371168136597e-01
1.888288371264934540e-02
-4.483434557914733887e-02
4.422153905034065247e-02
6.246205419301986694e-03
-5.786194279789924622e-02
6.878917571157217026e-03
-1.561049651354551315e-02
-2.716143848374485970e-03
7.980966940522193909e-03
7.816121727228164673e-02
1.576156541705131531e-02
2.347003854811191559e-02
1.024707127362489700e-02
5.913753062486648560e-02
-8.027521893382072449e-03
4.515669867396354675e-02
3.654154390096664429e-02
3.443629015237092972e-03
5.379230156540870667e-02
-1.891405787318944931e-03
2.422011457383632660e-03
4.463908448815345764e-02
-2.628754824399948120e-02
-1.565923169255256653e-02
6.590615212917327881e-02
-4.628573730587959290e-02
-1.431685127317905426e-02
2.629667054861783981e-03
-2.912305667996406555e-02
8.896376937627792358e-02
7.091924082487821579e-03
7.318198680877685547e-02
9.546586871147155762e-02
-3.736081346869468689e-02
4.912401735782623291e-02
1.682927645742893219e-02
3.592242673039436340e-02
7.098473608493804932e-02
3.059072978794574738e-02
9.994175285100936890e-02
3.004807420074939728e-02
3.239064291119575500e-02
3.247585147619247437e-02
4.455564543604850769e-02
4.132185131311416626e-02
3.237709403038024902e-02
3.802017541602253914e-03
4.068422690033912659e-02
-2.323270030319690704e-02
7.756683230400085449e-02
-3.626292198896408081e-02
3.432949632406234741e-02
5.276196077466011047e-02
5.096665397286415100e-02
3.427951410412788391e-02
-9.524012915790081024e-03
1.288362499326467514e-02
8.393919095396995544e-03
6.361510604619979858e-02
5.199550464749336243e-02
8.452464640140533447e-02
7.862784713506698608e-02
-1.326058246195316315e-02
-1.226439327001571655e-02
1.080371672287583351e-03
4.673348739743232727e-02
4.169668629765510559e-02
5.523166153579950333e-03
4.201969131827354431e-03
7.336901873350143433e-02
1.482062693685293198e-02
-2.079301886260509491e-02
-1.285234000533819199e-02
4.565752297639846802e-02
2.111794240772724152e-02
6.009113416075706482e-02
-1.258289068937301636e-02
5.532778054475784302e-02
1.115530356764793396e-01
5.026540532708168030e-02
2.038146555423736572e-02
-5.740245804190635681e-02
6.200310960412025452e-02
1.626496016979217529e-02
5.429823696613311768e-02
-8.183657191693782806e-04
-7.419078610837459564e-03
2.911535650491714478e-02
1.981355622410774231e-02
2.734520845115184784e-02
2.972074225544929504e-02
-1.706041768193244934e-02
-2.982659637928009033e-02
9.696158766746520996e-02
6.797432154417037964e-02
6.438173353672027588e-02
-1.689992100000381470e-02
-2.114378847181797028e-02
-1.238204276887699962e-04
2.113295160233974457e-02
7.107982784509658813e-02
6.735254079103469849e-02
6.532239913940429688e-02
1.802445389330387115e-03
4.692276939749717712e-02
5.806023254990577698e-02
1.033161878585815430e-01
6.114683300256729126e-02
1.042069718241691589e-01
8.522251155227422714e-04
-3.249100968241691589e-02
-2.118165791034698486e-02
1.283275187015533447e-01
7.991296797990798950e-02
3.101545758545398712e-02
-2.137146424502134323e-03
4.953205585479736328e-02
1.004493162035942078e-01
-1.917185820639133453e-02
8.375004678964614868e-02
4.191349446773529053e-02
5.370149016380310059e-02
3.735383227467536926e-02
-1.288012322038412094e-02
5.394287407398223877e-02
6.270192097872495651e-04
-3.534943610429763794e-02
4.756996035575866699e-02
1.824902184307575226e-02
2.809228561818599701e-02
9.720848500728607178e-02
5.659250542521476746e-02
5.178741365671157837e-02
2.071152441203594208e-03
1.151338443160057068e-01
-2.590203657746315002e-02
6.155829504132270813e-02
-8.487559854984283447e-03
-2.140413038432598114e-02
2.268411032855510712e-02
4.155923426151275635e-02
-3.607977554202079773e-02
-9.558296762406826019e-03
6.078904867172241211e-02
1.948901265859603882e-02
5.310974642634391785e-02
1.964218728244304657e-02
-1.337635330855846405e-03
6.892055273056030273e-02
8.881998807191848755e-02
5.413147062063217163e-02
-1.643219911784399301e-05
-1.168726291507482529e-02
3.006228618323802948e-02
9.483155794441699982e-03
9.262516349554061890e-02
4.928654059767723083e-02
1.970329321920871735e-02
-3.504786267876625061e-02
-2.919868938624858856e-02
6.066108867526054382e-02
6.684441119432449341e-02
4.238456487655639648e-02
8.152930065989494324e-03
-8.251728489995002747e-03
2.681307494640350342e-02
-1.029911171644926071e-02
2.055965177714824677e-02
-2.591179125010967255e-02
6.168823223561048508e-03
-2.628892473876476288e-02
-1.327763497829437256e-02
1.431183610111474991e-02
5.081883817911148071e-02
