1.427446026355028152e-02 1.870618388056755066e-02 1.240480039268732071e-02 1.204444095492362976e-02 2.580039203166961670e-02 -4.295572042465209961e-01 -3.772318363189697266e-02 -1.150102689862251282e-01 -1.613795757293701172e-01 -1.093246415257453918e-01 1.559267845004796982e-02 7.173419743776321411e-02 -3.726447746157646179e-02 -1.638538241386413574e-01 -1.021870877593755722e-02 2.774580009281635284e-02 3.990784287452697754e-02 2.627371810376644135e-02 -1.920876093208789825e-02 -1.069634482264518738e-01 -6.031506881117820740e-02 6.598975509405136108e-02 -4.294396191835403442e-02 -9.434834122657775879e-02 -1.189868673682212830e-01 2.533512562513351440e-02 3.223982080817222595e-02 4.827449843287467957e-02 -1.672794520854949951e-01 1.909681223332881927e-02 4.245715681463479996e-03 -2.720717154443264008e-02 1.673620566725730896e-02 3.783647716045379639e-02 -1.060535311698913574e-01 -2.955002710223197937e-02 9.990624338388442993e-02 -3.879722580313682556e-02 -2.445201389491558075e-02 1.745358854532241821e-02 9.556139819324016571e-03 2.746442705392837524e-02 1.915635727345943451e-02 -3.048943355679512024e-02 4.931514337658882141e-02 6.155673414468765259e-03 -2.792806737124919891e-02 1.026503205299377441e+00 6.741953641176223755e-02 2.000002423301339149e-03 -3.875631093978881836e-01 9.332623481750488281e-01 3.385541960597038269e-02 2.443816699087619781e-02 4.746221750974655151e-02 3.835684433579444885e-02 2.857251465320587158e-02 3.287332132458686829e-02 6.291070487350225449e-03 -1.525205671787261963e-01 -7.137649506330490112e-02 -4.341451078653335571e-02 -2.353193424642086029e-02 -3.620224818587303162e-02 -6.845267117023468018e-02 8.525277487933635712e-03 3.646197170019149780e-02 -6.632309406995773315e-02 -1.753019392490386963e-01 -4.727532342076301575e-02 1.030181795358657837e-01 2.937559038400650024e-02 -2.275985665619373322e-02 -1.769809983670711517e-02 2.518594637513160706e-02 -4.045348241925239563e-02 -7.892753928899765015e-02 2.780102193355560303e-02 -4.465688765048980713e-02 3.559166938066482544e-02 3.325231373310089111e-02 6.459889560937881470e-02 4.632859304547309875e-02 6.883648037910461426e-02 2.684074826538562775e-02 2.990379929542541504e-02 -3.211848437786102295e-02 -1.079504843801259995e-02 -1.080013513565063477e-01 2.016347646713256836e-02 -1.365768313407897949e-01 2.774409577250480652e-02 1.658841967582702637e-02 1.253532767295837402e-01 3.310266137123107910e-02 -1.089908555150032043e-01 -6.468911468982696533e-02 -1.225870996713638306e-01 -8.723322153091430664e-01 -1.684158295392990112e-01 1.620444282889366150e-02 7.687863893806934357e-03 4.787070676684379578e-02 5.842036008834838867e-02 1.502160169184207916e-02 1.625200510025024414e-01 -9.522856213152408600e-03 -1.257519125938415527e-01 1.529080700129270554e-02 -2.990261651575565338e-02 1.287795510143041611e-02 2.531365677714347839e-02 4.557480290532112122e-02 2.426215261220932007e-02 -3.962854295969009399e-02 -3.238902613520622253e-02 5.316437780857086182e-02 4.962221905589103699e-02 5.313487723469734192e-03 -2.729292586445808411e-02 -8.749185502529144287e-02 2.983969077467918396e-02 -8.408931642770767212e-02 1.929740794003009796e-02 2.480893768370151520e-02 4.190529137849807739e-02 -4.137894883751869202e-02 -1.227004677057266235e-01 1.982955820858478546e-02 9.486887603998184204e-03 2.002477273344993591e-02 -4.191749542951583862e-02 -2.676089853048324585e-02 2.158797532320022583e-02 1.025084219872951508e-02 2.416217327117919922e-02 1.275231875479221344e-02 3.089222684502601624e-02 1.433722767978906631e-02 -2.569546550512313843e-02 5.320142954587936401e-02 3.198157995939254761e-02 5.952335521578788757e-02 -2.158325910568237305e-02 -1.327574551105499268e-01 2.117066830396652222e-02 -1.159562617540359497e-01 5.699293222278356552e-03 2.192205004394054413e-02 2.759706601500511169e-02 3.284924477338790894e-02 1.692515425384044647e-02 -4.932797700166702271e-02 2.593196555972099304e-02 -6.005264073610305786e-02 -1.146508008241653442e-01 9.169572032988071442e-03 -3.760095685720443726e-02 -5.118405073881149292e-02 -4.414424300193786621e-02 5.479673855006694794e-03 -1.085062548518180847e-01 -2.834021747112274170e-01 -6.558909267187118530e-02 -2.892173081636428833e-02 4.922535270452499390e-02 -1.856167912483215332e-01 1.326790545135736465e-02 -2.611553296446800232e-02 2.763715386390686035e-02 -2.318796142935752869e-02 3.176436200737953186e-02 -2.455699145793914795e-01 -2.401784062385559082e-02 6.888845562934875488e-02 -1.259430050849914551e-01 1.803078502416610718e-02 -4.390317946672439575e-02 -8.507082611322402954e-02 -2.639556117355823517e-02 -5.512760207056999207e-02 -1.511946599930524826e-02 5.848356708884239197e-02 2.235416322946548462e-01 2.097788825631141663e-02 2.099232934415340424e-02 1.310134530067443848e-01 1.699694618582725525e-02 2.607043683528900146e-01 -1.918984204530715942e-02 2.558335475623607635e-02 -4.295490682125091553e-02 1.394702866673469543e-02 -2.194262146949768066e-01 4.127502068877220154e-02 -2.359321340918540955e-02 -3.843457996845245361e-02 -3.877402096986770630e-02 4.457378387451171875e-02 -2.183951996266841888e-02 -3.315337002277374268e-02 2.440985850989818573e-02 -6.776386499404907227e-01 -1.057161614298820496e-01 -4.130639135837554932e-02 3.978282958269119263e-02 -5.240134894847869873e-02 -3.538623824715614319e-02 1.301746349781751633e-02 4.977973550558090210e-02 -4.016382992267608643e-02 2.978606894612312317e-02 -3.029915504157543182e-02 3.513106703758239746e-02 6.039403844624757767e-03 -4.027261212468147278e-02 5.219362303614616394e-02 1.172413006424903870e-01 -4.410630837082862854e-02 2.709122188389301300e-02 -2.769549749791622162e-02 -5.004175752401351929e-02 -4.370030015707015991e-02 9.904378093779087067e-03 5.399905890226364136e-02 4.881067201495170593e-02 -4.178148210048675537e-01 -1.979525983333587646e-01 -1.224644854664802551e-01 3.797779604792594910e-02 -3.928571566939353943e-02 2.326025255024433136e-02 2.443854883313179016e-02 2.563310600817203522e-02 -3.200505301356315613e-02 1.961486190557479858e-01 -5.301072075963020325e-02 3.400696814060211182e-02 -1.357935070991516113e-01 -9.878035634756088257e-02 2.837301045656204224e-02 1.926665566861629486e-02 -3.937482088804244995e-02 -5.847984924912452698e-02 -2.070164233446121216e-01 -2.934733778238296509e-02 -6.252132356166839600e-02 -1.841280236840248108e-02 3.028478659689426422e-02 5.932990089058876038e-02 4.527138173580169678e-02 -9.219561517238616943e-02 -3.336016833782196045e-02 -5.187682434916496277e-02 4.643559828400611877e-02 2.327824011445045471e-02 3.372691571712493896e-02 1.027801409363746643e-01 -3.217153996229171753e-02 -1.150122210383415222e-01 3.668347746133804321e-02 -5.302521586418151855e-01 -3.580171987414360046e-02 2.351650409400463104e-02 -3.688346594572067261e-02 -1.321808546781539917e-01 3.141534328460693359e-02 1.144154649227857590e-02 -7.206978648900985718e-02 6.397856399416923523e-03 -1.323043107986450195e-01 3.481627255678176880e-02 1.364674139767885208e-02 -3.011999838054180145e-02 1.403790153563022614e-02 6.831650435924530029e-02 1.637929305434226990e-02 8.050399273633956909e-02 -5.212868750095367432e-02 1.207891292870044708e-02 1.136753149330615997e-02 1.956552453339099884e-02 -7.428624480962753296e-02 3.737531974911689758e-02 1.327765546739101410e-02 1.326836049556732178e-01 -2.985090203583240509e-02 -1.078632753342390060e-02 7.499912381172180176e-02 1.463177334517240524e-02 -5.483742430806159973e-02 -9.452055208384990692e-03 -1.142251789569854736e-01 -3.810575231909751892e-02 1.640790142118930817e-02 2.083674445748329163e-02 -2.869104966521263123e-02 -2.503460459411144257e-02 -5.404826998710632324e-02 -1.206663027405738831e-01 -1.680752635002136230e-01 2.504899539053440094e-02 -8.448442071676254272e-02 3.626880794763565063e-02 -2.343934588134288788e-02 1.796416193246841431e-02 -1.124670803546905518e-01 3.724306076765060425e-02 5.067012086510658264e-02 2.044965699315071106e-02 -3.102138824760913849e-02 -7.139757275581359863e-02 3.970500454306602478e-02 2.362316660583019257e-02 5.168552324175834656e-02 -5.414053425192832947e-02 -9.808999300003051758e-02 -5.413645505905151367e-02 2.019374631345272064e-02 -7.931386679410934448e-02 -1.334632560610771179e-02 2.283680997788906097e-02 -2.987266778945922852e-01 4.765557348728179932e-01 2.093116939067840576e-02 1.877160370349884033e-02 -2.540020346641540527e-01 5.884826183319091797e-02 -4.032673314213752747e-02 3.097987547516822815e-02 3.030210174620151520e-02 1.400578022003173828e-02 -1.154825612902641296e-01 4.807821661233901978e-02 -9.885729104280471802e-02 -4.431724920868873596e-02 3.520472347736358643e-02 2.536463178694248199e-02 5.171046778559684753e-02 2.966028824448585510e-02 -2.498127333819866180e-02 2.248626574873924255e-02 -5.800111591815948486e-02 1.557144522666931152e-01 3.298897296190261841e-02 2.296244911849498749e-02 -4.083768278360366821e-02 1.478647254407405853e-02 2.727448195219039917e-02 -3.723048418760299683e-02 1.415785681456327438e-02 9.098371490836143494e-03 -3.969403728842735291e-02 -2.499127388000488281e-02 3.890635073184967041e-02 -1.810135133564472198e-02 9.885473176836967468e-03 1.277673393487930298e-01 2.075137756764888763e-02 1.586998440325260162e-02 -7.117680460214614868e-02 -2.048062533140182495e-01 3.652651235461235046e-02 2.009273320436477661e-02 1.437791585922241211e-01 -2.636353857815265656e-02 -3.585758805274963379e-02 4.276880994439125061e-02 -2.928395755589008331e-02 3.762400150299072266e-02 2.717504091560840607e-02 -1.549168676137924194e-01 3.344375267624855042e-02 -3.243580833077430725e-02 -1.432256251573562622e-01 -2.529230900108814240e-02 -1.870748102664947510e-01 -6.176922842860221863e-02 -1.214060187339782715e-01 9.379640221595764160e-03 2.781907282769680023e-02 -2.687889337539672852e-01 2.993817441165447235e-02 -3.745258972048759460e-02 -5.684692040085792542e-02 -2.462897449731826782e-02 -7.757596671581268311e-02 1.124480925500392914e-02 -5.206112936139106750e-02 1.653259806334972382e-02 -2.795089595019817352e-02 2.714612148702144623e-02 -2.916932106018066406e-01 -1.960237137973308563e-02 -2.593912370502948761e-02 -3.011817671358585358e-02 3.562872484326362610e-02 3.987616673111915588e-02 3.182601928710937500e-02 2.011241950094699860e-02 4.829527065157890320e-02 1.298676617443561554e-02 -2.768464945256710052e-02 7.975192740559577942e-03 -1.384496502578258514e-02 -9.238682687282562256e-02 -9.203349798917770386e-02 -2.049158960580825806e-01 1.260864455252885818e-02 -1.045962050557136536e-01 -2.156421355903148651e-02 -9.024301171302795410e-02 -3.404916077852249146e-02 3.887255117297172546e-02 3.716812431812286377e-01 -7.192167639732360840e-02 5.295863375067710876e-02 -3.348903357982635498e-02 3.844502568244934082e-02 1.260946318507194519e-02 1.655294448137283325e-01 -1.381328143179416656e-02 2.531179599463939667e-02 4.228447750210762024e-02 2.600545063614845276e-02 1.462275385856628418e-01 6.085952743887901306e-02 1.511533278971910477e-02 -1.933038979768753052e-01 -1.128117293119430542e-01 6.916104350239038467e-03 -8.909997344017028809e-02 -1.389198750257492065e-01 -3.190445154905319214e-02 -4.535103216767311096e-02 4.741857573390007019e-02 -4.192785918712615967e-02 -5.146907642483711243e-02 -7.569118589162826538e-02 2.172869630157947540e-02 2.115185558795928955e-02 2.933946065604686737e-02 4.854609668254852295e-01 -3.164321929216384888e-02 3.456059843301773071e-02 -4.341877251863479614e-02 1.575375534594058990e-02 -4.223489388823509216e-02 -3.210868313908576965e-02 1.021591108292341232e-02 -1.101575344800949097e-01 -1.115695685148239136e-01 -1.380179524421691895e-01 3.648060560226440430e-02 -2.599725499749183655e-02 1.479946170002222061e-02 -2.724359184503555298e-02 -1.663150191307067871e-01 -4.451896622776985168e-02 -3.168591856956481934e-02 3.106722235679626465e-02 1.642375625669956207e-02 2.688612975180149078e-02 -5.169553309679031372e-02 -4.752406477928161621e-02 1.611951179802417755e-02 1.704392582178115845e-01 1.583013683557510376e-02 -7.610736787319183350e-02 -5.260660126805305481e-02 -1.269657164812088013e-01 1.688496209681034088e-02 1.504704821854829788e-02 2.692058682441711426e-02 2.103428542613983154e-02 -3.859584033489227295e-02 1.593202538788318634e-02 1.702778600156307220e-02 4.062401875853538513e-02 2.011348307132720947e-02 -1.883174628019332886e-01 -6.535039097070693970e-02 2.697844989597797394e-02 1.636801846325397491e-02 1.886995583772659302e-01 -7.280450314283370972e-02 3.544939309358596802e-02 -4.489658027887344360e-02 -1.361587196588516235e-01 -1.290087401866912842e-01 2.194322794675827026e-01 -2.617766149342060089e-02 -1.973401606082916260e-01 2.238287404179573059e-02 -1.694017276167869568e-02 1.095579657703638077e-02 1.458002161234617233e-02 1.085918489843606949e-02 3.457142785191535950e-02 -4.584050178527832031e-02 3.781387209892272949e-02 3.180876746773719788e-02 2.255210839211940765e-02 1.464779861271381378e-02 -6.287707686424255371e-01 1.120567601174116135e-02 3.184840828180313110e-02 -2.817181646823883057e-01 -9.035194665193557739e-02 -3.593274950981140137e-02 2.358533628284931183e-02 1.521815080195665359e-02
