-3.516915254294872284e-03
3.060038201510906219e-03
-7.958279456943273544e-04
1.746335811913013458e-02
1.687643304467201233e-02
7.570436596870422363e-02
3.944023046642541885e-03
-5.237954203039407730e-03
9.392876178026199341e-03
8.799724164418876171e-04
5.177079234272241592e-03
2.767705824226140976e-03
2.551097422838211060e-03
-3.272935748100280762e-03
9.741358458995819092e-03
-8.933026343584060669e-03
-7.862254977226257324e-03
9.242433123290538788e-03
7.142952643334865570e-03
3.807663917541503906e-03
3.551167901605367661e-03
2.489097882062196732e-03
1.793352700769901276e-02
2.038841601461172104e-03
1.022921223193407059e-02
3.169493377208709717e-02
-6.893078330904245377e-03
2.153885783627629280e-03
6.659129168838262558e-03
8.256517350673675537e-03
4.657024145126342773e-02
6.199099123477935791e-03
-4.840955603867769241e-03
-6.523191463202238083e-03
2.311340300366282463e-03
1.620950992219150066e-03
-2.263550413772463799e-03
6.636010017246007919e-03
-8.916051127016544342e-03
-8.375200559385120869e-04
-1.976323255803436041e-04
-2.540714805945754051e-03
-1.665150746703147888e-03
5.186230875551700592e-03
1.037896890193223953e-02
4.604912362992763519e-03
2.011412288993597031e-03
-8.302469737827777863e-03
-2.079237485304474831e-03
-3.016457892954349518e-03
1.353281270712614059e-02
-1.191555173136293888e-03
1.013182010501623154e-02
-1.678421744145452976e-03
1.057752175256609917e-03
1.826583640649914742e-03
5.497010890394449234e-03
2.609628915786743164e+00
8.501544944010674953e-04
4.270535428076982498e-03
9.824455715715885162e-03
-7.376449648290872574e-03
-2.157516079023480415e-03
3.129766089841723442e-03
3.549331100657582283e-03
4.435206355992704630e-04
-5.184520268812775612e-04
1.850694604218006134e-02
3.871716093271970749e-03
-3.219343023374676704e-03
2.405026461929082870e-03
-7.333152461796998978e-04
-1.041184365749359131e-02
-2.118097431957721710e-02
-6.849332712590694427e-03
4.368487279862165451e-03
-3.436757950112223625e-03
1.200213329866528511e-03
-5.708356620743870735e-04
-1.838593976572155952e-03
9.425505995750427246e-03
-3.540368983522057533e-03
8.160393685102462769e-03
3.055852837860584259e-03
7.684255484491586685e-03
9.987568482756614685e-04
3.712099511176347733e-03
-1.230065012350678444e-03
1.861858181655406952e-03
7.440730463713407516e-03
1.104196999222040176e-02
3.783826716244220734e-03
4.318723455071449280e-03
-2.681430487427860498e-04
-1.515716285211965442e-04
6.380596896633505821e-04
-2.628810005262494087e-03
-1.711226301267743111e-03
5.847355350852012634e-03
3.017592057585716248e-02
1.693863794207572937e-02
4.552184604108333588e-03
5.591736175119876862e-03
5.960839916951954365e-04
-1.282348879612982273e-03
1.129022130044177175e-04
-6.543399649672210217e-04
-1.431654486805200577e-02
-8.856017142534255981e-03
7.860194891691207886e-03
1.501978607848286629e-03
-4.252330865710973740e-03
-6.826354190707206726e-03
6.804258562624454498e-03
4.239434842020273209e-03
-4.087907262146472931e-03
-5.454312078654766083e-03
2.166863530874252319e-02
1.928735640831291676e-03
1.144744176417589188e-02
-2.561031142249703407e-03
4.443721380084753036e-03
1.618944690562784672e-03
-7.658045273274183273e-03
-1.188206369988620281e-03
7.153508812189102173e-02
5.340183619409799576e-03
-9.943754412233829498e-04
-2.148434286937117577e-03
9.306527674198150635e-03
5.748935509473085403e-03
-6.028828211128711700e-03
3.626656718552112579e-03
2.800666959956288338e-03
6.980955600738525391e-03
1.887446152977645397e-03
2.535640494897961617e-03
6.784887984395027161e-03
-7.994709536433219910e-03
1.899185590445995331e-02
2.843878604471683502e-02
2.434756752336397767e-04
-6.424218881875276566e-03
-2.390687819570302963e-03
1.391504774801433086e-03
1.070050522685050964e-03
2.077301964163780212e-03
-8.728024549782276154e-04
5.871425382792949677e-03
4.174438305199146271e-03
1.283255056478083134e-03
-4.514256864786148071e-02
3.579269628971815109e-03
1.617531664669513702e-02
6.549126468598842621e-03
-9.757971391081809998e-03
1.278384029865264893e-02
-2.776746638119220734e-03
-5.685413721948862076e-03
1.339030824601650238e-02
-2.985072322189807892e-03
2.437222981825470924e-03
-7.713207975029945374e-03
-5.005970131605863571e-03
1.302550733089447021e-02
-2.957056509330868721e-03
1.157312933355569839e-02
6.639206781983375549e-03
-1.155212800949811935e-02
9.806690737605094910e-03
5.107599869370460510e-02
1.532386522740125656e-02
-7.021293044090270996e-03
-1.486919471062719822e-03
-1.013319194316864014e-02
3.925570752471685410e-03
4.183825221844017506e-04
2.528079412877559662e-02
2.757477341219782829e-03
1.836088085838127881e-05
1.639942871406674385e-03
-6.204023491591215134e-03
5.098360590636730194e-03
-4.302015528082847595e-03
3.858183743432164192e-03
6.319403648376464844e-03
4.887603223323822021e-03
4.931872244924306870e-03
-4.215030465275049210e-03
6.955360062420368195e-03
1.101107918657362461e-03
4.271602258086204529e-03
-4.870758857578039169e-03
4.639325197786092758e-03
-1.529797678813338280e-03
-1.486885710619390011e-03
1.603939197957515717e-02
1.204257132485508919e-03
2.832871377468109131e-01
-3.163828747346997261e-03
5.136160179972648621e-02
-1.142322784289717674e-03
5.273889750242233276e-03
-3.079661866649985313e-03
1.381549984216690063e-02
6.364679429680109024e-04
-4.451650660485029221e-03
-2.787664532661437988e-03
4.080357495695352554e-03
1.035191211849451065e-02
-2.281517226947471499e-04
1.011155731976032257e-02
8.064508438110351562e-03
4.725632257759571075e-03
1.461300998926162720e-04
5.336079280823469162e-03
-6.019526626914739609e-03
1.313495216891169548e-03
-4.495634697377681732e-03
8.100414997898042202e-04
3.824297571554780006e-03
2.233733190223574638e-03
1.718444377183914185e-02
-5.443120840936899185e-03
9.198532789014279842e-04
1.460343226790428162e-02
9.154915460385382175e-04
6.204465869814157486e-03
2.655606716871261597e-03
-1.662810915149748325e-03
6.001513451337814331e-03
-2.105721214320510626e-04
8.185697346925735474e-02
-6.689385976642370224e-03
4.469999112188816071e-03
1.255676802247762680e-02
3.256544237956404686e-03
1.080260984599590302e-02
5.651658866554498672e-03
1.169695868156850338e-03
1.120877824723720551e-02
3.584512276574969292e-03
-1.304792705923318863e-03
-5.516021512448787689e-03
2.391623565927147865e-03
1.351888175122439861e-03
5.381913390010595322e-03
7.588883861899375916e-03
9.189019910991191864e-03
-1.358929090201854706e-03
-8.057250641286373138e-03
1.608860911801457405e-03
4.883717745542526245e-03
-3.743249690160155296e-03
3.547844290733337402e-02
6.486706552095711231e-04
