-3.002687124535441399e-03
-3.000708762556314468e-03
-3.002714598551392555e-03
-2.181159973144531250e+00
1.987420320510864258e+00
-3.002728568390011787e-03
1.449411153793334961e+00
-3.002656623721122742e-03
-3.002574434503912926e-03
7.215110659599304199e-01
7.700376510620117188e-01
-3.002717625349760056e-03
1.019207477569580078e+00
-3.002736950293183327e-03
-3.002720419317483902e-03
-3.002729732543230057e-03
1.919964551925659180e+00
-3.002417506650090218e-03
6.766614317893981934e-01
-5.272980928421020508e-01
-3.002525074407458305e-03
-3.002455458045005798e-03
-3.001641482114791870e-03
-3.002685494720935822e-03
2.044529438018798828e+00
-3.002425655722618103e-03
-3.001918317750096321e-03
2.638884782791137695e+00
2.674185276031494141e+00
-3.931235074996948242e+00
3.313954830169677734e+00
1.961543560028076172e+00
-3.002490382641553879e-03
1.022393345832824707e+00
-3.002728335559368134e-03
-3.410994291305541992e+00
-3.002361161634325981e-03
2.936671733856201172e+00
-3.002486191689968109e-03
2.717220485210418701e-01
-3.002066165208816528e-03
2.258110284805297852e+00
3.427425384521484375e+00
-3.002742305397987366e-03
-1.299651265144348145e-01
5.678121089935302734e+00
8.617382049560546875e-01
-3.002672456204891205e-03
2.625188112258911133e+00
-1.807146430015563965e+00
-3.000698285177350044e-03
-3.002628916874527931e-03
6.918229460716247559e-01
-3.002644749358296394e-03
2.283920288085937500e+00
-3.002645447850227356e-03
-3.002647776156663895e-03
2.004617929458618164e+00
-3.002720884978771210e-03
-3.002736717462539673e-03
3.226307928562164307e-01
1.462658643722534180e+00
-3.002706682309508324e-03
-6.053211092948913574e-01
3.980964422225952148e+00
-3.002560464665293694e-03
1.877718418836593628e-01
2.119710683822631836e+00
-2.999578835442662239e-03
-3.002737648785114288e-03
-3.002681769430637360e-03
2.989193439483642578e+00
-3.002717625349760056e-03
2.852959394454956055e+00
-3.002378158271312714e-03
-3.002725774422287941e-03
5.016461610794067383e-01
-3.002685029059648514e-03
1.157616615295410156e+00
-3.002719255164265633e-03
9.275125861167907715e-01
1.322682857513427734e+00
-3.002740675583481789e-03
-3.002577228471636772e-03
-3.002263372763991356e-03
-3.002732526510953903e-03
1.843304395675659180e+00
-3.000811440870165825e-03
-3.002660116180777550e-03
-3.002661978825926781e-03
-3.002695040777325630e-03
1.028728008270263672e+00
-3.002721583470702171e-03
-3.430648565292358398e+00
9.598454236984252930e-01
-3.002470824867486954e-03
9.329836964607238770e-01
-3.002717858180403709e-03
5.039805173873901367e-01
1.212081909179687500e+00
-3.002689685672521591e-03
1.927250504493713379e+00
-1.510043621063232422e+00
3.937131881713867188e+00
-3.002664074301719666e-03
-3.002703888341784477e-03
6.684257984161376953e+00
-3.002732293680310249e-03
5.033701658248901367e-01
2.916190147399902344e+00
-3.002689452841877937e-03
1.152756452560424805e+00
-3.002707380801439285e-03
7.393784075975418091e-02
6.020440459251403809e-01
1.188467860221862793e+00
-3.002678509801626205e-03
8.870473504066467285e-01
7.406896948814392090e-01
9.151566028594970703e-01
-3.002646146342158318e-03
5.790778636932373047e+00
-2.985427388921380043e-03
-3.002739977091550827e-03
-9.711802601814270020e-01
-3.002724610269069672e-03
8.191602230072021484e-01
2.133590936660766602e+00
5.479679703712463379e-01
-3.002697601914405823e-03
-3.049548387527465820e+00
-3.002739977091550827e-03
-3.001409349963068962e-03
-3.002714598551392555e-03
3.379827022552490234e+00
-3.002711338922381401e-03
4.060626983642578125e+00
5.625868439674377441e-01
-3.002382814884185791e-03
-3.002729266881942749e-03
-3.002736950293183327e-03
5.540400028228759766e+00
7.934983968734741211e-01
-3.002672689035534859e-03
-2.997299190610647202e-03
-3.002714598551392555e-03
-3.002702258527278900e-03
-3.002721350640058517e-03
1.559719324111938477e+00
4.921319484710693359e+00
1.845011472702026367e+00
6.505519151687622070e-01
-3.001776989549398422e-03
-3.002578625455498695e-03
-3.001247998327016830e-03
1.862544417381286621e+00
-2.845690488815307617e+00
-3.001408884301781654e-03
1.057557821273803711e+00
-3.002705052495002747e-03
-3.002436365932226181e-03
-3.002202371135354042e-03
-3.002705750986933708e-03
-3.002446610480546951e-03
-1.932263255119323730e+00
4.156563758850097656e+00
8.346735239028930664e-01
-3.001104574650526047e-03
1.309580326080322266e+00
-3.002696437761187553e-03
1.470190286636352539e+00
8.903205394744873047e-01
1.841093301773071289e+00
-3.002737881615757942e-03
1.029172539710998535e+00
-3.002713900059461594e-03
1.189389348030090332e+00
-1.028863154351711273e-02
5.512965679168701172e+00
-3.002719953656196594e-03
-3.002534853294491768e-03
-3.002591896802186966e-03
-3.002720884978771210e-03
1.073025822639465332e+00
1.843971729278564453e+00
-4.489258527755737305e-01
-3.002710407599806786e-03
2.487427145242691040e-01
-3.002713667228817940e-03
-3.002141602337360382e-03
-3.002487355843186378e-03
9.911419749259948730e-01
-3.001161385327577591e-03
-3.002709243446588516e-03
2.037309169769287109e+00
-3.266465663909912109e+00
-3.002032637596130371e-03
3.482813537120819092e-01
5.178610682487487793e-01
5.060614347457885742e-01
-3.002720186486840248e-03
-2.998000243678689003e-03
3.713923454284667969e+00
-3.002533689141273499e-03
5.595096573233604431e-02
-3.002277109771966934e-03
-3.002714598551392555e-03
-3.002602839842438698e-03
1.419306516647338867e+00
-2.457483053207397461e+00
-3.002722514793276787e-03
-3.002516692504286766e-03
-3.002714132890105247e-03
6.641353964805603027e-01
3.694411277770996094e+00
6.649626493453979492e-01
6.576141119003295898e-01
9.283351898193359375e-01
3.491879224777221680e+00
3.137033462524414062e+00
-3.002709476277232170e-03
-3.002643119543790817e-03
5.191235542297363281e-01
-1.337872982025146484e+00
4.121690750122070312e+00
2.098573446273803711e+00
1.526054739952087402e+00
-3.002726705744862556e-03
-3.002713900059461594e-03
-1.925585716962814331e-01
2.661088228225708008e+00
4.080118179321289062e+00
1.092978835105895996e+00
4.642006158828735352e-01
1.412435024976730347e-01
9.038426876068115234e-01
3.362398862838745117e+00
5.678857564926147461e-01
6.354615688323974609e-01
2.106154680252075195e+00
1.916427016258239746e+00
-3.002732759341597557e-03
-3.002713434398174286e-03
-3.001321107149124146e-03
-3.002709476277232170e-03
-3.002713667228817940e-03
-2.671450376510620117e+00
-3.002654295414686203e-03
1.973994970321655273e+00
-3.002693876624107361e-03
-3.002719953656196594e-03
-3.949656784534454346e-01
5.876296520233154297e+00
-3.002690151333808899e-03
1.664319783449172974e-01
-7.783944606781005859e-01
