9.290815796703100204e-04 -8.162086829543113708e-03 4.096607677638530731e-03 -8.783708326518535614e-03 3.534335270524024963e-02 2.329861046746373177e-03 -1.010273233987390995e-03 -3.616189956665039062e-02 7.502213120460510254e-03 1.358367316424846649e-02 -2.751675201579928398e-04 2.141827950254082680e-03 1.744127646088600159e-02 1.834947802126407623e-02 6.320073734968900681e-03 2.831117622554302216e-02 8.522200398147106171e-03 1.029723696410655975e-02 -1.240500155836343765e-02 -1.587150851264595985e-03 1.871924265287816525e-03 1.144872605800628662e-02 8.547916077077388763e-03 -5.321259377524256706e-04 1.062957197427749634e-02 7.186010479927062988e-03 -2.372417598962783813e-03 1.999630033969879150e-02 2.235769852995872498e-02 -1.016499241814017296e-03 1.025125570595264435e-02 1.486892346292734146e-03 -2.159020677208900452e-02 7.706924225203692913e-04 -1.318241003900766373e-02 2.750539686530828476e-03 1.176313962787389755e-02 -2.976130321621894836e-02 1.430498063564300537e-02 4.071613773703575134e-03 -2.855943515896797180e-02 -2.700918726623058319e-02 -2.639246545732021332e-02 4.643813706934452057e-03 -5.029878113418817520e-03 4.194476455450057983e-02 1.838463544845581055e-02 -3.125323727726936340e-02 1.272448711097240448e-02 -1.158625911921262741e-02 1.854930305853486061e-03 -1.144247129559516907e-03 1.713692676275968552e-03 1.829035207629203796e-02 -1.256105769425630569e-02 2.700015716254711151e-02 5.795119795948266983e-03 -9.422529488801956177e-03 -1.348727568984031677e-02 1.091395504772663116e-02 1.328792050480842590e-02 2.270267345011234283e-02 1.952371187508106232e-02 2.683861821424216032e-04 1.174577628262341022e-03 2.244734205305576324e-02 1.591657474637031555e-02 3.731570765376091003e-02 1.721316133625805378e-03 3.640260174870491028e-02 1.179993711411952972e-02 -1.020107511430978775e-02 3.416393324732780457e-02 -2.729998715221881866e-02 3.311951085925102234e-02 1.390135567635297775e-02 6.327352020889520645e-03 1.541464217007160187e-02 9.589713998138904572e-03 -1.886889338493347168e-02 -1.488722767680883408e-02 -1.167256850749254227e-03 1.956977136433124542e-02 -5.585825536400079727e-03 -2.746107243001461029e-02 -1.270344946533441544e-02 9.754712693393230438e-03 1.622192375361919403e-02 -1.375289540737867355e-02 -2.454951778054237366e-02 3.722963109612464905e-02 -2.997023612260818481e-02 1.086530555039644241e-02 1.218653097748756409e-02 -2.941760979592800140e-02 2.195804612711071968e-03 1.081940159201622009e-02 2.303940244019031525e-02 1.740874908864498138e-02 -2.702384814620018005e-02 2.061795070767402649e-02 8.608183823525905609e-03 -1.238544471561908722e-02 -2.547620609402656555e-02 -1.319875940680503845e-02 3.343848045915365219e-03 -2.917057136073708534e-03 -4.656419623643159866e-04 -1.302750315517187119e-02 2.139398641884326935e-02 1.232760120183229446e-02 6.912091746926307678e-03 1.151387020945549011e-02 5.671877413988113403e-03 4.882667586207389832e-02 -1.077062450349330902e-02 -6.435419898480176926e-03 1.296397112309932709e-02 -7.039720658212900162e-03 1.424938719719648361e-02 1.231409143656492233e-02 -5.421717651188373566e-03 2.056183759123086929e-03 4.138332791626453400e-03 1.538995373994112015e-02 -1.003934349864721298e-02 1.392673794180154800e-02 5.125719122588634491e-03 1.792979892343282700e-04 -5.161669570952653885e-03 6.646608002483844757e-03 4.244850948452949524e-03 1.379017531871795654e-02 2.647192589938640594e-02 -1.536327693611383438e-02 -4.075990058481693268e-03 -8.255221880972385406e-03 -1.457748282700777054e-02 1.689356379210948944e-02 -4.526744130998849869e-03 -1.639092341065406799e-02 -3.319276869297027588e-02 6.203406956046819687e-03 6.301509682089090347e-03 -1.320531126111745834e-02 -1.248506642878055573e-02 -2.238073013722896576e-02 4.891133867204189301e-03 1.124562136828899384e-02 1.687367446720600128e-02 1.362440269440412521e-02 2.353170141577720642e-02 -4.344107117503881454e-03 2.206731587648391724e-02 4.324018955230712891e-03 2.024137502303346992e-04 1.130879297852516174e-02 8.093475364148616791e-03 2.327910065650939941e-02 2.169328369200229645e-02 1.047381665557622910e-02 2.405569888651371002e-02 -4.578172694891691208e-03 1.499355118721723557e-02 5.923909600824117661e-03 5.046601407229900360e-03 -3.709425404667854309e-02 1.822161371819674969e-03 8.002498187124729156e-03 1.516849268227815628e-02 3.653692081570625305e-02 2.056217193603515625e-02 -6.962909828871488571e-03 -5.647718789987266064e-04 -2.337929233908653259e-02 1.158053986728191376e-02 -3.259547054767608643e-03 8.111592382192611694e-03 -2.346354350447654724e-02 -8.376077748835086823e-03 -1.486840099096298218e-02 2.288839593529701233e-02 1.890475512482225895e-03 -1.703250408172607422e-02 2.305362001061439514e-02 2.329562976956367493e-02 2.845221012830734253e-02 6.384622771292924881e-03 2.696759626269340515e-02 -2.522708382457494736e-04 -1.855471357703208923e-02 1.545253768563270569e-02 -1.943989307619631290e-03 3.252689912915229797e-02 1.632790453732013702e-02 4.443570971488952637e-03 -1.656456291675567627e-02 3.225200576707720757e-03 -3.646495193243026733e-02 -1.957233063876628876e-03 4.437490832060575485e-03 -1.048506892402656376e-04 -5.915497429668903351e-03 3.050011582672595978e-02 -2.690723631531000137e-03 -1.424623653292655945e-02 4.863561596721410751e-03 -9.791314601898193359e-03 2.122967038303613663e-03 -9.849325753748416901e-03 -2.108034212142229080e-03 1.209908351302146912e-02 5.820679478347301483e-03 -4.073311761021614075e-02 -1.419798564165830612e-02 -1.063244603574275970e-02 -2.814350277185440063e-02 -3.156345104798674583e-03 1.269303378649055958e-03 1.878817193210124969e-02 -4.014231672044843435e-04 1.865185797214508057e-02 1.067303121089935303e-02 2.478963509202003479e-02 -7.064108736813068390e-03 1.183700282126665115e-02 -3.348094969987869263e-02 -1.412386912852525711e-02 3.082783194258809090e-03 5.701272748410701752e-03 1.725892722606658936e-02 1.978956535458564758e-02 1.196747459471225739e-02 2.146338578313589096e-03 -2.699813572689890862e-03 6.142531521618366241e-03 3.385829273611307144e-03 3.434072481468319893e-03 1.470627612434327602e-03 1.138928811997175217e-02 2.756983600556850433e-02 -1.270129624754190445e-02 1.621109084226191044e-03 2.412796393036842346e-02 1.274597924202680588e-02 -7.425616495311260223e-03 3.041977062821388245e-02 -1.153607387095689774e-02 1.290307007730007172e-02 6.123959086835384369e-03 3.515536896884441376e-03 -2.477652765810489655e-02 1.489283400587737560e-03 8.228751830756664276e-03 -8.038856089115142822e-03 1.367013715207576752e-02
-1.889153756201267242e-02 4.148793406784534454e-03 -4.830999299883842468e-03 -2.122321538627147675e-02 -3.983800706919282675e-04 1.623745076358318329e-02 -1.043603755533695221e-03 -1.882001524791121483e-03 -3.915636613965034485e-02 1.327433157712221146e-03 1.944927498698234558e-02 -1.186673715710639954e-02 8.657670579850673676e-03 -7.367790210992097855e-03 3.679846646264195442e-03 1.921252161264419556e-02 -3.357048612087965012e-03 -2.398165129125118256e-02 -9.881131350994110107e-03 1.794345118105411530e-02 7.152942009270191193e-03 1.549219014123082161e-03 -1.169011462479829788e-03 6.821104791015386581e-03 5.780890118330717087e-03 5.734719801694154739e-03 -2.528663165867328644e-02 7.088274229317903519e-03 -4.302322864532470703e-02 1.580704818479716778e-03 1.980452798306941986e-02 7.247866131365299225e-03 -2.885190956294536591e-02 -1.103572174906730652e-02 -3.950721025466918945e-02 -1.220464427024126053e-02 1.008329726755619049e-02 -1.994898915290832520e-02 5.085078068077564240e-03 -5.689620506018400192e-03 -1.919970102608203888e-02 -1.683505438268184662e-02 2.026727423071861267e-03 -4.840083420276641846e-03 -1.686340663582086563e-03 -3.124772012233734131e-02 2.504153735935688019e-02 -1.277287141419947147e-03 7.120499387383460999e-03 -6.116228923201560974e-02 -2.128932159394025803e-03 -7.417636923491954803e-03 -6.970766931772232056e-03 -7.436158135533332825e-03 6.589081138372421265e-03 -3.203914687037467957e-02 6.105451611801981926e-04 -1.955154165625572205e-02 8.097440004348754883e-04 -3.096478758379817009e-03 -1.658604713156819344e-03 4.050460457801818848e-02 1.264797803014516830e-02 -1.186107192188501358e-02 -1.622915826737880707e-02 2.741430513560771942e-02 1.114295143634080887e-02 5.320982262492179871e-02 2.253662422299385071e-02 1.680126413702964783e-02 -3.191057592630386353e-02 5.193479824811220169e-03 -3.573212027549743652e-02 4.047673195600509644e-03 -5.430425051599740982e-03 1.942158490419387817e-02 2.265840955078601837e-02 1.960951089859008789e-02 -6.148380693048238754e-03 -4.886909574270248413e-02 2.990658394992351532e-03 1.348018087446689606e-02 2.908512949943542480e-03 4.840642213821411133e-03 -1.842580852098762989e-03 -1.536445040255784988e-02 3.489523380994796753e-02 -1.127232238650321960e-02 -2.914285752922296524e-03 -1.788939349353313446e-02 3.371239081025123596e-02 -2.730951085686683655e-02 4.102047905325889587e-02 -3.669191524386405945e-02 -1.705884933471679688e-02 -2.276870422065258026e-02 -8.410827256739139557e-03 3.981352783739566803e-03 -3.402178362011909485e-02 -2.541591972112655640e-02 -9.154111146926879883e-03 1.947591081261634827e-02 -6.137420423328876495e-03 -3.091998398303985596e-03 -2.996115013957023621e-03 5.395764485001564026e-03 -5.507117602974176407e-03 -4.870804958045482635e-03 -2.234360901638865471e-03 -9.316342882812023163e-03 -2.964296191930770874e-02 6.171270739287137985e-03 -2.130973618477582932e-03 9.875912219285964966e-03 7.209362834692001343e-02 -4.481090605258941650e-02 -2.194239944219589233e-02 1.234459108673036098e-03 -9.000034071505069733e-03 2.017050795257091522e-02 -1.554279401898384094e-02 7.003634236752986908e-03 1.963740028440952301e-02 -2.058373764157295227e-02 -1.471981965005397797e-02 -1.592400670051574707e-02 3.848567605018615723e-02 -2.275834605097770691e-02 7.038079202175140381e-03 7.464209571480751038e-03 6.961988285183906555e-03 -7.569327950477600098e-03 -2.199726738035678864e-02 2.463055215775966644e-02 -1.235322793945670128e-03 -6.449357606470584869e-03 -3.171861171722412109e-02 1.770318299531936646e-02 7.571122609078884125e-03 1.289028301835060120e-02 5.980020505376160145e-04 -2.753489837050437927e-02 -1.215849164873361588e-02 4.797417204827070236e-03 -2.185049094259738922e-02 -1.473707240074872971e-02 -2.342033013701438904e-02 -1.304227765649557114e-02 1.507359743118286133e-02 2.803303534165024757e-03 -5.088185425847768784e-03 -4.489050246775150299e-03 8.297067135572433472e-03 -5.674300249665975571e-03 -1.235323958098888397e-02 -3.730327263474464417e-02 -5.548582877963781357e-03 -2.482077106833457947e-02 2.082334272563457489e-02 2.903343737125396729e-02 8.800894953310489655e-03 7.510015740990638733e-03 -2.587991766631603241e-02 -1.146508380770683289e-02 2.790325134992599487e-02 -2.902350760996341705e-02 -2.074626274406909943e-02 -2.257734164595603943e-02 3.638842143118381500e-03 4.859143402427434921e-03 4.422333464026451111e-02 1.439117267727851868e-02 -1.678250171244144440e-02 1.545212883502244949e-02 -4.991890862584114075e-03 -9.978504851460456848e-03 2.475562319159507751e-02 1.357283350080251694e-02 -1.422041002660989761e-02 -6.986374501138925552e-04 -1.126765552908182144e-02 -4.053905978798866272e-02 6.384538486599922180e-03 -1.394037436693906784e-02 7.927757687866687775e-03 -3.745708614587783813e-02 -3.290144354104995728e-02 -1.868875324726104736e-02 -9.883436141535639763e-04 -2.350109134567901492e-04 -4.630456212908029556e-03 1.407888252288103104e-02 -1.683853566646575928e-02 4.010654613375663757e-02 -4.517420660704374313e-03 -5.242933519184589386e-03 -7.781941443681716919e-03 1.052618143148720264e-03 -1.968808844685554504e-02 6.778233801014721394e-04 1.172397099435329437e-02 2.050328068435192108e-02 -1.601032167673110962e-02 -2.843565121293067932e-02 2.100592944771051407e-03 -9.914723224937915802e-03 -4.011385515332221985e-02 4.086887463927268982e-03 -6.486168713308870792e-04 -1.323948800563812256e-02 -1.500003784894943237e-02 1.748227328062057495e-02 1.043531484901905060e-02 -2.497966773808002472e-02 -9.693508036434650421e-03 -1.214421913027763367e-02 -1.036002393811941147e-02 1.205588504672050476e-02 1.699506421573460102e-03 1.691324263811111450e-02 1.891303248703479767e-02 1.815074123442173004e-02 -2.600929141044616699e-02 -5.178676918148994446e-03 -1.687464118003845215e-02 -1.147213205695152283e-02 -4.074326716363430023e-03 -7.344767451286315918e-03 -2.252262784168124199e-03 1.308790873736143112e-02 1.884470321238040924e-02 -2.334292978048324585e-02 -2.674534218385815620e-03 -1.287326123565435410e-02 -2.492961101233959198e-02 -1.110586524009704590e-02 -5.475636105984449387e-03 3.931184858083724976e-02 1.803572056815028191e-03 3.234669566154479980e-02 1.384592149406671524e-02 1.264592446386814117e-02 8.424599654972553253e-03 2.775456570088863373e-02 1.746944151818752289e-02 -4.391528666019439697e-02 5.314055364578962326e-03 -1.669244468212127686e-02 1.732561551034450531e-02 -5.202349741011857986e-03 1.141299493610858917e-02 -2.297228574752807617e-02 1.949969120323657990e-02 9.888252243399620056e-03 -1.938680186867713928e-02 -3.105426672846078873e-03
6.204877048730850220e-03 -1.145387766882777214e-03 8.383797481656074524e-03 7.830739952623844147e-03 1.443515904247760773e-02 5.596463568508625031e-03 -1.490449625998735428e-02 1.856933231465518475e-03 5.834129825234413147e-02 3.949974663555622101e-03 -8.775455877184867859e-03 -2.596391551196575165e-02 -5.953729152679443359e-03 1.759065687656402588e-02 -1.186838140711188316e-03 -7.893795147538185120e-03 1.060285232961177826e-02 2.081853337585926056e-02 5.748626310378313065e-03 9.645201498642563820e-04 -5.566425155848264694e-03 4.641115665435791016e-02 -1.497463136911392212e-02 -3.108250536024570465e-02 6.050377618521451950e-03 -8.170681074261665344e-03 7.584945298731327057e-03 2.525542303919792175e-02 1.432618591934442520e-02 3.063349286094307899e-03 6.276601459830999374e-03 -2.686242805793881416e-03 2.114400966092944145e-03 1.091072149574756622e-02 -3.956180997192859650e-03 4.477018862962722778e-02 -6.595342885702848434e-03 -3.621724434196949005e-03 -2.524897828698158264e-02 2.598083810880780220e-03 9.571078233420848846e-03 1.382061559706926346e-02 9.523099288344383240e-03 -8.831183426082134247e-03 -5.892265471629798412e-04 3.671730682253837585e-02 9.346640668809413910e-03 3.622681275010108948e-02 5.840568803250789642e-03 2.294350415468215942e-02 -5.608901381492614746e-03 -1.957295276224613190e-02 -1.911033876240253448e-02 1.202867832034826279e-02 -4.474146757274866104e-03 -1.199385710060596466e-02 -2.524629700928926468e-03 7.763806264847517014e-03 -1.804863661527633667e-02 5.144875962287187576e-03 -1.060278038494288921e-03 1.741164177656173706e-02 7.691254373639822006e-03 3.964701609220355749e-04 3.103897348046302795e-02 -1.726889633573591709e-03 -1.385201420634984970e-02 3.577461699023842812e-03 1.520694326609373093e-02 4.184143617749214172e-02 2.194702252745628357e-02 1.183161162771284580e-03 1.003482751548290253e-02 5.748923867940902710e-03 -2.762987278401851654e-02 1.710389368236064911e-02 -1.431381888687610626e-02 1.415721233934164047e-02 1.766072399914264679e-02 7.788084913045167923e-03 5.276988260447978973e-03 1.717629143968224525e-03 -6.381316110491752625e-03 9.091596119105815887e-03 7.333640009164810181e-03 -3.011846914887428284e-03 8.253048174083232880e-03 -2.001158427447080612e-03 5.552308168262243271e-03 -6.865150760859251022e-03 1.372234057635068893e-02 3.914580214768648148e-03 5.267255008220672607e-03 5.637632682919502258e-02 6.014325190335512161e-03 1.567766536027193069e-03 1.483480096794664860e-03 4.330726340413093567e-03 -2.784737944602966309e-02 2.022645622491836548e-02 4.380254074931144714e-03 -3.171465592458844185e-03 2.548423036932945251e-02 1.193757075816392899e-02 4.762449767440557480e-03 -1.045580673962831497e-02 3.769024508073925972e-03 1.758936909027397633e-03 1.229193340986967087e-02 2.992719411849975586e-02 6.206671148538589478e-02 -5.592119880020618439e-03 1.538404915481805801e-02 3.891305997967720032e-03 1.596702821552753448e-02 -1.185777783393859863e-02 9.151223115622997284e-03 8.681539446115493774e-03 5.361920222640037537e-03 -6.659701932221651077e-03 6.032881792634725571e-03 7.542485371232032776e-03 -1.692602038383483887e-02 -2.720043063163757324e-03 -5.183400120586156845e-03 2.013254212215542793e-03 7.658536545932292938e-03 -7.251912262290716171e-03 4.006207920610904694e-03 -1.333808433264493942e-02 -1.329006534069776535e-02 4.759487230330705643e-03 -2.211360493674874306e-03 8.364334702491760254e-03 5.588809493929147720e-03 -7.553862407803535461e-03 -5.322930868715047836e-03 2.733293687924742699e-03 -2.618485596030950546e-03 1.690179924480617046e-03 8.106408640742301941e-03 -2.258036984130740166e-03 2.265775343403220177e-03 -4.101909231394529343e-03 7.472848985344171524e-03 -1.080768089741468430e-02 5.732969846576452255e-03 -1.547098625451326370e-03 1.901132613420486450e-02 -1.394933369010686874e-02 -1.266711950302124023e-02 1.480674371123313904e-02 -3.422874584794044495e-02 1.405949331820011139e-02 5.357097368687391281e-03 -1.565093290992081165e-03 1.363744121044874191e-02 4.477544873952865601e-02 1.950903236865997314e-02 -3.558388911187648773e-03 2.736777067184448242e-03 -1.144504826515913010e-02 1.737846294417977333e-03 -2.840198343619704247e-03 3.532683011144399643e-03 -2.528883516788482666e-02 1.264406647533178329e-02 3.104825271293520927e-03 9.764333255589008331e-03 2.453229948878288269e-02 3.612019820138812065e-03 1.142936944961547852e-02 1.514488924294710159e-02 -9.293900802731513977e-03 9.599762968719005585e-03 -2.426935127004981041e-03 1.017198897898197174e-02 8.786923252046108246e-03 7.462847977876663208e-03 -2.039735578000545502e-02 1.566825434565544128e-02 4.469467699527740479e-02 1.171845360659062862e-03 1.106137037277221680e-02 -6.139645818620920181e-03 2.162385545670986176e-02 2.516934461891651154e-02 1.467159017920494080e-02 2.755349501967430115e-02 8.192935958504676819e-03 2.724979538470506668e-03 -4.224184085614979267e-04 6.772924214601516724e-03 1.816261932253837585e-02 8.270992897450923920e-03 1.216069422662258148e-02 1.085402444005012512e-03 3.679448738694190979e-03 1.535677001811563969e-03 1.258671749383211136e-03 -2.492500003427267075e-03 5.675532389432191849e-03 6.335264071822166443e-03 4.337508697062730789e-03 8.213514462113380432e-03 -4.031204618513584137e-03 -1.827172585763037205e-03 4.276331514120101929e-03 7.298514246940612793e-03 -1.276719849556684494e-02 -1.868675462901592255e-02 -1.658449415117502213e-03 3.112058620899915695e-03 5.060625728219747543e-03 -1.485291123390197754e-02 1.908168895170092583e-03 -6.823219358921051025e-03 -1.909638522192835808e-03 -3.566750790923833847e-03 2.662605047225952148e-02 2.079703379422426224e-03 -1.311324164271354675e-02 1.675349660217761993e-02 4.497424699366092682e-03 1.115766912698745728e-02 -1.456159539520740509e-02 2.941977232694625854e-03 9.747046977281570435e-03 -1.184660196304321289e-02 5.746782757341861725e-03 1.564593426883220673e-02 4.598407074809074402e-03 -7.952525280416011810e-03 -1.335465814918279648e-02 -1.286334451287984848e-02 -3.386113559827208519e-03 -1.686812937259674072e-02 2.685815095901489258e-03 1.380793564021587372e-02 1.089473720639944077e-02 1.257467269897460938e-02 1.792988367378711700e-02 -1.386882551014423370e-02 1.086024194955825806e-02 1.371725555509328842e-02 -1.141763012856245041e-02 2.099352329969406128e-02 -2.669436158612370491e-03 1.154190674424171448e-02 3.768604015931487083e-03 5.293606780469417572e-03 -6.742122932337224483e-04 -6.418878678232431412e-03 5.530802533030509949e-03 6.523047923110425472e-04 -5.477064289152622223e-03
4.490396895562298596e-05 1.243156380951404572e-02 1.142569258809089661e-02 5.628066603094339371e-03 -2.098671719431877136e-02 1.896511879749596119e-03 6.578066851943731308e-03 -8.541052043437957764e-02 1.030388381332159042e-02 2.882107347249984741e-02 2.587001211941242218e-02 1.088093314319849014e-02 2.050815150141716003e-02 6.868006195873022079e-03 1.458325050771236420e-02 2.183460257947444916e-02 -2.051420509815216064e-02 2.171120233833789825e-02 -2.892248705029487610e-02 -2.291791141033172607e-02 2.752772159874439240e-02 -3.595083253458142281e-03 1.293729525059461594e-02 -1.365728303790092468e-02 2.353738993406295776e-02 1.124127861112356186e-02 1.707021892070770264e-02 -2.859448082745075226e-02 1.126016117632389069e-02 9.695505723357200623e-03 -3.018985502421855927e-03 3.461899980902671814e-02 5.231300834566354752e-03 -4.055168014019727707e-03 -1.164271309971809387e-02 1.645037904381752014e-02 2.008804678916931152e-02 -7.044023275375366211e-02 5.609274841845035553e-03 1.278898958116769791e-02 6.227617152035236359e-03 9.676470421254634857e-03 -2.417855663225054741e-03 -1.186733916401863098e-01 -7.689352059969678521e-05 1.447836961597204208e-02 2.624267339706420898e-02 -6.992470473051071167e-02 1.071539334952831268e-02 1.114966347813606262e-02 9.837470017373561859e-03 1.694938167929649353e-02 1.420693937689065933e-02 2.467297390103340149e-02 8.000220172107219696e-03 1.155340857803821564e-02 2.379907853901386261e-02 3.229896537959575653e-04 -1.406621001660823822e-02 -5.116763710975646973e-02 1.168417371809482574e-02 8.580769412219524384e-03 -1.885627396404743195e-02 1.508437190204858780e-02 7.240680977702140808e-03 1.981870085000991821e-02 -1.334857195615768433e-03 2.209189161658287048e-02 -1.900904253125190735e-02 2.615961013361811638e-03 -1.492346636950969696e-03 1.304583903402090073e-02 7.093681488186120987e-03 -8.780543506145477295e-02 2.472466975450515747e-02 9.980584494769573212e-03 -1.037840452045202255e-02 2.689542248845100403e-02 2.115526236593723297e-02 1.337813120335340500e-02 1.191168092191219330e-02 -1.926222629845142365e-02 -2.670365013182163239e-02 7.329104468226432800e-03 -5.776607245206832886e-02 -9.278482943773269653e-02 -8.457996882498264313e-03 -3.823302313685417175e-02 -4.837694019079208374e-02 5.466718226671218872e-03 2.970214933156967163e-02 1.780973002314567566e-02 4.616064019501209259e-03 -8.806544356048107147e-03 -3.924763761460781097e-03 1.808100007474422455e-02 1.135544478893280029e-02 2.512914687395095825e-02 2.693625353276729584e-02 9.613136760890483856e-03 2.207969129085540771e-02 3.748272778466343880e-03 -1.289563626050949097e-02 -7.945880293846130371e-02 -1.263970625586807728e-03 1.475416310131549835e-02 1.242100168019533157e-02 2.689005061984062195e-02 -3.930123150348663330e-02 -2.271121181547641754e-02 1.408589538186788559e-02 8.246329613029956818e-03 3.373413532972335815e-02 2.714972011744976044e-02 1.220016088336706161e-02 -7.193906232714653015e-03 9.442605078220367432e-03 -2.993182512000203133e-03 1.373381167650222778e-02 2.207514829933643341e-02 8.777178823947906494e-03 -1.196897937916219234e-03 1.180986221879720688e-02 9.525870904326438904e-03 1.543800998479127884e-02 -1.051167678087949753e-02 5.852952599525451660e-03 -9.100637584924697876e-02 2.628615871071815491e-02 3.054178878664970398e-02 1.392775774002075195e-02 6.729255430400371552e-03 2.669819863513112068e-03 3.721608221530914307e-02 -4.526776261627674103e-03 1.168107730336487293e-03 -1.448695454746484756e-02 -2.550194226205348969e-02 1.641982421278953552e-02 7.001950871199369431e-03 -2.233318611979484558e-02 2.632347866892814636e-03 -1.123152323998510838e-03 -1.149724051356315613e-01 -2.004016563296318054e-02 -1.581305824220180511e-02 -6.842548027634620667e-03 -2.185015327995643020e-04 2.352599613368511200e-02 1.448046136647462845e-02 1.274230517446994781e-02 2.684763260185718536e-02 2.191531844437122345e-02 1.453229505568742752e-02 1.894839480519294739e-02 1.527168974280357361e-02 9.083115495741367340e-03 -4.237491637468338013e-03 -3.703491762280464172e-03 1.730124466121196747e-02 3.382234647870063782e-02 1.378479972481727600e-02 1.316958572715520859e-02 1.401037070900201797e-02 -1.334096188656985760e-03 1.801126869395375252e-03 -1.436204370111227036e-02 4.251673351973295212e-03 -1.909501105546951294e-02 -2.894409373402595520e-02 1.795308478176593781e-02 -2.926458604633808136e-02 6.669957190752029419e-03 1.412862259894609451e-02 3.559678094461560249e-03 8.250541053712368011e-03 -8.732891641557216644e-03 -8.740203455090522766e-03 -1.269284822046756744e-02 4.203712940216064453e-02 -9.385143406689167023e-03 2.055169269442558289e-02 2.458478696644306183e-02 1.666536740958690643e-02 2.358029782772064209e-02 1.312971021980047226e-02 3.523733839392662048e-02 -1.083856821060180664e-02 -1.910394988954067230e-03 2.252567000687122345e-02 1.074830628931522369e-02 3.805062151513993740e-04 7.446536794304847717e-03 2.741946093738079071e-02 3.523109015077352524e-03 -2.198276808485388756e-03 3.575746901333332062e-03 3.245478495955467224e-02 -7.243648916482925415e-02 1.806944794952869415e-02 -7.142502069473266602e-02 4.667211789637804031e-03 -8.686752989888191223e-03 1.938918977975845337e-02 1.375738717615604401e-02 -8.416083455085754395e-02 1.099951006472110748e-02 -7.225502282381057739e-02 -3.223438188433647156e-02 -5.875279195606708527e-03 2.006649412214756012e-02 2.941665425896644592e-02 3.032615967094898224e-02 -2.383661083877086639e-02 1.833028974942862988e-03 -1.657100394368171692e-02 -8.537850342690944672e-03 5.960779264569282532e-03 1.514545269310474396e-02 1.077534165233373642e-02 -2.926330827176570892e-02 1.788249611854553223e-02 -1.697681099176406860e-02 1.381606422364711761e-02 -1.560090575367212296e-02 1.236563920974731445e-02 -4.108261689543724060e-02 -2.982306666672229767e-02 -9.024707227945327759e-02 1.242389064282178879e-02 -1.323301997035741806e-02 1.990267541259527206e-03 1.758251152932643890e-02 -1.644706353545188904e-04 -7.709236443042755127e-02 2.423465438187122345e-02 1.951132714748382568e-02 1.654204213991761208e-03 1.847324334084987640e-02 1.222223509103059769e-02 3.841279819607734680e-02 -6.402176618576049805e-02 1.062353514134883881e-02 2.626348845660686493e-02 5.057962145656347275e-03 -9.927693754434585571e-02 -9.536297060549259186e-03 1.046088710427284241e-02 -1.800389029085636139e-02 3.044925071299076080e-02 1.878304034471511841e-02 1.499497052282094955e-02 -2.557315165176987648e-04 1.338796969503164291e-02 1.617518626153469086e-02 -1.303980872035026550e-02
-5.049939453601837158e-02 -8.948565274477005005e-02 7.705495227128267288e-03 4.702153429388999939e-02 3.865816071629524231e-02 3.741656243801116943e-02 -6.740903109312057495e-02 3.390291705727577209e-02 2.950611896812915802e-02 2.382066473364830017e-02 -5.453332513570785522e-02 3.875117003917694092e-02 -3.076263330876827240e-02 3.826313838362693787e-02 4.936271533370018005e-02 5.345370620489120483e-02 -5.549384281039237976e-02 -9.905460476875305176e-02 1.742482185363769531e-02 -5.866775289177894592e-02 4.469377174973487854e-02 1.662923581898212433e-02 5.137646570801734924e-02 -1.071119457483291626e-01 2.750318311154842377e-02 1.435634493827819824e-02 5.118764191865921021e-02 4.483793675899505615e-02 -4.847989976406097412e-02 -1.249999646097421646e-02 3.234035894274711609e-02 -1.025319006294012070e-02 3.938955068588256836e-02 -7.804761826992034912e-02 3.455702960491180420e-02 2.259027212858200073e-02 4.417695477604866028e-02 1.404180005192756653e-02 -7.924726605415344238e-02 1.435379590839147568e-02 3.979528322815895081e-02 2.180651202797889709e-02 -5.170653387904167175e-02 -6.481312680989503860e-03 3.046773560345172882e-02 2.931958623230457306e-02 1.650305464863777161e-02 6.393356248736381531e-03 2.979709580540657043e-02 2.785733528435230255e-02 1.208942849189043045e-02 -8.677428215742111206e-02 -8.000805228948593140e-02 1.231683976948261261e-02 -5.157401412725448608e-02 -2.340726740658283234e-02 1.879986189305782318e-02 4.623831063508987427e-02 -2.731779403984546661e-02 3.239911794662475586e-02 2.768745087087154388e-02 1.053883694112300873e-02 3.087649680674076080e-02 -8.139913529157638550e-02 -7.275672256946563721e-02 4.724276065826416016e-02 -7.539267838001251221e-02 2.347701042890548706e-02 -5.500314384698867798e-02 -1.831506192684173584e-02 -6.638722866773605347e-02 -9.707021713256835938e-02 -4.911777004599571228e-02 2.525213547050952911e-02 -3.455758839845657349e-02 -5.932269617915153503e-02 -9.668225795030593872e-02 -2.110969088971614838e-02 4.979625716805458069e-02 4.361953958868980408e-02 3.743594884872436523e-02 -4.882255941629409790e-02 -4.002773016691207886e-02 3.097922541201114655e-02 2.736020833253860474e-02 -2.905007265508174896e-02 -6.295602023601531982e-02 2.960761822760105133e-02 2.595491893589496613e-02 4.058037325739860535e-02 3.340666368603706360e-02 3.734755143523216248e-02 -4.202946275472640991e-02 4.547841846942901611e-02 2.404496818780899048e-02 2.740884572267532349e-02 8.073592558503150940e-03 5.852426588535308838e-02 -4.970476776361465454e-02 3.090461716055870056e-02 4.004885256290435791e-02 3.820357099175453186e-02 3.115316294133663177e-02 2.335498295724391937e-02 -8.105970919132232666e-02 5.428267270326614380e-02 4.242381453514099121e-02 5.187372490763664246e-02 1.810067705810070038e-02 -2.388608641922473907e-02 2.122410200536251068e-02 3.712847828865051270e-02 1.960449479520320892e-02 -5.508356913924217224e-02 1.728633604943752289e-02 3.764928877353668213e-02 4.966900683939456940e-03 1.805948838591575623e-02 3.896202892065048218e-02 5.796120688319206238e-02 1.490512024611234665e-02 3.871154272928833961e-03 -5.081229656934738159e-02 9.292566217482089996e-03 4.865503311157226562e-02 3.218669071793556213e-02 2.635523490607738495e-02 3.494674339890480042e-02 3.127632290124893188e-02 -7.192350178956985474e-02 -8.152591437101364136e-02 2.155909081920981407e-03 3.281265869736671448e-02 3.240195661783218384e-02 4.192391410470008850e-02 3.704768791794776917e-02 2.886808477342128754e-02 -4.230726510286331177e-02 2.883749082684516907e-02 -3.279539942741394043e-02 4.091985896229743958e-02 2.966022118926048279e-02 2.788423001766204834e-02 4.562602378427982330e-03 -5.179538577795028687e-02 2.916173450648784637e-02 2.984380163252353668e-02 3.139083832502365112e-02 1.693738438189029694e-02 5.854063108563423157e-02 3.587957844138145447e-02 2.232791483402252197e-02 -3.726267814636230469e-02 1.081310026347637177e-02 -7.222940027713775635e-02 4.401159286499023438e-02 -7.673201709985733032e-02 2.402219362556934357e-02 -4.144804179668426514e-02 5.128999054431915283e-02 -5.775130167603492737e-02 5.306226760149002075e-02 5.033072084188461304e-02 5.805572867393493652e-02 -1.279558055102825165e-02 1.771243289113044739e-02 1.733914390206336975e-02 2.437095344066619873e-02 -2.442300785332918167e-03 -8.590400218963623047e-03 1.879724860191345215e-02 3.269408270716667175e-02 4.579329118132591248e-02 3.955583274364471436e-02 1.614895462989807129e-02 2.869536913931369781e-02 -8.494167774915695190e-02 2.751905471086502075e-02 1.909792795777320862e-02 -6.820323318243026733e-02 3.063105791807174683e-02 4.567243158817291260e-02 -8.063533902168273926e-02 4.067125916481018066e-02 4.359425976872444153e-02 4.791802912950515747e-02 4.059817269444465637e-02 -1.460054516792297363e-02 -3.191611170768737793e-02 4.925500229001045227e-02 2.596254274249076843e-02 3.586054593324661255e-02 4.616302624344825745e-02 2.390100434422492981e-02 -6.202043965458869934e-02 3.667805716395378113e-02 3.279328718781471252e-02 -4.566272348165512085e-02 2.410766435787081718e-03 5.475577712059020996e-02 1.344994176179170609e-02 2.813372015953063965e-02 2.770175971090793610e-02 6.213675253093242645e-03 2.760858274996280670e-02 8.890066295862197876e-03 4.843175038695335388e-02 7.290519773960113525e-03 -4.834486544132232666e-02 -8.238970488309860229e-02 -7.854419201612472534e-02 3.242846578359603882e-02 -4.237066488713026047e-03 4.619027674198150635e-02 -7.879075407981872559e-02 4.079165309667587280e-02 1.790100336074829102e-02 2.711872942745685577e-02 3.175761923193931580e-02 -2.638754062354564667e-02 3.585993777960538864e-03 6.200445070862770081e-02 5.427781492471694946e-02 2.109028166159987450e-03 3.840518370270729065e-02 5.600488558411598206e-02 3.723982349038124084e-02 3.209584578871726990e-02 1.369633059948682785e-02 9.857651777565479279e-03 2.907904982566833496e-02 2.983162738382816315e-02 6.071006879210472107e-02 2.928618900477886200e-02 1.945603266358375549e-02 4.949099943041801453e-02 -7.787910848855972290e-02 6.387122906744480133e-03 1.951018162071704865e-02 -7.443087548017501831e-02 3.529114276170730591e-02 -1.749596185982227325e-02 4.677284136414527893e-02 2.971510961651802063e-02 3.435525298118591309e-02 3.275404125452041626e-02 -2.475223131477832794e-02 -7.182450592517852783e-02 -4.530058428645133972e-02 4.546492546796798706e-02 -6.090018153190612793e-02 5.350664258003234863e-02 4.772552847862243652e-02 -7.033207267522811890e-02 3.945337235927581787e-02 3.113608434796333313e-02
5.839916411787271500e-04 3.485931828618049622e-02 -1.371891424059867859e-02 -3.101842477917671204e-02 1.433458551764488220e-02 1.253542676568031311e-02 7.957624271512031555e-03 -7.539419457316398621e-03 -2.179649285972118378e-02 -1.635468797758221626e-03 2.175172418355941772e-02 -1.807704381644725800e-02 9.769812226295471191e-03 4.700829740613698959e-03 -2.427561441436409950e-03 2.684981748461723328e-02 1.467525679618120193e-02 -1.116226427257061005e-02 9.790289215743541718e-03 8.469262160360813141e-03 2.049463801085948944e-02 6.983171217143535614e-03 2.256747335195541382e-03 1.876310259103775024e-02 1.839762553572654724e-02 9.019593708217144012e-03 -3.030995279550552368e-02 1.237338036298751831e-02 -4.335599951446056366e-03 1.025944110006093979e-02 1.782317273318767548e-02 1.671649701893329620e-02 -4.043494910001754761e-02 4.189975094050168991e-03 -3.997520729899406433e-02 -1.481448486447334290e-02 -5.653866566717624664e-03 -5.635370500385761261e-03 9.018474258482456207e-03 -1.536371372640132904e-02 -2.541700005531311035e-02 -2.162095531821250916e-02 -1.771613489836454391e-03 -1.549117360264062881e-02 -6.729386746883392334e-03 -6.498078815639019012e-03 2.598211169242858887e-02 -8.250588551163673401e-03 8.738496340811252594e-03 -4.934968054294586182e-02 -1.389755308628082275e-02 -9.582444094121456146e-03 -7.545863045379519463e-04 4.401280079036951065e-03 -1.529935654252767563e-02 -2.416188083589076996e-02 7.855453528463840485e-03 -2.929038368165493011e-02 2.308205934241414070e-03 1.454285578802227974e-03 -4.043071021442301571e-05 3.119587898254394531e-02 1.712198555469512939e-02 -7.399550639092922211e-03 -1.243114471435546875e-02 2.740305662155151367e-02 2.717050537467002869e-02 4.631801694631576538e-02 8.077953942120075226e-03 3.561511635780334473e-02 -1.598194427788257599e-02 1.352848485112190247e-02 2.085987398459110409e-05 -8.699700236320495605e-03 2.302413247525691986e-02 1.153431553393602371e-02 2.420532517135143280e-02 2.463350631296634674e-02 3.367683151736855507e-03 -4.402010887861251831e-02 8.754648268222808838e-03 6.365983746945858002e-03 1.686323992908000946e-02 -1.976383384317159653e-03 1.352966413833200932e-03 -1.133091631345450878e-03 2.399775944650173187e-02 -1.116766966879367828e-02 4.236138425767421722e-03 -9.630721062421798706e-03 3.731048479676246643e-02 -2.430544048547744751e-02 4.329001903533935547e-02 -9.183911606669425964e-03 -2.200777083635330200e-02 -1.893362030386924744e-02 -1.040812674909830093e-02 1.950082741677761078e-02 -1.410565152764320374e-02 -3.115070611238479614e-02 -2.600532316137105227e-04 1.783400774002075195e-02 -1.338060107082128525e-02 -1.098178420215845108e-02 1.630794815719127655e-02 5.356513895094394684e-03 -6.240986753255128860e-03 -9.183038026094436646e-03 -1.958955312147736549e-03 -6.224453449249267578e-03 -1.959199272096157074e-02 5.221327766776084900e-03 5.045616999268531799e-03 1.062224060297012329e-02 6.781740486621856689e-02 -2.904017455875873566e-02 -3.094838187098503113e-02 1.352756563574075699e-02 -3.544887760654091835e-03 2.370108291506767273e-02 2.036832831799983978e-02 1.685994490981101990e-02 1.458018366247415543e-02 -3.083712887018918991e-03 -3.823123406618833542e-03 -2.080478332936763763e-02 5.827370658516883850e-02 -1.076760888099670410e-02 3.256103256717324257e-03 1.276064384728670120e-02 3.122609574347734451e-03 1.130027929320931435e-03 -2.746581844985485077e-02 2.265476249158382416e-02 -9.779057465493679047e-03 -1.992474868893623352e-02 -1.012392994016408920e-02 7.723306305706501007e-03 7.856250740587711334e-03 1.794190146028995514e-02 -3.333309199661016464e-03 -3.872137144207954407e-02 -1.417786348611116409e-02 -2.481155563145875931e-03 -1.720291376113891602e-02 -2.098003029823303223e-02 -2.019761316478252411e-02 -1.113991811871528625e-02 1.317525655031204224e-02 9.258287958800792694e-03 -9.985894430428743362e-04 -1.100678369402885437e-02 3.342120721936225891e-02 -5.942317657172679901e-03 9.247967042028903961e-03 -3.220711275935173035e-02 1.360947731882333755e-02 -1.564940996468067169e-02 1.809876970946788788e-02 3.077981248497962952e-02 2.866406459361314774e-03 1.012718863785266876e-02 -2.906313724815845490e-02 -9.989958256483078003e-03 3.512835130095481873e-02 -1.039356458932161331e-03 -1.511064008809626102e-03 -8.901787921786308289e-03 4.124175757169723511e-03 -2.136415336281061172e-03 5.036878585815429688e-02 1.896987482905387878e-02 -1.976409927010536194e-02 1.422527525573968887e-02 -1.020757202059030533e-02 -1.512324996292591095e-02 1.053854357451200485e-02 9.714155457913875580e-03 -9.665898047387599945e-03 -4.771355306729674339e-04 -1.946742832660675049e-02 -3.083404153585433960e-02 2.669758908450603485e-02 -4.255757667124271393e-03 2.350135520100593567e-02 -2.806570194661617279e-02 -2.825001627206802368e-02 -1.718579907901585102e-03 8.900588378310203552e-03 -9.756685234606266022e-03 -1.390206813812255859e-02 1.057674828916788101e-02 -1.848718896508216858e-02 4.414756596088409424e-02 -1.903067692182958126e-03 3.978635184466838837e-03 -8.857734501361846924e-03 -1.402930077165365219e-02 3.556913579814136028e-04 -3.840080462396144867e-03 6.440068827942013741e-04 1.759680174291133881e-02 -2.602403983473777771e-03 -2.918344689533114433e-04 -8.597658597864210606e-04 -1.165326102636754513e-03 -3.063252381980419159e-02 2.313549397513270378e-03 -1.097554434090852737e-02 -1.578903757035732269e-02 -2.280133031308650970e-02 2.448127977550029755e-02 9.431926533579826355e-03 -1.248593069612979889e-02 -9.393351152539253235e-03 -1.704373024404048920e-02 -9.406353347003459930e-03 7.269805297255516052e-03 8.951874449849128723e-03 2.426658570766448975e-02 2.394952066242694855e-02 2.422622591257095337e-02 -1.630991464480757713e-03 -7.153190672397613525e-04 -8.049775846302509308e-03 4.562959074974060059e-03 -1.114231999963521957e-02 -2.426395937800407410e-02 -1.479901722632348537e-03 8.948962204158306122e-03 1.771202310919761658e-02 -2.105722948908805847e-02 3.976612642873078585e-04 -1.765811815857887268e-02 -1.212155818939208984e-02 -1.575454324483871460e-02 -5.456853192299604416e-03 3.295467793941497803e-02 2.681622980162501335e-03 2.246037870645523071e-02 1.704515703022480011e-02 7.178735919296741486e-03 7.419730536639690399e-03 1.661511510610580444e-02 1.097776088863611221e-02 -3.448499739170074463e-02 1.904492080211639404e-02 7.280179997906088829e-04 1.340162567794322968e-02 4.103809595108032227e-03 1.519055850803852081e-02 -2.194327302277088165e-03 6.100857630372047424e-03 6.526214070618152618e-03 -1.310238242149353027e-02 -1.116295345127582550e-02
-5.895857699215412140e-03 1.891126111149787903e-02 6.305060232989490032e-04 -1.424713246524333954e-02 -9.110297076404094696e-03 -4.005250986665487289e-03 6.052342243492603302e-03 6.138048134744167328e-03 1.849281229078769684e-02 8.799030445516109467e-03 -6.175898946821689606e-03 -5.453231278806924820e-03 1.374491676688194275e-02 -1.361042913049459457e-02 -5.051973275840282440e-03 1.668422855436801910e-02 -2.759142965078353882e-02 -5.280951410531997681e-02 1.990626752376556396e-02 4.051148518919944763e-02 1.281125750392675400e-02 1.251591369509696960e-03 2.853945828974246979e-03 2.155230753123760223e-02 2.243784442543983459e-02 2.182191796600818634e-02 -1.371500175446271896e-02 4.198583774268627167e-03 -2.530452609062194824e-02 -2.176610520109534264e-03 1.158793270587921143e-02 4.011598415672779083e-03 -3.833832684904336929e-03 -5.377347581088542938e-03 -1.621627248823642731e-02 5.719979759305715561e-03 -1.783779636025428772e-02 5.793274845927953720e-03 -5.278429016470909119e-03 -6.272365804761648178e-03 -7.628330960869789124e-03 2.786385454237461090e-02 1.921241357922554016e-02 -1.610944978892803192e-02 5.492595024406909943e-03 -1.015327963978052139e-02 1.617269590497016907e-02 2.143682539463043213e-02 3.397932741791009903e-03 -3.481123968958854675e-02 2.831263933330774307e-03 -1.369303744286298752e-02 -1.781420037150382996e-02 -2.208300866186618805e-02 -6.024211645126342773e-03 -8.493771776556968689e-03 2.731349505484104156e-02 -1.850157044827938080e-02 -4.185413010418415070e-03 3.088807687163352966e-03 -5.362194497138261795e-03 2.697784453630447388e-03 -2.916818019002676010e-03 -5.822258070111274719e-03 1.784817501902580261e-02 3.359169140458106995e-02 2.132704108953475952e-02 1.374268252402544022e-02 1.671948656439781189e-02 7.975799962878227234e-03 -2.412793459370732307e-03 -2.055331133306026459e-03 -1.914394274353981018e-02 1.926102861762046814e-02 -7.708801887929439545e-03 -7.055240217596292496e-03 1.966923475265502930e-02 1.660314574837684631e-02 -3.959094639867544174e-03 -1.241047866642475128e-02 2.010407485067844391e-02 4.183762148022651672e-02 -8.954307995736598969e-03 -6.275344174355268478e-03 2.968390285968780518e-02 8.124474436044692993e-03 3.602810204029083252e-02 2.607828471809625626e-03 2.562373131513595581e-02 2.416470460593700409e-02 1.732747629284858704e-02 9.968572296202182770e-03 5.093941092491149902e-02 1.024618931114673615e-02 2.295663580298423767e-02 -1.238473108969628811e-03 1.625079661607742310e-03 -6.325140129774808884e-03 -1.673047617077827454e-02 8.049210533499717712e-03 -2.900625206530094147e-02 1.256768591701984406e-02 9.254478849470615387e-03 -3.564803162589669228e-03 2.165918610990047455e-02 -4.506662022322416306e-03 2.591888792812824249e-02 -3.750405507162213326e-03 6.336118280887603760e-02 -6.518827378749847412e-02 -2.197821624577045441e-02 -3.708915319293737411e-03 1.115563604980707169e-02 6.781931500881910324e-03 3.749097511172294617e-02 -4.858868196606636047e-03 -1.592505536973476410e-02 1.805129274725914001e-02 4.411850124597549438e-02 3.174957633018493652e-02 4.234362021088600159e-02 1.141401845961809158e-02 2.877387590706348419e-02 8.759450167417526245e-03 -9.150327183306217194e-03 9.302088990807533264e-03 -2.267215214669704437e-02 1.099039055407047272e-02 1.940801367163658142e-02 -1.596352085471153259e-02 -2.264784881845116615e-03 2.624657563865184784e-02 -1.182617712765932083e-02 -4.525317344814538956e-03 2.305882982909679413e-02 -7.968086749315261841e-03 1.013964600861072540e-02 4.314351826906204224e-02 -1.367745338939130306e-03 1.393442787230014801e-02 3.634389489889144897e-02 7.743533700704574585e-03 -1.462354138493537903e-02 -1.298966258764266968e-02 -1.288267876952886581e-02 -9.386597201228141785e-03 9.547990746796131134e-03 -1.549118384718894958e-02 9.386099991388618946e-04 -2.011163858696818352e-03 -5.960991140455007553e-03 -7.792915683239698410e-03 2.613447420299053192e-02 -1.306559890508651733e-02 -3.899436444044113159e-03 -1.392631884664297104e-02 -2.238503843545913696e-02 3.442610800266265869e-02 -5.288931541144847870e-03 1.686001941561698914e-02 1.213505677878856659e-02 -1.503474341006949544e-04 -1.869095675647258759e-02 -2.580390498042106628e-02 4.986289143562316895e-02 1.057670451700687408e-02 2.037374302744865417e-03 2.121460624039173126e-03 3.832161799073219299e-02 1.563958637416362762e-02 2.482177503407001495e-02 1.186626590788364410e-02 -1.750059984624385834e-02 1.925812661647796631e-02 4.431579262018203735e-02 -1.566305197775363922e-02 6.138867698609828949e-03 6.339488085359334946e-03 2.103054523468017578e-02 -2.055987901985645294e-02 1.488732080906629562e-02 -1.493474282324314117e-02 -1.243086415342986584e-03 -4.593863617628812790e-03 3.202428296208381653e-02 -6.643784232437610626e-03 -1.979452185332775116e-02 1.934476569294929504e-02 1.735875755548477173e-02 2.164265373721718788e-03 -8.175904076779261231e-05 5.461315624415874481e-03 -1.158790756016969681e-02 6.682448089122772217e-03 6.875661201775074005e-03 -1.457328558899462223e-03 1.059027388691902161e-02 2.136633498594164848e-03 1.926311641000211239e-03 1.005368866026401520e-02 -5.762899294495582581e-03 -5.934416782110929489e-03 6.500352174043655396e-03 -1.407461054623126984e-02 3.334990516304969788e-02 1.522107888013124466e-02 -1.034343708306550980e-02 2.929551526904106140e-03 2.352246455848217010e-02 -6.300235632807016373e-03 -1.202794723212718964e-02 2.298474684357643127e-02 2.618468366563320160e-02 -1.258459221571683884e-02 -2.650044858455657959e-03 -9.808072820305824280e-03 2.241886407136917114e-02 9.574941359460353851e-03 3.291361406445503235e-02 1.618630066514015198e-02 1.957015320658683777e-02 2.934395335614681244e-02 7.119654212146997452e-03 -1.813788712024688721e-02 2.129782363772392273e-02 -7.206154521554708481e-03 4.319269210100173950e-03 -3.276079660281538963e-03 4.267213866114616394e-03 -1.180580165237188339e-02 1.204357203096151352e-02 -1.275323517620563507e-02 -5.951843690127134323e-03 1.576081151142716408e-03 -4.696778487414121628e-03 -3.398035187274217606e-03 -1.713499799370765686e-02 2.345056971535086632e-03 2.535353042185306549e-02 6.632778793573379517e-03 -1.509172469377517700e-02 -4.028805531561374664e-03 1.465700007975101471e-02 -1.173533732071518898e-03 -5.803767708130180836e-04 -2.647594735026359558e-02 1.625987887382507324e-02 5.737520754337310791e-03 1.206761505454778671e-02 3.010612817888613790e-05 2.239705529063940048e-03 5.897187162190675735e-03 -1.049678213894367218e-02 -1.980669423937797546e-02 -1.583744399249553680e-02 4.200340714305639267e-03
-1.278955023735761642e-03 1.083193439990282059e-02 1.477686036378145218e-02 -1.002260390669107437e-02 -2.170404233038425446e-02 -7.730217184871435165e-03 -4.094011150300502777e-03 5.558367818593978882e-03 -1.503137871623039246e-02 1.689694635570049286e-02 -1.302064396440982819e-03 -3.361467039212584496e-03 3.374266903847455978e-03 -1.791181601583957672e-02 -1.945633441209793091e-02 1.151184178888797760e-02 5.698520224541425705e-03 1.044348441064357758e-02 1.549052540212869644e-02 1.703564077615737915e-02 1.056809909641742706e-02 5.671571474522352219e-03 1.046486780978739262e-03 3.210064768791198730e-02 1.158601231873035431e-02 -9.967870078980922699e-03 -8.794436231255531311e-03 -3.436693549156188965e-02 4.244351293891668320e-03 5.189987830817699432e-03 -3.937618341296911240e-03 4.369771108031272888e-03 7.549450267106294632e-03 2.580487867817282677e-03 -1.975491875782608986e-03 2.113872580230236053e-02 -1.276653259992599487e-02 1.605267822742462158e-02 1.597656682133674622e-02 1.269186567515134811e-02 1.449229381978511810e-02 1.149286236613988876e-02 -1.223689876496791840e-03 -5.280029028654098511e-03 1.047946419566869736e-02 -1.845398172736167908e-02 9.007615037262439728e-03 1.484827231615781784e-02 9.595921146683394909e-04 1.450510974973440170e-02 1.122810225933790207e-02 3.635502886027097702e-03 1.919866539537906647e-02 -2.756871655583381653e-02 2.766684920061379671e-04 1.225356943905353546e-02 1.455188915133476257e-02 -8.448930457234382629e-03 -9.590201807441189885e-05 -1.928354613482952118e-02 -6.156749092042446136e-03 -2.964776009321212769e-03 -1.862783543765544891e-02 4.434450063854455948e-03 -1.871659071184694767e-03 7.546356879174709320e-03 2.178778499364852905e-02 -2.147854305803775787e-03 -1.667517796158790588e-02 -7.624780759215354919e-03 -1.748013892211019993e-03 6.249391008168458939e-03 4.626134876161813736e-03 2.565597882494330406e-03 2.334927394986152649e-02 -1.032007858157157898e-02 1.991700381040573120e-02 4.447305575013160706e-03 1.713329926133155823e-02 1.430554687976837158e-02 -4.800708033144474030e-03 6.134268827736377716e-03 1.699763536453247070e-02 5.570637062191963196e-03 -2.119834243785589933e-04 2.336004190146923065e-02 4.374495765659958124e-04 -9.327718056738376617e-03 2.039714716374874115e-03 4.612139239907264709e-02 2.365878969430923462e-02 1.835771091282367706e-02 -8.826195262372493744e-04 2.369369566440582275e-02 2.020882442593574524e-02 2.428524754941463470e-02 1.455474831163883209e-02 -8.893997408449649811e-03 7.612426765263080597e-03 3.814897686243057251e-02 -2.597741782665252686e-02 5.751590710133314133e-03 -3.605904756113886833e-03 -1.176089514046907425e-02 5.893779918551445007e-03 1.500461599789559841e-03 3.395806998014450073e-02 1.298244204372167587e-02 1.009198836982250214e-02 -2.019374631345272064e-02 1.066400203853845596e-02 -4.656882025301456451e-03 2.796931366901844740e-04 -7.129043340682983398e-03 -2.511166501790285110e-03 1.311401184648275375e-02 1.604228839278221130e-02 -5.243783816695213318e-03 7.594747003167867661e-03 1.539604458957910538e-02 5.535911768674850464e-03 5.070079583674669266e-03 5.035799928009510040e-03 3.158935904502868652e-02 -1.059050671756267548e-02 6.580633576959371567e-03 1.201987173408269882e-02 1.977968774735927582e-02 4.699509125202894211e-03 1.449371920898556709e-04 5.517280194908380508e-03 2.612007781863212585e-02 -6.135864183306694031e-03 2.935047086793929338e-04 -1.050355564802885056e-02 -3.515304531902074814e-03 3.362599015235900879e-02 -1.400211709551513195e-03 -6.204399745911359787e-03 -9.370172396302223206e-03 2.146739885210990906e-02 1.366081275045871735e-02 -1.354756206274032593e-02 -2.054428448900580406e-03 -1.820345595479011536e-02 -1.031947415322065353e-02 2.412174828350543976e-02 -1.243799924850463867e-02 2.378152869641780853e-02 -8.399573154747486115e-03 -5.468907766044139862e-03 1.126859057694673538e-02 1.692212745547294617e-02 3.249058267101645470e-03 1.334527600556612015e-02 4.205590579658746719e-03 5.365238524973392487e-03 -7.747417315840721130e-03 9.879234246909618378e-03 -6.915798410773277283e-03 -7.474609185010194778e-03 -1.060870289802551270e-02 -6.951339542865753174e-03 -3.219903260469436646e-02 1.058996096253395081e-02 4.290833324193954468e-02 7.391123101115226746e-03 1.305223070085048676e-02 1.587085425853729248e-02 3.604173543862998486e-04 -7.802300620824098587e-03 -1.559092383831739426e-02 -1.322977337986230850e-02 2.435821667313575745e-02 1.296416949480772018e-02 -1.057078037410974503e-02 3.629673272371292114e-03 -5.124869756400585175e-03 2.437657304108142853e-02 1.644126884639263153e-02 1.436745095998048782e-02 -1.385726220905780792e-02 6.431489251554012299e-03 2.717120014131069183e-02 2.054625749588012695e-02 -2.047817595303058624e-02 -9.131861850619316101e-03 -8.774073794484138489e-03 7.761168293654918671e-03 2.137755602598190308e-02 3.912573811248876154e-05 -1.506788562983274460e-02 -1.049299445003271103e-02 -9.585695806890726089e-04 -2.087618410587310791e-02 -8.880463428795337677e-03 1.830182969570159912e-02 -8.343376219272613525e-03 7.513158489018678665e-03 1.520664524286985397e-02 -1.648463681340217590e-02 -9.104717522859573364e-03 1.703498885035514832e-02 -7.140719797462224960e-03 2.216809056699275970e-02 -4.853770369663834572e-04 -1.664722105488181114e-03 -5.076805129647254944e-03 -7.439594715833663940e-03 6.674942094832658768e-03 1.263269130140542984e-02 1.792247407138347626e-02 1.581271737813949585e-02 1.964775100350379944e-02 -1.190054812468588352e-03 -2.166755124926567078e-02 2.690582722425460815e-02 1.235922053456306458e-02 2.019292488694190979e-02 4.374937620013952255e-03 -3.079353086650371552e-02 9.307448752224445343e-03 8.297202177345752716e-03 -1.082476228475570679e-04 2.802832610905170441e-02 -6.706499494612216949e-03 1.310291234403848648e-02 -1.165655255317687988e-02 -1.144031761214137077e-03 -8.511577732861042023e-03 -1.026188954710960388e-02 -8.280527777969837189e-03 -4.473391920328140259e-03 8.359991014003753662e-03 1.323755923658609390e-02 -5.556056741625070572e-03 2.124363090842962265e-03 -6.441557314246892929e-03 -9.877528063952922821e-03 6.222410593181848526e-03 -4.635673947632312775e-03 -3.969318699091672897e-03 1.887794025242328644e-02 -5.027331411838531494e-03 -1.053107529878616333e-02 1.272625755518674850e-02 -2.515027998015284538e-03 2.016996406018733978e-02 6.587570998817682266e-03 -5.503179505467414856e-03 -5.100836046040058136e-03 2.863652259111404419e-02 -1.174594927579164505e-02 7.139370427466928959e-04 7.135863881558179855e-03 -3.376350738108158112e-03
2.962359227240085602e-02 2.734960243105888367e-02 -2.178062126040458679e-02 -2.050573192536830902e-02 2.364517375826835632e-02 9.884975850582122803e-03 5.151267629116773605e-03 6.230412051081657410e-03 1.288460334762930870e-03 -1.990327611565589905e-02 1.930189877748489380e-02 -9.846942499279975891e-03 4.644860513508319855e-03 1.615498401224613190e-02 -1.205533742904663086e-02 -4.108920227736234665e-03 3.412918373942375183e-02 1.812885701656341553e-02 1.186848734505474567e-03 6.315633654594421387e-03 9.046974591910839081e-03 1.577271963469684124e-03 -1.842911168932914734e-02 2.330563962459564209e-02 2.351327240467071533e-02 -3.499203361570835114e-03 -2.132899127900600433e-02 1.816162653267383575e-02 -4.502148367464542389e-03 6.795835681259632111e-03 1.831705681979656219e-02 1.666062884032726288e-02 -2.524646557867527008e-02 1.188494637608528137e-02 -1.783788762986660004e-02 -5.773727782070636749e-03 -6.012932863086462021e-03 -1.486544497311115265e-02 -3.836429910734295845e-03 -2.743967063724994659e-02 -9.613119997084140778e-03 -2.436774037778377533e-02 -6.822319235652685165e-03 -8.580099791288375854e-03 9.241389110684394836e-03 -2.600727602839469910e-02 2.282927371561527252e-02 -6.478745955973863602e-03 1.925615593791007996e-02 2.664321254997048527e-05 -2.463100105524063110e-02 -1.058880519121885300e-02 5.215944722294807434e-03 1.258758362382650375e-03 -1.560866925865411758e-02 -3.039578720927238464e-02 8.054677397012710571e-03 -1.692237891256809235e-02 -2.210510283475741744e-04 1.195816136896610260e-02 6.596186198294162750e-03 3.258909657597541809e-02 1.881336793303489685e-02 -2.306453650817275047e-03 -3.901977092027664185e-03 3.618700196966528893e-03 2.343154512345790863e-02 4.481706395745277405e-02 1.034932490438222885e-02 2.034146897494792938e-02 4.432701971381902695e-03 3.006220981478691101e-02 -7.493099663406610489e-03 -1.022891607135534286e-02 -1.733888871967792511e-02 1.209842972457408905e-02 2.839426696300506592e-02 2.822742797434329987e-02 -1.881686970591545105e-02 -2.699742093682289124e-02 1.015632972121238708e-02 -8.326775394380092621e-03 1.137346774339675903e-02 7.670165970921516418e-03 6.664760876446962357e-03 -4.135226365178823471e-03 1.251932233572006226e-02 -1.077458728104829788e-02 1.010369043797254562e-02 -1.609238446690142155e-03 3.885817900300025940e-02 -4.233508370816707611e-03 2.351016178727149963e-02 -6.830751430243253708e-03 -3.198942868039011955e-03 -5.330489017069339752e-03 -2.224455401301383972e-02 1.970367506146430969e-03 -1.141871139407157898e-02 -1.065607555210590363e-02 -1.961927628144621849e-03 1.876698248088359833e-02 -1.048457901924848557e-02 -1.057770010083913803e-02 1.932925172150135040e-02 -1.500333286821842194e-02 6.194477318786084652e-04 -2.190084196627140045e-02 -1.093905046582221985e-02 6.781816016882658005e-03 -6.330900359898805618e-03 1.447737868875265121e-02 1.477656047791242599e-02 9.877822361886501312e-03 5.913870409131050110e-02 -2.182582765817642212e-02 -3.727684170007705688e-02 -3.998123575001955032e-03 -2.738754823803901672e-02 8.898477535694837570e-04 -4.154176451265811920e-03 9.513049386441707611e-03 6.424663122743368149e-03 -1.734399981796741486e-02 -7.408478762954473495e-03 -1.099137123674154282e-03 5.774857848882675171e-02 -2.000614628195762634e-02 9.186493232846260071e-03 2.324659749865531921e-02 -1.974187092855572701e-03 -6.026153918355703354e-03 -3.291957452893257141e-02 2.695077471435070038e-02 -1.086260471493005753e-02 -9.789737872779369354e-03 -9.172903373837471008e-03 -2.507892064750194550e-02 1.331645436584949493e-02 2.656868845224380493e-02 -1.773565076291561127e-02 -1.952476054430007935e-02 2.168156439438462257e-03 6.258604116737842560e-04 4.520442802459001541e-03 -2.318079397082328796e-02 -8.363529341295361519e-04 -3.368563251569867134e-03 1.065659709274768829e-02 -1.207619067281484604e-02 4.948705434799194336e-03 -2.281970903277397156e-02 1.962457969784736633e-02 -1.937054283916950226e-02 2.921861782670021057e-02 -1.858204975724220276e-02 2.767815627157688141e-02 -1.134372130036354065e-02 5.495800636708736420e-03 1.195811945945024490e-02 -1.318810507655143738e-02 -1.951806619763374329e-02 -2.960450202226638794e-02 -1.417032629251480103e-02 2.971720322966575623e-02 -2.675903402268886566e-02 1.440726500004529953e-02 -2.998550888150930405e-03 1.700658700428903103e-03 -1.393175870180130005e-02 5.089007318019866943e-02 1.568239368498325348e-02 -2.109713479876518250e-02 -2.348984126001596451e-03 -1.036256924271583557e-02 -2.563040005043148994e-03 1.859014667570590973e-02 2.043690159916877747e-02 1.471410971134901047e-03 1.177863311022520065e-02 -1.350173843093216419e-03 -4.788298532366752625e-02 3.924106061458587646e-02 -1.195370405912399292e-02 1.351655833423137665e-02 -3.353186324238777161e-02 -2.930096350610256195e-02 -7.308838423341512680e-03 -1.569346524775028229e-02 -1.489439979195594788e-02 -1.239310111850500107e-02 7.733427919447422028e-03 -2.829742990434169769e-02 5.081194266676902771e-02 1.837403513491153717e-03 1.641155406832695007e-02 -1.394562516361474991e-02 -2.295060269534587860e-02 -3.360755043104290962e-03 -2.173405699431896210e-02 3.168734489008784294e-03 2.120785415172576904e-02 8.419690653681755066e-03 -9.202048182487487793e-03 -3.464306937530636787e-03 -2.377307042479515076e-03 -1.994833722710609436e-02 3.293807152658700943e-03 -1.310161780565977097e-02 -5.212105810642242432e-03 -1.096030510962009430e-02 1.796934008598327637e-02 1.554570253938436508e-02 1.488311332650482655e-03 -4.472527652978897095e-03 -1.507830806076526642e-02 -4.999590106308460236e-03 -5.560445133596658707e-04 3.645607270300388336e-03 2.269597165286540985e-02 2.407400123775005341e-02 -1.165062468498945236e-02 -7.823836989700794220e-03 -1.423030253499746323e-02 -7.987404242157936096e-03 -2.076322026550769806e-02 -8.708088658750057220e-03 -3.810311481356620789e-02 -9.230825118720531464e-03 1.109921932220458984e-02 2.094724588096141815e-02 -2.679613046348094940e-02 -1.083856169134378433e-02 -8.954336866736412048e-03 -1.442110724747180939e-02 -2.280275151133537292e-02 -1.141406409442424774e-02 3.242852538824081421e-02 -2.815970918163657188e-03 1.664038747549057007e-02 2.316245809197425842e-02 1.059909909963607788e-02 -1.850050687789916992e-02 2.853469736874103546e-02 3.017144650220870972e-02 -3.033963032066822052e-02 -3.532008966431021690e-03 1.881120912730693817e-02 9.158533066511154175e-03 2.143785730004310608e-02 2.698392607271671295e-02 -1.359835173934698105e-02 8.556893095374107361e-03 1.202356815338134766e-02 -1.494547631591558456e-02 -1.366392709314823151e-02
2.956394851207733154e-02 -3.115116246044635773e-02 1.456987671554088593e-02 -1.597932539880275726e-02 4.133013635873794556e-02 -1.311979349702596664e-02 1.621971838176250458e-02 -1.877217204309999943e-03 -5.675277113914489746e-02 -1.068965159356594086e-02 5.455186124891042709e-03 -1.390642952173948288e-02 -6.856190972030162811e-03 2.458496019244194031e-02 -5.368566606193780899e-03 -4.196901340037584305e-03 4.904260486364364624e-02 -4.977652337402105331e-03 3.129478543996810913e-02 -2.819176763296127319e-03 -7.426889613270759583e-03 4.487140476703643799e-02 2.304317057132720947e-02 4.162852466106414795e-02 -2.301477827131748199e-03 -9.129825048148632050e-03 -4.499263688921928406e-02 -3.975756000727415085e-03 5.044107325375080109e-03 4.522995650768280029e-02 1.284154038876295090e-02 1.486512948758900166e-03 -8.338040672242641449e-03 1.439363602548837662e-02 1.501004397869110107e-02 -2.118125930428504944e-02 -6.726566702127456665e-03 4.819647967815399170e-02 3.344464814290404320e-03 1.191009487956762314e-02 -9.669762104749679565e-03 -1.172106899321079254e-02 2.472537197172641754e-02 3.270508488640189171e-03 -8.927406743168830872e-03 1.008813036605715752e-03 -9.698378853499889374e-03 -9.198926389217376709e-03 9.503487497568130493e-03 1.726651447825133801e-03 8.372690528631210327e-03 1.086559891700744629e-02 1.131264586001634598e-02 -6.401746999472379684e-03 -1.032365579158067703e-02 -1.635307073593139648e-02 -1.924367155879735947e-03 -6.733180489391088486e-03 1.579628325998783112e-02 1.895803585648536682e-02 1.480815000832080841e-02 -2.954207733273506165e-02 2.307459153234958649e-02 -9.215858764946460724e-03 -1.059941481798887253e-02 -1.353898551315069199e-02 1.363735459744930267e-02 -2.205066755414009094e-02 -6.370638031512498856e-03 1.499685645103454590e-02 -1.367338746786117554e-02 1.184964179992675781e-02 2.054952085018157959e-02 1.478638779371976852e-02 3.083569929003715515e-02 3.753612283617258072e-03 2.865191549062728882e-02 2.439256059005856514e-03 -3.739444364327937365e-04 -2.995434030890464783e-02 -1.950677856802940369e-02 -3.915331035386770964e-04 5.819699540734291077e-02 -1.036693993955850601e-02 5.363510921597480774e-03 2.214534766972064972e-02 -1.522201299667358398e-02 1.867295615375041962e-02 1.280825398862361908e-02 8.311878889799118042e-03 -8.868360891938209534e-03 -3.689781203866004944e-02 4.710596054792404175e-02 -2.996391430497169495e-02 -7.578827906399965286e-03 1.996053382754325867e-02 1.963297463953495026e-02 6.164054502733051777e-04 1.244626194238662720e-02 -4.104366898536682129e-02 -3.969029989093542099e-03 1.676179282367229462e-02 -3.221872076392173767e-02 -1.773746497929096222e-02 1.635642023757100105e-03 2.324507571756839752e-02 -1.102477125823497772e-02 -1.598302833735942841e-02 -1.128231268376111984e-02 -1.485118456184864044e-02 -3.978072106838226318e-02 1.270529697649180889e-03 -1.240311656147241592e-02 1.495306473225355148e-02 -9.266739711165428162e-03 7.320303935557603836e-03 3.438794286921620369e-03 -1.836377568542957306e-02 5.981126334518194199e-03 -2.093922533094882965e-02 2.554859034717082977e-02 3.623284026980400085e-02 -1.151897665113210678e-02 3.023028373718261719e-02 7.936014793813228607e-03 -3.154050931334495544e-02 1.474215276539325714e-02 2.680442109704017639e-02 -6.834106054157018661e-03 3.839830309152603149e-02 5.967820925434352830e-06 -1.908264122903347015e-02 2.023900113999843597e-02 -1.281714718788862228e-02 -1.710459962487220764e-02 -1.427599601447582245e-02 3.358204290270805359e-02 1.300576142966747284e-02 1.281246822327375412e-02 2.309689670801162720e-02 -1.511343568563461304e-02 -3.566508367657661438e-02 2.439380809664726257e-02 1.963700540363788605e-02 -3.648580517619848251e-03 1.214473601430654526e-02 -2.951315604150295258e-02 2.443580515682697296e-02 1.217497047036886215e-02 7.960791699588298798e-03 1.402677409350872040e-02 -1.949257962405681610e-02 -7.415374275296926498e-03 2.745432779192924500e-02 3.643519803881645203e-02 1.649670675396919250e-02 3.889765217900276184e-02 -2.124970220029354095e-02 4.408544395118951797e-03 -9.042585268616676331e-03 5.675115622580051422e-03 6.791077554225921631e-03 -9.912529960274696350e-03 1.218538079410791397e-02 4.000473301857709885e-03 4.211328178644180298e-02 -8.113762363791465759e-03 1.879546791315078735e-02 -3.290235996246337891e-03 -4.857283458113670349e-02 -8.937864564359188080e-03 2.238085865974426270e-02 -1.055170875042676926e-02 1.122242026031017303e-02 -9.982373012462630868e-05 1.550680119544267654e-02 6.082150139263831079e-05 6.609319243580102921e-03 5.977198481559753418e-03 -1.795781194232404232e-03 -2.021052688360214233e-02 -2.904555387794971466e-02 4.612674191594123840e-02 -2.654990367591381073e-02 1.481009647250175476e-03 -3.033440001308917999e-02 -2.612669579684734344e-02 -1.957834139466285706e-02 -2.281522378325462341e-02 -1.424866262823343277e-02 -2.687604725360870361e-02 1.104283612221479416e-02 1.303860358893871307e-02 -2.012429945170879364e-02 -4.407761618494987488e-02 2.856742357835173607e-03 7.466359995305538177e-03 -2.601601649075746536e-03 4.751922562718391418e-02 -6.120153702795505524e-03 -4.991938360035419464e-03 -2.113417349755764008e-02 1.994037255644798279e-02 -1.630268525332212448e-03 -4.738912917673587799e-03 2.875089272856712341e-02 1.108114980161190033e-02 6.998198572546243668e-03 -2.057949267327785492e-02 -1.803830452263355255e-02 -2.219985425472259521e-02 5.506708752363920212e-03 -2.566843293607234955e-02 -2.985958382487297058e-02 -2.527320384979248047e-02 -1.909577473998069763e-02 1.997858844697475433e-02 1.428777445107698441e-02 -1.180277951061725616e-02 -9.800354950129985809e-03 -1.742815226316452026e-02 -3.425574861466884613e-03 -6.958242156542837620e-04 2.455225214362144470e-02 6.585837341845035553e-03 1.258351746946573257e-02 2.188925573136657476e-04 1.650652289390563965e-02 4.003192111849784851e-02 -5.610800813883543015e-03 1.719589158892631531e-02 3.202578052878379822e-02 -2.331527648493647575e-03 -1.180988736450672150e-02 4.645394161343574524e-02 -2.912754938006401062e-02 1.280644629150629044e-02 3.264235798269510269e-03 -2.945386338979005814e-03 -2.390686655417084694e-03 2.154306508600711823e-02 1.070391759276390076e-02 2.292481251060962677e-02 -1.504720468074083328e-02 1.421210914850234985e-02 3.545105829834938049e-02 -4.684266075491905212e-02 1.751455664634704590e-02 -1.695180498063564301e-02 6.603839807212352753e-03 2.088946104049682617e-02 -3.660740039777010679e-04 1.015375088900327682e-02 2.396862721070647240e-03 -1.497068069875240326e-02 -7.583893020637333393e-04
3.871384309604763985e-03 1.450913771986961365e-02 1.081492844969034195e-02 -1.578742265701293945e-02 -4.013672936707735062e-03 -6.230500992387533188e-03 -1.166585274040699005e-02 -6.258939392864704132e-04 1.521675009280443192e-02 1.463698409497737885e-02 -1.060487795621156693e-02 2.099625300616025925e-03 2.158241113647818565e-03 -5.598551128059625626e-03 -2.013145387172698975e-02 6.107061170041561127e-03 -5.276762880384922028e-03 -2.082278579473495483e-02 1.987881958484649658e-02 2.222459018230438232e-02 2.077356912195682526e-03 8.200205862522125244e-03 -8.654943667352199554e-03 2.581723220646381378e-02 2.742029353976249695e-02 -6.712624337524175644e-03 -1.169056259095668793e-02 -1.315534207969903946e-02 7.699917070567607880e-03 5.978949484415352345e-04 4.361595027148723602e-03 9.702706709504127502e-03 -4.874384496361017227e-03 -1.184548134915530682e-03 3.197817597538232803e-03 1.682854071259498596e-02 -1.477175205945968628e-02 1.198891364037990570e-02 6.319459527730941772e-03 2.023912034928798676e-03 -6.633695680648088455e-03 -4.275649320334196091e-03 -1.218535192310810089e-02 -7.275686599314212799e-03 1.071194000542163849e-02 8.934618905186653137e-03 6.476699374616146088e-03 4.186289850622415543e-03 1.372237876057624817e-02 8.262982591986656189e-03 3.640498034656047821e-03 -1.457656547427177429e-02 2.650924259796738625e-03 -1.482506189495325089e-02 -1.151869539171457291e-02 1.041693519800901413e-02 2.606598474085330963e-02 -1.747842878103256226e-02 -1.637525856494903564e-02 -2.953457180410623550e-03 1.000559190288186073e-03 -1.757972757332026958e-03 -4.965041764080524445e-03 -3.310134634375572205e-03 1.079369522631168365e-02 1.082483772188425064e-02 2.998724579811096191e-02 6.978568620979785919e-03 -1.531996019184589386e-02 1.636394858360290527e-02 8.809960447251796722e-03 -1.036835089325904846e-02 1.133322250097990036e-02 -2.605003304779529572e-03 2.083537541329860687e-02 -1.042439043521881104e-02 1.434552203863859177e-02 1.420774497091770172e-02 -2.036785008385777473e-04 -2.336809178814291954e-03 4.089819267392158508e-03 1.227541640400886536e-02 8.631200529634952545e-03 -1.255904603749513626e-02 1.315738167613744736e-02 1.066805422306060791e-02 1.306342333555221558e-02 7.002137601375579834e-03 2.007732167840003967e-02 3.497767820954322815e-02 2.435142360627651215e-02 1.341145206242799759e-02 2.373957447707653046e-02 2.600472792983055115e-02 9.739852510392665863e-03 2.441126480698585510e-02 1.301309280097484589e-02 -2.122950507327914238e-03 3.835074370726943016e-03 2.590526454150676727e-02 -1.932228542864322662e-02 9.066413156688213348e-03 -1.475129090249538422e-02 -1.472279801964759827e-02 1.062464807182550430e-02 -1.150122471153736115e-02 3.329246863722801208e-02 8.086111047305166721e-04 2.944997139275074005e-02 -3.076437674462795258e-02 4.068253561854362488e-03 -9.668857674114406109e-04 1.558737177401781082e-02 -2.188050653785467148e-03 1.794404163956642151e-02 4.934376571327447891e-03 4.259710549376904964e-04 -2.453680848702788353e-03 1.931158825755119324e-02 2.049238793551921844e-02 3.708662465214729309e-02 2.885057823732495308e-03 9.999735280871391296e-03 2.755681611597537994e-02 -7.897946052253246307e-03 1.020025275647640228e-02 2.591412514448165894e-03 1.493478007614612579e-02 1.532705780118703842e-02 -6.315404549241065979e-03 -2.660003025084733963e-03 2.230481058359146118e-02 4.280275665223598480e-03 2.288669813424348831e-03 -7.174286565714282915e-06 1.061304705217480659e-03 2.700012177228927612e-02 2.367550041526556015e-03 4.152380395680665970e-03 8.502846467308700085e-04 1.741887815296649933e-02 -1.626446726731956005e-03 -7.788484916090965271e-03 -6.729559507220983505e-03 -2.540356665849685669e-02 -1.275007147341966629e-02 1.421363092958927155e-02 -8.958195336163043976e-03 9.025434963405132294e-03 -8.649678900837898254e-03 5.271331407129764557e-03 6.616572849452495575e-03 2.859090641140937805e-02 4.349604249000549316e-03 1.391171850264072418e-02 6.115337368100881577e-03 -1.175796962343156338e-03 2.293186448514461517e-02 3.187937429174780846e-03 -5.350090097635984421e-03 1.129532232880592346e-03 -1.403573900461196899e-02 -1.486754976212978363e-02 -2.674370631575584412e-02 3.040374629199504852e-02 3.349705040454864502e-02 2.098860917612910271e-03 2.053173072636127472e-02 2.983276173472404480e-02 2.770118182525038719e-03 1.414618920534849167e-02 7.536265533417463303e-03 -2.374617010354995728e-02 7.143948692828416824e-03 1.344988867640495300e-02 -5.617344286292791367e-03 -1.011585537344217300e-02 3.055621404200792313e-03 1.762249507009983063e-02 -6.507325451821088791e-03 1.700847409665584564e-02 -5.445700604468584061e-03 8.599211461842060089e-03 4.649919923394918442e-03 3.184533491730690002e-02 -7.952423766255378723e-03 5.493391305208206177e-03 -3.467182395979762077e-04 1.363944169133901596e-02 1.017528120428323746e-02 -7.527183275669813156e-03 -1.764284563250839710e-03 -1.771359331905841827e-02 1.196681614965200424e-02 -8.552153594791889191e-03 -5.967019824311137199e-04 8.676830329932272434e-04 -6.822250317782163620e-03 -7.747102063149213791e-04 4.847547970712184906e-03 -1.021474879235029221e-02 -7.360836490988731384e-03 2.102748304605484009e-02 9.787191636860370636e-03 2.337178774178028107e-02 3.906288649886846542e-03 7.445022929459810257e-04 -2.482741605490446091e-03 -3.134154481813311577e-03 -7.879448123276233673e-03 1.522174687124788761e-03 2.215127833187580109e-02 2.186446636915206909e-02 2.447142032906413078e-03 -1.729805581271648407e-02 -1.148223597556352615e-02 1.123126223683357239e-02 -1.819474127842113376e-04 2.524439059197902679e-02 1.813797652721405029e-02 -1.319224294275045395e-02 8.935010991990566254e-03 1.476806029677391052e-02 2.061720471829175949e-03 2.479755692183971405e-02 -9.965678676962852478e-03 -5.147399380803108215e-03 -1.611179672181606293e-02 4.831061698496341705e-03 -7.749670185148715973e-03 7.775517646223306656e-03 8.352408185601234436e-03 -7.821063511073589325e-03 9.811459109187126160e-03 1.047762483358383179e-02 4.122138780076056719e-04 -1.246218942105770111e-02 -1.050348021090030670e-02 8.542994968593120575e-03 2.916509693022817373e-04 4.028637893497943878e-03 -1.468549948185682297e-02 6.856025196611881256e-03 3.446431597694754601e-03 -5.838804412633180618e-03 -1.673903432674705982e-03 9.597226977348327637e-03 9.209945797920227051e-03 1.052334252744913101e-02 1.126126479357481003e-02 -1.030670478940010071e-03 9.056769311428070068e-03 -9.471353143453598022e-03 -1.072162576019763947e-02 -1.159197278320789337e-02 6.146137136965990067e-03
-1.183715742081403732e-02 9.833085350692272186e-03 -8.161618607118725777e-04 1.544339233078062534e-03 8.493118919432163239e-03 1.042274665087461472e-02 4.171192646026611328e-03 -2.401169575750827789e-02 1.477840449661016464e-02 6.123061757534742355e-03 2.912282943725585938e-03 -2.877162024378776550e-02 2.620847336947917938e-02 2.501039998605847359e-03 1.695193164050579071e-02 2.804283052682876587e-02 -1.295467559248209000e-02 -4.766247730003669858e-05 -1.374307461082935333e-02 1.191346091218292713e-03 1.849325373768806458e-02 2.678667381405830383e-02 1.459552557207643986e-03 -2.158496528863906860e-02 -8.477865718305110931e-03 2.603658288717269897e-02 5.729197058826684952e-03 2.083550952374935150e-02 -4.749249666929244995e-03 -2.968773944303393364e-03 8.930077776312828064e-03 -5.839968100190162659e-03 -9.627388790249824524e-03 8.809900842607021332e-03 -4.194102063775062561e-02 2.858017385005950928e-02 1.496291905641555786e-02 -3.179656341671943665e-02 -4.263950511813163757e-03 1.230389170814305544e-04 -7.025853265076875687e-03 1.277736574411392212e-02 -5.920299794524908066e-03 -7.647464517503976822e-03 -1.647513546049594879e-02 2.671335823833942413e-02 2.959531545639038086e-02 9.597301483154296875e-03 -5.034090485423803329e-03 -3.937059640884399414e-02 -5.395086947828531265e-03 -1.386918220669031143e-02 -3.079173155128955841e-02 1.426019053906202316e-02 -4.028980154544115067e-03 6.900187581777572632e-03 -5.543622653931379318e-03 -7.123932009562849998e-04 -2.057232195511460304e-03 -4.739216063171625137e-03 -3.992492798715829849e-03 3.399414569139480591e-02 7.422177586704492569e-03 -3.587085288017988205e-03 9.550486691296100616e-03 3.097385354340076447e-02 -5.451016593724489212e-03 2.865030057728290558e-02 3.452205657958984375e-02 3.023252077400684357e-02 1.139420457184314728e-02 6.560519337654113770e-03 5.449280142784118652e-03 -9.891094639897346497e-03 -7.312991190701723099e-03 9.933006949722766876e-03 -4.103905986994504929e-03 1.635560765862464905e-02 3.128032386302947998e-02 -1.718890853226184845e-02 5.554409231990575790e-03 1.475640852004289627e-02 6.695155985653400421e-03 1.567929424345493317e-02 -2.136511541903018951e-02 -6.549183744937181473e-03 1.570484973490238190e-02 -1.082574669271707535e-02 -2.444339729845523834e-02 -3.191739693284034729e-02 2.070443704724311829e-02 -1.142401061952114105e-02 1.404111366719007492e-02 2.258165739476680756e-02 -4.721215460449457169e-03 -3.028563596308231354e-02 2.350564463995397091e-04 1.442079432308673859e-02 -2.133657224476337433e-02 -1.411432307213544846e-02 1.025422941893339157e-02 2.666413318365812302e-03 2.476770058274269104e-02 4.545228555798530579e-03 1.359625719487667084e-02 4.731928464025259018e-03 -1.553832087665796280e-02 1.217662077397108078e-02 4.147107712924480438e-03 -1.033355202525854111e-02 2.617964707314968109e-02 -1.476576365530490875e-02 1.553447800688445568e-04 -4.526039585471153259e-03 4.605789110064506531e-02 -1.570982486009597778e-02 -2.922834828495979309e-03 2.613744139671325684e-02 7.075181230902671814e-03 1.401456538587808609e-02 3.252156777307391167e-03 8.940447121858596802e-03 -6.604095920920372009e-03 -1.598787121474742889e-02 6.520587950944900513e-03 -1.335343625396490097e-02 7.534183561801910400e-03 -5.917507689446210861e-03 -7.962638046592473984e-04 -6.535362452268600464e-03 -7.519053760915994644e-03 -1.075571984983980656e-03 -1.948833279311656952e-02 2.066052891314029694e-02 1.230058376677334309e-03 -2.019666368141770363e-03 -2.935476228594779968e-02 1.474140770733356476e-02 -9.529488743282854557e-04 1.656224578619003296e-02 8.191389963030815125e-03 -1.564546860754489899e-02 -8.578718639910221100e-03 -1.015622750855982304e-03 -7.067658472806215286e-03 -1.941147632896900177e-02 -1.605269312858581543e-02 -4.676037002354860306e-03 2.005720511078834534e-02 7.149559445679187775e-03 -9.396206587553024292e-03 1.459910627454519272e-02 -9.966651909053325653e-03 8.692302741110324860e-03 4.353771451860666275e-03 -1.993764564394950867e-02 4.069659858942031860e-03 2.142605744302272797e-02 2.904838696122169495e-02 2.958810701966285706e-02 -5.178394727408885956e-03 2.378201857209205627e-02 5.366243887692689896e-03 5.065817385911941528e-03 -1.214694464579224586e-03 -1.852736808359622955e-02 -6.164851132780313492e-03 -2.988732419908046722e-02 -1.889816136099398136e-03 2.341763488948345184e-02 2.625104971230030060e-02 5.203833337873220444e-03 9.147893637418746948e-03 1.196774374693632126e-02 -5.837590433657169342e-03 -1.058801170438528061e-02 9.339056909084320068e-03 1.246531261131167412e-03 -1.087939459830522537e-02 -1.883396133780479431e-02 -1.026141177862882614e-02 3.300550952553749084e-02 4.010066855698823929e-03 2.454358909744769335e-04 8.364526554942131042e-03 3.168881684541702271e-02 7.507284171879291534e-03 3.059401735663414001e-02 2.416356280446052551e-02 1.071892119944095612e-02 1.773860654793679714e-03 9.608173742890357971e-03 8.111405186355113983e-03 2.095740474760532379e-02 3.298572963103652000e-03 -2.000758890062570572e-03 2.169127110391855240e-03 -5.680258851498365402e-03 -2.184122428297996521e-02 1.886051148176193237e-02 3.139979438856244087e-03 7.219028659164905548e-03 -2.844918146729469299e-02 7.343175821006298065e-03 -7.920144125819206238e-04 -5.295131355524063110e-03 -1.111796684563159943e-02 -7.370380219072103500e-03 2.902061492204666138e-02 -1.429644506424665451e-02 -1.267888210713863373e-02 1.593506545759737492e-03 -1.427896553650498390e-03 -1.948509365320205688e-02 -9.976125322282314301e-03 -1.100643910467624664e-02 -7.437894586473703384e-03 7.245255168527364731e-03 -6.004796829074621201e-03 6.974897347390651703e-03 2.512599155306816101e-02 2.678236737847328186e-02 7.985704578459262848e-03 8.711471222341060638e-03 -3.602229291573166847e-03 1.295888889580965042e-02 -7.279910612851381302e-03 4.865069873631000519e-03 -9.972594678401947021e-03 9.516648016870021820e-03 6.304898764938116074e-03 -1.722835563123226166e-02 8.481909520924091339e-03 -2.051299437880516052e-02 -2.097303979098796844e-02 -3.747437149286270142e-03 1.042933296412229538e-02 2.452289313077926636e-02 7.968409918248653412e-04 1.128511875867843628e-02 -3.246308304369449615e-03 4.387064836919307709e-03 9.652260341681540012e-04 1.394202467054128647e-02 7.720103953033685684e-03 -4.149803146719932556e-02 2.665376663208007812e-02 -2.322419174015522003e-02 4.143374972045421600e-03 -1.258518267422914505e-02 3.930085804313421249e-03 -8.137377910315990448e-03 5.866708699613809586e-03 2.556395193096250296e-04 -1.015370246022939682e-03 -1.461851317435503006e-02
8.700879290699958801e-03 -2.478709816932678223e-02 -4.138055257499217987e-03 1.887391088530421257e-03 2.053170651197433472e-02 7.320522563531994820e-04 2.310954593122005463e-02 6.853183265775442123e-03 -1.188925653696060181e-02 9.987513534724712372e-03 1.417269837111234665e-02 6.389728188514709473e-02 -3.398018307052552700e-04 1.508285384625196457e-02 6.815348751842975616e-03 -3.143476787954568863e-03 1.863364316523075104e-02 1.251362846232950687e-03 -2.416030503809452057e-02 7.343852892518043518e-03 -2.022467320784926414e-03 -3.430581465363502502e-02 2.115653827786445618e-02 3.028462082147598267e-02 4.317178856581449509e-03 8.124025538563728333e-03 -2.921773120760917664e-03 3.242487087845802307e-02 -1.248976495116949081e-02 1.405664347112178802e-02 1.623505726456642151e-02 8.167206309735774994e-03 8.417141507379710674e-04 1.074003637768328190e-03 1.703953742980957031e-02 -1.721887849271297455e-02 1.559901982545852661e-02 -1.451197825372219086e-02 2.490098588168621063e-03 -6.561950431205332279e-04 1.074245292693376541e-02 -7.652829866856336594e-03 1.817940361797809601e-02 1.349246222525835037e-02 2.461578883230686188e-02 -5.707171931862831116e-02 -1.546426443383097649e-03 -3.299087658524513245e-02 8.948160335421562195e-03 -1.156422961503267288e-02 1.663564704358577728e-02 3.592028468847274780e-02 2.342708408832550049e-02 -1.386880036443471909e-02 2.240531332790851593e-02 1.047757361084222794e-02 5.735095124691724777e-03 1.026344858109951019e-02 2.039351686835289001e-02 2.805465273559093475e-02 2.192709222435951233e-02 -1.723497919738292694e-02 1.023640763014554977e-02 3.075630962848663330e-02 4.808806625078432262e-05 7.871194742619991302e-03 -3.181109670549631119e-03 8.245325647294521332e-03 1.047798525542020798e-02 -3.496163338422775269e-02 -2.320294640958309174e-02 2.367131598293781281e-02 -2.042426727712154388e-02 -1.651985803619027138e-03 -1.900805160403251648e-02 3.076972439885139465e-03 2.095789462327957153e-02 -1.589111634530127048e-03 -4.079506918787956238e-02 1.036959607154130936e-02 2.283829730004072189e-03 -3.255123039707541466e-03 -2.108312398195266724e-02 4.434501752257347107e-03 -7.693259394727647305e-04 -1.020408142358064651e-02 -3.408462973311543465e-03 1.127596572041511536e-02 -3.669257508590817451e-03 1.277779322117567062e-02 -8.475374430418014526e-03 -7.999981753528118134e-03 -6.118673365563154221e-03 -4.729254171252250671e-02 6.934461183845996857e-03 1.040599774569272995e-02 -5.311316344887018204e-04 3.636766923591494560e-03 9.745663963258266449e-03 -8.260837756097316742e-03 6.621092557907104492e-03 1.858388260006904602e-02 1.513826195150613785e-03 -6.398557685315608978e-03 -3.465302661061286926e-02 2.941107936203479767e-02 6.864665541797876358e-03 -4.757183138281106949e-03 -1.295880065299570560e-03 -6.967405788600444794e-03 -3.643321990966796875e-02 2.788807824254035950e-02 -1.267828163690865040e-03 1.371474750339984894e-02 1.483327825553715229e-03 1.226812228560447693e-02 -4.606415983289480209e-03 -5.321659147739410400e-03 -7.962174713611602783e-03 2.636264311149716377e-03 1.442557433620095253e-03 1.429159566760063171e-02 3.482676669955253601e-02 -1.618750765919685364e-02 -7.942758966237306595e-04 3.045667894184589386e-02 -1.239601988345384598e-02 1.396581251174211502e-02 1.493599358946084976e-02 1.454402972012758255e-02 1.389272790402173996e-02 -4.803306423127651215e-03 1.640771515667438507e-03 -4.415303468704223633e-03 1.018423866480588913e-02 1.176528260111808777e-02 -1.066565047949552536e-02 -6.081500556319952011e-03 1.817153207957744598e-02 -2.340811491012573242e-02 -1.657665707170963287e-02 1.066828705370426178e-02 2.404502220451831818e-02 1.306676957756280899e-02 3.551750630140304565e-02 1.886354014277458191e-02 2.305041067302227020e-02 2.333611063659191132e-02 -1.492267381399869919e-02 1.865927502512931824e-02 3.237529471516609192e-02 -3.048792248591780663e-03 7.473510224372148514e-03 -1.246987748891115189e-02 -2.137227356433868408e-02 1.093124505132436752e-02 -1.331766368821263313e-03 -4.392962902784347534e-03 -4.115567728877067566e-02 1.541139837354421616e-02 2.658632397651672363e-02 8.921052329242229462e-03 -2.719795564189553261e-03 1.789955794811248779e-02 -4.361459054052829742e-03 -2.021368965506553650e-02 -9.603110142052173615e-03 -3.156379563733935356e-03 -1.202025730162858963e-02 -1.998358778655529022e-02 7.948509417474269867e-03 1.229865290224552155e-02 -3.076164866797626019e-04 1.594746671617031097e-02 1.550175994634628296e-02 3.596180677413940430e-02 1.486512552946805954e-02 1.914687268435955048e-02 -8.139468729496002197e-03 3.790914639830589294e-02 1.482299435883760452e-02 -3.177918121218681335e-02 -2.398433163762092590e-02 1.204461077577434480e-04 2.880972111597657204e-03 -1.778894662857055664e-02 -2.134490571916103363e-02 -7.229057606309652328e-03 -2.410131692886352539e-02 -8.598179556429386139e-03 1.755974441766738892e-02 1.133739855140447617e-02 5.220633000135421753e-03 -1.505189202725887299e-02 2.404175698757171631e-02 2.240189351141452789e-02 4.055598750710487366e-03 2.258121035993099213e-02 -1.175730302929878235e-02 -4.068651236593723297e-03 1.411818154156208038e-02 -8.990897913463413715e-04 -4.793369211256504059e-03 -1.410423684865236282e-02 4.765610676258802414e-03 9.421648457646369934e-03 1.388532575219869614e-02 1.867715502157807350e-03 4.046347923576831818e-03 3.550577163696289062e-02 2.243117801845073700e-02 3.698638407513499260e-03 5.535400938242673874e-03 3.712535137310624123e-03 4.529589414596557617e-02 7.623001467436552048e-03 3.272853791713714600e-03 1.688761077821254730e-02 6.906782276928424835e-03 -1.279580313712358475e-02 4.805022035725414753e-04 2.421634970232844353e-03 -4.860293120145797729e-03 -1.324704289436340332e-02 -1.974651403725147247e-02 1.357252988964319229e-02 -2.230406273156404495e-03 -7.898530457168817520e-04 1.994745619595050812e-02 2.844549948349595070e-03 4.116819240152835846e-03 -1.513483002781867981e-02 1.412574667483568192e-02 4.645741730928421021e-02 4.309956915676593781e-03 1.470663584768772125e-02 7.684178650379180908e-03 -5.646284669637680054e-03 1.971563324332237244e-02 -3.397105261683464050e-03 2.494077570736408234e-02 -2.393190516158938408e-03 1.943372748792171478e-02 2.784186799544841051e-04 1.685269363224506378e-02 8.120310492813587189e-03 -2.158130332827568054e-02 3.555711731314659119e-02 -1.973686367273330688e-02 1.394353713840246201e-02 -7.132003549486398697e-03 -9.320425800979137421e-03 1.247508265078067780e-02 2.040520776063203812e-03 -1.958604669198393822e-03 2.184512838721275330e-02
4.916149919154122472e-05 2.509380690753459930e-02 1.739010564051568508e-03 -1.702697761356830597e-02 -2.469368092715740204e-02 3.973757848143577576e-03 1.287990715354681015e-03 1.106700208038091660e-02 1.891908235847949982e-02 -4.317210186854936182e-05 1.353450305759906769e-02 -2.010536193847656250e-02 1.700326986610889435e-02 -1.366113964468240738e-02 -1.440397184342145920e-02 1.616765628568828106e-03 -6.774544250220060349e-03 4.750948282890021801e-04 1.437572576105594635e-02 2.442078106105327606e-02 1.855056732892990112e-02 1.361104659736156464e-02 -1.935780234634876251e-02 -3.312772372737526894e-03 1.387324370443820953e-02 1.009024586528539658e-02 -1.647225953638553619e-02 -5.016881041228771210e-03 -2.533257007598876953e-02 -7.008471060544252396e-03 1.075004227459430695e-02 1.575519330799579620e-02 -3.079272806644439697e-03 5.536510609090328217e-03 -2.756733074784278870e-02 3.053246252238750458e-02 -4.395375028252601624e-03 -7.575462106615304947e-03 -8.396110497415065765e-03 -3.238696139305830002e-03 6.870111450552940369e-03 1.005336269736289978e-02 -2.105041407048702240e-03 -2.181399613618850708e-02 1.117065455764532089e-02 -2.959672361612319946e-02 3.337395936250686646e-02 3.168923035264015198e-02 3.221400780603289604e-03 -2.155287377536296844e-02 -1.745918882079422474e-03 -5.155475810170173645e-03 -6.088396068662405014e-03 -1.089455932378768921e-02 9.269707836210727692e-03 -2.510255947709083557e-02 1.867998391389846802e-02 -1.650576852262020111e-02 8.487893268465995789e-03 -1.242997869849205017e-02 -9.134110063314437866e-03 2.347411960363388062e-02 -1.148206740617752075e-02 5.104479845613241196e-03 1.570330746471881866e-02 1.909702643752098083e-02 3.704004455357789993e-03 2.620381675660610199e-02 2.188650146126747131e-02 1.128424331545829773e-02 -9.336489252746105194e-03 1.421569753438234329e-02 -2.800079993903636932e-02 8.855580352246761322e-03 -1.863081008195877075e-02 2.191893989220261574e-03 9.837940335273742676e-03 2.529154531657695770e-02 5.076666362583637238e-03 2.631852694321423769e-04 2.772744745016098022e-02 2.019257657229900360e-02 2.678862307220697403e-03 1.493994519114494324e-02 1.074810512363910675e-02 9.687381796538829803e-03 2.699496969580650330e-02 -2.526245079934597015e-02 3.871837863698601723e-03 1.776333153247833252e-02 3.253652155399322510e-02 2.082901448011398315e-02 2.695317566394805908e-02 2.141872420907020569e-02 3.290898352861404419e-02 -3.304013283923268318e-03 7.220526458695530891e-04 -1.599466055631637573e-02 -3.202864900231361389e-02 2.872867137193679810e-02 -2.588199637830257416e-02 1.038181688636541367e-02 1.866623386740684509e-02 7.761363871395587921e-03 2.847411110997200012e-02 -1.007649488747119904e-02 1.695302128791809082e-02 -5.107410252094268799e-04 2.411621436476707458e-02 -3.075429983437061310e-02 9.455136954784393311e-03 8.771051652729511261e-04 8.179670199751853943e-03 -1.916221110150218010e-03 4.371782019734382629e-02 -4.029721021652221680e-03 -3.104024333879351616e-03 5.869831889867782593e-03 9.812043979763984680e-03 1.522193942219018936e-02 -1.950535224750638008e-03 2.829881152138113976e-03 6.648250855505466461e-03 1.424146117642521858e-03 -2.098266966640949249e-02 1.055492274463176727e-02 1.996407099068164825e-02 -9.631876833736896515e-03 2.468573115766048431e-02 4.298445302993059158e-03 -1.661487738601863384e-03 2.193919569253921509e-02 -3.048449382185935974e-02 1.688637211918830872e-02 1.221353653818368912e-02 3.729658666998147964e-03 -2.672024536877870560e-03 2.251766435801982880e-02 -4.686722997575998306e-03 2.137677930295467377e-02 2.107961103320121765e-02 1.284075714647769928e-02 -1.727344095706939697e-02 -1.111944299191236496e-02 -8.715260773897171021e-04 -1.715024560689926147e-02 1.929820701479911804e-02 -1.575864665210247040e-02 2.225428260862827301e-02 -2.259664610028266907e-02 -1.245400868356227875e-02 -9.265387430787086487e-03 1.764790713787078857e-02 -9.927875362336635590e-03 1.598845794796943665e-02 -1.790766790509223938e-02 2.738937968388199806e-03 1.908679865300655365e-02 6.942131556570529938e-03 1.436403766274452209e-02 -1.561625208705663681e-02 -2.312770858407020569e-02 -2.326448634266853333e-02 -3.670286387205123901e-02 2.571143023669719696e-02 -3.286217339336872101e-03 2.661533840000629425e-02 -9.519794024527072906e-03 1.296093501150608063e-02 1.229187473654747009e-02 2.372898347675800323e-02 -8.376738056540489197e-03 -1.680769771337509155e-02 2.014029212296009064e-02 1.485135685652494431e-02 -2.060693129897117615e-02 2.237893268465995789e-02 8.862564340233802795e-03 2.758730575442314148e-02 8.409531787037849426e-03 1.719433441758155823e-02 -2.346287481486797333e-02 2.106993272900581360e-02 9.622588753700256348e-03 2.393112517893314362e-02 -2.295227348804473877e-02 -4.025721549987792969e-02 5.338178947567939758e-03 9.046849794685840607e-03 8.330279029905796051e-03 1.513057574629783630e-02 -4.662792664021253586e-03 -1.999535225331783295e-02 2.230856753885746002e-02 -1.041814219206571579e-02 3.269102191552519798e-03 1.701972447335720062e-02 -1.975766010582447052e-02 8.580921567045152187e-04 1.030008029192686081e-02 -9.719485417008399963e-03 8.184833452105522156e-03 -3.436638507992029190e-04 -3.110100515186786652e-02 2.073886804282665253e-02 2.849148120731115341e-03 -2.158099412918090820e-02 5.824697436764836311e-04 1.208440214395523071e-02 5.046086385846138000e-03 9.555850410833954811e-04 2.392851188778877258e-02 2.858334034681320190e-02 5.319857038557529449e-03 6.089664530009031296e-03 -1.327013317495584488e-02 3.076985292136669159e-02 1.807091757655143738e-02 2.279344946146011353e-02 1.678227260708808899e-02 1.714519597589969635e-02 3.394506406038999557e-03 2.832775469869375229e-03 -2.053651399910449982e-02 1.893843524158000946e-02 -2.129293046891689301e-02 1.502492930740118027e-02 -7.003901060670614243e-03 -1.142061036080121994e-02 1.203202293254435062e-03 1.270445645786821842e-03 -3.222477063536643982e-02 -1.537559274584054947e-02 -9.491058997809886932e-03 -1.807968132197856903e-02 -1.122987363487482071e-02 8.321105851791799068e-04 2.790068835020065308e-02 6.795116700232028961e-03 1.554320938885211945e-02 -3.286655759438872337e-03 1.086994074285030365e-02 2.903999702539294958e-04 1.261887233704328537e-02 8.593010716140270233e-03 -4.002547636628150940e-02 7.468946278095245361e-03 5.913729313760995865e-03 7.803685497492551804e-03 7.816222496330738068e-03 1.351378858089447021e-02 1.285812258720397949e-02 2.789666177704930305e-03 -2.356352284550666809e-03 -1.019658613950014114e-02 -1.897460781037807465e-02
-1.689133048057556152e-02 1.861923374235630035e-02 -1.546201878227293491e-03 -1.110156252980232239e-02 -3.513103350996971130e-02 1.149196922779083252e-02 2.158765494823455811e-02 -1.216777786612510681e-02 1.854624040424823761e-02 1.406836789101362228e-03 1.752090454101562500e-02 -8.839131332933902740e-03 2.606270648539066315e-02 -2.786430157721042633e-02 5.361829884350299835e-03 1.385120023041963577e-02 -4.769387096166610718e-02 -3.529793024063110352e-02 6.894341204315423965e-03 2.993777953088283539e-02 2.876533009111881256e-02 -1.437083445489406586e-02 -3.937955480068922043e-03 -1.227344758808612823e-02 1.395285874605178833e-02 3.350073844194412231e-02 -3.569206455722451210e-03 -7.355951704084873199e-03 -4.049783200025558472e-02 -2.037339285016059875e-02 6.700902245938777924e-03 1.761158928275108337e-02 -2.312625758349895477e-03 -9.661300107836723328e-03 -2.201271615922451019e-02 1.382495556026697159e-02 1.382507942616939545e-02 -1.035564206540584564e-02 4.365012573543936014e-04 -4.305754788219928741e-03 -4.208778496831655502e-03 3.233347460627555847e-02 1.248415187001228333e-02 -2.485043182969093323e-02 2.270896220579743385e-03 -2.620103396475315094e-02 2.919957228004932404e-02 1.891298592090606689e-02 -1.315653417259454727e-02 -3.923735395073890686e-02 3.190760267898440361e-03 4.185597412288188934e-03 -1.929870992898941040e-02 -1.636848784983158112e-02 3.272943198680877686e-02 -2.111902460455894470e-02 2.781680226325988770e-02 -1.524768862873315811e-02 1.765310578048229218e-02 -1.559190265834331512e-02 -1.499744784086942673e-02 1.836155168712139130e-02 -1.600848138332366943e-02 1.323340577073395252e-03 1.051253452897071838e-02 3.515952453017234802e-02 -3.580725518986582756e-03 2.069083973765373230e-02 3.384822979569435120e-02 -1.219135802239179611e-02 -9.708525612950325012e-03 9.860826656222343445e-03 -4.370087757706642151e-02 5.374780856072902679e-03 -1.168351620435714722e-02 -5.840865895152091980e-03 3.167810617014765739e-03 1.996539346873760223e-02 -2.790881262626498938e-04 9.378072805702686310e-03 3.301031887531280518e-02 3.728883713483810425e-02 -1.534475758671760559e-02 -1.202790415845811367e-03 4.316083621233701706e-03 9.012495283968746662e-04 3.299012035131454468e-02 -2.086496166884899139e-02 -5.130165722221136093e-03 2.097156830132007599e-02 1.292914245277643204e-02 1.993599906563758850e-02 3.306211903691291809e-02 1.779018784873187542e-04 3.320771828293800354e-02 -3.527069464325904846e-03 -2.447720617055892944e-03 -5.256230477243661880e-03 -2.809385955333709717e-02 1.612841710448265076e-02 -2.428337559103965759e-02 7.508297450840473175e-03 3.010590001940727234e-02 2.879019360989332199e-03 2.495688572525978088e-02 -5.990368779748678207e-03 1.473436690866947174e-02 3.917723894119262695e-03 4.924697428941726685e-02 -4.056994244456291199e-02 -1.975023001432418823e-02 -6.743388716131448746e-03 1.282591093331575394e-02 -2.295632613822817802e-03 3.832611441612243652e-02 1.952452585101127625e-03 5.025509744882583618e-03 2.206674218177795410e-02 4.598066955804824829e-02 3.081262856721878052e-02 9.335130453109741211e-03 -9.076563641428947449e-03 1.089756563305854797e-02 2.651337068527936935e-03 -2.812304301187396049e-03 1.270352862775325775e-02 -1.396395079791545868e-02 -6.320494692772626877e-03 3.246616572141647339e-02 -5.290779285132884979e-03 6.823915056884288788e-03 2.584962919354438782e-02 -2.014660090208053589e-02 8.061070926487445831e-03 3.282078355550765991e-02 1.508332043886184692e-02 6.116745644249022007e-04 5.215236544609069824e-02 -1.184440124779939651e-02 2.083602920174598694e-02 3.448925167322158813e-02 1.600120216608047485e-02 -1.883987151086330414e-02 -2.062551863491535187e-02 8.195214904844760895e-03 5.212622927501797676e-04 1.357122790068387985e-02 -1.659152098000049591e-02 -1.351470011286437511e-03 -6.807877216488122940e-03 -1.767351478338241577e-02 -8.852555416524410248e-03 2.578440122306346893e-02 -1.877164654433727264e-02 -5.835253279656171799e-03 -1.394728384912014008e-02 -2.958695404231548309e-02 2.701205946505069733e-02 -3.460587002336978912e-03 2.519897557795047760e-02 -9.638484567403793335e-03 -1.535996212624013424e-03 -1.713099144399166107e-02 -2.445136196911334991e-02 3.008965775370597839e-02 7.152371108531951904e-03 3.499482758343219757e-03 -1.763058267533779144e-02 1.431068871170282364e-02 2.068743668496608734e-02 2.531282231211662292e-02 -1.602985337376594543e-02 -1.298742648214101791e-02 1.583094522356987000e-02 2.795439213514328003e-02 -1.952883042395114899e-02 1.331866439431905746e-02 1.498464989708736539e-04 2.591715194284915924e-02 -3.813312388956546783e-03 1.090972963720560074e-02 -2.084740996360778809e-02 -2.259513130411505699e-03 -7.777840364724397659e-03 3.043191879987716675e-02 -2.000121399760246277e-03 -3.581268712878227234e-02 1.650737039744853973e-02 1.949699968099594116e-02 4.977677017450332642e-03 1.373002398759126663e-02 -2.676246454939246178e-03 -1.162896677851676941e-02 1.028886437416076660e-02 2.103799255564808846e-03 -5.790390074253082275e-03 1.442574616521596909e-02 -1.261318381875753403e-02 -6.260243244469165802e-03 1.892377249896526337e-02 -5.743241403251886368e-03 6.480101030319929123e-03 -1.146375294774770737e-02 -3.288878127932548523e-02 3.139649704098701477e-02 3.115801664534956217e-04 -1.091209147125482559e-02 -2.201258903369307518e-03 3.660944476723670959e-02 1.054308470338582993e-02 1.004700665362179279e-03 2.536379918456077576e-02 3.234216198325157166e-02 -2.241403795778751373e-02 1.445137150585651398e-02 -1.080670859664678574e-02 2.710106968879699707e-02 9.367944672703742981e-03 3.517247736454010010e-02 4.632862284779548645e-03 2.829802595078945160e-02 3.314568474888801575e-02 8.421817794442176819e-03 -2.052651904523372650e-02 9.883911348879337311e-03 -6.374715361744165421e-03 -5.613765097223222256e-04 4.023774992674589157e-03 -9.440130554139614105e-03 -6.877996493130922318e-04 -7.008614484220743179e-03 -2.831888571381568909e-02 -8.960215374827384949e-03 -5.198467988520860672e-03 -1.928008906543254852e-02 3.989222459495067596e-03 7.158314343541860580e-03 2.245561406016349792e-02 1.958997733891010284e-02 1.194293610751628876e-02 -7.462467532604932785e-03 1.180382096208631992e-03 6.980882957577705383e-03 5.594404414296150208e-03 -3.343113232403993607e-03 -3.960205242037773132e-02 1.000912953168153763e-02 -1.357913110405206680e-02 8.358507417142391205e-03 9.441109374165534973e-03 3.145154099911451340e-03 1.472983416169881821e-02 9.644895792007446289e-03 -1.315834280103445053e-02 -9.930114261806011200e-03 -9.959305636584758759e-03
