3.705303743481636047e-02
5.692406371235847473e-02
7.069769501686096191e-02
5.902129784226417542e-02
-2.145835198462009430e-02
7.476817816495895386e-02
2.663949877023696899e-02
6.133542582392692566e-02
7.953555881977081299e-02
-2.826989255845546722e-02
7.291743159294128418e-02
4.080568253993988037e-02
7.671260088682174683e-02
2.052453160285949707e-02
2.671631425619125366e-02
1.200717408210039139e-02
4.659844189882278442e-02
-3.235688805580139160e-02
5.779313296079635620e-02
-2.071259357035160065e-02
5.992518737912178040e-02
-1.873356662690639496e-02
3.756465017795562744e-02
4.073045775294303894e-02
4.240614920854568481e-02
3.691373392939567566e-02
-2.639833651483058929e-02
-1.832535676658153534e-02
4.223775491118431091e-02
1.242819149047136307e-02
4.585647955536842346e-02
3.595830127596855164e-02
3.018184192478656769e-02
-3.422984480857849121e-02
6.885980814695358276e-02
2.035880833864212036e-02
5.873906612396240234e-02
6.778949499130249023e-02
5.451087653636932373e-02
7.001786679029464722e-02
5.360268428921699524e-02
4.226309433579444885e-02
5.655827745795249939e-02
5.280049890279769897e-02
1.225522346794605255e-02
-5.521084312931634486e-05
5.899731442332267761e-02
-8.835329674184322357e-03
1.928875222802162170e-02
1.830200292170047760e-02
7.679596543312072754e-02
2.419683150947093964e-02
3.547670319676399231e-02
5.759510025382041931e-02
7.657606154680252075e-02
1.130798482336103916e-03
3.336732089519500732e-02
3.230774402618408203e-02
3.018626710399985313e-03
5.471567437052726746e-02
6.282772868871688843e-02
3.528649732470512390e-02
-2.028044871985912323e-02
2.078491728752851486e-03
-1.974738761782646179e-02
9.248798340559005737e-02
3.220852464437484741e-02
7.890972495079040527e-02
5.339492112398147583e-02
5.283071845769882202e-02
5.828205123543739319e-02
6.095647066831588745e-02
1.094244793057441711e-02
1.033178567886352539e-01
3.483002260327339172e-02
5.629471316933631897e-02
-2.672982029616832733e-02
1.889035664498806000e-02
6.874608993530273438e-02
4.870838299393653870e-02
2.806573361158370972e-02
-1.932453364133834839e-02
3.130149468779563904e-02
2.373860403895378113e-02
-3.179444000124931335e-02
1.173836551606655121e-02
7.502222061157226562e-02
-9.955325163900852203e-03
7.215177267789840698e-02
-2.352840825915336609e-02
3.332645446062088013e-02
3.141640871763229370e-02
2.174142003059387207e-02
2.768695354461669922e-02
2.260679006576538086e-02
5.698922276496887207e-02
4.180828109383583069e-02
1.035746410489082336e-01
7.978323101997375488e-02
3.167854622006416321e-03
2.799144946038722992e-02
6.425821688026189804e-03
-1.513193082064390182e-02
6.483819335699081421e-02
6.029316410422325134e-02
1.379136182367801666e-02
-2.535677514970302582e-03
7.231702655553817749e-02
8.045232295989990234e-02
3.584592416882514954e-02
8.507758378982543945e-02
-1.709888875484466553e-02
-1.701664924621582031e-02
3.428828716278076172e-02
7.460954785346984863e-02
4.004939645528793335e-02
-4.240011051297187805e-02
2.801277860999107361e-02
1.035953983664512634e-01
4.961148276925086975e-02
6.428959220647811890e-02
-2.811793982982635498e-02
2.032682858407497406e-02
7.209219038486480713e-02
6.645741313695907593e-02
4.829703271389007568e-02
3.843786567449569702e-02
-1.950283721089363098e-02
1.284830458462238312e-02
1.136247627437114716e-02
3.237709403038024902e-03
8.679369837045669556e-02
3.883833810687065125e-02
1.198889873921871185e-02
1.519219484180212021e-02
3.838758170604705811e-02
1.399684231728315353e-02
-1.049583591520786285e-02
1.294923131354153156e-03
2.808923088014125824e-02
2.220897935330867767e-02
1.641154475510120392e-02
7.069613784551620483e-02
5.228298902511596680e-02
3.983126580715179443e-02
3.861824795603752136e-02
2.379611320793628693e-02
8.161243051290512085e-02
-4.566440824419260025e-03
-2.210453897714614868e-02
1.753419078886508942e-02
5.049932748079299927e-02
3.750852122902870178e-02
3.183464333415031433e-02
1.780268177390098572e-02
5.950212478637695312e-02
-1.281854324042797089e-02
1.590109057724475861e-02
-1.257678493857383728e-02
-2.020679228007793427e-02
-1.554321963340044022e-02
4.946840927004814148e-02
6.076505780220031738e-02
1.450199913233518600e-02
2.555876225233078003e-02
5.176236853003501892e-02
5.782251805067062378e-02
3.970848768949508667e-02
2.119987457990646362e-02
5.082423985004425049e-02
4.645881056785583496e-02
7.093258947134017944e-02
8.828058838844299316e-02
7.890802808105945587e-03
5.476481840014457703e-02
-3.286402300000190735e-02
5.764395743608474731e-02
9.993667714297771454e-03
4.492938891053199768e-02
6.153334304690361023e-02
-9.993465617299079895e-03
-2.271347492933273315e-02
5.680509284138679504e-02
4.386162757873535156e-02
1.578078791499137878e-02
-3.081251867115497589e-02
5.183199793100357056e-02
4.241356998682022095e-02
8.011557161808013916e-02
-5.104016512632369995e-02
6.509850732982158661e-03
2.496612444519996643e-02
5.090566352009773254e-02
-9.988016448915004730e-03
3.888521343469619751e-02
3.925631567835807800e-02
2.952670305967330933e-02
8.868338167667388916e-02
-5.424278602004051208e-02
2.263844944536685944e-02
-3.544788435101509094e-02
6.843798607587814331e-02
6.491335574537515640e-03
-2.748095244169235229e-02
5.350839719176292419e-02
4.681148380041122437e-02
-1.366511266678571701e-02
6.594762206077575684e-02
-3.769681556150317192e-03
7.282689213752746582e-03
7.306803017854690552e-02
5.510594323277473450e-02
-2.514314278960227966e-02
3.714747261255979538e-03
-2.173200994729995728e-02
-6.094480305910110474e-02
-7.979873567819595337e-03
1.217257697135210037e-02
8.123031817376613617e-03
-3.194490447640419006e-03
7.021102309226989746e-02
6.658959202468395233e-03
4.606966301798820496e-02
-2.818485023453831673e-03
4.748777672648429871e-02
-6.014417856931686401e-03
1.496921479701995850e-02
-1.341483183205127716e-02
5.433104932308197021e-02
5.011742934584617615e-02
2.736860513687133789e-02
2.221767976880073547e-02
-3.751615993678569794e-03
2.169081754982471466e-02
5.381095409393310547e-02
8.439430594444274902e-02
3.224279358983039856e-02
9.061169624328613281e-02
7.027901709079742432e-02
8.536396175622940063e-02
3.965498879551887512e-02
-8.313111215829849243e-02
-7.443653792142868042e-02
3.315528109669685364e-02
7.471133023500442505e-02
-3.428531065583229065e-02
4.200010001659393311e-02
1.583412289619445801e-02
6.697203963994979858e-03
8.929846808314323425e-03
2.166131883859634399e-02
5.699701141566038132e-03
6.678633391857147217e-02
3.692919015884399414e-02
7.151155918836593628e-02
7.553453743457794189e-02
