-1.247127354145050049e-02
-5.324332159943878651e-04
-3.190848801750689745e-04
4.854002594947814941e-02
1.331338845193386078e-02
-1.416771858930587769e-02
4.876840859651565552e-03
7.830333779565989971e-04
-3.666827396955341101e-04
6.095037679187953472e-04
8.110341615974903107e-03
2.480687014758586884e-02
4.392823576927185059e-02
-3.913902910426259041e-04
1.357058342546224594e-02
-1.068365946412086487e-02
3.162715584039688110e-02
3.990533947944641113e-02
-6.768009159713983536e-03
-2.294820500537753105e-03
-9.703050018288195133e-04
-3.205472230911254883e-02
5.841335281729698181e-03
1.368132140487432480e-02
5.996323190629482269e-03
-1.197713054716587067e-02
4.779909923672676086e-02
2.103766659274697304e-03
3.252290561795234680e-02
-2.090037614107131958e-02
-8.082141284830868244e-04
6.054872181266546249e-03
3.020283393561840057e-02
7.896638475358486176e-03
-3.931500017642974854e-03
8.467868610750883818e-06
-8.338998886756598949e-04
-7.396730361506342888e-04
8.402466773986816406e-03
2.631724439561367035e-02
2.035857737064361572e-02
-3.629818931221961975e-02
8.690158836543560028e-03
-3.052730485796928406e-02
4.209833964705467224e-02
3.164334967732429504e-02
6.242697313427925110e-02
6.100368220359086990e-03
5.834552925080060959e-03
3.757965750992298126e-03
1.207554014399647713e-03
3.625672310590744019e-02
-3.819804696831852198e-04
-3.944759082514792681e-04
4.769285768270492554e-02
6.043388508260250092e-03
1.588964462280273438e-02
-9.337014518678188324e-03
-1.368728844681754708e-04
4.484430700540542603e-02
-2.535032341256737709e-03
9.280355647206306458e-03
4.388979170471429825e-03
-1.462983805686235428e-02
4.354301095008850098e-02
6.094046402722597122e-03
1.749714137986302376e-04
-3.768961876630783081e-02
3.781495615839958191e-02
4.551899805665016174e-02
5.809941329061985016e-03
-6.852164515294134617e-04
-8.783737430348992348e-04
3.255519317463040352e-03
-7.045594975352287292e-03
3.391852835193276405e-03
1.412973925471305847e-02
1.753933541476726532e-02
1.770210079848766327e-02
1.356402412056922913e-02
3.255549445748329163e-02
-1.707065105438232422e-02
4.611369594931602478e-02
-1.049154344946146011e-02
2.017194218933582306e-02
8.125968277454376221e-03
1.830914616584777832e-02
-6.165016442537307739e-03
2.904706634581089020e-02
-1.608824357390403748e-03
1.443258952349424362e-02
4.701997153460979462e-03
-2.457831520587205887e-03
1.093222200870513916e-02
1.918337540701031685e-03
1.317168120294809341e-02
-6.813011714257299900e-04
1.778309419751167297e-02
-6.286854040808975697e-04
4.766128025949001312e-03
-8.979367092251777649e-03
-3.149896487593650818e-02
-1.677189837209880352e-03
4.218314774334430695e-03
1.513996813446283340e-02
3.792502684518694878e-03
-3.081870637834072113e-02
-4.137679934501647949e-04
-2.454803138971328735e-02
5.218443460762500763e-03
-3.172828629612922668e-02
6.815259810537099838e-03
5.629387125372886658e-02
-2.695494098588824272e-03
3.434060141444206238e-02
2.754434384405612946e-02
-1.015909598208963871e-03
5.613578855991363525e-02
3.793697059154510498e-02
7.251743227243423462e-03
5.533126369118690491e-02
-1.072263158857822418e-02
3.479130193591117859e-02
-9.045097976922988892e-04
6.976566277444362640e-03
1.265300670638680458e-03
2.963916771113872528e-02
1.699854061007499695e-02
4.604763817042112350e-03
1.145199872553348541e-03
-3.569489635992795229e-04
-4.764478653669357300e-04
4.769374802708625793e-02
-2.590324357151985168e-02
1.411475148051977158e-02
3.150021284818649292e-02
-4.237639717757701874e-03
6.130618043243885040e-03
-5.525440908968448639e-03
-7.360894232988357544e-04
-1.930190599523484707e-03
5.804003402590751648e-02
-2.315329760313034058e-02
3.594674915075302124e-02
1.595467701554298401e-02
-4.551223013550043106e-03
2.635373501107096672e-03
-2.875762875191867352e-04
-2.742089144885540009e-02
-2.489719726145267487e-02
-3.692447498906403780e-04
3.968377783894538879e-02
3.051849827170372009e-02
-1.435874379239976406e-03
9.859407320618629456e-03
-2.858678251504898071e-02
2.279045246541500092e-02
-8.272830164059996605e-04
-5.547894979827105999e-04
-8.997665136121213436e-04
7.993559353053569794e-03
1.606791280210018158e-02
-1.058866456151008606e-02
1.105543784797191620e-02
6.390933413058519363e-03
-3.810235066339373589e-04
2.866918779909610748e-02
-3.215732751414179802e-03
-2.585918642580509186e-03
1.013682875782251358e-02
-6.495749694295227528e-04
1.425007637590169907e-02
2.261311002075672150e-02
-3.707979631144553423e-04
-2.414897782728075981e-03
4.399335384368896484e-02
5.577661842107772827e-02
2.859083376824855804e-02
1.585807651281356812e-02
3.892226889729499817e-02
-7.319941651076078415e-03
-2.858577482402324677e-02
1.652610301971435547e-02
-1.435587555170059204e-02
-1.880390336737036705e-03
-1.342210918664932251e-02
8.072351105511188507e-03
-1.993488287553191185e-03
1.652291603386402130e-02
4.174416884779930115e-03
1.233197655528783798e-02
4.230891645420342684e-04
1.996506564319133759e-02
-5.217467551119625568e-04
1.376222912222146988e-02
1.549477875232696533e-02
1.167427282780408859e-02
-3.178360313177108765e-02
-1.988111436367034912e-02
2.000556886196136475e-02
5.696613807231187820e-03
1.601738482713699341e-02
3.049834072589874268e-02
4.235045635141432285e-04
-2.745280973613262177e-02
4.616297036409378052e-02
1.868258230388164520e-02
4.467868432402610779e-02
-2.771755447611212730e-03
9.912081994116306305e-03
4.416840150952339172e-03
6.277422606945037842e-02
-6.056990008801221848e-03
3.845775499939918518e-02
1.158169191330671310e-02
4.450873285531997681e-02
1.801757258363068104e-03
5.727252457290887833e-03
1.595847122371196747e-02
6.722809746861457825e-03
-1.498082838952541351e-02
2.540409797802567482e-03
1.662291469983756542e-03
5.551266018301248550e-03
-1.018987968564033508e-02
2.043868415057659149e-02
4.121690988540649414e-03
4.986685235053300858e-03
7.231683004647493362e-03
2.518132328987121582e-02
-8.066811715252697468e-04
-1.763803139328956604e-02
-3.062538104131817818e-03
7.248458452522754669e-03
3.840671479701995850e-02
-2.841349877417087555e-02
1.403346750885248184e-02
3.903463715687394142e-03
-7.839688332751393318e-04
1.038909517228603363e-02
1.634887419641017914e-02
6.425196677446365356e-02
6.132128834724426270e-02
-4.129703738726675510e-04
-9.740277309902012348e-04
1.238242443650960922e-02
2.470079436898231506e-02
-1.063268515281379223e-03
-7.904452271759510040e-03
3.950478881597518921e-02
8.513895794749259949e-03
5.572464317083358765e-03
-2.596207894384860992e-02
7.332371082156896591e-03
9.099603630602359772e-03
6.282950751483440399e-03
