-3.002692479640245438e-03
-3.000964876264333725e-03
-3.002719022333621979e-03
3.779703855514526367e+00
7.943428158760070801e-01
-3.002732759341597557e-03
4.002316951751708984e+00
-3.002668265253305435e-03
-3.002609824761748314e-03
4.844092130661010742e-01
8.898345232009887695e-01
-3.002714598551392555e-03
7.452467918395996094e+00
-3.002739977091550827e-03
-3.002724144607782364e-03
-3.002735786139965057e-03
1.253993988037109375e+00
-3.002522047609090805e-03
-6.126276850700378418e-01
8.805742263793945312e-01
-3.002402139827609062e-03
-3.001756500452756882e-03
-3.002004232257604599e-03
-3.002696204930543900e-03
1.019589185714721680e+00
-3.002525074407458305e-03
-2.997454255819320679e-03
2.864915370941162109e+00
1.772524595260620117e+00
5.309056639671325684e-01
-1.293179392814636230e+00
3.507596969604492188e+00
-3.002594457939267159e-03
3.060360908508300781e+00
-3.002732060849666595e-03
-5.236416339874267578e+00
-3.002271056175231934e-03
1.222446322441101074e+00
-3.002266632393002510e-03
1.108793020248413086e+00
-3.002038691192865372e-03
2.547406435012817383e+00
3.573452949523925781e+00
-3.002743702381849289e-03
-1.443146169185638428e-01
-2.294876337051391602e+00
8.486396074295043945e-01
-3.002689685672521591e-03
9.403147101402282715e-01
1.405895709991455078e+00
-3.000966506078839302e-03
-3.002652199938893318e-03
3.964144229888916016e+00
-3.002691548317670822e-03
6.299930214881896973e-01
-3.002673853188753128e-03
-3.002651268616318703e-03
3.740926980972290039e-01
-3.002719022333621979e-03
-3.002734854817390442e-03
4.558069229125976562e+00
-1.601491421461105347e-01
-3.002719953656196594e-03
1.435793399810791016e+00
5.532974720001220703e+00
-3.002594457939267159e-03
4.883865833282470703e+00
3.787014484405517578e+00
-3.001348813995718956e-03
-3.002740908414125443e-03
-3.002701094374060631e-03
-2.513407170772552490e-01
-3.002722980454564095e-03
2.173071146011352539e+00
-3.002464305609464645e-03
-3.002732060849666595e-03
-2.551505863666534424e-01
-3.002689685672521591e-03
-5.940042734146118164e-01
-3.002710873261094093e-03
5.310091018676757812e+00
4.227843508124351501e-02
-3.002737881615757942e-03
-3.002530429512262344e-03
-3.002364886924624443e-03
-3.002733690664172173e-03
6.523398399353027344e+00
-3.001488046720623970e-03
-3.002677345648407936e-03
-3.002668963745236397e-03
-3.002715297043323517e-03
-6.333924770355224609e+00
-3.002725308761000633e-03
-1.823516726493835449e+00
4.849908828735351562e+00
-3.002480603754520416e-03
-1.818942874670028687e-01
-3.002721350640058517e-03
-5.598236560821533203e+00
-6.125791072845458984e+00
-3.002714831382036209e-03
1.316489100456237793e+00
1.964168906211853027e+00
1.747740507125854492e+00
-3.002680605277419090e-03
-3.002721816301345825e-03
-1.882688879966735840e+00
-3.002736950293183327e-03
5.144434928894042969e+00
1.477723717689514160e+00
-3.002696437761187553e-03
-4.715128421783447266e+00
-3.002713667228817940e-03
-1.232076212763786316e-01
-1.159361153841018677e-01
1.952385187149047852e+00
-3.002665238454937935e-03
2.639922618865966797e+00
-1.140218615531921387e+00
3.331359624862670898e+00
-3.002670593559741974e-03
4.581033706665039062e+00
-2.979484386742115021e-03
-3.002743702381849289e-03
7.516899585723876953e+00
-3.002729034051299095e-03
-1.636559069156646729e-01
1.028993248939514160e+00
1.130002617835998535e+00
-3.002705983817577362e-03
1.799263119697570801e+00
-3.002741374075412750e-03
-3.001992357894778252e-03
-3.002721583470702171e-03
-3.092800080776214600e-01
-3.002717392519116402e-03
4.534267485141754150e-01
3.567341566085815430e+00
-3.002501092851161957e-03
-3.002734854817390442e-03
-3.002739744260907173e-03
1.568138122558593750e+00
-1.510163247585296631e-01
-3.002695739269256592e-03
-2.993684029206633568e-03
-3.002722281962633133e-03
-3.002713667228817940e-03
-3.002726472914218903e-03
1.187405705451965332e+00
8.282634019851684570e-01
-5.507011890411376953e+00
2.280177354812622070e+00
-3.002248238772153854e-03
-3.002607729285955429e-03
-3.002062905579805374e-03
-8.008347511291503906e+00
4.073301315307617188e+00
-3.001558594405651093e-03
-6.702563166618347168e-02
-3.002714598551392555e-03
-3.002462442964315414e-03
-3.002240788191556931e-03
-3.002713201567530632e-03
-3.002521349117159843e-03
1.714923620223999023e+00
-1.969617366790771484e+00
-9.623316764831542969e+00
-2.998259151354432106e-03
-7.439074516296386719e+00
-3.002707846462726593e-03
1.428317308425903320e+00
8.767237663269042969e-01
1.031868457794189453e+00
-3.002741374075412750e-03
4.932757616043090820e-01
-3.002714132890105247e-03
3.606707096099853516e+00
1.376776933670043945e+00
1.793356657028198242e+00
-3.002724144607782364e-03
-3.002623328939080238e-03
-3.002637997269630432e-03
-3.002728335559368134e-03
-1.483015537261962891e+00
1.239168524742126465e+00
6.754500865936279297e-01
-3.002723446115851402e-03
3.641543686389923096e-01
-3.002711804583668709e-03
-3.002383280545473099e-03
-3.002425655722618103e-03
4.814470291137695312e+00
-3.001705976203083992e-03
-3.002712037414312363e-03
1.215356469154357910e+00
6.610456466674804688e+00
-3.002449171617627144e-03
1.118062257766723633e+00
-3.079937584698200226e-02
-4.273673534393310547e+00
-3.002722281962633133e-03
-2.998329466208815575e-03
-2.572955787181854248e-01
-3.002556972205638885e-03
5.538271427154541016e+00
-3.002572339028120041e-03
-3.002724843099713326e-03
-3.002650104463100433e-03
9.434770941734313965e-01
-6.371231377124786377e-02
-3.002726705744862556e-03
-3.002529498189687729e-03
-3.002715297043323517e-03
4.343481540679931641e+00
1.292799949645996094e+00
5.616848468780517578e+00
6.800419330596923828e+00
-9.756231307983398438e+00
-5.303227305412292480e-01
1.067159622907638550e-01
-3.002716694027185440e-03
-3.002660116180777550e-03
2.339342594146728516e+00
-2.066835165023803711e+00
3.815397739410400391e+00
-2.763649702072143555e+00
8.096629142761230469e+00
-3.002734621986746788e-03
-3.002723446115851402e-03
7.291071891784667969e+00
3.264630556106567383e+00
4.064253330230712891e+00
1.351319193840026855e+00
-4.346043109893798828e+00
4.332754135131835938e+00
4.129557132720947266e+00
-7.548125088214874268e-02
2.830800712108612061e-01
4.765244424343109131e-01
-5.435825824737548828e+00
-2.337732076644897461e+00
-3.002736717462539673e-03
-3.002707147970795631e-03
-3.001257078722119331e-03
-3.002713201567530632e-03
-3.002716461196541786e-03
1.484292984008789062e+00
-3.002645447850227356e-03
-5.461595535278320312e+00
-3.002714831382036209e-03
-3.002732759341597557e-03
4.141993999481201172e+00
8.973471820354461670e-02
-3.002705750986933708e-03
3.911530971527099609e+00
1.742778420448303223e+00
