-1.154547836631536484e-02 -9.765101713128387928e-04 -6.353496108204126358e-03 -4.616633057594299316e-02 1.611062139272689819e-02 -1.360533526167273521e-03 -5.038982722908258438e-03 -1.508549321442842484e-02 -6.856129621155560017e-04 -6.463739555329084396e-03 3.890175430569797754e-04 3.933447413146495819e-03 1.002781558781862259e-02 -1.741640269756317139e-02 6.584015791304409504e-04 -9.755894541740417480e-03 2.904572524130344391e-02 -2.865329151973128319e-04 2.322907000780105591e-02 1.768214255571365356e-02 6.727173924446105957e-03 -1.487567927688360214e-02 7.066163816489279270e-04 -1.044889868353493512e-04 1.922310679219663143e-03 -5.337948095984756947e-04 -1.111381128430366516e-02 -1.384096592664718628e-02 3.860221942886710167e-03 1.032868120819330215e-02 2.804553695023059845e-02 1.911914348602294922e-02 -1.385583169758319855e-02 1.797670871019363403e-02 6.209114566445350647e-02 9.759722277522087097e-03 6.904561072587966919e-03 1.366695621982216835e-03 -1.550105662317946553e-04 1.415749266743659973e-02 5.711546167731285095e-03 1.176072377711534500e-02 -1.135831931605935097e-03 1.925992034375667572e-02 1.264896988868713379e-02 2.145576104521751404e-02 1.107240933924913406e-02 -1.199467014521360397e-02 2.387334778904914856e-02 -5.598430987447500229e-03 -2.969249908346682787e-04 -1.728858478600159287e-04 1.179599016904830933e-02 6.245722761377692223e-04 -6.927604554221034050e-04 -1.252781134098768234e-02 -6.830965634435415268e-03 -1.081317290663719177e-02 -1.598870940506458282e-02 -4.296818003058433533e-02 -2.756665274500846863e-02 9.218799881637096405e-03 -1.688846736215054989e-03 8.054084901232272387e-06 2.071456424891948700e-02 -1.187183428555727005e-03 5.042260163463652134e-04 -2.322516776621341705e-02 -3.328830280224792659e-05 6.869837176054716110e-03 9.331136010587215424e-03 4.317747079767286777e-04 -4.860816523432731628e-03 -8.049309835769236088e-04 1.865361444652080536e-02 -2.027379907667636871e-02 9.715902269817888737e-04 5.450982716865837574e-04 1.333515904843807220e-02 7.578590884804725647e-04 7.521108724176883698e-03 -1.836155168712139130e-02 1.732718944549560547e-02 2.751391939818859100e-02 -1.582128740847110748e-02 -6.668124347925186157e-03 3.405894339084625244e-02 2.827407093718647957e-03 -1.748352497816085815e-02 -3.391388431191444397e-02 1.498143537901341915e-03 2.689482830464839935e-02 -1.347995176911354065e-02 7.784544723108410835e-04 3.152306750416755676e-02 4.278386943042278290e-03 7.134310435503721237e-03 -7.923480123281478882e-03 9.360910626128315926e-04 -1.393290795385837555e-02 -5.852355621755123138e-03 1.072179991751909256e-02 -5.404318217188119888e-04 1.196862012147903442e-02 1.549926586449146271e-02 -1.070376578718423843e-02 4.379956051707267761e-03 -2.623407170176506042e-02 7.005722727626562119e-03 7.894416898488998413e-02 -3.585705417208373547e-04 1.438727340428158641e-04 4.157693125307559967e-03 -1.693335548043251038e-02 2.557389996945858002e-02 -1.508368732174858451e-04 -8.260882459580898285e-04 -4.134069755673408508e-02 5.286270380020141602e-02 -5.794809549115598202e-04 -2.564707025885581970e-02 -4.873701930046081543e-02 -2.304620668292045593e-02 2.385864354437217116e-04 6.044709589332342148e-04 -2.806476841215044260e-04 -1.857812702655792236e-02 5.473878700286149979e-04 -7.325832732021808624e-03 3.835356328636407852e-03 -2.662299387156963348e-02 2.395450865151360631e-04 2.068832749500870705e-03 2.398931048810482025e-02 -1.855920255184173584e-02 3.134092839900404215e-04 8.463884703814983368e-03 7.425906369462609291e-04 -1.015329454094171524e-02 2.142497338354587555e-02 -1.913427002727985382e-02 -1.885199546813964844e-02 1.235426962375640869e-02 6.610208947677165270e-05 2.785533852875232697e-02 6.932285614311695099e-04 -1.029103342443704605e-02 -6.956377532333135605e-03 1.360558625310659409e-02 3.332532010972499847e-03 9.206233080476522446e-04 5.805062246508896351e-04 1.786439120769500732e-02 1.475247833877801895e-02 -3.105403855443000793e-02 -1.798868551850318909e-02 -5.378350615501403809e-03 1.338315778411924839e-03 1.464765373384580016e-04 1.330379303544759750e-02 -7.655735127627849579e-03 -1.860838383436203003e-03 -1.001191092655062675e-03 1.880564726889133453e-02 3.637275949586182833e-04 -1.065028263838030398e-04 5.018533393740653992e-02 6.161085888743400574e-02 -1.564271375536918640e-02 -8.727597072720527649e-03 -6.280852854251861572e-02 -4.019102780148386955e-04 -1.527000404894351959e-02 3.774730116128921509e-02 -1.987158902920782566e-04 -2.079130150377750397e-02 2.331565693020820618e-02 1.325167366303503513e-03 -2.098229946568608284e-03 -2.055650763213634491e-02 -1.032278873026371002e-02 1.953425817191600800e-02 -3.193731978535652161e-02 2.322066284250468016e-04 -2.747560385614633560e-03 -6.757061462849378586e-03 2.027279511094093323e-02 3.003957390319555998e-04 2.833294565789401531e-04 3.837918397039175034e-03 -9.527076035737991333e-03 -2.625658735632896423e-02 5.399303699960000813e-05 1.062043197453022003e-02 1.539922133088111877e-02 -1.317332964390516281e-02 6.415360840037465096e-04 1.207038108259439468e-02 -3.048364259302616119e-02 -4.955508746206760406e-03 8.783190423855558038e-05 1.955679059028625488e-02 -1.055188011378049850e-02 -3.066367283463478088e-02 1.525118388235569000e-02 -2.856379607692360878e-03 -1.449442002922296524e-02 1.344560645520687103e-03 1.523608155548572540e-02 -1.901475130580365658e-03 -5.995624698698520660e-03 1.852759742178022861e-03 3.184865636285394430e-04 -4.101000668015331030e-04 3.046114556491374969e-02 -8.237942820414900780e-04 -2.034639194607734680e-02 1.308363582938909531e-02 -5.092470906674861908e-03 9.841321036219596863e-03 1.097176782786846161e-02 1.642485521733760834e-02 7.333452347666025162e-03 1.153064705431461334e-02 -2.812570310197770596e-04 -2.037493512034416199e-02 6.622164044529199600e-03 -2.279933914542198181e-02 -2.992476220242679119e-04 4.983548074960708618e-03 8.877367712557315826e-03 2.787721110507845879e-03 1.770679809851571918e-04 1.470678579062223434e-02 1.254312973469495773e-02 6.826005410403013229e-03 6.794340442866086960e-04 6.100093480199575424e-03 -2.723704278469085693e-02 -3.495536278933286667e-03 -1.359342783689498901e-02 1.303071342408657074e-02 1.089656073600053787e-02 -5.648015532642602921e-03 8.699892205186188221e-04 2.298122271895408630e-02 1.930622011423110962e-02 4.293570294976234436e-02 4.773650434799492359e-04 8.238670852733775973e-05 -2.000049501657485962e-02 1.824391889385879040e-03 4.919494967907667160e-03 2.289997041225433350e-02 8.365380926989018917e-04 -2.083123847842216492e-02
6.338386982679367065e-02 -4.993324982933700085e-04 -1.155581325292587280e-02 1.369098722934722900e-01 -2.431810600683093071e-03 -4.665916494559496641e-04 1.867031794972717762e-03 2.254392020404338837e-02 2.621904059196822345e-05 -8.804493583738803864e-03 1.143499859608709812e-03 3.184224246069788933e-03 2.404201216995716095e-02 -6.567645072937011719e-02 1.953910337761044502e-03 -2.013921365141868591e-02 2.328249812126159668e-02 -1.568773222970776260e-05 4.651892557740211487e-02 1.822706684470176697e-02 -1.214797515422105789e-02 -6.063451291993260384e-04 1.929433492477983236e-04 -7.232053903862833977e-04 -1.559588359668850899e-03 -4.980342346243560314e-04 -5.061285570263862610e-03 2.077868208289146423e-02 1.210863329470157623e-02 -3.443871065974235535e-02 3.080551885068416595e-02 6.848219782114028931e-02 5.850273650139570236e-03 -8.587809279561042786e-03 1.607335987500846386e-03 5.263342522084712982e-03 4.400678351521492004e-02 4.946289211511611938e-02 -1.895723107736557722e-04 -2.103387378156185150e-02 6.806278601288795471e-03 -3.863447578623890877e-03 -2.589320647530257702e-04 -3.896795585751533508e-02 1.140350997447967529e-01 -1.055594813078641891e-02 -5.284029990434646606e-03 5.547557026147842407e-03 1.168815232813358307e-02 -1.218521315604448318e-02 -1.501841237768530846e-03 2.593761892057955265e-04 -3.485085070133209229e-02 3.660901857074350119e-04 1.201306805014610291e-01 -5.537560954689979553e-02 -1.686502806842327118e-02 -2.722124801948666573e-03 1.587429898791015148e-03 1.528385281562805176e-02 -2.983039245009422302e-02 4.055677726864814758e-02 2.502275072038173676e-02 -9.376932284794747829e-04 1.841732114553451538e-02 -5.175278056412935257e-04 -6.955366698093712330e-04 -7.272100076079368591e-03 -1.212460410897620022e-04 -1.667451672255992889e-02 6.887521594762802124e-04 -2.297471510246396065e-04 -9.174976730719208717e-04 -1.497007324360311031e-03 3.709961660206317902e-03 1.833910308778285980e-02 4.087449982762336731e-03 6.684372783638536930e-04 4.412034060806035995e-03 1.474342867732048035e-02 1.513830199837684631e-02 4.242875427007675171e-02 -2.908590249717235565e-02 1.351854298263788223e-02 3.810219001024961472e-03 -2.022129629040136933e-04 -5.249685421586036682e-02 -4.750833287835121155e-02 2.268259599804878235e-02 -2.625830285251140594e-02 -3.238898701965808868e-03 -3.093206509947776794e-02 -1.602402143180370331e-02 2.950936614070087671e-04 -1.297172717750072479e-02 -2.114200964570045471e-03 9.747163392603397369e-03 5.462048947811126709e-02 6.266120180953294039e-05 3.636616840958595276e-02 6.306663155555725098e-02 -5.085422191768884659e-03 7.335352129302918911e-04 1.597474515438079834e-02 3.942723199725151062e-02 -4.774438217282295227e-03 -1.733301766216754913e-02 1.919459365308284760e-02 -4.855845496058464050e-02 1.603556796908378601e-03 4.373383708298206329e-04 -1.027442049235105515e-03 -3.207467729225754738e-03 1.012685708701610565e-02 1.917897537350654602e-02 1.116495393216609955e-02 -1.416497514583170414e-03 2.995254099369049072e-02 -2.141775563359260559e-03 -4.493994929362088442e-04 -3.536827862262725830e-02 8.704999834299087524e-02 -1.890023052692413330e-02 1.336312294006347656e-02 -5.130514618940651417e-04 8.155304822139441967e-04 -6.550315767526626587e-02 -7.429421530105173588e-04 6.558866705745458603e-03 -9.153074584901332855e-03 -9.175431914627552032e-03 -1.760042796377092600e-04 -1.577787566930055618e-03 -7.118228357285261154e-03 -2.792816795408725739e-02 -3.835514362435787916e-04 -4.690115526318550110e-02 -1.113705453462898731e-03 -1.661178306676447392e-03 -2.118487656116485596e-02 -2.172703621909022331e-03 1.448139268904924393e-02 -2.085329964756965637e-03 9.049133223015815020e-05 2.530264295637607574e-02 9.501233580522239208e-04 1.352223474532365799e-02 -8.278978988528251648e-03 7.862383872270584106e-02 -3.433941397815942764e-03 -3.776388475671410561e-04 -8.467846782878041267e-04 3.863876685500144958e-02 -5.791706964373588562e-02 -1.415746472775936127e-02 1.298991218209266663e-02 9.130991064012050629e-03 6.551567348651587963e-04 -2.084658190142363310e-04 8.628317154943943024e-03 2.623280975967645645e-03 1.403953530825674534e-03 7.689893245697021484e-04 -8.696356788277626038e-03 8.504822471877560019e-05 -5.930401966907083988e-04 2.746016159653663635e-02 -6.420917343348264694e-03 2.765231020748615265e-02 1.830529049038887024e-02 7.290223240852355957e-02 3.164038434624671936e-02 -1.546454266645014286e-03 1.667870022356510162e-02 -3.466187918093055487e-04 3.458940610289573669e-02 -3.654591273516416550e-03 -1.312763197347521782e-04 3.057866171002388000e-02 1.144237816333770752e-02 -9.456248022615909576e-03 -2.506387885659933090e-03 2.653207862749695778e-03 7.664079894311726093e-04 4.755250643938779831e-03 2.797341905534267426e-02 3.305150195956230164e-02 8.069949690252542496e-04 -1.186493667773902416e-03 -1.685882546007633209e-02 -2.193213999271392822e-02 1.499991770833730698e-02 -7.488935953006148338e-04 -3.794973343610763550e-02 -2.264440525323152542e-03 7.576804491691291332e-04 2.495868131518363953e-02 4.393036663532257080e-02 -6.537328008562326431e-03 1.478683482855558395e-02 1.621379633434116840e-04 -4.308625310659408569e-02 4.765051975846290588e-02 -2.184244431555271149e-02 -1.708097942173480988e-02 -4.958267509937286377e-02 3.465411812067031860e-02 2.652575494721531868e-04 -2.441423013806343079e-02 -1.465531997382640839e-02 2.342044375836849213e-03 1.338009140454232693e-03 7.027168612694367766e-05 4.353155673015862703e-04 -9.296700591221451759e-04 -2.622542157769203186e-02 2.516153268516063690e-02 -1.499056816101074219e-02 -9.147534146904945374e-03 4.146124422550201416e-02 -7.107013836503028870e-03 -1.274446491152048111e-03 -6.280368543229997158e-04 3.473040834069252014e-02 1.036102976649999619e-02 -1.114485599100589752e-02 9.362792596220970154e-03 7.574367802590131760e-03 -4.888317198492586613e-05 5.328737571835517883e-02 1.345286518335342407e-02 -8.125714957714080811e-03 -9.499836596660315990e-05 -1.392244920134544373e-02 8.384644240140914917e-02 2.411011978983879089e-02 5.685789437848143280e-05 5.387162789702415466e-03 -8.757995441555976868e-03 -1.567725837230682373e-02 2.290388569235801697e-03 -5.806785076856613159e-02 -1.267047971487045288e-02 1.211432274430990219e-02 -2.374225063249468803e-03 -1.549824420362710953e-02 1.787010394036769867e-02 -1.513697672635316849e-02 2.345545362913981080e-04 -3.176127502229064703e-04 -3.957325220108032227e-02 -3.666646778583526611e-02 -2.803964726626873016e-02 1.345154084265232086e-02 -1.533917710185050964e-02 4.170996323227882385e-02
-1.615162566304206848e-02 -3.604370285756886005e-04 4.375384002923965454e-02 9.454092010855674744e-03 -7.494302000850439072e-03 -9.378598770126700401e-04 6.797240115702152252e-03 -2.008179575204849243e-02 -1.378594082780182362e-03 -2.177531132474541664e-03 1.566123319207690656e-05 2.081989869475364685e-02 -1.069373451173305511e-02 3.091177344322204590e-02 -1.184991677291691303e-03 2.974150702357292175e-02 -2.915607020258903503e-02 -6.263910909183323383e-04 2.877551689743995667e-02 2.814073115587234497e-02 -3.328044340014457703e-02 -2.748880907893180847e-02 2.785035176202654839e-04 6.475951522588729858e-04 2.323105372488498688e-02 2.298202598467469215e-04 -1.664111576974391937e-02 2.362570539116859436e-02 -3.064100071787834167e-02 -1.433444581925868988e-02 -3.374614519998431206e-03 3.789981454610824585e-02 3.788040205836296082e-02 -2.070206776261329651e-02 3.825236484408378601e-02 1.634967699646949768e-02 -3.916191682219505310e-02 -4.092066362500190735e-02 2.787194098345935345e-04 -1.146146655082702637e-02 -7.874258793890476227e-03 -2.308140695095062256e-02 3.042866956093348563e-05 -4.231707006692886353e-02 8.400131948292255402e-03 3.563151462003588676e-03 -5.309281405061483383e-03 3.584052622318267822e-02 1.364810485392808914e-02 -1.835223287343978882e-02 -4.170317333773709834e-05 -7.718116976320743561e-04 -2.150806365534663200e-03 1.260403194464743137e-03 -3.298011794686317444e-02 7.718332577496767044e-03 -1.693025790154933929e-02 -1.351724471896886826e-02 1.369827054440975189e-02 -2.969850227236747742e-02 -2.344450354576110840e-02 -1.328151766210794449e-02 2.508648205548524857e-03 4.703442100435495377e-04 -2.896111644804477692e-02 6.365361332427710295e-05 -4.248594923410564661e-04 2.240186370909214020e-02 2.001378888962790370e-04 -6.282207369804382324e-02 -6.426731497049331665e-02 4.445105514605529606e-05 3.099473007023334503e-02 9.040100849233567715e-04 -4.600722342729568481e-02 -5.098506808280944824e-02 -2.582196891307830811e-02 3.463016182649880648e-04 -3.115490823984146118e-02 -2.416088245809078217e-04 1.516427472233772278e-02 2.257953025400638580e-02 2.141591394320130348e-03 -2.885210327804088593e-02 3.422039002180099487e-02 -2.018610760569572449e-02 -4.542831331491470337e-03 1.541721820831298828e-02 4.069704189896583557e-02 -5.644378252327442169e-03 1.773513620719313622e-03 3.119929879903793335e-02 -3.764296183362603188e-03 -6.102386396378278732e-04 -1.634185202419757843e-02 -4.157655872404575348e-03 3.218441829085350037e-02 8.486284874379634857e-03 3.963242052122950554e-04 8.575574308633804321e-02 -3.126318007707595825e-02 7.529060356318950653e-03 2.689721004571765661e-04 -1.452408079057931900e-02 5.550098791718482971e-02 -1.849343255162239075e-02 -3.363579139113426208e-02 3.786823526024818420e-02 2.253522537648677826e-02 1.983417756855487823e-02 4.607586888596415520e-04 7.937196642160415649e-06 -2.059406973421573639e-02 -1.166804134845733643e-02 -1.481461152434349060e-02 -1.432909257709980011e-02 -2.139455900760367513e-04 2.714030211791396141e-03 -2.236472256481647491e-02 -1.111885721911676228e-04 1.366583537310361862e-02 1.000364590436220169e-02 -1.007357845082879066e-03 1.814687158912420273e-03 9.912238456308841705e-04 4.112963797524571419e-04 -1.819810084998607635e-02 -8.057033410295844078e-04 -5.575598916038870811e-04 -3.066121973097324371e-02 3.988450765609741211e-02 -6.938186706975102425e-04 1.065432839095592499e-02 3.256522119045257568e-02 -2.221092022955417633e-02 -1.591873879078775644e-04 1.802523247897624969e-02 2.406070852885022759e-04 -7.080299314111471176e-03 -3.656273707747459412e-02 -1.570012979209423065e-02 4.889091104269027710e-02 1.223689317703247070e-02 4.935279721394181252e-04 4.498700052499771118e-02 -5.346815451048314571e-04 5.111036822199821472e-02 3.887911513447761536e-02 8.299388922750949860e-03 2.813144354149699211e-03 7.454979349859058857e-04 4.875964368693530560e-04 -7.039619609713554382e-03 2.722269482910633087e-02 -1.845965720713138580e-02 -5.591891705989837646e-02 5.242051929235458374e-02 2.496542036533355713e-02 -4.933421150781214237e-04 3.932869434356689453e-02 2.839769423007965088e-02 -1.049389946274459362e-03 -2.258299646200612187e-04 6.690307520329952240e-03 7.948065467644482851e-05 -5.651609972119331360e-04 4.327779263257980347e-02 -2.918325923383235931e-02 7.863126695156097412e-03 1.803896576166152954e-02 2.775322273373603821e-02 -1.358738448470830917e-02 -5.206573288887739182e-03 -5.601953342556953430e-02 1.911594445118680596e-04 -1.115792617201805115e-02 3.374106716364622116e-03 3.173567238263785839e-04 3.015422727912664413e-03 -1.387911196798086166e-02 6.426730193197727203e-03 -1.943008601665496826e-02 1.270311418920755386e-02 -6.539898458868265152e-04 2.818679995834827423e-02 -1.897250860929489136e-02 -5.326110869646072388e-02 6.414551171474158764e-04 4.907301045022904873e-04 -3.728472813963890076e-02 -7.291514892131090164e-03 5.583428777754306793e-03 9.251013398170471191e-04 -2.507249359041452408e-03 2.785587683320045471e-02 -1.073891483247280121e-02 2.060101926326751709e-02 -4.331893846392631531e-02 1.158885844051837921e-02 -1.696066744625568390e-02 -3.705386770889163017e-04 -5.020632222294807434e-02 3.406781703233718872e-02 2.385578304529190063e-02 -2.133573219180107117e-02 -2.421073429286479950e-02 -4.293846432119607925e-03 -3.704078553710132837e-04 -1.819957979023456573e-02 9.227941744029521942e-03 -2.357801236212253571e-02 -2.870413474738597870e-03 2.332196163479238749e-05 -5.119949346408247948e-04 -1.622469723224639893e-02 -6.511018145829439163e-03 -1.716573350131511688e-02 7.536531891673803329e-03 -2.327766828238964081e-02 -3.788503585383296013e-03 5.440420005470514297e-03 -8.396868593990802765e-03 -2.117281407117843628e-02 -8.409672230482101440e-02 6.252185907214879990e-03 3.224838152527809143e-02 1.944517344236373901e-02 -3.745500743389129639e-02 -3.405696479603648186e-04 -3.873879835009574890e-02 1.478041615337133408e-02 1.231261622160673141e-02 4.879292682744562626e-04 1.501264778198674321e-04 -1.705020107328891754e-02 -3.845735639333724976e-02 -1.172442222014069557e-03 -1.949703879654407501e-02 3.685664013028144836e-02 -9.608849883079528809e-03 -6.286834180355072021e-02 1.913538761436939240e-02 -7.953549735248088837e-03 3.511229529976844788e-02 3.401283756829798222e-04 5.073019419796764851e-04 2.237715758383274078e-02 9.076414629817008972e-03 -7.634752546437084675e-04 5.625608609989285469e-04 -1.982053369283676147e-02 -5.236417427659034729e-02 -1.540506538003683090e-02 -3.469146322458982468e-03 7.627233397215604782e-03 3.824269399046897888e-03
-2.990046888589859009e-02 -6.303886766545474529e-04 1.825547590851783752e-02 3.050279617309570312e-02 -1.374814752489328384e-02 -1.227693282999098301e-04 1.583356410264968872e-02 -1.620499789714813232e-02 -4.421046760398894548e-04 -1.069663048838265240e-04 -4.090697620995342731e-04 1.183682493865489960e-02 -1.347707118839025497e-02 -4.105507954955101013e-02 -8.017363143153488636e-04 2.597705693915486336e-03 -5.334617942571640015e-02 -7.040434866212308407e-04 -4.411167278885841370e-02 -1.364937331527471542e-02 8.413694449700415134e-04 1.934493705630302429e-02 -9.837442776188254356e-04 -9.772564226295799017e-05 4.947168286889791489e-03 -2.220272872364148498e-04 -2.193331159651279449e-02 5.846743937581777573e-03 -8.297467138618230820e-04 1.194085125462152064e-04 -2.966002933681011200e-02 -5.784793174825608730e-04 -2.954724617302417755e-02 -3.724878653883934021e-02 -2.064796350896358490e-02 5.205650813877582550e-03 4.053511470556259155e-02 -1.792765036225318909e-02 3.162502252962440252e-04 -2.243010560050606728e-03 -2.320887707173824310e-02 -6.774312816560268402e-03 -9.950015228241682053e-04 -4.179098643362522125e-03 9.179479628801345825e-02 1.552952919155359268e-02 9.174709208309650421e-03 2.666385844349861145e-02 -6.021973863244056702e-02 3.746759844943881035e-03 -9.051476081367582083e-05 -8.216694113798439503e-04 -1.342534646391868591e-02 -1.963994232937693596e-03 2.299082837998867035e-02 -3.549628425389528275e-03 2.763961674645543098e-03 2.353979647159576416e-02 -3.116760635748505592e-03 3.137585148215293884e-02 -6.149960309267044067e-02 -2.333486452698707581e-02 8.029993041418492794e-04 1.031194115057587624e-03 1.932884193956851959e-02 -1.862517790868878365e-03 -5.206579226069152355e-04 6.482803262770175934e-03 1.215077703818678856e-03 4.279366135597229004e-02 -3.603925183415412903e-02 -8.653786499053239822e-04 7.690415252000093460e-03 -5.242450861260294914e-04 -3.286971151828765869e-02 -3.503382951021194458e-02 4.018516466021537781e-02 -3.233126190025359392e-04 -8.104097098112106323e-03 -2.330530993640422821e-02 -1.687202230095863342e-02 5.938658490777015686e-03 -9.119694121181964874e-03 -3.574567090254276991e-04 1.034093368798494339e-02 2.505419589579105377e-02 1.034097396768629551e-03 -2.212169021368026733e-02 -1.501621119678020477e-02 1.450596284121274948e-02 -1.874145492911338806e-02 -2.034453302621841431e-02 -4.597046971321105957e-02 5.118019180372357368e-04 2.063730731606483459e-02 4.334085807204246521e-02 -2.392656728625297546e-02 -3.812781302258372307e-03 -1.031464707921259105e-04 8.178207208402454853e-04 -1.721576973795890808e-02 -9.555935859680175781e-03 -1.182259875349700451e-03 -7.026901934295892715e-03 -4.271488264203071594e-02 2.975731715559959412e-02 8.915609680116176605e-03 -3.910234570503234863e-02 3.355694934725761414e-02 1.567164622247219086e-02 3.282213874626904726e-04 2.382099482929334044e-04 -3.388183563947677612e-02 -1.142010465264320374e-02 -1.662484183907508850e-02 -1.653238316066563129e-03 6.849199999123811722e-04 3.084494732320308685e-02 8.427171036601066589e-03 2.797416236717253923e-04 -6.845220923423767090e-02 6.643063388764858246e-03 -1.351012103259563446e-02 5.668837577104568481e-02 5.375480977818369865e-04 -1.448608672944828868e-04 4.595442675054073334e-03 7.713563973084092140e-04 3.033714927732944489e-02 2.286164835095405579e-02 3.793155401945114136e-02 -4.517278284765779972e-04 -4.017277806997299194e-02 1.618270948529243469e-02 -2.302000857889652252e-02 -1.062239985913038254e-03 5.256187915802001953e-02 -1.626817742362618446e-03 -1.636687479913234711e-02 -7.410330697894096375e-03 -3.997337818145751953e-02 3.730502352118492126e-02 2.711717505007982254e-03 1.152691547758877277e-04 -2.979443967342376709e-02 -7.404778734780848026e-04 2.601127885282039642e-02 2.262890525162220001e-02 3.340032184496521950e-03 -5.581711977720260620e-02 -6.158946780487895012e-05 -1.107501338992733508e-05 4.212600737810134888e-02 -1.797358738258481026e-03 5.184306204319000244e-02 -3.736915066838264465e-02 -2.705625072121620178e-02 -2.341949008405208588e-02 3.408076299820095301e-04 -1.780241541564464569e-02 1.057057059369981289e-03 -7.356634014286100864e-04 -3.984578652307391167e-04 2.105636894702911377e-02 8.837921777740120888e-04 -1.088180652004666626e-04 -3.930695727467536926e-02 1.887940242886543274e-02 2.202359959483146667e-02 2.628676965832710266e-02 -7.889718748629093170e-03 7.977061322890222073e-04 1.671530888415873051e-03 -3.844867274165153503e-02 -9.169827098958194256e-04 1.668629795312881470e-02 2.421102672815322876e-02 5.116973770782351494e-04 -1.043707598000764847e-02 1.982627250254154205e-02 -5.041251890361309052e-03 5.585536826401948929e-03 2.507959865033626556e-02 8.354868623428046703e-05 8.552480489015579224e-03 1.305167796090245247e-03 -5.431618541479110718e-02 -3.379681438673287630e-04 -1.481409271946176887e-04 -1.929989270865917206e-02 -2.838330809026956558e-03 -3.439155220985412598e-02 -8.326271781697869301e-04 3.592837601900100708e-03 1.768004149198532104e-02 -3.170730173587799072e-02 -2.602276019752025604e-02 1.141449064016342163e-02 1.039284933358430862e-02 1.751684024930000305e-02 3.047512727789580822e-04 9.594477713108062744e-03 5.047260597348213196e-02 -1.703724451363086700e-02 2.827592194080352783e-03 5.830885376781225204e-03 2.113493531942367554e-02 6.640775827690958977e-04 -1.769999973475933075e-02 1.093919016420841217e-02 -1.938947848975658417e-02 -6.833781371824443340e-04 6.118246528785675764e-05 -4.115700430702418089e-04 -3.644890338182449341e-02 -9.956177324056625366e-03 -3.727694600820541382e-02 2.481162548065185547e-02 -3.614798933267593384e-02 4.228137899190187454e-03 2.131393738090991974e-02 9.965486824512481689e-03 3.365229442715644836e-02 -3.033955581486225128e-03 1.132659334689378738e-02 3.645958378911018372e-02 3.297003451734781265e-03 4.160559736192226410e-03 2.985598257509991527e-05 -9.843686595559120178e-03 -1.147981453686952591e-02 1.139423344284296036e-02 -8.098121616058051586e-04 -1.180600002408027649e-02 8.739204145967960358e-03 -2.033607661724090576e-02 -8.382014930248260498e-04 -2.491819299757480621e-02 -5.589653924107551575e-02 6.682468112558126450e-03 -5.011646077036857605e-02 7.576842606067657471e-02 -4.470779094845056534e-03 1.587066613137722015e-02 -1.471214636694639921e-04 4.047469422221183777e-02 -1.491661928594112396e-02 -4.182101227343082428e-03 -3.226257467758841813e-05 -2.592706296127289534e-04 -8.637215942144393921e-03 -1.797095686197280884e-02 1.931593753397464752e-02 3.825305402278900146e-02 1.978600211441516876e-02 -2.555936574935913086e-02
-5.680769216269254684e-03 1.066771103069186211e-03 -2.140387520194053650e-02 -7.101324945688247681e-02 -6.092015281319618225e-02 1.069105055648833513e-04 2.117887139320373535e-03 -2.672416158020496368e-02 8.940388797782361507e-04 1.997752301394939423e-02 2.305210946360602975e-04 5.922804586589336395e-03 7.633890490978956223e-03 -2.342890761792659760e-02 -1.446045353077352047e-04 -7.922319695353507996e-03 2.423020452260971069e-02 -3.955918873543851078e-05 -6.222876161336898804e-02 9.899126365780830383e-03 -2.187414839863777161e-02 -4.172364994883537292e-02 -7.844557985663414001e-04 -4.170729152974672616e-05 -8.404691703617572784e-03 -6.878328858874738216e-04 -1.139287929981946945e-02 2.494173496961593628e-02 -1.583799906075000763e-02 -1.686756499111652374e-02 4.311063326895236969e-03 -7.471727207303047180e-03 -7.155648432672023773e-03 -9.790911339223384857e-03 2.184274233877658844e-02 4.364923108369112015e-03 -1.354687381535768509e-02 3.473666310310363770e-02 1.835090079111978412e-04 -1.052650958299636841e-01 -1.193217840045690536e-02 -5.383288487792015076e-02 -6.132124108262360096e-04 7.243414409458637238e-03 -4.797833040356636047e-02 -3.664397075772285461e-02 -7.089159451425075531e-03 8.495046640746295452e-04 8.207945153117179871e-03 -5.159655585885047913e-02 -1.683157286606729031e-03 2.326785761397331953e-04 -1.310796476900577545e-03 5.030597676523029804e-04 -5.088675394654273987e-02 -2.280544489622116089e-02 -4.941239487379789352e-03 -8.587879128754138947e-03 2.044180035591125488e-02 -8.181217126548290253e-03 9.827624075114727020e-03 1.044418476521968842e-02 -5.737155675888061523e-03 5.207248614169657230e-04 -1.910625025629997253e-02 -1.223645176651189104e-05 -2.602722088340669870e-04 -1.285071950405836105e-02 4.329290823079645634e-04 2.427618764340877533e-02 -3.009249921888113022e-03 6.697612698189914227e-04 1.199539098888635635e-02 1.180076622404158115e-03 7.586209103465080261e-03 -4.435541853308677673e-02 -1.637469232082366943e-02 8.049840107560157776e-04 2.440352365374565125e-02 -2.273420104756951332e-03 3.326930850744247437e-02 6.230138242244720459e-04 -2.867342159152030945e-02 5.730260629206895828e-03 -1.813939161365851760e-04 1.033285073935985565e-02 -1.230579987168312073e-02 -2.201548032462596893e-02 -1.810099557042121887e-02 -2.409038506448268890e-02 8.592531085014343262e-03 -9.488035924732685089e-03 8.325408212840557098e-03 -3.831301000900566578e-04 -2.002947777509689331e-02 -3.242307575419545174e-03 -1.903168740682303905e-03 5.617364868521690369e-02 5.463394336402416229e-04 -1.496362779289484024e-02 -4.809321369975805283e-03 -2.167707495391368866e-02 -4.000888147857040167e-04 5.915422737598419189e-02 1.138462033122777939e-02 1.402560621500015259e-02 -5.512024834752082825e-02 7.334515918046236038e-03 4.832573700696229935e-03 2.418997511267662048e-02 -1.624334690859541297e-04 -3.053622785955667496e-04 -4.375382140278816223e-02 -2.321895398199558258e-02 -3.711249679327011108e-02 -2.315898891538381577e-03 -9.302094113081693649e-04 7.915103808045387268e-03 -4.853519797325134277e-02 -7.142899557948112488e-04 2.011284418404102325e-02 -1.571577414870262146e-02 -2.079348452389240265e-02 1.042209789156913757e-01 1.472174772061407566e-03 7.339906878769397736e-04 2.909368276596069336e-02 1.448459224775433540e-04 -1.216928660869598389e-02 6.464128964580595493e-04 -3.037625364959239960e-02 7.356547866947948933e-04 5.739326123148202896e-03 -1.594103313982486725e-02 -5.746465921401977539e-02 -2.744414960034191608e-04 -1.084336731582880020e-02 -1.476278179325163364e-03 5.050536990165710449e-02 1.212002802640199661e-02 8.912093006074428558e-03 -1.259740348905324936e-02 -9.927405044436454773e-04 -5.720064509660005569e-04 -2.840413711965084076e-02 3.928968508262187243e-04 -2.889562863856554031e-03 -1.315984223037958145e-02 -5.269810184836387634e-02 3.488470241427421570e-02 4.197541857138276100e-04 7.540592923760414124e-04 2.494962140917778015e-02 -4.213118227198719978e-04 9.331063181161880493e-02 -1.005721278488636017e-02 1.466348581016063690e-02 -2.673351438716053963e-03 4.921793151879683137e-05 4.975560121238231659e-03 -5.869368091225624084e-03 -4.444533551577478647e-04 1.349758473224937916e-03 1.020229458808898926e-01 7.777552818879485130e-04 -5.222384934313595295e-04 -5.547150596976280212e-02 9.509783238172531128e-03 -2.216733619570732117e-02 1.495253667235374451e-02 -2.957322634756565094e-02 3.647211939096450806e-02 2.143621817231178284e-02 -3.434486221522092819e-03 4.235993837937712669e-04 -3.963708132505416870e-02 1.474751252681016922e-02 8.133560768328607082e-04 -2.365843160077929497e-03 1.640206389129161835e-02 9.387960657477378845e-03 1.209318451583385468e-02 3.092310018837451935e-02 1.201400766149163246e-03 2.149628242477774620e-03 1.206811331212520599e-02 1.082440465688705444e-02 -2.927190507762134075e-04 -1.514395698904991150e-04 -6.607034243643283844e-03 -2.616106346249580383e-02 5.616603419184684753e-03 -6.483068573288619518e-04 2.397223748266696930e-02 7.622136734426021576e-03 -2.211176604032516479e-02 1.617616787552833557e-02 -2.129813097417354584e-02 6.368449330329895020e-02 2.543591521680355072e-02 9.865999454632401466e-04 3.338464722037315369e-02 -2.118766866624355316e-02 -3.715021302923560143e-03 -1.919530890882015228e-02 2.402978390455245972e-02 5.618488788604736328e-02 5.981479189358651638e-04 -2.620786987245082855e-02 7.266232278198003769e-03 1.028442056849598885e-03 -1.851599663496017456e-03 -5.342911463230848312e-04 -3.341760311741381884e-04 -2.111484855413436890e-02 -1.439889520406723022e-02 2.588927559554576874e-02 2.205406874418258667e-02 -5.112341046333312988e-02 3.969484567642211914e-02 3.858052939176559448e-02 4.365842044353485107e-02 2.103090845048427582e-02 2.226014435291290283e-02 5.470753647387027740e-03 1.823046803474426270e-02 9.347965940833091736e-03 -5.312685854732990265e-03 -2.641039027366787195e-04 -2.324626082554459572e-03 7.407798431813716888e-03 -7.630829699337482452e-03 -1.879941701190546155e-04 4.934680461883544922e-02 -2.204778231680393219e-02 -3.293435648083686829e-02 3.396908869035542011e-04 -5.854733660817146301e-02 -8.528685197234153748e-03 4.073030874133110046e-02 1.609977893531322479e-02 4.785540699958801270e-02 -5.883847922086715698e-02 6.279212422668933868e-03 -1.389513025060296059e-03 1.074886787682771683e-02 -2.493947511538863182e-03 3.060529939830303192e-02 -3.817423421423882246e-04 -1.052973093464970589e-03 -2.686794288456439972e-02 1.382896304130554199e-02 1.455454714596271515e-02 1.474896911531686783e-02 2.704584598541259766e-02 -3.376376116648316383e-03
2.935505472123622894e-03 1.088172895833849907e-03 1.459615887142717838e-04 -2.027226388454437256e-01 1.768012344837188721e-02 6.098371231928467751e-04 1.116225961595773697e-02 5.705868452787399292e-02 -3.084892232436686754e-04 7.877215743064880371e-03 8.282506023533642292e-04 -5.251626949757337570e-03 -1.369250938296318054e-02 -4.926050081849098206e-02 1.013738103210926056e-03 3.188669309020042419e-02 2.789485082030296326e-02 -2.259940141811966896e-03 -3.295204835012555122e-03 -4.642297513782978058e-03 2.264358662068843842e-02 4.290367662906646729e-02 -8.489908068440854549e-04 -5.470050382427871227e-04 -8.340128697454929352e-03 -1.892649306682869792e-04 -6.650735624134540558e-03 -2.299855835735797882e-02 -2.506662346422672272e-02 -2.106464654207229614e-02 2.465524524450302124e-02 3.790789842605590820e-02 7.854121737182140350e-03 2.217201702296733856e-02 4.869173467159271240e-02 -2.145906444638967514e-03 5.546376574784517288e-03 -1.522916369140148163e-02 4.176489892415702343e-04 3.308324143290519714e-02 -1.079353317618370056e-02 -2.764588221907615662e-02 -5.938344402238726616e-04 -3.138724714517593384e-02 -2.119967341423034668e-02 -3.221059590578079224e-02 -3.067676909267902374e-03 7.061788346618413925e-03 2.953386167064309120e-03 4.107872489839792252e-03 -2.443520497763529420e-05 2.499091497156769037e-04 5.030695814639329910e-03 2.740804047789424658e-04 -1.212338265031576157e-02 -2.498698234558105469e-02 -2.231488237157464027e-03 -2.111907675862312317e-02 -7.717074826359748840e-03 5.621231626719236374e-03 6.862140446901321411e-02 -1.219339482486248016e-02 -1.223601214587688446e-02 3.218663623556494713e-04 -6.244080886244773865e-02 6.220295472303405404e-05 2.954106021206825972e-04 -1.570171490311622620e-02 -1.045293523930013180e-03 -1.028169225901365280e-02 -5.387231707572937012e-03 4.923476080875843763e-05 -1.086631417274475098e-02 -1.238234381162328646e-05 -2.685602009296417236e-02 -1.145804766565561295e-02 9.199337102472782135e-03 -1.385644194670021534e-03 -1.901668123900890350e-02 -1.995753683149814606e-02 -2.252100966870784760e-02 -2.298290142789483070e-03 1.809785328805446625e-02 2.661001496016979218e-02 8.630326017737388611e-03 -1.695711049251258373e-03 3.801647201180458069e-02 -9.598405100405216217e-03 6.436479091644287109e-02 2.129964902997016907e-02 -1.369809824973344803e-02 1.306585315614938736e-02 -6.329611875116825104e-03 -5.903662531636655331e-04 4.712046124041080475e-03 1.531522255390882492e-02 -2.422280958853662014e-04 2.489793580025434494e-03 -2.807060373015701771e-04 3.321709483861923218e-02 -1.846756041049957275e-02 -3.672023117542266846e-02 -6.929179653525352478e-04 2.727370522916316986e-02 -1.148071791976690292e-02 3.147513372823596001e-03 3.879975900053977966e-02 5.214710533618927002e-02 -4.413680732250213623e-02 3.995101526379585266e-02 -5.236949655227363110e-04 2.566952025517821312e-04 -9.165943600237369537e-03 -3.558603301644325256e-02 1.532097347080707550e-02 -6.536301691085100174e-03 3.635011380538344383e-04 -2.681869082152843475e-02 -6.833679229021072388e-02 -1.121712266467511654e-03 1.677712984383106232e-02 -1.299316156655550003e-02 6.605675444006919861e-03 -5.063464865088462830e-02 -5.284488433972001076e-04 -1.016405643895268440e-03 -5.655824020504951477e-02 -7.902735378593206406e-04 -2.263418398797512054e-02 -1.989400247111916542e-03 -8.298884145915508270e-03 -3.542407648637890816e-04 -4.821839183568954468e-02 2.918987767770886421e-03 -3.111006226390600204e-03 -8.861034439178183675e-05 -2.517120214179158211e-03 3.050158265978097916e-04 3.738414496183395386e-02 -2.676577679812908173e-02 1.648293621838092804e-02 4.880547523498535156e-02 4.118009470403194427e-03 -1.927558769239112735e-04 3.591694869101047516e-03 2.317172766197472811e-04 -2.611267194151878357e-02 1.197761297225952148e-02 -1.542326714843511581e-02 1.245568133890628815e-02 -4.969552901457063854e-05 -4.071757721249014139e-04 -2.375233452767133713e-03 -1.798413135111331940e-02 2.978665940463542938e-02 -4.116327036172151566e-03 2.285592257976531982e-02 1.121133100241422653e-02 2.777746994979679585e-04 -3.537978511303663254e-03 -6.419604178518056870e-03 -1.593895838595926762e-03 2.026399597525596619e-04 -4.681871458888053894e-02 -2.725094964262098074e-04 8.261420880444347858e-04 -2.918896730989217758e-03 7.159235328435897827e-02 1.713226921856403351e-02 4.214940220117568970e-02 6.417284253984689713e-03 8.552937768399715424e-03 -1.192079950124025345e-02 5.752023309469223022e-02 -8.414441981585696340e-05 -1.316085457801818848e-02 -5.549188936129212379e-04 8.129213820211589336e-04 -9.150340221822261810e-03 2.670726971700787544e-03 5.124475341290235519e-03 -1.387013215571641922e-02 1.039452012628316879e-02 -4.034760058857500553e-04 1.785917580127716064e-02 -4.028840456157922745e-03 -2.192857488989830017e-02 4.448864783626049757e-04 1.126648625358939171e-03 4.109460860490798950e-02 3.985454887151718140e-02 1.336928177624940872e-02 -5.158072235644795001e-05 5.954964086413383484e-03 -9.949968196451663971e-03 -4.841900896281003952e-03 -1.130599994212388992e-02 2.723115496337413788e-03 2.604385279119014740e-02 9.734151884913444519e-03 -8.202547905966639519e-04 -1.411013584583997726e-02 1.298332400619983673e-02 6.584461312741041183e-03 -4.077444598078727722e-02 1.041974220424890518e-02 6.440044194459915161e-02 5.193239194341003895e-04 -1.412237808108329773e-02 -2.323324419558048248e-02 -1.551261451095342636e-02 1.142430002801120281e-03 -3.016644332092255354e-04 1.031796680763363838e-03 2.231541648507118225e-02 -3.184180706739425659e-02 -6.273464113473892212e-02 -7.739129010587930679e-03 2.298461738973855972e-03 4.837563727051019669e-03 -5.276024341583251953e-03 3.970973193645477295e-03 1.261425903066992760e-03 1.444652490317821503e-02 -6.793024484068155289e-03 7.190538570284843445e-03 5.818002391606569290e-04 -3.690915182232856750e-03 -3.735464124474674463e-04 -1.161164604127407074e-02 5.408153403550386429e-03 -1.821761392056941986e-02 -4.392660630401223898e-04 2.443334646522998810e-02 4.250694811344146729e-02 1.185365021228790283e-01 8.916039223549887538e-05 -3.029483929276466370e-02 -2.047790959477424622e-02 -1.509467721916735172e-03 4.653074219822883606e-02 -3.830106556415557861e-02 5.622324533760547638e-03 -1.026397330861072987e-05 2.123053272953256965e-04 3.134946525096893311e-02 -3.247552784159779549e-03 -2.086660638451576233e-02 -4.297238192521035671e-04 -1.407965028192847967e-04 2.997962571680545807e-02 -1.896234415471553802e-02 3.773064119741320610e-03 2.092978730797767639e-02 -1.342052128165960312e-02 -3.243249282240867615e-02
-3.228382440283894539e-03 4.795671848114579916e-04 -5.838816054165363312e-03 -1.612008549273014069e-02 -3.525602817535400391e-02 3.739923704415559769e-04 1.156980730593204498e-02 2.667339146137237549e-02 1.724019675748422742e-04 3.591841459274291992e-02 -1.357393048238009214e-04 -7.304764352738857269e-03 6.245912984013557434e-03 -1.065925415605306625e-02 -4.602922417689114809e-04 2.315088175237178802e-03 2.426420524716377258e-02 3.217653720639646053e-04 -1.174320746213197708e-02 -5.783667322248220444e-03 5.282771307975053787e-03 9.910506196320056915e-03 1.937522029038518667e-04 2.483047428540885448e-04 1.120720058679580688e-02 -4.488306876737624407e-04 2.582697942852973938e-02 5.517898127436637878e-03 -3.300984203815460205e-02 5.003962200134992599e-03 9.249497205018997192e-03 -4.981945455074310303e-02 3.183356951922178268e-03 4.138236492872238159e-02 -3.447396308183670044e-02 -1.228979043662548065e-02 9.803168475627899170e-03 1.646065339446067810e-02 -1.328105136053636670e-04 -2.388384751975536346e-02 1.916120387613773346e-02 -2.310975827276706696e-02 3.391160862520337105e-04 -1.006999518722295761e-02 -2.087771892547607422e-02 -2.663394995033740997e-02 -1.138108409941196442e-02 -3.097903449088335037e-03 -1.291789580136537552e-02 1.719379238784313202e-02 -8.642901084385812283e-04 6.020901491865515709e-04 1.368207391351461411e-02 8.959267870523035526e-05 1.216511148959398270e-02 -5.487246438860893250e-03 6.374578922986984253e-03 -4.622950218617916107e-03 -1.035843696445226669e-02 4.570529982447624207e-02 1.398838777095079422e-02 -2.883114479482173920e-02 1.459579914808273315e-02 9.692715830169618130e-04 -6.116857402957975864e-04 -2.765986428130418062e-04 6.554361607413738966e-05 7.203599903732538223e-03 1.331483479589223862e-03 -1.076022628694772720e-02 2.699613198637962341e-02 1.286153099499642849e-03 1.782410405576229095e-02 -6.121460464783012867e-04 -8.092985488474369049e-03 3.929763101041316986e-03 -9.070278028957545757e-04 -1.001033349893987179e-03 -5.323285236954689026e-03 2.736278064548969269e-02 5.490011535584926605e-03 -1.074439566582441330e-02 -1.706839166581630707e-02 -4.897076636552810669e-02 -4.227479919791221619e-02 -1.327191386371850967e-02 5.367154628038406372e-02 -1.727757626213133335e-03 1.064736023545265198e-02 1.806768029928207397e-02 5.775474943220615387e-03 -3.990074619650840759e-03 9.684751741588115692e-03 1.072906423360109329e-03 -6.454586982727050781e-02 2.214096719399094582e-03 8.398113772273063660e-03 1.069628447294235229e-02 3.254095208831131458e-04 -1.595021039247512817e-02 1.489392574876546860e-02 4.505590349435806274e-02 5.585140752373263240e-05 -5.790561903268098831e-03 -2.659417688846588135e-02 -1.371083548292517662e-03 1.119307894259691238e-02 2.478311024606227875e-02 -3.497074171900749207e-02 -2.645012736320495605e-02 1.132731209509074688e-03 -1.754591357894241810e-04 3.647332545369863510e-03 7.638449780642986298e-03 -4.409706592559814453e-02 2.354960516095161438e-02 -5.349592538550496101e-04 4.363645613193511963e-02 -1.209167577326297760e-02 -1.651563099585473537e-03 -6.922864355146884918e-03 1.729445159435272217e-02 2.503963373601436615e-02 9.089545346796512604e-03 2.530442143324762583e-04 -1.630773185752332211e-04 1.203664299100637436e-02 -2.712760469876229763e-04 7.079947274178266525e-03 -1.050799526274204254e-02 -1.073023770004510880e-02 2.491839404683560133e-04 5.199947860091924667e-03 7.497493643313646317e-03 -1.710819639265537262e-02 -1.903472293633967638e-04 1.906761317513883114e-03 5.564817111007869244e-04 -1.582322083413600922e-02 -3.310857713222503662e-02 -6.929146591573953629e-03 8.842466399073600769e-03 1.420326810330152512e-02 -2.339159836992621422e-04 2.842279172909911722e-06 5.742368521168828011e-04 1.237611845135688782e-02 -9.112573228776454926e-03 -4.308094829320907593e-02 7.486035581678152084e-03 -9.037952986545860767e-04 3.747527807718142867e-05 2.718221629038453102e-03 -2.099564112722873688e-02 1.854121312499046326e-02 -1.045643165707588196e-02 -1.848577335476875305e-02 -1.889679394662380219e-02 6.386202294379472733e-04 -1.377205178141593933e-02 6.175119779072701931e-04 -3.088579396717250347e-04 2.637961006257683039e-04 2.906217239797115326e-03 4.594831625581718981e-05 -5.820993101224303246e-04 -4.156291112303733826e-02 -3.211275115609169006e-02 1.228585094213485718e-02 2.885034494102001190e-02 8.750953711569309235e-03 -1.739856228232383728e-02 -1.429724623449146748e-03 -2.942972816526889801e-03 -1.416993472957983613e-04 1.966430060565471649e-02 -5.961874965578317642e-03 -3.454186371527612209e-04 2.114272862672805786e-02 -2.605956420302391052e-02 -2.530895918607711792e-02 -3.307865001261234283e-03 -8.197946590371429920e-04 -6.011042860336601734e-04 9.217119775712490082e-03 -2.707065455615520477e-02 -1.769334636628627777e-02 1.552812027512118220e-04 9.602577192708849907e-04 1.611003465950489044e-02 -7.714294362813234329e-03 -1.540659274905920029e-02 -1.168565475381910801e-03 3.406684612855315208e-03 -1.362975127995014191e-02 -8.428714238107204437e-03 1.202732417732477188e-02 -4.203370213508605957e-02 3.122414648532867432e-02 -8.363672532141208649e-03 2.481923729646950960e-04 1.297463849186897278e-02 -2.236584573984146118e-02 -1.537922024726867676e-02 -2.109596738591790199e-03 1.181201776489615440e-03 2.456766553223133087e-02 8.832020685076713562e-04 -3.833860857412219048e-03 -6.305264309048652649e-03 2.265885239467024803e-03 -1.110555022023618221e-03 -2.424528502160683274e-04 -2.848772855941206217e-04 -1.996409893035888672e-02 1.789950020611286163e-02 1.890014670789241791e-02 -2.761195786297321320e-02 4.964932799339294434e-03 -8.283574134111404419e-03 -2.072438225150108337e-02 -2.459593489766120911e-02 5.118821281939744949e-03 1.741224341094493866e-02 9.675595909357070923e-03 4.609283991158008575e-03 -9.985539130866527557e-03 -5.394981708377599716e-03 2.768698905128985643e-04 1.500801462680101395e-02 1.170129980891942978e-03 1.024715323001146317e-02 1.038810023601399735e-05 -2.315198944415897131e-04 -3.657660679891705513e-03 1.255859434604644775e-02 7.390988757833838463e-04 -5.099594593048095703e-03 -7.682588184252381325e-04 -5.996490828692913055e-03 1.621493510901927948e-02 -1.162988226860761642e-02 1.139836013317108154e-02 -1.309490762650966644e-02 -7.659319089725613594e-04 6.812570616602897644e-03 -6.782942917197942734e-03 -1.826648600399494171e-03 -4.947746638208627701e-04 5.053670247434638441e-05 -5.026328377425670624e-03 1.326385326683521271e-02 1.433980558067560196e-02 2.277020364999771118e-02 -1.562934927642345428e-02 1.297486480325460434e-02
-1.123290229588747025e-02 -1.720551372272893786e-04 6.299707572907209396e-03 3.994221799075603485e-03 -2.790133841335773468e-02 3.417884290684014559e-04 -7.036520168185234070e-03 1.518775615841150284e-02 -4.694834933616220951e-04 -2.078982070088386536e-02 -1.140645417763153091e-05 -3.019769117236137390e-02 -4.499647021293640137e-02 1.716978289186954498e-02 -2.440311014652252197e-03 2.012802474200725555e-02 -3.445871546864509583e-02 -1.698364038020372391e-03 9.174746810458600521e-04 -1.050612423568964005e-02 -1.157080661505460739e-02 2.947870083153247833e-02 -7.409494719468057156e-04 6.193205481395125389e-04 -4.735727980732917786e-02 -4.737525014206767082e-04 4.336185380816459656e-02 1.027562376111745834e-02 4.062470048666000366e-03 1.083540543913841248e-02 -6.253165006637573242e-02 -1.997798867523670197e-02 -2.434842986986041069e-03 -2.894255332648754120e-02 2.705892361700534821e-02 -2.771455794572830200e-02 -5.276729911565780640e-02 2.153431810438632965e-02 -4.133597249165177345e-04 3.151438664644956589e-03 -2.378743328154087067e-02 1.777793397195637226e-03 8.082753629423677921e-04 3.050318360328674316e-02 -8.075382560491561890e-03 -9.510670788586139679e-03 1.232856791466474533e-02 -2.945613302290439606e-02 1.888812333345413208e-02 3.448318457230925560e-04 6.398609257303178310e-04 -1.262741352547891438e-05 3.459047875367105007e-04 -3.609521081671118736e-04 -5.463062971830368042e-02 2.714816480875015259e-02 -1.568994671106338501e-02 -4.750682041049003601e-03 -1.426295377314090729e-02 -6.243094801902770996e-02 4.152071848511695862e-02 -3.838280960917472839e-02 2.187541499733924866e-02 1.078870380297303200e-03 -1.475818082690238953e-02 -1.843873615143820643e-04 5.690636462531983852e-04 -1.613488048315048218e-02 -3.773384087253361940e-04 -4.666875675320625305e-02 2.455587964504957199e-03 -8.352326694875955582e-04 1.623182371258735657e-02 -1.124846967286430299e-04 1.499262265861034393e-02 -2.443737164139747620e-02 8.150737732648849487e-03 -3.040583396796137094e-04 3.225143626332283020e-02 1.594396494328975677e-02 -2.624182403087615967e-02 1.475344598293304443e-02 2.117071673274040222e-02 -3.855047980323433876e-03 -3.774688020348548889e-02 -1.504043955355882645e-02 2.100899815559387207e-02 4.533973336219787598e-02 8.180039934813976288e-03 -4.067900590598583221e-03 -3.655026480555534363e-02 3.283163532614707947e-03 -1.930990442633628845e-02 4.739258438348770142e-04 4.876614362001419067e-02 2.699167700484395027e-03 2.157749608159065247e-02 -6.319391727447509766e-02 1.304567122133448720e-04 1.251027360558509827e-02 3.575014322996139526e-02 -5.597463343292474747e-03 -6.292847683653235435e-04 1.829380542039871216e-02 1.065967697650194168e-02 -1.773720793426036835e-02 -1.685243099927902222e-02 -1.649587787687778473e-02 1.415562164038419724e-02 2.185235545039176941e-02 -6.866159674245864153e-05 -2.670701651368290186e-04 -1.315699424594640732e-02 1.246913056820631027e-02 -2.054150402545928955e-02 3.127268329262733459e-02 3.239569487050175667e-04 -4.529925063252449036e-02 -4.507360234856605530e-02 6.625654641538858414e-04 4.503047838807106018e-02 -1.520685199648141861e-02 -3.195665776729583740e-03 4.705001600086688995e-03 2.634371339809149504e-04 -1.759037259034812450e-03 2.285192534327507019e-02 5.882815457880496979e-04 -4.296743124723434448e-02 -1.370496116578578949e-02 1.793395611457526684e-03 5.107884062454104424e-04 -2.025879546999931335e-02 -1.951594278216362000e-02 3.480589017271995544e-03 7.479422492906451225e-04 2.488908171653747559e-02 -1.244350452907383442e-03 -9.693290106952190399e-03 9.991576895117759705e-03 -4.823190160095691681e-03 -8.325083763338625431e-05 -1.248735655099153519e-02 2.741550088103394955e-05 -3.093452192842960358e-02 2.351455914322286844e-04 2.453268319368362427e-02 2.615032531321048737e-02 -2.886031940579414368e-02 -1.401351671665906906e-02 -1.210472779348492622e-03 1.128446601796895266e-04 -2.485871687531471252e-02 2.350970543920993805e-02 3.005859814584255219e-02 2.167945727705955505e-03 1.082614716142416000e-02 -2.809579856693744659e-02 -2.154282410629093647e-04 1.207568100653588772e-03 -1.161244325339794159e-02 -2.837758802343159914e-04 3.010804648511111736e-04 2.931669168174266815e-02 5.362211377359926701e-04 -2.910216280724853277e-04 -5.312156281433999538e-04 8.139060810208320618e-03 1.482644490897655487e-02 -1.596056111156940460e-02 -1.762563548982143402e-02 2.724314481019973755e-02 -4.272565245628356934e-03 2.475816383957862854e-02 -4.101690719835460186e-04 -9.006801247596740723e-02 3.640889772213995457e-04 3.151266137138009071e-04 3.408966958522796631e-02 -7.995036430656909943e-03 1.665775477886199951e-02 8.412204682826995850e-03 8.634790033102035522e-02 -8.149999193847179413e-04 2.476692944765090942e-02 2.122786082327365875e-02 2.815279178321361542e-02 -4.722879093606024981e-04 -3.683500690385699272e-04 2.705080620944499969e-02 2.066022530198097229e-02 1.564342528581619263e-02 3.086977230850607157e-04 -3.085456229746341705e-02 -2.706003934144973755e-02 -2.578896842896938324e-02 8.883426897227764130e-03 -2.996820956468582153e-02 -1.954665873199701309e-03 -1.931966841220855713e-02 5.373717067413963377e-05 -2.879727259278297424e-02 -5.471141263842582703e-02 5.397816654294729233e-03 -7.745242211967706680e-03 -3.159440122544765472e-03 8.279568515717983246e-03 -3.027372586075216532e-04 1.936413533985614777e-02 -3.969078883528709412e-03 -3.450724855065345764e-02 2.823613176587969065e-04 -1.613376807654276490e-04 1.065656775608658791e-03 -8.838417124934494495e-05 -1.337600499391555786e-02 3.132117539644241333e-02 -1.695735147222876549e-03 -1.066492218524217606e-02 -4.546817019581794739e-02 -2.915195422247052193e-03 1.440513040870428085e-02 -4.334165155887603760e-02 -5.609514657407999039e-03 -1.719160564243793488e-02 -2.307362854480743408e-02 -1.084709446877241135e-02 -3.001330420374870300e-02 -9.458316490054130554e-04 -3.896842896938323975e-02 -6.316833943128585815e-02 -4.045447707176208496e-02 -1.197673409478738904e-04 -3.077382035553455353e-02 -3.329600766301155090e-02 8.820128627121448517e-03 -6.889168871566653252e-04 3.917886689305305481e-02 6.798277609050273895e-04 -1.548666227608919144e-02 2.155312709510326385e-02 1.247489545494318008e-02 -1.209791470319032669e-02 -3.263678401708602905e-02 -2.654312120284885168e-04 4.315491393208503723e-02 -3.125913068652153015e-02 7.828085683286190033e-03 6.214748718775808811e-04 -1.658521709032356739e-03 4.338727146387100220e-02 2.322119101881980896e-02 5.113574862480163574e-02 -1.930682919919490814e-02 -3.074455773457884789e-03 1.957447454333305359e-02
-2.842764370143413544e-02 -5.866612627869471908e-05 -3.688099235296249390e-02 1.688724756240844727e-02 -3.319217823445796967e-03 -1.181723637273535132e-04 -2.762980200350284576e-02 -3.970090299844741821e-03 -9.633264853619039059e-04 -2.488707192242145538e-02 5.782851949334144592e-04 1.374374702572822571e-02 7.860634475946426392e-03 -7.040751725435256958e-02 1.242141937837004662e-03 -2.931299619376659393e-02 6.178251281380653381e-02 1.086781383492052555e-03 -3.761634603142738342e-02 -4.462169110774993896e-02 1.582588255405426025e-02 6.998984608799219131e-03 7.067174883559346199e-04 -7.577250016765901819e-06 7.989526726305484772e-03 1.102854730561375618e-03 6.009252741932868958e-03 5.444838199764490128e-03 1.658475026488304138e-02 -9.053693502210080624e-04 -1.627428084611892700e-02 1.075915899127721786e-02 2.469630166888237000e-02 1.702957041561603546e-02 -1.471984945237636566e-02 1.835772022604942322e-02 4.605182632803916931e-02 -1.979575864970684052e-02 -5.317874602042138577e-04 3.307544160634279251e-03 -1.224492024630308151e-02 1.528223697096109390e-02 5.404724652180448174e-05 2.897027134895324707e-02 1.306688692420721054e-02 3.446003654971718788e-03 -9.087371639907360077e-03 1.169551070779561996e-02 1.690342836081981659e-02 -2.371048554778099060e-02 6.052250973880290985e-04 9.016444673761725426e-04 -5.973400175571441650e-02 4.591867036651819944e-04 3.054687753319740295e-02 -9.377725422382354736e-03 -1.200228091329336166e-02 -2.186888456344604492e-02 -5.866128485649824142e-03 8.265548385679721832e-03 4.121815785765647888e-03 2.119801566004753113e-02 3.781283739954233170e-03 4.841948684770613909e-04 3.855236992239952087e-02 8.080448023974895477e-04 -4.665683372877538204e-04 -2.739229239523410797e-02 -5.630792584270238876e-04 -1.011364627629518509e-02 6.157214194536209106e-02 -5.349916318664327264e-05 1.983825489878654480e-02 6.566249794559553266e-05 3.979911282658576965e-02 2.988436445593833923e-02 1.786308735609054565e-02 1.092565289582125843e-04 5.605383217334747314e-02 -2.699538692831993103e-02 6.893315818160772324e-03 -1.088728569447994232e-02 -8.272023871541023254e-03 1.239509729202836752e-04 -5.933794192969799042e-03 -1.150016952306032181e-02 1.733140088617801666e-02 -3.055786527693271637e-02 -3.278022632002830505e-02 -1.910798717290163040e-03 2.182842046022415161e-02 -3.780081868171691895e-02 2.475305926054716110e-03 8.196462295018136501e-05 -2.919452264904975891e-03 -1.271901745349168777e-02 2.514161169528961182e-02 -8.685837499797344208e-03 -6.163628131616860628e-05 -6.873035430908203125e-02 1.948215212905779481e-04 2.824494428932666779e-02 -5.069541512057185173e-04 -3.544237092137336731e-02 3.300574421882629395e-02 -1.409051194787025452e-02 -1.716697704978287220e-03 1.193043217062950134e-02 -1.851967349648475647e-02 1.631251722574234009e-02 8.414186304435133934e-04 1.125132199376821518e-03 -5.399547982960939407e-03 -2.049441635608673096e-02 -7.053372915834188461e-03 -2.357467963065573713e-07 4.926944966427981853e-04 -4.802605602890253067e-03 9.285493753850460052e-03 5.651405081152915955e-04 8.296521264128386974e-04 -2.541623078286647797e-02 8.046475122682750225e-04 2.536263130605220795e-02 -6.994900177232921124e-04 6.722589751007035375e-05 6.618545390665531158e-03 3.143488720525056124e-04 6.345979124307632446e-02 -1.891143806278705597e-02 -1.253433991223573685e-02 2.557719999458640814e-04 2.758989483118057251e-02 -1.088782795704901218e-03 -1.979295536875724792e-02 1.221861166413873434e-04 -4.213772714138031006e-02 1.168835675343871117e-03 -2.384946309030056000e-02 -2.486763405613601208e-04 -4.772265907377004623e-03 -3.532253578305244446e-02 5.877817515283823013e-03 3.182646178174763918e-04 -2.721749059855937958e-02 -7.797348080202937126e-04 -1.323781255632638931e-02 -3.931198641657829285e-02 -1.174789294600486755e-02 -3.726417664438486099e-03 -4.150670429226011038e-04 8.520570700056850910e-04 1.660760305821895599e-02 -2.598210982978343964e-02 8.278277702629566193e-03 1.758542843163013458e-02 1.254723034799098969e-02 3.028651000931859016e-03 2.478620735928416252e-03 1.725840196013450623e-02 4.388122819364070892e-03 -2.419292577542364597e-04 -2.069284710159990937e-05 1.311681699007749557e-02 -7.894987938925623894e-04 3.897482019965536892e-05 -3.863760456442832947e-02 6.783352792263031006e-02 -3.237167373299598694e-02 -1.131127588450908661e-02 -3.166712075471878052e-02 -2.911783196032047272e-02 -2.333638072013854980e-02 6.702021509408950806e-02 -4.291668883524835110e-04 -1.120155863463878632e-02 -1.180782634764909744e-02 1.482945517636835575e-04 -3.319279989227652550e-03 3.632395528256893158e-03 1.338749099522829056e-02 1.990362443029880524e-02 -5.130943376570940018e-03 -7.278027478605508804e-04 -4.571258649230003357e-02 7.336705457419157028e-03 2.671203576028347015e-02 -5.203855689615011215e-04 1.547077117720618844e-04 4.694080352783203125e-02 1.204912271350622177e-02 2.126340568065643311e-02 1.400970970280468464e-03 1.328955404460430145e-02 4.076312296092510223e-03 7.173005957156419754e-03 -3.204573690891265869e-02 3.469079732894897461e-02 -2.359508350491523743e-02 -1.256191451102495193e-02 6.881846929900348186e-04 4.000709205865859985e-02 -2.003631740808486938e-02 -2.356308139860630035e-02 1.600386202335357666e-02 2.262399718165397644e-02 -2.741679549217224121e-03 3.068041405640542507e-05 7.849017158150672913e-03 -2.098444104194641113e-02 6.083293817937374115e-03 -1.186860026791691780e-03 -2.322174550499767065e-04 3.743096895050257444e-04 -3.402723697945475578e-03 1.129901967942714691e-02 -1.600811257958412170e-02 -1.877435483038425446e-02 -2.421631477773189545e-02 1.137678883969783783e-02 -4.081599414348602295e-03 -1.958900503814220428e-02 2.812938066199421883e-03 9.677922725677490234e-02 2.684875763952732086e-02 -3.704629093408584595e-02 1.649649254977703094e-02 2.294608764350414276e-02 -4.025168309453874826e-04 5.124222114682197571e-02 3.795382380485534668e-02 2.585776150226593018e-02 -8.451001485809683800e-04 -2.576672285795211792e-02 3.557178005576133728e-02 -1.673853606916964054e-03 5.279994220472872257e-04 -4.680025950074195862e-02 4.294743761420249939e-03 -2.778576314449310303e-02 4.868147894740104675e-02 -5.665757227689027786e-03 -6.345440167933702469e-03 1.093954406678676605e-02 -1.446357782697305083e-04 1.620506308972835541e-02 3.207155317068099976e-02 5.044730380177497864e-03 5.399959045462310314e-04 1.110258628614246845e-03 2.040183171629905701e-02 5.038185045123100281e-02 7.218359503895044327e-03 9.664843790233135223e-03 -5.423321854323148727e-03 -2.303797192871570587e-02
-3.210960887372493744e-03 3.449489013291895390e-04 4.783464968204498291e-02 -5.562738981097936630e-03 1.330199278891086578e-02 -8.364181121578440070e-05 1.066754688508808613e-03 2.339573204517364502e-02 -6.425896426662802696e-04 4.657069221138954163e-03 2.710765402298420668e-04 -2.506299316883087158e-02 7.135452236980199814e-03 1.145384460687637329e-02 -2.559233689680695534e-03 -2.127169445157051086e-02 4.201236739754676819e-02 -3.548915265128016472e-04 2.530275285243988037e-02 8.149217814207077026e-03 -4.268655925989151001e-02 -4.886899143457412720e-02 5.920100957155227661e-04 7.555242336820811033e-05 1.427684817463159561e-02 -3.126972296740859747e-04 -2.723711356520652771e-02 3.231199085712432861e-02 -1.970927044749259949e-02 -1.804760098457336426e-02 -5.892968270927667618e-03 1.611872948706150055e-02 -2.851375751197338104e-02 2.935870736837387085e-02 1.006989367306232452e-02 -1.893940940499305725e-02 1.018041279166936874e-02 2.884105080738663673e-03 -3.544363607943523675e-06 1.152188610285520554e-02 2.196678426116704941e-03 -6.427000742405653000e-03 -1.857838506111875176e-04 -1.355856657028198242e-02 2.223712392151355743e-02 -4.730319604277610779e-02 -1.026015356183052063e-02 -2.220331504940986633e-02 1.048903912305831909e-02 -5.320541560649871826e-02 4.999810480512678623e-04 6.023430032655596733e-04 -3.564206510782241821e-02 1.124619971960783005e-03 9.508248185738921165e-04 -1.103947637602686882e-03 -4.809377714991569519e-02 2.312713861465454102e-02 -1.742582209408283234e-02 -2.789607830345630646e-02 4.134991765022277832e-02 -1.249350956641137600e-03 -7.005754392594099045e-03 -2.245400100946426392e-04 -3.658708184957504272e-02 -6.623291992582380772e-04 -2.535973908379673958e-04 3.812535479664802551e-02 6.444253085646778345e-05 1.811817847192287445e-02 3.404421731829643250e-02 6.902795284986495972e-04 4.866169765591621399e-02 7.512766169384121895e-04 1.705469749867916107e-02 9.387098252773284912e-03 7.633396238088607788e-02 -1.196345692733302712e-04 2.708843536674976349e-02 2.137537673115730286e-02 -6.647187750786542892e-03 -7.789768278598785400e-03 2.124857157468795776e-02 2.091873250901699066e-02 -9.853917174041271210e-03 3.326237946748733521e-02 -7.777838967740535736e-03 -1.329603325575590134e-02 -5.278511904180049896e-03 -2.558132167905569077e-03 -8.906771428883075714e-03 1.366166304796934128e-02 1.578359049744904041e-03 1.098497596103698015e-04 1.391670666635036469e-02 3.234926983714103699e-02 -2.263304591178894043e-02 2.799155935645103455e-02 2.452174958307296038e-04 -6.811463274061679840e-03 1.003180257976055145e-02 -2.079877816140651703e-02 5.520306876860558987e-04 -1.662710681557655334e-02 1.212539430707693100e-02 3.085266612470149994e-02 -6.303589046001434326e-02 1.025022100657224655e-02 -1.634433865547180176e-02 2.626129426062107086e-02 1.776271499693393707e-03 -2.426315913908183575e-04 -6.470256950706243515e-03 -1.441710628569126129e-02 1.774367131292819977e-02 -1.994844712316989899e-02 -5.824885447509586811e-04 -5.114512983709573746e-03 -7.237149402499198914e-03 7.810470997355878353e-04 1.672682352364063263e-02 9.529341943562030792e-03 -1.761019229888916016e-02 -3.737626364454627037e-03 -6.926318746991455555e-04 2.946211607195436954e-04 5.145508330315351486e-03 -1.507298438809812069e-04 1.844401843845844269e-02 1.873727142810821533e-02 2.801954746246337891e-02 -1.396686857333406806e-04 -1.510442048311233521e-02 -3.458071500062942505e-03 4.765646532177925110e-03 8.323336951434612274e-04 2.171861566603183746e-02 -7.258299156092107296e-04 -7.560699246823787689e-03 -1.610552077181637287e-03 -2.156100701540708542e-03 -1.709421351552009583e-02 -3.487663343548774719e-03 -1.143521629273891449e-03 -1.746500097215175629e-02 3.683994145831093192e-05 -4.984713718295097351e-02 5.702808499336242676e-02 -1.703979074954986572e-02 1.147489435970783234e-02 1.498158439062535763e-03 5.749092088080942631e-04 2.144486270844936371e-02 -8.817855850793421268e-04 5.991465412080287933e-03 -1.803330332040786743e-02 1.225631777197122574e-02 1.266708597540855408e-02 3.949305100832134485e-04 -2.015439234673976898e-02 -2.275130711495876312e-02 -7.699317648075520992e-04 3.206189139746129513e-04 8.580651134252548218e-03 -3.662545932456851006e-04 1.393654238199815154e-04 1.761066727340221405e-02 2.606544271111488342e-02 -4.801070690155029297e-02 -1.312651764601469040e-02 2.346441335976123810e-02 2.508773095905780792e-02 -1.479276642203330994e-02 8.253443986177444458e-02 -4.594718629959970713e-04 -4.226097464561462402e-02 -3.787166997790336609e-02 6.596887251362204552e-04 -4.572976380586624146e-03 1.934006810188293457e-02 -5.388753954321146011e-03 -3.600812703371047974e-02 9.315130300819873810e-03 -2.384415420237928629e-04 -4.812355712056159973e-02 -2.450137399137020111e-02 1.559513155370950699e-03 9.454019163968041539e-05 1.173997734440490603e-04 2.326159365475177765e-02 1.392017863690853119e-02 -1.671573147177696228e-02 1.056101536960341036e-04 -7.016865070909261703e-03 -2.776831388473510742e-02 8.694146759808063507e-03 2.394027449190616608e-02 3.039611876010894775e-02 -7.793634664267301559e-03 -1.151380874216556549e-02 3.951241960749030113e-04 1.556854508817195892e-02 2.573147788643836975e-02 -2.003403380513191223e-02 -2.891558781266212463e-02 2.583313360810279846e-02 3.861187025904655457e-03 5.738069303333759308e-04 -5.461277323774993420e-04 -2.527311258018016815e-02 -1.137314364314079285e-02 3.991036792285740376e-04 5.388364661484956741e-04 -9.819960687309503555e-04 3.223821520805358887e-02 -1.251628901809453964e-02 3.684585541486740112e-02 -1.570886559784412384e-02 -1.500469539314508438e-02 -1.089937239885330200e-02 -2.111560478806495667e-02 -2.680774219334125519e-02 -1.683322899043560028e-02 1.598427072167396545e-02 -3.222557902336120605e-02 4.783647134900093079e-02 -1.093938294798135757e-02 -1.229375321418046951e-02 3.885312762577086687e-04 2.055545523762702942e-02 7.836831733584403992e-03 -4.832522012293338776e-03 6.012062658555805683e-04 -2.414340997347608209e-05 2.191855572164058685e-02 -1.463273540139198303e-02 -9.340154938399791718e-04 -1.558732055127620697e-02 -5.114889238029718399e-03 3.942248970270156860e-02 1.170404534786939621e-02 -2.541978470981121063e-02 -3.857963904738426208e-02 1.708733150735497475e-03 8.143878658302128315e-04 -3.182748332619667053e-02 -6.097814068198204041e-03 -1.925721392035484314e-02 1.678213302511721849e-04 -2.736218448262661695e-04 1.609779149293899536e-02 1.602335646748542786e-02 -3.799657151103019714e-02 -4.037921130657196045e-02 -2.167924679815769196e-02 1.483251713216304779e-02
1.865011267364025116e-02 1.765008637448772788e-04 1.585742458701133728e-02 -2.139383554458618164e-02 5.367616191506385803e-02 9.861665312200784683e-04 4.134010151028633118e-02 -1.568306470289826393e-03 1.568742736708372831e-04 2.106386609375476837e-02 -3.641246294137090445e-04 1.610482484102249146e-02 -2.327573020011186600e-03 -5.094238370656967163e-02 -1.233412302099168301e-03 2.001382410526275635e-02 -3.109562210738658905e-02 3.759950632229447365e-04 -2.936046943068504333e-02 -3.113113529980182648e-02 9.850609116256237030e-03 -7.039259187877178192e-03 -1.161103369668126106e-03 2.484854667272884399e-05 -4.619700089097023010e-02 -6.712478934787213802e-04 2.654520235955715179e-02 5.846247822046279907e-02 -1.496585435234010220e-03 2.189513668417930603e-02 3.023446537554264069e-03 -1.177280955016613007e-02 8.718349039554595947e-03 1.424134895205497742e-02 -6.756513030268251896e-04 2.805556543171405792e-02 -4.150715842843055725e-02 2.126683667302131653e-02 -3.261739038862287998e-04 2.779963798820972443e-02 2.856224402785301208e-02 -3.632142767310142517e-02 -6.936114514246582985e-04 1.283833570778369904e-02 7.801679894328117371e-03 2.272806130349636078e-02 3.340198309160768986e-04 -4.542040079832077026e-02 -1.364013738930225372e-02 -3.209018707275390625e-02 -6.057852879166603088e-04 -7.057833863655105233e-05 -8.603128790855407715e-02 5.935257067903876305e-04 9.503837674856185913e-03 2.315956540405750275e-02 -5.375785380601882935e-02 5.439530685544013977e-02 -2.402174286544322968e-02 1.098143588751554489e-02 4.775954410433769226e-03 -2.363725006580352783e-02 4.978039115667343140e-02 8.466521830996498466e-05 2.218060009181499481e-02 -6.417363765649497509e-04 -4.678184050135314465e-04 -1.403593365103006363e-02 -1.412114797858521342e-04 6.821056362241506577e-03 -6.917633581906557083e-03 -1.000059419311583042e-03 3.347595036029815674e-02 -7.147138821892440319e-04 2.097658347338438034e-03 3.081701509654521942e-02 2.513858489692211151e-02 -1.139076310209929943e-03 -2.186883613467216492e-02 2.557587996125221252e-02 9.741881862282752991e-03 -8.942974731326103210e-03 6.947078555822372437e-02 1.758392155170440674e-02 -1.344508491456508636e-03 1.997477933764457703e-02 2.397395297884941101e-02 3.843403607606887817e-02 1.729097776114940643e-02 -3.322007507085800171e-02 2.302036155015230179e-03 -1.542049809359014034e-03 2.906420640647411346e-02 -3.673936589621007442e-04 -2.080892445519566536e-03 1.476914621889591217e-02 9.676975198090076447e-03 -3.396274149417877197e-02 -2.372125745750963688e-04 3.418255131691694260e-03 -1.272019185125827789e-02 -1.353976596146821976e-02 4.960244987159967422e-04 5.081860814243555069e-03 -1.446470245718955994e-02 2.723948657512664795e-02 -2.589232660830020905e-02 -1.697717048227787018e-02 6.811610423028469086e-03 -1.658588531427085400e-03 1.614225329831242561e-04 3.602595243137329817e-04 -3.654165938496589661e-02 -4.582277033478021622e-03 4.518627375364303589e-02 2.097614109516143799e-02 4.244100127834826708e-04 -2.230028435587882996e-02 8.394272997975349426e-03 -2.563446105341427028e-05 1.732814125716686249e-02 -1.583316549658775330e-02 2.913800999522209167e-02 -3.974048048257827759e-02 -8.992964285425841808e-04 3.643951786216348410e-04 -5.855804309248924255e-03 -3.271062814746983349e-05 -2.872271649539470673e-02 1.443948037922382355e-02 1.016583759337663651e-02 2.891376207116991282e-04 6.183279212564229965e-03 1.231672801077365875e-02 -4.539329186081886292e-02 -4.889397314400412142e-05 -1.142631471157073975e-02 -2.896786900237202644e-04 -3.440457209944725037e-02 3.585981577634811401e-02 3.318054229021072388e-02 7.087859325110912323e-03 5.335811991244554520e-03 -1.274777423532214016e-05 -4.158284049481153488e-03 4.207609745208173990e-04 -1.494711730629205704e-02 2.537649497389793396e-02 -2.861999906599521637e-02 1.502359379082918167e-02 1.574708003317937255e-04 -5.174530670046806335e-04 5.221698805689811707e-02 2.936069481074810028e-02 -1.100713480263948441e-02 6.310306489467620850e-02 -2.328740619122982025e-02 3.428813070058822632e-02 -8.672165567986667156e-04 1.517466618679463863e-03 3.099437803030014038e-02 -4.907151833322132006e-06 1.662433787714689970e-04 -3.743539750576019287e-02 -7.044374942779541016e-04 2.092109643854200840e-04 -4.181451722979545593e-02 3.360380977392196655e-02 2.656912617385387421e-02 -3.472496196627616882e-02 -3.323394432663917542e-02 1.643641851842403412e-02 -7.163808681070804596e-03 -1.214017812162637711e-02 7.285600877366960049e-04 1.483069639652967453e-02 -3.748514130711555481e-02 3.138815809506922960e-04 3.238511085510253906e-02 7.666999939829111099e-03 3.870148211717605591e-02 -1.313334796577692032e-02 -3.364689275622367859e-02 -1.062327995896339417e-03 -5.858252989128232002e-04 -3.049142891541123390e-03 -1.954371668398380280e-02 9.717409848235547543e-04 -5.701179179595783353e-05 -2.149963565170764923e-02 3.167121205478906631e-03 2.438212372362613678e-02 -1.132366945967078209e-03 -1.127211749553680420e-02 8.770253509283065796e-03 -2.511718682944774628e-02 1.189338974654674530e-03 9.747926145792007446e-03 -2.704662457108497620e-02 2.592511661350727081e-02 2.548443153500556946e-04 -5.596155533567070961e-04 -9.950826875865459442e-03 2.841097675263881683e-02 4.835564177483320236e-03 1.175351440906524658e-02 -1.712924055755138397e-02 6.980919351917691529e-06 4.537082090973854065e-02 -4.695351421833038330e-02 4.983503371477127075e-02 -1.232530688866972923e-03 1.245485909748822451e-04 1.022542710416018963e-03 -1.983106136322021484e-02 1.470902469009160995e-02 -2.743305265903472900e-02 -9.437542408704757690e-03 -5.127245560288429260e-02 -5.080344155430793762e-02 -4.024174064397811890e-02 1.061345174093730748e-04 3.438673168420791626e-02 -1.563411392271518707e-02 -3.264030069112777710e-02 5.660148710012435913e-02 2.586518600583076477e-02 2.665660157799720764e-02 -2.896299993153661489e-04 -9.119427762925624847e-03 1.147076673805713654e-02 -1.349535584449768066e-02 -8.152717055054381490e-05 -2.664740942418575287e-02 -9.111902676522731781e-03 8.498867973685264587e-03 4.555888299364596605e-04 -6.015796214342117310e-02 1.301354914903640747e-02 1.906933449208736420e-02 -2.361124008893966675e-02 -1.481798570603132248e-02 -4.531000182032585144e-02 4.747357964515686035e-02 2.099358534906059504e-04 3.305951878428459167e-02 -2.018364332616329193e-02 -2.649502083659172058e-02 -6.699531222693622112e-04 -1.290889689698815346e-03 -2.180543914437294006e-02 -2.237317711114883423e-02 -2.803516574203968048e-02 2.388516813516616821e-02 -2.873252704739570618e-02 -6.367953028529882431e-05
-3.272418305277824402e-02 -1.685076742433011532e-03 -5.482260603457689285e-03 5.291048064827919006e-02 -1.245472207665443420e-02 1.603055861778557301e-04 1.755957305431365967e-02 -4.628616198897361755e-02 -6.524224299937486649e-04 2.366179041564464569e-02 1.083178562112152576e-03 -1.741617359220981598e-02 -4.411271587014198303e-02 -3.948400169610977173e-02 -2.102376194670796394e-03 -2.256056852638721466e-02 -4.467326682060956955e-03 -1.004634075798094273e-03 7.483299355953931808e-03 -1.449069287627935410e-02 2.762187458574771881e-02 4.667883738875389099e-02 -5.844841361977159977e-04 -5.865204366273246706e-05 -1.172256935387849808e-02 -3.271265595685690641e-04 4.414399713277816772e-02 2.109659649431705475e-02 -2.377152442932128906e-03 -5.183424800634384155e-02 -3.698276728391647339e-02 -4.124886542558670044e-02 6.628714036196470261e-03 -1.631766185164451599e-02 2.454542322084307671e-03 -9.656182490289211273e-03 -2.022737078368663788e-02 -3.529670089483261108e-02 1.163984648883342743e-03 -8.381749503314495087e-03 -1.005136594176292419e-02 8.594696992076933384e-04 2.429806481814011931e-04 -3.186029789503663778e-04 2.324346639215946198e-02 -1.711991988122463226e-02 -1.079138601198792458e-04 2.543801628053188324e-02 1.802316308021545410e-02 4.616423323750495911e-02 -4.311099182814359665e-04 1.069693535100668669e-04 8.551739901304244995e-02 -2.524154842831194401e-04 4.845223948359489441e-02 1.508299913257360458e-02 8.294499712064862251e-04 -6.587116513401269913e-03 -2.412497811019420624e-02 -6.716070324182510376e-02 4.220734909176826477e-02 -3.579732403159141541e-02 5.309391766786575317e-03 -1.855963928392156959e-04 1.318608038127422333e-02 1.719576357572805136e-05 3.845550054393243045e-06 9.101234900299459696e-05 4.537688218988478184e-04 -4.157562926411628723e-02 1.136768702417612076e-02 4.165472928434610367e-04 3.899808973073959351e-02 5.663679912686347961e-04 1.074301544576883316e-02 1.451303903013467789e-02 2.754377014935016632e-02 -1.219195662997663021e-03 -1.811608113348484039e-02 -1.212562527507543564e-02 5.718353390693664551e-02 9.910641238093376160e-03 -5.685217678546905518e-02 2.432306483387947083e-02 -4.458149150013923645e-02 1.132307574152946472e-02 1.675553061068058014e-02 2.300092251971364021e-03 -2.829421311616897583e-02 -5.510654672980308533e-02 -2.579397149384021759e-02 5.261041224002838135e-03 1.730436645448207855e-02 8.481716504320502281e-04 2.918704971671104431e-02 4.819338675588369370e-03 2.324005961418151855e-02 3.805372491478919983e-02 -3.092620754614472389e-04 1.245993003249168396e-02 -1.091429125517606735e-02 2.416446991264820099e-02 -1.234461902640759945e-03 1.295788958668708801e-02 4.743295721709728241e-03 6.769474595785140991e-03 3.876942768692970276e-02 1.848692260682582855e-02 -5.179910920560359955e-03 9.940047748386859894e-03 1.738447463139891624e-03 -8.041242253966629505e-04 1.406824402511119843e-02 -8.489682525396347046e-02 2.372888661921024323e-02 2.182447351515293121e-02 8.906249422580003738e-04 3.151358664035797119e-02 -6.659977138042449951e-03 -6.092298426665365696e-04 1.854974962770938873e-02 9.867380373179912567e-03 -3.485417738556861877e-02 2.293818444013595581e-02 7.315469702007248998e-05 -1.260322023881599307e-04 -6.299328524619340897e-03 -9.162463538814336061e-05 -7.539356127381324768e-03 -1.332020619884133339e-03 1.468944246880710125e-03 1.402711030095815659e-03 7.793956436216831207e-03 -9.001188911497592926e-03 6.874711252748966217e-04 -3.997546446043998003e-04 -9.721606969833374023e-03 -9.424373856745660305e-04 1.344312261790037155e-02 1.706743147224187851e-03 2.821822883561253548e-03 -2.991153113543987274e-02 -4.038183484226465225e-03 -2.322698674106504768e-05 -1.927757821977138519e-02 -4.498455091379582882e-04 3.694719821214675903e-02 1.812600530683994293e-02 -2.550671622157096863e-02 1.297335699200630188e-02 -4.752222448587417603e-04 1.731167896650731564e-03 -1.780122285708785057e-03 1.285451091825962067e-02 -1.189669594168663025e-02 3.265046700835227966e-02 3.682623431086540222e-02 -2.114001661539077759e-02 1.694958045845851302e-04 1.629428565502166748e-02 8.250338956713676453e-03 -7.208899478428065777e-05 -5.486377631314098835e-04 3.236607089638710022e-02 -3.529543173499405384e-04 7.988656579982489347e-05 1.101045520044863224e-03 -1.646641269326210022e-02 -4.265403747558593750e-02 -6.329447031021118164e-02 1.667171902954578400e-02 2.007816173136234283e-02 -5.194150283932685852e-02 -7.513663265854120255e-03 -1.348018558928743005e-04 -1.541567686945199966e-02 -2.329689450562000275e-02 -8.542269351892173290e-04 8.393028751015663147e-03 1.835567876696586609e-02 4.240239504724740982e-03 -2.395380847156047821e-02 5.822605919092893600e-03 3.681881353259086609e-04 -2.740893885493278503e-02 -2.139400504529476166e-02 -1.773690804839134216e-02 1.032980158925056458e-03 -2.833996550180017948e-04 -3.815375268459320068e-02 -1.583170145750045776e-02 1.744246482849121094e-02 -8.309320546686649323e-04 -6.557809561491012573e-02 -1.878368295729160309e-02 -4.864386864937841892e-04 -1.897895522415637970e-02 -1.190828345715999603e-02 -2.274659462273120880e-02 2.213968709111213684e-02 -3.955985011998564005e-04 -3.135162964463233948e-02 -2.543393056839704514e-03 -9.284353815019130707e-03 9.406937169842422009e-04 1.297263195738196373e-03 -1.953676901757717133e-02 6.047230635886080563e-05 1.646382734179496765e-02 -3.957975283265113831e-02 -7.809280883520841599e-03 -1.715738209895789623e-03 9.718803084979299456e-06 -5.126463365741074085e-04 3.356168791651725769e-02 -6.987233646214008331e-03 -5.438368301838636398e-03 -2.194067835807800293e-02 1.492753066122531891e-02 6.237945519387722015e-03 -1.874430477619171143e-02 -1.086638122797012329e-02 1.335857622325420380e-02 -4.546462371945381165e-02 3.099933732300996780e-03 -1.106159761548042297e-02 -4.917139187455177307e-03 -5.500640347599983215e-02 2.754246233962476254e-04 -1.768075302243232727e-02 -3.564522415399551392e-02 -1.356631517410278320e-02 4.641354316845536232e-04 1.594835706055164337e-02 -1.488702464848756790e-02 1.745944283902645111e-02 -4.405766667332500219e-04 -1.565049216151237488e-02 2.506038360297679901e-02 9.394780732691287994e-03 -4.263215139508247375e-02 -1.830887235701084137e-02 2.095467597246170044e-02 -1.173681393265724182e-02 -5.413813255472632591e-07 1.847641915082931519e-02 4.292092472314834595e-02 1.246879249811172485e-02 6.110392860136926174e-04 3.094040948781184852e-05 1.767093897797167301e-03 1.496815402060747147e-02 -2.764583937823772430e-02 4.064142331480979919e-02 -2.180550619959831238e-02 -4.850307852029800415e-02
1.390794664621353149e-02 4.990414017811417580e-04 -4.985723644495010376e-03 -6.804000120609998703e-03 -4.303680267184972763e-03 -7.803981861798092723e-05 2.814651234075427055e-03 8.691346272826194763e-03 -8.105385932140052319e-04 9.476593695580959320e-03 -3.499658778309822083e-04 -1.887522405013442039e-03 1.842118101194500923e-03 -1.661794260144233704e-02 5.936704692430794239e-04 -1.764331944286823273e-03 2.870908938348293304e-02 -1.845844235504046082e-04 -3.681814298033714294e-03 3.204543143510818481e-03 -2.231398597359657288e-02 -1.168589573353528976e-02 -9.656875627115368843e-04 -8.180537843145430088e-04 2.800732909236103296e-04 -2.943149884231388569e-04 -2.161642536520957947e-02 7.786768954247236252e-03 -1.070545520633459091e-02 -1.157851610332727432e-02 -1.485589798539876938e-02 5.964258313179016113e-02 -4.693911876529455185e-03 -3.491982445120811462e-02 -2.609686553478240967e-02 -5.405986215919256210e-03 1.278871595859527588e-01 -5.643820855766534805e-03 4.335800986154936254e-05 -3.275787085294723511e-02 -1.453422009944915771e-02 4.178653005510568619e-03 1.519310608273372054e-04 -2.607316942885518074e-03 7.623998820781707764e-02 -2.308725379407405853e-02 6.590808928012847900e-02 -1.859034784138202667e-02 -1.499752700328826904e-02 -7.796759717166423798e-03 4.794353299075737596e-05 1.117146894102916121e-04 -2.794874832034111023e-02 -1.404379494488239288e-03 8.949381858110427856e-02 -3.656383836641907692e-03 -2.954345010221004486e-02 2.590793557465076447e-02 5.359685979783535004e-03 6.106920074671506882e-03 -4.135853052139282227e-02 1.193422172218561172e-02 -1.074786391109228134e-02 6.612329889321699739e-05 -3.371673077344894409e-02 -2.331107243662700057e-04 5.191886448301374912e-04 6.015516817569732666e-03 -2.037687227129936218e-04 1.407383382320404053e-02 -2.029487118124961853e-02 -8.346841059392318130e-05 4.612251650542020798e-03 -1.208667410537600517e-03 -8.875342085957527161e-03 -6.455924361944198608e-03 2.067137742415070534e-03 -2.530841447878628969e-04 -2.922134287655353546e-02 -1.253099273890256882e-02 -1.082737091928720474e-02 3.229874419048428535e-03 -2.900681644678115845e-02 -3.652964252978563309e-03 -2.909431932494044304e-03 2.551057608798146248e-03 1.878008432686328888e-02 -4.253785591572523117e-03 2.624265477061271667e-02 6.429301202297210693e-02 5.032529952586628497e-05 -2.491793036460876465e-02 -1.569558493793010712e-02 4.191069456283003092e-04 9.077906608581542969e-03 3.328372724354267120e-03 -4.271885380148887634e-03 -8.987596258521080017e-03 -1.477662735851481557e-04 2.184306271374225616e-02 7.715441286563873291e-03 1.205722708255052567e-02 -5.816383054479956627e-04 7.639778777956962585e-03 -1.402320060878992081e-02 4.116486757993698120e-03 -1.446426380425691605e-02 2.226570807397365570e-02 -9.465877898037433624e-03 -1.992791146039962769e-02 -1.185976085253059864e-03 -1.234283263329416513e-04 9.121908806264400482e-03 3.677726490423083305e-03 6.158035248517990112e-03 -1.764945127069950104e-02 5.186058115214109421e-04 -1.375131541863083839e-03 6.221973337233066559e-03 2.085578671540133655e-05 -2.850373275578022003e-02 -1.617137715220451355e-02 -4.710756184067577124e-04 1.168907899409532547e-02 -4.890032578259706497e-04 -5.731185665354132652e-04 -1.667015254497528076e-02 -2.299327752552926540e-05 -1.724254898726940155e-02 2.696976531296968460e-03 -3.395519405603408813e-02 -2.858441148418933153e-04 3.114082664251327515e-02 2.810993604362010956e-02 4.013225436210632324e-03 3.705673152580857277e-04 1.255104690790176392e-02 -4.766675992868840694e-04 5.911439191550016403e-03 -6.458010990172624588e-03 -5.481550935655832291e-03 1.221348252147436142e-02 -1.393361389636993408e-02 -2.912780910264700651e-04 -3.309980500489473343e-03 6.811318453401327133e-04 -3.198669105768203735e-02 -2.984713762998580933e-03 -3.945849463343620300e-02 -4.340539220720529556e-03 -1.733460376271978021e-04 4.607828159350901842e-04 -1.768721826374530792e-02 -1.083600707352161407e-02 1.209399010986089706e-02 2.551414072513580322e-02 -1.413297094404697418e-02 -3.858442883938550949e-03 4.952254312229342759e-05 -1.582463085651397705e-02 8.222133852541446686e-03 1.321527233812958002e-04 -1.350842881947755814e-03 -1.234559714794158936e-02 5.231698742136359215e-04 -3.718979714903980494e-04 1.247815089300274849e-04 -3.947590291500091553e-02 -2.186394995078444481e-03 -6.785001140087842941e-03 4.333774093538522720e-03 -1.470206188969314098e-03 3.863100195303559303e-03 6.507528480142354965e-03 1.048308331519365311e-03 1.779916492523625493e-04 -1.077381421055179089e-05 -5.781940417364239693e-04 -7.702240720391273499e-03 -1.419195253401994705e-02 2.031207829713821411e-02 -7.044264581054449081e-03 -1.301382388919591904e-02 7.088565616868436337e-04 -6.574617000296711922e-04 4.519877955317497253e-03 -7.350972155109047890e-04 -5.789006245322525501e-04 1.440431951778009534e-04 2.442551963031291962e-02 3.107847413048148155e-03 2.330847317352890968e-03 -6.279163062572479248e-04 7.407824741676449776e-04 -4.833737853914499283e-03 7.630492094904184341e-03 -5.519314203411340714e-03 -2.356302738189697266e-02 3.519657999277114868e-03 1.538529433310031891e-02 6.078064907342195511e-04 -4.327825736254453659e-04 1.170889288187026978e-01 -1.487485226243734360e-02 -7.919029332697391510e-03 -3.569312021136283875e-02 1.600629650056362152e-02 1.098402542993426323e-03 -5.884863203391432762e-04 -6.999406032264232635e-03 1.331933960318565369e-02 -5.311479908414185047e-04 5.478796665556728840e-04 8.684969507157802582e-04 -6.946812849491834641e-03 -2.365158870816230774e-03 -8.899183012545108795e-03 -2.756253117695450783e-03 6.343943066895008087e-03 -4.147393163293600082e-03 -3.352595376782119274e-04 4.331542644649744034e-03 1.670508831739425659e-02 1.923841983079910278e-02 -1.208390481770038605e-02 -1.383869070559740067e-02 -8.742022328078746796e-03 -2.776108449324965477e-03 -1.214305986650288105e-03 8.242941647768020630e-02 -1.188146229833364487e-02 -2.036308497190475464e-02 6.257693257794016972e-06 3.087572520598769188e-03 -2.755578979849815369e-02 -1.030807034112513065e-03 -1.018452821881510317e-04 -9.755800478160381317e-03 -3.047375567257404327e-02 2.764765173196792603e-03 2.360748313367366791e-02 -1.008412521332502365e-02 -1.735503901727497578e-03 -3.091156017035245895e-03 8.449998567812144756e-04 -3.325785277411341667e-03 -1.451252214610576630e-02 -2.236696192994713783e-03 -2.645968634169548750e-04 -1.473026233725249767e-03 3.450829070061445236e-03 -1.781814062269404531e-04 -1.138158794492483139e-02 -7.231552153825759888e-03 -2.668016531970351934e-04 -6.106232758611440659e-03
