2.495459979400038719e-03 2.993024885654449463e-03 2.211992163211107254e-03 -1.692181378602981567e-01 -1.665669083595275879e+00 1.857802155427634716e-03 4.316419363021850586e-02 2.810265170410275459e-03 2.804571064189076424e-03 7.497228384017944336e-01 -4.485646486282348633e-01 2.252743113785982132e-03 3.391694128513336182e-01 2.154140733182430267e-03 2.490803599357604980e-03 2.300652675330638885e-03 -3.955366015434265137e-01 2.908353228121995926e-03 2.935619354248046875e+00 -3.568055033683776855e-01 2.437643473967909813e-03 2.778097055852413177e-03 2.059777732938528061e-03 2.707927953451871872e-03 -9.450311064720153809e-01 2.355969976633787155e-03 2.492545405402779579e-03 -3.999414145946502686e-01 -1.202185273170471191e+00 -2.800464332103729248e-01 -9.376378655433654785e-01 -1.954142749309539795e-01 2.822764683514833450e-03 -9.870089292526245117e-01 2.086903434246778488e-03 -1.135677918791770935e-01 2.325038425624370575e-03 2.852918207645416260e-01 2.822247333824634552e-03 -2.749244868755340576e-01 2.543028676882386208e-03 -3.645409941673278809e-01 -2.529636025428771973e-01 9.910252410918474197e-04 -2.404661923646926880e-01 -2.176283597946166992e-01 2.358355820178985596e-01 2.800204558297991753e-03 -1.629514396190643311e-01 -5.896248221397399902e-01 2.967531094327569008e-03 2.873071935027837753e-03 -3.065564036369323730e-01 2.606954192742705345e-03 -1.816289305686950684e+00 2.476623747497797012e-03 2.573745325207710266e-03 1.305148452520370483e-01 1.826210995204746723e-03 1.755553181283175945e-03 2.772130072116851807e-02 2.715688645839691162e-01 2.463351236656308174e-03 -5.706393122673034668e-01 5.530856177210807800e-02 2.922009676694869995e-03 3.295041248202323914e-02 -1.446595042943954468e-01 2.422980731353163719e-03 1.924681128002703190e-03 2.711743349209427834e-03 1.157139897346496582e+00 2.551762619987130165e-03 -2.737799584865570068e-01 2.497921464964747429e-03 1.992385135963559151e-03 1.257746815681457520e+00 2.593025332316756248e-03 2.705765962600708008e+00 2.202393021434545517e-03 3.797866776585578918e-02 6.310502290725708008e-01 1.368809724226593971e-03 2.515699947252869606e-03 2.929568290710449219e-03 2.231230260804295540e-03 1.052794381976127625e-01 2.989804605022072792e-03 2.497253939509391785e-03 2.694149268791079521e-03 2.514711581170558929e-03 8.462774753570556641e-02 2.198962727561593056e-03 3.572643399238586426e-01 5.468869209289550781e-02 2.678785473108291626e-03 3.269998729228973389e-01 2.469856524839997292e-03 -2.126499712467193604e-01 5.407304689288139343e-02 2.207946963608264923e-03 1.344738453626632690e-01 -8.207773566246032715e-01 -1.860161066055297852e+00 2.559663727879524231e-03 2.400745870545506477e-03 4.519806802272796631e-02 2.268268959596753120e-03 4.112849757075309753e-02 -1.578088879585266113e+00 2.358289668336510658e-03 -8.038987405598163605e-03 2.634697593748569489e-03 9.214826226234436035e-01 9.585212469100952148e-01 -1.198176860809326172e+00 2.395431278273463249e-03 -3.692739009857177734e-01 -1.179015159606933594e+00 -1.612114906311035156e+00 2.843132242560386658e-03 -1.124194934964179993e-01 2.776628825813531876e-03 1.338718226179480553e-03 3.847293853759765625e-01 2.537135966122150421e-03 9.341077208518981934e-01 -1.309818267822265625e+00 -4.655088484287261963e-01 2.590601099655032158e-03 -2.325571775436401367e-01 2.037896774709224701e-03 2.608762821182608604e-03 2.409162465482950211e-03 1.432690024375915527e+00 2.648194786161184311e-03 -7.473266124725341797e-02 -9.688523411750793457e-01 2.831419697031378746e-03 2.304764930158853531e-03 1.751416595652699471e-03 -1.462003141641616821e-01 8.062679171562194824e-01 2.410443965345621109e-03 1.534703653305768967e-03 2.629373921081423759e-03 2.213453175500035286e-03 2.571622142568230629e-03 -2.764249742031097412e-01 1.190507486462593079e-01 7.148183137178421021e-02 5.091545730829238892e-02 2.502771792933344841e-03 2.822520909830927849e-03 2.931746887043118477e-03 1.607397198677062988e-02 5.533008277416229248e-02 2.992148511111736298e-03 7.358576655387878418e-01 2.530888654291629791e-03 2.900580642744898796e-03 2.966064028441905975e-03 2.653582720085978508e-03 2.880066400393843651e-03 -1.088720679283142090e+00 -3.965055346488952637e-01 1.279052197933197021e-01 2.704599639400839806e-03 3.337069988250732422e+00 2.583410823717713356e-03 -6.144888401031494141e-01 -9.216707348823547363e-01 -1.631198525428771973e+00 1.856055576354265213e-03 -5.946084856986999512e-01 2.188216662034392357e-03 -5.844896435737609863e-01 -6.149675324559211731e-02 -1.642137616872787476e-01 2.464146120473742485e-03 2.514166524633765221e-03 2.839547581970691681e-03 2.258582273498177528e-03 -1.247403144836425781e+00 3.595444560050964355e-02 2.946742475032806396e-01 2.468465594574809074e-03 -1.220140159130096436e-01 2.611107425764203072e-03 2.032124903053045273e-03 2.616436686366796494e-03 -3.812450766563415527e-01 2.913128584623336792e-03 2.560353837907314301e-03 -1.528630495071411133e+00 -9.534008055925369263e-02 2.298056380823254585e-03 -5.329467058181762695e-01 1.092270016670227051e+00 -6.959313750267028809e-01 2.212394028902053833e-03 2.829853678122162819e-03 1.029582619667053223e+00 2.934895688667893410e-03 5.298904329538345337e-02 2.807399490848183632e-03 2.492227824404835701e-03 2.773836487904191017e-03 -5.810007452964782715e-01 4.718722403049468994e-01 2.389823086559772491e-03 2.907689893618226051e-03 2.317911013960838318e-03 3.850125148892402649e-02 -2.579795122146606445e-01 2.459895052015781403e-02 1.054441779851913452e-01 1.105110123753547668e-01 -5.436483398079872131e-02 -3.495817482471466064e-01 2.134279813617467880e-03 2.682682126760482788e-03 -7.586607933044433594e-01 -2.011140346527099609e+00 1.210769861936569214e-01 -3.900444805622100830e-01 5.516334772109985352e-01 1.897026784718036652e-03 2.574698068201541901e-03 2.255901992321014404e-01 -1.454323828220367432e-01 -9.835771918296813965e-01 -9.034724831581115723e-01 2.132836170494556427e-02 2.645789086818695068e-02 1.138680800795555115e-02 4.408530294895172119e-01 -4.149400889873504639e-01 -9.675215482711791992e-01 -1.012786030769348145e-01 -7.133462280035018921e-02 2.316499594599008560e-03 1.883351593278348446e-03 2.983124693855643272e-03 2.591011580079793930e-03 2.573323203250765800e-03 -3.148228645324707031e+00 2.760548144578933716e-03 -4.610116779804229736e-02 2.354831900447607040e-03 1.868734951131045818e-03 3.866905719041824341e-02 1.122143387794494629e+00 2.697287360206246376e-03 -1.851088851690292358e-01 -4.764669239521026611e-01
