-1.386956684291362762e-02 7.288919296115636826e-03 5.709815304726362228e-03 -9.841411374509334564e-04 -3.743872046470642090e-03 -1.704546436667442322e-02 2.547178044915199280e-02 9.349859319627285004e-03 -2.398825250566005707e-02 -4.600382596254348755e-02 1.220776140689849854e-02 2.169838873669505119e-03 -3.137223888188600540e-03 2.321344427764415741e-02 4.793594405055046082e-02 -3.171964362263679504e-02 -6.635330151766538620e-03 -1.319900504313409328e-03 -9.303764440119266510e-03 -2.111248468281701207e-04 -7.833802956156432629e-04 1.155667239800095558e-03 1.393018476665019989e-02 -3.215110395103693008e-03 -5.796253681182861328e-02 -1.067931370926089585e-04 -4.773515276610851288e-03 -1.697284914553165436e-02 6.320666987448930740e-03 2.963417023420333862e-02 2.930832281708717346e-02 4.303779825568199158e-02 -6.868328899145126343e-03 1.708089374005794525e-02 6.528557278215885162e-03 2.526534721255302429e-03 1.794624887406826019e-02 -3.757653757929801941e-02 -9.447982534766197205e-03 -1.111409533768892288e-02 1.464491151273250580e-02 -5.337085574865341187e-03 2.124469960108399391e-03 7.491199765354394913e-03 -1.940586976706981659e-02 2.970281522721052170e-03 -1.020101644098758698e-02 7.202765438705682755e-03 4.418131429702043533e-03 -2.154920808970928192e-02 3.808747045695781708e-03 1.273901201784610748e-02 3.034823574125766754e-02 2.380068041384220123e-02 -1.073722727596759796e-02 -1.153283007442951202e-02 6.656346470117568970e-02 -3.981490805745124817e-02 -6.802635733038187027e-03 -4.238386638462543488e-03 -1.718189334496855736e-03 -1.055345963686704636e-02 2.524145878851413727e-02 -6.295978091657161713e-03 1.958104968070983887e-02 -8.437347598373889923e-03 1.121372822672128677e-02 1.573395356535911560e-02 2.279459265992045403e-03 -1.569344103336334229e-02 -6.619046907871961594e-03 6.969721056520938873e-03 2.242191508412361145e-02 2.593607059679925442e-04 1.551527995616197586e-02 -4.632899910211563110e-02 5.318080075085163116e-04 4.551897197961807251e-02 -6.729275919497013092e-03 2.496328379493206739e-04 1.566276140511035919e-02 -9.729295969009399414e-03 -8.807579986751079559e-03 4.503617528825998306e-04 -8.278854191303253174e-03 -2.764231339097023010e-02 2.386953867971897125e-02 -8.878482505679130554e-03 -2.545344084501266479e-02 -8.063789573498070240e-04 3.396108001470565796e-02 1.028220169246196747e-02 -6.892234086990356445e-03 -1.378743536770343781e-02 2.117699198424816132e-02 -3.334637032821774483e-03 3.655194863677024841e-02 2.065090695396065712e-03 1.039067097008228302e-02 -1.018420234322547913e-02 -2.000860124826431274e-02 8.388727903366088867e-03 -3.084283380303531885e-04 -9.517114609479904175e-03 6.475144997239112854e-03 1.707832142710685730e-02 1.555308420211076736e-02 -1.703563518822193146e-02 5.627196747809648514e-03 -5.396674969233572483e-04 1.502379029989242554e-02 9.730888530611991882e-03 1.019619125872850418e-02 -2.886615134775638580e-02 1.558331400156021118e-02 6.269387085922062397e-04 -2.084404695779085159e-03 -2.818851207848638296e-04 9.036739356815814972e-03 -8.175211958587169647e-03 -3.978524473495781422e-04 1.453541964292526245e-02 -2.943257428705692291e-02 1.031914353370666504e-02 1.688152924180030823e-02 1.792630739510059357e-02 -3.595092892646789551e-02 3.873888403177261353e-03 -1.430265489034354687e-03 -2.055844664573669434e-02 1.041579805314540863e-02 2.482947520911693573e-02 -1.138029340654611588e-02 -2.427506726235151291e-03 4.888868890702724457e-03 1.156501844525337219e-02 -5.205667577683925629e-03 2.436016313731670380e-02 -3.013118915259838104e-02 6.824650918133556843e-04 -5.901911761611700058e-03 -3.724642563611268997e-03 -7.613399997353553772e-03 -1.466698199510574341e-02 1.537296688184142113e-03 3.725287038832902908e-03 -2.981367520987987518e-03 -4.463637713342905045e-03 1.860049553215503693e-02 4.745597019791603088e-03 1.681389845907688141e-02 -1.737888553179800510e-03 -1.200370490550994873e-03 -5.771830677986145020e-03 -3.263654559850692749e-02 1.460366323590278625e-02 -7.754136342555284500e-03 4.739191383123397827e-03 -7.587152533233165741e-03 -8.931583724915981293e-03 -1.678866520524024963e-02 -2.661605551838874817e-02 -2.662077918648719788e-02 1.708946377038955688e-02 1.006418280303478241e-02 1.462584268301725388e-02 1.202560495585203171e-03 -1.474637445062398911e-02 2.634799107909202576e-02 1.813199929893016815e-02 6.919646169990301132e-03 -1.558234356343746185e-02 -6.161791272461414337e-03 -6.809382233768701553e-03 -2.208512974902987480e-03 1.496574468910694122e-02 -1.741969399154186249e-02 1.957274973392486572e-02 -5.981890019029378891e-03 1.946382573805749416e-03 -3.487901063635945320e-03 -1.491224113851785660e-02 -1.183161046355962753e-02 -9.461696259677410126e-03 1.456171041354537010e-03 1.119959820061922073e-02 -3.816714137792587280e-02 1.708697341382503510e-02 -5.130300298333168030e-03 4.968918859958648682e-03 -9.674976579844951630e-03 -4.036599025130271912e-02 -4.803408868610858917e-03 -4.506671801209449768e-03 8.382823318243026733e-03 1.062263455241918564e-02 -4.614959936589002609e-03 1.492018159478902817e-02 -1.228486374020576477e-02 -2.201244793832302094e-02 -2.477691136300563812e-02 2.451977506279945374e-02 -9.619106276659294963e-05 -1.457390375435352325e-02 1.624661497771739960e-02 1.446365471929311752e-02 1.256138645112514496e-02 2.536317892372608185e-02 7.511605042964220047e-03 -4.639201611280441284e-02 -2.766541019082069397e-02 -2.431221492588520050e-02 -1.417042035609483719e-02 -1.899669505655765533e-02 1.799819804728031158e-02 -1.523526571691036224e-02 1.800079271197319031e-02 2.213453315198421478e-02 2.618632465600967407e-02 -1.113094296306371689e-02 2.229636535048484802e-02 1.094599161297082901e-02 1.063966844230890274e-02 -2.381971804425120354e-03 -1.287661958485841751e-02 3.232097253203392029e-02 2.878082729876041412e-02 -2.861937880516052246e-02 4.744958132505416870e-03 4.125491250306367874e-03 4.718571435660123825e-03 -1.984653994441032410e-03 5.175368394702672958e-03 -1.533749513328075409e-02 -3.968069795519113541e-03 -1.223941799253225327e-03 1.177334599196910858e-02 6.485801190137863159e-03 -2.162245102226734161e-02 3.372678905725479126e-02 -1.000201329588890076e-02 2.363012870773673058e-03 5.347022414207458496e-02 -7.532562594860792160e-03 2.578761428594589233e-02 -1.242367830127477646e-02 -8.630123920738697052e-03 1.087957527488470078e-02 1.543845422565937042e-02 -1.072861067950725555e-02 2.307760901749134064e-02 -3.276244271546602249e-03 1.153949764557182789e-03 3.175527974963188171e-02 1.146045234054327011e-02 3.975875675678253174e-02
2.015977725386619568e-02 -3.192678093910217285e-02 1.604744605720043182e-02 -1.067482028156518936e-02 3.272400936111807823e-03 -1.505431067198514938e-02 -5.566042964346706867e-04 -1.591253676451742649e-04 -2.181298658251762390e-02 7.942610420286655426e-03 1.105860341340303421e-02 8.626923896372318268e-03 -3.816359490156173706e-02 -1.885771006345748901e-02 -1.513804774731397629e-02 4.502035677433013916e-02 -6.090225651860237122e-04 9.400959243066608906e-04 5.452379584312438965e-03 -4.845501855015754700e-03 -2.411627769470214844e-02 -1.502641662955284119e-02 2.501262351870536804e-03 -1.531253848224878311e-02 -7.130168378353118896e-03 -2.420528791844844818e-02 3.643923997879028320e-02 2.358647994697093964e-02 -2.111209370195865631e-02 7.425704505294561386e-03 -1.191901043057441711e-02 -2.441960014402866364e-02 4.195600003004074097e-02 -3.479764796793460846e-03 1.357857603579759598e-02 1.258423645049333572e-02 2.645817399024963379e-02 -7.698759436607360840e-03 -2.093435265123844147e-03 1.470678858458995819e-02 3.378101438283920288e-02 1.108461152762174606e-02 -1.735770702362060547e-02 -7.431570440530776978e-03 -2.421728335320949554e-02 1.336986478418111801e-02 3.602869808673858643e-02 -1.265599858015775681e-03 3.609683737158775330e-02 1.018699910491704941e-02 1.733538880944252014e-02 2.860558219254016876e-02 -1.311066281050443649e-02 -3.633450716733932495e-02 3.263141959905624390e-03 3.595251217484474182e-02 -1.276658941060304642e-02 2.224968932569026947e-02 -7.801462896168231964e-03 -2.972410805523395538e-02 7.667309138923883438e-03 -1.387678086757659912e-03 -6.233107764273881912e-03 5.157658830285072327e-02 -1.635093614459037781e-02 -1.870046369731426239e-02 -1.356636732816696167e-02 -2.392169833183288574e-02 9.326965548098087311e-03 -2.809353638440370560e-03 5.526289343833923340e-02 1.030729897320270538e-02 3.551085479557514191e-03 -2.434717118740081787e-02 3.123046271502971649e-02 -1.441343105398118496e-03 2.204654301749542356e-04 3.076493041589856148e-03 -9.606583043932914734e-03 -5.264323204755783081e-03 5.550187453627586365e-02 -3.615716099739074707e-02 1.310662738978862762e-02 -1.211617328226566315e-02 5.045840051025152206e-03 7.599253207445144653e-03 -1.810494624078273773e-02 8.205191232264041901e-03 -1.497444882988929749e-02 -3.005375328939408064e-04 -1.211500074714422226e-02 1.453025382943451405e-03 9.564896114170551300e-03 2.840684828697703779e-05 -1.733506284654140472e-02 1.081690844148397446e-02 -2.587085217237472534e-02 1.618489436805248260e-02 9.087488986551761627e-03 4.252124950289726257e-02 2.329232729971408844e-02 5.527716130018234253e-04 4.141187528148293495e-04 1.547317393124103546e-02 -3.009523265063762665e-02 -9.927147999405860901e-03 -1.578169316053390503e-02 1.263436768203973770e-02 3.259420394897460938e-02 -3.251707879826426506e-03 3.886554623022675514e-03 1.004930492490530014e-02 -1.306182704865932465e-02 3.115352429449558258e-02 2.492077089846134186e-02 6.111070979386568069e-03 -1.309664081782102585e-02 8.878538501448929310e-04 -1.317714154720306396e-02 -1.282430905848741531e-02 -1.722237840294837952e-02 -8.431355672655627131e-05 -2.244641445577144623e-02 -2.133274078369140625e-02 -1.058955769985914230e-02 -7.695791311562061310e-03 -1.837038621306419373e-02 -2.026293426752090454e-02 -1.562368962913751602e-02 2.502347901463508606e-02 -1.434397045522928238e-02 -4.694625735282897949e-03 6.362688541412353516e-02 1.139457244426012039e-02 6.001503672450780869e-03 1.755036599934101105e-02 -3.864922374486923218e-02 -8.887013420462608337e-03 -6.112424307502806187e-04 -6.231317296624183655e-03 -1.871679350733757019e-02 -4.562210757285356522e-03 -6.673154421150684357e-03 4.327335860580205917e-03 1.256925798952579498e-02 3.106462396681308746e-02 -2.131871134042739868e-02 2.207535086199641228e-03 -1.541688106954097748e-02 4.071015864610671997e-03 -1.280538272112607956e-02 -1.856356742791831493e-03 -2.619103156030178070e-02 -6.090729963034391403e-03 8.704340085387229919e-03 1.517931837588548660e-02 -7.912082597613334656e-03 2.105296822264790535e-03 -1.321602426469326019e-02 -1.874923892319202423e-02 -9.589066728949546814e-03 -1.839727722108364105e-02 -5.552467424422502518e-03 1.786074973642826080e-02 3.231525793671607971e-02 -2.214322239160537720e-02 2.198044396936893463e-02 -6.897201295942068100e-03 -1.794034615159034729e-02 -3.720506327226758003e-03 -4.597512073814868927e-03 -3.106680326163768768e-02 3.801327431574463844e-03 -3.536696545779705048e-03 4.283418878912925720e-03 -1.269509550184011459e-02 -2.739614341408014297e-03 -6.481640506535768509e-03 1.874202117323875427e-02 -1.990416646003723145e-02 1.837271265685558319e-02 2.129948697984218597e-02 1.516597927547991276e-03 2.808131277561187744e-02 3.128920868039131165e-02 -2.015712857246398926e-02 -2.509126672521233559e-03 1.890149200335144997e-03 -1.469667814671993256e-02 2.077852189540863037e-02 -2.276093326508998871e-02 9.713970357552170753e-04 4.051167517900466919e-02 -4.760226700454950333e-03 5.859770812094211578e-03 1.795345172286033630e-02 -6.148561835289001465e-03 5.163758178241550922e-04 1.592361740767955780e-02 2.303555142134428024e-03 2.623387798666954041e-02 -8.943944238126277924e-03 6.469506304711103439e-03 9.480211883783340454e-03 -1.080671418458223343e-02 9.525968693196773529e-03 3.331731259822845459e-02 1.282609533518552780e-02 2.922555804252624512e-02 9.739256463944911957e-03 3.223202005028724670e-02 -8.188718929886817932e-03 -7.557267788797616959e-03 -2.735258080065250397e-02 2.166267670691013336e-02 -1.156817888841032982e-03 4.881549254059791565e-02 -1.141525711864233017e-02 -1.803478039801120758e-02 7.009500637650489807e-03 -1.319285109639167786e-02 1.358205080032348633e-02 -3.895154967904090881e-02 -1.848668558523058891e-03 1.750160939991474152e-02 1.465837471187114716e-03 -2.757636457681655884e-02 -1.305516716092824936e-02 1.498936954885721207e-02 1.437053829431533813e-02 7.335356902331113815e-03 8.862928487360477448e-03 2.348464541137218475e-02 6.854281295090913773e-03 1.115445699542760849e-02 4.177181795239448547e-02 3.567470703274011612e-03 -1.827087689889594913e-04 -1.374102756381034851e-02 -8.585180155932903290e-03 2.722606621682643890e-02 1.506576593965291977e-02 -2.327108755707740784e-03 8.897145744413137436e-04 -1.159432064741849899e-02 2.042431570589542389e-02 1.607709797099232674e-03 1.812396571040153503e-03 4.694702569395303726e-03 7.691276725381612778e-03 1.837614458054304123e-03 9.769000113010406494e-03 -7.655911147594451904e-03 1.871700398623943329e-02 -1.519267912954092026e-02 -1.321378909051418304e-02
-1.131870690733194351e-02 -4.824859090149402618e-03 -3.101572580635547638e-02 -3.198652341961860657e-02 -6.244718097150325775e-03 -3.679085988551378250e-03 9.620820172131061554e-03 2.244047448039054871e-02 -9.448168799281120300e-03 1.740974560379981995e-02 9.173171594738960266e-03 -2.264369837939739227e-02 5.124031100422143936e-03 -9.995416738092899323e-03 -3.560893703252077103e-03 -2.618554607033729553e-02 -1.586292125284671783e-02 1.553811971098184586e-02 2.198258787393569946e-02 1.637962087988853455e-02 -2.993437834084033966e-02 -3.539638593792915344e-02 -1.262656878679990768e-02 1.717190444469451904e-02 -1.748361159116029739e-03 2.116602472960948944e-02 1.252589933574199677e-02 -7.171983830630779266e-03 -3.087537363171577454e-02 3.964638337492942810e-03 -1.215603202581405640e-02 1.309674512594938278e-02 1.496579404920339584e-02 1.551737450063228607e-02 -2.063677646219730377e-02 -2.605395764112472534e-02 -1.097457576543092728e-02 -1.308451779186725616e-02 1.388337183743715286e-02 6.222770083695650101e-03 -3.836269956082105637e-03 1.488554012030363083e-02 -1.300610601902008057e-02 -1.213178597390651703e-02 -1.518021896481513977e-02 2.191355824470520020e-02 -4.427930340170860291e-03 3.381394548341631889e-03 3.912785276770591736e-02 -6.159345619380474091e-03 1.411848235875368118e-02 -1.478161569684743881e-02 -7.045037578791379929e-03 1.628185063600540161e-02 2.893415512517094612e-03 -3.361922502517700195e-02 -1.276049856096506119e-02 -1.041832379996776581e-02 1.766818575561046600e-02 -1.855928450822830200e-02 -6.386775523424148560e-03 -1.664227247238159180e-02 -1.083959080278873444e-02 3.742181230336427689e-03 -1.850782334804534912e-02 -3.698723390698432922e-02 -7.023919839411973953e-03 -1.781101454980671406e-03 -1.196066290140151978e-02 -7.572703994810581207e-03 1.538567012175917625e-04 1.720775966532528400e-03 2.578524872660636902e-02 3.122123517096042633e-02 -2.645769156515598297e-02 2.048511616885662079e-02 1.931175065692514181e-04 -7.247189059853553772e-03 9.055147878825664520e-03 2.182944491505622864e-02 -1.917508803308010101e-02 7.202592212706804276e-03 9.306770749390125275e-03 2.345894649624824524e-02 -1.213564723730087280e-02 -1.498634833842515945e-02 -4.704891238361597061e-03 6.547104101628065109e-03 -2.995481528341770172e-02 1.017805421724915504e-03 -6.722504273056983948e-03 1.980753615498542786e-02 7.583206053823232651e-03 6.214864552021026611e-03 7.693227380514144897e-03 -7.115565706044435501e-03 4.680936690419912338e-04 -1.088364701718091965e-02 9.500973857939243317e-03 4.229046404361724854e-03 -1.549552474170923233e-02 -6.388248875737190247e-03 6.099230377003550529e-04 -1.722275465726852417e-02 -2.885925583541393280e-02 -3.782790899276733398e-02 -2.964280545711517334e-02 -8.642542175948619843e-03 -1.957510784268379211e-02 2.273145504295825958e-02 -1.470940094441175461e-02 3.246937692165374756e-02 7.349362131208181381e-03 -3.751412779092788696e-02 1.246273890137672424e-02 2.141050249338150024e-02 -1.435560174286365509e-02 5.302674835547804832e-04 -1.015578024089336395e-02 -2.339139766991138458e-02 8.548161014914512634e-03 -2.434160001575946808e-02 -1.236555632203817368e-02 -9.768298827111721039e-03 -1.922073587775230408e-02 2.940812613815069199e-03 -3.818401694297790527e-02 -2.466634847223758698e-02 1.061128824949264526e-02 -1.255122129805386066e-03 3.426358103752136230e-03 -1.287607382982969284e-02 3.140162676572799683e-02 6.103346589952707291e-03 -4.258105158805847168e-02 1.921202754601836205e-03 7.125679403543472290e-03 7.869017310440540314e-03 6.466143764555454254e-03 -1.519157178699970245e-02 1.970882155001163483e-02 1.468317932449281216e-03 2.280044741928577423e-02 4.253730922937393188e-02 -1.159664988517761230e-02 -5.504356697201728821e-03 2.634561620652675629e-02 1.506877318024635315e-02 -3.226723521947860718e-02 -9.821400046348571777e-03 5.722185596823692322e-03 -5.854933522641658783e-03 -1.286460459232330322e-02 1.746619679033756256e-02 -4.691545292735099792e-02 1.341262180358171463e-02 1.429349835962057114e-02 2.303378097712993622e-02 1.259648613631725311e-02 -9.447582997381687164e-03 -2.761095389723777771e-02 -2.333408221602439880e-02 -2.043939754366874695e-02 -2.677241107448935509e-03 -2.522390522062778473e-02 -8.775175549089908600e-03 1.189987175166606903e-02 -1.466196030378341675e-02 -2.285434864461421967e-02 -3.735966049134731293e-03 2.328453585505485535e-03 -2.058441750705242157e-02 -2.610408328473567963e-02 1.711395196616649628e-02 -1.114889699965715408e-02 -2.966501563787460327e-02 -2.167404629290103912e-03 1.329346094280481339e-02 -1.246532518416643143e-02 9.106487035751342773e-03 -1.350346114486455917e-02 -7.625324651598930359e-03 -1.915283501148223877e-02 -3.741033840924501419e-03 -3.416738007217645645e-03 -2.009448222815990448e-02 -8.590571582317352295e-03 4.152936860918998718e-03 1.533334981650114059e-02 9.178215637803077698e-03 6.638266146183013916e-03 6.229419726878404617e-03 1.584900543093681335e-02 1.986010186374187469e-02 -2.534442581236362457e-02 1.883425749838352203e-02 -2.072842232882976532e-02 -7.311526220291852951e-03 -1.120682340115308762e-02 -1.875879615545272827e-02 -9.599446319043636322e-03 -5.982408300042152405e-03 -3.810977563261985779e-03 3.526299959048628807e-03 -1.829216815531253815e-02 5.478168372064828873e-03 -1.077159680426120758e-02 9.257541969418525696e-03 -8.752290159463882446e-03 -1.905920170247554779e-02 -1.229793671518564224e-02 2.897635661065578461e-02 2.441853471100330353e-02 -2.035241760313510895e-02 2.403711900115013123e-03 1.567482575774192810e-02 -3.388500586152076721e-02 -1.753767579793930054e-02 -1.068643014878034592e-02 7.273734081536531448e-04 -9.478298947215080261e-03 -1.203833427280187607e-02 -1.077784225344657898e-02 -6.237166933715343475e-03 1.265303045511245728e-02 -7.102717645466327667e-03 -2.509377710521221161e-02 -8.131899870932102203e-03 8.062974549829959869e-03 2.223358117043972015e-02 -1.282284781336784363e-02 2.781568909995257854e-04 1.071758102625608444e-02 2.611387986689805984e-03 2.134213456884026527e-03 4.134087637066841125e-02 -1.803510473109781742e-03 -6.773280445486307144e-03 5.922850221395492554e-03 4.855730105191469193e-03 4.318067058920860291e-02 -1.049865782260894775e-02 -3.659193171188235283e-03 8.677896112203598022e-03 -6.539154797792434692e-03 -1.915027014911174774e-02 1.085060089826583862e-02 1.387898810207843781e-02 -6.155570037662982941e-03 -2.894667163491249084e-02 9.852615185081958771e-03 1.067716535180807114e-02 -3.231473267078399658e-02 1.485849823802709579e-02 -8.270645514130592346e-03 -1.409175547451013699e-05
-5.311725195497274399e-03 -9.790262207388877869e-03 -9.888108819723129272e-03 6.962348707020282745e-03 4.995714128017425537e-02 -2.526347292587161064e-03 -1.639609783887863159e-02 -9.637090377509593964e-03 -1.217289362102746964e-02 1.297161914408206940e-02 -8.522352203726768494e-03 -1.476036664098501205e-02 -9.658653289079666138e-04 -2.045088075101375580e-02 -9.374344721436500549e-03 -5.207269452512264252e-03 3.557454049587249756e-02 -1.703838258981704712e-02 -7.201980799436569214e-03 -1.336610130965709686e-02 1.533737126737833023e-02 2.065528929233551025e-02 2.573647536337375641e-03 -1.368925441056489944e-02 7.713173981755971909e-03 -3.005209378898143768e-02 -7.167943986132740974e-04 -2.864471636712551117e-02 3.175131976604461670e-02 4.110095277428627014e-02 -3.291419520974159241e-02 -1.612683199346065521e-02 1.408883742988109589e-02 -9.329652413725852966e-03 -1.613167300820350647e-02 -1.459854003041982651e-02 -1.085785403847694397e-02 1.399806421250104904e-02 -2.270059287548065186e-02 -1.852891757152974606e-03 1.500470214523375034e-03 4.756891354918479919e-02 -1.568166539072990417e-02 4.421904683113098145e-02 -1.621665060520172119e-02 2.524891681969165802e-02 -3.134342655539512634e-02 -1.795394159853458405e-02 -8.530583232641220093e-03 -2.442234754562377930e-02 1.715608313679695129e-02 4.258675873279571533e-02 -1.805384829640388489e-02 -3.699752502143383026e-03 -2.397911436855792999e-02 -1.781723462045192719e-02 -5.355818197131156921e-03 -3.193024918437004089e-02 -2.026457898318767548e-02 1.248854305595159531e-02 -6.767945364117622375e-03 5.687396973371505737e-02 2.994898706674575806e-03 2.715012058615684509e-02 1.208404079079627991e-02 -2.017194591462612152e-02 -1.972085051238536835e-02 3.184410184621810913e-02 6.491054780781269073e-03 -2.648439630866050720e-02 3.193149343132972717e-02 -1.255416870117187500e-02 -1.484942715615034103e-02 4.957882314920425415e-02 -1.200585532933473587e-02 -7.388773374259471893e-04 -5.483542336151003838e-04 -7.148952223360538483e-03 -2.464903704822063446e-02 -2.037006057798862457e-02 3.901687450706958771e-03 1.051972992718219757e-02 7.913278415799140930e-03 -1.440933067351579666e-02 -6.405430380254983902e-03 -4.118507727980613708e-02 -1.165227778255939484e-02 -4.979274235665798187e-03 -6.154493894428014755e-04 8.425816777162253857e-04 -1.814535073935985565e-02 -2.085906686261296272e-03 -5.623741075396537781e-03 -2.384186908602714539e-02 -1.826635748147964478e-02 5.426198616623878479e-02 -8.218824863433837891e-03 -2.457392774522304535e-02 -8.834128384478390217e-04 2.407833933830261230e-02 -2.749990485608577728e-02 1.158066000789403915e-02 -3.362268034834414721e-04 -1.640362851321697235e-02 -2.655575051903724670e-02 -4.377943649888038635e-02 2.383743971586227417e-02 -6.018021143972873688e-03 -5.291961599141359329e-03 -2.055905386805534363e-02 6.342673674225807190e-03 1.278707664459943771e-02 -5.729268305003643036e-03 -4.985653609037399292e-02 1.281932368874549866e-02 -1.372755970805883408e-02 -1.182711403816938400e-02 7.544045802205801010e-04 4.468953609466552734e-02 -6.201523356139659882e-03 -2.014381811022758484e-02 2.773537300527095795e-03 1.715284772217273712e-02 -2.096029743552207947e-02 -1.295049861073493958e-02 2.404257841408252716e-02 -7.183954585343599319e-03 1.978524494916200638e-03 4.360960423946380615e-02 -4.301418364048004150e-02 -2.477831207215785980e-02 -1.724166795611381531e-02 3.208599239587783813e-02 -1.391817815601825714e-02 -1.769035868346691132e-02 -1.542715076357126236e-02 2.517065266147255898e-03 -7.921589538455009460e-03 8.893379941582679749e-03 3.902658447623252869e-02 -1.323389261960983276e-02 4.878069460391998291e-02 1.169257145375013351e-02 6.173293106257915497e-03 3.528606891632080078e-02 -2.125365845859050751e-02 1.887469179928302765e-02 4.545659248833544552e-05 2.062529884278774261e-02 2.957452833652496338e-02 1.817276887595653534e-02 5.181765649467706680e-03 3.029887005686759949e-02 -1.484784483909606934e-02 -2.047405019402503967e-02 6.647015456110239029e-03 -2.134133689105510712e-02 -1.152962259948253632e-02 -1.581606455147266388e-02 -9.880674071609973907e-03 -2.283291891217231750e-02 -3.070417558774352074e-03 -5.283311475068330765e-03 -1.641769707202911377e-02 -1.777210831642150879e-02 -1.126534584909677505e-02 -1.287976838648319244e-02 2.621450275182723999e-02 4.616562277078628540e-03 -8.935914374887943268e-03 2.779647521674633026e-02 9.405551478266716003e-03 -2.048742957413196564e-02 -2.373991906642913818e-02 -1.278596464544534683e-02 2.394296415150165558e-02 -2.032570540904998779e-02 -1.208945177495479584e-03 1.695492828730493784e-04 -9.332379326224327087e-03 -1.240171398967504501e-02 -1.571485586464405060e-02 -3.553048940375447273e-03 -2.910440228879451752e-02 -1.817329972982406616e-02 1.021954976022243500e-02 -3.786747902631759644e-02 -1.355521380901336670e-02 -1.702426001429557800e-02 2.025507949292659760e-02 3.301778435707092285e-02 -3.649148857221007347e-03 -1.274693175218999386e-03 -1.360227819532155991e-02 -1.991466991603374481e-02 1.546891313046216965e-02 -5.523472093045711517e-03 8.750298060476779938e-03 -2.630043961107730865e-02 -1.810157485306262970e-02 -3.519365563988685608e-02 -1.597801782190799713e-02 4.528182744979858398e-02 -2.361136302351951599e-02 -3.890809835866093636e-03 -1.931390352547168732e-02 -7.863246835768222809e-03 -1.027505006641149521e-02 -1.211167429573833942e-03 -4.795727133750915527e-02 -2.150194952264428139e-03 3.519169241189956665e-02 4.067578166723251343e-02 1.054119691252708435e-02 -2.140064537525177002e-02 -2.317274734377861023e-02 -4.548538848757743835e-02 -8.951632305979728699e-03 -7.408618461340665817e-03 -2.189590968191623688e-02 -1.076030917465686798e-02 -1.527937594801187515e-02 9.027792839333415031e-04 -2.031348645687103271e-02 -3.317016875371336937e-03 7.032330147922039032e-03 -1.711746118962764740e-02 2.705221809446811676e-02 -6.595376878976821899e-03 2.166750654578208923e-02 9.309562854468822479e-03 7.694624364376068115e-03 -2.037788741290569305e-02 -4.276686534285545349e-02 4.602169990539550781e-02 -5.439798347651958466e-03 -1.307487301528453827e-02 -1.180678419768810272e-02 -4.279600828886032104e-02 -1.956799626350402832e-02 2.868047729134559631e-02 -2.085121162235736847e-02 -6.954837124794721603e-03 -2.500497177243232727e-02 -1.688246242702007294e-02 1.993034780025482178e-02 -2.098153159022331238e-02 -6.778028793632984161e-03 -1.781727885827422142e-03 3.535101935267448425e-02 -4.620532970875501633e-03 -3.962262347340583801e-02 2.309907414019107819e-02 -1.172833237797021866e-02 -9.641326963901519775e-03 -1.168865710496902466e-02
1.483396068215370178e-02 1.405501388944685459e-03 -1.434749737381935120e-02 -5.190271418541669846e-03 -2.366852946579456329e-03 2.283213194459676743e-03 -3.219515830278396606e-02 -3.590268082916736603e-03 -1.843487727455794811e-03 -9.140715934336185455e-03 -1.198908127844333649e-02 -5.183179862797260284e-03 5.461767781525850296e-03 -1.163230091333389282e-02 -1.630120724439620972e-02 1.326466817408800125e-02 1.887095719575881958e-02 -5.703464848920702934e-04 1.236741058528423309e-02 1.397388521581888199e-02 -7.760887965559959412e-03 -1.120069809257984161e-02 -3.208087058737874031e-03 -1.220960170030593872e-02 -2.480640774592757225e-03 2.241817303001880646e-03 9.442988783121109009e-03 5.584017559885978699e-02 -6.801126059144735336e-03 6.454034894704818726e-02 -4.157684277743101120e-03 8.441474288702011108e-02 -1.382470969110727310e-02 -1.529724802821874619e-02 1.752156205475330353e-02 1.235306495800614357e-03 1.567123341374099255e-03 2.602001838386058807e-02 6.189198233187198639e-03 2.308547496795654297e-02 4.645457956939935684e-03 5.991109181195497513e-03 1.448617898859083652e-03 2.429047785699367523e-02 -2.499908953905105591e-02 -5.709165707230567932e-03 -4.095834083273075521e-05 5.664907861500978470e-03 5.412077903747558594e-02 -3.581503406167030334e-02 -7.940417155623435974e-03 -7.186971488408744335e-04 3.178832121193408966e-03 1.823632977902889252e-02 1.857261545956134796e-02 1.208903384394943714e-03 1.176998019218444824e-02 -1.197758875787258148e-02 6.967749446630477905e-03 -2.661783946678042412e-03 1.705197617411613464e-02 -2.713678777217864990e-02 1.527584251016378403e-02 -1.286299992352724075e-02 -1.417931355535984039e-02 -2.927044173702597618e-03 -1.826761406846344471e-03 -5.550602916628122330e-03 6.494065746665000916e-03 -1.680007949471473694e-02 -1.875986345112323761e-02 2.677899319678544998e-03 7.243474572896957397e-02 7.266922295093536377e-02 -6.754760630428791046e-03 -4.101751744747161865e-02 1.437011640518903732e-03 4.736819863319396973e-02 1.065992750227451324e-02 1.353510003536939621e-02 2.199660427868366241e-02 -1.675456576049327850e-02 -7.305541541427373886e-03 -1.115405745804309845e-02 -3.027821658179163933e-03 4.141642712056636810e-03 -1.101017091423273087e-02 -8.447327651083469391e-03 -5.915489746257662773e-04 3.439288120716810226e-04 -1.384927076287567616e-03 -3.950772807002067566e-03 -1.168084051460027695e-02 1.229653786867856979e-02 -2.117314562201499939e-02 -2.105913311243057251e-02 8.390107192099094391e-03 7.806812413036823273e-03 1.392901176586747169e-03 -8.488343097269535065e-03 -5.369187518954277039e-02 -1.840866915881633759e-02 -2.990849025081843138e-04 3.766134381294250488e-02 -6.694782525300979614e-03 5.997044034302234650e-03 -7.814154960215091705e-03 -7.640783209353685379e-03 1.421522907912731171e-02 1.303454022854566574e-02 4.959708545356988907e-03 6.402334570884704590e-02 -2.272139862179756165e-02 -6.369841843843460083e-02 -1.592190191149711609e-02 -3.003122657537460327e-02 -1.438097096979618073e-03 1.147339498857036233e-04 3.288042172789573669e-02 -1.025235932320356369e-02 -3.103388473391532898e-03 9.582798928022384644e-03 1.338667795062065125e-02 2.069851011037826538e-02 7.319218479096889496e-03 5.452289432287216187e-02 -1.826563477516174316e-02 -2.217372879385948181e-02 -8.542047813534736633e-03 1.345773693174123764e-02 -1.315031759440898895e-02 -7.242641877382993698e-03 7.420303765684366226e-03 -2.758935838937759399e-02 -4.095824901014566422e-03 -6.275466177612543106e-03 1.627136580646038055e-02 -2.581169642508029938e-02 7.413425948470830917e-03 1.268945448100566864e-02 1.386345713399350643e-03 2.395356260240077972e-02 4.216448403894901276e-03 2.389282686635851860e-03 -1.954917330294847488e-03 6.517419125884771347e-03 4.465035628527402878e-03 -4.229042306542396545e-02 -2.850085310637950897e-02 3.374787047505378723e-02 5.517545342445373535e-02 -1.402838993817567825e-02 3.417612612247467041e-02 -4.120430443435907364e-03 -8.975156815722584724e-04 -1.351389382034540176e-02 5.240625701844692230e-03 2.313346602022647858e-02 3.148495685309171677e-03 4.629071801900863647e-03 -1.083581615239381790e-02 -1.441299356520175934e-02 9.813179261982440948e-03 -7.133199367672204971e-03 2.028781920671463013e-02 -1.812694035470485687e-02 -2.291459124535322189e-03 3.529452905058860779e-02 -6.598419509828090668e-03 -1.416018698364496231e-02 -1.298466324806213379e-02 2.521946793422102928e-03 7.121157366782426834e-03 1.519108749926090240e-02 -8.002423564903438091e-04 -1.285581197589635849e-02 -3.857700899243354797e-02 7.786241476424038410e-04 -5.953542422503232956e-03 -1.962616806849837303e-03 3.566811792552471161e-03 -3.903983905911445618e-02 -1.607736572623252869e-02 2.298742532730102539e-03 -1.470650639384984970e-02 -4.238385707139968872e-03 -3.511571884155273438e-02 -1.505721174180507660e-02 -1.105882320553064346e-02 -7.695035077631473541e-03 -9.675517678260803223e-03 -3.813286498188972473e-02 -1.962235383689403534e-02 -3.920928109437227249e-03 -1.838919240981340408e-03 -1.406182441860437393e-02 7.569020241498947144e-02 -1.253592036664485931e-02 -5.388635210692882538e-03 -6.088583264499902725e-03 3.842565417289733887e-02 -1.047905255109071732e-02 3.070502541959285736e-03 2.004424110054969788e-02 -1.437574904412031174e-02 -6.175424903631210327e-03 -1.712145865894854069e-03 5.579984281212091446e-03 -6.129306275397539139e-03 -6.174481287598609924e-02 2.295219525694847107e-02 3.062247997149825096e-03 -1.052127033472061157e-02 1.009229803457856178e-03 1.241101324558258057e-02 1.069200318306684494e-02 -5.585543066263198853e-02 -6.641949876211583614e-04 4.844055045396089554e-03 1.893131993710994720e-02 5.241122562438249588e-03 -1.484889723360538483e-02 2.357290312647819519e-02 -1.290665473788976669e-02 6.096415687352418900e-03 3.086673840880393982e-02 -4.435621085576713085e-04 2.692477405071258545e-02 -7.702636998146772385e-03 -4.252309445291757584e-03 3.480603685602545738e-03 -8.037098683416843414e-03 2.588319964706897736e-02 -1.664591394364833832e-02 -3.217146731913089752e-03 4.571958258748054504e-02 -2.284687571227550507e-02 -3.267807886004447937e-02 -2.029357478022575378e-02 -2.714481204748153687e-02 1.637984625995159149e-02 -3.298920113593339920e-03 -1.546561252325773239e-02 1.289779692888259888e-02 -1.260427664965391159e-02 4.858877509832382202e-02 -2.551046758890151978e-02 -2.576886117458343506e-02 -2.124188281595706940e-02 9.869009256362915039e-03 -5.152012221515178680e-03 2.110672183334827423e-02 -1.431626267731189728e-02 -2.020133286714553833e-02 -1.509057474322617054e-03 1.408350886777043343e-03
3.495911136269569397e-02 4.050723463296890259e-02 7.581341080367565155e-03 8.897108957171440125e-03 -2.272994443774223328e-02 5.127613246440887451e-02 3.692629979923367500e-03 -3.274244023486971855e-03 2.286607213318347931e-02 3.511158376932144165e-02 9.207851253449916840e-03 9.103802964091300964e-03 -1.059497799724340439e-02 -5.550909321755170822e-03 -2.113274112343788147e-02 6.333257257938385010e-02 -1.118328515440225601e-02 -1.379109360277652740e-02 1.085260789841413498e-02 -1.307483855634927750e-02 -7.798234466463327408e-03 -7.460035849362611771e-03 1.333513204008340836e-02 -4.084813874214887619e-03 2.330826222896575928e-02 -9.596936404705047607e-03 -7.408518344163894653e-03 -5.403957888484001160e-02 -6.016075145453214645e-03 -6.475329399108886719e-03 3.072328306734561920e-02 6.292982958257198334e-03 -9.158336557447910309e-03 9.389091283082962036e-03 2.210513316094875336e-02 2.395193837583065033e-02 2.423427626490592957e-02 2.008650684729218483e-03 3.825388848781585693e-03 -3.179349703714251518e-03 8.120510727167129517e-03 8.333140052855014801e-03 -1.365113630890846252e-02 -8.536140434443950653e-03 -1.022047176957130432e-02 1.838201843202114105e-02 -4.263370111584663391e-02 6.842377595603466034e-03 -3.874636813998222351e-02 -3.150153905153274536e-02 1.554239168763160706e-02 3.393429517745971680e-02 -2.921042032539844513e-02 3.925894200801849365e-02 -6.581674679182469845e-04 5.794364213943481445e-02 2.496347529813647270e-03 -3.302612900733947754e-02 -5.922589916735887527e-03 -2.143430337309837341e-02 3.775939345359802246e-02 -1.754622533917427063e-02 -2.368921786546707153e-02 -2.226482890546321869e-02 -2.508836239576339722e-02 -6.389925722032785416e-03 5.660764873027801514e-02 2.159005263820290565e-03 -2.373822964727878571e-02 -3.501063957810401917e-02 -1.897149533033370972e-02 1.033341395668685436e-03 -2.007146552205085754e-02 -2.760183066129684448e-02 3.263476490974426270e-02 3.149401396512985229e-02 -5.762035725638270378e-04 2.066349051892757416e-02 8.284871000796556473e-04 -3.881445387378334999e-03 -1.360131776891648769e-03 6.049634423106908798e-03 4.830109328031539917e-02 -3.485080553218722343e-03 8.984153158962726593e-03 3.805558010935783386e-02 3.537628566846251488e-03 -1.196510158479213715e-03 4.013790283352136612e-03 -4.832741979043930769e-04 5.331627652049064636e-02 -4.200890194624662399e-03 7.905619218945503235e-03 -2.204488730058073997e-03 -8.684839121997356415e-03 -1.545103639364242554e-02 3.268607333302497864e-02 4.045942798256874084e-02 1.497326418757438660e-03 -9.214329533278942108e-03 -3.470795229077339172e-02 1.542069949209690094e-02 3.314960049465298653e-04 4.513160511851310730e-02 -2.524881996214389801e-02 4.821625351905822754e-02 -1.043901871889829636e-02 3.951644612243399024e-05 1.129063870757818222e-02 -3.246231644880026579e-04 -2.704803086817264557e-02 -4.343268647789955139e-02 1.244939677417278290e-02 -5.577158182859420776e-02 2.694281563162803650e-02 3.993084188550710678e-03 -8.127977140247821808e-03 -1.071382779628038406e-03 -8.152788504958152771e-03 -1.033202279359102249e-02 1.434379664715379477e-04 3.603641875088214874e-03 -1.042930409312248230e-02 -2.138854563236236572e-02 2.455143816769123077e-02 -1.529343659058213234e-03 2.484691515564918518e-02 -1.805464620701968670e-03 2.292096614837646484e-03 -5.059045925736427307e-02 6.653897929936647415e-03 1.857801526784896851e-02 4.028243571519851685e-02 -2.022102661430835724e-02 -1.245973911136388779e-02 2.423730306327342987e-02 2.833156101405620575e-02 -1.666549593210220337e-02 3.407320380210876465e-02 -1.435981970280408859e-02 -6.502369418740272522e-03 -1.422919239848852158e-02 4.318872001022100449e-03 -8.455092087388038635e-03 3.688342496752738953e-02 1.547572948038578033e-02 1.777040772140026093e-02 1.623967476189136505e-02 -2.410572778899222612e-04 1.012958213686943054e-02 -3.605889156460762024e-03 2.484118752181529999e-02 -6.927666836418211460e-04 8.740080520510673523e-03 4.096234217286109924e-02 2.363926172256469727e-02 -3.541327896527945995e-04 -1.689539849758148193e-02 -5.926861893385648727e-03 -1.047275215387344360e-02 3.091703169047832489e-02 7.364651188254356384e-03 -1.274113310500979424e-03 1.728788949549198151e-02 2.394861541688442230e-02 3.084823954850435257e-03 1.809151656925678253e-02 -2.921443665400147438e-03 -2.637419849634170532e-02 7.631463464349508286e-03 8.920251391828060150e-03 -8.033979684114456177e-03 3.659924119710922241e-02 -1.447769696824252605e-03 4.698672518134117126e-02 -1.341055706143379211e-02 -2.718568034470081329e-02 3.924004733562469482e-03 -4.690678790211677551e-03 -1.596159860491752625e-02 3.180936723947525024e-02 -3.143351152539253235e-02 2.201107889413833618e-02 -1.017688494175672531e-02 7.970487698912620544e-03 -2.165351994335651398e-02 -2.227479405701160431e-02 5.965533666312694550e-03 1.887926482595503330e-03 1.762204989790916443e-02 4.682464059442281723e-03 1.744627393782138824e-02 -1.225739344954490662e-02 -2.321814186871051788e-03 2.130645886063575745e-02 2.165140956640243530e-02 2.605924941599369049e-02 1.818296872079372406e-02 3.694394975900650024e-02 3.621533885598182678e-02 -4.834337159991264343e-02 7.191233802586793900e-03 -1.414947584271430969e-02 6.166021339595317841e-04 -1.132525410503149033e-02 1.434713881462812424e-02 2.339207567274570465e-02 9.014935232698917389e-03 -1.268836669623851776e-03 -2.170822955667972565e-02 3.708273544907569885e-02 1.986965909600257874e-02 3.154146298766136169e-02 -9.435858577489852905e-03 1.870888099074363708e-02 5.038008675910532475e-04 -1.905835419893264771e-02 2.537905611097812653e-02 -2.146125398576259613e-02 8.130834903568029404e-04 -1.558165624737739563e-02 3.638214245438575745e-02 -1.427172217518091202e-02 2.402914501726627350e-02 3.424918046221137047e-03 3.906877711415290833e-02 4.366515949368476868e-02 -1.233991049230098724e-02 2.308692969381809235e-02 2.091772295534610748e-02 -1.060465257614850998e-02 5.182898044586181641e-02 -2.032793685793876648e-02 -3.699300438165664673e-02 -1.536869443953037262e-02 -3.208593651652336121e-02 2.549372799694538116e-02 -1.882264018058776855e-02 -2.464033663272857666e-02 2.156544942408800125e-03 2.529729530215263367e-02 4.758331179618835449e-02 -8.877794258296489716e-03 -1.548340427689254284e-03 -7.852101698517799377e-03 9.163354523479938507e-03 -4.979441408067941666e-03 9.831301867961883545e-03 -2.119565848261117935e-03 2.446013875305652618e-02 7.197033148258924484e-03 -5.470152571797370911e-02 -4.540388938039541245e-03 -1.046655699610710144e-02 -6.497207563370466232e-03 -3.170263767242431641e-02
-1.373942662030458450e-02 -4.239696636795997620e-02 1.174759119749069214e-02 2.321812883019447327e-02 -1.004704833030700684e-02 -2.660003118216991425e-02 -1.948416605591773987e-02 2.374752610921859741e-02 1.587510295212268829e-02 3.801019117236137390e-02 1.219825074076652527e-02 -3.676897659897804260e-02 -3.316340502351522446e-03 -1.537189120426774025e-03 -3.639581799507141113e-02 3.467488288879394531e-02 -8.552234619855880737e-03 2.901805564761161804e-03 7.384648546576499939e-03 6.736061070114374161e-03 -4.868166055530309677e-03 2.240432891994714737e-03 1.830724254250526428e-02 7.240025792270898819e-03 6.087019294500350952e-02 3.682754468172788620e-04 5.142836365848779678e-03 -2.425706386566162109e-02 3.847655374556779861e-03 -7.786972913891077042e-03 -3.270081430673599243e-02 2.339621540158987045e-03 -1.476155128329992294e-02 4.638561047613620758e-03 -2.887279912829399109e-02 -3.956397622823715210e-02 1.831984706223011017e-02 1.831451989710330963e-02 -1.261998899281024933e-03 7.895778864622116089e-03 2.216294035315513611e-02 6.334232632070779800e-03 -1.089220866560935974e-02 -8.260811446234583855e-04 -6.688545923680067062e-03 -8.203069679439067841e-03 4.192287568002939224e-03 -1.460521016269922256e-02 -1.458680164068937302e-02 6.357800681143999100e-03 -8.016589097678661346e-03 -4.111171234399080276e-03 3.307392820715904236e-03 -1.792836748063564301e-02 3.536751959472894669e-03 -3.370152320712804794e-03 -5.356909707188606262e-02 -1.165060326457023621e-02 9.707883931696414948e-03 1.204344257712364197e-02 -2.595495991408824921e-02 -9.481659159064292908e-03 1.702250540256500244e-02 -1.175492629408836365e-02 4.850441589951515198e-03 1.100353244692087173e-02 -1.760167255997657776e-02 -7.804357446730136871e-04 3.833628445863723755e-02 6.024106405675411224e-04 -1.512068510055541992e-02 3.502889722585678101e-02 -8.008442819118499756e-03 1.238261908292770386e-02 1.078718621283769608e-02 2.082112990319728851e-02 3.728422452695667744e-04 -1.686582528054714203e-02 5.394722800701856613e-03 -4.269794095307588577e-03 8.515632711350917816e-03 -4.346901550889015198e-03 1.793114468455314636e-02 5.182882770895957947e-03 -2.969479374587535858e-02 6.699044257402420044e-03 9.417663328349590302e-03 2.931964024901390076e-02 5.249666981399059296e-03 8.245729259215295315e-04 -3.751635551452636719e-02 1.658199541270732880e-02 2.929961308836936951e-02 8.844454772770404816e-03 -8.165088482201099396e-03 -1.272146496921777725e-02 -2.344422228634357452e-02 1.217265799641609192e-02 2.269664965569972992e-02 -1.872139610350131989e-02 1.932058110833168030e-02 1.522790407761931419e-03 3.158534527756273746e-04 2.487872354686260223e-02 7.173979189246892929e-03 -1.099176518619060516e-02 2.971838461235165596e-03 4.352474212646484375e-02 -3.436326235532760620e-02 2.192782005295157433e-03 2.616534754633903503e-02 -9.703245945274829865e-03 -2.395981363952159882e-02 -9.400330483913421631e-03 4.912056494504213333e-03 -1.104333065450191498e-02 -2.987697906792163849e-02 1.368046156130731106e-03 5.126718897372484207e-03 -2.335978671908378601e-02 -1.384258968755602837e-03 -2.581743057817220688e-03 6.941708270460367203e-03 -1.595855876803398132e-02 -4.012819379568099976e-02 -7.933935150504112244e-03 -3.557508345693349838e-03 1.431403961032629013e-02 5.313821136951446533e-03 -7.839401252567768097e-03 5.440205801278352737e-03 -7.807024288922548294e-03 7.325921673327684402e-03 2.770329080522060394e-02 7.647232618182897568e-03 1.280984189361333847e-02 1.242634840309619904e-02 -2.223022747784852982e-03 -1.216767262667417526e-02 -1.674415310844779015e-03 -6.846521515399217606e-03 -3.790034214034676552e-03 -5.249073728919029236e-03 -1.571681932546198368e-03 1.843827962875366211e-02 6.894804537296295166e-03 2.019369276240468025e-03 -3.136819601058959961e-02 1.889824867248535156e-02 -3.895000088959932327e-03 -9.066992439329624176e-03 1.521136425435543060e-02 7.729139644652605057e-03 1.291603222489356995e-02 1.739985682070255280e-02 5.259105004370212555e-03 3.362622112035751343e-03 2.403748687356710434e-03 1.625425741076469421e-02 -2.621879056096076965e-02 -8.411307819187641144e-03 -3.907031379640102386e-03 -9.402405703440308571e-04 8.713277988135814667e-03 1.359948236495256424e-02 7.633137516677379608e-03 -2.270157262682914734e-02 -5.281011108309030533e-03 -2.176012285053730011e-02 9.784981608390808105e-03 -7.871155394241213799e-04 -3.567419480532407761e-03 -1.554507203400135040e-02 7.357653230428695679e-03 -3.079211339354515076e-02 6.876693107187747955e-03 2.897136099636554718e-02 1.109060179442167282e-02 3.420494124293327332e-02 -1.551782619208097458e-02 -2.833697944879531860e-02 9.365213103592395782e-03 -3.735877200961112976e-02 2.945833606645464897e-03 7.641712203621864319e-03 2.305015455931425095e-03 8.821572992019355297e-04 3.070889040827751160e-03 8.096442557871341705e-03 -4.478006623685359955e-03 1.392657589167356491e-02 8.997363969683647156e-03 -1.575867086648941040e-02 1.382401678711175919e-02 -4.205871000885963440e-02 4.511575680226087570e-03 1.536301802843809128e-02 -6.867287214845418930e-03 -5.361516959965229034e-03 -6.261675152927637100e-03 -2.201182395219802856e-02 -5.414959043264389038e-03 -1.245413813740015030e-02 5.820502992719411850e-03 -2.825523028150200844e-03 1.219482906162738800e-02 1.397392340004444122e-02 1.115140691399574280e-02 2.215485088527202606e-02 8.292471989989280701e-03 3.806135151535272598e-03 1.966324448585510254e-02 -1.947484095580875874e-03 -4.768752492964267731e-03 1.216579414904117584e-02 3.847918007522821426e-03 -6.518694106489419937e-03 -3.780004009604454041e-02 3.260946134105324745e-03 5.018979776650667191e-03 -1.115641091018915176e-02 -1.350009441375732422e-02 1.073440909385681152e-02 2.148948609828948975e-03 -5.845081061124801636e-03 -1.395162940025329590e-02 -4.389415681362152100e-02 1.024743262678384781e-02 2.179884538054466248e-02 -6.174872629344463348e-03 3.486358374357223511e-02 4.243535455316305161e-03 9.583133272826671600e-03 7.076305337250232697e-03 -7.467830553650856018e-03 -1.222721487283706665e-02 -8.454088121652603149e-03 3.159635514020919800e-02 7.520099636167287827e-03 -3.039965219795703888e-02 3.429449396207928658e-03 -1.833163946866989136e-02 -3.619878366589546204e-02 -1.110492274165153503e-03 1.712814118945971131e-04 1.765128341503441334e-03 -2.731985878199338913e-03 6.902839057147502899e-03 1.409295201301574707e-02 2.964124083518981934e-02 4.302433691918849945e-03 1.054272754117846489e-03 1.928908517584204674e-03 -2.587957866489887238e-02 -3.997475653886795044e-02 1.776986988261342049e-03
5.665423348546028137e-03 8.583547547459602356e-03 -5.032647866755723953e-03 -2.021148055791854858e-02 8.042760193347930908e-03 2.071676310151815414e-03 3.511133138090372086e-03 -1.862873136997222900e-02 1.457693055272102356e-02 -2.359241334488615394e-04 -1.332773594185709953e-03 -2.797416038811206818e-02 3.818364441394805908e-02 -2.398855052888393402e-02 -1.886869408190250397e-02 4.031654447317123413e-03 -5.963552743196487427e-03 -3.065678104758262634e-02 3.158362349495291710e-03 -3.135192766785621643e-02 -1.921081356704235077e-02 -1.220431365072727203e-02 5.330153275281190872e-03 -4.650588147342205048e-03 -3.772424068301916122e-03 -3.969183191657066345e-02 -1.626138947904109955e-02 2.793617546558380127e-02 -1.775289140641689301e-02 1.775460503995418549e-02 1.228983746841549873e-03 5.568883381783962250e-03 3.499996289610862732e-02 1.922831172123551369e-03 -1.060327794402837753e-02 -1.675002649426460266e-02 1.360234152525663376e-02 -2.566244639456272125e-02 -3.070442238822579384e-03 2.499771071597933769e-03 6.955577060580253601e-03 -5.057617556303739548e-03 -3.132449090480804443e-02 -9.058415889739990234e-03 -1.559203304350376129e-02 -2.133926562964916229e-02 3.190469741821289062e-02 9.054723195731639862e-03 6.854247301816940308e-03 -2.427345607429742813e-03 -2.271801047027111053e-02 -1.554316654801368713e-02 -3.629560023546218872e-02 4.011444002389907837e-02 -2.165821846574544907e-03 -2.736437506973743439e-02 5.262984894216060638e-03 6.638701073825359344e-03 -3.852694109082221985e-02 -1.920859515666961670e-02 9.536227211356163025e-03 -8.342156186699867249e-03 -2.164452336728572845e-02 4.689410701394081116e-02 -5.355849862098693848e-03 2.796312980353832245e-02 2.099461480975151062e-02 2.424761094152927399e-02 -1.211959030479192734e-02 -2.331698313355445862e-02 5.212483182549476624e-02 -1.723030954599380493e-02 2.708349749445915222e-02 -2.085319720208644867e-02 2.187305688858032227e-02 1.243285182863473892e-02 -2.480152761563658714e-04 1.000264659523963928e-02 7.496699108742177486e-04 -4.282122012227773666e-03 2.440474927425384521e-02 3.580374270677566528e-02 3.426963835954666138e-02 -1.391008030623197556e-02 -2.004118449985980988e-02 -1.403651293367147446e-02 6.800218485295772552e-03 -5.451668053865432739e-03 -1.345191150903701782e-02 1.486342080170288682e-04 2.203700877726078033e-02 1.012970576994121075e-03 -2.689642831683158875e-03 4.971871618181467056e-03 -1.366334967315196991e-02 2.350160066271200776e-04 3.580548614263534546e-02 2.019815146923065186e-02 4.905292764306068420e-03 3.596607223153114319e-02 2.517729438841342926e-02 1.479137968271970749e-02 -1.849374530138447881e-04 1.200711820274591446e-02 4.082631692290306091e-02 1.046840008348226547e-02 -1.436165906488895416e-02 -9.789082221686840057e-03 -3.839345881715416908e-04 -3.984806127846240997e-03 -9.504287503659725189e-03 3.195405239239335060e-03 1.808090321719646454e-02 1.013551745563745499e-02 -6.855022162199020386e-03 -5.441357847303152084e-03 -2.438257262110710144e-02 -1.324409822700545192e-04 -1.365147065371274948e-02 -1.274149771779775620e-02 1.368778012692928314e-02 -1.387386117130517960e-02 -2.009689249098300934e-02 -4.179466515779495239e-02 -7.227391470223665237e-03 -9.841453284025192261e-04 1.334909629076719284e-02 -2.231222204864025116e-02 2.298058383166790009e-02 2.262415364384651184e-02 -9.588756598532199860e-03 2.084532380104064941e-02 -7.322188466787338257e-02 -9.127628989517688751e-03 1.606394164264202118e-02 1.797633431851863861e-02 3.532771393656730652e-02 -1.445593405514955521e-02 -3.000622801482677460e-02 -9.263758547604084015e-03 -3.263476118445396423e-02 -1.469528861343860626e-02 -2.359260339289903641e-03 -3.016027063131332397e-02 -1.221901737153530121e-02 2.289542742073535919e-02 2.279740944504737854e-02 9.441514499485492706e-03 -1.658848300576210022e-02 1.896286197006702423e-02 -4.286884330213069916e-03 4.337535239756107330e-03 -3.039695508778095245e-02 7.041606586426496506e-03 -2.116376534104347229e-02 -5.521490238606929779e-03 6.355899386107921600e-03 -2.566018328070640564e-02 -2.126326598227024078e-02 -2.820817753672599792e-02 -1.049620658159255981e-02 -6.116063334047794342e-03 -2.694997563958168030e-02 1.168408989906311035e-02 2.218439429998397827e-02 -6.902546621859073639e-03 1.298388000577688217e-02 -2.449917607009410858e-02 2.048709429800510406e-03 3.173759439960122108e-03 -3.674818144645541906e-04 -1.952283829450607300e-02 -3.492470365017652512e-03 -2.564147813245654106e-03 2.224586438387632370e-03 -9.890352375805377960e-03 -6.622969638556241989e-03 9.716154076159000397e-03 -1.446753554046154022e-02 -3.635789081454277039e-02 4.820822272449731827e-03 2.679134253412485123e-03 -3.198638791218400002e-03 2.892488613724708557e-02 2.437264844775199890e-02 -8.910251781344413757e-03 -1.160077471286058426e-02 -3.223025938495993614e-03 -1.324803335592150688e-03 -2.098968811333179474e-02 2.060725539922714233e-02 1.203143596649169922e-02 1.459434069693088531e-02 -9.856406832113862038e-04 -1.309638936072587967e-02 -1.868317089974880219e-02 -5.858158692717552185e-04 6.360711529850959778e-03 1.759673841297626495e-02 1.314495597034692764e-02 2.370385080575942993e-02 -1.029385812580585480e-02 -5.448945797979831696e-03 -2.246821764856576920e-03 -1.598363369703292847e-02 7.718917448073625565e-03 1.320469938218593597e-02 4.795578308403491974e-03 -5.385379306972026825e-03 6.375212222337722778e-03 2.385008847340941429e-03 1.405767747201025486e-03 -7.957742549479007721e-03 -1.866858452558517456e-02 1.361338980495929718e-02 1.336616929620504379e-03 -3.028583154082298279e-02 6.255957763642072678e-03 -3.162847459316253662e-02 -1.413564430549740791e-03 -2.772397734224796295e-02 3.451645001769065857e-02 -9.510421194136142731e-03 1.218456961214542389e-02 1.887975260615348816e-02 3.418641909956932068e-02 1.808684319257736206e-02 -2.395842224359512329e-02 -9.533941745758056641e-03 -1.836271956562995911e-02 -3.132362663745880127e-02 1.450605690479278564e-02 2.131120674312114716e-02 -1.811769441701471806e-03 -1.865802449174225330e-03 -6.323199486359953880e-04 9.923078119754791260e-03 4.355906974524259567e-03 -2.783511765301227570e-02 -3.250603796914219856e-03 -3.542364016175270081e-02 2.229150198400020599e-02 2.734601264819502831e-03 3.063382115215063095e-03 -6.857198663055896759e-03 -6.858278531581163406e-03 -2.911061793565750122e-02 9.561358951032161713e-03 1.213068515062332153e-02 -2.845302037894725800e-02 1.425392553210258484e-02 2.926323749125003815e-02 -2.717592287808656693e-03 -1.550320535898208618e-02 -3.314844146370887756e-02 -1.278259512037038803e-02
2.236546948552131653e-03 -8.162326179444789886e-03 3.607968613505363464e-02 -1.533246692270040512e-02 5.049810744822025299e-03 -2.644991502165794373e-02 -1.929691806435585022e-02 -2.175934426486492157e-02 7.088571786880493164e-03 -4.413859918713569641e-02 -1.516749989241361618e-02 1.830793172121047974e-02 -8.552828803658485413e-03 -3.530985210090875626e-03 -1.207555178552865982e-02 1.122452225536108017e-02 2.890581032261252403e-03 2.007764950394630432e-02 -6.837405380792915821e-04 1.172018703073263168e-02 2.183556323871016502e-03 4.566639661788940430e-03 3.441977128386497498e-02 2.101047337055206299e-02 -5.633719731122255325e-03 6.088149733841419220e-03 1.920051313936710358e-02 -1.968023553490638733e-02 1.034371647983789444e-02 6.128285545855760574e-03 -1.271085254848003387e-02 -2.511525526642799377e-03 2.907116152346134186e-02 -2.096038870513439178e-02 1.535408548079431057e-03 1.780212111771106720e-02 -3.925880009774118662e-04 -1.989952847361564636e-02 1.465228293091058731e-02 2.030482701957225800e-02 8.696423901710659266e-05 -1.430694852024316788e-02 -4.255817271769046783e-03 5.547438748180866241e-03 -1.567077264189720154e-02 -5.038732197135686874e-03 -2.648089081048965454e-02 2.671134285628795624e-02 -1.437710691243410110e-02 -3.077783621847629547e-02 4.404744599014520645e-03 2.077098190784454346e-02 -1.180488709360361099e-02 8.503434248268604279e-03 1.503714360296726227e-02 3.128262702375650406e-03 1.000142423436045647e-03 -1.694257929921150208e-02 7.168196607381105423e-03 -1.733471080660820007e-02 -6.083222571760416031e-03 -1.791196316480636597e-02 -7.457160390913486481e-03 1.773793809115886688e-02 -9.310802444815635681e-03 3.799467533826828003e-02 -3.091977350413799286e-02 8.626392111182212830e-03 -5.035443464294075966e-04 -2.346359938383102417e-02 2.083262428641319275e-02 -8.686295710504055023e-03 -8.870493620634078979e-03 1.956004649400711060e-02 6.371542811393737793e-03 -2.376303076744079590e-02 3.350699553266167641e-04 -8.187628351151943207e-03 2.019847184419631958e-02 1.283887214958667755e-02 -3.706841496750712395e-03 -7.378430105745792389e-03 -2.496049553155899048e-02 2.267979644238948822e-02 1.824988238513469696e-02 -1.656732708215713501e-02 8.406082168221473694e-03 -8.987459354102611542e-03 -4.598753061145544052e-03 5.547188920900225639e-04 -8.372589014470577240e-03 -1.614380627870559692e-02 -1.510115060955286026e-02 1.604974456131458282e-02 -1.019861642271280289e-02 2.800572547130286694e-04 9.700356051325798035e-03 -1.735490188002586365e-02 -9.182075969874858856e-03 2.018810249865055084e-02 -3.081884980201721191e-02 3.886158391833305359e-02 -3.955366555601358414e-04 -1.826347410678863525e-02 3.193882852792739868e-02 4.942704457789659500e-03 1.061536659108242020e-05 -1.849529682658612728e-03 6.696743424981832504e-03 1.422058325260877609e-02 3.742872504517436028e-03 1.650068163871765137e-02 1.472484413534402847e-02 -1.426059938967227936e-02 1.014569401741027832e-02 1.020562928169965744e-02 1.720793545246124268e-02 -7.366870995610952377e-04 5.490710027515888214e-03 3.067530691623687744e-03 1.902084797620773315e-02 -1.787755638360977173e-02 -1.183260977268218994e-02 -2.775700064375996590e-03 4.578159656375646591e-03 -5.091219674795866013e-03 6.489495281130075455e-03 9.933973196893930435e-04 1.110855257138609886e-03 -3.010568395256996155e-02 -2.391361445188522339e-02 -1.934484578669071198e-02 -3.505586087703704834e-02 -2.786058187484741211e-02 4.334430024027824402e-02 -9.694776497781276703e-03 2.186957513913512230e-03 -7.033947389572858810e-03 -3.863096982240676880e-02 2.789725782349705696e-03 1.323663536459207535e-02 5.802935920655727386e-03 -2.366411313414573669e-02 -3.667774423956871033e-02 2.969370409846305847e-02 -1.673103123903274536e-02 -1.295918039977550507e-02 -1.574951037764549255e-02 1.385255996137857437e-02 -2.014120668172836304e-02 -8.908458985388278961e-03 3.877458721399307251e-02 -3.823696752078831196e-04 -3.288697451353073120e-03 1.081515196710824966e-02 1.223851833492517471e-02 1.604438014328479767e-02 1.263692323118448257e-02 1.876136474311351776e-02 1.087121851742267609e-02 1.091725658625364304e-03 -1.599597744643688202e-02 7.900998927652835846e-03 -1.847524754703044891e-02 -1.406998652964830399e-02 -1.188898808322846889e-03 1.383709255605936050e-02 -1.561190583743155003e-03 -2.076982520520687103e-02 -7.366454228758811951e-03 2.072638832032680511e-02 -1.245577726513147354e-02 7.196786347776651382e-03 1.739828102290630341e-02 -1.012440770864486694e-02 1.233787043020129204e-03 -2.923650108277797699e-02 -5.008671432733535767e-03 -5.181246437132358551e-03 1.465091574937105179e-02 5.334109067916870117e-03 -3.218295052647590637e-02 -7.496199104934930801e-03 -2.727191150188446045e-02 -2.151927724480628967e-02 -1.902818866074085236e-02 -3.390083461999893188e-02 -1.500027719885110855e-02 1.758984662592411041e-02 4.590858239680528641e-03 -2.755711553618311882e-03 -1.359265483915805817e-02 1.249303016811609268e-02 1.218975707888603210e-02 1.614378020167350769e-02 6.105842185206711292e-04 4.123975057154893875e-03 3.428262472152709961e-02 -1.998258009552955627e-02 -1.557804923504590988e-02 -2.091179974377155304e-02 -8.361917920410633087e-03 8.820745162665843964e-03 1.440447196364402771e-02 -1.100469194352626801e-02 -1.864670962095260620e-02 -1.462186337448656559e-03 -9.347192011773586273e-03 2.848775824531912804e-03 -3.457472845911979675e-02 -1.222325675189495087e-02 -1.298626977950334549e-02 -2.149112336337566376e-02 -9.078829549252986908e-03 -1.458169054239988327e-02 1.501977629959583282e-02 2.417004434391856194e-03 -2.735514426603913307e-03 -1.615275396034121513e-03 1.508574467152357101e-02 -4.614036064594984055e-03 -1.794598065316677094e-02 -3.551787510514259338e-02 -2.274638414382934570e-02 1.647662743926048279e-02 1.436254708096385002e-03 -8.107732050120830536e-03 -3.108762204647064209e-02 -2.550156414508819580e-02 -3.561813617125153542e-03 2.026549540460109711e-02 1.614868408069014549e-03 -2.052747085690498352e-02 -3.606870025396347046e-02 1.653236104175448418e-03 -1.895343698561191559e-02 -1.661047525703907013e-02 -1.477624662220478058e-02 -4.012003913521766663e-02 -1.812508516013622284e-02 -5.347761884331703186e-02 -1.941042765974998474e-02 -1.103518623858690262e-02 1.345572341233491898e-02 7.716056425124406815e-03 1.765333698131144047e-03 9.533684700727462769e-03 -1.828596740961074829e-02 -8.518006652593612671e-03 2.953570149838924408e-02 -1.281895767897367477e-02 -2.315228432416915894e-02 3.326960140839219093e-03 1.926586404442787170e-02 2.238726243376731873e-03 -1.766020245850086212e-02
-4.867053125053644180e-03 5.218124715611338615e-04 2.206656336784362793e-02 -4.143925383687019348e-02 4.179079458117485046e-02 -4.897227510809898376e-03 4.530202131718397141e-03 6.978220306336879730e-03 -4.860599525272846222e-03 -6.520905997604131699e-03 4.141787998378276825e-03 3.702068468555808067e-03 -6.802571937441825867e-03 3.148874500766396523e-03 -1.476182974874973297e-02 1.982645504176616669e-02 -1.944742351770401001e-02 -3.630201565101742744e-03 -1.963157393038272858e-02 9.570721536874771118e-03 -3.594093397259712219e-02 -4.325478151440620422e-02 1.798534020781517029e-02 -1.838220196077600121e-04 1.911941450089216232e-03 3.182426095008850098e-02 -1.793566346168518066e-02 2.490108087658882141e-02 -4.349426925182342529e-02 3.094725869596004486e-02 1.849487237632274628e-02 1.372242905199527740e-02 -4.512873291969299316e-02 5.735000129789113998e-03 5.803471431136131287e-03 7.314991671591997147e-03 8.048845455050468445e-03 -1.580130495131015778e-02 -1.825119741261005402e-02 -1.895819231867790222e-02 -4.081286315340548754e-04 1.535070501267910004e-02 -1.921760290861129761e-02 -1.483204215764999390e-02 -1.625901646912097931e-02 -3.943812102079391479e-03 1.182826608419418335e-02 -1.761417649686336517e-02 2.001717686653137207e-02 -1.391645427793264389e-02 4.934485070407390594e-03 2.701936103403568268e-02 -1.298068743199110031e-02 -3.130103694275021553e-03 -1.688456907868385315e-02 9.126104414463043213e-03 -3.061865083873271942e-02 1.771197840571403503e-02 1.098460238426923752e-02 -3.197428211569786072e-02 -5.173633806407451630e-03 7.376208901405334473e-02 -9.033584967255592346e-03 -4.485666379332542419e-02 -3.034131973981857300e-02 2.471528574824333191e-02 1.066091936081647873e-03 3.286683186888694763e-02 -5.135013256222009659e-03 -1.543970778584480286e-02 -4.977510124444961548e-02 7.534496486186981201e-03 2.811440639197826385e-02 5.240171682089567184e-03 1.365440990775823593e-02 1.886118575930595398e-02 6.758938543498516083e-04 -1.395552977919578552e-02 -1.630049385130405426e-02 -1.685707829892635345e-02 9.979027090594172478e-04 -2.209063386544585228e-03 -4.825555253773927689e-03 3.072963096201419830e-03 -4.754155874252319336e-03 3.539093583822250366e-02 1.876213471405208111e-03 -3.571712877601385117e-03 -2.619320340454578400e-02 -5.190398078411817551e-04 -5.401067901402711868e-03 -2.461311873048543930e-03 3.291376400738954544e-03 -2.176038175821304321e-02 8.453229442238807678e-03 4.219325259327888489e-02 -6.890958640724420547e-03 1.756696030497550964e-02 -1.001662225462496281e-03 -3.721703961491584778e-02 -6.058598868548870087e-03 2.234961465001106262e-02 9.126314398599788547e-05 1.641491241753101349e-02 4.878248553723096848e-03 3.385017067193984985e-02 -4.589202627539634705e-02 -1.023541204631328583e-03 -2.088814415037631989e-02 -1.256870850920677185e-02 -5.372257903218269348e-03 1.438018586486577988e-02 7.244753651320934296e-03 2.218748629093170166e-02 1.341109257191419601e-02 -7.403132971376180649e-03 -1.914608408696949482e-03 -7.322491146624088287e-04 -4.179991316050291061e-03 -2.082406543195247650e-02 -8.908782154321670532e-03 -3.933205455541610718e-02 -2.100891992449760437e-02 -8.773447014391422272e-03 1.413178746588528156e-03 4.813833162188529968e-02 7.095091976225376129e-03 -3.967686370015144348e-02 3.285198286175727844e-02 2.585417218506336212e-02 2.206760831177234650e-02 -2.551653655245900154e-03 -9.825170971453189850e-03 -2.929660258814692497e-03 2.380919642746448517e-02 1.152753923088312149e-02 -5.375407170504331589e-03 -4.201033618301153183e-03 -2.018436044454574585e-02 -1.425710786134004593e-02 8.339037187397480011e-03 3.618770092725753784e-02 -1.516843400895595551e-02 -2.793353423476219177e-02 2.257193811237812042e-02 9.047792293131351471e-03 -5.692200269550085068e-03 1.905756257474422455e-02 -5.076380446553230286e-02 -3.385401889681816101e-02 5.380206555128097534e-02 2.038219757378101349e-02 -7.445999421179294586e-03 -1.077893469482660294e-02 1.055022329092025757e-02 9.312797337770462036e-03 -1.724630594253540039e-02 3.924190998077392578e-03 5.645746830850839615e-03 -4.832011647522449493e-03 1.762947998940944672e-02 -1.096656545996665955e-02 3.195489756762981415e-03 1.077849976718425751e-02 -2.389266621321439743e-03 4.300430882722139359e-03 -8.822157979011535645e-03 -1.347513869404792786e-02 -3.224920853972434998e-02 9.709143079817295074e-03 1.904325932264328003e-02 -2.657182514667510986e-02 9.660560637712478638e-03 -2.135694399476051331e-02 4.543441347777843475e-03 -4.682938754558563232e-02 -1.352124288678169250e-02 -4.673573654145002365e-03 1.912181149236857891e-03 2.104158047586679459e-03 -5.720774643123149872e-04 -2.387418225407600403e-02 -4.118206445127725601e-03 7.643846794962882996e-03 3.061581170186400414e-03 -3.950546681880950928e-02 -1.221336424350738525e-03 1.065231394022703171e-02 5.461472901515662670e-04 1.446687616407871246e-02 2.052109688520431519e-02 1.736097410321235657e-02 -4.821255803108215332e-02 -3.316459711641073227e-03 1.122516859322786331e-02 1.312739495187997818e-02 5.595300346612930298e-03 2.309999614953994751e-02 7.866971194744110107e-03 1.826209248974919319e-03 2.395073696970939636e-02 6.911997683346271515e-03 4.132529348134994507e-02 -1.678831130266189575e-02 -3.913840651512145996e-02 2.012236043810844421e-02 8.347034454345703125e-03 4.203999880701303482e-03 1.948495744727551937e-03 3.619698062539100647e-02 -3.452559933066368103e-03 -7.498176768422126770e-03 1.067935861647129059e-02 -2.281061001121997833e-02 2.393955178558826447e-02 -2.701850235462188721e-02 2.994908764958381653e-02 -1.639507152140140533e-02 -2.182498387992382050e-02 -1.531847100704908371e-02 -2.416130341589450836e-02 8.087338937912136316e-05 -3.641828149557113647e-02 -2.351679606363177299e-03 -2.397415786981582642e-02 -1.894186995923519135e-02 -2.768962876871228218e-03 -2.767701819539070129e-02 6.569774355739355087e-03 -5.251856055110692978e-03 -1.788164861500263214e-02 1.684142462909221649e-02 2.283704280853271484e-02 1.895445398986339569e-02 4.390236735343933105e-02 1.704466715455055237e-02 5.277281627058982849e-03 -1.050278171896934509e-02 1.829982362687587738e-02 4.088215995579957962e-03 -1.313300989568233490e-02 3.651126520708203316e-03 -1.883398182690143585e-02 -1.826857030391693115e-02 6.332003045827150345e-03 -1.612010039389133453e-02 -2.058260375633835793e-03 6.669513531960546970e-04 -1.954372040927410126e-02 2.689888142049312592e-02 -1.908990787342190742e-03 3.379998356103897095e-02 -4.775164648890495300e-02 -1.885114610195159912e-02 -1.112167350947856903e-02 -2.055470831692218781e-02
-1.071422174572944641e-02 5.951976869255304337e-03 3.841828089207410812e-03 -8.462861180305480957e-02 1.405671145766973495e-02 1.232368499040603638e-02 2.494879625737667084e-02 1.791202696040272713e-03 2.347959578037261963e-02 -1.674058474600315094e-02 1.707919128239154816e-02 3.404865507036447525e-03 -1.047873217612504959e-02 3.008612617850303650e-02 1.838953420519828796e-02 -2.132488600909709930e-02 2.821371704339981079e-02 -4.722720012068748474e-03 1.378729939460754395e-03 9.019225835800170898e-03 1.154768839478492737e-02 -3.067324403673410416e-03 -8.465170976705849171e-04 -9.794887155294418335e-04 -1.896102726459503174e-02 -2.323108958080410957e-03 3.293972928076982498e-03 1.031275745481252670e-02 1.479608844965696335e-02 8.142263628542423248e-03 2.666319534182548523e-02 -3.582268580794334412e-02 -5.358458030968904495e-03 1.265323348343372345e-02 1.052028732374310493e-03 1.762359775602817535e-02 1.091559883207082748e-02 -4.323245491832494736e-03 1.948689296841621399e-02 -8.868372999131679535e-03 1.376944221556186676e-02 -8.973931893706321716e-03 -3.699257224798202515e-02 3.086044825613498688e-02 -4.037823155522346497e-02 -2.128726104274392128e-03 -1.093116588890552521e-02 1.574929244816303253e-02 -2.317520417273044586e-02 -3.425896167755126953e-02 -1.923988014459609985e-02 -3.134407103061676025e-02 -2.408948726952075958e-02 -2.854276262223720551e-02 2.380575425922870636e-02 1.739578694105148315e-02 -2.643936313688755035e-02 -4.192367661744356155e-03 -2.116673858836293221e-03 1.798103004693984985e-02 -5.522510968148708344e-03 -9.733800776302814484e-03 1.817395351827144623e-02 5.389358382672071457e-03 1.435520127415657043e-02 2.467458834871649742e-03 -1.489965431392192841e-02 -2.318746782839298248e-02 1.779660768806934357e-02 -3.085824660956859589e-02 5.160034634172916412e-03 1.030613575130701065e-02 -2.830907329916954041e-02 5.036876071244478226e-03 1.949295029044151306e-02 2.442082203924655914e-02 1.028568716719746590e-03 -1.665350422263145447e-02 1.525354944169521332e-02 4.916194826364517212e-03 -5.580187775194644928e-03 -8.248930796980857849e-03 1.312603894621133804e-02 -1.163394562900066376e-02 4.080890677869319916e-03 -6.464174948632717133e-03 2.261884137988090515e-02 2.323832735419273376e-02 -2.121400646865367889e-02 -5.657882138621062040e-05 8.596103638410568237e-03 1.609794422984123230e-02 2.338961698114871979e-02 1.518422365188598633e-02 3.173587098717689514e-02 8.609575219452381134e-03 1.688926853239536285e-02 -1.376479491591453552e-02 1.341644953936338425e-02 1.118999905884265900e-02 -2.866496518254280090e-02 -3.972304984927177429e-03 3.117985324934124947e-04 -2.466911450028419495e-02 -1.388199068605899811e-02 1.396945328451693058e-03 8.251194842159748077e-03 2.665851451456546783e-02 -1.543000340461730957e-02 4.957822151482105255e-03 2.075314894318580627e-02 4.381908569484949112e-03 4.119324963539838791e-03 6.757573224604129791e-03 -2.635917626321315765e-02 6.229816470295190811e-03 7.893789559602737427e-03 1.302745658904314041e-04 3.143303096294403076e-02 -2.369083836674690247e-02 8.366159163415431976e-03 -5.718649923801422119e-02 1.365804020315408707e-02 -2.531868405640125275e-02 -7.978078909218311310e-03 1.146077550947666168e-02 5.729008466005325317e-03 -5.269066244363784790e-02 -2.948206290602684021e-02 -1.117947977036237717e-02 2.522454783320426941e-02 2.498434856534004211e-03 -6.952115334570407867e-03 -1.616432331502437592e-02 3.107141936197876930e-03 1.013498939573764801e-02 -1.863814704120159149e-02 2.025870047509670258e-02 -7.435662671923637390e-03 2.978936396539211273e-02 -1.461500488221645355e-02 2.701727673411369324e-02 -4.962445702403783798e-03 -1.031937915831804276e-02 -4.156929627060890198e-02 -1.059138495475053787e-02 -3.785962611436843872e-02 4.698294773697853088e-02 -1.636422798037528992e-02 7.538611069321632385e-03 1.128402631729841232e-02 -5.853443406522274017e-03 3.567512705922126770e-02 1.263848040252923965e-02 4.876094753853976727e-04 -1.725836656987667084e-02 9.042445570230484009e-03 7.045781239867210388e-03 -1.049035228788852692e-03 -8.787240833044052124e-03 -5.355486646294593811e-03 -3.228530520573258400e-03 7.110196631401777267e-03 -3.477108664810657501e-03 -2.012080512940883636e-02 3.718141093850135803e-02 3.562389407306909561e-03 2.551810629665851593e-02 2.041974663734436035e-02 2.565941773355007172e-02 -1.312259212136268616e-02 -2.768723425106145442e-05 -2.127458155155181885e-02 8.653489872813224792e-03 1.432589069008827209e-02 -3.269917564466595650e-03 -4.012254253029823303e-02 1.503223925828933716e-02 3.303818032145500183e-02 -1.819797232747077942e-02 4.516016691923141479e-03 -3.473304584622383118e-02 2.705942839384078979e-02 -1.650413312017917633e-02 -6.828467827290296555e-03 -9.440316935069859028e-04 -1.441240496933460236e-02 3.090443275868892670e-02 1.361749717034399509e-03 -2.211460843682289124e-02 -1.845699921250343323e-02 3.423041105270385742e-02 -8.288133889436721802e-03 -3.589290194213390350e-03 1.838100515305995941e-02 -2.500132098793983459e-02 -3.647245094180107117e-02 -2.718189032748341560e-03 -2.311529032886028290e-02 -2.199316024780273438e-02 6.886123213917016983e-03 3.621937334537506104e-02 1.698083244264125824e-02 2.403197064995765686e-02 -3.825059533119201660e-02 -2.038273029029369354e-03 1.632939465343952179e-02 -7.500876090489327908e-04 3.035061433911323547e-02 1.981739420443773270e-03 -1.513785310089588165e-02 -6.077561061829328537e-03 3.247486660256981850e-03 2.039219066500663757e-02 -1.411064714193344116e-02 2.365010231733322144e-02 2.256473153829574585e-02 -3.033167123794555664e-02 -3.601243346929550171e-02 2.584905549883842468e-02 -3.125280514359474182e-02 9.175310842692852020e-04 -2.226057834923267365e-02 -4.110937938094139099e-02 1.085662748664617538e-02 -8.436297997832298279e-03 -8.414096664637327194e-04 2.915489953011274338e-03 2.079669944941997528e-02 -6.708268541842699051e-03 -9.129120409488677979e-02 1.121657248586416245e-02 -6.993039976805448532e-03 -2.284662611782550812e-02 5.413224920630455017e-03 -1.877372711896896362e-02 3.543852642178535461e-02 -5.187375843524932861e-02 -1.422946713864803314e-02 2.950847521424293518e-02 -4.264621809124946594e-02 -3.897739574313163757e-03 2.418219670653343201e-02 2.478228136897087097e-02 3.101307898759841919e-02 -1.027349475771188736e-02 9.689948521554470062e-03 1.771246269345283508e-02 -3.226718306541442871e-02 -5.220087990164756775e-02 1.158174965530633926e-02 -1.252056844532489777e-02 -8.817696943879127502e-03 -5.480552092194557190e-03 3.719592641573399305e-04 -3.133178502321243286e-02
2.408237569034099579e-02 -3.740202262997627258e-02 -9.525950066745281219e-03 3.321675956249237061e-02 3.118862211704254150e-02 -3.905060887336730957e-02 -9.338679723441600800e-03 2.709129359573125839e-03 -3.341024741530418396e-02 -1.514845620840787888e-02 7.699498441070318222e-03 -2.656217198818922043e-03 1.760531961917877197e-02 -3.462169691920280457e-02 -2.652776613831520081e-02 2.344439923763275146e-02 -1.219299994409084320e-02 1.081942580640316010e-02 1.161425840109586716e-02 8.158086799085140228e-03 4.433067049831151962e-03 1.044616103172302246e-02 -3.912039473652839661e-02 -4.001989436801522970e-04 -1.932197809219360352e-02 9.746341034770011902e-03 2.212761342525482178e-02 -5.569148436188697815e-02 1.416729204356670380e-02 -1.162808667868375778e-02 -1.602238975465297699e-02 -2.225675620138645172e-02 4.859802429564297199e-04 -2.803002716973423958e-03 2.294980175793170929e-02 1.897020731121301651e-03 1.887686923146247864e-02 -1.858278736472129822e-02 1.120668184012174606e-02 2.313720807433128357e-02 1.954735256731510162e-02 -3.151515126228332520e-02 -2.464666031301021576e-02 -2.731916029006242752e-04 -6.979844998568296432e-03 -5.747477710247039795e-02 -2.615823037922382355e-02 -4.386028274893760681e-03 9.940838441252708435e-03 -2.295575104653835297e-02 -3.180959448218345642e-02 -4.947096481919288635e-02 -2.686777710914611816e-02 -1.049502193927764893e-02 1.431448198854923248e-02 1.400250382721424103e-02 -2.108697779476642609e-03 -1.868312247097492218e-02 9.754406288266181946e-03 -1.793565414845943451e-02 1.465861219912767410e-02 4.113789647817611694e-02 -1.175970397889614105e-02 -8.650434203445911407e-03 -1.272027264349162579e-03 5.336502566933631897e-03 1.015228591859340668e-02 -6.996728479862213135e-03 -2.534432522952556610e-02 -3.278277069330215454e-02 -1.235268451273441315e-02 4.850351251661777496e-03 -6.484585814177989960e-03 -1.908728480339050293e-02 3.065468557178974152e-02 -2.144582197070121765e-02 1.320124138146638870e-04 1.069427747279405594e-02 9.393499232828617096e-03 9.863031096756458282e-03 2.727349661290645599e-02 -4.580080043524503708e-03 -9.015932679176330566e-03 9.848440997302532196e-03 2.485218457877635956e-03 4.381088074296712875e-03 -2.756958827376365662e-02 -2.920884639024734497e-03 2.022011205554008484e-02 5.194912591832689941e-05 -2.204477787017822266e-02 6.282554473727941513e-03 -1.338201342150568962e-03 1.550908014178276062e-02 -1.541636791080236435e-02 3.644893318414688110e-02 -4.612419381737709045e-02 3.202091157436370850e-02 6.227701902389526367e-03 1.306523336097598076e-03 -1.476921141147613525e-02 -3.906749933958053589e-02 -1.643677824176847935e-04 2.303224056959152222e-02 1.461146457586437464e-04 6.218488793820142746e-03 7.522455416619777679e-03 -1.102993823587894440e-02 1.114547904580831528e-02 1.076396275311708450e-02 -3.194648597855120897e-04 -1.731433160603046417e-02 -1.390250306576490402e-02 -2.158880420029163361e-02 -3.267404809594154358e-02 2.715687500312924385e-03 -5.497387144714593887e-03 1.177913509309291840e-03 -8.240916213253512979e-05 -5.469392985105514526e-03 3.880402306094765663e-03 3.992114961147308350e-02 -2.636364847421646118e-02 -2.788624912500381470e-02 5.085428245365619659e-03 -6.583805661648511887e-03 7.268738467246294022e-03 1.305661909282207489e-02 -8.311033248901367188e-03 -4.002951458096504211e-02 -1.022222079336643219e-02 2.424765005707740784e-02 -2.290182514116168022e-03 4.855265840888023376e-03 -3.760680789127945900e-03 1.460000593215227127e-02 -1.963527686893939972e-02 -1.611050777137279510e-02 5.496534984558820724e-03 -4.590304102748632431e-03 1.015677209943532944e-02 1.243484206497669220e-02 2.534827915951609612e-03 4.900936409831047058e-02 -3.497656062245368958e-02 2.662689983844757080e-02 1.171514764428138733e-02 -1.462352275848388672e-02 2.438040822744369507e-02 -3.279867023229598999e-02 -9.221908636391162872e-03 -4.014341905713081360e-02 1.817911746911704540e-03 5.180156789720058441e-03 1.452517043799161911e-02 -4.060294106602668762e-02 9.365310892462730408e-03 1.286209188401699066e-02 7.258107420057058334e-03 -2.479643626429606229e-05 4.928403068333864212e-03 1.036550849676132202e-02 2.042321430053561926e-04 3.361531719565391541e-02 3.193388879299163818e-02 -4.602317139506340027e-02 1.440457906574010849e-02 -1.821104064583778381e-02 -3.595999674871563911e-03 -1.542219053953886032e-02 -3.546182811260223389e-02 -1.795760006643831730e-03 1.619032397866249084e-02 1.568778045475482941e-02 -3.938714042305946350e-03 1.320244558155536652e-02 -1.249425765126943588e-02 -8.480585180222988129e-03 -1.486989110708236694e-02 1.329660764895379543e-03 1.881864853203296661e-02 -1.896953210234642029e-02 6.368558853864669800e-03 1.476502045989036560e-03 2.695554494857788086e-02 7.424587849527597427e-03 -2.560692094266414642e-02 -2.892425749450922012e-03 7.270256173796951771e-04 -2.966454811394214630e-02 -3.084446676075458527e-02 -1.506213564425706863e-02 -1.497432030737400055e-02 8.498751558363437653e-03 9.792207274585962296e-04 -2.316889539361000061e-02 -5.705444607883691788e-03 -3.428821265697479248e-02 4.137995094060897827e-02 3.186168521642684937e-02 -4.845676198601722717e-02 -2.624138444662094116e-02 2.010624855756759644e-02 1.560086663812398911e-02 -2.329007163643836975e-02 2.580041065812110901e-02 1.747649535536766052e-02 2.057091705501079559e-02 6.967969238758087158e-03 -1.164268236607313156e-02 2.428849972784519196e-02 -6.198496744036674500e-02 -1.576833799481391907e-02 -1.751052029430866241e-02 3.223928809165954590e-02 7.584592793136835098e-03 -6.449648644775152206e-03 4.040513653308153152e-03 -1.892837882041931152e-02 1.437679678201675415e-02 -2.071810513734817505e-02 2.796056494116783142e-02 7.965213619172573090e-03 3.353422880172729492e-02 2.670256886631250381e-03 -7.427019532769918442e-03 -1.068518683314323425e-02 -1.814367808401584625e-02 6.534394808113574982e-03 -5.418772995471954346e-02 3.754693269729614258e-02 -4.221733659505844116e-02 -7.412934210151433945e-03 -2.799882367253303528e-02 3.089039400219917297e-02 4.479756113141775131e-03 -1.105091068893671036e-02 1.028014626353979111e-02 -2.756984159350395203e-02 -1.836032792925834656e-02 2.192276157438755035e-02 2.693442255258560181e-02 -1.297497469931840897e-02 8.445245213806629181e-03 -2.074970863759517670e-02 -3.919831942766904831e-03 -2.637245634105056524e-04 -1.080268179066479206e-03 3.718546032905578613e-02 -2.171838283538818359e-02 1.279753819108009338e-02 -2.515431679785251617e-02 1.837964728474617004e-02 -1.381492428481578827e-02 -2.655953913927078247e-02 -8.692656643688678741e-03
3.034776775166392326e-03 -3.379124682396650314e-03 -1.130929123610258102e-02 -1.227763388305902481e-02 -1.300873700529336929e-03 -1.509467372670769691e-03 -9.262479841709136963e-03 -4.659437574446201324e-03 4.318097606301307678e-03 1.030052825808525085e-02 -3.942068200558423996e-03 -5.740557331591844559e-03 -2.895408309996128082e-03 -2.064127242192625999e-03 -5.246813409030437469e-03 1.297926530241966248e-02 4.414891358464956284e-03 -1.982440240681171417e-03 -4.322521854192018509e-03 -3.168664174154400826e-03 7.536745979450643063e-04 -1.323995413258671761e-03 -4.481445532292127609e-03 -6.538663525134325027e-03 2.779717789962887764e-03 -6.349974777549505234e-03 -6.945641362108290195e-04 -3.120550652965903282e-03 -9.914969559758901596e-04 6.299351342022418976e-03 -6.363136693835258484e-03 4.006579052656888962e-03 -9.485679678618907928e-03 -7.810188923031091690e-03 -1.704374677501618862e-03 -5.406206939369440079e-03 -4.499118076637387276e-04 1.160194352269172668e-02 -6.136370822787284851e-03 -1.600040821358561516e-03 3.269135253503918648e-03 -3.343899268656969070e-03 -5.147365154698491096e-04 5.993653088808059692e-03 -7.597134914249181747e-03 2.330325311049818993e-03 -4.442949313670396805e-03 -7.178680505603551865e-03 7.439093664288520813e-03 -4.832357633858919144e-03 3.134270373266190290e-04 5.949590355157852173e-03 4.504286684095859528e-03 -3.142252797260880470e-03 -6.059351377189159393e-03 1.683441363275051117e-02 -2.614412922412157059e-03 -5.048672668635845184e-03 -2.738232025876641273e-03 6.095802411437034607e-03 -4.386238288134336472e-04 -1.028874795883893967e-02 2.013467485085129738e-03 -2.022640313953161240e-03 1.904530334286391735e-03 8.458839729428291321e-04 9.076228016056120396e-04 -2.843283116817474365e-03 4.682317376136779785e-03 1.885927049443125725e-04 -3.986822906881570816e-03 1.636768807657063007e-03 2.331891097128391266e-03 1.168350130319595337e-02 3.590287873521447182e-03 -1.659286441281437874e-03 1.921980765473563224e-05 5.534992087632417679e-03 -8.983582258224487305e-03 -8.562875911593437195e-03 7.077582995407283306e-04 -9.034053422510623932e-03 -5.073802545666694641e-03 -6.869933567941188812e-03 -6.837327033281326294e-03 -5.046510137617588043e-03 -7.461105939000844955e-03 -1.716170343570411205e-03 -2.012773882597684860e-03 1.580764073878526688e-04 -2.781832823529839516e-03 -4.936717450618743896e-03 -3.400253830477595329e-03 -6.353852804750204086e-03 -6.728956941515207291e-03 -6.668257527053356171e-03 -3.163733985275030136e-03 -2.381039550527930260e-03 -2.519716974347829819e-03 -7.481393404304981232e-03 -1.067307125777006149e-02 1.162974513135850430e-03 -6.953381234779953957e-04 2.914118347689509392e-03 9.907541796565055847e-03 -2.223822521045804024e-03 5.418061045929789543e-04 4.164568148553371429e-03 -2.583364490419626236e-03 -6.459154654294252396e-03 -3.072812105529010296e-04 8.599011227488517761e-03 -1.001971494406461716e-02 -4.564705304801464081e-03 7.279692683368921280e-03 -7.172519341111183167e-03 -2.473968779668211937e-03 2.346337423659861088e-04 6.961326580494642258e-03 -7.737379986792802811e-03 -9.854516945779323578e-03 -1.028364989906549454e-02 7.177052553743124008e-03 1.910533523187041283e-03 -1.548451138660311699e-03 2.196144545450806618e-03 1.472138613462448120e-02 -7.944679819047451019e-03 -5.113836377859115601e-04 -5.374022293835878372e-03 -5.372628103941679001e-03 -2.852109260857105255e-03 -2.925933571532368660e-03 -2.968239365145564079e-03 2.595745958387851715e-03 -4.462901037186384201e-03 -1.220896141603589058e-03 -6.134817376732826233e-03 1.522435713559389114e-02 4.732733592391014099e-03 -7.329350337386131287e-03 -2.091980073601007462e-03 -8.017078973352909088e-03 5.562015809118747711e-03 1.107117906212806702e-02 -2.381404163315892220e-03 -7.821917533874511719e-03 -9.157334570772945881e-04 -5.518300458788871765e-03 1.397413946688175201e-02 -1.128508243709802628e-03 -4.240625072270631790e-03 2.878201892599463463e-03 -5.580865312367677689e-03 1.682670414447784424e-02 5.370846483856439590e-03 -7.596433628350496292e-03 -4.306007642298936844e-03 -7.110464386641979218e-03 -7.210473529994487762e-03 -4.133607260882854462e-03 -1.983744790777564049e-03 1.515643554739654064e-03 -7.677673827856779099e-03 3.132195910438895226e-03 -2.953831804916262627e-03 -8.951164782047271729e-03 6.476513575762510300e-03 -1.033810316585004330e-03 -5.416580475866794586e-03 -5.384571850299835205e-03 4.054053861182183027e-04 2.804078394547104836e-03 -5.609014071524143219e-03 -1.376042608171701431e-03 1.753393560647964478e-03 -1.482555060647428036e-03 -5.791977979242801666e-03 3.915958572179079056e-03 -6.333097815513610840e-03 -2.470748731866478920e-03 -1.018994953483343124e-03 -5.056827329099178314e-03 -3.619645722210407257e-03 -7.995940744876861572e-03 3.014033194631338120e-03 -7.726895157247781754e-03 -4.904742818325757980e-03 -8.515529334545135498e-03 -1.320257200859487057e-03 -5.906845442950725555e-03 -1.986902439966797829e-03 -7.184166926890611649e-03 -7.315242197364568710e-03 -5.452134646475315094e-03 1.133298967033624649e-03 7.552265189588069916e-03 -3.343199146911501884e-03 -6.401231046766042709e-03 -5.468699149787425995e-03 -4.426771309226751328e-03 -3.867577994242310524e-03 -4.552949685603380203e-03 -4.868769086897373199e-03 -2.537539461627602577e-03 -8.912898600101470947e-03 -3.171903546899557114e-03 -4.011282231658697128e-03 9.814738295972347260e-04 -8.037206716835498810e-03 8.120145648717880249e-03 3.932967665605247021e-04 -5.221350584179162979e-03 5.587030667811632156e-03 -8.556514047086238861e-03 -5.861264187842607498e-03 -3.723246336448937654e-04 -8.429858833551406860e-03 9.788291063159704208e-04 -4.911735653877258301e-03 4.854903090745210648e-04 -6.164699327200651169e-03 8.380671963095664978e-03 -7.650766056030988693e-03 -7.003265433013439178e-03 4.666194785386323929e-03 -2.781647490337491035e-03 1.382697280496358871e-02 -1.603917567990720272e-03 2.528090495616197586e-03 -7.046578917652368546e-03 -6.029835902154445648e-03 -4.590202588587999344e-03 -5.878692492842674255e-03 -6.103616673499345779e-03 5.590115208178758621e-03 -3.460237989202141762e-03 -9.794652462005615234e-03 -6.635875906795263290e-03 -8.739860728383064270e-03 4.429166670888662338e-03 -2.348917070776224136e-03 -5.397578701376914978e-03 -7.890947163105010986e-03 -5.228573922067880630e-03 1.058036834001541138e-02 -6.676108110696077347e-03 -6.806738208979368210e-03 -5.572389345616102219e-03 -3.856795374304056168e-03 -6.714247632771730423e-03 -4.278069827705621719e-03 -2.916633617132902145e-03 -4.862570669502019882e-03 -1.048455364070832729e-03 2.009861869737505913e-03
