-3.002702724188566208e-03
-3.001371398568153381e-03
-3.002730198204517365e-03
5.179104954004287720e-02
1.460242271423339844e+00
-3.002734621986746788e-03
1.798900246620178223e+00
-3.002685029059648514e-03
-3.002625890076160431e-03
1.711975216865539551e+00
8.426610231399536133e-01
-3.002726705744862556e-03
9.465183019638061523e-01
-3.002742538228631020e-03
-3.002731828019022942e-03
-3.002736950293183327e-03
1.279817461967468262e+00
-3.002526937052607536e-03
2.750930190086364746e-01
1.180311799049377441e+00
-3.002295037731528282e-03
-3.002544632181525230e-03
-3.001003060489892960e-03
-3.002712270244956017e-03
1.234978318214416504e+00
-3.002592828124761581e-03
-3.000693861395120621e-03
1.006854653358459473e+00
1.399653434753417969e+00
1.814631104469299316e+00
5.996729731559753418e-01
-5.152942612767219543e-02
-3.002584446221590042e-03
8.942960500717163086e-01
-3.002736484631896019e-03
9.534146189689636230e-01
-3.002367448061704636e-03
1.413648247718811035e+00
-3.002414945513010025e-03
1.288031101226806641e+00
-3.002082929015159607e-03
1.745934605598449707e+00
1.156922459602355957e+00
-3.002745565026998520e-03
1.771286725997924805e+00
1.753661155700683594e+00
1.286870718002319336e+00
-3.002702025696635246e-03
5.213820934295654297e-01
8.990302681922912598e-01
-3.001475008204579353e-03
-3.002670593559741974e-03
9.622720479965209961e-01
-3.002685960382223129e-03
-4.039030969142913818e-01
-3.002695972099900246e-03
-3.002666635438799858e-03
1.546985149383544922e+00
-3.002732526510953903e-03
-3.002740675583481789e-03
8.275572657585144043e-01
1.227716326713562012e+00
-3.002723446115851402e-03
1.257602334022521973e+00
5.307605862617492676e-01
-3.002624493092298508e-03
-3.250694274902343750e-01
1.248281836509704590e+00
-2.994114765897393227e-03
-3.002742305397987366e-03
-3.002702724188566208e-03
1.705574631690979004e+00
-3.002728801220655441e-03
3.878750652074813843e-02
-3.002211684361100197e-03
-3.002730663865804672e-03
7.078068852424621582e-01
-3.002711106091737747e-03
1.445615053176879883e+00
-3.002729034051299095e-03
1.089595317840576172e+00
1.719993829727172852e+00
-3.002742771059274673e-03
-3.002561861649155617e-03
-3.002378856763243675e-03
-3.002735087648034096e-03
8.215065002441406250e-01
-3.001538105309009552e-03
-3.002692013978958130e-03
-3.002677112817764282e-03
-3.002708079293370247e-03
1.481906294822692871e+00
-3.002733457833528519e-03
1.746781587600708008e+00
1.666079163551330566e+00
-3.002568613737821579e-03
8.369800448417663574e-01
-3.002728335559368134e-03
1.589691638946533203e+00
4.362632036209106445e-01
-3.002729266881942749e-03
6.276684403419494629e-01
1.712556004524230957e+00
6.362350583076477051e-01
-3.002688754349946976e-03
-3.002722049131989479e-03
1.070888400077819824e+00
-3.002739977091550827e-03
1.706078648567199707e+00
-7.151929736137390137e-01
-3.002702724188566208e-03
-3.670778870582580566e-01
-3.002722747623920441e-03
1.239437341690063477e+00
1.203910470008850098e+00
1.888844966888427734e+00
-3.002699464559555054e-03
7.042126059532165527e-01
9.158613085746765137e-01
1.220468401908874512e+00
-3.002675250172615051e-03
5.933809280395507812e-01
-2.991411834955215454e-03
-3.002744633704423904e-03
9.935168027877807617e-01
-3.002732759341597557e-03
1.229177594184875488e+00
1.589219570159912109e+00
1.446526885032653809e+00
-3.002721583470702171e-03
1.750129103660583496e+00
-3.002743003889918327e-03
-3.002158366143703461e-03
-3.002726705744862556e-03
1.855769991874694824e+00
-3.002725075930356979e-03
1.633481979370117188e+00
5.210400819778442383e-01
-3.002504585310816765e-03
-3.002733457833528519e-03
-3.002740442752838135e-03
8.722403645515441895e-01
7.291356325149536133e-01
-3.002695739269256592e-03
-3.000422613695263863e-03
-3.002726705744862556e-03
-3.002725541591644287e-03
-3.002730663865804672e-03
1.887385487556457520e+00
1.736773967742919922e+00
9.228866696357727051e-01
1.452509880065917969e+00
-3.001078031957149506e-03
-3.002619137987494469e-03
-3.001631237566471100e-03
1.931357502937316895e+00
7.151537537574768066e-01
-3.001764649525284767e-03
1.203948736190795898e+00
-3.002719720825552940e-03
-3.002500860020518303e-03
-3.002349752932786942e-03
-3.002720884978771210e-03
-3.002512035891413689e-03
1.292878031730651855e+00
9.964125156402587891e-01
1.826211571693420410e+00
-2.998487092554569244e-03
1.333895683288574219e+00
-3.002713667228817940e-03
2.946615591645240784e-02
1.650344491004943848e+00
8.135769367218017578e-01
-3.002742538228631020e-03
6.884611845016479492e-01
-3.002724144607782364e-03
-2.149808406829833984e-02
8.951317071914672852e-01
1.222382307052612305e+00
-3.002730896696448326e-03
-3.002488519996404648e-03
-3.002638695761561394e-03
-3.002731828019022942e-03
1.895835995674133301e+00
1.372965097427368164e+00
8.708509206771850586e-01
-3.002727637067437172e-03
1.281391263008117676e+00
-3.002721350640058517e-03
-3.002241719514131546e-03
-3.002267796546220779e-03
1.822457790374755859e+00
-3.002138808369636536e-03
-3.002719255164265633e-03
2.929893732070922852e-01
8.374360799789428711e-01
-3.002333920449018478e-03
9.266875386238098145e-01
-2.879070639610290527e-01
1.522306561470031738e+00
-3.002714598551392555e-03
-2.998460317030549049e-03
1.290623784065246582e+00
-3.002599114552140236e-03
1.837998986244201660e+00
-3.002576297149062157e-03
-3.002726705744862556e-03
-3.002652898430824280e-03
4.231341481208801270e-01
6.427462697029113770e-01
-3.002732759341597557e-03
-3.002582117915153503e-03
-3.002729965373873711e-03
8.677536845207214355e-01
1.638638615608215332e+00
6.505125761032104492e-01
4.246352910995483398e-01
-1.556950956583023071e-01
1.236344099044799805e+00
1.310854554176330566e+00
-3.002707613632082939e-03
-3.002658253535628319e-03
1.249520182609558105e+00
1.611563801765441895e+00
4.121030867099761963e-01
1.003745794296264648e+00
-2.343665361404418945e-01
-3.002739977091550827e-03
-3.002728102728724480e-03
1.441382527351379395e+00
1.507862210273742676e+00
9.515421986579895020e-01
-1.064573414623737335e-02
1.631569027900695801e+00
1.098378658294677734e+00
1.210454702377319336e+00
1.736677765846252441e+00
1.461404085159301758e+00
1.822354197502136230e+00
4.396054446697235107e-01
5.406722426414489746e-02
-3.002739045768976212e-03
-3.002724377438426018e-03
-3.001526230946183205e-03
-3.002718789502978325e-03
-3.002725774422287941e-03
-2.492503970861434937e-01
-3.002667101100087166e-03
1.873425602912902832e+00
-3.002713667228817940e-03
-3.002731828019022942e-03
1.226953148841857910e+00
1.815977811813354492e+00
-3.002709476277232170e-03
7.215542197227478027e-01
8.309486508369445801e-01
