-3.002699231728911400e-03
-3.001173026859760284e-03
-3.002720419317483902e-03
-2.237330563366413116e-02
3.784584105014801025e-01
-3.002733457833528519e-03
3.014807224273681641e+00
-3.002667566761374474e-03
-3.002627287060022354e-03
-6.789878476411104202e-03
1.239649653434753418e+00
-3.002720186486840248e-03
1.232713222503662109e+00
-3.002739977091550827e-03
-3.002727869898080826e-03
-3.002734854817390442e-03
-2.788560152053833008e+00
-3.002487355843186378e-03
-2.792940378189086914e+00
-1.879693865776062012e-01
-3.001959528774023056e-03
-3.002478508278727531e-03
-3.001641482114791870e-03
-3.002704121172428131e-03
-2.987869977951049805e+00
-3.002505516633391380e-03
-2.999480580911040306e-03
-2.187834024429321289e+00
1.352644324302673340e+00
-6.889138221740722656e-01
-1.979694962501525879e-01
4.240090370178222656e+00
-3.002492943778634071e-03
4.764407873153686523e-02
-3.002736251801252365e-03
2.879566907882690430e+00
-3.002139739692211151e-03
-5.415174365043640137e-01
-3.002475947141647339e-03
-2.362960204482078552e-02
-3.002267796546220779e-03
-6.364065408706665039e-01
5.556246757507324219e+00
-3.002745099365711212e-03
-1.245245411992073059e-01
3.961084127426147461e+00
3.489944219589233398e+00
-3.002691315487027168e-03
2.655538320541381836e+00
-1.974466592073440552e-01
-3.001390723511576653e-03
-3.002658020704984665e-03
4.647056102752685547e+00
-3.002644283697009087e-03
1.176578283309936523e+00
-3.002692246809601784e-03
-3.002654062584042549e-03
2.437697172164916992e+00
-3.002727404236793518e-03
-3.002736717462539673e-03
5.618513822555541992e-01
2.788458824157714844e+00
-3.002721350640058517e-03
3.509003639221191406e+00
4.429914057254791260e-03
-3.002600278705358505e-03
3.872524261474609375e+00
-1.408360302448272705e-01
-3.000350901857018471e-03
-3.002740209922194481e-03
-3.002692479640245438e-03
1.634376198053359985e-01
-3.002724610269069672e-03
-6.496726870536804199e-01
-3.002444049343466759e-03
-3.002732526510953903e-03
-8.426750451326370239e-02
-3.002704121172428131e-03
1.600581407546997070e-01
-3.002725774422287941e-03
3.294329166412353516e+00
-8.742767572402954102e-01
-3.002742305397987366e-03
-3.002566285431385040e-03
-3.002293873578310013e-03
-3.002734854817390442e-03
-1.243879087269306183e-02
-3.001348813995718956e-03
-3.002673853188753128e-03
-3.002673620358109474e-03
-3.002703655511140823e-03
-1.530204534530639648e+00
-3.002730198204517365e-03
-2.279206514358520508e-01
-6.819391995668411255e-02
-3.002563957124948502e-03
5.467617034912109375e+00
-3.002723446115851402e-03
-2.146247029304504395e-02
-1.288753896951675415e-01
-3.002722747623920441e-03
-4.765987873077392578e+00
-4.546886444091796875e+00
-2.023484855890274048e-01
-3.002671990543603897e-03
-3.002716694027185440e-03
6.459026336669921875e-01
-3.002738114446401596e-03
4.169900894165039062e+00
-1.163910254836082458e-01
-3.002694807946681976e-03
-2.705311775207519531e+00
-3.002713900059461594e-03
-3.581203460693359375e+00
1.156523346900939941e+00
-2.299825847148895264e-01
-3.002711804583668709e-03
3.923563241958618164e+00
-1.124811396002769470e-01
1.987996399402618408e-01
-3.002664074301719666e-03
-1.357071399688720703e-01
-2.983086742460727692e-03
-3.002743469551205635e-03
8.849605917930603027e-01
-3.002730198204517365e-03
3.807801246643066406e+00
-5.595083236694335938e-01
2.558085918426513672e+00
-3.002715762704610825e-03
-1.846392989158630371e+00
-3.002742072567343712e-03
-3.001605393365025520e-03
-3.002720884978771210e-03
1.446702778339385986e-01
-3.002720884978771210e-03
6.093225479125976562e-01
3.597253859043121338e-01
-3.002494107931852341e-03
-3.002732526510953903e-03
-3.002739045768976212e-03
1.790663242340087891e+00
3.151095151901245117e+00
-3.002661978825926781e-03
-3.000025171786546707e-03
-3.002722281962633133e-03
-3.002724377438426018e-03
-3.002727171406149864e-03
-2.185524940490722656e+00
-2.727521210908889771e-02
3.246815204620361328e-01
6.335294723510742188e+00
-3.000912722200155258e-03
-3.002617741003632545e-03
-3.001703415066003799e-03
7.831690311431884766e-01
4.545198440551757812e+00
-3.001626580953598022e-03
-2.372926324605941772e-01
-3.002713434398174286e-03
-3.002492245286703110e-03
-3.002255689352750778e-03
-3.002714132890105247e-03
-3.002507146447896957e-03
1.765050649642944336e+00
3.967517375946044922e+00
-2.700511813163757324e-01
-2.991542220115661621e-03
6.004327908158302307e-02
-3.002708777785301208e-03
4.464394092559814453e+00
-7.870302796363830566e-01
-3.978627920150756836e-01
-3.002742305397987366e-03
4.443137645721435547e+00
-3.002721117809414864e-03
-1.572374701499938965e+00
-2.022392004728317261e-01
1.442924022674560547e+00
-3.002727637067437172e-03
-3.002470824867486954e-03
-3.002618439495563507e-03
-3.002728801220655441e-03
-3.125456333160400391e+00
1.613818883895874023e+00
-1.448593974113464355e+00
-3.002722514793276787e-03
-2.076708525419235229e-01
-3.002720884978771210e-03
-3.002244746312499046e-03
-3.002295037731528282e-03
-3.303513526916503906e-01
-3.002155106514692307e-03
-3.002713434398174286e-03
-3.694061636924743652e-01
-9.958872795104980469e-01
-3.002533223479986191e-03
4.992902278900146484e+00
4.048618316650390625e+00
6.512577533721923828e-01
-3.002718789502978325e-03
-2.999329706653952599e-03
-1.811159402132034302e-01
-3.002573503181338310e-03
6.139081001281738281e+00
-3.002501791343092918e-03
-3.002719720825552940e-03
-3.002640558406710625e-03
7.222737669944763184e-01
1.189185976982116699e+00
-3.002726938575506210e-03
-3.002545563504099846e-03
-3.002725075930356979e-03
-1.560980528593063354e-01
-1.788690239191055298e-01
3.926695585250854492e+00
-2.257697731256484985e-01
-3.824368476867675781e+00
1.783270835876464844e+00
1.324112296104431152e+00
-3.002697601914405823e-03
-3.002636833116412163e-03
2.933356285095214844e+00
-1.926583498716354370e-01
-2.414325326681137085e-01
9.433082342147827148e-01
3.085127472877502441e-01
-3.002737881615757942e-03
-3.002722514793276787e-03
8.062594532966613770e-01
1.405265331268310547e-01
-1.517385691404342651e-01
-8.153532445430755615e-02
5.189976692199707031e+00
-5.715128779411315918e-01
1.785264253616333008e+00
-1.040968537330627441e+00
4.026738166809082031e+00
-2.501551389694213867e+00
9.854964017868041992e-01
-3.491407930850982666e-01
-3.002737648785114288e-03
-3.002716228365898132e-03
-3.001492237672209740e-03
-3.002711804583668709e-03
-3.002719720825552940e-03
5.090247154235839844e+00
-3.002664539963006973e-03
-5.646751523017883301e-01
-3.002713900059461594e-03
-3.002729965373873711e-03
5.121608734130859375e+00
-8.574600219726562500e-01
-3.002702724188566208e-03
3.021391153335571289e+00
2.702647633850574493e-02
