-2.717566862702369690e-02 1.011792119243182242e-05 6.134342402219772339e-03 -1.652170903980731964e-02 -1.536923264211509377e-05 -7.468366064131259918e-03 3.549886122345924377e-02 -5.462487693876028061e-03 -7.994819432497024536e-03 -2.310639247298240662e-02 -5.983741953969001770e-03 -1.775700971484184265e-02 -5.777801852673292160e-03 -2.614088729023933411e-02 1.003396417945623398e-02 2.201271476224064827e-03 1.992161013185977936e-02 -3.044211072847247124e-03 -6.230414874153211713e-05 -2.292843564646318555e-04 9.640278876759111881e-04 -2.167804166674613953e-02 -2.053101343335583806e-04 6.716423202306032181e-03 6.720531266182661057e-03 -5.160171422176063061e-04 1.092751044780015945e-03 1.457794196903705597e-02 3.017847426235675812e-03 5.523466388694941998e-04 1.510537881404161453e-02 -9.242773987352848053e-03 -3.199950151611119509e-04 1.414688210934400558e-02 3.374089486896991730e-03 6.309853401035070419e-03 -1.241498719900846481e-02 -3.102948889136314392e-02 -2.154408954083919525e-02 6.379691418260335922e-03 1.854578964412212372e-02 -3.134445985779166222e-03 -2.163932658731937408e-02 1.932599395513534546e-02 -4.832871723920106888e-03 -5.509070307016372681e-02 -1.128134503960609436e-02 -1.780733466148376465e-03 4.407753422856330872e-02 -1.045297272503376007e-02 1.275401748716831207e-02 -2.913114149123430252e-03 -7.294186390936374664e-03 3.077512420713901520e-02 -4.480000119656324387e-03 -7.392392028123140335e-03 -1.630964688956737518e-02 -2.071898058056831360e-02 -1.609382568858563900e-03 -8.303534239530563354e-03 8.376270532608032227e-03 -9.670985164120793343e-04 5.860481411218643188e-03 -5.937059968709945679e-02 1.018571946769952774e-02 -1.959935389459133148e-02 -1.797412289306521416e-03 1.061912812292575836e-02 -4.608993884176015854e-03 -1.521187368780374527e-02 -7.816702127456665039e-02 7.616004440933465958e-03 7.297344040125608444e-03 8.129545487463474274e-03 4.055025801062583923e-02 -1.481336727738380432e-02 5.658321082592010498e-03 1.349058467894792557e-02 3.537052543833851814e-05 -2.528723329305648804e-03 7.870066910982131958e-03 -1.537532516522333026e-04 -1.656978949904441833e-02 6.693308241665363312e-04 6.731472094543278217e-04 5.656798748532310128e-05 -5.027329316362738609e-04 -3.428574127610772848e-04 -2.883607894182205200e-02 -2.484751306474208832e-02 7.993490435183048248e-03 5.360913276672363281e-02 5.418959073722362518e-03 1.128788944333791733e-02 7.299928460270166397e-03 8.123142179101705551e-04 1.135556492954492569e-03 5.430081393569707870e-03 -8.433839306235313416e-03 1.985361799597740173e-03 1.131253316998481750e-02 -2.349929418414831161e-03 -1.337367389351129532e-02 1.072751078754663467e-02 1.432074786862358451e-04 5.460918694734573364e-02 1.769899536157026887e-04 -1.908937282860279083e-02 3.997116349637508392e-03 6.182359997183084488e-03 -4.470119893085211515e-04 1.499424688518047333e-02 -1.583783142268657684e-02 5.008451989851891994e-04 3.565191989764571190e-03 9.814841672778129578e-03 7.605137769132852554e-03 -6.893766694702208042e-04 6.303969305008649826e-03 -1.350403763353824615e-02 1.322143361903727055e-03 6.286019831895828247e-02 -2.107094414532184601e-02 -5.355630815029144287e-02 1.858517411164939404e-03 -2.352579310536384583e-02 -2.155759744346141815e-02 7.899903575889766216e-04 -5.219681188464164734e-04 -9.562344290316104889e-03 1.770705130184069276e-04 1.583010307513177395e-03 -3.286589053459465504e-04 6.005580071359872818e-03 -1.677023433148860931e-02 4.989138804376125336e-03 -3.280261158943176270e-02 -5.384047515690326691e-03 -1.727146096527576447e-02 -6.487790960818529129e-04 3.886035701725631952e-04 -9.802927263081073761e-03 -1.365530304610729218e-02 -1.562677696347236633e-02 1.711191982030868530e-02 -2.324140258133411407e-02 3.935348067898303270e-04 3.845926001667976379e-02 -6.935220211744308472e-03 7.998508517630398273e-04 4.956852179020643234e-03 3.002168145030736923e-03 3.643451957032084465e-03 4.918031045235693455e-04 -7.157512591220438480e-04 9.209929965436458588e-03 2.321699634194374084e-02 5.127680487930774689e-03 2.130919694900512695e-02 8.890987955965101719e-04 -3.602893278002738953e-02 -2.191924676299095154e-02 -7.064576447010040283e-02 4.851077217608690262e-03 5.214559379965066910e-03 -5.058864480815827847e-04 -6.450404226779937744e-02 8.456279523670673370e-03 2.228637412190437317e-02 1.379766315221786499e-02 1.069445163011550903e-02 -7.314594462513923645e-03 -3.306084498763084412e-02 -1.109835132956504822e-02 3.518662229180335999e-02 1.564775221049785614e-02 -1.149595947936177254e-03 8.298275619745254517e-02 1.661371067166328430e-02 2.355876751244068146e-02 2.956613898277282715e-03 5.577844567596912384e-04 6.769637763500213623e-02 -7.396727334707975388e-03 1.317064464092254639e-02 2.857913449406623840e-02 3.677998110651969910e-02 2.566740848124027252e-02 1.379390712827444077e-03 -2.454205788671970367e-02 1.212753821164369583e-02 -5.679120076820254326e-04 -1.547492016106843948e-02 -5.628622020594775677e-04 -3.278013551607728004e-03 -7.958057336509227753e-03 -1.119015924632549286e-02 1.478287391364574432e-03 4.263285920023918152e-02 -1.837586797773838043e-02 -1.071250531822443008e-02 6.510166823863983154e-02 -1.346202194690704346e-02 -2.321279980242252350e-02 -1.392072066664695740e-02 -1.327052991837263107e-02 4.704821482300758362e-02 2.397169172763824463e-02 -1.437761448323726654e-02 6.478202412836253643e-04 -4.045533388853073120e-02 1.389055862091481686e-03 7.290744781494140625e-02 -1.086490973830223083e-02 5.144388880580663681e-03 -1.236137468367815018e-02 1.427948754280805588e-02 -1.039046607911586761e-02 -4.257380496710538864e-03 1.355539821088314056e-02 -1.235910225659608841e-02 2.099196240305900574e-02 -2.784508094191551208e-02 9.114695712924003601e-03 7.450628094375133514e-03 -2.425011945888400078e-03 3.064821474254131317e-02 -9.074885398149490356e-03 2.749501261860132217e-03 6.485901307314634323e-03 -2.283886633813381195e-02 1.266293693333864212e-02 -2.293390687555074692e-03 -8.133981376886367798e-03 2.453407272696495056e-03 2.171070128679275513e-02 -1.285659801214933395e-02 1.057327538728713989e-02 -1.555346511304378510e-02 7.446520775556564331e-02 6.231467705219984055e-04 -5.929091013967990875e-03 1.353224273771047592e-02 1.281027682125568390e-02 2.303730725543573499e-04 1.972782798111438751e-02 -2.092537097632884979e-02 1.606954634189605713e-02 -2.171288244426250458e-03 1.079042349010705948e-02 1.759095676243305206e-02 6.504627875983715057e-03 1.750745251774787903e-02 -1.547252759337425232e-02 -7.495395373553037643e-03 1.083476468920707703e-03
-1.111979223787784576e-02 -4.654972581192851067e-04 4.851123318076133728e-02 1.688522845506668091e-02 -9.848976042121648788e-04 -4.248895496129989624e-02 -1.386635936796665192e-02 8.022644370794296265e-02 -4.239245131611824036e-02 -2.518893033266067505e-02 7.843407243490219116e-02 2.783252112567424774e-02 -3.310126485303044319e-03 -6.840983033180236816e-02 -2.587782032787799835e-02 -4.951686598360538483e-03 1.573673565872013569e-03 -1.371247973293066025e-02 3.781458362936973572e-04 -1.008759951218962669e-03 6.807909230701625347e-04 3.563268855214118958e-02 -3.330330946482717991e-04 -1.484819594770669937e-02 2.868033759295940399e-02 -2.599734580144286156e-04 2.908541937358677387e-04 -3.346673399209976196e-02 -4.826816439162939787e-04 5.154266837053000927e-04 -6.769296247512102127e-03 3.342723101377487183e-02 1.882107753772288561e-04 3.620153060182929039e-03 -4.888705164194107056e-02 4.384242370724678040e-02 -8.301294408738613129e-03 -1.070566754788160324e-02 1.738885976374149323e-02 1.461103092879056931e-02 2.415706962347030640e-02 4.093647003173828125e-03 -1.285700220614671707e-02 -3.384015336632728577e-02 9.366299491375684738e-04 -5.606988444924354553e-03 2.025010623037815094e-02 -8.109818212687969208e-03 1.522160507738590240e-02 6.609694682992994785e-04 1.204500719904899597e-02 6.673678755760192871e-02 8.958335965871810913e-02 -2.769698016345500946e-02 -2.726531773805618286e-02 7.612297311425209045e-03 -1.299858745187520981e-02 -1.507807616144418716e-02 4.638795799110084772e-04 -4.466964397579431534e-03 -1.146342139691114426e-02 1.129810465499758720e-03 -2.531033009290695190e-02 -6.185894832015037537e-03 7.079311646521091461e-03 1.828792318701744080e-02 -1.233131904155015945e-02 1.383352838456630707e-02 -1.146439649164676666e-02 -9.268835186958312988e-03 4.694382473826408386e-02 -1.585454680025577545e-02 3.854500502347946167e-02 -2.055878564715385437e-02 3.149378672242164612e-02 1.648555137217044830e-02 -1.599552482366561890e-02 3.673021122813224792e-02 -7.171061006374657154e-04 -1.347119454294443130e-02 4.054113291203975677e-03 -9.308382141171023250e-05 -2.078425325453281403e-02 -1.228288310812786222e-04 3.550965338945388794e-04 -1.078917062841355801e-03 -5.779370665550231934e-02 5.446249269880354404e-04 -1.271734572947025299e-02 2.784036099910736084e-03 -2.123649790883064270e-02 -1.115261577069759369e-02 -8.269827812910079956e-03 -3.345943987369537354e-02 -5.055399984121322632e-02 1.024328521452844143e-04 -2.998347918037325144e-04 -2.458397112786769867e-02 -2.167084626853466034e-02 9.305334970122203231e-05 8.956433273851871490e-03 1.338588632643222809e-02 -4.157814756035804749e-02 -7.092558778822422028e-03 3.974159248173236847e-03 -1.595872826874256134e-02 8.421717793680727482e-04 -4.973205272108316422e-03 5.642073601484298706e-02 4.005448147654533386e-02 -1.628758036531507969e-04 3.970555961132049561e-03 -2.610486233606934547e-03 3.251732513308525085e-02 -1.078951638191938400e-02 -2.910124510526657104e-02 5.361529067158699036e-02 3.454739693552255630e-03 7.452137302607297897e-03 5.801968276500701904e-03 -3.748844610527157784e-04 -8.287759497761726379e-03 -4.492008686065673828e-02 6.758869858458638191e-04 3.416471183300018311e-03 1.064167544245719910e-02 -1.241723727434873581e-02 -6.205548415891826153e-04 1.100833542295731604e-04 4.101799055933952332e-02 -8.624397451058030128e-04 -3.765217587351799011e-02 1.091495156288146973e-03 1.811802946031093597e-02 3.715406637638807297e-03 1.137821353040635586e-03 -1.055189408361911774e-02 -2.647134102880954742e-02 -1.066811196506023407e-02 1.190266455523669720e-03 8.435299241682514548e-05 1.503598783165216446e-02 -1.989519223570823669e-03 1.814358495175838470e-02 -1.029451005160808563e-02 3.824950754642486572e-02 6.220794166438281536e-04 -1.038812566548585892e-02 2.307529374957084656e-02 5.785396206192672253e-04 -1.890388317406177521e-02 -2.001054090214893222e-04 6.509733200073242188e-02 -5.207578465342521667e-02 5.036556976847350597e-04 5.116881057620048523e-02 -1.147041469812393188e-02 2.882096730172634125e-02 2.109615132212638855e-02 -3.565097576938569546e-04 -2.692967094480991364e-02 8.889499120414257050e-03 -3.461785241961479187e-02 3.763407235965132713e-03 6.228468567132949829e-02 -7.239514961838722229e-04 -1.227411720901727676e-02 6.055665761232376099e-02 -3.039305796846747398e-03 -5.797155201435089111e-02 4.206063970923423767e-02 7.340896409004926682e-04 -1.599498279392719269e-02 -7.155495230108499527e-03 3.912610560655593872e-02 1.072012446820735931e-02 1.803089678287506104e-02 -2.606295235455036163e-02 -1.713960431516170502e-02 7.243432104587554932e-03 -2.555187605321407318e-02 1.937245391309261322e-02 -1.930885575711727142e-02 4.465635493397712708e-02 -1.530307810753583908e-02 2.281203120946884155e-02 -1.458374969661235809e-02 -6.910804193466901779e-03 -4.902334185317158699e-04 1.647672057151794434e-02 -3.745773434638977051e-02 8.388211135752499104e-04 2.914290688931941986e-02 -2.260922483401373029e-04 -8.156072348356246948e-03 3.851691633462905884e-02 -1.386644504964351654e-02 -2.688908483833074570e-03 -3.180970624089241028e-02 1.677090488374233246e-02 1.398846507072448730e-02 -4.114981368184089661e-02 -2.628756314516067505e-02 -1.013338100165128708e-02 -9.003000333905220032e-03 1.489020511507987976e-02 -3.864856064319610596e-02 2.518186904489994049e-02 -4.170606378465890884e-03 -6.439263373613357544e-02 6.552528589963912964e-02 1.550329104065895081e-02 1.051811873912811279e-02 -5.444510374218225479e-03 -4.363835230469703674e-02 3.126833215355873108e-02 7.014266401529312134e-02 -1.475079543888568878e-02 4.369894415140151978e-02 5.479319393634796143e-02 -3.113248571753501892e-02 -6.243099272251129150e-02 -4.261218477040529251e-03 3.391162306070327759e-02 -1.589030399918556213e-02 1.307070441544055939e-02 -2.400118298828601837e-02 -3.004391305148601532e-02 2.306104823946952820e-02 -6.604938954114913940e-02 -2.441957965493202209e-02 -2.750888094305992126e-02 3.597909957170486450e-02 1.407520473003387451e-02 4.124160110950469971e-02 -2.827749215066432953e-02 -4.497728124260902405e-02 4.545339196920394897e-02 1.735352165997028351e-02 -1.826290413737297058e-02 -6.461898447014391422e-04 -2.809330821037292480e-02 -1.545348297804594040e-02 -3.893806412816047668e-02 -1.767815556377172470e-04 7.853697054088115692e-03 3.369281068444252014e-02 2.080134488642215729e-02 3.090526163578033447e-02 -7.117552682757377625e-03 3.032188164070248604e-03 3.077394329011440277e-02 2.561425790190696716e-02 -1.376981195062398911e-02 -2.986378781497478485e-02 2.340058796107769012e-03
-1.502956170588731766e-02 2.339887869311496615e-04 -5.243671312928199768e-02 -3.860173746943473816e-02 5.226656794548034668e-04 -1.842051744461059570e-02 -2.801332389935851097e-03 4.960199445486068726e-02 -5.266096815466880798e-02 5.018946249037981033e-03 1.292716152966022491e-02 9.882355481386184692e-02 2.088222652673721313e-02 -4.317798092961311340e-02 -1.653147116303443909e-02 2.146632410585880280e-02 -1.360649825073778629e-03 -4.513605497777462006e-03 9.305967250838875771e-04 -6.427989574149250984e-04 -1.018714465317316353e-05 -2.308785542845726013e-02 -6.448151543736457825e-04 -1.224253140389919281e-02 6.713485345244407654e-03 5.158163839951157570e-04 1.866365084424614906e-03 2.449756860733032227e-02 -3.460804000496864319e-02 -5.086796591058373451e-04 -1.516795251518487930e-02 1.023303437978029251e-02 1.307344879023730755e-03 -4.159908741712570190e-03 2.670069970190525055e-02 2.506513148546218872e-02 -7.102669216692447662e-03 -3.382293973118066788e-03 -6.382152903825044632e-03 2.498254738748073578e-02 1.374909887090325356e-03 -3.722438216209411621e-02 -2.578554674983024597e-02 -4.102891311049461365e-02 -1.518393401056528091e-02 1.480683125555515289e-02 -1.094490010291337967e-02 2.484689094126224518e-02 -3.399243950843811035e-02 5.951348319649696350e-02 1.877561211585998535e-02 -1.384260226041078568e-02 3.990407288074493408e-02 1.070276834070682526e-02 2.585741749498993158e-04 1.849813200533390045e-02 -3.750299289822578430e-02 -2.237311098724603653e-03 4.295179678592830896e-04 -2.570546977221965790e-02 1.121694501489400864e-02 6.216844776645302773e-04 -3.449246287345886230e-03 1.577217504382133484e-02 -2.307687513530254364e-02 2.559370361268520355e-02 -2.236432954668998718e-02 8.392458409070968628e-02 2.496238611638545990e-02 -2.244798652827739716e-02 1.277215592563152313e-02 3.686096519231796265e-02 1.916990056633949280e-02 5.086354911327362061e-02 -3.687908500432968140e-02 7.753858715295791626e-02 -6.275783525779843330e-04 1.842051930725574493e-02 -3.222593659302219748e-05 3.562992438673973083e-02 -1.986418478190898895e-02 1.812521222745999694e-04 1.942195743322372437e-02 7.683922885917127132e-04 2.517702989280223846e-03 9.554906282573938370e-04 9.261860512197017670e-03 -1.447474351152777672e-04 2.221594192087650299e-02 1.529480330646038055e-02 -2.210574783384799957e-02 2.598085068166255951e-02 2.088239043951034546e-02 5.060132965445518494e-02 1.323817996308207512e-03 9.264143882319331169e-04 -2.778823545668274164e-04 1.159408409148454666e-02 1.232036761939525604e-02 -1.668090932071208954e-03 1.823651604354381561e-02 1.608772948384284973e-02 -4.188926145434379578e-02 1.035072002559900284e-02 1.417487044818699360e-03 -2.635002881288528442e-02 -7.448561373166739941e-04 1.021913532167673111e-02 1.630790531635284424e-02 3.023058921098709106e-02 -3.098272718489170074e-04 2.183302072808146477e-03 -2.074517495930194855e-02 -1.328151859343051910e-02 -3.990078717470169067e-02 3.139885142445564270e-02 -1.803891547024250031e-02 -2.997881965711712837e-03 9.412854909896850586e-03 -1.395847834646701813e-02 1.079843495972454548e-03 4.224796313792467117e-03 1.347909215837717056e-02 4.728793352842330933e-02 -3.829313069581985474e-02 1.343835704028606415e-02 -3.025007434189319611e-02 -8.898449596017599106e-05 9.149760007858276367e-04 -4.374253097921609879e-03 4.528402350842952728e-04 -2.556909434497356415e-02 2.515717060305178165e-04 -7.296896539628505707e-03 1.967774238437414169e-03 1.589765958487987518e-02 -6.346561945974826813e-03 -4.772731661796569824e-02 -3.270306438207626343e-02 -1.421768101863563061e-04 7.971633458510041237e-04 7.480628043413162231e-02 1.366676483303308487e-02 9.443037211894989014e-02 -4.881382733583450317e-02 -1.379620470106601715e-02 2.947364374995231628e-02 6.903117895126342773e-02 -3.301208838820457458e-02 1.065643969923257828e-03 -1.322233583778142929e-03 3.616078570485115051e-02 -1.406393479555845261e-02 2.432056516408920288e-02 5.608457140624523163e-04 -1.665556058287620544e-02 -9.153793007135391235e-02 1.721180602908134460e-02 3.300962597131729126e-02 -7.284911407623440027e-05 2.162498608231544495e-02 -3.485062718391418457e-02 -1.862446218729019165e-02 1.249484624713659286e-02 -2.857705205678939819e-02 1.300412695854902267e-04 2.427187003195285797e-02 -8.001562207937240601e-03 2.089796587824821472e-02 -2.158333314582705498e-03 3.951989579945802689e-03 1.226289942860603333e-02 -1.379182748496532440e-02 -4.307210911065340042e-03 -1.949883624911308289e-02 -4.239054769277572632e-02 -2.531059086322784424e-02 2.487152256071567535e-02 -4.607981070876121521e-03 3.182346234098076820e-03 -9.083717130124568939e-03 -3.379986807703971863e-02 -2.320867404341697693e-02 -7.991502992808818817e-03 1.489059440791606903e-02 -3.489408176392316818e-03 -1.958124339580535889e-02 -6.651462521404027939e-03 1.097300206311047077e-03 -2.076830156147480011e-02 1.201688405126333237e-02 -3.128056414425373077e-04 2.595553174614906311e-02 -1.722081506159156561e-04 1.495004072785377502e-02 1.823364757001399994e-02 -2.368943765759468079e-02 6.004353053867816925e-03 -6.547252088785171509e-02 -1.715941354632377625e-02 3.662410378456115723e-02 -1.557610090821981430e-02 1.273840107023715973e-02 -5.638510454446077347e-03 -3.206941485404968262e-02 4.095103591680526733e-02 -2.854765020310878754e-02 1.596173457801342010e-02 1.345830317586660385e-02 -2.613387070596218109e-03 6.780569441616535187e-03 -1.334075257182121277e-02 -3.005295060575008392e-02 -3.270114958286285400e-02 -2.993439789861440659e-03 3.145803511142730713e-02 4.281281493604183197e-03 5.915720388293266296e-02 -2.113098744302988052e-03 -2.838986553251743317e-02 -1.820196956396102905e-02 -8.065810427069664001e-03 -2.612876333296298981e-02 -3.914003819227218628e-02 -3.623597696423530579e-02 -8.159252256155014038e-02 -1.096501015126705170e-02 -6.154590286314487457e-03 6.397911929525434971e-04 -2.577253431081771851e-02 -1.038406603038311005e-02 1.112941931933164597e-02 3.058080933988094330e-02 6.512816529721021652e-03 -1.467713154852390289e-02 -3.886370360851287842e-02 -6.671344395726919174e-03 -3.546786494553089142e-03 1.213903445750474930e-02 -2.612110413610935211e-02 4.705662722699344158e-04 -3.163715824484825134e-02 -2.506346069276332855e-02 -1.253970712423324585e-02 -5.492680429597385228e-05 2.084323577582836151e-02 -1.333558186888694763e-02 -1.302722468972206116e-02 -4.615553189069032669e-03 -2.906088717281818390e-03 -2.707735076546669006e-02 2.434880589134991169e-04 -4.513572528958320618e-02 2.528308518230915070e-02 -7.015168666839599609e-03 -2.907115593552589417e-02
2.701425179839134216e-02 -1.200120546855032444e-03 -2.731651999056339264e-02 1.859476324170827866e-03 1.199576145154424012e-04 1.426077727228403091e-02 3.317578230053186417e-04 9.094865620136260986e-02 9.163382463157176971e-03 -3.470106795430183411e-02 2.572862245142459869e-02 1.515022013336420059e-02 9.866706281900405884e-02 -3.074892424046993256e-02 1.013187691569328308e-02 -5.024517420679330826e-03 -1.119753578677773476e-03 1.468902826309204102e-02 5.491375341080129147e-04 2.156278205802664161e-04 3.693511825986206532e-04 -7.454453967511653900e-03 -5.131656653247773647e-04 5.879302695393562317e-02 -1.929913833737373352e-02 -7.779593579471111298e-05 3.162034045089967549e-05 3.437934815883636475e-02 7.196343038231134415e-03 1.243344013346359134e-04 6.970074027776718140e-03 -3.803283348679542542e-02 -2.328345144633203745e-04 -1.019081193953752518e-02 -5.144787579774856567e-02 3.794961376115679741e-03 -7.216332014650106430e-03 9.406470693647861481e-03 9.448812343180179596e-03 -1.163333654403686523e-03 1.265696343034505844e-02 -2.482093870639801025e-02 -9.055651724338531494e-03 -4.175375774502754211e-02 4.290590062737464905e-02 -6.252836901694536209e-03 -3.454319760203361511e-02 -3.457466512918472290e-02 1.988831534981727600e-02 5.368240177631378174e-02 -1.555214519612491131e-03 5.439363885670900345e-04 -1.136610866524279118e-03 -1.677480712532997131e-02 -2.577432617545127869e-02 1.725824782624840736e-03 -4.671946167945861816e-03 -1.149958744645118713e-02 -3.742249973583966494e-04 -8.805008605122566223e-03 -1.249556988477706909e-02 -1.065341872163116932e-03 -3.508399054408073425e-02 -3.581789089366793633e-03 -5.867388099431991577e-03 -1.534877344965934753e-02 -2.002718485891819000e-02 6.117924675345420837e-02 -2.435859106481075287e-02 -1.083670090883970261e-02 2.083714492619037628e-02 -2.516268752515316010e-02 -4.917027056217193604e-02 -3.823757171630859375e-02 1.569271832704544067e-02 1.007392629981040955e-02 -2.341065928339958191e-02 -2.332914806902408600e-02 2.630637318361550570e-04 -2.544004283845424652e-02 -7.220373023301362991e-03 5.814378382638096809e-04 2.419853350147604942e-03 1.652395585551857948e-03 -1.360500929877161980e-03 -6.506831268779933453e-04 -4.150158911943435669e-02 1.522477105027064681e-04 7.890652865171432495e-02 -2.990472130477428436e-02 1.822608901420608163e-04 3.472917247563600540e-03 -1.583495177328586578e-02 -1.924734376370906830e-02 2.272371947765350342e-02 7.640900439582765102e-04 -6.686385022476315498e-04 -3.231279924511909485e-02 1.054502185434103012e-02 5.183896422386169434e-02 -7.033724803477525711e-03 4.259480163455009460e-03 5.429990962147712708e-02 -1.844852231442928314e-02 6.281299865804612637e-04 -3.177064354531466961e-04 -1.535155170131474733e-04 -2.959340810775756836e-02 -7.672318257391452789e-03 -1.209853580803610384e-04 6.807878962717950344e-04 -2.108275890350341797e-03 -1.497095264494419098e-02 3.371440991759300232e-02 -3.902060166001319885e-02 6.377770565450191498e-03 6.014855206012725830e-02 4.397570714354515076e-02 5.070573836565017700e-02 4.188971593976020813e-02 -6.262821843847632408e-04 -1.339358091354370117e-02 -4.942828323692083359e-03 -2.416060864925384521e-02 -3.519509686157107353e-03 -5.895582959055900574e-02 -1.208704616874456406e-02 -6.135524017736315727e-05 -1.494919852120801806e-04 -3.092408925294876099e-02 -4.167862643953412771e-04 -2.194807166233658791e-03 -3.097002336289733648e-04 -3.402486443519592285e-02 2.487522782757878304e-03 -2.685105428099632263e-02 6.058193370699882507e-02 -9.900468401610851288e-03 -3.929002676159143448e-03 7.535829790867865086e-04 -1.046588877215981483e-04 2.435157634317874908e-02 -9.464414790272712708e-03 1.055000908672809601e-02 -8.346128277480602264e-03 3.849125234410166740e-03 -3.779749572277069092e-02 4.507010057568550110e-02 -2.060768380761146545e-02 -4.034632002003490925e-04 -3.974270820617675781e-02 8.972863107919692993e-02 -4.360561817884445190e-02 -8.181227371096611023e-03 -8.492512279190123081e-05 2.147338725626468658e-02 -6.084960699081420898e-02 -3.267085924744606018e-02 4.916138714179396629e-04 2.230853715445846319e-04 3.033291734755039215e-02 2.678149752318859100e-02 -9.620060212910175323e-03 -4.408537968993186951e-02 2.626341767609119415e-02 -4.773301479872316122e-04 -9.653986431658267975e-03 -1.818284392356872559e-02 2.067180164158344269e-02 2.373520098626613617e-02 -5.990597885102033615e-03 4.223645199090242386e-03 -6.681737024337053299e-03 4.738557711243629456e-02 4.173356667160987854e-02 -2.241843612864613533e-03 -1.186481118202209473e-02 -8.620330132544040680e-03 1.597452908754348755e-02 -4.944832529872655869e-03 1.193086057901382446e-02 -1.735499873757362366e-02 8.236784487962722778e-03 -2.215544134378433228e-02 1.906315609812736511e-02 3.537587076425552368e-02 -1.320420857518911362e-02 1.167248841375112534e-02 5.605725455097854137e-04 -2.943827072158455849e-03 -2.525742910802364349e-02 1.808673114283010364e-04 9.334063157439231873e-03 -4.157554649282246828e-04 2.758722752332687378e-02 -7.633543014526367188e-02 -1.308644283562898636e-02 9.800789505243301392e-02 1.830632239580154419e-02 -2.730697952210903168e-02 6.123032420873641968e-02 -1.288340892642736435e-02 -4.063079878687858582e-02 -1.780604012310504913e-02 -1.178038213402032852e-02 2.715955302119255066e-02 -2.015701681375503540e-02 9.700033813714981079e-03 1.596312411129474640e-02 -1.194537896662950516e-02 -1.150844898074865341e-02 -2.197010628879070282e-02 -1.935567241162061691e-03 -6.654343102127313614e-03 -2.810326404869556427e-02 3.145856782793998718e-02 2.344402484595775604e-03 -3.977754339575767517e-02 -2.583846263587474823e-02 -4.604738205671310425e-03 -6.616989616304636002e-03 1.972002163529396057e-02 -2.788390219211578369e-02 1.506715640425682068e-02 -2.108783274888992310e-02 8.725821971893310547e-03 -1.550928037613630295e-02 2.038408443331718445e-02 -4.347487166523933411e-02 -9.175252169370651245e-03 -1.517929718829691410e-03 -2.162294695153832436e-03 -1.899396255612373352e-02 -5.615529790520668030e-02 6.832157261669635773e-03 1.766904443502426147e-02 1.858354546129703522e-02 5.748065188527107239e-02 -5.526146665215492249e-02 -1.906691491603851318e-02 6.084436317905783653e-04 8.949624607339501381e-04 -3.159208223223686218e-03 -1.658983156085014343e-02 -3.346185258124023676e-04 -3.534905612468719482e-03 2.691701240837574005e-02 -6.411563372239470482e-04 3.361154720187187195e-02 3.696042113006114960e-03 4.094835836440324783e-03 -3.333546593785285950e-02 2.358471229672431946e-02 4.980561509728431702e-02 2.020778134465217590e-02 -1.401415746659040451e-02
1.682876236736774445e-02 1.004305784590542316e-03 -6.089969538152217865e-03 8.730160072445869446e-03 1.519063662271946669e-04 -5.310348235070705414e-03 -9.017799794673919678e-02 1.572069525718688965e-02 -3.015341050922870636e-02 1.166741456836462021e-02 -4.217039048671722412e-02 1.862129941582679749e-02 5.737066268920898438e-02 -9.521595388650894165e-02 -9.938683360815048218e-03 -5.663226824253797531e-03 6.538655608892440796e-02 -8.007083088159561157e-02 4.727179184556007385e-04 7.608351734234020114e-05 -3.936601569876074791e-05 6.303034606389701366e-04 -1.764273911248892546e-04 7.813661359250545502e-03 -2.643496356904506683e-02 -5.116455722600221634e-04 4.287370302336057648e-06 1.155932340770959854e-02 3.871141001582145691e-02 -1.280891010537743568e-04 -2.647588960826396942e-03 -5.711993668228387833e-03 -3.401256108190864325e-04 -1.749992929399013519e-02 3.749230178073048592e-03 -2.920533716678619385e-02 2.758910506963729858e-02 1.420809980481863022e-02 2.543365582823753357e-02 8.825294673442840576e-03 1.157301012426614761e-02 -3.783315420150756836e-03 -1.121526816859841347e-03 -1.786309992894530296e-03 1.235735486261546612e-03 -3.644008561968803406e-02 5.838434677571058273e-03 -1.806947402656078339e-02 -6.868535280227661133e-02 2.762166038155555725e-02 1.425346359610557556e-02 7.077133748680353165e-03 -1.327726873569190502e-03 -1.219336315989494324e-02 1.733068004250526428e-02 1.926973834633827209e-02 1.563944108784198761e-02 7.721294648945331573e-03 -2.548441698309034109e-04 -8.175061084330081940e-03 1.100440416485071182e-02 4.178399103693664074e-04 -1.032495684921741486e-02 -1.614655554294586182e-02 4.647116642445325851e-03 -1.019073370844125748e-02 -5.329577252268791199e-03 3.571399673819541931e-02 7.465271744877099991e-03 -2.597978897392749786e-02 6.224193051457405090e-02 -3.526760032400488853e-03 1.141412835568189621e-02 1.780153438448905945e-02 7.922026515007019043e-02 1.479772012680768967e-02 2.960086334496736526e-03 -2.497659437358379364e-02 1.290003187023103237e-03 -9.271763265132904053e-03 6.814165972173213959e-03 6.828480982221662998e-04 -1.820715516805648804e-02 -2.465994562953710556e-03 -6.970104295760393143e-04 5.873593036085367203e-04 -3.810938820242881775e-02 4.162308468949049711e-04 -5.141310393810272217e-03 -7.619242649525403976e-03 2.489882707595825195e-02 4.139594268053770065e-03 -3.673601523041725159e-02 1.810718514025211334e-02 4.705571103841066360e-03 -5.170170916244387627e-04 1.737825223244726658e-04 7.098692003637552261e-04 1.487942226231098175e-02 -5.300089251250028610e-03 3.694283217191696167e-02 7.956811226904392242e-03 -3.735599666833877563e-02 2.252891100943088531e-02 -3.228417190257459879e-04 1.911628805100917816e-02 1.019905175780877471e-05 -5.785531830042600632e-03 -1.929447054862976074e-02 -2.488078922033309937e-02 -7.125484407879412174e-04 5.553917959332466125e-02 -4.970633983612060547e-02 3.473288193345069885e-02 -7.490937598049640656e-03 -4.330679401755332947e-02 -2.482639066874980927e-02 -5.822150968015193939e-03 6.657745689153671265e-02 -3.605141490697860718e-02 -3.927294455934315920e-04 2.220905013382434845e-02 -1.619955291971564293e-03 2.256032824516296387e-02 1.496435236185789108e-02 2.967507112771272659e-03 3.793769516050815582e-03 3.172462747897952795e-04 -1.758440193952992558e-04 2.526677399873733521e-02 -5.170215154066681862e-04 2.000345848500728607e-02 -9.971160907298326492e-04 -2.784602344036102295e-02 3.451207280158996582e-02 5.240734666585922241e-03 7.031606510281562805e-03 -3.508084919303655624e-03 1.927617704495787621e-03 -4.257415712345391512e-04 -1.029154809657484293e-04 1.066247373819351196e-02 -6.802147254347801208e-03 1.896058768033981323e-02 5.537370685487985611e-03 9.291924536228179932e-02 1.473977789282798767e-02 3.289438784122467041e-02 -1.922297105193138123e-02 -1.022457581711933017e-04 -2.578865364193916321e-02 -2.715286612510681152e-02 -3.665068373084068298e-02 3.146382421255111694e-02 -6.493281689472496510e-04 -3.011060412973165512e-03 -3.909283131361007690e-02 -2.026082761585712433e-02 3.491201624274253845e-02 7.373457192443311214e-04 3.566490486264228821e-02 -2.106943167746067047e-02 1.418678462505340576e-02 5.286441184580326080e-03 -4.588060081005096436e-03 3.235210606362670660e-04 -1.886160112917423248e-02 -1.445073727518320084e-02 -2.015067264437675476e-02 -6.257732957601547241e-02 1.598740462213754654e-03 2.358456887304782867e-02 1.544250268489122391e-02 -1.548928860574960709e-02 -1.081680227071046829e-02 -5.422042310237884521e-02 -7.241667807102203369e-02 -2.599164657294750214e-02 -2.698063477873802185e-02 4.519081488251686096e-02 2.445113472640514374e-02 -3.655575960874557495e-02 3.700631856918334961e-02 2.301102504134178162e-02 -1.406522816978394985e-03 5.488242581486701965e-02 1.546321623027324677e-02 5.107591859996318817e-03 -1.907950063468888402e-04 -9.845752269029617310e-03 2.152255363762378693e-02 -2.321593201486393809e-04 -2.079929970204830170e-02 3.302576806163415313e-05 3.090390563011169434e-02 -7.289266586303710938e-02 1.901412010192871094e-02 -2.043322660028934479e-03 4.014478530734777451e-03 1.847260631620883942e-02 7.877392694354057312e-03 1.523340959101915359e-02 1.603408530354499817e-02 -4.017917439341545105e-02 -4.808799922466278076e-02 3.036803193390369415e-02 2.955719083547592163e-02 1.537869405001401901e-02 6.332071032375097275e-03 -1.451746467500925064e-02 -1.385180559009313583e-02 4.258121550083160400e-02 -3.140021488070487976e-02 1.161197107285261154e-02 1.826312765479087830e-02 -9.378615766763687134e-02 3.266704501584172249e-03 -1.004866231232881546e-02 2.010746300220489502e-02 1.822032779455184937e-02 4.496724158525466919e-02 6.950195878744125366e-03 1.904671452939510345e-02 -2.844179049134254456e-02 -3.429088741540908813e-02 -1.997439749538898468e-02 8.371884934604167938e-03 9.855975396931171417e-03 -2.725688740611076355e-02 -1.765584386885166168e-02 -5.094720516353845596e-03 -2.497638948261737823e-02 -3.537336736917495728e-02 7.748069707304239273e-03 -1.378845423460006714e-02 3.504823520779609680e-02 1.215127017349004745e-02 -2.319830004125833511e-03 7.688876241445541382e-03 -4.135897383093833923e-02 7.085484685376286507e-04 1.110043097287416458e-02 -2.579516917467117310e-02 -2.749075181782245636e-02 -4.538158536888659000e-04 -2.758939377963542938e-02 -7.029259949922561646e-02 -1.479617040604352951e-02 -6.800850853323936462e-03 -1.762837357819080353e-02 -5.302412807941436768e-02 4.582533147186040878e-03 8.115989156067371368e-03 4.930942878127098083e-02 7.534631993621587753e-03 -1.761580817401409149e-02
-4.138436540961265564e-02 1.377717358991503716e-03 -7.727771066129207611e-03 3.791683167219161987e-02 -1.135215497924946249e-04 -2.548787184059619904e-02 -2.534273313358426094e-03 2.731930837035179138e-02 -1.245007477700710297e-02 1.523723546415567398e-02 -4.276517778635025024e-02 4.747910797595977783e-02 -2.355260960757732391e-02 1.389406342059373856e-02 -4.514995217323303223e-02 9.325610473752021790e-03 1.131687313318252563e-02 -3.039688616991043091e-02 3.849990607704967260e-04 1.082293572835624218e-03 4.507396952249109745e-04 2.216019853949546814e-02 -2.436083887005224824e-04 1.566016115248203278e-02 6.986715644598007202e-02 -7.749017822789028287e-05 1.927308621816337109e-04 -1.476769335567951202e-02 1.253029052168130875e-02 -1.015286892652511597e-03 1.805324852466583252e-02 3.866567090153694153e-02 2.810590667650103569e-04 3.128736279904842377e-03 2.281062304973602295e-02 -1.128096226602792740e-02 -1.460030954331159592e-02 2.769992570392787457e-04 -2.098555304110050201e-02 6.538542360067367554e-02 -4.958711098879575729e-03 -1.061149127781391144e-02 -6.287790834903717041e-03 2.367809228599071503e-02 1.488731522113084793e-02 8.085729554295539856e-03 2.120157890021800995e-02 2.176920324563980103e-02 4.506005719304084778e-02 2.927100099623203278e-02 6.124560255557298660e-03 -4.200305789709091187e-02 -1.431521214544773102e-02 -3.621615469455718994e-02 3.855504095554351807e-02 -1.609946414828300476e-02 1.639869250357151031e-02 2.371652051806449890e-02 -5.409787991084158421e-04 1.208366709761321545e-03 -1.613955572247505188e-02 -2.318218175787478685e-04 2.123502828180789948e-02 1.228057499974966049e-02 1.635855808854103088e-02 -1.249950006604194641e-02 3.485495224595069885e-02 -1.488148421049118042e-02 -1.392486272379755974e-03 -2.743325196206569672e-03 1.457593310624361038e-02 -1.163790002465248108e-02 -3.872681036591529846e-02 3.677539527416229248e-02 4.110914841294288635e-02 2.089611440896987915e-02 -9.799919091165065765e-03 7.379338610917329788e-03 9.690428269095718861e-04 -6.144914776086807251e-03 2.093029394745826721e-02 -5.180179141461849213e-04 -5.280415713787078857e-02 9.101362084038555622e-04 1.057506189681589603e-03 -1.136186183430254459e-04 -5.654999241232872009e-02 -8.194546098820865154e-04 -7.059308118186891079e-04 3.719099238514900208e-02 -3.971799090504646301e-02 4.473313223570585251e-03 -2.061001211404800415e-02 3.570346627384424210e-03 -4.489608108997344971e-02 -7.752844248898327351e-04 -2.347208210267126560e-04 2.084648236632347107e-03 -7.257081102579832077e-03 -3.458619583398103714e-03 1.086592581123113632e-02 4.716692492365837097e-02 1.488939207047224045e-02 1.581133157014846802e-02 -2.769384067505598068e-03 2.698929049074649811e-02 1.445110654458403587e-03 7.850432768464088440e-03 2.354034036397933960e-02 -1.029568072408437729e-02 -3.557660675141960382e-04 9.295450523495674133e-03 5.503202322870492935e-03 5.434099119156599045e-03 1.413379795849323273e-02 3.117669187486171722e-02 -3.487001359462738037e-02 6.569703691639006138e-05 4.266485944390296936e-02 1.481259427964687347e-02 4.254555096849799156e-04 -2.683817408978939056e-02 -1.875924319028854370e-02 -2.111254958435893059e-03 8.827209239825606346e-05 1.703228242695331573e-02 -1.111252419650554657e-02 -3.333888016641139984e-04 -7.446962408721446991e-04 -3.082833811640739441e-02 -3.521319304127246141e-04 1.680373586714267731e-02 -4.163727571722120047e-04 7.239775732159614563e-03 1.306978520005941391e-04 2.273502945899963379e-02 7.716777734458446503e-03 -3.198064863681793213e-02 -1.062084455043077469e-02 3.407991607673466206e-05 1.405241637257859111e-04 1.816722005605697632e-02 3.232163144275546074e-03 1.373494882136583328e-02 -1.290006935596466064e-02 5.787846818566322327e-02 -9.605992585420608521e-03 2.513735741376876831e-02 -1.982775516808032990e-03 7.806927314959466457e-04 4.049803316593170166e-02 -8.648846298456192017e-03 4.730351641774177551e-02 -4.440670087933540344e-02 -3.473025863058865070e-04 -3.917808458209037781e-02 1.557393185794353485e-02 3.278382495045661926e-02 1.455794367939233780e-02 -3.436146071180701256e-04 -1.953728310763835907e-02 1.043202802538871765e-01 -4.213396459817886353e-03 -1.040313765406608582e-02 3.986751288175582886e-02 1.850488362833857536e-03 1.332342252135276794e-02 5.789231136441230774e-02 -6.599673070013523102e-03 -2.881123451516032219e-03 4.415367543697357178e-02 -4.560825880616903305e-03 6.008030381053686142e-03 7.591409957967698574e-04 1.709400676190853119e-04 1.395798474550247192e-02 2.398848906159400940e-02 3.369558230042457581e-02 7.124253548681735992e-03 2.903765812516212463e-02 -4.611642286181449890e-02 1.755135506391525269e-02 -3.006211295723915100e-02 -9.940500371158123016e-03 -1.130487024784088135e-02 -3.619519993662834167e-02 1.711992174386978149e-02 -1.937746070325374603e-03 8.464941056445240974e-04 -1.443326193839311600e-02 -4.007501155138015747e-02 7.679173722863197327e-04 -9.420564398169517517e-03 -1.070060883648693562e-03 -6.088336929678916931e-02 -7.740566134452819824e-02 -2.330656349658966064e-02 -8.682647719979286194e-03 -2.261894755065441132e-03 -9.399018250405788422e-03 1.659142971038818359e-02 -2.403142862021923065e-02 4.565773159265518188e-02 2.281512320041656494e-02 1.295894850045442581e-02 -1.325937919318675995e-02 -2.805894799530506134e-02 1.315170526504516602e-02 -8.264402858912944794e-03 -1.932597719132900238e-02 -8.051086217164993286e-03 2.641129866242408752e-02 -3.036472201347351074e-02 -1.340152602642774582e-02 -3.801433602347970009e-03 7.420980930328369141e-02 -8.143319189548492432e-02 -1.158680487424135208e-02 -5.624813586473464966e-02 5.397643893957138062e-02 2.190883830189704895e-02 2.371525391936302185e-02 4.271024838089942932e-02 -4.253614693880081177e-02 3.469878574833273888e-03 3.714824840426445007e-02 1.327744498848915100e-02 -3.839891031384468079e-02 -3.462810441851615906e-02 5.325843114405870438e-03 3.405155846849083900e-03 -1.995079033076763153e-02 -6.661159545183181763e-02 -3.002108074724674225e-02 2.939776331186294556e-02 3.192830830812454224e-02 -5.614454299211502075e-02 -6.929706782102584839e-02 -3.947844356298446655e-02 1.320251729339361191e-02 -8.040931425057351589e-05 -3.100673668086528778e-02 -3.275053575634956360e-02 -3.769648075103759766e-02 2.389703877270221710e-04 -9.260226972401142120e-03 8.350086957216262817e-02 1.264679827727377415e-03 -6.933901458978652954e-02 -4.051542840898036957e-03 2.103318460285663605e-02 -4.406020790338516235e-02 2.616371586918830872e-02 2.812492847442626953e-02 -4.469233006238937378e-02 -3.762663342058658600e-03
-1.614395156502723694e-02 -2.055134100373834372e-04 1.213899441063404083e-02 -2.183676511049270630e-02 -3.758963139262050390e-04 -1.696229912340641022e-02 -9.042550809681415558e-03 4.093719180673360825e-03 -1.122518628835678101e-02 -1.205858495086431503e-02 -2.091581188142299652e-02 -1.136627048254013062e-02 -1.849720813333988190e-02 -1.692360267043113708e-02 1.672140881419181824e-02 6.215568631887435913e-03 6.662677042186260223e-03 -6.656649056822061539e-03 -4.172818735241889954e-04 8.437161341134924442e-06 -4.305637557990849018e-04 -1.666898280382156372e-02 -2.377419441472738981e-04 -4.856580868363380432e-03 -6.043688044883310795e-04 -5.449366290122270584e-04 -5.582789308391511440e-04 -4.671644046902656555e-02 1.294420566409826279e-03 6.727771833539009094e-04 -2.499286271631717682e-02 8.459046948701143265e-04 7.673163199797272682e-04 -8.285311982035636902e-03 -4.459189623594284058e-02 -1.838110014796257019e-02 1.506010536104440689e-02 -1.129125338047742844e-02 2.982854843139648438e-02 -8.636185899376869202e-03 2.672946639358997345e-02 -1.778702065348625183e-02 7.124275434762239456e-03 2.116866037249565125e-02 -1.241519208997488022e-02 3.479399159550666809e-02 7.392205297946929932e-03 -2.182560128858312964e-04 -3.077885694801807404e-02 1.199763501062989235e-03 -1.876027509570121765e-02 8.534339815378189087e-02 1.138061005622148514e-02 5.652468185871839523e-03 -1.164948660880327225e-02 1.061230432242155075e-02 8.043025154620409012e-04 -2.460144460201263428e-02 -1.307506172452121973e-04 1.399864815175533295e-02 1.139646582305431366e-02 1.474646705901250243e-04 2.028367109596729279e-02 4.139589518308639526e-02 1.481716707348823547e-02 -2.430581487715244293e-02 -6.795034278184175491e-03 -1.716509275138378143e-02 1.057253312319517136e-02 -4.922457737848162651e-04 7.909676432609558105e-02 9.956533089280128479e-03 8.344652131199836731e-03 2.221904881298542023e-02 -1.569032110273838043e-02 -1.045673806220293045e-02 2.129024505848065019e-05 3.046906786039471626e-03 -8.120036800391972065e-04 1.762121100910007954e-03 1.937131630256772041e-03 -2.396837953710928559e-04 -4.219251059112139046e-05 -2.050115959718823433e-03 -9.406463359482586384e-04 -3.512561379466205835e-04 2.648534253239631653e-02 -8.202661410905420780e-04 -1.398948021233081818e-02 1.320029422640800476e-02 -9.851147420704364777e-03 1.299048680812120438e-02 -1.392630301415920258e-02 4.796009045094251633e-03 -6.703431718051433563e-04 -9.476329432800412178e-04 -3.314286586828529835e-04 1.243025530129671097e-02 5.416582152247428894e-02 5.575786810368299484e-03 9.116378612816333771e-03 -1.034777611494064331e-02 1.156765595078468323e-02 -2.705349586904048920e-03 2.081793732941150665e-03 -5.155314877629280090e-02 -3.273591573815792799e-04 2.801762195304036140e-03 -1.242854073643684387e-02 -6.815655622631311417e-03 1.452305587008595467e-03 1.143309753388166428e-02 -1.250680768862366676e-03 4.519846988841891289e-04 6.332702003419399261e-03 -1.077214721590280533e-02 -1.915533095598220825e-02 5.047010257840156555e-03 -3.730319440364837646e-03 -3.123549104202538729e-04 -3.352304047439247370e-04 -3.840791806578636169e-02 1.161141600459814072e-02 7.974732667207717896e-03 -8.232008665800094604e-03 -3.676207363605499268e-02 -1.418219413608312607e-02 -7.794409175403416157e-04 1.130522941821254790e-04 -1.683571259491145611e-03 -2.486683079041540623e-04 1.525821071118116379e-02 -4.865963710471987724e-04 1.309681404381990433e-02 2.454207278788089752e-02 5.275995004922151566e-03 5.724013969302177429e-02 7.452355325222015381e-02 -1.553362980484962463e-02 -2.598182254587300122e-05 -4.662334104068577290e-04 -1.218746509402990341e-02 1.176174543797969818e-02 -1.452415063977241516e-02 3.476899117231369019e-02 3.087150305509567261e-02 7.511387113481760025e-03 -9.162602014839649200e-03 2.010559663176536560e-02 3.551761910784989595e-04 1.012756954878568649e-02 -2.131929621100425720e-03 -1.432080939412117004e-02 4.303216002881526947e-03 6.434528768295422196e-05 2.699092775583267212e-02 2.234679413959383965e-03 1.465436536818742752e-02 9.626342914998531342e-03 -7.959583890624344349e-04 1.574920117855072021e-02 -8.446524851024150848e-03 5.183980800211429596e-03 1.050389558076858521e-02 1.963263843208551407e-03 -2.480009861756116152e-04 3.680650144815444946e-02 -1.279686111956834793e-02 -1.166116539388895035e-02 2.737451111897826195e-03 -1.386271417140960693e-02 1.000770553946495056e-02 -2.591073699295520782e-02 1.246794499456882477e-02 -1.767302863299846649e-02 1.835715211927890778e-02 7.011877838522195816e-03 -1.981846056878566742e-02 -6.647653412073850632e-03 -5.976716522127389908e-03 -8.918840438127517700e-03 6.369065959006547928e-03 -3.926260396838188171e-02 -2.237570099532604218e-02 1.088378299027681351e-02 -7.484862580895423889e-03 -5.163047835230827332e-02 -5.216076970100402832e-02 2.261572954012081027e-04 2.183213829994201660e-03 -2.280951477587223053e-02 -7.748447242192924023e-04 -2.893123030662536621e-02 -2.823328250087797642e-04 -1.582873985171318054e-02 -1.656305231153964996e-02 -3.779596881940960884e-03 -2.343915402889251709e-02 -4.556125774979591370e-02 -7.049167994409799576e-03 9.605364874005317688e-03 -3.538601845502853394e-02 8.841938106343150139e-04 -7.508204132318496704e-02 3.158233826979994774e-03 -3.566616913303732872e-03 -7.606765138916671276e-04 1.442058105021715164e-02 4.091278463602066040e-02 -7.768614217638969421e-03 5.549630615860223770e-03 6.358818616718053818e-03 -5.010423436760902405e-02 -5.355723202228546143e-03 4.964350722730159760e-03 -9.052718058228492737e-03 -1.107783429324626923e-02 -4.679973423480987549e-02 1.449830364435911179e-03 2.570340642705559731e-03 8.263226598501205444e-03 -6.147961132228374481e-03 1.734362728893756866e-02 1.544567011296749115e-02 1.782063208520412445e-02 3.154246881604194641e-02 -5.886138975620269775e-02 -4.714526236057281494e-03 1.261059101670980453e-02 3.212441457435488701e-03 -1.072073541581630707e-02 6.550210062414407730e-03 4.079200327396392822e-03 7.689678575843572617e-03 -1.282131485641002655e-02 2.483121352270245552e-03 1.872962713241577148e-02 4.164191707968711853e-02 -3.945484291762113571e-03 -2.931938692927360535e-02 9.086970239877700806e-04 -5.786137189716100693e-03 1.650310866534709930e-02 3.384334966540336609e-03 -3.410702047403901815e-04 -3.654811531305313110e-02 2.404239214956760406e-02 4.874232411384582520e-02 4.781493544578552246e-02 1.847977750003337860e-02 2.241233550012111664e-02 8.638405241072177887e-03 6.520856171846389771e-03 2.870825864374637604e-02 -2.015502005815505981e-02 1.238598488271236420e-02
1.329719927161931992e-02 -7.920065545476973057e-04 -4.393950104713439941e-02 -7.448227610439062119e-03 1.018176117213442922e-04 -1.142800878733396530e-02 -1.062212791293859482e-02 -4.470292478799819946e-02 -7.737039122730493546e-03 -3.026519343256950378e-02 -4.776030778884887695e-02 -6.859790068119764328e-03 2.996767498552799225e-02 6.450495216995477676e-03 -2.333928458392620087e-02 7.266920525580644608e-03 2.617977559566497803e-03 -6.910983938723802567e-04 9.058748255483806133e-04 1.142688095569610596e-03 1.751104864524677396e-04 -2.992519643157720566e-03 -6.825119489803910255e-04 3.775838762521743774e-02 7.895377464592456818e-03 2.318681654287502170e-04 3.804887819569557905e-04 -2.839879691600799561e-02 -4.397706314921379089e-02 -1.344997508567757905e-05 -3.484237566590309143e-02 3.487583994865417480e-02 2.883323759306222200e-04 4.855519626289606094e-03 1.413133367896080017e-02 2.275759540498256683e-02 -6.432652589865028858e-04 -2.943894825875759125e-02 -2.423635870218276978e-02 -1.580925472080707550e-02 -2.942387014627456665e-03 3.149994648993015289e-03 -7.847981527447700500e-03 6.832166761159896851e-02 -1.763879507780075073e-02 9.369199164211750031e-03 5.057869851589202881e-02 7.289902772754430771e-03 -5.217291042208671570e-02 -5.313124042004346848e-03 3.365063294768333435e-02 -1.333071887493133545e-01 -4.482049122452735901e-02 3.832596912980079651e-02 2.432314865291118622e-02 -6.474797613918781281e-03 -2.670657448470592499e-02 1.482275035232305527e-02 -1.061822404153645039e-03 -9.925149381160736084e-03 -2.632723748683929443e-02 -9.430430945940315723e-04 -8.130559697747230530e-03 1.266277208924293518e-02 -7.515780627727508545e-03 2.231666073203086853e-02 6.071249023079872131e-03 -1.891971006989479065e-02 -1.429317612200975418e-02 -9.085257537662982941e-03 -2.250292524695396423e-02 -1.621823944151401520e-02 1.529091224074363708e-02 -2.408234030008316040e-02 5.937265697866678238e-03 1.611162908375263214e-02 2.720722113735973835e-04 -1.853190362453460693e-02 -3.478726284811273217e-07 -1.097899861633777618e-02 9.724551811814308167e-03 7.717096596024930477e-04 -1.775590004399418831e-03 6.898671272210776806e-04 -3.464879773673601449e-05 5.498385871760547161e-04 -1.631949096918106079e-03 4.870121774729341269e-04 -9.170567616820335388e-03 -2.091200836002826691e-02 4.755841568112373352e-03 3.103266062680631876e-04 2.109907008707523346e-02 -4.306519776582717896e-02 1.095253508538007736e-02 -6.561333429999649525e-04 2.178712893510237336e-04 -4.098194837570190430e-02 -6.678787525743246078e-03 -1.783265615813434124e-03 2.981615997850894928e-02 -3.764928504824638367e-02 5.583107937127351761e-03 2.851739712059497833e-02 3.129920805804431438e-04 6.835027597844600677e-03 -4.314239486120641232e-04 -5.658696591854095459e-02 -6.367704272270202637e-02 2.315510995686054230e-02 1.632658859307412058e-05 -4.842794965952634811e-03 -1.994525082409381866e-02 -7.452555000782012939e-03 3.169977664947509766e-02 -4.822893068194389343e-02 -1.121750846505165100e-01 -6.654390599578619003e-03 -6.106973625719547272e-03 1.910905912518501282e-02 1.019129995256662369e-03 3.046297840774059296e-02 5.427604168653488159e-02 3.730684518814086914e-02 -5.003736168146133423e-02 6.377230864018201828e-03 -5.648282822221517563e-03 5.045158904977142811e-04 -2.384117105975747108e-04 1.485104952007532120e-02 -1.237788819707930088e-03 -2.384858578443527222e-02 -1.057417015545070171e-03 6.275006104260683060e-03 2.543860115110874176e-03 2.865538373589515686e-02 3.444299474358558655e-02 2.134633995592594147e-02 -1.141664199531078339e-02 -1.617445232113823295e-04 9.792045457288622856e-04 -2.027684357017278671e-03 -1.708281040191650391e-02 1.797135360538959503e-02 3.897547489032149315e-03 -1.565141975879669189e-02 -5.307455430738627911e-04 -1.543231401592493057e-02 4.834936931729316711e-03 3.711627214215695858e-04 -1.990435086190700531e-02 -5.816867202520370483e-02 1.570515707135200500e-02 5.559336766600608826e-02 -6.488144863396883011e-04 -5.546351894736289978e-02 1.514154765754938126e-02 1.867311634123325348e-02 -2.434657327830791473e-02 1.011977903544902802e-03 2.589778415858745575e-02 1.075608748942613602e-02 3.215491026639938354e-02 1.967225689440965652e-03 -4.194921255111694336e-02 3.584286896511912346e-04 1.599727571010589600e-02 -1.215842645615339279e-02 -1.411238592118024826e-02 2.098128758370876312e-02 -1.792867481708526611e-02 -7.737715728580951691e-03 -7.871428504586219788e-03 -5.291298031806945801e-03 -6.421100348234176636e-02 -3.869859036058187485e-03 6.590772885829210281e-03 2.008496597409248352e-02 1.054763514548540115e-02 -9.537273086607456207e-03 1.772008277475833893e-02 1.938608661293983459e-02 2.525769546627998352e-02 8.777486160397529602e-03 7.280258834362030029e-02 -4.409245774149894714e-02 1.888251118361949921e-02 -3.748451545834541321e-02 -1.202076091431081295e-03 -2.824874036014080048e-02 1.102579664438962936e-02 3.338964597787708044e-04 2.130636386573314667e-02 1.128196818172000349e-04 -2.091472782194614410e-02 -5.342324264347553253e-03 -1.862928271293640137e-02 -4.810227826237678528e-02 1.973407715559005737e-02 1.556865498423576355e-02 -6.388776749372482300e-02 1.744686625897884369e-02 3.594354167580604553e-02 1.557774655520915985e-02 -1.733423769474029541e-02 -2.581104077398777008e-02 2.643408626317977905e-02 -7.838184945285320282e-03 7.924296893179416656e-03 6.035366281867027283e-02 1.803196966648101807e-02 -6.140439771115779877e-03 -2.344851009547710419e-02 -7.323055528104305267e-03 8.382552303373813629e-03 1.636196486651897430e-02 -2.851368673145771027e-02 2.861678414046764374e-02 9.044691920280456543e-03 -4.103344678878784180e-02 3.923718631267547607e-02 -1.185622997581958771e-03 -1.754827983677387238e-02 -8.240975439548492432e-02 1.687158271670341492e-02 -3.687453269958496094e-02 5.107362195849418640e-02 -3.019658289849758148e-02 3.750223200768232346e-03 7.137235254049301147e-02 -4.412636533379554749e-02 -3.418657928705215454e-02 -1.028499472886323929e-02 -1.628721319139003754e-02 1.607453636825084686e-02 4.791379440575838089e-03 3.627021983265876770e-02 -9.081817418336868286e-02 9.153815917670726776e-03 1.085155736654996872e-02 -9.105462231673300266e-04 -1.988944783806800842e-02 6.594000849872827530e-03 2.460206300020217896e-02 -7.531585870310664177e-04 1.200027484446763992e-02 -7.111803442239761353e-02 9.888791479170322418e-03 -1.248963549733161926e-02 -6.076997518539428711e-02 6.662105210125446320e-03 9.504509158432483673e-03 -1.540246699005365372e-02 2.974893711507320404e-02 -6.542050396092236042e-04 -5.003656726330518723e-03
2.640951238572597504e-02 -3.354400396347045898e-04 2.791018597781658173e-02 8.409951813519001007e-03 4.534374747890979052e-04 8.293076418340206146e-03 -5.565199069678783417e-03 3.242536261677742004e-02 2.870321087539196014e-02 -1.614039950072765350e-02 -1.775109209120273590e-02 -8.504126965999603271e-02 -3.229565545916557312e-02 -3.743764245882630348e-03 1.559755951166152954e-02 3.808408975601196289e-02 2.184686064720153809e-02 -9.122163988649845123e-03 -5.237503792159259319e-04 -1.943180104717612267e-04 1.528888387838378549e-04 -2.028385736048221588e-02 1.567670551594346762e-04 -3.749391529709100723e-03 2.782054804265499115e-02 1.649971381993964314e-04 8.309087133966386318e-04 -4.571829363703727722e-02 -2.133779972791671753e-02 -4.585959541145712137e-04 -1.002371869981288910e-02 -5.106015130877494812e-02 1.061738585121929646e-03 -2.554884552955627441e-02 -2.910147048532962799e-02 2.726106718182563782e-02 3.723230585455894470e-02 -1.634190231561660767e-02 5.742867942899465561e-03 -1.704118563793599606e-03 -4.649014212191104889e-03 2.476943284273147583e-02 1.240884768776595592e-03 2.203898504376411438e-02 -4.170277714729309082e-02 -4.871948622167110443e-04 -3.991638496518135071e-02 1.069193333387374878e-02 3.922173753380775452e-02 -7.346951961517333984e-02 -4.180771112442016602e-02 2.806679904460906982e-02 -1.428924873471260071e-02 -1.774800912244245410e-04 -7.165346294641494751e-03 4.248721152544021606e-02 2.108447626233100891e-02 -9.024766273796558380e-03 5.601286375167546794e-06 -1.838709600269794464e-02 1.902762055397033691e-02 2.366900007473304868e-04 -2.160476893186569214e-02 -7.433202117681503296e-04 4.322391003370285034e-03 1.544607058167457581e-02 -3.645327314734458923e-02 -7.329197227954864502e-02 4.129136912524700165e-03 -1.281245145946741104e-03 -1.351792737841606140e-02 1.826631464064121246e-02 -2.172403223812580109e-02 -3.580552339553833008e-02 -7.692833431065082550e-03 -6.431762129068374634e-02 2.918176911771297455e-02 1.532043702900409698e-02 9.865830652415752411e-04 3.859937191009521484e-02 -2.975893579423427582e-02 7.230649935081601143e-04 8.102482184767723083e-03 -4.613997589331120253e-04 7.102977833710610867e-04 -2.907741582021117210e-04 1.493608020246028900e-02 -4.120241501368582249e-04 -4.674308374524116516e-02 -2.553448081016540527e-02 1.768598333001136780e-02 1.394275482743978500e-02 -9.195099119096994400e-04 1.467212010174989700e-02 -1.168449036777019501e-02 3.630095743574202061e-04 -8.573879022151231766e-04 8.823639713227748871e-03 -3.925723955035209656e-03 -7.792634423822164536e-03 -2.003607340157032013e-02 9.277837350964546204e-03 2.949347905814647675e-02 -1.773283444344997406e-02 -3.740180749446153641e-03 1.963235624134540558e-02 -1.267530169570818543e-04 2.740290028668823652e-06 -1.112296711653470993e-02 2.909642085433006287e-02 1.461054343963041902e-04 1.731781475245952606e-02 -3.082724288105964661e-03 -1.172441150993108749e-02 5.498374998569488525e-02 1.055044820532202721e-03 1.457585021853446960e-02 -4.178376868367195129e-03 4.749485105276107788e-02 -2.212373801739886403e-04 4.556082421913743019e-04 -6.914123427122831345e-03 -6.751027889549732208e-03 2.374072745442390442e-02 2.222119085490703583e-02 -6.728998851031064987e-03 3.411576524376869202e-02 -8.368357666768133640e-04 7.364711491391062737e-04 -1.688144728541374207e-02 7.928009144961833954e-04 4.721890669316053391e-03 3.921927127521485090e-04 -7.867298088967800140e-03 4.187262430787086487e-02 -5.199818871915340424e-03 -3.761544823646545410e-03 3.069588728249073029e-02 1.853297650814056396e-02 -1.394208520650863647e-04 1.988942240132018924e-04 -5.816126987338066101e-02 2.553223446011543274e-02 -6.530188024044036865e-02 1.972646117210388184e-01 -3.436591103672981262e-02 2.925347303971648216e-03 2.331068972125649452e-03 2.730070054531097412e-02 1.578875817358493805e-04 -1.444939896464347839e-02 -4.862183332443237305e-02 -4.747623205184936523e-02 -1.040085218846797943e-02 -6.511116225738078356e-05 -4.388734698295593262e-02 9.887976944446563721e-02 -1.182061526924371719e-02 1.921521313488483429e-02 5.797838675789535046e-04 -4.352849349379539490e-02 -4.792800173163414001e-02 -1.361428201198577881e-02 -2.391482330858707428e-02 -2.713792212307453156e-02 2.088037726934999228e-04 3.413857193663716316e-03 1.516474876552820206e-02 -2.919514477252960205e-02 -3.751819580793380737e-02 8.817864581942558289e-03 3.358277678489685059e-02 5.637289956212043762e-03 -3.250203095376491547e-03 -1.949673867784440517e-03 -8.023101836442947388e-03 -9.712834842503070831e-03 -1.659399829804897308e-02 -1.359487138688564301e-02 1.549427025020122528e-02 1.288047246634960175e-02 -1.287355646491050720e-02 2.712771762162446976e-03 -3.669521957635879517e-02 -2.005279995501041412e-02 -2.233383804559707642e-02 6.345717702060937881e-03 -9.623291902244091034e-03 -1.027242396958172321e-04 1.978742657229304314e-03 2.883703913539648056e-03 -9.548226371407508850e-04 1.085424609482288361e-02 6.861553993076086044e-05 2.383916638791561127e-03 -6.122488155961036682e-02 2.324108034372329712e-02 -2.447858825325965881e-02 4.246417433023452759e-03 -2.989850938320159912e-02 -5.292134359478950500e-02 -2.821290865540504456e-02 3.220505546778440475e-03 -1.476663537323474884e-02 -3.136380342766642570e-03 -2.918212860822677612e-02 5.861130356788635254e-02 -1.525362487882375717e-02 -1.071377284824848175e-02 -2.070522308349609375e-02 1.966295763850212097e-02 1.055761799216270447e-02 2.900177054107189178e-02 3.426410257816314697e-02 1.631170324981212616e-02 -2.417607419192790985e-02 -3.590173646807670593e-02 -4.315994307398796082e-02 -1.480566617101430893e-02 7.966076955199241638e-03 -1.075574569404125214e-02 -2.199594862759113312e-02 -2.059767954051494598e-02 2.819445449858903885e-03 4.959641024470329285e-02 8.795909583568572998e-02 2.673835027962923050e-03 -1.366199739277362823e-02 -2.482970803976058960e-02 5.018549412488937378e-02 -7.279434241354465485e-03 3.177347034215927124e-02 -2.420779876410961151e-02 -4.947713762521743774e-02 -2.440041489899158478e-02 6.366034597158432007e-02 -5.863931961357593536e-03 2.206791378557682037e-02 -2.452393993735313416e-02 3.933719926862977445e-05 5.549224806600250304e-05 1.893789274618029594e-03 -2.174738049507141113e-02 9.756784886121749878e-03 1.163303619250655174e-03 -2.881522057577967644e-03 3.944821283221244812e-02 2.150328829884529114e-02 -6.591184996068477631e-03 2.947597205638885498e-02 -2.776987664401531219e-02 -1.627328619360923767e-02 -4.298908635973930359e-03 -4.323217272758483887e-02 1.935745403170585632e-02 -3.949539363384246826e-02
-1.881125196814537048e-02 2.175184636143967509e-04 8.425308018922805786e-02 -2.035274356603622437e-02 3.131661796942353249e-04 -1.954508759081363678e-02 2.662628889083862305e-03 4.747074097394943237e-02 6.674125324934720993e-03 5.740367807447910309e-03 5.348281189799308777e-02 5.471331533044576645e-03 -5.830230191349983215e-02 -3.223457606509327888e-03 -3.229330852627754211e-02 3.677899250760674477e-03 -1.250333804637193680e-02 7.800027728080749512e-03 4.736042756121605635e-04 1.435364829376339912e-03 3.773118442040868104e-05 -7.829433307051658630e-03 6.256104679778218269e-04 2.150738425552845001e-02 2.543835528194904327e-02 3.037464048247784376e-04 -7.105904514901340008e-04 -1.733992435038089752e-02 7.468730676919221878e-03 1.009561703540384769e-03 2.410658635199069977e-02 2.778366394340991974e-02 -5.991648067720234394e-04 -1.961027458310127258e-02 1.226869208039715886e-04 -3.579087927937507629e-02 4.371209535747766495e-03 -1.915976405143737793e-02 -1.134711503982543945e-02 -1.074139401316642761e-02 -2.170793898403644562e-02 -1.094132103025913239e-02 -2.578185312449932098e-02 -1.851611305028200150e-03 4.108113050460815430e-02 2.808853285387158394e-03 -2.223616838455200195e-02 3.522381186485290527e-02 3.007548116147518158e-02 -2.356616780161857605e-02 -4.474096000194549561e-02 1.037803068757057190e-01 2.344240434467792511e-02 -9.644176810979843140e-03 -6.686162087135016918e-04 -4.566161427646875381e-03 -2.164145372807979584e-02 -1.978433318436145782e-02 -1.153372286353260279e-04 -3.902127593755722046e-02 -8.743826299905776978e-03 -3.920718736480921507e-04 1.057920232415199280e-02 -4.296611994504928589e-03 -1.061214786022901535e-02 -3.264518082141876221e-02 -2.104419283568859100e-02 6.752815842628479004e-02 -4.099708423018455505e-02 -2.898540906608104706e-02 2.746794139966368675e-03 3.417304903268814087e-02 3.628548234701156616e-02 -4.536053165793418884e-03 9.263375774025917053e-03 -1.234006974846124649e-02 2.589084906503558159e-03 -1.661418378353118896e-02 7.946909754537045956e-04 -1.212139893323183060e-02 -2.643043547868728638e-02 -8.316300227306783199e-04 -2.617141418159008026e-02 -1.148329101852141321e-04 -1.977715874090790749e-03 3.791969502344727516e-04 1.116691250354051590e-02 -2.823132090270519257e-04 -3.967733308672904968e-02 -3.880826011300086975e-02 -9.658481925725936890e-03 1.481013186275959015e-02 3.117763251066207886e-02 3.312961384654045105e-02 -4.278167709708213806e-02 -7.598017691634595394e-05 -9.909476648317649961e-05 -2.914590586442500353e-04 -3.737183287739753723e-02 5.401321873068809509e-02 -1.163471303880214691e-02 -8.386814966797828674e-03 4.547083005309104919e-02 -3.411657409742474556e-03 -2.187926555052399635e-03 1.893977448344230652e-02 1.674863415246363729e-05 -8.011695928871631622e-03 -2.137175202369689941e-02 -3.040367551147937775e-02 9.862575680017471313e-04 -1.324917003512382507e-02 -3.336017951369285583e-02 4.194429889321327209e-02 3.025613725185394287e-02 1.391700468957424164e-02 -1.023336313664913177e-03 3.904032707214355469e-02 1.450081542134284973e-02 5.584123730659484863e-02 1.576809445396065712e-04 -2.316704951226711273e-02 7.089937571436166763e-03 4.173929244279861450e-02 -1.533690840005874634e-02 2.908539585769176483e-02 -3.589982166886329651e-03 -1.198456971906125546e-03 5.699953762814402580e-04 2.945398353040218353e-02 1.496498880442231894e-04 -1.202325243502855301e-02 3.884801699314266443e-04 -2.713645808398723602e-02 1.768582686781883240e-02 1.717448607087135315e-02 -2.260236442089080811e-02 1.336797513067722321e-02 -1.263814792037010193e-02 6.089381640776991844e-04 -3.888226638082414865e-04 -2.203620597720146179e-02 -3.553247824311256409e-02 -9.121573530137538910e-03 8.394274860620498657e-02 9.592463029548525810e-04 -5.074170976877212524e-02 -1.736362278461456299e-02 -1.038688700646162033e-02 1.265102531760931015e-03 1.126997917890548706e-02 -9.850678034126758575e-03 -2.892018668353557587e-02 -2.522188052535057068e-02 -4.759749208460561931e-05 1.007713451981544495e-01 4.463913664221763611e-02 2.610155008733272552e-02 -2.791098132729530334e-02 -1.164811314083635807e-03 -6.099620833992958069e-02 -1.152207795530557632e-02 -1.810499094426631927e-02 2.126809209585189819e-02 -1.042838208377361298e-02 -3.281993267592042685e-04 -1.972509780898690224e-03 2.209336496889591217e-02 -3.129474818706512451e-02 -4.181546624749898911e-03 2.772259060293436050e-03 -8.544099400751292706e-04 -5.734403152018785477e-03 4.242428019642829895e-02 -6.738489028066396713e-03 -4.254267737269401550e-02 -4.071140661835670471e-02 8.819856680929660797e-03 -3.083899803459644318e-02 -1.595839485526084900e-02 -1.106871664524078369e-02 -3.649328649044036865e-02 -2.903689630329608917e-03 1.830130629241466522e-02 3.812389075756072998e-02 -2.601867727935314178e-02 5.839489866048097610e-03 -1.262228377163410187e-02 2.733085602812934667e-05 -2.311913110315799713e-02 -1.550688594579696655e-02 8.277838351204991341e-04 -1.508919056504964828e-02 3.677903732750564814e-04 -3.673134371638298035e-02 3.756360337138175964e-02 -9.390723891556262970e-03 -5.086580663919448853e-02 -8.320360444486141205e-03 -1.952020078897476196e-02 -3.663446009159088135e-02 2.824138617143034935e-03 3.669240698218345642e-02 4.054305329918861389e-02 -4.000393673777580261e-02 -2.751128189265727997e-02 4.024137742817401886e-03 -1.484515145421028137e-02 -3.496185317635536194e-02 -4.283269122242927551e-02 3.032103553414344788e-02 -6.620154716074466705e-03 2.908039279282093048e-02 -2.456107875332236290e-03 1.275571621954441071e-02 2.863575890660285950e-02 4.864373058080673218e-02 -5.615108832716941833e-02 4.160675406455993652e-02 5.312540102750062943e-03 -1.407081261277198792e-02 -4.306991025805473328e-02 -2.257590647786855698e-03 -1.414317637681961060e-03 2.588810399174690247e-02 1.562856882810592651e-02 4.267622530460357666e-02 -4.068424180150032043e-02 1.893358188681304455e-03 1.967095397412776947e-02 -1.656590215861797333e-02 1.345576625317335129e-02 3.239423409104347229e-02 1.740397512912750244e-02 -3.806596994400024414e-02 1.081704720854759216e-01 -1.411235984414815903e-02 1.079808175563812256e-02 3.989840298891067505e-02 1.853363960981369019e-02 2.842627582140266895e-04 -3.331073001027107239e-02 -5.974414199590682983e-02 7.945710793137550354e-03 3.613055450841784477e-04 -2.156003378331661224e-02 2.743355929851531982e-02 -5.787634290754795074e-03 -2.598613686859607697e-02 1.495724893175065517e-03 -3.614156693220138550e-02 2.758213691413402557e-02 -6.234984379261732101e-03 -4.402037337422370911e-02 -2.431873045861721039e-02 -2.063189819455146790e-02
-2.854174561798572540e-02 3.828923800028860569e-04 -4.804150760173797607e-02 5.513948202133178711e-02 -9.679563227109611034e-04 1.013564877212047577e-02 5.447247065603733063e-03 2.480247523635625839e-03 4.042659699916839600e-02 2.387329377233982086e-02 -2.797132916748523712e-02 -2.264036983251571655e-02 1.308477390557527542e-02 1.800088956952095032e-02 1.147129293531179428e-02 2.570535242557525635e-02 -5.625402182340621948e-02 7.351439446210861206e-02 1.418910542270168662e-04 -3.707457508426159620e-04 6.542173796333372593e-04 -1.539291813969612122e-02 1.937861234182491899e-04 -5.921739153563976288e-03 2.732193330302834511e-03 -1.417853403836488724e-03 1.694182428764179349e-04 -2.829213859513401985e-03 4.686620086431503296e-02 1.335267006652429700e-04 1.166238635778427124e-02 2.367406338453292847e-02 9.626602986827492714e-04 -8.838939666748046875e-02 -6.690993905067443848e-02 1.721208728849887848e-02 7.169762160629034042e-03 7.286778651177883148e-03 -4.391780123114585876e-02 -1.111217960715293884e-02 1.098660193383693695e-02 -3.522131592035293579e-02 -3.412277996540069580e-02 -2.951033785939216614e-02 1.118535269051790237e-02 4.038359224796295166e-02 -2.951960824429988861e-02 1.574362069368362427e-02 5.480940267443656921e-02 -3.428837656974792480e-02 -9.417537599802017212e-02 -6.038995087146759033e-02 -2.105843275785446167e-02 3.122139722108840942e-02 -2.915271616075187922e-04 7.048107217997312546e-03 7.220754027366638184e-02 -4.352750629186630249e-02 -7.663478609174489975e-04 2.336926572024822235e-02 2.015674021095037460e-03 -6.682255771011114120e-04 2.410278096795082092e-02 2.328179031610488892e-02 3.622127324342727661e-02 8.683106862008571625e-03 3.494759649038314819e-02 5.553771555423736572e-02 2.615395002067089081e-03 -5.632276087999343872e-02 -7.409850507974624634e-02 -1.432557683438062668e-02 4.855904262512922287e-05 -3.979089856147766113e-02 1.525210449472069740e-03 -2.044281736016273499e-02 1.021477207541465759e-02 -2.112870337441563606e-03 2.484522119630128145e-04 -2.735861809924244881e-03 -9.716217406094074249e-03 -6.930656381882727146e-04 1.982161402702331543e-02 1.211570925079286098e-04 -1.033008564263582230e-03 -3.137435996904969215e-04 1.430536899715662003e-02 -1.470380811952054501e-05 -1.107118465006351471e-02 -2.601849660277366638e-02 -1.443875394761562347e-02 -4.602664266712963581e-04 4.282127320766448975e-02 -9.554201737046241760e-03 1.173171587288379669e-02 -1.273330126423388720e-04 1.396241132169961929e-03 1.155968662351369858e-02 7.113013882189989090e-03 -4.842292517423629761e-03 -3.872554050758481026e-03 -4.889403004199266434e-03 -4.217700660228729248e-02 -8.276917040348052979e-03 -7.241838611662387848e-04 1.279054488986730576e-02 1.065702053892891854e-05 -2.286257781088352203e-02 7.023601792752742767e-03 1.214368361979722977e-02 6.103265914134681225e-04 -4.430510476231575012e-02 -4.597499966621398926e-02 4.901653900742530823e-02 -8.400971419177949429e-04 6.780710071325302124e-03 -8.240277878940105438e-03 -5.923174321651458740e-03 -3.327783197164535522e-02 -3.223823010921478271e-02 -7.095116889104247093e-04 -2.414384856820106506e-02 1.568590477108955383e-02 -3.111114911735057831e-02 1.337631698697805405e-02 4.995216149836778641e-04 1.602719537913799286e-02 -5.670920945703983307e-04 -1.232770504429936409e-03 2.138508856296539307e-02 3.998799656983464956e-04 1.131813693791627884e-02 5.817466299049556255e-04 -1.893809065222740173e-02 2.647025138139724731e-02 9.140411857515573502e-04 3.640634566545486450e-02 -2.908173017203807831e-02 8.695099502801895142e-03 2.248423406854271889e-04 -1.393370446749031544e-03 -1.215187832713127136e-02 -1.605801749974489212e-03 2.069080621004104614e-02 -1.433741301298141479e-02 -1.087198592722415924e-02 2.693596668541431427e-02 1.220098789781332016e-02 4.324080795049667358e-02 1.136577629949897528e-04 -2.312205173075199127e-02 2.983686514198780060e-03 2.127985935658216476e-03 1.230939873494207859e-03 -4.801761533599346876e-04 -1.737202331423759460e-02 3.598850220441818237e-02 1.066979113966226578e-02 -1.813012175261974335e-02 -8.025543065741658211e-04 -1.063108518719673157e-01 -7.495035976171493530e-02 2.504169009625911713e-02 1.242173276841640472e-02 3.867865726351737976e-02 -3.399060224182903767e-04 2.224081195890903473e-02 1.552340574562549591e-02 3.357869386672973633e-02 9.207114577293395996e-03 2.950521593447774649e-04 1.744253374636173248e-02 -2.065123431384563446e-02 -8.105544373393058777e-03 -8.522278629243373871e-03 4.011273384094238281e-03 -3.259325399994850159e-02 -3.661540104076266289e-04 2.809727378189563751e-02 -3.802165761590003967e-02 -2.216180600225925446e-02 -9.098029695451259613e-03 -4.620869178324937820e-03 1.089687738567590714e-02 8.464020490646362305e-02 -1.466633938252925873e-02 -1.899891719222068787e-02 2.340252278372645378e-03 -6.818469846621155739e-04 -3.465336933732032776e-02 2.611405402421951294e-02 9.524588240310549736e-04 -2.144850790500640869e-03 -8.487557061016559601e-04 -2.875791164115071297e-03 -9.365056455135345459e-02 2.021554391831159592e-03 1.094301510602235794e-02 -2.863771654665470123e-02 3.231974318623542786e-03 -4.939422942698001862e-03 4.373085219413042068e-03 -1.621883921325206757e-02 7.655046414583921432e-03 -3.159664198756217957e-02 -1.202834583818912506e-02 -3.469556197524070740e-02 -5.769074428826570511e-03 1.570725254714488983e-02 -7.893504947423934937e-02 1.228354405611753464e-02 6.353419274091720581e-02 2.014849334955215454e-02 -9.441605769097805023e-03 1.492531690746545792e-02 2.559561841189861298e-02 -3.072851710021495819e-02 -1.113632507622241974e-02 1.011292170733213425e-02 -5.811425298452377319e-02 -3.909735381603240967e-02 -3.216557949781417847e-02 3.634717687964439392e-02 -3.437999263405799866e-02 6.802957970649003983e-03 -9.997190907597541809e-03 -2.757383510470390320e-02 2.292444929480552673e-02 -4.232795536518096924e-02 2.317863516509532928e-02 3.070100210607051849e-02 1.008312031626701355e-02 -2.800194919109344482e-02 -4.139650985598564148e-02 1.614644750952720642e-02 -1.066983770579099655e-02 6.645028013736009598e-03 -4.267098009586334229e-02 9.573222487233579159e-04 3.023071214556694031e-03 -3.141036431770771742e-04 -1.544975955039262772e-02 -4.895085468888282776e-02 3.210027888417243958e-02 -4.112930619157850742e-04 4.225805029273033142e-02 -1.165038160979747772e-02 4.246598854660987854e-02 7.881724275648593903e-03 -1.152608171105384827e-02 -3.225848078727722168e-02 2.972974441945552826e-03 6.217830628156661987e-02 -5.337591283023357391e-04 2.722907345741987228e-03 -4.159401357173919678e-02
1.881283335387706757e-02 -7.887721294537186623e-04 -7.428981363773345947e-03 3.690451756119728088e-02 6.137971067801117897e-04 -3.863187506794929504e-02 6.719619501382112503e-03 -2.445488050580024719e-02 -2.650293894112110138e-02 2.467224840074777603e-04 6.715371459722518921e-02 9.737528860569000244e-03 -3.523612627759575844e-03 2.892493503168225288e-03 -1.755292341113090515e-02 1.629283215152099729e-04 6.055681034922599792e-03 2.203995920717716217e-02 3.577397728804498911e-04 4.122055543120950460e-04 -5.397649874794296920e-05 -2.398494817316532135e-02 -6.013702368363738060e-04 -7.416860898956656456e-05 -4.735812544822692871e-02 2.970416098833084106e-04 3.659501089714467525e-04 5.193454213440418243e-03 2.270020730793476105e-02 -2.445904770866036415e-03 -3.134118393063545227e-02 7.129900623112916946e-03 5.620732554234564304e-04 -8.912604302167892456e-03 2.051161602139472961e-02 -6.698499433696269989e-03 9.553192183375358582e-03 -2.705210074782371521e-02 3.613468632102012634e-02 -4.331839457154273987e-02 -6.362272892147302628e-03 -1.358114276081323624e-02 -8.162084035575389862e-03 -3.795110806822776794e-02 -2.329951617866754532e-03 -5.452557466924190521e-03 -4.798562265932559967e-03 3.594752028584480286e-02 -6.478094309568405151e-02 -1.742279157042503357e-02 1.586934551596641541e-02 -1.418080297298729420e-03 5.978798121213912964e-02 3.571671247482299805e-02 1.306160073727369308e-02 -1.805523410439491272e-02 4.237894341349601746e-02 -1.153031480498611927e-03 2.261391200590878725e-04 2.074879361316561699e-03 4.308249801397323608e-03 1.242054568137973547e-04 -1.759772561490535736e-02 -7.185429334640502930e-03 9.388379752635955811e-03 7.968318648636341095e-03 -1.394774019718170166e-02 -1.257739402353763580e-02 -4.840210545808076859e-03 2.179270982742309570e-02 2.804397232830524445e-02 4.828033223748207092e-02 -2.908171899616718292e-02 1.810014829970896244e-03 -3.168826922774314880e-03 9.772863239049911499e-03 1.770782098174095154e-02 2.983819693326950073e-02 6.118054152466356754e-04 9.000414051115512848e-03 -9.312305599451065063e-03 -3.160641063004732132e-04 2.633191645145416260e-02 5.064058350399136543e-04 -7.475860766135156155e-04 5.468369345180690289e-04 1.960223075002431870e-03 4.014827136415988207e-04 -5.541760846972465515e-02 8.948152884840965271e-03 1.096677035093307495e-02 3.089583246037364006e-03 5.450345203280448914e-02 4.799674078822135925e-02 -1.637484505772590637e-02 4.180721589364111423e-04 8.017847430892288685e-04 1.045948918908834457e-02 -2.938825823366641998e-02 5.410956218838691711e-03 1.902428641915321350e-02 -3.093848936259746552e-02 -2.758804336190223694e-02 2.466374821960926056e-02 -1.091079204343259335e-03 -6.524119060486555099e-03 -1.208978123031556606e-03 5.231244955211877823e-03 -3.259812667965888977e-02 -3.405622672289609909e-03 4.963477258570492268e-04 -1.139319385401904583e-03 2.738270163536071777e-02 8.013393729925155640e-03 -2.875619754195213318e-02 1.246778201311826706e-02 2.450471185147762299e-02 -9.049469605088233948e-03 -5.398273002356290817e-03 2.419038116931915283e-02 2.575154067017138004e-04 4.447058215737342834e-02 1.386946067214012146e-02 -1.758376881480216980e-02 -4.178301605861634016e-04 9.411251172423362732e-03 -5.578194744884967804e-03 -5.111906793899834156e-04 -4.985705600120127201e-04 -2.089828625321388245e-02 1.155176141764968634e-04 -6.910347938537597656e-02 4.290560900699347258e-04 -2.745299832895398140e-03 -1.685506105422973633e-02 3.803119435906410217e-02 -9.243389591574668884e-03 2.588471164926886559e-03 -7.750750984996557236e-03 -3.187792317476123571e-04 4.671129863709211349e-04 1.125242561101913452e-03 -2.538083679974079132e-02 8.383700624108314514e-03 -2.406913600862026215e-02 3.387694805860519409e-02 -1.016503665596246719e-02 -4.191122576594352722e-02 -1.627268083393573761e-02 2.412654139334335923e-04 -1.482558529824018478e-02 -2.136823721230030060e-02 6.947020068764686584e-03 1.367675419896841049e-02 -4.178974777460098267e-04 -8.906199596822261810e-03 -4.016319755464792252e-03 2.139584906399250031e-02 2.405012026429176331e-02 5.689613753929734230e-04 -3.420446440577507019e-02 -3.604237735271453857e-02 -1.183216460049152374e-02 -8.126182481646537781e-03 1.175632178783416748e-01 9.396646055392920971e-05 4.980628145858645439e-04 -5.218660831451416016e-02 -2.715588733553886414e-02 -4.990288987755775452e-03 -3.397289663553237915e-02 -4.039897583425045013e-03 -6.604599766433238983e-03 1.388326101005077362e-02 -8.425780385732650757e-02 3.045464120805263519e-02 2.579055167734622955e-02 1.550371292978525162e-02 -5.454785749316215515e-02 -9.017755277454853058e-03 1.650470308959484100e-02 2.512567304074764252e-02 8.404611609876155853e-03 -2.128947526216506958e-02 -2.822893904522061348e-03 9.930294007062911987e-03 2.518768236041069031e-02 -6.830886751413345337e-02 -1.321887830272316933e-04 2.946194959804415703e-03 2.661050856113433838e-02 5.946721066720783710e-04 5.267399549484252930e-02 -4.459011252038180828e-04 3.437841776758432388e-03 -2.387301996350288391e-02 -5.448132753372192383e-03 -1.374011579900979996e-02 -3.368867933750152588e-02 -9.696807712316513062e-03 -5.611469224095344543e-02 1.882251538336277008e-02 4.659421741962432861e-02 2.210337482392787933e-02 2.685320563614368439e-02 -1.229371875524520874e-02 3.973373025655746460e-02 -6.897621788084506989e-03 -2.644055150449275970e-02 6.849379278719425201e-03 -1.332859136164188385e-02 2.167283743619918823e-02 -8.481914177536964417e-03 -1.444082614034414291e-02 1.250381954014301300e-02 -2.095890417695045471e-02 1.472560502588748932e-02 -5.535344593226909637e-03 -3.992240875959396362e-02 -4.242700990289449692e-03 -5.314241629093885422e-03 -5.335573107004165649e-02 -2.412788011133670807e-02 2.959831617772579193e-02 1.511630043387413025e-02 -5.920834094285964966e-02 2.077660337090492249e-02 -1.848315075039863586e-02 -1.925379969179630280e-02 4.113707691431045532e-03 -2.112347632646560669e-03 9.488971903920173645e-03 -3.044268488883972168e-02 -2.768365480005741119e-02 -1.383068598806858063e-02 -1.489722356200218201e-02 9.514239616692066193e-03 -1.169961178675293922e-04 -2.821663394570350647e-02 2.403508685529232025e-02 4.232462961226701736e-04 -2.105912938714027405e-02 2.285264246165752411e-02 2.197487652301788330e-02 -8.904885362426284701e-06 -2.193003892898559570e-02 -1.022928878664970398e-01 -9.623734280467033386e-03 5.157592706382274628e-03 -1.355125196278095245e-02 1.588815264403820038e-02 -2.452652528882026672e-02 4.471009969711303711e-02 -1.006238441914319992e-02 -1.120680570602416992e-02 -1.058711949735879898e-02
-2.020204812288284302e-02 1.911234539875295013e-05 6.906242668628692627e-02 -1.237880811095237732e-02 -1.072894898243248463e-03 5.736338440328836441e-03 -3.521952405571937561e-02 1.570951938629150391e-01 -1.506746653467416763e-02 3.301031421869993210e-03 3.155620768666267395e-02 -7.044929079711437225e-03 2.068940550088882446e-02 -1.089189294725656509e-02 -1.313275098800659180e-02 -2.681165747344493866e-02 -1.872221753001213074e-02 2.439317852258682251e-02 6.114529678598046303e-04 -1.067307428456842899e-03 3.429450734984129667e-04 3.928407654166221619e-02 5.326560858520679176e-05 -2.477690204977989197e-02 1.444303337484598160e-02 -3.256241616327315569e-04 2.167747652492835186e-06 -1.878271624445915222e-02 -3.097303444519639015e-03 3.674784384202212095e-04 1.219051051884889603e-02 2.507983706891536713e-02 1.033060470945201814e-04 1.108389114961028099e-03 -4.985805973410606384e-02 -2.154249697923660278e-02 5.280256737023591995e-04 2.519844658672809601e-02 -1.975214108824729919e-02 -2.234799973666667938e-02 -1.245644129812717438e-02 -1.749541237950325012e-02 1.017441041767597198e-02 -2.953083254396915436e-02 -4.124274943023920059e-03 5.613975226879119873e-03 1.821923069655895233e-02 -1.834184513427317142e-03 1.636352017521858215e-02 1.960950670763850212e-03 -5.964210722595453262e-04 -3.205665573477745056e-02 3.550286591053009033e-02 -2.729751728475093842e-02 1.332151144742965698e-02 -1.493863295763731003e-02 -1.982719637453556061e-02 -1.870245113968849182e-02 1.233545015566051006e-03 -2.488640882074832916e-02 -1.378564536571502686e-02 -1.476817560615018010e-04 -1.168286707252264023e-02 1.050883671268820763e-03 -3.579418361186981201e-02 -7.482784800231456757e-03 -1.802058145403862000e-02 4.166762530803680420e-02 -2.912418451160192490e-03 -2.989755244925618172e-03 -6.430222187191247940e-03 -3.464230522513389587e-02 -9.748319163918495178e-03 -1.617395505309104919e-02 4.431679472327232361e-02 -2.347848191857337952e-02 -9.845016524195671082e-03 -1.363535877317190170e-02 -1.227656961418688297e-03 -8.793983608484268188e-03 5.684461444616317749e-03 -6.503272452391684055e-04 1.260960567742586136e-02 -9.268481517210602760e-04 -1.953014405444264412e-03 6.891800148878246546e-05 -1.568208262324333191e-02 1.096969936043024063e-04 -1.182060595601797104e-02 5.523695796728134155e-02 1.108253491111099720e-03 -2.870234660804271698e-02 6.631786935031414032e-03 -4.838835448026657104e-03 -4.572330508381128311e-03 1.756544370437040925e-04 2.022095257416367531e-03 2.320132218301296234e-03 -6.410434842109680176e-03 -4.177784547209739685e-03 6.087437737733125687e-03 4.124106373637914658e-03 -1.262439694255590439e-02 1.709799654781818390e-02 -2.526897704228758812e-03 1.269466988742351532e-02 1.677973341429606080e-05 4.028433188796043396e-02 9.729070588946342468e-03 -2.350953780114650726e-02 -1.709651551209390163e-03 -1.276892982423305511e-02 2.456014975905418396e-03 -3.426966723054647446e-03 -2.544465009123086929e-03 9.788877330720424652e-03 -1.092488039284944534e-02 -9.589386172592639923e-03 -8.095564320683479309e-03 -1.782604493200778961e-02 -1.875850284704938531e-04 2.420079149305820465e-02 -3.016726113855838776e-03 1.583791337907314301e-02 9.405030868947505951e-03 -2.887387294322252274e-03 -2.508105896413326263e-02 -2.633044496178627014e-04 -2.617884601932018995e-04 7.840502075850963593e-03 4.980146768502891064e-04 2.228196524083614349e-02 -3.190292045474052429e-04 -6.140840705484151840e-03 2.852448495104908943e-03 1.324882172048091888e-02 3.009500727057456970e-02 -2.578475140035152435e-02 -2.211572788655757904e-02 -9.621194913052022457e-04 -3.169000556226819754e-04 -1.160732749849557877e-02 -2.203743159770965576e-02 -1.817011088132858276e-02 9.161444753408432007e-02 6.324695050716400146e-02 -1.564818806946277618e-02 3.136067092418670654e-02 -8.690590038895606995e-03 -1.093523576855659485e-03 -3.539980156347155571e-03 6.610275804996490479e-02 2.815449051558971405e-02 -2.301440807059407234e-03 -7.672032224945724010e-04 -1.457278244197368622e-02 2.295631915330886841e-02 4.125940147787332535e-03 -7.127630989998579025e-03 -6.744723068550229073e-04 5.263544619083404541e-02 -8.036463521420955658e-03 -1.332812570035457611e-02 -7.807701826095581055e-03 -2.011450007557868958e-02 -4.591987817548215389e-04 7.003874517977237701e-03 1.983237080276012421e-02 -1.467243768274784088e-02 -2.844718098640441895e-02 2.025751629844307899e-03 -1.363202184438705444e-02 2.574537415057420731e-03 -3.068504622206091881e-03 3.903872519731521606e-02 -9.223986417055130005e-03 1.175024360418319702e-02 -7.931668311357498169e-03 7.202036213129758835e-03 -6.900219246745109558e-03 -3.621488809585571289e-03 -2.492819679901003838e-03 5.332421045750379562e-03 7.457950618118047714e-03 6.864652037620544434e-02 2.018362097442150116e-02 3.521379316225647926e-03 2.141444198787212372e-02 5.697263986803591251e-06 1.613654196262359619e-02 -1.687746681272983551e-02 -5.629266379401087761e-04 -8.321373723447322845e-03 9.427546756342053413e-04 -3.459187597036361694e-02 -3.847637027502059937e-02 -3.640248440206050873e-03 7.268279790878295898e-02 -8.038655854761600494e-03 1.104038581252098083e-02 1.912949979305267334e-02 3.095994517207145691e-02 -1.255962532013654709e-03 -3.258429467678070068e-02 -3.766335081309080124e-03 -5.045920237898826599e-02 8.596269413828849792e-03 -3.634780645370483398e-02 -5.731733981519937515e-03 -1.509595476090908051e-02 -9.786156006157398224e-03 -1.661988161504268646e-02 -1.955254375934600830e-02 -1.551615819334983826e-02 3.370426222681999207e-02 -6.191843189299106598e-03 8.965603075921535492e-03 -2.384225837886333466e-02 -7.714131381362676620e-03 2.729689702391624451e-03 -7.126674521714448929e-03 7.098110392689704895e-03 1.088911015540361404e-02 7.812362629920244217e-03 -1.052552554756402969e-02 3.648118302226066589e-02 2.450827881693840027e-02 -1.710143499076366425e-02 -3.252328140661120415e-03 -1.096515916287899017e-02 1.989998295903205872e-02 -1.434395741671323776e-02 -1.149760279804468155e-02 4.619542509317398071e-03 2.882163971662521362e-03 2.795446105301380157e-02 4.361670929938554764e-03 4.848132282495498657e-02 -1.163233816623687744e-02 -2.834555460140109062e-03 1.286801765672862530e-03 -9.351345710456371307e-03 -2.001685276627540588e-02 2.353460760787129402e-03 -9.160831382359901909e-07 5.248201079666614532e-03 1.214976236224174500e-02 -8.874500170350074768e-03 -1.129361800849437714e-02 -4.194615874439477921e-03 -5.010724067687988281e-03 -1.017237664200365543e-03 -5.203162785619497299e-03 -1.831501349806785583e-02 -1.796605996787548065e-02 -6.208555423654615879e-04
