-4.413629882037639618e-03 -1.188777387142181396e-02 2.124336548149585724e-02 -4.595614969730377197e-03 5.289119202643632889e-03 1.500453054904937744e-02 3.457413404248654842e-04 1.549592893570661545e-02 -9.798811515793204308e-04 1.983673870563507080e-02 -3.891918109729886055e-03 -6.095643155276775360e-03 1.186027843505144119e-02 -2.080801787087693810e-04 3.202709928154945374e-02 4.614235460758209229e-02 5.247475113719701767e-03 -1.538802124559879303e-02 1.946924440562725067e-02 3.119345754384994507e-02 -1.993135520024225116e-04 1.645819284021854401e-03 1.103941909968852997e-02 -1.565237063914537430e-03 9.853029623627662659e-04 2.728276140987873077e-02 -1.891373097896575928e-02 1.135084591805934906e-02 -4.476161673665046692e-03 7.275351788848638535e-03 2.723601274192333221e-02 1.319050602614879608e-02 -1.429770421236753464e-02 -3.491433709859848022e-02 -9.621012955904006958e-03 -7.668946869671344757e-03 1.573035679757595062e-02 6.050452589988708496e-03 4.596397653222084045e-02 1.094125397503376007e-02 2.157954033464193344e-03 -4.963989369571208954e-03 5.098578054457902908e-03 1.954958587884902954e-02 -8.881825953722000122e-03 4.402410611510276794e-02 -5.231901537626981735e-03 2.541235461831092834e-02 -2.446736441925168037e-03 1.065870281308889389e-03 -5.954046733677387238e-03 8.104794658720493317e-03 -9.674816392362117767e-03 -4.280403256416320801e-03 1.335916575044393539e-02 4.122247174382209778e-02 -1.235305797308683395e-02 -1.552102621644735336e-02 1.503167860209941864e-02 2.239255001768469810e-03 1.707748509943485260e-02 2.267946954816579819e-03 4.201112315058708191e-02 6.660424172878265381e-03 -2.660178113728761673e-03 3.975844010710716248e-03 5.021489225327968597e-03 -2.484450303018093109e-02 3.639999777078628540e-02 -3.358534723520278931e-02 3.693176899105310440e-03 1.200177054852247238e-02 -1.092917402274906635e-03 -5.888992454856634140e-03 1.611315645277500153e-02 1.794034056365489960e-02 -1.662855595350265503e-02 -9.405101649463176727e-03 -1.256250543519854546e-03 4.901024326682090759e-02 3.851896617561578751e-03 -2.345496043562889099e-02 -9.544382803142070770e-03 1.231733150780200958e-02 -3.593426197767257690e-02 1.084301853552460670e-03 2.581462264060974121e-03 4.235656931996345520e-02 1.955004781484603882e-02 2.110391296446323395e-02 1.670637726783752441e-02 7.980471476912498474e-03 7.532477844506502151e-03 1.304450538009405136e-02 9.083158336579799652e-03 5.240414664149284363e-02 -2.209553495049476624e-02 2.674848306924104691e-03 2.216586843132972717e-02 -1.361184986308217049e-03 9.148761630058288574e-03 1.108440477401018143e-02 3.768764669075608253e-03 -8.180530741810798645e-03 9.016858530230820179e-04 1.079078391194343567e-02 -1.613289117813110352e-03 2.273415215313434601e-02 2.584069734439253807e-03 9.078981747734360397e-06 1.976870000362396240e-02 1.886699721217155457e-02 -2.230042591691017151e-02 -3.242646530270576477e-02 5.874209105968475342e-03 -1.801457442343235016e-02 -3.478275611996650696e-03 -2.364952303469181061e-02 1.193330436944961548e-02 2.382952906191349030e-02 1.492969598621129990e-02 1.331579312682151794e-02 1.828537881374359131e-02 7.119853980839252472e-03 4.844598472118377686e-03 2.105326950550079346e-02 2.604888519272208214e-03 -1.481819245964288712e-02 -1.608582586050033569e-02 1.576232165098190308e-02 8.190444670617580414e-03 2.616320177912712097e-02 2.772239595651626587e-02 -1.668816315941512585e-03 -5.922256503254175186e-03 2.297230064868927002e-03 9.664135053753852844e-03 4.681764170527458191e-02 1.450073346495628357e-02 -6.654016324318945408e-04 -2.131809666752815247e-02 2.825259696692228317e-03 -1.061477232724428177e-03 -3.035074658691883087e-02 1.402505021542310715e-02 6.020247470587491989e-03 3.756903810426592827e-03 -3.312297398224473000e-03 4.541854839771986008e-03 -5.935109686106443405e-03 1.746641099452972412e-02 -4.730409476906061172e-03 2.690010331571102142e-02 1.344151515513658524e-02 2.024380862712860107e-02 1.544686779379844666e-02 2.220882661640644073e-02 -1.221924182027578354e-02 -1.654162653721868992e-03 5.133968312293291092e-03 2.309370227158069611e-02 5.613129120320081711e-03 -4.523363430052995682e-03 3.972955793142318726e-02 -7.278033066540956497e-03 1.730724237859249115e-02 1.635346189141273499e-02 2.796282805502414703e-02 -6.910554948262870312e-04 -9.837036952376365662e-03 5.775834433734416962e-03 -1.141051994636654854e-03 1.447309553623199463e-02 1.019655144773423672e-03 1.826022192835807800e-02 8.613249287009239197e-03 -6.424046121537685394e-03 -4.184589721262454987e-03 -1.148501783609390259e-02 -1.553622074425220490e-02 1.637736102566123009e-03 2.919213473796844482e-02 -3.482795506715774536e-02 4.194685723632574081e-03 5.280965007841587067e-03 3.592647844925522804e-03 -8.951865136623382568e-03 3.134429827332496643e-02 2.001461014151573181e-02 -3.058949005207978189e-05 -2.452595392242074013e-03 1.602070964872837067e-02 8.993852883577346802e-03 3.311842679977416992e-02 -3.696664795279502869e-02 6.402608007192611694e-03 -1.361289247870445251e-02 1.858757063746452332e-02 5.723902955651283264e-03 -3.330259025096893311e-02 -1.294903177767992020e-02 5.436967127025127411e-03 5.271640606224536896e-03 -1.275568362325429916e-02 1.674224808812141418e-02 1.867151632905006409e-02 1.021572295576334000e-02 1.313403621315956116e-02 6.527407094836235046e-05 -1.203418243676424026e-02 1.208686362951993942e-02 4.407873004674911499e-02 -3.101262822747230530e-02 -8.642543107271194458e-03 2.761736139655113220e-02 -3.937353380024433136e-03 -1.347003784030675888e-02 2.594918012619018555e-03 1.446363888680934906e-02 1.780960522592067719e-02 1.940397173166275024e-02 -1.845032349228858948e-02 -1.670952141284942627e-02 -4.753035027533769608e-03 1.463857945054769516e-03 1.161184255033731461e-02 1.989270932972431183e-02 9.178488515317440033e-03 6.041313055902719498e-03 -3.557077050209045410e-02 -1.773485098965466022e-03 6.721922662109136581e-03 -5.516706500202417374e-03 -1.129418145865201950e-02 1.708940975368022919e-02 9.027149528264999390e-03 1.831517368555068970e-02 -4.521370679140090942e-02 2.933467738330364227e-02 2.251660451292991638e-02 -2.998905983986333013e-05 1.851617917418479919e-02 4.729053005576133728e-02 2.266947925090789795e-02 -1.514260470867156982e-02 1.910386048257350922e-02 -7.672220002859830856e-03 5.302902776747941971e-03 1.419273298233747482e-02 -4.316578619182109833e-03 2.123048342764377594e-02 -1.154525205492973328e-02 -2.391918562352657318e-02 1.647772034630179405e-03 -2.015682868659496307e-02 9.330105967819690704e-03
1.310956478118896484e-02 -1.105799339711666107e-02 8.569349534809589386e-03 -3.241892158985137939e-02 3.131875768303871155e-03 2.408587373793125153e-02 5.028853658586740494e-03 3.279569000005722046e-02 -6.291309371590614319e-03 1.700133085250854492e-02 1.055115647614002228e-02 -1.887898519635200500e-02 2.999689057469367981e-02 3.186696674674749374e-03 -1.937760785222053528e-02 -1.139977108687162399e-02 6.287067197263240814e-03 -1.359713077545166016e-02 -1.932010985910892487e-02 -2.002618275582790375e-02 -3.901757067069411278e-03 7.348919752985239029e-03 4.449109546840190887e-03 -2.409216761589050293e-02 -1.166128274053335190e-02 1.106295362114906311e-02 -9.069410152733325958e-03 -1.422429922968149185e-02 -2.882229164242744446e-02 -4.796838853508234024e-03 -4.114320874214172363e-02 -2.866797335445880890e-02 5.164456553757190704e-03 -3.418937325477600098e-02 -3.183124586939811707e-02 -3.900448791682720184e-03 1.414204761385917664e-02 7.312781643122434616e-03 1.205759122967720032e-02 -6.045682821422815323e-03 1.148221315816044807e-03 -8.965442888438701630e-03 2.978275064378976822e-03 -1.863939315080642700e-02 -6.208181381225585938e-03 -1.627513766288757324e-02 -3.306336700916290283e-02 -1.622998155653476715e-02 -5.645758658647537231e-02 -3.546630963683128357e-02 1.535963639616966248e-02 -1.315403543412685394e-02 6.952117662876844406e-03 -5.064817611128091812e-03 1.302266400307416916e-02 -1.290425192564725876e-02 -1.296758092939853668e-02 4.545084084384143353e-05 -5.587258841842412949e-03 9.041735902428627014e-03 -1.560658123344182968e-02 -5.821111425757408142e-02 -1.605999842286109924e-02 1.546271611005067825e-02 2.464498765766620636e-02 -1.832951675169169903e-04 -1.315650902688503265e-02 -1.075620017945766449e-02 -1.113686338067054749e-02 -8.153187111020088196e-03 -3.488762676715850830e-02 6.177358329296112061e-03 2.874009311199188232e-03 1.415941771119832993e-02 -5.221015773713588715e-03 1.764900982379913330e-02 -2.340781735256314278e-03 -1.066468190401792526e-02 5.584335420280694962e-03 -9.819518774747848511e-03 -1.595377922058105469e-02 -2.338332124054431915e-02 2.296267636120319366e-02 -1.699718832969665527e-02 1.429194305092096329e-02 -5.708961281925439835e-03 -3.050223737955093384e-02 -7.712474907748401165e-04 -1.164795830845832825e-03 4.129884764552116394e-02 4.738911241292953491e-02 1.380551233887672424e-02 2.029200270771980286e-02 -6.016199942678213120e-03 -3.961170092225074768e-02 4.983795806765556335e-03 -3.107608854770660400e-02 8.052229881286621094e-03 -2.696082368493080139e-02 1.422679779352620244e-04 1.008916646242141724e-02 -2.057087421417236328e-02 1.101237954571843147e-03 5.750141106545925140e-03 1.726908981800079346e-02 1.046367641538381577e-02 -9.392713196575641632e-03 2.372773597016930580e-03 2.062491700053215027e-02 -1.630420051515102386e-02 -8.090412244200706482e-03 -1.611177623271942139e-02 3.209116403013467789e-04 1.523518748581409454e-02 1.358429808169603348e-02 2.132218517363071442e-02 -7.208354654721915722e-04 1.430818997323513031e-02 2.157142944633960724e-02 1.637256145477294922e-02 -2.429952844977378845e-02 -6.216431036591529846e-03 -1.539711491204798222e-03 -5.421994719654321671e-03 1.003040838986635208e-02 1.740874373354017735e-03 8.232086896896362305e-03 1.890832754725124687e-05 4.375916440039873123e-03 -2.351609431207180023e-02 1.933784969151020050e-02 5.824492312967777252e-03 7.737417705357074738e-03 -8.754968643188476562e-03 6.145623978227376938e-03 -3.096262179315090179e-02 -2.567663788795471191e-03 -3.892735764384269714e-02 6.450353655964136124e-03 -1.035306137055158615e-02 -3.537563234567642212e-02 5.313112400472164154e-03 1.714921928942203522e-02 5.488242488354444504e-03 1.287917047739028931e-02 9.011571295559406281e-03 -1.083390414714813232e-02 2.362754568457603455e-02 -8.210074156522750854e-03 1.063445769250392914e-02 -2.650992199778556824e-02 -1.150994841009378433e-02 1.178226061165332794e-02 -1.432982645928859711e-02 -1.752639375627040863e-02 1.819319650530815125e-02 2.256311103701591492e-02 1.766203902661800385e-02 -1.166960503906011581e-02 2.149216271936893463e-02 -5.942661315202713013e-03 -1.266537886112928391e-02 -3.859874268528074026e-04 6.464672740548849106e-03 -1.061316113919019699e-03 9.047483094036579132e-03 -1.299017947167158127e-02 -8.342954330146312714e-03 1.902652904391288757e-02 3.465662896633148193e-02 6.219724658876657486e-03 -2.830106019973754883e-02 2.318309620022773743e-02 -8.103819563984870911e-03 -2.679674327373504639e-02 2.114885486662387848e-02 2.438982576131820679e-02 -1.739813573658466339e-02 5.818410310894250870e-03 -2.153194509446620941e-02 3.349265083670616150e-02 1.709397137165069580e-02 8.397198282182216644e-03 -5.248127970844507217e-03 -6.232087500393390656e-03 -1.657585613429546356e-02 -4.403469711542129517e-02 1.121245790272951126e-02 -1.972068101167678833e-02 -1.327472086995840073e-02 -2.518767956644296646e-03 -1.979182474315166473e-02 8.247409947216510773e-03 -1.451963558793067932e-02 -6.456309463828802109e-03 -1.212297938764095306e-03 3.018780553247779608e-04 8.132069371640682220e-03 3.445617330726236105e-04 1.086413394659757614e-02 1.711603999137878418e-02 1.276824343949556351e-02 4.740429576486349106e-03 -1.061638910323381424e-02 -9.756109677255153656e-03 4.606366902589797974e-02 -1.226254645735025406e-02 7.916815578937530518e-03 -1.033388916403055191e-02 1.556661725044250488e-02 -1.218233350664377213e-02 -6.910811178386211395e-03 -1.134502887725830078e-02 -3.034713119268417358e-02 -2.758360281586647034e-02 1.838634908199310303e-02 2.525697089731693268e-02 5.471779499202966690e-03 3.133876994252204895e-02 1.818901509977877140e-03 -5.643430165946483612e-03 -3.400776768103241920e-03 -1.279217284172773361e-02 -2.455757232382893562e-03 2.505352906882762909e-02 -1.430895831435918808e-02 -7.887982763350009918e-03 -2.043503569439053535e-03 1.607379317283630371e-02 -1.392163056880235672e-02 -1.689244620501995087e-02 -2.305929735302925110e-02 -7.505714893341064453e-03 -1.705407723784446716e-02 -4.114631097763776779e-03 -1.918331533670425415e-02 2.756233094260096550e-03 -7.327248458750545979e-04 -7.601031102240085602e-03 -1.699147163890302181e-03 -4.255361389368772507e-03 -2.230248227715492249e-02 -2.607174217700958252e-03 3.179547144100070000e-03 3.500551218166947365e-03 -4.762504994869232178e-02 -9.795251302421092987e-03 9.927405044436454773e-03 -2.448469167575240135e-03 2.615503581182565540e-05 -2.193784900009632111e-02 -1.723205670714378357e-02 5.749466363340616226e-03 1.099253259599208832e-02 2.915278309956192970e-03 -6.558548659086227417e-03
-3.351308987475931644e-04 -8.974666125141084194e-04 -7.603946723975241184e-04 1.279330172110348940e-04 -1.048700651153922081e-03 -4.191223997622728348e-04 2.680219768080860376e-04 -6.274438346736133099e-04 -3.727611619979143143e-04 1.855172304203733802e-04 7.206618320196866989e-04 6.475180853158235550e-04 -3.387041215319186449e-04 -6.618468323722481728e-04 -5.383328534662723541e-04 -2.156092086806893349e-04 -3.320507239550352097e-04 -7.587332220282405615e-05 1.406701776431873441e-04 -1.449539093300700188e-03 -7.579172961413860321e-04 -1.714178506517782807e-04 -7.902728393673896790e-04 -8.845879347063601017e-04 2.152651577489450574e-04 -4.588781666825525463e-05 -1.396867679432034492e-03 8.845491101965308189e-04 -4.328306240495294333e-04 -4.457148315850645304e-04 -9.794069919735193253e-04 -8.872473263181746006e-04 -1.852857065387070179e-03 -3.356720844749361277e-04 -9.049600921571254730e-04 5.500242114067077637e-04 -3.900328301824629307e-04 4.019489861093461514e-04 -6.649711285717785358e-04 -1.612143008969724178e-03 -1.222836552187800407e-03 4.156033392064273357e-04 7.904331432655453682e-04 -5.866708816029131413e-04 -5.016478826291859150e-04 1.153175369836390018e-03 -6.600152701139450073e-04 1.048903213813900948e-03 1.597141090314835310e-04 -6.582082714885473251e-04 7.918436313048005104e-04 4.674635420087724924e-04 -1.700700340734329075e-05 -1.414383528754115105e-03 -7.064138480927795172e-05 -1.020073192194104195e-03 -8.000507368706166744e-04 -5.956409149803221226e-04 -2.941645798273384571e-04 -1.815272407839074731e-04 2.073964133160188794e-04 2.374378236709162593e-04 -6.555611616931855679e-04 -3.099270543316379189e-05 3.515067146508954465e-05 2.760762581601738930e-04 -6.066405912861227989e-04 -4.219494003336876631e-04 -6.197564071044325829e-04 6.343005225062370300e-05 -1.098149339668452740e-03 -1.580310054123401642e-03 -5.000742967240512371e-04 -7.032598950900137424e-04 1.458832528442144394e-03 -8.206732309190556407e-05 -7.718073902651667595e-04 -3.262110694777220488e-04 8.792167645879089832e-04 3.323903001728467643e-05 6.959592428756877780e-05 -1.099348417483270168e-03 -7.067349506542086601e-04 -5.659572198055684566e-04 -1.032199710607528687e-03 -7.219454855658113956e-04 8.887342846719548106e-05 -6.224993267096579075e-04 -1.244633403985062614e-05 -8.088073227554559708e-04 -9.770933538675308228e-04 -2.227791555924341083e-04 -9.377765236422419548e-04 -1.857263618148863316e-03 -6.583558570127934217e-05 -1.060917042195796967e-03 -2.758807386271655560e-04 4.637136589735746384e-05 -8.384104585275053978e-04 7.125747506506741047e-04 -5.250073154456913471e-04 -2.292226999998092651e-04 5.488782699103467166e-05 -1.065404794644564390e-04 -1.718710554996505380e-04 -7.903331425040960312e-04 -8.202445460483431816e-04 2.070926166197750717e-05 -4.860478802584111691e-04 -2.488506434019654989e-04 -9.603046928532421589e-04 -2.088490582536906004e-04 1.308763050474226475e-03 -4.080739163327962160e-04 2.168336504837498069e-04 -1.319538336247205734e-03 -1.374296145513653755e-03 2.951651695184409618e-04 -6.897679995745420456e-04 -1.009201241686241701e-06 -1.188591006211936474e-03 -8.682904299348592758e-04 -1.537435455247759819e-04 1.780282473191618919e-04 -8.096835226751863956e-04 -2.383899991400539875e-04 1.066390814230544493e-05 -1.855901937233284116e-04 3.153932048007845879e-04 -8.637072751298546791e-04 7.578594377264380455e-04 2.752287837211042643e-04 -9.945220081135630608e-04 -1.403774367645382881e-04 -3.605563251767307520e-04 -7.173102349042892456e-04 8.505628793500363827e-04 4.447119135875254869e-04 -6.205573445186018944e-04 -7.629074389114975929e-04 -4.047969196108169854e-05 -6.204137462191283703e-04 9.371393825858831406e-04 -1.097222790122032166e-03 -2.994886017404496670e-04 -1.215583761222660542e-04 -1.357155735604465008e-03 -2.891367767006158829e-04 7.841775659471750259e-04 4.372922921902500093e-05 -7.299258722923696041e-04 9.857508121058344841e-04 1.280205469811335206e-04 -5.755483871325850487e-04 -2.150697837350890040e-04 -6.132235866971313953e-04 -5.213977419771254063e-05 3.492164250928908587e-04 -7.650995394214987755e-04 -6.685921689495444298e-04 6.401744321919977665e-04 -6.829740013927221298e-04 -1.284986967220902443e-03 -3.050068335141986609e-04 -5.441756220534443855e-04 6.914833211340010166e-04 -1.802125130780041218e-03 -9.386100573465228081e-04 -5.815393524244427681e-04 8.852528117131441832e-05 -2.008103183470666409e-04 -3.032574313692748547e-04 -7.037245668470859528e-04 -4.869519907515496016e-04 -7.998330402188003063e-04 -1.322946161963045597e-03 2.608147042337805033e-04 -6.300068926066160202e-04 -8.327916730195283890e-04 -8.190783410100266337e-05 1.026488607749342918e-03 -1.037938287481665611e-03 -5.567697808146476746e-04 1.340622402494773269e-04 -5.017285584472119808e-04 -4.032692522741854191e-04 -8.758392650634050369e-04 -1.167680602520704269e-03 -1.153391785919666290e-03 -3.811845090240240097e-04 4.016891471110284328e-04 2.332748117623850703e-04 5.392096354626119137e-04 2.985936007462441921e-04 -8.473428169963881373e-05 -1.340470160357654095e-03 -5.356940673664212227e-04 -7.467993418686091900e-04 2.070061455015093088e-04 1.432582648703828454e-04 -4.397179873194545507e-04 -1.030516694299876690e-03 9.601659839972853661e-04 -3.546074731275439262e-04 4.712666850537061691e-04 4.877342871623113751e-05 7.498979684896767139e-04 -8.745048544369637966e-04 -1.098474720492959023e-03 -5.542412400245666504e-04 -1.099796732887625694e-03 -4.303053719922900200e-04 -3.003931487910449505e-04 -1.033368316711857915e-04 1.364628988085314631e-04 -9.788875468075275421e-04 -6.887411582283675671e-04 -3.153933794237673283e-04 6.923705950612202287e-05 -1.274224719963967800e-03 7.913401932455599308e-04 1.430413540219888091e-04 -8.220581803470849991e-04 -7.982860552147030830e-04 -6.703613325953483582e-04 -3.636262263171374798e-04 -6.100087775848805904e-04 -6.871498771943151951e-04 -2.077776007354259491e-04 -1.979401713469997048e-04 5.190650699660181999e-04 -3.113564162049442530e-04 -8.432986796833574772e-04 -2.496446832083165646e-04 -3.566835366655141115e-04 -5.379507783800363541e-04 4.168766608927398920e-04 3.050546911254059523e-05 1.306531194131821394e-04 8.491764892823994160e-04 -5.638938164338469505e-04 -5.029748426750302315e-04 -2.972187357954680920e-04 9.420822025276720524e-04 1.134512131102383137e-03 4.763281031046062708e-04 -5.350580904632806778e-04 5.422555259428918362e-04 2.670030225999653339e-04 -7.139376248233020306e-04 -1.126230345107614994e-03 9.641494834795594215e-04 -1.078441389836370945e-03 -4.455813323147594929e-04 -1.069501857273280621e-03 -4.621941479854285717e-04
-2.842126414179801941e-03 -1.804869063198566437e-02 1.752459630370140076e-02 -1.747932471334934235e-02 1.686883531510829926e-02 2.765195071697235107e-02 3.530849516391754150e-02 1.493724528700113297e-02 -2.425023168325424194e-02 -3.140808839816600084e-04 1.888659200631082058e-03 -1.277126837521791458e-02 -1.226116344332695007e-02 5.393714644014835358e-03 1.191057637333869934e-02 8.721832185983657837e-03 1.951316557824611664e-02 -9.888943284749984741e-03 -1.161651965230703354e-02 3.319285809993743896e-03 -1.970974728465080261e-03 -6.645171903073787689e-03 9.551224298775196075e-03 -1.690671592950820923e-02 -1.294249948114156723e-02 -2.713555935770273209e-03 -1.027362048625946045e-02 6.128112319856882095e-03 -4.933865740895271301e-03 1.826024847105145454e-03 -3.318094834685325623e-02 -6.312254350632429123e-03 6.111512426286935806e-03 -2.139551751315593719e-02 -7.692197337746620178e-03 -9.955347515642642975e-03 6.122135673649609089e-04 5.276491399854421616e-03 2.389371767640113831e-02 1.197296380996704102e-02 -1.584793440997600555e-02 1.598361530341207981e-03 1.372082717716693878e-02 -1.745643839240074158e-02 6.623383145779371262e-03 1.791571965441107750e-03 -2.904181368649005890e-02 9.600037708878517151e-03 -4.752513021230697632e-02 -1.661063916981220245e-02 7.838431745767593384e-03 -1.241232268512248993e-03 4.181680735200643539e-03 -1.232541538774967194e-02 -1.685862988233566284e-02 -5.271373782306909561e-03 -3.514392534270882607e-03 3.877616953104734421e-03 -1.682646572589874268e-02 -9.003511629998683929e-03 6.295045604929327965e-04 -3.261826559901237488e-02 -1.930755749344825745e-02 3.280260041356086731e-02 2.144695259630680084e-02 1.670173183083534241e-02 -2.538599632680416107e-02 -6.187701597809791565e-03 -3.422364825382828712e-03 -1.270751748234033585e-02 -2.383482456207275391e-02 3.016906324774026871e-03 2.112296596169471741e-02 1.769162900745868683e-02 3.772007068619132042e-03 2.195879817008972168e-02 8.390332572162151337e-03 2.701441990211606026e-03 1.990069262683391571e-02 1.625808142125606537e-02 -5.388754419982433319e-03 -4.634330794215202332e-02 -8.322704583406448364e-03 -2.364710718393325806e-02 6.407274398952722549e-03 -3.196015208959579468e-02 5.618965951725840569e-04 1.790954917669296265e-02 -1.600040122866630554e-02 2.571000158786773682e-02 1.152226608246564865e-02 7.908554747700691223e-03 2.358996123075485229e-02 -1.156249549239873886e-02 -1.059840992093086243e-02 -1.016010530292987823e-02 -2.842277102172374725e-02 6.701170001178979874e-03 9.246659465134143829e-03 9.993427433073520660e-03 5.264146719127893448e-03 -1.399505138397216797e-02 9.467262774705886841e-03 2.118190517649054527e-03 5.504760425537824631e-03 -6.266107317060232162e-03 -1.402026508003473282e-02 1.214995514601469040e-02 -1.781988888978958130e-02 -6.532286759465932846e-03 -3.030956489965319633e-03 -3.375053405761718750e-02 -1.075591053813695908e-02 6.318435538560152054e-03 1.803277991712093353e-02 6.836214568465948105e-03 1.208100817166268826e-03 1.965800672769546509e-02 -5.890167318284511566e-03 2.014609798789024353e-02 -3.126814961433410645e-02 1.008888334035873413e-02 3.207572922110557556e-02 1.311984006315469742e-02 -3.879706561565399170e-02 -4.394377581775188446e-03 1.035315077751874924e-02 -7.983526214957237244e-03 1.226582378149032593e-02 -1.510355900973081589e-02 1.376159209758043289e-02 -6.850244011729955673e-03 -5.666980985552072525e-03 5.108018405735492706e-03 -3.176762489601969719e-03 -1.219307631254196167e-02 -3.894788213074207306e-03 -1.987947523593902588e-02 5.548027344048023224e-03 1.285608112812042236e-02 -1.320096384733915329e-02 -9.412739425897598267e-03 2.294364757835865021e-02 -3.644272917881608009e-03 6.538199726492166519e-03 6.147818174213171005e-03 -8.937113918364048004e-03 2.240035124123096466e-02 -7.068955339491367340e-03 -1.142918597906827927e-02 -6.821459392085671425e-04 -1.405916921794414520e-02 2.146756974980235100e-03 -2.498260512948036194e-02 -3.066624328494071960e-02 6.309456191956996918e-03 1.589419087395071983e-03 1.631814055144786835e-02 -9.389085695147514343e-03 9.607587940990924835e-03 -1.821808516979217529e-02 6.383936852216720581e-03 9.815203957259654999e-03 4.404959268867969513e-03 1.790794916450977325e-02 5.567593034356832504e-03 5.726472940295934677e-03 -3.866943344473838806e-02 -2.051764633506536484e-03 3.265633806586265564e-02 -2.425315789878368378e-03 -3.303721547126770020e-02 1.598872058093547821e-02 -9.692422114312648773e-03 -3.893788158893585205e-02 -3.725031623616814613e-03 3.157720435410737991e-03 -7.753674435662105680e-05 -2.514877123758196831e-03 3.213976509869098663e-03 7.050665561109781265e-03 3.269816935062408447e-02 -2.271054685115814209e-02 -1.688290201127529144e-02 -2.197372540831565857e-02 -3.242075443267822266e-02 -2.811327204108238220e-02 1.885630190372467041e-02 -4.391953349113464355e-03 1.443598885089159012e-03 -3.324668109416961670e-02 -6.998554454185068607e-05 2.475170977413654327e-02 -2.837078645825386047e-02 9.660839103162288666e-03 -1.557341124862432480e-02 -9.438448585569858551e-03 1.894268090836703777e-03 -2.841454371809959412e-02 1.670479215681552887e-02 -3.421765565872192383e-02 -3.046758240088820457e-03 1.208902429789304733e-02 -3.032548411283642054e-04 -1.322769373655319214e-02 2.979147061705589294e-02 -2.963056229054927826e-02 3.561092074960470200e-03 -2.216141903772950172e-03 4.996370058506727219e-03 2.586024627089500427e-02 8.484538644552230835e-03 2.741691889241337776e-03 -1.856110058724880219e-02 9.006827138364315033e-03 1.011272761388681829e-04 1.581612043082714081e-02 2.326494781300425529e-03 3.278533741831779480e-02 4.590447060763835907e-03 5.936291534453630447e-03 -5.099861696362495422e-02 -1.312175299972295761e-02 1.280612661503255367e-03 4.676756449043750763e-03 -3.840226680040359497e-02 4.185200668871402740e-03 1.759627275168895721e-02 1.570496126078069210e-03 -3.072207607328891754e-02 -6.152376532554626465e-03 1.020318549126386642e-02 1.090771425515413284e-02 -1.315790507942438126e-02 2.212837897241115570e-02 -8.760524913668632507e-03 -5.909484811127185822e-03 -1.870378665626049042e-02 7.549379486590623856e-03 -6.286617834120988846e-03 -1.114484108984470367e-02 6.985837128013372421e-03 1.068041473627090454e-02 2.936996147036552429e-02 1.087849377654492855e-03 -3.151510655879974365e-02 -4.004511982202529907e-03 5.082827527076005936e-03 2.705679647624492645e-02 2.760120853781700134e-02 -7.202319335192441940e-03 -1.319691818207502365e-02 1.863274723291397095e-02 1.118680275976657867e-02 -1.241511292755603790e-02 -3.854174166917800903e-02
7.418123073875904083e-03 -1.263981498777866364e-02 2.242002822458744049e-02 -1.631864346563816071e-02 -2.001921087503433228e-02 -7.269501220434904099e-03 -3.209191188216209412e-02 4.498439282178878784e-02 1.096860039979219437e-02 -1.710775494575500488e-02 -1.162844896316528320e-02 1.833967678248882294e-02 2.998976781964302063e-02 5.199085921049118042e-03 -1.186417136341333389e-02 -9.685867466032505035e-03 2.374194934964179993e-02 -1.766260340809822083e-02 -1.078922767192125320e-02 1.560692617204040289e-04 3.133472800254821777e-02 3.697712440043687820e-03 8.834328502416610718e-03 -4.696176946163177490e-02 -9.636805206537246704e-02 -1.458995603024959564e-02 -6.469093263149261475e-03 1.705534197390079498e-02 -4.934987798333168030e-02 -6.101747509092092514e-03 -1.500661578029394150e-02 9.424129500985145569e-03 6.216759793460369110e-03 1.798681681975722313e-03 7.983041927218437195e-03 1.047796662896871567e-02 1.435984484851360321e-02 1.146658323705196381e-02 3.058584220707416534e-02 -5.104727298021316528e-02 1.055301167070865631e-02 5.223330575972795486e-03 -1.527391560375690460e-02 -1.864771358668804169e-02 5.843762308359146118e-03 1.120501430705189705e-03 -3.708797693252563477e-02 -2.324185520410537720e-02 -1.154392678290605545e-02 -7.852024585008621216e-02 -4.033069685101509094e-02 -1.041901484131813049e-02 4.318757448345422745e-03 2.538858214393258095e-03 1.131369639188051224e-02 4.557012580335140228e-03 3.236007876694202423e-03 -1.005332171916961670e-02 1.512042339891195297e-02 1.941246539354324341e-02 -3.452888224273920059e-03 3.702720394358038902e-03 -4.394579213112592697e-03 1.881073229014873505e-02 6.709221052005887032e-04 1.120523456484079361e-02 9.095224086195230484e-04 1.183023210614919662e-02 1.998354448005557060e-03 1.763829961419105530e-02 2.736743912100791931e-02 1.847077533602714539e-02 -9.789910400286316872e-04 -1.131307217292487621e-03 1.438362430781126022e-02 1.718022301793098450e-02 1.495781540870666504e-02 1.553989248350262642e-03 1.003906689584255219e-02 1.736273989081382751e-02 -1.029742299579083920e-03 -3.308193292468786240e-03 1.692597009241580963e-02 -2.519785612821578979e-02 1.924884691834449768e-02 2.945660846307873726e-03 -7.173912227153778076e-02 3.280319971963763237e-03 3.311655484139919281e-03 3.905908018350601196e-02 4.796741530299186707e-02 9.353919886052608490e-03 4.522483795881271362e-02 -8.756618015468120575e-03 -7.599580567330121994e-03 -2.746863756328821182e-03 1.712686568498611450e-02 8.654670789837837219e-03 -1.122008822858333588e-02 8.894550614058971405e-03 -5.866848398000001907e-03 6.309425458312034607e-03 -1.615684665739536285e-02 -3.822491317987442017e-02 -4.775184020400047302e-02 2.967434935271739960e-02 2.701359242200851440e-02 -5.744257476180791855e-03 2.881775051355361938e-02 1.658343710005283356e-02 -6.456023547798395157e-03 -8.153339847922325134e-03 -4.324859939515590668e-03 1.879969239234924316e-02 -1.166000775992870331e-02 9.144452400505542755e-03 -5.904323421418666840e-03 1.400990504771471024e-02 3.215225413441658020e-02 2.168506197631359100e-02 1.817794749513268471e-03 -1.191677898168563843e-02 1.115175080485641956e-03 -1.092360075563192368e-02 3.541799960657954216e-03 1.571315899491310120e-02 1.371846348047256470e-02 -5.682291463017463684e-03 -7.080327719449996948e-03 -9.745009243488311768e-03 2.189332246780395508e-02 3.051331825554370880e-02 4.513179301284253597e-04 -8.448946289718151093e-03 -1.191522702574729919e-01 -3.706716001033782959e-02 8.863775990903377533e-03 7.294786162674427032e-03 1.709152944386005402e-02 -3.738316521048545837e-02 -2.576349303126335144e-02 1.293097343295812607e-02 -2.978599863126873970e-03 1.553970575332641602e-02 -1.152281276881694794e-02 -1.527198590338230133e-02 1.061185961589217186e-03 8.037345483899116516e-03 1.196735166013240814e-02 1.226005796343088150e-02 -4.967409744858741760e-02 -1.679015718400478363e-02 3.070713020861148834e-02 -2.925861440598964691e-02 2.939656749367713928e-02 2.057051286101341248e-02 1.222947495989501476e-03 2.391372807323932648e-03 7.805770728737115860e-03 1.695238426327705383e-02 -1.206997968256473541e-02 -1.224918663501739502e-02 -1.528210472315549850e-02 4.067684058099985123e-03 -6.878599058836698532e-03 1.330846175551414490e-02 1.684297434985637665e-02 2.131469175219535828e-02 2.871922776103019714e-02 7.647853344678878784e-03 3.367384895682334900e-02 2.532066591084003448e-02 2.238675579428672791e-02 -1.714718528091907501e-02 3.863974707201123238e-03 9.205758571624755859e-03 3.072104603052139282e-02 6.319557316601276398e-03 4.797775298357009888e-03 -1.405704300850629807e-02 9.710966609418392181e-03 5.260870326310396194e-03 1.896655745804309845e-02 2.313114143908023834e-02 -1.714562438428401947e-02 1.484849862754344940e-02 2.142405370250344276e-03 1.362792309373617172e-02 -9.607076644897460938e-03 -6.609543226659297943e-03 -9.229497052729129791e-03 -5.209185183048248291e-03 -2.620672993361949921e-02 -1.898002251982688904e-02 2.249487861990928650e-02 9.072520770132541656e-03 -1.383971702307462692e-02 4.055606201291084290e-03 2.710059098899364471e-02 6.684168707579374313e-03 -5.654776468873023987e-03 -1.467679906636476517e-02 -1.339745149016380310e-02 -1.613434404134750366e-02 -1.390909496694803238e-02 1.811823248863220215e-02 6.256581284105777740e-03 -6.372782588005065918e-02 1.190085243433713913e-02 -1.006083190441131592e-01 -1.165738236159086227e-02 1.527639478445053101e-02 1.914463937282562256e-02 -2.119773440062999725e-02 -1.841810159385204315e-02 1.756368018686771393e-02 1.217845361679792404e-02 -9.315106086432933807e-03 2.660155855119228363e-02 2.128387801349163055e-03 1.139251422137022018e-02 1.531105581670999527e-02 4.062780644744634628e-03 -5.275359377264976501e-03 -6.150154396891593933e-03 1.147723104804754257e-02 -2.034739404916763306e-02 -2.333346381783485413e-02 -1.186275272630155087e-03 -1.655069738626480103e-02 -2.753321640193462372e-02 -9.504343569278717041e-02 -1.035553496330976486e-02 1.002527773380279541e-02 -3.938118368387222290e-02 1.181179285049438477e-02 2.366797067224979401e-02 -5.007835570722818375e-03 6.062696222215890884e-03 1.381631754338741302e-02 7.215190678834915161e-03 6.594215519726276398e-03 2.027417533099651337e-03 6.895870435982942581e-03 4.759627394378185272e-03 -5.055590067058801651e-03 8.940699510276317596e-03 -3.600718919187784195e-04 -1.268706633709371090e-03 -1.950830407440662384e-02 -1.345134060829877853e-02 1.099153538234531879e-03 -3.768609603866934776e-03 1.197843253612518311e-02 -1.299980562180280685e-02 -6.593834143131971359e-03
-9.698813781142234802e-03 -4.533334448933601379e-02 -1.507659628987312317e-02 -1.037629693746566772e-02 1.923606358468532562e-02 2.452205494046211243e-02 -5.058328388258814812e-04 3.303095698356628418e-02 -2.572437224444001913e-04 1.137190591543912888e-02 -1.556126400828361511e-02 -6.314818747341632843e-03 2.114937640726566315e-02 -7.473061326891183853e-03 -8.181191049516201019e-03 -1.241071242839097977e-02 -2.780766459181904793e-03 -9.790307842195034027e-03 -1.386877428740262985e-02 -1.686797663569450378e-02 -3.383191674947738647e-02 1.272869668900966644e-02 3.252212889492511749e-03 4.339082166552543640e-03 1.142005901783704758e-02 -6.344319321215152740e-03 -2.393626421689987183e-02 -9.165405295789241791e-03 -1.725054159760475159e-02 7.689985446631908417e-03 -2.720286138355731964e-02 -2.553049102425575256e-02 1.088920235633850098e-02 1.001286320388317108e-03 -4.214576259255409241e-02 -2.662097103893756866e-02 7.364185992628335953e-03 3.477513790130615234e-02 -1.293585542589426041e-02 -2.325242199003696442e-02 -4.638486716430634260e-04 -4.026368726044893265e-03 -7.270741742104291916e-03 -1.927741244435310364e-02 -5.902297794818878174e-03 1.417539920657873154e-02 -1.832199096679687500e-02 -2.914003655314445496e-02 -1.960050314664840698e-02 5.965311080217361450e-03 -1.201905030757188797e-02 -2.153044380247592926e-02 -3.229101002216339111e-02 -3.102657198905944824e-02 -3.757091239094734192e-02 -1.631947793066501617e-02 7.680793292820453644e-03 2.689291164278984070e-02 -4.971380345523357391e-03 4.499997012317180634e-03 -2.010861644521355629e-03 -3.881920501589775085e-02 -1.787447929382324219e-02 1.459278911352157593e-02 2.315869741141796112e-02 -1.076316181570291519e-02 -1.777242054231464863e-03 -3.894258290529251099e-03 -2.514149248600006104e-02 7.296634837985038757e-03 -2.315719984471797943e-02 -3.155234502628445625e-03 8.789247833192348480e-03 3.411934897303581238e-02 1.542220707051455975e-03 1.385636720806360245e-02 1.107654254883527756e-02 2.181005850434303284e-02 -4.965050611644983292e-03 -2.293344773352146149e-02 7.939156144857406616e-03 -2.145298384130001068e-02 2.101426012814044952e-02 -8.517741225659847260e-03 2.538085728883743286e-02 -3.550446778535842896e-02 -2.562734112143516541e-02 7.370829116553068161e-03 -9.649505838751792908e-03 4.675888642668724060e-02 3.877252340316772461e-02 1.038768514990806580e-02 2.669247053563594818e-02 -1.236920896917581558e-02 -9.494280442595481873e-03 -3.993933647871017456e-02 2.779400441795587540e-03 1.616117171943187714e-02 -1.134690735489130020e-02 2.282258309423923492e-02 1.729855313897132874e-02 -5.332827195525169373e-02 -3.033292107284069061e-02 -2.009005472064018250e-02 8.349438197910785675e-03 -3.046781523153185844e-03 -1.072574686259031296e-02 6.169935222715139389e-03 6.580717861652374268e-03 -8.747921325266361237e-03 -1.632411405444145203e-02 1.107377372682094574e-02 2.598889172077178955e-03 -4.345657303929328918e-03 2.678586170077323914e-03 -8.229729719460010529e-03 1.654086261987686157e-02 2.262014662846922874e-03 1.417587045580148697e-02 1.183374784886837006e-02 2.969747409224510193e-03 -2.541895024478435516e-02 -1.829392043873667717e-03 1.316335424780845642e-02 -3.071068786084651947e-03 -2.113898284733295441e-02 -9.825824759900569916e-03 7.400070171570405364e-05 -7.925213314592838287e-03 -2.067321352660655975e-02 -2.314227633178234100e-02 -1.386862713843584061e-03 -1.464838441461324692e-02 1.056572236120700836e-02 1.405967772006988525e-02 9.613331407308578491e-03 2.008138410747051239e-02 -3.495451761409640312e-03 7.794681005179882050e-03 1.352195721119642258e-02 -4.804486408829689026e-03 1.954042725265026093e-02 2.499187923967838287e-02 2.096201991662383080e-03 -1.588151790201663971e-02 -1.498954603448510170e-03 2.055646665394306183e-02 4.014793783426284790e-02 -6.033351644873619080e-03 2.015693113207817078e-02 -4.392310976982116699e-02 -7.435348350554704666e-03 -2.927930466830730438e-02 -7.696192711591720581e-03 -1.009659375995397568e-02 1.848967000842094421e-02 -4.584269132465124130e-03 1.298650726675987244e-02 -1.099238987080752850e-03 2.430132403969764709e-02 4.180586896836757660e-03 -2.151722833514213562e-02 -2.542044222354888916e-02 -4.569292068481445312e-03 2.454471215605735779e-02 1.931650331243872643e-03 -9.629283100366592407e-03 9.014033712446689606e-03 1.713443547487258911e-02 3.470046445727348328e-02 1.488253474235534668e-02 -1.056209206581115723e-02 1.770210079848766327e-02 1.492404262535274029e-03 -2.653901837766170502e-02 1.294037234038114548e-02 7.195637095719575882e-03 -2.925378829240798950e-02 -7.633579429239034653e-03 2.328668721020221710e-03 4.937964677810668945e-02 -1.898551825433969498e-03 1.007632166147232056e-02 -2.486213855445384979e-02 -1.903660036623477936e-02 -2.869350137189030647e-03 -1.935191266238689423e-02 -1.147558353841304779e-02 4.784713033586740494e-03 -1.916564651764929295e-04 2.844967413693666458e-03 -1.512253424152731895e-03 -1.273513655178248882e-03 -2.660368010401725769e-02 6.460631266236305237e-03 4.228858277201652527e-03 -1.201207470148801804e-02 1.517473068088293076e-02 2.503730170428752899e-02 2.412043884396553040e-02 -2.769500762224197388e-02 1.089351437985897064e-02 1.508646924048662186e-02 -2.030743984505534172e-03 5.976453889161348343e-03 5.477667972445487976e-02 -1.305006071925163269e-02 -8.750007487833499908e-03 8.397254161536693573e-03 1.618746295571327209e-02 -1.474167103879153728e-03 -5.702509079128503799e-03 -1.197990030050277710e-02 -2.617580629885196686e-02 -2.938561141490936279e-02 -7.283719256520271301e-03 2.426071465015411377e-02 5.354184191673994064e-03 1.447318214923143387e-02 -5.297020077705383301e-03 -1.578240469098091125e-02 -2.713502757251262665e-02 -1.029598340392112732e-02 2.439338713884353638e-02 3.563034534454345703e-02 1.159358583390712738e-02 -2.921448613051325083e-04 -2.721047028899192810e-02 1.243312191218137741e-02 -6.591753102838993073e-03 7.935131434351205826e-04 -1.083534024655818939e-02 -2.374804392457008362e-02 -3.703860333189368248e-03 2.270406810566782951e-03 1.211564242839813232e-02 5.018323194235563278e-03 -1.495096599683165550e-03 -2.580424584448337555e-02 -2.242912538349628448e-02 -1.048451755195856094e-02 -3.409683704376220703e-02 -1.821935549378395081e-02 1.585131627507507801e-03 7.578208111226558685e-03 -2.531553804874420166e-02 -3.049711510539054871e-02 -7.543490733951330185e-03 1.339240372180938721e-02 -1.791484840214252472e-02 -2.016288228332996368e-02 1.576806791126728058e-02 -2.642626874148845673e-02 -7.160737179219722748e-03 -2.110834792256355286e-02 -1.604930125176906586e-02
1.087882742285728455e-02 2.884876914322376251e-03 -8.007050491869449615e-03 -1.647606305778026581e-02 5.094219464808702469e-03 2.467782795429229736e-02 1.418936904519796371e-02 2.599571272730827332e-02 -1.818530377931892872e-03 1.240274030715227127e-02 -1.880276575684547424e-02 1.309796818532049656e-03 1.608165726065635681e-02 -1.408238196745514870e-03 -1.174109708517789841e-02 -1.872653514146804810e-02 1.810924708843231201e-02 1.282321289181709290e-02 -4.774594679474830627e-03 -2.186325937509536743e-02 7.902499288320541382e-03 7.307602092623710632e-03 4.881256259977817535e-03 -5.812354385852813721e-03 -2.181370509788393974e-03 2.702428493648767471e-03 1.339254435151815414e-02 3.982209600508213043e-03 -2.364253439009189606e-02 -1.962779555469751358e-03 -3.515919670462608337e-02 -1.557241939008235931e-02 9.493594989180564880e-03 1.702104881405830383e-02 7.569737732410430908e-03 9.778536856174468994e-03 4.198613110929727554e-03 2.197231911122798920e-02 -3.068326599895954132e-02 -3.627006663009524345e-03 4.016905091702938080e-03 1.353213284164667130e-02 -7.673640269786119461e-03 -1.913246512413024902e-02 1.804190129041671753e-02 -1.257502101361751556e-02 -3.109585121273994446e-02 -1.363014895468950272e-02 -2.966037206351757050e-02 -2.084511704742908478e-02 2.263397444039583206e-03 -2.118011377751827240e-02 -1.274661254137754440e-02 -1.694006845355033875e-02 -2.754145115613937378e-02 4.001614637672901154e-03 1.395869627594947815e-02 1.746471412479877472e-02 1.105533447116613388e-02 1.601975411176681519e-02 -1.112074684351682663e-02 -5.492635816335678101e-02 -3.178805112838745117e-02 1.322834007441997528e-02 1.397123746573925018e-02 8.518973365426063538e-03 -6.140255834907293320e-03 5.465406924486160278e-03 -2.524132095277309418e-02 3.960178419947624207e-02 -1.366876676911488175e-04 1.064983941614627838e-02 7.133133243769407272e-03 2.866883203387260437e-02 -7.367794401943683624e-03 1.785265980288386345e-03 2.071246504783630371e-03 1.814489252865314484e-02 3.194791497662663460e-03 -4.325994849205017090e-02 6.391627248376607895e-03 -1.670659054070711136e-03 2.827658876776695251e-02 1.414032094180583954e-02 3.842623159289360046e-02 -1.320643257349729538e-02 -1.565574109554290771e-02 2.146122045814990997e-03 -1.758951880037784576e-02 4.554970189929008484e-02 4.546163603663444519e-02 8.280179463326931000e-03 2.564480155706405640e-02 -1.392021402716636658e-02 -9.538440965116024017e-03 -4.085598886013031006e-02 2.848414517939090729e-02 1.489282213151454926e-02 -1.646047458052635193e-02 2.486827410757541656e-02 1.318362634629011154e-02 -2.304480038583278656e-02 -8.972391486167907715e-03 -8.964044973254203796e-03 1.023089885711669922e-02 1.571309380233287811e-02 8.208587765693664551e-03 -6.401109043508768082e-03 1.138644665479660034e-02 6.930536590516567230e-03 6.094241049140691757e-03 -4.568648058921098709e-03 1.828998699784278870e-02 3.263486549258232117e-02 -5.846866872161626816e-03 3.656028583645820618e-02 7.007606327533721924e-03 1.670129969716072083e-02 2.179544046521186829e-02 2.040513791143894196e-02 -1.539219450205564499e-02 -1.374247670173645020e-02 4.427604842931032181e-03 7.668496109545230865e-03 1.042442210018634796e-02 -5.406551063060760498e-03 -3.868388477712869644e-03 1.766376569867134094e-02 1.463638711720705032e-02 -3.143501281738281250e-02 6.233322434127330780e-03 -8.372317999601364136e-03 -1.185493823140859604e-02 1.697537675499916077e-02 1.323445513844490051e-02 -1.127503532916307449e-02 2.251614443957805634e-02 -5.893709883093833923e-02 2.092906506732106209e-03 2.367697656154632568e-02 -7.102971430867910385e-03 1.981920190155506134e-02 2.825469709932804108e-02 2.245250344276428223e-02 2.052734978497028351e-02 9.733534418046474457e-03 7.274514995515346527e-03 2.665624022483825684e-02 -4.862351808696985245e-03 2.407316863536834717e-02 -2.403585240244865417e-02 6.823378615081310272e-03 -2.487918362021446228e-02 -1.649391837418079376e-03 -8.512448519468307495e-03 1.482419669628143311e-02 -1.815020851790904999e-02 3.773930668830871582e-02 1.053838338702917099e-02 1.918647997081279755e-02 -2.861761604435741901e-04 1.246513798832893372e-02 1.506033004261553288e-03 -2.445083810016512871e-03 1.011730078607797623e-02 -3.027527593076229095e-03 -2.371350303292274475e-02 3.957061097025871277e-03 3.247614204883575439e-02 3.900985047221183777e-02 2.651613904163241386e-03 5.655715242028236389e-03 -3.287354251369833946e-03 -3.874519839882850647e-03 -3.288342803716659546e-02 1.192347891628742218e-02 2.764247916638851166e-02 -1.440532598644495010e-02 7.681278977543115616e-03 1.142973545938730240e-02 6.061791628599166870e-02 9.343978017568588257e-03 3.525254502892494202e-02 -1.092366781085729599e-02 -8.564690942876040936e-04 6.212759180925786495e-04 -1.162198279052972794e-02 -2.302738279104232788e-02 -1.458831503987312317e-02 -7.252362556755542755e-03 1.468978170305490494e-02 6.992619484663009644e-03 1.731486525386571884e-03 -1.723602227866649628e-02 1.321247220039367676e-02 -1.401731465011835098e-02 7.220804691314697266e-03 4.246399039402604103e-04 4.912574216723442078e-02 3.388155624270439148e-02 -2.892743097618222237e-03 1.702352240681648254e-02 1.536600291728973389e-02 1.229259558022022247e-02 -5.965902935713529587e-03 4.949513077735900879e-02 5.360845942050218582e-03 -9.638507850468158722e-03 -6.608876283280551434e-04 1.740791648626327515e-02 -2.116721123456954956e-02 -5.698929075151681900e-03 2.415447309613227844e-02 -1.354912947863340378e-02 -4.238998144865036011e-02 2.859587594866752625e-02 2.707656472921371460e-02 -5.184493027627468109e-03 5.182892829179763794e-02 -1.676915585994720459e-02 -2.680587815120816231e-03 1.009198091924190521e-02 2.461409568786621094e-02 2.870916202664375305e-02 2.601754479110240936e-02 1.154477824456989765e-03 -7.591972127556800842e-03 -6.728500011377036572e-04 -1.349022611975669861e-03 1.776289939880371094e-02 -1.250706519931554794e-02 -5.352525040507316589e-03 1.807334646582603455e-02 2.138181403279304504e-02 6.941513624042272568e-03 -5.697115324437618256e-03 -2.506366930902004242e-03 4.179009422659873962e-02 -1.607193425297737122e-02 -1.224814821034669876e-02 -5.605842452496290207e-04 -3.414537757635116577e-02 -2.666454948484897614e-02 7.178503437899053097e-04 1.810827478766441345e-02 -2.358531206846237183e-02 -2.629792317748069763e-02 -1.796881109476089478e-02 -3.661633934825658798e-03 2.915773307904601097e-03 -2.588967233896255493e-02 5.091099534183740616e-03 1.003890996798872948e-03 -1.272212527692317963e-02 2.099175378680229187e-02 -1.310459058731794357e-02
3.768390510231256485e-03 2.400672994554042816e-03 -1.955044828355312347e-02 2.757249632850289345e-03 1.232898514717817307e-02 9.414970874786376953e-03 2.368923462927341461e-02 4.403923638164997101e-03 -2.352974144741892815e-03 -4.249543882906436920e-03 9.454280952922999859e-04 1.147047895938158035e-02 -1.605778670636937022e-04 -1.700287498533725739e-02 6.452973932027816772e-02 1.134237274527549744e-02 -2.188814990222454071e-02 -1.109008770436048508e-02 4.480827599763870239e-03 2.703252062201499939e-02 -9.115964174270629883e-03 -3.171998541802167892e-03 2.863959176465868950e-03 -4.284493997693061829e-02 2.017144579440355301e-03 2.448945678770542145e-02 1.705868355929851532e-02 -2.907586842775344849e-02 2.387900277972221375e-02 -6.891093682497739792e-03 1.046679634600877762e-02 1.409590709954500198e-02 -1.709417439997196198e-02 -9.633841109462082386e-04 5.162608809769153595e-03 1.261577289551496506e-02 -3.128241049125790596e-03 -5.792026873677968979e-03 -7.177699357271194458e-03 3.268230939283967018e-03 -1.070752367377281189e-02 5.903773941099643707e-03 1.348247006535530090e-02 1.347428560256958008e-02 1.813555322587490082e-02 -1.256633433513343334e-03 -7.811536081135272980e-03 1.959295757114887238e-02 -7.766829337924718857e-03 -1.805579476058483124e-02 5.365029908716678619e-03 1.648146286606788635e-02 3.358729882165789604e-03 -1.507437042891979218e-02 6.846844218671321869e-03 -1.642813347280025482e-02 -8.957845158874988556e-03 -2.099306136369705200e-02 1.383448485285043716e-02 7.791126612573862076e-03 -8.663657121360301971e-03 1.400095783174037933e-02 1.574053615331649780e-02 2.186546567827463150e-03 1.128545124083757401e-02 8.692828938364982605e-03 -8.811796084046363831e-03 -1.559352874755859375e-02 1.075223740190267563e-02 -5.055508110672235489e-03 5.122403055429458618e-02 5.680759903043508530e-03 -4.275618121027946472e-03 -1.497745886445045471e-02 -4.379552323371171951e-03 2.142081595957279205e-02 -1.544609572738409042e-02 -1.473926356993615627e-03 -7.756209000945091248e-03 2.050627209246158600e-02 1.248631975613534451e-03 -8.423865074291825294e-04 -1.514847949147224426e-02 3.585805371403694153e-02 -2.235685847699642181e-02 -6.777271162718534470e-03 2.756254374980926514e-02 -1.651619374752044678e-02 2.639192622154951096e-03 1.266449503600597382e-02 3.211264684796333313e-02 -1.287160068750381470e-02 1.164082065224647522e-02 -1.964099938049912453e-03 1.820967346429824829e-02 1.348067168146371841e-02 4.720258992165327072e-03 -4.575563129037618637e-03 2.578260377049446106e-02 -4.253781959414482117e-02 8.178322575986385345e-03 9.022695943713188171e-03 1.076637301594018936e-02 -5.592056084424257278e-03 -3.851377964019775391e-02 -6.342908367514610291e-03 -7.848785258829593658e-03 -3.803027560934424400e-03 2.816730644553899765e-03 -8.778986521065235138e-03 3.914003446698188782e-02 -5.691568832844495773e-03 -2.152371453121304512e-03 -2.754208166152238846e-03 -5.444603506475687027e-03 -2.730431500822305679e-03 -8.548362180590629578e-03 1.926823053508996964e-03 1.202295720577239990e-02 6.736241746693849564e-03 1.020064298063516617e-02 -1.775298267602920532e-02 5.957007408142089844e-02 -1.347414962947368622e-02 3.383387345820665359e-03 4.582074284553527832e-02 -4.954702686518430710e-03 4.506635479629039764e-03 -1.443025283515453339e-02 2.364333719015121460e-02 2.125531435012817383e-02 -3.843785496428608894e-03 6.528636906296014786e-03 3.290661610662937164e-03 4.518972127698361874e-04 -1.679968205280601978e-03 2.461054734885692596e-02 1.186465728096663952e-03 -5.626022815704345703e-03 -1.119774766266345978e-03 6.594548933207988739e-03 -1.889534411020576954e-03 -1.113300863653421402e-02 -2.940051024779677391e-03 9.993197396397590637e-03 -4.553656093776226044e-03 -1.243687141686677933e-02 -1.014752034097909927e-02 -1.933384500443935394e-02 -1.226005889475345612e-02 4.453426599502563477e-02 3.799065202474594116e-02 1.798379048705101013e-02 3.162238746881484985e-03 2.398529788479208946e-03 -1.783499680459499359e-02 -2.136036008596420288e-02 -9.498742292635142803e-04 -3.499339148402214050e-02 6.792224943637847900e-03 1.304286345839500427e-02 4.447193816304206848e-02 1.568832248449325562e-02 2.462555281817913055e-02 -2.262045256793498993e-02 -1.380161289125680923e-02 8.087445050477981567e-03 8.053237572312355042e-03 3.436375409364700317e-02 1.184054370969533920e-02 -1.644948683679103851e-02 2.652276307344436646e-02 -1.965162344276905060e-02 2.461269497871398926e-03 -9.647547267377376556e-04 -1.387451495975255966e-02 1.659201458096504211e-02 2.099806629121303558e-02 1.080425828695297241e-02 2.079219790175557137e-03 1.812880858778953552e-02 -1.623409613966941833e-02 -1.136809960007667542e-02 -2.272747084498405457e-02 7.952523417770862579e-03 1.678682677447795868e-02 2.680466510355472565e-02 3.972494043409824371e-03 7.024905178695917130e-03 -5.216129124164581299e-03 1.052657049149274826e-02 1.711586373858153820e-03 4.087699204683303833e-02 1.955626718699932098e-02 1.042090589180588722e-03 -6.453884765505790710e-03 -9.919530712068080902e-04 5.699583794921636581e-03 -1.017024740576744080e-02 -1.002707798033952713e-02 2.159130061045289040e-03 -6.056614685803651810e-03 2.439210563898086548e-02 5.356678273528814316e-03 -1.987536903470754623e-03 5.110546201467514038e-02 1.602346822619438171e-02 2.700564078986644745e-02 2.985891886055469513e-03 -1.934567838907241821e-02 6.451991852372884750e-03 2.961556985974311829e-02 3.558617830276489258e-02 6.514186505228281021e-03 3.122176416218280792e-02 4.973247647285461426e-03 -2.830361947417259216e-02 -7.128498051315546036e-03 6.600037962198257446e-02 -5.792203359305858612e-03 2.414801158010959625e-02 1.959193870425224304e-02 1.464905589818954468e-02 -3.118593432009220123e-02 -2.235864102840423584e-02 8.174157701432704926e-03 2.615455351769924164e-02 2.281248196959495544e-02 -2.025947906076908112e-03 -1.090898178517818451e-02 -3.753656893968582153e-02 2.729500085115432739e-02 1.813088543713092804e-02 -1.538023911416530609e-02 3.950977325439453125e-02 -2.202495746314525604e-02 6.694460753351449966e-03 6.132169626653194427e-03 1.565413735806941986e-02 -8.394753560423851013e-03 6.235901731997728348e-03 -2.483777469024062157e-03 -2.679664408788084984e-03 1.182536315172910690e-02 1.538333948701620102e-02 6.983225699514150620e-03 1.438509352738037705e-04 -3.613462904468178749e-04 6.641963263973593712e-04 2.321775071322917938e-02 -2.374140359461307526e-02 -1.854096911847591400e-02 -1.644189283251762390e-02 -1.509301923215389252e-02 1.691088825464248657e-02 -1.138769090175628662e-02
-2.482155710458755493e-02 -1.598925888538360596e-02 1.144324615597724915e-02 -1.707309670746326447e-02 1.588280871510505676e-02 4.355661943554878235e-02 2.438686229288578033e-02 2.860718220472335815e-02 -7.702506263740360737e-04 1.695354841649532318e-02 -1.528446795418858528e-03 -1.369894947856664658e-02 3.048241697251796722e-02 1.284523517824709415e-03 -7.395338732749223709e-03 -7.257129065692424774e-03 1.280458085238933563e-02 -2.606573700904846191e-02 -3.977859392762184143e-02 -2.045930922031402588e-02 -5.478173494338989258e-03 4.190285690128803253e-03 2.715442096814513206e-03 -2.685575373470783234e-02 -6.912372540682554245e-03 2.204284071922302246e-02 -1.011804211884737015e-02 -2.694405149668455124e-03 -5.984522867947816849e-04 -1.119376067072153091e-02 -3.440662100911140442e-02 -7.676932960748672485e-03 1.735607348382472992e-02 3.249380039051175117e-03 -2.214765548706054688e-02 -1.408100826665759087e-03 -2.632207004353404045e-03 1.406859233975410461e-02 7.095162756741046906e-03 -1.629597693681716919e-02 -1.221248786896467209e-02 1.021983288228511810e-02 -1.183779165148735046e-02 -1.056482829153537750e-02 -4.793509375303983688e-03 3.492726827971637249e-04 -9.820681996643543243e-03 -1.090387254953384399e-02 -1.086080539971590042e-02 -9.327142499387264252e-03 9.713940089568495750e-04 -2.203802578151226044e-02 -3.513607196509838104e-03 2.349965739995241165e-03 -9.063328616321086884e-03 -1.506534498184919357e-02 1.168930344283580780e-02 2.144463732838630676e-02 -2.651859819889068604e-02 3.887016326189041138e-03 -4.900724627077579498e-03 -1.106821559369564056e-02 -1.706601306796073914e-02 1.927387714385986328e-02 1.818209327757358551e-02 1.556610339321196079e-03 -1.138375699520111084e-02 -1.041496917605400085e-02 -1.004236098378896713e-02 9.829036891460418701e-03 -3.115684911608695984e-02 -2.757630310952663422e-03 3.149715485051274300e-03 1.979246921837329865e-02 -1.750496588647365570e-02 2.290513180196285248e-02 1.829372905194759369e-02 5.368123296648263931e-03 3.938283305615186691e-03 -1.386269461363554001e-02 -7.539059035480022430e-03 -2.691011503338813782e-02 1.213296316564083099e-02 -1.425540912896394730e-02 1.658717729151248932e-02 -1.999129727482795715e-02 -1.141001936048269272e-02 -1.456098444759845734e-02 -1.712416857481002808e-02 6.006045266985893250e-02 5.513380095362663269e-02 8.391113951802253723e-03 2.396481670439243317e-02 -4.991860315203666687e-02 -1.117195095866918564e-02 -2.382232062518596649e-02 -1.276902575045824051e-02 7.663186639547348022e-03 -9.455407038331031799e-03 6.204007659107446671e-03 8.123927749693393707e-03 -1.059386413544416428e-02 -1.528684701770544052e-02 5.654080887325108051e-04 -6.101702805608510971e-03 1.254570577293634415e-02 1.038055028766393661e-02 2.217756118625402451e-03 7.999761961400508881e-03 9.600900113582611084e-03 -8.207659702748060226e-04 -1.387150492519140244e-02 2.771012112498283386e-02 8.686675690114498138e-03 -4.197099246084690094e-03 5.650748964399099350e-03 -7.543450221419334412e-03 1.608654111623764038e-02 3.774403408169746399e-02 1.729454845190048218e-02 -2.792126499116420746e-02 -8.222370408475399017e-03 2.223528176546096802e-02 1.409833040088415146e-02 1.262909546494483948e-02 -1.218184549361467361e-02 1.568900048732757568e-02 -1.426606997847557068e-02 -1.143221557140350342e-02 -2.342500165104866028e-02 1.833057403564453125e-02 2.760782372206449509e-03 -2.670370414853096008e-02 2.392614493146538734e-03 1.215611351653933525e-03 -1.186525449156761169e-03 -1.332714408636093140e-02 -8.028306066989898682e-03 -2.310370467603206635e-02 6.580836605280637741e-03 -1.509915105998516083e-02 1.573354378342628479e-02 2.398298308253288269e-02 9.315622039139270782e-03 5.975315812975168228e-03 8.155601099133491516e-03 1.295880880206823349e-02 3.077640384435653687e-02 -2.849992830306291580e-03 1.549094216898083687e-03 -1.853471621870994568e-02 1.521123200654983521e-02 4.502620548009872437e-03 1.301091257482767105e-02 -8.097547688521444798e-04 1.488184463232755661e-02 2.195232082158327103e-03 1.333488151431083679e-02 -1.422718865796923637e-03 2.654486335813999176e-02 1.018464472144842148e-02 1.346992608159780502e-02 -4.100717604160308838e-03 -8.283562026917934418e-03 2.309168502688407898e-02 3.087253426201641560e-04 -7.207442075014114380e-03 -1.208144240081310272e-02 2.224128879606723785e-02 3.822600468993186951e-02 9.637943468987941742e-03 -3.892998676747083664e-03 7.533687632530927658e-03 1.216949988156557083e-02 -2.816937677562236786e-02 2.650225907564163208e-02 1.936970651149749756e-02 -2.434909529983997345e-02 6.676177959889173508e-03 1.077759172767400742e-02 6.140213832259178162e-02 2.038205601274967194e-02 1.661071740090847015e-02 -2.617141604423522949e-02 4.242223687469959259e-03 -1.436551939696073532e-02 -1.359375193715095520e-03 -1.296686474233865738e-02 5.191036500036716461e-03 -1.395655702799558640e-02 -1.718948595225811005e-02 -2.283982234075665474e-03 8.515109308063983917e-03 -1.328718569129705429e-02 8.003503084182739258e-03 -8.607495692558586597e-04 -1.212220452725887299e-02 -3.580230986699461937e-03 4.799512214958667755e-03 2.992405556142330170e-02 -1.721883565187454224e-02 1.892380788922309875e-02 3.256686031818389893e-02 -1.001382828690111637e-03 8.702650666236877441e-03 6.557396054267883301e-02 -1.740303263068199158e-02 1.526133855804800987e-03 7.374751847237348557e-03 6.218614056706428528e-03 1.766137545928359032e-03 -5.784664768725633621e-03 9.905304759740829468e-03 4.184450954198837280e-03 -1.601343415677547455e-02 6.134551484137773514e-03 -4.551118705421686172e-03 -2.205857448279857635e-02 6.314340233802795410e-02 -2.723284997045993805e-03 -5.820407997816801071e-03 -7.383809424936771393e-04 -3.739266470074653625e-02 1.416916958987712860e-03 2.426432818174362183e-02 -6.892477162182331085e-03 4.993349779397249222e-03 1.103027351200580597e-02 3.147468203678727150e-03 -7.152294740080833435e-03 -7.389760110527276993e-03 -3.704181173816323280e-03 -1.641214452683925629e-02 -3.631526604294776917e-02 2.605318278074264526e-02 -1.217166427522897720e-02 6.641345564275979996e-03 -3.581550903618335724e-03 -2.234833128750324249e-02 9.884797967970371246e-03 -1.874099113047122955e-02 7.129165809601545334e-03 -2.500693686306476593e-02 -5.260015372186899185e-03 5.070940824225544930e-04 -5.500409286469221115e-03 -2.390448190271854401e-02 -2.264538966119289398e-02 -1.190943992696702480e-03 3.849477041512727737e-03 1.878127572126686573e-03 8.943526074290275574e-03 -1.037562824785709381e-02 5.442631896585226059e-03 1.280453801155090332e-02 -2.173523046076297760e-02
-1.953022205270826817e-03 1.240659691393375397e-02 1.387671218253672123e-03 1.649869792163372040e-02 4.972474649548530579e-03 1.018679793924093246e-02 1.589898578822612762e-02 2.912225201725959778e-02 5.484452936798334122e-03 4.088846221566200256e-02 9.601620258763432503e-04 -3.364468691870570183e-03 1.771023869514465332e-02 -3.259850293397903442e-02 6.126519292593002319e-03 -4.640003200620412827e-03 -6.254665087908506393e-03 9.314632043242454529e-03 8.163370192050933838e-03 -1.325738709419965744e-02 -2.664001472294330597e-02 -6.434061215259134769e-04 -9.684403426945209503e-03 1.952465251088142395e-02 2.460624789819121361e-03 1.006931904703378677e-02 9.252447634935379028e-03 -1.178164687007665634e-02 2.275430224835872650e-02 4.409648012369871140e-03 2.512721344828605652e-02 -2.233235165476799011e-02 -2.329572476446628571e-02 -1.616642996668815613e-02 -9.024003520607948303e-03 -1.541264262050390244e-02 2.327685616910457611e-02 3.910315409302711487e-02 -1.207555178552865982e-02 -1.572114229202270508e-02 2.917017601430416107e-02 -2.990322187542915344e-02 -2.090650424361228943e-02 1.522672595456242561e-03 2.625384554266929626e-02 -1.302438601851463318e-02 -3.139141201972961426e-02 2.026228979229927063e-02 -5.354841239750385284e-03 1.202459633350372314e-02 1.659640856087207794e-02 -3.887350484728813171e-02 2.817943319678306580e-02 -4.557257145643234253e-02 2.373949810862541199e-02 1.494694221764802933e-02 -4.436506330966949463e-02 -2.478080103173851967e-03 1.519015524536371231e-02 4.180720541626214981e-03 2.201025746762752533e-02 5.378577858209609985e-03 -1.052755024284124374e-02 4.878010600805282593e-03 -2.910152822732925415e-02 3.085625357925891876e-03 3.651531040668487549e-02 -2.126370370388031006e-02 -5.788362585008144379e-03 1.529239583760499954e-02 -2.431669458746910095e-02 4.375504504423588514e-04 -4.565450549125671387e-02 4.787097126245498657e-02 -1.024718582630157471e-02 -2.200463600456714630e-02 -1.438166387379169464e-02 -7.638536859303712845e-03 -2.764107845723628998e-02 -4.237372428178787231e-03 -1.260857004672288895e-02 6.971170660108327866e-03 1.101640611886978149e-02 1.420834846794605255e-02 3.257219493389129639e-02 2.132200263440608978e-02 -5.448036640882492065e-02 2.849206514656543732e-02 3.744686394929885864e-02 2.059533819556236267e-02 4.955902323126792908e-02 2.491829730570316315e-02 7.530199829488992691e-03 4.103528335690498352e-02 -1.969972625374794006e-02 2.951652929186820984e-02 1.630970835685729980e-02 3.966451063752174377e-02 -2.567195333540439606e-04 1.492148917168378830e-02 2.772839367389678955e-02 -1.636357605457305908e-02 3.199426084756851196e-02 -5.083598941564559937e-02 1.219743490219116211e-02 1.637613773345947266e-02 9.973372332751750946e-03 7.484019268304109573e-03 2.610551565885543823e-02 -3.539572283625602722e-02 -3.842644393444061279e-02 3.542944043874740601e-02 -1.245812419801950455e-02 3.241395810618996620e-03 -3.455624356865882874e-02 -3.020364791154861450e-03 4.507337510585784912e-02 -2.436153031885623932e-02 8.234039880335330963e-03 1.228824723511934280e-02 -1.086746715009212494e-02 -2.765669301152229309e-02 1.630484126508235931e-02 4.344496130943298340e-02 1.471797283738851547e-02 2.311933413147926331e-02 1.583666540682315826e-02 -1.340606808662414551e-02 2.195542491972446442e-02 -2.320321509614586830e-03 -2.812453918159008026e-02 -1.067128870636224747e-02 5.359396338462829590e-02 1.069821044802665710e-02 1.008349657058715820e-02 1.854114048182964325e-02 1.498427474871277809e-03 2.301223762333393097e-02 7.300549186766147614e-03 3.243751451373100281e-02 -2.460981160402297974e-02 4.084940999746322632e-02 4.266659542918205261e-02 -1.572840614244341850e-03 1.385895814746618271e-02 -3.037155978381633759e-02 4.395814612507820129e-02 3.095622919499874115e-02 -2.332639321684837341e-02 1.950241066515445709e-02 -2.884286921471357346e-03 -1.562853716313838959e-02 -4.171947017312049866e-02 -1.206612028181552887e-02 2.980092726647853851e-02 1.318188942968845367e-02 1.372875645756721497e-02 3.822564706206321716e-02 6.745466962456703186e-03 1.315470878034830093e-02 -7.673553656786680222e-03 8.521101437509059906e-03 -2.636820822954177856e-02 1.941053313203155994e-03 -1.991665177047252655e-02 -5.210140254348516464e-03 -1.135944505222141743e-03 1.506561506539583206e-02 4.032332077622413635e-02 7.539484649896621704e-03 9.864356834441423416e-04 -1.495510712265968323e-02 -1.690965332090854645e-02 -1.038519851863384247e-02 3.189519792795181274e-02 3.219904005527496338e-02 3.143034502863883972e-02 -2.010508626699447632e-02 8.455108851194381714e-03 -5.189418327063322067e-03 4.538263753056526184e-02 5.747329443693161011e-03 -7.268090848810970783e-04 -9.117634035646915436e-03 4.180881660431623459e-03 -5.081492708995938301e-04 -3.040100634098052979e-02 -7.877040654420852661e-03 1.303599122911691666e-02 1.499624922871589661e-03 1.485078688710927963e-02 -9.669482707977294922e-03 -3.506426466628909111e-03 8.768877945840358734e-03 -1.516445912420749664e-02 -2.671411493793129921e-04 -1.450680941343307495e-02 1.360762864351272583e-02 3.781348839402198792e-02 3.451737761497497559e-02 1.277712266892194748e-02 -5.753056611865758896e-03 1.800526119768619537e-02 -3.528503468260169029e-03 -2.300465293228626251e-02 6.499196588993072510e-02 -7.820883765816688538e-03 -2.460805699229240417e-03 1.416064705699682236e-02 3.510942624416202307e-04 -3.343636915087699890e-02 1.440692972391843796e-02 -3.447436261922121048e-03 -1.961936242878437042e-02 -5.606696754693984985e-02 2.527071163058280945e-02 2.142254635691642761e-02 -8.943375200033187866e-03 4.788229987025260925e-02 -4.111926257610321045e-02 -2.758425287902355194e-02 8.916690945625305176e-03 1.669335877522826195e-03 4.883426241576671600e-03 5.370817333459854126e-02 -5.262496415525674820e-03 -1.888803951442241669e-02 8.317194442497566342e-05 2.104411087930202484e-02 -2.296067075803875923e-03 1.865499094128608704e-02 3.215263364836573601e-03 2.656917646527290344e-02 5.600410979241132736e-03 -1.140348054468631744e-02 -2.942388132214546204e-02 -8.679178543388843536e-03 1.610696129500865936e-02 -2.556678093969821930e-02 -1.493802014738321304e-02 2.914283610880374908e-02 -2.054184116423130035e-02 1.156279165297746658e-02 5.576955154538154602e-04 1.054227002896368504e-03 4.176697228103876114e-03 2.990592643618583679e-02 -5.260371137410402298e-03 1.572146452963352203e-02 -5.668706260621547699e-03 -5.250149592757225037e-02 -9.218874387443065643e-03 -7.124330848455429077e-02 -2.051348052918910980e-02 -1.835734467022120953e-03 2.819604426622390747e-02
-4.342299699783325195e-02 3.878223523497581482e-02 -1.664256304502487183e-02 2.278732135891914368e-02 7.462557870894670486e-03 1.658090762794017792e-02 2.017536945641040802e-02 -2.467613294720649719e-02 4.852007701992988586e-02 4.401675891131162643e-03 -9.648232720792293549e-03 2.737224102020263672e-03 -3.366907313466072083e-02 -4.272475093603134155e-02 4.187523946166038513e-02 -2.134427055716514587e-02 -1.717831380665302277e-02 -1.232801296282559633e-04 4.507718235254287720e-02 1.641303242649883032e-04 2.965949289500713348e-02 1.641055010259151459e-02 -3.622531890869140625e-02 4.963178932666778564e-02 -2.087248861789703369e-02 -1.428554113954305649e-02 -1.171983126550912857e-02 -4.864371195435523987e-02 2.819083072245121002e-02 2.755057811737060547e-02 3.606874868273735046e-02 1.470491755753755569e-02 -2.038119919598102570e-02 3.021424263715744019e-02 1.100493595004081726e-02 -3.783790394663810730e-02 2.089726179838180542e-02 -1.422366686165332794e-02 -4.412409290671348572e-02 -2.257970161736011505e-02 3.892105072736740112e-02 -5.086982250213623047e-02 6.890063639730215073e-03 -3.223583847284317017e-02 -9.765558876097202301e-03 3.019995056092739105e-03 2.637902274727821350e-02 8.145165629684925079e-03 1.809520646929740906e-02 4.358405619859695435e-02 2.659601531922817230e-02 2.472139196470379829e-03 3.935197740793228149e-02 -6.705985963344573975e-02 4.805525019764900208e-02 -1.424001436680555344e-02 -4.881017655134201050e-02 2.619244158267974854e-02 3.265655040740966797e-02 5.290231853723526001e-02 2.398610673844814301e-02 2.728060446679592133e-02 -1.047407835721969604e-02 -8.919738233089447021e-03 -4.871287569403648376e-02 1.758737675845623016e-02 1.835002563893795013e-02 9.742910973727703094e-03 -1.932790502905845642e-02 3.242927417159080505e-02 1.684514922089874744e-03 1.223977748304605484e-02 -5.816854164004325867e-02 -1.749968901276588440e-02 1.845590397715568542e-02 1.116358116269111633e-02 3.432278707623481750e-02 1.808457635343074799e-02 -2.529180422425270081e-02 -7.304805796593427658e-03 1.717472448945045471e-02 2.434178441762924194e-02 3.184701874852180481e-02 2.387291565537452698e-02 4.231643304228782654e-02 2.142676711082458496e-02 -1.828499324619770050e-02 -1.583632454276084900e-02 4.220714420080184937e-02 -3.641179203987121582e-02 -2.962972782552242279e-02 3.154674544930458069e-02 9.631591849029064178e-03 1.920728757977485657e-02 2.906729839742183685e-02 1.549020409584045410e-02 3.955101221799850464e-02 -1.323959790170192719e-02 -3.149263327941298485e-03 -7.125870790332555771e-03 1.915746834129095078e-03 -2.017110772430896759e-02 3.350218385457992554e-02 -6.239570677280426025e-02 -6.416802108287811279e-02 8.455580682493746281e-04 5.748630035668611526e-03 -6.834725849330425262e-03 -2.174864895641803741e-02 -5.167647451162338257e-02 -1.239738054573535919e-02 3.505134209990501404e-02 -2.511777170002460480e-02 3.362587094306945801e-02 -2.598120830953121185e-02 -1.869720406830310822e-02 6.703729275614023209e-03 9.006592445075511932e-03 -2.424539439380168915e-02 1.961799152195453644e-02 1.704268157482147217e-02 -8.371200412511825562e-03 -1.684985123574733734e-02 -1.343751419335603714e-02 -2.309032902121543884e-02 -5.441949702799320221e-03 1.521315705031156540e-02 -9.104565717279911041e-03 4.235374554991722107e-02 -1.901225559413433075e-02 -6.852065026760101318e-02 1.358607877045869827e-02 2.058066800236701965e-02 1.369607355445623398e-02 -6.786367297172546387e-02 -2.944045513868331909e-02 1.609349250793457031e-02 -1.923567801713943481e-02 4.566338285803794861e-02 6.014324259012937546e-03 3.460428863763809204e-02 -1.374952122569084167e-02 -1.201281603425741196e-02 -3.071479685604572296e-02 3.513411805033683777e-02 -4.483285546302795410e-02 -1.569209992885589600e-02 -3.829430416226387024e-02 -3.366257622838020325e-02 2.456973493099212646e-02 5.167697742581367493e-02 1.942244730889797211e-02 -2.629344537854194641e-02 -3.589073196053504944e-02 -1.688366569578647614e-02 1.996171288192272186e-02 -8.861479163169860840e-02 -1.897444017231464386e-02 -1.136306300759315491e-02 3.347097709774971008e-02 -1.259179599583148956e-02 1.987300999462604523e-02 -8.365507237613201141e-03 2.101402170956134796e-02 3.092622943222522736e-02 1.075655873864889145e-02 2.236763574182987213e-02 6.689656525850296021e-03 1.008529495447874069e-02 2.177283604396507144e-04 1.369689125567674637e-02 1.244826987385749817e-02 -1.829329319298267365e-02 8.046929724514484406e-03 3.467361256480216980e-02 1.151215843856334686e-02 1.381409354507923126e-02 -4.274097736924886703e-03 1.257740613073110580e-02 2.386561036109924316e-02 -5.176428239792585373e-03 -2.102945558726787567e-02 3.407928720116615295e-02 -1.445308141410350800e-02 -5.863145366311073303e-02 2.634378382936120033e-03 -6.426945328712463379e-03 -7.783739827573299408e-03 4.114792495965957642e-02 2.501310082152485847e-03 -2.176836691796779633e-02 -2.503359876573085785e-02 1.297601871192455292e-02 3.169276937842369080e-02 3.905711323022842407e-02 4.463531367946416140e-04 -1.764547824859619141e-02 1.885012490674853325e-03 1.646453142166137695e-02 6.972135044634342194e-03 1.911144237965345383e-03 -2.670968510210514069e-02 2.002715691924095154e-02 1.113390782848000526e-03 -4.174961894750595093e-02 -2.168813534080982208e-02 4.891245625913143158e-04 -1.139552704989910126e-02 9.877918288111686707e-03 -2.937569096684455872e-02 2.031706273555755615e-02 2.252220641821622849e-03 3.901022300124168396e-02 -2.548042871057987213e-02 -2.140530943870544434e-02 2.372116595506668091e-02 5.628570914268493652e-02 1.497898809611797333e-02 -1.670747250318527222e-02 -5.436749011278152466e-02 -3.190668299794197083e-02 6.176884844899177551e-02 5.357636883854866028e-02 -3.456954658031463623e-02 -2.575070131570100784e-03 4.109523445367813110e-02 1.436490844935178757e-02 -2.469231933355331421e-02 1.185356080532073975e-02 -3.351654484868049622e-02 3.199808299541473389e-02 -1.017493754625320435e-02 -5.880517419427633286e-03 -2.417289279401302338e-02 5.873466376215219498e-03 1.343092042952775955e-02 2.613872289657592773e-02 3.238905966281890869e-02 -4.199506342411041260e-02 -3.050104342401027679e-02 6.858858279883861542e-03 7.492454256862401962e-03 -2.325675264000892639e-02 8.355163037776947021e-03 1.325253210961818695e-02 -4.712362214922904968e-02 3.188278526067733765e-02 2.502105757594108582e-02 3.899826481938362122e-02 -2.206549420952796936e-02 -2.885054051876068115e-02 2.026221342384815216e-02 -5.986472219228744507e-02 -4.774229601025581360e-02 -5.459313094615936279e-02 3.764024004340171814e-02
4.731247201561927795e-02 1.932778581976890564e-02 2.650525420904159546e-02 -1.199826784431934357e-02 -2.523429691791534424e-02 -1.894892379641532898e-02 -2.193089947104454041e-02 1.138556841760873795e-02 -1.096743438392877579e-02 6.587934214621782303e-03 1.709599792957305908e-02 3.257501497864723206e-02 1.672571897506713867e-02 3.204631060361862183e-02 -3.789205104112625122e-02 -2.694706432521343231e-02 3.142534941434860229e-02 2.638179808855056763e-02 -3.965229168534278870e-02 -1.216166466474533081e-02 1.138439401984214783e-02 1.047572679817676544e-02 3.802577406167984009e-02 -3.151509910821914673e-02 -3.040453419089317322e-03 2.696916460990905762e-02 3.783660382032394409e-02 9.362045675516128540e-03 -1.044818107038736343e-02 -1.313347928225994110e-02 -3.453029319643974304e-02 -4.271526820957660675e-03 4.667315632104873657e-02 2.053293213248252869e-02 1.132314838469028473e-02 4.441767185926437378e-02 5.315269809216260910e-03 -7.842284394428133965e-04 -1.434799749404191971e-03 -6.559094414114952087e-03 4.833181446883827448e-05 3.921896591782569885e-02 7.719035260379314423e-03 -6.634911987930536270e-03 3.035665675997734070e-02 -4.885363392531871796e-03 -1.791011169552803040e-02 -4.217280540615320206e-03 -2.646774798631668091e-02 -8.765909820795059204e-03 -1.226508803665637970e-02 -3.396225394681096077e-03 7.961641065776348114e-03 1.150444336235523224e-02 2.041972801089286804e-02 2.695311792194843292e-03 3.369382768869400024e-02 -2.911842428147792816e-02 -2.627805992960929871e-02 4.509028512984514236e-03 -2.673181891441345215e-02 -4.635424818843603134e-03 -2.870821394026279449e-02 -1.492167357355356216e-02 4.320755600929260254e-03 -2.004019916057586670e-02 2.864160016179084778e-02 1.390701346099376678e-02 -8.679964579641819000e-03 2.026680158451199532e-03 1.712839305400848389e-02 1.524106832221150398e-03 2.567857503890991211e-02 3.362320596352219582e-03 -1.991089060902595520e-02 -2.294299378991127014e-02 -9.341442026197910309e-03 3.289415687322616577e-02 3.280276432633399963e-02 -2.970759291201829910e-03 1.818182878196239471e-03 9.758482687175273895e-03 2.857903018593788147e-02 -7.407589815557003021e-03 3.393547609448432922e-02 2.452261000871658325e-02 -8.281368762254714966e-03 -5.568862892687320709e-03 2.012598887085914612e-02 1.553348731249570847e-02 4.008110146969556808e-03 -1.047423109412193298e-02 -1.391783636063337326e-02 -1.235800795257091522e-02 1.081225369125604630e-02 -1.111678872257471085e-02 -1.717669703066349030e-02 1.747641153633594513e-02 -1.709668338298797607e-02 1.939293742179870605e-02 -1.916516199707984924e-02 1.729288324713706970e-02 -1.267056446522474289e-02 7.809272035956382751e-03 3.517028875648975372e-03 2.663453668355941772e-02 3.370550274848937988e-02 2.589879091829061508e-03 1.599402166903018951e-02 3.358572721481323242e-02 1.605437323451042175e-02 -1.282717287540435791e-02 3.721855208277702332e-02 2.076569199562072754e-02 1.420499663800001144e-02 6.290610134601593018e-02 8.257048204541206360e-03 5.659285467118024826e-03 1.821499131619930267e-02 1.229771878570318222e-02 -2.085937373340129852e-02 -2.190327644348144531e-02 9.416197426617145538e-03 -4.729907494038343430e-03 3.308201953768730164e-02 2.102202177047729492e-02 4.163773730397224426e-02 3.125070361420512199e-03 -4.695129115134477615e-03 4.561557434499263763e-03 1.894438266754150391e-02 -1.513012591749429703e-02 2.343137003481388092e-02 1.340880640782415867e-03 1.518814545124769211e-02 1.562108006328344345e-02 1.406320277601480484e-02 -7.313722744584083557e-03 -3.120648674666881561e-02 2.428747341036796570e-02 -5.059955269098281860e-02 1.598348468542098999e-02 1.920111593790352345e-03 9.736422449350357056e-02 2.091158367693424225e-02 2.507605403661727905e-02 2.466728445142507553e-03 5.248749628663063049e-03 2.664193138480186462e-02 -4.802999610546976328e-04 -4.180629737675189972e-03 -4.767831880599260330e-03 6.549515761435031891e-03 -1.710820384323596954e-02 1.970358937978744507e-02 1.624160446226596832e-02 1.236364245414733887e-02 4.431716352701187134e-02 1.332210097461938858e-02 -2.347141131758689880e-02 -1.608948782086372375e-02 6.605552975088357925e-03 2.476572617888450623e-02 -3.721655160188674927e-02 -1.321479864418506622e-02 -3.638013731688261032e-03 1.678783795796334743e-03 -1.530914194881916046e-02 7.810482755303382874e-03 2.164875529706478119e-02 1.927667669951915741e-02 1.752666570246219635e-02 -2.026671357452869415e-02 -8.501067757606506348e-03 -6.975033320486545563e-03 3.060911409556865692e-02 2.500526048243045807e-02 1.668858714401721954e-02 2.616412192583084106e-02 8.331547491252422333e-03 -1.285474654287099838e-02 2.647126279771327972e-02 2.729302085936069489e-02 1.432932540774345398e-02 2.335220016539096832e-02 2.751919999718666077e-02 1.603789627552032471e-02 9.175753220915794373e-03 -3.929761797189712524e-02 -1.327577698975801468e-02 7.109102327376604080e-03 -2.102650515735149384e-02 -1.403148099780082703e-02 -2.312666550278663635e-02 2.280088886618614197e-02 -8.924534544348716736e-03 2.448851056396961212e-02 -1.935663633048534393e-02 2.720346860587596893e-02 1.909263618290424347e-02 3.278902545571327209e-02 7.968266494572162628e-03 -1.976619102060794830e-02 2.088135853409767151e-02 -4.816004075109958649e-03 -2.840362489223480225e-02 1.418427377939224243e-02 -2.960455231368541718e-02 2.780092693865299225e-02 2.189105376601219177e-02 -2.556932158768177032e-02 1.368913799524307251e-02 1.413815468549728394e-02 1.045752875506877899e-02 -2.389322221279144287e-02 7.448777556419372559e-02 -1.644351147115230560e-02 -6.726177409291267395e-03 1.752427220344543457e-02 1.317643839865922928e-02 -1.598546095192432404e-02 2.378225699067115784e-02 -5.250427871942520142e-02 1.965113170444965363e-02 8.316853083670139313e-03 -1.500412821769714355e-02 -3.947163373231887817e-02 2.393721602857112885e-02 2.258486114442348480e-02 3.258380666375160217e-02 -1.752862893044948578e-02 -2.080732770264148712e-02 1.822804845869541168e-02 2.158273942768573761e-02 -2.134842425584793091e-02 -4.773347452282905579e-02 1.637763902544975281e-02 1.240577176213264465e-02 -1.383387017995119095e-03 9.462867863476276398e-03 -1.563658379018306732e-02 -1.873598992824554443e-02 -5.675975698977708817e-03 1.925560459494590759e-02 3.977334499359130859e-02 1.534871291369199753e-02 -1.243291143327951431e-02 4.592274315655231476e-03 -1.426156144589185715e-02 4.578184708952903748e-02 -2.141543291509151459e-02 7.717200554907321930e-03 2.045883424580097198e-02 2.097098901867866516e-02 6.357553601264953613e-02 -1.038423180580139160e-02
-4.221342387609183788e-04 5.668894737027585506e-04 6.225986871868371964e-04 -1.612937921890988946e-05 -5.195526173338294029e-04 2.727241080719977617e-04 -9.200361673720180988e-04 1.153244556917343289e-05 -5.121262511238455772e-04 -9.831120260059833527e-04 -4.046162357553839684e-04 -1.388233886245870963e-05 -5.319876363500952721e-04 1.360601163469254971e-04 4.227326135151088238e-04 8.474620990455150604e-04 7.219422841444611549e-04 -2.104745013639330864e-03 -1.113327220082283020e-03 -6.494711269624531269e-04 4.457927716430276632e-04 -1.369049423374235630e-03 -3.177669423166662455e-04 -7.762922323308885098e-04 -3.115766958217136562e-05 2.095261006616055965e-04 -5.782552179880440235e-04 -4.617068334482610226e-04 -2.191390958614647388e-04 7.662877906113862991e-04 -6.321740802377462387e-04 -3.913607506547123194e-04 -1.256334362551569939e-03 -5.340793286450207233e-04 -4.547639691736549139e-04 -6.308493175311014056e-05 -1.510901958681643009e-03 -3.576762683223932981e-04 -2.823511022143065929e-04 5.157523555681109428e-04 2.258793574583251029e-05 -4.281119618099182844e-04 -1.516419433755800128e-04 -6.056059501133859158e-04 4.883361980319023132e-04 -1.184696564450860023e-03 -3.555657895049080253e-05 -7.850565598346292973e-04 -2.027356385951861739e-04 -2.439883683109655976e-04 -7.470881682820618153e-04 3.399967390578240156e-04 -5.441606626845896244e-04 -9.121698676608502865e-04 -6.414576782844960690e-04 -3.023261378984898329e-04 8.341743377968668938e-04 4.634616489056497812e-04 -3.027183411177247763e-04 -3.874801914207637310e-04 -7.910920539870858192e-04 -1.952863094629719853e-04 -1.562326797284185886e-03 -5.466524162329733372e-04 -4.222691495670005679e-05 -8.631509263068437576e-04 3.193686716258525848e-04 -2.692328125704079866e-04 2.429717569611966610e-04 4.731742665171623230e-04 -6.365224253386259079e-04 -5.697536980733275414e-04 -6.151256384328007698e-04 -2.548401243984699249e-04 3.839202108792960644e-04 2.498988178558647633e-04 2.323064691154286265e-04 -5.363652016967535019e-04 -1.360724563710391521e-03 -3.508805239107459784e-04 2.654931267898064107e-05 -6.071477546356618404e-04 -1.016735448502004147e-03 -1.423953101038932800e-03 -3.326595469843596220e-04 -9.814271470531821251e-04 -7.936048787087202072e-04 -1.815715804696083069e-03 -1.185958506539463997e-03 3.110551915597170591e-04 -4.893700825050473213e-04 -5.947786848992109299e-04 -9.073150577023625374e-04 3.352695493958890438e-04 1.083111856132745743e-03 2.827055141096934676e-05 3.389485063962638378e-04 9.122249903157353401e-04 -3.966626827605068684e-04 -7.623107521794736385e-04 -5.439482629299163818e-04 -4.425985389389097691e-05 -4.222060088068246841e-04 -9.006964392028748989e-04 -9.889415232464671135e-04 6.064207991585135460e-05 -6.893763202242553234e-04 -2.763369993772357702e-04 2.632340474519878626e-04 1.049023470841348171e-03 1.757422869559377432e-04 -4.597864608513191342e-05 8.304221555590629578e-04 8.704255451448261738e-04 -5.886620492674410343e-04 -3.203919550287537277e-05 -8.093873620964586735e-04 -7.849105168133974075e-04 6.369208858814090490e-05 6.233407766558229923e-04 7.291994988918304443e-04 -2.827645803336054087e-04 -2.935364027507603168e-04 6.308674928732216358e-04 7.230026531033217907e-04 5.741608401876874268e-05 -1.328310696408152580e-03 4.988774890080094337e-04 -1.137730665504932404e-03 -9.935859125107526779e-04 -1.401264802552759647e-03 -1.044105971232056618e-03 -2.819748769979923964e-04 -1.014904701150953770e-03 4.252437502145767212e-04 -1.569202053360641003e-03 1.125634225900284946e-04 -7.696134853176772594e-04 -5.205206107348203659e-04 7.062464719638228416e-04 -8.570794016122817993e-04 -1.269529020646587014e-04 -5.825023981742560863e-04 3.372784995008260012e-04 1.210736591019667685e-04 -2.363361127208918333e-04 -1.883285352960228920e-03 1.342056202702224255e-04 -1.014102017506957054e-03 -4.607086884789168835e-04 7.390424343611812219e-06 -3.864605969283729792e-04 6.284507253440096974e-05 -6.058549624867737293e-04 2.885454450733959675e-04 -4.350194940343499184e-04 -4.102725069969892502e-04 3.192531294189393520e-04 -2.856391947716474533e-04 -1.383737107971683145e-04 -9.478316060267388821e-04 -1.899986527860164642e-04 -1.449403585866093636e-03 -1.698298729024827480e-04 1.572074834257364273e-04 3.477671707514673471e-04 -3.720739623531699181e-04 -1.808722299756482244e-04 -5.362221272662281990e-04 -2.421923709334805608e-04 -4.289377538952976465e-04 -1.155418431153520942e-04 -1.265656319446861744e-03 -1.937424676725640893e-04 4.322337044868618250e-04 -1.043679192662239075e-03 7.251765346154570580e-04 -3.151597629766911268e-04 -2.686779189389199018e-04 -2.519983718229923397e-05 9.176990715786814690e-04 -5.675085121765732765e-04 -6.209195707924664021e-04 -3.504322958178818226e-04 2.291447344759944826e-05 -1.248755608685314655e-03 -8.179550059139728546e-04 -3.627349506132304668e-04 -5.585591425187885761e-04 6.023041205480694771e-04 -8.266412187367677689e-04 -2.156762639060616493e-04 1.714216341497376561e-04 3.679991932585835457e-04 -9.499956504441797733e-04 3.464825567789375782e-04 -6.242743111215531826e-04 1.319927978329360485e-04 -3.211775911040604115e-04 -7.018483593128621578e-04 -1.310899155214428902e-03 -7.621136028319597244e-04 -3.865385078825056553e-04 2.132939844159409404e-04 3.255275951232761145e-04 7.380180613836273551e-05 4.400850448291748762e-04 -1.150704571045935154e-03 -3.410489589441567659e-04 -3.128914395347237587e-04 -9.497548453509807587e-04 -7.241232087835669518e-04 3.892967652063816786e-04 3.799668411375023425e-05 -8.273225976154208183e-04 -1.294202869758009911e-03 6.532263942062854767e-04 -8.953837677836418152e-04 1.076577318599447608e-04 -4.699575656559318304e-04 -3.877727140206843615e-04 -9.232700685970485210e-04 -3.891395754180848598e-04 -1.125878770835697651e-03 -1.145506394095718861e-03 9.026042243931442499e-05 -8.228454971686005592e-04 -4.327761871536495164e-06 -5.450131720863282681e-04 -6.398727418854832649e-04 -8.362368680536746979e-04 4.892763536190614104e-05 -8.433642506133764982e-05 -1.947933633346110582e-04 8.190282096620649099e-05 -6.731764879077672958e-04 5.496448648045770824e-05 -9.195030434057116508e-04 -2.175325353164225817e-04 -7.313418900594115257e-04 6.761008407920598984e-04 -4.314807592891156673e-04 -4.892403376288712025e-04 -4.519752110354602337e-04 -8.988594636321067810e-04 -4.975717165507376194e-04 -4.214599612168967724e-04 -1.116631552577018738e-03 -2.834113547578454018e-04 3.067126817768439651e-05 -1.070021069608628750e-03 -1.185654196888208389e-03 -7.323890458792448044e-04 -1.584754354553297162e-04 -1.790891983546316624e-03 -1.025158213451504707e-03
4.818180241272784770e-05 3.300804528407752514e-04 -7.520573562942445278e-04 -2.667417866177856922e-04 8.359342464245855808e-04 -7.792621036060154438e-04 4.212685453239828348e-04 -3.414932871237397194e-04 -3.626210091169923544e-04 2.700001059565693140e-04 -1.590755418874323368e-03 1.545425620861351490e-04 -2.975295938085764647e-04 -9.947915095835924149e-04 -7.062667864374816418e-04 -7.356075220741331577e-04 -8.605581824667751789e-04 2.733746805461123586e-05 -6.045587942935526371e-04 -3.479463630355894566e-04 -1.146627357229590416e-03 1.969355362234637141e-04 -9.619256015866994858e-04 -5.751046701334416866e-04 -1.466026064008474350e-03 -4.473186563700437546e-04 -8.775016176514327526e-04 1.707735500531271100e-04 -4.792749241460114717e-04 3.427467599976807833e-04 -9.589803812559694052e-05 -1.065317701431922615e-05 -9.086513309739530087e-04 -1.673143287916900590e-06 -5.767917609773576260e-04 -3.311064792796969414e-04 -1.137607847340404987e-03 -5.362642114050686359e-04 7.109326543286442757e-05 -4.690207133535295725e-04 -5.572870941250585020e-05 -1.034821616485714912e-03 -1.268716063350439072e-03 -1.005165744572877884e-03 -2.463704149704426527e-04 -2.045845467364415526e-04 -3.834010276477783918e-04 -5.008685184293426573e-05 -1.854561996879056096e-04 -6.864497554488480091e-04 -4.603253328241407871e-04 -9.957754518836736679e-04 3.465514964773319662e-05 3.766539739444851875e-04 -1.846308441599830985e-04 -4.244762239977717400e-04 -4.269418423064053059e-04 -9.419092093594372272e-04 1.054025487974286079e-03 1.362924813292920589e-03 3.659892536234110594e-04 -7.409771205857396126e-04 -9.596722666174173355e-04 -2.910969487857073545e-04 2.847758150892332196e-05 -6.080238381400704384e-04 -7.633272325620055199e-04 -1.364530817227205262e-05 4.449424159247428179e-04 -1.839218602981418371e-04 -6.864552851766347885e-04 -3.055038978345692158e-04 1.490226859459653497e-04 -1.561863173265010118e-04 -2.159657742595300078e-05 -7.080535287968814373e-04 -9.450680954614654183e-05 -2.098294644383713603e-04 -8.472949266433715820e-04 1.348425757896620780e-05 -7.384992786683142185e-04 -5.554642848437651992e-05 -2.373443567194044590e-04 1.121172608691267669e-04 -1.285919337533414364e-03 -9.097797446884214878e-04 -7.704953313805162907e-04 -1.079772482626140118e-03 -3.741515101864933968e-04 1.411562901921570301e-03 8.540928829461336136e-04 3.415572427911683917e-05 -1.423605834133923054e-03 7.233385113067924976e-04 -2.054620999842882156e-04 7.576112984679639339e-04 6.129343091743066907e-05 -1.061096903868019581e-03 -1.207577297464013100e-03 1.821588375605642796e-05 -3.211706643924117088e-04 -3.058268048334866762e-04 -1.471552299335598946e-03 -1.157324295490980148e-04 -5.794847966171801090e-04 -8.958572871051728725e-04 -8.521426934748888016e-04 -7.465482340194284916e-04 1.285343605559319258e-04 -9.327137959189713001e-04 -6.011701771058142185e-04 2.793033781927078962e-04 -1.290541025809943676e-03 -7.211887859739363194e-04 1.552330650156363845e-04 -1.891076681204140186e-04 5.230729002505540848e-04 -2.464632852934300900e-04 -1.351916696876287460e-03 -2.088219625875353813e-04 -2.926621527876704931e-04 -6.667271954938769341e-04 4.850757977692410350e-05 -1.510274363681674004e-03 -5.904844147153198719e-05 -3.281814570073038340e-04 -2.415908966213464737e-04 -9.229123825207352638e-04 9.466045885346829891e-04 -3.764491993933916092e-04 -1.499868521932512522e-04 -7.462282082997262478e-04 3.753873170353472233e-04 5.486767258844338357e-05 -3.614982415456324816e-04 -1.103481918107718229e-05 -2.533189581299666315e-05 -8.056910010054707527e-04 -1.696843537501990795e-04 -3.442589950282126665e-04 -2.184091135859489441e-04 -1.930837024701759219e-04 -3.271347377449274063e-04 -1.145628266385756433e-04 5.499011604115366936e-04 -2.087634493364021182e-04 -6.601793575100600719e-04 2.347329573240131140e-04 -1.426918151992140338e-05 -1.417870982550084591e-03 3.713899059221148491e-04 -3.357184759806841612e-04 -1.860447227954864502e-04 1.069562131306156516e-04 9.842938197834882885e-06 8.771411376073956490e-05 4.758203285746276379e-04 -8.681489271111786366e-04 -1.440729829482734203e-03 -1.526342239230871201e-04 -2.819843939505517483e-04 -1.192662632092833519e-03 1.216964083141647279e-04 7.678612601011991501e-04 -4.978527067578397691e-05 -1.153444172814488411e-03 1.920073991641402245e-04 -2.682034682948142290e-04 -1.061829505488276482e-03 1.266930252313613892e-03 -1.055400702171027660e-03 5.003667902201414108e-04 2.624025219120085239e-04 -2.826588752213865519e-04 -1.335642416961491108e-03 -4.843575006816536188e-04 7.418172899633646011e-04 -4.216470697429031134e-04 -1.223493367433547974e-03 1.064428870449773967e-04 4.600335669238120317e-04 -6.450594519264996052e-04 -4.362965992186218500e-04 1.879609335446730256e-04 9.996830485761165619e-04 -7.877261959947645664e-04 2.211364771937951446e-04 2.700436452869325876e-04 -1.837403760873712599e-05 8.134050876833498478e-04 -7.895450689829885960e-04 -3.499560989439487457e-04 6.711603491567075253e-04 4.346091009210795164e-04 -6.108205998316407204e-04 -5.217687430558726192e-06 -3.934648702852427959e-04 -1.326187746599316597e-03 -1.151296426542103291e-03 2.536342653911560774e-04 -2.859783708117902279e-04 -6.058855797164142132e-04 7.909595733508467674e-04 -4.291039367672055960e-04 -7.785030175000429153e-04 7.245963788591325283e-04 6.726497667841613293e-04 5.740377237088978291e-04 -9.115725406445562840e-04 5.240335012786090374e-04 -6.367961759679019451e-05 3.276802017353475094e-04 6.281212554313242435e-04 -1.185413100756704807e-03 1.171579002402722836e-03 -2.096894895657896996e-03 -9.318346274085342884e-04 -1.020688912831246853e-03 -8.857625653035938740e-04 -8.147703483700752258e-04 1.137257437221705914e-03 -1.156087382696568966e-03 5.109004559926688671e-04 -9.134557913057506084e-04 4.531346494331955910e-04 -7.612691842950880527e-04 4.852791607845574617e-04 1.832437119446694851e-04 -1.484785170760005713e-04 -5.812466260977089405e-04 -6.119260797277092934e-04 8.476016810163855553e-04 -1.329946797341108322e-03 4.803605261258780956e-04 -7.901798817329108715e-04 -1.016223759506829083e-04 5.372334635467268527e-05 2.111538778990507126e-04 -5.570863722823560238e-04 -4.539903311524540186e-04 -5.068493774160742760e-04 1.878709736047312617e-04 -1.701984787359833717e-03 -3.862440062221139669e-04 8.639058796688914299e-04 -6.307727308012545109e-04 -4.498216148931533098e-04 -2.753365261014550924e-04 -2.539097913540899754e-04 -3.739115200005471706e-04 -5.293471622280776501e-04 -6.682812236249446869e-04 -9.112617117352783680e-04 -8.323080837726593018e-04 3.772145428229123354e-04 -4.012869321741163731e-04
-6.498063448816537857e-04 -9.792828932404518127e-04 -3.653064777608960867e-04 -5.182159948162734509e-04 1.326748752035200596e-04 3.559697070159018040e-04 -1.280348980799317360e-03 -1.525631989352405071e-03 1.152384866145439446e-04 -7.367701618932187557e-04 3.969083481933921576e-04 -9.383712495036888868e-06 -9.107973892241716385e-04 -2.859481319319456816e-04 1.930393482325598598e-04 -8.184621110558509827e-04 -5.376643384806811810e-04 -5.190472584217786789e-04 -1.572502544149756432e-03 2.510079502826556563e-05 -1.978218788281083107e-04 -2.528527111280709505e-04 -3.042878233827650547e-04 -8.352634722541552037e-06 -5.435092607513070107e-04 -1.125196577049791813e-03 -2.872665645554661751e-04 1.394819235429167747e-03 -1.925159362144768238e-03 9.300623787567019463e-04 -2.306331152794882655e-04 -7.886472740210592747e-04 -3.308137529529631138e-04 -4.804668424185365438e-04 7.469478441635146737e-05 9.054964175447821617e-05 6.167148239910602570e-05 7.919904310256242752e-04 3.334386565256863832e-04 -3.865113249048590660e-04 -4.798334848601371050e-04 1.791847753338515759e-04 -2.094418305205181241e-04 1.995713391806930304e-04 -5.447246949188411236e-04 -3.744585410458967090e-05 5.772406002506613731e-04 -9.585681837052106857e-04 7.358494622167199850e-05 -1.378358341753482819e-03 4.675477393902838230e-04 -3.130260447505861521e-04 -1.253214315511286259e-03 -1.558047253638505936e-03 8.849211153574287891e-04 5.810157163068652153e-04 5.135309766046702862e-04 3.681746238726191223e-05 7.844790816307067871e-04 3.190574061591178179e-04 -5.019365344196557999e-04 -1.068160199793055654e-04 -3.763737622648477554e-04 -6.471198867075145245e-05 -1.764495827956125140e-04 -7.315486436709761620e-04 -1.626803132239729166e-04 -3.163004002999514341e-04 -1.347514451481401920e-03 -6.541147013194859028e-04 -5.776684847660362720e-04 1.069770427420735359e-03 -1.059241709299385548e-03 -1.023476128466427326e-03 -1.199898426420986652e-03 -1.101684058085083961e-03 5.163059176993556321e-05 4.612845077645033598e-04 -7.721171714365482330e-04 9.719070512801408768e-04 -5.425509880296885967e-04 -4.847490636166185141e-04 -8.086839225143194199e-04 -1.364151685265824199e-04 2.976734504045452923e-05 1.229098706971853971e-04 -4.407304513733834028e-04 -4.619529645424336195e-04 6.719059310853481293e-04 1.433841680409386754e-04 2.919327816925942898e-04 -3.566039085853844881e-04 -4.572626203298568726e-04 -3.732155018951743841e-04 -4.098682256881147623e-04 -2.273897873237729073e-03 3.291883040219545364e-04 -1.145335496403276920e-03 -1.057577203027904034e-03 -3.110521938651800156e-04 1.311597297899425030e-04 -3.878501956933178008e-05 -2.089830086333677173e-04 -3.072817053180187941e-04 -5.242152255959808826e-04 -5.267311935313045979e-04 -5.359167116694152355e-04 -7.560845115222036839e-04 -1.178022590465843678e-03 -3.908942162524908781e-04 -8.767458493821322918e-04 -5.525413434952497482e-04 -7.553427130915224552e-04 -9.392842766828835011e-04 -7.639095420017838478e-04 6.940162274986505508e-04 -4.948415444232523441e-04 -3.813893708866089582e-04 -3.246295382268726826e-04 -2.790330472635105252e-05 -6.932716933079063892e-04 -1.237606978975236416e-03 6.721218815073370934e-04 -5.328556289896368980e-04 -2.242921327706426382e-04 -7.528294809162616730e-04 -1.372718834318220615e-03 -3.253803006373345852e-04 -9.627738036215305328e-04 -1.673247432336211205e-03 -8.601136505603790283e-04 2.661644830368459225e-04 -3.377139510121196508e-04 -2.784048556350171566e-04 -8.243602496804669499e-05 -6.568875978700816631e-04 -3.223372623324394226e-04 2.391657180851325393e-04 -5.360626964829862118e-04 -1.693668746156617999e-04 6.544755888171494007e-04 -8.472378249280154705e-04 6.467711064033210278e-04 -1.288359169848263264e-03 -1.262202276848256588e-03 -1.294620451517403126e-04 -1.523834071122109890e-03 5.858161021023988724e-04 -8.858533110469579697e-04 -3.922679752577096224e-04 -8.940906845964491367e-04 -1.024072174914181232e-03 -2.679704084584955126e-05 -8.305673691211268306e-05 7.246830500662326813e-04 -1.396143226884305477e-03 -1.188328023999929428e-03 -1.334133849013596773e-04 1.320434676017612219e-04 -4.980375160812400281e-05 -9.917225688695907593e-04 3.156807215418666601e-04 -1.025634934194386005e-03 4.791265237145125866e-04 1.290349027840420604e-04 5.441508837975561619e-04 -8.128126501105725765e-04 -8.325360831804573536e-04 -2.187158446758985519e-03 -8.824877295410260558e-05 -1.866843558673281223e-05 -4.860494809690862894e-04 -9.203174704452976584e-05 1.801003381842747331e-04 -1.769940601661801338e-03 -7.477421895600855350e-04 -7.572023314423859119e-04 4.095910117030143738e-05 1.469358976464718580e-04 -9.272036259062588215e-04 -7.096153567545115948e-04 -4.162996192462742329e-04 -3.791420895140618086e-04 -6.140973709989339113e-05 -7.070925203152000904e-04 -3.331755287945270538e-04 -4.023885703645646572e-04 2.015597710851579905e-04 2.441385295242071152e-04 -5.443970439955592155e-04 -3.331899351906031370e-04 -1.178725389763712883e-03 -7.975854532560333610e-05 -1.334293046966195107e-03 4.629699105862528086e-04 -9.035974653670564294e-05 7.963243988342583179e-04 -4.971593734808266163e-04 -6.350995390675961971e-04 8.601334411650896072e-04 -3.509671369101852179e-04 1.013314584270119667e-03 -8.863216498866677284e-05 -4.414865979924798012e-04 -5.609843065030872822e-04 -1.418730244040489197e-03 9.470880031585693359e-04 -1.235463190823793411e-03 1.281045551877468824e-04 7.996906060725450516e-04 -1.537894131615757942e-03 -1.195789081975817680e-03 3.344051074236631393e-04 -1.030949410051107407e-03 -6.863899761810898781e-05 -6.938962615095078945e-04 -4.985216655768454075e-04 9.842800209298729897e-04 -1.116193598136305809e-03 -6.819462287239730358e-04 -2.563940652180463076e-04 -3.536584263201802969e-04 -1.161701628006994724e-03 -7.703327719355002046e-05 -3.906741330865770578e-04 -1.872026186902076006e-04 -6.816916284151375294e-04 -7.481185602955520153e-04 -2.333405245735775679e-05 -9.356566588394343853e-04 -4.376501019578427076e-04 8.611347875557839870e-04 -7.422167691402137280e-04 -7.222367567010223866e-04 -7.408793899230659008e-04 -1.371194666717201471e-04 -7.145795825636014342e-05 -1.211098511703312397e-03 -3.101536422036588192e-04 -1.292322645895183086e-03 1.531907473690807819e-04 -4.649120091926306486e-04 -4.848949320148676634e-04 3.974223000113852322e-05 -2.233944600448012352e-03 -1.340287708444520831e-04 3.473244141787290573e-04 -4.924135864712297916e-04 -1.430836506187915802e-03 -2.082577557303011417e-04 -5.859425873495638371e-04 -1.076343352906405926e-03 8.330371347256004810e-04 -7.299362914636731148e-04 -6.289879092946648598e-04 -5.579890566878020763e-04
