-8.892886340618133545e-03
-2.893049095291644335e-04
-9.876962285488843918e-04
6.431633234024047852e-02
-3.582871332764625549e-02
6.062269210815429688e-03
3.240810707211494446e-02
2.316906489431858063e-02
3.030059486627578735e-02
7.889627479016780853e-03
-1.064824126660823822e-02
-2.579148276709020138e-04
2.418783679604530334e-02
-1.551732886582612991e-02
4.975001513957977295e-02
-1.877225236967206001e-03
-1.148537546396255493e-02
-3.744623099919408560e-04
-6.414449890144169331e-04
2.642931044101715088e-02
2.766751684248447418e-03
-1.195676159113645554e-02
-7.796036545187234879e-03
-4.246138851158320904e-04
3.329904377460479736e-02
-1.764921762514859438e-04
2.812981419265270233e-02
3.109775856137275696e-02
1.167219318449497223e-02
-2.180286217480897903e-03
-4.448933468665927649e-04
3.098549507558345795e-02
-3.038827562704682350e-04
3.502408415079116821e-02
2.313178032636642456e-02
6.259520538151264191e-03
-1.143614645116031170e-03
-5.990857258439064026e-03
2.234058454632759094e-02
-3.119699656963348389e-03
-6.865522009320557117e-04
4.156546201556921005e-03
-5.620675627142190933e-03
1.391289383172988892e-02
5.162803083658218384e-02
-4.569363081827759743e-04
-8.816390298306941986e-03
-9.498176514171063900e-04
-6.016183760948479176e-04
2.023148909211158752e-02
1.080116024240851402e-03
-1.038047112524509430e-02
-6.378029938787221909e-04
3.306743502616882324e-02
6.969450507313013077e-03
3.957160282880067825e-03
2.154125086963176727e-02
3.702122345566749573e-02
-5.693910177797079086e-03
6.591019779443740845e-02
-5.494998767971992493e-04
9.226435940945520997e-05
4.747846396639943123e-04
-4.163449339102953672e-04
-3.187504597008228302e-03
-7.077640853822231293e-03
-5.258606979623436928e-04
-2.495662122964859009e-02
1.978068426251411438e-02
-5.434190970845520496e-04
-1.972312747966498137e-04
-4.275413230061531067e-04
4.787080688402056694e-04
-1.668398617766797543e-03
3.146474063396453857e-02
1.014937832951545715e-02
-5.299873650074005127e-03
2.395034534856677055e-03
-1.524836407043039799e-03
1.149578485637903214e-02
-3.380828420631587505e-04
3.125234693288803101e-02
1.112908497452735901e-02
-3.142413450405001640e-03
1.038110163062810898e-02
1.034224778413772583e-02
3.623726218938827515e-02
4.081077873706817627e-03
2.156882733106613159e-02
4.319402202963829041e-02
2.026820927858352661e-02
-9.367203456349670887e-04
1.331713423132896423e-02
-1.268575713038444519e-02
-9.927441133186221123e-04
-9.094977285712957382e-04
-6.934672128409147263e-04
-4.809239180758595467e-04
-4.062510852236300707e-04
3.964029252529144287e-02
2.843838650733232498e-03
-7.266032043844461441e-04
3.328265622258186340e-02
2.641086280345916748e-02
2.327280305325984955e-02
8.645351976156234741e-03
3.192963823676109314e-02
-5.531155620701611042e-04
-7.976423017680644989e-03
1.265378762036561966e-02
3.128901124000549316e-03
8.015689998865127563e-02
5.556397885084152222e-02
2.365397755056619644e-03
8.736739400774240494e-04
3.574064001441001892e-03
2.647003345191478729e-02
-6.730904569849371910e-04
5.361327156424522400e-02
-6.169946864247322083e-04
-1.150512951426208019e-03
1.979021541774272919e-02
2.843434549868106842e-02
-2.888214774429798126e-02
-2.179460972547531128e-02
-1.025332836434245110e-03
-1.371435006149113178e-03
-1.351662445813417435e-02
-2.866093767806887627e-03
-5.895337089896202087e-03
2.317281253635883331e-02
-6.393221672624349594e-03
-1.724519394338130951e-02
-4.635094373952597380e-04
3.499859943985939026e-02
1.714332960546016693e-02
7.266460359096527100e-02
5.103818327188491821e-02
2.202793490141630173e-03
2.353783696889877319e-02
-7.121898815967142582e-04
7.367559708654880524e-03
-1.447170414030551910e-02
2.212007902562618256e-02
2.129120752215385437e-02
2.580458112061023712e-02
2.742777019739151001e-02
3.187947347760200500e-02
3.760337084531784058e-02
-5.699140601791441441e-04
3.724758699536323547e-02
5.236217752099037170e-02
3.072842024266719818e-02
-6.746914586983621120e-04
4.308434203267097473e-03
6.700158119201660156e-03
2.767525054514408112e-02
-8.561467984691262245e-04
-1.500227395445108414e-02
1.877486705780029297e-02
-2.142834273399785161e-04
1.705058105289936066e-02
-7.816369761712849140e-04
2.981817536056041718e-02
-6.815285887569189072e-04
-8.255192660726606846e-04
-4.042450338602066040e-03
-7.828071829862892628e-04
-7.098791655153036118e-03
-1.082981843501329422e-02
3.036902844905853271e-02
-7.741517038084566593e-04
1.741016283631324768e-02
1.714006066322326660e-02
-1.137753203511238098e-02
-3.931035462301224470e-04
6.630454678088426590e-03
2.190873958170413971e-02
-1.171254669316112995e-03
1.355494465678930283e-02
-1.797460834495723248e-03
2.761420607566833496e-02
-1.126893423497676849e-02
9.885906241834163666e-03
1.620746403932571411e-02
1.553974859416484833e-02
2.317082509398460388e-02
-4.042945511173456907e-04
-4.063948581460863352e-04
3.593360632658004761e-02
3.422088176012039185e-02
2.932598628103733063e-02
-1.831161935115233064e-04
5.049483105540275574e-02
-5.416558706201612949e-04
4.771509766578674316e-02
-1.077343989163637161e-02
2.075044251978397369e-02
2.770619280636310577e-02
2.910117991268634796e-02
1.049013063311576843e-02
-1.059076283127069473e-03
-5.363225936889648438e-03
-7.159558590501546860e-04
3.245564922690391541e-02
8.479742705821990967e-02
-3.112108912318944931e-03
3.703260049223899841e-02
-1.126452907919883728e-02
9.978170506656169891e-03
5.679975263774394989e-03
1.945781521499156952e-02
-7.233716896735131741e-04
-8.076940430328249931e-04
7.449449971318244934e-03
-6.444462924264371395e-04
-8.430329151451587677e-03
4.500588774681091309e-02
3.913621604442596436e-02
1.032663349178619683e-04
-5.782022606581449509e-03
3.374833613634109497e-02
1.935705542564392090e-02
5.754609033465385437e-02
1.164699532091617584e-02
-1.515331305563449860e-02
4.039396345615386963e-02
-2.712219255045056343e-03
-1.682978868484497070e-02
-3.473723190836608410e-04
6.456280127167701721e-03
-6.189120002090930939e-03
3.457310423254966736e-02
-1.047559361904859543e-02
-1.938460208475589752e-02
2.495144680142402649e-02
2.211907133460044861e-02
1.863235235214233398e-02
2.536977827548980713e-02
2.067325823009014130e-02
8.043350279331207275e-02
3.129432734567672014e-04
1.964493468403816223e-02
2.923751808702945709e-02
-1.575643196702003479e-02
-5.860510747879743576e-03
4.560730233788490295e-02
7.048241049051284790e-02
2.078897878527641296e-02
2.210108190774917603e-02
2.375214733183383942e-02
2.670278400182723999e-02
5.590643268078565598e-03
2.920869365334510803e-02
2.249954268336296082e-02
-2.632123650982975960e-04
