1.112076546996831894e-02 -8.088622242212295532e-03 -1.449475064873695374e-03 -4.044433590024709702e-03 -1.803412102162837982e-02 -5.129191558808088303e-03 -7.830881513655185699e-03 -1.636799983680248260e-02 -8.908138610422611237e-03 4.459357820451259613e-03 8.302891626954078674e-03 -9.902735473588109016e-04 1.511674094945192337e-02 3.615953773260116577e-02 -1.866737875388935208e-04 2.865082770586013794e-02 -9.538129903376102448e-03 4.617086669895797968e-04 -1.463716500438749790e-03 -4.460317359189502895e-05 6.507440004497766495e-03 1.235651667229831219e-03 1.827843021601438522e-03 1.615117676556110382e-02 1.104432065039873123e-02 1.190406549721956253e-02 -1.541131734848022461e-02 -1.177363749593496323e-02 -1.993032731115818024e-02 -8.766568498685956001e-04 -1.711694337427616119e-02 8.457469753921031952e-03 -1.015404984354972839e-02 -3.760119667276740074e-03 -3.330649435520172119e-02 -1.504066027700901031e-02 -2.548700757324695587e-02 -1.957174623385071754e-03 -4.468814469873905182e-03 -8.512365631759166718e-03 8.539440110325813293e-03 7.044842001050710678e-03 1.288447249680757523e-02 1.305612456053495407e-02 4.488206934183835983e-03 -1.914654043503105640e-03 -5.839393474161624908e-03 1.865472178906202316e-03 -5.174218676984310150e-03 9.018282406032085419e-03 8.538098074495792389e-03 -2.513312362134456635e-02 -7.422404014505445957e-04 -3.207886219024658203e-02 -1.493104454129934311e-02 2.740945667028427124e-02 -1.727525028400123119e-03 -1.028818194754421711e-03 -3.872452303767204285e-03 -2.025542082265019417e-03 -4.153857938945293427e-03 -4.372700583189725876e-03 -1.392784528434276581e-02 -2.905495231971144676e-03 -1.399101596325635910e-02 8.419586811214685440e-04 1.191621366888284683e-02 4.417891614139080048e-03 -8.241916075348854065e-03 -1.335739903151988983e-02 -1.079082116484642029e-02 -2.106896787881851196e-02 3.973250091075897217e-02 8.412586525082588196e-03 7.013280875980854034e-03 2.293628640472888947e-02 -1.860542222857475281e-03 -5.367531906813383102e-03 8.580099791288375854e-03 8.640836458653211594e-04 -4.012180492281913757e-03 2.165723126381635666e-03 1.098908018320798874e-02 4.561814013868570328e-03 -4.559628199785947800e-03 1.074475236237049103e-02 6.353130447678267956e-04 -6.627228576689958572e-03 -2.508847974240779877e-02 5.166272632777690887e-03 3.877777839079499245e-03 -3.130524978041648865e-02 4.597469232976436615e-03 5.022849421948194504e-03 -1.377704320475459099e-03 5.853383801877498627e-03 7.367968093603849411e-03 -7.538744248449802399e-03 -1.903193886391818523e-03 8.102187886834144592e-03 -5.481378175318241119e-03 2.120056189596652985e-03 3.728647902607917786e-02 8.505516685545444489e-03 -5.076358839869499207e-02 1.505154743790626526e-02 7.472449447959661484e-03 1.670690253376960754e-02 -1.769432425498962402e-02 4.951945040374994278e-03 -7.515054894611239433e-04 -6.124243605881929398e-03 -5.135266110301017761e-04 -5.278018768876791000e-03 5.701149813830852509e-03 4.690829198807477951e-03 -1.252018992090597749e-04 7.343768607825040817e-03 1.235717814415693283e-02 1.986961811780929565e-02 5.035376176238059998e-03 4.429831169545650482e-03 5.459283012896776199e-03 5.669485544785857201e-04 -5.295666866004467010e-03 3.323761513456702232e-03 -8.668618276715278625e-03 3.182110842317342758e-03 1.229662541300058365e-02 -1.221267227083444595e-02 5.135326646268367767e-03 5.700698588043451309e-03 -2.255321852862834930e-02 4.077154397964477539e-02 6.200900766998529434e-03 -6.859348155558109283e-03 4.214928671717643738e-02 -5.306397564709186554e-03 -2.387869730591773987e-02 -4.482307936996221542e-03 3.932834602892398834e-03 1.716192066669464111e-02 4.346136003732681274e-03 4.516616463661193848e-03 -4.536719992756843567e-03 3.345391945913434029e-03 -1.423987094312906265e-03 1.966305535461287946e-05 -3.079458838328719139e-03 4.253290593624114990e-02 -2.078901417553424835e-02 7.691813167184591293e-03 3.480195999145507812e-03 7.475514430552721024e-03 1.028821710497140884e-02 -1.145910006016492844e-02 2.981778001412749290e-03 -6.768207531422376633e-03 4.236933775246143341e-03 -1.681093010120093822e-03 1.652508217375725508e-04 3.829627996310591698e-03 1.098220329731702805e-02 4.869255237281322479e-03 1.814334280788898468e-02 -5.162218585610389709e-04 -1.189324539154767990e-03 2.096624486148357391e-02 -1.063573407009243965e-03 2.222914947196841240e-03 1.356771774590015411e-02 1.231212983839213848e-03 5.583263467997312546e-03 4.690086003392934799e-03 -1.386871654540300369e-02 2.179627772420644760e-03 1.575250737369060516e-02 -8.959670667536556721e-04 -2.367765828967094421e-02 -5.019713658839464188e-03 -8.393078460358083248e-04 2.579079242423176765e-03 -2.815145999193191528e-04 1.299262326210737228e-02 1.126474048942327499e-02 2.193298749625682831e-02 8.974472060799598694e-03 -2.065514400601387024e-02 1.210819557309150696e-02 5.419547669589519501e-03 6.787017337046563625e-04 -1.318072434514760971e-02 -1.285243779420852661e-04 -1.161620207130908966e-02 1.767930202186107635e-02 7.255235686898231506e-03 2.109345048666000366e-02 6.215331610292196274e-03 4.220521543174982071e-03 2.584406640380620956e-03 -7.532010320574045181e-03 -1.366672944277524948e-02 -6.742648780345916748e-03 1.243928447365760803e-02 -1.680608256720006466e-03 -9.061635471880435944e-03 -1.257426384836435318e-02 8.132402785122394562e-03 -7.439339999109506607e-03 -3.618235001340508461e-03 8.027758449316024780e-04 5.324596073478460312e-03 1.885080360807478428e-03 -3.920981660485267639e-02 2.087961323559284210e-02 -2.729789412114769220e-04 2.996297925710678101e-02 -1.400722097605466843e-02 -3.446416696533560753e-03 9.161640889942646027e-03 5.201745778322219849e-03 -8.329684846103191376e-03 2.439928427338600159e-02 -9.313890710473060608e-03 -1.651790738105773926e-02 3.830439411103725433e-03 -6.710887886583805084e-03 8.892560144886374474e-04 3.245076863095164299e-03 -9.874903596937656403e-03 -6.252020597457885742e-03 -1.651558326557278633e-03 -8.593964390456676483e-03 2.786860056221485138e-02 -1.633732230402529240e-03 -1.779822167009115219e-03 1.899747876450419426e-03 1.601840369403362274e-03 -2.232420258224010468e-02 1.230683643370866776e-02 2.618285594508051872e-03 9.157305583357810974e-03 8.982325904071331024e-03 1.009157765656709671e-02 -6.622836925089359283e-03 5.282660946249961853e-03 -8.968443144112825394e-04 -2.276397077366709709e-03 2.048859000205993652e-02 -1.017933525145053864e-02 -4.170540778432041407e-04 -7.735675666481256485e-03 1.992993615567684174e-02 -2.245660871267318726e-03 2.578648552298545837e-02 -4.173745401203632355e-03
5.576660390943288803e-03 -1.125324238091707230e-02 -1.165376883000135422e-02 -1.794564351439476013e-02 -1.855345815420150757e-02 -4.536613356322050095e-03 3.428893163800239563e-03 6.342706829309463501e-02 1.734735444188117981e-02 5.408516153693199158e-03 -3.390218829736113548e-03 1.391416043043136597e-02 6.785049568861722946e-03 2.284075878560543060e-02 2.712974790483713150e-03 -1.432989630848169327e-02 1.475066505372524261e-02 1.477446313947439194e-02 1.803940976969897747e-03 -4.231473430991172791e-03 -1.696853898465633392e-02 2.237182669341564178e-02 2.061251288978382945e-04 3.412967547774314880e-02 -1.966971531510353088e-02 4.553599283099174500e-02 1.977314054965972900e-02 -1.664366200566291809e-02 -2.576971054077148438e-02 -3.027729876339435577e-02 -1.091468147933483124e-02 4.084608331322669983e-02 6.176938768476247787e-03 -2.007740922272205353e-02 8.633900433778762817e-03 -2.282178401947021484e-02 1.140659581869840622e-02 -5.923027638345956802e-03 -3.511182218790054321e-02 -3.565523540601134300e-03 6.239272281527519226e-02 3.407728299498558044e-02 -4.395856335759162903e-02 -3.308320185169577599e-03 -3.329904749989509583e-02 9.113859385251998901e-03 3.008669009432196617e-03 5.786978639662265778e-03 -2.666964661329984665e-03 -1.361687574535608292e-02 -2.767219021916389465e-02 1.176982372999191284e-02 1.857221499085426331e-02 1.064715813845396042e-02 4.472016822546720505e-03 -3.510289639234542847e-02 6.316663348115980625e-05 3.468997031450271606e-02 4.224437847733497620e-02 9.986775927245616913e-03 1.957090012729167938e-02 -4.923237487673759460e-03 4.095739498734474182e-02 -9.138516150414943695e-03 3.402192890644073486e-02 3.053041547536849976e-02 -1.540447003208100796e-03 2.326995134353637695e-02 -1.207076851278543472e-02 -1.415547449141740799e-02 4.354660399258136749e-03 -2.324113994836807251e-02 5.494448170065879822e-02 2.932933345437049866e-02 1.415991340763866901e-03 2.441244758665561676e-02 9.050823748111724854e-03 3.597558662295341492e-02 6.757216178812086582e-04 1.637261593714356422e-03 -2.900138683617115021e-02 -4.658456426113843918e-03 1.610197871923446655e-02 -2.935544773936271667e-02 3.194756107404828072e-03 -6.806018296629190445e-03 -4.255506768822669983e-02 -1.171364914625883102e-02 -2.664270810782909393e-03 -2.955889143049716949e-02 -3.573210164904594421e-02 -6.531287729740142822e-02 -7.212581578642129898e-03 -2.817239239811897278e-02 -1.670713350176811218e-02 4.085885360836982727e-02 -1.249802391976118088e-02 -4.504631739109754562e-03 -3.885073587298393250e-02 3.983680158853530884e-02 -2.473320998251438141e-02 -1.531262975186109543e-02 -8.437767624855041504e-03 2.753325738012790680e-02 -5.471931770443916321e-02 -1.826200820505619049e-02 -6.153587251901626587e-03 -2.407117560505867004e-02 4.236274957656860352e-02 1.368446461856365204e-02 -9.333467110991477966e-03 4.239807836711406708e-03 2.223736792802810669e-02 4.870134964585304260e-02 -6.332322023808956146e-03 3.124278737232089043e-03 -9.337106719613075256e-03 2.798642730340361595e-03 -2.607862465083599091e-02 -2.796440199017524719e-02 -6.567819509655237198e-03 2.301418036222457886e-02 -1.508618704974651337e-02 4.915398545563220978e-03 1.561164855957031250e-02 8.528488688170909882e-03 -8.041768334805965424e-03 -9.337888099253177643e-03 3.300060704350471497e-02 1.765707507729530334e-02 1.237009372562170029e-02 -6.921563297510147095e-03 5.097842589020729065e-02 -4.483759775757789612e-02 -2.795315580442547798e-03 -3.044672077521681786e-03 -5.009770393371582031e-03 -1.628074981272220612e-02 2.584422007203102112e-02 -2.249287441372871399e-02 -2.780792675912380219e-02 -2.019908512011170387e-03 1.673688367009162903e-02 -3.804096207022666931e-02 8.798494003713130951e-03 7.120698690414428711e-03 -3.112711757421493530e-02 -3.347562253475189209e-02 4.210826009511947632e-03 5.028918851166963577e-03 2.089794166386127472e-02 1.599309593439102173e-02 1.901141740381717682e-02 5.152911692857742310e-02 1.630961708724498749e-02 -2.705161646008491516e-02 3.681734204292297363e-02 -3.612939268350601196e-02 -3.300889581441879272e-02 1.649916544556617737e-02 4.038811195641756058e-03 1.570851192809641361e-03 -5.552035756409168243e-03 7.286698091775178909e-04 -1.123702898621559143e-02 -3.368273749947547913e-02 3.196694329380989075e-02 -3.623717278242111206e-02 3.163351491093635559e-02 -1.969880238175392151e-02 -4.190004244446754456e-02 5.184666067361831665e-02 5.719874054193496704e-02 -9.208455681800842285e-03 1.749162748456001282e-02 -1.873636990785598755e-02 -2.827429957687854767e-02 4.375649616122245789e-02 -5.506711453199386597e-02 1.258263713680207729e-03 1.731144823133945465e-02 5.261483136564493179e-03 -8.181495591998100281e-03 8.173284120857715607e-03 4.631441552191972733e-03 7.728164643049240112e-02 -1.248981244862079620e-02 3.335930034518241882e-02 1.806897856295108795e-02 6.381636485457420349e-03 -2.971738285850733519e-04 -1.403683982789516449e-02 4.686779528856277466e-02 4.103224724531173706e-03 6.117461714893579483e-03 -1.834413222968578339e-02 -4.739628732204437256e-02 4.654949530959129333e-03 2.293151570484042168e-03 2.283982560038566589e-02 -1.516025513410568237e-02 3.458142280578613281e-03 7.012743968516588211e-03 -1.619506627321243286e-02 -1.915982738137245178e-02 6.293018814176321030e-03 -1.065974589437246323e-02 1.170204486697912216e-02 4.201157391071319580e-02 3.451739624142646790e-02 -8.412482216954231262e-03 1.360510662198066711e-02 -3.630620241165161133e-02 -2.070889435708522797e-02 -1.340680103749036789e-02 6.588584184646606445e-02 -7.397650927305221558e-02 2.779950574040412903e-02 -3.277386538684368134e-03 3.889140859246253967e-02 -2.925067022442817688e-02 1.136452518403530121e-02 3.084441274404525757e-02 5.710172466933727264e-03 -2.168691717088222504e-02 2.818757668137550354e-02 -1.178396958857774734e-02 2.256768755614757538e-02 1.636082679033279419e-02 -3.137365356087684631e-02 1.800308562815189362e-02 1.955638639628887177e-02 1.493250764906406403e-02 4.070501774549484253e-02 9.763951413333415985e-03 -2.788756228983402252e-02 -2.452652528882026672e-02 -1.966428384184837341e-02 4.658035188913345337e-02 -1.810455322265625000e-02 4.016115143895149231e-02 1.581321656703948975e-02 2.105514891445636749e-02 6.177186220884323120e-02 3.688813885673880577e-03 2.618920989334583282e-02 -3.104317747056484222e-02 -4.020014405250549316e-02 6.546130031347274780e-02 -1.997332088649272919e-02 -1.456764712929725647e-02 7.366595324128866196e-03 -5.949039012193679810e-02 1.070109102874994278e-02 4.678255645558238029e-04 -1.010020542889833450e-02
-1.036526355892419815e-02 -1.882301084697246552e-02 -2.436892874538898468e-02 -5.422402638942003250e-03 -1.658153347671031952e-02 1.789476908743381500e-02 -1.251132134348154068e-02 -2.939255682576913387e-05 -3.230133559554815292e-03 2.221326110884547234e-03 -9.059843607246875763e-03 -5.932739004492759705e-03 -2.152812108397483826e-02 1.041535567492246628e-02 8.898979984223842621e-03 -3.354309126734733582e-02 -6.436238531023263931e-03 9.838920086622238159e-03 -1.667122729122638702e-02 4.407907649874687195e-02 1.264249626547098160e-02 5.311582353897392750e-04 6.906935945153236389e-03 -2.759015001356601715e-02 7.997086271643638611e-03 -3.533898666501045227e-02 1.756811700761318207e-02 -1.674452237784862518e-02 -5.402374546974897385e-03 9.015480987727642059e-03 -7.248702924698591232e-03 8.340957574546337128e-03 -1.377459987998008728e-02 -2.412626752629876137e-03 5.643293727189302444e-03 -1.290501910261809826e-03 -8.121169172227382660e-03 2.942176163196563721e-02 1.271737925708293915e-02 -8.655857294797897339e-03 5.781562140327878296e-05 -2.716877497732639313e-02 -1.389495842158794403e-02 2.019643411040306091e-02 1.928748749196529388e-02 1.682394184172153473e-03 2.926276996731758118e-03 1.020286791026592255e-02 1.764467917382717133e-02 -8.935702033340930939e-03 1.858849776908755302e-03 7.486499845981597900e-03 -8.616442792117595673e-03 2.688083238899707794e-02 3.033379092812538147e-03 -4.607384279370307922e-02 -5.151986144483089447e-03 1.885555498301982880e-02 -5.743350833654403687e-03 2.955548698082566261e-03 8.353927172720432281e-03 1.961102895438671112e-02 -1.698002405464649200e-02 -2.262115105986595154e-02 8.524009957909584045e-03 -7.605582010000944138e-03 -7.589962333440780640e-03 2.028325572609901428e-03 3.493772074580192566e-02 -2.148004248738288879e-02 2.582182176411151886e-03 1.075124554336071014e-02 6.071634590625762939e-02 3.083716891705989838e-02 -1.862474530935287476e-02 1.112377829849720001e-02 5.013459827750921249e-03 -2.003870345652103424e-02 -1.093616825528442860e-03 3.889339277520775795e-03 -2.290797187015414238e-03 -8.253888227045536041e-03 1.027304492890834808e-02 -2.181272208690643311e-02 -1.394269405864179134e-03 -8.011626079678535461e-03 2.601035404950380325e-03 -1.812717318534851074e-02 2.248598495498299599e-03 1.031735539436340332e-02 -4.999215528368949890e-02 -4.193303734064102173e-02 1.602669991552829742e-02 1.265444513410329819e-02 1.566062681376934052e-02 2.337645925581455231e-02 -1.705081388354301453e-02 -1.718798652291297913e-02 7.512367796152830124e-03 -3.213155781850218773e-03 7.745581679046154022e-03 -9.171397425234317780e-03 -1.214824337512254715e-02 -1.351809967309236526e-02 -1.942883431911468506e-02 5.999288987368345261e-03 -1.794859953224658966e-02 1.946679688990116119e-02 -1.110158767551183701e-02 2.148654870688915253e-02 8.583884686231613159e-03 5.938808899372816086e-03 4.584953654557466507e-03 1.638539321720600128e-02 -1.318005193024873734e-02 1.801976002752780914e-02 1.102468837052583694e-02 -5.068208556622266769e-03 1.405621785670518875e-02 5.423187464475631714e-02 1.491337828338146210e-02 1.101666502654552460e-02 -3.016154840588569641e-02 -2.408335730433464050e-02 9.183977730572223663e-03 1.373033598065376282e-02 -2.447544783353805542e-02 1.749239489436149597e-02 2.215271256864070892e-02 2.728292346000671387e-02 2.069763466715812683e-02 2.405322715640068054e-02 8.604185655713081360e-03 7.663879543542861938e-03 1.360053010284900665e-02 1.413712650537490845e-02 1.787498407065868378e-02 -6.176469381898641586e-03 1.181408856064081192e-02 -2.416092203930020332e-03 1.613184623420238495e-02 -2.807600609958171844e-02 -2.588271722197532654e-02 1.361937611363828182e-03 -2.437776699662208557e-02 -1.021585706621408463e-02 -1.053560804575681686e-02 1.003874465823173523e-02 -2.181235700845718384e-03 3.413036465644836426e-02 -1.264773216098546982e-02 -1.112611312419176102e-02 -3.129643620923161507e-03 2.864896692335605621e-02 1.788708753883838654e-02 -1.297141890972852707e-02 2.128082700073719025e-02 -5.258425138890743256e-03 -1.156426221132278442e-02 2.699643187224864960e-02 -2.215072140097618103e-02 -1.228257454931735992e-02 -1.629337854683399200e-02 -3.107646666467189789e-02 5.752666038461029530e-04 -9.044898673892021179e-03 1.035446580499410629e-02 -1.477192156016826630e-02 -1.132310740649700165e-02 1.755053177475929260e-02 3.597749769687652588e-02 -1.816098019480705261e-02 7.003227248787879944e-03 -1.083461008965969086e-02 1.387079432606697083e-02 -2.237266115844249725e-02 -5.621031858026981354e-03 2.231836318969726562e-02 -2.876518853008747101e-02 4.830489866435527802e-03 9.346709121018648148e-04 5.792968906462192535e-03 -2.054358273744583130e-02 -7.639964111149311066e-03 4.843777045607566833e-03 -1.158962678164243698e-02 -5.294782109558582306e-03 3.214739263057708740e-02 -3.096520667895674706e-03 8.661931380629539490e-03 -9.247702546417713165e-03 1.143372058868408203e-02 -1.844134926795959473e-02 -7.900538854300975800e-03 -1.890028826892375946e-02 -7.191548589617013931e-03 1.694593206048011780e-02 -3.646443784236907959e-02 1.207019761204719543e-02 2.893935516476631165e-02 -7.565147709101438522e-03 -1.751778274774551392e-02 1.780135935405269265e-04 8.460101671516895294e-03 -6.908470299094915390e-03 4.653502628207206726e-02 5.896135699003934860e-03 1.614302210509777069e-02 2.212588489055633545e-02 -4.743571579456329346e-02 -1.941322349011898041e-02 -2.241753390990197659e-04 -4.480833187699317932e-02 1.398025453090667725e-02 -2.481722645461559296e-02 -5.907450802624225616e-03 -1.550596207380294800e-02 5.902584642171859741e-02 -4.434050642885267735e-04 -5.190242081880569458e-02 -8.842242881655693054e-03 -2.878664061427116394e-02 4.680058918893337250e-03 6.200175266712903976e-03 -3.476639464497566223e-02 3.632159903645515442e-02 1.207255851477384567e-02 -1.187747344374656677e-02 4.128499701619148254e-02 -4.720416665077209473e-02 1.969909667968750000e-02 -3.083628544118255377e-04 8.169595152139663696e-03 3.359158337116241455e-02 1.374146551825106144e-03 -5.829451605677604675e-03 7.437494583427906036e-03 1.071809604763984680e-02 -1.585744135081768036e-02 2.258345857262611389e-02 1.519151031970977783e-02 2.104303240776062012e-02 2.235709689557552338e-03 -3.524202853441238403e-02 2.798135578632354736e-02 -2.205090411007404327e-02 -6.013859063386917114e-03 -8.462388999760150909e-03 1.362585648894309998e-02 -3.098336979746818542e-03 7.977594621479511261e-03 -1.935038529336452484e-02 -4.434831440448760986e-02 4.804743453860282898e-02 3.213093848899006844e-03 -2.287449873983860016e-02
-4.757481627166271210e-03 1.546092331409454346e-02 2.395435422658920288e-02 -4.424932878464460373e-03 -7.644683588296175003e-03 2.851148508489131927e-02 6.267976947128772736e-03 -1.421093940734863281e-02 -2.111363783478736877e-02 3.038347512483596802e-02 -1.163753680884838104e-02 -3.938427194952964783e-02 -1.366601977497339249e-02 -1.512928865849971771e-02 1.217697281390428543e-02 -2.254326641559600830e-02 -1.558471412863582373e-04 6.776192225515842438e-03 -7.192214950919151306e-03 2.057929709553718567e-02 -4.613420460373163223e-04 -9.955831803381443024e-03 4.276848398149013519e-03 1.305276760831475258e-03 1.060840487480163574e-02 -2.020393731072545052e-03 -1.295589748769998550e-02 -1.482309680432081223e-02 1.248365361243486404e-02 2.762822248041629791e-02 -8.350911550223827362e-03 -3.940839786082506180e-03 5.399999208748340607e-03 -3.739443374797701836e-03 3.775003552436828613e-02 -1.445263996720314026e-02 -3.653636947274208069e-02 1.465276535600423813e-02 3.895898815244436264e-03 -1.985822245478630066e-02 -6.047945003956556320e-03 7.423114031553268433e-03 -5.964344367384910583e-03 4.428579658269882202e-02 1.949103176593780518e-02 5.428997334092855453e-03 2.881319727748632431e-03 -2.080277912318706512e-02 1.120690372772514820e-03 -1.347140502184629440e-02 8.208889514207839966e-03 9.900716133415699005e-03 3.116921335458755493e-02 -8.185051381587982178e-03 -1.620876044034957886e-02 -3.110139258205890656e-02 3.138647973537445068e-02 4.757308214902877808e-02 -5.080148112028837204e-03 -6.972475908696651459e-03 -3.290706872940063477e-02 1.605821028351783752e-02 -1.502084732055664062e-02 6.938253529369831085e-03 -4.411517456173896790e-02 8.061602711677551270e-03 4.254694096744060516e-03 3.486488712951540947e-03 8.186341263353824615e-03 -1.037453766912221909e-02 3.507275599986314774e-03 1.159329339861869812e-02 -4.603022709488868713e-02 1.740986295044422150e-02 -2.782765077427029610e-03 1.574494759552180767e-03 2.038339152932167053e-03 -2.385368756949901581e-02 1.587746478617191315e-02 -2.700566779822111130e-03 2.950873924419283867e-03 1.172682736068964005e-02 -2.674498828127980232e-03 -6.998240016400814056e-03 -5.223731510341167450e-03 -2.318482846021652222e-02 -9.228539653122425079e-03 -1.268613804131746292e-02 -2.478533424437046051e-03 -5.240575876086950302e-03 5.492743104696273804e-03 8.192747831344604492e-03 -2.506546210497617722e-03 1.284547708928585052e-02 -1.673951628617942333e-03 1.354003697633743286e-02 -1.842718012630939484e-02 -1.310863625258207321e-02 -3.677619248628616333e-02 1.367845339700579643e-03 1.375882048159837723e-02 -4.678451921790838242e-03 -2.279433608055114746e-02 -2.255452610552310944e-02 -1.261236518621444702e-02 -1.497162319719791412e-02 -9.365355595946311951e-03 -1.912436448037624359e-02 -8.557526394724845886e-03 3.856877563521265984e-03 -4.382145032286643982e-02 2.203566208481788635e-02 -5.157988052815198898e-03 9.500509127974510193e-03 2.861099084839224815e-03 1.485385838896036148e-02 -8.483510464429855347e-03 -6.736171245574951172e-02 1.479670219123363495e-02 7.579944562166929245e-03 -8.322697132825851440e-03 -1.293879281729459763e-02 -6.791247986257076263e-03 2.578642033040523529e-02 -1.751644536852836609e-02 1.849589124321937561e-02 -2.096734941005706787e-02 -1.128597185015678406e-02 -1.769918762147426605e-02 -4.836986772716045380e-03 -1.235594879835844040e-02 -3.281221492215991020e-03 3.117508254945278168e-03 4.625224694609642029e-02 3.326139179989695549e-03 1.960655488073825836e-02 1.599658466875553131e-02 -1.294789090752601624e-02 1.821948774158954620e-02 -5.257296841591596603e-03 -5.015810206532478333e-02 -3.647109493613243103e-02 -6.110308691859245300e-02 -1.236245781183242798e-02 -1.150318700820207596e-02 1.477231644093990326e-02 -5.040758289396762848e-03 -2.206461504101753235e-03 5.108333192765712738e-03 3.904033917933702469e-03 7.027499843388795853e-03 -2.370994724333286285e-02 -3.105057403445243835e-03 6.544915586709976196e-02 -3.639741614460945129e-02 -3.710145363584160805e-03 1.576966047286987305e-02 -1.033318112604320049e-03 2.828254178166389465e-02 -7.732623489573597908e-04 -4.595298320055007935e-03 -1.822227612137794495e-02 -1.128863543272018433e-02 -8.963440544903278351e-03 3.039989620447158813e-02 -4.154549911618232727e-02 -2.523341448977589607e-03 -6.596455816179513931e-03 4.295108839869499207e-02 -6.979222409427165985e-03 1.842431351542472839e-02 -2.949422597885131836e-02 -6.572478916496038437e-03 -8.319544605910778046e-03 -2.101872581988573074e-03 -8.318225853145122528e-03 7.774019148200750351e-03 1.224295422434806824e-02 -1.982667669653892517e-02 6.941861938685178757e-03 -3.424173453822731972e-03 1.853245869278907776e-02 9.449424222111701965e-03 3.591274144127964973e-03 2.178162522614002228e-02 3.220474720001220703e-02 -9.771727025508880615e-03 9.603116661310195923e-03 1.699028909206390381e-02 1.993068307638168335e-02 6.140397395938634872e-03 -8.235696703195571899e-03 1.738556893542408943e-03 -1.247736508958041668e-03 3.860351815819740295e-02 6.879162974655628204e-04 4.852265492081642151e-02 -1.415970735251903534e-02 -1.854337984696030617e-03 4.758500307798385620e-02 5.795538891106843948e-03 -2.501663519069552422e-03 -2.527405507862567902e-03 -1.969991810619831085e-02 1.371016073971986771e-02 3.845946490764617920e-02 2.097795344889163971e-02 9.271479211747646332e-03 4.322942346334457397e-02 -1.489966735243797302e-02 -1.064579002559185028e-02 -2.245260169729590416e-03 -1.187262218445539474e-02 -3.591839224100112915e-02 -6.736583076417446136e-03 1.204120577313005924e-03 -2.833221480250358582e-02 3.601748868823051453e-02 -6.304169073700904846e-03 -7.577122189104557037e-03 -6.055637728422880173e-03 -2.653920464217662811e-02 -8.059106767177581787e-03 2.400751458480954170e-03 -1.085239183157682419e-02 2.013409510254859924e-02 -6.294578313827514648e-03 -2.350846305489540100e-02 7.020962424576282501e-03 7.864140905439853668e-03 -8.844108320772647858e-03 -3.418308217078447342e-03 -1.089783292263746262e-02 2.969340607523918152e-02 2.372975088655948639e-02 9.581039659678936005e-03 -1.116610504686832428e-02 3.229902684688568115e-02 5.016196053475141525e-03 4.219254851341247559e-02 -2.498148567974567413e-02 1.386466342955827713e-02 9.656139649450778961e-03 -1.498630549758672714e-02 -1.524250674992799759e-02 -4.995948821306228638e-02 2.107729390263557434e-02 -4.950392618775367737e-02 2.007415704429149628e-02 1.560428366065025330e-02 -9.397578425705432892e-03 5.893907975405454636e-03 -2.088391594588756561e-02 -3.369275480508804321e-02 6.475459784269332886e-03 -6.876162253320217133e-03
2.078511007130146027e-02 -1.837036386132240295e-02 -9.623208083212375641e-03 -3.413097001612186432e-03 5.247023073025047779e-04 1.937812194228172302e-02 -5.430960096418857574e-03 -3.227619687095284462e-03 1.919255591928958893e-02 3.332706168293952942e-02 6.057413760572671890e-03 -5.188185721635818481e-02 -2.169775404036045074e-02 -2.618204243481159210e-02 2.221732027828693390e-02 -1.940194517374038696e-02 -9.981379844248294830e-03 3.654503449797630310e-02 2.030518464744091034e-02 3.242274513468146324e-03 -2.569839172065258026e-02 -1.642259582877159119e-02 -9.453985840082168579e-03 -1.437024399638175964e-02 4.121012985706329346e-02 3.917865827679634094e-02 -7.981155067682266235e-03 -3.761965490411967039e-04 -2.460745908319950104e-02 -1.143954694271087646e-02 5.021674558520317078e-03 -2.406227774918079376e-02 -5.897023528814315796e-02 -1.218722853809595108e-02 2.948106639087200165e-02 2.387900458415970206e-04 -2.820906601846218109e-02 1.773728616535663605e-02 -8.149806410074234009e-03 2.390233054757118225e-02 1.339677139185369015e-03 -1.263006124645471573e-02 -1.102787069976329803e-02 5.170702934265136719e-04 1.011278107762336731e-02 -4.410607274621725082e-03 -3.751755924895405769e-03 -2.563792653381824493e-02 2.672250848263502121e-03 -1.706928573548793793e-02 7.158837746828794479e-03 1.272564195096492767e-02 -7.683931471547111869e-05 1.645076274871826172e-02 6.361108738929033279e-03 -6.330474466085433960e-02 -2.671042084693908691e-02 5.203558248467743397e-04 3.855290636420249939e-02 -4.873089864850044250e-02 -7.140142470598220825e-02 -1.732267625629901886e-02 -5.424134805798530579e-02 -1.089292950928211212e-02 -1.440252922475337982e-02 1.158286817371845245e-02 -6.319039966911077499e-03 -4.862980451434850693e-03 1.246288139373064041e-02 -1.766965840943157673e-03 -9.179918561130762100e-04 -6.574620958417654037e-03 9.901955723762512207e-03 3.831387311220169067e-02 -2.529919520020484924e-02 -3.649431839585304260e-02 8.147660642862319946e-03 1.716854795813560486e-02 2.474526874721050262e-03 -2.719501499086618423e-03 3.076710179448127747e-02 1.133565884083509445e-02 8.381044492125511169e-03 -1.726672984659671783e-02 3.317685099318623543e-03 -1.461641630157828331e-03 -2.164049074053764343e-02 -4.065708816051483154e-02 -4.994720593094825745e-02 -4.453792795538902283e-02 4.483814351260662079e-03 -1.302604377269744873e-02 3.696615807712078094e-03 -1.177143212407827377e-02 4.484735429286956787e-03 1.795845851302146912e-02 -3.208751976490020752e-02 1.744890585541725159e-02 -1.802043057978153229e-03 5.558575969189405441e-03 -3.476740093901753426e-03 -3.110752906650304794e-03 -1.854915916919708252e-02 -9.693819098174571991e-03 -1.289128977805376053e-02 3.913956880569458008e-02 -2.748909033834934235e-02 -7.227309793233871460e-02 -2.452777000144124031e-03 -6.042411085218191147e-03 -4.103019088506698608e-02 4.521781578660011292e-03 -1.761283539235591888e-02 -1.303675025701522827e-02 1.768780313432216644e-02 3.777687251567840576e-02 3.117293119430541992e-02 1.615749113261699677e-02 7.378782611340284348e-03 -2.337582781910896301e-02 -7.972095161676406860e-03 -4.549683071672916412e-03 -7.361928001046180725e-03 -1.449196483008563519e-03 -4.598109051585197449e-02 5.730999633669853210e-03 -9.225172922015190125e-03 -4.097484052181243896e-02 -6.373862735927104950e-03 3.734034020453691483e-03 -4.457904025912284851e-03 6.017668172717094421e-03 1.846467144787311554e-02 1.495975535362958908e-02 1.830367743968963623e-02 2.893957495689392090e-02 -3.406507894396781921e-02 7.950392551720142365e-03 -7.155209896154701710e-04 -1.613800041377544403e-02 -7.542173843830823898e-03 -1.946359314024448395e-02 -2.220696024596691132e-02 1.522073708474636078e-02 -1.602869853377342224e-02 5.630845949053764343e-02 -2.135116979479789734e-02 -9.533355012536048889e-03 -4.557006526738405228e-03 -9.608856402337551117e-03 1.902511902153491974e-02 8.219861425459384918e-03 -1.525790616869926453e-02 1.876963861286640167e-02 -1.729464158415794373e-02 -1.162954722531139851e-03 2.901594154536724091e-03 4.856407642364501953e-03 2.866481803357601166e-02 3.729415358975529671e-03 3.386879572644829750e-03 -1.890471950173377991e-02 2.623348496854305267e-03 -1.707163522951304913e-03 -1.087129116058349609e-02 1.768087781965732574e-02 -1.777476072311401367e-02 -4.668859019875526428e-02 1.635927520692348480e-02 -2.880875393748283386e-02 2.093304414302110672e-03 4.654626362025737762e-03 2.662746980786323547e-02 -2.426145039498806000e-02 -2.309369156137108803e-03 -1.672574877738952637e-02 -2.576019614934921265e-02 -1.221246924251317978e-02 -6.074068695306777954e-02 2.436837414279580116e-03 -1.697575300931930542e-02 1.796532305888831615e-03 3.519857302308082581e-03 -2.429975010454654694e-02 -3.022883832454681396e-02 2.562808804214000702e-02 -2.555306069552898407e-02 8.445597253739833832e-03 6.152876839041709900e-02 1.564329117536544800e-02 -2.419063821434974670e-02 -1.458390895277261734e-02 1.879565883427858353e-03 -1.762587390840053558e-02 -7.833830080926418304e-03 4.892012476921081543e-02 4.403852857649326324e-03 2.659568749368190765e-02 -1.235276460647583008e-02 2.184029668569564819e-02 1.616714522242546082e-02 -5.466072633862495422e-02 1.047368161380290985e-03 1.024267985485494137e-03 3.258254751563072205e-02 9.623583406209945679e-03 4.826186690479516983e-03 1.170556992292404175e-02 7.240648567676544189e-02 2.515252865850925446e-02 3.643893636763095856e-03 8.643107488751411438e-03 1.017906330525875092e-02 -3.370339050889015198e-02 1.532741636037826538e-02 -2.672229148447513580e-02 -4.626883193850517273e-03 5.882002785801887512e-02 -1.040797587484121323e-02 -6.846369802951812744e-02 -8.938113227486610413e-03 -1.130079943686723709e-02 2.061407454311847687e-02 1.552494708448648453e-02 -1.346296723932027817e-02 -3.092592209577560425e-02 4.201462492346763611e-03 -9.498621337115764618e-03 2.102612517774105072e-02 -1.502101682126522064e-02 -2.475118264555931091e-02 -7.472110912203788757e-03 -4.374613985419273376e-03 3.801872581243515015e-02 1.393800694495439529e-02 2.657676348462700844e-03 -1.937776990234851837e-02 -1.963417232036590576e-02 2.253868058323860168e-02 1.423644460737705231e-02 1.029527187347412109e-02 -2.395701780915260315e-02 1.168292388319969177e-02 -1.093415543437004089e-02 -4.242624563630670309e-04 -3.254456073045730591e-02 -8.905627764761447906e-03 1.084805093705654144e-02 -6.339095532894134521e-02 4.654239490628242493e-02 1.179810520261526108e-02 -7.516177836805582047e-03 3.344726050272583961e-03 -2.564671263098716736e-02 -1.512801833450794220e-02 1.442753418814390898e-04
3.949780389666557312e-02 -1.721665635704994202e-02 -4.744802415370941162e-02 2.508249832317233086e-03 -9.947850368916988373e-03 -3.126683086156845093e-02 2.306240145117044449e-03 -2.210178645327687263e-03 4.032781347632408142e-02 -9.630223736166954041e-03 -1.722524641081690788e-03 5.049859639257192612e-03 4.589641001075506210e-03 1.408944185823202133e-02 3.257625736296176910e-03 1.253140531480312347e-02 -2.491298317909240723e-02 -8.517267182469367981e-03 -1.487049646675586700e-02 -9.553497657179832458e-03 -5.506909219548106194e-04 3.294777590781450272e-03 -2.243608469143509865e-03 3.425682336091995239e-02 2.230550348758697510e-02 3.435606136918067932e-02 3.079188615083694458e-02 -8.788756094872951508e-03 2.368976548314094543e-02 5.856212228536605835e-04 3.172433376312255859e-02 2.524329535663127899e-02 3.127969801425933838e-02 1.009037066251039505e-02 2.425403334200382233e-02 4.937997553497552872e-03 -5.093123298138380051e-03 -7.731526275165379047e-04 -3.802938386797904968e-02 3.170530125498771667e-02 3.439552336931228638e-02 1.111700758337974548e-02 2.240883745253086090e-02 2.079392783343791962e-02 -2.113450132310390472e-02 -1.483395509421825409e-02 4.584288224577903748e-03 -9.322956204414367676e-03 7.026175037026405334e-03 8.847683668136596680e-03 -9.664747864007949829e-03 -1.378105394542217255e-02 -2.271526958793401718e-03 1.073485799133777618e-02 -4.019136726856231689e-02 7.680621463805437088e-03 -1.167862396687269211e-02 2.143539674580097198e-02 -7.156736217439174652e-03 3.007949888706207275e-02 -1.620852947235107422e-02 -2.850030548870563507e-03 3.123488090932369232e-02 -1.297191157937049866e-02 2.293900214135646820e-02 2.921922318637371063e-02 -9.319100528955459595e-03 1.820600591599941254e-02 6.078393780626356602e-04 7.974558509886264801e-03 -7.194512523710727692e-03 -8.470095694065093994e-03 -2.481668954715132713e-03 2.067010477185249329e-02 5.613891873508691788e-03 2.774924412369728088e-02 6.556886248290538788e-03 -1.051815077662467957e-01 -2.941640652716159821e-02 2.064263448119163513e-02 -7.657311507500708103e-04 -2.057653546216897666e-05 -3.683184506371617317e-03 9.131152182817459106e-03 6.595860701054334641e-03 -1.584325358271598816e-02 -8.556950837373733521e-03 -4.948976915329694748e-03 9.168618917465209961e-02 1.001593284308910370e-02 7.565894629806280136e-03 -9.252592921257019043e-02 -3.508896101266145706e-03 1.528355292975902557e-02 -8.360823616385459900e-03 -1.505466457456350327e-02 -2.560793794691562653e-02 -1.754138059914112091e-02 1.706390827894210815e-02 -8.309426717460155487e-03 -2.810783218592405319e-03 -1.715859211981296539e-02 -4.059015959501266479e-02 3.570948168635368347e-02 -3.652806952595710754e-02 -2.673501148819923401e-02 1.194958202540874481e-02 -5.375606124289333820e-04 -2.144348993897438049e-02 -1.236500497907400131e-02 7.487124763429164886e-03 -1.106183882802724838e-02 3.927316144108772278e-02 -1.080026011914014816e-02 2.801149152219295502e-03 -1.199599262326955795e-02 5.309771373867988586e-02 -3.045587427914142609e-02 4.775905236601829529e-02 1.913513056933879852e-02 -4.233029857277870178e-02 -4.387521743774414062e-02 -7.405979093164205551e-03 -7.210702635347843170e-03 2.813254110515117645e-02 1.284709782339632511e-03 -7.556289201602339745e-04 -1.236227620393037796e-02 5.996910855174064636e-02 2.271587029099464417e-02 4.531227983534336090e-03 -1.000429037958383560e-03 1.379962824285030365e-02 -4.683632776141166687e-02 -4.923428967595100403e-02 -8.649028837680816650e-03 -2.077324315905570984e-02 -2.232385799288749695e-02 2.443183772265911102e-02 5.546890199184417725e-03 -4.588917642831802368e-02 -5.213283747434616089e-02 1.827940344810485840e-02 -7.070519030094146729e-03 -5.085166078060865402e-03 2.940857550129294395e-03 2.049791626632213593e-03 3.327110316604375839e-03 5.194367375224828720e-03 -2.174076437950134277e-02 -5.497511010617017746e-03 1.018743868917226791e-02 -4.347772337496280670e-03 5.375124514102935791e-03 2.616972289979457855e-02 4.275359679013490677e-03 4.156977403908967972e-03 -2.802686393260955811e-02 -1.059228181838989258e-02 -1.672279834747314453e-02 -8.225365541875362396e-03 -3.068253770470619202e-02 1.208243053406476974e-02 2.640463970601558685e-02 -8.350419811904430389e-04 -5.776226893067359924e-02 -1.714016124606132507e-02 6.680656690150499344e-03 -1.707098260521888733e-02 2.387901581823825836e-02 1.014128886163234711e-02 -2.109589241445064545e-02 -6.275414023548364639e-03 4.002928733825683594e-02 2.752043865621089935e-02 -7.822375744581222534e-02 -2.373773232102394104e-02 5.505852773785591125e-02 9.832127019762992859e-03 2.003396628424525261e-03 -4.704537801444530487e-03 1.053527928888797760e-02 -1.127354241907596588e-02 -5.622062832117080688e-02 -1.246708352118730545e-02 6.871534883975982666e-02 -3.402389353141188622e-03 -3.049238212406635284e-02 8.935637772083282471e-03 1.199478562921285629e-02 2.423004619777202606e-02 3.456716611981391907e-02 2.930090203881263733e-02 2.321425266563892365e-02 -1.101048104465007782e-02 3.154536336660385132e-02 8.713298477232456207e-03 3.761713951826095581e-02 7.785893045365810394e-03 -2.418359508737921715e-03 -8.188934065401554108e-03 2.407172508537769318e-02 -1.805185154080390930e-02 -1.127238501794636250e-03 -3.213065862655639648e-02 3.309703245759010315e-02 3.286699205636978149e-02 -8.085953071713447571e-03 4.289486911147832870e-03 2.827346697449684143e-02 4.195157962385565042e-04 2.248433418571949005e-03 6.734456401318311691e-03 1.971316896378993988e-02 1.570891961455345154e-02 1.235974207520484924e-02 -2.631784230470657349e-02 -5.384625494480133057e-02 -1.697242632508277893e-02 -5.256988480687141418e-02 3.615739569067955017e-02 -1.275397092103958130e-02 1.718263514339923859e-02 2.212194539606571198e-02 -1.286577433347702026e-02 1.629614084959030151e-02 1.220649946480989456e-02 -3.036198019981384277e-02 -2.369375899434089661e-02 1.697252318263053894e-02 1.831000298261642456e-02 -4.752406384795904160e-03 4.462060704827308655e-02 4.096455499529838562e-02 -4.286466911435127258e-02 2.304856665432453156e-03 -1.826544664800167084e-02 -3.766924142837524414e-02 1.875791698694229126e-03 3.243442624807357788e-02 -3.047983348369598389e-02 3.304330259561538696e-02 8.705472573637962341e-04 1.158233173191547394e-02 -6.813765969127416611e-03 7.464646361768245697e-03 9.716929867863655090e-03 3.012302517890930176e-02 -3.614709526300430298e-02 3.341534407809376717e-03 -2.297034021466970444e-03 3.927299752831459045e-03 3.904740884900093079e-02 7.588739693164825439e-02 4.259815439581871033e-02 3.442848473787307739e-02
-1.617904636077582836e-03 3.601086209528148174e-04 -3.541416721418499947e-03 2.348943613469600677e-03 2.777997590601444244e-02 5.524299107491970062e-03 8.142986334860324860e-03 4.814287275075912476e-02 2.679285220801830292e-02 -6.952725350856781006e-03 1.152515783905982971e-02 -5.453011835925281048e-04 1.324628293514251709e-02 3.117695217952132225e-03 1.072429679334163666e-02 -4.828072153031826019e-03 1.696177385747432709e-02 -5.825999658554792404e-03 -4.955655429512262344e-03 -2.432357752695679665e-03 6.297766231000423431e-03 5.723460111767053604e-03 -1.946400478482246399e-02 -1.071172021329402924e-02 -7.237920537590980530e-03 -3.037575446069240570e-02 1.384908519685268402e-02 -2.374927699565887451e-02 1.282782875932753086e-03 2.884931862354278564e-03 4.477034788578748703e-03 -1.403950992971658707e-02 6.922344211488962173e-03 -1.064932905137538910e-02 1.864968799054622650e-02 3.195478767156600952e-02 1.796916313469409943e-02 -1.711009303107857704e-03 6.641111685894429684e-04 -8.279899135231971741e-03 -1.314835809171199799e-02 -9.049227461218833923e-03 7.834115996956825256e-03 -8.946159854531288147e-03 -1.109581440687179565e-02 3.237768542021512985e-03 3.566400613635778427e-03 -1.359755988232791424e-03 8.058562874794006348e-03 -6.424382445402443409e-04 -1.003558933734893799e-02 9.959753602743148804e-03 -8.477535098791122437e-03 -2.413068665191531181e-03 -7.825875654816627502e-03 -7.092429790645837784e-03 7.941980846226215363e-03 -2.270898222923278809e-02 -9.768335148692131042e-03 -7.215910591185092926e-03 -5.597247742116451263e-03 1.617704331874847412e-02 8.285774849355220795e-03 6.753653287887573242e-03 1.058139745146036148e-02 1.400591805577278137e-03 -5.626242607831954956e-03 1.285817567259073257e-02 6.793077103793621063e-03 5.329746287316083908e-03 1.675635203719139099e-02 -8.762564510107040405e-03 2.066433429718017578e-02 -3.094626124948263168e-03 -7.254640106111764908e-03 -2.795883268117904663e-02 -1.132799312472343445e-02 -5.465557053685188293e-02 7.548816502094268799e-04 3.855844493955373764e-03 -1.982309855520725250e-02 1.953529007732868195e-02 -2.905291737988591194e-03 2.252463996410369873e-02 4.251838196069002151e-03 -2.524805627763271332e-02 -7.696794345974922180e-03 2.441223477944731712e-03 8.266115561127662659e-03 -5.415267660282552242e-04 4.996346309781074524e-03 2.763450518250465393e-02 1.382702961564064026e-02 -7.690414786338806152e-03 1.436634175479412079e-02 2.281363820657134056e-03 9.314437396824359894e-03 1.136170886456966400e-02 -5.519467231351882219e-05 -3.964601550251245499e-03 -1.194917131215333939e-02 -9.276998229324817657e-03 -6.733962334692478180e-03 -1.466931775212287903e-02 2.104617282748222351e-02 9.828804759308695793e-04 8.860186673700809479e-03 -7.914328016340732574e-03 8.469744585454463959e-03 -1.180288963951170444e-03 1.807461259886622429e-03 -2.170118503272533417e-03 1.458040811121463776e-02 -7.589633110910654068e-03 5.901184398680925369e-03 1.145148184150457382e-03 -4.749498330056667328e-03 -2.106781583279371262e-03 -2.973191626369953156e-02 5.823893938213586807e-03 -1.095262006856501102e-03 9.559787809848785400e-03 4.902544897049665451e-03 6.763283628970384598e-03 2.989675267599523067e-04 -1.956844236701726913e-03 2.161869080737233162e-03 6.646053865551948547e-03 -2.932877978309988976e-03 4.590692464262247086e-03 -3.507315646857023239e-03 -1.132604014128446579e-02 2.329421695321798325e-03 2.166085410863161087e-03 -7.525845896452665329e-03 -6.979509256780147552e-03 1.525093056261539459e-02 1.783504732884466648e-03 -1.221266482025384903e-02 7.086122059263288975e-04 7.955841720104217529e-03 -3.099437803030014038e-02 2.106016315519809723e-02 7.676552981138229370e-03 2.063215943053364754e-03 7.086336612701416016e-03 1.996419951319694519e-02 9.617143310606479645e-03 -4.616916179656982422e-03 -5.224892124533653259e-02 1.048237644135951996e-02 -5.634327884763479233e-03 -2.020712755620479584e-02 -7.716083899140357971e-03 6.093667354434728622e-03 -1.670082658529281616e-02 -1.826177351176738739e-02 5.605859681963920593e-03 -9.918957017362117767e-03 5.644049495458602905e-03 1.831020810641348362e-03 -1.133419945836067200e-02 -5.396488122642040253e-03 -9.134718216955661774e-03 -1.757782511413097382e-02 -3.842484951019287109e-02 -6.275187712162733078e-03 -4.787519108504056931e-03 2.233000239357352257e-03 2.226726617664098740e-03 -8.039618842303752899e-03 -1.879558153450489044e-02 -4.951189621351659298e-04 4.187460523098707199e-03 -1.676468737423419952e-02 9.505424648523330688e-03 -1.612273789942264557e-02 4.667798522859811783e-03 5.068473052233457565e-03 7.739550783298909664e-04 6.736814044415950775e-03 -7.442917674779891968e-03 -1.269645057618618011e-02 -6.079951301217079163e-03 -3.232370363548398018e-03 -2.188370272051542997e-04 -3.417229047045111656e-03 1.144070457667112350e-02 6.625580135732889175e-04 -1.635670475661754608e-02 7.639961317181587219e-03 1.819008466554805636e-04 1.555229071527719498e-02 -3.332823980599641800e-03 -1.059280615299940109e-02 -7.556541240774095058e-04 -4.049872606992721558e-02 -3.692171070724725723e-03 -2.991996472701430321e-03 -1.118795014917850494e-02 2.104476559907197952e-03 4.790205042809247971e-03 4.554488230496644974e-03 -1.166742853820323944e-02 -9.238122962415218353e-03 -3.770520561374723911e-04 -2.452415181323885918e-03 -3.456269623711705208e-03 1.019953377544879913e-02 8.831480517983436584e-03 -1.694800890982151031e-02 -4.097640980035066605e-03 1.717309840023517609e-02 4.874843358993530273e-02 -3.048950061202049255e-02 2.162886224687099457e-02 8.832208812236785889e-03 -3.309064544737339020e-03 4.729060456156730652e-03 7.973834872245788574e-03 -2.481707837432622910e-03 1.053958386182785034e-02 6.983994971960783005e-04 5.921641131862998009e-04 1.472644507884979248e-03 -2.656370634213089943e-03 -1.639841869473457336e-02 4.364269785583019257e-03 -1.948846131563186646e-02 2.861522510647773743e-02 5.514657124876976013e-03 -5.498437210917472839e-03 1.116345264017581940e-02 -2.479109540581703186e-02 1.497214194387197495e-03 -3.092439379543066025e-03 -8.466376923024654388e-03 -2.504779957234859467e-02 4.195361211895942688e-02 1.945899985730648041e-02 -2.444754587486386299e-03 2.203862881287932396e-03 -1.903384923934936523e-02 -5.592656321823596954e-03 -4.110966809093952179e-03 -1.361564639955759048e-02 -4.096688702702522278e-03 -5.020367726683616638e-02 1.413805224001407623e-02 -7.979827933013439178e-03 4.818656016141176224e-03 8.999284356832504272e-03 -1.379629410803318024e-02 -1.081686560064554214e-02 -1.440872251987457275e-02 -1.428387127816677094e-02
1.650603301823139191e-02 -3.068502992391586304e-03 7.907708175480365753e-03 -2.700145170092582703e-02 2.623316273093223572e-02 -1.490246504545211792e-03 -1.922992244362831116e-02 -6.127170473337173462e-02 2.306342124938964844e-02 1.265283301472663879e-02 8.764708414673805237e-03 8.557267487049102783e-03 -8.783994242548942566e-03 4.012555256485939026e-02 -5.192377418279647827e-02 4.208167269825935364e-02 -2.774570696055889130e-02 3.231273731216788292e-03 2.864822745323181152e-02 -5.498647689819335938e-03 3.566309809684753418e-03 -5.344549939036369324e-02 -1.033670152537524700e-03 -5.943774431943893433e-02 3.751072287559509277e-02 -1.922362484037876129e-02 5.457666236907243729e-03 -4.191347956657409668e-02 1.553107611835002899e-02 4.859131760895252228e-03 7.908587343990802765e-03 -2.640801295638084412e-02 3.127064323052763939e-03 -9.014510549604892731e-03 -1.739245094358921051e-02 -3.372588008642196655e-02 -2.771693654358386993e-02 2.221194840967655182e-02 4.400612786412239075e-03 1.053859293460845947e-02 -1.917628943920135498e-02 2.674335613846778870e-02 -1.835093088448047638e-02 -7.765390723943710327e-02 -2.071481384336948395e-02 -9.338811971247196198e-03 -1.168289221823215485e-02 5.565910600125789642e-03 -5.887307599186897278e-02 1.210537645965814590e-02 -7.544596213847398758e-03 1.683692447841167450e-02 -5.164412036538124084e-02 2.645061351358890533e-02 7.702379953116178513e-03 -3.916417714208364487e-03 2.068645693361759186e-02 -1.253320090472698212e-02 -1.697274670004844666e-02 1.357687171548604965e-02 -3.596875071525573730e-02 -3.250884590670466423e-03 1.356145925819873810e-02 -3.584630042314529419e-02 -8.386095054447650909e-03 -1.800531637854874134e-03 -5.428790114820003510e-03 3.031029552221298218e-02 9.295159019529819489e-03 3.920365497469902039e-02 -2.078181132674217224e-02 -2.441407926380634308e-02 1.096811331808567047e-02 9.242303669452667236e-03 6.995530333369970322e-03 -1.471543963998556137e-02 -4.335644841194152832e-02 -5.061476305127143860e-02 -4.903207882307469845e-04 9.615934453904628754e-03 -2.178048528730869293e-02 -1.194936037063598633e-02 -2.788152731955051422e-02 5.678033456206321716e-02 -1.217987854033708572e-02 3.780820593237876892e-02 -1.070210826583206654e-03 -1.385037321597337723e-02 -4.347006790339946747e-03 -1.110520400106906891e-02 -1.844986528158187866e-02 3.884206339716911316e-02 4.034859011881053448e-04 2.320188796147704124e-03 -2.020428702235221863e-02 3.013613633811473846e-03 2.155683189630508423e-02 2.999787917360663414e-03 -9.780916385352611542e-03 -9.711976163089275360e-03 -2.610721858218312263e-03 -3.019946254789829254e-02 -1.788087002933025360e-02 1.117475144565105438e-02 -2.450137864798307419e-03 -7.847722619771957397e-03 -1.343357097357511520e-02 -3.484094748273491859e-03 -6.658861879259347916e-03 -4.813174903392791748e-02 -1.043900195509195328e-02 -2.429710514843463898e-02 -4.188037291169166565e-02 -2.784586325287818909e-02 2.619756013154983521e-02 -8.904749527573585510e-03 9.436167776584625244e-03 -8.483544224873185158e-04 -7.689672638662159443e-04 -4.180127754807472229e-02 -9.431453421711921692e-03 8.954511955380439758e-03 1.230755727738142014e-02 1.808327995240688324e-02 -4.067585337907075882e-03 1.299590803682804108e-02 -8.278405293822288513e-03 -4.406651109457015991e-02 6.027964409440755844e-03 1.626314246095716953e-03 -1.536481454968452454e-02 -8.849546313285827637e-03 -1.059155724942684174e-02 1.618339121341705322e-02 3.985213860869407654e-02 1.746711879968643188e-02 2.258227765560150146e-02 6.591820856556296349e-04 -2.360543049871921539e-02 2.778883557766675949e-03 -2.196824498241767287e-04 1.655386574566364288e-02 -9.816460311412811279e-03 -2.657964825630187988e-02 4.606826696544885635e-03 1.203804649412631989e-02 3.063468029722571373e-03 2.120432630181312561e-02 -5.156224593520164490e-02 2.618176862597465515e-02 1.360400486737489700e-02 1.179033238440752029e-02 2.477399539202451706e-03 -5.189987272024154663e-02 2.922904677689075470e-02 4.566387832164764404e-02 -2.201955765485763550e-02 1.856122724711894989e-02 -3.361662477254867554e-02 -1.747168228030204773e-02 1.330115715973079205e-03 2.092667669057846069e-02 -1.222089026123285294e-02 -1.127927098423242569e-03 -6.322629284113645554e-03 -1.784894801676273346e-02 1.050239894539117813e-02 3.337403386831283569e-02 3.531465306878089905e-02 -5.284425243735313416e-02 -4.782327916473150253e-03 -3.531296923756599426e-02 -4.226971045136451721e-02 -3.022372489795088768e-03 -2.313346602022647858e-02 5.864212755113840103e-03 -2.249808516353368759e-03 -1.270863041281700134e-02 -2.669549360871315002e-02 1.634939573705196381e-03 1.428476767614483833e-03 -2.077321708202362061e-02 4.899824410676956177e-02 -2.572949230670928955e-02 -1.500188373029232025e-02 6.810103077441453934e-03 3.087219409644603729e-02 1.222376991063356400e-02 1.915124617516994476e-02 -1.306884735822677612e-02 -2.601077721919864416e-05 -1.798880286514759064e-02 -5.537405610084533691e-02 2.722506597638130188e-02 4.049997031688690186e-02 1.156761893071234226e-03 1.361108012497425079e-02 1.411160361021757126e-02 2.000220678746700287e-02 -3.661826252937316895e-02 3.023127280175685883e-02 2.669518440961837769e-02 -2.330150827765464783e-02 -1.704158820211887360e-02 3.715051105245947838e-03 7.451175153255462646e-02 -1.312150247395038605e-02 1.655508577823638916e-02 1.911920681595802307e-02 -1.766617037355899811e-02 -6.821376271545886993e-03 -3.478240966796875000e-02 3.241355717182159424e-02 -2.113910019397735596e-02 2.670534513890743256e-02 -5.137585848569869995e-02 -1.002638973295688629e-02 -1.216566096991300583e-02 3.178669884800910950e-02 1.296389498747885227e-03 -1.304164621978998184e-02 -2.593342587351799011e-02 -4.177429154515266418e-02 -1.340582128614187241e-02 -2.178841456770896912e-02 -1.194518059492111206e-02 -5.213071405887603760e-02 -3.727250173687934875e-02 1.693169400095939636e-02 -1.482574362307786942e-02 -4.267183598130941391e-03 1.642580959014594555e-03 -1.201546378433704376e-02 -2.057406678795814514e-02 -1.967694237828254700e-02 -5.411572637967765331e-04 -2.930475398898124695e-02 2.837454900145530701e-02 2.482763305306434631e-02 1.607989333570003510e-02 -4.790375940501689911e-03 3.687222674489021301e-02 -1.698040030896663666e-02 -3.075680509209632874e-02 2.060349471867084503e-02 2.756036259233951569e-02 2.753173187375068665e-02 4.937389865517616272e-02 4.208362847566604614e-02 -3.200528398156166077e-02 1.270903856493532658e-03 -2.636909112334251404e-02 -9.420426795259118080e-04 8.336949162185192108e-03 2.447461895644664764e-02 2.996471896767616272e-02
1.006578654050827026e-02 6.454403977841138840e-03 1.513437600806355476e-03 2.979139424860477448e-02 -4.816459864377975464e-02 2.381785213947296143e-02 1.133386604487895966e-02 3.008940257132053375e-02 -1.913526095449924469e-03 -9.066066704690456390e-03 -8.158230222761631012e-03 8.244884200394153595e-03 -6.123069673776626587e-03 -2.954788878560066223e-02 -1.664798124693334103e-03 1.993339508771896362e-02 1.203008554875850677e-02 4.186694044619798660e-03 -8.667576126754283905e-03 -4.532278329133987427e-02 -5.009160842746496201e-03 -1.498896814882755280e-02 3.744993591681122780e-03 4.779307171702384949e-03 4.297784529626369476e-03 1.334043871611356735e-02 1.791223324835300446e-02 7.845160551369190216e-03 2.384515851736068726e-02 1.823981641791760921e-03 3.036600071936845779e-03 1.216188631951808929e-02 -1.681141741573810577e-02 -2.300064265727996826e-02 8.644115179777145386e-03 -1.482743304222822189e-02 1.682355813682079315e-02 -2.967890352010726929e-02 -4.010971635580062866e-02 -3.311077505350112915e-02 -4.769101738929748535e-03 -1.211766991764307022e-02 -5.426806211471557617e-02 -5.652377754449844360e-02 -8.961252868175506592e-03 2.424164116382598877e-02 -1.877330243587493896e-02 -2.647140994668006897e-03 1.171652344055473804e-03 -1.624794304370880127e-02 -1.882188022136688232e-02 -1.406827475875616074e-02 -5.473608151078224182e-03 -7.709925994277000427e-03 8.078606915660202503e-04 1.143306214362382889e-02 5.846929736435413361e-03 -3.791999444365501404e-02 -1.214093435555696487e-02 -2.119730412960052490e-02 3.616595175117254257e-03 1.443900913000106812e-02 1.939827576279640198e-02 1.751257292926311493e-02 -3.659130306914448738e-03 7.625905331224203110e-03 3.285105153918266296e-02 5.435359198600053787e-03 -1.139359641820192337e-02 -1.171927712857723236e-02 -1.762901805341243744e-02 1.480259466916322708e-02 2.241254784166812897e-02 -1.097183395177125931e-02 3.424127819016575813e-03 4.089802876114845276e-02 -1.696118339896202087e-02 -2.737480588257312775e-02 -9.292797185480594635e-03 -7.597204530611634254e-04 -1.547461561858654022e-02 -5.909685976803302765e-03 -2.103744633495807648e-02 7.786659523844718933e-03 1.416376139968633652e-02 -2.111558802425861359e-03 -1.383197493851184845e-02 7.051720283925533295e-03 -1.930114626884460449e-02 6.242713890969753265e-03 1.152773015201091766e-02 -7.507380563765764236e-03 1.956611126661300659e-02 8.257398381829261780e-03 -1.013021729886531830e-02 1.733790151774883270e-02 1.651071570813655853e-02 4.914312064647674561e-02 -3.288498148322105408e-03 2.961535751819610596e-02 1.535139512270689011e-02 -3.341119270771741867e-03 -1.426396984606981277e-02 1.086562313139438629e-02 -3.033597022294998169e-02 -2.618030877783894539e-03 -2.111740782856941223e-02 1.214921195060014725e-02 -8.426223881542682648e-03 3.957452252507209778e-03 -1.425629388540983200e-02 -1.340603455901145935e-02 1.803150959312915802e-02 -4.860270768404006958e-03 -2.531339973211288452e-02 1.146645192056894302e-02 1.069482532329857349e-04 -1.303993538022041321e-02 -6.387192406691610813e-04 -1.947286166250705719e-02 -7.341856136918067932e-03 -5.910011241212487221e-04 2.431207336485385895e-02 1.084928493946790695e-02 3.018989600241184235e-02 7.419835776090621948e-03 -1.771396957337856293e-02 5.735756363719701767e-03 -1.787296961992979050e-03 -1.104510016739368439e-02 -1.263455208390951157e-02 1.640988863073289394e-03 1.166767324320971966e-03 -1.066218595951795578e-02 -1.179560367017984390e-02 3.765802830457687378e-04 -2.696352452039718628e-02 -1.074438448995351791e-02 -5.482428893446922302e-02 -2.059230022132396698e-02 -7.134702056646347046e-02 -1.373373623937368393e-02 1.895581558346748352e-02 2.275952324271202087e-02 -5.333947017788887024e-02 -9.795952588319778442e-03 -4.569280892610549927e-03 -2.708804793655872345e-02 1.583125069737434387e-02 2.864941209554672241e-02 -9.572817012667655945e-03 6.360966712236404419e-03 1.712434459477663040e-03 1.959919184446334839e-02 -4.066184908151626587e-02 -1.386034581810235977e-02 -1.107966061681509018e-02 -1.244879676960408688e-04 1.458190474659204483e-02 -2.267248742282390594e-02 -1.130955480039119720e-02 -1.867989264428615570e-02 1.245332136750221252e-02 1.348080020397901535e-02 -2.914444776251912117e-03 1.575396768748760223e-02 -3.492156509310007095e-03 2.535463869571685791e-02 5.495824664831161499e-02 -1.113695651292800903e-02 -4.449622938409447670e-04 5.951199680566787720e-03 -5.304858554154634476e-03 5.624481942504644394e-03 -1.775521785020828247e-02 -2.183532109484076500e-03 -3.287485241889953613e-02 -2.213401719927787781e-02 -2.139087393879890442e-02 3.244098508730530739e-03 1.743893139064311981e-02 2.375604398548603058e-02 -5.233628675341606140e-03 2.067156508564949036e-02 -3.312156349420547485e-02 -4.369107482489198446e-04 -1.100064814090728760e-02 -1.707068458199501038e-02 -1.435861829668283463e-02 -5.322688445448875427e-02 2.244435437023639679e-02 2.746722102165222168e-02 -3.177522215992212296e-03 1.452339347451925278e-02 2.037732861936092377e-03 2.573589561507105827e-03 -3.230494039598852396e-04 -3.727699862793087959e-03 -1.708604022860527039e-02 -3.772436873987317085e-03 -1.854917593300342560e-02 -1.750473305583000183e-02 -2.555771544575691223e-02 5.038001108914613724e-03 1.106627378612756729e-02 -5.586819723248481750e-03 -3.245319426059722900e-02 -1.454162038862705231e-02 -2.184057794511318207e-02 5.196863319724798203e-03 -1.179378572851419449e-02 -1.827489584684371948e-02 2.840990759432315826e-02 -3.249782696366310120e-02 1.850153133273124695e-02 -5.732163786888122559e-02 -5.998248234391212463e-02 -1.852945424616336823e-02 -4.844576865434646606e-02 3.782981261610984802e-02 2.304713614284992218e-02 2.482730709016323090e-02 1.793450303375720978e-02 -5.306177306920289993e-03 1.923587638884782791e-03 -3.952858969569206238e-02 -6.688205059617757797e-03 8.578067645430564880e-03 9.496920742094516754e-03 5.503853410482406616e-02 -2.064945874735713005e-03 1.789817353710532188e-03 1.154662948101758957e-02 -1.087533403187990189e-02 9.640297852456569672e-03 1.716855913400650024e-02 -2.393203228712081909e-02 -8.410943672060966492e-03 4.220705851912498474e-02 1.692708465270698071e-03 -2.802503528073430061e-03 -1.623248914256691933e-03 -8.211701177060604095e-03 1.945931091904640198e-02 1.026900298893451691e-02 2.455307403579354286e-03 7.485216017812490463e-03 2.992705907672643661e-03 3.080337308347225189e-02 -1.835221610963344574e-02 6.922688800841569901e-03 3.998674917966127396e-03 1.803179830312728882e-02 -1.841973140835762024e-02 -5.269706714898347855e-03 -2.376712113618850708e-02
-1.664850162342190742e-03 6.209014682099223137e-04 9.017886966466903687e-02 1.500566769391298294e-02 9.075945243239402771e-03 1.507010776549577713e-02 -1.161846332252025604e-02 -5.531096830964088440e-03 -3.408136218786239624e-02 7.981893606483936310e-03 -4.019018728286027908e-03 8.037137798964977264e-03 -2.872094511985778809e-02 1.386204082518815994e-02 3.016776638105511665e-03 2.927124500274658203e-03 7.822868064977228642e-04 -4.256144165992736816e-03 -4.661778453737497330e-03 -3.249738737940788269e-02 -5.420695524662733078e-03 1.491065719164907932e-03 1.590920425951480865e-02 1.528086327016353607e-02 7.602017372846603394e-03 2.602452784776687622e-02 6.317688617855310440e-03 -2.572299353778362274e-02 4.050892218947410583e-02 3.457064926624298096e-02 3.421735391020774841e-02 2.256550081074237823e-02 -2.175593562424182892e-02 -2.585346437990665436e-02 2.057868055999279022e-02 -1.109705120325088501e-02 2.995206229388713837e-02 -3.603365644812583923e-02 -1.271960698068141937e-02 4.987339954823255539e-03 -1.186213362962007523e-02 3.896795585751533508e-02 -2.041702903807163239e-02 -2.401463687419891357e-02 1.816125400364398956e-02 3.751190612092614174e-03 -3.084090910851955414e-02 -2.285352535545825958e-02 -1.610115356743335724e-02 -4.239977803081274033e-03 -8.946647867560386658e-03 -2.582037821412086487e-03 -1.396736130118370056e-02 1.133444719016551971e-02 4.901341628283262253e-03 -3.538179909810423851e-03 1.271073520183563232e-02 3.580476040951907635e-04 -1.690713316202163696e-02 -7.403222844004631042e-03 3.390948986634612083e-03 2.389355795457959175e-03 -1.347495242953300476e-02 1.801248872652649879e-03 1.486893836408853531e-02 -3.765342524275183678e-03 -5.219252314418554306e-03 -2.124577946960926056e-02 -3.030520491302013397e-02 3.863028809428215027e-02 -1.131491083651781082e-02 -7.260916288942098618e-03 -3.736459463834762573e-02 1.283012051135301590e-02 -2.008449519053101540e-03 2.218735590577125549e-02 1.228597853332757950e-02 -5.707178264856338501e-03 9.774728678166866302e-04 -2.322734706103801727e-02 5.597742740064859390e-03 -1.418821606785058975e-02 4.542855080217123032e-03 -7.328459061682224274e-03 -2.984186401590704918e-03 2.123189531266689301e-02 -2.231208980083465576e-02 5.126266740262508392e-03 -5.116315558552742004e-02 9.191831573843955994e-03 -6.942214909940958023e-03 3.295785561203956604e-02 5.166817456483840942e-03 -7.679198868572711945e-03 -2.533505670726299286e-02 4.086762666702270508e-02 1.953934133052825928e-02 1.697012037038803101e-02 2.480562310665845871e-03 -1.002024020999670029e-02 1.151867955923080444e-02 -1.218396704643964767e-02 1.073452457785606384e-02 4.373791441321372986e-02 4.992816597223281860e-02 -7.875735871493816376e-03 -4.357003141194581985e-03 7.234809920191764832e-03 3.763067070394754410e-03 2.288948977366089821e-03 3.996445797383785248e-03 -1.185825373977422714e-02 3.437241772189736366e-03 1.585650630295276642e-02 -1.799888536334037781e-02 -2.214050618931651115e-05 -3.028999082744121552e-02 1.434380374848842621e-02 -1.825574226677417755e-02 -2.095733024179935455e-02 -2.231231704354286194e-02 6.842475384473800659e-03 5.980430170893669128e-03 -1.064378302544355392e-02 1.640807837247848511e-02 1.686994219198822975e-03 5.299744196236133575e-03 -1.800615573301911354e-03 -1.646987348794937134e-02 6.130906753242015839e-03 -2.244644332677125931e-03 2.336952602490782738e-03 -3.660831600427627563e-02 1.249975152313709259e-02 -7.638716138899326324e-03 -3.006145171821117401e-02 -1.538250874727964401e-02 -3.045032965019345284e-03 -4.802369326353073120e-02 -2.975644730031490326e-02 -2.569481730461120605e-02 -3.762897476553916931e-02 -2.599981054663658142e-02 -4.582225810736417770e-03 -4.560057446360588074e-02 7.170068565756082535e-04 -1.689504645764827728e-02 -2.178729325532913208e-02 -3.559857234358787537e-02 -9.013773873448371887e-03 6.211814936250448227e-03 -1.626347564160823822e-02 -8.137092925608158112e-03 2.394403330981731415e-02 5.598865915089845657e-03 3.773363772779703140e-03 -1.409265771508216858e-02 -5.567431449890136719e-03 -1.397654507309198380e-02 -1.035559034789912403e-04 -1.334910979494452477e-03 7.266378961503505707e-03 -5.406742449849843979e-03 4.804113879799842834e-03 -8.609909564256668091e-03 2.628050046041607857e-03 3.563149366527795792e-03 3.066346235573291779e-02 8.151869405992329121e-04 -3.030540049076080322e-02 -4.326420277357101440e-02 -5.620745941996574402e-03 -4.346807952970266342e-03 3.271862491965293884e-02 3.237224882468581200e-03 1.692618429660797119e-02 -1.992667792364954948e-03 3.267873777076601982e-03 1.277223136276006699e-02 3.407455980777740479e-02 -2.322275377810001373e-02 1.181622408330440521e-02 -1.093943417072296143e-02 1.889017410576343536e-02 -7.283886428922414780e-03 2.863374724984169006e-02 2.214837586507201195e-03 1.322705211350694299e-04 -2.608866430819034576e-02 -2.271480485796928406e-02 2.448675222694873810e-02 3.705827519297599792e-02 1.276695635169744492e-02 2.103893645107746124e-02 -1.210853923112154007e-03 2.708623185753822327e-02 -3.335579112172126770e-02 -2.665853826329112053e-03 -1.446982100605964661e-02 8.653174154460430145e-03 -7.817327044904232025e-03 -1.113738305866718292e-02 -9.969293139874935150e-03 1.376899890601634979e-02 2.600113395601511002e-03 7.724398281425237656e-03 -3.779450198635458946e-03 -8.727875538170337677e-03 2.745494246482849121e-02 -2.380158193409442902e-02 -1.812107861042022705e-02 -1.330320350825786591e-02 1.642103865742683411e-02 -1.596575044095516205e-02 9.190295822918415070e-03 -8.860855363309383392e-03 2.219437435269355774e-02 6.535350810736417770e-03 -2.550669759511947632e-02 2.957630529999732971e-02 2.353316918015480042e-02 -1.280917227268218994e-02 2.587697096168994904e-02 6.844906019978225231e-04 -8.659435436129570007e-03 6.271121557801961899e-03 1.352167595177888870e-02 -9.906609775498509407e-04 -2.822599187493324280e-02 4.396998882293701172e-02 1.948734861798584461e-03 -8.046513423323631287e-03 9.699070826172828674e-03 2.207975275814533234e-02 -1.924609765410423279e-02 -3.507788479328155518e-02 -1.038869842886924744e-02 4.169646650552749634e-03 3.375639393925666809e-02 6.269245408475399017e-03 2.393632009625434875e-02 2.724108099937438965e-02 -5.213501397520303726e-03 1.843305490911006927e-02 -4.681420978158712387e-03 1.383435167372226715e-02 6.012549158185720444e-03 2.252727933228015900e-02 -3.296177089214324951e-02 -3.179590776562690735e-02 -3.975426033139228821e-02 -1.158129237592220306e-02 1.987763121724128723e-02 -7.994435727596282959e-02 7.884170860052108765e-03 -4.713442642241716385e-03
-1.569370552897453308e-02 1.849154941737651825e-02 -3.475361689925193787e-02 1.503261737525463104e-03 3.289503604173660278e-02 9.581104852259159088e-03 -1.374851539731025696e-02 3.203131724148988724e-03 -4.678414389491081238e-02 1.027681957930326462e-02 6.207896396517753601e-03 2.157927257940173149e-03 -1.455100532621145248e-02 2.043156698346138000e-02 -2.382937259972095490e-02 -9.896859526634216309e-03 2.606866508722305298e-02 -7.976396940648555756e-03 -1.138188038021326065e-02 6.036342587321996689e-03 -4.848545882850885391e-03 2.298022434115409851e-02 -2.544318791478872299e-03 -2.319222316145896912e-03 2.951150946319103241e-02 -1.401486247777938843e-02 1.324024796485900879e-02 -9.966795332729816437e-03 3.677884116768836975e-02 1.348803378641605377e-02 1.126179005950689316e-02 -2.132842084392905235e-03 -2.157791890203952789e-02 -2.563105523586273193e-02 7.923317141830921173e-03 3.022928023710846901e-03 3.940813615918159485e-02 -1.897848583757877350e-02 1.263984106481075287e-02 -1.280980650335550308e-03 6.045916117727756500e-03 5.492558330297470093e-02 -3.865380305796861649e-03 9.389745071530342102e-03 -1.484289765357971191e-02 -1.220734138041734695e-02 -2.028839476406574249e-02 -2.618043124675750732e-02 -2.567213401198387146e-02 -1.497234497219324112e-02 2.157427556812763214e-02 -5.866402294486761093e-03 -2.883557975292205811e-02 2.046242356300354004e-02 -3.184214700013399124e-03 7.887670397758483887e-02 -8.387681096792221069e-03 1.126109855249524117e-04 -2.922812476754188538e-03 -3.255126532167196274e-03 1.271369028836488724e-02 -7.036458700895309448e-03 -1.911924965679645538e-02 -8.802742697298526764e-03 -1.396736502647399902e-02 -1.157834380865097046e-02 1.920184865593910217e-02 -4.477946553379297256e-03 9.258219040930271149e-03 -3.329443931579589844e-02 -6.760650873184204102e-02 -1.217447221279144287e-02 2.335587516427040100e-02 3.181492211297154427e-03 -1.043740380555391312e-02 1.472543831914663315e-02 3.806600347161293030e-02 -5.531603936105966568e-03 -9.044519625604152679e-03 -5.142100621014833450e-03 -4.271762445569038391e-02 -7.196909282356500626e-03 2.832156233489513397e-02 2.180909551680088043e-02 3.015837632119655609e-03 1.258105691522359848e-02 -1.321304123848676682e-02 -2.181601710617542267e-02 -4.551363736391067505e-02 -2.875414118170738220e-02 -1.765255071222782135e-02 5.797088891267776489e-02 2.390502952039241791e-03 -2.531135641038417816e-02 -1.671029254794120789e-02 -1.849086768925189972e-02 1.690779626369476318e-02 -7.392226718366146088e-03 -7.232034113258123398e-03 -1.734272693283855915e-03 3.066906146705150604e-02 -2.557741664350032806e-02 4.213191568851470947e-03 1.306976377964019775e-02 1.495427265763282776e-02 4.685718193650245667e-02 1.544885430485010147e-02 -2.223730459809303284e-02 1.381795154884457588e-03 -1.371637266129255295e-02 -1.564036495983600616e-02 -1.151976455003023148e-02 8.416344970464706421e-02 -2.379336208105087280e-02 -2.585200965404510498e-02 2.887955866754055023e-03 1.907116360962390900e-02 -1.305635366588830948e-02 5.120988003909587860e-03 -3.168768435716629028e-02 2.110308967530727386e-02 -2.926879329606890678e-03 -1.538822799921035767e-02 -1.089724805206060410e-02 -5.259043071419000626e-03 7.032535504549741745e-03 2.940665930509567261e-02 6.999501027166843414e-03 2.301723230630159378e-03 -1.056834217160940170e-02 -5.449986550956964493e-03 5.233004223555326462e-03 -1.281888969242572784e-02 2.219132147729396820e-02 2.177064865827560425e-02 9.898374555632472038e-04 -2.824166789650917053e-03 -7.906978018581867218e-03 2.899753116071224213e-02 -4.334138706326484680e-03 -8.578838780522346497e-03 -1.510392222553491592e-02 -6.028088182210922241e-02 -9.516580961644649506e-03 -1.805742271244525909e-02 8.429404115304350853e-04 -6.934314221143722534e-02 -5.525219254195690155e-03 3.372588753700256348e-02 -2.769627049565315247e-02 1.338329818099737167e-02 2.201093733310699463e-02 -5.985301686450839043e-04 -1.662810519337654114e-02 2.551739662885665894e-02 1.462262775748968124e-02 -1.088740676641464233e-02 5.532100331038236618e-03 -1.771141029894351959e-02 3.444554517045617104e-03 6.482432130724191666e-03 -8.892461657524108887e-03 -1.138481125235557556e-02 -1.882950402796268463e-02 8.754599839448928833e-03 -1.241838373243808746e-02 2.481833286583423615e-02 -1.507600769400596619e-03 7.303245365619659424e-03 4.032528772950172424e-02 -6.059816852211952209e-02 -3.867619857192039490e-02 1.460084598511457443e-02 -1.951250160345807672e-04 2.423735568299889565e-03 2.765870885923504829e-03 6.167677231132984161e-03 -1.949776336550712585e-02 1.246024388819932938e-03 7.981368899345397949e-02 -2.461038902401924133e-02 -8.381281979382038116e-03 -2.321973256766796112e-02 2.318245172500610352e-02 -4.650154709815979004e-02 -2.834431268274784088e-02 2.080605179071426392e-02 -2.319649327546358109e-03 -1.953747123479843140e-02 -4.882371053099632263e-02 1.666634157299995422e-02 -1.713576912879943848e-02 3.158970270305871964e-03 -7.306891493499279022e-03 3.827387117780745029e-04 3.922794014215469360e-02 -5.231707356870174408e-03 1.813850738108158112e-02 -4.035111889243125916e-02 4.920263960957527161e-02 -5.770347546786069870e-03 6.287079304456710815e-03 -3.850092738866806030e-02 8.133877068758010864e-03 1.029337849467992783e-02 2.492086030542850494e-02 -2.791631035506725311e-03 7.377821602858603001e-04 2.059472166001796722e-02 -3.676158189773559570e-02 -5.993882939219474792e-02 -7.102042902261018753e-03 -1.113411970436573029e-02 -6.670901924371719360e-02 -1.396463159471750259e-02 9.753619669936597347e-04 -1.985256746411323547e-02 -2.478048764169216156e-02 -4.341458156704902649e-02 -1.725665852427482605e-02 8.583285845816135406e-03 -2.678984031081199646e-02 3.872104687616229057e-03 1.692787371575832367e-02 4.993103910237550735e-03 -1.234952174127101898e-02 -7.151751313358545303e-03 -7.515952456742525101e-03 7.543618790805339813e-03 1.724438555538654327e-02 1.939926110208034515e-02 -8.602678426541388035e-04 -9.152354672551155090e-03 6.272211670875549316e-02 6.185613572597503662e-03 -5.245442036539316177e-03 -5.967521108686923981e-03 1.186002139002084732e-02 4.776917025446891785e-02 -3.346844809129834175e-03 3.436185792088508606e-02 -5.101795308291912079e-03 9.453661739826202393e-03 2.228947822004556656e-03 2.914796583354473114e-02 -2.043548785150051117e-02 5.161329172551631927e-04 -8.637011051177978516e-03 -2.020160108804702759e-02 -1.150544080883264542e-02 -1.193539891391992569e-02 1.081704813987016678e-02 -1.306384149938821793e-02 -4.154849052429199219e-02 -3.730670735239982605e-02 1.972108520567417145e-02
1.952707208693027496e-02 -3.223197301849722862e-03 6.418102886527776718e-03 -2.299112826585769653e-02 3.088879399001598358e-02 -5.837885197252035141e-03 -5.722275376319885254e-02 3.771549090743064880e-02 -3.884323406964540482e-03 -1.155141834169626236e-02 -1.942467130720615387e-02 1.152602024376392365e-02 -2.841596142388880253e-04 -1.988079771399497986e-02 2.536224760115146637e-02 1.330912020057439804e-02 -6.049371510744094849e-02 1.393510773777961731e-02 9.736384265124797821e-03 2.689026587177067995e-04 -3.718455263879150152e-04 4.148593544960021973e-02 -1.779126003384590149e-02 1.648437045514583588e-02 1.061477605253458023e-02 -2.430867217481136322e-02 -1.072796061635017395e-02 -2.911589853465557098e-02 -6.524117663502693176e-03 3.215751796960830688e-02 1.015472784638404846e-02 2.996344817802309990e-03 -4.815959557890892029e-02 2.681346423923969269e-02 -7.419394701719284058e-02 3.061855677515268326e-03 2.030849829316139221e-02 -2.552720531821250916e-02 -5.518406163901090622e-03 3.396610543131828308e-02 -2.105513587594032288e-03 6.369961798191070557e-02 -3.309342265129089355e-02 -2.434823289513587952e-02 -4.449260607361793518e-02 7.340149488300085068e-03 -3.273487463593482971e-02 -9.177595376968383789e-03 -5.860156938433647156e-02 2.727895975112915039e-02 -4.840156063437461853e-03 -7.103680633008480072e-03 -4.833899065852165222e-02 -1.361677702516317368e-02 2.493441104888916016e-02 4.331910982728004456e-02 9.219459258019924164e-03 -3.443741053342819214e-02 2.152150124311447144e-02 -1.101303379982709885e-02 -3.282811865210533142e-02 2.347438037395477295e-02 -3.309345105662941933e-03 -5.480042845010757446e-02 2.487168088555335999e-02 -2.101959288120269775e-02 -1.283036312088370323e-03 2.857847698032855988e-02 7.229457609355449677e-03 -1.886219158768653870e-02 7.610609754920005798e-03 1.252020709216594696e-02 -2.317384257912635803e-02 2.675611060112714767e-03 -1.562918350100517273e-02 -3.268008003942668438e-04 -3.365605697035789490e-02 -3.044650331139564514e-02 3.837535856291651726e-03 8.504227735102176666e-03 1.777298632077872753e-03 -6.381939351558685303e-02 1.358535327017307281e-02 1.576171256601810455e-02 -1.987417042255401611e-02 1.602452620863914490e-02 -4.367919638752937317e-02 -3.897121176123619080e-03 2.746300539001822472e-03 2.283169329166412354e-02 -7.810878753662109375e-02 -1.062355469912290573e-02 -1.394082978367805481e-02 5.495205521583557129e-03 -1.323017571121454239e-02 7.555191870778799057e-03 5.508715752512216568e-03 1.223893091082572937e-02 3.809330053627490997e-03 -1.069210842251777649e-02 9.188592433929443359e-03 -4.253063723444938660e-02 -1.827790029346942902e-02 -2.302074804902076721e-03 -3.838751837611198425e-02 9.058830328285694122e-03 1.851124688982963562e-02 5.242821498541161418e-05 -1.437376253306865692e-03 -2.328469604253768921e-02 1.600153185427188873e-02 -3.289882093667984009e-02 -3.346273675560951233e-02 -9.255222044885158539e-03 3.969194740056991577e-02 1.233190856873989105e-02 5.728224758058786392e-03 -1.003214623779058456e-02 -1.173393614590167999e-02 -4.797922447323799133e-02 7.674559019505977631e-03 1.172912865877151489e-02 2.240632660686969757e-02 2.101763710379600525e-02 -1.037502009421586990e-02 -9.655306115746498108e-03 3.501088544726371765e-02 6.618019193410873413e-03 -8.131140843033790588e-03 2.838742919266223907e-02 3.602632135152816772e-02 -2.243466209620237350e-03 -9.096844121813774109e-03 -3.485606238245964050e-02 2.264711447060108185e-02 4.139013588428497314e-02 4.828265309333801270e-02 3.520117141306400299e-03 3.155923634767532349e-02 3.173979744315147400e-02 -7.506357040256261826e-03 -1.961101405322551727e-02 -3.075152263045310974e-02 -2.188530564308166504e-02 6.196459289640188217e-03 6.360842380672693253e-03 -3.625402227044105530e-02 -9.012545458972454071e-03 7.609847933053970337e-03 -4.369297251105308533e-02 3.895905613899230957e-02 -6.423356942832469940e-03 3.982044756412506104e-02 -4.916895180940628052e-02 -1.164760347455739975e-02 -1.235789433121681213e-02 -1.228147186338901520e-02 5.491402931511402130e-03 7.130196318030357361e-03 2.096932940185070038e-02 3.196708112955093384e-02 -5.489282775670289993e-03 9.979729540646076202e-03 -1.266612671315670013e-03 1.306074298918247223e-02 -1.419084519147872925e-02 -1.086009666323661804e-02 1.808257959783077240e-02 -4.494711384177207947e-02 -1.298055518418550491e-02 6.334085017442703247e-03 4.774519428610801697e-02 -3.088782541453838348e-02 -4.588278941810131073e-03 -8.237456902861595154e-03 1.057636924088001251e-02 3.764748806133866310e-03 3.053412307053804398e-03 -3.134097531437873840e-02 1.051275338977575302e-02 -1.827288419008255005e-02 1.621909439563751221e-02 -1.848013699054718018e-02 1.587475463747978210e-02 2.367799729108810425e-02 4.468514118343591690e-03 1.791246049106121063e-02 2.442889614030718803e-03 -1.265286002308130264e-02 -7.297108322381973267e-02 -3.752679005265235901e-02 -2.131248451769351959e-02 1.068249903619289398e-02 6.923945038579404354e-04 6.057705264538526535e-03 -7.703036535531282425e-03 1.118337642401456833e-02 1.051239669322967529e-02 -1.154043246060609818e-02 2.548166736960411072e-02 9.396370500326156616e-03 -2.363380976021289825e-02 -5.601825192570686340e-02 -6.817778572440147400e-03 -1.333662681281566620e-02 2.512911520898342133e-02 6.956708151847124100e-03 2.406722120940685272e-02 2.560288086533546448e-02 -3.790226764976978302e-03 8.169046603143215179e-03 1.652652025222778320e-02 -3.114041872322559357e-02 4.797802120447158813e-02 2.720629237592220306e-02 8.511330932378768921e-03 1.761651784181594849e-02 9.136459790170192719e-03 6.779594719409942627e-02 -1.772610098123550415e-02 4.907841794192790985e-03 -6.278736889362335205e-02 8.528745919466018677e-02 -7.226639427244663239e-03 -1.412254199385643005e-02 -2.969786897301673889e-02 6.473411805927753448e-03 9.249564260244369507e-03 2.581167779862880707e-02 6.561171263456344604e-02 5.682025570422410965e-03 3.014966286718845367e-02 7.947024889290332794e-03 3.088097460567951202e-02 1.222736435011029243e-03 -1.641271286644041538e-03 -1.568182185292243958e-02 2.806060947477817535e-03 -2.239191718399524689e-02 9.587653912603855133e-03 1.358503359369933605e-03 -1.508188620209693909e-02 1.115277502685785294e-02 -7.692290004342794418e-03 -1.519365905551239848e-04 -1.664361543953418732e-02 7.638867478817701340e-03 1.096934452652931213e-02 2.204044722020626068e-02 2.009982801973819733e-02 2.649859292432665825e-03 -5.207103118300437927e-02 2.756483107805252075e-02 1.663112267851829529e-02 2.055293880403041840e-03 -2.528782933950424194e-03
7.611847482621669769e-03 -2.589225955307483673e-02 7.694052532315254211e-03 7.110821548849344254e-03 -6.713800877332687378e-02 -4.117997363209724426e-02 1.974213309586048126e-02 4.699430614709854126e-02 -8.227065950632095337e-02 -3.044273145496845245e-02 2.971154823899269104e-02 1.737296953797340393e-02 -1.012199670076370239e-01 -3.095270507037639618e-02 -1.367431785911321640e-02 9.966377913951873779e-02 3.924107551574707031e-02 1.138177141547203064e-02 5.408485978841781616e-02 -7.479574996978044510e-04 9.829629212617874146e-02 -1.924476213753223419e-02 -2.436406910419464111e-02 4.751363024115562439e-02 2.001630142331123352e-02 1.768174208700656891e-02 -7.236435264348983765e-02 -2.669551782310009003e-02 -7.738026231527328491e-02 1.507374644279479980e-02 4.560666531324386597e-02 -3.154110535979270935e-02 1.009751334786415100e-01 5.089559033513069153e-02 -1.502758264541625977e-02 1.226435378193855286e-01 -6.551792472600936890e-02 2.569895237684249878e-02 -4.283703491091728210e-02 6.459152698516845703e-02 -3.737938404083251953e-02 -2.068239077925682068e-02 -2.528268471360206604e-02 3.857536474242806435e-03 -3.715620189905166626e-02 3.516811504960060120e-02 -5.658828094601631165e-02 -8.904299139976501465e-02 1.668912358582019806e-02 -9.626857191324234009e-02 3.083273582160472870e-02 6.819093227386474609e-02 5.231002811342477798e-03 1.328063160181045532e-01 -3.904807846993207932e-03 -2.263354323804378510e-02 -7.012670487165451050e-02 -1.474623475223779678e-02 -5.641967430710792542e-02 1.400127541273832321e-02 -2.949397452175617218e-02 6.342288106679916382e-03 -1.902165077626705170e-02 2.928872825577855110e-03 -1.313074957579374313e-03 3.142525628209114075e-02 -2.062602667137980461e-03 -5.752793978899717331e-03 -2.294029854238033295e-02 4.725901782512664795e-02 -7.799510844051837921e-03 -2.109620347619056702e-02 3.336610272526741028e-02 6.614826619625091553e-02 9.436606429517269135e-03 5.732712149620056152e-02 1.808003708720207214e-02 -2.802892029285430908e-02 -5.461715906858444214e-02 -7.621350139379501343e-02 2.278638258576393127e-02 9.978502243757247925e-02 -6.236944720149040222e-02 3.074831329286098480e-02 -5.797584727406501770e-02 -2.798872627317905426e-02 -8.628641813993453979e-02 2.715676277875900269e-02 1.891238056123256683e-02 -6.957235932350158691e-02 2.631897479295730591e-02 -3.933293744921684265e-02 -7.803280651569366455e-02 -7.314102724194526672e-03 -2.353119477629661560e-02 -6.906735710799694061e-03 1.115388702601194382e-02 -6.916331592947244644e-03 -3.334496542811393738e-02 2.845056913793087006e-02 5.517403408885002136e-02 -2.866926416754722595e-02 -1.549302786588668823e-02 -1.913039945065975189e-02 -1.373614184558391571e-02 -6.266095675528049469e-03 1.829810626804828644e-02 -3.037042543292045593e-02 -4.445542767643928528e-02 1.005646213889122009e-02 2.158595621585845947e-02 -5.529431626200675964e-02 -9.253464639186859131e-02 -2.146651037037372589e-02 -2.834749966859817505e-02 2.731203474104404449e-02 -1.305084116756916046e-02 1.320751383900642395e-02 -1.154983416199684143e-02 -7.599153369665145874e-02 -3.640302643179893494e-02 -8.415042422711849213e-03 -8.257291465997695923e-02 1.564880274236202240e-02 7.195073366165161133e-02 -6.633134931325912476e-02 -5.692386254668235779e-02 7.732876390218734741e-02 -7.832383364439010620e-02 2.383008785545825958e-02 5.484930798411369324e-02 3.985491394996643066e-02 3.561575338244438171e-02 -8.894269913434982300e-02 5.394402891397476196e-02 -4.654254764318466187e-02 -4.146758839488029480e-02 -5.506113171577453613e-02 2.579541504383087158e-02 -3.304194658994674683e-02 5.159422010183334351e-02 -3.919579833745956421e-02 -3.329432383179664612e-02 -5.789154767990112305e-02 -1.404331531375646591e-02 -5.937584792263805866e-04 -2.748072519898414612e-02 -7.223927229642868042e-02 1.104625756852328777e-03 -4.871705546975135803e-02 -1.568140834569931030e-02 -2.467430010437965393e-02 2.851805090904235840e-02 -4.900940880179405212e-02 1.074170768260955811e-01 1.197369322180747986e-01 -2.553634578362107277e-03 -2.430541999638080597e-02 -9.143300354480743408e-02 -6.595890223979949951e-02 -3.319919109344482422e-03 -3.612644970417022705e-02 8.884903043508529663e-02 -2.770044282078742981e-02 7.664765417575836182e-02 -4.198038019239902496e-03 2.086281776428222656e-02 1.696466468274593353e-02 -2.320339530706405640e-02 -5.732209607958793640e-02 3.535317629575729370e-02 -3.405838459730148315e-02 -5.032436922192573547e-02 5.785424262285232544e-02 -1.026397943496704102e-02 -4.778581112623214722e-02 3.702355176210403442e-02 -1.641057804226875305e-02 -4.020589590072631836e-02 6.082805804908275604e-03 4.895567428320646286e-03 -2.206277661025524139e-02 1.069816276431083679e-01 -8.223418844863772392e-04 1.659077359363436699e-03 -6.221751123666763306e-02 -9.238355606794357300e-02 3.601780161261558533e-02 -4.211879149079322815e-02 -4.531507566571235657e-02 -6.413139402866363525e-02 3.520726785063743591e-02 3.633684292435646057e-02 -3.279663622379302979e-02 -5.387909337878227234e-02 -2.598516084253787994e-02 2.547314763069152832e-02 4.505559429526329041e-02 -4.743332788348197937e-02 -6.279211491346359253e-02 -1.080543249845504761e-01 4.247948899865150452e-02 -4.723199456930160522e-02 7.595831900835037231e-02 -4.056562855839729309e-02 -4.607489705085754395e-02 8.381107449531555176e-02 -2.496412582695484161e-02 7.565980404615402222e-02 4.993936419486999512e-02 7.280773948878049850e-03 -6.227669119834899902e-02 -9.895833209156990051e-03 -1.772911287844181061e-02 -1.357322335243225098e-01 -1.192585658282041550e-02 -1.765416190028190613e-02 2.231174334883689880e-02 -6.278698146343231201e-02 -8.944612741470336914e-02 -2.691145520657300949e-03 -4.969020560383796692e-02 -3.294158726930618286e-02 4.472135007381439209e-02 4.045777395367622375e-02 -7.671120017766952515e-02 4.010066390037536621e-03 6.166793406009674072e-02 -1.276394445449113846e-02 7.266829907894134521e-02 -3.400399535894393921e-02 -1.088510453701019287e-01 5.392060801386833191e-02 -2.739641582593321800e-03 3.338148817420005798e-02 -3.732025995850563049e-02 1.178516075015068054e-03 1.224278286099433899e-02 -1.365021802484989166e-03 -1.739969849586486816e-02 8.908823877573013306e-02 4.577783867716789246e-02 -8.481725305318832397e-02 -3.596644615754485130e-03 -2.124996483325958252e-02 4.097631666809320450e-03 -8.763796836137771606e-02 -1.322729419916868210e-02 -7.965620607137680054e-02 1.119389310479164124e-01 7.025023549795150757e-02 -4.732798784971237183e-02 -7.738326489925384521e-02 -3.135394304990768433e-02 -7.169715128839015961e-03 -1.121791731566190720e-02
