3.853019773960113525e-01
1.118107140064239502e-01
-5.012848377227783203e-01
3.759734928607940674e-01
-2.063134014606475830e-01
2.726137340068817139e-01
-3.283392488956451416e-01
-4.102140069007873535e-01
3.906548619270324707e-01
-5.021739602088928223e-01
2.554487287998199463e-01
3.463194668292999268e-01
4.111743867397308350e-01
3.390072286128997803e-01
5.852277949452400208e-02
-4.089886248111724854e-01
4.345529377460479736e-01
-2.406387627124786377e-01
-1.988201439380645752e-01
4.807879626750946045e-01
2.816343307495117188e-01
-3.476526737213134766e-01
4.554697275161743164e-01
4.443076550960540771e-01
3.923127055168151855e-01
2.086845487356185913e-01
-4.551116526126861572e-01
2.752476334571838379e-01
-4.517286419868469238e-01
-3.638770282268524170e-01
-3.667435050010681152e-01
4.741862416267395020e-01
4.494782164692878723e-02
3.059542775154113770e-01
3.556670248508453369e-01
4.093258380889892578e-01
-3.407892882823944092e-01
2.849748432636260986e-01
5.138902068138122559e-01
-2.876381874084472656e-01
-4.149861931800842285e-01
-5.151324272155761719e-01
-4.719187319278717041e-01
3.549404740333557129e-01
2.389313280582427979e-01
-1.989162564277648926e-01
-2.371720969676971436e-01
9.909705817699432373e-02
3.174114227294921875e-01
3.692168891429901123e-01
1.995918601751327515e-01
2.989327311515808105e-01
-2.191081047058105469e-01
-2.636714577674865723e-01
4.461957514286041260e-01
1.771474033594131470e-01
4.358829557895660400e-01
2.931890189647674561e-01
3.149264454841613770e-01
3.466883003711700439e-01
4.812061190605163574e-01
4.068903326988220215e-01
3.532020151615142822e-01
1.754332631826400757e-01
2.013349235057830811e-01
3.662838339805603027e-01
4.005792438983917236e-01
2.102222442626953125e-01
9.751085937023162842e-02
2.704146504402160645e-01
4.238730370998382568e-01
-1.963151842355728149e-01
-4.463247060775756836e-01
4.490788877010345459e-01
3.778498172760009766e-01
2.975242733955383301e-01
4.358504712581634521e-01
2.776977121829986572e-01
4.735327661037445068e-01
4.349942803382873535e-01
-3.570697903633117676e-01
3.322757184505462646e-01
3.252208232879638672e-01
2.767118215560913086e-01
4.233554601669311523e-01
-1.179188862442970276e-01
-2.199409455060958862e-01
4.446820914745330811e-01
-4.190627634525299072e-01
4.578192532062530518e-01
3.828523457050323486e-01
-3.889305293560028076e-01
3.560997843742370605e-01
4.362910091876983643e-01
3.279225826263427734e-01
3.737110197544097900e-01
1.987256407737731934e-01
3.852230012416839600e-01
-3.669433295726776123e-01
3.748950660228729248e-01
3.466737270355224609e-01
4.656482636928558350e-01
4.824136793613433838e-01
3.674071729183197021e-01
3.199803531169891357e-01
3.337917029857635498e-01
3.740451335906982422e-01
4.002956449985504150e-01
-3.088742494583129883e-01
4.630900621414184570e-01
-4.608662724494934082e-01
3.084518611431121826e-01
3.028990626335144043e-01
-3.594880551099777222e-02
-1.111861467361450195e-01
3.146497905254364014e-01
3.968724608421325684e-01
-5.668068528175354004e-01
2.824418246746063232e-01
2.755648791790008545e-01
2.338906079530715942e-01
3.112320899963378906e-01
2.690898776054382324e-01
3.082686066627502441e-01
-2.294250577688217163e-01
4.254792630672454834e-01
-3.949129283428192139e-01
4.058059453964233398e-01
2.767798304557800293e-01
-1.551392376422882080e-01
-4.778431355953216553e-01
2.951652407646179199e-01
3.887501657009124756e-01
3.353494703769683838e-01
-3.975096642971038818e-01
3.541031479835510254e-01
-4.127897620201110840e-01
-4.058065712451934814e-01
3.675573766231536865e-01
3.862054944038391113e-01
5.021188855171203613e-01
-2.483029812574386597e-01
3.027275800704956055e-01
4.795692861080169678e-01
3.932656943798065186e-01
3.739973902702331543e-01
-2.313441187143325806e-01
-2.730344831943511963e-01
4.144817888736724854e-01
1.402315869927406311e-02
3.273044824600219727e-01
4.114984273910522461e-01
4.374230802059173584e-01
2.511471509933471680e-01
-3.931433260440826416e-01
3.902719616889953613e-01
3.094517290592193604e-01
3.845694661140441895e-01
-4.513528048992156982e-01
5.183797478675842285e-01
-4.222227632999420166e-01
3.714638650417327881e-01
-3.486558794975280762e-01
3.641013503074645996e-01
2.314575314521789551e-01
4.753963649272918701e-01
2.843420207500457764e-01
-4.350343644618988037e-01
3.231529295444488525e-01
-5.263180732727050781e-01
3.526402711868286133e-01
3.335373997688293457e-01
4.128580987453460693e-01
2.281502634286880493e-01
3.089608438313007355e-02
3.467599451541900635e-01
4.954147338867187500e-01
-3.581228554248809814e-01
2.936708331108093262e-01
2.839297354221343994e-01
4.046533405780792236e-01
2.855734825134277344e-01
4.421357512474060059e-01
-3.731974363327026367e-01
-4.943883717060089111e-01
3.354153633117675781e-01
4.021267592906951904e-01
-3.567909896373748779e-01
4.323838353157043457e-01
-1.281296312808990479e-01
3.408771157264709473e-01
2.807456552982330322e-01
4.392647147178649902e-01
3.764972090721130371e-01
2.645319104194641113e-01
-5.122003555297851562e-01
2.972053587436676025e-01
2.979515492916107178e-01
1.271065175533294678e-01
3.878706097602844238e-01
4.034276604652404785e-01
2.922103404998779297e-01
2.978084981441497803e-01
3.063053190708160400e-01
4.262730777263641357e-01
3.701996207237243652e-01
4.194154441356658936e-01
-3.181568682193756104e-01
1.791181266307830811e-01
-3.456028699874877930e-01
4.532586336135864258e-01
5.030353069305419922e-01
4.387226104736328125e-01
4.417119026184082031e-01
3.469418883323669434e-01
-1.905976235866546631e-01
2.676270008087158203e-01
2.019643187522888184e-01
2.842830717563629150e-01
1.961919367313385010e-01
3.019841313362121582e-01
3.009162843227386475e-01
-4.436547458171844482e-01
-3.539387285709381104e-01
-1.389011442661285400e-01
2.855531275272369385e-01
3.268943130970001221e-01
2.613458931446075439e-01
3.536590039730072021e-01
3.601894974708557129e-01
4.279188215732574463e-01
-4.792473912239074707e-01
4.610941410064697266e-01
2.296433448791503906e-01
-3.940247297286987305e-01
3.105011284351348877e-01
4.117977619171142578e-01
-3.262977302074432373e-01
3.974708616733551025e-01
4.142885804176330566e-01
2.120628505945205688e-01
-3.493131399154663086e-01
3.951014876365661621e-01
3.932438492774963379e-01
3.648868799209594727e-01
3.619159758090972900e-01
-2.847681343555450439e-01
-1.965358406305313110e-01
4.042582809925079346e-01
4.641502499580383301e-01
3.755491673946380615e-01
-2.263079434633255005e-01
-4.608600437641143799e-01
2.707417011260986328e-01
-4.031356275081634521e-01
4.297731518745422363e-01
