-1.623886674642562866e-01 -1.327382326126098633e-01 1.929429024457931519e-01 -6.373210251331329346e-02 -5.358454212546348572e-02 1.037097871303558350e-01 -3.130871951580047607e-01 -2.461479790508747101e-02 -6.813655048608779907e-02 -1.089301854372024536e-01 4.290643706917762756e-02 1.354949623346328735e-01 -4.218791797757148743e-02 1.322180926799774170e-01 1.184359192848205566e-01 1.629969626665115356e-01 -3.115722537040710449e-02 -1.175304874777793884e-01 -2.986347116529941559e-02 -5.450521409511566162e-02 4.393140226602554321e-02 1.022058874368667603e-01 -5.552520975470542908e-02 -4.279381781816482544e-02 -1.656044274568557739e-01 -1.797334551811218262e-01 -6.436973065137863159e-02 5.657498165965080261e-02 -4.594372957944869995e-02 -1.343377679586410522e-01 -2.030431032180786133e-01 3.094623796641826630e-02 7.906852662563323975e-02 1.085919328033924103e-02 -3.861091390717774630e-04 1.263053119182586670e-01 9.244921803474426270e-02 -9.898314625024795532e-02 -5.799111723899841309e-02 -5.291350651532411575e-03 -2.141257971525192261e-01 -8.035264909267425537e-02 -1.538095772266387939e-01 8.418536186218261719e-02 -1.072576418519020081e-01 1.012996882200241089e-01 7.721477746963500977e-02 -3.747056005522608757e-03 1.278291046619415283e-01 1.646195948123931885e-01 1.327475011348724365e-01 -3.800425678491592407e-02 -1.467404812574386597e-01 1.144102364778518677e-01 2.068399451673030853e-02 7.603083550930023193e-02 2.369575947523117065e-01 1.311699599027633667e-01 -7.706572860479354858e-02 6.078596413135528564e-02 2.215568209066987038e-03 6.842062622308731079e-02 2.295336127281188965e-01 -2.016947418451309204e-02 -1.621935516595840454e-01 -6.916442420333623886e-03 8.007052540779113770e-02 3.580224886536598206e-02 -8.797512389719486237e-03 -2.567997202277183533e-03 -8.228250592947006226e-02 1.007184982299804688e-01 1.208852604031562805e-01 6.205397844314575195e-02 1.394558846950531006e-01 2.200730293989181519e-01 -4.444345831871032715e-01 2.762066386640071869e-02 -9.839896857738494873e-02 -3.918321430683135986e-02 -1.164077296853065491e-01 -1.851150542497634888e-01 6.397157162427902222e-02 1.235274523496627808e-01 8.000389486551284790e-02 -1.499728262424468994e-01 -2.983216643333435059e-01 1.674786210060119629e-01 4.447232931852340698e-02 -1.500324904918670654e-02 9.016487747430801392e-02 2.405543774366378784e-01 -6.877128779888153076e-02 1.028962284326553345e-01 -4.322770833969116211e-01 4.557517915964126587e-02 -1.185391917824745178e-01 1.101541370153427124e-01 1.919024740345776081e-03 -7.729751616716384888e-02 1.143357157707214355e-01 -3.333824872970581055e-02 2.761376500129699707e-01 -2.573776543140411377e-01 5.078519880771636963e-02 -1.701284646987915039e-01 3.403297811746597290e-02 -4.795540589839220047e-04 2.231615222990512848e-02 -2.836509346961975098e-01 -1.983341947197914124e-02 8.609091863036155701e-03 5.716527253389358521e-02 -1.266268789768218994e-01 1.268724948167800903e-01 -3.701427951455116272e-02 -7.625044137239456177e-02 3.371315822005271912e-02 2.649675011634826660e-01 -2.530256807804107666e-01 1.187412217259407043e-01 3.367346152663230896e-02 -4.662585631012916565e-02 -1.113526523113250732e-01 -9.268582612276077271e-02 5.146337673068046570e-02 9.119581431150436401e-02 -2.299454994499683380e-02 -1.428127586841583252e-01 -2.906146645545959473e-02 -5.476484820246696472e-02 1.698915660381317139e-02 -8.474399149417877197e-02 1.652828305959701538e-01 4.094391316175460815e-02 -9.985021501779556274e-02 -8.872795850038528442e-02 -9.569115936756134033e-03 -6.762176752090454102e-02 4.950364679098129272e-02 -1.736152470111846924e-01 7.406863570213317871e-02 -8.106317371129989624e-03 -1.861213594675064087e-01 -3.397784009575843811e-02 1.143260523676872253e-01 -1.193449422717094421e-01 8.539383113384246826e-02 -1.210363507270812988e-01 1.977485045790672302e-02 6.106897816061973572e-02 -2.868029475212097168e-02 -3.855969384312629700e-02 -3.260241448879241943e-02 3.608874380588531494e-01 -7.425949722528457642e-02 -1.043569445610046387e-01 -9.875363111495971680e-02 -1.531410813331604004e-01 2.074597403407096863e-02 5.087706819176673889e-02 -1.190193891525268555e-01 1.340622007846832275e-01 -8.085811138153076172e-02 -3.207151545211672783e-03 1.155878696590662003e-02 2.250608056783676147e-02 7.783244550228118896e-02 2.649055719375610352e-01 -1.872011832892894745e-02 1.787067018449306488e-02 -2.785455621778964996e-02 -1.487765368074178696e-02 -1.124863699078559875e-02 5.262105539441108704e-02 1.390649378299713135e-02 -2.131505496799945831e-02 6.879583001136779785e-02 -3.671340644359588623e-02 -6.836293637752532959e-02 -9.379496425390243530e-02 -7.115796953439712524e-02 1.401978433132171631e-01 2.610868401825428009e-02 5.145407840609550476e-02 -9.803539142012596130e-03 -6.455435603857040405e-02 1.021400168538093567e-01 -1.484519541263580322e-01 1.155214309692382812e-01 -5.185359343886375427e-02 -4.351198673248291016e-02 1.563106849789619446e-02 8.692819625139236450e-02 1.503703445196151733e-01 2.025894075632095337e-01 1.817937940359115601e-01 -6.041993200778961182e-02 1.715356856584548950e-02 2.142466604709625244e-02 1.301056444644927979e-01 -1.636070199310779572e-02 1.563505232334136963e-01 -1.577860116958618164e-01 -4.408335685729980469e-02 4.524478316307067871e-02 1.281454600393772125e-02 -1.000807136297225952e-01 -1.419599354267120361e-01 -1.122007742524147034e-01 2.816619817167520523e-03 3.720708936452865601e-02 7.684005796909332275e-02 9.826153516769409180e-02 -1.633041054010391235e-01 -8.247978240251541138e-02 -7.947095669806003571e-03 3.932167589664459229e-02 2.706479094922542572e-02 -2.806244231760501862e-02 3.105101734399795532e-02 -7.594342827796936035e-01 -2.258059196174144745e-02 1.247837021946907043e-02 -4.143302887678146362e-02 -5.452186465263366699e-01 1.901073567569255829e-02 1.798605080693960190e-03 -6.679634749889373779e-02 -1.963282935321331024e-02 -6.187960878014564514e-02 -1.070434451103210449e-01 5.722200497984886169e-02 1.105876863002777100e-01 -3.291358053684234619e-02 -5.582368969917297363e-01 1.461207717657089233e-01 -9.813000261783599854e-02 -2.523322403430938721e-01 3.301848098635673523e-02 6.873150169849395752e-02 -7.249713689088821411e-02 4.029805213212966919e-02 2.141460180282592773e-01 7.227194309234619141e-02 -1.995392702519893646e-02 -1.119574159383773804e-01 -8.776361495256423950e-02 -3.557456284761428833e-02 1.309128757566213608e-02 6.237273663282394409e-02 -4.722835496068000793e-02 2.589592039585113525e-01 -5.400823950767517090e-01 4.250108823180198669e-02 -1.403700411319732666e-01
-1.514282729476690292e-02 -2.139829993247985840e-01 3.297119960188865662e-02 4.103102721273899078e-03 1.030041128396987915e-01 3.213942050933837891e-02 -1.991967856884002686e-01 1.243314072489738464e-01 5.632343143224716187e-02 7.059455662965774536e-02 7.454062998294830322e-02 -1.181432679295539856e-01 4.361570626497268677e-02 1.257014870643615723e-01 5.306227505207061768e-02 6.370720267295837402e-02 -4.584997892379760742e-02 -1.347802579402923584e-01 -1.493520438671112061e-01 -2.335173189640045166e-01 2.443685941398143768e-02 6.724531948566436768e-02 -1.919308118522167206e-02 5.087679624557495117e-02 -2.011472592130303383e-03 8.256495743989944458e-02 4.838525131344795227e-02 -8.299168944358825684e-02 1.775258183479309082e-01 -3.105397149920463562e-02 1.200712770223617554e-01 2.041189372539520264e-02 1.768744550645351410e-03 5.945129320025444031e-03 -4.207138408673927188e-05 -7.390334457159042358e-02 -3.463497385382652283e-02 6.926199793815612793e-02 5.913768708705902100e-02 -1.078806817531585693e-01 5.288286134600639343e-02 1.457235775887966156e-02 -2.658456191420555115e-02 -7.115941494703292847e-02 6.817843019962310791e-02 -4.563228692859411240e-03 2.813148312270641327e-02 3.925763815641403198e-02 -1.366998851299285889e-01 -1.953831501305103302e-02 1.005385369062423706e-01 2.278930693864822388e-01 1.864061504602432251e-02 1.090307012200355530e-01 1.676212102174758911e-01 4.576935619115829468e-02 -2.554460428655147552e-02 1.153150051832199097e-01 1.024392843246459961e-01 1.090603694319725037e-01 -2.669430896639823914e-02 1.992025040090084076e-02 -1.992197632789611816e-01 -3.566369041800498962e-02 -3.513025492429733276e-02 -2.057671360671520233e-02 1.203276682645082474e-02 -3.868024051189422607e-02 -6.949181854724884033e-02 3.865555301308631897e-02 1.588813960552215576e-01 3.164328634738922119e-02 -3.015507459640502930e-01 6.623521447181701660e-03 4.022476822137832642e-02 -1.725100576877593994e-01 -2.314410954713821411e-01 5.508508905768394470e-02 6.069258227944374084e-02 7.333366572856903076e-02 4.758554697036743164e-02 2.243298292160034180e-02 1.495419740676879883e-01 1.093052774667739868e-01 2.102998644113540649e-02 2.283219434320926666e-02 -3.971360251307487488e-02 -8.690162003040313721e-02 -2.529844455420970917e-02 -5.519180372357368469e-02 -7.325047999620437622e-02 1.220191121101379395e-01 1.402490586042404175e-01 4.655661433935165405e-02 3.929729014635086060e-02 -1.411043945699930191e-02 -5.324343964457511902e-02 -1.452939361333847046e-01 -4.213217645883560181e-03 1.875140704214572906e-02 -7.099693268537521362e-02 9.107825160026550293e-02 3.315151482820510864e-02 -3.982130065560340881e-02 2.346229180693626404e-02 -6.410928070545196533e-02 2.597083337604999542e-02 1.079718545079231262e-01 -6.098661571741104126e-02 1.031100749969482422e-01 2.007592283189296722e-02 3.608520328998565674e-02 6.635714322328567505e-02 -8.446417003870010376e-02 2.968278340995311737e-02 -2.825615406036376953e-01 7.700247690081596375e-03 -7.916040718555450439e-03 6.608537398278713226e-03 1.327899843454360962e-01 1.160897016525268555e-01 -4.693521559238433838e-02 1.855592131614685059e-01 4.525262117385864258e-02 4.639604315161705017e-02 -6.451489776372909546e-02 1.632518484257161617e-03 2.519938349723815918e-02 7.749532163143157959e-02 -2.103917859494686127e-02 1.034583523869514465e-01 -1.694973558187484741e-01 -8.325033634901046753e-02 -8.803210407495498657e-02 -2.473445050418376923e-02 1.080965176224708557e-01 -8.326625078916549683e-02 -9.304118901491165161e-02 4.974037781357765198e-02 6.967958062887191772e-02 -5.666875839233398438e-02 -1.382490396499633789e-01 8.066230453550815582e-03 -1.452838629484176636e-01 -1.941624730825424194e-01 3.932931646704673767e-02 -4.586208984255790710e-02 -5.275889113545417786e-02 3.895619139075279236e-02 6.793336570262908936e-02 -9.832630865275859833e-03 1.105509102344512939e-01 -4.569524526596069336e-02 1.435489803552627563e-01 -1.019054949283599854e-01 2.426259778439998627e-02 -1.495646238327026367e-01 -1.909533590078353882e-01 6.383024901151657104e-02 2.136362530291080475e-02 1.248219385743141174e-01 9.880092693492770195e-04 4.074968397617340088e-02 -4.889980703592300415e-02 -1.554360613226890564e-02 5.748970061540603638e-02 -1.755280345678329468e-01 3.889824496582150459e-03 1.404668856412172318e-02 -4.610102251172065735e-02 -1.337937414646148682e-01 4.012980684638023376e-02 1.028227806091308594e-01 -2.894196845591068268e-02 4.308117926120758057e-02 -7.509957998991012573e-02 -3.880942985415458679e-02 8.019087836146354675e-04 -1.080318689346313477e-01 -1.616165414452552795e-02 -8.693498559296131134e-03 -6.874336302280426025e-02 -1.590553484857082367e-02 2.299892753362655640e-01 1.385084167122840881e-02 -3.250123932957649231e-03 1.440681666135787964e-01 1.177757605910301208e-02 -1.813275068998336792e-01 -7.207308430224657059e-03 -1.436453163623809814e-01 2.048267610371112823e-02 -8.048643916845321655e-02 -3.059470839798450470e-02 1.087210997939109802e-01 2.091173082590103149e-01 -3.524630144238471985e-02 -4.890072345733642578e-02 -1.875021494925022125e-02 3.014665655791759491e-02 -9.422308951616287231e-02 1.703139096498489380e-01 1.159093379974365234e-01 3.897539898753166199e-02 -3.729714825749397278e-02 -5.507745221257209778e-02 1.429737359285354614e-01 1.204894334077835083e-01 6.507215648889541626e-02 -7.172695547342300415e-02 1.184493824839591980e-01 4.099568352103233337e-02 -1.579642593860626221e-01 -6.763011962175369263e-02 -9.021959453821182251e-02 -1.509977281093597412e-01 -5.638773366808891296e-02 1.446983516216278076e-01 -4.435343202203512192e-03 5.013984441757202148e-02 -1.625739932060241699e-01 -5.918220803141593933e-02 -1.039355471730232239e-01 -3.284690901637077332e-02 -4.401611536741256714e-02 -1.272554397583007812e-01 -2.626013159751892090e-01 1.180602759122848511e-01 2.414668537676334381e-02 -7.506527006626129150e-02 4.893304407596588135e-02 -1.976415216922760010e-01 -1.117686778306961060e-01 -1.416671425104141235e-01 -4.422282055020332336e-02 -8.152916282415390015e-02 -1.137632057070732117e-01 1.394635587930679321e-01 -6.804781034588813782e-03 4.740740638226270676e-03 5.186158791184425354e-02 -2.343605756759643555e-01 4.476103931665420532e-02 -3.280822932720184326e-02 1.399995237588882446e-01 -4.471429437398910522e-02 -8.326695859432220459e-02 9.634766727685928345e-03 -1.413174569606781006e-01 2.359828725457191467e-02 -7.659119367599487305e-02 -9.733507782220840454e-02 -8.309611678123474121e-02 -2.436221092939376831e-01 1.883166097104549408e-02 1.216478925198316574e-02
-2.310074120759963989e-01 2.626669593155384064e-02 -4.277148842811584473e-02 3.445968776941299438e-02 1.639914512634277344e-01 -3.171329200267791748e-02 -2.386408299207687378e-02 5.853343382477760315e-02 5.838232487440109253e-02 1.636215895414352417e-01 1.593093969859182835e-03 1.842298544943332672e-02 -1.857980526983737946e-02 -8.938354998826980591e-02 2.587264776229858398e-02 1.927524432539939880e-02 8.285792917013168335e-02 2.126300334930419922e-02 -3.020221926271915436e-02 -1.887439936399459839e-02 -7.014006376266479492e-02 5.051013454794883728e-02 -1.554565131664276123e-01 -1.838772147893905640e-01 5.005212035030126572e-03 4.500818252563476562e-02 2.430706471204757690e-02 5.122618749737739563e-02 5.119420588016510010e-02 3.752954676747322083e-02 -3.950222581624984741e-02 5.892528221011161804e-02 -1.823614537715911865e-01 -7.289165258407592773e-02 3.560741990804672241e-02 -8.947739005088806152e-02 8.221809752285480499e-03 -1.995879225432872772e-02 -5.160063505172729492e-03 -1.079119965434074402e-01 -2.204014547169208527e-02 1.130354404449462891e-01 1.023972481489181519e-01 -1.728536747395992279e-02 2.501124739646911621e-01 -1.036573722958564758e-01 1.854998432099819183e-02 -2.174012362957000732e-03 3.539760038256645203e-02 -1.211117058992385864e-01 6.403632927685976028e-03 8.794976025819778442e-02 -1.085187192074954510e-03 1.124127730727195740e-01 2.252560853958129883e-01 -5.251238122582435608e-02 2.228736132383346558e-01 -1.091955751180648804e-01 4.643362015485763550e-02 7.719191908836364746e-02 -1.019891817122697830e-02 1.528236642479896545e-02 -2.795770391821861267e-02 6.456505041569471359e-03 7.592182606458663940e-02 2.425187826156616211e-02 2.451991662383079529e-02 -1.610432378947734833e-02 5.847008898854255676e-02 -4.735153540968894958e-02 1.377772726118564606e-02 -1.172275096178054810e-01 -4.962912201881408691e-02 6.275552511215209961e-02 -2.125529572367668152e-02 4.375635087490081787e-02 -5.170541629195213318e-02 6.380376219749450684e-02 2.325133606791496277e-02 1.585482954978942871e-01 -8.469385094940662384e-03 -7.049514912068843842e-03 -1.203738385811448097e-03 -2.438907511532306671e-03 -8.810726553201675415e-02 -1.579674780368804932e-01 -1.013971716165542603e-01 -5.026121065020561218e-02 -8.487666398286819458e-02 8.092180639505386353e-02 5.711145699024200439e-02 -2.138525396585464478e-01 -5.216439440846443176e-02 -1.301839202642440796e-01 6.446892768144607544e-02 -3.386928467079997063e-03 4.071128368377685547e-02 -8.771703392267227173e-02 -1.815743744373321533e-02 -4.651241376996040344e-02 -8.247642777860164642e-03 6.976437568664550781e-02 -1.490752398967742920e-01 8.403740078210830688e-02 -1.610275059938430786e-01 -6.203028932213783264e-02 4.113654047250747681e-02 4.610610008239746094e-02 3.991391882300376892e-02 -6.805403530597686768e-02 -5.879252403974533081e-02 4.870444536209106445e-02 -2.137983404099941254e-02 -1.349426954984664917e-01 -6.352336704730987549e-02 -2.096667326986789703e-02 -3.827633336186408997e-02 -1.041955649852752686e-01 4.354355484247207642e-02 1.787294149398803711e-01 1.503197359852492809e-03 -1.172459721565246582e-01 9.982734173536300659e-02 1.415557116270065308e-01 1.091798916459083557e-01 5.208576098084449768e-02 -4.928480833768844604e-02 -5.123720318078994751e-02 3.328625485301017761e-02 -8.287584036588668823e-02 -5.366820469498634338e-02 1.032289713621139526e-01 7.803393155336380005e-02 -2.383907586336135864e-01 -1.143750995397567749e-01 -1.157070603221654892e-02 -1.029255092144012451e-01 -2.005044966936111450e-01 -5.027041956782341003e-02 -7.113807648420333862e-02 -7.347471266984939575e-02 -2.461847849190235138e-02 -1.579870283603668213e-02 -1.963973045349121094e-01 -1.658492982387542725e-01 -4.425110295414924622e-02 5.072490125894546509e-02 -7.738914340734481812e-02 -2.429388463497161865e-02 9.610913693904876709e-02 1.551320254802703857e-01 -1.197328045964241028e-01 -1.514775007963180542e-01 2.308112010359764099e-02 1.273413896560668945e-01 -8.601220697164535522e-02 -2.902966365218162537e-02 1.300839930772781372e-01 7.275379262864589691e-03 4.964388906955718994e-02 -8.908455073833465576e-02 -1.782330721616744995e-01 -2.807103842496871948e-02 -1.872300752438604832e-03 -4.324829205870628357e-02 -5.170443654060363770e-02 -3.432343527674674988e-02 -5.696555972099304199e-02 -3.461034595966339111e-02 -9.336888045072555542e-02 -5.334266275167465210e-02 -9.375114925205707550e-03 1.836932748556137085e-01 -1.140849217772483826e-01 7.839965634047985077e-03 -4.428162053227424622e-02 2.047795057296752930e-02 -3.351556509733200073e-02 -5.867965146899223328e-02 1.047569699585437775e-02 4.660604894161224365e-02 6.601964123547077179e-03 -1.446489095687866211e-01 -6.434080749750137329e-02 -8.570209145545959473e-02 -1.607540398836135864e-01 -6.475569307804107666e-02 -7.040251046419143677e-02 -1.118155196309089661e-02 -1.422506105154752731e-02 3.681274503469467163e-02 -2.127195745706558228e-01 8.343657106161117554e-02 1.026887372136116028e-01 1.613544523715972900e-01 6.798293441534042358e-02 7.171530276536941528e-02 -1.730673313140869141e-01 7.494676113128662109e-02 -3.704915568232536316e-02 7.784622162580490112e-02 -6.046891584992408752e-02 -4.087587073445320129e-02 6.181946769356727600e-02 -3.461673110723495483e-02 2.219792753458023071e-01 1.244083195924758911e-01 -2.798849157989025116e-02 -1.381215304136276245e-01 -3.657731041312217712e-02 7.713886350393295288e-02 -1.628454774618148804e-02 1.389768440276384354e-02 -4.377943649888038635e-02 2.438323013484477997e-02 1.217827647924423218e-01 1.570161804556846619e-02 4.462626203894615173e-02 3.211048245429992676e-02 -1.140493527054786682e-01 -2.619944140315055847e-02 1.422213315963745117e-01 6.363384425640106201e-02 5.132980644702911377e-03 6.906060874462127686e-02 6.120966747403144836e-02 -1.152481064200401306e-01 6.989230215549468994e-02 -6.346416473388671875e-02 -3.982659056782722473e-02 2.868778258562088013e-02 -1.033340245485305786e-01 -5.955512821674346924e-02 8.714818954467773438e-02 5.715889856219291687e-03 2.679824642837047577e-02 2.549217343330383301e-01 -4.721734672784805298e-02 2.036922983825206757e-02 -9.240816533565521240e-02 6.246783211827278137e-02 -1.339355204254388809e-02 -1.351250112056732178e-01 4.180185962468385696e-03 1.756502687931060791e-01 1.001047529280185699e-02 -1.863854005932807922e-02 -1.056503430008888245e-01 -2.865168452262878418e-02 -1.255394816398620605e-01 -2.301332801580429077e-01 -3.771415352821350098e-02 -1.065098270773887634e-01 4.703321307897567749e-02 5.086751654744148254e-02 -1.531471312046051025e-01
-9.863112866878509521e-02 -1.154274791479110718e-01 -1.497547477483749390e-01 1.369431912899017334e-01 -8.782576769590377808e-02 1.507880864664912224e-03 -1.294315159320831299e-01 3.604060038924217224e-02 2.982151322066783905e-02 2.102706953883171082e-02 7.848926633596420288e-02 -1.562350839376449585e-01 1.180311478674411774e-02 7.825703173875808716e-02 9.005930274724960327e-02 1.164359319955110550e-02 -9.367549419403076172e-02 -4.489063471555709839e-02 -8.510874584317207336e-03 1.296687312424182892e-02 2.773870527744293213e-02 6.198743730783462524e-02 -3.565695509314537048e-02 -7.489650696516036987e-02 6.519799679517745972e-02 -1.729870289564132690e-01 1.131886243820190430e-01 -1.943037807941436768e-01 -3.681607544422149658e-02 -5.878539383411407471e-02 -9.025724977254867554e-02 -1.691862642765045166e-01 3.468550741672515869e-03 1.257421821355819702e-01 -1.154697015881538391e-01 1.924386322498321533e-01 -2.436149120330810547e-02 7.785959541797637939e-02 9.612934291362762451e-02 -8.341948688030242920e-02 -2.335116118192672729e-01 1.147186160087585449e-01 -4.730392992496490479e-02 4.797960445284843445e-02 5.552385002374649048e-03 -7.974021718837320805e-04 -8.938506245613098145e-02 4.854705929756164551e-02 -7.974057644605636597e-02 6.928458809852600098e-02 6.584523711353540421e-03 -2.630483359098434448e-02 8.485179394483566284e-03 4.256855696439743042e-02 1.601397395133972168e-01 -8.770409226417541504e-02 6.608529365621507168e-04 7.090646028518676758e-02 -8.445683866739273071e-02 -2.545887231826782227e-01 2.132882624864578247e-01 -1.777863353490829468e-01 -3.224764466285705566e-01 -5.733768269419670105e-02 1.411794871091842651e-01 -6.333155930042266846e-02 2.561575174331665039e-02 7.533912360668182373e-02 -6.336514651775360107e-02 3.933948930352926254e-03 3.644176572561264038e-02 4.785258322954177856e-02 -8.162366598844528198e-02 -1.039225086569786072e-01 9.886746853590011597e-02 1.288249492645263672e-01 -3.204132616519927979e-02 7.223053276538848877e-02 -8.174327760934829712e-02 1.628633141517639160e-01 -5.226126685738563538e-02 -4.247188195586204529e-02 -3.393020480871200562e-02 5.418474972248077393e-02 -7.328017055988311768e-02 -2.314433455467224121e-01 -3.279177844524383545e-01 9.419950656592845917e-03 4.069960117340087891e-02 3.525726497173309326e-02 6.640326231718063354e-02 -5.615679174661636353e-02 -9.863022714853286743e-04 -2.320399694144725800e-02 -1.382542997598648071e-01 -3.367731720209121704e-02 -2.556595951318740845e-02 -2.967697568237781525e-02 3.230259194970130920e-02 1.367246173322200775e-02 5.604975670576095581e-02 -2.968355827033519745e-02 5.529089272022247314e-02 -1.793768838979303837e-03 -7.576338201761245728e-02 1.006235778331756592e-01 -7.187993824481964111e-02 2.500587701797485352e-02 4.260485991835594177e-02 2.571446448564529419e-02 5.082061141729354858e-02 -2.819388508796691895e-01 3.161407262086868286e-02 -6.406244635581970215e-02 -6.533492356538772583e-02 -1.012893859297037125e-02 1.493181139230728149e-01 6.613142043352127075e-02 1.149350702762603760e-01 -4.048048704862594604e-02 2.357182055711746216e-01 9.256401099264621735e-03 3.825403749942779541e-02 1.379356533288955688e-01 6.590034067630767822e-02 1.285557001829147339e-01 -1.101509407162666321e-01 1.183704659342765808e-02 -2.307307422161102295e-01 5.723682232201099396e-03 3.407648578286170959e-02 1.122575160115957260e-02 6.068878807127475739e-03 -3.358001708984375000e-01 6.045015156269073486e-02 -1.256400793790817261e-01 -6.781518459320068359e-02 -8.852536231279373169e-02 -1.762247234582901001e-01 -1.205992996692657471e-01 -1.250153966248035431e-02 6.655613332986831665e-02 -5.301246792078018188e-02 -6.942413002252578735e-02 4.006990417838096619e-02 -6.437050644308328629e-03 -1.765985600650310516e-02 1.745334118604660034e-01 4.732916504144668579e-02 3.504598140716552734e-02 -4.468797892332077026e-02 7.901992648839950562e-03 -1.334857642650604248e-01 4.244566336274147034e-02 2.380713261663913727e-02 1.056226044893264771e-01 -3.410525247454643250e-02 3.454935178160667419e-02 -1.009780075401067734e-02 7.828692346811294556e-02 -1.584908110089600086e-03 -7.504440844058990479e-02 -9.293779730796813965e-02 -3.414141014218330383e-02 4.218192771077156067e-03 -1.775316298007965088e-01 5.986643955111503601e-02 8.655568212270736694e-02 2.090769857168197632e-01 8.165521547198295593e-03 1.393815428018569946e-01 -1.588576436042785645e-01 1.203025728464126587e-01 4.518045112490653992e-02 -1.047527641057968140e-01 1.024611443281173706e-01 8.755546808242797852e-02 1.246214061975479126e-01 -5.383374445955269039e-05 -5.043567344546318054e-02 4.155035316944122314e-02 1.945019903359934688e-04 1.236624419689178467e-01 3.463309258222579956e-02 -4.495773091912269592e-02 -1.376373618841171265e-01 3.322114050388336182e-02 1.286757290363311768e-01 -3.983768075704574585e-02 -1.485292315483093262e-01 1.617950201034545898e-02 -8.341693878173828125e-02 2.954819239675998688e-02 -2.822159416973590851e-02 -5.002394318580627441e-02 1.543015092611312866e-01 -2.341938763856887817e-02 3.167248144745826721e-02 -2.759407274425029755e-02 1.219314113259315491e-01 7.127773016691207886e-02 -7.267196197062730789e-03 -3.864408284425735474e-02 1.078873053193092346e-01 8.012645877897739410e-03 5.048124585300683975e-03 -1.058760061860084534e-01 -1.873208582401275635e-01 2.512085996568202972e-02 -1.381909102201461792e-01 -6.178601458668708801e-02 -1.394696533679962158e-02 6.547142751514911652e-03 -5.834829062223434448e-02 3.203015774488449097e-02 -6.364622712135314941e-02 8.223372697830200195e-02 -1.013232301920652390e-02 4.911081120371818542e-02 3.861821955069899559e-03 8.359288424253463745e-02 -2.586725354194641113e-01 -3.632160648703575134e-02 6.889401376247406006e-02 -1.259758770465850830e-01 -2.622579038143157959e-02 -4.988633841276168823e-02 -1.473120693117380142e-02 6.737394630908966064e-02 4.020633548498153687e-02 2.500174753367900848e-02 -1.378965526819229126e-01 1.617527194321155548e-02 4.914117977023124695e-02 -7.870119810104370117e-02 -1.672698110342025757e-01 6.692526489496231079e-02 1.142821684479713440e-01 -1.175142899155616760e-01 7.678870111703872681e-02 6.664878129959106445e-02 -8.306454122066497803e-02 -9.833024442195892334e-02 -2.772020362317562103e-02 2.213647775352001190e-02 -1.297956258058547974e-01 -1.891852915287017822e-02 -1.042865775525569916e-02 2.770069614052772522e-02 -1.363716572523117065e-01 3.048049286007881165e-02 -4.329308867454528809e-03 3.352069528773427010e-03 3.639623895287513733e-02 3.330380842089653015e-02 -4.731777682900428772e-02
1.752594709396362305e-01 7.703301310539245605e-02 -4.644746333360671997e-02 7.453837245702743530e-02 1.261965334415435791e-01 -1.549442410469055176e-01 -2.632758617401123047e-01 8.778327703475952148e-02 -1.861467957496643066e-02 -6.621344387531280518e-02 6.235078349709510803e-02 1.430734177120029926e-03 -9.710097312927246094e-02 1.186684221029281616e-01 1.207341402769088745e-01 -3.108196333050727844e-02 5.694130435585975647e-02 1.255485713481903076e-01 -1.047713682055473328e-02 -2.836454659700393677e-03 1.192899346351623535e-01 -2.030900716781616211e-01 -1.082753613591194153e-01 8.484245091676712036e-02 8.982149511575698853e-02 1.334258615970611572e-01 5.435224622488021851e-02 -4.281838983297348022e-02 1.841202005743980408e-02 -1.468566507101058960e-01 3.599435091018676758e-02 -1.759104896336793900e-03 -6.138055026531219482e-02 -2.398938126862049103e-02 4.334246367216110229e-02 1.330833882093429565e-02 -1.019551157951354980e-01 -7.127670198678970337e-02 -7.578126341104507446e-02 -1.514952480792999268e-01 -5.013351142406463623e-02 4.860450327396392822e-02 9.214281290769577026e-02 5.767260491847991943e-02 1.264284849166870117e-01 1.433412283658981323e-01 6.693010684102773666e-03 8.542748540639877319e-02 3.639993024989962578e-03 7.230377942323684692e-02 -6.570465862751007080e-02 -9.348150342702865601e-02 1.005188822746276855e-01 5.238055810332298279e-02 6.354282051324844360e-02 1.461862921714782715e-01 3.109256736934185028e-02 3.310577571392059326e-02 2.139601856470108032e-02 1.243684440851211548e-02 1.721413433551788330e-02 -9.499488770961761475e-02 9.594657272100448608e-02 2.621418563649058342e-03 -1.877164654433727264e-02 -3.395238518714904785e-02 6.475521624088287354e-02 -3.045839965343475342e-01 4.504344612360000610e-02 -2.739100158214569092e-01 -5.974611639976501465e-02 -1.984370052814483643e-01 2.087405771017074585e-01 1.511204093694686890e-01 -1.321990340948104858e-01 7.080066949129104614e-02 1.886358261108398438e-01 7.611887902021408081e-02 -1.019631177186965942e-01 -8.786194026470184326e-02 -2.526907064020633698e-02 -1.054702252149581909e-01 5.399088561534881592e-02 -3.041547238826751709e-01 1.097678393125534058e-01 -4.033206030726432800e-02 9.599272161722183228e-02 -2.169023081660270691e-02 -4.271574690937995911e-02 -1.625097841024398804e-01 1.154810637235641479e-01 7.135680317878723145e-02 -3.335855901241302490e-02 -1.215284243226051331e-01 -1.161904782056808472e-01 2.374407649040222168e-02 -8.899480104446411133e-02 1.836841739714145660e-02 -1.166623309254646301e-01 4.721806570887565613e-02 1.132906321436166763e-02 5.648972839117050171e-02 1.633655726909637451e-01 4.281278699636459351e-02 -7.565425243228673935e-03 -1.256181485950946808e-02 -1.342240720987319946e-01 -9.304220974445343018e-02 -9.465618431568145752e-02 -3.988673165440559387e-02 -1.148032210767269135e-02 -3.106817603111267090e-02 -2.039752453565597534e-01 -1.218944564461708069e-01 6.381416693329811096e-03 5.336218327283859253e-02 2.315550893545150757e-01 -5.222335457801818848e-02 1.099074780941009521e-01 4.084014520049095154e-02 -1.031297370791435242e-01 1.239754259586334229e-01 -3.014205582439899445e-02 7.778520137071609497e-02 -8.170793764293193817e-03 3.424728661775588989e-02 -1.782158762216567993e-01 5.866829305887222290e-02 -1.969268918037414551e-01 8.924514800310134888e-02 1.676883399486541748e-01 6.549457460641860962e-02 -8.179284632205963135e-02 -1.821652054786682129e-02 -3.916043043136596680e-02 9.415020793676376343e-02 8.569502830505371094e-02 -5.342592298984527588e-02 1.369108408689498901e-01 -1.585753858089447021e-01 -3.465129120741039515e-04 7.373087108135223389e-02 7.779840379953384399e-02 -3.279952704906463623e-02 -1.196773629635572433e-02 1.037696748971939087e-01 -1.878145039081573486e-01 -7.605477422475814819e-02 1.494056731462478638e-01 -4.097704961895942688e-02 -1.111783906817436218e-01 2.135400176048278809e-01 7.925739139318466187e-02 7.015337049961090088e-02 1.484598517417907715e-01 6.797684729099273682e-02 -9.819090366363525391e-02 4.418449476361274719e-02 -6.028997153043746948e-02 -6.539810448884963989e-02 2.330130152404308319e-02 9.723212569952011108e-02 -1.429811269044876099e-01 -1.283279508352279663e-01 1.493847072124481201e-01 4.869053512811660767e-02 -2.290007658302783966e-02 8.413648232817649841e-03 -2.089337818324565887e-02 -3.969548270106315613e-02 -8.445455878973007202e-02 -2.879468351602554321e-02 2.049787901341915131e-02 -5.203118547797203064e-03 -5.839390680193901062e-02 -1.126223504543304443e-01 1.574865728616714478e-01 6.191138550639152527e-02 1.235979571938514709e-01 -9.884853661060333252e-02 4.232053086161613464e-02 -2.843281254172325134e-02 6.290174275636672974e-02 1.581300050020217896e-02 -6.710653752088546753e-02 -5.887492094188928604e-03 -6.819257885217666626e-02 1.227381899952888489e-01 -1.124230101704597473e-01 1.004368737339973450e-01 -1.569525301456451416e-01 -1.714072003960609436e-02 -9.635850787162780762e-03 1.759542077779769897e-01 1.963034570217132568e-01 2.231918973848223686e-03 3.019767403602600098e-01 -6.957375258207321167e-02 4.904004558920860291e-02 -1.373785138130187988e-01 6.830294430255889893e-02 -9.220903366804122925e-02 5.695484578609466553e-02 5.965857580304145813e-02 -1.063925474882125854e-01 -7.235318422317504883e-02 -3.221909329295158386e-02 -1.150237992405891418e-01 3.452868014574050903e-02 5.710758641362190247e-02 3.329182416200637817e-02 -5.490463599562644958e-02 -8.052093535661697388e-02 -1.540040373802185059e-01 -1.072730645537376404e-01 9.297037869691848755e-02 -7.480005919933319092e-02 -1.133969649672508240e-01 -3.102689981460571289e-02 1.382618844509124756e-01 -4.878929257392883301e-02 -1.560605317354202271e-01 -1.056734472513198853e-01 -7.486617658287286758e-03 -2.182202599942684174e-02 -1.341053098440170288e-01 1.092601269483566284e-01 7.290404289960861206e-02 -1.466821134090423584e-01 5.131867527961730957e-02 -6.244655698537826538e-02 -1.045354157686233521e-01 -6.745781749486923218e-02 4.271389544010162354e-02 -1.709547489881515503e-01 9.793210029602050781e-02 -5.476666241884231567e-02 3.384642675518989563e-02 -1.675486266613006592e-01 -3.893228620290756226e-02 -2.133416831493377686e-01 1.034981086850166321e-01 -1.163349896669387817e-01 2.611511945724487305e-01 1.195595860481262207e-01 -1.469917036592960358e-02 1.017131004482507706e-02 -6.159055605530738831e-02 1.309048980474472046e-01 2.026835978031158447e-01 1.048700436949729919e-01 -4.803197085857391357e-02 1.033643931150436401e-01 -1.115386039018630981e-01 2.192469401052221656e-04 -1.222417652606964111e-01
9.963876008987426758e-02 7.262627780437469482e-02 6.966421008110046387e-02 -1.058853790163993835e-01 -1.006759926676750183e-01 6.311068683862686157e-02 -2.307955175638198853e-02 8.427409082651138306e-02 7.888401299715042114e-02 -9.794327616691589355e-02 -7.730150967836380005e-02 1.812961548566818237e-01 -1.730726957321166992e-01 -1.407177299261093140e-01 3.589297831058502197e-02 5.480997264385223389e-02 -9.451371431350708008e-02 1.108912378549575806e-01 -1.153946146368980408e-01 -1.288030445575714111e-01 -7.407458033412694931e-03 5.762574262917041779e-03 -8.039095997810363770e-02 7.430275529623031616e-02 -2.007360383868217468e-02 -7.061090320348739624e-02 -9.139699488878250122e-02 -3.796067088842391968e-02 -1.146514043211936951e-01 5.023566074669361115e-03 -1.728892512619495392e-02 2.030474506318569183e-02 -5.325105041265487671e-02 1.299752146005630493e-01 -9.077570587396621704e-02 -1.023691371083259583e-01 -3.844025358557701111e-02 3.599185124039649963e-02 -1.141933873295783997e-01 1.875941641628742218e-02 6.292638927698135376e-02 1.514912024140357971e-02 3.861861303448677063e-02 -1.509255263954401016e-02 -1.092706844210624695e-01 5.147171020507812500e-02 -3.856189921498298645e-02 -4.701511934399604797e-02 -1.550949811935424805e-01 -1.242696121335029602e-01 -8.673017472028732300e-02 5.896232277154922485e-02 -1.253074258565902710e-01 2.543316781520843506e-01 -1.821000427007675171e-01 7.000212371349334717e-02 -2.813230967149138451e-03 6.351002305746078491e-02 3.108768723905086517e-02 6.300923973321914673e-02 -5.895749852061271667e-02 -4.587905108928680420e-02 -4.932440817356109619e-02 5.249821767210960388e-02 -1.120904758572578430e-01 6.118013523519039154e-03 1.320453286170959473e-01 -1.197974830865859985e-01 2.056337520480155945e-02 -3.714408958330750465e-03 -2.021280825138092041e-01 -5.265980213880538940e-02 3.044890239834785461e-02 5.808920413255691528e-02 -9.843416512012481689e-02 -4.902168735861778259e-02 -9.449663013219833374e-02 -2.453565299510955811e-01 -1.192440986633300781e-01 2.536812797188758850e-02 -3.678917512297630310e-02 -1.177761182188987732e-01 -1.559215970337390900e-02 7.919496297836303711e-02 -8.165660314261913300e-03 -1.173147782683372498e-01 -1.300095207989215851e-02 7.432241737842559814e-02 3.903977200388908386e-02 -5.275598540902137756e-02 -6.620868295431137085e-02 1.339074373245239258e-01 7.395278662443161011e-03 -1.756016910076141357e-02 -1.324275732040405273e-01 1.467605680227279663e-01 9.314486384391784668e-02 2.283056080341339111e-02 2.225520461797714233e-02 -5.452557280659675598e-02 9.645070880651473999e-02 2.570667862892150879e-02 7.201135158538818359e-02 -9.315283596515655518e-02 3.785709291696548462e-02 2.003072202205657959e-01 1.960593461990356445e-01 3.978744521737098694e-02 -5.278027430176734924e-02 -2.039788477122783661e-02 -1.085077673196792603e-01 4.826775193214416504e-02 -2.037981599569320679e-01 -4.866973683238029480e-02 -7.836178690195083618e-02 -7.122181355953216553e-02 7.843356579542160034e-02 1.368127614259719849e-01 4.133333638310432434e-02 1.127978861331939697e-01 -3.968881443142890930e-02 -1.687447875738143921e-01 -2.991348132491111755e-02 -1.564989238977432251e-01 6.040775775909423828e-02 -5.968429893255233765e-02 -1.252299100160598755e-01 -1.427896022796630859e-01 -2.811859548091888428e-01 -7.735936343669891357e-02 -1.863693892955780029e-01 -2.204462289810180664e-01 1.028367653489112854e-01 1.384063214063644409e-01 9.265071153640747070e-02 6.577046215534210205e-02 1.071051210165023804e-01 1.226232573390007019e-01 -1.510501354932785034e-01 2.404817566275596619e-02 -9.922489523887634277e-02 -1.098399907350540161e-01 1.712377555668354034e-02 7.196243107318878174e-02 -1.897264420986175537e-01 -3.532960312440991402e-03 -3.917498886585235596e-02 2.258209884166717529e-02 9.002362191677093506e-02 -7.080531120300292969e-02 -1.878886669874191284e-01 5.167436599731445312e-02 3.092845343053340912e-02 -1.106990501284599304e-01 -3.621651604771614075e-02 -1.875318028032779694e-02 6.349659711122512817e-02 -5.695838481187820435e-02 1.065715998411178589e-01 -1.313300728797912598e-01 -6.014180555939674377e-02 5.840203538537025452e-02 -1.684076786041259766e-01 -4.277611523866653442e-02 1.331017315387725830e-01 -4.343274980783462524e-02 -7.831810414791107178e-02 -1.113286986947059631e-01 -1.157188639044761658e-01 -1.706581912003457546e-03 4.535060748457908630e-02 -7.171534001827239990e-02 -5.370717868208885193e-02 2.534335106611251831e-02 -2.267234027385711670e-01 9.752107784152030945e-03 -2.026604115962982178e-02 -5.058224126696586609e-02 -5.290631577372550964e-02 -2.348161302506923676e-02 1.447271406650543213e-01 -4.482988268136978149e-03 -3.970160335302352905e-02 5.390848219394683838e-02 -6.150515377521514893e-02 3.751884400844573975e-02 -1.328127086162567139e-01 5.874560680240392685e-03 -1.661644876003265381e-01 1.216379851102828979e-01 7.667303085327148438e-03 -6.111754104495048523e-02 -9.031727164983749390e-02 -1.682442799210548401e-02 -8.901779353618621826e-02 6.348001956939697266e-02 1.859943717718124390e-01 -2.576180361211299896e-02 -5.361966788768768311e-02 1.058572977781295776e-01 -1.576957702636718750e-01 5.299409478902816772e-02 9.653201699256896973e-02 1.582388067618012428e-04 -7.962509989738464355e-03 1.002796180546283722e-02 -4.196593910455703735e-02 1.936868019402027130e-02 -2.090449780225753784e-01 -7.729636132717132568e-02 -1.191042140126228333e-01 -3.643728047609329224e-02 -8.474459499120712280e-02 6.971789151430130005e-02 -4.219717904925346375e-02 -2.980232238769531250e-02 2.166723273694515228e-02 1.043749377131462097e-01 -6.140977144241333008e-03 1.197025552392005920e-01 -9.384698420763015747e-02 -1.058376282453536987e-01 -6.446874886751174927e-02 7.422329485416412354e-02 -7.358680665493011475e-02 3.093867562711238861e-02 -1.864746510982513428e-01 -4.658044502139091492e-02 -5.145134404301643372e-03 1.171197891235351562e-01 3.002151660621166229e-02 4.339356347918510437e-02 -1.433925479650497437e-01 5.823795497417449951e-02 -7.092810422182083130e-02 9.009887278079986572e-02 2.036282569169998169e-01 7.786823809146881104e-02 5.351776257157325745e-03 1.045381128787994385e-01 6.062511354684829712e-02 -5.159115791320800781e-02 1.966874301433563232e-02 1.892582513391971588e-02 -2.050236314535140991e-01 1.031581088900566101e-01 -2.773189917206764221e-02 -1.552906632423400879e-01 -3.632674738764762878e-02 1.608484387397766113e-01 7.210179418325424194e-02 -2.538912929594516754e-02 -8.032766729593276978e-02 -1.841839700937271118e-01 3.274677321314811707e-02 5.734133720397949219e-02
-1.699377782642841339e-02 -5.320797860622406006e-02 1.162677770480513573e-03 4.953509569168090820e-02 3.425445407629013062e-02 4.015792161226272583e-02 -1.439654976129531860e-01 -6.086918801884166896e-05 -3.410082682967185974e-02 -1.188864931464195251e-01 -4.159889370203018188e-02 -3.632364794611930847e-02 -6.703210622072219849e-02 9.377116803079843521e-04 7.277598977088928223e-02 -1.268785148859024048e-01 -3.240764513611793518e-02 6.851247698068618774e-02 2.893907576799392700e-02 -1.203220188617706299e-01 -1.746417768299579620e-02 -1.065372899174690247e-01 8.012596517801284790e-02 1.490918844938278198e-01 -7.498451042920351028e-03 -6.813004612922668457e-02 6.171239167451858521e-02 7.472086697816848755e-02 1.350670494139194489e-02 -1.037596836686134338e-01 3.067589551210403442e-02 -4.811080172657966614e-03 -7.711263746023178101e-02 1.521675139665603638e-01 -3.106867149472236633e-02 1.211470291018486023e-01 1.401264816522598267e-01 -4.754484072327613831e-02 1.294648051261901855e-01 -7.359458506107330322e-02 -6.353040039539337158e-02 -1.011817827820777893e-01 8.584721945226192474e-03 7.211309671401977539e-02 -1.143578626215457916e-02 9.674721956253051758e-02 -4.824722185730934143e-02 1.075046285986900330e-01 4.536182433366775513e-02 -3.217307105660438538e-02 1.155106816440820694e-03 4.556532949209213257e-02 1.814704015851020813e-02 -8.340279571712017059e-03 1.848026551306247711e-02 5.950369685888290405e-02 -1.406223922967910767e-01 1.112559363245964050e-01 -2.393900789320468903e-02 -1.354983299970626831e-01 7.552637904882431030e-02 1.062747910618782043e-01 -2.391893714666366577e-01 -9.326775372028350830e-02 5.534898117184638977e-02 4.137539071962237358e-04 6.634192913770675659e-02 -1.346756815910339355e-01 6.129158288240432739e-02 6.240927800536155701e-02 1.930170319974422455e-02 1.947635859251022339e-01 -1.726185828447341919e-01 -9.517067670822143555e-02 2.154758758842945099e-02 -6.830129027366638184e-02 -7.558434456586837769e-02 4.002224653959274292e-02 -1.424618661403656006e-01 1.539629846811294556e-01 6.307587027549743652e-02 -7.642064988613128662e-02 7.065296918153762817e-02 2.545550093054771423e-02 1.295038312673568726e-01 8.303885161876678467e-02 -7.227026671171188354e-02 1.336613148450851440e-01 1.588705480098724365e-01 -9.911362826824188232e-02 -2.870633639395236969e-02 -1.060819178819656372e-01 4.699486494064331055e-02 3.422834724187850952e-02 2.720830729231238365e-03 9.140995889902114868e-02 -9.370800107717514038e-02 9.087920933961868286e-02 6.004343554377555847e-02 -9.320405311882495880e-03 6.011001020669937134e-02 1.765038371086120605e-01 -1.835277229547500610e-01 -6.780441105365753174e-02 1.004105359315872192e-01 -1.686581075191497803e-01 -7.130423188209533691e-02 9.863552451133728027e-02 5.196937546133995056e-02 -1.244235225021839142e-02 -5.539536103606224060e-02 -1.570434570312500000e-01 6.821619719266891479e-02 1.190439239144325256e-02 -6.721825897693634033e-02 2.697482332587242126e-02 -9.741573035717010498e-02 4.910231009125709534e-02 1.210320442914962769e-01 -1.294836848974227905e-01 1.852423399686813354e-01 -1.203342899680137634e-01 -5.913272500038146973e-02 2.053921222686767578e-01 4.183813929557800293e-02 9.665504842996597290e-02 -1.243684142827987671e-01 -7.332193851470947266e-02 -1.167569961398839951e-02 5.039005726575851440e-02 1.025541871786117554e-01 1.955387741327285767e-02 -1.521357297897338867e-01 -2.493528425693511963e-01 -9.262555837631225586e-02 3.684060939121991396e-04 -5.242360290139913559e-03 -2.452621161937713623e-01 3.806177992373704910e-04 3.047919832170009613e-02 -1.101672947406768799e-01 1.223104521632194519e-01 -5.192978680133819580e-02 6.106438860297203064e-02 -2.551876306533813477e-01 5.342683196067810059e-02 -2.111873626708984375e-01 2.120549324899911880e-03 6.788507103919982910e-02 3.985771164298057556e-02 1.968316286802291870e-01 3.879911452531814575e-02 -7.889028638601303101e-02 6.556910462677478790e-03 -1.966037303209304810e-01 -8.234002441167831421e-02 9.189870208501815796e-02 1.057158708572387695e-01 -1.500496864318847656e-01 1.329364776611328125e-01 4.721454158425331116e-02 9.352665394544601440e-03 5.130229983478784561e-03 -5.967104434967041016e-02 5.967422574758529663e-02 -6.771750003099441528e-02 -2.015623822808265686e-02 5.359466653317213058e-03 -2.447860315442085266e-02 -7.423047721385955811e-02 -6.774283200502395630e-02 -1.338328607380390167e-02 -3.432757034897804260e-02 4.222581535577774048e-02 -3.325838362798094749e-03 -4.619014449417591095e-03 3.895148169249296188e-03 -6.790044903755187988e-02 4.034976474940776825e-03 -4.722849698737263680e-04 2.456356212496757507e-02 -8.678145706653594971e-02 -1.959866434335708618e-01 7.253962010145187378e-02 -2.938237786293029785e-02 -1.133571341633796692e-01 -1.599544435739517212e-01 4.703554138541221619e-02 -1.398155093193054199e-01 -1.071286853402853012e-02 1.043684259057044983e-01 -3.006259910762310028e-02 7.377603906206786633e-04 1.318589597940444946e-01 1.860604435205459595e-01 9.755750000476837158e-02 -3.999317064881324768e-02 1.243493147194385529e-02 -3.273541107773780823e-02 9.505884349346160889e-02 -3.509724512696266174e-02 -3.415681794285774231e-02 1.974915117025375366e-01 1.544442027807235718e-01 1.376217901706695557e-01 -7.195291668176651001e-02 -2.049495279788970947e-01 4.857488349080085754e-02 5.373634025454521179e-02 -2.636212669312953949e-02 3.305789828300476074e-02 9.542598575353622437e-02 -1.026238873600959778e-01 -6.745338439941406250e-02 4.814200475811958313e-02 2.750840038061141968e-02 -2.002287469804286957e-02 2.258458174765110016e-02 1.763453520834445953e-02 -5.927176401019096375e-02 -8.709291368722915649e-02 2.558431327342987061e-01 1.046600267291069031e-01 1.426052153110504150e-01 -1.111086606979370117e-01 -1.129492297768592834e-01 -9.091346710920333862e-02 -3.674538061022758484e-02 4.463168606162071228e-02 1.223637536168098450e-02 -7.384758442640304565e-02 -2.917260676622390747e-02 8.371558785438537598e-02 1.902779340744018555e-01 -5.945167504251003265e-03 -1.653036773204803467e-01 -1.803626120090484619e-01 -2.465019747614860535e-02 -8.844588883221149445e-04 -4.770963452756404877e-03 -2.981100603938102722e-02 -4.395183175802230835e-03 -1.322977244853973389e-01 5.075847357511520386e-02 6.806643214076757431e-03 -4.114838782697916031e-03 -1.540321856737136841e-01 7.842352613806724548e-03 -9.981413185596466064e-02 -4.652709700167179108e-03 4.361619427800178528e-02 1.572040095925331116e-02 -1.412335336208343506e-01 -1.412223130464553833e-01 -2.031524106860160828e-02 -1.064760386943817139e-01
-1.149399727582931519e-01 -4.792263731360435486e-02 1.706435084342956543e-01 -1.246128827333450317e-01 -8.940985798835754395e-02 1.683968752622604370e-01 -1.376039087772369385e-01 -1.207209452986717224e-01 1.965418271720409393e-02 -5.811633542180061340e-02 -7.060637231916189194e-03 -2.446165075525641441e-03 5.892497301101684570e-02 6.309977918863296509e-02 7.076356559991836548e-02 -1.090488862246274948e-02 4.490695893764495850e-02 -1.348949670791625977e-01 -1.326265335083007812e-01 -8.790713548660278320e-02 -1.334084570407867432e-01 -1.315062195062637329e-01 -1.360713094472885132e-01 -5.231622606515884399e-02 -7.397552579641342163e-02 7.968797534704208374e-02 -6.121269986033439636e-02 3.507878258824348450e-02 -3.243009746074676514e-02 1.831461638212203979e-01 7.865713536739349365e-02 6.276748608797788620e-03 -5.440248176455497742e-02 -4.892515018582344055e-02 -3.822674602270126343e-02 2.928278222680091858e-02 -3.911093808710575104e-03 -8.092124946415424347e-03 9.722697432152926922e-04 -1.337156724184751511e-02 1.040602028369903564e-01 -1.884580962359905243e-02 -1.449577212333679199e-01 -1.205787807703018188e-01 -1.918011903762817383e-01 -5.492049455642700195e-02 2.233256399631500244e-02 4.843235760927200317e-02 1.067441180348396301e-01 -5.250021070241928101e-02 1.686849892139434814e-01 -4.179498851299285889e-01 -2.090214937925338745e-01 5.598213151097297668e-02 -5.821705330163240433e-03 1.720997691154479980e-02 8.372417837381362915e-02 4.546929523348808289e-02 2.742268443107604980e-01 -9.071976877748966217e-03 6.159052997827529907e-02 1.952226273715496063e-02 1.468356251716613770e-01 1.713650487363338470e-02 -8.835436403751373291e-02 -5.879895761609077454e-02 7.863371074199676514e-02 9.320541471242904663e-02 -9.807346016168594360e-02 1.928245872259140015e-01 -2.220901101827621460e-02 9.750480949878692627e-02 -8.656264096498489380e-02 -1.395788136869668961e-02 7.874673604965209961e-02 -1.829115450382232666e-01 -6.794190406799316406e-02 1.294563263654708862e-01 -9.394473582506179810e-02 -1.263477057218551636e-01 2.950599603354930878e-02 -2.747337520122528076e-01 -2.469644397497177124e-01 5.472221598029136658e-02 -1.162184178829193115e-01 -4.165462777018547058e-02 -1.450014263391494751e-01 -9.433713555335998535e-02 -1.441751867532730103e-01 -1.409108787775039673e-01 1.126866489648818970e-01 -8.977510035037994385e-02 1.645439304411411285e-02 8.028004318475723267e-02 1.457910686731338501e-01 1.100357025861740112e-01 -8.619770407676696777e-02 -1.464820951223373413e-01 -5.508390441536903381e-02 1.283363252878189087e-01 -1.098965331912040710e-01 -1.637915708124637604e-02 -4.298093169927597046e-02 1.388762295246124268e-01 -4.991959035396575928e-02 -5.573744699358940125e-02 4.642037302255630493e-02 -1.820038706064224243e-01 6.085510179400444031e-02 1.687374338507652283e-02 -1.392824798822402954e-01 3.167384862899780273e-02 4.288888350129127502e-02 -1.784105300903320312e-01 2.843638136982917786e-02 1.105261743068695068e-01 -8.654955029487609863e-02 -1.227811872959136963e-01 -1.355711817741394043e-01 -1.907729059457778931e-01 8.911021053791046143e-03 1.562109030783176422e-02 -6.063091009855270386e-02 7.638600468635559082e-02 -1.177947968244552612e-01 6.654176115989685059e-02 -9.140307456254959106e-02 1.796266585588455200e-01 -6.810123473405838013e-02 9.559625387191772461e-02 7.059796154499053955e-02 3.591524437069892883e-02 -8.073122054338455200e-02 -7.918354123830795288e-02 2.729062549769878387e-02 -5.265284329652786255e-02 1.732311584055423737e-02 -7.152358442544937134e-02 1.500088721513748169e-01 -5.714759230613708496e-02 7.643555104732513428e-02 2.474772781133651733e-01 -7.139971107244491577e-02 -1.493091434240341187e-01 -1.448361277580261230e-01 1.103761792182922363e-01 -1.780594736337661743e-01 -8.498870581388473511e-02 8.358241617679595947e-02 5.929034575819969177e-02 -1.254677772521972656e-02 3.472373187541961670e-01 -1.651578210294246674e-02 1.157829761505126953e-01 3.397297486662864685e-02 -3.432621434330940247e-02 8.202911913394927979e-02 -3.417493402957916260e-02 -1.092193052172660828e-01 -1.057913452386856079e-01 -8.498785644769668579e-02 1.340704411268234253e-01 -8.898964524269104004e-02 1.328738220036029816e-02 -1.856860220432281494e-01 -1.981301903724670410e-01 -9.638604521751403809e-02 1.949930097907781601e-03 4.207963123917579651e-03 -2.711234055459499359e-02 -1.612309217453002930e-01 6.674753129482269287e-02 3.935206308960914612e-02 3.505027666687965393e-02 -1.402041912078857422e-01 2.731690881773829460e-03 8.248963207006454468e-02 -2.694564312696456909e-02 -1.354821175336837769e-01 -7.604043185710906982e-02 8.037626743316650391e-02 -5.662599951028823853e-02 7.886818796396255493e-02 2.375527173280715942e-01 1.238898411393165588e-01 -5.935575440526008606e-02 1.032721549272537231e-01 -2.134394133463501930e-03 1.181727647781372070e-02 1.097940802574157715e-01 -6.838937103748321533e-02 -1.245342567563056946e-01 1.763716787099838257e-01 1.029613390564918518e-01 -3.036706894636154175e-02 1.880545727908611298e-02 -1.343303024768829346e-01 -4.312327131628990173e-03 9.851344674825668335e-02 -6.339648365974426270e-02 4.651604965329170227e-02 -1.529111266136169434e-01 1.295713633298873901e-01 -2.219112217426300049e-02 -7.778146862983703613e-02 2.066192217171192169e-02 1.655682176351547241e-01 6.122780591249465942e-02 3.641336690634489059e-03 1.226954013109207153e-01 -8.657502382993698120e-02 9.176678955554962158e-03 8.063384145498275757e-02 -7.880032062530517578e-02 -9.808143228292465210e-02 -6.038577854633331299e-02 -1.533368229866027832e-01 3.483175858855247498e-02 7.727106660604476929e-02 -1.373251080513000488e-01 -2.507425844669342041e-02 1.950810700654983521e-01 8.910229802131652832e-02 -1.796770989894866943e-01 -4.575641453266143799e-02 2.014088630676269531e-01 -1.803021579980850220e-01 1.283621340990066528e-01 -1.116765886545181274e-01 -1.099328845739364624e-01 -1.682738363742828369e-01 -4.641266912221908569e-02 6.636711955070495605e-02 -6.887065246701240540e-04 -1.342937946319580078e-01 1.292597651481628418e-01 -9.412296116352081299e-02 -1.804684661328792572e-02 -1.352777890861034393e-02 -7.972992956638336182e-02 1.762671470642089844e-01 1.512715667486190796e-01 4.820897430181503296e-02 -1.313095260411500931e-02 2.319778501987457275e-01 3.092854470014572144e-02 -7.909604907035827637e-02 -5.407808348536491394e-02 -5.913230776786804199e-02 1.188215911388397217e-01 -1.182754561305046082e-01 -3.000818565487861633e-02 -2.778451144695281982e-02 -1.753543168306350708e-01 2.265112660825252533e-02 -1.550126969814300537e-01
-1.674315705895423889e-02 5.794930085539817810e-02 -5.166292563080787659e-02 -2.236671978607773781e-03 8.017375320196151733e-02 6.340286135673522949e-02 1.431381404399871826e-01 -1.210243999958038330e-02 -3.948897868394851685e-02 -8.004377037286758423e-02 2.143384702503681183e-02 8.602757751941680908e-02 -1.527598053216934204e-01 3.998768702149391174e-02 -5.620671808719635010e-02 1.206255704164505005e-01 -4.900552332401275635e-02 -2.960078045725822449e-02 -1.703336238861083984e-01 2.793519943952560425e-02 -1.288380846381187439e-02 -3.040624558925628662e-01 4.195183143019676208e-02 -1.639655381441116333e-01 6.892760843038558960e-02 -1.854661554098129272e-01 -5.205725878477096558e-02 -2.511488199234008789e-01 1.757947355508804321e-01 4.274185374379158020e-02 -8.919187821447849274e-03 4.296530410647392273e-02 3.394991904497146606e-02 8.069722354412078857e-02 8.362126350402832031e-02 -1.639185249805450439e-01 -4.377185553312301636e-02 1.139833927154541016e-01 -1.420597285032272339e-01 -2.461436986923217773e-01 -1.297365967184305191e-02 7.234729826450347900e-03 9.206739068031311035e-02 1.317105144262313843e-01 7.195641100406646729e-02 6.653698533773422241e-02 1.719302535057067871e-01 -8.899756520986557007e-02 -5.149872601032257080e-02 8.943594992160797119e-02 5.039319396018981934e-02 9.044466912746429443e-02 2.795354090631008148e-02 -4.008683189749717712e-02 5.332449451088905334e-02 -1.217391714453697205e-01 2.166059613227844238e-02 7.869617640972137451e-02 -2.423342317342758179e-02 4.771960526704788208e-02 4.037997871637344360e-02 6.386013329029083252e-02 -8.191297203302383423e-02 -5.375562980771064758e-02 -4.437799099832773209e-03 -1.626763045787811279e-01 3.703030571341514587e-02 1.476880628615617752e-02 1.010561883449554443e-01 -1.101420000195503235e-01 -6.895779818296432495e-02 1.349315941333770752e-01 1.057292222976684570e-01 -6.943431496620178223e-02 7.365313172340393066e-02 9.817305952310562134e-02 -6.953954696655273438e-02 9.476026147603988647e-02 4.920637607574462891e-02 2.095117866992950439e-01 -1.478528231382369995e-01 4.147868603467941284e-02 7.450760155916213989e-02 -8.231571316719055176e-02 5.674137175083160400e-02 -5.227185785770416260e-02 2.460269480943679810e-01 8.849010802805423737e-03 1.534520685672760010e-01 -1.342071443796157837e-01 5.730710923671722412e-02 9.867873787879943848e-02 4.391689226031303406e-02 7.648626714944839478e-02 1.411488503217697144e-01 -6.644126772880554199e-02 -6.428208202123641968e-02 -6.738340109586715698e-02 -1.619498282670974731e-01 -1.154891029000282288e-01 -6.472624093294143677e-02 -4.788957536220550537e-02 -1.145330369472503662e-01 -2.252861559391021729e-01 -6.723441183567047119e-02 -3.098140470683574677e-02 -2.692739665508270264e-02 -1.612503826618194580e-01 -3.994638472795486450e-02 -4.675361514091491699e-02 -1.373100876808166504e-01 -1.468306630849838257e-01 3.090228885412216187e-02 -7.241247594356536865e-02 2.930353581905364990e-02 -5.427326075732707977e-03 -1.334859281778335571e-01 -2.177270352840423584e-01 2.756950212642550468e-03 -6.584488600492477417e-02 -3.463377803564071655e-02 -6.788296625018119812e-03 -2.335289120674133301e-01 2.263659797608852386e-02 1.645563095808029175e-01 3.765712678432464600e-02 -4.559388384222984314e-02 -5.025885999202728271e-02 -4.967520013451576233e-02 -2.223156765103340149e-02 -8.283165842294692993e-02 -1.769854277372360229e-01 6.109698861837387085e-02 -1.008389145135879517e-01 2.138004153966903687e-01 -7.903259247541427612e-02 6.710083782672882080e-02 -1.358028054237365723e-01 3.369909152388572693e-02 7.100681960582733154e-02 1.426187157630920410e-01 -5.163334310054779053e-02 2.332453615963459015e-02 1.184460371732711792e-01 8.625151962041854858e-02 -3.362384438514709473e-02 -2.041380293667316437e-02 1.064677014946937561e-01 -1.703751622699201107e-03 -1.279060542583465576e-01 6.187130510807037354e-02 -6.761072576045989990e-02 -4.758241772651672363e-02 5.169655755162239075e-02 1.060996484011411667e-02 -1.914759911596775055e-02 -2.237580716609954834e-02 -4.089320078492164612e-02 -1.492140740156173706e-01 1.444577723741531372e-01 5.139214172959327698e-02 -1.312504559755325317e-01 6.328728049993515015e-02 1.155547872185707092e-01 -2.247675508260726929e-01 1.484274305403232574e-02 -5.496243387460708618e-02 -3.768917545676231384e-02 -8.887882530689239502e-02 -8.560334146022796631e-02 -5.010274052619934082e-02 3.652756288647651672e-02 -5.581521242856979370e-02 6.920411437749862671e-02 -5.256692692637443542e-02 -1.522328108549118042e-01 5.991793423891067505e-02 -3.249505907297134399e-02 -2.671487070620059967e-02 -3.262684494256973267e-02 8.063584100455045700e-04 4.166276380419731140e-02 -7.650483399629592896e-02 2.981764264404773712e-02 2.978497184813022614e-03 -1.042817533016204834e-01 4.099518060684204102e-02 -1.361446678638458252e-01 6.187968328595161438e-02 -8.814798295497894287e-02 6.413418799638748169e-02 -9.331881254911422729e-02 -7.685141265392303467e-02 -8.253541588783264160e-02 1.610844279639422894e-03 1.342747956514358521e-01 1.136485114693641663e-01 -5.296766757965087891e-02 -1.116905286908149719e-01 -7.999913766980171204e-03 -3.260532394051551819e-02 4.544794559478759766e-02 8.244363125413656235e-04 2.151701413094997406e-02 6.251871585845947266e-03 -2.296841703355312347e-02 9.316804260015487671e-02 7.280704379081726074e-02 -6.982459127902984619e-02 4.539794474840164185e-02 -2.845314517617225647e-02 -9.112288057804107666e-02 -2.057573944330215454e-01 8.413652330636978149e-02 -1.724181026220321655e-01 -4.936879128217697144e-02 2.949247881770133972e-02 -8.729463070631027222e-02 4.858447704464197159e-03 3.261153399944305420e-02 -1.576596498489379883e-01 -6.828130036592483521e-02 2.298418618738651276e-02 -3.220902755856513977e-02 1.657368848100304604e-03 6.098992750048637390e-02 -1.424539368599653244e-02 -3.381937742233276367e-02 -2.388215512037277222e-01 3.761068359017372131e-02 -4.624580219388008118e-02 -3.901240974664688110e-02 -9.173747152090072632e-03 3.513709455728530884e-02 1.370305418968200684e-01 1.188588514924049377e-01 -1.278172582387924194e-01 -2.261902391910552979e-01 -6.124306097626686096e-02 2.377666532993316650e-01 -1.428617984056472778e-01 8.364105969667434692e-02 4.893984645605087280e-02 -1.141565442085266113e-01 7.902894169092178345e-02 -8.576537482440471649e-03 -1.981893368065357208e-02 -9.048949182033538818e-02 -9.244642220437526703e-03 -1.704873442649841309e-01 7.151846587657928467e-02 -2.179331928491592407e-01 -9.481616318225860596e-02 1.882974952459335327e-01 -1.878648437559604645e-02 -8.837208151817321777e-03
-7.760816067457199097e-02 8.119499683380126953e-02 3.863679990172386169e-02 -2.762865833938121796e-02 6.765594333410263062e-02 2.080531865358352661e-01 8.068024367094039917e-02 3.652302175760269165e-02 6.397094577550888062e-02 -4.142162948846817017e-02 1.360268294811248779e-01 -1.863885670900344849e-01 1.210304722189903259e-01 9.383253008127212524e-02 9.490050375461578369e-02 -1.431891024112701416e-01 5.941704660654067993e-02 -3.453710116446018219e-03 4.675026983022689819e-03 -3.884921669960021973e-01 -9.696633368730545044e-02 -2.018270492553710938e-01 4.894348233938217163e-02 4.963006451725959778e-02 -1.317329853773117065e-01 -2.048270255327224731e-01 6.680554244667291641e-03 2.018301934003829956e-01 1.176924332976341248e-01 -4.618617892265319824e-02 2.071808464825153351e-02 2.784627862274646759e-02 4.190494120121002197e-02 -7.540614902973175049e-02 3.128678724169731140e-02 4.572753608226776123e-02 6.326023954898118973e-03 -5.348489433526992798e-02 -5.286158993840217590e-02 6.151590868830680847e-02 -2.758449874818325043e-02 5.574337393045425415e-02 -1.016001254320144653e-01 -7.531072944402694702e-02 6.488286890089511871e-03 -2.389416657388210297e-02 3.496293723583221436e-02 7.574421912431716919e-02 8.691963553428649902e-02 -1.022810414433479309e-01 9.663460403680801392e-02 -1.923547387123107910e-01 3.559151291847229004e-02 -1.813509613275527954e-01 2.166915498673915863e-02 -1.057449057698249817e-01 -6.362349539995193481e-02 -4.879732150584459305e-03 -3.755323961377143860e-02 -3.236218094825744629e-01 8.866862207651138306e-02 -6.004637852311134338e-02 -2.273407727479934692e-01 -1.366279739886522293e-02 -1.724155806005001068e-02 1.242699697613716125e-01 -6.827261298894882202e-02 -9.427407383918762207e-02 9.906258434057235718e-02 5.885857343673706055e-02 1.062359213829040527e-01 1.398495286703109741e-01 -3.485199809074401855e-01 4.023457691073417664e-02 1.366162598133087158e-01 -4.406544566154479980e-02 -2.523108851164579391e-03 8.119581639766693115e-02 7.583083957433700562e-02 -3.934117779135704041e-02 8.775190450251102448e-03 -1.306145824491977692e-02 4.112130776047706604e-02 2.489330619573593140e-02 -1.025397777557373047e-01 7.571879308670759201e-03 2.243034690618515015e-01 4.212555289268493652e-02 -4.908694885671138763e-03 4.993988573551177979e-02 1.026477739214897156e-01 -3.101589679718017578e-01 1.040762960910797119e-01 -5.674885213375091553e-02 1.258054096251726151e-02 6.700477004051208496e-02 9.105551242828369141e-02 1.095486432313919067e-01 1.560005247592926025e-01 9.913592040538787842e-02 -8.379237353801727295e-02 5.767355486750602722e-02 -8.378600329160690308e-02 -1.111053973436355591e-01 -9.723569452762603760e-02 -6.242493540048599243e-02 5.237373337149620056e-02 9.464005939662456512e-03 1.058165952563285828e-01 2.717967890202999115e-02 6.262457370758056641e-02 2.068033628165721893e-02 -1.385583728551864624e-01 -7.590331882238388062e-02 1.099277511239051819e-01 -1.556526683270931244e-02 5.903503671288490295e-02 1.014175415039062500e-01 -1.147299353033304214e-02 -8.397407829761505127e-03 -2.535143308341503143e-02 9.189701825380325317e-02 7.169273495674133301e-02 -8.351322263479232788e-03 6.855528056621551514e-02 -9.026326984167098999e-02 8.320718258619308472e-02 1.043111309409141541e-01 -5.225659813731908798e-03 2.280172705650329590e-02 4.381087422370910645e-02 6.179269030690193176e-02 2.268831282854080200e-01 -4.200770854949951172e-01 7.078719884157180786e-02 2.813433669507503510e-02 8.126141875982284546e-02 -1.944604068994522095e-01 -8.076725155115127563e-02 2.007477134466171265e-01 6.504127383232116699e-02 -4.623266309499740601e-02 4.674432054162025452e-02 1.097799167037010193e-01 -2.457587867975234985e-01 1.295452266931533813e-01 -1.162746399641036987e-01 3.036469221115112305e-02 -1.085588932037353516e-01 5.552223417907953262e-03 1.210478469729423523e-01 2.524073123931884766e-01 5.783567950129508972e-02 5.395582318305969238e-02 6.199060007929801941e-02 6.668628193438053131e-03 -1.189523339271545410e-01 8.855782449245452881e-03 1.209200732409954071e-02 9.954778850078582764e-02 -1.901088953018188477e-01 1.085616126656532288e-01 -1.542800515890121460e-01 7.552175968885421753e-02 -6.796933710575103760e-02 5.082256346940994263e-02 -1.049894765019416809e-01 1.128439791500568390e-02 2.071643434464931488e-02 1.314708497375249863e-04 -1.454870998859405518e-01 -1.016476899385452271e-01 1.902394294738769531e-01 1.703681051731109619e-01 -2.844582125544548035e-02 -3.160042688250541687e-02 7.567296177148818970e-02 -1.233058646321296692e-01 4.671726003289222717e-02 2.347271442413330078e-01 4.373366013169288635e-03 9.770967811346054077e-02 8.681897073984146118e-03 -1.624589972198009491e-02 8.006406575441360474e-02 -1.015686020255088806e-01 -1.775404252111911774e-02 1.278541833162307739e-01 -8.053761906921863556e-03 -1.651238650083541870e-01 -1.957318186759948730e-02 4.866699501872062683e-02 6.278582662343978882e-02 -5.029761046171188354e-02 2.564495615661144257e-02 -1.160673946142196655e-01 -2.877723611891269684e-02 -9.279741346836090088e-02 2.561402320861816406e-02 -9.461472183465957642e-02 -1.419052202254533768e-02 9.373131394386291504e-02 -1.479862779378890991e-01 -3.959203511476516724e-02 -4.651378840208053589e-02 9.691195935010910034e-02 1.320994347333908081e-01 -5.215858668088912964e-02 7.418277114629745483e-02 7.706190645694732666e-02 3.302677348256111145e-02 1.358067691326141357e-01 1.173239201307296753e-01 -1.230907589197158813e-01 -8.689482696354389191e-03 -8.289250731468200684e-02 -1.045232117176055908e-01 9.895800799131393433e-02 5.832773633301258087e-03 -8.873164653778076172e-02 9.699162840843200684e-02 -1.866563782095909119e-02 6.410098820924758911e-02 -5.146647337824106216e-03 -8.798620104789733887e-02 2.157940417528152466e-01 -1.299505382776260376e-01 8.478005230426788330e-02 1.697671040892601013e-02 3.942946717143058777e-02 -7.364354282617568970e-02 1.077713817358016968e-01 9.787586331367492676e-02 -3.173850476741790771e-01 -3.643919155001640320e-02 5.428316444158554077e-02 -8.314861357212066650e-02 1.975987479090690613e-02 3.058068081736564636e-02 -1.929993182420730591e-01 1.067418530583381653e-01 -5.756588280200958252e-02 1.320798546075820923e-01 1.012657433748245239e-01 4.838172346353530884e-02 2.518169209361076355e-02 7.957665622234344482e-02 -1.028246656060218811e-01 -1.206741183996200562e-01 6.388926506042480469e-02 3.755427896976470947e-02 -7.159622013568878174e-02 6.047133821994066238e-03 -1.989682950079441071e-02 -7.152950763702392578e-02 -5.747225135564804077e-02
-1.916656345129013062e-01 -1.692244261503219604e-01 1.157124433666467667e-02 -7.005575299263000488e-02 7.645154744386672974e-02 6.017671525478363037e-02 -3.846757709980010986e-01 -2.908135298639535904e-03 -6.404321640729904175e-02 -1.772391498088836670e-01 5.402588099241256714e-02 2.116727642714977264e-02 -1.892075501382350922e-02 1.198972016572952271e-01 5.010322853922843933e-02 1.160388290882110596e-01 -7.815548032522201538e-02 -2.064051032066345215e-01 -1.225202828645706177e-01 7.451210170984268188e-02 -2.457458972930908203e-01 5.294337123632431030e-02 -9.838494658470153809e-02 -1.266592442989349365e-01 -3.783741965889930725e-02 -6.016205623745918274e-02 6.997857987880706787e-02 -1.723478287458419800e-01 -8.649754524230957031e-02 -1.110766455531120300e-01 -8.713150024414062500e-02 6.144943460822105408e-02 2.730086259543895721e-02 1.935393512248992920e-01 1.391097009181976318e-01 4.712092131376266479e-02 1.500949636101722717e-02 -1.010533422231674194e-01 -4.637076053768396378e-03 -3.534431010484695435e-02 -8.418177813291549683e-02 -1.783122718334197998e-01 -3.143301904201507568e-01 1.477525476366281509e-02 -2.336055636405944824e-01 -1.434632763266563416e-02 1.523360908031463623e-01 1.228696405887603760e-01 5.293450132012367249e-02 1.267437636852264404e-01 -1.947530061006546021e-01 1.285215914249420166e-01 -2.381774038076400757e-01 1.942303627729415894e-01 7.740575075149536133e-02 1.494438052177429199e-01 1.652625054121017456e-01 3.301517572253942490e-03 -7.696075737476348877e-02 -2.365414351224899292e-01 6.151606887578964233e-02 -3.359486535191535950e-02 -9.507606178522109985e-02 -7.023441046476364136e-02 -2.390815019607543945e-01 -1.911523751914501190e-02 -1.184069272130727768e-02 -4.804366035386919975e-04 -9.655316174030303955e-02 5.329063907265663147e-02 3.329300880432128906e-02 -1.315486282110214233e-01 1.532716397196054459e-02 1.196523457765579224e-01 -1.903223805129528046e-03 -1.439284086227416992e-01 -2.825510501861572266e-01 -4.689542576670646667e-02 -1.694685965776443481e-01 -8.803029358386993408e-02 1.068649068474769592e-01 -2.206476032733917236e-01 1.569110006093978882e-01 7.203259319067001343e-02 -4.289751499891281128e-02 1.193840801715850830e-01 -2.904227375984191895e-01 1.122022345662117004e-01 5.581030249595642090e-02 -6.900974363088607788e-02 1.082101017236709595e-01 9.200553596019744873e-02 -8.164103329181671143e-02 -6.195423379540443420e-02 -2.470090538263320923e-01 7.103091105818748474e-03 -2.035415917634963989e-01 -2.634580247104167938e-02 -5.505487322807312012e-02 -1.177735440433025360e-02 7.419673353433609009e-02 1.982957497239112854e-02 2.271684855222702026e-01 -3.455481827259063721e-01 1.524318754673004150e-01 3.121661022305488586e-02 9.736625105142593384e-02 4.379815980792045593e-02 -7.854836434125900269e-02 -5.152416825294494629e-01 2.421760745346546173e-02 1.675217300653457642e-01 1.157006770372390747e-01 8.250139653682708740e-02 1.243337914347648621e-01 -1.657963097095489502e-01 7.879434525966644287e-02 -9.936062246561050415e-02 1.115341633558273315e-01 -4.193400740623474121e-01 1.068436056375503540e-01 2.248558402061462402e-02 -2.930648624897003174e-01 -6.112157180905342102e-02 -3.932332992553710938e-02 6.902790814638137817e-02 -2.690978050231933594e-01 -1.531227584928274155e-02 -3.062867186963558197e-02 7.466630637645721436e-02 -1.054778695106506348e-02 3.058176860213279724e-02 -1.659142412245273590e-02 8.196401596069335938e-02 8.798564970493316650e-02 -1.872415989637374878e-01 -1.664946042001247406e-02 3.251661360263824463e-02 -1.073786094784736633e-01 -9.726017713546752930e-02 -1.902452558279037476e-01 9.741140156984329224e-02 -1.996102184057235718e-02 -1.947418004274368286e-01 -2.473271265625953674e-02 -1.354189775884151459e-02 -2.459620591253042221e-03 7.461427897214889526e-02 -2.514788210391998291e-01 8.062829077243804932e-02 7.160242646932601929e-02 7.153025269508361816e-02 -9.485013037919998169e-02 4.441105201840400696e-02 2.995526194572448730e-01 -3.445075079798698425e-02 -1.073296088725328445e-02 -4.471836984157562256e-02 -1.193543374538421631e-01 2.447289042174816132e-02 1.416585892438888550e-01 -5.357045680284500122e-02 5.467419698834419250e-02 1.317905820906162262e-02 -1.286932379007339478e-01 1.108276844024658203e-02 1.466697081923484802e-02 1.801999658346176147e-02 1.948112845420837402e-01 -4.151515662670135498e-02 -3.849516808986663818e-02 -7.594468444585800171e-02 1.672902493737637997e-03 -8.258536458015441895e-02 3.472669795155525208e-02 5.998504906892776489e-02 -1.292493380606174469e-02 -5.532564222812652588e-02 -8.440581709146499634e-02 9.287100285291671753e-03 9.415043890476226807e-02 9.466730803251266479e-02 2.668260335922241211e-01 7.884570211172103882e-02 3.958938643336296082e-02 4.414454475045204163e-02 -5.942398682236671448e-02 -1.120267137885093689e-01 -2.367849797010421753e-01 -6.763938814401626587e-02 3.359224274754524231e-02 -2.669629827141761780e-02 1.143163219094276428e-01 1.004429459571838379e-01 1.481732577085494995e-01 3.192944526672363281e-01 -5.408181995153427124e-02 -1.356560550630092621e-02 1.064590364694595337e-01 4.284686967730522156e-02 1.130021922290325165e-02 -8.894904702901840210e-02 -2.123577520251274109e-02 -1.455936487764120102e-02 -1.368072777986526489e-01 6.041464582085609436e-02 -1.966086775064468384e-01 -2.383110970258712769e-01 -1.633349210023880005e-01 5.496842414140701294e-02 7.897176593542098999e-02 -1.227411106228828430e-01 8.738177269697189331e-02 5.666128545999526978e-02 -1.091882213950157166e-01 5.313673615455627441e-02 -5.340594798326492310e-02 6.422302126884460449e-02 1.794922351837158203e-01 -7.224976271390914917e-02 8.465974032878875732e-02 -4.445591568946838379e-01 6.275948882102966309e-02 4.682328924536705017e-02 2.932263165712356567e-02 -5.618435740470886230e-01 -1.672189682722091675e-01 -9.456507116556167603e-02 -1.122379899024963379e-01 -1.510000377893447876e-01 -8.395828306674957275e-02 -1.568244397640228271e-02 5.192076042294502258e-02 -1.676826365292072296e-02 -2.494478039443492889e-02 -6.132919788360595703e-01 -1.718816459178924561e-01 5.521349236369132996e-02 -2.999329268932342529e-01 1.312519162893295288e-01 6.689475476741790771e-02 -2.014412879943847656e-01 -8.990244567394256592e-02 2.156451046466827393e-01 8.156196027994155884e-02 -4.217416793107986450e-02 -4.277539253234863281e-02 3.673164173960685730e-02 -6.046613212674856186e-03 3.265861421823501587e-02 3.802446182817220688e-03 9.382194280624389648e-02 2.782820761203765869e-01 -3.721804022789001465e-01 -5.190976336598396301e-02 -1.502682566642761230e-01
1.836126483976840973e-02 3.497351333498954773e-02 -2.321896888315677643e-02 -2.950106933712959290e-02 4.569579614326357841e-04 5.422252044081687927e-02 -1.197461858391761780e-01 -4.963705316185951233e-02 -5.832074955105781555e-02 -2.144049294292926788e-02 -8.249388635158538818e-02 -1.067696437239646912e-01 -8.518766611814498901e-03 6.233654543757438660e-02 1.383155584335327148e-01 -1.381218880414962769e-01 -7.280606776475906372e-03 3.109402582049369812e-02 8.016893267631530762e-02 -3.402990996837615967e-01 3.799707046709954739e-04 4.086085781455039978e-02 1.298382580280303955e-01 -1.591380238533020020e-01 1.613090485334396362e-01 -3.750569745898246765e-02 5.830737203359603882e-02 -3.740070387721061707e-02 6.519311666488647461e-02 4.828945919871330261e-02 7.530473917722702026e-02 7.116246968507766724e-02 -5.621893331408500671e-03 1.583307981491088867e-01 -8.074160665273666382e-02 1.355625689029693604e-02 3.913345187902450562e-02 4.922245442867279053e-02 1.000874266028404236e-01 4.362761974334716797e-03 -5.454898253083229065e-02 2.423590607941150665e-02 4.307699576020240784e-02 -2.154362201690673828e-02 3.403290733695030212e-02 8.543539792299270630e-03 -9.925423189997673035e-03 -2.166970819234848022e-02 6.784959259675815701e-05 -1.154714748263359070e-01 8.961478620767593384e-02 -4.781317710876464844e-02 1.346661299467086792e-01 -3.663855791091918945e-02 2.236677408218383789e-01 1.087568327784538269e-02 -1.579671502113342285e-01 1.285655349493026733e-01 -2.982419356703758240e-02 -1.578277796506881714e-01 4.549598693847656250e-02 5.845037102699279785e-02 -2.542627155780792236e-01 -1.227100715041160583e-01 5.161757767200469971e-02 9.295799583196640015e-02 -5.462653562426567078e-02 -3.738929703831672668e-02 1.251915395259857178e-01 4.791088774800300598e-02 2.700809203088283539e-02 2.214538119733333588e-02 -2.015961408615112305e-01 -6.868146359920501709e-03 -2.159360051155090332e-02 -2.142233774065971375e-02 -1.837276667356491089e-01 7.668020576238632202e-02 -5.952056869864463806e-02 1.384262442588806152e-01 4.107644408941268921e-02 5.661492422223091125e-02 1.808042377233505249e-01 -6.458651274442672729e-02 -2.999038202688097954e-03 1.712074279785156250e-01 1.552820056676864624e-01 3.976664040237665176e-03 -9.932319074869155884e-02 6.824381649494171143e-02 8.250427991151809692e-02 -5.923109129071235657e-02 1.302088797092437744e-01 1.249331235885620117e-01 4.841368645429611206e-02 -8.105389773845672607e-02 9.478649497032165527e-02 8.399092406034469604e-02 7.003974169492721558e-02 6.374170631170272827e-02 1.552637666463851929e-02 2.312512695789337158e-02 -2.518659830093383789e-01 1.056917980313301086e-01 -1.053929775953292847e-01 -6.421311199665069580e-02 -1.064065322279930115e-01 1.242756247520446777e-01 -5.253883078694343567e-03 4.033343493938446045e-02 -3.045614808797836304e-02 -3.223537281155586243e-02 -5.150044336915016174e-02 -2.077784016728401184e-02 -9.885412454605102539e-02 4.374715313315391541e-02 1.021954193711280823e-01 -5.479465425014495850e-02 -3.853363171219825745e-02 2.480644732713699341e-01 1.035628840327262878e-01 1.248034313321113586e-01 -6.753669679164886475e-02 1.187482848763465881e-01 2.232761122286319733e-03 -1.312266290187835693e-01 -2.120493501424789429e-01 -8.897975087165832520e-02 1.225649192929267883e-01 5.640632659196853638e-02 -1.395971924066543579e-01 -1.291226148605346680e-01 3.764196857810020447e-02 -4.170871078968048096e-01 -4.498725291341543198e-03 -7.475450634956359863e-02 -1.209577694535255432e-01 -2.045134454965591431e-01 -3.440813720226287842e-02 -1.253931373357772827e-01 -2.354509569704532623e-02 -4.277956206351518631e-03 -7.383333891630172729e-02 1.047160178422927856e-01 -4.852986335754394531e-01 4.451011866331100464e-02 -1.810714453458786011e-01 1.161651238799095154e-01 -8.661617338657379150e-02 -4.565055668354034424e-02 -5.872509442269802094e-03 -1.369311362504959106e-01 2.064775489270687103e-02 7.040444761514663696e-02 -1.507825404405593872e-01 -3.924228250980377197e-02 1.226737909018993378e-02 5.967433378100395203e-02 -5.432274192571640015e-03 9.009268134832382202e-02 -9.206375479698181152e-02 -8.385213091969490051e-03 -8.699534833431243896e-02 -9.476476907730102539e-02 6.667552143335342407e-02 4.666619747877120972e-02 -2.559645473957061768e-02 8.505804091691970825e-02 -1.149923279881477356e-01 -3.558373078703880310e-02 -1.973450779914855957e-01 -9.450146555900573730e-02 8.312290161848068237e-02 2.143797129392623901e-01 8.176210685633122921e-04 -8.568575978279113770e-02 -1.033875122666358948e-01 -2.148390412330627441e-01 -3.288082778453826904e-02 1.676133833825588226e-02 8.585649728775024414e-02 5.066300276666879654e-03 -1.585960537195205688e-01 9.188816696405410767e-02 -2.167634200304746628e-03 -3.421439602971076965e-02 4.791832994669675827e-03 6.509533524513244629e-02 -2.908301912248134613e-02 7.426809519529342651e-02 3.053455352783203125e-01 -7.999762147665023804e-02 4.665957018733024597e-02 3.452455252408981323e-02 4.357989877462387085e-02 8.026516437530517578e-02 -1.137991994619369507e-01 -2.223911508917808533e-02 1.901693195104598999e-01 -4.882147914031520486e-05 6.624998152256011963e-02 -6.846138834953308105e-02 -5.718818679451942444e-02 -2.956017479300498962e-02 -2.143383771181106567e-02 1.242905259132385254e-01 1.956662237644195557e-01 -8.639935404062271118e-02 -2.813383005559444427e-02 8.102864027023315430e-03 -1.709119230508804321e-01 -1.228955090045928955e-01 -5.285670235753059387e-02 -7.704296708106994629e-02 1.788195073604583740e-01 -1.054725609719753265e-02 -3.365002200007438660e-02 1.000785455107688904e-01 1.264901161193847656e-01 9.541742503643035889e-02 -3.011859394609928131e-02 6.605932116508483887e-02 -3.716079285368323326e-03 5.208407342433929443e-02 8.613287657499313354e-02 8.871135860681533813e-02 9.477242082357406616e-02 2.785200439393520355e-02 8.185658603906631470e-02 1.830316036939620972e-01 6.078654527664184570e-02 -3.500523045659065247e-02 -2.055679261684417725e-02 -8.871269971132278442e-02 1.058028563857078552e-01 4.421288520097732544e-02 2.546823024749755859e-02 -1.457863487303256989e-02 3.950293734669685364e-02 -9.043227136135101318e-02 -3.520552814006805420e-02 -1.712924391031265259e-01 4.341008141636848450e-02 -7.258775085210800171e-02 5.891387537121772766e-02 1.403468102216720581e-02 2.251896075904369354e-02 8.344328962266445160e-03 8.212263882160186768e-02 -1.645559370517730713e-01 -2.907364442944526672e-02 -9.316334128379821777e-02 -2.288934029638767242e-02 4.593123123049736023e-02 -7.118375599384307861e-02 3.117467276751995087e-02
1.007530316710472107e-01 7.161613553762435913e-02 9.398236870765686035e-02 -7.937639951705932617e-02 -1.129336133599281311e-01 3.929945454001426697e-02 9.858514368534088135e-02 3.772879252210259438e-03 -1.780896484851837158e-01 1.387796550989151001e-01 -6.290134042501449585e-03 -2.222408168017864227e-02 -1.931380480527877808e-02 -5.896927043795585632e-02 1.086902916431427002e-01 -1.066681295633316040e-01 -5.614637397229671478e-03 -6.724545359611511230e-02 -7.785563170909881592e-02 -3.237403035163879395e-01 -9.836370497941970825e-02 -5.978530645370483398e-02 -2.224355749785900116e-02 4.806127026677131653e-02 -1.432642061263322830e-02 4.971816763281822205e-02 -1.555186510086059570e-02 -7.444409281015396118e-02 1.576329171657562256e-01 -1.099101155996322632e-01 -4.746920987963676453e-02 -4.123305901885032654e-02 -6.303416937589645386e-02 2.153768576681613922e-02 -4.416862130165100098e-02 1.206684857606887817e-02 -9.279860556125640869e-02 -1.276969462633132935e-01 9.031566977500915527e-02 7.148018479347229004e-02 5.917734652757644653e-02 -1.472916901111602783e-01 2.707355469465255737e-02 1.003605127334594727e-01 9.598222374916076660e-02 -1.100537180900573730e-01 -1.618252545595169067e-01 6.408175081014633179e-02 -2.358759567141532898e-02 -7.648427039384841919e-02 -1.190357878804206848e-01 -2.889942191541194916e-02 1.019218713045120239e-01 9.149038046598434448e-02 1.531839072704315186e-01 3.408250585198402405e-02 4.655425250530242920e-02 8.178669214248657227e-02 -7.715518772602081299e-02 -1.614853143692016602e-01 1.520970910787582397e-01 4.743514209985733032e-02 -1.513681858777999878e-01 7.061950862407684326e-02 1.262628436088562012e-01 9.127129614353179932e-02 -1.771344058215618134e-02 8.462160080671310425e-02 6.477869302034378052e-02 6.105649843811988831e-02 -9.159178286790847778e-02 7.533724606037139893e-02 -2.711215317249298096e-01 1.622191816568374634e-01 1.102969795465469360e-01 2.380580408498644829e-03 -8.964603766798973083e-03 6.455702334642410278e-02 -7.785753160715103149e-02 3.392739221453666687e-02 1.335892826318740845e-01 1.029679402709007263e-01 -5.611632484942674637e-03 9.764172881841659546e-02 -2.489396929740905762e-02 4.704953357577323914e-02 8.835671097040176392e-02 -7.939092814922332764e-02 -1.792147904634475708e-01 -1.011445894837379456e-01 6.394349783658981323e-02 -1.150061637163162231e-01 -6.637971848249435425e-02 7.982935756444931030e-02 8.789350837469100952e-02 9.993448108434677124e-02 8.826801925897598267e-02 7.256320863962173462e-02 -7.953586429357528687e-02 8.153699338436126709e-02 1.013593971729278564e-01 9.621034562587738037e-02 3.011811524629592896e-02 -1.061608120799064636e-01 -2.733978442847728729e-02 -9.103594720363616943e-02 1.342746708542108536e-02 9.744028747081756592e-02 3.092049248516559601e-02 -8.058701455593109131e-02 1.809210702776908875e-02 -8.987960964441299438e-02 -6.366206705570220947e-02 -8.337817154824733734e-03 -6.161746010184288025e-02 1.105872262269258499e-02 -7.955591194331645966e-03 -9.114989638328552246e-02 -6.511320918798446655e-02 -1.474906653165817261e-01 1.707674376666545868e-02 2.987586893141269684e-02 -1.086046472191810608e-01 9.048936516046524048e-02 -1.107762157917022705e-01 3.287960961461067200e-02 4.179467912763357162e-03 8.796471357345581055e-02 9.879548102617263794e-02 6.605309247970581055e-02 3.281236812472343445e-02 -9.630250185728073120e-02 7.789997756481170654e-02 -2.547557353973388672e-01 6.782938260585069656e-03 -5.035771802067756653e-02 3.698055073618888855e-02 -2.637872658669948578e-02 -4.079742729663848877e-02 -5.444758757948875427e-02 1.103166043758392334e-01 5.688560754060745239e-02 -5.286087095737457275e-02 -2.672993019223213196e-02 -2.772976756095886230e-01 1.177898943424224854e-01 -8.587776869535446167e-02 8.927520364522933960e-03 -1.082618981599807739e-01 -2.307038195431232452e-02 2.349151670932769775e-02 3.171373531222343445e-02 -1.147080026566982269e-02 6.818740069866180420e-02 6.251420825719833374e-03 -1.053598001599311829e-01 -5.224445462226867676e-02 -1.582399825565516949e-03 -1.372454464435577393e-01 -2.425083518028259277e-02 -4.873620718717575073e-02 -8.548055589199066162e-02 7.330646365880966187e-02 6.440422032028436661e-03 -2.730143442749977112e-02 -1.198779791593551636e-01 -1.609624736011028290e-02 2.229211106896400452e-02 1.186755895614624023e-01 -2.187474397942423820e-03 -9.267796576023101807e-02 4.127233754843473434e-03 2.300302498042583466e-02 3.557775914669036865e-02 3.383770585060119629e-02 -9.817163646221160889e-02 -3.670046105980873108e-02 -1.672191619873046875e-01 2.158065885305404663e-02 4.722498357295989990e-02 1.135146245360374451e-01 7.442283630371093750e-02 -9.967611730098724365e-02 3.307056054472923279e-02 1.303609609603881836e-01 -7.869842648506164551e-02 -4.459317401051521301e-02 -9.482612460851669312e-02 8.660150319337844849e-02 -2.251944988965988159e-01 -1.003516372293233871e-02 -4.640331864356994629e-02 6.669452041387557983e-02 3.017523698508739471e-02 9.611852467060089111e-02 -2.677184343338012695e-02 -1.953448206186294556e-01 -6.173375621438026428e-02 2.611275017261505127e-02 -4.456732049584388733e-02 -1.717169433832168579e-01 4.494954273104667664e-02 5.027888808399438858e-03 7.743476331233978271e-02 1.369703561067581177e-01 -4.609941691160202026e-02 -4.539462551474571228e-02 -8.083026111125946045e-02 4.350614547729492188e-02 1.076794937252998352e-01 -5.350470542907714844e-02 3.840036690235137939e-02 -4.806055501103401184e-02 -1.248274277895689011e-02 8.938875794410705566e-02 4.982989653944969177e-02 -3.261438384652137756e-02 3.053430467844009399e-02 1.703086309134960175e-02 4.527194052934646606e-02 -4.066242650151252747e-02 1.330669075250625610e-01 2.992298640310764313e-02 3.896220354363322258e-03 -1.187528222799301147e-01 1.215873658657073975e-02 -1.301793903112411499e-01 -1.038748100399971008e-01 -6.738388910889625549e-04 9.285939857363700867e-03 -1.077517494559288025e-01 1.953003555536270142e-02 4.417547211050987244e-02 -1.586186587810516357e-01 -2.279797568917274475e-03 -1.584203392267227173e-01 -9.462853521108627319e-02 2.116885595023632050e-02 5.447779595851898193e-02 -6.447494029998779297e-03 7.052868604660034180e-02 -1.692082174122333527e-02 -5.629421398043632507e-02 -1.056984812021255493e-01 2.757021971046924591e-02 -5.039728060364723206e-02 -1.352222263813018799e-01 -7.704432308673858643e-02 -1.948951780796051025e-01 -9.403795003890991211e-02 9.074293076992034912e-02 -9.977701120078563690e-03 -1.613134145736694336e-01 -5.295977741479873657e-02 1.039958596229553223e-01 -1.337748020887374878e-01
3.527552261948585510e-02 8.383927866816520691e-03 4.608936142176389694e-03 2.026292085647583008e-01 -1.660876423120498657e-01 8.177416771650314331e-02 5.859818309545516968e-02 7.963076978921890259e-02 -1.919139362871646881e-02 -4.671741742640733719e-03 -6.532578915357589722e-02 -1.719048619270324707e-01 -6.113165244460105896e-02 6.990166753530502319e-02 1.484339237213134766e-01 -6.283562630414962769e-02 2.570407278835773468e-02 -1.677770614624023438e-01 -1.635092943906784058e-01 -4.202080070972442627e-01 3.291599825024604797e-02 -1.701772212982177734e-02 -1.472501456737518311e-02 1.029650717973709106e-01 5.496613681316375732e-02 -4.622218664735555649e-03 9.690934419631958008e-02 -3.362580016255378723e-02 3.804960474371910095e-02 1.549672894179821014e-02 -3.491837903857231140e-02 8.369355462491512299e-03 -1.306321918964385986e-01 -4.636457562446594238e-02 2.582117170095443726e-02 -1.539099402725696564e-02 -3.222861513495445251e-02 2.893826551735401154e-02 6.942587345838546753e-02 -4.462239891290664673e-02 1.295447233133018017e-03 -1.836327463388442993e-02 -1.635645031929016113e-01 -6.506655365228652954e-02 1.270832866430282593e-02 3.835937380790710449e-02 -1.105430424213409424e-01 7.186343520879745483e-02 4.321971908211708069e-02 -1.294165253639221191e-01 1.269853953272104263e-02 6.699671596288681030e-02 6.025117263197898865e-02 -6.641288101673126221e-02 1.645361185073852539e-01 -2.946900948882102966e-02 7.621151953935623169e-02 -1.401638425886631012e-02 1.308713555335998535e-01 -9.302008897066116333e-03 1.892035603523254395e-01 1.159719303250312805e-01 -2.212989479303359985e-01 2.710478007793426514e-02 2.324313623830676079e-03 1.304336637258529663e-01 -5.568546801805496216e-02 -2.842186577618122101e-02 1.104394793510437012e-01 8.925624936819076538e-02 6.347741186618804932e-02 8.150707185268402100e-02 -3.688858449459075928e-01 6.022240500897169113e-03 1.038571912795305252e-02 -5.079523473978042603e-02 -1.121821254491806030e-01 -5.795748159289360046e-02 -3.132096678018569946e-02 9.287776798009872437e-02 4.085434600710868835e-02 1.547957025468349457e-02 4.495914652943611145e-02 -2.611128240823745728e-02 -2.602557465434074402e-02 5.550816655158996582e-02 -2.016273327171802521e-03 1.077159717679023743e-01 -4.210143163800239563e-02 -1.798539236187934875e-02 9.679993987083435059e-02 -2.266560643911361694e-01 1.006138175725936890e-01 -2.549125254154205322e-02 2.597128041088581085e-02 -1.790587604045867920e-02 2.276795208454132080e-01 9.637751430273056030e-02 1.297280490398406982e-01 1.589448191225528717e-02 1.264184117317199707e-01 8.347667008638381958e-02 -2.142109423875808716e-01 1.627329550683498383e-02 9.513623267412185669e-02 -1.398213021457195282e-02 -1.697920858860015869e-01 -7.895772904157638550e-02 9.556163102388381958e-02 -5.610956624150276184e-02 -3.249630704522132874e-02 -6.659390032291412354e-02 -1.505820453166961670e-01 -4.320834949612617493e-02 1.091939955949783325e-01 8.634600788354873657e-02 7.793585956096649170e-02 -5.717373266816139221e-02 -8.735084533691406250e-02 -1.448954790830612183e-01 1.589911058545112610e-02 1.875748299062252045e-02 -7.866383343935012817e-02 -2.190662361681461334e-02 -1.251251846551895142e-01 3.455579280853271484e-02 -2.013166397809982300e-01 7.183059304952621460e-02 1.072636172175407410e-01 -1.059805415570735931e-02 -9.070950001478195190e-02 -2.143029868602752686e-02 2.324265427887439728e-02 -3.650956749916076660e-01 4.833667352795600891e-02 -1.813659369945526123e-01 3.599017113447189331e-02 -1.370430737733840942e-01 -2.062471583485603333e-02 -8.451341092586517334e-02 -1.117898896336555481e-02 3.841460868716239929e-02 6.460519134998321533e-02 1.375498175621032715e-01 -4.165209829807281494e-01 2.257018350064754486e-02 -9.435597807168960571e-02 1.363349556922912598e-01 -1.803117096424102783e-01 -9.605596959590911865e-02 8.369056135416030884e-02 -7.544697821140289307e-02 -6.895058602094650269e-02 1.794504118151962757e-03 -7.900752127170562744e-02 7.541620638221502304e-03 -5.116709694266319275e-02 3.598664328455924988e-02 8.864873647689819336e-02 8.459749072790145874e-02 5.552050843834877014e-02 4.462708532810211182e-02 -6.338229030370712280e-02 6.738817319273948669e-03 8.003401756286621094e-02 -7.535357028245925903e-02 3.586111962795257568e-02 -1.232967246323823929e-02 -1.374838594347238541e-02 -8.283129334449768066e-02 -1.220862045884132385e-01 1.034865081310272217e-01 1.042721271514892578e-01 9.320314973592758179e-02 8.322630822658538818e-02 -2.346198819577693939e-02 4.838518798351287842e-02 -1.674248874187469482e-01 5.505199544131755829e-03 -9.693589061498641968e-03 -2.984790690243244171e-02 1.410052031278610229e-01 -1.887331455945968628e-01 1.360389590263366699e-02 1.196832284331321716e-01 -5.853813141584396362e-02 -1.420177519321441650e-02 -4.561699461191892624e-03 1.080164760351181030e-01 -6.034032255411148071e-02 -2.569573558866977692e-02 4.102883115410804749e-02 5.648246780037879944e-02 -2.190903760492801666e-02 1.114297509193420410e-01 1.631236076354980469e-02 -9.969040006399154663e-02 -1.030513737350702286e-02 -1.633567512035369873e-01 1.160220280289649963e-01 1.703816801309585571e-01 1.539865583181381226e-01 6.532911956310272217e-02 1.587802767753601074e-01 -2.521551214158535004e-02 -3.600800782442092896e-02 -2.201622846769168973e-04 5.869197193533182144e-03 2.189154736697673798e-02 6.963058561086654663e-02 -2.005352266132831573e-02 1.412091553211212158e-01 -1.194182187318801880e-01 7.043591886758804321e-02 1.524756662547588348e-03 2.054522000253200531e-02 2.062026597559452057e-02 9.214007854461669922e-02 1.340834051370620728e-01 1.407232787460088730e-02 -7.118226587772369385e-02 -1.017403602600097656e-01 -7.225606590509414673e-02 1.999909803271293640e-02 8.464511483907699585e-02 -1.089850813150405884e-01 -1.295345835387706757e-02 8.840493112802505493e-02 -1.169482618570327759e-02 -2.216389775276184082e-02 -1.104441955685615540e-01 -4.267440363764762878e-02 1.010433286428451538e-01 -1.976583749055862427e-01 -2.069588005542755127e-02 -3.402991220355033875e-02 -1.402381509542465210e-01 4.543020389974117279e-03 3.326262533664703369e-02 -1.198375523090362549e-01 1.189696788787841797e-01 -2.178306132555007935e-02 -1.837433688342571259e-02 9.106595069169998169e-02 4.323497042059898376e-02 5.822099745273590088e-02 4.677237477153539658e-03 -1.292434334754943848e-01 -1.332962512969970703e-01 -1.130811795592308044e-01 7.940793782472610474e-02 -8.866377919912338257e-02 -7.275746762752532959e-02 -1.032494306564331055e-01 1.640305854380130768e-02 -1.533278673887252808e-01
-1.614935696125030518e-01 1.748661277815699577e-03 3.356597945094108582e-02 -1.053409799933433533e-01 9.794120490550994873e-02 -2.374789416790008545e-01 -6.197607889771461487e-02 -7.675687223672866821e-02 -1.387654058635234833e-02 -2.819816470146179199e-01 3.538805618882179260e-02 -1.260654926300048828e-01 -8.855222165584564209e-02 6.961841881275177002e-02 5.314970016479492188e-02 -1.468456685543060303e-01 -1.064884513616561890e-01 -4.243238829076290131e-03 -2.260028272867202759e-01 3.311130404472351074e-02 -6.291244924068450928e-02 3.776384145021438599e-02 7.926847785711288452e-02 6.774924695491790771e-02 -1.618713885545730591e-01 -5.422818660736083984e-02 1.219396144151687622e-01 9.668798744678497314e-02 7.111917436122894287e-02 -1.382915079593658447e-01 7.439794391393661499e-02 -1.351132392883300781e-01 5.540965590626001358e-03 -1.210272014141082764e-01 -1.815955638885498047e-01 -8.108277618885040283e-02 -3.265932202339172363e-01 4.382167011499404907e-03 8.492324501276016235e-02 -4.944852367043495178e-02 1.436946988105773926e-01 -2.082260698080062866e-02 -2.409922331571578979e-01 1.348323076963424683e-01 -1.611310392618179321e-01 7.933024317026138306e-03 3.908755257725715637e-02 2.072541229426860809e-02 -5.884415283799171448e-02 3.516890853643417358e-02 -1.248472332954406738e-01 -3.807266056537628174e-01 8.773464709520339966e-02 -2.330645732581615448e-02 1.567177027463912964e-01 -5.466688051819801331e-02 8.762042969465255737e-03 5.839814990758895874e-02 -1.982201039791107178e-01 6.457227468490600586e-02 3.203569352626800537e-02 8.125726133584976196e-02 -8.497902750968933105e-02 -5.915735661983489990e-02 -4.685838893055915833e-02 -1.181225627660751343e-01 -3.031450137495994568e-02 -2.989443950355052948e-02 -8.831012248992919922e-02 -6.020995322614908218e-03 4.844967275857925415e-02 3.150178492069244385e-02 1.035541296005249023e-02 1.990636065602302551e-02 1.935909241437911987e-01 -9.375382959842681885e-02 -9.059605747461318970e-02 -7.377192378044128418e-02 -2.148376554250717163e-01 -5.025032535195350647e-02 1.237098500132560730e-01 -2.189071327447891235e-01 -5.522453412413597107e-02 1.047393679618835449e-02 -1.221405062824487686e-02 -7.118182629346847534e-02 -6.946424841880798340e-01 -7.219760119915008545e-02 -4.159087315201759338e-02 -6.227539107203483582e-02 5.900255590677261353e-02 8.933178335428237915e-02 -3.387052193284034729e-02 -5.536679178476333618e-02 -2.918620593845844269e-02 -1.221806332468986511e-01 -2.001029402017593384e-01 -9.581220149993896484e-02 -7.353471219539642334e-02 2.985060028731822968e-02 1.235844716429710388e-01 1.268904805183410645e-01 1.083563715219497681e-01 6.578820943832397461e-02 -6.596597842872142792e-03 9.594180434942245483e-02 1.393595635890960693e-01 -7.075855880975723267e-02 2.512206323444843292e-02 -2.425424195826053619e-02 -4.234238713979721069e-02 9.555037319660186768e-02 1.092127338051795959e-01 -7.612854242324829102e-02 4.288841504603624344e-03 -1.234598010778427124e-01 -3.047558851540088654e-02 -8.372747898101806641e-02 7.007767260074615479e-02 -3.043990731239318848e-01 -5.028863437473773956e-03 8.515898138284683228e-02 -9.950392879545688629e-03 -2.589923702180385590e-02 4.446540772914886475e-02 1.477484405040740967e-01 -8.826819807291030884e-02 5.049090459942817688e-02 4.588031396269798279e-02 -6.742339581251144409e-02 5.063909292221069336e-02 -7.223527878522872925e-03 5.140918865799903870e-02 1.851909458637237549e-01 3.225591778755187988e-02 -1.503563020378351212e-02 -2.696858346462249756e-01 3.466112539172172546e-02 -1.516713947057723999e-01 -1.825512945652008057e-01 -2.988792955875396729e-02 9.244628250598907471e-02 -1.511738896369934082e-01 -1.359588354825973511e-01 2.506547234952449799e-02 7.350090891122817993e-02 -1.763267666101455688e-01 1.893160045146942139e-01 -2.659877948462963104e-02 1.951126754283905029e-02 3.993769362568855286e-02 2.001686394214630127e-01 -7.780624181032180786e-02 7.350291311740875244e-02 2.881992161273956299e-01 2.734879031777381897e-02 1.587272621691226959e-02 5.343866650946438313e-04 8.439339697360992432e-02 -3.696955740451812744e-02 -1.184132173657417297e-01 -1.452964097261428833e-01 -7.113426923751831055e-03 1.621822081506252289e-02 -2.115191519260406494e-01 3.997212275862693787e-02 1.730263978242874146e-02 7.029414176940917969e-02 5.615426227450370789e-03 -2.941560000181198120e-02 -8.857835829257965088e-02 2.270526289939880371e-01 2.541413344442844391e-02 8.293106220662593842e-03 -1.173583641648292542e-01 1.965912524610757828e-03 3.518805280327796936e-02 1.437054388225078583e-02 -8.376859873533248901e-02 3.288649395108222961e-02 5.710136517882347107e-02 -5.834534391760826111e-02 1.457301825284957886e-01 -1.068953275680541992e-01 -1.882949098944664001e-02 -8.805594593286514282e-02 3.300115466117858887e-02 -1.877384334802627563e-01 -1.193307638168334961e-01 -4.514297097921371460e-02 -5.392136424779891968e-02 6.485729664564132690e-02 1.353595405817031860e-01 -1.014298871159553528e-01 -1.221700459718704224e-01 6.021929532289505005e-02 -2.978847920894622803e-02 -4.349222406744956970e-02 1.031459644436836243e-01 3.410330042243003845e-02 3.832076909020543098e-03 7.214164733886718750e-02 6.822489202022552490e-02 7.412800937891006470e-02 -7.129136472940444946e-02 2.730376832187175751e-02 -1.618011146783828735e-01 -7.277680188417434692e-02 -1.363384872674942017e-01 -8.232941478490829468e-02 -5.271482467651367188e-02 -9.613919258117675781e-02 1.126124486327171326e-01 7.106078788638114929e-03 4.222815856337547302e-02 -3.345027565956115723e-02 1.095079332590103149e-01 4.236829932779073715e-03 1.760660484433174133e-02 -8.204515278339385986e-02 9.859209880232810974e-03 -6.062388792634010315e-02 1.445844024419784546e-01 1.883650422096252441e-01 -2.430931031703948975e-01 -2.512673735618591309e-01 -1.566282957792282104e-01 -6.805852800607681274e-02 -1.988896727561950684e-02 7.297629863023757935e-02 1.642979830503463745e-01 -7.829348742961883545e-02 -1.589369922876358032e-01 -4.774832725524902344e-02 -5.741826444864273071e-02 -4.415207505226135254e-01 3.194067999720573425e-02 4.021492600440979004e-02 -1.051691398024559021e-01 1.794824898242950439e-01 8.938198536634445190e-02 -7.236992567777633667e-02 -7.507599145174026489e-02 -5.043782666325569153e-02 1.370625048875808716e-01 -9.285070747137069702e-02 -9.819310158491134644e-02 -4.209834616631269455e-03 -2.000368088483810425e-01 -1.081975549459457397e-01 4.141127690672874451e-02 1.532045155763626099e-01 1.449089199304580688e-01 -4.003654122352600098e-01 6.714139133691787720e-02 3.230736404657363892e-02
