6.938379257917404175e-03
9.588680416345596313e-02
7.824307680130004883e-02
5.251063033938407898e-02
2.993932552635669708e-02
-2.532071247696876526e-02
-7.739627361297607422e-02
-1.061620842665433884e-02
-7.755845040082931519e-02
-1.328501105308532715e-01
-1.055690739303827286e-02
4.455311223864555359e-02
-7.581377401947975159e-03
-1.400585770606994629e-01
-7.695704698562622070e-02
-1.111128330230712891e-01
-1.260179132223129272e-01
-2.532555758953094482e-01
8.326924405992031097e-03
-5.965868011116981506e-02
-2.092056535184383392e-02
-7.639005780220031738e-02
1.851548403501510620e-01
-5.497348681092262268e-02
-3.705059364438056946e-02
-2.122511416673660278e-01
-6.124366447329521179e-02
-1.588816195726394653e-02
-4.993291571736335754e-02
-1.950046420097351074e-01
-5.142794921994209290e-02
8.194681257009506226e-03
-1.050134375691413879e-01
-1.234750822186470032e-01
-1.409855764359235764e-02
-1.019104570150375366e-01
-1.416727006435394287e-01
-6.980556249618530273e-02
-4.373076930642127991e-02
3.973176702857017517e-03
-3.824524581432342529e-02
-4.548127576708793640e-02
-1.445112377405166626e-01
3.036870993673801422e-02
-1.094570755958557129e-02
-1.615290194749832153e-01
-7.381523400545120239e-02
-1.761255413293838501e-01
-2.465424500405788422e-02
-1.556002199649810791e-01
-2.688478305935859680e-02
2.105002291500568390e-02
-5.916396901011466980e-02
-2.808757871389389038e-02
2.298568375408649445e-02
3.429987654089927673e-02
-6.620877981185913086e-02
-9.659589082002639771e-02
1.027659848332405090e-01
1.528163347393274307e-02
-6.302005797624588013e-02
-1.272744387388229370e-01
-8.331517875194549561e-02
-1.405451595783233643e-01
-1.033881753683090210e-01
-4.685140773653984070e-02
-2.976208552718162537e-02
7.456830237060785294e-03
-6.603278219699859619e-02
-7.762877643108367920e-02
-1.470468789339065552e-01
5.361718311905860901e-02
-1.894045621156692505e-02
5.229100212454795837e-02
9.244209527969360352e-02
-5.471788719296455383e-02
1.292233169078826904e-01
6.728937476873397827e-02
-1.584068685770034790e-01
-2.484439499676227570e-02
-5.240288004279136658e-02
-1.300632115453481674e-02
2.259774133563041687e-02
9.212882071733474731e-02
-2.066886276006698608e-01
-8.855812996625900269e-02
-2.783204801380634308e-02
-2.549645677208900452e-02
-1.474329978227615356e-01
4.355510696768760681e-02
-1.961414702236652374e-02
3.421204909682273865e-02
-2.993924170732498169e-02
2.782676741480827332e-02
-1.240506842732429504e-01
2.501996234059333801e-02
-5.812562629580497742e-02
-8.981104940176010132e-02
9.446794539690017700e-02
-4.095959290862083435e-02
8.719307370483875275e-03
-6.223367527127265930e-02
-4.783869162201881409e-02
-7.012823969125747681e-02
-1.162918135523796082e-01
-4.354716464877128601e-02
-1.851741224527359009e-01
-5.397795885801315308e-02
-9.662744402885437012e-02
-6.127317994832992554e-02
-8.186756819486618042e-02
-5.370614305138587952e-02
2.293234132230281830e-02
7.855575531721115112e-02
-2.045600712299346924e-01
-5.526658147573471069e-02
1.282252371311187744e-01
-1.431977152824401855e-01
-6.477133929729461670e-02
-1.726527065038681030e-01
-1.239335536956787109e-01
-8.167349547147750854e-02
-9.425938129425048828e-02
4.522487521171569824e-02
-6.862871348857879639e-02
-1.109969392418861389e-01
-2.027865648269653320e-01
-4.903200641274452209e-02
1.381767690181732178e-01
-4.909075051546096802e-02
-3.554729372262954712e-02
2.652934566140174866e-02
2.344374731183052063e-02
-7.269795238971710205e-02
1.112267374992370605e-01
1.026516929268836975e-01
1.215053256601095200e-02
-3.670154139399528503e-02
9.599195793271064758e-03
-7.793989032506942749e-02
1.803485602140426636e-01
-3.435380756855010986e-02
-2.710576914250850677e-02
5.430712830275297165e-03
-1.095324009656906128e-02
-1.702119037508964539e-02
7.707598060369491577e-02
-1.257401406764984131e-01
-1.265024393796920776e-01
6.281057745218276978e-02
3.828586265444755554e-02
-7.511235773563385010e-02
1.265458110719919205e-02
-5.489704781211912632e-04
-1.341943740844726562e-01
2.795241959393024445e-02
-1.408781707286834717e-01
6.975955516099929810e-02
-9.751217067241668701e-02
-4.218320548534393311e-02
-5.088809505105018616e-02
-2.063705353066325188e-03
-6.527778506278991699e-02
-1.031636670231819153e-01
7.102563977241516113e-02
-8.526166528463363647e-02
-9.779447689652442932e-03
-4.099781811237335205e-02
-4.798419773578643799e-03
-1.130264438688755035e-02
3.476565331220626831e-02
-8.528380841016769409e-02
-1.183734647929668427e-02
-6.328549981117248535e-02
-1.323603242635726929e-01
-1.206598617136478424e-02
-7.518213987350463867e-02
-1.225334256887435913e-01
2.458204142749309540e-02
-9.354881197214126587e-02
7.897596061229705811e-02
-1.592975556850433350e-01
1.034118011593818665e-01
-1.358368992805480957e-01
-2.517004311084747314e-02
-5.699932947754859924e-02
-5.584866926074028015e-02
-6.107528507709503174e-02
-4.583284258842468262e-03
-8.349908888339996338e-02
1.047852076590061188e-02
-5.425869300961494446e-02
3.578265011310577393e-02
2.010240918025374413e-03
1.568789929151535034e-01
-5.568911880254745483e-02
1.969860494136810303e-02
-9.138246625661849976e-02
-9.608384966850280762e-02
5.213220417499542236e-02
9.992518275976181030e-02
-4.400810971856117249e-02
-5.965593084692955017e-02
-1.570905148983001709e-01
1.238602474331855774e-01
-6.879449635744094849e-02
-6.663673557341098785e-03
-8.883929252624511719e-02
-6.561323255300521851e-02
2.314467914402484894e-02
-1.776216924190521240e-01
1.161893159151077271e-01
-4.056026041507720947e-02
-4.566842224448919296e-03
1.342557519674301147e-01
-6.061905995011329651e-02
-4.654604196548461914e-02
-8.414527028799057007e-02
-3.338232636451721191e-02
-7.372863590717315674e-02
-1.012743040919303894e-01
-8.094135671854019165e-02
-1.308005601167678833e-01
-4.051739722490310669e-02
3.474745526909828186e-02
-8.251540362834930420e-02
-1.223502308130264282e-01
-4.099660739302635193e-02
-3.146668896079063416e-02
-4.983239993453025818e-02
-1.058109253644943237e-01
-6.864991784095764160e-02
-5.976985767483711243e-02
6.702993065118789673e-02
6.731557101011276245e-02
-3.478280454874038696e-02
-5.817599967122077942e-02
-3.398031741380691528e-02
-9.518716484308242798e-02
1.043868623673915863e-02
-1.770790084265172482e-03
-8.668112754821777344e-02
-7.057451456785202026e-02
-6.219734996557235718e-02
-6.610587239265441895e-02
-1.680597290396690369e-02
-2.855635434389114380e-02
4.285062104463577271e-02
5.971324443817138672e-02
-8.689081668853759766e-02
-8.803834766149520874e-02
-9.032969921827316284e-02
5.188611149787902832e-02
-6.555842608213424683e-02
5.412343516945838928e-02
-8.753923326730728149e-02
