-6.986889839172363281e-01
-8.779893517494201660e-01
2.957766354084014893e-01
-4.452278614044189453e-01
4.265249371528625488e-01
-7.188872694969177246e-01
-6.308726668357849121e-01
2.395727485418319702e-01
3.871110975742340088e-01
3.537014722824096680e-01
4.476397335529327393e-01
-7.430129647254943848e-01
9.098444133996963501e-02
1.832384169101715088e-01
2.973397672176361084e-01
-6.082378029823303223e-01
-4.438983500003814697e-01
-8.460916876792907715e-01
2.581979930400848389e-01
-3.557695150375366211e-01
-2.381676435470581055e-01
4.435941278934478760e-01
5.878873914480209351e-02
-1.021228507161140442e-01
4.212517142295837402e-01
3.271690011024475098e-01
3.459853529930114746e-01
-6.263832449913024902e-01
-2.436048090457916260e-01
-5.112881064414978027e-01
-2.697390913963317871e-01
-3.537106513977050781e-01
4.170329272747039795e-01
2.217782288789749146e-01
-3.888919055461883545e-01
1.693733334541320801e-01
7.188460975885391235e-02
1.810854375362396240e-01
2.341672033071517944e-01
4.751144647598266602e-01
-5.497651696205139160e-01
-7.923014163970947266e-01
-4.974993765354156494e-01
-1.541469991207122803e-02
-5.080751776695251465e-01
5.404036492109298706e-02
3.548139929771423340e-01
4.787781834602355957e-01
7.206838577985763550e-02
3.024117946624755859e-01
-1.247530281543731689e-01
3.012790977954864502e-01
-2.087595462799072266e-01
3.384826332330703735e-02
4.069319665431976318e-01
3.752504587173461914e-01
-2.854430973529815674e-01
-1.179843768477439880e-01
1.684151031076908112e-02
-3.560889363288879395e-01
4.627369940280914307e-01
4.058926999568939209e-01
-4.795998632907867432e-01
-8.893306851387023926e-01
-6.308455765247344971e-02
3.182685673236846924e-01
-1.252730097621679306e-02
-1.976732760667800903e-01
-2.695999741554260254e-01
-6.555923819541931152e-01
-4.921736661344766617e-03
-3.501266837120056152e-01
-3.957886695861816406e-01
4.469865262508392334e-01
3.703348040580749512e-01
-5.498401522636413574e-01
9.353047609329223633e-02
5.977369844913482666e-02
-7.172210216522216797e-01
4.304913878440856934e-01
1.750692129135131836e-01
-9.950875490903854370e-02
-1.208530291914939880e-01
4.888348281383514404e-01
-4.296979904174804688e-01
3.709031045436859131e-01
1.752508580684661865e-01
9.633166342973709106e-02
-6.154336929321289062e-01
1.995642334222793579e-01
-5.285094976425170898e-01
-8.420603871345520020e-01
-9.168372303247451782e-02
-5.485997200012207031e-01
-7.918060421943664551e-01
2.301407158374786377e-01
-5.229707360267639160e-01
8.888924866914749146e-02
2.268857657909393311e-01
1.612529009580612183e-01
-3.884040415287017822e-01
3.350696563720703125e-01
-2.343433648347854614e-01
-2.419569492340087891e-01
-1.359648555517196655e-01
-5.179861783981323242e-01
5.440139770507812500e-02
4.193884730339050293e-01
-2.060780860483646393e-02
-7.947193980216979980e-01
1.984999626874923706e-01
3.668512105941772461e-01
-2.183348089456558228e-01
3.462733030319213867e-01
6.200481951236724854e-02
1.141143664717674255e-01
1.541438847780227661e-01
1.411967426538467407e-01
-2.673360407352447510e-01
9.108457714319229126e-02
2.739909589290618896e-01
7.782603148370981216e-03
-6.057825088500976562e-01
1.306713521480560303e-01
-8.248870968818664551e-01
2.914987206459045410e-01
-6.200625896453857422e-01
4.023003280162811279e-01
-4.421214461326599121e-01
2.711181640625000000e-01
4.336420595645904541e-01
5.032414793968200684e-01
-2.679920196533203125e-01
-3.294006884098052979e-01
3.372401595115661621e-01
-3.802501559257507324e-01
2.077793329954147339e-01
-6.571488380432128906e-01
-5.715343356132507324e-01
-7.483275532722473145e-01
-1.969336718320846558e-01
4.230396747589111328e-01
2.056390792131423950e-01
-5.078831911087036133e-01
1.326772421598434448e-01
4.966903626918792725e-01
-6.286826133728027344e-01
3.340440094470977783e-01
3.254784941673278809e-01
5.384152531623840332e-01
4.225057661533355713e-01
2.813918702304363251e-02
-1.959851384162902832e-01
2.401070892810821533e-01
4.697756841778755188e-02
-4.408133924007415771e-01
-3.859471082687377930e-01
2.320208549499511719e-01
-9.274320006370544434e-01
5.265518091619014740e-03
-2.415982186794281006e-01
-3.073288500308990479e-01
-6.801390647888183594e-01
3.345332667231559753e-02
-7.527584433555603027e-01
-2.804685533046722412e-01
3.425992727279663086e-01
3.185021281242370605e-01
2.610056102275848389e-01
2.410172484815120697e-02
-3.720221221446990967e-01
4.393298625946044922e-01
4.361186921596527100e-01
-4.326415061950683594e-02
-7.483291029930114746e-01
-1.570171266794204712e-01
-5.068846344947814941e-01
3.482517972588539124e-02
-6.462541222572326660e-01
3.007359802722930908e-01
-5.939800143241882324e-01
1.786076277494430542e-01
2.774692773818969727e-01
3.651719689369201660e-01
-3.737870231270790100e-02
6.444389466196298599e-03
3.248081803321838379e-01
-9.045140147209167480e-01
-2.796845138072967529e-01
-5.845910906791687012e-01
2.461338937282562256e-01
1.856510788202285767e-01
2.444715648889541626e-01
3.227440416812896729e-01
4.305587112903594971e-01
-3.768193125724792480e-01
-4.539382755756378174e-01
-2.590160965919494629e-01
1.437546610832214355e-01
-5.818105861544609070e-02
1.463783234357833862e-01
-2.793550789356231689e-01
3.308357000350952148e-01
-5.628722310066223145e-01
-6.267533302307128906e-01
-1.695472300052642822e-01
-6.304829716682434082e-01
-7.333620786666870117e-01
-6.616505980491638184e-02
5.298176407814025879e-01
-8.597561717033386230e-01
9.310279041528701782e-02
1.428221166133880615e-01
4.939684271812438965e-01
3.885780870914459229e-01
-7.872319221496582031e-02
-3.161518871784210205e-01
3.125903904438018799e-01
3.080208301544189453e-01
2.429504841566085815e-01
1.611860394477844238e-01
2.356375008821487427e-02
3.210290670394897461e-01
1.496454775333404541e-01
8.338847756385803223e-02
-1.622186452150344849e-01
-5.051205158233642578e-01
-3.184181638062000275e-03
-1.453011035919189453e-01
2.643546462059020996e-01
8.562861382961273193e-02
-6.915481686592102051e-01
-5.139884725213050842e-02
2.923761904239654541e-01
-4.001117050647735596e-01
-5.847815871238708496e-01
-4.429399967193603516e-01
1.260067969560623169e-01
-7.492090463638305664e-01
-7.197141051292419434e-01
5.077303051948547363e-01
-6.695157885551452637e-01
4.041243791580200195e-01
2.397855669260025024e-01
4.781964421272277832e-01
-6.655742526054382324e-01
-1.215021982789039612e-01
-1.665689498186111450e-01
-5.606248974800109863e-01
-3.262243270874023438e-01
-7.202772796154022217e-02
-3.761099874973297119e-01
3.158623278141021729e-01
-3.862470984458923340e-01
3.024348020553588867e-01
-3.110235929489135742e-01
