7.794453948736190796e-02 2.210547178983688354e-01 3.880975395441055298e-02 -9.353158622980117798e-02 1.092630028724670410e-01 -8.444366045296192169e-03 2.843528799712657928e-02 -1.851771622896194458e-01 -1.323552131652832031e-01 1.400932371616363525e-01 1.662055589258670807e-02 8.935701102018356323e-02 -5.016436055302619934e-02 4.223396629095077515e-02 -1.477457676082849503e-02 1.281455345451831818e-02 2.049554511904716492e-02 -2.042542397975921631e-02 1.969607919454574585e-02 7.976960390806198120e-03 7.992989383637905121e-03 -3.659269539639353752e-03 2.585305273532867432e-02 -1.681222580373287201e-02 7.069661468267440796e-02 3.351311758160591125e-02 3.558684512972831726e-02 6.864577531814575195e-02 1.936443150043487549e-01 8.989699184894561768e-02 8.344469219446182251e-02 2.267326414585113525e-01 4.599544405937194824e-02 -2.538154721260070801e-01 4.404504317790269852e-03 5.330652464181184769e-03 1.372386515140533447e-01 -7.252609729766845703e-02 8.472442626953125000e-02 -3.516930714249610901e-02 -7.310793548822402954e-02 8.915821462869644165e-02 -1.639815717935562134e-01 -5.252932757139205933e-02 -5.445733666419982910e-02 -2.487018108367919922e-01 4.903114587068557739e-02 -3.336774185299873352e-02 -7.712132297456264496e-03 -7.194499671459197998e-02 -3.277511522173881531e-02 1.259958557784557343e-02 -1.242522336542606354e-02 -7.398065924644470215e-02 -1.207694597542285919e-02 5.398385971784591675e-02 9.414117038249969482e-02 -1.425237394869327545e-02 1.572749912738800049e-01 8.623539656400680542e-02 -1.218868270516395569e-01 8.601904660463333130e-02 3.935525566339492798e-02 -4.375744611024856567e-02 -1.869556680321693420e-02 -3.694520890712738037e-02 7.358833402395248413e-02 -6.002617627382278442e-02 -1.564400494098663330e-01 -1.375868823379278183e-02 2.105077262967824936e-03 3.806743398308753967e-02 1.589297205209732056e-01 -6.800894439220428467e-02 -6.287886947393417358e-02 9.250669926404953003e-02 3.240169957280158997e-02 2.557339845225214958e-03 6.929276138544082642e-02 -2.161211334168910980e-02 -6.774422526359558105e-02 -4.559815675020217896e-02 6.259681656956672668e-03 1.637256890535354614e-02 -5.588819459080696106e-02 -6.166297197341918945e-02 -7.111188024282455444e-03 -5.282519850879907608e-03 -4.893307760357856750e-02 3.004711866378784180e-02 1.407188479788601398e-03 1.779541522264480591e-01 -4.309410601854324341e-02 1.650926321744918823e-01 -1.619610935449600220e-02 -2.035711556673049927e-01 -8.328103274106979370e-02 -3.588502760976552963e-03 -1.541734486818313599e-01 1.442938519176095724e-04 1.247609332203865051e-01 -1.715564429759979248e-01 -4.944200813770294189e-02 9.591832756996154785e-02 -6.916997372172772884e-04 -5.909342318773269653e-02 6.175308674573898315e-02 -6.470264401286840439e-03 1.641422323882579803e-02 -1.273026764392852783e-01 1.049382425844669342e-02 -1.781082246452569962e-03 -9.902939200401306152e-02 -6.134445220232009888e-02 -1.133422460407018661e-02 -3.284729644656181335e-02 6.472766399383544922e-02 -1.993812024593353271e-01 2.138746902346611023e-02 -2.672136295586824417e-03 1.836398392915725708e-01 -1.674741692841053009e-02 -4.940723255276679993e-02 5.535972118377685547e-02 -7.467106729745864868e-02 2.942419052124023438e-01 -1.406703293323516846e-01 -2.070445567369461060e-01 5.985324829816818237e-02 -2.977255880832672119e-01 8.574042469263076782e-02 -2.533172070980072021e-01 -9.981551766395568848e-02 -6.518445909023284912e-02 3.060988523066043854e-02 -1.453664451837539673e-01 -2.523310184478759766e-01 2.509942650794982910e-01 1.365053802728652954e-01 -3.161786496639251709e-02 2.333616651594638824e-02 -1.620529443025588989e-01 -3.723679110407829285e-02 -1.424328535795211792e-01 -2.492995187640190125e-02 -1.959124580025672913e-03 3.879976645112037659e-02 -3.964548557996749878e-02 -1.802603453397750854e-01 1.788715720176696777e-01 1.162762492895126343e-01 1.462773507228121161e-04 5.448517575860023499e-02 1.067601367831230164e-01 2.532132528722286224e-02 1.447197496891021729e-01 -9.809900075197219849e-02 7.997336983680725098e-02 3.972484469413757324e-01 2.797310054302215576e-02 -1.686530262231826782e-01 1.659580767154693604e-01 -3.074891306459903717e-02 7.544611394405364990e-02 8.473858237266540527e-02 6.958564370870590210e-02 -4.194976016879081726e-02 -2.450499087572097778e-01 1.586880534887313843e-01 -1.984136551618576050e-01 7.047717273235321045e-02 2.838988900184631348e-01 2.590491808950901031e-02 -1.710863113403320312e-01 -1.357215195894241333e-01 -2.145797163248062134e-01 -2.627966925501823425e-02 2.588843181729316711e-02 8.660828322172164917e-02 -1.023724451661109924e-01 4.555466026067733765e-02 4.813730344176292419e-02 -3.142244368791580200e-02 -2.229175120592117310e-01 2.078667283058166504e-01 1.082785204052925110e-01 -1.621221750974655151e-01 9.443474560976028442e-02 -1.548805385828018188e-01 -7.327721267938613892e-02 -1.104275211691856384e-01 7.346115261316299438e-02 -5.455104634165763855e-02 6.273724138736724854e-02 -2.352467626333236694e-01 -1.786361187696456909e-01 -3.479381799697875977e-01 1.567809432744979858e-01 1.388510037213563919e-02 -3.077981770038604736e-01 1.139410734176635742e-01 9.188338369131088257e-02 -3.131189346313476562e-01 -1.252724677324295044e-01 1.765029430389404297e-01 -1.221879944205284119e-01 -9.001655131578445435e-02
-2.021818757057189941e-01 2.325042933225631714e-01 1.858645528554916382e-01 -1.530495565384626389e-02 -3.642603009939193726e-02 -6.953140348196029663e-02 1.031162962317466736e-01 -1.619521975517272949e-01 9.488432109355926514e-02 -1.047670394182205200e-01 6.037816777825355530e-02 -1.473476737737655640e-01 1.751548983156681061e-02 2.697080560028553009e-02 1.345551759004592896e-01 -2.369827590882778168e-02 -4.772101528942584991e-03 -4.140365496277809143e-02 -1.309646852314472198e-02 3.878730908036231995e-02 8.561356225982308388e-04 4.105165600776672363e-03 8.046393841505050659e-02 -4.993135109543800354e-02 -2.523558400571346283e-02 2.950779721140861511e-02 -7.641364354640245438e-03 1.786318793892860413e-02 -2.261789888143539429e-01 -2.155524119734764099e-02 -3.585020825266838074e-02 -2.686829268932342529e-01 -9.567137807607650757e-02 2.536038309335708618e-02 -4.297926649451255798e-02 3.761719539761543274e-02 -3.911206498742103577e-02 -1.268953364342451096e-02 1.197743415832519531e-01 1.253061145544052124e-01 -1.484913229942321777e-01 2.363367564976215363e-02 5.286304652690887451e-02 -5.230790004134178162e-02 1.697182096540927887e-02 1.283937017433345318e-03 -2.240258036181330681e-03 -1.631325855851173401e-02 3.113484568893909454e-02 4.194749146699905396e-02 4.282542690634727478e-02 -2.686448022723197937e-02 -3.430241346359252930e-02 1.015218626707792282e-02 -1.074022240936756134e-02 4.141141474246978760e-02 1.142323762178421021e-02 -1.079155597835779190e-02 -3.248520195484161377e-02 -1.434260755777359009e-01 -2.689214609563350677e-02 -4.590426757931709290e-02 -3.867105022072792053e-02 -9.450551867485046387e-02 -1.287902593612670898e-01 -1.158837694674730301e-02 3.690303303301334381e-03 1.044327616691589355e-01 -8.165443688631057739e-02 5.186592042446136475e-02 1.341997683048248291e-01 -5.970215424895286560e-02 8.108330518007278442e-02 6.727731972932815552e-02 -2.475145086646080017e-02 -1.412556469440460205e-01 1.179984062910079956e-01 -5.321269854903221130e-03 -8.592029660940170288e-02 9.426456689834594727e-02 1.116068288683891296e-01 5.121278762817382812e-02 -9.965770877897739410e-03 -3.163027763366699219e-02 5.367127060890197754e-02 -1.116060391068458557e-01 -1.807225123047828674e-02 -4.678492899984121323e-03 -6.651705130934715271e-03 -1.233085989952087402e-02 3.677926585078239441e-02 -1.093279048800468445e-01 2.051616460084915161e-02 1.216278448700904846e-01 -3.881846368312835693e-01 -2.280202805995941162e-01 -2.329622209072113037e-02 -1.715036923997104168e-03 2.365438453853130341e-02 -7.175502926111221313e-02 2.822540104389190674e-01 -9.769510477781295776e-02 6.527476757764816284e-02 3.356270864605903625e-02 9.653883427381515503e-02 -3.593650832772254944e-02 -1.046829149127006531e-01 1.798713207244873047e-02 4.104786738753318787e-02 -5.723828449845314026e-03 1.110978573560714722e-01 6.270021945238113403e-02 2.806921256706118584e-03 -1.412761490792036057e-02 -5.055888369679450989e-02 1.252189576625823975e-01 -2.316733263432979584e-02 -3.264266997575759888e-04 -1.260513532906770706e-02 9.219164028763771057e-03 1.290798634290695190e-01 4.900840576738119125e-03 3.420139104127883911e-02 1.547062844038009644e-01 8.248426914215087891e-01 -1.098814487457275391e+00 -8.250241279602050781e-01 1.211571395397186279e-01 -1.927979737520217896e-01 4.331369698047637939e-01 -3.875299096107482910e-01 3.352023959159851074e-01 -4.938394203782081604e-02 -1.184621229767799377e-01 -1.638486236333847046e-01 -1.077093277126550674e-02 1.018877997994422913e-01 -1.555025130510330200e-01 6.352233886718750000e-02 2.146355062723159790e-02 -1.442503184080123901e-01 3.065974116325378418e-01 8.806163817644119263e-02 7.404071092605590820e-02 -2.451423369348049164e-02 -3.025514632463455200e-02 1.418455243110656738e-01 -4.553059861063957214e-02 1.095375861041247845e-03 -1.606471277773380280e-02 -2.089165151119232178e-02 1.478363871574401855e-01 -1.320872269570827484e-02 6.490331608802080154e-03 -8.269727230072021484e-03 -3.513342514634132385e-02 1.897794008255004883e-01 -3.827860653400421143e-01 1.203822270035743713e-01 -1.405837088823318481e-01 7.138073444366455078e-02 1.629531681537628174e-01 1.372453272342681885e-01 -2.012265324592590332e-01 -2.274218387901782990e-02 -7.686877995729446411e-02 -1.969303190708160400e-01 1.761812865734100342e-01 -1.375796049833297729e-01 2.042787224054336548e-01 -2.339746505022048950e-01 2.447326630353927612e-01 -4.569039493799209595e-02 8.787510544061660767e-02 -2.500432729721069336e-01 5.663502216339111328e-02 -1.291182786226272583e-01 -1.041030734777450562e-01 7.737965881824493408e-02 -1.454491317272186279e-01 1.553953140974044800e-01 2.613025009632110596e-01 -1.580326631665229797e-02 -2.700435817241668701e-01 8.525882661342620850e-02 -1.294133216142654419e-01 -6.592749804258346558e-02 -3.556646704673767090e-01 2.372622042894363403e-01 -3.660631179809570312e-01 -1.304588019847869873e-01 -1.463143154978752136e-02 -1.518618166446685791e-01 1.515627205371856689e-01 6.476123332977294922e-01 6.643012911081314087e-02 1.785876452922821045e-01 -1.282486617565155029e-01 -1.643185764551162720e-01 4.499410279095172882e-03 -4.720220565795898438e-01 1.609009653329849243e-01 1.230236440896987915e-01 3.927585110068321228e-02 5.160773918032646179e-02 -1.829103082418441772e-01 1.348490417003631592e-01
4.136839509010314941e-02 -2.941202521324157715e-01 6.838089227676391602e-02 -1.319463998079299927e-01 -6.941408663988113403e-02 -5.911166593432426453e-02 -2.445066533982753754e-02 1.507438868284225464e-01 -9.505911916494369507e-02 -1.965464651584625244e-02 -3.579033166170120239e-02 3.706259280443191528e-02 3.543975763022899628e-03 -2.442115917801856995e-02 1.053523868322372437e-01 1.263128407299518585e-02 -5.096637457609176636e-02 -1.238205749541521072e-02 -1.063470095396041870e-01 -3.156640380620956421e-02 8.167228661477565765e-03 6.700606085360050201e-03 1.042480487376451492e-02 -2.487586811184883118e-02 1.394927203655242920e-01 3.876522881910204887e-03 -2.424913644790649414e-02 -7.784297317266464233e-02 -4.947097972035408020e-02 -6.344477832317352295e-02 8.807598054409027100e-02 -7.326304167509078979e-02 -1.775161772966384888e-01 2.343339473009109497e-02 4.430063068866729736e-02 -1.247301027178764343e-01 -4.828825965523719788e-02 -8.549135178327560425e-03 6.160182505846023560e-02 9.417288005352020264e-02 1.039686426520347595e-01 -8.703910559415817261e-02 5.484469607472419739e-02 5.466258153319358826e-02 -5.875821411609649658e-02 -1.464708242565393448e-02 9.078835137188434601e-03 6.695700436830520630e-02 6.389632821083068848e-02 8.482656627893447876e-02 -3.675033152103424072e-02 3.676287457346916199e-02 7.453540456481277943e-04 -9.245606511831283569e-02 8.567951619625091553e-02 9.446603804826736450e-02 -3.471209667623043060e-03 -1.618562079966068268e-02 -2.076866477727890015e-02 -6.103796884417533875e-02 -2.201222814619541168e-02 -6.174487620592117310e-02 2.340887188911437988e-01 1.323385834693908691e-01 1.804489344358444214e-01 -3.230562433600425720e-02 1.227189879864454269e-02 4.724748060107231140e-02 6.793640553951263428e-02 7.555565237998962402e-02 9.210027009248733521e-02 5.052194744348526001e-02 -3.199874982237815857e-02 -1.189878303557634354e-02 4.708904027938842773e-02 -1.318438351154327393e-01 4.654680192470550537e-02 4.856596142053604126e-02 -6.076942384243011475e-02 -4.009234905242919922e-02 3.486448898911476135e-02 -9.882145095616579056e-04 -2.063911966979503632e-02 -2.911260910332202911e-02 -8.617135882377624512e-02 1.601926386356353760e-01 1.054851636290550232e-01 -7.290491461753845215e-02 -2.863380685448646545e-02 -1.379740834236145020e-01 -1.229444220662117004e-01 -7.948839664459228516e-02 -9.193492121994495392e-03 2.497615069150924683e-01 4.580402970314025879e-01 -1.140047758817672729e-01 -2.229701429605484009e-01 -5.857019126415252686e-02 4.826747626066207886e-02 -1.849045455455780029e-01 -3.088523447513580322e-02 1.130864471197128296e-01 1.482092291116714478e-01 1.276200264692306519e-01 8.011605590581893921e-02 2.374856621026992798e-01 6.087421625852584839e-02 1.920048594474792480e-01 1.438879314810037613e-02 -1.085720881819725037e-01 2.652090601623058319e-02 -1.969280689954757690e-01 -5.801496654748916626e-02 -3.069659695029258728e-02 -3.307125996798276901e-03 1.102577671408653259e-01 1.474541932111606002e-04 1.495178788900375366e-01 -6.647286564111709595e-02 -4.048120602965354919e-02 1.219002902507781982e-01 3.643206134438514709e-02 -2.201715260744094849e-01 -1.122766919434070587e-02 1.327355206012725830e-01 8.562742471694946289e-01 -3.273560851812362671e-02 -2.334055118262767792e-02 3.592293709516525269e-02 1.792495101690292358e-01 -2.767859697341918945e-01 -2.660892605781555176e-01 4.827028885483741760e-02 8.295516669750213623e-02 1.056515052914619446e-01 -9.599799662828445435e-02 2.042558789253234863e-01 1.744998693466186523e-01 -4.859091341495513916e-02 -3.939785435795783997e-02 -9.153395891189575195e-02 -4.871360957622528076e-03 -2.358316779136657715e-01 -5.922897532582283020e-02 -1.717437524348497391e-03 1.716812886297702789e-02 1.271667182445526123e-01 -1.405126042664051056e-02 4.317106604576110840e-01 8.833339810371398926e-02 -5.222562700510025024e-02 -5.403924267739057541e-03 -3.953450545668601990e-02 1.606172770261764526e-01 3.406568616628646851e-02 -3.237022832036018372e-02 1.169310957193374634e-01 1.137309521436691284e-01 6.803396344184875488e-02 -2.003690898418426514e-01 2.922770380973815918e-02 -7.825710624456405640e-02 -5.952948704361915588e-02 1.437170952558517456e-01 6.313805282115936279e-02 -2.750759720802307129e-01 1.782100349664688110e-01 1.217585206031799316e-01 1.636534631252288818e-01 3.481552749872207642e-02 -1.360491961240768433e-01 1.458672713488340378e-02 -4.380460083484649658e-02 1.066283043473958969e-02 9.599574655294418335e-02 4.159501940011978149e-02 2.815794348716735840e-01 -9.111683815717697144e-02 -4.982283338904380798e-02 4.626962542533874512e-02 1.255549639463424683e-01 4.058785364031791687e-02 -1.498992741107940674e-02 -1.886637806892395020e-01 5.161506682634353638e-02 3.238055109977722168e-02 5.820855125784873962e-02 -1.312314160168170929e-02 3.311050683259963989e-02 1.905537843704223633e-01 6.350453197956085205e-02 1.320003569126129150e-01 -9.999952465295791626e-02 1.784284412860870361e-01 1.937935873866081238e-02 -1.910587772727012634e-02 -1.202738583087921143e-01 -7.151272892951965332e-02 1.063281595706939697e-01 -1.248637810349464417e-01 2.263378351926803589e-02 1.741976290941238403e-01 2.689993008971214294e-02 -1.393182668834924698e-02 1.587268263101577759e-01 4.695549607276916504e-03 6.415861425921320915e-04
1.065467372536659241e-01 -5.824894085526466370e-02 3.155578672885894775e-02 -8.222241699695587158e-02 8.493193238973617554e-02 -6.071473285555839539e-02 1.466776523739099503e-02 1.168535500764846802e-01 1.826889514923095703e-01 3.100843355059623718e-02 -2.529574371874332428e-02 -1.082771271467208862e-01 3.680400550365447998e-02 1.116813197731971741e-01 -8.683040738105773926e-02 -9.270626120269298553e-03 3.869630023837089539e-02 3.185403347015380859e-02 8.174892514944076538e-02 3.861032053828239441e-02 -2.467458881437778473e-02 -5.972723010927438736e-04 5.653326958417892456e-02 -1.651262491941452026e-01 -1.595004498958587646e-01 -4.605869948863983154e-02 -5.883428081870079041e-02 3.574831038713455200e-02 -1.376699656248092651e-01 6.089940294623374939e-02 -2.373397909104824066e-02 -4.100363701581954956e-02 -2.193056941032409668e-01 -8.060653507709503174e-02 1.214041039347648621e-01 8.631630241870880127e-02 8.303304016590118408e-02 -2.982434444129467010e-02 -4.238421097397804260e-02 -3.247722983360290527e-02 -2.255376242101192474e-02 8.414825052022933960e-02 -7.769005745649337769e-02 2.196235209703445435e-02 2.337731420993804932e-02 -3.922882303595542908e-02 1.227862015366554260e-02 6.853582710027694702e-02 4.205556120723485947e-03 -6.496555358171463013e-02 -7.282032817602157593e-02 -9.365952573716640472e-03 -2.348753996193408966e-02 1.121407933533191681e-02 -8.446288853883743286e-02 3.324861172586679459e-03 3.904927521944046021e-03 1.691349223256111145e-02 -9.219915419816970825e-02 6.787900626659393311e-02 4.185734316706657410e-02 1.526954816654324532e-03 -9.879077225923538208e-02 -3.711212053894996643e-02 -1.661168187856674194e-01 -2.528013661503791809e-02 -8.938943594694137573e-02 1.790052801370620728e-01 1.527951657772064209e-01 1.323543637990951538e-01 -8.814161270856857300e-02 2.244455553591251373e-02 -1.655830815434455872e-02 -1.367624942213296890e-02 -2.120186761021614075e-02 1.310200393199920654e-01 6.366389244794845581e-02 3.012640215456485748e-02 3.719122707843780518e-02 5.039531737565994263e-02 4.435487091541290283e-02 7.536337524652481079e-02 3.953600767999887466e-03 -3.894433379173278809e-02 1.231174170970916748e-01 -6.677786260843276978e-02 4.443062096834182739e-02 4.336433485150337219e-02 3.187985718250274658e-02 -1.273612529039382935e-01 -8.141805976629257202e-02 4.499481245875358582e-02 1.091117188334465027e-01 -3.770022094249725342e-02 -1.212182939052581787e-01 -5.200765561312437057e-03 -7.239025086164474487e-02 9.830994904041290283e-02 6.640294194221496582e-02 -1.263449490070343018e-01 -1.963479211553931236e-03 3.589362651109695435e-02 9.101632982492446899e-02 -4.339175671339035034e-02 -1.899051517248153687e-01 8.676346391439437866e-02 1.268692165613174438e-01 -5.809807032346725464e-02 -1.444534864276647568e-02 7.436813786625862122e-03 -6.398263573646545410e-02 -2.246614992618560791e-01 1.481845229864120483e-02 -6.402312964200973511e-02 3.355489298701286316e-02 -3.734911233186721802e-02 6.143745779991149902e-02 -5.935783684253692627e-02 2.565253525972366333e-02 -3.502353280782699585e-02 -2.390045672655105591e-01 -6.183004379272460938e-02 -7.907386124134063721e-02 -7.038615643978118896e-02 1.702223718166351318e-02 1.672434508800506592e-01 9.361796826124191284e-02 1.688972115516662598e-02 -6.299728900194168091e-02 -3.962741419672966003e-02 -2.338944673538208008e-01 4.317468777298927307e-02 -6.153086200356483459e-02 7.409857213497161865e-02 -1.613499075174331665e-01 1.020373478531837463e-01 -1.200256645679473877e-01 -1.402704119682312012e-01 -1.906802952289581299e-01 -5.519713275134563446e-03 -8.108208328485488892e-02 -1.363594830036163330e-01 -1.749729812145233154e-01 1.125211119651794434e-01 -1.182797830551862717e-02 -6.847162730991840363e-03 4.113085567951202393e-02 1.039332970976829529e-01 -4.509514570236206055e-01 -1.085283085703849792e-01 -5.451122298836708069e-02 -1.596314460039138794e-01 -1.273697316646575928e-01 9.423389285802841187e-02 -6.124122533947229385e-03 1.565905809402465820e-01 2.001101076602935791e-01 -3.483312949538230896e-02 -1.040976196527481079e-01 -4.842691123485565186e-02 1.600469499826431274e-01 -3.536419942975044250e-02 -3.017522953450679779e-02 8.130294829607009888e-02 6.453536450862884521e-02 -3.472182434052228928e-03 -4.140704497694969177e-02 -3.121101558208465576e-01 1.798388212919235229e-01 8.105499297380447388e-02 -9.318917989730834961e-02 -2.937504835426807404e-02 -1.267995685338973999e-01 -7.470409572124481201e-02 1.044055595993995667e-01 -3.151797503232955933e-02 -1.436471641063690186e-01 1.919218301773071289e-01 -3.658676287159323692e-03 3.625237941741943359e-01 3.588937968015670776e-02 1.329881548881530762e-01 -6.959155946969985962e-02 4.617408663034439087e-02 -1.605367846786975861e-02 -1.794021129608154297e-01 1.152227520942687988e-01 8.477184921503067017e-02 -1.516087502241134644e-01 3.410797938704490662e-02 6.425244361162185669e-02 1.253715604543685913e-01 1.722842603921890259e-01 -4.782859608530998230e-02 -8.120471239089965820e-02 -1.375678330659866333e-01 -5.995787307620048523e-02 -1.082244887948036194e-01 -3.583392128348350525e-02 6.236083433032035828e-02 2.091569155454635620e-01 -9.819526225328445435e-02 8.535008877515792847e-02 2.299787662923336029e-02 -1.324536949396133423e-01 2.025716006755828857e-01 -1.647134721279144287e-01
-7.819242030382156372e-02 -1.751865074038505554e-02 7.985128904692828655e-04 -1.809289902448654175e-01 6.116114556789398193e-02 -2.187460809946060181e-01 1.947287097573280334e-02 1.498012393712997437e-01 2.565047144889831543e-01 -6.748257577419281006e-02 -9.376958757638931274e-02 7.757335156202316284e-02 6.345184892416000366e-02 3.641109541058540344e-02 1.089216843247413635e-01 -2.487109042704105377e-02 -1.051103770732879639e-01 1.046211123466491699e-01 9.787790477275848389e-02 9.354805573821067810e-03 -2.633677981793880463e-02 3.629539906978607178e-02 1.006269827485084534e-01 -8.715539425611495972e-02 -1.545558031648397446e-02 6.431995425373315811e-03 -3.579949028789997101e-03 -2.708169817924499512e-01 1.691850461065769196e-02 -1.467813178896903992e-02 -7.261261343955993652e-02 -1.736404597759246826e-01 -1.242022141814231873e-01 -9.718870744109153748e-03 -1.163279265165328979e-01 -1.834091395139694214e-01 1.565227471292018890e-02 -7.662146538496017456e-02 1.065867170691490173e-01 3.511065989732742310e-02 -1.612414792180061340e-02 2.799359709024429321e-02 3.133777529001235962e-02 -1.090413928031921387e-01 6.372323632240295410e-02 1.202848255634307861e-01 1.044494751840829849e-02 -5.728221684694290161e-02 2.463041432201862335e-02 7.355336099863052368e-02 -4.689953476190567017e-02 -3.920344635844230652e-03 -6.897422485053539276e-03 3.389818966388702393e-02 7.055686786770820618e-03 1.074704807251691818e-02 2.256913483142852783e-02 -3.927725926041603088e-02 -3.754236996173858643e-01 -6.693644076585769653e-02 1.087271515280008316e-02 9.609214961528778076e-03 -2.827804386615753174e-01 -5.806663259863853455e-02 5.593181774020195007e-02 9.804892353713512421e-03 -9.885864704847335815e-02 5.089122056961059570e-02 -1.236650794744491577e-01 2.607182785868644714e-02 -7.157789170742034912e-02 -1.633771695196628571e-02 -3.445862233638763428e-02 -6.532074511051177979e-02 1.604784131050109863e-01 6.014059484004974365e-02 1.792163401842117310e-01 -1.833338476717472076e-02 -1.590708643198013306e-02 5.644902959465980530e-02 -2.870937064290046692e-02 -3.399695083498954773e-02 -1.811381429433822632e-03 1.175236189737915993e-03 5.941859260201454163e-02 1.991141028702259064e-02 1.330897063016891479e-01 2.300963178277015686e-02 5.795104429125785828e-02 -1.451944261789321899e-01 2.965641021728515625e-02 -8.731415867805480957e-02 -1.001808345317840576e-01 -3.495977222919464111e-01 1.458433866500854492e-01 -3.591261804103851318e-02 8.199632167816162109e-02 -1.518910229206085205e-01 1.451046168804168701e-01 -3.347983583807945251e-02 -7.907629013061523438e-02 9.436802566051483154e-02 -2.864626422524452209e-02 8.919379860162734985e-02 4.438640549778938293e-03 1.962232403457164764e-02 9.995045512914657593e-02 -8.164804428815841675e-02 -1.016212813556194305e-02 -8.135019242763519287e-02 7.894899696111679077e-02 -8.693598955869674683e-02 5.956827104091644287e-02 3.153765574097633362e-02 -2.430628426373004913e-02 3.350646421313285828e-02 -6.647360324859619141e-02 1.877268403768539429e-01 1.908786222338676453e-02 4.428087919950485229e-02 -3.019106090068817139e-01 1.673080176115036011e-01 -1.854697018861770630e-01 -4.029984772205352783e-02 -5.209164619445800781e-01 1.829777956008911133e-01 -3.861810863018035889e-01 2.445225268602371216e-01 -2.112898379564285278e-01 1.963323056697845459e-01 -1.430767923593521118e-01 -9.358701854944229126e-02 4.508339334279298782e-03 -1.343456357717514038e-01 8.450353145599365234e-02 -4.181898012757301331e-02 -6.932011991739273071e-02 -9.694262593984603882e-02 7.622154802083969116e-02 1.273711770772933960e-02 -9.940252453088760376e-02 1.040276437997817993e-01 -1.980322748422622681e-01 5.298898369073867798e-02 -9.708620607852935791e-03 -3.488275781273841858e-02 2.082449644804000854e-01 -1.152096390724182129e-01 3.367247432470321655e-02 -1.384680867195129395e-01 6.512774527072906494e-02 -4.492313265800476074e-01 1.184576377272605896e-01 1.473834067583084106e-01 -1.786639727652072906e-02 -5.493367463350296021e-02 3.817544505000114441e-02 -4.183052107691764832e-02 -1.094480603933334351e-01 -5.769361928105354309e-02 8.757132291793823242e-02 -1.908559203147888184e-01 -2.870787121355533600e-02 4.668203741312026978e-02 1.930235624313354492e-01 1.602494902908802032e-02 2.173222750425338745e-01 -1.590140163898468018e-01 1.274838596582412720e-01 9.908985346555709839e-02 -1.500211507081985474e-01 -3.930177912116050720e-02 7.539929449558258057e-02 1.538693010807037354e-01 -2.039390504360198975e-01 1.709553301334381104e-01 3.722799476236104965e-03 2.190767675638198853e-01 1.130490228533744812e-01 2.122611999511718750e-01 -2.456084042787551880e-01 5.390777066349983215e-02 4.349682852625846863e-02 -5.535932257771492004e-02 -1.587131619453430176e-01 2.274306723847985268e-03 -2.777461428195238113e-03 -5.610606819391250610e-02 4.033760428428649902e-01 7.959482073783874512e-02 2.423305064439773560e-01 -1.318066474050283432e-02 3.819217979907989502e-01 -7.845453917980194092e-02 2.497964501380920410e-01 -8.983490616083145142e-02 1.932337284088134766e-01 -6.382209807634353638e-02 8.994777500629425049e-02 -1.661072857677936554e-02 -2.215336561203002930e-01 1.817975342273712158e-01 -1.903521120548248291e-01 5.533571168780326843e-02 -7.016039639711380005e-02 3.957602381706237793e-01 -1.898533552885055542e-01
4.755952954292297363e-02 1.204835325479507446e-01 7.738387584686279297e-02 8.831905201077461243e-03 3.448332101106643677e-02 2.512957155704498291e-02 1.020927429199218750e-01 6.319139897823333740e-02 4.473641142249107361e-02 1.157370060682296753e-01 1.114922668784856796e-02 -5.830432847142219543e-02 -2.156170643866062164e-02 -9.862199425697326660e-02 2.285848930478096008e-02 5.172482691705226898e-03 5.582464486360549927e-02 -6.973256915807723999e-02 1.037375330924987793e-01 1.750778593122959137e-02 -7.260050624608993530e-02 1.949023455381393433e-02 -8.242707699537277222e-02 1.303723454475402832e-01 1.910827681422233582e-02 -8.906956762075424194e-02 1.577719580382108688e-03 -1.122354120016098022e-01 -4.244613274931907654e-02 5.525394156575202942e-02 -3.616056963801383972e-02 2.662683278322219849e-02 -5.536729004234075546e-03 1.023260969668626785e-02 -8.457791805267333984e-02 -7.139516621828079224e-02 1.719362661242485046e-02 7.090836297720670700e-03 -6.777234375476837158e-02 8.290341496467590332e-02 -3.930370137095451355e-02 1.610152423381805420e-02 1.062480285763740540e-01 2.283012121915817261e-01 1.310215592384338379e-01 -7.161178439855575562e-02 1.442895364016294479e-02 -3.350738063454627991e-02 -8.080243319272994995e-02 -1.104516629129648209e-02 -1.480591110885143280e-02 7.043339777737855911e-03 -1.676011015661060810e-03 1.243939548730850220e-01 4.593299701809883118e-02 2.792249061167240143e-02 4.034868907183408737e-04 9.469059854745864868e-02 -9.767952561378479004e-02 -6.081000901758670807e-03 1.511300504207611084e-01 3.491624444723129272e-02 -5.581642687320709229e-02 -4.289213195443153381e-02 1.170635446906089783e-01 1.459911745041608810e-02 -4.835647344589233398e-02 -1.645921468734741211e-01 9.694879502058029175e-02 3.956412896513938904e-02 4.216322675347328186e-02 6.316781789064407349e-02 4.079127311706542969e-02 8.029343932867050171e-02 8.104951679706573486e-02 -5.100765824317932129e-02 -8.552393317222595215e-02 -4.047994688153266907e-02 6.497961282730102539e-02 -3.971088677644729614e-02 2.376347482204437256e-01 4.423245415091514587e-02 2.292224206030368805e-02 6.794877117499709129e-04 -3.834680095314979553e-02 -3.890391066670417786e-02 2.785270288586616516e-02 7.842564955353736877e-03 -4.205407202243804932e-02 -2.715080976486206055e-01 4.642578959465026855e-02 -5.550696700811386108e-02 6.540149450302124023e-02 -4.085965454578399658e-02 -3.749355971813201904e-01 1.875303089618682861e-01 2.778252819553017616e-03 -1.064750924706459045e-01 6.378583610057830811e-02 1.219515204429626465e-01 4.518157243728637695e-02 6.113380938768386841e-02 -8.419621735811233521e-03 -6.008432433009147644e-02 1.879411190748214722e-01 1.094910204410552979e-01 -2.193784154951572418e-02 -1.194380968809127808e-02 5.859607458114624023e-02 -6.226503849029541016e-02 -1.207183748483657837e-01 2.629710733890533447e-01 1.526540070772171021e-01 -9.360198862850666046e-03 -7.126577943563461304e-02 -8.466542512178421021e-02 2.129311114549636841e-01 1.314058452844619751e-01 -6.533858180046081543e-02 2.423331886529922485e-02 -1.261215656995773315e-01 6.493347883224487305e-02 -1.131311357021331787e-01 -1.419628411531448364e-01 -1.062500942498445511e-02 -4.866316616535186768e-01 3.630339801311492920e-01 1.040881127119064331e-01 1.973604857921600342e-01 -7.303091138601303101e-02 3.011869788169860840e-01 1.136826872825622559e-01 1.495345830917358398e-01 -1.815850287675857544e-01 -8.356862515211105347e-02 2.085889428853988647e-01 -2.663050405681133270e-02 -2.593478560447692871e-01 -1.968266516923904419e-01 1.525248121470212936e-02 -1.158886849880218506e-01 -1.123124137520790100e-01 1.671707183122634888e-01 -5.278143286705017090e-02 6.860086694359779358e-03 -4.746801033616065979e-02 6.749958544969558716e-02 1.429081708192825317e-01 1.613044589757919312e-01 5.404328182339668274e-02 1.290294714272022247e-02 -1.845629811286926270e-01 7.425216957926750183e-03 -1.015612706542015076e-01 -5.393277108669281006e-02 1.270002126693725586e-01 -9.172057732939720154e-03 1.959944963455200195e-01 -9.816179424524307251e-02 8.701512962579727173e-02 -1.538539379835128784e-01 1.193444430828094482e-01 6.647608429193496704e-02 1.472265645861625671e-02 7.377545535564422607e-02 3.638821840286254883e-02 1.720446944236755371e-01 -7.104050368070602417e-02 8.008612692356109619e-02 -1.078071296215057373e-01 -1.712559908628463745e-01 -5.328453704714775085e-02 -7.340671122074127197e-02 1.000953614711761475e-01 5.158639699220657349e-02 -8.696649223566055298e-02 -3.132756799459457397e-02 -5.891814827919006348e-02 1.288466155529022217e-01 4.513493040576577187e-04 -1.396777778863906860e-01 1.073455512523651123e-01 1.667053848505020142e-01 -1.009912714362144470e-01 -4.256856814026832581e-02 4.285017400979995728e-02 2.960803918540477753e-02 4.595397412776947021e-02 3.849662467837333679e-02 3.829345852136611938e-02 5.968266725540161133e-02 1.291752606630325317e-01 4.549178853631019592e-02 -1.053587645292282104e-01 2.181991189718246460e-01 1.691229268908500671e-02 -7.415769994258880615e-02 6.475634127855300903e-02 -9.384152293205261230e-02 -3.926462307572364807e-02 -2.683049440383911133e-01 -1.006081551313400269e-01 2.033686190843582153e-01 1.554796695709228516e-01 -3.123177587985992432e-01 3.171587735414505005e-02 -6.646480411291122437e-02
-5.188937485218048096e-02 -1.481359302997589111e-01 5.979396030306816101e-02 4.038053378462791443e-02 5.756315216422080994e-02 -5.185028910636901855e-02 1.505203731358051300e-02 1.247615963220596313e-01 8.486920036375522614e-03 8.254781365394592285e-02 -6.483983248472213745e-02 1.376967430114746094e-01 7.805364578962326050e-02 -8.467186242341995239e-02 -2.062734402716159821e-02 -8.115191943943500519e-03 -4.095538333058357239e-02 1.205937564373016357e-01 7.615837454795837402e-02 9.061221964657306671e-03 -1.937661133706569672e-02 -3.512041643261909485e-02 9.565771557390689850e-03 -1.506834663450717926e-02 -2.774124033749103546e-02 7.618290185928344727e-02 -8.904274553060531616e-03 7.081332057714462280e-02 -2.051491439342498779e-01 -1.444673538208007812e-01 1.350142247974872589e-02 -3.756670653820037842e-02 -8.498140424489974976e-02 7.425341010093688965e-02 -9.743239730596542358e-02 1.140454411506652832e-01 -1.020598709583282471e-01 7.882644236087799072e-02 -6.737015396356582642e-02 6.371156871318817139e-02 -5.406747385859489441e-02 -4.648162424564361572e-02 1.363428868353366852e-02 -5.907257436774671078e-04 -8.228982985019683838e-02 5.841334536671638489e-02 -1.347880158573389053e-02 -3.604134172201156616e-02 -6.186656281352043152e-02 -4.816605150699615479e-02 -5.560915917158126831e-02 4.434621892869472504e-03 1.557262055575847626e-02 -6.690301001071929932e-03 -1.731934025883674622e-02 3.073390759527683258e-02 -1.945073716342449188e-02 -5.706166848540306091e-02 8.295968919992446899e-02 5.324400961399078369e-02 8.727700449526309967e-03 -1.404282450675964355e-01 -6.584685295820236206e-02 1.097645759582519531e-01 -1.343399286270141602e-02 -1.307824859395623207e-04 9.351705759763717651e-02 -2.596043236553668976e-02 -1.020823698490858078e-02 -1.487267948687076569e-02 1.450399458408355713e-01 1.116134822368621826e-01 -1.341683864593505859e-01 1.847049593925476074e-01 1.230664402246475220e-01 -4.366255924105644226e-02 2.169155627489089966e-01 -7.215872872620820999e-03 1.934568048454821110e-03 2.607498317956924438e-02 -2.145847119390964508e-02 -1.686863154172897339e-01 2.635019272565841675e-02 1.145685650408267975e-02 -3.599356487393379211e-02 5.964218452572822571e-02 -4.967686254531145096e-03 -4.805911704897880554e-02 -6.729160901159048080e-03 2.608035206794738770e-01 -7.881592959165573120e-02 -1.884542172774672508e-03 3.312456980347633362e-02 -2.417533397674560547e-01 4.729851484298706055e-01 -2.043798938393592834e-02 4.538659006357192993e-02 -1.951851416379213333e-03 2.208167165517807007e-01 -8.307167887687683105e-02 -1.449434645473957062e-02 1.634779572486877441e-01 -4.265145212411880493e-02 7.144934684038162231e-02 5.687668919563293457e-03 4.093982744961977005e-03 -4.747451096773147583e-02 8.885873109102249146e-02 -5.766091053374111652e-04 3.373041749000549316e-02 3.392793983221054077e-02 -3.194208815693855286e-02 -1.261821836233139038e-01 9.884129278361797333e-03 1.956223696470260620e-02 6.785139441490173340e-03 2.620167657732963562e-02 5.817438662052154541e-02 2.187763527035713196e-02 3.957442939281463623e-02 1.433715224266052246e-01 -1.543381661176681519e-01 -2.112089097499847412e-01 5.821189656853675842e-02 -1.745502352714538574e-01 6.233710646629333496e-01 -9.836985915899276733e-02 1.702073961496353149e-02 -2.185879051685333252e-01 3.705298602581024170e-01 -5.437214374542236328e-01 -8.917393535375595093e-02 5.506967902183532715e-01 -1.680799871683120728e-01 -9.485915303230285645e-02 6.219907477498054504e-02 -4.420615267008543015e-03 6.524430215358734131e-02 8.051432669162750244e-02 3.794516250491142273e-02 7.641310244798660278e-02 -1.125173736363649368e-02 -2.715205550193786621e-01 -1.755329519510269165e-01 3.499145433306694031e-02 -1.017142552882432938e-02 -1.042135339230298996e-02 1.344300806522369385e-01 9.712842106819152832e-02 6.996095180511474609e-02 6.128129735589027405e-02 1.028729453682899475e-01 -2.495801635086536407e-02 -4.832699894905090332e-03 -5.982688814401626587e-02 3.367210552096366882e-02 1.376609317958354950e-02 -2.020193263888359070e-02 2.873967029154300690e-02 -5.242730304598808289e-02 1.793468743562698364e-01 -1.412922632880508900e-03 -7.715953141450881958e-02 4.834314435720443726e-02 -1.525921374559402466e-01 -1.373464018106460571e-01 -6.590609997510910034e-02 6.582540273666381836e-02 -7.768510282039642334e-02 1.619949936866760254e-01 -2.622694075107574463e-01 -3.395699709653854370e-02 -3.689906895160675049e-01 8.387445658445358276e-02 -1.259250193834304810e-01 -1.014316640794277191e-02 -2.450074627995491028e-02 -1.987927407026290894e-02 1.354504078626632690e-01 -1.206194907426834106e-01 1.232004761695861816e-01 9.182335436344146729e-02 1.216136589646339417e-01 -1.746635586023330688e-01 -6.955632567405700684e-02 -1.933170855045318604e-01 -1.854140162467956543e-01 5.350854247808456421e-02 9.346053749322891235e-02 9.236994385719299316e-02 -1.265547424554824829e-01 4.366539791226387024e-02 7.242355495691299438e-02 5.400631949305534363e-02 2.800678610801696777e-01 6.821959465742111206e-02 1.435473114252090454e-01 -2.776671051979064941e-01 3.662240877747535706e-02 -9.274417906999588013e-02 1.171237975358963013e-01 -8.515277504920959473e-02 1.782126873731613159e-01 -1.509701907634735107e-01 1.730212718248367310e-01 4.763856157660484314e-02 2.359405308961868286e-01
7.591014355421066284e-02 -8.782613277435302734e-02 4.206764325499534607e-02 8.039236068725585938e-02 9.914832562208175659e-02 -2.372423559427261353e-02 1.628412306308746338e-02 1.136932224035263062e-01 -1.407718211412429810e-01 -4.287397861480712891e-02 1.039265692234039307e-01 -5.922812968492507935e-02 4.641130194067955017e-02 -5.228615924715995789e-02 3.366287797689437866e-02 7.316587865352630615e-02 -1.439110338687896729e-01 -2.560659125447273254e-02 5.539709702134132385e-02 3.571887314319610596e-02 -3.518202900886535645e-02 -1.309741288423538208e-01 7.624286692589521408e-03 -1.898321881890296936e-02 -1.071837544441223145e-01 1.317911595106124878e-02 3.461568802595138550e-02 -1.663496494293212891e-01 2.094138599932193756e-02 -1.779834032058715820e-01 -1.139296963810920715e-01 6.408496201038360596e-02 6.929531693458557129e-02 6.533790379762649536e-03 1.458153575658798218e-01 1.861155964434146881e-02 -4.622048139572143555e-02 8.131026476621627808e-02 -1.287382394075393677e-01 9.834586642682552338e-03 -8.057004958391189575e-02 1.624490022659301758e-01 5.240774899721145630e-02 1.293297260999679565e-01 -6.100264936685562134e-02 7.379628717899322510e-02 6.459239870309829712e-02 5.901177413761615753e-03 8.771998435258865356e-02 9.199977666139602661e-02 -7.864782959222793579e-02 -7.385209947824478149e-02 8.318205922842025757e-02 -4.638484865427017212e-02 5.031533539295196533e-02 -2.055340260267257690e-02 -1.501992046833038330e-01 -8.128573745489120483e-02 6.379579007625579834e-02 3.934134915471076965e-02 -1.533024311065673828e-01 -6.662583351135253906e-02 -9.710434824228286743e-02 -6.097789481282234192e-02 -1.332916505634784698e-02 1.180140972137451172e-01 6.270039081573486328e-02 6.816180795431137085e-02 2.699606679379940033e-02 2.108701616525650024e-01 3.958402201533317566e-02 -3.506685025058686733e-04 6.932529807090759277e-02 6.606704741716384888e-02 8.262611925601959229e-02 -6.479848176240921021e-02 -1.183412745594978333e-01 -8.129323832690715790e-03 -6.186968088150024414e-02 4.030007123947143555e-02 -3.939488157629966736e-02 -4.787159711122512817e-02 -4.459301009774208069e-02 7.952617481350898743e-03 1.245328783988952637e-02 -1.117240339517593384e-01 1.467209309339523315e-01 8.696664869785308838e-02 -9.947810322046279907e-02 -9.399563074111938477e-02 1.240088716149330139e-01 -4.837472923099994659e-03 -1.378481388092041016e-01 7.530063390731811523e-02 2.215988636016845703e-01 -2.557291463017463684e-02 2.214213311672210693e-01 1.444102972745895386e-01 -8.298611640930175781e-02 -7.136070728302001953e-02 8.407876640558242798e-02 -5.109015107154846191e-02 1.780871897935867310e-01 5.630236491560935974e-02 1.143775209784507751e-01 -1.374452412128448486e-01 -9.533895552158355713e-02 8.510074019432067871e-02 5.140396952629089355e-02 -7.571530342102050781e-02 -2.957421354949474335e-02 -4.762625694274902344e-02 -1.297800391912460327e-01 -7.004949450492858887e-02 -4.907384887337684631e-02 -6.429682672023773193e-02 -3.445985913276672363e-02 -1.006845012307167053e-01 -1.020743139088153839e-02 -5.523687601089477539e-02 -8.338701725006103516e-02 7.105971127748489380e-02 -1.199830975383520126e-02 -5.823991447687149048e-02 5.923391133546829224e-02 2.829855680465698242e-01 -7.845787703990936279e-02 3.948405385017395020e-01 -4.817542806267738342e-02 -5.422864481806755066e-02 -1.047318279743194580e-01 8.316625654697418213e-02 -8.078274130821228027e-02 5.744991824030876160e-02 8.066953718662261963e-02 2.481813915073871613e-02 -4.249987378716468811e-02 -4.224994778633117676e-02 6.470433622598648071e-02 2.277538739144802094e-02 -1.127471253275871277e-01 -5.034021660685539246e-02 -1.008906364440917969e-01 2.187915593385696411e-01 2.157961390912532806e-02 3.291293606162071228e-02 3.088261932134628296e-02 -1.112297028303146362e-01 3.243516385555267334e-02 1.481844633817672729e-01 7.231315225362777710e-02 2.860988304018974304e-02 1.267397701740264893e-01 -1.076122447848320007e-01 -1.113751754164695740e-01 1.997334510087966919e-01 2.633688785135746002e-02 6.370583921670913696e-02 1.661636531352996826e-01 5.711193010210990906e-02 5.734848603606224060e-02 -4.679450765252113342e-02 1.428936719894409180e-01 -7.767695933580398560e-02 -1.914718560874462128e-02 2.470238693058490753e-02 2.712613157927989960e-02 -6.576501578092575073e-02 6.138735637068748474e-02 2.852049842476844788e-02 -4.601948335766792297e-02 6.176568567752838135e-02 8.089882880449295044e-02 -1.355283558368682861e-01 6.852878630161285400e-02 2.193062156438827515e-01 -7.963991910219192505e-02 5.125825479626655579e-02 3.782458975911140442e-02 -1.766705513000488281e-02 -6.522812694311141968e-02 1.373757123947143555e-01 -6.155910715460777283e-02 -8.007153123617172241e-02 6.206647306680679321e-02 9.083382785320281982e-02 8.568023890256881714e-02 3.347586095333099365e-02 1.211891919374465942e-01 2.683282457292079926e-02 1.442770957946777344e-01 3.038060292601585388e-02 2.214966863393783569e-01 -1.317120790481567383e-01 3.759516179561614990e-01 3.623157681431621313e-04 -8.809532970190048218e-02 2.280323393642902374e-02 -4.179479181766510010e-02 -5.269227176904678345e-02 -1.368378251791000366e-01 9.308487176895141602e-03 -1.387310326099395752e-01 8.608457632362842560e-03 3.101623356342315674e-01 1.475581675767898560e-01 -6.753557920455932617e-02
-5.733282491564750671e-02 1.340932548046112061e-01 1.222943142056465149e-01 -1.220183596014976501e-01 -9.484992362558841705e-03 2.225851863622665405e-01 7.178895920515060425e-02 1.172383408993482590e-02 1.869085580110549927e-01 -8.727424591779708862e-02 -1.317735910415649414e-01 1.104996073991060257e-02 -6.033233180642127991e-02 2.059014290571212769e-01 -1.483830530196428299e-02 -3.879533335566520691e-02 -5.264884233474731445e-02 2.836438082158565521e-02 -5.723235011100769043e-02 2.710330486297607422e-02 -9.056841023266315460e-03 2.439599484205245972e-02 5.053604021668434143e-03 -6.970442831516265869e-02 -5.718069151043891907e-02 -3.522861050441861153e-03 -2.809263393282890320e-02 1.016381662338972092e-02 -1.222829595208168030e-01 -7.099892944097518921e-02 1.411053389310836792e-01 -2.124098092317581177e-01 1.742105036973953247e-01 1.556191146373748779e-01 2.367224311456084251e-03 3.541983291506767273e-02 1.614482402801513672e-01 1.134205609560012817e-01 -1.864929508883506060e-04 1.338158398866653442e-01 8.259230852127075195e-02 -4.874530062079429626e-02 1.511591821908950806e-01 2.670675516128540039e-01 -1.066855937242507935e-01 1.556864529848098755e-01 3.092756494879722595e-03 -2.629938907921314240e-02 -1.377011686563491821e-01 -1.724891215562820435e-01 3.340158984065055847e-02 -2.088709734380245209e-02 5.220700521022081375e-03 -4.307463020086288452e-02 9.627471864223480225e-02 -3.151769191026687622e-02 4.927063360810279846e-02 -1.981603726744651794e-02 1.412697602063417435e-02 -1.366834491491317749e-01 1.263067033141851425e-02 -8.024647086858749390e-02 5.463849753141403198e-02 -5.832384526729583740e-02 1.280017569661140442e-02 2.238716371357440948e-02 -1.123135983943939209e-01 -9.081167168915271759e-03 1.916515976190567017e-01 1.251384802162647247e-02 -1.350746769458055496e-02 -6.472808122634887695e-02 -2.228669449687004089e-02 -1.965846121311187744e-02 3.005049191415309906e-02 3.869568556547164917e-02 2.556624822318553925e-02 1.283924467861652374e-02 3.923974931240081787e-02 1.020174250006675720e-01 7.019539922475814819e-02 4.109853506088256836e-02 2.223331853747367859e-02 2.150617074221372604e-03 -3.032366558909416199e-02 -1.476984173059463501e-01 -1.425175070762634277e-01 9.628802537918090820e-03 1.257732231169939041e-02 -5.291588976979255676e-02 -2.954018674790859222e-02 1.233723014593124390e-01 1.054933816194534302e-01 -2.953384816646575928e-01 -3.183920085430145264e-01 1.936410740017890930e-02 2.704457379877567291e-02 6.635632365942001343e-02 9.367381036281585693e-02 -6.409128755331039429e-02 -4.338295012712478638e-02 1.117514148354530334e-01 9.103038161993026733e-02 5.630484595894813538e-02 -2.755801007151603699e-02 6.876423954963684082e-02 1.306259632110595703e-02 -5.150785297155380249e-02 4.770362749695777893e-03 7.186700124293565750e-03 1.618974357843399048e-01 2.558614313602447510e-01 5.245649442076683044e-02 6.323027610778808594e-02 2.310983138158917427e-03 -1.594710513018071651e-03 -1.229532808065414429e-01 -1.166784316301345825e-01 -8.169446140527725220e-03 -1.308275293558835983e-02 -6.803593039512634277e-02 -1.495661586523056030e-01 8.618525415658950806e-02 -1.614513993263244629e-02 -7.653681635856628418e-01 -7.729721665382385254e-01 -2.420148253440856934e-01 -1.859612166881561279e-01 1.732827723026275635e-01 1.177966818213462830e-01 2.404668331146240234e-01 7.367818057537078857e-02 -6.132900342345237732e-02 1.535227298736572266e-01 2.807627022266387939e-01 -1.890447288751602173e-01 -2.033780887722969055e-02 -2.377260923385620117e-01 5.016935989260673523e-02 -1.052363868802785873e-02 5.829129368066787720e-02 6.768142431974411011e-02 1.382656395435333252e-01 2.239842899143695831e-02 6.745593249797821045e-02 1.838618889451026917e-02 5.642437934875488281e-02 -2.203329056501388550e-01 -1.050059348344802856e-01 -7.732649892568588257e-02 1.642669737339019775e-02 -7.032685726881027222e-02 -1.445498615503311157e-01 -9.351789206266403198e-02 5.132233258336782455e-03 3.484691679477691650e-02 -2.313387542963027954e-01 1.240601018071174622e-01 -1.006894633173942566e-01 2.074292302131652832e-01 -1.030715834349393845e-02 -7.391658611595630646e-03 -1.572508364915847778e-01 -2.230141013860702515e-01 -8.969753235578536987e-02 3.057542629539966583e-02 5.947952345013618469e-02 1.674232184886932373e-01 -6.672026962041854858e-02 -3.572301939129829407e-02 -1.043154746294021606e-01 -1.731362044811248779e-01 1.754472553730010986e-01 4.835287109017372131e-02 8.120184391736984253e-02 -6.605731695890426636e-02 -2.033717334270477295e-01 -1.099232658743858337e-01 1.675465516746044159e-02 -1.318357884883880615e-01 -3.120411373674869537e-02 -9.247442334890365601e-02 -5.432330537587404251e-03 -7.724791020154953003e-02 -1.660309880971908569e-01 2.813864685595035553e-02 1.046107038855552673e-01 1.285593956708908081e-01 -6.306860595941543579e-02 -3.782940506935119629e-01 1.473748981952667236e-01 3.685331670567393303e-03 7.206044346094131470e-02 1.221977360546588898e-02 -4.520702362060546875e-02 1.671258956193923950e-01 1.029813885688781738e-01 -1.184953004121780396e-01 -1.337351500988006592e-01 -3.899350017309188843e-02 7.414291799068450928e-02 2.122302949428558350e-01 5.729401856660842896e-02 -1.627558656036853790e-02 1.633612997829914093e-02 1.025857478380203247e-01 1.438660919666290283e-01
2.916092798113822937e-02 9.304989874362945557e-02 1.088414341211318970e-01 4.445195570588111877e-02 2.538158595561981201e-01 6.690203398466110229e-02 4.051131010055541992e-02 4.938861355185508728e-03 -3.434469224885106087e-03 -1.927146166563034058e-01 -7.837924361228942871e-02 7.381940633058547974e-02 -4.150572791695594788e-02 7.059428840875625610e-02 1.107135564088821411e-01 -3.584671020507812500e-02 7.256834954023361206e-02 -1.470548100769519806e-02 9.650992229580879211e-03 -2.225550450384616852e-02 -1.816031290218234062e-03 3.301111981272697449e-02 -3.256205469369888306e-03 -1.196259632706642151e-02 1.877451241016387939e-01 -3.014894202351570129e-03 -1.651691971346735954e-03 -1.122493222355842590e-01 -1.300108134746551514e-01 -2.132057212293148041e-02 7.361501920968294144e-03 5.983598157763481140e-02 3.220308199524879456e-02 7.745207101106643677e-02 9.949850291013717651e-02 3.342151176184415817e-03 4.958532284945249557e-03 1.395671442151069641e-02 -2.835655398666858673e-02 3.827871009707450867e-02 6.226754561066627502e-02 2.319852588698267937e-03 -7.994628511369228363e-03 -1.743663698434829712e-01 -7.516536116600036621e-02 -5.614324472844600677e-03 2.865790203213691711e-02 1.489456892013549805e-01 2.263965643942356110e-02 -2.201922982931137085e-01 1.193314790725708008e-02 -3.004736825823783875e-02 -3.253109380602836609e-02 -1.116014495491981506e-01 5.056284368038177490e-02 3.649766743183135986e-02 -1.077905967831611633e-01 1.959202438592910767e-02 -1.850749403238296509e-01 -2.541963160037994385e-01 1.190837845206260681e-01 2.118086069822311401e-02 1.199337095022201538e-01 8.054392039775848389e-02 1.207276880741119385e-01 2.133317440748214722e-01 4.709241166710853577e-02 9.102885425090789795e-02 -7.932390272617340088e-02 -1.474248319864273071e-01 2.961078286170959473e-02 4.254818335175514221e-02 8.995193243026733398e-02 -4.066613689064979553e-02 -6.657456606626510620e-02 -7.354301214218139648e-02 -6.773247569799423218e-02 -1.445506885647773743e-02 -1.992379501461982727e-02 -9.038204699754714966e-02 3.883637487888336182e-02 4.679614305496215820e-02 -3.867870941758155823e-02 2.286305651068687439e-02 2.551644742488861084e-01 4.484768211841583252e-02 -5.384689196944236755e-02 -8.414013683795928955e-02 7.800792157649993896e-02 -2.217938750982284546e-01 -1.051720380783081055e-01 2.880942262709140778e-02 1.052661915309727192e-03 -2.446172386407852173e-02 -1.059591099619865417e-01 2.099234461784362793e-01 -2.791859582066535950e-02 -1.136259883642196655e-01 -1.359864175319671631e-01 2.955663762986660004e-02 1.145109012722969055e-01 1.387091428041458130e-01 4.011898487806320190e-02 2.678386308252811432e-02 -1.085102856159210205e-01 -1.223870515823364258e-01 1.868985295295715332e-01 -4.098908510059118271e-03 -2.713469229638576508e-02 -4.081884399056434631e-03 -6.940892338752746582e-02 -2.625831961631774902e-01 6.125158444046974182e-02 -8.913189172744750977e-03 3.829545155167579651e-02 -2.746714837849140167e-02 -3.963680937886238098e-02 -8.756148070096969604e-02 -6.404456496238708496e-02 2.574748732149600983e-02 -2.221338301897048950e-01 -1.205908209085464478e-01 -3.599600493907928467e-02 4.172907397150993347e-02 3.093623816967010498e-01 4.658722877502441406e-02 1.354189664125442505e-01 -4.948857799172401428e-02 8.027924341149628162e-04 -3.734859824180603027e-02 -7.680313289165496826e-02 3.389598131179809570e-01 -4.110179841518402100e-03 1.331242024898529053e-01 -2.028740942478179932e-02 1.590719968080520630e-01 -1.508655101060867310e-01 9.045558422803878784e-02 2.730148434638977051e-01 -2.414900809526443481e-02 -9.983953787013888359e-04 -1.088662818074226379e-01 -2.375596612691879272e-01 1.445847749710083008e-01 1.372157130390405655e-03 4.031084105372428894e-02 -9.559583850204944611e-03 -5.159150343388319016e-03 -1.497845202684402466e-01 4.811984952539205551e-03 4.815338179469108582e-02 -1.245123818516731262e-01 9.165948256850242615e-03 -2.087495476007461548e-01 -1.016362756490707397e-01 -4.980124067515134811e-03 -6.387093104422092438e-03 1.546878963708877563e-01 1.446186751127243042e-01 -4.554121568799018860e-02 -9.150730073451995850e-02 2.109165340662002563e-01 2.159559577703475952e-01 1.583431810140609741e-01 9.693673253059387207e-02 -1.670558899641036987e-01 6.824932992458343506e-02 -7.598868012428283691e-02 -9.851511567831039429e-02 2.805063314735889435e-02 -4.567628353834152222e-02 1.954457461833953857e-01 1.090749874711036682e-01 -8.118219673633575439e-02 -1.189875509589910507e-02 2.040352672338485718e-02 1.044580042362213135e-01 1.218793913722038269e-01 -9.504212439060211182e-02 -1.016420722007751465e-01 1.459092944860458374e-01 6.330347061157226562e-02 -8.185502886772155762e-02 -3.063105046749114990e-02 2.127214670181274414e-01 1.118322461843490601e-01 -5.020798742771148682e-02 1.701534092426300049e-01 2.531199157238006592e-01 1.641272306442260742e-01 5.662443116307258606e-02 -6.452964991331100464e-02 -7.816015183925628662e-02 6.734430789947509766e-02 -8.801842480897903442e-02 5.596274137496948242e-02 -1.153117194771766663e-01 -6.719025969505310059e-02 8.064090460538864136e-02 -8.367033302783966064e-02 2.184500992298126221e-01 8.974639326333999634e-02 -5.138491094112396240e-02 -1.233967989683151245e-01 5.866479128599166870e-02 -4.025235027074813843e-02 9.493526816368103027e-02
-1.361237913370132446e-01 -1.026832382194697857e-03 -2.968688495457172394e-02 1.081521660089492798e-01 3.073981404304504395e-02 9.648477658629417419e-03 1.339937299489974976e-01 1.361224520951509476e-02 2.034652978181838989e-02 -1.334250271320343018e-01 -6.132344156503677368e-02 3.203110769391059875e-02 9.041770547628402710e-02 -5.866638943552970886e-02 -5.770541727542877197e-02 1.227957103401422501e-02 -1.490538474172353745e-02 -1.057749390602111816e-01 -1.113037541508674622e-01 -1.366881094872951508e-02 -7.822496816515922546e-03 -1.083519682288169861e-02 -4.523265734314918518e-02 9.487345814704895020e-02 -5.406828224658966064e-02 -7.681058347225189209e-02 -2.121180994436144829e-03 -1.383723020553588867e-01 -2.910315990447998047e-02 1.137095093727111816e-01 2.166258543729782104e-02 -1.562011390924453735e-01 -1.440505832433700562e-01 4.811778664588928223e-02 1.038448140025138855e-01 1.012887991964817047e-02 2.006594790145754814e-03 1.894578635692596436e-01 4.655589163303375244e-02 3.905420005321502686e-02 -5.804818868637084961e-02 3.320944309234619141e-02 4.315210133790969849e-02 -2.392955683171749115e-02 -8.413735777139663696e-03 2.523583918809890747e-02 7.044756785035133362e-03 7.097515277564525604e-03 2.380390837788581848e-02 -6.716883182525634766e-02 -2.516589313745498657e-02 -7.724395953118801117e-03 -1.887625642120838165e-02 -5.555523186922073364e-02 -5.945453420281410217e-02 3.289046883583068848e-02 -2.094889432191848755e-02 3.507616743445396423e-02 -1.569116711616516113e-01 -3.598413243889808655e-02 -4.275412485003471375e-02 1.289166696369647980e-02 2.021175324916839600e-01 -5.674726888537406921e-02 -5.392378196120262146e-02 -2.571163699030876160e-02 9.976959787309169769e-03 -1.067178025841712952e-01 -4.306685179471969604e-02 1.040044501423835754e-01 3.316669911146163940e-02 9.208063781261444092e-02 8.613803982734680176e-02 -1.640485972166061401e-02 -7.965062558650970459e-02 -2.286137081682682037e-02 4.844864457845687866e-02 3.357808291912078857e-02 8.105502277612686157e-02 -3.898748010396957397e-02 -4.694783687591552734e-02 9.314426779747009277e-02 5.172989144921302795e-02 -4.574251361191272736e-04 -2.827160805463790894e-02 1.775068417191505432e-02 1.043974980711936951e-01 6.348215788602828979e-02 2.233520336449146271e-02 -1.712449043989181519e-01 -8.363654837012290955e-03 -1.002941578626632690e-01 9.604392200708389282e-02 2.257454246282577515e-01 2.450857460498809814e-01 -2.551369182765483856e-02 -1.978638954460620880e-02 1.570119261741638184e-01 2.050650492310523987e-02 6.099545955657958984e-02 6.145811080932617188e-02 4.134804755449295044e-02 2.830344811081886292e-02 6.596700847148895264e-02 4.570809006690979004e-02 9.846266359090805054e-02 9.854375571012496948e-02 7.062029093503952026e-02 3.633325453847646713e-03 -2.055286616086959839e-02 6.121186539530754089e-02 -9.061760455369949341e-02 -4.422255977988243103e-02 2.437188662588596344e-02 -2.761489152908325195e-02 -2.229208126664161682e-02 -6.112961098551750183e-02 6.298696994781494141e-02 6.474964320659637451e-02 2.807815931737422943e-02 1.187554150819778442e-01 7.244266103953123093e-03 1.340994536876678467e-01 -2.538380585610866547e-02 6.199733614921569824e-01 1.361170709133148193e-01 1.561168581247329712e-01 -3.559418767690658569e-02 -2.670128643512725830e-01 2.353586852550506592e-01 -3.867995738983154297e-01 1.153646484017372131e-01 1.648586243391036987e-01 9.004300460219383240e-03 -2.003057301044464111e-01 1.809143088757991791e-02 1.112328376621007919e-03 1.570164971053600311e-02 1.313378065824508667e-01 1.158796157687902451e-02 -1.683252900838851929e-01 1.587424278259277344e-01 -1.419000327587127686e-01 5.115634948015213013e-02 4.924846440553665161e-02 -1.974060945212841034e-02 7.682412862777709961e-02 -3.939019981771707535e-03 8.259149640798568726e-02 3.988115116953849792e-02 5.183010920882225037e-02 2.063237875699996948e-02 -1.109025254845619202e-01 -8.346843533217906952e-03 -9.710896760225296021e-02 2.802727930247783661e-02 1.779306232929229736e-01 -1.143403425812721252e-01 1.629878282546997070e-01 -1.652473509311676025e-01 -2.523247338831424713e-02 -1.077235713601112366e-01 2.763438969850540161e-02 -5.202746018767356873e-02 4.578909277915954590e-02 6.506428867578506470e-02 -6.049225479364395142e-02 1.833206862211227417e-01 -1.485874205827713013e-01 1.769661903381347656e-02 -2.782425582408905029e-01 3.865454792976379395e-01 -3.930167853832244873e-02 -5.991572514176368713e-02 -7.667846232652664185e-02 2.272746562957763672e-01 -5.845564231276512146e-02 -4.409937933087348938e-02 8.552067726850509644e-02 2.149006575345993042e-01 2.280779480934143066e-01 -3.298989310860633850e-02 2.577641904354095459e-01 -1.048167049884796143e-01 -7.983442395925521851e-03 -8.827672153711318970e-02 -2.396262437105178833e-02 9.810494631528854370e-02 1.149679571390151978e-01 4.257481172680854797e-02 -1.289890259504318237e-01 -3.943079337477684021e-02 3.607337549328804016e-02 6.485596299171447754e-02 -3.457664251327514648e-01 -5.925670638680458069e-02 -3.632560744881629944e-02 -7.405538111925125122e-02 -2.793052420020103455e-02 1.024506241083145142e-01 4.200156629085540771e-01 -1.497202515602111816e-01 -5.179473012685775757e-02 1.310338824987411499e-01 -5.326164513826370239e-02 1.805813908576965332e-01 6.807021051645278931e-02
-1.829833909869194031e-02 -7.356692850589752197e-02 1.076036617159843445e-01 -3.172182664275169373e-02 1.220424845814704895e-02 8.609592169523239136e-02 5.125982686877250671e-02 -1.645391285419464111e-01 -1.702795028686523438e-01 -7.893738150596618652e-02 -8.715879172086715698e-02 5.642993375658988953e-03 -4.070010781288146973e-02 -4.371254146099090576e-02 2.919119969010353088e-02 -1.306442572968080640e-04 -8.116838335990905762e-02 -4.202526435256004333e-02 -1.954700611531734467e-02 6.918635219335556030e-02 -8.845934644341468811e-03 7.900937460362911224e-03 -8.226040750741958618e-02 -4.600442945957183838e-02 -3.267821297049522400e-02 6.070573627948760986e-02 -3.382714837789535522e-02 -1.502462774515151978e-01 -1.419515907764434814e-01 1.492584347724914551e-01 -8.349140733480453491e-02 9.901781380176544189e-02 -1.736047565937042236e-01 1.270198822021484375e-01 -3.590346872806549072e-02 -5.885712057352066040e-02 1.844178140163421631e-01 -2.378714038059115410e-03 -4.178291559219360352e-02 -1.260114647448062897e-02 1.532171107828617096e-02 -8.713433891534805298e-02 1.382228881120681763e-01 -1.760224439203739166e-02 -2.321135252714157104e-01 1.261489987373352051e-01 -3.782103210687637329e-02 -1.661274284124374390e-01 -5.434477701783180237e-02 -1.582104116678237915e-01 5.798261240124702454e-02 -4.085382074117660522e-02 -9.284252300858497620e-03 1.098020672798156738e-01 -1.068822965025901794e-01 -1.094152852892875671e-01 -1.125861331820487976e-02 2.283233217895030975e-02 -5.627919733524322510e-02 6.053355708718299866e-02 1.171019598841667175e-01 -6.298761814832687378e-02 -1.284537613391876221e-01 -4.440325126051902771e-02 1.230627968907356262e-01 -1.112064346671104431e-01 -7.301048934459686279e-02 -7.702281326055526733e-02 1.203688234090805054e-01 9.550730884075164795e-02 -1.453538537025451660e-01 1.375711895525455475e-02 -2.190987616777420044e-01 -3.923624008893966675e-02 1.599466055631637573e-01 -3.473650291562080383e-02 9.368417412042617798e-02 2.371833287179470062e-02 1.620172262191772461e-01 -1.720906198024749756e-01 9.561025351285934448e-02 1.369164437055587769e-01 3.837433457374572754e-02 7.143735885620117188e-03 -1.636351495981216431e-01 8.118910342454910278e-02 7.037873566150665283e-02 1.848795684054493904e-03 2.514737844467163086e-02 -2.119708210229873657e-01 -1.096405368298292160e-02 3.019084455445408821e-03 -6.739699840545654297e-02 -4.204665869474411011e-02 -7.720711827278137207e-02 -1.836443096399307251e-01 6.265577860176563263e-03 2.697664313018321991e-02 7.631653919816017151e-03 1.422232389450073242e-01 4.249516502022743225e-02 -1.814090907573699951e-01 -1.089448779821395874e-01 -2.126036584377288818e-01 -6.305591017007827759e-02 3.391406685113906860e-02 -7.105386257171630859e-02 8.491074293851852417e-02 -7.666243705898523331e-03 -1.193521097302436829e-01 -1.782640367746353149e-01 -7.723429054021835327e-02 -8.202970027923583984e-03 -4.472712427377700806e-02 -2.400145493447780609e-02 2.885088883340358734e-02 6.830680370330810547e-02 -6.422213464975357056e-02 5.490849912166595459e-02 -5.234568379819393158e-03 -2.193124741315841675e-01 -4.326495900750160217e-02 -1.943812146782875061e-02 -1.193816661834716797e-01 1.488897502422332764e-01 -4.470276832580566406e-02 -3.461578115820884705e-02 -9.706085920333862305e-02 1.131256818771362305e-01 -2.217297106981277466e-01 1.471108049154281616e-01 1.103590726852416992e-01 -9.933546930551528931e-02 3.168921172618865967e-02 1.298623979091644287e-01 -1.472040545195341110e-02 1.566291898488998413e-01 -4.983370751142501831e-02 -7.159890234470367432e-02 2.234806679189205170e-02 -1.290420740842819214e-01 -1.020641401410102844e-01 4.139378666877746582e-02 1.607034504413604736e-01 -2.201238721609115601e-01 1.166061777621507645e-02 -8.835703134536743164e-02 -3.073077462613582611e-02 2.681923471391201019e-02 -4.090482369065284729e-03 6.412061396986246109e-03 -7.247214205563068390e-03 1.906573027372360229e-01 -9.336397983133792877e-03 5.171299725770950317e-02 -6.092832610011100769e-02 -9.443040937185287476e-02 1.337211811915040016e-03 1.104795001447200775e-02 -4.659590125083923340e-02 3.192156553268432617e-01 2.588878944516181946e-02 4.284475371241569519e-02 8.553100377321243286e-02 7.885137200355529785e-02 1.832409203052520752e-01 5.917270202189683914e-03 7.080956362187862396e-03 1.664938628673553467e-01 -1.063270792365074158e-01 -4.287195950746536255e-02 8.179695904254913330e-02 3.931484743952751160e-02 3.215129300951957703e-02 -7.741551846265792847e-02 3.632424771785736084e-02 2.168851941823959351e-01 2.555639855563640594e-02 1.972479969263076782e-01 1.011289358139038086e-01 1.727525377646088600e-04 -1.717576384544372559e-02 -2.350743263959884644e-01 5.624743551015853882e-02 -1.144461706280708313e-01 -2.060423791408538818e-01 -8.394370973110198975e-02 -8.915054798126220703e-02 1.822630017995834351e-01 6.025132536888122559e-02 9.889853745698928833e-02 -1.968039572238922119e-02 3.394018709659576416e-01 -2.107949927449226379e-02 9.144473075866699219e-02 -2.765493392944335938e-01 -8.730112761259078979e-02 -5.809836089611053467e-02 -5.415867641568183899e-02 -2.352340705692768097e-02 -1.238336227834224701e-02 1.183905005455017090e-01 9.296859055757522583e-02 2.640417516231536865e-01 2.694463133811950684e-01 5.792205780744552612e-02 3.559548035264015198e-02
1.253430992364883423e-01 -6.124033033847808838e-02 -7.860507071018218994e-02 9.180919826030731201e-02 1.204086393117904663e-01 -1.284123361110687256e-01 -1.882564276456832886e-02 1.901855021715164185e-01 1.055452749133110046e-01 -7.758515328168869019e-02 2.006461471319198608e-01 8.533696830272674561e-02 -5.829037725925445557e-02 5.105578899383544922e-02 -1.164660528302192688e-01 -1.167226303368806839e-02 -8.284607529640197754e-02 2.600794844329357147e-02 -7.977660000324249268e-02 -1.823156699538230896e-02 1.235210988670587540e-02 1.237204996868968010e-03 6.667375564575195312e-02 -3.243423625826835632e-02 2.243493124842643738e-02 2.380177006125450134e-02 4.677200317382812500e-02 2.309712618589401245e-01 2.069987207651138306e-01 1.264986097812652588e-01 7.731238007545471191e-02 2.218683809041976929e-01 -1.685719937086105347e-01 -1.200056448578834534e-01 1.384876221418380737e-01 -8.047172799706459045e-03 -4.864440113306045532e-02 -2.360344165936112404e-03 1.388943940401077271e-02 -4.264670982956886292e-02 -2.392794787883758545e-01 -8.099301159381866455e-02 1.178954541683197021e-01 1.417223215103149414e-01 3.601376712322235107e-02 -8.379865437746047974e-02 2.285415120422840118e-02 -5.417806655168533325e-02 -1.082212477922439575e-02 -2.191611565649509430e-04 -4.215768352150917053e-02 3.323700977489352226e-03 -7.833319716155529022e-03 3.284080326557159424e-02 -1.111052837222814560e-02 2.744492143392562866e-02 7.656491547822952271e-02 1.116414926946163177e-02 2.431230247020721436e-01 1.349212825298309326e-01 -5.518672615289688110e-02 1.383274793624877930e-01 7.515630871057510376e-02 -2.244062349200248718e-02 -1.130359694361686707e-01 -6.663735955953598022e-02 1.161609068512916565e-01 1.260195523500442505e-01 -1.881954632699489594e-02 2.603490650653839111e-02 -4.262755066156387329e-02 -1.454090327024459839e-01 1.430599670857191086e-02 -1.269632298499345779e-02 -3.811985999345779419e-02 2.173115126788616180e-02 5.490703880786895752e-02 -1.120051741600036621e-02 -7.679159939289093018e-02 1.465158537030220032e-02 -1.461809035390615463e-02 -3.453123196959495544e-02 1.770341419614851475e-03 1.262207888066768646e-02 7.136271893978118896e-02 -4.221125692129135132e-02 -5.092426761984825134e-02 -2.223829925060272217e-02 1.025031041353940964e-02 2.428051680326461792e-01 2.640972435474395752e-01 -4.529929906129837036e-02 -1.125126406550407410e-01 -3.597759306430816650e-01 1.556622087955474854e-01 -4.618346691131591797e-01 -1.589279621839523315e-01 -8.761869370937347412e-02 4.271558672189712524e-02 8.101672679185867310e-02 1.745728217065334320e-02 8.323272317647933960e-02 -8.575736731290817261e-02 1.392230689525604248e-01 -2.960621379315853119e-02 -1.990388929843902588e-01 -6.320174038410186768e-02 9.825201332569122314e-02 -1.034577656537294388e-02 -5.674069002270698547e-02 7.215449213981628418e-02 9.052982926368713379e-02 2.623588219285011292e-02 -6.028298288583755493e-03 2.068632654845714569e-02 -2.016781829297542572e-03 -4.242740571498870850e-02 -1.133196875452995300e-01 6.367558147758245468e-03 6.376004777848720551e-03 3.629732429981231689e-01 5.445409566164016724e-02 8.000892400741577148e-02 -1.358253415673971176e-02 -3.645460903644561768e-01 3.281910419464111328e-01 -1.411577343940734863e+00 3.984825685620307922e-02 1.295885443687438965e-01 2.906869165599346161e-02 -6.110636517405509949e-02 1.667925417423248291e-01 6.377552449703216553e-02 3.596122860908508301e-01 9.325569123029708862e-02 -3.314347565174102783e-01 -2.663690745830535889e-01 2.470220923423767090e-01 1.595006287097930908e-01 1.927052438259124756e-02 -6.240173056721687317e-02 5.573084950447082520e-02 9.116042405366897583e-03 6.182542070746421814e-02 4.762078449130058289e-02 2.391842938959598541e-02 1.119068339467048645e-01 1.785895903594791889e-03 -2.029132694005966187e-01 -2.671633614227175713e-03 4.781825095415115356e-02 4.236913025379180908e-01 -2.085937000811100006e-02 5.974086932837963104e-03 -4.408438690006732941e-03 -3.684613108634948730e-02 -3.156973794102668762e-02 1.069771498441696167e-01 1.201921477913856506e-01 1.124260202050209045e-01 -5.734074488282203674e-02 7.360313832759857178e-02 -1.748952120542526245e-01 -2.801466174423694611e-02 -3.767923265695571899e-02 -4.719784110784530640e-02 6.290645338594913483e-03 1.066641360521316528e-01 1.744155585765838623e-01 -9.975413978099822998e-02 1.830570995807647705e-01 7.871813327074050903e-02 3.210709616541862488e-02 -6.837869435548782349e-02 1.035221740603446960e-01 -4.775520414113998413e-02 -2.558199502527713776e-02 -2.791388332843780518e-02 5.018562451004981995e-02 -3.784340620040893555e-02 2.399618364870548248e-02 1.115859299898147583e-01 -2.166065573692321777e-01 1.987739838659763336e-02 -9.690338373184204102e-02 -8.742474019527435303e-02 -7.219893485307693481e-02 1.887774467468261719e-01 4.063295200467109680e-02 -2.056246846914291382e-01 5.620019137859344482e-02 -5.922082066535949707e-02 -8.857514709234237671e-02 3.966653347015380859e-02 1.005313023924827576e-01 7.411853224039077759e-02 2.279518544673919678e-01 -3.845854848623275757e-02 -1.388637423515319824e-01 -1.348187625408172607e-01 6.469938755035400391e-01 3.115478344261646271e-02 -1.715283393859863281e-01 -7.136938720941543579e-02 9.382352977991104126e-02 -2.621651291847229004e-01 -4.057829082012176514e-02
-6.136320997029542923e-03 -9.984372556209564209e-02 -5.911424756050109863e-02 -3.499201312661170959e-02 -8.765941858291625977e-02 -1.837793923914432526e-02 8.812584728002548218e-02 -9.141924977302551270e-02 -7.564613968133926392e-02 -4.189710691571235657e-02 4.797779396176338196e-02 -1.903582811355590820e-01 -1.780390739440917969e-02 -4.288346040993928909e-03 1.106102950870990753e-02 -2.066139876842498779e-02 -1.310427039861679077e-01 2.713090740144252777e-02 -7.325256615877151489e-02 -1.036325320601463318e-01 1.410875935107469559e-02 1.652599871158599854e-02 9.505601972341537476e-02 -4.564901441335678101e-02 7.471918314695358276e-02 7.252530008554458618e-02 1.739446222782135010e-01 1.002601534128189087e-01 8.366267383098602295e-02 -4.162722453474998474e-02 4.713405296206474304e-02 -2.175705134868621826e-02 5.033812671899795532e-02 -1.141287088394165039e-01 -5.085593834519386292e-02 6.642647087574005127e-02 -1.060653850436210632e-01 -2.975921519100666046e-02 -1.300331801176071167e-01 -9.306120127439498901e-02 -3.535271435976028442e-02 8.806452155113220215e-02 7.050365954637527466e-02 -5.793784186244010925e-02 2.114800363779067993e-02 -9.028771519660949707e-02 4.018681868910789490e-02 -2.784164436161518097e-02 3.928462509065866470e-03 -8.285158127546310425e-02 -3.994841501116752625e-02 9.395945817232131958e-02 -1.132695470005273819e-02 -1.979790255427360535e-02 -1.360059827566146851e-01 -8.060433715581893921e-02 -4.462566971778869629e-02 -3.670828416943550110e-02 1.762909591197967529e-01 -7.366990298032760620e-02 1.039683595299720764e-01 -7.901529967784881592e-02 -3.859679400920867920e-02 6.331691145896911621e-02 -1.200855970382690430e-01 3.093022678513079882e-04 3.866604994982481003e-03 -2.369821816682815552e-02 -5.930121243000030518e-02 2.567314505577087402e-01 -1.743414252996444702e-02 -4.969581961631774902e-02 1.103093922138214111e-01 -1.074161902070045471e-01 -2.047293260693550110e-02 6.905817240476608276e-02 -4.329070448875427246e-02 -7.692125439643859863e-02 -4.627235606312751770e-02 -1.202286407351493835e-01 -4.361766949295997620e-02 -3.883518651127815247e-02 -4.791612550616264343e-02 -4.324137046933174133e-02 1.410407572984695435e-01 1.870367303490638733e-02 -3.933654353022575378e-02 -5.945312324911355972e-03 -6.869539618492126465e-02 2.537986636161804199e-01 8.574573695659637451e-02 -4.748333245515823364e-02 1.444230228662490845e-01 1.074193790555000305e-01 3.179669752717018127e-02 1.076251715421676636e-01 7.196994870901107788e-02 1.532115787267684937e-01 4.486715048551559448e-02 -3.269154578447341919e-02 1.474144458770751953e-01 -1.044502481818199158e-01 1.830127984285354614e-01 2.893533557653427124e-02 -7.458063960075378418e-02 6.301194429397583008e-02 -2.136594057083129883e-02 2.560948394238948822e-02 5.892383679747581482e-02 4.739969223737716675e-02 1.265495866537094116e-01 -1.882085762917995453e-02 4.602461308240890503e-02 1.453938521444797516e-02 2.558997273445129395e-02 -1.162094324827194214e-01 1.218466311693191528e-01 -2.527619525790214539e-02 -1.024641096591949463e-02 3.932244330644607544e-02 1.408378183841705322e-01 2.936089038848876953e-01 -1.258169263601303101e-01 -1.501383483409881592e-01 1.540706455707550049e-01 3.167566359043121338e-01 3.245287016034126282e-02 -1.688577234745025635e-01 -1.664268076419830322e-01 2.187500149011611938e-02 -1.305086761713027954e-01 2.996006011962890625e-01 5.404634773731231689e-02 1.799817085266113281e-01 -7.333508133888244629e-02 -1.318218410015106201e-01 1.659890264272689819e-01 -1.391502097249031067e-02 -5.798522382974624634e-02 -4.830533638596534729e-02 -9.833591431379318237e-02 2.418445982038974762e-02 -1.536622494459152222e-01 1.238203123211860657e-01 7.449086755514144897e-02 3.802344435825943947e-03 6.369209289550781250e-02 -7.717834413051605225e-02 2.881616950035095215e-01 -3.003847086802124977e-03 -4.897736385464668274e-02 1.915143579244613647e-01 -1.315514296293258667e-01 -9.104517102241516113e-02 -1.050773859024047852e-01 1.073117926716804504e-01 -1.132309623062610626e-02 1.205198541283607483e-01 2.445792257785797119e-01 1.461737453937530518e-01 5.357937514781951904e-02 -4.209180548787117004e-02 1.465353369712829590e-01 1.905546635389328003e-01 -4.930554330348968506e-02 1.697468757629394531e-01 5.413379520177841187e-02 -9.990430623292922974e-02 6.160516291856765747e-02 -6.749667227268218994e-02 1.582483649253845215e-01 -2.904864959418773651e-02 1.343311369419097900e-01 -7.380640506744384766e-02 -5.188008025288581848e-02 1.792894750833511353e-01 1.977124959230422974e-01 -2.126276195049285889e-01 1.833404153585433960e-01 1.442029327154159546e-01 -7.603499293327331543e-02 -1.212435401976108551e-02 -2.626160159707069397e-02 -2.983376197516918182e-02 1.218609362840652466e-01 -6.012170016765594482e-02 -1.845839321613311768e-01 -1.592138287378475070e-04 -1.206388603895902634e-02 -4.083476215600967407e-02 -1.673303395509719849e-01 4.091530293226242065e-02 9.813987463712692261e-02 -7.705983519554138184e-02 4.403311759233474731e-02 -1.180290654301643372e-01 1.022728309035301208e-01 1.541886758059263229e-02 -7.424272596836090088e-02 -7.567655295133590698e-02 7.270549237728118896e-02 4.701834917068481445e-02 6.130055338144302368e-02 2.396803349256515503e-02 1.384660452604293823e-01 1.291586309671401978e-01 -1.497068852186203003e-01
5.056497827172279358e-02 -9.239113889634609222e-03 -9.902355261147022247e-03 4.020019993185997009e-02 -1.088782325387001038e-01 1.221269294619560242e-01 1.669612824916839600e-01 -6.380129605531692505e-02 -2.886679023504257202e-02 1.329093724489212036e-01 -4.366738721728324890e-02 1.963362246751785278e-01 3.190673515200614929e-02 1.780257374048233032e-02 4.317609965801239014e-02 -1.377010717988014221e-02 3.586731106042861938e-02 3.616849705576896667e-02 6.269238144159317017e-02 1.942542847245931625e-03 2.278703823685646057e-02 1.636558771133422852e-02 -7.218665629625320435e-02 2.560830488801002502e-02 -7.486899942159652710e-02 6.010819226503372192e-03 -3.777470439672470093e-02 -7.167987991124391556e-03 2.616217434406280518e-01 -7.434271275997161865e-02 -7.359616458415985107e-02 4.216049611568450928e-02 -3.507268056273460388e-02 4.048662632703781128e-02 -1.868433505296707153e-02 -8.035560697317123413e-02 -1.445885300636291504e-01 -1.182611957192420959e-01 -8.011228404939174652e-03 -3.958927467465400696e-02 -6.945191323757171631e-02 2.087444067001342773e-01 -1.035529468208551407e-02 1.356184929609298706e-01 5.746999010443687439e-02 1.153477560728788376e-02 -7.044099736958742142e-03 1.975995302200317383e-02 -1.627476140856742859e-02 5.146026611328125000e-02 5.629072338342666626e-02 -7.564860861748456955e-04 1.088717859238386154e-02 -8.188070356845855713e-02 -7.067637890577316284e-02 -3.513961657881736755e-02 1.203425694257020950e-02 -4.618558660149574280e-02 3.671109676361083984e-02 3.414450883865356445e-01 -3.265821933746337891e-02 -2.214482612907886505e-02 -2.417738437652587891e-01 -7.478962093591690063e-02 1.502661705017089844e-01 3.081929311156272888e-02 2.873392961919307709e-02 1.286123692989349365e-01 6.955781579017639160e-02 -2.201143652200698853e-02 -2.540603652596473694e-02 3.392457962036132812e-02 4.077751189470291138e-02 -6.939921528100967407e-02 2.399809285998344421e-02 -2.049073576927185059e-01 1.589435338973999023e-01 -8.412832394242286682e-03 -7.655758410692214966e-02 9.441130794584751129e-03 -6.600446067750453949e-04 -2.290547080338001251e-02 1.324978948105126619e-04 2.432772703468799591e-02 6.543587893247604370e-02 -9.896714240312576294e-02 -1.828577518463134766e-01 -4.493672028183937073e-02 -2.008383721113204956e-02 9.159647673368453979e-02 1.686063855886459351e-01 2.398646026849746704e-01 8.628924936056137085e-02 -4.171730205416679382e-02 8.696697652339935303e-02 2.600365877151489258e-01 -4.421638697385787964e-02 -2.419123612344264984e-02 2.115280926227569580e-02 6.512285768985748291e-02 2.874995954334735870e-02 -2.269189804792404175e-01 1.295028533786535263e-02 -1.026054546236991882e-01 -1.147573515772819519e-01 3.097197413444519043e-02 1.359024085104465485e-02 1.509423404932022095e-01 -4.023075476288795471e-02 -8.753968775272369385e-02 1.578817963600158691e-01 9.909805655479431152e-02 2.747892215847969055e-02 -3.955183550715446472e-02 1.057093497365713120e-02 9.657562524080276489e-02 -2.450522333383560181e-01 1.266346499323844910e-02 -6.599912047386169434e-02 2.545299567282199860e-02 1.148622930049896240e-01 4.643887281417846680e-02 5.657195672392845154e-02 -7.343631237745285034e-02 -1.165113896131515503e-01 9.662011265754699707e-02 5.430496931076049805e-01 -1.570839732885360718e-01 -1.075960844755172729e-01 7.285561412572860718e-02 2.852910161018371582e-01 2.445248365402221680e-01 -3.908393383026123047e-01 -2.746613882482051849e-02 -3.032114505767822266e-01 -2.149358093738555908e-01 1.375796943902969360e-01 -2.021431028842926025e-01 1.682191938161849976e-01 -1.761194877326488495e-02 1.002135220915079117e-02 4.501356184482574463e-02 5.897355824708938599e-02 5.261371657252311707e-02 -4.950227215886116028e-02 -2.839502319693565369e-02 9.076698683202266693e-03 -1.657813340425491333e-01 1.901569776237010956e-02 -4.642010107636451721e-02 5.816477164626121521e-02 1.703806370496749878e-01 1.290924400091171265e-01 1.599396206438541412e-02 8.097071945667266846e-02 6.357022374868392944e-02 1.782342046499252319e-01 1.093689650297164917e-01 -1.622879207134246826e-01 2.641361579298973083e-02 -1.074507310986518860e-01 2.940421700477600098e-01 -9.054362028837203979e-02 -8.329623937606811523e-02 -1.150886863470077515e-01 -4.497082903981208801e-02 6.930323690176010132e-02 9.271802753210067749e-02 -3.238379955291748047e-01 1.278266161680221558e-01 1.415330022573471069e-01 -1.223933026194572449e-01 9.844682365655899048e-02 1.598435640335083008e-02 -9.833058714866638184e-02 -3.404892981052398682e-02 1.231236662715673447e-02 -1.156788617372512817e-01 -5.370333045721054077e-02 1.515040248632431030e-01 1.126737520098686218e-01 -2.141076177358627319e-01 1.388649642467498779e-01 1.037437394261360168e-01 -2.435080409049987793e-01 4.944415390491485596e-02 1.513821035623550415e-01 6.125389039516448975e-02 1.299810111522674561e-01 4.113207757472991943e-02 -1.365269422531127930e-01 8.674632012844085693e-02 -1.153915300965309143e-01 1.113002374768257141e-01 -6.402788758277893066e-01 1.409707367420196533e-01 -1.433890759944915771e-01 -2.568193376064300537e-01 1.749360002577304840e-02 2.255627512931823730e-01 6.337951123714447021e-02 -2.174758464097976685e-01 -2.719965279102325439e-01 9.347289800643920898e-03 8.404598385095596313e-02 -1.397769898176193237e-01 1.221272796392440796e-01
-2.258923202753067017e-01 4.864069446921348572e-02 1.483602225780487061e-01 -7.231738418340682983e-02 -1.272084861993789673e-01 -4.974188283085823059e-02 7.744248956441879272e-02 6.420426070690155029e-02 1.465209126472473145e-01 1.125929132103919983e-02 -1.458227187395095825e-01 1.947407843545079231e-03 1.078572794795036316e-01 5.857129115611314774e-03 4.948649927973747253e-02 -1.143228635191917419e-02 -9.882008656859397888e-03 -2.108401432633399963e-02 -7.723932154476642609e-03 -1.351065188646316528e-01 1.473641768097877502e-02 -1.441532559692859650e-02 1.288538575172424316e-01 1.092175468802452087e-01 7.665123045444488525e-02 8.928817510604858398e-02 6.625081598758697510e-02 -8.434288948774337769e-02 7.209358364343643188e-02 4.966479167342185974e-02 -1.313964426517486572e-01 -1.508020460605621338e-01 8.528884500265121460e-02 -1.676760613918304443e-01 -1.850182376801967621e-02 -1.980442106723785400e-01 7.402831688523292542e-03 -2.698386646807193756e-02 -7.093608379364013672e-02 5.545584112405776978e-02 -6.863465160131454468e-02 7.103933393955230713e-02 1.600081473588943481e-02 -1.976920105516910553e-02 3.738213330507278442e-02 1.338885724544525146e-01 -4.555931687355041504e-02 1.249215099960565567e-02 1.565167307853698730e-02 8.455518633127212524e-02 -9.677001088857650757e-02 -4.192991927266120911e-02 3.180009871721267700e-02 -3.773188591003417969e-02 1.295957267284393311e-01 5.829025432467460632e-02 -7.983630150556564331e-02 -4.672909528017044067e-02 -3.350668586790561676e-03 -8.415355533361434937e-02 3.050073795020580292e-02 7.671570032835006714e-02 -1.825381256639957428e-02 -1.266432255506515503e-01 -5.971320718526840210e-02 -7.849607616662979126e-02 -1.517819166183471680e-01 -3.083518892526626587e-02 2.676147818565368652e-01 -8.062827587127685547e-02 1.049823407083749771e-02 -1.484456006437540054e-03 -3.567882627248764038e-02 6.248947698622941971e-03 -4.192672297358512878e-02 1.592507809400558472e-01 -7.061428856104612350e-03 -1.183127891272306442e-02 1.872356981039047241e-02 1.576211899518966675e-01 8.505503833293914795e-02 -9.010441601276397705e-02 2.330579981207847595e-02 -7.216655462980270386e-02 -3.514093533158302307e-02 -1.281277090311050415e-02 2.729227021336555481e-02 -3.124086931347846985e-02 4.265742318239063025e-04 -2.069446742534637451e-01 -3.356412984430789948e-03 -3.544185683131217957e-02 -1.275598406791687012e-01 5.419708788394927979e-02 1.402762830257415771e-01 1.608992069959640503e-01 -1.302229911088943481e-01 -8.033366501331329346e-02 1.359169632196426392e-01 3.599176928400993347e-02 3.974291682243347168e-02 1.084773335605859756e-03 6.852013617753982544e-02 4.292707017157226801e-04 -2.621808275580406189e-02 5.239731818437576294e-02 1.687892675399780273e-01 -3.493018448352813721e-02 -3.835770487785339355e-02 6.287985295057296753e-02 7.591498643159866333e-02 -1.559788826853036880e-02 -3.162983804941177368e-02 -1.431555021554231644e-02 -1.157694868743419647e-02 -7.326342910528182983e-02 -2.134258393198251724e-03 5.400336533784866333e-02 3.585945442318916321e-02 -5.273899063467979431e-02 -1.214550137519836426e-01 -1.338988691568374634e-01 -9.349753707647323608e-02 2.845213748514652252e-02 2.225999236106872559e-01 2.064605802297592163e-01 2.328345775604248047e-01 -1.053360104560852051e-02 -6.693673133850097656e-02 2.146526873111724854e-01 -1.587373465299606323e-01 8.543524146080017090e-02 -9.348660707473754883e-02 4.185162484645843506e-01 -4.178240895271301270e-02 2.525561451911926270e-01 5.783919245004653931e-02 -2.163172140717506409e-02 -2.114344537258148193e-01 1.371131185442209244e-02 -5.360658466815948486e-02 7.401240617036819458e-02 -1.084781368263065815e-03 -3.413829952478408813e-02 -1.967697031795978546e-02 1.191094983369112015e-02 9.542001411318778992e-03 1.420086324214935303e-01 2.588050812482833862e-02 4.143029823899269104e-02 -5.203594267368316650e-02 -1.839461326599121094e-01 1.417905837297439575e-02 9.162355959415435791e-02 1.299679577350616455e-01 -3.655926557257771492e-04 1.714181751012802124e-01 -5.983418785035610199e-03 5.587198585271835327e-02 -7.821173220872879028e-02 1.258569359779357910e-01 1.258783638477325439e-01 1.766041070222854614e-01 5.992932245135307312e-02 2.309616208076477051e-01 3.099991753697395325e-02 8.717281743884086609e-03 -3.082507848739624023e-02 -6.789488252252340317e-03 1.733152121305465698e-01 5.321663990616798401e-02 6.546266376972198486e-02 -9.826782345771789551e-02 -1.137819513678550720e-01 -5.636316910386085510e-02 1.960815638303756714e-01 2.146831601858139038e-01 -5.828227847814559937e-02 5.083452910184860229e-02 -3.203270211815834045e-02 -3.820823878049850464e-02 1.272871494293212891e-01 2.869233116507530212e-02 8.482174575328826904e-02 -5.499219149351119995e-02 -4.051531851291656494e-02 -5.726154148578643799e-02 -5.530946329236030579e-02 5.771394446492195129e-02 1.053814440965652466e-01 2.341390997171401978e-01 -6.667028367519378662e-02 -1.294269878417253494e-02 -1.883137375116348267e-01 2.873635478317737579e-02 -7.803412526845932007e-02 1.523309014737606049e-02 -6.713386625051498413e-02 -1.547028776258230209e-02 9.162760525941848755e-02 2.519655227661132812e-01 2.773406505584716797e-01 4.212180972099304199e-01 1.228296309709548950e-01 -1.635081619024276733e-01 1.831383556127548218e-01 1.036969423294067383e-01
9.605480730533599854e-02 3.409882485866546631e-01 1.236726492643356323e-01 3.833691030740737915e-02 7.513234764337539673e-02 8.296207338571548462e-02 5.786510556936264038e-02 -9.835602343082427979e-02 -2.640406228601932526e-02 1.195613294839859009e-01 -1.061340719461441040e-01 7.954759150743484497e-02 7.802984863519668579e-02 -7.715030759572982788e-02 -2.119176089763641357e-02 1.929894462227821350e-02 -7.158447057008743286e-02 -4.492426663637161255e-02 -1.055232807993888855e-01 8.850025944411754608e-03 6.975748110562562943e-03 -1.813894719816744328e-03 3.484447672963142395e-02 1.776830106973648071e-02 1.012512147426605225e-01 2.628541179001331329e-02 3.058097697794437408e-02 6.901584565639495850e-02 -5.282229743897914886e-03 2.465048246085643768e-02 -1.453118771314620972e-01 1.443566232919692993e-01 1.465397328138351440e-01 6.946975737810134888e-02 -1.978122442960739136e-02 6.201153993606567383e-02 1.510625332593917847e-01 1.187136098742485046e-01 5.825404450297355652e-02 -2.333651632070541382e-01 1.198322698473930359e-02 5.314491572789847851e-04 -6.640414148569107056e-02 -8.683550357818603516e-02 -2.869336679577827454e-02 7.590118050575256348e-02 1.096609886735677719e-02 7.834477722644805908e-02 -1.764592528343200684e-02 -1.009899899363517761e-01 -3.113517910242080688e-02 2.144590578973293304e-02 5.340503994375467300e-03 -1.182043254375457764e-01 -1.960319280624389648e-02 4.397514089941978455e-02 1.097063766792416573e-03 -2.355141565203666687e-02 6.361433188430964947e-04 2.051853835582733154e-01 -1.866409904323518276e-03 -1.964735090732574463e-01 5.131911858916282654e-02 -2.468654066324234009e-01 -3.722571581602096558e-02 1.278999000787734985e-01 -7.554423809051513672e-02 4.634346440434455872e-02 9.082660079002380371e-02 -8.787013590335845947e-02 -5.895677953958511353e-02 2.708787657320499420e-02 -4.407075420022010803e-02 1.327290832996368408e-01 -2.284550219774246216e-01 1.604937948286533356e-02 -9.226056933403015137e-02 1.755478046834468842e-02 -4.501356929540634155e-02 -3.822399303317070007e-02 -4.076287150382995605e-02 3.004931611940264702e-03 -5.755646526813507080e-02 1.607927121222019196e-02 -4.078774526715278625e-02 -6.197985727339982986e-03 -2.456544153392314911e-02 -2.152560837566852570e-02 -7.640011142939329147e-03 5.510966479778289795e-02 1.205079779028892517e-01 -5.705987289547920227e-02 1.943881064653396606e-02 1.922560483217239380e-01 -4.513512849807739258e-01 1.977284848690032959e-01 1.025224626064300537e-01 3.184929722920060158e-03 -8.243468403816223145e-02 1.860519349575042725e-01 -1.141979619860649109e-01 -7.774109253659844398e-04 -1.785559654235839844e-01 -3.147239089012145996e-01 -1.467372030019760132e-01 -7.006389647722244263e-02 2.220348417758941650e-01 3.797828033566474915e-02 2.165380492806434631e-02 -8.032105118036270142e-02 -1.031619682908058167e-01 4.239045083522796631e-02 2.140992879867553711e-02 -9.122581221163272858e-03 -2.461268939077854156e-02 4.515346139669418335e-02 2.081810683012008667e-01 1.503714621067047119e-01 -1.244358066469430923e-02 4.319403320550918579e-03 3.915684670209884644e-02 1.153140980750322342e-02 -5.122728645801544189e-02 7.357793301343917847e-02 -3.023155033588409424e-01 -1.074555158615112305e+00 4.318993389606475830e-01 1.308735460042953491e-02 6.024911999702453613e-03 -1.570049673318862915e-01 -1.222959458827972412e-01 1.014706958085298538e-02 -3.118128888309001923e-02 -2.871473133563995361e-01 1.683075167238712311e-02 3.205339908599853516e-01 -3.782383501529693604e-01 5.997663736343383789e-01 7.809700444340705872e-03 4.283593595027923584e-02 -3.724547475576400757e-02 8.674330078065395355e-03 6.919659062987193465e-05 3.954268991947174072e-02 7.674858905375003815e-03 -2.724128030240535736e-02 -2.038406953215599060e-02 6.654174625873565674e-02 -1.100312843918800354e-01 -6.202527880668640137e-02 5.083462595939636230e-02 1.222142279148101807e-01 5.314992740750312805e-02 1.116806939244270325e-01 3.688642010092735291e-02 1.412885189056396484e-01 1.658039987087249756e-01 -2.492786943912506104e-01 -2.061485312879085541e-02 5.742301791906356812e-02 -6.125029549002647400e-02 -1.433285623788833618e-01 3.793012350797653198e-02 -3.521559834480285645e-01 7.790939509868621826e-02 1.321177631616592407e-01 1.007335633039474487e-01 -1.132730673998594284e-02 -6.808148324489593506e-02 -1.791617274284362793e-02 -2.808027267456054688e-01 -7.273608446121215820e-02 7.591264694929122925e-02 7.961955666542053223e-02 -1.144292876124382019e-01 -1.166378855705261230e-01 -2.060149461030960083e-01 1.851895302534103394e-01 -4.117225110530853271e-02 1.350246667861938477e-01 2.950120717287063599e-02 1.960279652848839760e-03 7.836351171135902405e-03 -4.134251773357391357e-01 -3.034741804003715515e-02 -1.248712986707687378e-01 1.315161865204572678e-02 -1.247233673930168152e-01 -1.170908957719802856e-01 -3.127915263175964355e-01 1.452970355749130249e-01 -8.787959814071655273e-02 2.540157362818717957e-02 9.734837710857391357e-02 2.743352651596069336e-01 -3.045085817575454712e-02 -1.358698457479476929e-01 -1.600175164639949799e-02 -2.069777548313140869e-01 6.861431151628494263e-02 -5.298804044723510742e-01 -9.567821770906448364e-02 7.901629060506820679e-02 -1.026461459696292877e-02 -2.138581722974777222e-01 -4.786984249949455261e-02 4.314032942056655884e-02
1.275449097156524658e-01 2.192451059818267822e-01 1.228211000561714172e-01 -5.157630075700581074e-04 -4.756397008895874023e-02 -3.994849510490894318e-03 2.481202222406864166e-02 -1.158197298645973206e-01 1.236462146043777466e-01 1.191648840904235840e-01 5.801676213741302490e-02 1.867282390594482422e-01 1.435764580965042114e-01 6.579075753688812256e-02 4.139524325728416443e-02 1.325802877545356750e-03 -3.079275973141193390e-02 -7.186296395957469940e-03 -1.209857016801834106e-01 2.538354694843292236e-02 -1.040178118273615837e-03 -1.394031103700399399e-02 -1.811330951750278473e-02 6.787113845348358154e-02 -2.610033750534057617e-02 1.102638393640518188e-01 -1.129943970590829849e-02 -1.616612225770950317e-01 -2.225725352764129639e-01 5.604987218976020813e-02 -2.715726569294929504e-02 8.030863106250762939e-02 -6.709173321723937988e-02 1.782273650169372559e-01 -1.359836570918560028e-02 -2.738052234053611755e-02 3.166721388697624207e-02 6.793988496065139771e-02 -2.326052635908126831e-01 1.668129265308380127e-01 9.254257380962371826e-02 7.199859619140625000e-02 -8.083529770374298096e-02 7.798381149768829346e-02 7.553841918706893921e-02 1.119254082441329956e-01 -3.646703809499740601e-02 -4.690925404429435730e-02 1.140062697231769562e-02 3.314377740025520325e-02 -9.869413822889328003e-02 -1.350735686719417572e-02 4.621520638465881348e-02 4.513467475771903992e-02 -4.012686200439929962e-03 -4.482943564653396606e-02 3.522664681077003479e-02 1.298872288316488266e-02 1.958108991384506226e-01 -3.421541303396224976e-02 6.252552568912506104e-02 -6.923484802246093750e-02 -4.728620499372482300e-02 -2.003218680620193481e-01 1.385357081890106201e-01 1.586333662271499634e-01 -7.460349053144454956e-02 8.516880869865417480e-02 -1.930014416575431824e-02 -5.180167499929666519e-04 -5.578801035881042480e-02 5.502355843782424927e-02 1.078565977513790131e-02 -1.304848939180374146e-01 5.343487486243247986e-02 -1.421614587306976318e-01 7.217317819595336914e-02 -2.205185825005173683e-03 -1.608556695282459259e-02 -4.443466663360595703e-02 1.089989691972732544e-01 -8.664040267467498779e-02 -2.036598697304725647e-02 4.571015946567058563e-03 -3.140202164649963379e-02 1.457743942737579346e-01 -6.947914510965347290e-02 6.279786676168441772e-02 -8.438155055046081543e-03 -5.893553420901298523e-02 -1.169508770108222961e-01 -9.310923516750335693e-03 3.366651758551597595e-02 -2.141418755054473877e-01 -6.222987174987792969e-01 2.672411128878593445e-02 6.067574769258499146e-02 7.757391780614852905e-02 -4.247987642884254456e-02 2.500420212745666504e-01 2.067916989326477051e-01 2.522844076156616211e-01 -1.704292744398117065e-01 4.180771112442016602e-02 -1.475651413202285767e-01 -6.399496644735336304e-02 -3.475541248917579651e-02 1.764065027236938477e-01 -2.463215775787830353e-02 5.577763542532920837e-02 -5.402219668030738831e-02 -3.760489448904991150e-02 -4.478055983781814575e-02 -3.430062672123312950e-03 -4.494438413530588150e-03 -9.572315029799938202e-03 1.037999149411916733e-02 1.912467181682586670e-01 -8.162746205925941467e-03 -1.862467825412750244e-02 -5.748258531093597412e-02 3.310057148337364197e-02 7.800778746604919434e-02 -2.952284552156925201e-02 -5.290716886520385742e-01 -1.154829978942871094e+00 -8.336453139781951904e-02 1.723031550645828247e-01 -1.596552133560180664e-01 -1.037628278136253357e-01 9.796113520860671997e-02 4.269044399261474609e-01 3.520267009735107422e-01 1.702656969428062439e-02 -3.990059345960617065e-02 4.059201106429100037e-03 -1.111403629183769226e-01 3.080746158957481384e-02 9.051704406738281250e-02 -1.358021143823862076e-02 -6.647091358900070190e-02 7.768061757087707520e-02 1.354774087667465210e-01 2.453457564115524292e-02 -6.041024345904588699e-03 -7.347072008997201920e-03 1.502745151519775391e-01 -8.478128910064697266e-02 -3.539882972836494446e-02 5.537616088986396790e-02 1.130642928183078766e-02 -2.844132483005523682e-01 -1.435292214155197144e-01 1.109045445919036865e-01 -1.102339476346969604e-01 6.240331754088401794e-02 -1.233576703816652298e-02 1.242963690310716629e-02 -1.414568871259689331e-01 1.725993119180202484e-02 1.858855597674846649e-02 6.378848105669021606e-02 1.215485483407974243e-01 -1.470405310392379761e-01 -8.834935724735260010e-02 5.063842236995697021e-02 1.045685354620218277e-02 -6.089722365140914917e-02 -1.134855672717094421e-01 -1.124856844544410706e-01 1.878392100334167480e-01 5.802545696496963501e-02 4.496559500694274902e-02 -2.990976162254810333e-02 6.946248561143875122e-02 1.735268905758857727e-02 -7.952845841646194458e-02 7.264950126409530640e-02 6.588666583411395550e-04 -1.295895278453826904e-01 -1.131928861141204834e-01 1.110570132732391357e-01 -7.315398752689361572e-02 -6.961694359779357910e-02 -2.752333693206310272e-02 -1.658980101346969604e-01 -6.521698832511901855e-02 -6.672747433185577393e-02 -6.389049440622329712e-02 -2.836769521236419678e-01 -3.561425581574440002e-02 7.836131751537322998e-02 -8.654806017875671387e-02 -3.999052196741104126e-02 -7.354935258626937866e-02 6.061092019081115723e-02 -4.088489711284637451e-02 3.088085213676095009e-03 -1.675206124782562256e-01 -1.380500942468643188e-01 8.177173323929309845e-03 -1.010020226240158081e-01 -8.146797120571136475e-02 -1.475548893213272095e-01 -1.349439769983291626e-01 -1.277598440647125244e-01 -1.618610620498657227e-01
