-3.770723342895507812e-01
1.346299499273300171e-01
2.969820797443389893e-01
1.833661794662475586e-01
4.176847934722900391e-01
-1.967367976903915405e-01
-5.614702105522155762e-01
2.061201632022857666e-01
7.842775434255599976e-02
2.831868529319763184e-01
2.857754230499267578e-01
-2.810360193252563477e-01
1.861279159784317017e-01
1.648868322372436523e-01
3.405434787273406982e-01
-2.795708179473876953e-01
-4.339062273502349854e-01
-6.338233947753906250e-01
3.516417741775512695e-01
-4.661827087402343750e-01
-4.729906320571899414e-01
3.592814803123474121e-01
-1.479377746582031250e-01
-2.147485613822937012e-01
-1.798957213759422302e-02
4.141126871109008789e-01
4.136295616626739502e-01
-3.718315958976745605e-01
-1.024126037955284119e-01
-3.479399159550666809e-02
-1.137662306427955627e-01
5.479508265852928162e-02
4.260537028312683105e-01
2.359591424465179443e-02
-2.992663681507110596e-01
4.260456264019012451e-01
2.268263697624206543e-01
3.627181649208068848e-01
1.659242361783981323e-01
4.558028578758239746e-01
-1.543339490890502930e-01
-2.558663189411163330e-01
-8.687945455312728882e-02
4.617976024746894836e-02
-4.816017150878906250e-01
1.739736348390579224e-01
3.559464514255523682e-01
4.199464023113250732e-01
2.659040391445159912e-01
1.905409246683120728e-02
-3.424771428108215332e-01
-6.253503561019897461e-01
-5.145448446273803711e-01
-4.602570235729217529e-01
4.250732660293579102e-01
2.316708862781524658e-01
-3.130808770656585693e-01
3.092774152755737305e-01
-2.161431312561035156e-01
-1.488771103322505951e-02
4.270669221878051758e-01
4.492190182209014893e-01
-2.692278325557708740e-01
-5.060503482818603516e-01
-4.714889824390411377e-01
2.842186689376831055e-01
8.224621415138244629e-02
2.280140966176986694e-01
-3.034079968929290771e-01
-3.370820879936218262e-01
1.914302706718444824e-01
1.688978821039199829e-01
-5.939248800277709961e-01
4.728415906429290771e-01
4.019036591053009033e-01
-4.021337628364562988e-01
-2.876722216606140137e-01
2.669949233531951904e-01
-6.745677590370178223e-01
3.735262453556060791e-01
7.363920658826828003e-02
-1.465715020895004272e-01
-3.872033581137657166e-02
4.973542988300323486e-01
1.454046517610549927e-01
3.972290754318237305e-01
3.400647640228271484e-02
-1.904922574758529663e-01
-3.936820328235626221e-01
2.057925313711166382e-01
-6.183179020881652832e-01
-5.293083786964416504e-01
3.112469911575317383e-01
-1.532795876264572144e-01
-2.006025016307830811e-01
2.346150726079940796e-01
-6.244725584983825684e-01
3.566741943359375000e-01
1.010730862617492676e-01
2.021433264017105103e-01
-4.708508253097534180e-01
3.530700802803039551e-01
-2.166761904954910278e-01
-5.171141028404235840e-01
3.332059383392333984e-01
-3.066099882125854492e-01
1.405593305826187134e-01
3.252628743648529053e-01
-4.258676171302795410e-01
-5.642760396003723145e-01
1.130854934453964233e-01
3.640075325965881348e-01
-1.648686677217483521e-01
-3.398931920528411865e-01
2.013741731643676758e-01
2.936545908451080322e-01
6.523588299751281738e-02
2.806750535964965820e-01
-1.751514226198196411e-01
-8.192878365516662598e-01
3.624261319637298584e-01
3.758318424224853516e-01
-2.495521605014801025e-01
2.759073376655578613e-01
-1.440670490264892578e-01
3.307232856750488281e-01
-3.660144805908203125e-01
4.029241800308227539e-01
9.455817192792892456e-02
1.104511991143226624e-01
4.133215248584747314e-01
4.409877061843872070e-01
5.322199314832687378e-02
-3.825422227382659912e-01
3.694936931133270264e-01
-2.242203801870346069e-01
3.608570098876953125e-01
-7.014023065567016602e-01
-3.864964246749877930e-01
1.372854113578796387e-01
2.589714340865612030e-02
5.011590123176574707e-01
-3.723733872175216675e-02
-6.770219802856445312e-01
4.202555418014526367e-01
4.201022386550903320e-01
-2.058675140142440796e-01
4.451890885829925537e-01
2.632935643196105957e-01
4.290387630462646484e-01
4.312097430229187012e-01
-5.395543575286865234e-01
-2.632476687431335449e-01
4.701972603797912598e-01
1.562009900808334351e-01
-4.148401618003845215e-01
-3.013322055339813232e-01
3.647362589836120605e-01
-5.486051440238952637e-01
2.375857084989547729e-01
-4.019587635993957520e-01
-3.926917612552642822e-01
-6.109201908111572266e-01
-2.581600546836853027e-01
-1.230008676648139954e-01
1.805467717349529266e-02
3.150351345539093018e-01
2.311014756560325623e-02
3.437176942825317383e-01
2.920947968959808350e-02
-4.306466281414031982e-01
4.452463388442993164e-01
4.267438054084777832e-01
-1.300042718648910522e-01
-6.925160288810729980e-01
9.457082301378250122e-02
-1.962232142686843872e-01
-2.735033035278320312e-01
-4.691622555255889893e-01
-5.552505850791931152e-01
-4.821390807628631592e-01
1.047888398170471191e-01
9.663955867290496826e-02
3.304661512374877930e-01
5.249623954296112061e-02
3.209949433803558350e-01
1.942027211189270020e-01
-3.756963312625885010e-01
-6.240296363830566406e-01
-8.409963548183441162e-02
2.777269482612609863e-01
2.181974798440933228e-01
3.630922436714172363e-01
4.983187839388847351e-02
4.166352152824401855e-01
-3.257174491882324219e-01
-5.172339081764221191e-01
-1.026117894798517227e-02
3.971760272979736328e-01
2.189313024282455444e-01
-1.259302645921707153e-01
-1.492247134447097778e-01
3.524220883846282959e-01
5.554342269897460938e-01
-5.421464443206787109e-01
-5.523697733879089355e-01
-5.849975943565368652e-01
-7.701866626739501953e-01
2.677798867225646973e-01
5.135053396224975586e-01
-6.265033483505249023e-01
2.428638339042663574e-01
3.681443929672241211e-01
-3.684487640857696533e-01
4.139592051506042480e-01
9.742330014705657959e-02
-2.663367688655853271e-01
-1.089257001876831055e-01
3.750280439853668213e-01
1.193604171276092529e-01
2.634267807006835938e-01
-1.546255592256784439e-02
1.344860047101974487e-01
1.275030523538589478e-01
7.594476640224456787e-02
9.917262196540832520e-02
-5.757333040237426758e-01
3.832279145717620850e-01
-8.805873245000839233e-02
4.546396136283874512e-01
2.061622440814971924e-01
-4.580411016941070557e-01
3.213405907154083252e-01
2.709716185927391052e-02
-3.321934938430786133e-01
-2.618416547775268555e-01
-2.103095352649688721e-01
2.607668191194534302e-02
-6.247677803039550781e-01
-1.897361576557159424e-01
4.078342020511627197e-01
-3.740150630474090576e-01
3.235394656658172607e-01
3.799251914024353027e-01
3.843216896057128906e-01
-4.150031208992004395e-01
-1.078060343861579895e-01
-2.769472599029541016e-01
-2.444994300603866577e-01
-3.126781284809112549e-01
-1.177721247076988220e-01
5.327105149626731873e-02
1.813725829124450684e-01
-3.840105235576629639e-01
2.342640161514282227e-01
3.382693827152252197e-01
