-3.097036853432655334e-02 -4.284663125872612000e-02 -8.632110059261322021e-02 5.326941981911659241e-02 -4.470570385456085205e-02 -1.312026474624872208e-02 -2.555163800716400146e-01 -3.245721012353897095e-02 -1.217612773180007935e-01 -2.521592658013105392e-03 -1.082716882228851318e-01 -1.724009811878204346e-01 2.035943977534770966e-02 9.959387779235839844e-02 4.005129449069499969e-03 -1.395792607218027115e-02 -8.095262199640274048e-02 1.571862101554870605e-01 8.128845691680908203e-02 1.860076189041137695e-01 -1.374313831329345703e-01 -1.702321022748947144e-01 1.614663749933242798e-02 -1.190084144473075867e-01 -6.203135009855031967e-03 -1.137989461421966553e-01 4.348290711641311646e-02 5.017634108662605286e-02 7.946422556415200233e-04 5.263825505971908569e-02 -1.544344723224639893e-01 -2.190511673688888550e-01 -2.281054109334945679e-01 1.316076666116714478e-01 -3.104569204151630402e-02 8.004852384328842163e-02 -1.747052669525146484e-01 2.161076525226235390e-03 -6.009568460285663605e-03 -1.317027509212493896e-01 -1.390830278396606445e-01 -3.828215599060058594e-02 -3.875062614679336548e-02 -6.325431168079376221e-02 -1.318277418613433838e-01 -1.079604551196098328e-01 -6.560093164443969727e-02 -7.158548571169376373e-03 -1.203654929995536804e-01 -7.373146712779998779e-02 -5.637666955590248108e-02 6.492661684751510620e-02 1.017915010452270508e-01 -5.989486724138259888e-02 2.955657895654439926e-03 -2.760032713413238525e-01 1.161579787731170654e-01 8.673373609781265259e-03 3.331767767667770386e-02 -2.052398025989532471e-01 -4.213989898562431335e-02 9.882053732872009277e-02 -1.247033998370170593e-01 -2.356855385005474091e-02 1.889849081635475159e-02 -8.561766892671585083e-02 -1.550830155611038208e-01 2.458150312304496765e-02 9.401798993349075317e-02 -1.445747166872024536e-01 -3.292312845587730408e-02 -1.867456547915935516e-02 -1.724650114774703979e-01 -7.256477326154708862e-02 6.507407873868942261e-02 -2.384414896368980408e-02 1.111567616462707520e-01 -6.892932578921318054e-03 6.070679426193237305e-02 1.446858327835798264e-02 -9.760659933090209961e-02 -1.290795356035232544e-01 1.063646897673606873e-01 -3.159105405211448669e-02 -1.349810361862182617e-01 -1.378389596939086914e-01 -9.534209966659545898e-02 -1.147630438208580017e-02 -1.481269951909780502e-02 -1.950452625751495361e-01 -4.082644358277320862e-02 1.120787262916564941e-01 5.301025882363319397e-02 -9.915990754961967468e-03 -1.052365750074386597e-01 -8.042604476213455200e-02 2.569968253374099731e-02 -3.895987523719668388e-03 -6.337343156337738037e-02 7.968556880950927734e-02 1.534238457679748535e-01 1.545656621456146240e-01 1.065430864691734314e-01 -1.139697283506393433e-01 7.868441753089427948e-03 3.855988755822181702e-02 1.614102125167846680e-01 8.025754988193511963e-02 6.556899845600128174e-02 -1.549787260591983795e-02 -1.097163185477256775e-01 4.700095579028129578e-02 1.071811094880104065e-01 -1.251297444105148315e-01 7.502631843090057373e-02 -1.282967925071716309e-01 -3.701448440551757812e-02 1.327801868319511414e-02 -1.719546616077423096e-01 -3.744789212942123413e-02 1.234584823250770569e-01 6.453672051429748535e-02 -5.358965322375297546e-02 -1.331526339054107666e-01 -1.675167232751846313e-01 -8.813360705971717834e-03 1.281409412622451782e-01 1.159916538745164871e-02 7.146650552749633789e-02 -4.522209987044334412e-02 -9.068668633699417114e-02 -1.606053411960601807e-01 -5.903906375169754028e-02 -7.523678988218307495e-02 -8.237578906118869781e-03 2.095710486173629761e-02 -1.088120341300964355e-01 -2.445641905069351196e-03 -4.770618304610252380e-02 -1.105980649590492249e-01 1.168766617774963379e-01 6.496495753526687622e-02 -1.204204559326171875e-01 -7.968425750732421875e-02 -3.873419482260942459e-03 -1.900407075881958008e-01 3.045674040913581848e-02 -7.841448299586772919e-03 1.528549846261739731e-02 -1.227177456021308899e-01 -6.992413848638534546e-02 -1.269750744104385376e-01 -6.123878061771392822e-02 3.921496216207742691e-03 -4.992882907390594482e-02 1.173966079950332642e-01 -7.148853689432144165e-02 7.937403023242950439e-02 -1.321357339620590210e-01 -2.757210135459899902e-01 -1.442345380783081055e-01 -2.976132929325103760e-02 1.866674870252609253e-01 1.489358581602573395e-02 9.683307260274887085e-02 -1.425067484378814697e-01 2.851133979856967926e-02 8.550640195608139038e-03 -1.637523472309112549e-01 -3.988121822476387024e-02 -1.594728976488113403e-01 -2.913996204733848572e-02 -1.852459907531738281e-01 -6.087454035878181458e-02 1.064519286155700684e-01 -1.552707422524690628e-02 -8.638714998960494995e-02 -2.370154410600662231e-01 1.376549899578094482e-01 -9.833262115716934204e-02 1.528871506452560425e-01 2.817574329674243927e-02 -9.533520042896270752e-02 -6.412465870380401611e-02 1.191223338246345520e-01 -1.879608035087585449e-01 5.088282749056816101e-02 -4.041757807135581970e-02 -2.266967110335826874e-02 -6.366728246212005615e-02 1.121088117361068726e-02 -7.993320375680923462e-02 1.924020946025848389e-01 -3.598245605826377869e-02 8.432458341121673584e-02 1.274660136550664902e-02 -5.479691177606582642e-02 -1.214179247617721558e-01 -1.301176995038986206e-01 -7.711400091648101807e-02 1.198124438524246216e-01 1.269869506359100342e-01 6.202087923884391785e-02 -7.639329135417938232e-02 -1.636448875069618225e-02 3.354291990399360657e-02 -4.116152599453926086e-02 -7.768480479717254639e-02 -1.460283249616622925e-01 -5.516001023352146149e-03 2.759542549028992653e-04 -5.270859226584434509e-02 -2.149169147014617920e-01 9.324026107788085938e-02 -2.178443223237991333e-01 -1.299522519111633301e-01 1.686658263206481934e-01 2.600672841072082520e-02 2.503387257456779480e-02 -5.225606635212898254e-02 -5.229157954454421997e-02 -9.195373207330703735e-02 -4.600835219025611877e-02 3.872006759047508240e-02 5.097663030028343201e-03 -1.572389900684356689e-01 -2.129943966865539551e-01 1.095252297818660736e-02 7.113542873412370682e-03 4.896324127912521362e-02 -1.172264441847801208e-01 -5.423920974135398865e-02 -3.985185921192169189e-02 -6.234846264123916626e-02 -2.324170060455799103e-02 -3.179429844021797180e-02 -1.918449252843856812e-02 -7.613586634397506714e-02 -1.261432319879531860e-01 4.937137663364410400e-02 -1.322762295603752136e-02 9.077880531549453735e-03 -1.751222014427185059e-01 1.102166026830673218e-01 -1.096294596791267395e-01 -1.828336529433727264e-02 4.929094389081001282e-02 -1.983446814119815826e-02 -1.702208817005157471e-01 -7.721491274423897266e-04 -6.678941845893859863e-02 -4.928343743085861206e-02 -1.725075542926788330e-01 -7.892961800098419189e-02 3.146703913807868958e-02 -8.564807474613189697e-02
3.858480602502822876e-03 7.383532077074050903e-02 1.787938363850116730e-02 7.720889896154403687e-02 -1.443794369697570801e-01 -1.319306641817092896e-01 -1.387258023023605347e-01 5.678223446011543274e-02 4.052133858203887939e-02 2.365143448114395142e-01 5.212049931287765503e-02 -3.344760462641716003e-02 9.767119586467742920e-02 5.744393542408943176e-02 5.368174239993095398e-02 2.712958306074142456e-02 -1.373319327831268311e-01 -2.597690373659133911e-02 -4.050293192267417908e-02 1.447795778512954712e-01 -1.233700737357139587e-01 -1.264102458953857422e-01 1.880387775599956512e-02 7.905540615320205688e-02 -2.164911106228828430e-02 -3.514843434095382690e-02 4.750562086701393127e-02 -7.752005476504564285e-03 5.682507529854774475e-02 -2.993240579962730408e-02 -1.509283669292926788e-02 -4.043862596154212952e-02 -6.638547778129577637e-02 5.007609352469444275e-02 -5.995614919811487198e-04 -4.350151121616363525e-02 1.227723434567451477e-01 -8.698230236768722534e-02 1.462311297655105591e-02 1.131928153336048126e-02 -2.034416943788528442e-01 -1.284019798040390015e-01 3.806493431329727173e-02 5.100192129611968994e-02 1.105516031384468079e-01 -2.609057538211345673e-02 -1.195723097771406174e-02 -1.481322795152664185e-01 -1.632795855402946472e-02 -1.586354672908782959e-01 2.629436738789081573e-02 3.332494758069515228e-03 1.371405925601720810e-02 3.647121414542198181e-02 -1.933605372905731201e-01 -1.353110820055007935e-01 -1.054899469017982483e-01 -9.010171145200729370e-02 -3.532988950610160828e-02 7.779399305582046509e-02 -1.505955755710601807e-01 6.147217750549316406e-02 9.895064681768417358e-02 -1.853471994400024414e-02 -2.481457144021987915e-01 -5.579928308725357056e-02 -3.491609171032905579e-02 1.371970027685165405e-01 -2.938801236450672150e-02 -4.838826134800910950e-04 -2.890069037675857544e-02 1.039065718650817871e-01 -6.916955113410949707e-02 -5.594148766249418259e-03 -1.072634384036064148e-01 1.851117983460426331e-02 5.909141898155212402e-02 4.555301740765571594e-02 -1.447491049766540527e-01 5.665807053446769714e-03 -2.141377627849578857e-01 -6.590165942907333374e-02 -1.942590773105621338e-01 6.389624625444412231e-02 -6.437736749649047852e-02 -1.189388781785964966e-01 -3.573459759354591370e-02 -9.725934267044067383e-02 -8.025711774826049805e-02 -1.233603954315185547e-01 3.227616846561431885e-02 2.835197187960147858e-02 9.387600421905517578e-02 -1.584073528647422791e-02 4.225829988718032837e-02 3.186248615384101868e-02 -2.319347858428955078e-02 -1.711299060843884945e-03 -8.844283968210220337e-02 -1.221657618880271912e-01 -3.066680207848548889e-02 -2.259341478347778320e-01 -1.744872517883777618e-02 -2.706430479884147644e-02 1.383692678064107895e-02 -1.010441407561302185e-01 -1.308534443378448486e-01 -1.735990047454833984e-01 -8.295553177595138550e-02 -2.385885221883654594e-03 1.389674693346023560e-01 -2.129649668931961060e-01 5.732587724924087524e-02 -6.157020106911659241e-02 -4.439768940210342407e-02 -7.519711554050445557e-02 4.036172293126583099e-03 1.540627330541610718e-02 -1.673783212900161743e-01 -1.091410033404827118e-02 4.467431828379631042e-02 -1.085183173418045044e-01 6.643213797360658646e-03 1.684545353055000305e-02 -1.083902940154075623e-01 -1.070571318268775940e-01 -1.610865145921707153e-01 -8.684105426073074341e-02 1.634908467531204224e-02 2.187711745500564575e-01 5.147800594568252563e-02 1.829267852008342743e-02 -4.170006141066551208e-02 1.174878925085067749e-01 -1.001779139041900635e-01 -3.552699983119964600e-01 -4.853988066315650940e-02 1.410093456506729126e-01 3.994172811508178711e-02 -1.659035235643386841e-01 -1.790036410093307495e-01 1.454419195652008057e-01 1.349674314260482788e-01 1.278119627386331558e-02 1.273568421602249146e-01 -1.488124020397663116e-02 1.543891429901123047e-01 -3.100079111754894257e-02 -2.947133406996726990e-02 -1.422488503158092499e-02 -4.461149126291275024e-02 -1.535175461322069168e-02 1.423322558403015137e-01 9.474145621061325073e-02 -1.428944896906614304e-02 -5.390842910856008530e-03 2.938860654830932617e-02 -4.605173692107200623e-02 -1.026161611080169678e-01 1.010634284466505051e-02 -8.018861524760723114e-03 1.496577858924865723e-01 -1.033727824687957764e-02 -5.002354085445404053e-02 -1.948743611574172974e-01 1.322833895683288574e-01 -1.596666872501373291e-01 -1.231920123100280762e-01 -4.534150660037994385e-02 4.004623368382453918e-02 -6.801370065659284592e-03 1.149104684591293335e-01 -5.434116348624229431e-02 -2.269327640533447266e-03 6.154705956578254700e-02 3.253141418099403381e-02 1.050139963626861572e-01 -2.942376025021076202e-02 5.972484592348337173e-03 1.862085238099098206e-02 -1.839163005352020264e-01 -1.797095686197280884e-01 -2.690667510032653809e-01 2.457905001938343048e-02 7.271136343479156494e-02 -1.436184495687484741e-01 1.465040892362594604e-01 -1.050691455602645874e-01 -2.324997931718826294e-01 6.005580350756645203e-02 -1.575458645820617676e-01 7.681820075958967209e-03 -2.308820560574531555e-02 2.943641692399978638e-02 -6.928693503141403198e-02 1.598890125751495361e-02 3.513045236468315125e-02 9.077323228120803833e-02 1.164250969886779785e-01 1.040456593036651611e-01 -7.247409224510192871e-02 1.187437772750854492e-01 -1.481149643659591675e-01 -1.226700842380523682e-02 1.118605509400367737e-01 4.236300662159919739e-02 1.372437272220849991e-02 4.631055518984794617e-02 1.231067031621932983e-01 -5.207825824618339539e-02 -2.074175924062728882e-01 -1.339524388313293457e-01 7.534570060670375824e-03 -7.836207747459411621e-02 -5.423212051391601562e-02 2.150845341384410858e-02 -6.833001226186752319e-02 1.261737346649169922e-01 -1.945253908634185791e-01 -1.202202066779136658e-01 1.314294487237930298e-01 -1.624691486358642578e-02 3.254469856619834900e-02 -1.204340234398841858e-01 1.009290963411331177e-01 -3.296256437897682190e-02 -4.705413058400154114e-02 1.037611961364746094e-01 9.217883646488189697e-02 2.676915377378463745e-03 -6.463129073381423950e-02 -7.554364949464797974e-02 4.898531362414360046e-02 -1.120955199003219604e-01 -4.568692296743392944e-02 4.871250689029693604e-02 -2.953244000673294067e-02 7.326690107583999634e-02 -7.362428307533264160e-02 -2.042260393500328064e-02 -6.215768866240978241e-03 -7.095351815223693848e-02 7.605967670679092407e-02 -2.047316730022430420e-02 9.922686964273452759e-02 -1.131086200475692749e-01 8.613079786300659180e-03 -1.142950579524040222e-01 -1.496694609522819519e-02 2.395862527191638947e-02 6.628538668155670166e-02 -1.186953634023666382e-01 4.603043943643569946e-02 -6.909029930830001831e-02 -3.007441759109497070e-03 -1.188034117221832275e-01
-4.973271861672401428e-02 -1.019254401326179504e-01 -6.130925193428993225e-02 -3.375041484832763672e-01 2.431904524564743042e-02 7.133770734071731567e-02 3.039599023759365082e-02 -9.893406927585601807e-02 -9.036964178085327148e-02 4.944183398038148880e-03 -3.366215527057647705e-02 1.962939798831939697e-01 -1.285358965396881104e-01 9.492193907499313354e-02 -8.699821680784225464e-02 4.281266033649444580e-02 -6.208287551999092102e-02 -3.029994666576385498e-03 6.153609976172447205e-02 -8.702079765498638153e-03 -6.224306672811508179e-02 -7.973980158567428589e-02 -4.425160959362983704e-02 -6.661268323659896851e-02 -1.798710525035858154e-01 1.402418594807386398e-02 -1.762732714414596558e-01 1.584623008966445923e-01 -6.944825500249862671e-02 -2.031965367496013641e-02 -1.335827559232711792e-01 1.180927380919456482e-01 4.906726098852232099e-05 -6.229808926582336426e-02 -7.497842609882354736e-02 -5.130098015069961548e-02 1.194745376706123352e-01 8.893567323684692383e-02 -2.647238969802856445e-02 1.899053342640399933e-02 -1.466829143464565277e-02 -8.729390054941177368e-02 -7.029197365045547485e-02 -4.225026816129684448e-03 -5.582485720515251160e-02 -1.289041936397552490e-01 -2.182485014200210571e-01 -1.226710230112075806e-01 4.594026133418083191e-03 -1.341652274131774902e-01 -6.952445954084396362e-02 3.227429464459419250e-02 4.666047543287277222e-02 -2.047243565320968628e-01 -3.301571682095527649e-02 -1.391307562589645386e-01 3.620202094316482544e-02 -1.062782257795333862e-01 -2.022868841886520386e-01 -4.259872809052467346e-02 -2.090446650981903076e-02 -5.827446281909942627e-02 -2.877112850546836853e-02 8.992343395948410034e-02 -8.834520727396011353e-02 2.236640430055558681e-04 -2.021382004022598267e-01 -2.781826555728912354e-01 -5.921668559312820435e-02 -4.070615768432617188e-02 -1.892397403717041016e-01 -2.938332222402095795e-02 -6.756243854761123657e-02 1.168277859687805176e-01 -7.187754660844802856e-02 1.319239884614944458e-01 -4.912235215306282043e-02 7.480283081531524658e-02 1.199888661503791809e-01 -1.243160739541053772e-01 -4.499381035566329956e-02 -2.188697159290313721e-01 -1.989590004086494446e-02 -4.743527993559837341e-02 4.782394971698522568e-03 3.140759095549583435e-02 1.263419687747955322e-01 2.118098177015781403e-02 3.426515683531761169e-02 -1.846523731946945190e-01 -4.193803668022155762e-02 1.286004297435283661e-02 -6.492921710014343262e-02 -4.043637588620185852e-02 -5.740119144320487976e-02 -3.109239623881876469e-04 -8.534853905439376831e-02 -7.165600080043077469e-03 -5.301238223910331726e-02 -9.212142229080200195e-02 -1.089462265372276306e-01 -7.547341287136077881e-02 -1.215710937976837158e-01 -3.373043611645698547e-02 6.607460230588912964e-02 3.346870653331279755e-03 1.500020623207092285e-01 5.425797402858734131e-02 3.055106699466705322e-01 -7.071847468614578247e-02 -9.661303460597991943e-02 -1.126515958458185196e-02 -1.268098652362823486e-01 -2.240517139434814453e-01 -1.535126417875289917e-01 -6.969337165355682373e-02 -1.382632404565811157e-01 -7.807922363281250000e-02 -1.289460211992263794e-01 -7.304347306489944458e-02 -2.797874994575977325e-02 -1.124676596373319626e-02 -5.418171361088752747e-02 -1.044463440775871277e-01 -2.350146323442459106e-02 -6.530673801898956299e-02 -6.772302091121673584e-02 -1.136180828325450420e-03 8.469919115304946899e-02 1.012105308473110199e-02 1.242082342505455017e-01 -5.984417349100112915e-02 -2.730520665645599365e-01 -1.710836077108979225e-03 3.965521231293678284e-02 3.303742036223411560e-02 1.954197883605957031e-02 -1.227950397878885269e-02 1.250286549329757690e-01 6.634873896837234497e-02 9.517427533864974976e-02 -4.196154698729515076e-02 -2.014688551425933838e-01 -1.363784223794937134e-01 -2.050385437905788422e-02 -7.061037421226501465e-02 9.078095667064189911e-03 2.329024858772754669e-02 -9.479188360273838043e-03 1.918346970342099667e-03 -1.363341808319091797e-01 6.488247960805892944e-02 1.508815735578536987e-01 -1.098172366619110107e-02 -1.034146770834922791e-01 -1.482843011617660522e-01 -6.928059458732604980e-02 -9.760370105504989624e-02 1.629337482154369354e-02 -8.115901611745357513e-03 -2.444798946380615234e-01 1.642829924821853638e-02 -1.437299698591232300e-01 -2.150729447603225708e-01 -8.795353933237493038e-04 -2.299625426530838013e-02 1.033951863646507263e-01 -4.386474564671516418e-02 3.621302545070648193e-02 9.735770523548126221e-02 -2.092861086130142212e-01 4.942372813820838928e-02 6.259251385927200317e-02 1.262297481298446655e-01 -6.256809085607528687e-02 -3.206697478890419006e-02 1.002461463212966919e-01 9.377004206180572510e-02 -3.173220157623291016e-02 -6.676427274942398071e-02 -7.617946714162826538e-02 3.274808451533317566e-02 -3.670441731810569763e-02 -1.828298419713973999e-01 1.311556994915008545e-01 -2.011099755764007568e-01 -1.218716800212860107e-01 -4.870759695768356323e-02 2.973693050444126129e-02 1.067305579781532288e-01 -2.289007306098937988e-01 -1.254849880933761597e-01 2.425931580364704132e-02 1.821754276752471924e-01 -2.664623316377401352e-03 -2.260816842317581177e-01 3.138998290523886681e-03 -5.011200532317161560e-02 -9.178904443979263306e-02 8.216957747936248779e-02 7.429752498865127563e-02 -1.717816293239593506e-01 -4.719233140349388123e-03 1.293719746172428131e-02 -5.288442969322204590e-02 -3.673330694437026978e-02 3.518252074718475342e-02 -3.047049231827259064e-02 -7.349731773138046265e-02 -6.231709569692611694e-02 -1.388597190380096436e-01 -2.132645249366760254e-02 3.667406365275382996e-02 -1.378318220376968384e-01 -1.031299605965614319e-01 7.616454362869262695e-02 -1.806017309427261353e-01 -4.046927765011787415e-02 -1.294593214988708496e-01 -4.850463941693305969e-02 6.918886303901672363e-02 -1.132167503237724304e-01 1.006349101662635803e-01 3.751578927040100098e-02 -5.132155492901802063e-02 -1.891328580677509308e-02 -1.424810439348220825e-01 -4.599132016301155090e-02 3.522801771759986877e-02 5.326626077294349670e-02 -3.115755319595336914e-01 -2.089168503880500793e-02 -1.147293671965599060e-01 -5.894405767321586609e-02 1.198369115591049194e-01 -8.230368793010711670e-02 8.681330829858779907e-02 -5.702215433120727539e-02 1.424371358007192612e-02 1.985521614551544189e-01 -2.119864076375961304e-01 2.176348492503166199e-02 5.203144624829292297e-02 5.064158514142036438e-02 -2.916381657123565674e-01 -1.870304159820079803e-02 -2.309839129447937012e-01 -1.039798110723495483e-01 3.475587442517280579e-02 2.073857933282852173e-01 -3.823704272508621216e-02 -2.339786887168884277e-01 2.476948685944080353e-02 -9.307419508695602417e-02 -1.294480860233306885e-01 7.793130725622177124e-02
2.787508666515350342e-01 -3.818419575691223145e-02 -3.406526148319244385e-01 5.005696043372154236e-02 -5.166505277156829834e-02 -1.827649921178817749e-01 -4.943517595529556274e-02 8.080767840147018433e-02 -1.531588584184646606e-01 -2.777871489524841309e-01 9.873808920383453369e-02 -9.612763300538063049e-03 3.952897712588310242e-02 3.608617931604385376e-03 -1.467313021421432495e-01 -6.022214144468307495e-02 -1.923746317625045776e-01 -6.576395244337618351e-04 6.383069790899753571e-03 -7.646732032299041748e-02 -7.382731884717941284e-02 -1.026827320456504822e-01 -2.556261420249938965e-02 9.737417101860046387e-02 -1.918365657329559326e-01 2.122910460457205772e-03 -3.514572978019714355e-02 2.919279737398028374e-03 3.412867337465286255e-02 9.683201462030410767e-02 -4.595634713768959045e-02 -9.650910645723342896e-02 -1.447707321494817734e-02 -5.407272279262542725e-02 4.782241582870483398e-02 -2.807710170745849609e-01 -1.044773086905479431e-01 -4.632673040032386780e-02 1.629627794027328491e-01 -1.665395498275756836e-01 -1.006741225719451904e-01 -5.971214547753334045e-02 -1.021131575107574463e-01 1.174243167042732239e-02 5.266096442937850952e-02 -9.599850326776504517e-02 -3.168833628296852112e-02 2.148038521409034729e-02 -9.206710755825042725e-02 1.160119101405143738e-01 2.417362295091152191e-03 5.978608876466751099e-02 -1.044610701501369476e-02 -2.806457281112670898e-01 -2.797922864556312561e-02 -1.242615580558776855e-01 -1.483544111251831055e-01 5.341740325093269348e-02 -3.946986794471740723e-02 -5.073173344135284424e-02 -1.220047548413276672e-01 1.843291893601417542e-02 -1.404050737619400024e-01 -7.418282330036163330e-02 -3.818264603614807129e-02 6.032230332493782043e-02 5.499659478664398193e-02 -5.324516072869300842e-02 -5.317091196775436401e-02 -1.751300394535064697e-01 1.080715134739875793e-01 4.719050973653793335e-02 1.426036506891250610e-01 6.609273701906204224e-02 -4.676861688494682312e-02 3.455711156129837036e-02 -1.333075296133756638e-02 -1.326177269220352173e-01 -2.215428352355957031e-01 -8.201992511749267578e-02 -1.507732123136520386e-01 -1.135916858911514282e-01 1.674678772687911987e-01 2.247866243124008179e-02 3.319184109568595886e-02 -6.070326268672943115e-02 1.225144341588020325e-01 -4.660760611295700073e-02 2.245432510972023010e-02 -9.772302210330963135e-02 -1.078901253640651703e-02 7.905645668506622314e-02 2.357010543346405029e-02 1.188257243484258652e-02 -1.621101610362529755e-02 3.960367175750434399e-04 2.300875261425971985e-02 -9.075509756803512573e-02 -1.185574159026145935e-01 -2.360315471887588501e-01 -3.158415481448173523e-02 4.402163252234458923e-02 -8.795361965894699097e-02 -9.967653080821037292e-03 1.269499212503433228e-02 7.358964532613754272e-02 2.457536943256855011e-02 4.682282451540231705e-04 -7.486008107662200928e-03 -1.117333844304084778e-01 -5.933068692684173584e-02 -3.574533388018608093e-02 5.202154815196990967e-02 -2.464262247085571289e-01 -1.373839974403381348e-01 5.413661524653434753e-02 -1.893092393875122070e-01 3.746255859732627869e-02 -5.984240397810935974e-02 1.967473030090332031e-01 1.319882553070783615e-02 -2.657441198825836182e-01 1.006767153739929199e-01 1.156749948859214783e-01 -8.113215863704681396e-02 -1.184605285525321960e-01 1.096082776784896851e-01 3.665717691183090210e-02 4.890476167201995850e-02 -2.801934070885181427e-02 -9.707280248403549194e-02 -1.111375018954277039e-01 3.844847157597541809e-02 -5.019916966557502747e-02 4.573514685034751892e-02 7.704818993806838989e-02 6.607297062873840332e-02 -1.560070067644119263e-01 -1.541356146335601807e-01 8.405247330665588379e-02 2.530274912714958191e-02 3.039687126874923706e-02 -6.997521221637725830e-02 2.311392724514007568e-01 -1.092875469475984573e-02 2.869790792465209961e-02 1.165208443999290466e-01 1.119092032313346863e-01 2.401718497276306152e-01 1.006083115935325623e-01 4.715302493423223495e-03 -1.090831384062767029e-01 -1.027173027396202087e-01 -2.629857957363128662e-01 4.125573206692934036e-03 -9.233396500349044800e-02 -2.435021102428436279e-02 -8.457397669553756714e-02 -2.924816496670246124e-02 -9.537246078252792358e-02 1.090580970048904419e-01 7.518249005079269409e-02 -1.605906337499618530e-01 -2.709467709064483643e-02 5.861133337020874023e-02 -9.574271738529205322e-02 8.597675710916519165e-02 8.202934265136718750e-02 1.447028666734695435e-01 -1.424640417098999023e-01 -9.776071645319461823e-03 -3.873777389526367188e-02 2.389779686927795410e-02 5.513243749737739563e-02 -1.572637557983398438e-01 1.936678774654865265e-02 1.336213573813438416e-02 -1.586217246949672699e-02 3.738503530621528625e-02 -1.419164612889289856e-02 6.951927393674850464e-02 -5.181368440389633179e-03 2.102554291486740112e-01 -7.942084223031997681e-03 -4.504425078630447388e-02 3.895661607384681702e-02 -1.890619993209838867e-01 -5.477159097790718079e-02 -2.750220592133700848e-04 -6.442738324403762817e-02 4.945003986358642578e-02 -1.967682689428329468e-02 3.840335831046104431e-02 3.580484073609113693e-03 -1.141304243355989456e-02 -7.232542335987091064e-02 -4.981082677841186523e-02 -2.569440193474292755e-02 -1.353007853031158447e-01 -5.463872849941253662e-02 -1.988500356674194336e-01 -1.589593291282653809e-02 -7.364926394075155258e-03 3.107535094022750854e-02 3.686797618865966797e-02 -9.539140388369560242e-03 -9.741269797086715698e-02 1.264875754714012146e-02 -1.087243407964706421e-01 -9.255404025316238403e-02 8.228586614131927490e-02 -2.027389556169509888e-01 -4.460474103689193726e-02 1.108278110623359680e-01 1.646368354558944702e-01 -8.959186077117919922e-02 -1.668795794248580933e-01 1.161358281970024109e-01 -1.327915638685226440e-01 -1.473513990640640259e-01 -1.476964354515075684e-01 -7.064104545861482620e-03 -3.759836405515670776e-02 2.239285968244075775e-02 -7.150693237781524658e-02 -4.224351048469543457e-02 -1.407357454299926758e-01 1.463919430971145630e-01 -6.875580549240112305e-02 -1.185887753963470459e-01 -2.326276302337646484e-01 -3.668332472443580627e-02 6.771411746740341187e-02 -6.734918802976608276e-02 -4.908523522317409515e-03 -5.997974798083305359e-02 -6.078410148620605469e-02 1.241222172975540161e-01 -1.261690855026245117e-01 -5.426020547747612000e-02 6.188796833157539368e-04 -5.122420191764831543e-02 -1.085437610745429993e-01 -1.739412248134613037e-01 -7.652028650045394897e-02 8.942671120166778564e-03 1.164010446518659592e-02 3.002942726016044617e-02 2.621672116219997406e-02 -1.264149248600006104e-01 -7.006982713937759399e-02 -5.474655702710151672e-02 1.708543673157691956e-02 -3.052019141614437103e-02 2.715542912483215332e-02 -5.801411345601081848e-02
8.163931220769882202e-02 -4.395797476172447205e-02 -5.479705706238746643e-02 -1.042230501770973206e-01 -1.577669195830821991e-02 4.681354016065597534e-02 9.394054859876632690e-02 -2.515551075339317322e-02 3.347915410995483398e-02 -8.940134197473526001e-02 -1.061690151691436768e-01 1.895638927817344666e-02 -9.572087228298187256e-02 1.156551539897918701e-01 -1.014741361141204834e-01 8.218815177679061890e-02 -4.788433760404586792e-02 -6.387239787727594376e-03 -7.563165575265884399e-02 -1.839286535978317261e-01 -7.685264199972152710e-02 -9.919047355651855469e-02 -9.787420183420181274e-02 -7.581254933029413223e-03 4.468266293406486511e-02 -1.381222307682037354e-01 -2.967542782425880432e-02 -8.495052158832550049e-02 -1.305698603391647339e-01 1.574294418096542358e-01 -1.173644214868545532e-01 4.160161316394805908e-02 -5.879124626517295837e-02 -3.016161546111106873e-02 7.343579083681106567e-02 -1.857226192951202393e-01 7.770304381847381592e-02 2.653323858976364136e-02 8.319039642810821533e-02 -1.076892912387847900e-01 2.844569971784949303e-03 -7.216957956552505493e-02 -4.318062961101531982e-02 9.854403138160705566e-02 -5.110989883542060852e-02 6.422635167837142944e-02 -1.703398525714874268e-01 1.421184390783309937e-01 -7.948206365108489990e-02 -1.587615907192230225e-02 4.466897621750831604e-02 6.536145508289337158e-02 7.179837673902511597e-02 1.280027776956558228e-01 -1.635208539664745331e-02 -1.663677245378494263e-01 -2.492922693490982056e-01 -7.733400166034698486e-02 2.502560243010520935e-02 -4.110928252339363098e-02 1.304660271853208542e-02 -7.298336178064346313e-02 6.385485082864761353e-02 6.089767813682556152e-02 8.345890045166015625e-02 2.522531338036060333e-02 1.756322197616100311e-02 4.110252857208251953e-02 1.715968847274780273e-01 6.986302137374877930e-02 1.003401428461074829e-01 -1.796867512166500092e-02 -6.836632639169692993e-02 -1.696564108133316040e-01 7.606250047683715820e-02 3.256185725331306458e-02 -5.190611630678176880e-02 -2.210060320794582367e-02 -2.232833951711654663e-01 6.173754483461380005e-02 -7.080185227096080780e-03 -1.770033314824104309e-02 -1.871558465063571930e-02 -1.263522803783416748e-01 -3.210714459419250488e-02 1.309639066457748413e-01 1.112136095762252808e-01 5.137502774596214294e-02 1.453894823789596558e-01 -4.748057946562767029e-02 6.560373120009899139e-03 6.018759310245513916e-02 4.202885925769805908e-02 -1.469977647066116333e-01 -2.804410085082054138e-02 5.016426090151071548e-03 4.297959059476852417e-02 1.296173930168151855e-01 -1.397210210561752319e-01 1.117486208677291870e-01 -4.896308109164237976e-02 7.203518599271774292e-02 -4.722237586975097656e-02 5.231996625661849976e-02 -6.381987035274505615e-02 2.243869304656982422e-01 6.593448668718338013e-02 -4.030320420861244202e-02 -3.364878892898559570e-02 4.035522043704986572e-02 -4.429139196872711182e-02 9.607732295989990234e-02 -3.735873103141784668e-02 3.527508676052093506e-02 6.384966522455215454e-02 2.121479995548725128e-02 3.070899285376071930e-02 -8.784209936857223511e-02 7.006958872079849243e-02 1.178882345557212830e-01 4.372544959187507629e-02 -4.696216434240341187e-02 1.036121174693107605e-01 -1.961008273065090179e-02 5.592886731028556824e-02 4.055453464388847351e-02 6.121131777763366699e-02 -2.517836354672908783e-02 -1.233164370059967041e-01 -1.785398274660110474e-01 1.041456535458564758e-01 -7.398769259452819824e-02 -1.457660198211669922e-01 -3.924553841352462769e-02 -7.771092001348733902e-03 1.070415526628494263e-01 -3.310734406113624573e-02 3.154449909925460815e-02 1.045077070593833923e-01 -1.366875618696212769e-01 9.693992882966995239e-02 -6.103939376771450043e-03 -7.966319099068641663e-03 8.692540228366851807e-02 -5.071655660867691040e-02 1.581776738166809082e-01 1.135279536247253418e-01 -1.716378331184387207e-01 3.067278303205966949e-02 3.636906621977686882e-03 -4.971219226717948914e-03 4.160824418067932129e-02 5.449557676911354065e-03 6.769639998674392700e-02 9.780620224773883820e-03 1.112629547715187073e-01 -9.311692556366324425e-04 1.555599719285964966e-01 -8.179934322834014893e-02 5.334678106009960175e-03 -4.495002701878547668e-02 -1.296049803495407104e-01 3.886210545897483826e-02 5.663074553012847900e-03 -5.808837711811065674e-02 2.071446031332015991e-01 -1.244921013712882996e-01 -4.228560999035835266e-02 3.248318657279014587e-02 -2.068302631378173828e-01 5.185766494832932949e-04 9.577738493680953979e-02 -6.571852415800094604e-02 -1.919141858816146851e-01 -3.364368155598640442e-02 5.147759616374969482e-02 -5.375978723168373108e-02 -4.442092031240463257e-02 8.091822266578674316e-02 2.908868156373500824e-02 -1.018273010849952698e-01 3.593421354889869690e-02 4.036404937505722046e-02 -1.153041496872901917e-01 -1.062159538269042969e-01 4.447299987077713013e-02 -2.040104568004608154e-01 -1.469078212976455688e-01 -1.290710270404815674e-01 -6.489214301109313965e-02 -9.444906562566757202e-02 -9.622684866189956665e-02 1.243046596646308899e-01 7.348323613405227661e-02 -1.853886432945728302e-02 5.400303751230239868e-02 1.162829399108886719e-01 4.470810294151306152e-02 9.831960499286651611e-02 1.259434036910533905e-02 5.976405367255210876e-02 -5.077978596091270447e-02 -7.378994021564722061e-03 4.218647629022598267e-02 -1.622859090566635132e-01 2.196471951901912689e-02 -1.226830706000328064e-01 -2.434364520013332367e-02 1.393438428640365601e-01 -1.585103273391723633e-01 9.165285527706146240e-02 -1.136340498924255371e-01 4.219936579465866089e-02 -5.902709439396858215e-03 3.731928765773773193e-02 5.311401560902595520e-02 1.327750086784362793e-01 -1.216828078031539917e-02 7.884010672569274902e-02 -2.235328257083892822e-01 -6.802659481763839722e-02 -9.384443983435630798e-03 -3.998453915119171143e-02 -9.961213171482086182e-02 -6.205118820071220398e-02 2.965630032122135162e-02 -1.710008457303047180e-02 -1.351549103856086731e-02 -9.150762856006622314e-02 -1.764664985239505768e-02 1.674793660640716553e-01 -1.535745114088058472e-01 -1.031329706311225891e-01 2.230583631899207830e-04 -7.065028697252273560e-02 -1.569821983575820923e-01 -1.339177042245864868e-01 -1.374046877026557922e-02 -9.620986133813858032e-02 -1.192662268877029419e-01 -9.536748379468917847e-02 -8.141496218740940094e-03 -9.273025393486022949e-02 7.765772193670272827e-02 -4.940723255276679993e-02 -1.767787486314773560e-01 8.563812822103500366e-02 -1.178171113133430481e-01 -9.753917343914508820e-03 -1.675687879323959351e-01 1.662316918373107910e-02 -3.801433742046356201e-02 -1.192653924226760864e-01 -4.898394644260406494e-02 1.447814702987670898e-01 1.313297450542449951e-01
-1.740812696516513824e-02 6.362103670835494995e-02 -2.777099609375000000e-02 7.082393765449523926e-02 1.780489534139633179e-01 -2.041000872850418091e-02 1.084488928318023682e-01 -4.671778529882431030e-02 -8.520644903182983398e-02 3.126792609691619873e-02 -2.898734211921691895e-01 5.746522452682256699e-03 1.646959036588668823e-01 -1.060115918517112732e-01 -1.133391410112380981e-01 9.900058060884475708e-02 6.250784546136856079e-02 2.917244285345077515e-02 -3.289198502898216248e-03 5.329810455441474915e-02 6.386345624923706055e-02 9.698463231325149536e-02 -2.037072777748107910e-01 -4.869400709867477417e-02 3.498352691531181335e-02 1.604582183063030243e-02 -6.692979484796524048e-02 1.396072283387184143e-02 -2.130626291036605835e-01 -3.624623641371726990e-02 5.798102542757987976e-02 -2.149721086025238037e-01 3.912208974361419678e-02 2.419719099998474121e-02 -5.414666980504989624e-02 -3.502416610717773438e-02 -3.257378190755844116e-02 6.996000651270151138e-03 -8.579596877098083496e-02 -4.601345956325531006e-02 -2.676302567124366760e-02 -7.657915353775024414e-02 -1.864361315965652466e-01 1.106587350368499756e-01 -4.574547708034515381e-02 -1.224346831440925598e-01 -1.566966921091079712e-01 -1.430668234825134277e-01 -3.048346377909183502e-02 5.333326384425163269e-02 -1.774003356695175171e-01 -4.735353216528892517e-02 -2.112925350666046143e-01 -9.060975164175033569e-03 -1.313595920801162720e-01 -1.845336332917213440e-02 -4.063111171126365662e-02 -4.913454502820968628e-02 8.955362136475741863e-04 -2.005867063999176025e-01 -1.183946281671524048e-01 -1.118839085102081299e-01 9.598707407712936401e-02 3.514329344034194946e-02 -6.311914324760437012e-02 -1.135438829660415649e-01 -3.111468255519866943e-02 1.696652546525001526e-02 -1.965401321649551392e-01 7.752633094787597656e-02 -1.187549903988838196e-01 -1.662979125976562500e-01 -7.821921259164810181e-02 -1.764310747385025024e-01 -8.563835173845291138e-02 -2.718284726142883301e-02 -3.770155832171440125e-02 -1.352576762437820435e-01 -1.074261516332626343e-01 -2.473450638353824615e-02 5.555303022265434265e-02 4.641387611627578735e-02 -3.897036612033843994e-02 -1.367697715759277344e-01 1.591203808784484863e-01 3.437431156635284424e-02 7.355822715908288956e-03 -1.081275660544633865e-02 9.600742906332015991e-02 -1.515451259911060333e-02 8.576943655498325825e-04 3.485828638076782227e-02 1.821321099996566772e-01 -8.496268838644027710e-02 -1.763431578874588013e-01 1.650177091360092163e-01 -5.405369400978088379e-02 -4.651062563061714172e-02 -1.580714248120784760e-02 8.294412493705749512e-02 -1.203993409872055054e-01 5.480577237904071808e-04 -1.803050786256790161e-01 -4.543534293770790100e-02 -1.171186938881874084e-01 1.585986278951168060e-02 8.764537423849105835e-02 -1.350669413805007935e-01 1.882755570113658905e-02 -6.208584830164909363e-02 -1.577481776475906372e-01 -6.589783728122711182e-02 5.316853057593107224e-03 1.851005107164382935e-02 -9.848487377166748047e-02 -5.928901955485343933e-02 -1.096246391534805298e-01 -1.020634025335311890e-01 7.391856610774993896e-02 -4.371985048055648804e-02 2.664835378527641296e-02 5.685120448470115662e-02 -3.572598844766616821e-02 5.720306932926177979e-02 -2.187083289027214050e-02 -1.554761528968811035e-01 -2.781482785940170288e-02 -1.185276266187429428e-02 2.965351939201354980e-02 1.655161827802658081e-01 -3.224638700485229492e-01 -5.746398121118545532e-02 -5.045254155993461609e-02 -6.367608904838562012e-02 -2.007811814546585083e-01 -4.460408911108970642e-02 -7.702358067035675049e-02 5.254768580198287964e-02 -4.030599724501371384e-03 -1.062904745340347290e-01 1.510246098041534424e-01 5.976888164877891541e-02 -2.628863789141178131e-02 4.755286499857902527e-02 -1.669443584978580475e-02 -5.192630365490913391e-02 -7.787054032087326050e-02 -3.436489775776863098e-02 9.110056608915328979e-02 -3.870025277137756348e-02 1.152672395110130310e-01 -1.527112871408462524e-01 -1.397739350795745850e-01 -1.105885580182075500e-01 4.010257124900817871e-02 9.443030506372451782e-02 7.293453812599182129e-02 1.053621340543031693e-02 -1.822330802679061890e-01 1.454063653945922852e-01 9.470373392105102539e-02 2.429075725376605988e-02 1.346038002520799637e-02 -2.481714785099029541e-01 2.079990133643150330e-02 -1.893583238124847412e-01 1.138825118541717529e-01 2.510827593505382538e-02 1.923467218875885010e-02 -8.828710764646530151e-02 -6.015298515558242798e-02 -3.741125762462615967e-02 -9.948816150426864624e-02 -2.583934692665934563e-03 -6.376545876264572144e-02 -2.632616087794303894e-02 1.322711110115051270e-01 -1.266677528619766235e-01 -1.703666597604751587e-01 -7.556916028261184692e-02 1.459794044494628906e-01 1.024694144725799561e-01 -1.753114163875579834e-01 4.665666073560714722e-02 -1.106954216957092285e-01 2.948885411024093628e-02 -2.183165252208709717e-01 -1.292027533054351807e-01 -1.191467046737670898e-01 3.479653224349021912e-02 -1.325926780700683594e-01 -5.303338915109634399e-02 -5.418396741151809692e-02 1.321893651038408279e-02 -1.262939572334289551e-01 1.210874244570732117e-01 -2.309172414243221283e-02 -4.729516059160232544e-02 -1.692200005054473877e-01 4.388055577874183655e-02 -2.972495257854461670e-01 -2.893957868218421936e-02 -1.215326711535453796e-01 -7.230756431818008423e-02 1.657821238040924072e-01 -3.041698969900608063e-02 -6.694587320089340210e-02 -2.045634239912033081e-01 -8.450207859277725220e-02 -1.646599769592285156e-01 -1.250811852514743805e-02 -1.696075685322284698e-02 -3.027326660230755806e-03 -8.972036093473434448e-02 -1.657133102416992188e-01 4.341546818614006042e-02 8.942437171936035156e-02 8.970747888088226318e-02 -1.760070957243442535e-02 -2.450812794268131256e-02 -1.174578145146369934e-01 -1.055260971188545227e-01 -2.368279099464416504e-01 -1.758644282817840576e-01 5.382938776165246964e-03 -2.143673300743103027e-01 -1.078483685851097107e-01 -4.900885000824928284e-02 -7.506920397281646729e-02 -1.378404051065444946e-01 -1.100526377558708191e-01 6.235174089670181274e-02 -1.040054187178611755e-01 -8.961176872253417969e-02 -4.797927290201187134e-02 -5.722318217158317566e-02 -5.641626194119453430e-02 -1.063781231641769409e-01 2.495455369353294373e-02 -2.231056056916713715e-02 -9.623819589614868164e-02 -1.016534492373466492e-02 -1.596825942397117615e-02 -3.666024282574653625e-02 -6.511919200420379639e-02 -3.220537304878234863e-02 5.665450543165206909e-02 1.248335987329483032e-01 -1.125850006937980652e-01 6.610270589590072632e-03 -1.522776111960411072e-02 1.296049654483795166e-01 -8.129191398620605469e-02 2.434392087161540985e-02 1.238026004284620285e-02 2.139138057827949524e-02
7.885900884866714478e-02 -2.885534614324569702e-02 4.347848892211914062e-02 5.475842207670211792e-02 7.946114242076873779e-02 7.806687057018280029e-02 6.305161863565444946e-02 -9.077085182070732117e-03 7.648897171020507812e-02 -1.127942726016044617e-01 3.339099511504173279e-02 -1.746775656938552856e-01 -9.834277629852294922e-02 5.847858730703592300e-03 4.978603869676589966e-02 1.320490837097167969e-01 -7.592056691646575928e-02 -1.649339199066162109e-01 1.652850806713104248e-01 -4.948949441313743591e-02 -1.810595579445362091e-02 -3.877643868327140808e-02 8.560329675674438477e-02 5.995467305183410645e-03 -9.614210575819015503e-02 -7.281604409217834473e-02 -1.233970299363136292e-01 -1.093750521540641785e-01 -9.451657533645629883e-02 -4.959609359502792358e-03 3.368861507624387741e-03 8.912915736436843872e-02 -4.556459188461303711e-02 1.295943558216094971e-01 -1.117839291691780090e-01 -4.459955543279647827e-02 -5.550843104720115662e-02 -1.192536279559135437e-01 -1.646561175584793091e-02 -1.220583617687225342e-01 -3.849323466420173645e-02 9.260845929384231567e-02 2.417427115142345428e-02 1.454388499259948730e-01 -1.691252738237380981e-01 -5.343035329133272171e-03 -3.687307238578796387e-02 1.509463191032409668e-01 -1.411818340420722961e-02 -1.719762943685054779e-02 -5.281604826450347900e-02 -3.538779541850090027e-02 1.302832514047622681e-01 -3.797852993011474609e-02 1.605460047721862793e-01 1.344298385083675385e-02 4.838201776146888733e-02 5.153163149952888489e-02 -1.815266162157058716e-02 -2.035667747259140015e-02 -8.587874472141265869e-02 -8.623693883419036865e-02 -1.152934134006500244e-01 1.821973733603954315e-02 -4.620419815182685852e-02 -9.067735821008682251e-02 7.720611244440078735e-02 8.567577600479125977e-02 -7.926941663026809692e-02 -3.460438689216971397e-03 5.680686980485916138e-02 3.229503519833087921e-03 1.363344043493270874e-01 -5.997682362794876099e-02 3.544643521308898926e-02 -5.485587567090988159e-02 6.658657453954219818e-03 9.134427644312381744e-03 1.467051953077316284e-01 7.155971229076385498e-02 -1.644171923398971558e-01 -3.223427012562751770e-02 6.920335441827774048e-02 -7.440438866615295410e-02 -8.556962129659950733e-04 6.917056441307067871e-02 1.716057062149047852e-01 -1.298057138919830322e-01 -5.656850337982177734e-02 3.559422120451927185e-02 8.679123595356941223e-03 5.915930494666099548e-02 7.816565036773681641e-02 -7.487723231315612793e-02 -2.712162397801876068e-02 1.805430091917514801e-02 8.330689370632171631e-02 5.087469890713691711e-02 -1.440095752477645874e-01 3.678087610751390457e-03 -2.634285762906074524e-02 -1.923631317913532257e-02 1.689737290143966675e-02 -2.274975739419460297e-02 2.901930734515190125e-02 5.426187068223953247e-02 -3.510089300107210875e-04 6.612667441368103027e-02 9.065455198287963867e-02 -2.584416605532169342e-02 -1.648042351007461548e-02 -2.306150943040847778e-01 -1.849802136421203613e-01 -6.545793265104293823e-02 -2.472801832482218742e-03 1.481382995843887329e-01 2.223365381360054016e-02 4.128152132034301758e-02 2.566141635179519653e-02 -9.922011196613311768e-02 8.412732928991317749e-02 7.707150280475616455e-02 4.653795808553695679e-02 1.010309681296348572e-01 -3.169875964522361755e-02 -1.366109214723110199e-02 -2.666682563722133636e-02 -2.669103145599365234e-01 5.397528875619173050e-03 1.262027863413095474e-02 -1.700463593006134033e-01 1.016832888126373291e-01 -1.500934362411499023e-02 -5.874468386173248291e-02 -2.296133488416671753e-01 -1.308992952108383179e-01 2.847640961408615112e-02 -8.423761278390884399e-02 -1.302851140499114990e-01 -4.677948728203773499e-02 -1.192723214626312256e-01 -9.269742295145988464e-03 -2.842080593109130859e-02 -1.060061082243919373e-01 -7.414680719375610352e-02 1.211221888661384583e-02 -8.706779778003692627e-02 -1.701989769935607910e-02 1.088471733964979649e-03 -4.952390119433403015e-02 -1.273259520530700684e-01 -1.034831926226615906e-01 1.408621668815612793e-02 -2.946352772414684296e-02 7.010600715875625610e-02 -2.761193811893463135e-01 -1.501004863530397415e-02 1.275364216417074203e-02 1.682716049253940582e-02 -1.359824389219284058e-01 -6.717344373464584351e-02 -1.416330458596348763e-03 -6.919058412313461304e-02 -5.188954249024391174e-02 -1.291483342647552490e-01 6.688285619020462036e-02 1.372164934873580933e-01 9.060833603143692017e-02 -1.535282731056213379e-01 -1.549939364194869995e-01 3.666929900646209717e-02 5.383504554629325867e-02 -1.181776821613311768e-01 5.853141471743583679e-02 2.079785168170928955e-01 -1.800060272216796875e-01 -1.190482676029205322e-01 3.862560987472534180e-01 -1.355960369110107422e-01 3.288915380835533142e-02 1.043908298015594482e-01 -3.114683181047439575e-02 1.476589962840080261e-02 1.443419046700000763e-02 5.168189108371734619e-02 -8.660238981246948242e-02 7.505865395069122314e-02 -1.780009716749191284e-01 -1.777656078338623047e-01 -3.881949558854103088e-02 -2.707190811634063721e-01 7.039002329111099243e-02 -5.216461792588233948e-02 -1.517858356237411499e-02 2.235581725835800171e-02 5.107018724083900452e-02 -3.752062469720840454e-02 -1.933927685022354126e-01 -5.746956169605255127e-02 -1.022801920771598816e-02 -3.508219122886657715e-02 7.095101475715637207e-02 1.602262374944984913e-03 -6.146498396992683411e-02 -1.292933803051710129e-02 3.796152304857969284e-04 -1.291086971759796143e-01 -3.385521098971366882e-02 -1.468395441770553589e-01 -1.455944329500198364e-01 6.907684355974197388e-02 1.201073289848864079e-03 1.078953314572572708e-02 -3.662785142660140991e-02 1.188009455800056458e-01 1.324961930513381958e-01 4.820074141025543213e-02 -2.428478598594665527e-01 -1.616118103265762329e-02 2.161841094493865967e-02 1.222965568304061890e-01 1.645620353519916534e-02 1.042329519987106323e-02 1.898728460073471069e-01 -2.268479168415069580e-01 -6.647268682718276978e-02 -3.144115582108497620e-02 -2.314486354589462280e-02 5.257641896605491638e-02 2.345651388168334961e-02 9.567213058471679688e-02 -8.823581039905548096e-02 -5.854377895593643188e-02 2.684718742966651917e-02 -8.705868571996688843e-02 7.200960814952850342e-02 4.453361034393310547e-03 -9.522181004285812378e-02 4.897937551140785217e-02 -5.733944475650787354e-02 -1.028296351432800293e-01 3.409821912646293640e-02 7.462481409311294556e-02 5.309675633907318115e-02 -4.758585244417190552e-02 -3.532491251826286316e-02 2.308937907218933105e-02 -2.550201416015625000e-01 -3.255250677466392517e-02 -1.475487500429153442e-01 1.319813132286071777e-01 1.195315495133399963e-01 -1.395779401063919067e-01 1.258840858936309814e-01 -2.023297846317291260e-01 8.163175731897354126e-02
-8.709654211997985840e-02 1.129606440663337708e-01 1.009897440671920776e-01 -6.433172523975372314e-02 -1.248995959758758545e-01 -6.611833814531564713e-03 1.097777159884572029e-03 -1.478702127933502197e-01 -7.850923389196395874e-02 -6.589493900537490845e-02 1.807233095169067383e-01 -2.604914642870426178e-02 1.563169434666633606e-02 -5.071407929062843323e-02 -2.541270256042480469e-01 9.089887887239456177e-02 4.610851779580116272e-02 7.673460245132446289e-02 -2.960832603275775909e-02 2.099326439201831818e-02 -1.549953129142522812e-02 -1.367665678262710571e-01 1.494940835982561111e-02 -6.311612576246261597e-02 -4.115018993616104126e-02 -8.625079691410064697e-02 1.861564256250858307e-02 -1.396377533674240112e-01 -1.437002420425415039e-01 -6.955480575561523438e-02 -8.581883460283279419e-02 1.127388775348663330e-01 -1.388901770114898682e-01 8.106278255581855774e-03 -1.551379710435867310e-01 -5.071739479899406433e-02 -6.646566092967987061e-02 -2.704006060957908630e-02 5.809180065989494324e-02 -8.364081382751464844e-02 1.913826763629913330e-01 -5.574911832809448242e-02 -2.306096255779266357e-01 6.988775730133056641e-02 -5.493360385298728943e-02 2.019591182470321655e-01 3.255622833967208862e-02 -5.110293626785278320e-03 -9.180027991533279419e-02 -1.151148900389671326e-01 8.298689872026443481e-02 -1.003663316369056702e-01 -1.434838771820068359e-01 -4.893004894256591797e-02 -9.783617220818996429e-03 -8.352077752351760864e-02 2.213024906814098358e-02 3.254140727221965790e-03 -4.403083398938179016e-02 -3.954009339213371277e-02 7.754407078027725220e-02 1.771170832216739655e-02 9.991481155157089233e-02 -2.666677464731037617e-04 1.327399164438247681e-01 -8.150543272495269775e-02 -1.031061857938766479e-01 -7.070668041706085205e-02 -4.527216404676437378e-02 -8.704627305269241333e-02 7.287562359124422073e-03 -1.785580217838287354e-01 -1.015809550881385803e-01 -8.212196826934814453e-02 -9.076118469238281250e-03 8.053128421306610107e-02 7.330063730478286743e-02 -3.071855194866657257e-02 1.541657447814941406e-01 6.156195327639579773e-02 -4.053021594882011414e-02 -5.274630337953567505e-02 -1.914376169443130493e-01 1.395133137702941895e-02 6.330559402704238892e-02 -1.847067922353744507e-01 9.136742353439331055e-02 1.366954296827316284e-01 5.630797706544399261e-03 -1.127722859382629395e-01 -4.721718281507492065e-02 -6.725314259529113770e-02 -2.610688842833042145e-02 -1.193032413721084595e-01 4.318405687808990479e-02 5.397650226950645447e-02 -1.291935890913009644e-01 5.922617018222808838e-02 1.837008893489837646e-01 -1.801217533648014069e-02 -1.980736851692199707e-01 6.406030803918838501e-02 2.075179712846875191e-03 5.289517715573310852e-02 -2.472053468227386475e-02 -1.197407990694046021e-01 -2.163626067340373993e-02 -7.036388665437698364e-02 2.362230233848094940e-02 -8.755337330512702465e-04 -3.748464584350585938e-02 -1.122144162654876709e-01 -1.107368804514408112e-02 2.163908816874027252e-02 -1.851523220539093018e-01 8.447096496820449829e-02 -7.356255501508712769e-02 -1.694510690867900848e-02 -8.475676178932189941e-02 -2.054762840270996094e-02 1.390717923641204834e-01 -1.694411039352416992e-02 2.977786399424076080e-02 2.014636434614658356e-02 -1.800683140754699707e-02 -6.137568876147270203e-02 7.275199145078659058e-02 6.380097474902868271e-03 1.670304220169782639e-03 -9.782744199037551880e-02 -7.941565662622451782e-02 -3.420077962800860405e-03 -1.327283084392547607e-01 -1.054000202566385269e-02 -1.972025036811828613e-01 -1.990250200033187866e-01 -9.321022033691406250e-02 -5.575280264019966125e-02 -9.177882969379425049e-02 -6.097453087568283081e-02 -5.131639167666435242e-02 -1.450254023075103760e-01 -2.856196649372577667e-02 -7.511762529611587524e-02 -1.005126833915710449e-01 -2.155691534280776978e-01 -1.000420823693275452e-01 1.009379699826240540e-01 -1.894919574260711670e-01 9.654288738965988159e-02 2.027226798236370087e-02 8.976529538631439209e-02 1.881212554872035980e-02 -1.025043204426765442e-01 -1.532040685415267944e-01 -1.023789308965206146e-02 1.346398293972015381e-01 1.461933851242065430e-01 6.064981222152709961e-03 2.780809998512268066e-02 1.517931520938873291e-01 -1.718096584081649780e-01 -1.485493034124374390e-01 2.760485932230949402e-02 -8.271632716059684753e-03 2.323006987571716309e-01 -8.516958355903625488e-02 -1.103794127702713013e-01 2.019456587731838226e-02 -8.634247630834579468e-02 7.245442271232604980e-02 -2.964831292629241943e-01 -4.759477823972702026e-02 -1.691675484180450439e-01 -3.809152543544769287e-02 -5.921978130936622620e-02 1.875186711549758911e-01 -1.218997389078140259e-01 -1.147268116474151611e-01 1.921408027410507202e-01 -2.523980438709259033e-01 -2.199889719486236572e-01 -9.745988994836807251e-02 -3.462771698832511902e-02 1.388023942708969116e-01 5.159559845924377441e-02 -4.294840991497039795e-02 6.200379878282546997e-02 -2.126606553792953491e-02 1.705832965672016144e-02 4.917442053556442261e-02 1.046768426895141602e-01 -1.351400166749954224e-01 1.503128260374069214e-01 -1.564994640648365021e-02 1.115787699818611145e-01 -7.036759704351425171e-02 6.663900613784790039e-02 -8.300302922725677490e-02 9.523196518421173096e-02 5.739553272724151611e-02 4.831918329000473022e-02 -7.131545245647430420e-02 -1.500349044799804688e-01 1.139610335230827332e-01 5.498423799872398376e-02 -2.975415997207164764e-02 -9.199625998735427856e-02 -7.776191341690719128e-04 7.595326751470565796e-02 1.881261914968490601e-02 -9.020001441240310669e-02 -9.055069647729396820e-03 -1.290633678436279297e-01 1.246552765369415283e-01 -7.085982710123062134e-02 -6.017706543207168579e-02 -1.717508211731910706e-02 1.723138839006423950e-01 -7.392040640115737915e-02 -4.607085883617401123e-02 -4.224725067615509033e-02 -9.966844320297241211e-02 8.062579482793807983e-02 -2.688404358923435211e-02 -1.762285977602005005e-01 2.560489624738693237e-02 1.414504647254943848e-01 -4.123043641448020935e-02 -4.027099534869194031e-02 -2.044945508241653442e-01 3.278461471199989319e-02 -1.403988059610128403e-02 1.449078023433685303e-01 1.508544683456420898e-01 -1.863378733396530151e-01 1.688713580369949341e-02 1.087864264845848083e-01 5.451693013310432434e-02 5.305148288607597351e-02 -1.239486336708068848e-01 -5.943779647350311279e-02 -2.238396182656288147e-02 4.261475056409835815e-02 -4.508427530527114868e-02 4.138137679547071457e-03 8.030499517917633057e-02 1.159429643303155899e-02 -2.563109099864959717e-01 -3.583268076181411743e-02 1.673253178596496582e-01 -2.381543666124343872e-01 1.031715869903564453e-01 -2.196937203407287598e-01 -6.461888551712036133e-02 4.908611997961997986e-02
-5.840821191668510437e-02 6.347135454416275024e-02 -1.867964863777160645e-01 -8.745768666267395020e-02 -1.960120163857936859e-02 1.145643275231122971e-02 3.758439794182777405e-02 -3.258322179317474365e-02 4.349309206008911133e-02 -2.085479162633419037e-02 6.854199618101119995e-02 -1.223825216293334961e-01 4.099009558558464050e-02 -1.580857783555984497e-01 2.340759187936782837e-01 -1.098843812942504883e-01 -4.921332001686096191e-02 -1.068743318319320679e-02 1.206728294491767883e-01 8.066724985837936401e-02 -4.042680934071540833e-02 -1.702068895101547241e-01 -1.292179524898529053e-01 -3.277666121721267700e-02 -3.992860764265060425e-02 3.538665547966957092e-02 -1.613156124949455261e-02 -6.971224397420883179e-02 -8.081896603107452393e-02 2.978112921118736267e-02 6.964079290628433228e-02 -1.287684217095375061e-02 1.507004257291555405e-03 -9.891013056039810181e-02 1.263238340616226196e-01 -5.299834907054901123e-02 -5.647226050496101379e-02 1.515614688396453857e-01 -3.725473955273628235e-02 1.379180885851383209e-02 -6.307152658700942993e-02 4.284315928816795349e-02 -1.028632596135139465e-01 -1.732864975929260254e-02 -2.391844056546688080e-02 -7.921649515628814697e-02 -9.751193225383758545e-02 -4.829810187220573425e-02 -5.625658109784126282e-02 -5.895648151636123657e-02 -6.215565837919712067e-03 -1.394271254539489746e-01 7.514642924070358276e-02 5.112534854561090469e-03 4.366746917366981506e-02 -4.495444148778915405e-02 -1.803024299442768097e-02 1.576530933380126953e-01 1.924870461225509644e-01 1.959377825260162354e-01 -6.426566094160079956e-02 -1.263910830020904541e-01 -7.866562902927398682e-02 -1.030001789331436157e-01 -2.119298726320266724e-01 1.943366676568984985e-01 6.535314489156007767e-03 1.176879703998565674e-01 6.524118781089782715e-02 2.729332260787487030e-02 8.017120510339736938e-02 -1.096647679805755615e-01 -8.580962195992469788e-03 4.956606030464172363e-02 -1.319839507341384888e-01 -1.312889605760574341e-01 -7.404187321662902832e-02 -6.857844442129135132e-02 -1.277514398097991943e-01 -2.402545362710952759e-01 -3.981603309512138367e-02 -1.450832188129425049e-01 -1.989109218120574951e-01 -1.041892468929290771e-01 1.180276721715927124e-01 8.376988023519515991e-02 -4.160162061452865601e-02 1.898280717432498932e-02 -1.457700785249471664e-02 8.132811635732650757e-02 -1.912532597780227661e-01 5.917024239897727966e-02 1.346628069877624512e-01 -1.092593967914581299e-01 1.602840796113014221e-02 -1.615508110262453556e-03 -1.053469702601432800e-01 6.149633228778839111e-02 -1.314721405506134033e-01 -1.208125352859497070e-01 -4.189292713999748230e-02 -7.852795720100402832e-02 -1.015771254897117615e-01 1.064764708280563354e-01 -1.176502648741006851e-02 -1.709432899951934814e-02 4.114126041531562805e-02 -1.163304373621940613e-01 -4.981474205851554871e-02 1.727078557014465332e-01 1.333536803722381592e-01 -1.151642352342605591e-01 -7.867851108312606812e-02 -1.679570786654949188e-02 -7.118507474660873413e-02 -9.360413253307342529e-02 -1.816050410270690918e-01 4.917614907026290894e-02 -1.328347325325012207e-01 -1.986955665051937103e-02 -7.816667854785919189e-02 2.746943011879920959e-02 -1.635884121060371399e-02 -6.605567783117294312e-02 6.224815174937248230e-02 -1.122793033719062805e-01 -6.162706017494201660e-02 4.188966751098632812e-02 7.191092520952224731e-02 3.646795637905597687e-03 -8.061715215444564819e-02 -5.026417970657348633e-02 6.701093912124633789e-02 -5.654595047235488892e-02 -1.103541329503059387e-01 9.505272656679153442e-02 3.150771837681531906e-03 -9.256556630134582520e-03 -2.770277298986911774e-02 -3.096096031367778778e-02 -7.013904303312301636e-02 -2.042843848466873169e-01 -3.473025932908058167e-02 -1.341649740934371948e-01 -9.789304435253143311e-02 2.003825455904006958e-02 2.002877742052078247e-02 -7.491956651210784912e-02 7.261950522661209106e-02 -1.815179884433746338e-01 -2.326837033033370972e-01 1.122027412056922913e-01 1.079119294881820679e-01 -1.698439568281173706e-02 -1.175489947199821472e-01 2.009677700698375702e-02 2.014057934284210205e-01 8.937605470418930054e-02 1.912445873022079468e-01 1.499354280531406403e-02 1.530697569251060486e-02 -2.502606809139251709e-02 1.435872465372085571e-01 -1.286082863807678223e-01 -5.055195093154907227e-02 7.312895357608795166e-02 -7.933013141155242920e-02 -3.243532404303550720e-02 9.801788628101348877e-02 -1.053689792752265930e-01 2.274512127041816711e-02 -5.064605735242366791e-03 4.641170054674148560e-02 5.739284213632345200e-03 -5.441993474960327148e-02 -4.915030673146247864e-02 -7.447795569896697998e-02 -1.398981511592864990e-01 -9.370621293783187866e-02 -1.010220348834991455e-01 -4.720849916338920593e-02 -4.790338873863220215e-02 1.150952056050300598e-01 -1.455849111080169678e-01 7.544226199388504028e-02 -5.661543458700180054e-03 -6.018022075295448303e-02 -2.827420830726623535e-02 -9.647654742002487183e-02 1.789436116814613342e-02 5.646150186657905579e-02 -1.783288270235061646e-01 -1.241203099489212036e-01 4.220471903681755066e-02 -1.057823840528726578e-02 8.652650751173496246e-03 -4.393348470330238342e-02 1.509536653757095337e-01 -1.185246035456657410e-01 1.079928246326744556e-03 1.814624108374118805e-02 2.259013950824737549e-01 -9.056098759174346924e-02 -1.388742774724960327e-01 1.196698918938636780e-01 -1.921390742063522339e-01 6.187526881694793701e-02 -7.163606584072113037e-03 -1.038929894566535950e-01 1.423865854740142822e-01 -1.176107376813888550e-01 2.841365896165370941e-02 4.662835225462913513e-02 -1.768411952070891857e-03 -1.211367547512054443e-01 1.069836914539337158e-01 2.082522213459014893e-02 -8.301577717065811157e-02 -1.454610824584960938e-01 2.668227069079875946e-02 -1.564218401908874512e-01 -1.877523362636566162e-01 1.020576246082782745e-02 2.760077714920043945e-01 -1.214046701788902283e-01 1.494155377149581909e-01 -3.216347843408584595e-02 1.371483970433473587e-02 -1.191752403974533081e-01 2.726317942142486572e-02 -2.692617475986480713e-03 -5.197819694876670837e-02 -2.026907168328762054e-02 1.038199849426746368e-02 -1.312460601329803467e-01 7.076753675937652588e-02 -1.096010878682136536e-01 8.727589249610900879e-02 1.037134379148483276e-01 -1.074719503521919250e-01 -5.136437714099884033e-02 -1.304847747087478638e-01 -4.102252796292304993e-02 6.585484743118286133e-02 -3.275666758418083191e-02 -6.739285588264465332e-02 -5.329618975520133972e-02 4.217068850994110107e-02 3.606672212481498718e-02 -3.499357029795646667e-02 -1.124320700764656067e-01 -1.233312264084815979e-01 -5.206079035997390747e-02 -1.261217594146728516e-01 -1.972744017839431763e-01 6.272947788238525391e-02
-7.254668325185775757e-02 7.208470255136489868e-02 3.238735487684607506e-03 4.548244643956422806e-03 1.664381660521030426e-02 3.941515926271677017e-03 8.189645409584045410e-02 -9.441693127155303955e-02 -2.816534042358398438e-02 8.989744819700717926e-03 5.744378641247749329e-02 8.952914737164974213e-03 -5.917454883456230164e-02 -5.489699542522430420e-03 -9.359719604253768921e-02 -9.555603563785552979e-02 1.903625577688217163e-01 7.823096588253974915e-03 1.222535446286201477e-01 -6.649672985076904297e-02 -1.408858001232147217e-01 4.114569351077079773e-02 8.197646588087081909e-02 -9.190354496240615845e-02 -8.267316035926342010e-03 -1.012105345726013184e-01 -1.069650705903768539e-02 7.924269139766693115e-02 -2.982984483242034912e-02 -2.277336083352565765e-02 -4.033498466014862061e-02 -1.371294856071472168e-01 1.012174189090728760e-01 7.110017538070678711e-02 2.914835326373577118e-02 2.044160664081573486e-02 2.218277379870414734e-02 5.250858142971992493e-02 9.455878287553787231e-02 1.848152130842208862e-01 7.892537117004394531e-02 -8.081009238958358765e-02 3.848124668002128601e-02 2.280091308057308197e-02 -1.530275400727987289e-02 -3.788297623395919800e-02 7.343210279941558838e-02 2.338898926973342896e-02 5.593517422676086426e-02 -4.055408760905265808e-02 -5.770116671919822693e-02 2.929324842989444733e-02 -9.853629395365715027e-03 1.922803744673728943e-02 7.640144973993301392e-02 -2.437610737979412079e-02 -6.466721743345260620e-02 -4.209225880913436413e-04 -5.747776478528976440e-02 -5.874397233128547668e-02 -2.368977814912796021e-01 -6.072013825178146362e-02 -8.713566511869430542e-02 -1.002035755664110184e-02 -4.147363360971212387e-03 6.389434635639190674e-02 -2.490254119038581848e-02 7.626446336507797241e-02 6.846481561660766602e-02 -3.161740675568580627e-02 -1.468729972839355469e-02 -4.791731014847755432e-02 1.843141019344329834e-01 1.468277573585510254e-01 3.765596821904182434e-02 -2.838879264891147614e-02 -7.531445473432540894e-02 -1.493758428841829300e-02 -1.218777745962142944e-01 -9.972643107175827026e-03 9.620605967938899994e-03 7.656814064830541611e-03 -8.726749569177627563e-02 -1.471893489360809326e-01 -1.755606383085250854e-01 3.080497495830059052e-02 8.072023093700408936e-02 4.140090942382812500e-02 -3.306924179196357727e-02 -4.119724780321121216e-02 -1.354432106018066406e-01 -9.670671820640563965e-02 1.581359803676605225e-01 -5.686897411942481995e-02 2.940640412271022797e-02 6.110309064388275146e-02 1.214399412274360657e-01 7.113567739725112915e-02 7.688000798225402832e-02 9.641386568546295166e-02 2.908134087920188904e-02 1.832135580480098724e-02 1.479174494743347168e-01 -8.188983052968978882e-02 -1.922071725130081177e-02 -1.228808611631393433e-01 1.743344962596893311e-01 -2.086272649466991425e-02 1.403826177120208740e-01 -1.621244698762893677e-01 2.764834091067314148e-02 -9.327861666679382324e-02 3.106518648564815521e-02 -1.555116032250225544e-03 1.006767451763153076e-01 4.491639137268066406e-02 2.800993993878364563e-02 -8.492247015237808228e-02 -1.074344068765640259e-01 3.839886561036109924e-02 -2.234332263469696045e-02 -1.750002615153789520e-02 1.300950944423675537e-01 -3.078962303698062897e-02 -9.820529073476791382e-02 5.324820801615715027e-02 9.851383417844772339e-02 9.583900868892669678e-02 -3.973675519227981567e-02 5.642815958708524704e-03 1.232770308852195740e-01 1.399915218353271484e-01 1.329926103353500366e-01 1.028651446104049683e-01 -2.416479215025901794e-02 2.545418739318847656e-01 -1.421333290636539459e-02 -4.726500436663627625e-02 9.659361839294433594e-02 1.648418419063091278e-02 -1.257299333810806274e-01 2.676669694483280182e-02 1.757300496101379395e-01 -2.163424529135227203e-02 -8.904934674501419067e-02 -4.411743208765983582e-02 -3.809233661741018295e-03 -4.571654275059700012e-02 -7.519719004631042480e-02 2.416383773088455200e-01 -3.643752261996269226e-02 -9.404331445693969727e-02 3.540225699543952942e-02 -2.374534159898757935e-01 8.227201551198959351e-02 -4.334856290370225906e-03 2.463389746844768524e-02 6.931265443563461304e-02 -6.041352450847625732e-02 -1.014149002730846405e-02 -1.036524400115013123e-01 -9.886533766984939575e-02 -1.044210344552993774e-01 8.945397101342678070e-03 -1.130055636167526245e-01 -4.927136376500129700e-02 -4.221637174487113953e-02 9.197115898132324219e-02 -2.104475945234298706e-01 -3.380215540528297424e-02 -1.405016928911209106e-01 -4.733748733997344971e-02 1.250159740447998047e-01 -4.601692035794258118e-02 -5.295613408088684082e-02 9.147243201732635498e-02 -3.840568289160728455e-02 -1.045448556542396545e-01 1.777992211282253265e-02 -4.030436649918556213e-02 8.015277981758117676e-02 -5.080208554863929749e-02 -4.241693764925003052e-02 -1.589889377355575562e-01 -1.575090885162353516e-01 6.724774837493896484e-02 -6.563172489404678345e-02 9.356749057769775391e-02 6.301784515380859375e-02 -3.023629635572433472e-02 -9.635494649410247803e-02 -6.002959981560707092e-02 -6.133237853646278381e-02 -7.252985239028930664e-02 -6.925539672374725342e-02 1.119673699140548706e-01 -8.169806562364101410e-03 1.162601262331008911e-01 -8.572722226381301880e-02 2.922173403203487396e-02 -2.155593931674957275e-01 6.091951951384544373e-02 1.019990295171737671e-01 8.890523016452789307e-02 1.107187718152999878e-01 4.869415983557701111e-02 9.071466326713562012e-02 -9.921754151582717896e-02 -6.056835874915122986e-02 -2.425939738750457764e-01 -6.846190989017486572e-02 -1.413046270608901978e-01 -2.804334275424480438e-02 -4.531492292881011963e-02 1.360270678997039795e-01 -1.005360111594200134e-01 -7.766088098287582397e-02 -5.840063467621803284e-02 1.313013732433319092e-01 -3.226355463266372681e-02 3.308903425931930542e-02 -5.388844385743141174e-02 -4.336218535900115967e-02 -1.340893357992172241e-01 3.079746384173631668e-03 5.730719119310379028e-02 -1.973270066082477570e-02 2.375651523470878601e-02 5.757394060492515564e-02 -6.433000415563583374e-02 5.922617390751838684e-02 -1.714530587196350098e-02 -1.994166523218154907e-02 -9.581068158149719238e-02 -1.564387828111648560e-01 -1.540296245366334915e-02 -1.016036421060562134e-01 -2.720580995082855225e-02 1.799724847078323364e-01 -2.125676907598972321e-02 -4.879312217235565186e-02 -1.357249468564987183e-01 -6.675851345062255859e-02 8.375037461519241333e-03 1.253543794155120850e-01 -8.636767044663429260e-03 -8.058945089578628540e-02 -1.180581524968147278e-01 3.294816240668296814e-02 5.768914520740509033e-02 -7.119219005107879639e-02 -8.004218339920043945e-02 1.390890926122665405e-01 -4.931823164224624634e-02 -4.646806418895721436e-02 -2.558175027370452881e-01
-1.255034208297729492e-01 -3.291986882686614990e-02 -2.096294611692428589e-01 1.709349006414413452e-01 7.974714785814285278e-02 1.926140487194061279e-01 7.459498196840286255e-02 -5.349225550889968872e-02 1.168826129287481308e-02 3.332199901342391968e-02 -4.901149123907089233e-02 -2.497548311948776245e-01 4.056819900870323181e-02 -1.560850739479064941e-01 -9.875447303056716919e-02 -4.807351157069206238e-02 1.428865790367126465e-01 -1.802834570407867432e-01 -1.422374397516250610e-01 -1.137895602732896805e-02 -3.246818482875823975e-02 -8.109880238771438599e-02 6.890346761792898178e-03 -2.766847424209117889e-02 7.305581867694854736e-02 -1.803517192602157593e-01 9.711031801998615265e-03 -8.230076730251312256e-02 -1.148870587348937988e-01 -2.866480313241481781e-02 -1.690820977091789246e-02 6.815270334482192993e-02 6.207617372274398804e-02 -2.940906956791877747e-02 -3.110662661492824554e-02 -3.332141786813735962e-02 -1.052112132310867310e-01 1.457941383123397827e-01 -3.974939230829477310e-03 -1.590606123208999634e-01 9.803535789251327515e-02 1.173854097723960876e-01 -1.174634620547294617e-01 8.125275373458862305e-02 -7.464066892862319946e-02 -1.984211243689060211e-02 7.308793067932128906e-02 2.397577278316020966e-02 -5.717281997203826904e-02 2.261864028696436435e-05 7.490313146263360977e-03 -1.770317703485488892e-01 3.067707642912864685e-02 -1.201381236314773560e-01 -3.815746307373046875e-02 -3.629145678132772446e-03 8.232872001826763153e-03 -6.782967597246170044e-02 -1.886995434761047363e-01 -1.429319977760314941e-01 5.751917511224746704e-02 -1.720964461565017700e-01 -1.813221126794815063e-01 -5.760263279080390930e-02 -5.273013189435005188e-02 -8.311226218938827515e-02 -5.547062680125236511e-02 -3.552553430199623108e-02 -1.175986304879188538e-01 -1.195998936891555786e-01 -9.288639761507511139e-03 -5.491208285093307495e-02 7.913457602262496948e-02 7.564970850944519043e-02 -4.128476977348327637e-02 1.060635372996330261e-01 9.034302830696105957e-02 -7.498095184564590454e-02 -2.828840315341949463e-01 -9.680134057998657227e-02 -4.894181713461875916e-02 -8.333674818277359009e-02 -4.016860574483871460e-02 -2.727719768881797791e-02 2.217344380915164948e-02 3.066015196964144707e-04 -4.463922604918479919e-02 3.732401505112648010e-02 -8.128026127815246582e-02 9.326171129941940308e-02 -1.098927706480026245e-01 5.541832745075225830e-02 -1.601134985685348511e-02 -1.446282565593719482e-01 -1.082056760787963867e-01 -2.316869944334030151e-01 -1.737477257847785950e-02 -2.106789499521255493e-01 4.264974594116210938e-02 -7.715986669063568115e-02 -1.289925910532474518e-02 -2.346014082431793213e-01 9.611164033412933350e-02 6.090031936764717102e-03 -1.763444542884826660e-01 -1.049467325210571289e-01 1.392889022827148438e-02 1.343912631273269653e-01 1.043184474110603333e-02 4.250952228903770447e-02 -1.072625070810317993e-01 7.627493888139724731e-02 7.661989331245422363e-02 -2.977717900648713112e-03 -7.428248971700668335e-02 1.125994324684143066e-02 1.827099472284317017e-01 -1.578917652368545532e-01 -7.648874819278717041e-02 3.010304644703865051e-03 -1.261618882417678833e-01 -5.458609014749526978e-02 1.304219812154769897e-01 5.013990774750709534e-02 -7.828502357006072998e-02 9.271700680255889893e-02 -1.164649724960327148e-01 1.017871275544166565e-01 -1.009951084852218628e-01 -1.427208632230758667e-01 -9.099370241165161133e-02 -8.569979667663574219e-02 -4.273949190974235535e-02 -3.805930912494659424e-02 1.703086681663990021e-02 5.292859300971031189e-02 3.158645238727331161e-03 -1.908397078514099121e-01 -3.738459199666976929e-02 -2.114252746105194092e-01 9.064142405986785889e-02 -5.741997808218002319e-02 1.282294560223817825e-02 1.026709005236625671e-01 -4.326583445072174072e-02 1.708792597055435181e-01 9.619287401437759399e-02 -1.760512888431549072e-01 1.233194023370742798e-01 -2.726319618523120880e-02 -1.313975006341934204e-01 1.062475070357322693e-01 -2.305521443486213684e-02 1.553987413644790649e-01 1.403802782297134399e-01 7.097960449755191803e-03 2.700452879071235657e-02 -9.559417515993118286e-02 -6.940750777721405029e-02 9.117431193590164185e-02 -1.144145336002111435e-02 2.604063786566257477e-02 -1.612517535686492920e-01 2.320818156003952026e-01 -2.003701776266098022e-02 -1.814566850662231445e-01 -3.251667320728302002e-02 -1.158167496323585510e-01 -1.061645820736885071e-01 -2.782650664448738098e-02 -1.112391576170921326e-01 -1.316139698028564453e-01 4.485788196325302124e-02 6.091620400547981262e-02 -1.058329418301582336e-01 -2.145989798009395599e-02 -2.512415498495101929e-02 -1.517941802740097046e-01 1.942123845219612122e-02 -6.196858361363410950e-02 -4.139579832553863525e-03 1.233418285846710205e-01 -1.045609731227159500e-02 -1.257590055465698242e-01 9.180567413568496704e-02 4.526928067207336426e-02 -2.774327062070369720e-02 -2.700454182922840118e-02 6.880349246785044670e-04 -1.156423240900039673e-01 4.799403622746467590e-02 -1.693632900714874268e-01 -4.703814163804054260e-02 -1.282062083482742310e-01 1.398980990052223206e-02 -1.725143380463123322e-02 -5.812142044305801392e-02 -1.533807441592216492e-02 -9.476525336503982544e-02 -3.102295799180865288e-03 -1.429379135370254517e-01 1.382011640816926956e-02 5.548901026486419141e-05 6.176415085792541504e-02 -1.793671101331710815e-01 -2.656547725200653076e-02 6.409874558448791504e-02 -1.272476911544799805e-01 -1.073827892541885376e-01 -6.763948500156402588e-02 -1.636745035648345947e-01 -2.369685024023056030e-01 8.962275832891464233e-02 -1.649574786424636841e-01 -9.366722777485847473e-03 -4.313180223107337952e-02 1.282827369868755341e-02 1.380308419466018677e-01 8.989255875349044800e-02 -8.919151872396469116e-02 6.980812549591064453e-02 -1.556746941059827805e-02 -7.513121515512466431e-02 -1.211419794708490372e-02 -1.485960651189088821e-02 -2.532727271318435669e-02 -1.689842939376831055e-01 3.473789244890213013e-02 4.153514280915260315e-03 -1.516176462173461914e-01 4.257389344274997711e-03 -8.269044756889343262e-02 1.084070056676864624e-01 1.233997717499732971e-01 2.527255751192569733e-02 7.799719460308551788e-03 9.571146219968795776e-02 -1.014459580183029175e-01 -8.235868811607360840e-02 -7.360174506902694702e-02 -1.128176972270011902e-01 -8.520705997943878174e-02 -7.064994424581527710e-02 3.662012144923210144e-02 -1.418650746345520020e-01 1.690679043531417847e-02 -8.288021385669708252e-02 -1.727325469255447388e-02 9.130208939313888550e-02 -1.087748706340789795e-01 -1.120408326387405396e-01 6.041614711284637451e-02 2.263944298028945923e-01 -3.941657394170761108e-02 -3.409059345722198486e-02 2.730448357760906219e-02
-7.033421099185943604e-02 1.409570872783660889e-02 8.426144719123840332e-03 9.389313869178295135e-03 8.424093946814537048e-03 1.154080703854560852e-01 -2.386680394411087036e-01 -6.208616867661476135e-02 -1.327520981431007385e-02 -7.833328098058700562e-03 3.457370400428771973e-02 -9.433106333017349243e-02 -4.412390664219856262e-02 -1.273547708988189697e-01 -1.293058395385742188e-01 -8.947562426328659058e-02 -1.384428888559341431e-01 1.626016050577163696e-01 2.891459269449114799e-03 1.221809610724449158e-01 3.322764113545417786e-02 -1.458246707916259766e-01 -7.724347710609436035e-02 4.810066148638725281e-02 -1.450779289007186890e-01 5.991167854517698288e-03 -4.894305393099784851e-02 -1.956350505352020264e-01 -7.832478731870651245e-02 8.448671549558639526e-02 -1.051002368330955505e-02 3.430480137467384338e-02 -3.939000889658927917e-02 -3.099451586604118347e-02 5.296638701111078262e-03 -1.032511144876480103e-01 -7.803490385413169861e-03 1.823950558900833130e-01 1.054849103093147278e-01 3.903284668922424316e-02 -8.115735650062561035e-02 -9.457737207412719727e-02 -7.615052908658981323e-02 -7.972142845392227173e-02 -6.760755181312561035e-02 -1.921660751104354858e-01 -9.213810414075851440e-02 9.047193080186843872e-02 -1.153772771358489990e-01 1.200060695409774780e-01 -2.477390766143798828e-01 2.113104425370693207e-02 -1.874742656946182251e-01 2.507561258971691132e-02 3.832202404737472534e-02 -4.890125989913940430e-02 -1.885317862033843994e-01 2.460462413728237152e-02 -9.421060979366302490e-02 6.993556395173072815e-03 -1.632055044174194336e-01 -2.955398336052894592e-02 -2.890673349611461163e-04 -3.233837708830833435e-02 9.036530740559101105e-03 -2.725593745708465576e-02 3.116514906287193298e-02 -7.812139391899108887e-02 1.358092017471790314e-02 -7.574067264795303345e-02 4.480380564928054810e-02 -1.941051520407199860e-02 -4.087491333484649658e-02 -7.128444314002990723e-02 -7.099130656570196152e-03 3.701802343130111694e-02 -3.365822881460189819e-02 -1.785596162080764771e-01 -8.799623697996139526e-02 -2.679428271949291229e-02 -1.036848202347755432e-01 -6.857102364301681519e-02 9.612292051315307617e-04 9.309686720371246338e-03 -1.487929373979568481e-02 1.508750580251216888e-02 8.368902490474283695e-04 -1.008118018507957458e-01 1.763648986816406250e-01 -1.283052563667297363e-01 7.131241261959075928e-02 -1.288828551769256592e-01 1.664843559265136719e-01 -5.360228009521961212e-03 3.495665623631794006e-06 -5.017942935228347778e-02 -2.024165587499737740e-03 6.487958133220672607e-02 -1.039776876568794250e-01 4.693486541509628296e-02 4.690884612500667572e-03 3.346070647239685059e-02 -3.711016476154327393e-02 -9.942707419395446777e-02 -3.174197301268577576e-02 -5.942557007074356079e-02 -5.095310881733894348e-02 1.587645113468170166e-01 -3.069694899022579193e-02 -3.813331201672554016e-02 -6.336309015750885010e-02 9.077496081590652466e-02 3.038289397954940796e-02 1.017507817596197128e-02 5.152882263064384460e-02 8.516573160886764526e-02 1.950131058692932129e-01 -9.561648219823837280e-02 4.969374090433120728e-02 -8.309742808341979980e-02 -5.797676742076873779e-02 2.889856509864330292e-02 -2.274450212717056274e-01 2.691731229424476624e-02 2.240826189517974854e-02 -1.125156655907630920e-01 1.239487435668706894e-02 9.280912578105926514e-02 -9.910532832145690918e-02 1.404705345630645752e-01 1.008963808417320251e-01 6.311545148491859436e-03 1.391910016536712646e-01 -5.348744243383407593e-02 7.126128673553466797e-02 -2.118791043758392334e-01 8.165036141872406006e-02 -1.406697630882263184e-01 6.015588343143463135e-02 -4.236908257007598877e-02 -6.043095141649246216e-02 -1.589637249708175659e-01 9.199442714452743530e-02 2.262274175882339478e-02 1.931731551885604858e-01 -1.262349188327789307e-01 -1.301396340131759644e-01 -2.155220657587051392e-01 -1.803508251905441284e-01 -5.920574069023132324e-02 -2.556705772876739502e-01 -5.552186816930770874e-02 -4.521506279706954956e-02 6.296961009502410889e-02 -1.095706745982170105e-01 -1.499096602201461792e-01 -1.413799524307250977e-01 -3.385933935642242432e-01 -1.311119794845581055e-01 1.342625468969345093e-01 1.360520254820585251e-03 3.744660352822393179e-04 -1.905910372734069824e-01 -9.011545032262802124e-02 1.245770752429962158e-01 -6.152392923831939697e-02 4.292083159089088440e-02 2.797436714172363281e-02 -1.083217561244964600e-01 1.038047391921281815e-02 -6.755204498767852783e-02 -3.168022632598876953e-02 -1.855693459510803223e-01 -1.709534227848052979e-01 -2.264297753572463989e-01 -9.547991305589675903e-02 -2.934249117970466614e-02 5.972384661436080933e-02 -8.897509425878524780e-02 -1.125955358147621155e-01 -7.147134095430374146e-02 -2.830010056495666504e-01 7.056106626987457275e-02 -8.232001960277557373e-02 -8.190391957759857178e-02 -4.421868920326232910e-02 2.671348629519343376e-03 1.324092298746109009e-01 -1.006829142570495605e-01 5.812944099307060242e-02 1.393533796072006226e-01 -3.521563857793807983e-02 2.667677216231822968e-02 1.256306618452072144e-01 -3.697209060192108154e-02 -3.465801477432250977e-02 2.686729468405246735e-02 -8.709727972745895386e-02 -1.163994446396827698e-01 2.401424758136272430e-02 -5.841622874140739441e-02 -3.908623009920120239e-03 -9.965164214372634888e-02 3.384539112448692322e-02 -1.499610394239425659e-01 -5.254244059324264526e-02 8.226425200700759888e-02 -6.865815818309783936e-02 1.706790030002593994e-01 -2.811474166810512543e-02 1.904837787151336670e-02 -1.229441687464714050e-01 -1.138815935701131821e-02 9.231435507535934448e-02 8.740285038948059082e-02 -1.880115419626235962e-01 -1.635442860424518585e-02 2.086249878630042076e-03 -1.039944291114807129e-01 1.572854369878768921e-01 5.714914761483669281e-03 -1.227023229002952576e-01 -3.854189068078994751e-02 -1.230207160115242004e-01 1.580227464437484741e-01 -6.670540571212768555e-02 -1.375606656074523926e-01 6.199373677372932434e-02 -1.752583831548690796e-01 -1.626626104116439819e-01 1.835906691849231720e-02 -2.712827548384666443e-02 -9.868431836366653442e-02 9.061253070831298828e-02 -1.852763146162033081e-01 4.201043397188186646e-02 -1.016304418444633484e-01 -1.137058250606060028e-02 -7.029306143522262573e-02 6.283016502857208252e-02 -2.120525762438774109e-02 -1.244812980294227600e-01 5.513673648238182068e-02 6.341710686683654785e-02 -1.887636780738830566e-01 -9.472919255495071411e-02 -4.571575298905372620e-02 -9.486118704080581665e-02 -3.738720342516899109e-02 -1.248798742890357971e-01 1.772166724549606442e-04 -2.941536903381347656e-02 -1.434735953807830811e-01 -8.106624335050582886e-02 -4.783299285918474197e-03 5.953715741634368896e-02
1.241338104009628296e-01 -1.546141132712364197e-02 -9.157820791006088257e-02 -7.112755626440048218e-02 2.661064825952053070e-02 -2.483066469430923462e-01 -2.225047908723354340e-02 6.657500565052032471e-02 6.563250720500946045e-02 -2.108960598707199097e-02 -7.159858196973800659e-02 -1.518961191177368164e-01 3.873540833592414856e-02 -1.584186702966690063e-01 1.348777413368225098e-01 -3.955478668212890625e-01 2.340713515877723694e-03 -4.006477072834968567e-03 1.807212084531784058e-01 1.162749230861663818e-01 9.906267374753952026e-02 4.795901477336883545e-02 -7.382816821336746216e-02 4.167659953236579895e-02 1.502118855714797974e-01 7.277020812034606934e-02 -8.032339811325073242e-02 -8.705921471118927002e-02 -8.793995529413223267e-02 -3.709952160716056824e-02 1.635895222425460815e-01 -1.206530351191759109e-02 -1.767106652259826660e-01 1.182864904403686523e-01 6.318815052509307861e-02 -2.846087329089641571e-02 -7.825734466314315796e-02 -4.295518249273300171e-02 3.998598828911781311e-02 -9.321878850460052490e-02 -1.334275156259536743e-01 -1.566573679447174072e-01 9.142581257037818432e-04 -1.343829482793807983e-01 -2.369683608412742615e-02 -1.140489578247070312e-01 -9.432616829872131348e-02 -8.072472363710403442e-02 -8.189477771520614624e-02 7.669724524021148682e-02 6.234196200966835022e-02 2.911366149783134460e-02 1.427267305552959442e-02 -2.507760524749755859e-01 1.522975862026214600e-01 3.284573554992675781e-02 -5.182610824704170227e-02 -1.679526120424270630e-01 4.626203794032335281e-03 8.466210961341857910e-02 5.247920006513595581e-02 9.822291880846023560e-02 -2.407923787832260132e-01 -1.287827193737030029e-01 7.239287346601486206e-02 -5.941656231880187988e-02 -1.066392436623573303e-01 7.593713700771331787e-03 -8.079744875431060791e-02 -7.129137520678341389e-04 4.249395430088043213e-02 -5.994601175189018250e-02 4.782222211360931396e-02 -6.952945888042449951e-02 -5.642605200409889221e-02 6.193893961608409882e-03 -1.732182800769805908e-01 -2.805635146796703339e-02 -1.731896027922630310e-02 3.758088499307632446e-02 -1.284843683242797852e-02 -1.564860902726650238e-02 -1.215993165969848633e-01 -6.766926497220993042e-02 2.983580157160758972e-02 -1.950632221996784210e-02 4.891717806458473206e-02 7.555206865072250366e-02 -1.162769924849271774e-02 -2.845178842544555664e-01 -1.718756370246410370e-02 -4.960101470351219177e-02 1.243085637688636780e-01 -8.582074195146560669e-02 1.614415203221142292e-03 -7.923179119825363159e-02 -5.936601664870977402e-03 -1.091366261243820190e-01 8.178056776523590088e-02 -2.523180283606052399e-02 -1.412383168935775757e-01 1.544225960969924927e-01 2.674181200563907623e-02 -1.466582566499710083e-01 -2.487174607813358307e-02 -1.709022000432014465e-02 -7.830218970775604248e-02 2.331627905368804932e-02 2.839301340281963348e-02 2.558626001700758934e-03 -6.620492786169052124e-02 5.501284729689359665e-03 -1.647291705012321472e-02 -1.432483550161123276e-02 3.878958523273468018e-02 2.425587922334671021e-02 -1.783076673746109009e-01 -3.921896219253540039e-02 -1.945310039445757866e-03 -5.470550432801246643e-02 -8.171988278627395630e-02 1.935996413230895996e-01 3.050066344439983368e-02 -1.158249825239181519e-01 -4.544179141521453857e-02 -1.949613392353057861e-01 -2.724887616932392120e-02 2.469409070909023285e-02 1.005676686763763428e-01 -1.439630836248397827e-01 -1.073054447770118713e-01 1.078111678361892700e-01 -9.287960082292556763e-02 -7.271519303321838379e-02 -1.620137840509414673e-01 -8.471693843603134155e-02 -2.254951000213623047e-01 -4.701682925224304199e-02 -4.376642778515815735e-02 -2.497256547212600708e-02 -4.576531797647476196e-02 -1.341430246829986572e-01 7.912117987871170044e-02 -4.547714069485664368e-02 -6.200342252850532532e-02 1.480218321084976196e-01 -9.933190047740936279e-02 -4.458541795611381531e-02 1.383384615182876587e-01 -2.862288616597652435e-02 1.024877876043319702e-01 1.856260001659393311e-02 6.007403507828712463e-02 2.186099998652935028e-02 -1.459790207445621490e-02 -7.435731589794158936e-02 -9.630136191844940186e-03 5.118860304355621338e-02 4.669970646500587463e-02 1.591979116201400757e-01 8.218763768672943115e-02 -1.691972762346267700e-01 -1.709779202938079834e-01 -4.613707959651947021e-02 -4.273900296539068222e-03 2.410218715667724609e-01 -2.328325659036636353e-01 1.361685432493686676e-02 -1.584810316562652588e-01 1.037582755088806152e-01 -6.216205656528472900e-03 -3.545430675148963928e-02 -4.308830946683883667e-02 -1.282083094120025635e-01 -1.550431251525878906e-01 -1.429911106824874878e-01 -5.698555614799261093e-03 -5.129633471369743347e-02 -2.519542351365089417e-02 -1.021269932389259338e-01 3.310621529817581177e-02 3.970249742269515991e-02 -1.021340955048799515e-02 -9.592168033123016357e-02 -2.774321436882019043e-01 1.525441184639930725e-02 -1.774975657463073730e-02 3.948086127638816833e-02 8.115532994270324707e-02 3.419253975152969360e-02 1.872608959674835205e-01 -6.782063096761703491e-02 -2.626757323741912842e-02 -1.003849208354949951e-01 -1.640956997871398926e-01 -1.570004271343350410e-03 -1.226805523037910461e-01 -3.325001895427703857e-02 -5.908768996596336365e-02 -1.656353846192359924e-02 -1.054315567016601562e-01 -5.393553897738456726e-02 -6.757131218910217285e-02 2.532551884651184082e-01 -2.318056114017963409e-02 -1.058495417237281799e-01 6.493874639272689819e-02 -3.025831095874309540e-02 4.789896309375762939e-02 -2.781485905870795250e-03 -3.937800228595733643e-02 7.420650869607925415e-02 -3.059072606265544891e-02 -9.172242134809494019e-02 -6.346227228641510010e-02 1.861450634896755219e-02 1.562115456908941269e-02 -1.693529263138771057e-02 -1.374698616564273834e-02 -2.211874164640903473e-02 8.642031997442245483e-02 -6.121672689914703369e-03 3.376653045415878296e-02 -6.232442706823348999e-02 3.356188535690307617e-02 -1.018129959702491760e-01 7.396722678095102310e-03 7.377313822507858276e-02 -6.022744625806808472e-02 -1.880658119916915894e-01 2.704909630119800568e-02 -2.036021500825881958e-01 -9.488995186984539032e-03 -2.035198658704757690e-01 9.890478104352951050e-02 8.511492609977722168e-02 1.454936861991882324e-01 -7.333580404520034790e-02 4.235655069351196289e-02 2.764650285243988037e-01 -4.113070294260978699e-02 -1.133149564266204834e-01 7.136911898851394653e-02 5.885790102183818817e-03 -2.663045190274715424e-02 -9.711685776710510254e-02 1.390989273786544800e-01 1.587049961090087891e-01 2.033630013465881348e-01 1.527938991785049438e-01 -3.353089094161987305e-02 5.833525955677032471e-02 1.230551302433013916e-02 -1.162367165088653564e-01 4.233585670590400696e-02 -2.601285651326179504e-02
1.038733795285224915e-01 4.938387125730514526e-02 4.560657218098640442e-02 -1.575537621974945068e-01 2.050038054585456848e-02 -1.107234731316566467e-01 -8.574008941650390625e-02 8.516137301921844482e-02 -1.107815876603126526e-01 -1.231719925999641418e-02 3.442458435893058777e-02 -1.400227546691894531e-01 -1.120249256491661072e-01 -2.014244198799133301e-01 1.550810784101486206e-01 -1.330674439668655396e-01 -5.998665094375610352e-02 6.015795096755027771e-02 -9.638634324073791504e-02 1.122554540634155273e-01 9.070032835006713867e-02 8.810029178857803345e-02 -1.031765118241310120e-01 -3.194762021303176880e-02 -2.228337675333023071e-01 1.266451328992843628e-01 -1.144178584218025208e-02 7.778423372656106949e-03 5.426254868507385254e-02 -1.275314092636108398e-01 -3.209705650806427002e-02 -4.116012156009674072e-02 -1.087204669602215290e-03 -1.980000734329223633e-02 -1.287587136030197144e-01 3.114971891045570374e-02 7.301555573940277100e-02 -1.185384169220924377e-01 1.294519752264022827e-01 -1.991670019924640656e-02 -3.448610752820968628e-02 -4.022945649921894073e-03 -7.005275785923004150e-02 -8.687990158796310425e-02 2.205410785973072052e-02 1.263446211814880371e-01 2.423223853111267090e-01 -5.672231689095497131e-02 1.437440067529678345e-01 1.194428652524948120e-02 -5.854856222867965698e-02 -1.288805454969406128e-01 -5.176097154617309570e-02 4.135378077626228333e-02 -6.721319258213043213e-02 -1.057151556015014648e-01 -6.371818482875823975e-02 -2.636644616723060608e-02 -2.324795424938201904e-01 -6.276714801788330078e-02 -1.078298762440681458e-01 9.080140292644500732e-02 2.930576726794242859e-02 -8.159631863236427307e-03 -6.214576587080955505e-02 1.166066676378250122e-01 1.046718731522560120e-01 3.156547993421554565e-02 -7.138840854167938232e-02 -6.300105899572372437e-02 -1.145847588777542114e-01 1.064670160412788391e-01 -1.001201868057250977e-01 -7.167368382215499878e-02 -6.722942460328340530e-03 2.908723056316375732e-02 1.080603711307048798e-02 1.820266619324684143e-02 2.385427616536617279e-02 -4.624611511826515198e-02 6.677315384149551392e-02 -5.352941155433654785e-02 -1.763722449541091919e-01 -1.468999087810516357e-01 7.290895283222198486e-02 -1.637041419744491577e-01 7.234447449445724487e-02 -5.772178526967763901e-03 6.794063746929168701e-02 9.223043918609619141e-02 -5.337670072913169861e-02 7.491989433765411377e-02 -1.007568165659904480e-01 -6.329040974378585815e-02 -2.522844262421131134e-02 1.629897765815258026e-02 8.425009995698928833e-02 -1.569667644798755646e-02 1.402230411767959595e-01 1.378942839801311493e-02 -8.659763261675834656e-03 -9.064409881830215454e-02 7.296622544527053833e-02 5.310804396867752075e-02 1.389181613922119141e-01 -7.342709600925445557e-02 -5.109341815114021301e-02 -1.529184449464082718e-02 1.152578741312026978e-01 1.879314705729484558e-02 -1.508182007819414139e-02 3.120268229395151138e-03 1.992196589708328247e-01 1.342259645462036133e-01 -3.795428201556205750e-02 -5.872355774044990540e-02 -4.642608575522899628e-03 -2.027391642332077026e-02 1.897027790546417236e-01 -1.440449357032775879e-01 -1.212353073060512543e-02 1.703372411429882050e-02 4.722349718213081360e-02 1.408550329506397247e-02 1.613244712352752686e-01 -2.936173696070909500e-03 1.269262190908193588e-02 -1.721404306590557098e-02 1.363099515438079834e-01 -1.753715425729751587e-01 -7.325410842895507812e-02 -2.501453459262847900e-01 -1.630560159683227539e-01 9.904496371746063232e-02 -3.569760592654347420e-03 6.789288017898797989e-03 6.245602667331695557e-02 -1.523325145244598389e-01 -2.833999395370483398e-01 1.131498068571090698e-01 3.816115856170654297e-02 8.110936731100082397e-02 -1.158784925937652588e-01 -1.637393422424793243e-02 1.788126379251480103e-01 -1.030158177018165588e-01 -4.994590580463409424e-02 1.549881398677825928e-01 -1.682938486337661743e-01 -7.800898700952529907e-02 1.743829436600208282e-02 -2.603764086961746216e-02 9.012513794004917145e-03 -1.372986882925033569e-01 -1.128321364521980286e-01 2.680117636919021606e-02 -8.880754560232162476e-02 -8.102621883153915405e-02 1.177744343876838684e-01 7.939013093709945679e-02 4.797787591814994812e-02 -1.862482167780399323e-02 -9.360598772764205933e-02 3.407986834645271301e-02 6.422754377126693726e-02 -8.711445331573486328e-02 1.035383641719818115e-01 1.093398705124855042e-01 -1.184502467513084412e-01 1.106199845671653748e-01 -3.887937590479850769e-02 2.842198126018047333e-02 3.177632391452789307e-02 -6.016710400581359863e-02 3.294765204191207886e-02 -5.727659538388252258e-02 -7.757119834423065186e-02 -5.936953052878379822e-02 -9.598362445831298828e-02 -5.499267205595970154e-02 -1.131256893277168274e-01 -3.575592199922539294e-05 -7.075896114110946655e-02 4.287442192435264587e-02 6.226427108049392700e-02 -5.817864462733268738e-02 -2.303072661161422729e-01 4.976882040500640869e-02 -8.791105449199676514e-02 -1.490239053964614868e-01 3.003940731287002563e-02 -1.005556955933570862e-01 -2.746094949543476105e-02 -1.708263307809829712e-01 -1.371169090270996094e-01 -1.025414019823074341e-01 5.596318468451499939e-02 -6.543637067079544067e-02 4.426805675029754639e-02 -1.936004161834716797e-01 -8.843785524368286133e-02 -2.920168824493885040e-02 4.270494729280471802e-02 9.421528130769729614e-02 -1.275386810302734375e-01 -5.365116149187088013e-02 1.673064529895782471e-01 1.418264806270599365e-01 1.484825462102890015e-01 -1.596612185239791870e-01 -5.497002229094505310e-02 -2.208555191755294800e-01 1.834672875702381134e-02 -1.382933855056762695e-01 -1.862216591835021973e-01 -1.284580528736114502e-01 5.669250339269638062e-02 1.190289705991744995e-01 -9.259147197008132935e-02 -2.013260871171951294e-01 3.912688419222831726e-02 -2.967091836035251617e-02 9.196902811527252197e-02 -1.634867489337921143e-01 5.804731696844100952e-02 6.490144878625869751e-02 -3.552674129605293274e-02 -4.597559943795204163e-02 -3.915348090231418610e-03 1.394403427839279175e-01 6.031512096524238586e-02 -6.774001568555831909e-02 -2.316970378160476685e-02 -9.610579907894134521e-02 -7.747444510459899902e-02 4.965895041823387146e-02 -1.622895896434783936e-01 2.610147930681705475e-04 -1.079860031604766846e-01 4.507915582507848740e-03 -1.126239374279975891e-01 -6.952136009931564331e-02 -1.753792166709899902e-01 4.021818190813064575e-02 -7.312342990189790726e-03 -8.854701370000839233e-02 3.994121029973030090e-02 -1.577804833650588989e-01 -1.881394684314727783e-01 -1.416820734739303589e-01 1.602652370929718018e-01 -1.094191055744886398e-02 -8.040551096200942993e-02 -3.879577619954943657e-03 -1.521890908479690552e-01 -2.318204641342163086e-01
2.637732401490211487e-02 -5.470930412411689758e-02 1.363117061555385590e-02 5.324467550963163376e-03 -7.594107836484909058e-02 -1.857811361551284790e-01 -2.482362091541290283e-02 -3.486380726099014282e-02 -9.802027791738510132e-02 -3.453692421317100525e-02 5.874867737293243408e-02 -1.897428482770919800e-01 -2.653440088033676147e-02 2.163049131631851196e-01 -1.622380912303924561e-01 -1.355224698781967163e-01 -4.437653720378875732e-02 7.537820935249328613e-02 -1.356767714023590088e-01 -4.144406691193580627e-02 -4.934643860906362534e-03 -1.952729374170303345e-02 -7.029256317764520645e-03 -2.207090519368648529e-02 1.193904206156730652e-01 4.821933433413505554e-02 -1.114876661449670792e-02 4.388220608234405518e-02 -1.011035591363906860e-01 -1.367638111114501953e-01 5.575511232018470764e-02 5.018137767910957336e-02 6.448976695537567139e-02 -7.348106056451797485e-02 3.369705379009246826e-02 1.565460413694381714e-01 -1.166289597749710083e-01 1.020843535661697388e-01 3.052183054387569427e-02 1.686041802167892456e-01 -1.156632751226425171e-01 -1.324098259210586548e-01 -8.390495926141738892e-02 4.522465541958808899e-02 -1.567574776709079742e-02 5.113486573100090027e-02 -1.554375439882278442e-01 -1.521418988704681396e-01 7.202768325805664062e-02 -1.270783990621566772e-01 1.820529811084270477e-02 7.579930871725082397e-02 4.369911551475524902e-02 1.196491438895463943e-02 1.900731772184371948e-02 5.259867757558822632e-02 5.822024494409561157e-02 -8.744686841964721680e-02 -9.226674586534500122e-02 1.440919041633605957e-01 -1.042348742485046387e-01 -1.763608604669570923e-01 -1.036573853343725204e-02 5.167727917432785034e-02 -2.355015464127063751e-02 1.573904231190681458e-02 5.972351878881454468e-02 9.625674225389957428e-03 -8.156494796276092529e-02 -6.734159588813781738e-02 -1.685015857219696045e-01 7.362834364175796509e-02 9.883021563291549683e-02 6.081378087401390076e-02 8.880494534969329834e-02 -4.840660467743873596e-02 -7.427322864532470703e-02 -5.181792378425598145e-02 -4.698620736598968506e-02 6.708639115095138550e-02 1.914488375186920166e-01 6.885746866464614868e-02 -8.663785457611083984e-02 5.781446397304534912e-02 4.761309921741485596e-02 -9.439541399478912354e-02 -1.207404956221580505e-02 -1.267935484647750854e-01 4.733468219637870789e-02 -4.226428642868995667e-02 -6.229460239410400391e-02 2.451320551335811615e-02 8.711051940917968750e-02 -2.684388682246208191e-02 -1.720142811536788940e-01 9.417410194873809814e-02 -5.458809062838554382e-02 3.786955773830413818e-02 5.848511680960655212e-02 -7.642008364200592041e-02 -8.846843987703323364e-02 2.185246907174587250e-03 -3.181889280676841736e-02 -5.555319786071777344e-02 -4.727725312113761902e-02 -9.565296769142150879e-02 -5.716285482048988342e-02 -1.271058171987533569e-01 -1.849890872836112976e-02 -1.165701672434806824e-01 5.156509578227996826e-02 -2.820138260722160339e-02 -1.347453445196151733e-01 1.717755571007728577e-02 2.383024059236049652e-02 1.489439755678176880e-01 -6.311098486185073853e-02 3.381792455911636353e-02 -4.449752345681190491e-02 -1.801044940948486328e-01 -4.863951355218887329e-02 -1.807733066380023956e-02 7.987543940544128418e-02 1.761281490325927734e-01 6.085963104851543903e-05 5.153198912739753723e-02 7.850199192762374878e-02 -2.607086673378944397e-02 -3.615270555019378662e-02 -1.080225408077239990e-01 -2.693088572414126247e-05 -7.681243121623992920e-02 5.869106948375701904e-02 7.613226026296615601e-02 1.838662102818489075e-02 -9.077737922780215740e-04 -3.525412082672119141e-02 9.023980796337127686e-02 1.045070439577102661e-01 -6.329806894063949585e-02 1.333206146955490112e-01 -1.008968651294708252e-01 -1.592490524053573608e-01 -1.624435484409332275e-01 -4.699361696839332581e-02 5.495320260524749756e-02 -3.887298703193664551e-02 -5.394522566348314285e-03 -2.307155728340148926e-02 -6.585369259119033813e-02 -8.500055223703384399e-02 -8.285798132419586182e-02 1.353811658918857574e-02 -3.186322376132011414e-02 -3.453735262155532837e-03 5.753891915082931519e-02 2.033776789903640747e-02 -1.589091867208480835e-02 7.306450861506164074e-04 5.467022210359573364e-02 -4.152970388531684875e-02 -3.421391546726226807e-02 2.182439416646957397e-01 1.319437772035598755e-01 4.214788787066936493e-03 -1.565421745181083679e-02 -1.200587227940559387e-01 -4.868091084063053131e-03 -1.696098297834396362e-01 -6.359842419624328613e-02 -1.502176281064748764e-02 -1.893957108259201050e-01 1.560708731412887573e-01 1.051377784460783005e-02 -8.612043224275112152e-03 -6.990744173526763916e-02 -2.339847706025466323e-04 -3.108260408043861389e-02 1.646445542573928833e-01 -1.827923655509948730e-01 -7.819572091102600098e-02 -1.172120496630668640e-01 -7.424166053533554077e-02 -7.413318753242492676e-02 -6.532566994428634644e-02 1.260861903429031372e-01 -1.126369908452033997e-01 5.861329659819602966e-02 7.963669300079345703e-02 1.656468212604522705e-01 7.417683303356170654e-02 -6.700597703456878662e-02 2.574177645146846771e-02 -1.333325952291488647e-01 1.293641179800033569e-01 1.277750879526138306e-01 -1.775108873844146729e-01 -5.125266686081886292e-02 1.323185488581657410e-02 -4.835023358464241028e-02 -1.075618118047714233e-01 9.718527644872665405e-02 6.066329311579465866e-03 1.303845494985580444e-01 -6.071772426366806030e-03 1.519363373517990112e-01 7.775933295488357544e-02 4.010839853435754776e-03 1.066587120294570923e-01 -2.594861574470996857e-02 4.123120382428169250e-02 -1.059578265994787216e-02 6.651283055543899536e-02 -1.023641508072614670e-02 -1.032576337456703186e-01 4.211046919226646423e-02 -4.303577914834022522e-02 -9.705986827611923218e-02 -1.065726876258850098e-01 -8.629721589386463165e-03 1.038335561752319336e-01 1.099851131439208984e-01 3.664925321936607361e-02 6.937886774539947510e-02 -4.286627843976020813e-02 -2.369685769081115723e-01 1.044479310512542725e-01 2.608741819858551025e-02 -1.322747468948364258e-01 -5.425024032592773438e-02 -1.374604701995849609e-01 -4.879524186253547668e-02 -3.268816741183400154e-03 -1.623846441507339478e-01 -1.073948517441749573e-01 4.947235807776451111e-02 1.070680320262908936e-01 8.661873638629913330e-02 -2.284683287143707275e-03 -2.588669955730438232e-02 -1.169546544551849365e-01 7.643514126539230347e-02 4.937058687210083008e-02 1.141199562698602676e-02 4.921514913439750671e-02 6.365378201007843018e-02 7.413874566555023193e-02 1.641747951507568359e-01 -1.309159994125366211e-01 -3.892707824707031250e-02 -5.823580548167228699e-02 2.206402830779552460e-02 -8.677725493907928467e-02 1.554346829652786255e-01 4.483480378985404968e-02 -8.878377825021743774e-02
