-5.137495696544647217e-03
-4.541826620697975159e-02
-1.019934099167585373e-02
-1.721268892288208008e-02
3.227927489206194878e-03
-3.297029435634613037e-02
-2.890441752970218658e-02
-2.284216694533824921e-02
-1.807167567312717438e-02
-8.284911513328552246e-02
5.490792170166969299e-02
-2.516532689332962036e-02
-7.976509630680084229e-03
-5.333684012293815613e-02
5.804982408881187439e-02
-2.363484166562557220e-02
-4.683643952012062073e-02
-4.066464677453041077e-02
3.728260472416877747e-02
6.675139814615249634e-02
-1.652636192739009857e-02
-3.427597135305404663e-02
3.514922037720680237e-02
-1.126844808459281921e-02
-3.554951772093772888e-02
-4.561440553516149521e-03
-4.654333367943763733e-02
-5.681141745299100876e-03
-8.353192359209060669e-02
-4.790017381310462952e-02
4.853503778576850891e-02
-1.705319620668888092e-02
-5.443920381367206573e-03
1.491738203912973404e-02
1.497073331847786903e-03
-4.749409388750791550e-03
-2.005238831043243408e-02
1.579285133630037308e-03
-1.541086565703153610e-02
-1.404754165560007095e-02
-3.280773386359214783e-02
1.401339564472436905e-02
-1.774596422910690308e-02
-1.437454950064420700e-03
-2.810878492891788483e-02
8.573184162378311157e-02
-3.052815794944763184e-02
3.576714918017387390e-02
-3.881849721074104309e-02
-1.339015457779169083e-02
-4.033662378787994385e-03
6.553594488650560379e-03
-3.986812010407447815e-02
6.559873931109905243e-03
-1.354613195871934295e-04
1.406734623014926910e-02
2.253413014113903046e-02
2.965717017650604248e-02
-3.762574633583426476e-03
-6.671907845884561539e-03
-2.120713330805301666e-02
-3.488440066576004028e-03
-1.376837491989135742e-02
-1.078202202916145325e-02
6.152402982115745544e-02
1.713007572107017040e-03
2.971306815743446350e-02
1.104086339473724365e-01
1.386727089993655682e-03
-7.300642132759094238e-02
-4.595320299267768860e-02
-1.535155752208083868e-04
2.040708204731345177e-03
-4.119522497057914734e-02
1.087773311883211136e-02
2.950624376535415649e-02
-5.186698213219642639e-02
-4.546911269426345825e-02
-3.917519468814134598e-03
6.496012210845947266e-02
-5.823073163628578186e-02
-4.056351631879806519e-02
-2.781473472714424133e-02
-1.998901367187500000e-03
-3.438204526901245117e-02
3.252727165818214417e-02
3.624316304922103882e-02
-2.224060706794261932e-02
1.257190573960542679e-02
-3.851275518536567688e-02
3.029062785208225250e-02
4.241407662630081177e-02
-8.160781115293502808e-03
8.514884859323501587e-02
-2.219488099217414856e-02
-9.587390348315238953e-03
-5.848772078752517700e-02
-3.095409646630287170e-02
5.574026610702276230e-03
5.668079107999801636e-02
8.783536404371261597e-02
3.396551683545112610e-02
2.210814319550991058e-02
1.109625175595283508e-01
-3.233102709054946899e-02
2.978949621319770813e-02
2.125343494117259979e-02
3.399989102035760880e-03
-8.481445722281932831e-03
-1.261915825307369232e-02
-7.466143369674682617e-02
-8.888174779713153839e-03
-3.553689643740653992e-02
1.522354595363140106e-02
-7.737228274345397949e-02
1.785812899470329285e-02
-7.475408911705017090e-02
-2.471864223480224609e-02
7.507220655679702759e-02
-2.370085380971431732e-02
-3.888301923871040344e-02
5.339812953025102615e-03
-3.813257440924644470e-02
1.184144765138626099e-01
-6.286112964153289795e-02
-3.840757906436920166e-02
-2.004523016512393951e-02
4.027358256280422211e-03
-2.546473592519760132e-02
-1.687555015087127686e-02
9.941076859831809998e-03
-2.848660945892333984e-02
-3.001036588102579117e-03
-4.036027472466230392e-03
8.589766174554824829e-02
-1.514316350221633911e-02
-1.031978987157344818e-02
-2.155279926955699921e-02
-2.958478033542633057e-02
4.046362265944480896e-02
-4.007026180624961853e-02
-8.128588646650314331e-02
6.595203280448913574e-02
2.821360714733600616e-02
6.916938722133636475e-02
-4.789774864912033081e-02
-5.790233612060546875e-02
-2.692299708724021912e-02
4.875186458230018616e-02
1.129623688757419586e-02
1.990380138158798218e-02
-1.139647327363491058e-03
2.144411578774452209e-02
-5.379904527217149734e-03
3.552297502756118774e-02
-4.757905006408691406e-02
-2.015117742121219635e-02
-2.515073493123054504e-02
-2.833313494920730591e-02
3.732615709304809570e-02
6.646976619958877563e-02
-2.446892857551574707e-02
2.407013624906539917e-02
-2.688530273735523224e-02
1.017374545335769653e-02
-1.208013668656349182e-02
4.202172905206680298e-02
1.586806029081344604e-02
1.047714892774820328e-02
4.089853167533874512e-02
3.497841581702232361e-02
2.923245076090097427e-03
2.760831266641616821e-02
-8.265064656734466553e-02
-1.835927180945873260e-02
-2.256136760115623474e-02
-3.736104071140289307e-02
1.558743137866258621e-02
-6.500039249658584595e-02
7.070720940828323364e-02
2.656554616987705231e-02
-5.250740330666303635e-03
-3.182825446128845215e-02
-2.333123423159122467e-02
-3.785653412342071533e-02
-3.783099353313446045e-02
-3.888379409909248352e-02
3.122159466147422791e-02
2.615363802760839462e-03
-4.517883062362670898e-02
-1.511967834085226059e-02
-1.984214596450328827e-02
3.135664761066436768e-02
3.986638411879539490e-02
-5.051776394248008728e-02
6.148930639028549194e-02
7.731362245976924896e-03
9.653596580028533936e-02
-1.594464480876922607e-02
-1.092904340475797653e-02
3.558228258043527603e-03
-2.273667417466640472e-02
-1.179762836545705795e-02
1.945965737104415894e-02
-3.871194645762443542e-02
-2.799489768221974373e-03
-4.848013818264007568e-02
3.053472377359867096e-03
-4.461696371436119080e-02
8.458745665848255157e-03
6.565674394369125366e-02
-2.963357046246528625e-02
1.502158399671316147e-02
4.612184315919876099e-02
-7.308916188776493073e-03
1.326333638280630112e-02
7.851399481296539307e-03
-7.694075349718332291e-03
9.204025566577911377e-02
2.989845722913742065e-02
1.655851304531097412e-02
-1.143157947808504105e-03
-8.385932445526123047e-02
-2.184972912073135376e-02
-4.520180448889732361e-02
-9.515526704490184784e-03
-1.578831486403942108e-02
-6.604376435279846191e-02
-3.673343732953071594e-02
-2.451824583113193512e-02
2.457124181091785431e-02
-1.746999472379684448e-02
-4.598502069711685181e-03
5.584489181637763977e-02
-2.120803110301494598e-02
-2.387978509068489075e-02
-2.953028678894042969e-02
-3.687451779842376709e-02
-4.519744589924812317e-02
-2.495535276830196381e-02
4.015175998210906982e-02
2.757303044199943542e-02
-6.047328934073448181e-02
-4.284953698515892029e-02
-2.082805708050727844e-02
-3.299113363027572632e-02
-6.092445179820060730e-02
-1.216515246778726578e-02
-5.207605659961700439e-03
1.182685513049364090e-02
6.525979936122894287e-02
4.491591826081275940e-02
7.338409777730703354e-04
-1.500121131539344788e-02
9.499932639300823212e-03
-3.815584629774093628e-02
