2.937506139278411865e-02 8.891485631465911865e-02 8.612398803234100342e-02 -1.613209545612335205e-01 -7.099302858114242554e-02 7.751771807670593262e-02 -2.405642271041870117e-01 5.595968663692474365e-02 -1.533650904893875122e-01 8.354514837265014648e-02 2.342069288715720177e-03 -1.611723378300666809e-02 -3.021509386599063873e-02 2.022055387496948242e-01 5.553608015179634094e-02 4.051941260695457458e-02 -1.245862469077110291e-01 -1.319394111633300781e-01 8.724685013294219971e-02 -8.962485939264297485e-02 6.340500712394714355e-02 -1.952852122485637665e-02 -4.524952545762062073e-02 3.432769328355789185e-02 -9.137525223195552826e-03 -1.028490364551544189e-01 -4.493373632431030273e-02 7.372790016233921051e-03 5.829655006527900696e-02 2.837968803942203522e-02 -5.840435624122619629e-02 1.201482638716697693e-01 1.328530162572860718e-01 -7.239696383476257324e-02 1.059338450431823730e-01 2.740909531712532043e-02 1.638447791337966919e-01 -8.401279896497726440e-02 -3.980799019336700439e-02 -3.967846184968948364e-02 -5.047421157360076904e-02 8.960380218923091888e-03 -1.026015952229499817e-01 1.083725839853286743e-01 -6.460934877395629883e-02 -2.407161518931388855e-02 3.726765140891075134e-02 -4.250974953174591064e-02 2.596628107130527496e-02 6.815201789140701294e-02 1.229197308421134949e-01 -1.341180652379989624e-01 6.454280763864517212e-02 -5.619201343506574631e-03 -3.435565903782844543e-02 1.171793602406978607e-02 -2.408368289470672607e-01 1.349487453699111938e-01 -8.826588094234466553e-02 -1.345519907772541046e-02 -3.737761080265045166e-02 9.859289973974227905e-02 1.030107885599136353e-01 5.937417503446340561e-03 -1.045779585838317871e-01 2.250570990145206451e-02 4.595611616969108582e-02 1.308647915720939636e-02 3.891595080494880676e-02 5.454403348267078400e-03 -3.591118380427360535e-02 1.900147199630737305e-01 4.760404303669929504e-02 -2.556513063609600067e-03 1.214214190840721130e-01 2.919744849205017090e-01 -4.807866364717483521e-02 -2.689376100897789001e-02 2.093011513352394104e-02 -1.240579783916473389e-02 -2.190367430448532104e-01 1.948060989379882812e-01 -2.145928330719470978e-02 -5.282829515635967255e-03 -7.169280201196670532e-02 -1.558473259210586548e-01 -7.413935661315917969e-02 -2.631680294871330261e-02 -9.025730192661285400e-02 -7.715243101119995117e-02 -6.915969401597976685e-02 1.064605861902236938e-01 -3.912767022848129272e-02 5.511308461427688599e-02 -1.384527236223220825e-01 1.052785366773605347e-01 -4.506873711943626404e-02 2.205064296722412109e-01 1.894689537584781647e-02 7.685103453695774078e-03 -1.113217789679765701e-02 -9.606887400150299072e-02 -1.133981812745332718e-02 -7.250078022480010986e-02 1.064167916774749756e-02 -6.061416491866111755e-02 -1.339282840490341187e-01 -5.540947429835796356e-03 -1.773729026317596436e-01 -1.735086888074874878e-01 -9.923220425844192505e-02 -3.499925136566162109e-02 -1.676980108022689819e-01 -7.749531418085098267e-03 -1.713071018457412720e-01 -8.439224213361740112e-02 -1.843781769275665283e-01 7.351349294185638428e-02 -7.052110508084297180e-03 2.865504100918769836e-02 1.109623312950134277e-01 8.771104365587234497e-02 9.946146607398986816e-02 -8.277595788240432739e-02 -7.795763015747070312e-02 8.689074218273162842e-02 1.355234682559967041e-01 8.990826085209846497e-03 -2.012570388615131378e-02 -9.394511580467224121e-02 -2.286597387865185738e-03 -2.280692756175994873e-02 -1.757201366126537323e-02 -3.010874800384044647e-02 -3.030489757657051086e-02 -1.860880665481090546e-02 5.809458717703819275e-02 -3.825516998767852783e-02 -8.752945810556411743e-02 4.933363944292068481e-02 -2.597385644912719727e-01 -5.636062845587730408e-02 -3.916496783494949341e-02 -2.351634204387664795e-02 -1.525870859622955322e-01 8.715199679136276245e-02 -1.773291081190109253e-01 3.566614538431167603e-02 1.430879831314086914e-01 4.233146458864212036e-02 -5.214862059801816940e-03 -7.587894797325134277e-02 -7.674553245306015015e-02 1.447597593069076538e-01 6.303180009126663208e-02 -2.038031518459320068e-01 -1.309498101472854614e-01 -3.343560919165611267e-02 1.235581375658512115e-02 5.262384936213493347e-02 3.221940621733665466e-02 -9.796778112649917603e-02 1.353238075971603394e-01 3.191462904214859009e-02 -3.935567103326320648e-03 6.540504097938537598e-02 3.582246601581573486e-02 1.803226619958877563e-01 1.826648861169815063e-01 -1.469984464347362518e-02 -1.181268393993377686e-01 -1.234314888715744019e-01 -7.556824386119842529e-02 -7.220125198364257812e-02 3.357308357954025269e-02 1.460216045379638672e-01 2.148687606677412987e-03 -3.255628794431686401e-02 8.404316380620002747e-03 -2.233387827873229980e-01 -3.277784213423728943e-02 -7.568550854921340942e-02 -8.601184189319610596e-02 -9.912519901990890503e-02 -2.739908918738365173e-02 4.427585378289222717e-02 -8.943686634302139282e-02 1.469271481037139893e-01 6.843408197164535522e-02 8.880604803562164307e-02 -7.220666110515594482e-02 -8.557329326868057251e-02 1.662076637148857117e-02 1.368242353200912476e-01 9.594671428203582764e-03 1.485506445169448853e-01 1.156897023320198059e-01 -7.178500294685363770e-02 -2.773617394268512726e-02 2.985504269599914551e-02 -9.670023620128631592e-02 4.360724240541458130e-02 9.417476505041122437e-02 -8.124830573797225952e-02 -1.245593726634979248e-01 1.043893992900848389e-01 5.603315774351358414e-03 -3.489202354103326797e-04 -1.640027016401290894e-02 -1.254760622978210449e-01 4.893545806407928467e-02 6.920589506626129150e-02 3.490916686132550240e-03 1.557593941688537598e-01 1.060516610741615295e-01 -9.988759458065032959e-02 3.477811813354492188e-02 -1.727694459259510040e-02 -9.665751457214355469e-02 7.240182906389236450e-02 -4.616483580321073532e-03 -4.200597852468490601e-02 2.380315028131008148e-02 1.218170523643493652e-01 1.336670517921447754e-01 -9.409485012292861938e-02 9.796939790248870850e-02 2.732104994356632233e-02 -5.600716918706893921e-02 4.306161776185035706e-02 -3.825869411230087280e-02 -1.647104620933532715e-01 -2.724376134574413300e-02 2.201500385999679565e-01 -1.083039864897727966e-01 -2.159567475318908691e-01 -4.141535237431526184e-02 -6.183950975537300110e-02 -1.556495111435651779e-02 -3.254269808530807495e-02 1.006371751427650452e-01 -2.415694743394851685e-01 5.852292478084564209e-02 3.043012134730815887e-02 6.177990511059761047e-02 -5.172306299209594727e-02 -1.535252481698989868e-01 -1.051299273967742920e-01 -6.970242410898208618e-02 3.692226111888885498e-02 1.362228542566299438e-01 -1.538294106721878052e-01 1.105201318860054016e-01 -1.803503632545471191e-01 1.000264957547187805e-01 -2.030386403203010559e-02
-1.211435720324516296e-02 -1.201251372694969177e-01 -1.702873408794403076e-02 -9.269812703132629395e-02 7.708344608545303345e-02 -1.739409416913986206e-01 2.632657624781131744e-02 -1.367032378911972046e-01 2.839371748268604279e-02 7.733535021543502808e-02 1.286252290010452271e-01 -2.552569843828678131e-02 4.419086128473281860e-02 9.392993152141571045e-02 3.476377949118614197e-02 -8.318378776311874390e-02 -2.153020352125167847e-01 -1.019280105829238892e-01 -1.859726160764694214e-01 -2.806051373481750488e-01 -1.378984898328781128e-01 6.924848258495330811e-02 -3.746811300516128540e-02 1.847437024116516113e-02 -3.274413198232650757e-02 8.283782005310058594e-02 6.662938743829727173e-02 2.490619570016860962e-02 1.516863256692886353e-01 -5.991547554731369019e-02 6.354387383908033371e-03 -1.326517318375408649e-03 9.924253821372985840e-02 3.331396356225013733e-02 -4.036787897348403931e-02 -1.970582082867622375e-02 -7.104540616273880005e-02 -4.483555257320404053e-02 7.933774590492248535e-02 -1.500873863697052002e-01 -1.697161700576543808e-03 1.164786219596862793e-01 -1.500018686056137085e-01 -7.582534849643707275e-02 6.985260546207427979e-02 5.157911032438278198e-02 4.986672475934028625e-02 9.764724224805831909e-02 -6.610403209924697876e-02 -3.148771077394485474e-02 1.301295012235641479e-01 4.778000991791486740e-03 3.950956091284751892e-02 6.208824738860130310e-02 1.897233277559280396e-01 8.953937888145446777e-02 -7.516431212425231934e-01 3.857087716460227966e-02 1.208455674350261688e-02 6.108297966420650482e-03 4.042050987482070923e-02 7.244124542921781540e-03 -4.092931747436523438e-02 -3.319692239165306091e-02 -1.278836876153945923e-01 -1.012280136346817017e-01 1.098552625626325607e-02 5.299414973706007004e-03 9.409862756729125977e-02 3.151432797312736511e-02 9.474423527717590332e-02 -8.248344063758850098e-02 1.072707772254943848e-01 -2.314916439354419708e-02 8.602306991815567017e-02 -1.642860919237136841e-01 -5.590067058801651001e-02 8.396156132221221924e-02 -5.487643554806709290e-02 7.331833988428115845e-02 -2.626746892929077148e-03 6.166263297200202942e-02 -9.295803308486938477e-02 8.087536692619323730e-02 -1.292605102062225342e-01 -1.366035938262939453e-01 -1.651385724544525146e-01 1.654438860714435577e-02 -7.012908812612295151e-03 -2.052484750747680664e-01 1.185865178704261780e-01 1.122331246733665466e-01 2.340735867619514465e-02 -5.262885615229606628e-02 -5.374827235937118530e-02 -4.374393448233604431e-02 -6.400295346975326538e-02 -6.152913346886634827e-02 -1.848494634032249451e-02 -7.415823638439178467e-03 -2.272857576608657837e-01 -4.064387083053588867e-02 -3.464850038290023804e-02 -8.864647895097732544e-02 5.236625298857688904e-02 9.130968153476715088e-02 -2.075179247185587883e-03 2.967613376677036285e-02 5.291311070322990417e-02 1.287323981523513794e-01 -6.596950441598892212e-02 2.652112627401947975e-03 2.211348339915275574e-02 -1.338679641485214233e-01 3.701555728912353516e-02 -1.502988487482070923e-01 -1.377859502099454403e-03 -3.049258887767791748e-02 -4.231542348861694336e-02 2.199913263320922852e-01 1.657553464174270630e-01 2.306770533323287964e-02 4.471927881240844727e-02 -2.097384929656982422e-01 -1.891749538481235504e-02 -4.533240571618080139e-02 8.466425538063049316e-02 5.767526477575302124e-02 5.106704682111740112e-02 -1.658711209893226624e-02 1.563372313976287842e-01 -8.622464537620544434e-02 -1.694278232753276825e-02 9.755675494670867920e-02 -2.656079828739166260e-02 2.016092278063297272e-02 -1.342794043011963367e-03 -3.479601070284843445e-02 -8.066269755363464355e-02 -9.663830511271953583e-03 -8.767371624708175659e-02 -4.478828608989715576e-02 1.698355562984943390e-02 -6.521961838006973267e-02 -5.253326520323753357e-02 1.250440031290054321e-01 -4.275272414088249207e-02 -9.761792421340942383e-02 7.566528767347335815e-02 1.236627176403999329e-01 -3.083571046590805054e-02 5.007204599678516388e-03 -6.368689984083175659e-02 1.371936351060867310e-01 -1.183733046054840088e-01 -6.247163563966751099e-02 -1.240266785025596619e-01 -1.130833476781845093e-01 -9.345722943544387817e-02 1.998863928020000458e-02 1.521798409521579742e-02 -6.884161382913589478e-02 1.876126527786254883e-01 -1.269188374280929565e-01 -9.223984554409980774e-03 -1.600149273872375488e-02 -2.942159585654735565e-02 -3.006053529679775238e-02 7.152211666107177734e-02 -1.981739401817321777e-01 -8.369437605142593384e-02 2.287417650222778320e-02 1.026266366243362427e-01 3.825014922767877579e-03 -5.891978368163108826e-02 1.540738623589277267e-03 1.843902096152305603e-02 -1.144769713282585144e-01 -1.229629591107368469e-01 -3.988963738083839417e-02 -9.415183216333389282e-03 -3.740448504686355591e-02 -7.033285498619079590e-02 1.859251409769058228e-01 -1.354934531264007092e-03 6.853058189153671265e-02 5.363924056291580200e-02 -4.381474107503890991e-02 -1.932646632194519043e-01 2.202864736318588257e-02 -1.527501940727233887e-01 3.509541228413581848e-02 -4.589796438813209534e-02 2.727916650474071503e-02 1.247063428163528442e-01 1.938560046255588531e-02 -6.564871221780776978e-02 5.709814280271530151e-02 2.562019228935241699e-02 9.154767543077468872e-02 -2.091773897409439087e-01 -1.212355121970176697e-02 1.218435354530811310e-02 2.416024170815944672e-02 -1.626818478107452393e-01 8.538925647735595703e-02 1.278246045112609863e-01 8.710626512765884399e-02 5.856441333889961243e-02 -9.276328980922698975e-02 1.963361501693725586e-01 8.640356361865997314e-02 -2.090742886066436768e-01 -2.691805735230445862e-02 1.228271238505840302e-02 -8.515747636556625366e-02 -1.122503951191902161e-01 1.089997366070747375e-01 8.374012075364589691e-03 4.925546795129776001e-02 -7.510565221309661865e-02 -2.186106294393539429e-01 -1.406602263450622559e-01 3.868068009614944458e-02 -1.670016646385192871e-01 -7.486087828874588013e-02 -1.427910476922988892e-01 1.709930151700973511e-01 -5.966769531369209290e-02 -7.339997589588165283e-02 1.136948317289352417e-01 -1.901147514581680298e-01 -4.334373399615287781e-02 3.574374318122863770e-02 -9.311880171298980713e-02 -9.169895946979522705e-02 -1.724711507558822632e-01 1.797036528587341309e-01 -2.260492183268070221e-02 -2.468964271247386932e-02 -4.894868284463882446e-02 -1.869863271713256836e-01 3.802932053804397583e-02 -5.283276364207267761e-02 1.117803156375885010e-01 4.910461232066154480e-02 2.770086936652660370e-02 -9.155033528804779053e-02 -3.086813353002071381e-02 7.331887632608413696e-02 -1.607605963945388794e-01 3.839610517024993896e-02 -2.837105989456176758e-01 -1.553993821144104004e-01 -7.710369769483804703e-03 4.168324545025825500e-02
-1.487331688404083252e-01 1.410010363906621933e-02 -7.107046991586685181e-02 5.982783809304237366e-02 3.657128661870956421e-02 -5.313271656632423401e-02 6.808013468980789185e-02 1.050496548414230347e-01 9.213523939251899719e-03 1.318472474813461304e-01 3.251332789659500122e-02 2.625598013401031494e-02 3.866991773247718811e-02 -6.775514036417007446e-02 -6.562577933073043823e-02 6.664486974477767944e-02 1.832003295421600342e-01 -3.189045935869216919e-02 -4.353842511773109436e-02 -2.316774129867553711e-01 -6.418554484844207764e-02 4.093289002776145935e-02 9.862747043371200562e-03 -1.456892490386962891e-01 4.540753085166215897e-03 1.181513071060180664e-03 -7.728755474090576172e-02 1.550239231437444687e-02 5.340589955449104309e-02 1.075084786862134933e-02 -5.008183792233467102e-02 -3.057996556162834167e-02 -2.074696719646453857e-01 -1.265148818492889404e-01 -1.548871211707592010e-02 -1.506778299808502197e-01 1.630873233079910278e-02 -5.227348953485488892e-02 2.662755921483039856e-02 -4.508714005351066589e-02 -9.641474485397338867e-02 1.193489357829093933e-01 -4.226338118314743042e-03 -6.008422747254371643e-02 2.366434931755065918e-01 -2.576604858040809631e-02 -1.265486478805541992e-01 -2.004100084304809570e-01 -9.022827446460723877e-02 -1.051927208900451660e-01 -1.039112359285354614e-01 5.545644089579582214e-02 2.346315979957580566e-01 1.346774399280548096e-01 8.977770805358886719e-02 -2.474070526659488678e-03 2.051174826920032501e-02 -1.294064521789550781e-01 -1.082553416490554810e-01 -1.991905085742473602e-02 -1.298047900199890137e-01 -2.676021307706832886e-02 -7.353184279054403305e-03 -5.264744907617568970e-02 2.969111129641532898e-02 6.559146940708160400e-02 4.129106551408767700e-02 -5.497445538640022278e-02 8.921571820974349976e-02 -8.146665245294570923e-02 2.149971015751361847e-02 -9.947873651981353760e-02 9.917688369750976562e-02 -1.742315478622913361e-02 -2.818894758820533752e-02 -6.104491651058197021e-02 -5.849807336926460266e-02 -1.946605183184146881e-02 -5.976988747715950012e-02 6.971678137779235840e-02 -8.504924178123474121e-02 -7.802045345306396484e-02 -1.250646263360977173e-01 -5.652283132076263428e-02 -1.080319061875343323e-01 -1.139414161443710327e-01 -2.450013756752014160e-01 -3.603876382112503052e-02 -1.987303942441940308e-01 1.988119445741176605e-02 2.791828848421573639e-02 -1.812632828950881958e-01 -5.092311650514602661e-02 -1.886169612407684326e-01 1.224644202739000320e-02 -2.847225405275821686e-02 2.301512286067008972e-02 1.422894746065139771e-01 -8.734582923352718353e-03 1.172508150339126587e-01 -2.140987068414688110e-01 -9.931582957506179810e-03 4.120253957808017731e-03 1.236270666122436523e-01 -4.087641462683677673e-02 -9.071884304285049438e-02 -1.296557486057281494e-02 3.488638997077941895e-02 5.148584488779306412e-03 -4.497873783111572266e-02 1.398169528692960739e-02 5.842182040214538574e-02 -5.270132049918174744e-02 -1.195016056299209595e-01 -2.038836665451526642e-02 -6.626924127340316772e-02 -6.887526810169219971e-02 -2.700459957122802734e-02 6.644656509160995483e-02 1.236452460289001465e-01 -5.861690267920494080e-02 -9.914273768663406372e-02 9.613986313343048096e-02 1.473343521356582642e-01 2.653969824314117432e-02 7.269224524497985840e-02 -2.666522748768329620e-02 -1.214734837412834167e-01 1.493593752384185791e-01 -5.738199502229690552e-02 -1.411155164241790771e-01 6.191996112465858459e-02 6.153054535388946533e-03 -1.085140183568000793e-01 -1.644144207239151001e-01 3.252933919429779053e-02 -6.836898624897003174e-02 -2.016103267669677734e-01 -4.054004698991775513e-02 4.118527844548225403e-02 -4.762081056833267212e-02 -1.625338196754455566e-01 -4.697618260979652405e-02 -3.875438123941421509e-02 -1.112911403179168701e-01 -1.400738656520843506e-01 -6.407591700553894043e-02 -6.812093406915664673e-02 4.989770799875259399e-02 -1.935569755733013153e-02 3.120866604149341583e-02 -1.744671724736690521e-02 8.720298297703266144e-03 -7.117711752653121948e-02 6.567600369453430176e-02 -1.747834533452987671e-01 -1.763151288032531738e-01 8.464186638593673706e-02 -1.396290957927703857e-02 -1.876013725996017456e-02 -1.620265394449234009e-01 -1.619908213615417480e-01 2.191556431353092194e-02 1.193772479891777039e-01 -1.000022888183593750e-01 -2.206445671617984772e-02 -1.953914016485214233e-02 2.960693277418613434e-02 -1.056457012891769409e-01 1.419560797512531281e-02 -1.448241025209426880e-01 -5.690369009971618652e-02 6.628318130970001221e-02 -8.937075734138488770e-02 2.718221396207809448e-02 6.191416457295417786e-02 3.344529494643211365e-02 -5.994659289717674255e-02 -3.444395959377288818e-02 -1.392603963613510132e-01 -1.451419740915298462e-01 -6.388215720653533936e-02 -7.501956820487976074e-02 -1.512985527515411377e-01 -5.070274695754051208e-03 -7.851924747228622437e-02 -6.765555590391159058e-02 -4.039252921938896179e-02 8.776672184467315674e-02 -1.317563503980636597e-01 1.388522237539291382e-01 -1.310980916023254395e-01 -8.258424699306488037e-02 4.306963831186294556e-02 4.401884227991104126e-02 5.388217046856880188e-02 -1.523787854239344597e-03 -2.213204503059387207e-01 9.106376767158508301e-02 -8.390349149703979492e-02 -6.739222444593906403e-03 1.398928649723529816e-02 -1.016017347574234009e-01 -1.504406146705150604e-02 -3.432702273130416870e-02 1.349349468946456909e-01 8.920244872570037842e-02 -4.879787564277648926e-02 2.542278915643692017e-02 -2.112906984984874725e-02 6.776360422372817993e-02 -1.701588928699493408e-02 -1.863146722316741943e-01 5.751094594597816467e-02 -1.711907982826232910e-02 1.887179613113403320e-01 -3.226878121495246887e-02 -7.001426070928573608e-02 -5.324160214513540268e-03 -9.410815685987472534e-02 -7.067167758941650391e-02 1.582883596420288086e-01 1.141785532236099243e-01 1.605917960405349731e-01 1.357330381870269775e-01 7.086856663227081299e-02 -5.950089544057846069e-02 -1.270244419574737549e-01 -9.108215570449829102e-02 2.275208756327629089e-02 -3.829146921634674072e-02 -4.563210159540176392e-02 -2.638170868158340454e-02 -2.456205524504184723e-02 7.055292278528213501e-02 1.247995123267173767e-01 1.901417076587677002e-01 5.215476080775260925e-02 -7.322846353054046631e-02 1.269991695880889893e-01 1.020013839006423950e-01 7.179722934961318970e-02 -1.586826592683792114e-01 4.704276099801063538e-02 8.015298843383789062e-02 5.668881163001060486e-02 8.031988143920898438e-02 1.007755380123853683e-02 -2.666024267673492432e-01 -2.180516161024570465e-02 -1.796927452087402344e-01 3.164746239781379700e-02 4.810189828276634216e-02 2.154504805803298950e-01 -2.595101855695247650e-02 -8.632742799818515778e-03
2.142911404371261597e-02 -7.301190495491027832e-02 -1.635320186614990234e-01 -2.393164187669754028e-01 -8.334967494010925293e-02 4.910231009125709534e-02 -3.266653418540954590e-02 4.655573889613151550e-02 8.537987619638442993e-02 -1.638724841177463531e-02 1.212904527783393860e-01 5.427616462111473083e-02 -5.262588337063789368e-02 6.401142477989196777e-02 1.053278520703315735e-01 1.828825026750564575e-01 1.103215478360652924e-02 1.212883070111274719e-01 -9.836426936089992523e-03 5.533489584922790527e-02 4.691689461469650269e-02 5.551231652498245239e-02 -3.076964057981967926e-02 -7.471400499343872070e-02 1.365177705883979797e-02 -4.950225353240966797e-02 -4.158062860369682312e-02 -6.772224605083465576e-02 -3.734252229332923889e-02 1.837162524461746216e-01 9.772308403626084328e-04 -1.310459077358245850e-01 -8.666781708598136902e-03 8.103124052286148071e-02 4.309329669922590256e-03 2.598064839839935303e-01 7.002768665552139282e-02 9.052713215351104736e-02 4.559154808521270752e-02 -7.727143913507461548e-02 -1.494658924639225006e-02 -1.314250975847244263e-01 -2.267621606588363647e-01 3.249889239668846130e-02 2.869369089603424072e-02 1.195479929447174072e-01 3.316185437142848969e-03 -1.879856735467910767e-02 -5.890370532870292664e-02 1.226225942373275757e-01 9.018237888813018799e-02 -8.729153126478195190e-02 -6.503398716449737549e-02 -1.723163388669490814e-02 5.812495946884155273e-02 -2.188239060342311859e-02 -1.371998786926269531e-01 -1.423347648233175278e-02 5.863497033715248108e-02 -7.734753191471099854e-02 1.067100614309310913e-01 8.415450155735015869e-02 1.480614021420478821e-02 5.353171844035387039e-03 6.555589381605386734e-03 -4.399907588958740234e-02 6.092504784464836121e-02 9.696377813816070557e-02 1.121079027652740479e-01 -5.990743637084960938e-02 -1.539071672596037388e-04 -4.989227652549743652e-02 7.205694168806076050e-02 3.102882578969001770e-02 -5.921101570129394531e-02 -2.223172187805175781e-01 -2.539776265621185303e-01 -3.674582391977310181e-02 1.687530241906642914e-02 2.897588312625885010e-01 2.903900481760501862e-02 -3.488618880510330200e-02 -3.264500200748443604e-02 2.168440073728561401e-01 -2.790617346763610840e-01 4.564414545893669128e-02 8.006789535284042358e-02 9.536578319966793060e-03 1.883638463914394379e-02 -1.973194442689418793e-02 9.735356271266937256e-02 9.780021011829376221e-02 -5.611294507980346680e-02 1.215447446156758815e-05 -1.211541593074798584e-01 -1.802387386560440063e-01 4.975417628884315491e-02 -1.035087630152702332e-01 2.908913791179656982e-02 2.024858072400093079e-02 7.760256994515657425e-03 2.835465036332607269e-02 6.706552207469940186e-02 -2.056284099817276001e-01 -6.752500683069229126e-02 6.781499087810516357e-02 2.785022556781768799e-02 5.916138738393783569e-02 1.705284602940082550e-02 6.406986620277166367e-03 2.107021361589431763e-01 1.204671487212181091e-01 4.842291399836540222e-02 3.201133757829666138e-02 -7.990698516368865967e-02 2.572842538356781006e-01 2.560529708862304688e-01 1.455312222242355347e-02 -8.618729561567306519e-02 -6.939078122377395630e-02 5.688952282071113586e-02 1.768978871405124664e-02 -1.300538424402475357e-02 1.235128790140151978e-01 1.176084950566291809e-01 5.429284274578094482e-02 -5.196723341941833496e-02 -2.927281521260738373e-02 1.808054596185684204e-01 3.312813863158226013e-02 -2.540119364857673645e-02 5.084219947457313538e-02 -4.199485480785369873e-01 4.621717706322669983e-02 1.000485196709632874e-01 -6.900142133235931396e-02 -2.976354956626892090e-02 2.608234994113445282e-02 2.921644039452075958e-02 -4.896275699138641357e-02 -5.717696994543075562e-02 1.290612667798995972e-01 8.141665905714035034e-02 1.161271706223487854e-01 -1.841402240097522736e-02 -4.498863965272903442e-02 -5.345841869711875916e-02 1.422063857316970825e-01 -4.744137078523635864e-02 -3.651640191674232483e-02 -6.407830864191055298e-02 -3.610731661319732666e-02 -2.094313800334930420e-01 2.369661815464496613e-02 -1.078157275915145874e-01 6.042567640542984009e-02 1.650640219449996948e-01 -1.013904139399528503e-01 4.605018999427556992e-03 1.020799055695533752e-01 1.073042005300521851e-01 1.671816259622573853e-01 -4.629598930478096008e-02 -2.207775786519050598e-02 3.464277461171150208e-02 -3.558837771415710449e-01 4.577668756246566772e-02 -1.593484543263912201e-02 2.336325943470001221e-01 -9.117978066205978394e-02 -1.133464127779006958e-01 -1.696942150592803955e-01 4.584139958024024963e-02 1.949351280927658081e-02 -1.134231239557266235e-01 1.292386651039123535e-02 -1.769545860588550568e-02 1.223435774445533752e-01 1.565360277891159058e-02 7.546217739582061768e-02 7.065708190202713013e-02 1.033378541469573975e-01 3.804671391844749451e-02 -2.183899097144603729e-02 5.922579439356923103e-04 -5.221021175384521484e-02 2.081715874373912811e-02 4.673789143562316895e-01 7.891821861267089844e-02 -4.794454574584960938e-02 -1.517193764448165894e-01 6.521599739789962769e-02 2.562859468162059784e-02 3.393561765551567078e-02 3.905828297138214111e-02 8.611092716455459595e-02 -1.507051568478345871e-02 -4.045765846967697144e-02 -8.344124257564544678e-02 1.301463134586811066e-02 1.849229335784912109e-01 -2.567869843915104866e-03 -5.496617779135704041e-02 -5.894581787288188934e-03 5.103552341461181641e-02 7.917234301567077637e-02 -1.419428586959838867e-01 -5.757873877882957458e-02 1.453058868646621704e-01 -1.006069183349609375e-01 -1.460950523614883423e-01 1.047351956367492676e-02 8.796144276857376099e-03 1.632447838783264160e-01 6.467454880475997925e-02 -1.610824093222618103e-02 3.145976737141609192e-02 -9.356910735368728638e-02 -8.258894085884094238e-02 4.146751388907432556e-02 2.282131910324096680e-01 -1.400672048330307007e-01 -9.690205007791519165e-02 -5.728681012988090515e-02 -7.101245969533920288e-02 -2.579333782196044922e-01 -2.356860786676406860e-01 -8.784691989421844482e-02 1.705106720328330994e-02 3.030176460742950439e-02 -6.969754397869110107e-02 -1.315238177776336670e-01 2.108345478773117065e-01 2.116634743288159370e-03 -8.842708915472030640e-02 -1.771954894065856934e-01 -1.746942847967147827e-02 4.845582321286201477e-02 1.374808792024850845e-02 3.680863603949546814e-02 7.461558282375335693e-02 2.774669229984283447e-02 -4.002583399415016174e-02 -4.330316931009292603e-02 -4.893025755882263184e-02 -8.128683082759380341e-03 6.075348332524299622e-02 -5.784391891211271286e-03 -7.489740848541259766e-02 -7.908800989389419556e-02 4.928051680326461792e-02 5.353255569934844971e-02 1.653033941984176636e-01 -9.549706578254699707e-01 4.081217199563980103e-02 7.595273200422525406e-03
6.837578862905502319e-02 3.034975007176399231e-02 -9.448439627885818481e-02 -8.803150057792663574e-02 5.630936473608016968e-02 -8.122366666793823242e-02 -3.282664418220520020e-01 5.412879213690757751e-02 -2.123131789267063141e-02 -7.403195649385452271e-02 -6.344228982925415039e-02 1.509758532047271729e-01 -1.430783718824386597e-01 -2.401019632816314697e-02 5.202672630548477173e-02 6.785593577660620213e-04 4.950274527072906494e-02 5.946932826191186905e-03 1.243345737457275391e-01 2.225360833108425140e-02 8.697418868541717529e-02 4.009334370493888855e-02 1.385787725448608398e-01 1.246267631649971008e-01 -8.080816827714443207e-03 1.976165361702442169e-02 -6.383384764194488525e-02 -1.686404459178447723e-02 3.148789703845977783e-02 -2.957434393465518951e-02 1.190352514386177063e-01 8.867172896862030029e-02 -7.514993101358413696e-02 4.216254130005836487e-02 1.411335319280624390e-01 4.752182215452194214e-02 8.947874605655670166e-02 -2.838465012609958649e-02 -6.241482868790626526e-02 4.637167230248451233e-02 -3.703913465142250061e-02 -7.790116127580404282e-03 -6.634827703237533569e-02 -6.029877439141273499e-02 8.103948086500167847e-02 1.164308637380599976e-01 5.871768295764923096e-02 5.186392739415168762e-02 -3.424941003322601318e-02 -3.301796317100524902e-02 -6.254041194915771484e-02 1.985464990139007568e-02 9.272372722625732422e-02 -6.525308638811111450e-02 -7.686243858188390732e-03 1.121072024106979370e-01 -2.863153815269470215e-01 -2.268324233591556549e-02 -8.822935074567794800e-02 -4.828687757253646851e-02 7.946500927209854126e-02 -7.098846137523651123e-02 -6.011779233813285828e-02 1.220244448632001877e-03 -2.875062404200434685e-03 -2.674647420644760132e-02 7.812342140823602676e-03 2.494750311598181725e-03 5.386116355657577515e-02 -5.647888407111167908e-02 6.395842880010604858e-02 -2.124883532524108887e-01 1.826314330101013184e-01 1.521861851215362549e-01 -1.755914539098739624e-01 -7.431621104478836060e-02 -2.401826344430446625e-02 8.845323324203491211e-02 -1.121546402573585510e-01 -8.020571433007717133e-03 8.479774743318557739e-02 -4.371854083728976548e-05 -1.772147975862026215e-02 -1.589763015508651733e-01 -2.582582235336303711e-01 2.360041439533233643e-02 1.079026088118553162e-01 -4.312584176659584045e-02 -1.416257321834564209e-01 -1.110606268048286438e-01 1.350049674510955811e-01 -9.532822296023368835e-03 -7.804947346448898315e-02 -6.907381117343902588e-02 -1.108584254980087280e-01 -1.099882423877716064e-01 -8.659677952527999878e-02 -1.012614276260137558e-02 3.151352703571319580e-02 1.255568265914916992e-01 -8.547107875347137451e-02 1.142701208591461182e-01 5.233340337872505188e-02 -9.241600334644317627e-02 4.454847052693367004e-02 -3.231894224882125854e-02 -2.547098398208618164e-01 -2.351039461791515350e-02 -4.640132561326026917e-02 -3.053499944508075714e-02 6.916804611682891846e-02 1.252395380288362503e-02 -2.013586834073066711e-02 -1.062701176851987839e-02 6.956690549850463867e-02 1.270889490842819214e-01 3.067484796047210693e-01 5.961443483829498291e-02 -7.306233793497085571e-02 2.715968526899814606e-02 3.528370335698127747e-02 9.395552426576614380e-02 -7.355014979839324951e-02 -1.051747053861618042e-02 -2.783010154962539673e-02 7.283668220043182373e-02 -1.326589472591876984e-02 4.685216769576072693e-02 1.494658142328262329e-01 4.414630308747291565e-02 9.846197068691253662e-02 4.669826477766036987e-02 -4.261050224304199219e-01 -5.136339738965034485e-02 3.498652577400207520e-02 4.300275072455406189e-02 9.368560463190078735e-02 3.617267683148384094e-02 1.614562571048736572e-01 2.814270742237567902e-02 -2.758538424968719482e-01 3.293960541486740112e-02 1.535965949296951294e-01 2.092180699110031128e-01 -2.222473323345184326e-01 1.323022991418838501e-01 -2.497939765453338623e-01 -6.650481373071670532e-02 7.193702459335327148e-02 2.562215179204940796e-02 -8.491701632738113403e-02 3.308938816189765930e-03 3.573141247034072876e-02 2.854667790234088898e-02 -2.385089397430419922e-01 1.078712791204452515e-01 1.242780908942222595e-01 6.232462823390960693e-03 -6.638951599597930908e-02 4.566591233015060425e-02 -2.942858822643756866e-02 9.921339154243469238e-02 6.345634162425994873e-02 -1.348155885934829712e-01 1.046994403004646301e-01 -9.843572974205017090e-02 -1.767623983323574066e-02 6.946532428264617920e-02 4.765161499381065369e-02 8.983823470771312714e-03 -3.268606364727020264e-01 -1.651808805763721466e-02 3.175185248255729675e-02 -1.053549572825431824e-01 -8.924973756074905396e-02 -5.970882624387741089e-02 9.689376503229141235e-02 6.198169291019439697e-02 8.154959231615066528e-02 -6.429600715637207031e-02 3.588281571865081787e-02 1.413941830396652222e-01 -1.223619952797889709e-01 -2.618121728301048279e-02 2.796224877238273621e-02 -2.570176497101783752e-02 4.919808823615312576e-03 1.975112557411193848e-01 -7.428453862667083740e-02 4.429732915014028549e-03 -1.424349993467330933e-01 7.225901633501052856e-02 8.208889514207839966e-02 1.061717048287391663e-01 9.660793840885162354e-02 -2.319145947694778442e-02 2.030456811189651489e-01 -1.747392565011978149e-01 3.463252261281013489e-02 -7.101216912269592285e-02 1.874513924121856689e-03 -6.098160147666931152e-02 1.033417060971260071e-01 -8.207286894321441650e-02 -5.436642840504646301e-02 -9.938620775938034058e-02 -1.059783063828945160e-02 -2.184748649597167969e-01 1.562511771917343140e-01 6.046830862760543823e-02 -2.512935698032379150e-01 -5.840871110558509827e-02 7.563059777021408081e-02 2.287125773727893829e-02 7.845852524042129517e-03 6.574693322181701660e-02 -1.430287361145019531e-01 -1.282757520675659180e-01 -6.841453909873962402e-02 2.390203922986984253e-01 1.627516895532608032e-01 -3.012849483639001846e-04 -1.587721705436706543e-01 1.343088150024414062e-01 5.052314698696136475e-02 -3.758331239223480225e-01 4.876599833369255066e-02 -6.606036331504583359e-03 4.954263940453529358e-02 -2.619121456518769264e-03 -1.373963654041290283e-01 -7.180212438106536865e-02 3.840894997119903564e-02 -4.495801031589508057e-02 -1.971105784177780151e-01 -9.961723349988460541e-03 4.784743860363960266e-02 -2.822723984718322754e-02 4.226569458842277527e-02 -5.436465144157409668e-02 -2.146838307380676270e-01 1.490635983645915985e-02 -5.631768330931663513e-02 2.965649962425231934e-01 -5.040396749973297119e-02 3.208278864622116089e-02 -1.224934980273246765e-01 6.623902916908264160e-02 -3.521798551082611084e-02 8.423194289207458496e-02 4.446987807750701904e-02 1.847253926098346710e-02 8.126256614923477173e-02 -2.764063477516174316e-01 1.686836965382099152e-02 4.561299085617065430e-02
-7.013228535652160645e-02 -1.021879725158214569e-02 -2.269805176183581352e-03 -1.056621894240379333e-01 -5.108102038502693176e-02 7.376430183649063110e-02 -1.213410273194313049e-01 8.498880267143249512e-02 3.769940510392189026e-02 -3.509734943509101868e-02 -4.016295075416564941e-03 8.320562541484832764e-02 -8.695472031831741333e-02 -1.545092929154634476e-02 8.972438424825668335e-02 8.899899548850953579e-04 -1.833729147911071777e-01 -1.707964576780796051e-02 -9.808121621608734131e-02 -1.907652467489242554e-01 -2.504906803369522095e-02 6.245150417089462280e-02 -9.513142704963684082e-02 1.404420584440231323e-01 -1.427416950464248657e-01 -5.253406614065170288e-02 -2.082939445972442627e-01 -1.420091930776834488e-02 -2.142085321247577667e-02 -1.131258532404899597e-01 -8.392485789954662323e-03 2.909942902624607086e-02 8.064610511064529419e-02 2.646963596343994141e-01 -1.227975711226463318e-01 7.113640755414962769e-02 -1.062269657850265503e-01 1.060735285282135010e-01 7.918539922684431076e-04 3.750044479966163635e-02 6.240917369723320007e-02 1.009871512651443481e-01 -7.614285498857498169e-02 6.753013469278812408e-03 -1.293565481901168823e-01 4.509247466921806335e-02 5.868981406092643738e-02 3.508844226598739624e-02 7.413784973323345184e-03 1.898832060396671295e-02 -1.339619457721710205e-01 -8.994106203317642212e-02 -9.179870039224624634e-02 1.298203021287918091e-01 -6.134482845664024353e-02 4.719580337405204773e-02 2.753465250134468079e-02 -5.997923016548156738e-02 -7.095149904489517212e-02 1.262646075338125229e-02 2.188374660909175873e-02 9.528886526823043823e-03 -2.978827338665723801e-03 2.519674040377140045e-02 -1.519910991191864014e-02 9.984139353036880493e-02 -3.572841361165046692e-02 3.001960739493370056e-02 1.858474761247634888e-01 2.681427402421832085e-03 -4.132718220353126526e-02 -2.717133425176143646e-02 5.343808233737945557e-02 1.753807067871093750e-01 -5.465451627969741821e-03 -8.465998619794845581e-02 -1.484237164258956909e-01 -1.262904405593872070e-01 -7.466892898082733154e-02 1.210317015647888184e-01 -3.387266024947166443e-02 -9.280661493539810181e-02 4.371874779462814331e-02 1.021376028656959534e-01 -7.435082644224166870e-02 -3.373615443706512451e-02 -3.676608577370643616e-02 7.294206321239471436e-02 -4.787509888410568237e-02 -3.567793220281600952e-02 2.349579893052577972e-02 4.133147373795509338e-02 5.135960411280393600e-03 5.197111517190933228e-03 -2.208006829023361206e-01 4.279430210590362549e-02 4.847752675414085388e-02 -1.438274420797824860e-02 -3.530317917466163635e-02 -5.648587644100189209e-02 -1.074402406811714172e-02 1.101214736700057983e-01 3.874335065484046936e-02 -1.683807075023651123e-01 2.644156105816364288e-03 3.369443714618682861e-01 1.645531356334686279e-01 8.220294862985610962e-02 9.578275680541992188e-02 -7.854250818490982056e-02 -3.292408213019371033e-02 1.139138862490653992e-01 -1.701281070709228516e-01 3.879605606198310852e-02 -2.985101751983165741e-02 2.557586878538131714e-02 2.766034007072448730e-02 1.742852181196212769e-01 -1.357948174700140953e-03 1.209033355116844177e-01 1.109056919813156128e-01 -1.177203133702278137e-01 -1.044902577996253967e-01 -1.615667045116424561e-01 8.892259746789932251e-02 2.688291855156421661e-02 -1.973740160465240479e-01 -1.036101430654525757e-01 -1.395106315612792969e-01 -3.758969902992248535e-02 -1.145313903689384460e-01 -1.297830939292907715e-01 8.474683389067649841e-03 5.694598704576492310e-02 1.463563144207000732e-01 1.082839164882898331e-02 1.330855302512645721e-02 4.556490853428840637e-02 -2.818866968154907227e-01 7.951304316520690918e-02 -3.652044758200645447e-02 5.743512511253356934e-02 -5.233349651098251343e-02 6.077441200613975525e-02 -2.720639407634735107e-01 1.226577982306480408e-01 -2.260839343070983887e-01 1.287343055009841919e-01 8.929211646318435669e-02 5.819750367663800716e-04 -1.934087648987770081e-02 6.464601308107376099e-02 -5.991983041167259216e-02 -1.820491254329681396e-01 -4.171110689640045166e-03 -1.466231644153594971e-01 -3.795352205634117126e-02 7.661696523427963257e-02 1.759954541921615601e-02 -2.428863570094108582e-02 -3.425811231136322021e-02 -1.460601985454559326e-01 5.209502950310707092e-02 -1.869247257709503174e-01 -2.967583388090133667e-02 -1.252345275133848190e-02 -4.514425620436668396e-02 -5.471219494938850403e-02 6.045413017272949219e-02 2.745658159255981445e-03 -8.017236739397048950e-02 5.858123302459716797e-02 1.213264651596546173e-02 2.756667695939540863e-02 -1.478427201509475708e-01 6.033604219555854797e-02 -9.512282162904739380e-02 -2.593697905540466309e-01 6.471424549818038940e-02 6.766725331544876099e-02 1.187242940068244934e-01 -4.014077037572860718e-02 -2.169191464781761169e-02 7.656522095203399658e-02 -4.945342615246772766e-02 3.415517881512641907e-02 -1.308757904917001724e-02 2.222282066941261292e-02 -1.569382995367050171e-01 2.449096180498600006e-02 8.490301668643951416e-02 -3.275933116674423218e-02 -7.538265734910964966e-02 4.066620022058486938e-02 1.629520952701568604e-02 9.529960155487060547e-02 -9.705966711044311523e-02 -8.555334061384201050e-02 -2.930927649140357971e-02 -1.897043921053409576e-02 -3.129287660121917725e-01 -1.386288832873106003e-02 6.402715295553207397e-02 2.456807531416416168e-02 -3.080504834651947021e-01 3.913461789488792419e-02 -1.899570524692535400e-01 1.042519733309745789e-01 -1.203996092081069946e-01 -5.645889416337013245e-02 -1.825628131628036499e-01 5.251568555831909180e-02 -1.148571143858134747e-03 -3.664401546120643616e-02 7.230813056230545044e-02 -1.103010177612304688e-01 1.170149073004722595e-01 8.263341337442398071e-02 -2.688594162464141846e-02 1.543770432472229004e-01 -4.459577426314353943e-02 -2.466856986284255981e-01 6.749264150857925415e-02 1.191864982247352600e-01 -4.255814105272293091e-02 -4.879891499876976013e-02 -1.388056278228759766e-01 5.403804779052734375e-02 -8.170865476131439209e-02 1.979368329048156738e-01 3.931131213903427124e-02 7.160690613090991974e-03 1.809298992156982422e-02 -9.217136353254318237e-02 -1.254579275846481323e-01 -9.112234413623809814e-02 1.461066901683807373e-01 -1.552358455955982208e-02 -7.307886332273483276e-02 -1.116077881306409836e-02 6.699566543102264404e-02 -7.729116082191467285e-02 5.524796620011329651e-02 1.236627176403999329e-01 -1.703862547874450684e-01 1.401249915361404419e-01 -3.410518914461135864e-02 -2.174584269523620605e-01 -9.268292784690856934e-02 7.268285751342773438e-02 1.499970722943544388e-02 6.618259847164154053e-02 8.694436401128768921e-03 -3.649716377258300781e-01 -2.176416479051113129e-02 3.743913024663925171e-02
7.124323863536119461e-03 2.947012893855571747e-02 -2.690142206847667694e-02 6.878050044178962708e-03 2.969060465693473816e-02 -6.374132633209228516e-02 -5.559623986482620239e-02 -1.372491754591464996e-02 3.129336237907409668e-02 -1.461729258298873901e-01 -1.695670783519744873e-01 -1.923526264727115631e-02 -1.109500229358673096e-01 -1.143412217497825623e-01 7.919220626354217529e-02 -6.560609489679336548e-02 1.040330901741981506e-01 1.746842116117477417e-01 8.085700869560241699e-02 6.700291484594345093e-02 1.372710317373275757e-01 -7.462107390165328979e-02 3.699772059917449951e-02 6.456071883440017700e-02 -8.804649114608764648e-02 -1.988582462072372437e-01 4.844980686902999878e-02 1.356813758611679077e-01 -7.293870300054550171e-02 3.144626691937446594e-02 3.200080245733261108e-02 7.913311012089252472e-03 -2.452864944934844971e-01 8.402641862630844116e-03 3.794803842902183533e-02 1.006022691726684570e-01 1.889185160398483276e-01 -2.806514501571655273e-02 -1.840926855802536011e-01 -4.212817177176475525e-02 -9.865459054708480835e-02 -1.876042187213897705e-01 1.028189137578010559e-01 8.647531270980834961e-02 2.567041665315628052e-02 7.424474507570266724e-02 -3.668733686208724976e-02 1.215837523341178894e-01 3.976142033934593201e-02 -6.369797885417938232e-02 -5.444111768156290054e-03 -7.619806379079818726e-02 -5.540243000723421574e-04 7.534649968147277832e-02 -5.711342021822929382e-02 2.156606465578079224e-01 4.836880415678024292e-02 -1.920705661177635193e-02 -3.122495859861373901e-02 3.243881836533546448e-02 7.784870266914367676e-02 -8.454082161188125610e-02 -7.487035542726516724e-02 2.032542787492275238e-02 2.390838414430618286e-02 -1.258622556924819946e-01 9.312690794467926025e-02 -1.678954660892486572e-01 6.699702143669128418e-02 -2.995789609849452972e-02 -2.693087235093116760e-02 1.954682916402816772e-01 -9.777837991714477539e-02 -1.921101361513137817e-01 -3.911894187331199646e-02 -1.852588728070259094e-02 4.498930647969245911e-02 5.340261012315750122e-02 -1.143306717276573181e-01 -7.070875912904739380e-02 -5.707402713596820831e-03 3.383848071098327637e-02 1.504134293645620346e-02 7.413353770971298218e-02 1.432823836803436279e-01 2.080706954002380371e-01 8.311817049980163574e-02 3.852738067507743835e-02 2.149867862462997437e-01 -6.097864359617233276e-02 -7.813912630081176758e-02 -5.108515918254852295e-02 -7.428250461816787720e-02 4.710178077220916748e-02 1.305879503488540649e-01 1.017977222800254822e-01 1.625660993158817291e-02 1.181351672857999802e-02 4.483371600508689880e-02 -7.965499162673950195e-02 2.054358273744583130e-01 1.393261253833770752e-01 -1.366040259599685669e-01 -3.940943628549575806e-02 1.259093638509511948e-02 4.324353486299514771e-02 -1.069265380501747131e-01 3.552625328302383423e-02 1.066126078367233276e-01 1.016095802187919617e-01 -6.143508851528167725e-02 -1.891554743051528931e-01 7.448196411132812500e-02 -1.939471811056137085e-02 3.272866597399115562e-03 -9.153829887509346008e-03 8.984482265077531338e-04 -1.935840398073196411e-02 1.048712208867073059e-01 9.650536626577377319e-02 7.417830824851989746e-02 -1.155627518892288208e-01 1.139757782220840454e-01 1.770823895931243896e-01 3.451101016253232956e-03 9.837853163480758667e-02 -1.749881915748119354e-02 -2.375239878892898560e-01 3.991744015365839005e-03 3.310745209455490112e-02 1.776050478219985962e-01 1.821776293218135834e-02 -1.591151505708694458e-01 6.383348256349563599e-02 -1.385045647621154785e-01 1.368826925754547119e-01 -2.254368923604488373e-02 -4.072218388319015503e-02 1.407450884580612183e-01 1.516710873693227768e-02 -6.161073222756385803e-03 1.547472625970840454e-01 7.752212882041931152e-02 3.442505747079849243e-02 -9.892564266920089722e-03 6.873276829719543457e-02 -2.780268527567386627e-02 -1.169761493802070618e-01 1.063576526939868927e-02 4.207693412899971008e-02 -3.621790185570716858e-02 -5.144542455673217773e-02 -4.342480748891830444e-02 -5.961213260889053345e-02 3.959470242261886597e-02 -4.051955416798591614e-02 4.074647650122642517e-02 7.285685837268829346e-02 -9.999498724937438965e-02 1.428922116756439209e-01 8.404061198234558105e-02 1.295721828937530518e-01 -2.196622267365455627e-02 6.127170100808143616e-02 6.488668918609619141e-02 3.444682806730270386e-02 -1.317564398050308228e-01 -6.796782463788986206e-02 -5.118655040860176086e-02 -5.387205630540847778e-02 -6.828016042709350586e-02 -2.224094867706298828e-01 -1.544740945100784302e-01 1.002016067504882812e-01 5.309741944074630737e-02 -5.603073537349700928e-02 -4.652055725455284119e-02 -1.545132417231798172e-02 2.026020921766757965e-02 1.081008650362491608e-02 1.942143589258193970e-02 -1.235056519508361816e-01 -2.136244177818298340e-01 8.052311837673187256e-02 -3.855982795357704163e-02 -1.095260158181190491e-01 -8.763500303030014038e-02 5.674729496240615845e-02 3.808729117736220360e-03 -4.404032975435256958e-02 -7.402466237545013428e-02 -1.438632905483245850e-01 -5.132609978318214417e-02 -8.668022602796554565e-02 1.588328480720520020e-01 6.366141885519027710e-02 -1.144286524504423141e-02 1.450396776199340820e-01 2.378113940358161926e-02 1.229575350880622864e-01 1.143437847495079041e-01 -8.611030876636505127e-02 1.576996147632598877e-01 7.187868654727935791e-02 2.030945718288421631e-01 -9.760826826095581055e-02 1.298640947788953781e-02 -5.341194197535514832e-02 3.787986561655998230e-02 -1.601667404174804688e-01 -1.573425680398941040e-01 8.378679305315017700e-02 -2.633030712604522705e-02 -8.303431421518325806e-02 5.531757697463035583e-02 -1.549606211483478546e-02 -3.984884545207023621e-02 2.667332068085670471e-02 1.230064034461975098e-02 -1.260811239480972290e-01 -5.634840577840805054e-02 1.050607785582542419e-01 2.665594592690467834e-02 8.256829530000686646e-02 -2.952010557055473328e-02 5.351703986525535583e-02 -9.940161369740962982e-03 -2.342975325882434845e-02 1.802757382392883301e-01 -3.272078465670347214e-03 -1.305907964706420898e-01 8.302298188209533691e-02 -6.494775414466857910e-02 9.551468491554260254e-02 1.543560773134231567e-01 8.547078818082809448e-02 -1.046688333153724670e-01 8.333845436573028564e-02 -3.206028044223785400e-02 3.382700262591242790e-03 -7.921478152275085449e-02 -9.611703455448150635e-03 -3.349296003580093384e-02 7.443186640739440918e-02 -9.362421929836273193e-02 -9.018367528915405273e-02 -1.018976792693138123e-01 6.187510117888450623e-02 -3.470094501972198486e-02 -4.935070406645536423e-03 3.805014491081237793e-02 -4.031872667837888002e-04 2.011029422283172607e-02 1.396520249545574188e-02 -4.646345227956771851e-02 2.139665745198726654e-02
6.432948261499404907e-02 7.907240837812423706e-02 1.329075992107391357e-01 -7.674241811037063599e-02 -1.084236726164817810e-01 -3.436087630689144135e-03 -3.636602163314819336e-01 -4.905826412141323090e-03 1.675484776496887207e-01 9.780472517013549805e-02 -1.069659553468227386e-02 -5.304605886340141296e-02 -1.127942129969596863e-01 -3.719181194901466370e-02 -3.792235255241394043e-02 4.885226115584373474e-02 1.049219667911529541e-01 -4.383210465312004089e-02 -8.244375139474868774e-02 2.279349975287914276e-02 1.454486511647701263e-02 6.743530184030532837e-02 -7.446950674057006836e-02 1.560095977038145065e-02 -4.206924140453338623e-02 9.700199216604232788e-02 -3.666842356324195862e-02 -4.742496088147163391e-02 -5.364930257201194763e-02 2.991613447666168213e-01 1.576873958110809326e-01 1.264420524239540100e-02 -1.480778604745864868e-01 5.091637838631868362e-03 1.516973227262496948e-01 1.735877394676208496e-01 -4.092391952872276306e-02 4.346147552132606506e-02 -1.941802911460399628e-02 2.770199179649353027e-01 1.579830795526504517e-02 -6.461478024721145630e-02 -2.044228911399841309e-01 2.141903154551982880e-03 -3.833530098199844360e-02 -5.052551254630088806e-02 -5.752184614539146423e-02 3.491448611021041870e-02 6.149679888039827347e-03 5.652959644794464111e-02 7.893296331167221069e-02 -4.152069240808486938e-02 -1.025809198617935181e-01 4.223576560616493225e-02 -5.117115378379821777e-02 -1.871130056679248810e-02 -1.562049686908721924e-01 -1.781984716653823853e-01 3.662628354504704475e-03 -8.234700560569763184e-02 3.548264876008033752e-02 -1.794894109480082989e-03 -3.831686824560165405e-02 -2.348549850285053253e-02 -3.345726802945137024e-02 -1.197569742798805237e-01 7.990811020135879517e-03 7.516328990459442139e-02 -1.007726714015007019e-01 3.761049360036849976e-02 -7.089997828006744385e-02 5.074856430292129517e-02 1.679349094629287720e-01 -1.377648413181304932e-01 6.420949101448059082e-02 -8.601149916648864746e-02 -1.263943463563919067e-01 1.460453495383262634e-02 -2.336247265338897705e-02 1.192911714315414429e-02 -4.498879984021186829e-02 3.703938797116279602e-02 -1.234960481524467468e-01 2.242560684680938721e-01 -3.310408890247344971e-01 -9.881284832954406738e-02 9.566010534763336182e-02 -1.221269369125366211e-02 -4.505784437060356140e-02 1.653571799397468567e-02 1.126940697431564331e-01 -1.406238973140716553e-01 -6.924116611480712891e-02 9.884793311357498169e-02 2.322506606578826904e-01 1.115689128637313843e-01 4.550271108746528625e-02 -5.662267655134201050e-02 -1.789157465100288391e-02 9.195981174707412720e-02 -9.470142424106597900e-02 1.806769147515296936e-02 -8.387024700641632080e-02 1.298174858093261719e-01 6.381560117006301880e-02 2.262668497860431671e-02 2.493662573397159576e-02 -4.129735380411148071e-02 -1.671485975384712219e-02 5.875098332762718201e-02 -9.540249407291412354e-02 -5.822592414915561676e-03 9.899917989969253540e-02 -9.534885734319686890e-02 3.904024604707956314e-03 2.532483041286468506e-01 -2.770547196269035339e-02 -2.178011834621429443e-02 -2.762806117534637451e-01 9.613012522459030151e-02 2.526635490357875824e-02 -4.101418703794479370e-02 3.193314373493194580e-02 6.884922832250595093e-02 -5.843478813767433167e-02 4.075439646840095520e-02 -9.411323815584182739e-02 1.475774645805358887e-01 3.204359859228134155e-02 8.336251229047775269e-02 1.826600544154644012e-02 -1.038021072745323181e-01 -3.998490571975708008e-01 -1.441202461719512939e-01 4.695308580994606018e-02 -6.039888784289360046e-02 1.665229052305221558e-01 -6.914443336427211761e-03 2.645440399646759033e-01 1.161618717014789581e-02 -1.314033567905426025e-01 9.180819988250732422e-02 3.577091544866561890e-02 9.509449452161788940e-02 -3.954309821128845215e-01 6.959493458271026611e-02 -4.704653322696685791e-01 7.042220979928970337e-02 7.757227867841720581e-02 4.505983088165521622e-03 8.894801884889602661e-02 -5.806139111518859863e-02 5.243699997663497925e-02 -3.628775477409362793e-02 -3.636532425880432129e-01 -1.265206336975097656e-01 1.257446557283401489e-01 -6.088535487651824951e-02 6.601855158805847168e-02 3.706453740596771240e-02 -8.456227928400039673e-02 7.312343269586563110e-02 -1.213426738977432251e-01 1.408439576625823975e-01 -2.447134628891944885e-02 -9.128842502832412720e-02 -2.204734459519386292e-02 -6.944051943719387054e-03 -8.395668119192123413e-03 1.732349991798400879e-01 -1.303316801786422729e-01 1.183990668505430222e-02 -8.188989944756031036e-03 -1.278844922780990601e-01 1.331393420696258545e-01 -1.051184907555580139e-01 -1.428558081388473511e-01 -4.347376991063356400e-03 4.287627339363098145e-02 -2.227797918021678925e-02 1.675915271043777466e-01 -3.532156348228454590e-02 -8.702521771192550659e-02 1.471671611070632935e-01 1.151304095983505249e-01 6.981113925576210022e-03 6.710116565227508545e-02 3.073014318943023682e-02 4.384929314255714417e-02 1.131256893277168274e-01 -8.749917894601821899e-02 -1.148829907178878784e-01 1.552567332983016968e-01 3.055304056033492088e-03 -2.334405481815338135e-02 1.068592295050621033e-01 1.183353438973426819e-01 -9.272860735654830933e-02 5.776058882474899292e-02 7.090678066015243530e-02 1.290207058191299438e-01 -1.072043552994728088e-01 1.253558546304702759e-01 2.377183176577091217e-03 -2.393130958080291748e-02 -6.030992045998573303e-02 -5.178257450461387634e-02 1.574521064758300781e-01 8.450148254632949829e-02 8.210601657629013062e-02 -8.686696738004684448e-02 1.394305145367980003e-03 2.080945074558258057e-01 -9.216754697263240814e-03 2.981500886380672455e-02 -1.011318936944007874e-01 -5.571706965565681458e-02 4.739781096577644348e-02 7.697843760251998901e-02 4.717737436294555664e-02 5.254629626870155334e-02 8.266257494688034058e-02 3.292507259175181389e-03 -9.617863222956657410e-03 3.274659067392349243e-02 3.435989096760749817e-02 -6.173430010676383972e-02 9.586248546838760376e-02 -2.673758938908576965e-02 -1.074869334697723389e-01 -2.837058901786804199e-01 -3.695746138691902161e-02 2.826448716223239899e-02 -4.120086506009101868e-02 1.990814507007598877e-02 1.430649310350418091e-01 -9.320449829101562500e-02 -1.480082273483276367e-01 6.589532643556594849e-02 1.503482609987258911e-01 6.519310921430587769e-02 3.827393054962158203e-02 6.888598948717117310e-02 2.787861526012420654e-01 -3.663326054811477661e-02 -5.589021020568907261e-04 -7.920774072408676147e-02 8.216408314183354378e-04 -1.016793772578239441e-02 6.551025807857513428e-02 -1.168045774102210999e-01 5.149770900607109070e-02 -1.479934602975845337e-01 -1.617622748017311096e-02 8.913918398320674896e-03 -8.949233591556549072e-02
-3.559752181172370911e-02 1.056077983230352402e-02 -3.161025792360305786e-02 4.923959076404571533e-02 1.013730019330978394e-01 -3.890981897711753845e-02 5.779842659831047058e-02 4.193478822708129883e-02 -7.559614628553390503e-02 3.556400479283183813e-04 4.451972618699073792e-02 2.388986572623252869e-02 5.437987670302391052e-02 2.316229604184627533e-02 -1.647617816925048828e-01 2.014703005552291870e-01 1.335588991641998291e-01 1.331623792648315430e-01 1.611518487334251404e-02 5.115653574466705322e-02 6.773833930492401123e-02 -2.471285760402679443e-01 2.048600465059280396e-01 -8.831176161766052246e-02 1.512085199356079102e-01 -1.018352359533309937e-01 -9.601121768355369568e-03 -4.980840906500816345e-02 1.489359512925148010e-02 1.222756654024124146e-01 -3.731295093894004822e-02 6.245792284607887268e-02 1.103480383753776550e-01 1.011804118752479553e-01 1.425962001085281372e-01 -6.496304273605346680e-02 1.310773491859436035e-01 2.471542544662952423e-02 1.218186225742101669e-02 -1.279039233922958374e-01 6.999274343252182007e-02 8.322526514530181885e-02 7.286927103996276855e-02 -4.886412993073463440e-02 1.260503977537155151e-01 -2.330811694264411926e-02 2.221534103155136108e-01 -1.045379340648651123e-01 -6.260236352682113647e-02 -9.243552573025226593e-03 1.449529640376567841e-02 -5.431319773197174072e-02 -5.142892152070999146e-02 9.753369539976119995e-02 -2.196166515350341797e-01 -1.410996317863464355e-01 -1.452910304069519043e-01 1.470465306192636490e-02 8.139656484127044678e-02 1.399202793836593628e-01 -2.846499979496002197e-01 1.156946793198585510e-01 7.383805233985185623e-03 9.708247333765029907e-02 3.181312466040253639e-03 -4.119953513145446777e-02 6.423994153738021851e-02 1.387067139148712158e-01 1.693842411041259766e-01 -2.078730612993240356e-02 6.193592771887779236e-02 4.390751942992210388e-03 1.414562016725540161e-01 3.603632748126983643e-02 1.121974438428878784e-01 1.308209449052810669e-02 1.174578070640563965e-02 7.476627826690673828e-02 1.443845033645629883e-01 1.586223095655441284e-01 8.424204774200916290e-03 5.159393325448036194e-02 2.902879752218723297e-02 -2.585076354444026947e-02 3.036650642752647400e-02 1.280801487155258656e-03 2.435565888881683350e-01 -8.718458004295825958e-03 2.856107987463474274e-02 2.846489427611231804e-03 1.027748808264732361e-01 9.271772950887680054e-02 5.526097863912582397e-02 1.621443629264831543e-01 2.138921171426773071e-01 -5.011631920933723450e-02 -8.973217755556106567e-02 -6.199465319514274597e-02 -7.576248049736022949e-02 -1.600933521986007690e-01 2.107723243534564972e-02 -1.397306621074676514e-01 -3.520124778151512146e-02 -9.279678761959075928e-02 -7.948357611894607544e-03 2.944236621260643005e-04 -4.033830761909484863e-02 9.679284691810607910e-02 1.948480308055877686e-02 1.381263788789510727e-02 -3.525835275650024414e-02 2.353586815297603607e-02 3.697356907650828362e-03 5.146691948175430298e-02 2.449106238782405853e-02 5.193435400724411011e-02 -9.476938843727111816e-02 1.508054789155721664e-02 9.815394878387451172e-03 8.967024274170398712e-03 -8.199172466993331909e-02 -2.129296772181987762e-02 -9.735964238643646240e-02 5.206448584794998169e-02 1.696268469095230103e-01 8.387059718370437622e-02 1.296407431364059448e-01 5.432059615850448608e-02 6.738255918025970459e-02 -3.908523172140121460e-02 -1.733007729053497314e-01 -2.291304320096969604e-01 -4.790881648659706116e-02 3.883838653564453125e-02 -3.427299484610557556e-02 6.737573444843292236e-02 2.101891934871673584e-01 -2.692707441747188568e-02 5.957129225134849548e-02 1.041499599814414978e-01 1.272177994251251221e-01 -7.596686482429504395e-02 6.604513525962829590e-02 1.767349839210510254e-01 1.375735700130462646e-01 3.017480112612247467e-02 -2.696686610579490662e-02 9.144216030836105347e-02 -1.056017726659774780e-01 -9.109596908092498779e-02 1.510738581418991089e-01 4.579042270779609680e-02 -4.210573807358741760e-02 1.597088873386383057e-01 7.805863022804260254e-02 -1.721892878413200378e-02 1.555720902979373932e-02 -1.004096213728189468e-02 -7.092345505952835083e-02 1.412074416875839233e-01 9.350556880235671997e-02 -1.431808900088071823e-02 1.628259271383285522e-01 -2.644222229719161987e-02 -1.661735326051712036e-01 -2.577284164726734161e-02 -7.583602517843246460e-02 -2.923659421503543854e-02 -4.771062359213829041e-02 -9.980478137731552124e-02 -6.750797480344772339e-02 1.184914540499448776e-02 1.711858063936233521e-02 4.460731148719787598e-02 -5.766488239169120789e-02 5.918758921325206757e-03 1.737242490053176880e-01 7.857561111450195312e-02 2.756926044821739197e-02 -4.782841354608535767e-02 9.042982012033462524e-03 1.004288569092750549e-01 -6.580995023250579834e-02 -1.009274553507566452e-02 8.268667757511138916e-02 -8.686394244432449341e-02 -3.617370501160621643e-02 5.967799201607704163e-02 6.437634676694869995e-02 -2.512702718377113342e-02 2.628998272120952606e-02 -3.317343653179705143e-04 5.826931074261665344e-02 -5.695806443691253662e-02 -5.561437085270881653e-02 1.318683475255966187e-01 7.796843349933624268e-02 -2.145928330719470978e-02 -5.768094211816787720e-02 1.294956952333450317e-01 -3.069356828927993774e-02 8.536478132009506226e-02 -8.423752337694168091e-02 -7.209096848964691162e-02 1.201097518205642700e-01 -3.294302523136138916e-02 2.960990741848945618e-02 7.624219357967376709e-02 -2.985229901969432831e-02 5.274740606546401978e-02 1.019338145852088928e-01 -4.004537314176559448e-02 -8.039839565753936768e-02 1.383799165487289429e-01 -3.124657869338989258e-01 7.195972651243209839e-02 1.854968070983886719e-02 -1.993914097547531128e-01 -7.230521738529205322e-02 2.577714622020721436e-03 -1.254277825355529785e-01 -7.991140335798263550e-02 8.108241856098175049e-02 -1.930981129407882690e-02 -7.517589721828699112e-03 7.110469043254852295e-02 4.492726549506187439e-02 3.725074604153633118e-02 -6.258633453398942947e-03 1.469338964670896530e-02 6.433615460991859436e-03 -3.989861346781253815e-03 7.046499848365783691e-02 7.092079520225524902e-02 1.709607243537902832e-01 1.926998347043991089e-01 -4.957872629165649414e-02 -8.884964883327484131e-02 -3.771801292896270752e-02 1.539906561374664307e-01 -1.184915080666542053e-01 9.327002614736557007e-02 1.414793282747268677e-01 -9.316391497850418091e-02 1.801217794418334961e-01 -5.881450697779655457e-02 6.724961847066879272e-02 5.713457241654396057e-02 -9.814733639359474182e-03 -1.722305417060852051e-01 9.905390441417694092e-02 -3.880888596177101135e-02 -1.196163967251777649e-01 1.524817794561386108e-01 -8.085387945175170898e-02 1.730801612138748169e-01
-1.490774452686309814e-01 7.964490912854671478e-03 9.038081765174865723e-02 -7.241382449865341187e-02 9.129334241151809692e-02 1.096439510583877563e-01 -3.050994127988815308e-02 5.641729757189750671e-02 6.248841062188148499e-03 -4.375110566616058350e-02 4.994693025946617126e-02 -8.256877213716506958e-02 2.247640639543533325e-01 -6.218199059367179871e-02 7.553097605705261230e-02 -3.445376083254814148e-02 1.512923464179039001e-02 1.163379549980163574e-01 -1.347226649522781372e-02 3.915718570351600647e-02 -1.528576947748661041e-02 -1.808492690324783325e-01 -2.141241356730461121e-02 -7.119770627468824387e-03 -5.911135114729404449e-03 -1.777479648590087891e-01 -3.544653207063674927e-02 1.850696802139282227e-01 1.704446226358413696e-01 -7.932814955711364746e-02 -1.712958663702011108e-01 -7.265600562095642090e-02 1.504786908626556396e-01 -1.742606163024902344e-01 1.461146324872970581e-01 -2.788600698113441467e-02 2.311998791992664337e-02 -4.133599251508712769e-02 -9.142702817916870117e-02 1.485826373100280762e-01 -8.752691745758056641e-02 6.821536272764205933e-02 5.083237960934638977e-02 -5.002946779131889343e-02 4.993419349193572998e-02 -7.223437726497650146e-02 1.229622866958379745e-02 9.643186628818511963e-02 2.377865137532353401e-03 -2.203104496002197266e-01 1.241473183035850525e-01 1.460811793804168701e-01 3.131324052810668945e-02 4.317582119256258011e-03 -3.071855939924716949e-02 3.599485009908676147e-02 -9.087185561656951904e-02 2.252578735351562500e-01 -9.417872875928878784e-02 -1.239794045686721802e-01 6.191185489296913147e-02 -1.365399956703186035e-01 -5.354905873537063599e-02 -7.370287925004959106e-02 2.877708151936531067e-02 9.671580046415328979e-02 -3.216349286958575249e-03 -1.908459886908531189e-02 8.347323536872863770e-02 4.229477420449256897e-02 1.479740887880325317e-01 9.496872872114181519e-02 -2.135722339153289795e-01 -7.175679784268140793e-04 -1.459333673119544983e-02 8.293153950944542885e-05 -1.558645367622375488e-01 9.777052700519561768e-02 8.733697235584259033e-02 -3.691310063004493713e-02 1.022274121642112732e-01 -1.609479188919067383e-01 6.614161282777786255e-02 -5.832205712795257568e-02 6.900331377983093262e-02 -2.285761013627052307e-02 1.682756245136260986e-01 -5.252790078520774841e-02 1.781283468008041382e-01 -3.407220914959907532e-02 -2.054265886545181274e-02 8.544959872961044312e-02 3.664993867278099060e-02 -1.315287947654724121e-01 8.422950655221939087e-02 8.411835879087448120e-02 1.033774614334106445e-01 1.315437704324722290e-01 9.032572060823440552e-02 6.175414472818374634e-02 -6.290031969547271729e-02 -3.632721677422523499e-02 -5.599631369113922119e-02 -2.049139142036437988e-01 1.367266103625297546e-02 9.432552382349967957e-03 5.420501902699470520e-02 -1.382232643663883209e-03 -2.193422801792621613e-02 3.489135950803756714e-02 -5.968927964568138123e-02 -3.474338352680206299e-02 -6.612753868103027344e-02 1.111385449767112732e-01 2.646780014038085938e-02 9.194218367338180542e-02 1.071840673685073853e-01 1.372265368700027466e-01 2.243925184011459351e-01 -3.372662141919136047e-02 -5.445536971092224121e-02 6.760239601135253906e-02 4.972953721880912781e-02 2.310461550951004028e-02 4.635293781757354736e-02 -7.635834813117980957e-02 4.822332039475440979e-02 8.164674043655395508e-02 2.195277623832225800e-02 -1.148423030972480774e-01 7.341232150793075562e-02 -9.772530756890773773e-03 2.284034192562103271e-01 -1.231486275792121887e-01 2.958939969539642334e-02 4.411725699901580811e-02 7.522977888584136963e-02 -5.218392238020896912e-02 -5.309668555855751038e-02 2.738785743713378906e-02 -1.266680508852005005e-01 -1.642836779356002808e-01 8.785632671788334846e-04 -1.550831645727157593e-02 -4.552353918552398682e-02 5.040711537003517151e-02 -9.445871226489543915e-03 -4.047178104519844055e-02 -5.151202529668807983e-02 -5.714785680174827576e-02 6.846930086612701416e-02 1.580842435359954834e-01 -1.126955971121788025e-01 -6.144412327557802200e-03 1.021570414304733276e-01 1.059181019663810730e-01 -1.391155570745468140e-01 -1.193871628493070602e-02 -1.038611307740211487e-02 8.444165438413619995e-02 -5.401123315095901489e-02 1.909349709749221802e-01 -1.784220933914184570e-01 1.062061171978712082e-02 -3.144765971228480339e-03 5.359760671854019165e-02 -1.915317475795745850e-01 -7.687729597091674805e-02 7.360263913869857788e-02 6.994000077247619629e-02 1.544156223535537720e-01 -1.060137599706649780e-01 2.369606494903564453e-01 -3.995418548583984375e-02 -8.880474418401718140e-02 3.964441642165184021e-02 1.133101135492324829e-01 3.104610368609428406e-03 7.368915248662233353e-03 2.563809752464294434e-01 1.036341041326522827e-01 4.082651436328887939e-02 -3.093819320201873779e-02 -1.675867848098278046e-02 4.361596331000328064e-02 7.803014945238828659e-03 -4.816571623086929321e-02 5.695927143096923828e-02 -7.846593856811523438e-02 -2.412238856777548790e-03 -1.421234942972660065e-02 -2.958424203097820282e-02 2.832885459065437317e-02 -1.322826296091079712e-01 -6.063335109502077103e-03 1.668085157871246338e-02 1.108968779444694519e-01 1.122777722775936127e-02 5.217295512557029724e-02 -5.990884825587272644e-02 9.690792113542556763e-02 6.326716393232345581e-02 -6.342285126447677612e-02 -1.422985047101974487e-01 -3.044710308313369751e-02 9.774930775165557861e-02 6.430828571319580078e-02 -1.615589410066604614e-01 1.565740406513214111e-01 7.941944152116775513e-02 4.580802470445632935e-02 6.872112303972244263e-02 -4.842886328697204590e-02 -4.819989576935768127e-02 -7.834836724214255810e-04 -2.037768810987472534e-01 -6.354204565286636353e-02 2.477117627859115601e-02 -4.456854239106178284e-02 -8.450859785079956055e-02 9.988914243876934052e-04 -6.966606527566909790e-02 -5.544418096542358398e-02 5.966200958937406540e-03 -9.568055160343647003e-03 1.414258778095245361e-01 -1.158821657299995422e-01 1.082584559917449951e-01 6.163726374506950378e-02 -3.694308921694755554e-02 8.323081582784652710e-02 1.155349910259246826e-01 2.894165739417076111e-02 -1.137234494090080261e-01 1.869430579245090485e-02 -5.151294544339179993e-02 3.446386381983757019e-02 8.586888760328292847e-02 5.224718526005744934e-02 -3.815173730254173279e-02 1.131119206547737122e-01 1.961968280375003815e-02 1.513384431600570679e-01 1.577694155275821686e-02 -6.173457205295562744e-02 -4.584673792123794556e-02 6.313850730657577515e-02 -2.064153179526329041e-02 3.111779130995273590e-02 -3.724572435021400452e-02 1.035000011324882507e-01 -1.254197657108306885e-01 1.207374930381774902e-01 -1.881973594427108765e-01 -1.192947551608085632e-01 -3.343177959322929382e-02
-1.091757044196128845e-02 -3.998617827892303467e-02 -8.017041720449924469e-03 -1.658018976449966431e-01 5.140740424394607544e-02 -4.441577941179275513e-02 1.687647961080074310e-02 -5.845979228615760803e-02 1.320102065801620483e-01 1.292444020509719849e-02 -1.192778907716274261e-02 -7.149937748908996582e-02 -7.182575017213821411e-02 1.184899583458900452e-01 1.332458704710006714e-01 8.613564819097518921e-02 -2.025987952947616577e-01 -1.329006906598806381e-02 -6.286093592643737793e-02 6.075279414653778076e-02 -2.806308567523956299e-01 -3.408301994204521179e-02 -4.090727120637893677e-02 1.724540814757347107e-02 3.473467892035841942e-03 3.142485395073890686e-02 7.228526473045349121e-02 -8.731909841299057007e-02 9.658563882112503052e-02 1.335107982158660889e-01 1.198587790131568909e-01 3.213446959853172302e-02 1.238285601139068604e-01 1.815784871578216553e-01 1.295640319585800171e-01 1.088930387049913406e-02 3.939772397279739380e-02 3.416795283555984497e-02 -4.274588078260421753e-03 4.542165622115135193e-02 2.440941706299781799e-02 -4.332145676016807556e-02 -1.879063397645950317e-01 4.854269325733184814e-02 -1.474635303020477295e-01 -8.436074107885360718e-02 1.653830558061599731e-01 8.920199424028396606e-02 -5.496304482221603394e-02 -7.763712666928768158e-03 -2.027589678764343262e-01 -7.740938663482666016e-02 -9.603187441825866699e-02 1.834829151630401611e-01 5.565047264099121094e-02 1.758959740400314331e-01 -4.375785123556852341e-03 1.312708109617233276e-01 7.778581231832504272e-02 -9.538862854242324829e-02 1.393692642450332642e-01 -7.279120385646820068e-02 -6.630977243185043335e-02 -1.423577666282653809e-01 -4.841921478509902954e-02 3.796423226594924927e-02 1.653539389371871948e-02 1.902572996914386749e-02 6.038504187017679214e-03 -8.039661496877670288e-02 1.034485325217247009e-01 -5.827056244015693665e-02 8.487324416637420654e-02 5.814067274332046509e-02 -6.050875782966613770e-02 -2.013073675334453583e-02 -1.469015032052993774e-01 5.065405741333961487e-02 7.491439580917358398e-02 4.625402018427848816e-02 -4.531916603446006775e-02 -8.435615897178649902e-02 7.856956869363784790e-02 -1.497765723615884781e-02 -1.246024072170257568e-01 1.168392300605773926e-01 -6.384991854429244995e-02 -6.445463001728057861e-02 1.128812879323959351e-01 -4.405315592885017395e-02 8.560409396886825562e-02 -8.083906024694442749e-03 5.975172854959964752e-03 -1.357891261577606201e-01 1.176153868436813354e-02 4.029509797692298889e-02 -2.029440850019454956e-01 -5.346193909645080566e-02 1.488785892724990845e-01 4.206907004117965698e-02 3.695368394255638123e-02 -2.347353845834732056e-03 1.039907634258270264e-01 3.119439445436000824e-02 1.436967253684997559e-01 7.663259282708168030e-03 1.047774329781532288e-01 1.589207947254180908e-01 4.643961042165756226e-02 2.059045992791652679e-02 7.296668365597724915e-03 1.729309558868408203e-01 -1.006431877613067627e-02 7.703188806772232056e-03 -1.361464560031890869e-01 1.445164233446121216e-01 5.191212147474288940e-02 -2.822229173034429550e-03 -6.349112093448638916e-02 -2.006662786006927490e-01 9.754393994808197021e-02 -1.366786379367113113e-02 -9.993911534547805786e-02 2.975116297602653503e-02 -1.636257022619247437e-01 1.244104579091072083e-01 -5.078384280204772949e-02 3.547030210029333830e-04 3.224988281726837158e-02 1.072621271014213562e-01 4.197920113801956177e-02 3.188706561923027039e-02 -2.729349210858345032e-02 -1.408613659441471100e-02 5.748231336474418640e-02 -1.550775021314620972e-01 -1.294925361871719360e-01 4.354008659720420837e-02 -1.806427538394927979e-01 -3.077801875770092010e-02 -1.526896934956312180e-02 -1.562040299177169800e-01 -1.104927957057952881e-01 9.066458791494369507e-02 -2.951442599296569824e-01 -3.215648606419563293e-02 -2.047679424285888672e-01 6.523103266954421997e-02 -2.683369070291519165e-02 5.167124420404434204e-02 3.262374550104141235e-02 -1.753430999815464020e-02 -5.450287368148565292e-03 1.878906786441802979e-02 -6.482634693384170532e-02 -2.123592793941497803e-01 -1.430021673440933228e-01 -5.277290940284729004e-03 -1.176538765430450439e-01 1.326970607042312622e-01 1.184090040624141693e-02 -7.948223501443862915e-02 7.052132487297058105e-02 9.096405655145645142e-02 -1.999232321977615356e-01 -6.969436258077621460e-02 -4.893000796437263489e-02 -2.348325215280056000e-03 1.613509654998779297e-01 -1.620525568723678589e-01 -4.634725674986839294e-02 -1.338005214929580688e-01 -6.419035140424966812e-03 2.572237513959407806e-02 2.124036476016044617e-02 9.702795743942260742e-02 3.038873337209224701e-02 -1.100115329027175903e-01 6.045936420559883118e-02 -7.668973505496978760e-02 1.267817150801420212e-02 3.261058405041694641e-02 -1.195016689598560333e-02 -2.554755844175815582e-02 -4.473475739359855652e-02 7.698778808116912842e-02 5.191365629434585571e-02 -1.215505227446556091e-01 -6.360031664371490479e-02 5.642580613493919373e-02 7.785133272409439087e-02 4.587765142787247896e-04 1.657005250453948975e-01 2.939767576754093170e-02 7.174558937549591064e-02 1.283011883497238159e-01 -1.574053019285202026e-01 -1.519475728273391724e-01 3.092504478991031647e-02 1.046800389885902405e-01 -2.072347700595855713e-01 -6.789217144250869751e-02 -6.485804915428161621e-02 1.262523680925369263e-01 -6.272964924573898315e-02 1.623570322990417480e-01 1.009083539247512817e-02 -7.678216695785522461e-02 -1.049872487783432007e-02 8.927555382251739502e-02 -1.422290802001953125e-01 2.755914255976676941e-02 1.179434433579444885e-01 -1.099385507404804230e-02 3.822008147835731506e-02 1.248477473855018616e-01 -3.512210771441459656e-02 2.124212235212326050e-01 1.195064857602119446e-01 -3.978146240115165710e-02 -4.444156959652900696e-02 -1.755306869745254517e-01 1.303032636642456055e-01 -3.713015839457511902e-02 1.121093779802322388e-01 -1.506140083074569702e-01 -5.822685360908508301e-02 -1.122514083981513977e-01 -7.558675855398178101e-02 -2.063820064067840576e-01 -7.327096909284591675e-02 -1.121920198202133179e-01 6.150621175765991211e-02 -5.239802226424217224e-02 1.090160384774208069e-02 -1.237324625253677368e-01 -2.109385281801223755e-01 2.087370492517948151e-02 -3.286980837583541870e-02 6.628597527742385864e-02 9.660458564758300781e-02 -1.727316528558731079e-01 -6.316030025482177734e-02 1.574904657900333405e-02 1.971883028745651245e-01 9.118903428316116333e-02 5.956547707319259644e-02 -7.895515114068984985e-02 2.792890742421150208e-02 8.167374879121780396e-02 -1.970611810684204102e-01 1.901682466268539429e-02 1.841633915901184082e-01 -1.435046046972274780e-01 -9.808129072189331055e-02 -7.603430747985839844e-02
4.506773874163627625e-02 -3.089651837944984436e-02 -3.362364694476127625e-02 -3.737753629684448242e-02 -1.677118986845016479e-01 -1.738488487899303436e-02 -2.047751843929290771e-02 -2.752406895160675049e-02 8.511630445718765259e-02 -7.598884403705596924e-02 -1.760837435722351074e-02 -5.252628773450851440e-02 8.836910873651504517e-02 -7.043536752462387085e-02 3.981391340494155884e-02 -1.102265343070030212e-01 -5.605068057775497437e-02 7.862190902233123779e-02 -6.211696192622184753e-02 5.745397880673408508e-03 2.124966308474540710e-02 8.175488561391830444e-02 1.489986330270767212e-01 -1.072231829166412354e-01 1.662036925554275513e-01 8.801077306270599365e-02 -2.261581271886825562e-02 -2.227701991796493530e-02 7.568683475255966187e-02 -4.177150875329971313e-02 3.870377689599990845e-02 2.811166690662503242e-03 7.014580816030502319e-02 1.779425591230392456e-01 -3.105350583791732788e-02 -9.363257326185703278e-03 -3.288638778030872345e-03 -7.799598574638366699e-02 2.010441124439239502e-01 2.104917913675308228e-01 -6.785546243190765381e-02 4.463782161474227905e-02 9.917814284563064575e-03 5.034196004271507263e-02 5.045106261968612671e-02 -7.333432883024215698e-02 -7.267675548791885376e-02 -8.173730969429016113e-02 -8.512432873249053955e-02 1.205898821353912354e-01 7.212362438440322876e-02 -1.197195053100585938e-01 1.328882575035095215e-01 -8.642669022083282471e-02 1.460888981819152832e-01 2.017232030630111694e-02 3.673115000128746033e-02 1.566021936014294624e-03 -3.772049769759178162e-02 3.613972291350364685e-02 4.077064245939254761e-02 1.086843088269233704e-01 -8.674518321640789509e-04 -5.432390049099922180e-02 -9.825155138969421387e-02 9.382358938455581665e-02 1.645052433013916016e-01 -2.522930316627025604e-02 -9.268776327371597290e-02 -7.212157547473907471e-02 6.932488828897476196e-02 6.572603434324264526e-02 -9.328492730855941772e-02 7.412519305944442749e-02 4.620436206459999084e-02 -2.054786495864391327e-02 -4.821018874645233154e-02 9.850607067346572876e-02 -6.485129147768020630e-02 -4.168980196118354797e-02 5.678176879882812500e-03 1.562196016311645508e-01 2.081865519285202026e-01 -2.354582585394382477e-02 3.527635708451271057e-02 2.313304543495178223e-01 1.792807430028915405e-01 -2.210711874067783356e-02 -1.508798003196716309e-01 3.412067890167236328e-02 1.372655034065246582e-01 -4.071960970759391785e-02 1.381404995918273926e-01 6.148993968963623047e-02 -1.442497968673706055e-02 -9.626277536153793335e-02 1.195937469601631165e-01 4.419733583927154541e-02 7.991498708724975586e-02 1.607571244239807129e-01 2.774017304182052612e-02 -2.454223856329917908e-02 -1.532792001962661743e-01 6.104387715458869934e-02 -1.412214785814285278e-01 -1.216005384922027588e-01 -8.083878457546234131e-02 1.312842816114425659e-01 -1.011146083474159241e-01 -1.482006255537271500e-02 7.379740476608276367e-02 -7.361940806731581688e-04 -1.545415073633193970e-01 5.026691406965255737e-02 -5.758689716458320618e-02 -7.802233844995498657e-02 5.764091014862060547e-02 -5.168380588293075562e-02 -1.031886786222457886e-01 4.544559866189956665e-02 9.321719408035278320e-02 1.191649511456489563e-01 -4.673608019948005676e-02 3.860983252525329590e-02 1.099452227354049683e-01 -8.838378638029098511e-02 -3.180233761668205261e-02 -4.958043247461318970e-02 6.714848428964614868e-02 1.534893084317445755e-02 -4.706125333905220032e-02 -1.674183458089828491e-01 -7.736077159643173218e-02 -6.030730903148651123e-02 -1.727532967925071716e-02 8.939700573682785034e-02 -6.059230864048004150e-02 -9.052770584821701050e-02 7.075063139200210571e-02 -2.435375154018402100e-01 6.213863939046859741e-02 -3.400900214910507202e-02 -9.747972339391708374e-02 6.813921034336090088e-02 -8.028431236743927002e-02 6.444869935512542725e-02 6.699582189321517944e-02 5.006938427686691284e-02 6.024134904146194458e-02 1.107791345566511154e-02 -8.750845678150653839e-03 -4.122830182313919067e-02 7.803932577371597290e-02 -4.241458140313625336e-03 1.923232339322566986e-02 -9.026725590229034424e-02 2.780804969370365143e-02 5.361928790807723999e-02 1.244870852679014206e-02 4.037931933999061584e-02 -4.124476015567779541e-02 9.147944301366806030e-02 -1.300829052925109863e-01 7.029493153095245361e-02 -3.743435069918632507e-02 3.259260207414627075e-02 -9.834428131580352783e-02 2.677710726857185364e-02 -2.028163522481918335e-01 5.031343922019004822e-02 -1.080192402005195618e-01 1.720918342471122742e-02 1.497431993484497070e-01 8.001448214054107666e-02 -1.131045892834663391e-01 -1.046425923705101013e-01 -2.410250008106231689e-01 -8.038078248500823975e-02 -1.442109942436218262e-01 -1.220804378390312195e-01 1.127111315727233887e-01 6.960552930831909180e-02 5.842707678675651550e-02 7.921265065670013428e-02 5.925725400447845459e-02 5.210763961076736450e-02 1.234345063567161560e-01 1.094076633453369141e-01 3.080699965357780457e-02 1.829117089509963989e-01 5.665152519941329956e-02 -8.923953026533126831e-02 1.631421744823455811e-01 7.653833180665969849e-02 -7.226431369781494141e-02 3.909599781036376953e-02 -4.820084664970636368e-03 4.112203046679496765e-02 7.151327282190322876e-02 1.624864153563976288e-02 -6.966268178075551987e-03 -3.643190115690231323e-02 -4.256235435605049133e-02 -1.250470429658889771e-01 4.472985398024320602e-03 1.432122588157653809e-01 4.789083823561668396e-02 -4.586538299918174744e-02 -7.574448734521865845e-02 1.210727356374263763e-02 4.191377386450767517e-02 -5.359577015042304993e-03 -9.278563410043716431e-02 -3.327058255672454834e-02 2.232305854558944702e-01 -3.434571996331214905e-02 1.515072286128997803e-01 1.231457442045211792e-01 7.953829318284988403e-02 1.900312863290309906e-02 1.401654724031686783e-02 -3.277811780571937561e-02 1.826798170804977417e-02 -1.138839684426784515e-02 2.188616245985031128e-01 -3.439089655876159668e-02 6.610784679651260376e-02 -1.099422108381986618e-02 1.333157569169998169e-01 2.191379815340042114e-01 6.624079495668411255e-02 6.633100099861621857e-03 1.053857989609241486e-02 -3.148984163999557495e-02 2.719120308756828308e-02 -1.002855896949768066e-01 1.364423036575317383e-01 6.653226912021636963e-02 8.249522000551223755e-02 1.841001659631729126e-01 -8.297881484031677246e-02 -1.696194335818290710e-02 3.372085094451904297e-02 2.511417120695114136e-02 1.426460221409797668e-02 -3.473518788814544678e-02 5.955767631530761719e-02 2.310056425631046295e-02 1.045596227049827576e-01 -1.717512458562850952e-01 -1.152644027024507523e-02 -6.885866820812225342e-02 1.486094552092254162e-03 1.674196571111679077e-01 -3.521506860852241516e-02 1.099108625203371048e-02
9.415948390960693359e-02 -1.360317468643188477e-01 6.172420457005500793e-02 -6.380686908960342407e-02 5.501024425029754639e-03 2.734808623790740967e-02 7.189158350229263306e-03 3.080253116786479950e-02 -2.600587904453277588e-02 9.694399684667587280e-02 -2.413867972791194916e-02 7.519211620092391968e-02 -4.709419235587120056e-02 -7.942879945039749146e-02 1.170157566666603088e-01 -6.083555519580841064e-02 4.760892689228057861e-02 1.242420747876167297e-01 -1.598599106073379517e-01 -1.062284931540489197e-01 1.657132245600223541e-02 -2.649661712348461151e-02 -1.364060342311859131e-01 8.642182499170303345e-02 4.611721262335777283e-02 1.397096216678619385e-01 -1.236705407500267029e-01 -3.232952207326889038e-02 2.038568109273910522e-01 -4.462066665291786194e-02 -1.644874736666679382e-02 -9.083322435617446899e-02 -4.468966275453567505e-02 -3.027078881859779358e-02 -8.086352795362472534e-02 -1.698806183412671089e-03 -1.088473051786422729e-01 -1.625942289829254150e-01 1.988345012068748474e-02 8.382514119148254395e-02 8.102874457836151123e-02 -1.259466260671615601e-01 6.616552174091339111e-02 2.462935401126742363e-03 1.166614815592765808e-01 -7.917796820402145386e-02 -1.060322597622871399e-01 1.621950790286064148e-02 -5.659744888544082642e-02 4.351397603750228882e-02 -1.172136366367340088e-01 -9.631138294935226440e-02 1.427203267812728882e-01 1.103705242276191711e-01 7.605393230915069580e-02 1.050440818071365356e-01 8.196034282445907593e-02 1.907466799020767212e-01 -4.009875655174255371e-02 -1.364137828350067139e-01 1.013779044151306152e-01 4.711281135678291321e-02 3.556701354682445526e-03 2.631733193993568420e-02 1.039820909500122070e-01 9.900521486997604370e-02 5.170925706624984741e-02 1.157919541001319885e-01 1.291173510253429413e-02 -2.752105519175529480e-02 -2.386471815407276154e-02 7.580490410327911377e-02 -2.637226507067680359e-02 1.807818412780761719e-01 1.299567073583602905e-01 1.500354260206222534e-01 -5.882995948195457458e-02 1.008212640881538391e-01 -5.060497205704450607e-03 2.124461531639099121e-02 1.776691824197769165e-01 -7.966853678226470947e-02 -1.522068381309509277e-01 1.424126029014587402e-01 -4.380623996257781982e-02 2.251945808529853821e-02 1.671623885631561279e-01 5.455253645777702332e-02 -1.390560269355773926e-01 -1.186858564615249634e-01 7.764651440083980560e-03 -2.243812195956707001e-02 -1.305277943611145020e-01 8.818720281124114990e-02 -1.120695378631353378e-02 6.796903163194656372e-02 -1.113618910312652588e-01 4.265997186303138733e-02 -3.422164171934127808e-02 1.000124216079711914e-01 6.190256774425506592e-02 4.860731959342956543e-02 9.483824670314788818e-02 -5.849507823586463928e-02 -9.094291925430297852e-02 2.114353328943252563e-02 1.739174500107765198e-02 1.096974834799766541e-01 -5.949988961219787598e-02 -4.979068413376808167e-02 5.461700260639190674e-02 -9.943494200706481934e-02 7.028160244226455688e-02 1.505550295114517212e-01 -1.413413733243942261e-01 2.996182255446910858e-02 5.848054960370063782e-02 -8.352231234312057495e-02 2.000761590898036957e-02 -1.464386582374572754e-01 5.493604391813278198e-02 -7.539690285921096802e-02 -5.924572795629501343e-02 -2.853139862418174744e-02 8.432474732398986816e-02 1.322120279073715210e-01 -1.365703940391540527e-01 9.836904704570770264e-02 1.323418766260147095e-01 5.428131669759750366e-02 5.986566096544265747e-02 -1.222770959138870239e-01 -6.707611680030822754e-02 1.194886043667793274e-01 -2.612770162522792816e-02 1.298385858535766602e-02 1.126916483044624329e-01 5.711274221539497375e-02 -1.698208153247833252e-01 -1.548475176095962524e-01 8.030436001718044281e-03 3.482595831155776978e-02 -4.980818554759025574e-02 -5.598669871687889099e-02 -6.215312331914901733e-02 2.041961997747421265e-01 -7.444154471158981323e-02 -1.516086608171463013e-02 -8.494414389133453369e-02 -1.127236100728623569e-04 1.604835316538810730e-02 -7.694041728973388672e-02 -1.332421507686376572e-02 1.038017962127923965e-02 2.829638309776782990e-02 -9.710634127259254456e-03 -3.637254610657691956e-02 -7.604995369911193848e-02 -2.241541817784309387e-02 1.737739145755767822e-02 1.381229329854249954e-02 -9.373238682746887207e-02 9.731351584196090698e-02 3.643311187624931335e-02 -2.350252866744995117e-02 -1.532513201236724854e-01 3.337202128022909164e-03 1.730763018131256104e-01 1.260197758674621582e-01 6.945116072893142700e-02 6.482074409723281860e-02 1.900856569409370422e-02 5.290945991873741150e-02 -2.557430230081081390e-02 -3.651696443557739258e-02 -8.657704293727874756e-02 -6.668664049357175827e-03 8.824275434017181396e-02 -1.968495175242424011e-02 1.107101514935493469e-01 5.684221535921096802e-02 1.000801771879196167e-01 1.545102149248123169e-02 -1.085390523076057434e-02 1.356205046176910400e-01 1.586240832693874836e-04 -2.680058963596820831e-02 -6.959746778011322021e-02 3.981838747859001160e-02 -8.366356790065765381e-02 -4.758247733116149902e-02 4.483519494533538818e-02 9.910929948091506958e-03 1.318318117409944534e-02 8.569137752056121826e-02 2.233061753213405609e-02 3.948819637298583984e-02 6.372950226068496704e-02 -9.781911037862300873e-03 1.130690146237611771e-02 -2.560763657093048096e-01 5.538664292544126511e-03 -7.237174082547426224e-03 9.981442987918853760e-02 2.453292906284332275e-01 -1.758143007755279541e-01 -2.041812092065811157e-01 -9.269612282514572144e-02 -4.332469031214714050e-02 9.079591929912567139e-02 -1.755882650613784790e-01 -4.065114259719848633e-02 -7.024843245744705200e-02 -5.377442762255668640e-02 1.721570193767547607e-01 -6.680149585008621216e-02 -5.275726318359375000e-02 5.960143730044364929e-02 -5.025641247630119324e-02 6.377575546503067017e-02 1.185035798698663712e-02 2.398664504289627075e-02 -5.176521465182304382e-02 2.610781043767929077e-02 -8.406098932027816772e-02 -5.696520954370498657e-02 -1.019309610128402710e-01 -6.808643694967031479e-03 5.479900166392326355e-02 -3.203037660568952560e-03 9.124539047479629517e-02 -1.247769314795732498e-02 1.051082368940114975e-02 -5.177260190248489380e-02 -5.406754091382026672e-02 -2.580228447914123535e-01 -1.224263608455657959e-01 1.897917687892913818e-02 4.645880684256553650e-02 1.644961535930633545e-01 1.044560596346855164e-01 1.087204739451408386e-01 4.580275714397430420e-02 -7.510407269001007080e-02 -2.564166858792304993e-02 -8.364589512348175049e-02 -8.354310691356658936e-02 2.724184654653072357e-02 -3.086364641785621643e-02 -5.252739787101745605e-02 2.384295128285884857e-02 -1.879177689552307129e-01 -6.160914152860641479e-02 -2.029574215412139893e-01 1.137045100331306458e-01 -2.032804116606712341e-02
-4.982834309339523315e-02 1.503765732049942017e-01 -3.506748005747795105e-02 1.831990927457809448e-01 -1.225321516394615173e-01 4.071297496557235718e-02 -9.143818169832229614e-03 1.981454789638519287e-01 6.879963725805282593e-02 -4.478633776307106018e-02 -9.111266583204269409e-02 -3.715298324823379517e-02 2.939608320593833923e-02 7.063988596200942993e-02 -1.119299512356519699e-02 4.491574130952358246e-03 9.677949547767639160e-02 -7.782001793384552002e-02 -8.300913125276565552e-02 -9.225246496498584747e-03 9.018618613481521606e-02 -2.793056331574916840e-02 1.690031290054321289e-01 7.321388274431228638e-02 8.231908082962036133e-02 1.173546761274337769e-01 -7.890536449849605560e-03 3.400455415248870850e-02 -4.693885892629623413e-02 4.578611627221107483e-02 -2.837857604026794434e-02 -9.043456055223941803e-03 -2.596250474452972412e-01 -1.577716171741485596e-01 6.538757681846618652e-02 -5.794404447078704834e-02 6.867256015539169312e-02 2.759191952645778656e-02 1.099526807665824890e-01 -1.119056493043899536e-01 7.834173738956451416e-02 -8.222696185111999512e-02 -9.425678849220275879e-02 -3.045358322560787201e-02 1.569930277764797211e-02 -6.509713083505630493e-02 -1.289097964763641357e-01 -1.000225841999053955e-01 -8.240624517202377319e-02 -1.149223297834396362e-01 9.232232719659805298e-02 -2.013939805328845978e-02 -3.086321055889129639e-02 -1.150573268532752991e-01 -6.029771640896797180e-02 7.557122409343719482e-02 6.019400060176849365e-02 4.146029800176620483e-02 2.831871062517166138e-02 1.721197664737701416e-01 4.236832633614540100e-02 1.203965470194816589e-01 4.136712849140167236e-02 3.358060866594314575e-02 -5.623296648263931274e-02 7.397300750017166138e-02 -2.166507206857204437e-02 -3.767463192343711853e-02 -1.004263088107109070e-01 7.476244121789932251e-02 1.341502517461776733e-01 8.005718886852264404e-02 -5.405385419726371765e-02 4.233340919017791748e-02 -7.016643881797790527e-02 -1.108272001147270203e-01 -1.511533260345458984e-01 -1.177612617611885071e-01 7.549797184765338898e-03 2.250990271568298340e-02 -2.538462914526462555e-02 -2.443455532193183899e-02 2.499807067215442657e-02 4.261258617043495178e-02 -9.391168504953384399e-02 7.773852348327636719e-02 -6.997524201869964600e-02 1.217833682894706726e-01 7.012106478214263916e-02 3.032989054918289185e-02 3.083287551999092102e-02 -6.564469635486602783e-02 3.714203462004661560e-02 -5.475210025906562805e-02 -1.668986119329929352e-02 -5.555123556405305862e-03 1.790376007556915283e-02 2.998538315296173096e-02 7.916162163019180298e-02 4.445118457078933716e-02 1.385612338781356812e-01 1.955598592758178711e-03 -9.387094527482986450e-02 4.204070940613746643e-02 7.307459414005279541e-02 -1.428251713514328003e-01 -7.352873682975769043e-02 -5.170160159468650818e-02 -2.314567379653453827e-02 -5.383642390370368958e-02 8.048044145107269287e-02 -4.024244844913482666e-02 -1.009217649698257446e-01 1.420585811138153076e-01 8.411717414855957031e-02 -1.506768167018890381e-02 1.207465678453445435e-01 -1.507282350212335587e-02 -1.550125181674957275e-01 -1.064736396074295044e-01 -1.895676553249359131e-02 -6.657964736223220825e-02 3.688886016607284546e-02 -1.600960642099380493e-02 -8.331884443759918213e-02 -9.530925005674362183e-02 -1.642440259456634521e-01 9.226082265377044678e-02 1.023160591721534729e-01 -2.268665935844182968e-03 -2.424369454383850098e-01 -1.309111565351486206e-01 -2.416521310806274414e-01 -6.680128630250692368e-03 -9.922833740711212158e-02 -4.796901717782020569e-02 4.748819395899772644e-02 -2.840568870306015015e-02 -1.484274417161941528e-01 -1.288750767707824707e-01 -2.620610967278480530e-02 -3.091325238347053528e-02 3.842275217175483704e-02 2.438127547502517700e-01 -7.290332764387130737e-02 -3.642924129962921143e-02 -1.390191316604614258e-01 -1.923821168020367622e-03 4.792395606637001038e-02 -2.840984761714935303e-01 8.663537353277206421e-02 3.861364722251892090e-02 -3.836406022310256958e-02 -4.384336248040199280e-02 -6.201664730906486511e-02 5.352784693241119385e-02 5.362170282751321793e-03 -5.777513608336448669e-02 2.112753689289093018e-01 2.358916215598583221e-02 1.334333270788192749e-01 4.144839197397232056e-02 -1.812756247818470001e-02 9.346402436494827271e-02 2.431893255561590195e-03 -9.412042051553726196e-02 3.960408642888069153e-02 5.573185533285140991e-02 -4.504263401031494141e-02 3.571749851107597351e-02 6.068789586424827576e-02 7.069115340709686279e-02 1.204772740602493286e-01 -6.750628817826509476e-03 -1.392881199717521667e-02 3.865366801619529724e-02 3.801926597952842712e-02 6.368744373321533203e-02 -1.578183472156524658e-01 -2.822569943964481354e-02 4.556190595030784607e-02 8.898482471704483032e-02 9.359558112919330597e-03 -1.212232410907745361e-01 1.097734123468399048e-01 1.201798208057880402e-02 1.670865528285503387e-02 -1.562464833259582520e-01 1.121749877929687500e-01 4.095461964607238770e-02 -4.728537052869796753e-02 1.090106740593910217e-01 1.947369799017906189e-02 -1.010266318917274475e-02 2.202946320176124573e-02 1.677644699811935425e-01 1.478651463985443115e-01 1.172717511653900146e-01 -6.211581453680992126e-02 4.124570637941360474e-02 2.339732050895690918e-01 9.650572389364242554e-02 -6.608407199382781982e-02 1.419870406389236450e-01 8.723270148038864136e-02 -1.260207965970039368e-02 -3.406948223710060120e-02 4.963802173733711243e-02 9.902238380163908005e-04 4.499276727437973022e-02 -1.040997877717018127e-01 9.523916989564895630e-02 -8.814446628093719482e-02 4.160188138484954834e-02 -5.791353806853294373e-02 8.626091480255126953e-02 6.576504558324813843e-02 -1.182665005326271057e-01 6.137187778949737549e-02 2.205246686935424805e-02 -9.069439023733139038e-02 8.367783389985561371e-03 -1.978195160627365112e-01 4.571378976106643677e-02 1.620268672704696655e-01 -1.536859869956970215e-01 8.046861737966537476e-02 -6.550927460193634033e-02 1.210623160004615784e-01 -5.686896294355392456e-02 -1.610129699110984802e-02 -5.662218853831291199e-02 1.138061657547950745e-01 3.859840333461761475e-02 -2.546335011720657349e-02 1.889405213296413422e-02 -2.377477101981639862e-02 -1.642280444502830505e-02 8.840233087539672852e-02 1.841261237859725952e-02 1.293115615844726562e-01 6.035303696990013123e-02 3.621449694037437439e-02 2.842657268047332764e-03 1.497234404087066650e-02 -1.596276275813579559e-02 4.452907666563987732e-02 1.084667444229125977e-01 6.607264280319213867e-02 -1.895067244768142700e-01 4.234917461872100830e-02 -2.887855842709541321e-02 5.118416622281074524e-02 -5.297221243381500244e-02 3.419768065214157104e-02 -6.435629725456237793e-02
-6.025063246488571167e-02 -1.156555861234664917e-01 8.112423121929168701e-03 1.250251382589340210e-02 5.832929909229278564e-02 -2.198680788278579712e-01 -1.530695110559463501e-01 1.037177518010139465e-01 1.258287727832794189e-01 -9.823269397020339966e-02 4.948461428284645081e-02 -1.976798661053180695e-02 1.231084670871496201e-02 3.059095516800880432e-02 9.529764205217361450e-02 -8.050736784934997559e-02 -3.146501779556274414e-01 2.322108857333660126e-02 -4.043773561716079712e-02 -1.829084903001785278e-01 -7.893877476453781128e-02 -3.958673623856157064e-04 6.360568106174468994e-03 2.013927698135375977e-01 -2.000455707311630249e-01 -1.883669011294841766e-02 8.410353213548660278e-02 5.814437940716743469e-02 1.429961770772933960e-01 -1.241366937756538391e-01 2.361718751490116119e-02 -2.795293740928173065e-02 1.360179483890533447e-01 -1.478182524442672729e-01 5.030687525868415833e-02 -9.087656438350677490e-02 -8.302964270114898682e-02 1.366387456655502319e-01 -9.084358811378479004e-03 -5.118990316987037659e-02 -9.360702335834503174e-02 4.877366125583648682e-02 -3.090550899505615234e-01 1.151036322116851807e-01 -7.114151120185852051e-02 3.858048934489488602e-03 1.142651401460170746e-02 2.683747373521327972e-02 -4.497386142611503601e-02 -5.266874283552169800e-02 1.473589986562728882e-01 -3.204709291458129883e-02 -2.457335777580738068e-02 -1.980584710836410522e-01 1.124187335371971130e-01 5.033433809876441956e-02 -9.604345262050628662e-02 -7.891234755516052246e-02 3.973628953099250793e-02 -4.136262461543083191e-02 3.828007029369473457e-03 -1.201692223548889160e-02 3.466689214110374451e-02 7.469387352466583252e-02 -5.230376124382019043e-02 -1.215269882231950760e-02 5.236280336976051331e-02 1.425581146031618118e-02 -3.833274543285369873e-02 -6.229679659008979797e-02 4.728853330016136169e-02 7.345273345708847046e-02 -3.617128357291221619e-02 2.406411245465278625e-02 1.115729957818984985e-01 1.243501678109169006e-01 -2.868857085704803467e-01 2.113811857998371124e-02 -4.905332252383232117e-02 1.939937844872474670e-02 -6.943915784358978271e-02 -2.922756597399711609e-02 3.106585144996643066e-02 6.945733726024627686e-02 -3.212297260761260986e-01 -1.324094086885452271e-01 -2.228827178478240967e-01 2.932371571660041809e-02 -2.812443114817142487e-02 7.414324581623077393e-02 1.097520291805267334e-01 1.277118921279907227e-02 -6.922823190689086914e-02 -8.548042736947536469e-03 4.789681360125541687e-02 -2.322929725050926208e-02 -1.419827193021774292e-01 4.142357781529426575e-02 -4.928833618760108948e-02 4.537296015769243240e-03 -1.259094029664993286e-01 1.151548884809017181e-02 -1.355955004692077637e-01 -1.285999715328216553e-01 4.719941690564155579e-02 -1.561640482395887375e-02 1.041123718023300171e-01 1.135134696960449219e-01 -1.474935328587889671e-03 -5.323615856468677521e-03 -4.628113284707069397e-02 1.492408215999603271e-01 1.532397866249084473e-01 -9.127719700336456299e-02 5.521668121218681335e-02 -6.209436058998107910e-02 7.737352699041366577e-02 6.920712441205978394e-02 -1.458698064088821411e-01 1.927632279694080353e-02 -6.819321960210800171e-02 1.136675029993057251e-01 -1.412404328584671021e-01 -8.312275260686874390e-02 -2.936840243637561798e-02 1.751450449228286743e-01 1.207297965884208679e-01 -1.619588583707809448e-02 6.748531479388475418e-03 1.060160025954246521e-01 2.488271333277225494e-02 7.950976490974426270e-03 -1.137391775846481323e-01 -6.932449527084827423e-03 4.257735982537269592e-02 4.521857202053070068e-02 -3.512822091579437256e-02 -9.863656014204025269e-02 -1.837178617715835571e-01 -3.034420870244503021e-02 -2.071585878729820251e-02 1.236691325902938843e-01 3.915721550583839417e-02 4.183565452694892883e-02 -1.351172775030136108e-01 8.264118432998657227e-02 -1.769001930952072144e-01 1.996576637029647827e-01 -1.276258379220962524e-02 1.016476824879646301e-01 9.739235788583755493e-02 1.185970902442932129e-01 -1.684008240699768066e-01 -7.128711789846420288e-02 -6.533712893724441528e-02 -7.803320884704589844e-02 -7.183882407844066620e-04 1.224960461258888245e-01 -6.576801836490631104e-02 5.631515383720397949e-02 -3.071838617324829102e-02 -5.971596390008926392e-02 -8.491506427526473999e-02 7.051886618137359619e-02 2.416645549237728119e-02 2.436535805463790894e-01 1.085158661007881165e-01 7.567454129457473755e-02 1.547776162624359131e-01 -6.878135260194540024e-03 -6.029616668820381165e-02 1.462987363338470459e-01 6.087337061762809753e-02 -1.025704480707645416e-02 2.131721563637256622e-02 1.189915165305137634e-01 1.165506169199943542e-01 -2.733791768550872803e-01 1.198403630405664444e-02 -6.960510276257991791e-03 -6.952881813049316406e-03 -1.476867794990539551e-01 -8.222226053476333618e-02 1.373965013772249222e-02 -1.696422845125198364e-01 -9.909725748002529144e-03 1.491717994213104248e-01 -8.102737367153167725e-03 -5.640473961830139160e-02 -1.032774373888969421e-01 2.228432334959506989e-02 7.896921783685684204e-02 1.371881663799285889e-01 -2.755801007151603699e-02 -2.010237425565719604e-02 1.154019162058830261e-01 -7.948902249336242676e-02 -4.901740700006484985e-03 7.561401277780532837e-02 6.826967746019363403e-02 -7.467664778232574463e-02 -1.081663891673088074e-01 1.286668181419372559e-01 2.145959064364433289e-02 -2.728490531444549561e-01 4.970837384462356567e-03 6.734992493875324726e-04 2.648965269327163696e-02 -7.169838249683380127e-02 -7.423084974288940430e-02 -1.435260660946369171e-02 -4.630431905388832092e-02 1.216074600815773010e-01 6.723131984472274780e-02 2.095269262790679932e-01 -1.152162924408912659e-01 5.158675089478492737e-02 6.179399788379669189e-03 -9.192418307065963745e-02 1.234268397092819214e-01 1.660909689962863922e-02 -1.027269959449768066e-01 5.918046832084655762e-02 1.544805914163589478e-01 -9.035127609968185425e-02 -2.441266775131225586e-01 1.114842072129249573e-01 -3.345819655805826187e-03 -1.095135137438774109e-02 -5.872009694576263428e-02 2.776280790567398071e-02 -1.558294594287872314e-01 -4.070963338017463684e-02 -5.241089966148138046e-03 -3.422744944691658020e-02 -4.871522635221481323e-02 -2.226472087204456329e-02 5.195145681500434875e-02 -2.862290479242801666e-03 2.469050884246826172e-01 -7.513692975044250488e-02 -1.299153864383697510e-01 4.404446110129356384e-02 -1.298005878925323486e-02 3.231813386082649231e-02 4.548230767250061035e-02 8.413098007440567017e-02 -2.746161520481109619e-01 9.892895817756652832e-02 6.828271597623825073e-02 -4.705992341041564941e-02 8.819487690925598145e-02 -6.519703567028045654e-02 -3.069765567779541016e-01 1.573312133550643921e-01 -1.365565788000822067e-02
