3.821416497230529785e-01
3.766484558582305908e-01
-4.433957040309906006e-01
-5.131288170814514160e-01
3.981448113918304443e-01
3.702548146247863770e-01
-2.508806586265563965e-01
-3.222625255584716797e-01
3.859196305274963379e-01
-4.521233439445495605e-01
1.678795367479324341e-01
4.223148226737976074e-01
4.235643446445465088e-01
2.333969622850418091e-01
1.189226657152175903e-01
-3.999007046222686768e-01
3.862134516239166260e-01
-4.629238843917846680e-01
3.019801080226898193e-01
4.687426686286926270e-01
4.098856151103973389e-01
-3.148094713687896729e-01
4.580629765987396240e-01
3.455777168273925781e-01
4.233256876468658447e-01
-5.186381340026855469e-01
-4.263584315776824951e-01
3.678356707096099854e-01
-5.652065873146057129e-01
-5.126049518585205078e-01
-4.255447983741760254e-01
4.240903556346893311e-01
4.238537847995758057e-01
3.940800428390502930e-01
3.663761615753173828e-01
3.842240571975708008e-01
-5.135855674743652344e-01
2.506145536899566650e-01
5.222690701484680176e-01
1.090005561709403992e-01
-4.103337526321411133e-01
-3.801148831844329834e-01
-4.734689891338348389e-01
2.827211618423461914e-01
-3.258202672004699707e-01
4.506573677062988281e-01
2.059073299169540405e-01
4.196822941303253174e-01
3.618843555450439453e-01
5.105673670768737793e-01
4.376287385821342468e-02
-3.745627999305725098e-01
-3.005945980548858643e-01
-3.273352086544036865e-01
5.224527120590209961e-01
2.498582303524017334e-01
5.297448635101318359e-01
3.298003077507019043e-01
2.688440382480621338e-01
3.324035108089447021e-01
5.800633504986763000e-02
4.291131198406219482e-01
3.672345578670501709e-01
3.368907868862152100e-01
4.638347923755645752e-01
3.970529139041900635e-01
4.192836284637451172e-01
2.028496563434600830e-01
3.359559178352355957e-01
3.475978374481201172e-01
4.154111146926879883e-01
3.326223790645599365e-01
-4.554412364959716797e-01
-9.406949579715728760e-02
3.508122861385345459e-01
4.619430005550384521e-01
4.437329173088073730e-01
3.085511624813079834e-01
3.093299865722656250e-01
2.717504203319549561e-01
-3.543978333473205566e-01
4.810177087783813477e-01
4.293674230575561523e-01
2.403226643800735474e-01
3.957982957363128662e-01
-3.970597982406616211e-01
-2.298199832439422607e-01
4.440486133098602295e-01
-4.002834856510162354e-01
4.544417560100555420e-01
5.649787783622741699e-01
-3.017203211784362793e-01
4.248934984207153320e-01
2.810094356536865234e-01
-2.591319680213928223e-01
4.122503101825714111e-01
2.849954664707183838e-01
3.051012456417083740e-01
-3.630281686782836914e-01
2.365317940711975098e-01
3.561463952064514160e-01
4.063064754009246826e-01
5.277667641639709473e-01
3.758423924446105957e-01
2.534017264842987061e-01
4.000741839408874512e-01
5.035887956619262695e-01
3.703330159187316895e-01
-3.588986098766326904e-01
4.398025274276733398e-01
-4.883202314376831055e-01
3.957981169223785400e-01
3.793033361434936523e-01
-1.233282387256622314e-01
2.814235687255859375e-01
3.948263823986053467e-01
-1.820430904626846313e-01
-5.002511143684387207e-01
3.836898207664489746e-01
2.697945535182952881e-01
2.839424610137939453e-01
3.091686367988586426e-01
2.839072644710540771e-01
-3.441571295261383057e-01
2.712084650993347168e-01
4.365950524806976318e-01
-4.283568859100341797e-01
4.887723624706268311e-01
3.074153363704681396e-01
4.073964953422546387e-01
-4.890105128288269043e-01
2.688153386116027832e-01
4.372955262660980225e-01
3.957078754901885986e-01
-3.822506964206695557e-01
3.706570267677307129e-01
-2.163705378770828247e-01
-4.116266071796417236e-01
4.689968228340148926e-01
3.739065825939178467e-01
5.231552720069885254e-01
-3.348831832408905029e-01
2.854039072990417480e-01
5.156866908073425293e-01
3.660152554512023926e-01
3.886156380176544189e-01
-2.896328568458557129e-01
-3.695695102214813232e-01
4.935208857059478760e-01
4.276571273803710938e-01
4.159874618053436279e-01
4.942263662815093994e-01
5.110238194465637207e-01
4.449766576290130615e-01
5.123326554894447327e-02
-1.722848117351531982e-01
4.551577568054199219e-01
3.779910206794738770e-01
-4.029341042041778564e-01
4.143294990062713623e-01
-5.076315999031066895e-01
4.086273312568664551e-01
-4.633442685008049011e-02
4.195016622543334961e-01
-5.087011456489562988e-01
-1.220033168792724609e-01
3.919285535812377930e-01
-5.455012321472167969e-01
3.935147523880004883e-01
-4.597213268280029297e-01
3.794582188129425049e-01
3.393285572528839111e-01
-1.399173289537429810e-01
-1.985936313867568970e-01
4.592161774635314941e-01
4.384714066982269287e-01
4.867020249366760254e-01
4.089076220989227295e-01
3.683815896511077881e-01
3.386512398719787598e-01
5.041517615318298340e-01
4.094361960887908936e-01
5.278074741363525391e-01
-4.688574373722076416e-01
-5.142448544502258301e-01
2.498019039630889893e-01
5.007561445236206055e-01
-4.094465672969818115e-01
4.094564318656921387e-01
3.797433674335479736e-01
2.500424981117248535e-01
2.946172952651977539e-01
5.011740326881408691e-01
2.037529349327087402e-01
3.494602739810943604e-01
-5.627987384796142578e-01
4.113102257251739502e-01
4.788920283317565918e-01
3.047209680080413818e-01
4.241620004177093506e-01
5.157352685928344727e-01
2.043355852365493774e-01
1.184068918228149414e-01
-1.657021194696426392e-01
-2.152773737907409668e-01
3.684326112270355225e-01
3.943214118480682373e-01
4.292601048946380615e-01
3.794485032558441162e-01
-5.546790361404418945e-01
4.906621575355529785e-01
4.851784110069274902e-01
3.403552770614624023e-01
5.035255551338195801e-01
3.710132241249084473e-01
4.386387765407562256e-01
3.252166509628295898e-01
-1.886098384857177734e-01
3.486336767673492432e-01
4.608695805072784424e-01
3.097215890884399414e-01
4.796475470066070557e-01
-4.234333336353302002e-01
-3.918741941452026367e-01
3.287709355354309082e-01
2.465013414621353149e-01
5.034358501434326172e-01
3.648740053176879883e-01
4.095193743705749512e-01
2.795569002628326416e-01
-2.602459788322448730e-01
-5.670385956764221191e-01
4.765563011169433594e-01
2.218471169471740723e-01
-3.649701774120330811e-01
2.966198027133941650e-01
2.673464715480804443e-01
2.962160706520080566e-01
3.950340151786804199e-01
-1.817461699247360229e-01
3.183771967887878418e-01
-3.386677801609039307e-01
3.824034333229064941e-01
4.849006831645965576e-01
4.508095085620880127e-01
3.722906112670898438e-01
-3.562990725040435791e-01
-1.962349861860275269e-01
4.330976307392120361e-01
4.216902554035186768e-01
-1.361814290285110474e-01
-1.385378241539001465e-01
-4.896969199180603027e-01
2.534827589988708496e-01
-4.204548597335815430e-01
3.710033297538757324e-01
