-8.286638557910919189e-02
-4.876321181654930115e-02
-2.757191658020019531e-02
-1.035419777035713196e-01
4.422597959637641907e-02
1.828757300972938538e-02
1.244727522134780884e-02
-3.600584715604782104e-02
2.578210830688476562e-02
2.377129346132278442e-02
5.232114810496568680e-03
2.407130412757396698e-02
-5.398136377334594727e-02
-5.763003230094909668e-02
-1.774235628545284271e-02
-1.198208779096603394e-01
-1.196112297475337982e-02
-1.745806187391281128e-01
-7.708245422691106796e-03
-2.548274956643581390e-02
3.335978370159864426e-03
-2.414401061832904816e-02
1.425258815288543701e-02
-4.395953845232725143e-03
-1.565348915755748749e-02
-5.720826610922813416e-02
-9.519897401332855225e-02
-2.545103803277015686e-02
-9.860137850046157837e-02
-5.390626192092895508e-02
-1.818462274968624115e-02
-2.385747432708740234e-02
-3.197159990668296814e-02
4.372370988130569458e-02
3.051063418388366699e-02
-1.061383113265037537e-01
-7.772357761859893799e-02
4.391425102949142456e-02
-2.261128276586532593e-02
1.324720084667205811e-01
-1.939912140369415283e-02
7.893910259008407593e-02
-1.401297864504158497e-03
2.779785729944705963e-02
5.500829592347145081e-02
2.681859955191612244e-02
-2.524030767381191254e-02
5.905833095312118530e-03
-6.507797539234161377e-02
-3.935876768082380295e-03
-9.647083468735218048e-03
-2.450060844421386719e-02
2.171181514859199524e-02
5.031363293528556824e-02
-1.431534066796302795e-02
7.829381525516510010e-02
-1.277599483728408813e-02
-4.257251508533954620e-03
-1.948203332722187042e-02
-7.208215445280075073e-02
-2.347019687294960022e-02
-6.326023489236831665e-02
1.108618639409542084e-02
-3.136867284774780273e-02
7.098298985511064529e-03
-8.086450397968292236e-03
-3.587418794631958008e-02
5.746967718005180359e-02
1.220308430492877960e-02
-5.053087370470166206e-04
2.017464116215705872e-02
-1.070009451359510422e-02
5.748369731009006500e-03
1.040607020258903503e-01
7.030767854303121567e-03
1.952657592482864857e-03
4.469770565629005432e-02
-1.355468062683939934e-03
-1.558850854635238647e-01
-3.497954457998275757e-02
-7.437692582607269287e-02
-9.368276223540306091e-03
-1.003628969192504883e-02
1.076602414250373840e-01
3.570272773504257202e-02
-1.158828660845756531e-01
-1.227648579515516758e-03
-3.270616009831428528e-02
-1.630576886236667633e-02
7.405272126197814941e-02
1.402984489686787128e-03
1.217321958392858505e-02
-1.049607992172241211e-01
-2.332211658358573914e-02
-4.211705923080444336e-02
-6.281215231865644455e-03
-8.178761601448059082e-02
7.654782850295305252e-03
-1.102229021489620209e-02
8.961274288594722748e-03
4.113272763788700104e-03
2.809018455445766449e-02
-7.462003268301486969e-04
-5.697191506624221802e-02
-1.146094780415296555e-02
3.369961678981781006e-02
-6.433605402708053589e-02
-3.246097639203071594e-02
-9.018716961145401001e-02
-9.267425164580345154e-03
2.507476508617401123e-02
-8.918415009975433350e-02
5.659447237849235535e-02
-2.316479384899139404e-02
4.530298523604869843e-03
2.586178481578826904e-02
7.519123703241348267e-02
-6.572134792804718018e-02
-5.582696944475173950e-02
6.787110469304025173e-04
-7.471103221178054810e-02
6.129788607358932495e-02
6.308133155107498169e-02
-5.881273187696933746e-03
1.558685582131147385e-02
-2.160422131419181824e-02
-5.712758377194404602e-02
-2.323660999536514282e-02
6.506686657667160034e-02
-2.079367078840732574e-02
-3.491145372390747070e-02
-5.124650429934263229e-03
4.138032719492912292e-02
-9.604392945766448975e-02
-3.578764572739601135e-02
-1.233123093843460083e-01
4.619860649108886719e-02
-2.712866291403770447e-02
-3.463159129023551941e-02
-1.140814423561096191e-01
6.914019584655761719e-02
4.779710248112678528e-02
4.801103845238685608e-02
-5.801029875874519348e-02
6.471862085163593292e-03
-1.197957317344844341e-03
-4.516994208097457886e-02
1.080427784472703934e-02
-1.297249048948287964e-01
-9.924057126045227051e-02
-3.180744498968124390e-02
-4.912351071834564209e-02
-4.793348535895347595e-02
5.931369587779045105e-02
-2.949898689985275269e-02
7.677089888602495193e-03
-2.174237929284572601e-02
-2.726564183831214905e-02
-4.790303856134414673e-02
4.525117576122283936e-03
3.787607327103614807e-02
5.365975946187973022e-02
-6.039194762706756592e-02
-4.416326060891151428e-02
5.803582817316055298e-02
4.711806029081344604e-02
1.063896808773279190e-02
-1.506200991570949554e-02
5.051050707697868347e-02
1.046368405222892761e-01
3.141826018691062927e-03
9.649563580751419067e-03
-7.976304739713668823e-02
-7.295443117618560791e-02
-1.934642717242240906e-02
-5.955858901143074036e-02
-4.195122513920068741e-03
-1.077578589320182800e-01
2.759186178445816040e-02
1.627077721059322357e-02
9.378589689731597900e-02
-6.319604814052581787e-02
-4.191841930150985718e-02
-1.547562479972839355e-01
-6.144029274582862854e-02
-3.305721282958984375e-02
-7.344987988471984863e-02
-2.111412957310676575e-02
-5.400067940354347229e-02
-4.866765439510345459e-02
3.003298491239547729e-02
-7.654916495084762573e-02
5.210985988378524780e-02
3.577965777367353439e-03
-9.570973925292491913e-03
-1.537571381777524948e-02
1.981680048629641533e-03
-1.434136927127838135e-01
-3.078328073024749756e-02
2.283591404557228088e-02
4.018159955739974976e-02
-1.083920970559120178e-01
2.974354475736618042e-02
-6.509825587272644043e-02
1.707007363438606262e-02
-9.058859944343566895e-02
7.073504384607076645e-03
-6.193755567073822021e-02
3.698014095425605774e-02
7.171288877725601196e-02
-3.260555863380432129e-02
6.791713833808898926e-02
-2.669193036854267120e-02
-3.860302269458770752e-02
-4.827231168746948242e-03
1.103660836815834045e-02
-4.517448134720325470e-03
-3.762654587626457214e-02
6.946508586406707764e-02
-9.222854673862457275e-02
3.990878816694021225e-03
-4.212285950779914856e-02
-5.978361004963517189e-04
8.009865134954452515e-02
-2.584375627338886261e-02
-6.868834793567657471e-02
-4.449633136391639709e-02
5.786335095763206482e-02
-3.626607358455657959e-02
5.616471171379089355e-02
4.436841979622840881e-02
3.347827494144439697e-02
-8.000689558684825897e-03
3.501603379845619202e-02
-1.892133243381977081e-02
-7.147144991904497147e-03
-1.258008275181055069e-02
-5.640837550163269043e-02
-7.094172388315200806e-02
-1.450724247843027115e-02
-2.196952700614929199e-02
-6.191920116543769836e-02
-5.614919215440750122e-02
7.471007760614156723e-03
2.357085235416889191e-03
6.118508800864219666e-02
3.742486005648970604e-03
-3.407274559140205383e-02
1.248940941877663136e-03
-1.557199005037546158e-02
-5.152370780706405640e-02
-2.286888659000396729e-02
3.124706819653511047e-02
-1.211147569119930267e-02
-5.112240090966224670e-02
-7.346291095018386841e-02
