-8.961137384176254272e-03 -4.091690853238105774e-02 -1.164950896054506302e-02 9.701700508594512939e-02 -5.698859319090843201e-02 -9.750267118215560913e-02 -2.530627250671386719e-01 4.486186429858207703e-02 -1.279724091291427612e-01 4.939824342727661133e-02 3.602783009409904480e-02 -9.259396046400070190e-02 -5.813474580645561218e-02 1.402499824762344360e-01 4.630661755800247192e-02 1.370615977793931961e-02 -8.875025808811187744e-02 2.643323317170143127e-02 5.621785297989845276e-02 2.402270287275314331e-01 -1.562777906656265259e-01 -1.924602985382080078e-01 -2.307241223752498627e-02 -1.726790219545364380e-01 9.019700810313224792e-03 -1.364018470048904419e-01 1.217375160194933414e-03 -9.498625993728637695e-03 -7.235146313905715942e-02 6.986106187105178833e-02 -7.927560061216354370e-02 -8.504906296730041504e-02 -1.309657692909240723e-01 1.380284875631332397e-01 -2.940471470355987549e-02 9.054486453533172607e-02 -1.987641751766204834e-01 -8.822610601782798767e-03 -7.736358046531677246e-02 -9.452068805694580078e-02 -6.801006197929382324e-02 -3.898504748940467834e-02 1.514599099755287170e-02 -2.243506722152233124e-03 -1.338879466056823730e-01 -5.278720334172248840e-02 -7.609447464346885681e-03 -4.539452120661735535e-02 2.771304454654455185e-03 -7.125549763441085815e-02 -2.021290734410285950e-02 5.161359533667564392e-02 1.145446524024009705e-01 -2.543425373733043671e-02 -2.348594600334763527e-03 -2.014916241168975830e-01 4.845500737428665161e-02 2.861843630671501160e-02 7.362915575504302979e-02 -1.248627975583076477e-01 -6.268339604139328003e-02 1.877371370792388916e-01 -1.120796278119087219e-01 4.200816899538040161e-02 9.460853040218353271e-02 -8.272416889667510986e-02 -9.679510444402694702e-02 -8.036226965487003326e-03 5.925286933779716492e-02 -1.019312366843223572e-01 -5.398606508970260620e-02 -6.697326153516769409e-02 -3.839668259024620056e-02 1.731747761368751526e-02 1.112296581268310547e-01 -2.335668914020061493e-02 1.595004200935363770e-01 1.032949890941381454e-02 4.145894572138786316e-02 5.132742971181869507e-02 -8.720432221889495850e-02 -1.094863638281822205e-01 5.035196989774703979e-02 -6.329943239688873291e-02 -7.437948882579803467e-02 -1.044401675462722778e-01 -1.158171743154525757e-01 2.692631259560585022e-02 -9.067371487617492676e-02 -2.152533978223800659e-01 1.902644336223602295e-02 1.260891258716583252e-01 1.344538033008575439e-01 -3.085833042860031128e-02 -2.674878202378749847e-02 -5.133409425616264343e-02 8.817080408334732056e-02 3.739818930625915527e-02 -8.893450349569320679e-02 9.655421227216720581e-02 1.999622434377670288e-01 1.233126819133758545e-01 1.448508650064468384e-01 -1.712108403444290161e-01 -5.696173291653394699e-03 3.538146987557411194e-02 1.614703088998794556e-01 9.967994689941406250e-02 3.878392279148101807e-02 -4.223403334617614746e-02 -2.315452508628368378e-02 4.757932201027870178e-02 3.920473158359527588e-02 -1.121938079595565796e-01 9.174427390098571777e-02 5.158920306712388992e-03 5.703807249665260315e-02 1.520336698740720749e-02 -1.078042387962341309e-01 -6.545285135507583618e-02 1.647522002458572388e-01 5.360874533653259277e-02 1.386196538805961609e-02 -8.204489201307296753e-02 -1.317493170499801636e-01 2.414845116436481476e-02 1.061272770166397095e-01 -9.141972661018371582e-02 4.388419911265373230e-02 -6.484726071357727051e-02 -3.685797750949859619e-02 -1.555212736129760742e-01 1.137919630855321884e-02 -2.978253178298473358e-02 -4.352896288037300110e-02 -3.500881046056747437e-02 -5.361435189843177795e-02 1.402332261204719543e-02 -4.030201211571693420e-02 -5.284999683499336243e-02 1.293449550867080688e-01 1.028281748294830322e-01 -5.051786080002784729e-02 -4.266418516635894775e-02 9.118862450122833252e-03 -1.059935837984085083e-01 7.731740176677703857e-02 -1.089297905564308167e-01 -4.027689993381500244e-02 -1.858253777027130127e-01 -9.286189824342727661e-02 -1.893158555030822754e-01 2.982134558260440826e-02 -5.654615908861160278e-02 -3.677454218268394470e-02 8.472522348165512085e-02 -2.276581712067127228e-02 9.637318551540374756e-02 -8.687196671962738037e-02 -2.785732150077819824e-01 -4.006451740860939026e-02 -4.465033113956451416e-02 8.201023191213607788e-02 2.532401413191109896e-04 1.585660576820373535e-01 -2.005561143159866333e-01 1.603764109313488007e-02 5.591188091784715652e-03 -7.860978692770004272e-02 -7.533882558345794678e-02 -7.188525050878524780e-02 -5.039623752236366272e-02 -1.147221103310585022e-01 -3.800276666879653931e-02 9.030189365148544312e-02 1.975957863032817841e-02 1.119630131870508194e-02 -2.025405317544937134e-01 1.211332231760025024e-01 1.431869808584451675e-02 1.153054982423782349e-01 2.014003694057464600e-02 -1.382707953453063965e-01 -6.992686539888381958e-02 1.705726534128189087e-01 -9.891172498464584351e-02 -2.077801711857318878e-02 -3.843709453940391541e-02 -5.410256981849670410e-02 -1.563405618071556091e-02 3.913707658648490906e-02 -9.421019256114959717e-02 1.922858357429504395e-01 -4.282629862427711487e-02 7.205105572938919067e-02 -1.860908418893814087e-02 -2.220832929015159607e-02 -9.222829341888427734e-02 -1.065842434763908386e-01 -7.765112072229385376e-02 1.470247209072113037e-01 1.845398545265197754e-01 7.059980928897857666e-02 -5.437752604484558105e-02 -1.977492868900299072e-02 -3.916762396693229675e-02 -4.580029472708702087e-02 -3.392800316214561462e-02 -1.113702505826950073e-01 2.858246862888336182e-02 -4.278453532606363297e-03 -6.957723945379257202e-02 -1.872012764215469360e-01 8.387582004070281982e-02 -1.608007699251174927e-01 -2.981618978083133698e-02 1.569419354200363159e-01 -2.138625830411911011e-03 2.212579548358917236e-02 -9.468235075473785400e-02 2.627559751272201538e-02 -5.714502558112144470e-02 -8.953399211168289185e-02 1.053809151053428650e-01 7.019997108727693558e-03 -1.574348956346511841e-01 -2.889778614044189453e-01 2.089437097311019897e-02 -2.283611102029681206e-03 9.505247697234153748e-03 -4.064303636550903320e-02 -5.541649088263511658e-02 8.912557736039161682e-03 -4.122427105903625488e-02 -8.704063482582569122e-03 2.924635820090770721e-02 -7.225762307643890381e-02 -7.886132597923278809e-02 -1.207093745470046997e-01 6.265505403280258179e-02 -3.154083387926220894e-03 5.390284955501556396e-02 -1.361730545759201050e-01 1.155208423733711243e-01 -5.045162513852119446e-02 -8.222143165767192841e-03 2.412591688334941864e-02 -9.436740539968013763e-03 -1.014414876699447632e-01 2.001146413385868073e-02 -3.634286299347877502e-02 -6.904637813568115234e-02 -1.258655637502670288e-01 -1.128792166709899902e-01 2.681096456944942474e-02 -6.417922675609588623e-02
2.712472341954708099e-02 5.178906023502349854e-02 -4.825113713741302490e-02 -5.235482007265090942e-03 -9.056618809700012207e-02 -1.619190573692321777e-01 -4.612859338521957397e-02 4.720143973827362061e-02 5.260066688060760498e-02 2.025895863771438599e-01 1.829492859542369843e-02 -7.419425994157791138e-02 5.731312185525894165e-02 1.435750126838684082e-01 5.137499049305915833e-02 -1.426168344914913177e-02 -1.114583015441894531e-01 1.619367860257625580e-02 -3.269727900624275208e-02 1.850635856389999390e-01 -1.392093747854232788e-01 1.865989156067371368e-02 4.319186788052320480e-03 1.529949158430099487e-01 -4.729901626706123352e-02 -6.275589019060134888e-02 2.942883782088756561e-02 1.944560557603836060e-02 1.180755347013473511e-01 3.832340985536575317e-02 1.884028501808643341e-02 2.042670361697673798e-02 -7.383469492197036743e-02 1.113322973251342773e-01 -2.584738098084926605e-02 4.287452995777130127e-02 1.112868264317512512e-01 -4.714791104197502136e-02 6.332393735647201538e-02 3.340645134449005127e-02 -2.046439051628112793e-01 -6.237944215536117554e-02 5.868350714445114136e-02 3.579663112759590149e-02 2.007212042808532715e-01 -6.280122697353363037e-02 -1.708917506039142609e-02 -9.388429671525955200e-02 3.238702565431594849e-02 -1.470293104648590088e-01 9.157747030258178711e-02 1.647353172302246094e-01 4.096926748752593994e-02 5.085751414299011230e-02 -1.544644683599472046e-01 -1.070825457572937012e-01 -6.759744882583618164e-02 6.086984183639287949e-03 1.570273190736770630e-02 7.342084497213363647e-02 -1.087640970945358276e-01 7.175019383430480957e-02 3.802378475666046143e-02 7.754454016685485840e-02 -1.111563220620155334e-01 -4.018613323569297791e-02 -1.075471639633178711e-01 5.947053059935569763e-02 6.903623789548873901e-02 1.259402632713317871e-01 7.022869586944580078e-02 9.544742852449417114e-02 -7.756973803043365479e-02 -9.600915946066379547e-03 -5.594710260629653931e-02 1.529067568480968475e-02 3.090605512261390686e-02 -2.332481555640697479e-02 -2.121763229370117188e-01 1.811982691287994385e-02 -1.467477381229400635e-01 -1.378754526376724243e-01 -1.103036105632781982e-01 1.061801388859748840e-01 -6.083375960588455200e-02 -8.257905393838882446e-02 1.246044784784317017e-02 -8.277942985296249390e-02 -2.831669338047504425e-02 -9.186975657939910889e-02 -1.548236794769763947e-02 1.099700853228569031e-01 4.783268552273511887e-03 -3.238271549344062805e-02 8.961612731218338013e-02 3.741873055696487427e-02 -6.227303668856620789e-02 3.804200887680053711e-02 -7.838714867830276489e-02 -1.074748337268829346e-01 -6.165985018014907837e-02 -9.566588699817657471e-02 1.644681557081639767e-03 -5.916799977421760559e-02 6.014812737703323364e-02 -8.326450735330581665e-02 -7.636190950870513916e-02 -1.207589209079742432e-01 -4.089479893445968628e-02 2.606409788131713867e-02 6.675613671541213989e-02 -1.634632945060729980e-01 1.458400189876556396e-01 -3.112319111824035645e-02 9.083078056573867798e-02 2.314950898289680481e-02 -7.266801595687866211e-02 3.987639024853706360e-02 -1.097078993916511536e-01 3.976850956678390503e-02 2.857194840908050537e-02 -9.222992509603500366e-02 9.107201360166072845e-03 3.617037460207939148e-02 -6.790056824684143066e-02 2.325527369976043701e-03 -9.054727107286453247e-02 -8.527596294879913330e-02 2.658810093998908997e-02 2.205765247344970703e-01 3.633540123701095581e-02 6.490661203861236572e-02 1.628317497670650482e-02 1.161258146166801453e-01 -1.106426306068897247e-02 -3.234112858772277832e-01 4.502427764236927032e-03 8.110193163156509399e-02 3.487933054566383362e-02 -9.627409279346466064e-02 -1.149057522416114807e-01 1.358181238174438477e-01 1.385953277349472046e-01 1.005160342901945114e-02 1.604071557521820068e-01 2.535035274922847748e-02 8.300868421792984009e-02 4.607512056827545166e-02 -2.868322841823101044e-02 -7.293468713760375977e-02 -2.067282795906066895e-02 7.864937931299209595e-02 7.411362975835800171e-02 9.998168796300888062e-02 -4.010320082306861877e-02 -1.205021366477012634e-01 -5.597246438264846802e-02 -4.029327630996704102e-02 -6.804045289754867554e-02 1.055356580764055252e-03 1.135891210287809372e-02 1.137893870472908020e-01 4.849970713257789612e-02 -6.556467618793249130e-03 -2.105422019958496094e-01 2.007402852177619934e-02 -6.191135197877883911e-02 -5.144274234771728516e-02 -2.629885636270046234e-02 6.915232539176940918e-02 8.465915918350219727e-02 6.121110543608665466e-02 -1.243703663349151611e-01 -6.282423622906208038e-03 7.574402540922164917e-02 4.459171742200851440e-02 8.764225244522094727e-02 -1.194936931133270264e-01 4.259548708796501160e-02 -3.734466060996055603e-02 -1.230246052145957947e-01 -7.676514983177185059e-02 -1.988441795110702515e-01 8.863308280706405640e-02 1.132678389549255371e-01 -6.762892007827758789e-02 1.772496849298477173e-01 -1.224913522601127625e-01 -1.398950219154357910e-01 2.360171638429164886e-02 -2.431495785713195801e-01 -2.536387927830219269e-02 -6.831550598144531250e-02 8.055878430604934692e-02 -5.915252864360809326e-02 -1.111453678458929062e-02 8.753260597586631775e-03 1.369429081678390503e-01 1.558294743299484253e-01 1.169436946511268616e-01 -1.296236366033554077e-01 1.266223043203353882e-01 -1.881862729787826538e-01 6.204520538449287415e-02 9.848066419363021851e-02 -3.800709173083305359e-02 4.398435354232788086e-02 -2.301972359418869019e-02 1.269713193178176880e-01 -6.939113140106201172e-02 -1.623616367578506470e-01 -7.917710393667221069e-02 2.535234019160270691e-02 -1.336371060460805893e-02 -4.606750234961509705e-02 -1.877303607761859894e-02 -4.477453604340553284e-02 2.008327990770339966e-01 -1.221930757164955139e-01 5.238149315118789673e-04 1.619992554187774658e-01 1.658863388001918793e-02 1.001107916235923767e-01 -6.891988962888717651e-02 7.628005743026733398e-02 -3.736599162220954895e-02 3.908484429121017456e-02 9.734150022268295288e-02 7.682243734598159790e-02 -4.612585529685020447e-02 -1.230681780725717545e-02 -5.257981643080711365e-02 1.259645521640777588e-01 -5.456983298063278198e-02 1.808314025402069092e-02 1.299472302198410034e-01 6.549467332661151886e-03 3.880167752504348755e-02 -6.638200581073760986e-02 -1.995682157576084137e-02 -5.018525198101997375e-02 -1.587237566709518433e-01 8.664278686046600342e-02 3.516694530844688416e-02 1.174149066209793091e-01 -2.992504648864269257e-02 8.115716278553009033e-02 -3.377579851076006889e-04 -1.685758493840694427e-02 2.021244168281555176e-02 1.146457716822624207e-01 -5.663929507136344910e-03 8.270093798637390137e-02 -6.160990893840789795e-02 9.136661887168884277e-02 -9.023413062095642090e-02
4.988005757331848145e-02 -1.024508029222488403e-01 -2.246214449405670166e-02 -2.353724241256713867e-01 -1.166200730949640274e-02 5.551165342330932617e-02 1.013707295060157776e-01 1.479081716388463974e-02 -4.348823428153991699e-02 3.099273331463336945e-02 -3.670495934784412384e-03 2.466300725936889648e-01 -9.595854580402374268e-02 5.871922522783279419e-02 1.213705353438854218e-02 4.885017126798629761e-02 -9.430641680955886841e-02 2.245000936090946198e-02 8.893482387065887451e-02 -3.642939776182174683e-02 -5.806448310613632202e-02 9.545768261887133121e-04 -7.862409949302673340e-02 1.620694249868392944e-02 -1.467328965663909912e-01 -4.512558225542306900e-03 -1.517063677310943604e-01 1.200119629502296448e-01 -2.553185448050498962e-02 2.660485729575157166e-02 -4.739233851432800293e-02 9.555951505899429321e-02 5.820997059345245361e-02 3.361007571220397949e-02 -1.485396027565002441e-01 -1.164803747087717056e-02 5.157915875315666199e-02 9.583368152379989624e-02 5.399772897362709045e-02 4.216308891773223877e-02 -2.179130725562572479e-02 2.443071268498897552e-02 -4.885799810290336609e-02 -3.678678348660469055e-02 -1.227100789546966553e-01 -5.916255339980125427e-02 -1.130857542157173157e-01 -1.055824235081672668e-01 8.472545444965362549e-02 -6.446972489356994629e-02 -3.909472003579139709e-02 1.126160323619842529e-01 -3.408191353082656860e-02 -2.648292183876037598e-01 -8.111107349395751953e-02 -7.907876744866371155e-03 -5.271049216389656067e-03 -2.352436073124408722e-02 -1.409772038459777832e-01 1.258091535419225693e-02 -1.900871843099594116e-02 -8.964304625988006592e-02 -1.024265661835670471e-01 1.691043004393577576e-02 -1.150805782526731491e-02 -2.573584765195846558e-02 -7.736536860466003418e-02 -1.268345862627029419e-01 -2.334382943809032440e-02 -5.250125750899314880e-02 -1.665260791778564453e-01 -2.696496620774269104e-02 -4.285255074501037598e-02 6.997304502874612808e-03 -5.841246619820594788e-02 5.026011168956756592e-02 3.822883218526840210e-02 1.578042805194854736e-01 1.020032763481140137e-01 -1.270624995231628418e-01 -9.217659384012222290e-02 -1.547859013080596924e-01 5.684601888060569763e-02 -3.772597387433052063e-02 2.363645657896995544e-02 6.184225156903266907e-02 8.720165491104125977e-02 7.627205550670623779e-02 9.031651425175368786e-04 -9.650284796953201294e-02 -4.976446926593780518e-02 -2.608118019998073578e-02 -5.857297033071517944e-02 4.621026292443275452e-02 4.336795583367347717e-02 -6.715103238821029663e-02 -2.709018439054489136e-02 2.674896456301212311e-02 -5.075207352638244629e-02 1.373927295207977295e-02 -8.743484318256378174e-02 -2.611363492906093597e-02 -1.098951399326324463e-01 1.770414598286151886e-02 -6.566816475242376328e-03 2.021148614585399628e-02 7.296077162027359009e-02 1.326515823602676392e-01 2.897710204124450684e-01 8.411912247538566589e-03 -1.539863198995590210e-01 6.593146827071905136e-03 -2.267399244010448456e-02 -1.707129329442977905e-01 -4.205322265625000000e-02 -1.379607468843460083e-01 -1.293936222791671753e-01 -8.756570518016815186e-02 -3.678559139370918274e-02 -1.293725967407226562e-01 -2.504170639440417290e-03 7.465065270662307739e-02 -8.531486988067626953e-02 -1.477868854999542236e-01 1.562213804572820663e-02 4.227136075496673584e-02 -1.308656632900238037e-01 -4.639908671379089355e-02 6.977176666259765625e-02 9.082107990980148315e-02 1.416957527399063110e-01 -1.155728176236152649e-01 -1.835990548133850098e-01 7.103984802961349487e-02 6.658834218978881836e-02 4.255559761077165604e-03 7.674226164817810059e-02 1.070755198597908020e-01 1.233176365494728088e-01 1.642204970121383667e-01 4.907977581024169922e-02 6.099465116858482361e-02 -1.044812053442001343e-01 -6.679603457450866699e-02 -1.654886058531701565e-03 -5.348784476518630981e-02 9.001334011554718018e-02 1.048759743571281433e-01 -4.093364626169204712e-02 5.759579315781593323e-02 -3.719201311469078064e-02 3.332085162401199341e-02 7.038960605859756470e-02 5.313365161418914795e-02 -7.199690490961074829e-02 -1.028568372130393982e-01 3.467261791229248047e-02 -9.382357448339462280e-02 -6.672937888652086258e-03 2.349775135517120361e-01 -1.782098412513732910e-01 1.093095075339078903e-02 -2.024781145155429840e-02 -1.945101618766784668e-01 5.799314752221107483e-02 -4.286299645900726318e-02 4.031230881810188293e-02 -7.374068349599838257e-02 -1.192495226860046387e-03 1.225132793188095093e-01 -1.378769874572753906e-01 -2.757772989571094513e-02 1.424293369054794312e-01 1.595586985349655151e-01 -1.339515764266252518e-02 6.098857149481773376e-02 1.459617763757705688e-01 8.370526134967803955e-02 -1.900872588157653809e-02 -7.794018834829330444e-02 2.883470058441162109e-02 7.604549080133438110e-02 1.157570723444223404e-02 -1.494177728891372681e-01 1.451180726289749146e-01 -1.383497118949890137e-01 -6.638155877590179443e-02 3.326233476400375366e-02 3.987913578748703003e-02 1.279546320438385010e-01 -1.357408910989761353e-01 3.766965121030807495e-02 9.536495059728622437e-02 2.023758143186569214e-01 1.406042575836181641e-01 -1.545338332653045654e-01 8.999630808830261230e-02 -4.137570410966873169e-02 -8.745919913053512573e-02 9.649544954299926758e-02 4.523260984569787979e-03 -1.214073151350021362e-01 -4.136582836508750916e-02 1.121846586465835571e-01 1.053741574287414551e-01 -2.299762330949306488e-02 6.662198901176452637e-02 2.831580303609371185e-02 6.346967420540750027e-04 -3.924933075904846191e-02 -7.507938146591186523e-02 2.472511492669582367e-02 5.463893990963697433e-03 -6.397933512926101685e-02 2.335024066269397736e-02 1.029377132654190063e-01 -9.121353924274444580e-02 1.314436085522174835e-02 -9.302642941474914551e-02 -1.763430051505565643e-02 7.139537483453750610e-02 -1.507834792137145996e-01 4.402999207377433777e-02 9.367126226425170898e-02 3.042989596724510193e-02 -3.175239264965057373e-02 -7.083279639482498169e-02 -1.447252742946147919e-02 4.678497835993766785e-02 2.203733846545219421e-02 -9.053751826286315918e-02 -9.563922882080078125e-02 -6.840140372514724731e-02 -6.117763370275497437e-02 3.023752756416797638e-02 -1.145184263586997986e-01 1.155546605587005615e-01 -1.229896117001771927e-02 1.393992006778717041e-01 1.671265959739685059e-01 -9.293187409639358521e-02 6.442952156066894531e-02 8.040932007133960724e-03 1.786299943923950195e-01 -1.466771662235260010e-01 -3.602969460189342499e-03 -1.193029135465621948e-01 -6.459458172321319580e-02 7.982914149761199951e-02 2.247818857431411743e-01 -4.288086667656898499e-02 -7.533425092697143555e-02 2.239526249468326569e-02 -2.518088184297084808e-02 -6.866059452295303345e-02 8.638634532690048218e-02
2.794179022312164307e-01 6.921975314617156982e-02 -3.544319272041320801e-01 -3.253862261772155762e-02 -1.079849675297737122e-01 -1.993626505136489868e-01 5.982040427625179291e-03 3.612734749913215637e-02 -1.390431970357894897e-01 -1.779698431491851807e-01 9.141565859317779541e-02 4.143641516566276550e-02 1.212607994675636292e-01 4.236301407217979431e-03 -1.202518716454505920e-01 -1.412190496921539307e-01 -1.978415548801422119e-01 -7.192178815603256226e-02 -2.309722639620304108e-02 -4.214983060956001282e-02 -1.141031011939048767e-01 -6.550550460815429688e-02 1.029446069151163101e-02 -5.453536659479141235e-02 -1.303876340389251709e-01 3.965188190340995789e-02 3.271849825978279114e-02 6.262455135583877563e-02 6.946303695440292358e-02 7.125097513198852539e-02 -8.049035817384719849e-02 -5.863339081406593323e-02 -1.463396381586790085e-02 -5.509009584784507751e-02 5.513520538806915283e-02 -2.758674025535583496e-01 -1.482807844877243042e-01 -4.216617718338966370e-02 1.891376525163650513e-01 -1.654978245496749878e-01 -1.218783408403396606e-01 -1.031021997332572937e-01 -2.042388357222080231e-02 -3.761840239167213440e-02 8.556658029556274414e-02 1.298993732780218124e-02 -3.945589065551757812e-02 -2.424712106585502625e-02 -5.158920772373676300e-03 3.064058721065521240e-02 5.791924148797988892e-02 1.537665426731109619e-01 -1.004454307258129120e-02 -2.424987554550170898e-01 8.673493750393390656e-03 -1.275005638599395752e-01 2.011068724095821381e-02 8.696525543928146362e-02 5.484658107161521912e-02 -7.952871173620223999e-02 -6.005792319774627686e-02 -7.540092803537845612e-03 -6.229493767023086548e-02 -6.496128439903259277e-02 -6.478525698184967041e-02 4.847914725542068481e-02 3.555339295417070389e-03 -8.592533878982067108e-03 -8.734584599733352661e-02 -1.165971010923385620e-01 -4.107859916985034943e-03 5.568646639585494995e-02 1.289937496185302734e-01 1.315128952264785767e-01 -2.889819443225860596e-03 6.179441511631011963e-02 -2.840055897831916809e-02 -7.455962151288986206e-02 -1.774807870388031006e-01 4.469392821192741394e-02 -1.116931140422821045e-01 -7.759302109479904175e-02 -7.361036725342273712e-03 -2.030361257493495941e-02 3.918992727994918823e-02 -3.152282163500785828e-02 1.417626589536666870e-01 -1.639855951070785522e-01 -2.405483461916446686e-02 -1.252098232507705688e-01 1.695839688181877136e-02 7.646328210830688477e-02 3.464573249220848083e-02 -6.849398463964462280e-02 2.659522369503974915e-02 5.776177346706390381e-02 4.894296824932098389e-02 -1.106767803430557251e-01 -6.348899006843566895e-02 -2.159341126680374146e-01 2.613442484289407730e-03 3.766483440995216370e-02 -7.731574028730392456e-02 9.711117483675479889e-03 7.064569741487503052e-02 4.609026759862899780e-02 2.197990193963050842e-02 -4.298419505357742310e-02 4.893597215414047241e-02 -1.713828146457672119e-01 -6.250846385955810547e-02 -3.865779936313629150e-02 3.418812155723571777e-02 -1.425820440053939819e-01 -6.267719715833663940e-02 5.802028626203536987e-02 -1.066164448857307434e-01 6.724239885807037354e-02 5.539767444133758545e-03 1.398422420024871826e-01 -9.531878866255283356e-03 -1.706382930278778076e-01 1.541949361562728882e-01 8.529929071664810181e-02 6.839269306510686874e-03 -9.878395497798919678e-02 1.548100728541612625e-02 3.966642916202545166e-02 1.074595078825950623e-01 1.141266152262687683e-02 -1.100573781877756119e-02 -1.085450649261474609e-01 1.476444676518440247e-02 -1.494101481512188911e-03 9.683892875909805298e-02 6.651760637760162354e-02 6.872189790010452271e-02 -3.539883717894554138e-02 -1.438416689634323120e-01 2.936563454568386078e-02 2.057264931499958038e-02 1.385215087793767452e-03 -3.268295526504516602e-02 1.671600043773651123e-01 1.802668906748294830e-02 -6.970586720854043961e-03 5.186351016163825989e-02 3.471439704298973083e-02 1.453449726104736328e-01 7.899498194456100464e-02 1.525556202977895737e-02 -5.777759477496147156e-02 -1.593145132064819336e-01 -1.816139221191406250e-01 4.954706504940986633e-02 -7.197825610637664795e-02 -8.603689819574356079e-02 -8.593958616256713867e-02 5.557007342576980591e-02 -6.068948283791542053e-02 1.664956212043762207e-01 5.847550928592681885e-02 -1.071317717432975769e-01 -2.656034938991069794e-02 1.063814014196395874e-02 -1.206584200263023376e-01 -2.948011271655559540e-02 8.413232117891311646e-02 1.399008929729461670e-01 -1.173190176486968994e-01 5.277518928050994873e-02 2.124758204445242882e-03 2.382786385715007782e-02 6.849321722984313965e-02 -1.915811747312545776e-01 4.256406798958778381e-02 -1.033731326460838318e-01 -6.170707941055297852e-02 1.096076890826225281e-01 -3.634380176663398743e-02 1.777285151183605194e-02 -2.163483947515487671e-02 2.409656643867492676e-01 1.514322962611913681e-02 -6.379313021898269653e-02 1.838272362947463989e-01 -1.043551117181777954e-01 -4.055422544479370117e-02 -8.072597533464431763e-02 -4.751555249094963074e-02 8.866193145513534546e-02 -2.942040562629699707e-03 -4.733898863196372986e-02 3.315983805805444717e-03 5.666217952966690063e-02 2.323868870735168457e-02 1.169246248900890350e-02 -4.230601340532302856e-02 -1.964933425188064575e-01 -9.853299707174301147e-02 -2.526857554912567139e-01 -5.849171895533800125e-03 -9.665502607822418213e-02 -1.864060200750827789e-02 9.977228194475173950e-02 -1.283073145896196365e-02 4.452951252460479736e-02 -5.563044548034667969e-02 -1.703407764434814453e-01 -8.417054265737533569e-02 2.933985553681850433e-02 -1.098546758294105530e-01 -1.262698471546173096e-01 1.033255457878112793e-01 4.621300101280212402e-02 -4.407145455479621887e-02 -1.054506450891494751e-01 1.326156705617904663e-01 -5.791986733675003052e-02 -7.045856118202209473e-02 -1.691703200340270996e-01 9.625108540058135986e-02 -8.880902081727981567e-02 1.099191722460091114e-03 -7.356981188058853149e-02 -6.810765713453292847e-02 -2.004256695508956909e-01 1.657007932662963867e-01 -4.971917346119880676e-02 -1.672258526086807251e-01 -7.844094932079315186e-02 -6.616678088903427124e-03 1.156841441988945007e-01 -7.276364415884017944e-02 3.920904174447059631e-02 -6.377363950014114380e-02 -5.660885944962501526e-02 1.244688481092453003e-01 -1.229240596294403076e-01 -1.130592748522758484e-01 -4.749461635947227478e-02 -7.430008798837661743e-02 -4.193642735481262207e-02 -2.109130285680294037e-02 4.062418267130851746e-02 5.749408528208732605e-02 3.945169970393180847e-02 4.343302175402641296e-02 1.401054114103317261e-02 4.699843470007181168e-03 -1.639001630246639252e-02 -5.725414026528596878e-03 -3.610387817025184631e-02 1.849676296114921570e-02 -5.466700531542301178e-04 -3.147165104746818542e-02
7.925980538129806519e-02 -1.292683780193328857e-01 -2.226612158119678497e-02 -3.757622465491294861e-02 -6.132115423679351807e-02 -6.005177274346351624e-02 -7.688111811876296997e-02 -2.865500748157501221e-02 5.254771187901496887e-02 -9.148444235324859619e-02 -2.804997377097606659e-03 5.042799934744834900e-02 -1.155782714486122131e-01 1.087373793125152588e-01 -1.372270137071609497e-01 9.428745508193969727e-02 -1.085732951760292053e-01 -6.318725645542144775e-02 -1.112097799777984619e-01 -2.044202387332916260e-01 -1.544965505599975586e-01 -3.005026839673519135e-02 -1.189886853098869324e-01 4.365302249789237976e-02 2.714960090816020966e-02 -8.934964239597320557e-02 1.274398863315582275e-01 -1.786151081323623657e-01 -1.784880459308624268e-01 1.472817808389663696e-01 -9.475383162498474121e-02 -1.504937931895256042e-02 -6.408189237117767334e-02 6.213477347046136856e-03 6.988774240016937256e-02 -1.045612245798110962e-01 1.118597090244293213e-01 -3.507795557379722595e-02 7.199726998805999756e-02 -1.436239928007125854e-01 -1.409740839153528214e-02 -9.652456641197204590e-02 1.080311834812164307e-03 6.212411075830459595e-02 -2.710455842316150665e-02 5.514042451977729797e-02 -1.538252383470535278e-01 2.914461493492126465e-02 1.458800025284290314e-02 -7.788501679897308350e-02 2.796706371009349823e-02 6.276679784059524536e-02 2.932183444499969482e-02 7.787400484085083008e-02 -5.229519680142402649e-02 -1.116198599338531494e-01 -2.161770462989807129e-01 -2.538238465785980225e-02 -8.839772082865238190e-03 -6.259675323963165283e-02 6.471222639083862305e-02 -1.680445373058319092e-01 4.964527115225791931e-02 1.759345829486846924e-02 -9.013725444674491882e-03 5.702200531959533691e-02 -2.564246766269207001e-02 7.679245620965957642e-02 1.197608858346939087e-01 2.211935259401798248e-02 -2.430811524391174316e-03 -4.353566840291023254e-02 -1.154577136039733887e-01 -2.593978643417358398e-01 -6.223912350833415985e-03 1.929409988224506378e-02 -1.240983605384826660e-01 -8.686089515686035156e-02 -1.851007938385009766e-01 3.177166683599352837e-03 2.555651124566793442e-03 1.367550995200872421e-02 -3.135538101196289062e-02 -1.365675628185272217e-01 -7.942859083414077759e-02 1.023468002676963806e-01 1.348448395729064941e-01 5.824884399771690369e-02 1.090940460562705994e-01 9.039655327796936035e-03 -1.063368748873472214e-03 7.897072285413742065e-02 -1.345446240156888962e-02 -1.320657134056091309e-01 -2.413815632462501526e-02 7.400544732809066772e-02 3.396314010024070740e-02 4.557777568697929382e-02 -1.597014516592025757e-01 1.471100002527236938e-02 -1.279849112033843994e-01 9.732628613710403442e-02 -3.766627237200737000e-02 1.066295206546783447e-01 -3.585667535662651062e-02 2.154187113046646118e-01 6.248788163065910339e-02 1.449760887771844864e-02 -6.570853292942047119e-02 -3.943512961268424988e-02 -7.142104953527450562e-02 1.416900157928466797e-01 -1.141088381409645081e-01 -6.440888158977031708e-03 -7.879010587930679321e-02 -1.176498979330062866e-01 -1.205962300300598145e-01 -1.222962886095046997e-01 1.231553554534912109e-01 1.427234262228012085e-01 -1.110690385103225708e-01 -3.118364512920379639e-02 1.999809220433235168e-02 -3.324685851112008095e-03 2.370121330022811890e-02 -2.322747744619846344e-02 5.500502884387969971e-02 3.624386712908744812e-02 -1.056375578045845032e-01 -2.702971175312995911e-02 1.086719781160354614e-01 -1.573566943407058716e-01 -1.182736009359359741e-01 -3.653109446167945862e-02 1.363289263099431992e-02 7.402244210243225098e-02 -1.002785935997962952e-01 -3.256719210185110569e-04 9.251426905393600464e-02 -1.645991951227188110e-01 1.448064483702182770e-02 3.919560834765434265e-02 5.207859724760055542e-02 -7.614730298519134521e-02 -6.371158361434936523e-02 1.352181583642959595e-01 1.130952686071395874e-01 -5.772276595234870911e-02 2.611550875008106232e-02 -1.474789809435606003e-02 1.271239947527647018e-03 2.761605754494667053e-02 -1.246345881372690201e-02 7.494747638702392578e-02 8.870752900838851929e-02 5.562707036733627319e-02 1.724638789892196655e-02 1.398412436246871948e-01 -4.567012563347816467e-02 5.902426782995462418e-03 -1.491250544786453247e-01 -1.163554415106773376e-01 1.495731621980667114e-02 -2.490026503801345825e-02 -2.028973400592803955e-01 1.792534440755844116e-01 -1.082441508769989014e-01 -2.416373789310455322e-02 2.127725444734096527e-02 -1.765499711036682129e-01 -9.306250512599945068e-02 1.153780594468116760e-01 -7.238288968801498413e-02 -1.500501632690429688e-01 -3.137955069541931152e-02 -9.968348778784275055e-03 -2.198734879493713379e-02 -4.466118291020393372e-02 9.593141078948974609e-02 -8.911501616239547729e-03 -1.402967274188995361e-01 5.242563784122467041e-02 5.410557612776756287e-02 -1.898254007101058960e-01 -1.197085082530975342e-01 -2.076675184071063995e-02 -2.307950854301452637e-01 -1.609992831945419312e-01 -1.043664440512657166e-01 -5.060762539505958557e-02 -1.938365399837493896e-01 -3.563110902905464172e-02 1.205395385622978210e-01 6.232564523816108704e-02 -4.792968928813934326e-02 4.307002574205398560e-02 9.266144037246704102e-02 -3.666894137859344482e-02 1.081436350941658020e-01 4.025876149535179138e-02 1.190039962530136108e-01 -1.419426500797271729e-01 -1.277921814471483231e-02 7.642623037099838257e-02 -1.909817308187484741e-01 -6.509852409362792969e-02 -9.032867103815078735e-02 2.475787699222564697e-02 1.294129639863967896e-01 -1.991124600172042847e-01 1.435127761214971542e-02 -1.373679786920547485e-01 1.073970496654510498e-01 6.815397646278142929e-04 -1.207757592201232910e-01 -2.209026739001274109e-02 1.536536030471324921e-02 1.729854755103588104e-02 1.916354149580001831e-01 -2.560959756374359131e-01 -7.288499921560287476e-02 -1.070805564522743225e-01 1.590429106727242470e-03 -8.042369782924652100e-02 1.162744592875242233e-02 1.723962463438510895e-02 2.421064302325248718e-02 -6.808564066886901855e-02 -1.282995045185089111e-01 -5.202894285321235657e-02 5.437703058123588562e-02 -1.462088078260421753e-01 8.705645054578781128e-02 -2.381555363535881042e-02 -4.042531177401542664e-02 -1.181396692991256714e-01 -1.579380184412002563e-01 3.707870468497276306e-02 1.784842344932258129e-03 -7.610733062028884888e-02 -1.557966023683547974e-01 8.187264949083328247e-02 -4.846226423978805542e-02 5.533824115991592407e-02 -3.144086897373199463e-02 -1.433673948049545288e-01 8.008070290088653564e-02 -1.416680365800857544e-01 1.677693240344524384e-02 -9.543684870004653931e-02 -1.040063351392745972e-01 -9.364129602909088135e-02 -1.550103724002838135e-01 -3.716673702001571655e-02 1.049461662769317627e-01 -5.426353961229324341e-02
-1.618747226893901825e-02 9.702692925930023193e-02 4.669863730669021606e-02 8.230116218328475952e-02 1.168051809072494507e-01 1.154601760208606720e-02 1.128323525190353394e-01 3.055159468203783035e-03 -2.955805510282516479e-02 1.300228536128997803e-01 -2.642051577568054199e-01 5.970030277967453003e-02 1.697822809219360352e-01 -1.057133078575134277e-01 -4.313570261001586914e-02 1.110299974679946899e-01 -7.709815353155136108e-02 -1.148360967636108398e-02 4.382729157805442810e-02 5.952241644263267517e-02 -1.582479104399681091e-02 1.332073211669921875e-01 -1.299124658107757568e-01 -4.367244243621826172e-02 2.109283022582530975e-02 1.287957560271024704e-02 -2.404555492103099823e-02 5.365774035453796387e-02 -2.456461042165756226e-01 -4.462402313947677612e-02 1.255046874284744263e-01 -1.974772661924362183e-01 1.154549419879913330e-01 5.197889730334281921e-02 -9.424191713333129883e-02 6.849722564220428467e-02 -2.447385154664516449e-02 -6.151908636093139648e-02 -7.301801443099975586e-02 -1.352502405643463135e-01 1.723529770970344543e-02 -8.089704066514968872e-02 -1.283837556838989258e-01 3.049429506063461304e-02 -5.167925357818603516e-02 -8.764896541833877563e-02 -1.548814177513122559e-01 -1.838012486696243286e-01 -1.190313324332237244e-02 2.264967188239097595e-02 -9.956914931535720825e-02 3.051115199923515320e-02 -1.760541647672653198e-01 3.066702373325824738e-02 -9.237752109766006470e-02 -1.020154505968093872e-01 -5.427093431353569031e-02 -8.096139878034591675e-02 1.257958710193634033e-01 -1.383148133754730225e-01 -1.204907745122909546e-01 -1.538118571043014526e-01 1.269555538892745972e-01 6.815708708018064499e-03 -2.464653551578521729e-02 -6.306549161672592163e-02 -2.907047793269157410e-02 6.065758690237998962e-02 -2.223697602748870850e-01 9.153920412063598633e-02 -5.686971545219421387e-02 -1.278464049100875854e-01 -7.181075960397720337e-02 -5.072048306465148926e-02 -2.054162509739398956e-02 -3.080641105771064758e-02 -1.371359359472990036e-02 -2.285586670041084290e-02 -6.244965270161628723e-02 2.252165786921977997e-02 2.041729539632797241e-02 1.205960959196090698e-01 4.874942451715469360e-02 -6.024057045578956604e-02 1.768515408039093018e-01 5.075430124998092651e-02 4.361905530095100403e-02 1.164795905351638794e-01 1.027457565069198608e-01 -6.395945325493812561e-03 3.243619948625564575e-02 2.284783497452735901e-02 2.038647085428237915e-01 -4.615896940231323242e-02 -1.447511166334152222e-01 2.035525441169738770e-01 1.277235895395278931e-02 -3.614488244056701660e-02 3.199092671275138855e-02 8.597070723772048950e-02 -7.013214379549026489e-02 2.616732567548751831e-02 -9.269339591264724731e-02 -8.284614235162734985e-02 -5.566346645355224609e-02 5.415989086031913757e-03 8.163224160671234131e-02 -1.631563752889633179e-01 8.448470383882522583e-02 -2.486519701778888702e-02 -1.516751646995544434e-01 5.651786923408508301e-02 -8.503476157784461975e-03 8.566117286682128906e-02 -9.621906280517578125e-02 -4.217362776398658752e-02 -3.119990415871143341e-02 -6.119592860341072083e-02 7.636784762144088745e-02 1.092067547142505646e-02 1.471628155559301376e-02 -2.917697653174400330e-03 6.042011827230453491e-02 2.884963899850845337e-02 -1.203457592055201530e-03 -1.325702369213104248e-01 -8.205933496356010437e-03 -9.486284106969833374e-02 8.373802155256271362e-02 1.844313889741897583e-01 -1.884528249502182007e-01 4.431473091244697571e-03 -6.530885584652423859e-04 -9.715767204761505127e-02 -4.061299562454223633e-02 -8.147975057363510132e-02 3.578704595565795898e-02 -2.845066599547863007e-02 -6.291683018207550049e-02 -1.079900041222572327e-01 1.674556732177734375e-01 -3.662253543734550476e-02 -8.904383517801761627e-03 2.268894575536251068e-02 2.392515353858470917e-02 -3.282060101628303528e-02 -2.375404350459575653e-02 -7.519762217998504639e-02 1.261223405599594116e-01 -9.533097036182880402e-03 1.103275790810585022e-01 -1.060679927468299866e-01 -1.089159622788429260e-01 -1.394061297178268433e-01 -3.663871437311172485e-02 1.286425739526748657e-01 6.939902901649475098e-03 8.628063648939132690e-02 -7.470753043889999390e-02 1.414382010698318481e-01 1.408926397562026978e-01 4.818481206893920898e-02 4.776595532894134521e-02 -2.063672542572021484e-01 -1.185166928917169571e-02 -1.734312921762466431e-01 1.314488649368286133e-01 1.214204938150942326e-03 3.688471019268035889e-02 -1.514015942811965942e-01 3.043510764837265015e-02 -1.074970606714487076e-02 -4.121740162372589111e-02 5.237977206707000732e-02 -8.477104455232620239e-02 -6.740064918994903564e-02 5.760857462882995605e-02 -7.724294811487197876e-02 -9.149300307035446167e-02 -1.011155396699905396e-01 1.755202114582061768e-01 1.049140170216560364e-01 -1.138084456324577332e-01 3.592425957322120667e-02 7.574935257434844971e-02 -2.542938105762004852e-03 -1.144106686115264893e-01 -1.190980076789855957e-01 -9.994895011186599731e-02 4.754871129989624023e-02 -1.415449678897857666e-01 3.091916255652904510e-02 -1.318860054016113281e-01 7.128670066595077515e-02 -2.348499894142150879e-01 1.140429824590682983e-01 -7.912730425596237183e-02 -2.771479077637195587e-03 -8.279883861541748047e-02 6.739095598459243774e-02 -2.251329869031906128e-01 -6.051425635814666748e-02 -6.841368507593870163e-03 9.787217713892459869e-03 2.176241129636764526e-01 -7.665365189313888550e-02 -7.327785342931747437e-02 -1.497038006782531738e-01 -2.364486455917358398e-02 -8.383271098136901855e-02 1.689164526760578156e-02 -2.344666980206966400e-02 -8.174843341112136841e-02 -5.576701089739799500e-02 -1.032700091600418091e-01 1.959663629531860352e-02 1.070723235607147217e-01 1.037067472934722900e-01 -9.799858555197715759e-03 3.068361431360244751e-02 2.639352343976497650e-02 -7.261893153190612793e-02 -2.319339066743850708e-01 -9.962725639343261719e-02 2.740745432674884796e-02 -1.652945578098297119e-01 -1.034905165433883667e-01 1.646847091615200043e-02 -1.103548929095268250e-01 -1.528868675231933594e-01 -6.073364242911338806e-02 9.640970826148986816e-02 -7.239867001771926880e-02 -3.645085915923118591e-02 -1.150042470544576645e-02 -9.545342065393924713e-03 -2.613848075270652771e-02 -1.339340209960937500e-01 6.390020251274108887e-02 5.759277567267417908e-02 -1.218589581549167633e-02 -3.716169157996773720e-03 -1.991253579035401344e-03 -9.415125101804733276e-02 -1.605335772037506104e-01 -6.234227120876312256e-02 6.244855001568794250e-02 2.048565298318862915e-01 -1.549348831176757812e-01 8.922568708658218384e-02 -3.155694529414176941e-02 1.578545421361923218e-01 -2.144545614719390869e-01 2.771045267581939697e-02 -1.307106763124465942e-02 -4.323302209377288818e-02
7.511824369430541992e-02 -4.086703807115554810e-02 -2.689586766064167023e-02 9.169919788837432861e-02 3.869580477476119995e-02 -1.018824353814125061e-01 7.402825355529785156e-02 -3.226153180003166199e-02 1.464588660746812820e-02 -1.082561016082763672e-01 3.596954420208930969e-02 -1.785483062267303467e-01 -5.803090706467628479e-02 5.367819592356681824e-02 6.762646883726119995e-02 1.447502076625823975e-01 -7.006653398275375366e-02 -1.132138967514038086e-01 5.027685780078172684e-03 -3.505447134375572205e-02 -1.286228001117706299e-01 1.558617502450942993e-02 9.305808693170547485e-02 1.626583375036716461e-02 -1.998376846313476562e-01 -1.177864428609609604e-02 -2.591643668711185455e-02 -4.779637977480888367e-02 -7.197454571723937988e-02 -1.610788255929946899e-01 1.196613013744354248e-01 3.987355530261993408e-02 -1.000399608165025711e-02 5.523303523659706116e-02 -5.254226922988891602e-02 2.271708287298679352e-02 -9.918330609798431396e-02 -9.341431409120559692e-02 -6.948978453874588013e-02 -9.131933748722076416e-02 -2.188474498689174652e-02 3.544290363788604736e-02 8.098234422504901886e-03 1.203870847821235657e-01 -1.818491965532302856e-01 3.995710721937939525e-05 -3.000300377607345581e-02 9.561889618635177612e-02 -4.997379146516323090e-03 -3.993179276585578918e-02 9.204327128827571869e-03 2.616135962307453156e-02 1.597287356853485107e-01 -6.948108226060867310e-02 1.329077780246734619e-01 9.406527533428743482e-05 -2.184651046991348267e-02 -1.350401062518358231e-02 -1.182895973324775696e-01 -6.714023649692535400e-02 -1.808699369430541992e-01 -4.104714468121528625e-02 -1.756531447172164917e-01 3.094323165714740753e-02 6.037869304418563843e-02 -1.473732292652130127e-02 1.185052841901779175e-02 1.613523252308368683e-02 -1.335430294275283813e-01 -8.203212171792984009e-02 5.376291926950216293e-03 -1.541812438517808914e-02 4.772502183914184570e-02 -3.836106974631547928e-03 7.464518398046493530e-02 2.578969858586788177e-02 -1.485799252986907959e-01 -1.162112578749656677e-01 5.563636496663093567e-02 -3.281153738498687744e-02 -6.102356314659118652e-02 -5.800013244152069092e-02 -8.393535763025283813e-02 -9.740448743104934692e-02 -1.108828037977218628e-01 4.318329319357872009e-02 1.991221308708190918e-01 -6.874855607748031616e-02 -4.339636117219924927e-02 2.853248268365859985e-03 -2.820767648518085480e-02 9.641085565090179443e-02 1.044898107647895813e-01 -1.140383407473564148e-01 -2.120539732277393341e-02 4.213394224643707275e-02 3.161909803748130798e-02 1.547177135944366455e-02 -5.632819607853889465e-02 -9.987332671880722046e-02 -2.133781090378761292e-02 3.413461148738861084e-02 2.608079835772514343e-02 6.268621981143951416e-02 5.116118490695953369e-02 3.347061946988105774e-02 -6.001473963260650635e-02 -3.963579237461090088e-02 1.152863278985023499e-01 3.698609769344329834e-02 -8.934023231267929077e-02 -1.857985109090805054e-01 -1.039423719048500061e-01 4.808601923286914825e-03 -2.103020809590816498e-02 2.174796462059020996e-01 9.976810961961746216e-02 2.580777555704116821e-02 3.421652689576148987e-02 -8.578239381313323975e-02 6.108691915869712830e-02 7.619353383779525757e-02 5.714096128940582275e-02 1.161558330059051514e-01 2.364171668887138367e-02 4.020713269710540771e-03 3.672519698739051819e-03 -1.868931204080581665e-01 -4.172008112072944641e-02 1.458967220969498158e-03 -2.212217599153518677e-01 9.827666729688644409e-02 -9.990436024963855743e-03 -1.383928954601287842e-01 -8.007111400365829468e-02 -1.108213961124420166e-01 5.428043007850646973e-02 -9.370770305395126343e-02 -5.792930256575345993e-03 -2.619157731533050537e-02 -1.655676513910293579e-01 -8.274571597576141357e-02 -6.517208367586135864e-02 -1.252446174621582031e-01 -2.619933150708675385e-02 1.493258215487003326e-02 -7.484667748212814331e-02 -9.213701635599136353e-02 2.521340176463127136e-02 -9.562563151121139526e-03 -1.522538065910339355e-01 -1.164643615484237671e-01 8.007084578275680542e-02 4.175184294581413269e-03 5.125756934285163879e-02 -2.716842889785766602e-01 -4.245053604245185852e-02 -5.879223346710205078e-02 1.027283668518066406e-01 -1.240537613630294800e-01 -6.177671253681182861e-02 -5.593221262097358704e-02 -6.095556169748306274e-02 -9.775549173355102539e-02 -1.830774098634719849e-01 1.090607419610023499e-01 1.114579215645790100e-01 3.586604446172714233e-02 -1.773338168859481812e-01 -1.640921980142593384e-01 -1.577241532504558563e-02 -5.000254884362220764e-02 -1.517316251993179321e-01 1.586183160543441772e-02 1.307720243930816650e-01 -1.693339347839355469e-01 -1.118388921022415161e-01 3.572725057601928711e-01 -6.825643777847290039e-02 -2.272402122616767883e-02 3.562847524881362915e-02 -7.441221177577972412e-02 1.675258949398994446e-02 -2.397131547331809998e-02 1.975300349295139313e-02 -1.760475188493728638e-01 4.780433300766162574e-05 -1.502107083797454834e-01 -1.211160793900489807e-01 4.674000293016433716e-02 -2.172639816999435425e-01 -2.330892905592918396e-02 -7.870403677225112915e-02 -9.050690568983554840e-03 -7.778668403625488281e-02 -2.395459450781345367e-02 -4.100810363888740540e-02 -2.693241238594055176e-01 -4.937779530882835388e-02 4.182213172316551208e-02 -6.621427088975906372e-02 1.225963905453681946e-01 5.995897576212882996e-02 -3.079106099903583527e-02 -1.554302871227264404e-02 6.165511906147003174e-02 -1.033501923084259033e-01 -4.827021062374114990e-02 -5.135352164506912231e-02 -1.292281746864318848e-01 6.528520584106445312e-02 -7.289026677608489990e-02 -2.073741704225540161e-02 -8.597940951585769653e-02 1.076894924044609070e-01 8.168718218803405762e-02 6.455672532320022583e-02 -2.225813865661621094e-01 -9.284541755914688110e-02 8.508343249559402466e-03 9.506462514400482178e-02 1.021444797515869141e-02 1.443494949489831924e-02 1.425821632146835327e-01 -1.864513158798217773e-01 -7.264228165149688721e-02 -2.759483084082603455e-02 -1.360465586185455322e-02 -5.068760365247726440e-02 2.000628039240837097e-02 -4.994943365454673767e-02 -6.103410944342613220e-02 -4.737404233310371637e-04 8.647241629660129547e-03 -7.211977243423461914e-02 7.395000010728836060e-02 -2.936601266264915466e-02 -5.400558561086654663e-02 1.405366975814104080e-02 -8.575659990310668945e-02 -1.663095504045486450e-01 -4.517607018351554871e-02 6.297276169061660767e-02 -3.372012171894311905e-03 -9.174423664808273315e-02 -1.165519952774047852e-01 -3.573656082153320312e-02 -1.851932853460311890e-01 -3.822191432118415833e-02 -1.875317245721817017e-01 7.465890794992446899e-02 8.253811299800872803e-02 -9.271507710218429565e-02 3.867017477750778198e-02 -2.395225167274475098e-01 1.204191967844963074e-01
-8.457779884338378906e-02 4.491801187396049500e-02 4.351486638188362122e-02 -3.470451757311820984e-02 -9.893970191478729248e-02 -1.125688292086124420e-02 -1.774624455720186234e-03 -1.224591359496116638e-01 -5.332794412970542908e-02 -6.075854226946830750e-02 1.573356986045837402e-01 -4.634458944201469421e-02 1.345657277852296829e-02 -6.057725846767425537e-02 -1.356152594089508057e-01 4.003763571381568909e-02 8.171497285366058350e-02 1.429263204336166382e-01 1.052096579223871231e-02 1.035460606217384338e-01 -1.717214472591876984e-02 -1.390643268823623657e-01 1.363962329924106598e-02 -4.418109357357025146e-02 -1.766219362616539001e-02 -2.353096380829811096e-02 7.569405436515808105e-02 -7.402949780225753784e-02 -1.335008889436721802e-01 2.992043271660804749e-02 -5.903468653559684753e-02 8.635336905717849731e-02 -1.413534283638000488e-01 9.621438384056091309e-02 -1.618302911520004272e-01 1.060175988823175430e-02 -5.376820638775825500e-02 -3.578186780214309692e-02 4.485031962394714355e-02 4.213948734104633331e-03 1.106866449117660522e-01 -7.379036396741867065e-02 -1.720934957265853882e-01 1.188817173242568970e-01 -6.515502929687500000e-02 1.756198704242706299e-01 6.100450828671455383e-02 3.604711033403873444e-03 -1.936193555593490601e-01 -1.309589743614196777e-01 1.728249900043010712e-02 -5.966607853770256042e-02 -1.433667540550231934e-01 -1.516803950071334839e-01 5.341416224837303162e-02 -1.356091648340225220e-01 5.854151025414466858e-02 -5.124982073903083801e-02 2.692408114671707153e-02 -3.999990969896316528e-02 7.951457798480987549e-02 1.032087951898574829e-02 7.270857691764831543e-02 3.050500340759754181e-02 1.014009788632392883e-01 -1.043564826250076294e-01 -2.079624384641647339e-01 -7.420062273740768433e-02 4.854480922222137451e-02 -2.009414508938789368e-02 3.505792841315269470e-02 -1.235119551420211792e-01 -1.195312514901161194e-01 -1.242161169648170471e-02 3.237553685903549194e-02 6.385832279920578003e-02 3.760495409369468689e-02 -3.009561216458678246e-03 7.402949035167694092e-02 -1.655982108786702156e-03 -4.192570340819656849e-04 7.590247690677642822e-02 -2.239548414945602417e-01 -1.837150566279888153e-02 7.980239391326904297e-02 -1.013736873865127563e-01 1.550997495651245117e-01 6.401366740465164185e-02 -1.012677606195211411e-02 -5.462488159537315369e-02 -9.838284924626350403e-03 -3.141850978136062622e-02 5.883671808987855911e-03 -1.294320076704025269e-01 -4.507210478186607361e-02 1.594622991979122162e-02 -6.628072261810302734e-02 7.543301582336425781e-02 1.752526313066482544e-01 2.235005609691143036e-02 -1.465671956539154053e-01 -3.366909804753959179e-04 7.568868994712829590e-02 1.241240650415420532e-02 1.321186423301696777e-01 4.720774292945861816e-02 3.085658140480518341e-02 -2.004614099860191345e-02 4.067671671509742737e-02 7.624807953834533691e-02 -6.635366380214691162e-02 9.808792732656002045e-03 5.660377442836761475e-02 8.451990783214569092e-02 -1.672160029411315918e-01 1.430972069501876831e-01 -6.775794923305511475e-02 -1.400868222117424011e-02 -1.628229171037673950e-01 6.726587563753128052e-02 1.445313692092895508e-01 -1.054168120026588440e-02 1.128862611949443817e-02 9.931426495313644409e-02 2.307079546153545380e-02 -1.136331725865602493e-02 5.492995306849479675e-02 5.002798512578010559e-02 5.366738885641098022e-03 -1.170068159699440002e-01 -8.608815073966979980e-02 5.392373725771903992e-02 -7.022971659898757935e-02 4.043639078736305237e-02 -1.527034938335418701e-01 -1.693250834941864014e-01 -1.169767081737518311e-01 -1.632064394652843475e-02 -5.920333042740821838e-02 -6.092629581689834595e-02 -3.264311328530311584e-02 -1.398550719022750854e-01 1.670869300141930580e-03 -2.697967924177646637e-02 -1.489281356334686279e-01 -1.823983192443847656e-01 -1.173395887017250061e-01 3.013426624238491058e-02 -2.216740846633911133e-01 1.648951321840286255e-01 4.092229902744293213e-02 9.585564583539962769e-02 3.380840644240379333e-02 -3.590233623981475830e-02 -9.761027991771697998e-02 -6.063606962561607361e-02 1.070322617888450623e-01 1.302061975002288818e-01 1.140809617936611176e-02 8.740587532520294189e-02 1.753174513578414917e-01 -1.418048292398452759e-01 -8.892054110765457153e-02 7.998907566070556641e-02 -3.615641221404075623e-02 1.765084266662597656e-01 -8.049000054597854614e-02 -1.523258984088897705e-01 4.220199584960937500e-02 -9.565249830484390259e-02 3.440400958061218262e-02 -1.422738432884216309e-01 -3.575076535344123840e-02 -1.024772003293037415e-01 2.858536131680011749e-02 -8.521707355976104736e-02 1.026484444737434387e-01 -1.120455213822424412e-03 -7.378816604614257812e-02 1.855691373348236084e-01 -2.360518276691436768e-01 -1.757558584213256836e-01 -7.527411729097366333e-02 7.999734580516815186e-02 1.621326208114624023e-01 -2.292795572429895401e-03 -9.713728725910186768e-02 3.320560231804847717e-02 -1.134918443858623505e-02 3.046933189034461975e-02 5.366697907447814941e-02 3.581302240490913391e-02 -8.897310495376586914e-02 1.312574595212936401e-01 6.557830143719911575e-03 3.398015722632408142e-02 -9.552339464426040649e-02 -6.497469730675220490e-03 -1.130541712045669556e-01 8.618111908435821533e-02 -2.315258048474788666e-02 4.008248075842857361e-02 -2.370052225887775421e-02 -1.097758188843727112e-01 1.644058823585510254e-01 4.165129363536834717e-02 5.311571527272462845e-03 -9.644178301095962524e-02 7.842372171580791473e-03 1.026070564985275269e-01 1.017217244952917099e-02 -1.518485993146896362e-01 -5.942606180906295776e-02 5.683600530028343201e-02 8.117315173149108887e-02 -9.709104150533676147e-02 2.604018710553646088e-02 1.302021741867065430e-02 1.130524426698684692e-01 -2.561046741902828217e-03 -1.388294696807861328e-01 -3.430645167827606201e-02 -9.089878946542739868e-02 6.235035508871078491e-02 -1.176212728023529053e-01 -1.132799386978149414e-01 -7.020922005176544189e-02 1.975638717412948608e-01 -4.047773778438568115e-03 -3.655337169766426086e-02 -2.093357294797897339e-01 -4.489043727517127991e-02 -6.557306647300720215e-02 1.442287713289260864e-01 7.397999614477157593e-02 -9.765113890171051025e-02 5.102316290140151978e-02 1.627479642629623413e-01 4.115055315196514130e-03 1.359786279499530792e-02 -1.052551493048667908e-01 -7.912146300077438354e-02 2.894122619181871414e-03 4.443381726741790771e-02 -5.243061110377311707e-02 -3.895129635930061340e-02 4.456382617354393005e-02 -5.945364478975534439e-03 -1.945359110832214355e-01 -1.842338405549526215e-02 7.597405463457107544e-02 -1.690333038568496704e-01 8.844921737909317017e-02 -5.341946706175804138e-02 4.011126235127449036e-02 7.125201076269149780e-02
5.701271817088127136e-03 2.776459790766239166e-02 -3.441680967807769775e-02 -5.211300030350685120e-02 8.917220681905746460e-02 1.174238622188568115e-01 -5.713319033384323120e-02 -2.405036799609661102e-02 -7.527672220021486282e-03 9.410441666841506958e-02 6.633257120847702026e-02 -7.989952713251113892e-02 3.612405853345990181e-04 -1.114287525415420532e-01 1.869533956050872803e-01 3.353439271450042725e-02 7.296212762594223022e-02 1.046953815966844559e-02 2.224459499120712280e-01 6.266879290342330933e-02 1.248800568282604218e-02 -2.019599974155426025e-01 -1.235202327370643616e-01 7.889945805072784424e-02 2.828432433307170868e-02 1.099631041288375854e-01 -1.104682609438896179e-01 -1.502352021634578705e-02 -6.342639029026031494e-02 2.840112708508968353e-02 1.140182558447122574e-02 5.654807016253471375e-02 -2.814835123717784882e-02 -1.247696653008460999e-01 1.129493415355682373e-01 -9.072724729776382446e-02 -9.209501743316650391e-02 1.149382069706916809e-01 3.288698941469192505e-02 3.790462017059326172e-02 -1.596076600253582001e-02 1.393264681100845337e-01 1.829945482313632965e-03 2.486501820385456085e-02 8.687564730644226074e-02 -5.654904246330261230e-02 -6.979397684335708618e-02 -2.835234813392162323e-02 3.413568437099456787e-02 2.177240140736103058e-02 2.018719678744673729e-03 1.613933593034744263e-03 3.816987574100494385e-02 -9.362623095512390137e-03 4.230812937021255493e-02 2.075330726802349091e-02 -4.941165074706077576e-02 1.198550313711166382e-01 2.542558014392852783e-01 1.504464894533157349e-01 -5.067725852131843567e-02 9.202397428452968597e-03 -6.529644131660461426e-02 -8.372694998979568481e-02 -8.826933056116104126e-02 1.625240445137023926e-01 6.614533066749572754e-02 1.940140724182128906e-01 1.289937198162078857e-01 1.525725796818733215e-02 1.033652499318122864e-01 -2.027528733015060425e-01 -7.641077786684036255e-02 5.276638269424438477e-02 -9.456955641508102417e-02 -6.447011977434158325e-02 2.358978614211082458e-02 3.180404426530003548e-03 -9.923467040061950684e-02 -1.564171165227890015e-01 4.241510108113288879e-02 -9.209968149662017822e-02 -1.386633664369583130e-01 -1.549398526549339294e-02 8.798632025718688965e-02 8.828356117010116577e-02 -5.016545951366424561e-02 6.533104926347732544e-03 7.981232367455959320e-03 8.946284651756286621e-02 -2.002221494913101196e-01 1.623099446296691895e-01 1.778303086757659912e-01 -4.988003894686698914e-02 2.276783064007759094e-02 -4.721742123365402222e-03 2.746181190013885498e-02 1.050786022096872330e-02 -4.243246465921401978e-02 -8.324143290519714355e-02 5.357779446057975292e-04 -1.489352881908416748e-01 -6.380434334278106689e-02 1.084696575999259949e-01 8.686729706823825836e-04 6.236432120203971863e-02 3.019970282912254333e-02 -1.020293012261390686e-01 -2.758445031940937042e-02 3.324886783957481384e-02 1.116754859685897827e-01 -1.720398478209972382e-02 -1.216254383325576782e-01 6.186760216951370239e-02 -8.415050804615020752e-03 -9.100222587585449219e-02 -4.186805337667465210e-02 1.030865777283906937e-02 -1.569609041325747967e-03 -1.185329817235469818e-02 -5.613274127244949341e-02 6.871429830789566040e-02 -9.528588503599166870e-02 -1.863537915050983429e-02 6.707370281219482422e-02 -1.877645552158355713e-01 -1.033630147576332092e-01 8.552903681993484497e-02 6.175715103745460510e-02 -1.967554166913032532e-02 -6.198761984705924988e-04 -4.542475938796997070e-02 4.154328256845474243e-02 -1.220206357538700104e-02 -3.780896589159965515e-02 1.294093281030654907e-01 8.177262544631958008e-02 1.686208136379718781e-02 4.242148250341415405e-02 -1.042380109429359436e-01 -5.637430772185325623e-02 -1.067036837339401245e-01 -1.969130188226699829e-01 -6.707514822483062744e-02 -3.319565579295158386e-02 -2.699955552816390991e-02 1.702786050736904144e-02 -3.854241222143173218e-02 5.248485133051872253e-03 -8.721838891506195068e-02 -1.585825383663177490e-01 1.402438431978225708e-01 6.221717596054077148e-02 -4.640349745750427246e-02 -2.300198078155517578e-01 -2.304964885115623474e-02 2.044818997383117676e-01 1.473515331745147705e-01 1.526249796152114868e-01 -1.587355695664882660e-02 4.479987919330596924e-02 2.086103893816471100e-02 7.317458838224411011e-02 -1.370938718318939209e-01 -6.880311667919158936e-02 8.425160497426986694e-02 -9.497752040624618530e-02 -5.010874196887016296e-02 1.427499651908874512e-01 -6.204051896929740906e-02 7.291373610496520996e-02 -5.602421239018440247e-03 1.025661826133728027e-01 6.830646097660064697e-02 4.711648076772689819e-02 1.830862462520599365e-02 1.174724660813808441e-03 -9.360537678003311157e-02 -7.208953052759170532e-02 -8.305554091930389404e-02 -3.244738653302192688e-02 2.990081906318664551e-02 1.403016448020935059e-01 -1.607165336608886719e-01 -3.074265830218791962e-02 3.082748316228389740e-02 1.025295001454651356e-03 -7.557772845029830933e-02 -1.153649482876062393e-02 2.554040960967540741e-02 1.103181988000869751e-01 -5.398011952638626099e-02 -4.708639532327651978e-02 -3.484849352389574051e-03 1.153049990534782410e-02 -1.036569401621818542e-01 6.044229958206415176e-03 1.403067260980606079e-01 -1.107897758483886719e-01 4.353853687644004822e-02 9.783738851547241211e-02 1.908953338861465454e-01 -9.281679242849349976e-02 -1.069458201527595520e-01 1.454614251852035522e-01 -1.623061001300811768e-01 7.518959045410156250e-02 1.107824817299842834e-01 -9.658280760049819946e-02 1.483025401830673218e-01 -7.417300343513488770e-02 1.617185398936271667e-02 5.287047475576400757e-02 -4.209843277931213379e-02 -1.257202476263046265e-01 1.557847857475280762e-01 7.464796304702758789e-02 -7.867557555437088013e-02 -1.559255123138427734e-01 -2.953425049781799316e-02 -8.260905742645263672e-02 -9.786563366651535034e-02 3.012604266405105591e-02 1.995194256305694580e-01 1.578628318384289742e-03 1.423041224479675293e-01 -8.731719106435775757e-02 7.083336263895034790e-02 -1.100132167339324951e-01 -2.313413657248020172e-02 -3.855656832456588745e-02 -8.753765374422073364e-02 -1.780484803020954132e-02 9.322700649499893188e-02 -4.219214245676994324e-02 9.880782663822174072e-02 -1.287355124950408936e-01 1.264038830995559692e-01 8.650694787502288818e-02 -1.106848493218421936e-01 -2.500460110604763031e-02 -4.557501524686813354e-02 -4.725454747676849365e-02 -3.024607710540294647e-02 -4.481959342956542969e-02 -8.332813531160354614e-02 -3.821117803454399109e-02 -4.436764866113662720e-02 5.245017260313034058e-02 -2.544064540416002274e-03 -3.722631931304931641e-02 -1.208182200789451599e-01 -9.201945364475250244e-02 -1.815563291311264038e-01 -1.338286846876144409e-01 -1.124887540936470032e-02
1.173582579940557480e-02 1.936828792095184326e-01 7.371421158313751221e-02 4.501441493630409241e-02 3.144691511988639832e-02 2.380611933767795563e-02 6.051050499081611633e-02 -3.460758551955223083e-02 2.721291407942771912e-02 1.008483394980430603e-02 8.029183000326156616e-02 6.151821929961442947e-03 -9.551581740379333496e-02 -4.781453683972358704e-02 -6.632588058710098267e-02 -4.390773549675941467e-02 8.213905245065689087e-02 1.200845465064048767e-03 1.554711461067199707e-01 -5.965323001146316528e-02 -8.885378390550613403e-02 1.784880459308624268e-02 2.725728973746299744e-02 -1.931074447929859161e-02 -5.804118886590003967e-02 -9.336812049150466919e-02 -4.357722774147987366e-02 2.957065775990486145e-02 5.512104183435440063e-02 -9.490184485912322998e-02 4.153850302100181580e-02 -7.476587593555450439e-02 1.415682137012481689e-01 3.361557051539421082e-02 -5.002578347921371460e-02 -3.738601505756378174e-02 -3.527261689305305481e-02 -1.548921782523393631e-02 5.781517922878265381e-02 2.733792960643768311e-01 2.702151052653789520e-02 -6.404455751180648804e-02 2.022582106292247772e-02 4.413146898150444031e-02 -1.036127433180809021e-01 -1.166271269321441650e-01 9.368083626031875610e-02 -6.715905666351318359e-02 4.944131709635257721e-03 -7.436463236808776855e-02 -5.074186995625495911e-02 -2.866891212761402130e-02 -1.613019034266471863e-02 9.890540689229965210e-02 -1.486816536635160446e-02 -1.512501039542257786e-03 8.030297607183456421e-02 8.150616660714149475e-03 1.003166139125823975e-01 -1.608023941516876221e-01 -1.354765295982360840e-01 -2.415855601429939270e-02 -1.293701399117708206e-02 -5.821499973535537720e-02 3.001488372683525085e-02 1.315804570913314819e-01 -6.791025865823030472e-03 8.631927520036697388e-02 1.147894095629453659e-02 5.337131395936012268e-02 -6.499304622411727905e-02 -1.476364433765411377e-01 1.063728779554367065e-01 1.238379105925559998e-01 4.438429325819015503e-02 -1.321642696857452393e-01 -6.472700834274291992e-02 8.269536308944225311e-03 -7.675111293792724609e-02 2.999493107199668884e-02 3.590721637010574341e-02 -3.494495153427124023e-02 4.782828316092491150e-02 -1.540979146957397461e-01 -1.708359122276306152e-01 8.781268447637557983e-02 -9.911430999636650085e-03 2.268021181225776672e-02 -5.023344233632087708e-02 -8.694870397448539734e-03 -1.427892893552780151e-01 -1.504696011543273926e-01 1.225153282284736633e-01 2.286654897034168243e-02 7.105095684528350830e-02 5.002482235431671143e-02 1.656200587749481201e-01 3.845043107867240906e-02 1.115998029708862305e-01 1.125237941741943359e-01 1.245403140783309937e-01 1.212334539741277695e-02 1.230429485440254211e-01 -1.816544122993946075e-02 -5.491005256772041321e-02 -2.622943930327892303e-02 1.945165544748306274e-01 -7.921992242336273193e-02 6.395298242568969727e-02 -1.901910006999969482e-01 1.373590249568223953e-02 -8.148182928562164307e-02 1.065093874931335449e-01 1.426629722118377686e-02 1.493173986673355103e-01 7.945189625024795532e-02 2.681488171219825745e-02 -1.749945729970932007e-01 -1.570813506841659546e-01 -2.511249668896198273e-02 3.623196855187416077e-02 -4.833123087882995605e-02 1.487948000431060791e-01 -1.690705120563507080e-02 -1.007262319326400757e-01 1.178830116987228394e-01 6.647860258817672729e-02 8.519583195447921753e-02 -5.256925709545612335e-03 6.343451794236898422e-03 3.425992280244827271e-02 1.182998865842819214e-01 1.804527193307876587e-01 1.684164628386497498e-02 -1.348287016153335571e-01 1.577872931957244873e-01 8.577444590628147125e-03 -5.958965793251991272e-02 -3.754824399948120117e-02 8.473037742078304291e-03 -8.556202799081802368e-02 3.046476282179355621e-02 1.598551571369171143e-01 2.909563481807708740e-02 -1.079951375722885132e-01 -1.269811540842056274e-01 -1.030592527240514755e-02 -4.813257232308387756e-02 -8.417584747076034546e-02 1.916640996932983398e-01 -2.295981906354427338e-02 -2.143462002277374268e-02 1.106078028678894043e-01 -2.528255581855773926e-01 2.753304503858089447e-02 -3.536890074610710144e-02 5.744066461920738220e-02 1.021581050008535385e-02 2.741907350718975067e-02 7.236909586936235428e-03 -1.652552783489227295e-01 -3.433041647076606750e-02 -8.612762391567230225e-02 -3.347748517990112305e-02 -1.980019733309745789e-02 -2.064022002741694450e-03 -6.585148721933364868e-02 1.327961683273315430e-01 -1.195963174104690552e-01 3.424903377890586853e-02 -9.018042683601379395e-02 3.645793534815311432e-03 6.211880221962928772e-02 1.789610274136066437e-02 -1.394309848546981812e-01 1.549134403467178345e-01 3.068049252033233643e-02 -8.511420339345932007e-02 -2.271506376564502716e-02 -1.176189482212066650e-01 3.536319732666015625e-02 -8.088666945695877075e-02 -9.331384301185607910e-02 -6.306277215480804443e-02 -1.095329374074935913e-01 -1.665763184428215027e-02 -1.328973565250635147e-03 9.866537898778915405e-02 -6.043047178536653519e-03 7.164689153432846069e-02 -1.889999806880950928e-01 3.886997699737548828e-02 -5.795476585626602173e-02 -8.165150135755538940e-02 2.332924865186214447e-02 4.278210178017616272e-02 -6.530608236789703369e-02 8.906292170286178589e-02 -7.531300932168960571e-02 -5.704690143465995789e-02 -8.430185168981552124e-02 1.386451572179794312e-01 1.582598127424716949e-02 3.043301776051521301e-02 1.610358953475952148e-01 8.448393642902374268e-02 9.192124754190444946e-02 -5.677803233265876770e-02 -5.504694953560829163e-02 -2.303535044193267822e-01 -7.557244598865509033e-02 -1.647682934999465942e-01 -6.998017430305480957e-02 -1.172261014580726624e-01 1.466127783060073853e-01 -6.534460932016372681e-02 -1.256938278675079346e-01 -1.741632968187332153e-01 1.443513929843902588e-01 -9.909020736813545227e-03 9.461352229118347168e-02 -5.323573574423789978e-02 -8.470732718706130981e-02 -4.267060756683349609e-02 1.106647253036499023e-01 1.322290599346160889e-01 -1.966267591342329979e-03 1.431151293218135834e-02 7.221129536628723145e-02 1.076366007328033447e-02 -2.146479673683643341e-02 1.731815002858638763e-02 -3.266828507184982300e-02 -9.536416083574295044e-02 -1.240325346589088440e-01 -2.917683683335781097e-02 -5.557968094944953918e-02 -4.092567786574363708e-02 1.641526520252227783e-01 3.021902590990066528e-02 -9.062923491001129150e-02 -5.976510792970657349e-02 -1.863190531730651855e-02 6.753847002983093262e-02 1.109989285469055176e-01 -9.321498125791549683e-02 -1.012399718165397644e-01 -4.301778599619865417e-02 5.423221737146377563e-02 5.275491997599601746e-02 -9.128621965646743774e-02 -1.067869067192077637e-01 7.293599098920822144e-02 3.922180831432342529e-02 -4.496856592595577240e-03 -1.752972453832626343e-01
-1.178131550550460815e-01 -6.803007423877716064e-02 -1.771441549062728882e-01 1.573737114667892456e-01 8.393679559230804443e-02 1.566250324249267578e-01 5.181308835744857788e-02 -3.104656375944614410e-02 4.510711878538131714e-02 1.161034256219863892e-01 7.925863564014434814e-02 -1.586944162845611572e-01 8.063484728336334229e-02 -1.704218685626983643e-01 1.511201914399862289e-02 -1.378174219280481339e-02 2.100456357002258301e-01 -1.028654202818870544e-01 -7.391409575939178467e-02 4.939800128340721130e-02 1.280859950929880142e-02 -1.077951192855834961e-01 -1.703761704266071320e-02 -9.943320415914058685e-03 6.245496869087219238e-02 -6.071084737777709961e-02 8.673027902841567993e-02 -8.745196275413036346e-03 -7.798536121845245361e-02 -5.297594889998435974e-02 -4.540324583649635315e-02 7.849043607711791992e-02 9.241931885480880737e-02 -7.203020621091127396e-03 -6.453584134578704834e-02 -5.989751964807510376e-02 -1.181199550628662109e-01 1.299469918012619019e-01 6.809458136558532715e-02 6.337599363178014755e-03 1.122332811355590820e-01 1.254492998123168945e-01 -4.511266201734542847e-02 5.866150185465812683e-02 -1.799941807985305786e-01 -8.060432970523834229e-02 5.300271511077880859e-02 6.451504677534103394e-02 -8.234303444623947144e-02 -4.914331808686256409e-02 -1.322724223136901855e-01 -1.322767734527587891e-01 -3.886349871754646301e-02 -1.424209214746952057e-02 -4.342880100011825562e-02 5.814392585307359695e-03 2.277829125523567200e-02 -1.227591708302497864e-01 -1.448001563549041748e-01 -1.651994585990905762e-01 1.264580339193344116e-02 -9.011082351207733154e-02 -1.766377836465835571e-01 -3.625706210732460022e-02 6.099048070609569550e-03 -2.133081853389739990e-02 -1.239272207021713257e-01 1.003018673509359360e-02 -1.337379869073629379e-02 -1.661604642868041992e-01 -3.287367522716522217e-02 -2.739951945841312408e-02 7.203342020511627197e-02 9.655435383319854736e-02 -4.997908696532249451e-02 9.080967307090759277e-02 1.052344962954521179e-01 -9.093035012483596802e-02 -1.574608683586120605e-01 -5.401797592639923096e-02 -5.854415707290172577e-03 4.045948758721351624e-02 -7.203214801847934723e-03 6.352015584707260132e-02 4.597968235611915588e-02 -7.203204929828643799e-02 6.165159493684768677e-02 -5.462412536144256592e-02 -9.190760552883148193e-02 -2.198009751737117767e-02 -7.245478034019470215e-02 5.697517096996307373e-02 9.927559643983840942e-02 -1.242421790957450867e-01 -1.011228635907173157e-01 -1.862117499113082886e-01 2.525667287409305573e-02 -9.114375710487365723e-02 9.850449115037918091e-02 -7.099725306034088135e-02 9.209562093019485474e-03 -2.405918836593627930e-01 1.223530769348144531e-01 1.401372402906417847e-01 -1.243750974535942078e-01 -5.959032848477363586e-02 6.042281165719032288e-02 1.195515096187591553e-01 7.904203981161117554e-02 5.001459643244743347e-02 -6.855266541242599487e-02 6.108414381742477417e-02 9.825693070888519287e-02 -1.437223795801401138e-02 -2.968802861869335175e-02 6.279778666794300079e-03 1.476909816265106201e-01 -1.297651082277297974e-01 -5.016279965639114380e-02 4.012234136462211609e-02 -3.101727180182933807e-02 -2.535211294889450073e-02 1.014306694269180298e-01 -1.585317775607109070e-02 2.484024036675691605e-03 2.603357657790184021e-02 -1.898913681507110596e-01 1.462577003985643387e-02 -5.508850887417793274e-02 -1.508276462554931641e-01 -7.681251317262649536e-02 1.395006291568279266e-02 -4.022168740630149841e-02 -2.658223547041416168e-02 -5.031298846006393433e-03 -1.451408211141824722e-02 3.847528621554374695e-02 -1.360524147748947144e-01 -3.452818095684051514e-02 -7.291416078805923462e-02 2.575642056763172150e-02 -1.907898485660552979e-02 7.079034298658370972e-02 9.366809576749801636e-02 -1.818720251321792603e-02 1.542602181434631348e-01 1.439976394176483154e-01 -5.905982106924057007e-02 9.953019767999649048e-02 -6.281340122222900391e-02 -6.790497899055480957e-02 1.278579682111740112e-01 5.562806036323308945e-03 1.128975525498390198e-01 1.264638453722000122e-01 -8.373374491930007935e-02 5.149512737989425659e-02 -6.618805974721908569e-02 -1.459477841854095459e-01 -3.131977096199989319e-02 7.628399133682250977e-02 4.856334626674652100e-02 -6.523331254720687866e-02 2.724435627460479736e-01 3.629709407687187195e-02 -1.865705102682113647e-01 -6.186266243457794189e-02 -1.750334948301315308e-01 -1.114597916603088379e-01 1.746890693902969360e-02 -1.693935394287109375e-01 -1.066156476736068726e-01 2.143141254782676697e-02 4.771418869495391846e-03 -9.053667634725570679e-02 -1.064848974347114563e-01 -5.823098495602607727e-02 -9.951902180910110474e-02 7.281253486871719360e-02 -2.380323968827724457e-02 -3.555545210838317871e-02 8.183281868696212769e-02 -6.972002238035202026e-02 -1.770609468221664429e-01 8.027857542037963867e-02 1.006852760910987854e-01 6.982955336570739746e-02 -1.366024315357208252e-01 6.445536017417907715e-02 -4.076972976326942444e-02 -1.740645430982112885e-02 -1.056413352489471436e-01 9.778846055269241333e-03 -5.088383704423904419e-02 1.059068817994557321e-04 -2.926655672490596771e-02 -1.021426245570182800e-01 2.840207889676094055e-02 -1.409073919057846069e-01 1.571528427302837372e-02 -8.145897090435028076e-02 5.377430096268653870e-02 3.117873892188072205e-02 7.607772201299667358e-02 -9.234454482793807983e-02 5.290406197309494019e-02 1.097488552331924438e-01 -8.539516478776931763e-02 -1.010100394487380981e-01 -9.276977926492691040e-02 1.470821816474199295e-02 -1.102463752031326294e-01 3.659915924072265625e-02 -1.708600372076034546e-01 -3.428899869322776794e-02 -5.360619351267814636e-02 4.633819684386253357e-02 1.469800770282745361e-01 -7.409494835883378983e-03 -4.996256530284881592e-02 -8.285868167877197266e-02 9.994690120220184326e-02 -3.783760964870452881e-02 -6.193353328853845596e-03 -1.063572242856025696e-02 -2.410495094954967499e-02 -3.248446062207221985e-02 7.520250976085662842e-02 1.002759858965873718e-01 2.820565365254878998e-02 3.384594246745109558e-02 -3.488492965698242188e-02 9.783373773097991943e-02 1.610755324363708496e-01 6.909874826669692993e-02 -1.930669695138931274e-02 1.311876326799392700e-01 -8.668903261423110962e-02 -6.196788325905799866e-02 -1.147724762558937073e-01 -8.813302032649517059e-03 -7.941949367523193359e-02 -7.854700833559036255e-02 2.726002410054206848e-02 -1.037438586354255676e-01 1.438628975301980972e-02 -7.039600610733032227e-02 -1.338811665773391724e-01 -5.094207823276519775e-03 -3.694235812872648239e-03 -1.702112555503845215e-01 4.662995412945747375e-02 1.342060714960098267e-01 3.468716889619827271e-02 -6.438339501619338989e-02 -1.123378518968820572e-02
-4.520624876022338867e-02 4.292041435837745667e-02 -1.898176223039627075e-02 -2.573218755424022675e-02 4.645222425460815430e-02 1.662490069866180420e-01 -2.559677958488464355e-01 -7.139773666858673096e-02 -3.090511821210384369e-02 5.600658059120178223e-02 3.125221282243728638e-02 -7.505021244287490845e-02 -2.288271486759185791e-02 -1.023031026124954224e-01 -5.337154120206832886e-02 -2.053521387279033661e-02 -6.894110143184661865e-02 1.876022219657897949e-01 -3.711283206939697266e-02 9.521619230508804321e-02 4.113698378205299377e-02 -1.035598143935203552e-01 -1.072299107909202576e-01 1.200445517897605896e-01 -1.019182056188583374e-01 3.096061572432518005e-02 -8.147341758012771606e-02 -1.585838943719863892e-01 -1.246332749724388123e-02 -4.095233511179685593e-03 -4.686268791556358337e-02 5.482297763228416443e-02 -4.303327878005802631e-04 3.883218020200729370e-02 -6.043905764818191528e-02 1.472769677639007568e-02 -8.187739178538322449e-03 2.090256661176681519e-01 1.032806560397148132e-01 9.142384678125381470e-02 -8.172083646059036255e-02 -6.466487888246774673e-03 -1.989126391708850861e-02 -7.443207502365112305e-02 -6.591121852397918701e-02 -1.220738738775253296e-01 -1.523902118206024170e-01 9.186670184135437012e-02 -6.426922231912612915e-02 1.219598129391670227e-01 -1.193498000502586365e-01 8.295994251966476440e-02 -9.504706412553787231e-02 7.712738960981369019e-02 8.368490636348724365e-02 -1.094588916748762131e-02 -1.313898116350173950e-01 6.546740978956222534e-02 -4.161019250750541687e-02 7.180625200271606445e-02 -1.165010407567024231e-01 -7.623536977916955948e-03 4.160155355930328369e-02 8.078033104538917542e-03 -2.963113598525524139e-02 4.124142602086067200e-02 2.712742239236831665e-02 -9.487224370241165161e-02 5.007032677531242371e-02 -7.611161470413208008e-02 2.629803121089935303e-02 -3.396806493401527405e-02 2.335961349308490753e-02 -2.198293991386890411e-02 9.047365188598632812e-02 3.140994161367416382e-02 4.505765065550804138e-02 -1.509168744087219238e-01 -4.873482044786214828e-03 1.634280569851398468e-02 1.306817284785211086e-03 -7.604241371154785156e-02 6.813546270132064819e-02 -1.575337722897529602e-02 -5.490242317318916321e-02 2.628170885145664215e-02 -4.419192299246788025e-02 6.793877575546503067e-03 2.374773174524307251e-01 -1.405042707920074463e-01 6.694184243679046631e-02 -5.321980640292167664e-02 1.703572571277618408e-01 4.427057504653930664e-02 5.131136998534202576e-02 8.945735171437263489e-03 8.085232228040695190e-02 9.347245842218399048e-02 -1.150876376777887344e-02 3.959130123257637024e-02 3.208231180906295776e-02 4.328347742557525635e-02 -1.225953735411167145e-02 -5.505579337477684021e-02 2.680998668074607849e-02 -1.291925832629203796e-02 -5.100119393318891525e-03 1.672652363777160645e-01 -7.921084761619567871e-02 2.279554307460784912e-02 -2.850989252328872681e-02 -1.820806041359901428e-02 7.965169101953506470e-02 2.733935415744781494e-02 9.665592759847640991e-02 1.169872283935546875e-01 2.273042351007461548e-01 -3.734763339161872864e-02 1.797083951532840729e-02 -1.344672404229640961e-02 -1.608088240027427673e-02 2.218419127166271210e-02 -8.029597252607345581e-02 -4.329932481050491333e-02 5.597208067774772644e-02 -1.311208605766296387e-01 5.928390659391880035e-03 1.861739158630371094e-02 -1.423926502466201782e-01 1.555077880620956421e-01 1.968562137335538864e-04 1.087492052465677261e-02 2.172374278306961060e-01 -4.641882702708244324e-02 3.594524040818214417e-02 -9.447820484638214111e-02 1.322875320911407471e-01 -5.054224655032157898e-02 3.721673786640167236e-02 -3.174067661166191101e-02 -1.914928900077939034e-03 -7.599269598722457886e-02 3.884359076619148254e-02 2.932295668870210648e-03 1.939761191606521606e-01 -1.078356727957725525e-01 -6.407006084918975830e-02 -1.382516622543334961e-01 -1.925623416900634766e-01 -2.825994789600372314e-02 -2.156201750040054321e-01 -5.750912800431251526e-02 -1.654362305998802185e-02 8.109711110591888428e-02 3.082954511046409607e-02 -3.623833134770393372e-02 -1.085320860147476196e-01 -3.367667496204376221e-01 -5.900459736585617065e-02 1.834308654069900513e-01 6.985475867986679077e-02 4.942438378930091858e-02 -1.138084977865219116e-01 -3.961090371012687683e-02 1.638326644897460938e-01 -8.330281823873519897e-02 1.280625611543655396e-01 1.696054078638553619e-02 -5.450087785720825195e-02 7.822245359420776367e-02 -1.106819063425064087e-01 -6.202325224876403809e-02 -5.646500736474990845e-02 -8.264925330877304077e-02 -1.625651419162750244e-01 -7.053973525762557983e-02 -2.792342752218246460e-02 9.047838300466537476e-02 -1.023488789796829224e-01 -5.768605321645736694e-02 -4.753616824746131897e-02 -2.064281553030014038e-01 3.693054988980293274e-02 -6.515070050954818726e-02 -1.248855888843536377e-01 -3.387864306569099426e-02 1.849645562469959259e-02 1.443001031875610352e-01 -6.461571156978607178e-02 4.625694453716278076e-02 1.860916316509246826e-01 -1.006862744688987732e-01 1.252966970205307007e-01 1.421625763177871704e-01 1.954675279557704926e-02 1.834704773500561714e-03 -4.689123481512069702e-03 -2.753334306180477142e-02 -3.480247408151626587e-02 -6.445237994194030762e-02 -6.590631790459156036e-03 6.522752344608306885e-02 7.441509515047073364e-03 7.759441155940294266e-03 -9.006971865892410278e-02 1.157732401043176651e-02 7.425889372825622559e-02 -6.409882754087448120e-02 1.027691215276718140e-01 -1.112668495625257492e-02 1.663876324892044067e-02 -1.102184131741523743e-01 3.227089717984199524e-02 3.166520968079566956e-02 1.079878956079483032e-01 -1.712490022182464600e-01 7.620559073984622955e-03 9.552398324012756348e-02 -1.627193298190832138e-03 9.704167395830154419e-02 1.514409761875867844e-02 -1.490811258554458618e-01 5.158289521932601929e-02 -1.119751557707786560e-01 1.560841798782348633e-01 -1.555208396166563034e-02 -9.976921230554580688e-02 1.028670221567153931e-01 -1.538422554731369019e-01 -1.213153302669525146e-01 -1.330448407679796219e-02 8.105807006359100342e-02 -3.910350427031517029e-02 1.036481857299804688e-01 -9.215132147073745728e-02 5.780720338225364685e-02 -1.611901260912418365e-02 -3.422727063298225403e-02 -2.968010120093822479e-02 5.861552059650421143e-02 3.763204813003540039e-02 -1.119334548711776733e-01 7.033799588680267334e-02 8.920596539974212646e-02 -1.070109978318214417e-01 -7.545421272516250610e-02 -2.914546430110931396e-02 -6.598533689975738525e-02 -5.092576891183853149e-02 -1.289920359849929810e-01 8.421765267848968506e-02 -6.276183575391769409e-02 -8.732820302248001099e-02 -1.677981317043304443e-01 -6.345847994089126587e-02 4.799038171768188477e-02
7.970467209815979004e-02 -1.698519848287105560e-02 -8.445153385400772095e-02 -1.567224562168121338e-01 3.974844887852668762e-02 -1.537767648696899414e-01 1.832930557429790497e-02 5.274369940161705017e-02 2.518769167363643646e-02 5.524070188403129578e-02 -1.146800536662340164e-02 -1.475998461246490479e-01 -2.921376377344131470e-02 -1.987310200929641724e-01 1.446296274662017822e-01 -2.324749231338500977e-01 -1.958170346915721893e-02 -1.133463927544653416e-03 1.710939705371856689e-01 1.117228120565414429e-01 1.088787615299224854e-01 9.646102786064147949e-02 -2.951720170676708221e-02 2.959653735160827637e-02 1.014372333884239197e-01 1.915667019784450531e-02 -1.941605843603610992e-02 -7.537088543176651001e-02 5.817699246108531952e-03 1.481612416682764888e-04 7.848781347274780273e-02 -7.865147292613983154e-02 -1.363225430250167847e-01 1.334229409694671631e-01 9.621094167232513428e-02 -4.287227988243103027e-02 1.943641901016235352e-02 -8.766497671604156494e-02 9.763139300048351288e-03 -4.223565012216567993e-02 -1.030865535140037537e-01 -1.480168253183364868e-01 -1.158585026860237122e-02 -8.110197633504867554e-02 -3.511757776141166687e-02 -6.234197691082954407e-02 -1.051173359155654907e-01 -5.626185238361358643e-02 -7.153017818927764893e-02 1.032427996397018433e-01 6.673192977905273438e-02 -3.317251056432723999e-02 4.427133500576019287e-02 -2.421539276838302612e-01 1.305323690176010132e-01 4.729085788130760193e-02 1.510131172835826874e-03 -1.433092951774597168e-01 8.309781551361083984e-03 -2.274606190621852875e-02 3.246280178427696228e-02 3.905583545565605164e-02 -2.553741633892059326e-01 -1.245300471782684326e-01 8.812107145786285400e-02 -1.040309295058250427e-01 -5.231688171625137329e-02 6.056913733482360840e-02 3.815450146794319153e-02 -2.459021843969821930e-02 1.433354765176773071e-01 1.498008668422698975e-01 -7.788467407226562500e-02 -9.909082949161529541e-02 -9.548257291316986084e-02 3.596679493784904480e-02 -1.368835866451263428e-01 -1.738463324727490544e-04 -1.242749206721782684e-02 -2.896787971258163452e-02 -2.406652271747589111e-02 -5.082352831959724426e-02 -8.870299160480499268e-02 -4.604953899979591370e-02 4.921251162886619568e-02 -4.537972435355186462e-02 2.169831283390522003e-02 5.306423455476760864e-02 6.438753008842468262e-02 -3.187382519245147705e-01 -1.037158593535423279e-01 -2.928920276463031769e-02 1.022795364260673523e-01 -7.735453546047210693e-02 -5.197815224528312683e-02 -2.265082113444805145e-02 -9.601460397243499756e-02 -8.827256038784980774e-03 7.071094214916229248e-02 4.020832106471061707e-02 -8.002104610204696655e-02 1.098714470863342285e-01 3.818844631314277649e-02 -1.695667207241058350e-01 6.607235409319400787e-03 5.336508527398109436e-02 -3.186234831809997559e-02 -3.699078410863876343e-02 -5.384982377290725708e-02 3.918146342039108276e-02 -1.920804381370544434e-01 -6.904813647270202637e-02 -1.254089921712875366e-02 2.064900286495685577e-02 -3.591251000761985779e-02 -4.305864125490188599e-02 -3.865043818950653076e-02 -1.581790111958980560e-02 3.823687881231307983e-02 -3.086083196103572845e-02 -6.033927574753761292e-02 1.226758956909179688e-01 1.001262217760086060e-01 -6.258750334382057190e-03 -1.628099977970123291e-01 -1.360806077718734741e-01 7.695050444453954697e-03 3.901677578687667847e-02 1.879268437623977661e-01 -7.166749984025955200e-02 -5.254590138792991638e-02 5.968731641769409180e-02 -4.777148365974426270e-02 -7.848869077861309052e-03 -1.532594263553619385e-01 -7.457797229290008545e-02 -2.319126725196838379e-01 -5.986560136079788208e-02 1.850239373743534088e-02 5.836096126586198807e-03 6.011779233813285828e-02 -1.190263777971267700e-01 8.475223183631896973e-02 -1.018541306257247925e-01 -1.035647243261337280e-01 1.221028193831443787e-01 -2.020363211631774902e-01 -5.195642635226249695e-02 1.132261455059051514e-01 -2.538958378136157990e-02 8.290112763643264771e-02 3.611288219690322876e-02 4.605426639318466187e-02 5.513656139373779297e-02 2.510134316980838776e-02 -9.292470663785934448e-02 -8.196529746055603027e-02 4.472060501575469971e-02 2.911162562668323517e-02 2.009724080562591553e-01 6.694141775369644165e-02 -1.294273436069488525e-01 -9.965158253908157349e-02 5.435034260153770447e-02 1.579811982810497284e-02 1.484270393848419189e-01 -4.899213090538978577e-02 -7.684150245040655136e-03 -1.300540566444396973e-01 1.261190474033355713e-01 -7.687088847160339355e-02 -5.908207967877388000e-02 -8.869979530572891235e-02 -5.100164934992790222e-02 -1.731184422969818115e-01 -5.222760885953903198e-02 4.912170022726058960e-02 -2.026798576116561890e-02 -4.569609463214874268e-02 -6.799945235252380371e-02 -5.082401912659406662e-03 4.892672970890998840e-02 -3.602853044867515564e-02 -7.256104052066802979e-02 -1.966398954391479492e-01 -1.066766586154699326e-02 7.614341378211975098e-02 -3.066525561735033989e-03 5.038107186555862427e-02 -3.404253721237182617e-02 1.689818799495697021e-01 -7.790380716323852539e-02 5.970225669443607330e-03 -6.958699971437454224e-02 -8.580456674098968506e-02 -3.151197358965873718e-02 -1.543952673673629761e-01 2.972203772515058517e-03 -1.140290051698684692e-01 3.823528066277503967e-03 1.038751658052206039e-02 -1.957665942609310150e-02 -7.081504911184310913e-02 2.389997690916061401e-01 5.750421434640884399e-02 -1.270155422389507294e-02 8.849512040615081787e-02 -4.353823140263557434e-02 1.159323938190937042e-02 5.346550047397613525e-02 7.194066792726516724e-02 4.483453929424285889e-02 2.812200412154197693e-02 -3.632656112313270569e-02 -1.614377088844776154e-02 -3.925304859876632690e-02 -5.764628294855356216e-03 1.841334067285060883e-02 -1.011204048991203308e-01 7.007404696196317673e-03 9.408601373434066772e-02 3.878925740718841553e-02 3.322544693946838379e-02 -1.826030313968658447e-01 1.105140056461095810e-02 3.278206288814544678e-02 5.890172347426414490e-02 4.768594354391098022e-02 -8.286006003618240356e-02 -9.029497206211090088e-02 1.038234233856201172e-01 -9.775760024785995483e-02 5.750044062733650208e-02 -1.748012453317642212e-01 1.218517497181892395e-01 9.407227486371994019e-02 1.627543121576309204e-01 -4.500573500990867615e-02 8.546444028615951538e-02 2.491007745265960693e-01 -6.982859969139099121e-02 -1.588209867477416992e-01 9.808921068906784058e-02 2.590926177799701691e-02 1.367302704602479935e-02 -7.845271378755569458e-02 8.278081566095352173e-02 1.036814302206039429e-01 2.786352336406707764e-01 1.546575427055358887e-01 3.530287183821201324e-03 6.320368498563766479e-02 -9.643339365720748901e-02 -1.003824248909950256e-01 9.238900989294052124e-02 -6.494969874620437622e-02
1.050334572792053223e-01 2.510994113981723785e-02 2.004924602806568146e-02 -1.162793785333633423e-01 6.044634617865085602e-03 -6.303891539573669434e-02 -1.470490545034408569e-01 7.787726819515228271e-02 -1.331090182065963745e-01 4.730371758341789246e-02 -6.611847132444381714e-02 -8.266774564981460571e-02 -1.578990370035171509e-01 -1.387557536363601685e-01 1.460367888212203979e-01 -1.118872612714767456e-01 -9.338990598917007446e-02 -3.576845303177833557e-02 -1.443294435739517212e-01 1.131231486797332764e-01 1.512447744607925415e-01 1.342735253274440765e-02 -8.561133593320846558e-02 -1.429998278617858887e-01 -1.967554241418838501e-01 1.443981975317001343e-01 -2.992688678205013275e-02 9.372683614492416382e-02 1.590502820909023285e-02 -7.246304303407669067e-02 -3.617305308580398560e-02 8.827979862689971924e-02 5.894869193434715271e-02 2.138923667371273041e-02 -1.745686829090118408e-01 2.478983998298645020e-02 -1.276304852217435837e-02 -1.152458935976028442e-01 9.058471024036407471e-02 -5.041571706533432007e-02 1.120965089648962021e-02 -3.584103286266326904e-02 -4.852401092648506165e-02 -1.021680980920791626e-01 -4.740355163812637329e-02 1.153602302074432373e-01 2.091414481401443481e-01 -1.376956105232238770e-01 8.041109889745712280e-02 2.763282880187034607e-02 -3.149385377764701843e-02 -1.803951561450958252e-01 -1.182405352592468262e-01 -2.957005426287651062e-02 -6.204704195261001587e-02 -8.780962228775024414e-02 -1.500090658664703369e-01 -3.502023406326770782e-03 -5.201162397861480713e-02 2.536302618682384491e-02 -1.252052485942840576e-01 1.215728446841239929e-01 -1.743956655263900757e-02 -4.682827368378639221e-02 -6.673802435398101807e-02 1.948482096195220947e-01 5.760357901453971863e-02 7.450783252716064453e-02 -5.831430107355117798e-02 -6.508745253086090088e-02 -1.253980696201324463e-01 7.078976929187774658e-02 -1.345287635922431946e-02 -1.038551107048988342e-01 2.414861135184764862e-02 2.012636326253414154e-02 1.184128001332283020e-01 7.985457777976989746e-02 -4.437419120222330093e-03 -1.960913091897964478e-02 -4.900869727134704590e-02 -5.399680882692337036e-02 -1.437046974897384644e-01 -8.531977981328964233e-02 -6.511766929179430008e-03 -1.173562183976173401e-01 1.115789338946342468e-01 3.421016037464141846e-02 3.208298981189727783e-02 1.033615022897720337e-01 -5.955797806382179260e-02 6.037464831024408340e-03 -5.795664619654417038e-04 -3.282245248556137085e-02 3.129916638135910034e-02 6.332691013813018799e-02 1.082088276743888855e-01 -4.645839333534240723e-02 7.451185584068298340e-02 -1.638307794928550720e-02 -1.626759767532348633e-02 -4.263030830770730972e-03 1.060344725847244263e-01 2.148057706654071808e-02 7.896974682807922363e-02 5.515604093670845032e-02 -1.063153520226478577e-01 8.483511395752429962e-03 6.755011528730392456e-02 2.168399095535278320e-02 -9.049020707607269287e-02 -9.765660390257835388e-03 1.976613849401473999e-01 1.831604987382888794e-01 -8.544644713401794434e-02 -9.652154892683029175e-02 2.034327760338783264e-02 -1.584525592625141144e-02 1.849963963031768799e-01 -1.242664232850074768e-01 2.628580667078495026e-02 4.903918877243995667e-02 5.092091485857963562e-02 8.913799375295639038e-02 1.373245716094970703e-01 2.502708323299884796e-02 7.523681223392486572e-02 2.521120570600032806e-02 1.545441746711730957e-01 -1.962544471025466919e-01 -9.959262609481811523e-02 -1.746079325675964355e-01 -1.505431085824966431e-01 6.184878945350646973e-02 7.671130448579788208e-02 -3.627850115299224854e-02 8.616782724857330322e-02 -3.461652249097824097e-02 -1.095709279179573059e-01 1.297767162322998047e-01 4.931056872010231018e-02 -4.571549221873283386e-02 -7.594010978937149048e-02 -1.335149165242910385e-02 1.205217167735099792e-01 1.348984893411397934e-02 -2.017009770497679710e-03 7.792294025421142578e-02 -7.508423924446105957e-02 -7.100338488817214966e-02 2.436091005802154541e-02 -8.838458918035030365e-03 1.327527780085802078e-02 -2.269328236579895020e-01 -1.390673313289880753e-02 1.071011275053024292e-02 3.189586848020553589e-02 -9.369666129350662231e-02 1.042437329888343811e-01 1.581770032644271851e-01 2.900115959346294403e-02 -1.084524989128112793e-01 -1.701568812131881714e-01 4.993177950382232666e-02 -3.091574087738990784e-02 -9.147177636623382568e-02 5.953505635261535645e-02 1.196496337652206421e-01 -1.374586075544357300e-01 1.266309171915054321e-01 3.334011137485504150e-02 -2.343420684337615967e-02 2.489262819290161133e-02 -4.189507663249969482e-02 -2.809942699968814850e-02 -5.654914677143096924e-02 -8.702328801155090332e-02 -9.342917054891586304e-02 -6.416658312082290649e-02 -6.180647015571594238e-02 -2.514519914984703064e-02 -4.894112050533294678e-02 1.167048886418342590e-02 3.958252444863319397e-02 7.959254831075668335e-02 -5.846787616610527039e-02 -1.431813091039657593e-01 -2.244296669960021973e-02 -1.128098368644714355e-01 -3.865122422575950623e-02 4.647961631417274475e-02 -1.025118976831436157e-01 5.950961727648973465e-03 -1.223671808838844299e-01 -1.523432731628417969e-01 -5.459293350577354431e-02 6.948950886726379395e-02 -1.332501024007797241e-01 -2.635883726179599762e-02 -1.228450760245323181e-01 -1.399624496698379517e-01 5.823951959609985352e-02 7.025302946567535400e-02 1.265580505132675171e-01 -2.015034109354019165e-01 -9.596631675958633423e-02 1.670500934123992920e-01 8.217769861221313477e-02 9.248469024896621704e-02 -1.048929691314697266e-01 -2.478540875017642975e-02 -3.268977105617523193e-01 5.151717364788055420e-02 -1.590939462184906006e-01 -2.206687116995453835e-03 1.055063866078853607e-02 8.509594947099685669e-02 1.130105927586555481e-01 -3.774232789874076843e-02 -1.894339621067047119e-01 7.813649624586105347e-02 -7.311499863862991333e-02 -2.154257148504257202e-02 -1.510487347841262817e-01 4.481640178710222244e-03 8.516344428062438965e-02 -7.445158064365386963e-02 -4.412505403161048889e-02 -6.838420033454895020e-02 9.915747493505477905e-02 5.447337776422500610e-02 -1.010866239666938782e-01 -3.032925352454185486e-02 -1.071048714220523834e-02 -6.057641282677650452e-02 6.883943825960159302e-02 -1.833843886852264404e-01 -1.086688414216041565e-01 -4.035780206322669983e-02 5.666645988821983337e-02 -1.352035254240036011e-01 -3.705456107854843140e-02 -1.063407808542251587e-01 -3.895596042275428772e-02 7.392697781324386597e-02 -2.938935346901416779e-02 3.677906095981597900e-02 -1.253395378589630127e-01 -1.191838756203651428e-01 -6.195491179823875427e-02 1.153340935707092285e-01 -2.854346111416816711e-02 -8.483735471963882446e-02 5.864886101335287094e-03 -9.517244249582290649e-02 -2.755308449268341064e-01
-1.655771210789680481e-02 -1.494702100753784180e-01 -1.422252412885427475e-02 -1.332853585481643677e-01 1.307027135044336319e-02 -1.965036392211914062e-01 -6.568139791488647461e-02 -1.108644306659698486e-01 -1.373419314622879028e-01 -4.191128164529800415e-02 9.103462100028991699e-02 -2.803625762462615967e-01 -1.178678212454542518e-04 1.819145381450653076e-01 -2.215166687965393066e-01 -1.131605356931686401e-01 -1.594893187284469604e-01 -4.864047281444072723e-03 -1.932660937309265137e-01 -6.803233921527862549e-02 -7.605112344026565552e-02 -6.624972075223922729e-02 -8.104679733514785767e-02 -9.032505750656127930e-02 9.137511253356933594e-02 -2.826127409934997559e-02 -2.272809296846389771e-02 5.576789006590843201e-02 -1.165227890014648438e-01 -1.233005747199058533e-01 -4.416204988956451416e-02 4.586148634552955627e-02 5.979050323367118835e-02 -1.975141912698745728e-01 -6.085394695401191711e-02 1.725647896528244019e-01 -9.243346005678176880e-02 1.371192783117294312e-01 -6.051574274897575378e-02 3.529382869601249695e-02 -1.260850280523300171e-01 -1.474954485893249512e-01 -2.461669594049453735e-02 -4.223076254129409790e-02 -5.285960063338279724e-02 3.774705110117793083e-03 -7.700975239276885986e-02 -1.698763519525527954e-01 -6.261736154556274414e-02 -1.360108703374862671e-01 -1.734641380608081818e-02 2.662442810833454132e-02 4.800551570951938629e-03 -4.668024182319641113e-02 6.459902226924896240e-02 1.023036912083625793e-01 -5.970075726509094238e-03 -3.918394073843955994e-02 -9.028102457523345947e-02 1.419045329093933105e-01 -5.181153118610382080e-02 -1.813448518514633179e-01 6.135376635938882828e-03 1.073122844099998474e-01 -3.904572501778602600e-02 -2.308563888072967529e-02 9.633971750736236572e-02 -8.295790851116180420e-02 -3.581347316503524780e-02 -6.761553138494491577e-02 -1.619821786880493164e-01 3.479242697358131409e-02 1.871925592422485352e-02 3.158038109540939331e-02 -1.341013703495264053e-02 -5.604582652449607849e-02 -1.207263842225074768e-01 -4.785235598683357239e-02 1.588033884763717651e-02 -5.954688880592584610e-03 1.323109269142150879e-01 1.991728087887167931e-03 -8.598002046346664429e-02 6.544180959463119507e-02 7.584667205810546875e-02 -8.858039975166320801e-02 -4.440623149275779724e-02 -1.868004500865936279e-01 1.321733929216861725e-02 1.716668717563152313e-02 -7.662291824817657471e-02 -2.678319625556468964e-02 7.372424006462097168e-02 -5.955204367637634277e-02 -1.639417558908462524e-01 -3.966038301587104797e-02 -6.011382117867469788e-02 -1.803089864552021027e-03 -1.308275852352380753e-02 -8.748469501733779907e-02 -1.054807454347610474e-01 -1.000769138336181641e-01 -2.574119903147220612e-02 -8.807373046875000000e-02 -9.230245649814605713e-02 -1.109299883246421814e-01 -3.832503780722618103e-02 -1.204387694597244263e-01 -7.561964914202690125e-03 -1.290750503540039062e-01 -1.756622456014156342e-02 -1.930745132267475128e-02 -1.550799459218978882e-01 6.446538958698511124e-03 3.091899305582046509e-02 1.764535605907440186e-01 -4.729614406824111938e-02 2.907123975455760956e-02 -9.260936640202999115e-03 -2.792715728282928467e-01 -8.258440345525741577e-02 -7.243703305721282959e-02 1.127140223979949951e-01 1.134294047951698303e-01 -2.053056843578815460e-02 -6.754616741091012955e-03 4.178898036479949951e-02 -2.905722707509994507e-02 -1.197863519191741943e-01 -9.628851711750030518e-02 -4.034675657749176025e-02 -5.902217701077461243e-02 -4.847585223615169525e-03 5.859017372131347656e-02 2.341090515255928040e-02 -7.629387825727462769e-02 -4.294053837656974792e-02 1.599296033382415771e-01 1.206837967038154602e-01 -1.241807546466588974e-02 1.218083798885345459e-01 -1.850434690713882446e-01 -1.538227945566177368e-01 -9.656462073326110840e-02 -9.813477843999862671e-02 1.813009977340698242e-01 -7.816258817911148071e-03 -2.523347176611423492e-02 -7.712818682193756104e-02 -9.337509423494338989e-02 -8.839187771081924438e-02 -1.284051239490509033e-01 4.483095929026603699e-02 -8.079232275485992432e-02 -4.773444682359695435e-02 3.537893295288085938e-02 -3.537446632981300354e-02 -6.513538211584091187e-02 2.005500905215740204e-02 -1.599831320345401764e-02 -6.330250948667526245e-02 2.576077543199062347e-02 2.632051706314086914e-01 3.302282467484474182e-02 4.421224072575569153e-02 -3.663226217031478882e-02 -1.692561060190200806e-01 -8.389514684677124023e-02 -6.604010611772537231e-02 -1.341314911842346191e-01 -1.635035150684416294e-03 -1.678179502487182617e-01 1.216979846358299255e-01 -7.005511969327926636e-02 -4.334871470928192139e-02 -9.644290804862976074e-02 -4.601274430751800537e-02 -9.858494997024536133e-02 9.101687371730804443e-02 -1.297297924757003784e-01 -8.285705000162124634e-02 -1.257999241352081299e-01 1.705804467201232910e-02 -4.991830140352249146e-02 -5.711491685360670090e-03 4.362295940518379211e-02 -1.691930592060089111e-01 4.740449413657188416e-02 9.531247615814208984e-02 1.809257566928863525e-01 8.186612278223037720e-03 -1.490456238389015198e-02 5.944364517927169800e-02 -1.803674846887588501e-01 2.254551090300083160e-02 9.779872000217437744e-02 -6.492933630943298340e-02 -9.918414801359176636e-02 3.851366415619850159e-02 -3.605272620916366577e-02 -1.838881224393844604e-01 1.636694930493831635e-02 -1.226600818336009979e-02 1.025236845016479492e-01 2.955017983913421631e-02 7.213537395000457764e-02 6.234516948461532593e-02 -1.963634742423892021e-03 1.464474201202392578e-01 -1.068174317479133606e-01 -4.856378585100173950e-02 -1.220837309956550598e-01 -4.115929454565048218e-02 -3.466323390603065491e-02 -3.736942261457443237e-02 3.386031091213226318e-02 -6.344566494226455688e-02 -6.610139459371566772e-02 -8.754574507474899292e-02 -5.047397688031196594e-02 1.637074202299118042e-01 1.044428050518035889e-01 7.891441695392131805e-03 3.301449492573738098e-02 1.831678673624992371e-03 -1.749336868524551392e-01 6.721009034663438797e-03 9.919846057891845703e-02 -2.199937701225280762e-01 -1.313897818326950073e-01 -1.889314353466033936e-01 -7.454729825258255005e-02 1.085817907005548477e-02 -1.580540984869003296e-01 -1.460647135972976685e-01 -1.368710491806268692e-02 5.788652598857879639e-02 5.148088186979293823e-02 5.285566300153732300e-02 -1.403269544243812561e-02 -4.333031922578811646e-02 -4.932569339871406555e-03 -3.474473720416426659e-03 2.678367868065834045e-02 5.376447737216949463e-02 -2.210087515413761139e-02 3.174842149019241333e-02 4.069050401449203491e-02 -1.331950277090072632e-01 -2.361615374684333801e-02 -4.930116981267929077e-02 -7.505349349230527878e-03 -5.647163838148117065e-02 9.107205271720886230e-02 2.248775213956832886e-03 -1.014325246214866638e-01
