2.886386215686798096e-01
4.155616760253906250e-01
-1.068224787712097168e+00
-6.328497081995010376e-02
-2.333777844905853271e-01
-7.536875456571578979e-02
1.925055980682373047e-01
-1.312410533428192139e-01
-1.910754293203353882e-01
6.006518006324768066e-01
7.437091320753097534e-02
-2.369222976267337799e-02
1.235841661691665649e-01
-1.137840628623962402e+00
2.018971145153045654e-01
3.092091977596282959e-01
1.557094007730484009e-01
-9.407036304473876953e-01
-4.396398365497589111e-01
2.852584421634674072e-01
4.750374555587768555e-01
-9.955427050590515137e-02
-3.625632822513580322e-01
1.160910129547119141e-01
2.869368195533752441e-01
-1.068537712097167969e+00
1.568434089422225952e-01
-5.352871417999267578e-01
1.013553421944379807e-02
1.665700413286685944e-02
-1.437847912311553955e-01
-4.644567668437957764e-01
2.252290584146976471e-02
-4.422943592071533203e-01
-3.118114173412322998e-01
2.205972969532012939e-01
-6.386091709136962891e-01
-2.137934714555740356e-01
-1.259538173675537109e+00
2.205371409654617310e-01
3.634216785430908203e-01
-3.191712498664855957e-02
-5.502251982688903809e-01
1.716860383749008179e-01
-4.713233709335327148e-01
1.474683731794357300e-01
-1.025330424308776855e-01
2.821918427944183350e-01
1.835360080003738403e-01
-6.740827113389968872e-02
-6.178076267242431641e-01
-4.795483350753784180e-01
-5.644379854202270508e-01
-8.967316150665283203e-01
4.075666069984436035e-01
-4.893976151943206787e-01
-8.878092765808105469e-01
6.057539489120244980e-03
1.346505582332611084e-01
-6.920350342988967896e-02
2.453193515539169312e-01
-2.922623753547668457e-01
6.784375756978988647e-02
-9.149599820375442505e-02
-7.812358438968658447e-02
-4.080101251602172852e-01
-5.510157346725463867e-01
-1.556156277656555176e-01
-4.207101464271545410e-02
-2.632420361042022705e-01
6.995540112257003784e-02
4.473035931587219238e-01
3.848082125186920166e-01
2.724015712738037109e-01
-7.628449797630310059e-01
-3.053736686706542969e-01
-7.390102148056030273e-01
-2.758995592594146729e-01
2.083684355020523071e-01
5.539336800575256348e-02
-5.758542418479919434e-01
-1.773232370615005493e-01
-5.347237586975097656e-01
3.392465114593505859e-01
-7.619419097900390625e-01
-2.590937018394470215e-01
-9.209200739860534668e-01
-1.272731661796569824e+00
-3.876504600048065186e-01
-6.732896566390991211e-01
3.452963829040527344e-01
-4.436018466949462891e-01
-7.234439849853515625e-01
-8.207709193229675293e-01
-2.870150506496429443e-01
-1.016412258148193359e+00
-3.827109932899475098e-01
2.173063904047012329e-01
-1.859240531921386719e-01
1.879799067974090576e-01
-1.044654726982116699e+00
2.167377024888992310e-01
-1.748605072498321533e-02
2.400958836078643799e-01
-5.782131552696228027e-01
3.616366386413574219e-01
2.368031442165374756e-01
-3.596056997776031494e-01
4.228955134749412537e-02
-4.664628803730010986e-01
1.560782641172409058e-01
-6.908150315284729004e-01
-1.364198625087738037e-01
-5.379167199134826660e-01
-2.380156815052032471e-01
1.138102263212203979e-01
4.188423976302146912e-02
9.616775438189506531e-03
-1.510176062583923340e-01
2.056658416986465454e-01
-6.971309781074523926e-01
3.118012845516204834e-01
-6.471066474914550781e-01
-1.164278313517570496e-01
-8.197392821311950684e-01
3.535761237144470215e-01
-1.357286721467971802e-01
1.555173546075820923e-01
-2.124606221914291382e-01
-8.743337392807006836e-01
4.191745519638061523e-01
2.292383909225463867e-01
1.006348207592964172e-01
2.006195252761244774e-03
4.891971051692962646e-01
4.860697686672210693e-02
-6.951476931571960449e-01
4.195812642574310303e-01
-5.554962158203125000e-01
-8.846850991249084473e-01
-8.384034037590026855e-02
2.738627791404724121e-01
-2.982454001903533936e-01
-6.342347264289855957e-01
2.877207100391387939e-01
6.813082098960876465e-02
2.373041212558746338e-01
4.740392267704010010e-01
2.725625932216644287e-01
2.537910640239715576e-01
-8.445121645927429199e-01
5.376512408256530762e-01
-2.080842256546020508e-01
-5.463542938232421875e-01
4.190204665064811707e-02
2.382412552833557129e-01
9.147924184799194336e-02
4.346093237400054932e-01
-1.825770437717437744e-01
-5.026018023490905762e-01
-2.889113724231719971e-01
1.308554410934448242e-01
-3.391396403312683105e-01
1.905856281518936157e-01
1.910531669855117798e-01
1.743980646133422852e-01
4.285525977611541748e-01
-1.889063417911529541e-02
-2.929290533065795898e-01
-5.579006075859069824e-01
-1.448003202676773071e-01
3.082214295864105225e-01
-7.424277067184448242e-01
-4.579830467700958252e-01
1.572486311197280884e-01
-2.904364466667175293e-01
2.199274301528930664e-01
3.368937373161315918e-01
3.843204677104949951e-01
-7.514674067497253418e-01
-4.375554025173187256e-01
8.062409609556198120e-02
-1.048984527587890625e+00
3.676656261086463928e-02
1.235819235444068909e-01
-6.590240597724914551e-01
-5.464136600494384766e-01
-2.153829634189605713e-01
-8.747842907905578613e-02
8.956263214349746704e-02
3.229826986789703369e-01
1.536026000976562500e-01
3.437179327011108398e-01
-9.549486637115478516e-02
4.303580820560455322e-01
-1.162252545356750488e+00
-2.506763339042663574e-01
4.762586355209350586e-01
4.946920573711395264e-01
-4.231038689613342285e-01
-3.657031953334808350e-01
4.139862656593322754e-01
2.728089988231658936e-01
2.208359241485595703e-01
-7.300363183021545410e-01
5.411749333143234253e-02
8.095027506351470947e-02
-7.962477803230285645e-01
-3.372582197189331055e-01
-3.949381411075592041e-01
1.980523616075515747e-01
2.035920768976211548e-01
5.077432990074157715e-01
-4.376540780067443848e-01
4.814428985118865967e-01
1.831561326980590820e-01
-9.369336999952793121e-03
4.870314896106719971e-01
3.811871111392974854e-01
-1.156665921211242676e+00
-5.283182263374328613e-01
-7.573742270469665527e-01
-9.530240297317504883e-01
2.022673338651657104e-01
-1.618783026933670044e-01
4.151791334152221680e-01
-4.634880125522613525e-01
3.282522559165954590e-01
-2.278573065996170044e-01
3.379236459732055664e-01
-1.164548277854919434e+00
-7.741305828094482422e-01
2.813866436481475830e-01
-5.942637324333190918e-01
3.058541119098663330e-01
-3.848071768879890442e-02
-1.269168555736541748e-01
-2.435631603002548218e-01
-1.235273838043212891e+00
-9.224873185157775879e-01
-1.615563631057739258e-01
4.034985005855560303e-01
-2.694234251976013184e-01
-8.760314583778381348e-01
4.966621696949005127e-01
-5.240339636802673340e-01
-4.425652623176574707e-01
2.485469877719879150e-01
-1.302059888839721680e-01
-1.156676650047302246e+00
-8.564862012863159180e-01
7.238279562443494797e-03
5.441086292266845703e-01
3.764930069446563721e-01
5.665394291281700134e-02
-1.262691989541053772e-02
