6.145241204649209976e-03
-3.454780206084251404e-02
4.318662732839584351e-02
-2.018632134422659874e-03
-2.566002542153000832e-03
-2.816652692854404449e-02
-1.142287030816078186e-01
-1.670722663402557373e-02
-5.787559598684310913e-02
-8.031438104808330536e-03
-3.533067554235458374e-02
3.480867668986320496e-02
-1.978080347180366516e-02
-3.510766476392745972e-02
-7.634399086236953735e-02
-3.538368269801139832e-02
-5.321773141622543335e-02
-5.284509807825088501e-02
-8.009001612663269043e-03
8.461439982056617737e-03
-1.016188319772481918e-02
-2.397154457867145538e-02
-3.102385252714157104e-02
-6.807512789964675903e-02
1.007168833166360855e-02
-3.923612460494041443e-02
-7.987697608768939972e-03
-6.556237488985061646e-02
-2.764976769685745239e-02
2.381271682679653168e-02
9.247585199773311615e-03
-6.918587535619735718e-02
-2.463812381029129028e-02
-3.854415193200111389e-02
4.456688091158866882e-02
-2.851128205657005310e-02
1.247832551598548889e-02
-6.348409503698348999e-02
-5.204014014452695847e-03
-8.257553726434707642e-02
-1.177384518086910248e-02
-2.740957029163837433e-02
-3.573575988411903381e-02
-4.654143750667572021e-02
-4.178930073976516724e-02
1.593526452779769897e-02
-5.001190677285194397e-02
4.838827624917030334e-02
-9.181821346282958984e-02
-2.180416136980056763e-02
-4.769584909081459045e-02
-7.041305303573608398e-02
-3.487456589937210083e-02
-3.655879199504852295e-02
7.778897881507873535e-02
2.490370348095893860e-02
-4.460956156253814697e-02
-1.161053311079740524e-02
-2.551707625389099121e-02
-1.228395383805036545e-02
-1.258755028247833252e-01
-4.716883227229118347e-02
-9.442085400223731995e-03
-2.227367274463176727e-02
5.025343224406242371e-02
-5.049055069684982300e-02
-5.244497582316398621e-02
3.635980561375617981e-02
3.208537399768829346e-02
-4.585505276918411255e-02
-5.009880289435386658e-02
-8.754164725542068481e-02
-1.462369505316019058e-02
-3.114146925508975983e-02
4.839751496911048889e-02
-5.276883766055107117e-02
-4.458069056272506714e-02
-8.576149493455886841e-02
-1.026498004794120789e-01
4.879972711205482483e-02
-4.338602721691131592e-02
6.096661463379859924e-02
-6.196179613471031189e-02
2.666455507278442383e-02
1.935421675443649292e-02
5.367656238377094269e-03
6.310267373919487000e-03
1.520853955298662186e-02
-3.070530109107494354e-02
-5.146843567490577698e-02
-5.476486682891845703e-02
-9.577915817499160767e-02
-2.415432967245578766e-02
2.001831680536270142e-02
-1.526864152401685715e-02
2.469253353774547577e-02
-9.201399981975555420e-02
-5.788952112197875977e-02
4.960208386182785034e-02
-1.263553858734667301e-03
5.909774452447891235e-02
9.034144878387451172e-02
-1.146532315760850906e-02
-1.997240632772445679e-02
5.873130634427070618e-03
-6.027993746101856232e-03
4.210587590932846069e-03
-1.025871094316244125e-02
-4.182887449860572815e-02
-4.517946764826774597e-02
-3.714441880583763123e-02
-1.942806132137775421e-02
-4.892043024301528931e-02
2.023868821561336517e-02
2.329438924789428711e-02
-1.095870882272720337e-02
-2.628196962177753448e-02
6.279005203396081924e-03
5.080971494317054749e-02
2.348216250538825989e-02
-6.045021861791610718e-02
-1.603604480624198914e-02
-9.296876378357410431e-03
1.162932720035314560e-02
-5.933417007327079773e-02
-2.408165298402309418e-02
-3.973326832056045532e-02
1.674208976328372955e-02
1.157404854893684387e-02
-4.863392934203147888e-02
-9.643638134002685547e-02
4.655038192868232727e-02
-5.280132964253425598e-02
-1.603868231177330017e-02
1.551746670156717300e-02
-4.973378777503967285e-02
3.622211515903472900e-02
1.291932463645935059e-01
-4.405619204044342041e-02
-2.230160869657993317e-02
-6.872084457427263260e-03
-7.924782484769821167e-02
6.232183799147605896e-02
7.587198168039321899e-02
1.274015009403228760e-01
-3.044929355382919312e-02
-2.815316244959831238e-02
-2.723247930407524109e-02
-1.305610314011573792e-02
-4.239577800035476685e-02
-1.908113993704319000e-02
6.227434426546096802e-02
5.281666293740272522e-02
-5.863969773054122925e-02
-3.585704416036605835e-02
-1.336827874183654785e-01
5.676570162177085876e-02
1.030865013599395752e-01
-4.722265154123306274e-02
-2.436879649758338928e-02
1.176114752888679504e-01
-6.548035889863967896e-02
8.771211653947830200e-02
8.470296114683151245e-02
-1.739159040153026581e-02
-2.899714373052120209e-02
4.563730210065841675e-03
-5.955060198903083801e-02
-2.175141498446464539e-02
-2.116344124078750610e-02
-3.536214306950569153e-02
5.301960930228233337e-02
-1.874249987304210663e-02
-3.674802556633949280e-02
-1.690231636166572571e-02
-3.057487308979034424e-02
-5.306994542479515076e-02
7.738614082336425781e-02
-3.221988305449485779e-02
3.008460626006126404e-02
5.876280739903450012e-02
1.767622679471969604e-02
9.125547512667253613e-05
-3.451752662658691406e-02
-2.193517424166202545e-02
-2.586283907294273376e-02
-6.046419590711593628e-02
-2.233853563666343689e-02
3.554975613951683044e-02
-1.027551665902137756e-01
-7.814885675907135010e-02
3.975506126880645752e-02
2.840487658977508545e-02
-4.998911917209625244e-02
-1.279008388519287109e-02
-5.281788483262062073e-02
-4.066296666860580444e-02
3.907569870352745056e-02
-6.974439322948455811e-02
1.060118060559034348e-02
-1.035890541970729828e-02
-1.279232371598482132e-02
-1.138480380177497864e-02
1.462234742939472198e-02
-4.681725800037384033e-02
-5.604466795921325684e-02
-3.339063376188278198e-02
-5.453854426741600037e-02
-6.401299685239791870e-02
-4.173040762543678284e-02
1.556841284036636353e-01
2.107783406972885132e-02
2.928589470684528351e-02
-1.163474470376968384e-02
-8.799533359706401825e-03
4.342405498027801514e-02
-4.589248821139335632e-02
-5.205356329679489136e-02
8.715412765741348267e-02
-3.475511074066162109e-02
-2.357796300202608109e-03
5.325053632259368896e-02
-8.559255301952362061e-02
-2.057240530848503113e-02
-1.112918630242347717e-01
-6.067413091659545898e-02
-6.712636351585388184e-02
-6.244862824678421021e-02
-1.727426610887050629e-02
2.649097330868244171e-02
-8.277602493762969971e-03
-4.403202608227729797e-02
1.107994392514228821e-01
-6.875587999820709229e-02
-8.790338784456253052e-02
6.432366557419300079e-03
5.573019757866859436e-02
-3.567647561430931091e-02
-8.035492151975631714e-02
-2.050295285880565643e-02
5.505587905645370483e-02
-3.705713897943496704e-02
-3.341719135642051697e-02
-8.991863578557968140e-02
-1.618647016584873199e-02
-3.015339560806751251e-02
-2.483955770730972290e-02
-6.281594187021255493e-02
-5.133406072854995728e-02
-1.470840908586978912e-02
1.216649934649467468e-01
-7.153416052460670471e-03
-2.999074012041091919e-02
-3.024950250983238220e-02
2.243880182504653931e-02
2.586395293474197388e-02
