-8.933179080486297607e-03
1.200128123164176941e-01
-3.106950037181377411e-02
-6.209420040249824524e-02
-1.445854920893907547e-02
-1.690571010112762451e-02
-7.289996743202209473e-02
-2.135348133742809296e-02
1.404786482453346252e-02
1.119717676192522049e-02
-1.564803160727024078e-02
-3.559307754039764404e-02
-9.006477147340774536e-02
8.456723764538764954e-03
-1.326962187886238098e-02
3.940901532769203186e-02
-4.763984307646751404e-02
-1.596428304910659790e-01
-1.138322278857231140e-01
-4.718497768044471741e-02
-3.696136549115180969e-02
-1.451178919523954391e-02
1.849498599767684937e-02
2.238577045500278473e-02
-3.767674043774604797e-02
4.058402031660079956e-02
-6.831775605678558350e-02
-2.819278091192245483e-02
6.344993412494659424e-02
-4.094276949763298035e-02
1.509694382548332214e-02
-5.233506206423044205e-03
-2.840850315988063812e-02
-8.632423356175422668e-03
-4.789121076464653015e-02
-8.183225244283676147e-02
-9.757688641548156738e-02
-6.317074294202029705e-04
3.936402127146720886e-02
9.687834419310092926e-03
5.523042753338813782e-02
3.981194458901882172e-03
4.266350716352462769e-02
-6.784918904304504395e-02
-5.680973455309867859e-02
-1.373337674885988235e-02
-3.270033374428749084e-02
-1.134122312068939209e-01
2.513120323419570923e-02
-6.179567798972129822e-02
-7.545855361968278885e-03
1.154115656390786171e-03
3.952393773943185806e-03
-4.329944774508476257e-02
4.789911210536956787e-02
6.301736086606979370e-02
-3.020467003807425499e-03
1.948324032127857208e-02
-3.974793851375579834e-02
-1.099615637212991714e-02
3.343560500070452690e-03
-6.991373002529144287e-02
-3.044896572828292847e-02
4.864082671701908112e-03
-7.400120794773101807e-02
-2.316452749073505402e-02
-9.359952993690967560e-03
3.934140503406524658e-02
1.327321399003267288e-02
1.890741102397441864e-02
-2.619396708905696869e-02
-2.836610749363899231e-02
-1.311752200126647949e-02
9.580534696578979492e-02
-4.589320346713066101e-02
2.693144138902425766e-03
-8.228608220815658569e-02
4.891113936901092529e-02
1.644940227270126343e-01
2.412003092467784882e-02
-7.283531129360198975e-02
4.513173550367355347e-02
-4.037545248866081238e-02
3.862068057060241699e-02
-4.539451375603675842e-02
9.593697637319564819e-02
-3.625709330663084984e-03
-4.677144438028335571e-02
-4.391643032431602478e-02
4.833283647894859314e-02
-1.018494460731744766e-02
-6.555839907377958298e-03
3.278421983122825623e-02
1.610380411148071289e-02
-8.250854909420013428e-02
4.101311787962913513e-02
-5.585948005318641663e-02
3.224550280719995499e-03
1.240907586179673672e-03
4.669283051043748856e-03
7.137595675885677338e-03
2.998953312635421753e-02
-2.103322744369506836e-02
-3.397832438349723816e-02
-2.075816318392753601e-02
6.086274608969688416e-02
-4.748060554265975952e-02
3.188132122159004211e-02
-3.429979458451271057e-02
-1.171927675604820251e-01
-2.762869931757450104e-02
1.598568819463253021e-02
9.859732352197170258e-03
-3.376526013016700745e-02
-3.130815923213958740e-02
5.119555070996284485e-02
6.430028378963470459e-02
4.521110281348228455e-02
-3.345461189746856689e-02
-9.833968430757522583e-02
-1.237787120044231415e-02
-3.146440535783767700e-02
2.611883915960788727e-02
-2.865121699869632721e-02
-1.876548863947391510e-02
-4.940263554453849792e-02
-7.331185042858123779e-02
-4.208040609955787659e-02
2.324878983199596405e-02
3.242424922063946724e-03
-4.059343785047531128e-02
-7.801906019449234009e-02
1.841753162443637848e-02
-2.394710294902324677e-02
-9.036792069673538208e-02
-9.304655343294143677e-02
-5.345759540796279907e-02
2.151023410260677338e-02
-7.682729512453079224e-02
-6.958491355180740356e-02
3.282272070646286011e-02
3.729866445064544678e-02
-7.728904485702514648e-02
1.471214089542627335e-02
2.470733597874641418e-03
-2.602078765630722046e-02
-2.503140363842248917e-03
-5.833026766777038574e-02
-1.939197070896625519e-02
-4.666652157902717590e-02
-1.105179116129875183e-01
-1.461293734610080719e-02
-7.154477760195732117e-03
6.539085507392883301e-02
-9.040692448616027832e-02
-2.077214792370796204e-02
1.199104711413383484e-01
-3.499629721045494080e-02
-4.929799214005470276e-02
3.318212553858757019e-02
-4.608934000134468079e-02
9.646088816225528717e-03
6.512915343046188354e-02
3.784591332077980042e-03
8.357471972703933716e-02
-3.112545609474182129e-02
-4.355259984731674194e-02
-2.219223231077194214e-02
-1.314115803688764572e-02
5.873644724488258362e-02
-5.742255970835685730e-02
1.499983016401529312e-02
-2.357818558812141418e-02
-2.835140749812126160e-02
8.903575508156791329e-05
-4.144074022769927979e-02
5.461183562874794006e-02
-3.699685260653495789e-02
3.690414130687713623e-02
1.100840698927640915e-02
-4.870993550866842270e-03
-5.177006870508193970e-02
-4.831372201442718506e-02
-1.717136008664965630e-03
6.694585829973220825e-02
-1.844344846904277802e-02
-1.248650848865509033e-01
-5.839848145842552185e-02
-3.181379660964012146e-02
-8.987221866846084595e-02
6.770826131105422974e-02
3.961484134197235107e-02
2.036587148904800415e-02
6.501694768667221069e-02
3.172759711742401123e-02
2.334997057914733887e-02
1.527720596641302109e-02
-1.122717484831809998e-01
-1.897671818733215332e-02
8.201904594898223877e-02
4.058511555194854736e-02
2.426123991608619690e-02
-4.374181106686592102e-02
-9.275531023740768433e-02
-1.217771694064140320e-01
-8.938948623836040497e-03
6.696127355098724365e-02
-3.411285206675529480e-02
-7.163529098033905029e-02
4.948972910642623901e-02
-4.712628573179244995e-02
1.524555832147598267e-01
-4.991266503930091858e-02
-3.206849843263626099e-02
2.243646979331970215e-02
-6.210406310856342316e-03
-2.407962456345558167e-02
-2.065397985279560089e-02
-1.033681561239063740e-03
1.281042117625474930e-02
-1.858233287930488586e-02
-1.563431322574615479e-02
-5.073058977723121643e-02
-3.729167394340038300e-03
-4.628288373351097107e-02
-9.553058445453643799e-02
-1.234170943498611450e-01
9.546187520027160645e-02
-3.653236106038093567e-02
4.983203858137130737e-02
5.697916727513074875e-03
-3.305308893322944641e-02
-6.526134163141250610e-02
-9.500735439360141754e-03
-1.033722981810569763e-02
-6.061448529362678528e-02
-3.451801836490631104e-02
-2.873324230313301086e-02
-3.955666348338127136e-02
-2.324884757399559021e-02
-8.859468251466751099e-02
-5.676455423235893250e-02
-3.587108477950096130e-02
-4.514056816697120667e-02
4.849321208894252777e-03
-1.640657079406082630e-03
-3.706851601600646973e-02
1.338275521993637085e-01
-1.521864254027605057e-02
-2.671468444168567657e-02
8.250566199421882629e-03
5.007529258728027344e-02
-7.503478787839412689e-03
-2.041693590581417084e-02
-1.065269112586975098e-02
9.306832216680049896e-03
