2.914829552173614502e-01
1.922107785940170288e-01
-4.359133243560791016e-01
3.689149320125579834e-01
3.192514777183532715e-01
-3.706313967704772949e-01
4.223100244998931885e-01
-3.764715492725372314e-01
4.604291021823883057e-01
-2.009760886430740356e-01
-1.599628776311874390e-01
2.816913127899169922e-01
4.966735541820526123e-01
4.708739817142486572e-01
2.434399574995040894e-01
-4.098460376262664795e-01
4.721067845821380615e-01
-5.114095807075500488e-01
-2.750705480575561523e-01
5.634725093841552734e-01
-2.012238502502441406e-01
-2.531403303146362305e-01
4.747690260410308838e-01
4.284216165542602539e-01
4.218042790889739990e-01
2.104915678501129150e-01
4.446961581707000732e-01
2.802141606807708740e-01
-5.151733160018920898e-01
4.333710670471191406e-01
-4.352145791053771973e-01
-2.489822357892990112e-02
-1.123843491077423096e-01
3.749540150165557861e-01
1.540282666683197021e-01
5.236150026321411133e-01
-4.261642396450042725e-01
-4.051893055438995361e-01
3.830261826515197754e-01
-3.379771113395690918e-01
-3.341962695121765137e-01
-3.682453632354736328e-01
-4.717253446578979492e-01
2.228317111730575562e-01
-8.117512613534927368e-02
2.940477132797241211e-01
2.466700077056884766e-01
4.753009080886840820e-01
2.771092355251312256e-01
4.885323047637939453e-01
4.803270101547241211e-01
1.981307268142700195e-01
-3.516637682914733887e-01
-2.706753611564636230e-01
5.352638959884643555e-01
2.940358221530914307e-01
5.208805203437805176e-01
4.060367941856384277e-01
3.146059811115264893e-01
2.490462511777877808e-01
1.407168712466955185e-02
-1.952548027038574219e-01
3.264909684658050537e-01
2.627332210540771484e-01
4.865521490573883057e-01
3.449223339557647705e-01
4.217607080936431885e-01
2.304057478904724121e-01
1.019083987921476364e-02
2.923965156078338623e-01
4.299140870571136475e-01
3.238733112812042236e-01
-3.165182471275329590e-01
-3.202657699584960938e-01
3.142043948173522949e-01
4.999930560588836670e-01
-1.933180987834930420e-01
-4.064114689826965332e-01
4.977572262287139893e-01
2.390961945056915283e-01
-3.624341785907745361e-01
3.821083009243011475e-01
4.291709661483764648e-01
2.516450583934783936e-01
4.396041333675384521e-01
-3.600102961063385010e-01
-2.406272590160369873e-01
4.755513072013854980e-01
-5.637559294700622559e-01
3.210394680500030518e-01
4.998446702957153320e-01
4.866893887519836426e-01
4.381835162639617920e-01
6.674902141094207764e-02
1.620460301637649536e-01
3.278718292713165283e-01
2.832327783107757568e-01
4.288874268531799316e-01
-3.905789554119110107e-01
3.574163913726806641e-01
3.325890898704528809e-01
-4.359972476959228516e-01
5.200890898704528809e-01
3.336581885814666748e-01
1.872281432151794434e-01
4.164958596229553223e-01
4.898980855941772461e-01
3.833474218845367432e-01
-3.409177362918853760e-01
3.804984092712402344e-01
-4.238893687725067139e-01
4.165330231189727783e-01
4.616928100585937500e-01
1.958836019039154053e-01
3.046101331710815430e-01
3.045454621315002441e-01
2.514318525791168213e-01
-4.649500846862792969e-01
-2.077640593051910400e-01
2.824841439723968506e-01
2.770734727382659912e-01
1.298629119992256165e-02
3.355078697204589844e-01
4.813615679740905762e-01
-3.526000976562500000e-01
2.861317992210388184e-01
-5.235484242439270020e-01
4.408942461013793945e-01
9.117377549409866333e-02
3.555349707603454590e-01
-4.131518900394439697e-01
2.326120734214782715e-01
2.772323787212371826e-01
3.095592260360717773e-01
-2.045795470476150513e-01
3.076552450656890869e-01
-5.284236073493957520e-01
-3.945328295230865479e-01
4.786356389522552490e-01
4.022197723388671875e-01
5.360620617866516113e-01
3.340660631656646729e-01
2.944801151752471924e-01
4.750098288059234619e-01
4.277240335941314697e-01
-1.116694733500480652e-01
-3.939080238342285156e-01
-4.305455982685089111e-01
5.307494401931762695e-01
3.984883129596710205e-01
4.071810543537139893e-01
5.075960159301757812e-01
4.078216254711151123e-01
2.241798639297485352e-01
-5.125570893287658691e-01
5.324608683586120605e-01
-4.051265418529510498e-01
3.514799773693084717e-01
-4.653747677803039551e-01
5.192998647689819336e-01
-4.325337111949920654e-01
3.557047545909881592e-01
-3.524793684482574463e-01
3.138722181320190430e-01
-2.737323641777038574e-01
5.071983933448791504e-01
3.249565958976745605e-01
-4.588148295879364014e-01
2.194611728191375732e-01
-4.735919833183288574e-01
3.742180168628692627e-01
3.818511068820953369e-01
4.790125489234924316e-01
-8.674965798854827881e-02
-2.395972758531570435e-01
2.851406335830688477e-01
5.531957149505615234e-01
-4.461842179298400879e-01
4.337764382362365723e-01
4.303639829158782959e-01
5.016951560974121094e-01
2.797684669494628906e-01
1.498466879129409790e-01
-4.659433662891387939e-01
-5.475916266441345215e-01
3.905785977840423584e-01
3.116495609283447266e-01
-4.439547657966613770e-01
2.278548628091812134e-01
-2.418063730001449585e-01
3.001070916652679443e-01
3.580464124679565430e-01
4.192366898059844971e-01
3.540654778480529785e-01
1.504144668579101562e-01
-5.109580755233764648e-01
2.466244846582412720e-01
3.146722018718719482e-01
4.065469503402709961e-01
2.732011377811431885e-01
4.387502968311309814e-01
2.215228825807571411e-01
1.551173180341720581e-01
2.425048947334289551e-01
-1.235119104385375977e-01
4.668272137641906738e-01
3.176097273826599121e-01
-2.939469814300537109e-01
2.814475595951080322e-01
-4.581549167633056641e-01
4.191358685493469238e-01
5.369393229484558105e-01
3.568481206893920898e-01
5.058194398880004883e-01
3.439743220806121826e-01
-4.642923176288604736e-01
2.929124534130096436e-01
-2.890723943710327148e-01
4.025126397609710693e-01
-4.123196303844451904e-01
2.141989171504974365e-01
-2.114570736885070801e-01
-4.397434890270233154e-01
-4.170759022235870361e-01
4.399420320987701416e-01
2.197550050914287567e-02
3.392028510570526123e-01
3.022776544094085693e-01
3.813828229904174805e-01
3.908399045467376709e-01
-9.345564246177673340e-02
-5.045647621154785156e-01
4.299409389495849609e-01
3.472258150577545166e-01
-4.089799523353576660e-01
1.057881787419319153e-01
4.287625253200531006e-01
9.522560983896255493e-02
4.989214539527893066e-01
3.612132743000984192e-02
2.775805294513702393e-01
-4.404682517051696777e-01
3.910909593105316162e-01
4.756764173507690430e-01
-2.478977590799331665e-01
4.820700287818908691e-01
-4.488454759120941162e-01
-4.118730723857879639e-01
4.745825529098510742e-01
4.064812362194061279e-01
5.054113268852233887e-01
3.175138235092163086e-01
-4.996662139892578125e-01
2.881285548210144043e-01
-4.457934796810150146e-01
3.533891439437866211e-01
