3.296987414360046387e-01
5.317568778991699219e-01
5.004278421401977539e-01
5.935618877410888672e-01
-2.939749956130981445e-01
5.897542834281921387e-01
-3.215158581733703613e-01
-5.566524863243103027e-01
-3.655998408794403076e-01
-5.125627517700195312e-01
2.820174694061279297e-01
2.189218699932098389e-01
5.614578127861022949e-01
-4.837272763252258301e-01
2.945114970207214355e-01
-6.225705742835998535e-01
5.681417584419250488e-01
-4.659546315670013428e-01
5.044962167739868164e-01
7.002823352813720703e-01
-3.747970461845397949e-01
5.364460945129394531e-01
6.233437657356262207e-01
5.738533735275268555e-01
4.753440320491790771e-01
-6.357874870300292969e-01
-3.280755281448364258e-01
5.069808363914489746e-01
-6.038233637809753418e-01
7.196478843688964844e-01
-7.168739438056945801e-01
5.722872614860534668e-01
6.968171000480651855e-01
-5.686044096946716309e-01
4.035020172595977783e-01
5.788922905921936035e-01
-5.381644964218139648e-01
6.169130206108093262e-01
6.460216045379638672e-01
7.278473377227783203e-01
-7.375127077102661133e-01
-6.983140707015991211e-01
-3.971697390079498291e-01
5.585300326347351074e-01
-4.687536973506212234e-03
5.408918857574462891e-01
4.010133147239685059e-01
6.905257105827331543e-01
-3.091856539249420166e-01
-3.379477858543395996e-01
3.795575201511383057e-01
6.953888535499572754e-01
-5.096901059150695801e-01
2.923647761344909668e-01
6.397059559822082520e-01
-2.838946282863616943e-01
-4.916370809078216553e-01
-3.088474869728088379e-01
4.668974578380584717e-01
5.830656886100769043e-01
5.209630131721496582e-01
6.008969545364379883e-01
4.607714116573333740e-01
-4.816237464547157288e-02
7.737920880317687988e-01
1.208147257566452026e-01
6.350812911987304688e-01
4.671887457370758057e-01
5.109662413597106934e-01
-2.337305992841720581e-01
5.851583480834960938e-01
4.027333259582519531e-01
4.957900047302246094e-01
-4.364812076091766357e-01
4.090948402881622314e-01
6.080761551856994629e-01
-5.521485209465026855e-01
4.458954036235809326e-01
5.355109572410583496e-01
4.265869855880737305e-01
-5.370329022407531738e-01
7.295725345611572266e-01
-5.262634754180908203e-01
-3.179633617401123047e-01
-2.245758920907974243e-01
-6.344973444938659668e-01
2.841421663761138916e-01
6.425334811210632324e-01
-6.368486881256103516e-01
-5.729790329933166504e-01
4.438982009887695312e-01
-3.985288143157958984e-01
6.072759628295898438e-01
5.714325308799743652e-01
6.009071469306945801e-01
4.320452809333801270e-01
5.717504620552062988e-01
4.325655698776245117e-01
5.575976967811584473e-01
5.540807843208312988e-01
-2.577637732028961182e-01
-4.531744718551635742e-01
5.772452354431152344e-01
3.531557917594909668e-01
3.121644556522369385e-01
5.065441727638244629e-01
7.097480893135070801e-01
6.333938837051391602e-01
6.892171502113342285e-01
5.476107597351074219e-01
-6.725673079490661621e-01
4.902428090572357178e-01
-1.378880739212036133e-01
-5.252951979637145996e-01
4.943538606166839600e-01
5.781928300857543945e-01
4.746933877468109131e-01
-7.673957347869873047e-01
5.119214057922363281e-01
6.288964748382568359e-01
4.883412122726440430e-01
4.398064315319061279e-01
5.830892920494079590e-01
7.410730719566345215e-01
-3.363365679979324341e-02
7.069634199142456055e-01
-6.804776191711425781e-01
5.501605272293090820e-01
6.934031844139099121e-01
4.573817253112792969e-01
-2.957706153392791748e-01
4.961549043655395508e-01
5.926449298858642578e-01
-2.822167277336120605e-01
-6.034588217735290527e-01
4.987255334854125977e-01
4.955201745033264160e-01
-4.969654977321624756e-01
2.935121655464172363e-01
3.162515461444854736e-01
6.192947626113891602e-01
1.614990532398223877e-01
-1.503631472587585449e-01
7.627506256103515625e-01
4.286823272705078125e-01
-3.838517004624009132e-03
4.669211208820343018e-01
4.888580441474914551e-01
7.673205137252807617e-01
7.350034713745117188e-01
5.926386117935180664e-01
-6.814393997192382812e-01
7.496427297592163086e-01
5.458894968032836914e-01
-6.101108789443969727e-01
5.464666485786437988e-01
6.305996179580688477e-01
5.936173200607299805e-01
3.614995181560516357e-01
6.779879927635192871e-01
-2.071023881435394287e-01
4.549207091331481934e-01
5.498335361480712891e-01
4.791429638862609863e-01
-4.738011360168457031e-01
7.679772973060607910e-01
4.750804305076599121e-01
-5.448231101036071777e-01
5.948387980461120605e-01
-7.054568529129028320e-01
7.619006037712097168e-01
4.979230761528015137e-01
2.924325764179229736e-01
5.046255588531494141e-01
6.505289077758789062e-01
5.702235102653503418e-01
5.404006838798522949e-01
5.968933701515197754e-01
3.780328333377838135e-01
4.091022610664367676e-01
6.283374428749084473e-01
5.778058767318725586e-01
5.246566534042358398e-01
-6.112441420555114746e-01
-5.945945978164672852e-01
3.414981961250305176e-01
7.146789431571960449e-01
4.325144588947296143e-01
5.051135420799255371e-01
4.733857810497283936e-01
4.596925675868988037e-01
5.878147482872009277e-01
5.845094919204711914e-01
6.374501585960388184e-01
5.658658742904663086e-01
-6.851193308830261230e-01
6.314955949783325195e-01
5.701588988304138184e-01
4.669056832790374756e-01
5.687223672866821289e-01
4.488000571727752686e-01
4.387596547603607178e-01
5.700498819351196289e-01
7.229282259941101074e-01
6.200152039527893066e-01
5.074701309204101562e-01
4.207790791988372803e-01
5.334398150444030762e-01
5.098155736923217773e-01
-6.275869607925415039e-01
5.288323760032653809e-01
-4.515096843242645264e-01
5.232086777687072754e-01
6.021327972412109375e-01
6.371983885765075684e-01
7.018116712570190430e-01
-6.548344343900680542e-02
-4.647095203399658203e-01
6.002281904220581055e-01
-3.312605023384094238e-01
2.290306389331817627e-01
5.739690065383911133e-01
-3.866437375545501709e-01
-6.707140803337097168e-01
-3.556922078132629395e-01
5.864056348800659180e-01
-2.687470316886901855e-01
6.003918051719665527e-01
6.231299042701721191e-01
-4.660960137844085693e-01
-5.213830471038818359e-01
-8.582974672317504883e-01
5.501691102981567383e-01
4.225041866302490234e-01
4.228550493717193604e-01
5.114201903343200684e-01
5.655412673950195312e-01
-3.096411824226379395e-01
3.644296824932098389e-01
5.013876557350158691e-01
4.649377167224884033e-01
-7.483307123184204102e-01
4.438396692276000977e-01
7.016729116439819336e-01
5.673170089721679688e-01
6.197704672813415527e-01
-4.169283211231231689e-01
-4.640823304653167725e-01
4.983023703098297119e-01
4.045582115650177002e-01
7.398889064788818359e-01
5.590078830718994141e-01
-7.133567929267883301e-01
4.656984210014343262e-01
-1.241792738437652588e-01
5.551057457923889160e-01
