-2.398178912699222565e-02
3.670174777507781982e-01
-9.649205207824707031e-02
2.366786450147628784e-01
-4.871546849608421326e-02
-1.912142038345336914e-01
-2.836666703224182129e-01
2.396883815526962280e-01
3.392584621906280518e-01
1.432751268148422241e-01
-1.812915056943893433e-01
-3.829535245895385742e-01
4.062650799751281738e-01
-3.890010118484497070e-01
3.696148395538330078e-01
-3.364058732986450195e-01
-1.806358546018600464e-01
-6.694254279136657715e-01
2.670274376869201660e-01
7.034458220005035400e-02
2.266540229320526123e-01
4.425438642501831055e-01
-2.035930752754211426e-02
1.931553781032562256e-01
5.062220096588134766e-01
3.145476281642913818e-01
-2.019147127866744995e-01
-3.975746333599090576e-01
3.508951365947723389e-01
1.832811385393142700e-01
-1.879849135875701904e-01
-8.883153647184371948e-02
2.692776620388031006e-01
2.951252758502960205e-01
-7.068572193384170532e-02
2.768120169639587402e-01
-5.075449943542480469e-01
1.407984495162963867e-01
3.816359639167785645e-01
2.757176458835601807e-01
-3.225362598896026611e-01
-4.300451278686523438e-01
9.633854776620864868e-02
3.464989364147186279e-01
-2.668566107749938965e-01
-2.412524521350860596e-01
3.601972758769989014e-02
4.257676601409912109e-01
4.767919480800628662e-01
1.288254261016845703e-01
-1.732223182916641235e-01
3.126858472824096680e-01
4.059042036533355713e-01
-3.696364164352416992e-01
3.856945931911468506e-01
-3.516242802143096924e-01
-3.066384494304656982e-01
1.661837846040725708e-01
-1.334458589553833008e-01
-8.822021074593067169e-03
3.610978424549102783e-01
4.018052816390991211e-01
3.125438094139099121e-01
-2.033805549144744873e-01
-2.105055451393127441e-01
4.686226844787597656e-01
-1.491137593984603882e-01
3.820174336433410645e-01
-1.929483413696289062e-01
-6.867433339357376099e-02
2.361096888780593872e-01
1.433500200510025024e-01
2.978174574673175812e-02
4.073675274848937988e-01
9.243596345186233521e-02
-2.489877641201019287e-01
-1.880940198898315430e-01
-1.169270500540733337e-01
-3.258567452430725098e-01
3.938497304916381836e-01
-1.545070260763168335e-01
-7.641559094190597534e-02
3.319835960865020752e-01
2.569286823272705078e-01
-1.576283574104309082e-01
4.253223240375518799e-01
-9.646712988615036011e-02
-1.672523654997348785e-02
-5.978710576891899109e-02
-9.745651483535766602e-02
-4.622270464897155762e-01
-4.847513139247894287e-01
4.218082129955291748e-01
-1.622598320245742798e-01
-3.937542736530303955e-01
1.171367242932319641e-01
-3.506334722042083740e-01
4.297894239425659180e-01
2.652507126331329346e-01
-5.121426284313201904e-02
-5.182524919509887695e-01
3.249679505825042725e-01
-7.880278676748275757e-02
-1.865371912717819214e-01
-3.457742035388946533e-01
2.372796535491943359e-01
1.399209648370742798e-01
1.911546103656291962e-02
-1.611087322235107422e-01
-2.586855590343475342e-01
4.370307549834251404e-02
-1.321069747209548950e-01
-1.317454734817147255e-03
3.681943416595458984e-01
2.930282950401306152e-01
-3.373330086469650269e-02
3.607120215892791748e-01
2.805562913417816162e-01
-1.524008214473724365e-01
3.731779456138610840e-01
3.343682587146759033e-01
2.581660747528076172e-01
1.086081787943840027e-01
3.792928755283355713e-01
-3.340206742286682129e-01
2.889340519905090332e-01
-3.662375211715698242e-01
4.311943650245666504e-01
9.718880802392959595e-02
-3.585349619388580322e-01
3.327099978923797607e-01
3.975893855094909668e-01
-4.030813872814178467e-01
3.945749998092651367e-01
3.587922155857086182e-01
-2.940621078014373779e-01
2.385017424821853638e-01
2.574940323829650879e-01
-4.646898806095123291e-01
4.112037122249603271e-01
-4.184926673769950867e-02
4.103332757949829102e-01
2.589332163333892822e-01
-1.496567726135253906e-01
9.652387350797653198e-02
3.680324256420135498e-01
2.141274064779281616e-01
4.423295557498931885e-01
4.472030997276306152e-01
3.567484617233276367e-01
3.681710958480834961e-01
-3.081789016723632812e-01
-5.025185346603393555e-01
2.330370545387268066e-01
-1.804467886686325073e-01
-6.922353059053421021e-02
3.096446953713893890e-02
1.480449587106704712e-01
-4.614071249961853027e-01
3.493902385234832764e-01
-2.908123135566711426e-01
2.043852657079696655e-01
4.352446496486663818e-01
2.389192348346114159e-03
-2.522118091583251953e-01
-3.154107928276062012e-01
1.767628937959671021e-01
1.150257512927055359e-01
2.236092239618301392e-01
-1.073788627982139587e-01
-8.985096961259841919e-02
3.622363209724426270e-01
9.419665485620498657e-02
-4.590505361557006836e-01
1.744959801435470581e-01
1.317463815212249756e-02
-3.509364128112792969e-01
-7.587889675050973892e-03
4.662318229675292969e-01
-1.498918384313583374e-01
-6.605365872383117676e-01
2.827724814414978027e-01
3.084402978420257568e-01
2.224877923727035522e-01
4.258402287960052490e-01
3.217147588729858398e-01
1.883096098899841309e-01
7.521136105060577393e-02
-6.837666630744934082e-01
4.978434741497039795e-01
2.883531451225280762e-01
3.397715389728546143e-01
3.718100786209106445e-01
3.045709729194641113e-01
3.563188910484313965e-01
-1.379612684249877930e-01
-1.437033414840698242e-01
-7.663745880126953125e-01
3.441081941127777100e-01
-5.835804715752601624e-02
1.554698199033737183e-01
-3.835669951513409615e-03
4.204740226268768311e-01
2.826798856258392334e-01
-2.347793132066726685e-01
-5.236964821815490723e-01
-3.607796728610992432e-01
-2.717205556109547615e-03
4.062323272228240967e-01
3.973184227943420410e-01
-4.164342880249023438e-01
3.603127002716064453e-01
3.357062935829162598e-01
1.363942474126815796e-01
3.191029429435729980e-01
-3.611299097537994385e-01
-1.742503196001052856e-01
4.132078289985656738e-01
3.638520240783691406e-01
3.801491260528564453e-01
3.674011826515197754e-01
-2.548249661922454834e-01
6.163395568728446960e-02
-1.870277673006057739e-01
4.109215736389160156e-01
-1.613454520702362061e-01
-1.699037551879882812e-01
2.429676651954650879e-01
-9.632854908704757690e-02
3.282296359539031982e-01
-2.403616458177566528e-01
2.334975264966487885e-02
3.343301415443420410e-01
-2.768085896968841553e-01
-3.994794487953186035e-01
-2.649956345558166504e-01
-2.839342355728149414e-01
-1.246738284826278687e-01
-5.672112703323364258e-01
3.383041620254516602e-01
2.640724480152130127e-01
-1.013286858797073364e-01
3.841869235038757324e-01
1.952408105134963989e-01
3.842246830463409424e-01
-4.388788044452667236e-01
-2.941850721836090088e-01
-3.934867084026336670e-01
-4.556010365486145020e-01
-2.256855815649032593e-01
2.369254380464553833e-01
3.229889571666717529e-01
2.887612283229827881e-01
3.218981027603149414e-01
2.017149925231933594e-01
6.896954774856567383e-02
