1.300944387912750244e-01 1.026711314916610718e-01 1.206023097038269043e-01 -1.103168502449989319e-01 6.549423933029174805e-02 -7.887423783540725708e-02 1.225272845476865768e-02 -1.951574981212615967e-01 -1.050308253616094589e-02 1.294216215610504150e-01 -8.824523538351058960e-02 1.204649358987808228e-01 -2.418057993054389954e-03 4.320437461137771606e-02 1.092396676540374756e-02 1.315698325634002686e-01 4.000581800937652588e-02 -4.924350604414939880e-02 8.190971612930297852e-02 -5.703970789909362793e-02 6.936331093311309814e-02 -9.255865216255187988e-02 3.971621021628379822e-02 -2.237389236688613892e-01 7.811764627695083618e-02 1.066286563873291016e-01 1.013070046901702881e-01 -1.089985892176628113e-01 3.460577875375747681e-02 2.019469626247882843e-02 2.957887761294841766e-02 2.819043993949890137e-01 1.676304079592227936e-02 -1.490927487611770630e-01 -2.823960594832897186e-02 -3.112924844026565552e-02 1.117939352989196777e-01 -8.936777710914611816e-02 1.188918575644493103e-01 3.596103191375732422e-02 -1.323482394218444824e-01 -1.543445512652397156e-02 -1.640835851430892944e-01 8.767003193497657776e-03 -5.437538027763366699e-02 -2.456605732440948486e-01 -3.169605880975723267e-02 -5.551971122622489929e-02 5.085466802120208740e-02 -5.715467408299446106e-02 -1.188536360859870911e-01 -1.073743700981140137e-01 -3.378285095095634460e-02 -1.650560945272445679e-01 -1.184176281094551086e-01 6.035696342587471008e-02 1.163581684231758118e-01 -3.925558924674987793e-02 -3.973243385553359985e-02 -3.948921710252761841e-02 -1.900081783533096313e-01 3.047781996428966522e-02 1.544943749904632568e-01 6.423426792025566101e-03 1.620169728994369507e-01 -1.334877610206604004e-01 3.991909325122833252e-02 -6.674747914075851440e-02 -1.328288763761520386e-01 -6.650015711784362793e-02 3.594348952174186707e-02 -7.302401959896087646e-02 6.061719357967376709e-02 -5.073750391602516174e-02 -1.093213818967342377e-02 1.163154467940330505e-01 2.924511209130287170e-02 4.003547877073287964e-02 1.125770136713981628e-01 -6.165793910622596741e-02 -1.609595678746700287e-02 -7.805203646421432495e-02 -9.350506961345672607e-02 6.307922303676605225e-02 -1.085614506155252457e-02 -2.796364482492208481e-03 -1.196821331977844238e-01 9.423751384019851685e-02 7.907842844724655151e-02 -1.712718009948730469e-01 -8.688403666019439697e-02 1.066195294260978699e-01 -9.540208429098129272e-02 2.544779479503631592e-01 5.040171742439270020e-02 -4.357386846095323563e-03 -1.425107866525650024e-01 -2.828235924243927002e-02 -1.164332181215286255e-01 1.083426456898450851e-02 1.396602690219879150e-01 -1.448231041431427002e-01 -1.426545083522796631e-01 2.315131388604640961e-02 5.310480669140815735e-02 1.242087502032518387e-02 -6.107412278652191162e-03 -4.972078837454319000e-03 -3.284210711717605591e-02 -8.392754942178726196e-02 -7.528498768806457520e-02 3.760280832648277283e-02 -1.216707825660705566e-01 -6.771168205887079239e-03 1.093819178640842438e-02 8.105774223804473877e-02 -8.076545596122741699e-02 -2.333609946072101593e-02 -8.093090727925300598e-03 -9.548512101173400879e-02 -8.794316090643405914e-03 -7.447014749050140381e-02 -1.213895827531814575e-01 5.584493745118379593e-03 6.444035470485687256e-02 2.567323148250579834e-01 2.925249002873897552e-02 -1.576506793498992920e-01 6.036778911948204041e-02 -1.450222581624984741e-01 6.577377766370773315e-02 -1.324660331010818481e-01 -2.462144196033477783e-02 -1.160806417465209961e-01 -1.428740750998258591e-02 -8.458232134580612183e-02 7.000870257616043091e-02 -1.679730042815208435e-02 6.054712831974029541e-02 -5.853204056620597839e-02 5.442222580313682556e-02 -2.290810644626617432e-01 -8.285348303616046906e-03 -9.255611896514892578e-02 -1.085990220308303833e-01 5.274334922432899475e-02 9.103949368000030518e-02 -2.292788624763488770e-01 8.915089815855026245e-02 1.693097501993179321e-01 1.030084714293479919e-01 -1.781217902898788452e-01 2.369410544633865356e-02 3.752820938825607300e-02 -2.784089930355548859e-02 8.029635995626449585e-02 1.210025474429130554e-01 1.397706121206283569e-01 1.384742408990859985e-01 -2.905668132007122040e-02 5.100124981254339218e-03 1.131886616349220276e-01 -1.294620335102081299e-02 1.179783344268798828e-01 -5.256134644150733948e-02 -9.327840805053710938e-02 3.642287477850914001e-02 -1.601112037897109985e-01 9.863835573196411133e-02 9.428939968347549438e-02 -9.428015351295471191e-02 4.945043101906776428e-02 -4.358919337391853333e-02 1.983258277177810669e-01 -1.932177394628524780e-01 -2.793209254741668701e-02 4.873790964484214783e-02 -1.198173612356185913e-01 1.469162851572036743e-01 7.039752602577209473e-02 5.597276240587234497e-02 5.390426516532897949e-02 1.148488447070121765e-01 -2.223029136657714844e-01 -7.239900529384613037e-02 6.120597198605537415e-02 1.182268485426902771e-01 1.135176643729209900e-01 6.526001542806625366e-02 -3.865184844471514225e-04 -1.262863725423812866e-01 6.266748160123825073e-02 6.098479032516479492e-02 1.543940156698226929e-01 4.729495849460363388e-03 1.666841655969619751e-02 -3.047691844403743744e-02 -7.489948719739913940e-02 8.100926876068115234e-02 -5.889036878943443298e-02 1.578565239906311035e-01 2.167320400476455688e-01 1.690180972218513489e-02 1.642774417996406555e-02 1.549086272716522217e-01 7.028125971555709839e-02 -8.346975594758987427e-02
1.290387660264968872e-01 5.515719577670097351e-02 3.042822182178497314e-01 1.789461821317672729e-02 1.113369390368461609e-01 -4.576014354825019836e-03 2.614778093993663788e-02 -1.655052751302719116e-01 7.127550989389419556e-02 -3.615581989288330078e-02 1.576645076274871826e-01 -1.901855915784835815e-01 6.321854144334793091e-02 8.682612329721450806e-02 -1.854017004370689392e-02 -6.501654535531997681e-02 8.595413714647293091e-02 -3.772932291030883789e-02 -4.404992982745170593e-02 3.512073308229446411e-02 2.391545288264751434e-02 -1.687903306446969509e-03 1.027575209736824036e-01 -7.413560152053833008e-02 -4.304061084985733032e-02 3.522934764623641968e-02 -8.704598993062973022e-02 9.865683317184448242e-02 -1.719170212745666504e-01 -3.927776217460632324e-02 -4.135223478078842163e-02 -2.471143193542957306e-02 -1.624349802732467651e-01 8.044877648353576660e-02 -2.358505316078662872e-02 1.638068258762359619e-01 2.127708308398723602e-02 -5.487103760242462158e-02 1.535487025976181030e-01 1.677838414907455444e-01 -1.733776032924652100e-01 9.007869660854339600e-02 5.600565299391746521e-02 -5.409850552678108215e-02 4.350519552826881409e-02 -1.261251866817474365e-01 6.453750282526016235e-02 5.748112453147768974e-04 8.000394329428672791e-03 8.385741710662841797e-02 -5.622822791337966919e-02 -3.353682160377502441e-02 -1.120368987321853638e-01 7.806913927197456360e-03 -2.810836769640445709e-02 3.563794121146202087e-02 -5.619263648986816406e-02 4.108924046158790588e-02 5.759993568062782288e-02 -9.476953744888305664e-02 -4.555847123265266418e-02 -5.155919864773750305e-02 9.685259312391281128e-02 -2.817847952246665955e-02 -5.039402097463607788e-02 3.873417899012565613e-02 1.054043322801589966e-01 1.290591806173324585e-01 -5.711448192596435547e-02 -4.991183057427406311e-02 1.943248957395553589e-01 -6.853417307138442993e-02 1.203603446483612061e-01 8.879694342613220215e-02 -4.338256642222404480e-02 -7.794405519962310791e-02 4.057273268699645996e-02 8.748168498277664185e-02 -1.256915479898452759e-01 -2.732261829078197479e-02 1.773391067981719971e-01 3.600504994392395020e-02 9.980574250221252441e-03 -4.840968176722526550e-02 1.431958824396133423e-01 -7.794149219989776611e-02 3.451398108154535294e-03 1.333542317152023315e-01 -1.120633929967880249e-01 8.658873289823532104e-02 7.333958148956298828e-02 -1.277301162481307983e-01 1.730048656463623047e-02 6.713136285543441772e-02 -5.322773009538650513e-02 1.336844563484191895e-01 -6.412569433450698853e-03 1.139694601297378540e-01 -2.515049465000629425e-02 -3.996291756629943848e-02 1.089399605989456177e-01 -6.019042059779167175e-02 1.183149516582489014e-01 7.766902446746826172e-02 1.048191040754318237e-01 1.109619066119194031e-02 3.072259388864040375e-02 -1.473944932222366333e-01 1.122855246067047119e-01 9.279917180538177490e-02 -2.131046354770660400e-02 -2.619966492056846619e-02 -7.345242425799369812e-03 1.403567846864461899e-02 -6.898283213376998901e-02 2.162531614303588867e-01 2.787393517792224884e-03 1.155520081520080566e-01 -1.163131296634674072e-01 3.323693200945854187e-02 2.403100878000259399e-01 2.622527070343494415e-02 1.715800911188125610e-02 1.529049426317214966e-01 2.166847139596939087e-01 -1.884882152080535889e-01 5.485813692212104797e-02 -3.486500680446624756e-02 8.821213990449905396e-02 6.067684292793273926e-02 -8.820620179176330566e-02 1.362441806122660637e-03 2.106594480574131012e-02 2.350286208093166351e-02 -3.643856570124626160e-02 -6.313432753086090088e-02 1.658914983272552490e-01 -4.312997311353683472e-02 -4.760235548019409180e-02 1.308190226554870605e-01 -1.573951840400695801e-01 1.065157204866409302e-01 7.850264012813568115e-02 1.242350041866302490e-01 1.828278154134750366e-01 -2.661754749715328217e-02 1.438187956809997559e-01 -7.655338943004608154e-02 3.715654835104942322e-02 9.074860811233520508e-02 -9.396696835756301880e-02 2.495993226766586304e-01 -6.711903959512710571e-03 -1.254341937601566315e-02 -1.326611824333667755e-02 -1.668447256088256836e-01 -8.719646930694580078e-02 -8.568704873323440552e-02 6.735363602638244629e-02 -1.031574979424476624e-01 -3.872769698500633240e-02 2.144909501075744629e-01 1.590230762958526611e-01 2.517221961170434952e-03 -2.393372356891632080e-02 -1.870335340499877930e-01 1.743822125717997551e-03 -1.466566026210784912e-01 -2.274883538484573364e-01 -5.387908965349197388e-02 9.621614217758178711e-02 2.136421054601669312e-01 1.547015458345413208e-02 2.423991262912750244e-02 -1.176657304167747498e-01 -1.039511337876319885e-01 1.092320010066032410e-01 -6.423922628164291382e-02 1.246770545840263367e-01 7.071808725595474243e-02 -6.529485434293746948e-02 5.995935574173927307e-02 -1.980727463960647583e-01 1.923778653144836426e-02 -2.154711168259382248e-03 4.748662188649177551e-02 -5.558152869343757629e-02 -1.696802675724029541e-01 -2.434681728482246399e-02 -1.821805536746978760e-01 9.945774823427200317e-02 -2.825508825480937958e-02 -2.722452394664287567e-02 3.268767520785331726e-02 9.527944959700107574e-03 -2.414009720087051392e-02 1.781453751027584076e-02 6.897303275763988495e-03 -8.790993690490722656e-02 -1.354118138551712036e-01 -1.441695541143417358e-01 7.967279106378555298e-02 2.988822385668754578e-02 -6.004025693982839584e-03 1.300880499184131622e-02 -5.838972330093383789e-02 9.989214129745960236e-03
1.457877010107040405e-01 -5.435284599661827087e-02 7.190492935478687286e-03 -7.952127605676651001e-02 2.097805216908454895e-02 2.704800292849540710e-02 -9.179155528545379639e-02 1.426340341567993164e-01 -2.774299681186676025e-01 -8.630861341953277588e-02 6.741048302501440048e-03 3.025821037590503693e-02 3.400332853198051453e-02 1.066717319190502167e-03 7.235033065080642700e-02 -4.532288759946823120e-02 -4.830692335963249207e-02 4.472769331187009811e-03 -2.135203629732131958e-01 3.187982365489006042e-02 -4.134265333414077759e-02 1.831371895968914032e-02 8.506113663315773010e-03 -2.869212627410888672e-02 1.655406504869461060e-01 -2.566914632916450500e-02 5.772706866264343262e-02 -6.610265374183654785e-02 -1.633295416831970215e-02 -3.111673519015312195e-02 9.815959632396697998e-02 1.151172094978392124e-03 -1.996522769331932068e-02 -1.475562248378992081e-02 1.025140285491943359e-01 -8.186560869216918945e-02 -8.825744502246379852e-03 -7.513005286455154419e-02 2.699226699769496918e-02 -7.898596674203872681e-02 2.623764425516128540e-02 -5.427543818950653076e-02 3.951262682676315308e-02 6.353640556335449219e-02 -2.239913493394851685e-02 -4.381455481052398682e-02 3.542181104421615601e-02 -4.314252361655235291e-02 -7.873050123453140259e-02 1.714056283235549927e-01 -1.346798241138458252e-01 1.290779858827590942e-01 -1.651742495596408844e-02 -4.469462856650352478e-02 9.661881625652313232e-02 9.171281009912490845e-02 -1.877055689692497253e-02 -6.820997595787048340e-02 -4.450148344039916992e-02 -2.390939183533191681e-02 9.752581827342510223e-03 -5.091807991266250610e-02 2.459727227687835693e-01 1.498908698558807373e-01 1.716460585594177246e-01 5.015650391578674316e-02 -3.531210590153932571e-03 2.100767567753791809e-02 5.055993795394897461e-02 5.432180315256118774e-02 -6.006899103522300720e-02 -4.303462058305740356e-02 -1.314093451946973801e-02 -3.842440620064735413e-02 1.907944306731224060e-02 -1.241926625370979309e-01 -2.394369430840015411e-02 3.622526302933692932e-02 -1.191822588443756104e-01 -1.042955443263053894e-01 6.010108441114425659e-02 3.899021074175834656e-02 -5.395106598734855652e-02 -1.162203773856163025e-01 -4.615950956940650940e-02 1.319215297698974609e-01 8.087480068206787109e-02 -6.786523014307022095e-02 -2.489640004932880402e-02 -1.972876936197280884e-01 -7.850787788629531860e-02 -4.892487823963165283e-02 -7.197540253400802612e-04 2.312734276056289673e-01 1.815045177936553955e-01 -1.160649359226226807e-01 -1.645856350660324097e-01 -1.261780112981796265e-01 6.036552600562572479e-03 -1.786141395568847656e-01 4.540507495403289795e-02 4.517596960067749023e-02 -1.830895058810710907e-02 1.165375411510467529e-01 3.596848994493484497e-02 1.543297320604324341e-01 6.782278418540954590e-02 2.358599007129669189e-01 3.763874247670173645e-02 -7.560986280441284180e-02 1.503173261880874634e-01 -2.727594673633575439e-01 6.528363376855850220e-02 -2.729027997702360153e-03 -6.024801637977361679e-03 1.720900237560272217e-01 -6.570387165993452072e-03 9.729058295488357544e-02 -9.069819003343582153e-02 4.510889202356338501e-02 4.563611373305320740e-02 8.776021748781204224e-02 -1.905412077903747559e-01 -7.416422013193368912e-04 6.001484021544456482e-02 1.094991117715835571e-01 -5.543427169322967529e-02 2.046518959105014801e-02 -5.742486193776130676e-02 1.517423987388610840e-01 -1.184799447655677795e-01 -1.042701080441474915e-01 3.379847854375839233e-02 -1.514618396759033203e-01 4.719538986682891846e-02 -1.074248477816581726e-01 1.131889503449201584e-02 8.889642357826232910e-02 -5.193252116441726685e-03 -1.359219104051589966e-01 -2.561835199594497681e-02 1.474397331476211548e-01 -2.511722445487976074e-01 -3.016822226345539093e-02 7.985861040651798248e-03 -8.687213063240051270e-02 7.544124871492385864e-02 -1.199974119663238525e-02 2.546722292900085449e-01 1.536152362823486328e-01 -9.753593057394027710e-02 -8.175025135278701782e-02 2.180808968842029572e-02 1.898366361856460571e-01 4.328421130776405334e-02 -4.114459827542304993e-02 8.339873701333999634e-02 5.662543326616287231e-02 1.771501451730728149e-01 -7.050792872905731201e-02 1.166719123721122742e-01 -8.157929033041000366e-02 -1.496033817529678345e-01 2.961824834346771240e-02 9.324582666158676147e-02 -2.476231902837753296e-01 1.247180849313735962e-01 8.328667283058166504e-02 1.593720167875289917e-01 -1.058814395219087601e-02 -1.774139255285263062e-01 8.436882868409156799e-03 2.994841895997524261e-02 3.415892645716667175e-02 7.747026532888412476e-02 -4.222942888736724854e-02 1.232993528246879578e-01 -7.480207830667495728e-02 -3.490580990910530090e-02 5.538492277264595032e-02 5.575501918792724609e-02 -6.332574039697647095e-02 -8.159331977367401123e-02 -7.855845242738723755e-02 2.644879184663295746e-02 -3.516543656587600708e-04 2.430013120174407959e-01 5.521606281399726868e-02 -5.503349378705024719e-02 -2.422899007797241211e-02 -4.362425766885280609e-03 1.031413152813911438e-01 5.712719261646270752e-02 7.548515498638153076e-02 3.066866844892501831e-02 -1.296925097703933716e-01 -2.653369307518005371e-02 -2.265762723982334137e-02 3.446418792009353638e-02 4.589843377470970154e-02 -3.361041471362113953e-02 -9.760106354951858521e-02 -8.940085768699645996e-02 -6.016714870929718018e-02 -8.174770325422286987e-02 7.355710119009017944e-02 -7.082603126764297485e-02
6.822888553142547607e-02 -2.005432732403278351e-02 -8.669213950634002686e-02 -8.034249395132064819e-02 9.633363038301467896e-02 -9.486041963100433350e-02 1.632462255656719208e-02 9.133763611316680908e-02 1.142827719449996948e-01 -3.050155751407146454e-02 -1.626573689281940460e-02 -5.354060232639312744e-02 -2.859991975128650665e-02 7.502360641956329346e-02 -6.169270351529121399e-02 -1.995340362191200256e-02 1.508670151233673096e-01 8.947330713272094727e-02 -5.100621655583381653e-02 1.040921136736869812e-01 -3.966061025857925415e-02 -1.614814437925815582e-02 2.997966855764389038e-02 -2.092296034097671509e-01 -3.428213670849800110e-02 -6.618003547191619873e-02 -1.250145286321640015e-01 1.003834530711174011e-01 -7.927192002534866333e-02 3.415532782673835754e-02 -2.469764463603496552e-02 -1.344836056232452393e-01 -1.817104965448379517e-01 -2.203611582517623901e-01 1.036082804203033447e-01 1.187933310866355896e-01 3.482310101389884949e-02 -5.299128964543342590e-02 7.739019114524126053e-03 -6.890939176082611084e-02 -7.569677382707595825e-02 7.329418510198593140e-02 -4.120599851012229919e-02 4.093876853585243225e-02 -5.913387238979339600e-02 7.684118300676345825e-02 -5.481220036745071411e-02 1.638797372579574585e-01 -5.546618625521659851e-02 -2.738920040428638458e-02 3.272352367639541626e-02 2.483478561043739319e-02 5.308829247951507568e-02 -7.200097292661666870e-02 -1.407482326030731201e-01 7.596203684806823730e-02 1.922932080924510956e-02 1.073353961110115051e-01 -5.167313292622566223e-02 1.070556640625000000e-01 1.396939624100923538e-02 6.116018630564212799e-04 -1.326768994331359863e-01 -4.272023588418960571e-02 -2.552947103977203369e-01 -6.599278748035430908e-02 -5.679629370570182800e-02 1.320520192384719849e-01 1.601635217666625977e-01 1.671621203422546387e-01 -1.282476335763931274e-01 -9.943082928657531738e-03 -3.547484427690505981e-02 1.814835891127586365e-02 2.450617775321006775e-02 7.111538201570510864e-02 1.876993477344512939e-01 8.802960067987442017e-02 -4.575560986995697021e-02 8.247525990009307861e-02 7.955283671617507935e-02 -3.996608033776283264e-02 7.251829653978347778e-02 1.081595569849014282e-02 6.840790063142776489e-02 -1.460313796997070312e-01 1.002299562096595764e-01 8.480405434966087341e-03 -1.160729583352804184e-02 -9.466310590505599976e-02 -5.119689926505088806e-02 1.541504263877868652e-02 1.079037040472030640e-01 -6.237626448273658752e-02 -2.332106381654739380e-01 -1.124173328280448914e-01 -7.916469126939773560e-02 1.304972469806671143e-01 4.491008073091506958e-02 -6.505563855171203613e-02 -1.410485524684190750e-02 2.548369951546192169e-02 7.966945320367813110e-02 -5.581912398338317871e-02 -1.693983525037765503e-01 1.958004981279373169e-01 4.062636569142341614e-02 4.849490895867347717e-02 1.688844151794910431e-02 1.122333761304616928e-02 2.558124810457229614e-02 -1.663575470447540283e-01 -6.282500922679901123e-02 -6.031199544668197632e-02 -5.514038354158401489e-02 -5.532529205083847046e-02 2.332017570734024048e-02 -2.263034880161285400e-02 -5.547294765710830688e-02 -5.426573753356933594e-02 -1.902469545602798462e-01 -4.118880629539489746e-02 -1.089846640825271606e-01 -7.185932248830795288e-02 -3.250342980027198792e-02 -9.152341634035110474e-02 -1.932558789849281311e-02 4.504668712615966797e-02 9.437079541385173798e-03 -6.311711668968200684e-02 -2.749597840011119843e-02 -7.483756542205810547e-02 -2.611433342099189758e-02 -2.162838913500308990e-02 -1.231545433402061462e-01 6.361654400825500488e-02 1.321588605642318726e-01 -1.426388770341873169e-01 -6.079471111297607422e-02 4.191598296165466309e-02 -4.637754708528518677e-02 -3.714452311396598816e-02 -7.120706140995025635e-02 2.812359482049942017e-02 -9.211301058530807495e-02 -2.969004772603511810e-02 1.178060695528984070e-01 -3.717390075325965881e-02 -2.294202595949172974e-01 -2.261053025722503662e-01 -1.083925142884254456e-01 -8.010318130254745483e-02 -1.249589622020721436e-01 6.341084837913513184e-02 -1.000537071377038956e-02 2.124431431293487549e-01 6.164779141545295715e-02 -6.109490618109703064e-02 -7.205031067132949829e-02 2.825076691806316376e-02 1.397916078567504883e-01 -8.736341446638107300e-02 7.023822050541639328e-03 6.156806647777557373e-02 5.869969725608825684e-02 -1.069010123610496521e-01 3.648891299962997437e-02 -3.181533813476562500e-01 1.513800024986267090e-01 3.459676727652549744e-02 -5.419206339865922928e-03 -4.107957240194082260e-03 -5.873484164476394653e-02 5.998491775244474411e-03 -1.992272678762674332e-03 -6.233584508299827576e-02 -2.390969246625900269e-01 9.153927117586135864e-02 -1.730405353009700775e-02 2.194770723581314087e-01 1.175821796059608459e-01 1.495968252420425415e-01 -4.967424646019935608e-02 5.520160123705863953e-02 -1.057463139295578003e-02 -1.616705209016799927e-01 1.586296111345291138e-01 4.384383559226989746e-02 -9.327703714370727539e-02 -1.202797144651412964e-02 -1.764226518571376801e-02 6.088157743215560913e-02 5.545182898640632629e-02 2.706024236977100372e-02 1.009095013141632080e-01 -8.781504631042480469e-02 -1.159679703414440155e-02 -1.419087406247854233e-02 -5.768288671970367432e-02 7.966192066669464111e-02 1.855573207139968872e-01 4.252282530069351196e-02 6.588774919509887695e-02 1.058414205908775330e-01 -4.041378200054168701e-02 9.559758752584457397e-02 -9.607652574777603149e-02
2.610288858413696289e-01 2.206147462129592896e-01 9.840749949216842651e-02 -1.056981086730957031e-01 -2.123553864657878876e-02 -1.863526254892349243e-01 9.632887318730354309e-03 3.245287388563156128e-02 3.643602728843688965e-01 -1.730610877275466919e-01 -9.883771836757659912e-02 8.047483116388320923e-02 8.592630922794342041e-02 1.004403922706842422e-02 1.163192987442016602e-01 -6.919641792774200439e-02 -1.312260180711746216e-01 1.095785275101661682e-01 5.238135810941457748e-03 2.128621488809585571e-01 6.557637453079223633e-02 6.804591417312622070e-02 -1.160830352455377579e-02 -5.172048509120941162e-02 8.055847138166427612e-03 -1.984373480081558228e-02 4.441053420305252075e-02 -1.418389976024627686e-01 6.177381426095962524e-02 1.147133670747280121e-02 -1.490952074527740479e-02 1.760001182556152344e-01 8.043706417083740234e-02 -6.772845517843961716e-03 -3.290547430515289307e-02 -2.218772619962692261e-01 2.190526947379112244e-02 -9.980835765600204468e-02 8.478558063507080078e-02 1.244683638215065002e-01 -1.086794286966323853e-01 3.372465074062347412e-02 3.795328363776206970e-02 -9.872790426015853882e-02 -1.859277673065662384e-02 3.856018010992556810e-04 5.240767821669578552e-02 -1.532393973320722580e-02 2.389856986701488495e-02 4.394906759262084961e-02 5.671015754342079163e-02 -5.845689401030540466e-02 -1.245163232088088989e-01 -4.571261629462242126e-02 1.028732862323522568e-02 -1.566351950168609619e-02 -6.617772742174565792e-04 -5.270227417349815369e-02 -2.112512588500976562e-01 -4.435352608561515808e-02 3.645908087491989136e-02 6.743878126144409180e-02 1.376706212759017944e-01 8.631230331957340240e-03 1.219943240284919739e-01 8.478394895792007446e-02 -1.138950660824775696e-01 4.139719530940055847e-02 -1.416165679693222046e-01 4.525542631745338440e-02 -1.148980669677257538e-02 -1.277600973844528198e-01 -3.681536018848419189e-02 -5.845533683896064758e-02 1.666062623262405396e-01 -5.303047597408294678e-02 1.661490201950073242e-01 3.379070013761520386e-02 2.665548771619796753e-02 1.232027485966682434e-01 -1.389209330081939697e-01 4.905733512714505196e-04 -1.302035003900527954e-01 3.133362531661987305e-02 4.570445790886878967e-02 -4.262516275048255920e-02 1.288087964057922363e-01 2.229804545640945435e-02 1.041266992688179016e-01 6.442344188690185547e-02 2.885691635310649872e-02 -6.345046311616897583e-02 -4.215044900774955750e-02 2.277738600969314575e-01 1.271418333053588867e-01 1.483262479305267334e-01 8.421690762042999268e-02 -1.494516134262084961e-01 8.810281753540039062e-02 -9.034620597958564758e-03 -7.620672695338726044e-04 6.795349717140197754e-02 -5.258675664663314819e-02 7.977705448865890503e-02 1.406904216855764389e-02 -1.645718701183795929e-03 -1.943360082805156708e-02 -8.925496041774749756e-02 -7.383835315704345703e-02 -1.113828495144844055e-01 4.332070052623748779e-02 -1.967498809099197388e-01 1.309561133384704590e-01 -1.547392010688781738e-01 1.689761877059936523e-02 -6.625209748744964600e-02 -9.490850567817687988e-02 1.161905601620674133e-01 1.636097580194473267e-02 4.371085390448570251e-02 -5.895138904452323914e-02 1.381268203258514404e-01 -1.612502336502075195e-01 1.625334843993186951e-02 1.512278467416763306e-01 9.905712306499481201e-02 9.183201938867568970e-02 1.173054724931716919e-01 -1.903727203607559204e-01 3.356052935123443604e-02 -2.284302376210689545e-02 3.557777777314186096e-02 -1.504958122968673706e-01 -6.235752627253532410e-02 5.614531040191650391e-02 -3.859104588627815247e-02 -1.270311623811721802e-01 -9.125499427318572998e-02 1.028011962771415710e-01 3.758953139185905457e-02 -1.027597635984420776e-01 5.819698423147201538e-02 -2.007320672273635864e-01 -2.090860856696963310e-03 1.838017627596855164e-02 -6.454526633024215698e-02 1.644010394811630249e-01 -3.811019659042358398e-02 -5.027201771736145020e-02 -8.890464156866073608e-02 -1.339722890406847000e-03 -1.693537533283233643e-01 4.147093370556831360e-02 1.748798489570617676e-01 3.425034508109092712e-02 5.734744481742382050e-03 1.810857802629470825e-01 -4.927379637956619263e-02 -1.108155399560928345e-01 -9.168034791946411133e-02 -6.092508789151906967e-03 -1.471183001995086670e-01 -6.538000702857971191e-02 -9.377812594175338745e-02 7.058420032262802124e-02 -6.741062738001346588e-03 -3.525720909237861633e-02 -1.103287488222122192e-01 9.462931007146835327e-02 2.299468666315078735e-01 -7.016550283879041672e-03 -4.539363086223602295e-02 1.079523935914039612e-01 4.640107601881027222e-02 -1.160721480846405029e-01 5.484773591160774231e-02 -4.352348297834396362e-02 1.272412687540054321e-01 5.889853835105895996e-02 3.153184428811073303e-02 -1.605878770351409912e-01 -1.823781174607574940e-03 1.278734207153320312e-01 -4.443329572677612305e-02 -5.645443499088287354e-02 -2.700890973210334778e-02 -6.036099791526794434e-02 6.880339235067367554e-02 2.207145392894744873e-01 1.261140853166580200e-01 7.580836862325668335e-02 5.465512163937091827e-03 1.099653020501136780e-01 6.673622876405715942e-02 -2.505073323845863342e-02 2.678134106099605560e-02 7.369591295719146729e-02 1.226711049675941467e-01 -6.443566828966140747e-02 -1.127303764224052429e-02 -8.807091414928436279e-02 -2.954996936023235321e-02 -1.234747990965843201e-01 -2.977487072348594666e-02 1.008212789893150330e-01 1.520980894565582275e-01 3.330198302865028381e-02
1.074947193264961243e-01 8.533720392733812332e-04 2.285319007933139801e-02 -3.449139371514320374e-02 5.641540139913558960e-02 -5.511545110493898392e-03 2.057016342878341675e-01 -3.044127114117145538e-02 4.782973974943161011e-02 1.320845186710357666e-01 5.574159696698188782e-02 -2.728284336626529694e-02 -5.441252514719963074e-02 -1.111212670803070068e-01 9.718760848045349121e-02 4.762356355786323547e-02 1.578761935234069824e-01 1.217999029904603958e-03 5.109630525112152100e-02 5.849260464310646057e-02 -1.056197583675384521e-01 2.598716318607330322e-02 -7.282485812902450562e-02 2.115214318037033081e-01 1.197030209004878998e-02 -1.114652231335639954e-01 2.809242904186248779e-02 -4.598609730601310730e-02 -6.751547008752822876e-02 5.262985080480575562e-02 3.755072876811027527e-02 1.043143421411514282e-01 -4.636529460549354553e-02 -7.926664501428604126e-02 -1.437724530696868896e-01 -5.945763736963272095e-02 -2.673010900616645813e-02 9.528183937072753906e-02 -1.681486517190933228e-01 8.589225262403488159e-02 -7.357084006071090698e-02 4.552727937698364258e-02 1.384287476539611816e-01 1.683030575513839722e-01 1.610050797462463379e-01 -7.331985235214233398e-02 1.063949242234230042e-01 -3.420953452587127686e-02 -1.811170578002929688e-01 8.121258765459060669e-02 -1.745768040418624878e-01 1.039305105805397034e-01 4.162254277616739273e-03 6.258933246135711670e-02 -6.459523737430572510e-02 7.378856092691421509e-02 4.207618907094001770e-02 -1.294345315545797348e-02 -1.808705553412437439e-02 -5.461617559194564819e-02 1.471351683139801025e-01 1.049328595399856567e-01 1.152805387973785400e-01 4.956920165568590164e-03 -3.776888921856880188e-02 -3.241202980279922485e-02 -5.598062276840209961e-02 -2.181137502193450928e-01 1.713615208864212036e-01 -7.915068417787551880e-02 -2.758505754172801971e-03 3.174871578812599182e-02 3.107055462896823883e-02 5.477650091052055359e-02 4.810402914881706238e-02 -1.642962917685508728e-02 -2.210170961916446686e-02 -3.719637170433998108e-02 6.216212362051010132e-02 5.812550708651542664e-02 2.307069301605224609e-01 4.326675832271575928e-02 -9.957785904407501221e-02 7.116060238331556320e-03 -1.972473561763763428e-01 -7.136334478855133057e-02 6.671478599309921265e-02 6.112511083483695984e-02 5.075840279459953308e-02 -1.837923377752304077e-01 -2.898252382874488831e-02 -6.123115122318267822e-02 1.322445720434188843e-01 1.053287461400032043e-01 -2.142695635557174683e-01 -1.332865748554468155e-02 -6.290514767169952393e-02 -1.196726039052009583e-01 5.543414130806922913e-02 1.296791881322860718e-01 -1.136601492762565613e-01 2.372660674154758453e-02 -2.107020094990730286e-02 -9.311549365520477295e-02 1.145325750112533569e-01 9.017334878444671631e-02 4.746048897504806519e-02 6.291220337152481079e-02 1.089626848697662354e-01 -2.587781473994255066e-02 -1.593551486730575562e-01 2.966415882110595703e-01 1.036041751503944397e-01 -2.369991503655910492e-02 -4.415579140186309814e-02 -4.766010120511054993e-02 3.187295049428939819e-02 2.015454322099685669e-01 -1.226547881960868835e-01 3.322066366672515869e-02 -4.945795983076095581e-02 -3.407436236739158630e-02 -1.202645152807235718e-01 -7.718496769666671753e-02 8.297674357891082764e-02 -9.400422871112823486e-02 3.632754459977149963e-02 6.101080402731895447e-02 1.872148662805557251e-01 -8.054713718593120575e-03 9.575080871582031250e-02 -6.541509181261062622e-02 4.735898599028587341e-02 -5.411196127533912659e-02 -1.233942806720733643e-01 2.198992110788822174e-02 -2.742780558764934540e-02 -1.727713346481323242e-01 -6.436091661453247070e-02 1.013583242893218994e-01 -1.150205358862876892e-01 -1.356754302978515625e-01 -4.270016215741634369e-04 4.999025538563728333e-02 -4.675153642892837524e-02 -5.978278443217277527e-02 1.588073093444108963e-03 7.614537328481674194e-02 1.083083171397447586e-02 1.621948182582855225e-01 8.109917491674423218e-02 -1.305816322565078735e-01 -1.144251748919487000e-01 -1.091403961181640625e-01 1.456492301076650620e-02 -8.891662955284118652e-02 1.188591006211936474e-03 1.676310002803802490e-01 -3.543672338128089905e-02 1.399992685765028000e-02 -8.025021851062774658e-02 4.487333935685455799e-04 8.049552887678146362e-02 -5.040622502565383911e-02 7.165547576732933521e-04 -1.682708039879798889e-02 1.252498775720596313e-01 6.058268994092941284e-02 1.194546837359666824e-02 -8.924134820699691772e-02 -1.171673461794853210e-01 -2.263067290186882019e-02 -1.061570420861244202e-01 1.383282393217086792e-01 1.259677708148956299e-01 -6.339279562234878540e-02 -4.622304812073707581e-02 -3.737558424472808838e-02 9.553804248571395874e-02 1.330659240484237671e-01 2.349863201379776001e-02 1.817092858254909515e-02 2.069011777639389038e-01 -1.274217069149017334e-01 2.921526553109288216e-03 3.620664030313491821e-02 1.543747633695602417e-01 6.480228900909423828e-02 1.784219741821289062e-01 9.905105456709861755e-03 5.927021428942680359e-02 1.230367124080657959e-01 7.647725939750671387e-02 -1.284021884202957153e-01 8.970371633768081665e-02 1.043925657868385315e-01 -9.036006778478622437e-02 2.042619511485099792e-02 8.457169681787490845e-02 7.794592529535293579e-02 -5.493471026420593262e-02 2.215069718658924103e-02 -7.017351686954498291e-02 1.668457835912704468e-01 -2.571398317813873291e-01 1.357946842908859253e-01 -1.394275873899459839e-01
-1.007906198501586914e-01 4.496878013014793396e-02 -5.354912579059600830e-02 9.606391936540603638e-02 -8.541038632392883301e-02 1.126786097884178162e-01 -9.966019541025161743e-02 6.627729628235101700e-03 8.724242448806762695e-02 1.076722890138626099e-01 -6.415287405252456665e-02 1.868495196104049683e-01 -3.178496286273002625e-02 1.371661294251680374e-02 -1.055831648409366608e-02 2.418083883821964264e-02 2.159843407571315765e-02 1.852830648422241211e-01 9.000077843666076660e-02 7.787291705608367920e-02 1.973707042634487152e-02 -3.861800208687782288e-02 6.411395221948623657e-02 -5.560958385467529297e-02 1.772375591099262238e-02 3.835255280137062073e-02 1.695524528622627258e-02 4.193574562668800354e-02 -1.602511405944824219e-01 -1.073889061808586121e-01 4.333619400858879089e-02 -2.070176042616367340e-02 5.300553515553474426e-03 -5.066115409135818481e-02 1.427125884220004082e-03 1.463691890239715576e-02 1.286783069372177124e-02 7.476360537111759186e-03 -1.451084762811660767e-01 1.063520684838294983e-01 -5.717108026146888733e-03 -1.940110139548778534e-02 3.183871135115623474e-02 -6.776764243841171265e-02 3.713548881933093071e-03 3.128294274210929871e-02 3.756102919578552246e-02 7.993867248296737671e-02 -1.283114999532699585e-01 -1.525725051760673523e-02 -1.050220951437950134e-01 4.367861151695251465e-02 3.506330540403723717e-04 1.087267175316810608e-01 -1.790269166231155396e-01 1.511458009481430054e-01 -3.198797581717371941e-03 -1.207657903432846069e-01 3.248698636889457703e-02 1.060370206832885742e-01 4.676270112395286560e-02 -1.101680472493171692e-01 4.431820288300514221e-02 7.614898681640625000e-02 -1.746792495250701904e-01 1.002067252993583679e-01 4.257991537451744080e-02 2.231151238083839417e-02 -5.869283899664878845e-02 -4.555524140596389771e-02 1.406869143247604370e-01 1.708526313304901123e-01 -7.365448027849197388e-02 1.765971332788467407e-01 4.238709434866905212e-02 4.188662767410278320e-02 1.093485429883003235e-01 -4.269290342926979065e-02 8.249113708734512329e-02 1.211998015642166138e-01 -1.363533884286880493e-01 -6.622382253408432007e-02 5.878619849681854248e-02 4.404694959521293640e-02 2.132206596434116364e-02 9.774192422628402710e-02 -8.557957410812377930e-02 -4.526901617646217346e-02 9.397485293447971344e-03 1.966995298862457275e-01 -1.919993758201599121e-02 3.793273493647575378e-02 6.332736462354660034e-02 -8.539500087499618530e-02 2.123305201530456543e-01 -1.024697422981262207e-01 9.065348654985427856e-02 -1.102904230356216431e-02 2.124312967061996460e-01 -8.725414425134658813e-02 5.194681882858276367e-02 4.128045216202735901e-02 4.340720921754837036e-02 1.513143330812454224e-01 -1.080188434571027756e-02 -1.110624000430107117e-01 6.553474068641662598e-02 -2.457263646647334099e-03 -3.396140411496162415e-02 1.432165056467056274e-01 2.007351964712142944e-01 -4.697731509804725647e-02 -3.934057056903839111e-02 -8.858846873044967651e-02 5.333108454942703247e-02 4.782985150814056396e-02 1.120671406388282776e-01 8.430668385699391365e-04 6.182748824357986450e-02 -5.469845980405807495e-02 9.136163443326950073e-02 -8.220791071653366089e-02 -1.677575558423995972e-01 8.977708220481872559e-02 -1.198066864162683487e-02 3.937677666544914246e-02 -1.197178885340690613e-01 -1.553138863528147340e-04 -1.267969012260437012e-01 1.775019317865371704e-01 -1.890775114297866821e-01 2.975543402135372162e-02 1.849805861711502075e-01 -6.308358162641525269e-02 3.724895045161247253e-02 -1.284550642594695091e-03 -9.664525836706161499e-02 6.719071418046951294e-02 -8.867311477661132812e-02 2.871914766728878021e-02 1.021267622709274292e-01 1.810182929039001465e-01 -2.081010192632675171e-01 -5.181855708360671997e-02 5.582867935299873352e-02 -5.597029253840446472e-02 -5.039560794830322266e-02 1.492244899272918701e-01 6.929744035005569458e-02 -3.510859608650207520e-02 7.004066556692123413e-02 7.921187579631805420e-02 5.387630313634872437e-02 3.961067274212837219e-02 -2.904104255139827728e-02 -2.397818490862846375e-02 -8.446194976568222046e-02 1.979972422122955322e-01 -2.119326527463272214e-04 2.100112289190292358e-01 -4.905970022082328796e-02 2.971216477453708649e-02 -7.575304061174392700e-02 2.726683579385280609e-02 -9.084285050630569458e-02 -1.934939771890640259e-01 -4.186875000596046448e-02 -1.013544015586376190e-02 -1.305489987134933472e-01 4.850062727928161621e-02 -1.030511781573295593e-01 -5.868735909461975098e-02 9.245318360626697540e-03 -3.825936838984489441e-02 -7.567244768142700195e-02 -9.326398372650146484e-03 -1.668496429920196533e-02 6.009934935718774796e-03 1.640318483114242554e-01 -3.340911492705345154e-02 -2.815116429701447487e-03 4.143365845084190369e-02 -5.982400104403495789e-02 4.063614457845687866e-02 -1.044058706611394882e-02 1.016598418354988098e-01 -2.093083709478378296e-01 -5.845316126942634583e-02 1.041821087710559368e-03 -7.913310080766677856e-02 -1.637413948774337769e-01 5.890792608261108398e-02 1.786382496356964111e-01 -3.149040043354034424e-02 1.670755594968795776e-01 -3.832435235381126404e-02 1.253692358732223511e-01 -1.429576128721237183e-01 1.056490652263164520e-02 -2.635655179619789124e-02 4.587284848093986511e-02 -1.296943426132202148e-01 3.702222183346748352e-02 -1.885420083999633789e-01 1.984911412000656128e-02 1.114400103688240051e-01 -1.358383521437644958e-02
5.431464686989784241e-02 -2.241042852401733398e-01 -1.396173983812332153e-01 -1.723467721603810787e-03 5.942324548959732056e-02 -7.019480317831039429e-02 -1.921048760414123535e-02 1.505192965269088745e-01 -5.097750574350357056e-02 -1.492003798484802246e-01 -2.621220983564853668e-02 -1.786440610885620117e-01 8.319601416587829590e-02 7.389146485365927219e-04 7.729885727167129517e-02 6.160892918705940247e-02 -1.531319022178649902e-01 2.377656102180480957e-02 9.761863946914672852e-02 -5.349501222372055054e-02 -4.294862225651741028e-02 -2.179834544658660889e-01 8.487253636121749878e-02 4.394936189055442810e-02 -1.088057756423950195e-01 -2.984804660081863403e-02 -6.146644707769155502e-03 -1.618391126394271851e-01 1.713005639612674713e-02 -5.032286792993545532e-02 -3.030896745622158051e-02 5.492364242672920227e-02 -1.275501698255538940e-01 -1.852019876241683960e-01 2.124821208417415619e-02 -8.002680726349353790e-03 -8.748259395360946655e-02 8.462360501289367676e-02 -1.307130008935928345e-01 6.505415588617324829e-02 -1.751207113265991211e-01 5.847467109560966492e-02 -4.822860658168792725e-02 1.560624092817306519e-01 6.253801286220550537e-03 9.988690167665481567e-02 7.074457127600908279e-03 1.833481155335903168e-02 6.546794623136520386e-02 1.483203768730163574e-01 -7.156183570623397827e-02 -8.315350115299224854e-02 4.158629849553108215e-02 -3.686521947383880615e-02 3.280619904398918152e-02 -5.730829015374183655e-02 -5.462747532874345779e-03 -2.349139563739299774e-02 7.348697632551193237e-02 3.732938319444656372e-02 -2.632967196404933929e-02 1.829966530203819275e-02 -8.215542882680892944e-02 -3.073914051055908203e-01 -1.503887772560119629e-01 -3.671041503548622131e-02 3.347975388169288635e-02 8.879048749804496765e-03 7.969130575656890869e-02 1.429380327463150024e-01 1.317388713359832764e-01 -1.464668661355972290e-01 -3.725652396678924561e-02 -2.636924758553504944e-02 1.049105152487754822e-01 2.240784838795661926e-02 -1.064440533518791199e-01 -4.206747934222221375e-02 -7.806321233510971069e-02 4.429166018962860107e-02 7.317975163459777832e-02 -1.020039618015289307e-01 -1.074521616101264954e-01 1.767708733677864075e-02 1.106632780283689499e-02 -6.853618472814559937e-02 1.598006486892700195e-01 1.664341986179351807e-02 -6.332936137914657593e-02 -8.538556843996047974e-02 1.228273510932922363e-01 1.219759508967399597e-01 -5.232832953333854675e-02 7.835426181554794312e-02 -9.381759911775588989e-02 -2.063019275665283203e-01 4.453304037451744080e-02 1.269721984863281250e-01 -1.451955288648605347e-01 1.306173391640186310e-02 -4.269115626811981201e-02 2.116607688367366791e-02 1.955231465399265289e-02 -4.467514157295227051e-02 4.965151846408843994e-02 -1.348378062248229980e-01 1.704100519418716431e-02 6.277257204055786133e-02 1.762017756700515747e-01 -1.971676573157310486e-02 4.696285724639892578e-02 -4.750265553593635559e-02 -1.588343679904937744e-01 5.830178409814834595e-02 -1.412691473960876465e-01 2.760294824838638306e-02 3.371981531381607056e-02 -9.806005656719207764e-02 -5.812514573335647583e-02 2.574869431555271149e-03 -7.896838337182998657e-02 6.965613365173339844e-02 1.139392405748367310e-01 2.388015016913414001e-02 1.499441359192132950e-02 -1.339395195245742798e-01 -2.169355303049087524e-01 1.129164174199104309e-01 -4.022586345672607422e-02 -1.038967818021774292e-01 3.297079727053642273e-02 -4.157068952918052673e-02 1.399003062397241592e-02 -1.983299404382705688e-01 -1.024944148957729340e-02 -6.624308414757251740e-03 -3.505604714155197144e-02 8.666575700044631958e-02 -1.373355276882648468e-02 5.977033451199531555e-02 -2.663950249552726746e-02 8.514272421598434448e-02 -4.475678130984306335e-02 1.988831460475921631e-01 5.086575448513031006e-02 -9.899567812681198120e-03 -4.857409279793500900e-03 -9.920620918273925781e-02 1.160003840923309326e-01 2.232387661933898926e-01 1.323845982551574707e-01 3.559519350528717041e-02 1.244341805577278137e-01 1.329177804291248322e-02 -2.937106788158416748e-02 1.208199094980955124e-02 1.473180502653121948e-01 4.305551946163177490e-02 6.700875610113143921e-02 5.242726951837539673e-02 -6.595788057893514633e-03 -1.389881968498229980e-02 9.935981780290603638e-02 -1.413339376449584961e-01 -1.181405708193778992e-01 1.060843002051115036e-02 2.922903001308441162e-02 2.762740477919578552e-02 -7.557150907814502716e-03 1.165027916431427002e-01 -8.015886694192886353e-02 -3.286766353994607925e-03 -5.296771228313446045e-02 -9.141502529382705688e-02 6.590288877487182617e-02 1.682814210653305054e-01 -1.140460073947906494e-01 -1.481474470347166061e-02 -1.703287065029144287e-01 -2.071535214781761169e-02 -3.079202957451343536e-03 2.336368896067142487e-03 1.069217994809150696e-01 -1.022931262850761414e-01 -1.678783260285854340e-02 -9.893622994422912598e-02 8.526841551065444946e-02 6.462863087654113770e-02 7.720809429883956909e-02 3.489910811185836792e-02 8.519059419631958008e-02 -4.483776167035102844e-02 1.850078552961349487e-01 -1.225335821509361267e-01 6.276400387287139893e-02 9.019390493631362915e-02 4.120279103517532349e-03 2.311929501593112946e-02 -1.245234385132789612e-01 -8.917895704507827759e-02 -1.342664361000061035e-01 -4.550152644515037537e-02 -9.442057460546493530e-02 -6.219640374183654785e-02 1.182433292269706726e-01 7.114572823047637939e-02 6.251491722650825977e-04
-9.480375051498413086e-02 -2.033662796020507812e-01 2.539680600166320801e-01 -1.021085530519485474e-01 -5.656431615352630615e-02 1.661850810050964355e-01 5.482123233377933502e-03 1.536915749311447144e-01 2.092312276363372803e-01 -8.505903929471969604e-02 -7.134096324443817139e-02 -4.275677725672721863e-02 -1.611329764127731323e-01 2.663649022579193115e-01 -5.338329821825027466e-02 -5.262037366628646851e-02 -1.068824455142021179e-01 4.626855254173278809e-03 -6.796235591173171997e-02 1.342955678701400757e-01 1.058547571301460266e-01 3.816434741020202637e-02 -3.148952871561050415e-02 -1.611393839120864868e-01 1.310481727123260498e-01 -2.283044345676898956e-02 2.807405218482017517e-02 6.777138262987136841e-02 -7.972954958677291870e-02 -9.494639933109283447e-02 5.940516293048858643e-02 -2.106336206197738647e-01 -1.187533885240554810e-01 2.039724141359329224e-01 2.258615382015705109e-02 3.414286673069000244e-02 9.260007739067077637e-02 7.343898713588714600e-02 1.203805208206176758e-01 1.597397178411483765e-01 9.905297309160232544e-02 4.352800920605659485e-02 8.210297673940658569e-02 2.631697356700897217e-01 -1.010393574833869934e-01 1.211685538291931152e-01 3.912169113755226135e-02 1.692989468574523926e-02 -1.625459641218185425e-01 -3.431164845824241638e-02 -5.222199857234954834e-02 -7.691475003957748413e-02 5.681531876325607300e-02 -8.801902830600738525e-02 1.283683776855468750e-01 8.677948266267776489e-02 1.027514562010765076e-01 5.240327212959527969e-03 9.499088674783706665e-02 -8.951530605554580688e-02 -1.154146715998649597e-02 -1.617387980222702026e-01 6.089727208018302917e-02 -2.490503787994384766e-01 1.022350639104843140e-01 4.763174802064895630e-02 -9.737416356801986694e-02 -6.322038918733596802e-02 1.452650278806686401e-01 1.299939900636672974e-01 -6.865815725177526474e-03 -7.982868701219558716e-02 6.120784580707550049e-02 -5.621339380741119385e-02 7.409442961215972900e-02 8.454162627458572388e-02 1.045238673686981201e-01 4.173206165432929993e-02 1.812138110399246216e-01 3.686387091875076294e-02 6.208970770239830017e-02 1.113937702029943466e-02 -3.167021786794066429e-03 6.403990089893341064e-02 6.894794106483459473e-02 -1.789793372154235840e-01 7.911471277475357056e-02 8.835201710462570190e-02 1.649793796241283417e-02 4.928708821535110474e-02 1.481125503778457642e-02 1.002317219972610474e-01 2.227908372879028320e-02 -1.444671750068664551e-01 -2.535846233367919922e-01 1.052796915173530579e-01 7.936556637287139893e-02 7.874299585819244385e-02 2.422156557440757751e-02 -1.538979709148406982e-01 6.350748240947723389e-03 1.047383993864059448e-01 6.176311522722244263e-02 1.427057087421417236e-01 -1.134383771568536758e-02 1.390737891197204590e-01 3.163712844252586365e-02 -1.519198436290025711e-02 -2.093298360705375671e-02 5.169327184557914734e-02 1.380960643291473389e-01 1.767364293336868286e-01 6.222916394472122192e-02 5.031261965632438660e-02 -8.876401185989379883e-02 6.830574572086334229e-02 1.520161982625722885e-02 9.796190075576305389e-03 -7.376164197921752930e-02 -5.751799419522285461e-02 4.928955063223838806e-02 -1.121179014444351196e-01 6.506589800119400024e-02 -9.766229987144470215e-02 -1.356287449598312378e-01 -2.629112303256988525e-01 -9.503763169050216675e-02 -1.283681243658065796e-01 2.586319111287593842e-02 2.860938943922519684e-02 2.300965227186679840e-02 7.082813233137130737e-02 -6.574679911136627197e-02 7.715242356061935425e-02 2.291602492332458496e-01 -1.056976243853569031e-01 5.452315136790275574e-02 -1.000340953469276428e-01 1.262754797935485840e-01 -7.167059183120727539e-02 1.159507930278778076e-01 3.889906406402587891e-02 1.053383201360702515e-02 -3.816875815391540527e-02 8.861601352691650391e-02 5.466278269886970520e-02 1.692865937948226929e-01 -7.259292155504226685e-02 8.129986375570297241e-02 6.074428185820579529e-02 -3.523259982466697693e-02 6.497088819742202759e-02 -1.159858778119087219e-01 -1.139684394001960754e-01 -7.764903455972671509e-02 7.607506215572357178e-02 -1.358295828104019165e-01 4.265297949314117432e-02 4.311595112085342407e-02 -9.792375564575195312e-02 -9.897009283304214478e-02 -2.731809020042419434e-02 -1.548288613557815552e-01 -1.014305874705314636e-01 1.379121281206607819e-02 -1.489963103085756302e-02 1.203946303576231003e-02 5.451589077711105347e-02 -6.767924129962921143e-02 1.615302823483943939e-02 -1.043848767876625061e-01 -1.622728072106838226e-02 8.974374085664749146e-02 2.068089134991168976e-02 -8.857524394989013672e-02 2.316866815090179443e-02 -3.980480507016181946e-02 -6.653060019016265869e-02 4.956124722957611084e-02 -1.043069884181022644e-01 -1.162604466080665588e-01 -1.415698509663343430e-02 -1.006952952593564987e-02 -1.197331398725509644e-01 -1.734748110175132751e-02 -6.206199154257774353e-02 4.228731617331504822e-02 1.520293802022933960e-01 2.048726193606853485e-02 -8.639714121818542480e-02 1.273657828569412231e-01 -4.675712063908576965e-02 5.420581251382827759e-02 3.954460844397544861e-03 -8.010402321815490723e-03 -1.604687422513961792e-02 8.566267788410186768e-02 -2.937052398920059204e-02 -1.317780911922454834e-01 -2.630482241511344910e-02 -3.030537441372871399e-02 5.037196725606918335e-02 1.750659793615341187e-01 -2.690907008945941925e-02 1.565800234675407410e-02 1.155359670519828796e-01 1.620382666587829590e-01
-3.218481317162513733e-02 4.901709035038948059e-02 3.625915944576263428e-02 -6.567566096782684326e-02 1.943514496088027954e-01 5.869417265057563782e-02 2.552915737032890320e-02 4.716296866536140442e-02 -8.303090929985046387e-03 -9.725148975849151611e-02 -6.734703481197357178e-02 1.217124015092849731e-01 5.542334634810686111e-03 4.120049625635147095e-02 1.183899566531181335e-01 -9.635727852582931519e-02 1.373988986015319824e-01 8.341831155121326447e-03 9.109503030776977539e-02 2.961444668471813202e-03 -8.978916704654693604e-02 9.316623210906982422e-02 3.086751326918601990e-02 8.370593190193176270e-02 2.607309520244598389e-01 -4.652163013815879822e-02 1.161804497241973877e-01 -9.974597394466400146e-02 4.339610040187835693e-02 -4.464960843324661255e-02 2.454962581396102905e-02 -7.351806014776229858e-02 2.686016820371150970e-02 6.683543790131807327e-03 -6.387996952980756760e-03 -4.577197507023811340e-02 5.226940382272005081e-03 1.090054214000701904e-02 3.413997590541839600e-02 3.168280050158500671e-02 1.395709365606307983e-01 5.558247212320566177e-03 5.505530908703804016e-02 -1.072308048605918884e-01 -8.841171860694885254e-02 6.008346378803253174e-02 -3.364093229174613953e-02 1.506480723619461060e-01 1.388524752110242844e-02 -2.324352562427520752e-01 -8.787328749895095825e-02 -3.281861916184425354e-02 -7.629647850990295410e-02 -1.774055212736129761e-01 -8.100775629281997681e-02 1.548125445842742920e-01 -1.538164615631103516e-01 1.083469688892364502e-01 -1.547979414463043213e-01 -9.150431305170059204e-02 9.445858746767044067e-02 3.811943158507347107e-02 -7.820277661085128784e-02 1.356633156538009644e-01 7.541000097990036011e-02 8.099114149808883667e-02 1.483398675918579102e-02 8.855513483285903931e-02 -6.913043558597564697e-02 -1.533844172954559326e-01 5.541158467531204224e-02 5.843312665820121765e-02 9.619235247373580933e-02 1.093800459057092667e-02 1.370301842689514160e-02 -8.565273135900497437e-02 -5.736622214317321777e-02 4.123703017830848694e-02 5.573583301156759262e-03 -5.850506573915481567e-02 6.678792089223861694e-02 -6.864592432975769043e-02 -6.093873828649520874e-02 8.805866539478302002e-02 1.641459763050079346e-01 6.912150979042053223e-02 -7.764777541160583496e-02 -1.718732267618179321e-01 1.120838373899459839e-01 -1.732446402311325073e-01 4.933153092861175537e-02 4.723667632788419724e-03 1.593339070677757263e-02 -1.916923671960830688e-01 -2.694757655262947083e-02 9.673189371824264526e-02 -1.211329177021980286e-01 -1.347487419843673706e-01 -1.296517699956893921e-01 5.983309075236320496e-02 3.846013173460960388e-02 1.602181196212768555e-01 3.390406444668769836e-02 1.971427164971828461e-02 -6.086340919137001038e-02 -2.301366813480854034e-02 1.337731033563613892e-01 2.487590163946151733e-02 4.626846872270107269e-03 -7.942745462059974670e-03 -1.980622559785842896e-01 -1.156096979975700378e-01 1.633860617876052856e-01 -1.260693818330764771e-01 3.487022593617439270e-02 -1.258088350296020508e-01 -5.435093492269515991e-02 -1.009613275527954102e-01 -9.492399543523788452e-02 6.609085202217102051e-02 -1.476856172084808350e-01 9.015730582177639008e-03 -5.932063236832618713e-02 5.575836449861526489e-02 1.033766288310289383e-02 9.180312603712081909e-02 2.690568938851356506e-02 -1.238524168729782104e-01 3.274397924542427063e-02 -3.374757245182991028e-02 1.028685942292213440e-01 1.206403002142906189e-01 -5.241492763161659241e-03 6.785070896148681641e-02 6.443603895604610443e-03 2.088655382394790649e-01 4.520614817738533020e-02 -5.429054796695709229e-02 1.390138566493988037e-01 -7.125085592269897461e-02 6.286324001848697662e-03 -1.133367326110601425e-02 -2.588639594614505768e-02 5.514569953083992004e-02 1.144412234425544739e-01 1.763480007648468018e-01 -1.232107877731323242e-01 1.274440884590148926e-01 -1.772342771291732788e-01 1.472768187522888184e-01 1.416837722063064575e-01 -1.154305227100849152e-02 1.014809906482696533e-01 -2.331877648830413818e-01 -9.231448173522949219e-02 1.743540167808532715e-01 -3.938415274024009705e-02 1.093996912240982056e-01 5.845042411237955093e-03 -6.915888935327529907e-02 -6.753235310316085815e-02 1.287007927894592285e-01 9.875626116991043091e-02 -1.709245517849922180e-02 -4.591909795999526978e-02 -1.452267616987228394e-01 5.303430836647748947e-03 -3.104909881949424744e-02 -1.086937785148620605e-01 -1.255360152572393417e-02 -8.305909484624862671e-02 7.820768654346466064e-02 8.554525673389434814e-02 -9.003930538892745972e-02 -1.932377666234970093e-01 2.886401861906051636e-02 -4.925831779837608337e-02 -4.754807800054550171e-02 -6.704959273338317871e-02 -1.345887631177902222e-01 1.109921857714653015e-01 3.854684904217720032e-02 -5.453125387430191040e-02 -8.626294881105422974e-02 1.067702621221542358e-01 4.191830009222030640e-02 -2.644635923206806183e-02 1.029356941580772400e-02 1.486556529998779297e-01 4.644735157489776611e-02 1.454687025398015976e-02 -3.148322552442550659e-02 -6.992443650960922241e-02 -3.086099587380886078e-02 -1.058390364050865173e-01 1.241952329874038696e-01 1.060577854514122009e-01 2.043047361075878143e-02 -3.913390636444091797e-02 -1.426163464784622192e-01 9.871607273817062378e-02 1.143905669450759888e-01 6.448318809270858765e-02 -1.029334366321563721e-01 -1.441401522606611252e-02 -2.387486696243286133e-01 -1.137436404824256897e-01
6.975582242012023926e-02 8.167111128568649292e-02 -1.827042363584041595e-02 -8.954092115163803101e-02 -5.627567414194345474e-03 7.288246601819992065e-02 1.202566102147102356e-01 7.579022645950317383e-02 7.005764544010162354e-02 -1.435249596834182739e-01 -9.774529188871383667e-02 4.404893890023231506e-02 1.150062456727027893e-01 -5.510648339986801147e-02 -5.543549358844757080e-02 2.532639354467391968e-02 5.978452786803245544e-02 -1.353542804718017578e-01 -9.850797802209854126e-02 -4.899198561906814575e-02 -1.712604984641075134e-02 -9.044666588306427002e-02 -5.684519186615943909e-02 1.288094520568847656e-01 -5.657664686441421509e-02 -3.211126103997230530e-02 -1.099292072467505932e-03 -5.642763152718544006e-02 9.833927452564239502e-02 7.863403856754302979e-02 -3.063931688666343689e-02 7.147106225602328777e-04 -5.451343208551406860e-02 5.339118465781211853e-02 -1.194852404296398163e-02 -4.844546318054199219e-02 5.785134807229042053e-02 2.020919620990753174e-01 8.208564668893814087e-02 7.515543699264526367e-02 -5.533245205879211426e-02 -2.824212983250617981e-02 7.134981453418731689e-02 -1.023111585527658463e-02 3.334144502878189087e-02 1.031850650906562805e-01 3.953030332922935486e-02 -9.697536937892436981e-03 -6.905177608132362366e-03 -1.099757179617881775e-01 7.883491925895214081e-03 -1.394098401069641113e-01 9.089369326829910278e-03 -1.265330798923969269e-02 -1.041388064622879028e-01 9.311230480670928955e-02 -5.654647201299667358e-02 7.860285788774490356e-02 -5.531205236911773682e-02 7.472411543130874634e-02 -7.836019247770309448e-02 -3.858003392815589905e-02 2.950200736522674561e-01 7.423122972249984741e-02 -7.487524300813674927e-02 -8.447166532278060913e-02 -7.028820365667343140e-02 -6.240759044885635376e-02 -2.264704555273056030e-02 1.053052470088005066e-01 -1.424244232475757599e-02 7.425007969141006470e-02 1.850316487252712250e-02 -1.588206156156957150e-03 -5.976393818855285645e-02 -5.466489866375923157e-02 7.976439595222473145e-02 1.880702376365661621e-01 4.139691963791847229e-02 -2.287556231021881104e-02 -8.631870895624160767e-02 9.378890693187713623e-02 -6.201026588678359985e-02 1.297815237194299698e-02 -9.595353901386260986e-02 2.701658569276332855e-02 1.055469438433647156e-01 -2.676122635602951050e-02 -8.885759860277175903e-03 -5.198140069842338562e-02 8.784897625446319580e-02 -1.346490681171417236e-01 4.474329203367233276e-02 2.143538892269134521e-01 3.153257668018341064e-01 -1.510570496320724487e-01 -1.030307449400424957e-02 9.880792349576950073e-02 7.928848266601562500e-02 1.000458076596260071e-01 6.593206524848937988e-02 -7.065575569868087769e-02 1.953622559085488319e-03 -7.944121025502681732e-03 6.518507748842239380e-02 1.009108424186706543e-01 8.326663076877593994e-02 5.362736806273460388e-02 -1.111045405268669128e-01 -2.799636125564575195e-02 5.659639835357666016e-02 -4.690673202276229858e-02 -1.672597378492355347e-01 4.303300287574529648e-03 1.368246413767337799e-02 -1.060209348797798157e-01 -6.326348986476659775e-03 2.364773117005825043e-02 9.498372673988342285e-02 1.792457915144041181e-04 2.537272274494171143e-01 7.380266487598419189e-02 1.013355106115341187e-01 -8.024025708436965942e-02 2.458449155092239380e-01 1.056432723999023438e-01 -6.559316068887710571e-02 7.908485084772109985e-02 -9.525094926357269287e-02 2.134156674146652222e-01 -1.269666403532028198e-01 1.151878386735916138e-01 6.674062460660934448e-02 -9.053232520818710327e-02 -1.496909409761428833e-01 5.049544945359230042e-02 -5.878490954637527466e-02 -9.975142776966094971e-02 1.633889228105545044e-02 -2.241695998236536980e-03 -1.282465904951095581e-01 -2.291424013674259186e-02 -8.141589350998401642e-03 1.711085587739944458e-01 1.777164489030838013e-01 -2.129499614238739014e-02 -1.109286621212959290e-01 6.247480586171150208e-02 -1.016608346253633499e-02 -1.392414569854736328e-01 6.878703832626342773e-02 1.634464412927627563e-01 -7.762236148118972778e-02 -4.237677529454231262e-02 -1.514356285333633423e-01 6.512573361396789551e-02 -1.387543324381113052e-02 -5.669812858104705811e-02 -7.297022268176078796e-03 -1.245145723223686218e-01 -1.668360531330108643e-01 1.867372728884220123e-02 5.750856176018714905e-02 6.773767620325088501e-02 3.859506547451019287e-02 1.672651804983615875e-02 -5.214758962392807007e-02 2.630704827606678009e-02 -1.544457077980041504e-01 -1.589030474424362183e-01 -2.039336115121841431e-01 1.930449008941650391e-01 -7.408185303211212158e-02 -1.401284337043762207e-01 -1.076652109622955322e-01 3.740131109952926636e-02 -7.271704822778701782e-02 -1.047863960266113281e-01 6.022318080067634583e-02 1.511808931827545166e-01 9.387624263763427734e-02 1.922531053423881531e-02 1.093915179371833801e-01 8.973529934883117676e-02 -1.473257839679718018e-01 -9.826450794935226440e-02 -1.288246810436248779e-01 9.758986532688140869e-02 -3.491898998618125916e-02 9.100545942783355713e-02 -1.844198256731033325e-01 -2.430266328155994415e-02 -6.418444216251373291e-03 -6.462948024272918701e-02 -3.268814459443092346e-02 6.337561458349227905e-02 -1.746977120637893677e-02 -3.073311224579811096e-02 -6.344824284315109253e-02 2.373979240655899048e-02 2.694141268730163574e-01 3.515119105577468872e-02 4.852965008467435837e-03 -7.618434727191925049e-03 -1.283171921968460083e-01 8.955443650484085083e-02 -1.376640349626541138e-01
1.662966609001159668e-01 8.663053065538406372e-02 1.659391671419143677e-01 -6.335840094834566116e-03 6.291029602289199829e-02 -1.216142997145652771e-02 -6.435723975300788879e-03 -8.474390208721160889e-02 -1.899729818105697632e-01 -5.751113221049308777e-02 -1.244796067476272583e-01 -7.886735722422599792e-03 -1.123932972550392151e-01 -9.143360890448093414e-03 -4.909183457493782043e-02 -6.931286305189132690e-02 -7.520937360823154449e-03 2.590799890458583832e-02 5.100222676992416382e-02 -7.332656532526016235e-02 -2.526136860251426697e-02 9.410141967236995697e-03 -2.458378672599792480e-02 3.144300729036331177e-02 -6.152305752038955688e-03 -9.390851482748985291e-03 -2.034822255373001099e-01 2.250323258340358734e-02 -4.616137966513633728e-02 6.339349597692489624e-02 7.486878894269466400e-03 2.358181178569793701e-01 -1.685291156172752380e-02 1.339582949876785278e-01 -3.398915007710456848e-02 3.753434866666793823e-03 1.119229570031166077e-01 -1.158453430980443954e-02 -3.624411299824714661e-02 -3.598126024007797241e-02 6.209804862737655640e-02 -1.175718754529953003e-01 1.600378900766372681e-01 -8.556997776031494141e-02 -1.935464441776275635e-01 7.441691309213638306e-02 -1.702169328927993774e-02 -1.167342737317085266e-01 1.223692949861288071e-02 -7.795156538486480713e-02 -1.230277791619300842e-01 -9.629110246896743774e-02 -3.061650507152080536e-02 1.671305857598781586e-02 3.602743148803710938e-02 -1.751291006803512573e-01 -1.064415425062179565e-01 1.582003012299537659e-02 1.291332244873046875e-01 1.318216770887374878e-01 2.886957488954067230e-02 2.702719531953334808e-02 -3.505305154249072075e-03 1.513278335332870483e-01 1.294036805629730225e-01 -8.793061226606369019e-02 -1.298026647418737411e-02 -1.057222560048103333e-01 1.325642317533493042e-01 3.584732115268707275e-02 -1.602370142936706543e-01 9.916741400957107544e-02 -2.561480998992919922e-01 2.834124676883220673e-02 6.473180651664733887e-02 -1.491300575435161591e-02 3.236333653330802917e-02 -4.687245562672615051e-02 1.324334442615509033e-01 1.062842551618814468e-02 8.002652972936630249e-02 7.784693688154220581e-02 -6.866440922021865845e-02 1.308674085885286331e-02 -2.557810842990875244e-01 2.276116609573364258e-01 -1.440377440303564072e-02 8.733713068068027496e-03 -8.009228110313415527e-02 -2.225439064204692841e-02 1.997276395559310913e-02 -8.671274036169052124e-02 1.917028240859508514e-02 8.820829540491104126e-02 1.298702210187911987e-01 -9.395277500152587891e-02 -6.587349344044923782e-03 8.963973075151443481e-02 6.055394187569618225e-02 1.275476962327957153e-01 -9.286380559206008911e-02 -1.652916818857192993e-01 -3.146314248442649841e-02 -2.377147823572158813e-01 4.842082783579826355e-02 -9.460573643445968628e-02 -2.175279334187507629e-02 5.595424212515354156e-03 6.871801614761352539e-02 -1.499186158180236816e-01 7.323928922414779663e-02 -9.791416674852371216e-02 -8.526922017335891724e-02 -1.447611898183822632e-01 -1.992396451532840729e-02 -2.305679395794868469e-02 1.286208331584930420e-01 -6.805410981178283691e-02 3.539688512682914734e-02 2.658745832741260529e-02 -3.769716992974281311e-02 -5.744130909442901611e-02 -1.097560226917266846e-01 -3.342135623097419739e-02 1.976486891508102417e-01 1.398366838693618774e-01 4.773091152310371399e-02 -9.167034178972244263e-02 1.638909727334976196e-01 -5.121880397200584412e-02 6.503690779209136963e-02 -8.388280868530273438e-02 -1.363776810467243195e-02 8.745963871479034424e-02 1.159258186817169189e-01 1.392611116170883179e-01 -3.100796975195407867e-02 -3.678573993965983391e-03 -1.207877099514007568e-01 -1.641746237874031067e-02 -7.942518591880798340e-02 7.499271072447299957e-03 6.977093964815139771e-02 1.539620608091354370e-01 -2.090430855751037598e-01 -4.506635293364524841e-02 -8.659553527832031250e-02 3.086428344249725342e-02 -5.076065659523010254e-02 -1.455486118793487549e-01 4.949472099542617798e-02 1.607377380132675171e-01 1.499978005886077881e-01 -1.004241853952407837e-01 1.386384516954421997e-01 -7.274137437343597412e-02 -8.665338903665542603e-02 -1.857818290591239929e-02 1.174921691417694092e-01 -8.890381455421447754e-02 1.576906442642211914e-01 8.542738854885101318e-02 -5.017773807048797607e-02 -1.691555790603160858e-02 3.011200949549674988e-02 7.913449406623840332e-02 -4.731243476271629333e-02 -1.530165085569024086e-03 1.328570246696472168e-01 -8.122672885656356812e-02 -1.090157330036163330e-01 2.027431130409240723e-01 -5.181392282247543335e-02 7.753261923789978027e-02 -5.096742883324623108e-02 6.097707524895668030e-02 1.270405054092407227e-01 -1.397057715803384781e-02 6.999305635690689087e-02 -3.365807980298995972e-02 -1.872898079454898834e-03 -2.010649628937244415e-02 -1.016807332634925842e-01 3.072948381304740906e-02 3.944772854447364807e-02 -2.587630152702331543e-01 -2.551576867699623108e-02 -5.648710206151008606e-02 2.052888274192810059e-01 7.109859585762023926e-02 8.752326667308807373e-02 -6.511883437633514404e-02 1.177471950650215149e-01 1.998036168515682220e-02 9.819424897432327271e-02 -7.677938789129257202e-02 6.175050977617502213e-03 -1.695866696536540985e-02 -5.708615481853485107e-02 5.583407357335090637e-02 -3.647340461611747742e-02 6.934290379285812378e-02 1.145581901073455811e-01 1.789667457342147827e-01 1.513425111770629883e-01 -1.707778871059417725e-01 9.093663096427917480e-02
-1.236157119274139404e-01 1.043532043695449829e-01 -3.762175887823104858e-02 -8.216772228479385376e-03 1.628747284412384033e-01 -7.027940452098846436e-02 1.212418265640735626e-02 1.834331154823303223e-01 1.789522022008895874e-01 1.074458584189414978e-01 1.000961139798164368e-01 1.059606373310089111e-01 -1.480139940977096558e-01 6.163654848933219910e-02 -1.002399995923042297e-02 -2.327127382159233093e-02 -7.756131887435913086e-02 3.795515000820159912e-02 1.746933162212371826e-02 1.162735000252723694e-01 8.802185952663421631e-02 1.476993411779403687e-01 1.142796501517295837e-01 -3.451636433601379395e-02 5.057807639241218567e-02 6.927496194839477539e-02 4.116309061646461487e-02 1.025513112545013428e-01 8.903952687978744507e-02 8.735240995883941650e-02 7.553228735923767090e-02 1.089162603020668030e-01 3.020582953467965126e-03 -1.177063435316085815e-01 9.277511388063430786e-02 3.279559686779975891e-02 2.309294231235980988e-02 4.144139960408210754e-02 1.911160163581371307e-02 -5.118933320045471191e-02 1.048100180923938751e-02 -1.788528859615325928e-01 1.456706821918487549e-01 7.553230971097946167e-02 9.376212209463119507e-02 2.691178396344184875e-02 4.856226220726966858e-02 -1.021772101521492004e-01 -4.494769871234893799e-02 6.924354285001754761e-02 -4.047238454222679138e-02 2.591765858232975006e-02 -1.814077980816364288e-02 -1.439653150737285614e-02 -2.450650744140148163e-02 1.772515475749969482e-02 4.648628085851669312e-02 6.184866651892662048e-02 1.104125902056694031e-01 4.297865927219390869e-02 -1.006349250674247742e-01 1.375574022531509399e-01 7.966528087854385376e-02 1.627913713455200195e-01 -1.105986419133841991e-03 -1.494903415441513062e-01 1.508587151765823364e-01 1.976190954446792603e-01 1.667285896837711334e-02 -8.513224869966506958e-02 6.307306699454784393e-03 2.319553121924400330e-02 -6.925193965435028076e-02 4.851742088794708252e-02 -1.094037368893623352e-01 6.831664592027664185e-02 1.399002224206924438e-01 -5.619320645928382874e-02 -2.035362124443054199e-01 -2.684861980378627777e-02 -1.317156851291656494e-02 -9.678614139556884766e-02 -7.556503266096115112e-02 1.963744685053825378e-02 7.197762280702590942e-02 -3.722117468714714050e-02 2.003902383148670197e-02 -8.999956399202346802e-02 -6.266207247972488403e-02 8.807899057865142822e-02 2.001820802688598633e-01 -9.025397151708602905e-02 -1.095898523926734924e-01 -1.466391235589981079e-01 2.656196355819702148e-01 3.410455957055091858e-02 -2.486357241868972778e-01 -6.374920159578323364e-02 1.053471267223358154e-01 7.609821110963821411e-02 -9.035474807024002075e-02 4.642958566546440125e-02 -6.111846119165420532e-02 5.228308215737342834e-02 9.677395969629287720e-02 -2.382946014404296875e-01 -7.700289040803909302e-02 1.027223989367485046e-01 -3.373767808079719543e-02 -1.386896967887878418e-01 8.451145142316818237e-02 3.548907814547419548e-03 1.653448492288589478e-01 -6.168549880385398865e-02 9.866940090432763100e-04 -1.079167053103446960e-01 2.229879498481750488e-01 -1.334648728370666504e-01 -2.405345812439918518e-02 -3.083416819572448730e-02 1.780552715063095093e-01 2.139829844236373901e-02 3.998664766550064087e-02 -1.131585706025362015e-02 1.330808401107788086e-01 2.308253049850463867e-01 -1.776312142610549927e-01 -4.909222945570945740e-02 1.069569289684295654e-01 6.079200282692909241e-02 -4.993107542395591736e-02 4.780676588416099548e-02 -4.217024520039558411e-02 1.009792387485504150e-01 -6.977472454309463501e-02 -1.061202362179756165e-01 -1.534348279237747192e-01 8.846886456012725830e-02 -3.499337285757064819e-02 9.005570411682128906e-02 2.874240465462207794e-02 -1.738059073686599731e-01 9.167894721031188965e-02 8.035246282815933228e-02 3.524018079042434692e-02 4.967848956584930420e-02 5.188571289181709290e-02 1.235486492514610291e-01 -7.124078273773193359e-02 -1.417192518711090088e-01 3.089351020753383636e-02 2.104558199644088745e-01 -1.076416019350290298e-02 -3.823779895901679993e-02 -9.222228545695543289e-04 3.764773160219192505e-02 -7.951338589191436768e-02 7.115371525287628174e-02 1.286177337169647217e-01 3.075300902128219604e-02 -8.110249787569046021e-02 9.733267873525619507e-02 -2.000427246093750000e-01 -2.307265438139438629e-02 7.755715399980545044e-02 -9.839542210102081299e-02 -9.015759825706481934e-02 -2.575746551156044006e-02 -6.018732674419879913e-03 -1.577948965132236481e-02 9.176124632358551025e-02 1.019308492541313171e-01 -8.218061178922653198e-02 4.274392500519752502e-02 2.755390945822000504e-03 3.960505127906799316e-02 -2.911290340125560760e-02 9.637083858251571655e-02 2.461712434887886047e-02 -1.022379174828529358e-01 2.737237839028239250e-03 4.262552782893180847e-02 -9.652671962976455688e-02 -1.464065760374069214e-01 -1.677355542778968811e-02 -5.008633062243461609e-02 6.243966519832611084e-02 -2.354478463530540466e-02 -4.638544097542762756e-02 -3.893241286277770996e-02 2.181582450866699219e-01 -2.617255412042140961e-02 -7.494918256998062134e-02 -1.004144642502069473e-02 2.552184276282787323e-02 1.684572100639343262e-01 1.799879372119903564e-01 1.725045442581176758e-01 -7.824194431304931641e-02 -7.553575932979583740e-02 -8.505470305681228638e-02 -1.245604977011680603e-01 -1.846711337566375732e-02 1.943466961383819580e-01 4.989443346858024597e-02 -8.689570426940917969e-02 -1.320466697216033936e-01
1.046516746282577515e-02 -1.271768957376480103e-01 -2.747486345469951630e-03 -5.030116811394691467e-02 -1.100906431674957275e-01 -5.123386532068252563e-02 1.283309608697891235e-01 -6.891165673732757568e-02 -1.363030821084976196e-01 -8.411949127912521362e-02 -4.292160645127296448e-02 -2.288783043622970581e-01 -3.407869115471839905e-02 -5.303992331027984619e-02 5.558053497225046158e-03 1.286981161683797836e-02 -2.031001531577203423e-05 5.305776745080947876e-02 -6.012882292270660400e-02 -5.408900231122970581e-02 -4.477462917566299438e-02 6.273727864027023315e-02 5.341311916708946228e-02 5.121125280857086182e-02 -9.468623436987400055e-03 2.625115215778350830e-01 2.923929691314697266e-01 -3.523521870374679565e-02 3.648931160569190979e-02 1.160072442144155502e-02 5.041640251874923706e-02 -2.761248312890529633e-02 9.909557178616523743e-03 -8.631378412246704102e-02 -7.438168674707412720e-02 4.991303011775016785e-02 -1.360725015401840210e-01 2.502831863239407539e-03 -8.175946772098541260e-02 -1.422682553529739380e-01 -7.264837622642517090e-02 -8.826225996017456055e-03 7.458921521902084351e-02 -1.153858304023742676e-01 2.888756431639194489e-02 -1.074776574969291687e-01 -4.255988821387290955e-02 -2.354489639401435852e-03 1.868924312293529510e-02 -1.130304709076881409e-01 2.659434825181961060e-02 1.641357392072677612e-01 -9.029314666986465454e-02 -5.904894322156906128e-02 -5.768600106239318848e-02 -1.609476804733276367e-01 1.000949740409851074e-01 -7.105977833271026611e-02 2.335608378052711487e-02 -9.883470833301544189e-02 1.571752130985260010e-01 -7.479234039783477783e-02 -8.169161528348922729e-02 2.712510526180267334e-02 -5.632775276899337769e-02 -3.426223620772361755e-02 -8.729230612516403198e-03 -4.962197691202163696e-02 -4.935314506292343140e-02 2.770005166530609131e-01 -1.994718797504901886e-02 -1.125046238303184509e-01 8.970621973276138306e-03 -9.874846786260604858e-02 -8.318312466144561768e-02 5.713619664311408997e-02 -4.465265199542045593e-02 -6.133298948407173157e-02 3.482232242822647095e-02 -1.119136810302734375e-01 -7.424236088991165161e-02 -2.952968887984752655e-02 -1.545061469078063965e-01 5.538977682590484619e-02 1.229294687509536743e-01 -1.126321479678153992e-01 5.633445829153060913e-02 -5.843362212181091309e-02 -9.850075468420982361e-03 6.960371881723403931e-02 7.740171998739242554e-02 5.357759539037942886e-03 1.478367745876312256e-01 5.850226059556007385e-02 1.432482805103063583e-02 8.709497004747390747e-02 9.437858313322067261e-02 1.592848151922225952e-01 -2.647645073011517525e-03 3.698935499414801598e-03 9.577877074480056763e-02 -1.757452338933944702e-01 9.315930306911468506e-02 -6.142250820994377136e-02 -7.069696485996246338e-02 -1.577368192374706268e-02 -3.857308998703956604e-02 9.680166095495223999e-02 1.084399297833442688e-01 2.288108319044113159e-02 1.169884502887725830e-01 -3.557616472244262695e-02 -2.954524941742420197e-02 4.677010700106620789e-02 -6.645756959915161133e-02 -9.603808820247650146e-02 4.646431654691696167e-02 2.810770180076360703e-03 4.851147532463073730e-02 1.568770222365856171e-02 -7.905208319425582886e-02 3.041176497936248779e-01 -7.491876184940338135e-02 -1.479679495096206665e-01 9.161248803138732910e-02 2.659359574317932129e-01 1.639397256076335907e-02 -1.466064155101776123e-01 -1.045779883861541748e-01 -6.583413481712341309e-02 8.010559715330600739e-03 1.331012845039367676e-01 -1.013889443129301071e-02 2.209376730024814606e-02 -1.090049073100090027e-01 -6.803160905838012695e-02 -3.166867047548294067e-02 -3.568214550614356995e-02 1.991771161556243896e-02 -1.436286717653274536e-01 -4.481992684304714203e-03 -3.040301986038684845e-02 -8.797322213649749756e-02 1.412443220615386963e-01 6.947499513626098633e-02 -4.063792526721954346e-02 1.956769675016403198e-01 -5.886637791991233826e-02 1.736797541379928589e-01 5.846429243683815002e-02 -5.477192625403404236e-02 -6.539881974458694458e-02 -9.695287048816680908e-02 -3.994978219270706177e-02 -9.971634298563003540e-02 5.133656784892082214e-02 4.109186679124832153e-02 6.905919313430786133e-02 1.580872386693954468e-01 8.950713276863098145e-02 1.373086217790842056e-02 -9.466233849525451660e-02 1.255482435226440430e-01 1.006939858198165894e-01 9.047858417034149170e-02 4.280375689268112183e-02 -1.309231948107481003e-02 -7.218324393033981323e-02 4.716644436120986938e-02 1.104405336081981659e-02 1.534700840711593628e-01 -1.002963408827781677e-01 9.610295295715332031e-03 -1.153751625679433346e-03 -5.385766923427581787e-02 8.352111279964447021e-02 3.111626021564006805e-02 -8.479033596813678741e-03 8.033514022827148438e-02 2.179719805717468262e-01 -1.416327655315399170e-01 1.141903698444366455e-01 3.880279883742332458e-02 -7.471040636301040649e-02 9.970888495445251465e-02 -1.591033786535263062e-01 -1.047196686267852783e-01 -7.292360812425613403e-02 -6.332716345787048340e-02 -2.141512036323547363e-01 1.528875157237052917e-02 3.036298323422670364e-03 1.879366785287857056e-01 -9.474539011716842651e-02 8.040437102317810059e-02 2.123375236988067627e-02 9.944295138120651245e-02 6.524623930454254150e-02 -1.311065554618835449e-01 2.812975319102406502e-03 3.853003494441509247e-03 -1.104029943235218525e-03 -3.489716351032257080e-02 7.618176192045211792e-02 7.529733330011367798e-02 1.695190966129302979e-01 -5.341056734323501587e-02
-1.388770714402198792e-02 -7.179431617259979248e-02 1.918645352125167847e-01 -1.664525334490463138e-04 -8.543282747268676758e-02 1.668271869421005249e-01 2.076858729124069214e-01 8.479961007833480835e-02 -2.633435092866420746e-02 1.705172657966613770e-01 -1.019958183169364929e-01 2.116712927818298340e-01 -1.786189340054988861e-02 1.069240719079971313e-01 3.690136224031448364e-02 6.624325364828109741e-02 7.797625660896301270e-02 1.064480394124984741e-01 -8.769793808460235596e-02 -4.757079761475324631e-03 -1.499174721539020538e-02 9.226647764444351196e-02 -4.658236354589462280e-02 -6.656611710786819458e-02 1.186737325042486191e-02 7.227619644254446030e-03 -1.669348590075969696e-02 -4.285088181495666504e-02 1.697745621204376221e-01 -1.243317425251007080e-01 -1.145430058240890503e-01 -2.723454870283603668e-02 -1.213174909353256226e-01 2.644284069538116455e-01 -5.144610628485679626e-02 -4.749277606606483459e-02 -1.034343838691711426e-01 -1.371050328016281128e-01 1.188409253954887390e-01 1.363048236817121506e-02 -9.434556216001510620e-02 1.852342486381530762e-01 -9.643823839724063873e-03 1.028854474425315857e-01 1.045254990458488464e-01 7.279821485280990601e-02 -6.848618388175964355e-02 -1.307075284421443939e-02 -1.489063650369644165e-01 5.404504388570785522e-02 7.293568551540374756e-02 1.406199187040328979e-01 -8.784656971693038940e-02 -7.161694020032882690e-02 -1.958997696638107300e-01 7.377819716930389404e-02 -3.305591270327568054e-02 -3.652321547269821167e-02 -2.466258779168128967e-02 2.294702827930450439e-01 -8.400842547416687012e-02 -5.858533084392547607e-02 -2.827275991439819336e-01 -1.513559818267822266e-01 3.214700222015380859e-01 4.084060713648796082e-02 6.506466120481491089e-02 1.346874237060546875e-01 2.817959897220134735e-02 1.066842228174209595e-01 8.705251663923263550e-02 4.142590984702110291e-02 5.025258287787437439e-02 -6.924752146005630493e-02 -2.852738602086901665e-03 -1.459065973758697510e-01 2.004906982183456421e-01 -2.549376711249351501e-02 -2.918561175465583801e-02 4.987357649952173233e-03 7.020041346549987793e-02 2.100814320147037506e-02 -2.844407223165035248e-02 3.200402855873107910e-02 6.628685444593429565e-02 2.395386993885040283e-02 -1.568830311298370361e-01 5.310876294970512390e-02 5.713603645563125610e-02 -1.387414894998073578e-02 3.769371658563613892e-02 1.879426389932632446e-01 5.289115756750106812e-02 -2.360243350267410278e-02 -4.621458798646926880e-02 2.668270170688629150e-01 -5.365246324799954891e-04 3.203922137618064880e-02 1.514788717031478882e-02 3.182955831289291382e-02 1.655701920390129089e-02 -1.019600629806518555e-01 -3.205305710434913635e-02 -7.359077781438827515e-02 -6.259434670209884644e-02 -2.242474630475044250e-02 1.300584971904754639e-01 2.036659568548202515e-01 -1.606063991785049438e-01 -5.628656223416328430e-02 1.692464798688888550e-01 9.060207754373550415e-02 1.910042390227317810e-02 -4.807891696691513062e-02 7.616201788187026978e-02 1.030144765973091125e-01 -1.888997107744216919e-01 1.261765062808990479e-01 -8.385774493217468262e-02 9.107026457786560059e-02 -4.626619070768356323e-02 -9.236682206392288208e-02 1.166320499032735825e-02 -1.103122457861900330e-01 -1.195581182837486267e-01 -1.931898742914199829e-01 2.807831764221191406e-01 -1.424687076359987259e-02 4.056731413584202528e-04 8.782222867012023926e-02 2.406466156244277954e-01 9.535344690084457397e-02 -1.009381264448165894e-01 -1.263607442378997803e-01 -1.688295453786849976e-01 -7.409477606415748596e-03 -4.887631163001060486e-02 8.940437436103820801e-02 3.440732136368751526e-02 6.251518428325653076e-02 1.398818101733922958e-02 -5.439834296703338623e-02 6.882185488939285278e-02 9.796470403671264648e-02 -4.001623392105102539e-02 1.144644804298877716e-02 -5.433905869722366333e-02 -1.152780652046203613e-01 3.574689105153083801e-02 -2.282634750008583069e-02 1.543177813291549683e-01 -5.445676296949386597e-02 1.943202922120690346e-03 -3.449952602386474609e-02 4.626188054680824280e-02 1.285646855831146240e-02 5.326880514621734619e-02 8.995033800601959229e-02 9.530350565910339355e-03 3.090433543547987938e-03 -2.849254757165908813e-03 1.779974400997161865e-01 -4.143177717924118042e-02 -9.043667465448379517e-02 4.545768722891807556e-02 -1.059552654623985291e-01 4.256527870893478394e-02 2.257592976093292236e-02 -1.309927701950073242e-01 -6.097139790654182434e-02 1.903221607208251953e-01 1.069317162036895752e-01 6.690900772809982300e-02 5.162156373262405396e-02 -2.826599776744842529e-02 -2.730093896389007568e-03 1.035512704402208328e-02 5.510488525032997131e-02 -1.304870992898941040e-01 1.914166510105133057e-01 -1.502237375825643539e-02 -8.289314061403274536e-02 -2.392534911632537842e-02 9.808690845966339111e-02 -2.442628890275955200e-02 -4.910360276699066162e-02 4.257834702730178833e-02 2.066988199949264526e-01 1.126547604799270630e-01 2.452848851680755615e-02 1.378269866108894348e-02 4.781947936862707138e-03 -1.144495382905006409e-01 -6.173342838883399963e-02 -1.883560568094253540e-01 3.688949160277843475e-03 -5.983931943774223328e-02 -4.713822156190872192e-02 -2.235841937363147736e-02 1.515353173017501831e-01 -7.171668112277984619e-03 -7.010808214545249939e-03 -1.205176413059234619e-01 1.496710814535617828e-03 -9.659995324909687042e-03 -5.229403451085090637e-02 -1.457173675298690796e-01
-5.804264917969703674e-02 1.779301464557647705e-01 3.351534605026245117e-01 -1.136252209544181824e-01 -5.338617786765098572e-02 -1.897310838103294373e-02 4.730668663978576660e-02 -4.161399602890014648e-02 1.521192193031311035e-01 3.036735206842422485e-02 -1.219284310936927795e-01 -4.544259980320930481e-02 9.740566462278366089e-02 -1.613620901480317116e-03 5.801491066813468933e-02 -8.828588575124740601e-02 -1.327898800373077393e-01 -9.431099891662597656e-02 -5.403392761945724487e-02 -9.456984698772430420e-02 1.739470660686492920e-01 5.318734794855117798e-02 1.004501134157180786e-01 5.601175874471664429e-02 1.755925118923187256e-01 1.009337753057479858e-01 5.364312231540679932e-02 -3.686394169926643372e-02 5.896381288766860962e-02 9.410099126398563385e-03 -1.392888277769088745e-01 -5.514745414257049561e-02 1.983942389488220215e-01 5.144256725907325745e-02 -6.981182843446731567e-02 -1.639948487281799316e-01 -1.248312741518020630e-02 -5.171564593911170959e-02 -1.416533887386322021e-01 1.121179312467575073e-01 -6.174044311046600342e-02 7.533524185419082642e-02 -4.685707390308380127e-02 -1.004064921289682388e-02 1.218011230230331421e-02 9.391071647405624390e-02 -2.009651996195316315e-02 -4.198064282536506653e-02 -2.780600043479353189e-04 4.689982533454895020e-02 -2.165154516696929932e-01 1.327245868742465973e-02 -1.297849044203758240e-02 -5.395194981247186661e-03 1.515891999006271362e-01 8.608969300985336304e-02 -1.632568240165710449e-01 -1.122467219829559326e-01 5.047149583697319031e-02 -1.049226745963096619e-01 -9.797350503504276276e-03 6.945619732141494751e-02 5.508824717253446579e-03 -6.023281067609786987e-02 9.942281991243362427e-02 -1.006863713264465332e-01 -1.351429075002670288e-01 -6.764879822731018066e-02 2.234252989292144775e-01 -1.356188356876373291e-01 1.796028763055801392e-02 -5.093015357851982117e-02 -3.201664611697196960e-02 -6.630388647317886353e-02 -4.761570319533348083e-02 9.519929438829421997e-02 -1.970406435430049896e-02 8.675596117973327637e-02 -4.530266672372817993e-02 1.179354265332221985e-01 3.091704659163951874e-02 -6.570639461278915405e-02 6.906071305274963379e-02 -1.959053426980972290e-01 2.970377914607524872e-02 -3.759384527802467346e-02 -2.262353710830211639e-02 2.564876340329647064e-02 9.359811246395111084e-02 -1.342058181762695312e-01 -3.583825379610061646e-02 -7.638292759656906128e-02 -1.359924972057342529e-01 -1.180671388283371925e-03 1.659246087074279785e-01 2.398260086774826050e-01 -1.175892576575279236e-01 -7.827965915203094482e-02 5.200377851724624634e-02 4.982341825962066650e-02 -2.331568486988544464e-02 4.742436856031417847e-02 -4.012771323323249817e-02 -5.446322727948427200e-03 -1.161790490150451660e-01 1.476692780852317810e-02 1.413305699825286865e-01 5.501417443156242371e-03 -6.604304909706115723e-02 5.584925785660743713e-02 1.946958154439926147e-02 1.240463182330131531e-01 -5.817477405071258545e-02 1.208391599357128143e-02 2.323903515934944153e-02 -9.286147542297840118e-03 5.149292573332786560e-02 6.832952052354812622e-02 -5.452762544155120850e-02 -8.502196520566940308e-03 -3.578995540738105774e-02 -1.927855759859085083e-01 -1.313237398862838745e-01 1.764509454369544983e-02 2.374279871582984924e-02 1.880037784576416016e-01 2.609281837940216064e-01 -2.712111920118331909e-02 -2.077424526214599609e-02 3.630619496107101440e-02 -1.430726959370076656e-03 -2.209186926484107971e-02 -3.885792195796966553e-02 2.457856088876724243e-01 -4.425017535686492920e-02 9.102236479520797729e-02 6.944409012794494629e-02 -1.876245811581611633e-02 -2.719681011512875557e-03 -1.160718575119972229e-01 -4.262972995638847351e-02 8.960805833339691162e-02 -9.518563747406005859e-02 -2.581100910902023315e-02 -1.306800916790962219e-02 9.372884780168533325e-02 2.487456612288951874e-02 3.227387368679046631e-02 1.136586666107177734e-01 -7.065780460834503174e-03 -7.096657902002334595e-02 -9.661843627691268921e-02 -7.502859830856323242e-02 5.618140473961830139e-02 1.176492944359779358e-01 5.518076941370964050e-02 1.068938672542572021e-01 6.396366655826568604e-02 3.063449822366237640e-02 8.075232058763504028e-02 6.351532787084579468e-02 1.045920252799987793e-01 -1.388594787567853928e-02 3.042730689048767090e-02 6.657492369413375854e-02 -5.162618309259414673e-02 -3.799286112189292908e-02 -1.238770224153995514e-02 4.850490391254425049e-02 1.196682900190353394e-01 1.738459467887878418e-01 -6.476888805627822876e-02 8.701410889625549316e-02 -8.716013282537460327e-02 -3.265419974923133850e-02 4.331531003117561340e-02 1.969126760959625244e-01 -1.127785891294479370e-01 3.825314342975616455e-02 -5.921133235096931458e-02 -8.966256864368915558e-03 1.797954589128494263e-01 3.294017165899276733e-02 1.355585604906082153e-01 -1.296717524528503418e-01 1.150682717561721802e-01 -1.053958162665367126e-01 -4.118442162871360779e-02 -3.163766115903854370e-02 3.929799795150756836e-02 1.664789319038391113e-01 5.034385994076728821e-02 -7.004672288894653320e-02 -2.632971704006195068e-01 1.057416647672653198e-01 5.596918240189552307e-02 -5.973559617996215820e-02 -1.442171633243560791e-01 7.595407962799072266e-02 8.733256720006465912e-03 3.813230618834495544e-02 1.977993994951248169e-01 -8.561906963586807251e-02 1.441600769758224487e-01 5.330793559551239014e-02 1.546490341424942017e-01 -1.893875934183597565e-02
-7.666490506380796432e-03 -1.215202640742063522e-02 1.183663159608840942e-01 9.128642082214355469e-02 2.794555388391017914e-02 4.288126900792121887e-02 5.857447534799575806e-02 -2.380602806806564331e-02 -5.579423159360885620e-03 -2.198345493525266647e-03 -6.604997813701629639e-02 1.076225191354751587e-01 -2.297667786478996277e-02 1.224864050745964050e-01 9.965253621339797974e-02 1.199994757771492004e-01 1.212069857865571976e-02 -1.322728246450424194e-01 -6.076581403613090515e-02 4.747321084141731262e-02 5.430198460817337036e-02 -6.365551054477691650e-02 1.412518173456192017e-01 1.097813695669174194e-01 3.636454790830612183e-02 9.703659266233444214e-02 -9.922681376338005066e-03 7.355316728353500366e-02 -5.781364813446998596e-02 -1.254226826131343842e-02 -1.225108727812767029e-01 1.086269244551658630e-01 -1.874833554029464722e-02 8.646342903375625610e-02 1.850115077104419470e-04 3.166854381561279297e-02 9.043635427951812744e-02 1.574929505586624146e-01 1.084800288081169128e-01 -1.207974106073379517e-01 -7.286895066499710083e-02 5.782756581902503967e-02 7.463803514838218689e-03 -1.995739638805389404e-01 1.815587729215621948e-01 1.922385245561599731e-01 -7.327504456043243408e-02 1.410178393125534058e-01 -5.778997391462326050e-02 2.351914765313267708e-03 -6.609381735324859619e-02 3.123411163687705994e-02 4.970635101199150085e-02 -9.363003820180892944e-02 4.149544611573219299e-02 1.676108837127685547e-01 -2.078663185238838196e-02 -1.484898850321769714e-02 -1.712582074105739594e-02 1.430608779191970825e-01 -3.659482300281524658e-02 -1.758655458688735962e-01 9.230416268110275269e-02 -2.015650868415832520e-01 -1.702317595481872559e-02 9.432122111320495605e-02 -8.051626384258270264e-02 1.516754622571170330e-03 1.431524157524108887e-01 -6.236365810036659241e-02 -2.941933088004589081e-02 -4.981954116374254227e-03 3.954178839921951294e-02 2.152697890996932983e-01 -2.528504729270935059e-01 1.660611778497695923e-01 -3.131200000643730164e-02 -1.994894072413444519e-02 -3.823969513177871704e-02 -3.784997155889868736e-03 -9.180902689695358276e-02 4.355988651514053345e-02 2.933777123689651489e-02 7.183531671762466431e-02 9.209413081407546997e-03 -1.736967079341411591e-02 -2.619596384465694427e-02 -1.205498948693275452e-01 1.402160990983247757e-02 1.605599001049995422e-02 6.469719111919403076e-02 -9.480081498622894287e-02 3.924600780010223389e-02 2.795473635196685791e-01 -1.140385568141937256e-01 2.263332717120647430e-02 4.317776486277580261e-02 1.732835359871387482e-02 -7.608908414840698242e-02 1.901904493570327759e-01 -3.493990749120712280e-02 1.322202235460281372e-01 -1.008470803499221802e-01 -2.029606699943542480e-01 -7.089329510927200317e-02 -3.971856087446212769e-02 1.559438109397888184e-01 9.829553216695785522e-02 1.594981402158737183e-01 -2.200913801789283752e-02 1.733388192951679230e-02 1.620146259665489197e-02 9.066016227006912231e-02 2.582369185984134674e-02 -6.506159156560897827e-02 5.378565192222595215e-02 2.815526127815246582e-01 -5.411072634160518646e-03 1.471620518714189529e-02 -3.529914841055870056e-02 -1.266536116600036621e-02 -3.495803847908973694e-02 -9.475883096456527710e-02 9.961116313934326172e-02 -1.087686866521835327e-01 -1.813993006944656372e-01 -4.890328273177146912e-02 -7.676240056753158569e-02 6.566148251295089722e-02 -1.480192691087722778e-01 -1.129138395190238953e-01 3.625835478305816650e-02 1.215226575732231140e-02 9.104179218411445618e-03 1.455583274364471436e-01 2.182223349809646606e-01 -1.019149795174598694e-01 2.819582223892211914e-01 -2.270156517624855042e-03 6.244437023997306824e-02 5.856404826045036316e-02 -2.819283492863178253e-02 6.798268854618072510e-02 1.370349675416946411e-01 -9.285025298595428467e-02 -6.718193739652633667e-02 8.782760240137577057e-03 -9.869306534528732300e-02 -1.178894937038421631e-01 6.614574790000915527e-02 -3.849443793296813965e-02 6.316100805997848511e-02 1.796192489564418793e-02 7.147374749183654785e-02 6.617086380720138550e-02 6.055671349167823792e-02 8.397270739078521729e-02 -8.279981464147567749e-02 1.381842195987701416e-01 -1.745194569230079651e-02 -7.419814169406890869e-02 -6.398398429155349731e-02 3.339715674519538879e-02 -6.411778181791305542e-02 -1.620583818294107914e-03 9.870179742574691772e-02 5.495440959930419922e-02 -5.132913589477539062e-02 1.409210148267447948e-03 9.256085008382797241e-02 -2.832056023180484772e-02 3.171259909868240356e-02 9.537439048290252686e-02 2.311461605131626129e-02 -9.468147903680801392e-02 -1.225223764777183533e-01 -1.490805484354496002e-02 2.694017067551612854e-02 8.364669978618621826e-03 1.324224025011062622e-01 -8.645408600568771362e-02 -8.244672417640686035e-02 -3.284703195095062256e-02 -9.928520023822784424e-02 2.994161285459995270e-02 -6.040072068572044373e-02 -3.468662127852439880e-02 4.604674503207206726e-02 -3.840417833998799324e-03 -1.088176891207695007e-01 -6.781838368624448776e-03 -7.778981328010559082e-02 5.468409135937690735e-02 -4.713685438036918640e-02 6.741701811552047729e-02 -5.404420569539070129e-02 7.854010909795761108e-02 7.207961380481719971e-02 -2.194965183734893799e-01 1.527459267526865005e-02 -5.318520218133926392e-02 -1.340557169169187546e-02 -2.387070842087268829e-02 3.595700487494468689e-02 -4.386590421199798584e-02 -8.457127213478088379e-02 -3.917994350194931030e-02
1.575617939233779907e-01 -3.185673803091049194e-02 2.377823740243911743e-02 -7.051851600408554077e-02 1.180657092481851578e-02 -1.526877880096435547e-01 -6.223207805305719376e-03 5.439702793955802917e-02 1.216708216816186905e-02 1.361187547445297241e-01 3.430267423391342163e-02 1.425378024578094482e-01 1.135116666555404663e-01 7.740680128335952759e-02 7.039846479892730713e-02 2.849763445556163788e-02 -2.412715926766395569e-02 1.407261639833450317e-01 -4.350402578711509705e-02 -1.208604723215103149e-01 2.334058663109317422e-04 3.133261203765869141e-02 4.477920476347208023e-03 6.331969052553176880e-02 1.386722028255462646e-01 1.302112489938735962e-01 -1.277349442243576050e-01 -1.298435479402542114e-01 -1.569094061851501465e-01 -8.237870410084724426e-03 6.261712405830621719e-03 1.508754938840866089e-01 -2.262664735317230225e-01 -6.637699902057647705e-03 -9.052914381027221680e-02 5.273538827896118164e-02 -3.355481103062629700e-02 3.994356468319892883e-02 -1.166229024529457092e-01 7.911197096109390259e-02 1.239145770668983459e-01 5.647619068622589111e-02 -1.104835271835327148e-01 1.050265654921531677e-01 1.121703758835792542e-01 1.598314046859741211e-01 -1.814487017691135406e-02 -2.539114281535148621e-02 8.588621020317077637e-02 8.386871963739395142e-02 -1.609489470720291138e-01 3.475440433248877525e-03 1.155967563390731812e-01 8.314178138971328735e-02 -4.983847215771675110e-02 1.400833856314420700e-02 2.928232774138450623e-02 -1.345513463020324707e-01 2.254181206226348877e-01 1.526015251874923706e-02 -1.471228199079632759e-03 -3.479893133044242859e-02 1.076198369264602661e-01 -1.125426813960075378e-01 -6.347766518592834473e-02 9.134244918823242188e-02 4.595677182078361511e-02 8.946600556373596191e-02 -6.405065208673477173e-02 3.119078464806079865e-02 -1.913061589002609253e-01 8.607817441225051880e-02 1.729750656522810459e-03 -1.696615666151046753e-01 1.176810786128044128e-01 -7.576561719179153442e-02 7.282911986112594604e-02 3.474838286638259888e-02 -2.327513694763183594e-02 -6.358152627944946289e-02 1.482827365398406982e-01 -8.146060258150100708e-02 1.245323717594146729e-01 -2.447007969021797180e-02 -5.048073455691337585e-02 6.906956434249877930e-02 3.672354668378829956e-02 -2.184559032320976257e-02 -7.797441631555557251e-02 -2.363590896129608154e-02 -7.602837681770324707e-02 -7.326794415712356567e-02 6.863415241241455078e-02 9.885480999946594238e-02 -1.549614965915679932e-01 -8.074126392602920532e-02 -6.738057360053062439e-03 2.335777580738067627e-01 3.373665362596511841e-02 1.553824990987777710e-01 7.061029970645904541e-02 6.624478101730346680e-02 -1.005070954561233521e-01 4.436223208904266357e-02 -1.785329282283782959e-01 4.113297909498214722e-02 -2.448021899908781052e-03 1.946434080600738525e-01 -5.208867602050304413e-03 1.045667380094528198e-01 -1.253467351198196411e-01 2.470123115926980972e-03 -8.518856763839721680e-02 1.820312440395355225e-02 3.237353637814521790e-02 6.976484507322311401e-02 8.732969872653484344e-03 2.136720865964889526e-01 -6.949321832507848740e-03 3.363823145627975464e-02 -1.079069729894399643e-02 7.319542765617370605e-02 1.401453651487827301e-02 6.620366126298904419e-03 1.111023277044296265e-01 -1.007967889308929443e-01 -1.246390417218208313e-01 1.168095543980598450e-01 -7.711805868893861771e-03 3.815706074237823486e-02 -1.168697476387023926e-01 5.161458998918533325e-02 -3.214208781719207764e-02 1.764742583036422729e-01 -4.954377934336662292e-02 -5.148070864379405975e-03 1.869926601648330688e-02 -2.063539251685142517e-02 9.788295626640319824e-02 -6.544969044625759125e-03 -2.124878317117691040e-01 -1.331135537475347519e-02 9.102743864059448242e-02 -1.422929205000400543e-02 2.625684626400470734e-02 -6.957450881600379944e-03 1.477972120046615601e-01 -8.732819557189941406e-02 2.686055935919284821e-02 1.961250603199005127e-01 3.041399642825126648e-02 -2.184495180845260620e-01 -1.079700440168380737e-01 4.634443297982215881e-02 -7.326503098011016846e-02 1.556975543498992920e-01 -9.016264975070953369e-02 1.310333982110023499e-02 2.944066748023033142e-02 -1.553020030260086060e-01 5.091644451022148132e-02 -1.270030438899993896e-02 1.211822107434272766e-01 -3.136251866817474365e-02 -1.172285005450248718e-01 -5.748790130019187927e-02 7.591923326253890991e-02 -3.726995363831520081e-02 -3.234143555164337158e-02 -9.562440216541290283e-02 1.956239640712738037e-01 2.059189826250076294e-01 -1.295067369937896729e-01 -2.553861029446125031e-02 -3.977805003523826599e-02 8.429892361164093018e-02 -4.204062744975090027e-02 1.163701564073562622e-01 2.002399042248725891e-02 -8.680605143308639526e-02 -1.457839161157608032e-01 -3.496085479855537415e-02 -5.630334373563528061e-03 -2.175840921700000763e-02 1.176308393478393555e-01 -2.299489527940750122e-01 -1.895416900515556335e-02 -2.049937285482883453e-02 4.242905974388122559e-02 -9.318642318248748779e-02 6.810308247804641724e-02 1.659612655639648438e-01 -3.199192509055137634e-02 1.757580041885375977e-02 2.614664100110530853e-02 1.819504052400588989e-02 8.316102623939514160e-02 1.259889751672744751e-01 -1.549623459577560425e-01 -1.410371717065572739e-02 8.495304733514785767e-02 1.665668189525604248e-02 1.900873892009258270e-02 -4.139949381351470947e-02 -4.323050752282142639e-02 -1.259334981441497803e-01 -4.539667069911956787e-02
