-4.042511880397796631e-01 4.421540498733520508e-01 -4.394483566284179688e-01 6.134610772132873535e-01 1.618156880140304565e-01 -6.754259467124938965e-01 6.480306386947631836e-01 -1.737774491310119629e+00 2.288047224283218384e-02 -7.978956103324890137e-01 -9.482076764106750488e-01 -1.234004616737365723e+00 9.573880434036254883e-01 2.256321460008621216e-01 1.138368010520935059e+00 -6.032771587371826172e+00 2.287962660193443298e-02 -2.536472082138061523e+00 -7.245339751243591309e-01 -9.071550965309143066e-01 5.546801090240478516e-01 -3.956156075000762939e-01 9.821508526802062988e-01 4.487489759922027588e-01 3.876449763774871826e-01 -7.833341360092163086e-01 -7.559940218925476074e-01 3.835978806018829346e-01 -4.435390532016754150e-01 -2.197173595428466797e+00 -2.861814200878143311e-01 -6.866875171661376953e+00 2.895122468471527100e-01 3.013182282447814941e-01 4.460615217685699463e-01 1.267393350601196289e+00 -5.491179943084716797e+00 1.558496206998825073e-01 3.791114091873168945e-01 3.620712459087371826e-01 -5.045293569564819336e-01 -1.168602466583251953e+00 -1.081582307815551758e+00 -1.751291193068027496e-02 -1.664148569107055664e+00 -6.905097007751464844e+00 1.100016713142395020e+00 -8.134745359420776367e-01 1.544928550720214844e-01 2.966079413890838623e-01 5.775569677352905273e-01 1.981980055570602417e-01 -3.790253996849060059e-01 -3.470648825168609619e-01 7.544725537300109863e-01 4.584080278873443604e-01 6.444392204284667969e-01 -1.259018421173095703e+00 4.571784734725952148e-01 -4.714953899383544922e-02 7.889233827590942383e-01 -1.039967656135559082e+00 9.683011770248413086e-01 -9.534009099006652832e-01 3.789422512054443359e-01 1.326960206031799316e+00 2.771190106868743896e-01 9.850074648857116699e-01 -1.674245715141296387e+00 1.200043559074401855e+00 -4.254854023456573486e-01 -1.685944795608520508e+00 -2.807965874671936035e-01 -6.880910396575927734e-01 1.890862882137298584e-01 7.862057685852050781e-01 2.875297367572784424e-01 -5.141955375671386719e+00 4.982023537158966064e-01 9.716086387634277344e-01 -9.489200711250305176e-01 4.033020734786987305e-01 4.436893165111541748e-01 4.040479958057403564e-01 2.559072077274322510e-01 -1.502353787422180176e+00 -9.157800674438476562e-01 3.703162372112274170e-01 -5.270548343658447266e+00 8.789366483688354492e-01 1.045385360717773438e+00 2.039638757705688477e-01 7.662711739540100098e-01 3.478959500789642334e-01 -7.163192629814147949e-01 1.085042357444763184e+00 5.840738415718078613e-01 1.307857751846313477e+00 1.520055234432220459e-01 3.048346936702728271e-01 3.729282617568969727e-01 2.664841413497924805e-01 6.940972208976745605e-01 -1.360086083412170410e+00 3.288708329200744629e-01 4.987676739692687988e-01 1.162975549697875977e+00 3.491622805595397949e-01 -2.605851173400878906e+00 1.064524173736572266e+00 -5.977241396903991699e-01 2.315196394920349121e-01 3.830951452255249023e-01 4.203757047653198242e-01 -9.604131579399108887e-01 2.800216972827911377e-01 -1.603054285049438477e+00 -3.426062464714050293e-01 4.916523993015289307e-01 6.871262192726135254e-01 2.834061384201049805e-01 4.001711010932922363e-01 1.138379335403442383e+00 -1.058552265167236328e+00 -8.686714172363281250e-01 1.148649752140045166e-01 -1.123633027076721191e+00 -2.172465175390243530e-01 -7.656976580619812012e-01 -2.633525848388671875e+00 -7.281941413879394531e+00 3.767727911472320557e-01 2.450650632381439209e-01 -3.880496740341186523e+00 1.344738006591796875e-01 5.523098707199096680e-01 -1.326686620712280273e+00 -2.813877463340759277e-01 1.316738963127136230e+00 8.513940572738647461e-01 8.567950725555419922e-01 4.920909106731414795e-01 -5.457676887512207031e+00 6.540864109992980957e-01 -1.276202678680419922e+00 -5.023568630218505859e+00 -6.101583480834960938e+00 -1.046390891075134277e+00 8.954465985298156738e-01 6.378949284553527832e-01 -9.359863400459289551e-01 -3.474874496459960938e-01 5.436449646949768066e-01 -2.869441747665405273e+00 -3.183569908142089844e-01 1.820858567953109741e-01 -2.539237499237060547e+00 1.468703895807266235e-01 -1.815117835998535156e+00 9.336648583412170410e-01 -7.388573884963989258e-01 1.054350212216377258e-01 -7.163764953613281250e+00 -8.961581438779830933e-02 2.825834751129150391e-01 5.887211561203002930e-01 5.689148306846618652e-01 -9.994923472404479980e-01 7.317110300064086914e-01 -5.449926853179931641e-01 -5.344723463058471680e-01 4.738618433475494385e-01 4.741627573966979980e-01 -1.833210110664367676e+00 3.832108974456787109e-01 1.021976947784423828e+00 8.018946647644042969e-01 3.441982865333557129e-01 4.994194507598876953e-01 -1.324209094047546387e+00 6.684297919273376465e-01 1.639051437377929688e+00 -8.871306419372558594e+00 -9.837929010391235352e-01 -1.181275725364685059e+00 5.977863669395446777e-01 6.790279746055603027e-01 -5.708711624145507812e+00 1.361074805259704590e+00 -3.607765436172485352e-01 1.280182480812072754e+00 3.328546881675720215e-01 1.063506960868835449e+00 1.612444818019866943e-01 -2.266668319702148438e+00 -4.511247277259826660e-01 1.280348658561706543e+00 2.410060912370681763e-01 2.881398797035217285e-01 3.455062508583068848e-01 4.237178266048431396e-01 -1.692168593406677246e+00 1.631112545728683472e-01 -9.380772709846496582e-01 -7.502907514572143555e-01 2.751598358154296875e-01 2.373762279748916626e-01 6.313101649284362793e-01 1.450292706489562988e+00 -3.996710181236267090e-01 6.814827919006347656e-01 4.201307594776153564e-01 6.822528243064880371e-01 3.297970294952392578e-01 1.170709848403930664e+00 -3.173665761947631836e+00 2.797367572784423828e-01 -2.923427104949951172e+00 4.354739189147949219e-01 6.731999516487121582e-01 4.930557608604431152e-01 3.376513719558715820e-01 -1.318645715713500977e+00 3.057772219181060791e-01 7.261605262756347656e-01 2.248902469873428345e-01 2.347046583890914917e-01 1.459300071001052856e-01 1.993101835250854492e-01 9.691628068685531616e-02 8.363758325576782227e-01 -1.624074578285217285e+00 6.086810827255249023e-01 1.160500884056091309e+00 -2.487998962402343750e+00 2.497565150260925293e-01 4.409535825252532959e-01 -2.208612918853759766e+00 1.561916619539260864e-01 -4.837791621685028076e-01 4.627711176872253418e-01 -5.389695167541503906e-01 3.158547878265380859e-01 7.980943918228149414e-01 -1.229598164558410645e+00 5.383413434028625488e-01 -5.591195821762084961e-01 -1.452253460884094238e+00 9.822067618370056152e-01 3.600735366344451904e-01 5.100560784339904785e-01 -1.473744988441467285e+00 -4.931397438049316406e-01 6.192897260189056396e-02 -6.569866180419921875e+00 -7.025238871574401855e-01
