2.811691462993621826e-01 1.046686768531799316e+00 -7.859134674072265625e-01 -1.266224503517150879e+00 5.753011703491210938e-01 4.617435038089752197e-01 -1.162392997741699219e+01 -1.119093418121337891e+00 4.074199497699737549e-01 -7.650356888771057129e-01 9.155744314193725586e-01 9.237875342369079590e-01 8.470811247825622559e-01 2.208821773529052734e-01 5.317210555076599121e-01 -2.094318389892578125e+00 2.059220075607299805e-01 -7.823961377143859863e-01 8.740503191947937012e-01 -1.669553637504577637e+00 2.199068069458007812e-01 7.638276368379592896e-02 3.996786475181579590e-01 6.941387653350830078e-01 8.414537906646728516e-01 -8.897724151611328125e-01 -2.090931653976440430e+00 3.145759999752044678e-01 -9.856612682342529297e-01 -5.644614696502685547e-01 -9.592416286468505859e-01 7.084861993789672852e-01 2.683993577957153320e-01 -1.816184759140014648e+00 6.274924278259277344e-01 6.366959214210510254e-01 -1.119349002838134766e+00 6.075401306152343750e-01 6.087599396705627441e-01 -8.843104839324951172e-01 -1.739129304885864258e+00 -8.051353693008422852e-01 -1.167709231376647949e+00 3.658002912998199463e-01 5.640830993652343750e-01 3.370017707347869873e-01 9.311149120330810547e-01 4.583718478679656982e-01 -9.607815742492675781e-01 1.027764678001403809e+00 6.043766140937805176e-01 -1.371437311172485352e+00 -8.641475439071655273e-01 9.528844803571701050e-02 1.030058979988098145e+00 1.064877033233642578e+00 -8.743953704833984375e-01 5.092963576316833496e-01 -2.577937841415405273e+00 7.476513385772705078e-01 5.896912813186645508e-01 -6.355981826782226562e-01 5.424076914787292480e-01 7.409040331840515137e-01 6.632335782051086426e-01 4.333477616310119629e-01 7.814130783081054688e-01 1.048632413148880005e-01 5.104280114173889160e-01 6.512596607208251953e-01 3.483495116233825684e-01 8.124672770500183105e-01 -6.882176995277404785e-01 -1.464063763618469238e+00 1.987191289663314819e-01 9.602221250534057617e-01 4.564941227436065674e-01 3.933353126049041748e-01 3.342387378215789795e-01 5.387604832649230957e-01 -1.040088534355163574e+00 2.825575470924377441e-01 -9.364610910415649414e-01 6.042688488960266113e-01 4.401857554912567139e-01 -1.726038217544555664e+00 5.296112895011901855e-01 7.066521644592285156e-01 -9.907349348068237305e-01 8.523581027984619141e-01 7.148741483688354492e-01 3.774878978729248047e-01 7.553154230117797852e-01 7.098539471626281738e-01 1.073781490325927734e+00 3.521089255809783936e-01 5.110345482826232910e-01 1.701718866825103760e-01 -1.708716511726379395e+00 1.966994404792785645e-01 5.172038674354553223e-01 5.239263772964477539e-01 6.785826683044433594e-01 -1.360084056854248047e+00 1.868372261524200439e-01 8.060193657875061035e-01 -1.237985968589782715e+00 3.213644325733184814e-01 -9.748381376266479492e-01 3.232337832450866699e-01 -6.178750395774841309e-01 6.560400724411010742e-01 6.206583976745605469e-01 -5.111678838729858398e-01 -7.568080425262451172e-01 6.225527524948120117e-01 3.399325013160705566e-01 -5.579095482826232910e-01 1.021739840507507324e+00 8.659223914146423340e-01 4.557448327541351318e-01 5.333926081657409668e-01 5.855668783187866211e-01 -4.806386530399322510e-01 2.945502698421478271e-01 6.214605569839477539e-01 -9.660827517509460449e-01 7.747183442115783691e-01 1.024553894996643066e+00 8.352365493774414062e-01 -7.845491170883178711e-01 7.663309574127197266e-01 5.127728581428527832e-01 6.459523439407348633e-01 -4.527795016765594482e-01 3.366115391254425049e-01 -1.673168063163757324e+00 -1.429047942161560059e+00 4.676034152507781982e-01 3.343107402324676514e-01 3.091503977775573730e-01 -2.223930597305297852e+00 1.112297177314758301e+00 5.845903158187866211e-01 6.368511915206909180e-01 6.197279095649719238e-01 -1.640127420425415039e+00 -9.727084040641784668e-01 6.594300270080566406e-01 3.075029551982879639e-01 3.774433732032775879e-01 8.851803541183471680e-01 3.815146684646606445e-01 7.088072896003723145e-01 7.393543124198913574e-01 -7.654261589050292969e-01 1.057769536972045898e+00 4.730246067047119141e-01 8.701295852661132812e-01 6.458035707473754883e-01 -1.146830916404724121e+00 9.089296460151672363e-01 5.829640626907348633e-01 6.019473671913146973e-01 -8.103592395782470703e-01 4.795581996440887451e-01 -8.236998915672302246e-01 -1.257939696311950684e+00 7.473886013031005859e-02 -8.376079201698303223e-01 2.823404371738433838e-01 6.202385425567626953e-01 -9.195829033851623535e-01 3.921201229095458984e-01 -1.347114682197570801e+00 1.552684754133224487e-01 3.463626205921173096e-01 9.736247658729553223e-01 2.277203463017940521e-02 9.324467182159423828e-02 -1.061789393424987793e+00 9.035706520080566406e-01 9.509527683258056641e-01 -3.205430507659912109e-01 -8.633176088333129883e-01 4.761348664760589600e-01 4.211205244064331055e-01 -1.197413802146911621e+00 3.888693153858184814e-01 4.866215586662292480e-01 6.916010379791259766e-01 1.849174499511718750e-01 6.719943881034851074e-01 3.946136534214019775e-01 3.207136094570159912e-01 -7.351204752922058105e-01 5.848038792610168457e-01 6.382050514221191406e-01 6.785228252410888672e-01 8.119449019432067871e-01 9.289811849594116211e-01 5.152946710586547852e-01 5.166809558868408203e-01 -1.835033893585205078e+00 7.036677002906799316e-01 3.622328937053680420e-01 3.843508064746856689e-01 2.395953387022018433e-01 3.523592054843902588e-01 -1.354127287864685059e+00 6.144819259643554688e-01 8.744726777076721191e-01 3.219006359577178955e-01 8.603515028953552246e-01 8.731673955917358398e-01 1.046048164367675781e+00 3.006598949432373047e-01 2.986481487751007080e-01 4.819842875003814697e-01 6.921195983886718750e-01 6.372715830802917480e-01 4.130431115627288818e-01 -6.322099566459655762e-01 -6.891199350357055664e-01 5.955698490142822266e-01 4.417622685432434082e-01 7.318922877311706543e-01 4.313454926013946533e-01 7.020836472511291504e-01 1.173482418060302734e+00 -7.366030812263488770e-01 -8.288984298706054688e-01 3.464820384979248047e-01 9.670082330703735352e-01 -1.109696269035339355e+00 4.161792397499084473e-01 6.443201303482055664e-01 3.420269191265106201e-01 3.444839119911193848e-01 1.028148293495178223e+00 4.735810756683349609e-01 1.296930015087127686e-01 2.512698173522949219e-01 7.969009280204772949e-01 2.600559890270233154e-01 5.189989209175109863e-01 -4.906848669052124023e-01 -9.365504384040832520e-01 6.738976836204528809e-01 5.406090617179870605e-01 5.205300450325012207e-01 3.066785633563995361e-01 -9.937258958816528320e-01 3.781579732894897461e-01 -1.172827005386352539e+00 -2.721038818359375000e+00
