1.803342550992965698e-01 7.603707313537597656e-01 -4.702230453491210938e+00 -2.213275194168090820e+00 -6.817724227905273438e+00 6.142261028289794922e-01 -1.198529720306396484e+00 -3.760334491729736328e+00 -1.266481041908264160e+00 7.741811275482177734e-01 3.499311506748199463e-01 1.362987637519836426e+00 9.513146281242370605e-01 7.570157647132873535e-01 8.319514393806457520e-01 -1.559151172637939453e+00 9.557666182518005371e-01 -3.515369892120361328e+00 1.202380061149597168e+00 1.631752371788024902e+00 -9.274615645408630371e-01 -7.141146063804626465e-01 1.193611025810241699e+00 1.346729040145874023e+00 3.251783132553100586e+00 -1.712569117546081543e+00 -1.338462471961975098e+00 1.094250202178955078e+00 -1.790597438812255859e+00 -2.297057151794433594e+00 -2.491015672683715820e+00 1.179807782173156738e+00 5.082635879516601562e-01 -2.475372552871704102e+00 2.197450399398803711e+00 1.644781470298767090e+00 -2.505946159362792969e+00 1.398646950721740723e+00 1.559423565864562988e+00 1.033949494361877441e+00 6.135632395744323730e-01 -3.622910976409912109e+00 -2.661507606506347656e+00 6.517483592033386230e-01 -1.496632933616638184e+00 -7.225310325622558594e+00 -1.549211740493774414e+00 -3.705360651016235352e+00 1.794372320175170898e+00 1.307355284690856934e+00 -3.593109846115112305e+00 6.010931730270385742e-01 -3.398539543151855469e+00 6.183733940124511719e-01 1.517762303352355957e+00 1.132161498069763184e+00 -2.443262577056884766e+00 5.168419480323791504e-01 -1.182338476181030273e+00 1.876528143882751465e+00 1.755747795104980469e+00 1.588347077369689941e+00 1.413757205009460449e+00 -3.159373760223388672e+00 3.098729848861694336e-01 1.152856349945068359e+00 2.047980546951293945e+00 7.957629561424255371e-01 5.386953353881835938e-01 1.368168950080871582e+00 1.073905348777770996e+00 1.187207922339439392e-01 -8.667407631874084473e-01 -4.686886310577392578e+00 1.790147423744201660e+00 9.042538404464721680e-01 4.902079403400421143e-01 1.704668164253234863e+00 6.780840754508972168e-01 1.036340951919555664e+00 -1.219683647155761719e+01 9.596063494682312012e-01 5.042639374732971191e-01 2.112090349197387695e+00 4.861343801021575928e-01 -2.554070472717285156e+00 7.498410940170288086e-01 1.054647803306579590e+00 -3.558555126190185547e+00 9.391879439353942871e-01 9.966499209403991699e-01 5.400319024920463562e-02 2.785231173038482666e-01 2.647879421710968018e-01 1.377431273460388184e+00 9.847000241279602051e-01 1.365469336509704590e+00 1.466070294380187988e+00 -4.233371257781982422e+00 1.136918187141418457e+00 1.170468211174011230e+00 -8.610756397247314453e-01 1.297443032264709473e+00 -8.682799339294433594e+00 7.778911590576171875e-01 7.474337220191955566e-01 1.166895389556884766e+00 8.586155176162719727e-01 -1.428579449653625488e+00 1.231312155723571777e+00 1.181022524833679199e+00 -6.194519519805908203e+00 2.911686599254608154e-01 -8.913980126380920410e-01 3.633243739604949951e-01 1.613669157028198242e+00 -4.470191001892089844e+00 -3.422482252120971680e+00 3.097639381885528564e-01 1.478767037391662598e+00 8.276371955871582031e-01 9.348529577255249023e-01 2.699730873107910156e+00 8.829140663146972656e-01 1.570659637451171875e+00 1.532505154609680176e+00 -1.056824803352355957e+00 6.639184951782226562e-01 -2.166668653488159180e+00 5.372348427772521973e-01 -1.666834950447082520e+00 1.151681065559387207e+00 1.526329159736633301e+00 -2.063453435897827148e+00 -1.004613876342773438e+00 6.166893839836120605e-01 7.177725434303283691e-01 -1.404751777648925781e+00 6.716614365577697754e-01 1.002084374427795410e+00 1.243610024452209473e+00 1.279703378677368164e+00 6.524416208267211914e-01 5.903217196464538574e-01 1.592646837234497070e+00 4.711819589138031006e-01 4.087853431701660156e-01 -1.065104603767395020e+00 -1.398818492889404297e+00 1.001450777053833008e+00 1.117482066154479980e+00 -5.849662780761718750e+00 6.211494207382202148e-01 4.047531187534332275e-01 4.408615529537200928e-01 -6.453884243965148926e-01 1.410795211791992188e+00 1.511008024215698242e+00 -3.598775863647460938e+00 9.080491065979003906e-01 -1.422630429267883301e+00 1.388295531272888184e+00 1.019149303436279297e+00 9.070222973823547363e-01 -1.023237466812133789e+00 8.949671983718872070e-01 1.049930572509765625e+00 -2.524443149566650391e+00 2.026703357696533203e+00 -2.038599014282226562e+00 -1.338111996650695801e+00 8.420984745025634766e-01 9.549522995948791504e-01 1.801886796951293945e+00 -1.894775748252868652e+00 2.370620489120483398e+00 1.044238805770874023e+00 3.687735795974731445e-01 5.425350069999694824e-01 5.643544197082519531e-01 1.554036378860473633e+00 1.966388106346130371e+00 5.194577574729919434e-01 3.240014910697937012e-01 -1.260071516036987305e+00 -1.669969081878662109e+00 8.883075714111328125e-01 -3.435972213745117188e+00 1.122037529945373535e+00 1.142374396324157715e+00 5.469325780868530273e-01 1.160778284072875977e+00 -4.941805362701416016e+00 9.253675341606140137e-01 4.012476205825805664e-01 -9.427484273910522461e-01 4.308776259422302246e-01 2.042155712842941284e-01 1.532849192619323730e+00 4.512833654880523682e-01 3.694405853748321533e-01 6.020990610122680664e-01 1.719135344028472900e-01 -2.403585672378540039e+00 1.351408600807189941e+00 2.745389699935913086e+00 5.770991444587707520e-01 1.337508797645568848e+00 8.609073162078857422e-01 -1.637654423713684082e+00 1.322166085243225098e+00 1.331687331199645996e+00 -5.912935733795166016e-01 4.438250958919525146e-01 2.827888250350952148e+00 1.134380221366882324e+00 8.818698525428771973e-01 7.571249604225158691e-01 2.396903038024902344e+00 -1.659592151641845703e+00 4.903716742992401123e-01 8.361126184463500977e-01 -4.098694801330566406e+00 -9.970034956932067871e-01 8.534719347953796387e-01 1.682617068290710449e+00 4.673958718776702881e-01 4.521672725677490234e-01 5.596866011619567871e-01 9.111805558204650879e-01 -1.771232724189758301e+00 -2.271941661834716797e+00 1.941408991813659668e+00 1.063157677650451660e+00 7.981633543968200684e-01 6.593785285949707031e-01 8.956707119941711426e-01 -3.973586797714233398e+00 9.112451672554016113e-01 5.615087151527404785e-01 1.446038126945495605e+00 5.342048406600952148e-01 1.476468443870544434e+00 -1.261742264032363892e-01 1.211569786071777344e+00 1.405615210533142090e+00 -1.031196355819702148e+00 -1.571725010871887207e+00 1.030730605125427246e+00 1.023782253265380859e+00 1.735244631767272949e+00 1.644082903861999512e+00 -3.063982486724853516e+00 1.658708333969116211e+00 -7.242844700813293457e-01 1.511605024337768555e+00
