-7.832370400428771973e-01 2.203711681067943573e-02 -7.839051634073257446e-02 1.221818923950195312e-01 -9.032823145389556885e-02 -1.088157296180725098e+00 5.847056955099105835e-02 -1.441418379545211792e-01 -6.964017152786254883e-01 -6.284756064414978027e-01 -1.680260896682739258e+00 9.333609044551849365e-02 9.522452205419540405e-02 2.764329016208648682e-01 -2.685321867465972900e-01 -3.787854671478271484e+00 -1.000504642724990845e-01 -4.748134613037109375e-01 -9.033606052398681641e-01 1.535905338823795319e-02 -7.271543741226196289e-01 -1.227322667837142944e-01 1.673361182212829590e+00 -1.449193120002746582e+00 1.806626021862030029e-01 -4.426289796829223633e-01 7.494926452636718750e-02 1.636597990989685059e+00 -5.367558598518371582e-01 -1.931989789009094238e-01 -1.291145235300064087e-01 9.179402589797973633e-01 6.159667670726776123e-02 -1.180085986852645874e-01 2.486831247806549072e-01 9.540336728096008301e-01 -9.143899083137512207e-01 -1.519243121147155762e+00 3.014883100986480713e-01 7.166572213172912598e-01 -1.384505778551101685e-01 -4.829945266246795654e-01 -1.796064972877502441e-01 -5.144230723381042480e-01 -7.491339445114135742e-01 1.240086629986763000e-01 8.099249564111232758e-03 -4.760424494743347168e-01 1.194141358137130737e-01 1.460920274257659912e-02 -6.242851614952087402e-01 -3.836171329021453857e-01 -5.763982534408569336e-01 2.385502457618713379e-01 1.623089194297790527e+00 8.968223631381988525e-02 4.065811038017272949e-01 -4.420824050903320312e-01 -9.091707468032836914e-01 -1.043052315711975098e+00 -4.718612194061279297e+00 -3.380489349365234375e+00 -7.091701030731201172e-02 1.119517207145690918e+00 4.991563037037849426e-02 1.298563361167907715e+00 -7.718301564455032349e-02 8.579702675342559814e-02 -2.091754674911499023e+00 1.149321496486663818e-01 2.422020398080348969e-02 1.223795786499977112e-01 -6.030551791191101074e-01 -8.799388408660888672e-01 1.340737491846084595e-01 5.750520825386047363e-01 -1.324648380279541016e+00 -1.059275746345520020e+00 1.999397873878479004e-01 9.830270707607269287e-02 -2.425045669078826904e-01 -6.832472681999206543e-01 -4.729264974594116211e-01 6.470161676406860352e-02 3.449138104915618896e-01 9.042633175849914551e-01 -2.339043855667114258e+00 1.440077275037765503e-01 -1.095079183578491211e-01 1.489179432392120361e-01 -1.825852870941162109e+00 2.059014886617660522e-01 6.752716898918151855e-01 7.144068367779254913e-03 2.974842488765716553e-01 1.488242000341415405e-01 6.468773633241653442e-02 -1.033841669559478760e-01 -4.408348500728607178e-01 1.140552759170532227e-01 -8.784580826759338379e-01 -1.199755072593688965e+00 1.033014893531799316e+00 -3.100876808166503906e-01 -7.371469587087631226e-02 1.596040129661560059e-01 1.279203534126281738e+00 1.129187047481536865e-01 -5.451220035552978516e+00 8.693040013313293457e-01 1.010468006134033203e-01 -4.214337468147277832e-02 1.830105930566787720e-01 -3.108310997486114502e-01 8.586595952510833740e-02 2.635121941566467285e-01 -6.791751086711883545e-02 -2.477053850889205933e-01 9.677179455757141113e-01 9.195326566696166992e-01 2.975243628025054932e-01 1.781106889247894287e-01 4.596708714962005615e-01 2.074599564075469971e-01 -1.467565894126892090e-01 9.360414743423461914e-02 -2.492912769317626953e+00 3.622889518737792969e-01 2.388483285903930664e-02 -4.514314234256744385e-01 -2.075637280941009521e-01 1.267894804477691650e-01 9.229244291782379150e-02 -6.401103734970092773e-01 -3.761246204376220703e-01 8.811656385660171509e-02 -1.361242830753326416e-01 -2.248580217361450195e+00 4.986070394515991211e-01 -1.480566859245300293e-01 8.257899284362792969e-01 7.648251205682754517e-02 -1.718504786491394043e+00 8.252288699150085449e-01 9.543092250823974609e-01 -1.634363532066345215e-01 -4.973616123199462891e+00 -1.239290013909339905e-01 5.500115156173706055e-01 6.210377812385559082e-01 -1.832763105630874634e-01 1.475171297788619995e-01 2.297101765871047974e-01 -8.461420536041259766e-01 7.477153837680816650e-02 1.564962118864059448e-01 -2.532699584960937500e+00 -3.848137259483337402e-01 -3.202459096908569336e+00 8.990460038185119629e-01 -4.202173650264739990e-01 2.388039588928222656e+00 -3.455240428447723389e-01 5.997455716133117676e-01 -3.008478879928588867e-01 6.867536902427673340e-01 1.751741886138916016e+00 -1.344606161117553711e+00 -4.503115117549896240e-01 -3.745292723178863525e-01 -1.618103265762329102e+00 -7.460141181945800781e-02 2.999985823407769203e-03 -2.513158321380615234e-01 2.152794152498245239e-01 -1.016861557960510254e+00 5.008499026298522949e-01 -2.172261714935302734e+00 -3.119083940982818604e-01 -1.419417262077331543e-01 9.130474925041198730e-02 1.034073233604431152e-01 -1.956968009471893311e-01 7.270581126213073730e-01 -1.533464491367340088e-01 1.045389249920845032e-01 -5.694054812192916870e-02 -7.075812220573425293e-01 1.059621572494506836e+00 -7.132002115249633789e-01 8.834182024002075195e-01 6.930671632289886475e-02 8.616300225257873535e-01 -4.456206783652305603e-02 -4.411081075668334961e-01 -3.367763042449951172e+00 6.844783574342727661e-02 3.561086952686309814e-01 9.442657828330993652e-01 1.386285275220870972e-01 2.988351583480834961e-01 -2.462242916226387024e-02 -6.046820431947708130e-02 -8.198026657104492188e+00 1.058818221092224121e+00 5.977915599942207336e-02 -2.647040128707885742e+00 -2.685642242431640625e+00 1.336821168661117554e-01 -5.303863286972045898e-01 -3.022257387638092041e-01 -1.689233481884002686e-01 1.239455223083496094e+00 6.788398623466491699e-01 1.252094745635986328e+00 -3.545875072479248047e+00 1.761095374822616577e-01 -2.835040092468261719e-01 -2.092301249504089355e-01 -3.708443880081176758e+00 5.231539607048034668e-01 -3.981836736202239990e-01 -4.676403403282165527e-01 -6.086441874504089355e-01 -3.049356164410710335e-03 2.616307437419891357e-01 -2.354795694351196289e+00 7.420355826616287231e-02 1.235253930091857910e+00 5.624797195196151733e-02 3.343323171138763428e-01 -2.373810261487960815e-01 1.751447618007659912e-01 -3.466707170009613037e-01 -1.689628720283508301e+00 2.058579474687576294e-01 2.647178247570991516e-02 -1.474640607833862305e+00 9.179669022560119629e-01 -4.979709386825561523e-01 1.214435100555419922e-01 -2.216149568557739258e-01 1.894416958093643188e-01 6.241738796234130859e-01 -4.248197078704833984e-01 7.650436162948608398e-01 -5.296797752380371094e-01 -1.167968273162841797e+00 7.916698455810546875e-01 7.854659557342529297e-01 1.814893782138824463e-01 -1.206015706062316895e+00 -1.157144069671630859e+00 1.159770011901855469e+00 -1.606202483177185059e+00 -1.492448091506958008e+00
